\data\
ngram 1=19
ngram 2=249

\1-grams:
-2.2449317	<unk>	0
0	<s>	-3.7284367
-1.2526641	</s>	0
-1.1678846	ADV	-3.7092013
-1.1678846	VERB	-4.0374765
-1.1678846	NOUN	-4.225908
-1.1943473	PUNCT	-3.9690993
-1.2225275	ADP	-3.3974843
-1.1943473	PART	-3.672177
-1.2225275	ADJ	-3.2188106
-1.1678846	PROPN	-3.5990314
-1.1943473	NUM	-3.4577339
-1.2225275	X	-2.4587457
-1.2225275	DET	-3.007709
-1.1943473	CCONJ	-3.045636
-1.1943473	PRON	-3.2669003
-1.285049	SCONJ	-2.333318
-1.3998337	INTJ	-1.1150938
-1.8032827	SPACE	-0.39794

\2-grams:
-3.1892147	ADV </s>
-2.1719604	VERB </s>
-1.9504001	NOUN </s>
-0.30095482	PUNCT </s>
-3.7603269	ADP </s>
-2.9379184	PART </s>
-3.013739	ADJ </s>
-1.9674762	PROPN </s>
-2.0761285	NUM </s>
-2.8427608	X </s>
-3.101433	DET </s>
-3.957298	CCONJ </s>
-3.0657153	PRON </s>
-1.7565802	INTJ </s>
-0.75477475	<s> ADV
-0.848415	ADV ADV
-1.3645737	VERB ADV
-1.1033486	NOUN ADV
-1.1978447	PUNCT ADV
-1.6050837	ADP ADV
-1.5131793	PART ADV
-2.632938	ADJ ADV
-1.3230704	PROPN ADV
-1.7304707	NUM ADV
-1.4910936	X ADV
-1.778429	DET ADV
-1.5398659	CCONJ ADV
-0.6414494	PRON ADV
-1.0247538	SCONJ ADV
-1.8811166	INTJ ADV
-1.1125213	SPACE ADV
-0.9163251	<s> VERB
-0.22227314	ADV VERB
-0.8115975	VERB VERB
-0.77185726	NOUN VERB
-1.133934	PUNCT VERB
-1.0248972	ADP VERB
-0.9337795	PART VERB
-1.793675	ADJ VERB
-0.88176316	PROPN VERB
-1.2828643	NUM VERB
-0.3759729	X VERB
-1.3830545	DET VERB
-0.84685314	CCONJ VERB
-0.42478985	PRON VERB
-0.55523187	SCONJ VERB
-1.4022638	INTJ VERB
-1.1125213	SPACE VERB
-0.68714887	<s> NOUN
-1.2652167	ADV NOUN
-0.6336213	VERB NOUN
-0.61246324	NOUN NOUN
-0.91752666	PUNCT NOUN
-0.365277	ADP NOUN
-0.2830822	PART NOUN
-0.09779923	ADJ NOUN
-0.47099957	PROPN NOUN
-0.43650758	NUM NOUN
-0.5757805	X NOUN
-0.22556241	DET NOUN
-0.28807023	CCONJ NOUN
-1.1377795	PRON NOUN
-0.64938253	SCONJ NOUN
-1.3478044	INTJ NOUN
-0.7515966	SPACE NOUN
-1.4094521	<s> PUNCT
-1.6136979	ADV PUNCT
-0.742914	VERB PUNCT
-0.5893017	NOUN PUNCT
-1.2930526	PUNCT PUNCT
-1.736013	ADP PUNCT
-0.8737923	PART PUNCT
-2.1721065	ADJ PUNCT
-0.7486713	PROPN PUNCT
-1.0042852	NUM PUNCT
-1.6511387	X PUNCT
-2.0999403	DET PUNCT
-1.8452253	CCONJ PUNCT
-1.2605888	PRON PUNCT
-2.2477534	SCONJ PUNCT
-0.11381713	INTJ PUNCT
-1.1035889	<s> ADP
-1.1491722	ADV ADP
-1.4196942	VERB ADP
-1.5503802	NOUN ADP
-1.5797901	PUNCT ADP
-1.9071524	ADP ADP
-2.0540361	PART ADP
-3.183895	ADJ ADP
-1.460443	PROPN ADP
-1.959624	NUM ADP
-2.215613	X ADP
-1.9794004	DET ADP
-1.7131095	CCONJ ADP
-1.1690112	PRON ADP
-1.2956501	SCONJ ADP
-2.2456024	<s> PART
-2.3198452	ADV PART
-0.8896592	VERB PART
-0.934042	NOUN PART
-1.9615588	PUNCT PART
-2.9305294	ADP PART
-1.5582247	PART PART
-0.93241364	ADJ PART
-1.0706887	PROPN PART
-1.2688948	NUM PART
-2.5811448	X PART
-1.9319857	DET PART
-2.8935072	CCONJ PART
-0.82922465	PRON PART
-2.8639503	SCONJ PART
-1.8914145	INTJ PART
-1.7798395	<s> ADJ
-1.8152372	ADV ADJ
-1.4940889	VERB ADJ
-2.1373165	NOUN ADJ
-1.9026277	PUNCT ADJ
-1.3982865	ADP ADJ
-1.2743102	PART ADJ
-1.71902	ADJ ADJ
-1.7580125	PROPN ADJ
-1.4073775	NUM ADJ
-1.6324918	X ADJ
-1.3563349	DET ADJ
-1.3016567	CCONJ ADJ
-2.1799905	PRON ADJ
-1.8549501	SCONJ ADJ
-0.8335049	<s> PROPN
-1.8194596	ADV PROPN
-1.2454357	VERB PROPN
-1.5408082	NOUN PROPN
-1.1322446	PUNCT PROPN
-0.68877906	ADP PROPN
-1.3826277	PART PROPN
-1.6730165	ADJ PROPN
-1.0070968	PROPN PROPN
-1.5872312	NUM PROPN
-1.1317015	X PROPN
-1.5312498	DET PROPN
-0.8857976	CCONJ PROPN
-2.3201673	PRON PROPN
-1.1450391	SCONJ PROPN
-1.4645447	INTJ PROPN
-0.4234567	SPACE PROPN
-1.4465514	<s> NUM
-1.5707976	ADV NUM
-1.3097717	VERB NUM
-1.9458003	NOUN NUM
-1.7448648	PUNCT NUM
-1.3689241	ADP NUM
-1.3928579	PART NUM
-1.8755966	ADJ NUM
-1.7409449	PROPN NUM
-0.50431335	NUM NUM
-1.5612695	X NUM
-0.6285761	DET NUM
-1.3455331	CCONJ NUM
-2.1059475	PRON NUM
-1.680123	SCONJ NUM
-2.122076	INTJ NUM
-2.5429916	<s> X
-1.8919293	ADV X
-2.422816	VERB X
-2.4813764	NOUN X
-2.694232	PUNCT X
-2.7459998	ADP X
-2.5376387	PART X
-3.7807558	ADJ X
-2.5699499	PROPN X
-2.8205943	NUM X
-2.3700523	X X
-2.796031	DET X
-2.5792766	CCONJ X
-2.1895761	PRON X
-2.1366649	SCONJ X
-1.4085355	<s> DET
-2.079008	ADV DET
-1.5862606	VERB DET
-2.579359	NOUN DET
-2.0242183	PUNCT DET
-1.3184884	ADP DET
-1.9211596	PART DET
-3.0530713	ADJ DET
-2.3006976	PROPN DET
-2.7997923	NUM DET
-1.3435981	X DET
-2.464669	DET DET
-1.4948109	CCONJ DET
-2.2910135	PRON DET
-1.3912002	SCONJ DET
-2.1079822	<s> CCONJ
-3.1881626	ADV CCONJ
-2.0847259	VERB CCONJ
-1.4276466	NOUN CCONJ
-2.10182	PUNCT CCONJ
-4.056093	ADP CCONJ
-3.126511	PART CCONJ
-2.5505028	ADJ CCONJ
-1.5356344	PROPN CCONJ
-2.1412706	NUM CCONJ
-3.0959072	X CCONJ
-3.452159	DET CCONJ
-3.1953776	CCONJ CCONJ
-2.0701554	PRON CCONJ
-3.3811877	SCONJ CCONJ
-2.122076	INTJ CCONJ
-0.9776392	<s> PRON
-1.6410942	ADV PRON
-1.407742	VERB PRON
-2.4944203	NOUN PRON
-1.5894891	PUNCT PRON
-1.0988797	ADP PRON
-2.0219028	PART PRON
-3.3412097	ADJ PRON
-2.5009658	PROPN PRON
-2.6060796	NUM PRON
-1.1337363	X PRON
-2.707605	DET PRON
-1.7427393	CCONJ PRON
-2.041662	PRON PRON
-0.7225779	SCONJ PRON
-1.8914145	INTJ PRON
-1.7165061	<s> SCONJ
-2.7423728	ADV SCONJ
-3.2191658	VERB SCONJ
-3.0668097	NOUN SCONJ
-2.3767629	PUNCT SCONJ
-3.455925	ADP SCONJ
-3.8634863	PART SCONJ
-3.486168	PROPN SCONJ
-4.0714784	NUM SCONJ
-4.1349616	DET SCONJ
-3.8334875	CCONJ SCONJ
-2.563448	PRON SCONJ
-3.3198228	SCONJ SCONJ
-3.1919003	<s> INTJ
-4.793384	ADV INTJ
-4.702427	VERB INTJ
-5.0864534	NOUN INTJ
-3.422681	PUNCT INTJ
-4.667639	PART INTJ
-4.4471507	PROPN INTJ
-4.5419164	NUM INTJ
-4.211459	DET INTJ
-1.7882671	INTJ INTJ
-4.9814534	VERB SPACE
-5.1698847	NOUN SPACE
-5.114216	PART SPACE
-5.0410705	PROPN SPACE

\end\
