\data\
ngram 1=21
ngram 2=323

\1-grams:
-2.3709	<unk>	0
0	<s>	-3.6740792
-1.3084887	</s>	0
-1.2569565	NUM	-3.2075944
-1.2569565	NOUN	-4.2837954
-1.2569565	ADP	-4.040579
-1.2569565	PUNCT	-4.0655246
-1.2569565	DET	-3.9772968
-1.2569565	ADJ	-3.831289
-1.2333156	PROPN	-3.9761698
-1.2819587	SCONJ	-3.1027503
-1.2569565	VERB	-4.0223885
-1.2569565	PART	-3.40601
-1.2569565	CCONJ	-3.4806721
-1.2569565	ADV	-3.5570927
-1.2569565	AUX	-3.6216264
-1.2569565	PRON	-3.6490571
-1.2569565	INTJ	-1.9611573
-1.2569565	X	-1.9120449
-1.2569565	SYM	-2.2191768
-2.2362013	SPACE	-0.30103

\2-grams:
-1.5576732	NUM </s>
-2.2263508	NOUN </s>
-3.5978842	ADP </s>
-0.461263	PUNCT </s>
-4.031591	DET </s>
-3.0352108	ADJ </s>
-1.6155522	PROPN </s>
-3.0438302	SCONJ </s>
-2.777217	VERB </s>
-3.3345778	PART </s>
-3.4522364	CCONJ </s>
-2.8014238	ADV </s>
-3.694541	AUX </s>
-3.1318758	PRON </s>
-2.0952637	INTJ </s>
-1.2234042	X </s>
-1.7735703	<s> NUM
-1.413909	NUM NUM
-2.4642527	NOUN NUM
-1.4990461	ADP NUM
-1.7836502	PUNCT NUM
-1.8366032	DET NUM
-2.1159065	ADJ NUM
-1.6085075	PROPN NUM
-1.2842354	SCONJ NUM
-1.9027914	VERB NUM
-2.100982	PART NUM
-1.8182662	CCONJ NUM
-1.6523982	ADV NUM
-2.1271656	AUX NUM
-2.53636	PRON NUM
-2.5477834	INTJ NUM
-2.3022451	X NUM
-0.39073324	SYM NUM
-1.0056599	<s> NOUN
-0.43429592	NUM NOUN
-0.9519183	NOUN NOUN
-0.77283376	ADP NOUN
-1.1248051	PUNCT NOUN
-0.27970904	DET NOUN
-0.20054106	ADJ NOUN
-1.1742295	PROPN NOUN
-1.136439	SCONJ NOUN
-0.9575981	VERB NOUN
-0.8511399	PART NOUN
-0.5994145	CCONJ NOUN
-1.5976989	ADV NOUN
-1.721969	AUX NOUN
-0.7339506	PRON NOUN
-1.058079	INTJ NOUN
-0.78590834	X NOUN
-0.66786504	SYM NOUN
-0.9890258	<s> ADP
-1.0433525	NUM ADP
-0.57420814	NOUN ADP
-1.7576134	ADP ADP
-1.381744	PUNCT ADP
-1.9965371	DET ADP
-1.2089217	ADJ ADP
-1.1272975	PROPN ADP
-1.134458	SCONJ ADP
-0.62217057	VERB ADP
-2.0970156	PART ADP
-1.451139	CCONJ ADP
-0.9781991	ADV ADP
-1.7472101	AUX ADP
-1.4599731	PRON ADP
-1.5352236	INTJ ADP
-1.6713643	X ADP
-2.40271	SYM ADP
-1.4536724	<s> PUNCT
-0.56071925	NUM PUNCT
-0.5666767	NOUN PUNCT
-1.7812157	ADP PUNCT
-1.2358634	PUNCT PUNCT
-1.8096519	DET PUNCT
-1.0855784	ADJ PUNCT
-0.61175174	PROPN PUNCT
-1.6179365	SCONJ PUNCT
-1.1086534	VERB PUNCT
-1.8063718	PART PUNCT
-1.893754	CCONJ PUNCT
-0.76167625	ADV PUNCT
-1.9730877	AUX PUNCT
-1.29077	PRON PUNCT
-0.3413708	INTJ PUNCT
-0.4370767	X PUNCT
-2.812057	SYM PUNCT
-0.73184896	<s> DET
-2.1178277	NUM DET
-1.7035465	NOUN DET
-0.4510182	ADP DET
-1.1195273	PUNCT DET
-1.9890361	DET DET
-2.523877	ADJ DET
-2.219044	PROPN DET
-0.563484	SCONJ DET
-0.7247984	VERB DET
-1.7955887	PART DET
-0.9501408	CCONJ DET
-1.1991582	ADV DET
-1.1175334	AUX DET
-1.7648716	PRON DET
-1.566484	INTJ DET
-1.7306862	X DET
-2.682329	SYM DET
-1.3206562	<s> ADJ
-1.2791239	NUM ADJ
-2.0359135	NOUN ADJ
-1.0703871	ADP ADJ
-1.4535654	PUNCT ADJ
-0.66383576	DET ADJ
-1.090196	ADJ ADJ
-2.2659688	PROPN ADJ
-1.2424263	SCONJ ADJ
-1.1388745	VERB ADJ
-1.2040069	PART ADJ
-0.957649	CCONJ ADJ
-0.88304865	ADV ADJ
-1.2883661	AUX ADJ
-1.2046077	PRON ADJ
-1.8874499	INTJ ADJ
-1.3522083	X ADJ
-1.530974	SYM ADJ
-0.8125566	<s> PROPN
-1.2941579	NUM PROPN
-1.7934685	NOUN PROPN
-0.7228863	ADP PROPN
-0.9868115	PUNCT PROPN
-0.9628839	DET PROPN
-1.4280365	ADJ PROPN
-0.5089568	PROPN PROPN
-1.0718051	SCONJ PROPN
-1.4862008	VERB PROPN
-1.4230561	PART PROPN
-1.0406921	CCONJ PROPN
-1.8476098	ADV PROPN
-2.0711362	AUX PROPN
-1.9497404	PRON PROPN
-1.3166903	INTJ PROPN
-0.87494636	X PROPN
-0.51224494	SYM PROPN
-0.2763652	SPACE PROPN
-1.595774	<s> SCONJ
-2.4011366	NUM SCONJ
-1.9860826	NOUN SCONJ
-2.5877645	ADP SCONJ
-1.94974	PUNCT SCONJ
-3.6168954	DET SCONJ
-1.7104824	ADJ SCONJ
-2.4850953	PROPN SCONJ
-1.7062435	SCONJ SCONJ
-1.426692	VERB SCONJ
-2.9084117	PART SCONJ
-1.8925414	CCONJ SCONJ
-1.7504327	ADV SCONJ
-2.1705165	AUX SCONJ
-2.268236	PRON SCONJ
-2.2190259	INTJ SCONJ
-2.7511647	X SCONJ
-1.3612125	<s> VERB
-1.7209309	NUM VERB
-1.1080581	NOUN VERB
-1.4430871	ADP VERB
-1.1675107	PUNCT VERB
-1.3403635	DET VERB
-2.0502005	ADJ VERB
-1.1231573	PROPN VERB
-1.4646686	SCONJ VERB
-1.8278235	VERB VERB
-0.20711888	PART VERB
-0.7921866	CCONJ VERB
-0.6395483	ADV VERB
-0.3210711	AUX VERB
-0.5392287	PRON VERB
-0.820819	INTJ VERB
-1.3989546	X VERB
-1.8330137	SYM VERB
-2.2565513	<s> PART
-2.0603256	NUM PART
-1.4639834	NOUN PART
-2.6038897	ADP PART
-2.284702	PUNCT PART
-3.2881057	DET PART
-1.6914105	ADJ PART
-1.3396629	PROPN PART
-2.0832524	SCONJ PART
-1.2767358	VERB PART
-2.154332	PART PART
-1.8746117	CCONJ PART
-1.7363333	ADV PART
-0.99007	AUX PART
-1.9005835	PRON PART
-2.3927734	INTJ PART
-2.3894463	X PART
-3.3295236	SYM PART
-1.46531	<s> CCONJ
-1.6949723	NUM CCONJ
-1.208397	NOUN CCONJ
-2.5389647	ADP CCONJ
-1.270108	PUNCT CCONJ
-3.1807888	DET CCONJ
-1.5044986	ADJ CCONJ
-1.2921402	PROPN CCONJ
-2.5448782	SCONJ CCONJ
-1.7887352	VERB CCONJ
-2.7655132	PART CCONJ
-3.2786262	CCONJ CCONJ
-1.7961694	ADV CCONJ
-2.8916395	AUX CCONJ
-2.0765321	PRON CCONJ
-1.994682	INTJ CCONJ
-1.8963406	X CCONJ
-3.2201116	SYM CCONJ
-1.0927783	<s> ADV
-2.0707633	NUM ADV
-1.6049399	NOUN ADV
-1.8990717	ADP ADV
-1.4879477	PUNCT ADV
-1.7677823	DET ADV
-2.1460469	ADJ ADV
-1.9289273	PROPN ADV
-1.5683634	SCONJ ADV
-1.2829044	VERB ADV
-1.3942683	PART ADV
-1.1562378	CCONJ ADV
-1.083579	ADV ADV
-0.8961686	AUX ADV
-1.378767	PRON ADV
-1.5932206	INTJ ADV
-1.9285322	X ADV
-2.466014	SYM ADV
-1.959417	<s> AUX
-1.9017702	NUM AUX
-1.1519629	NOUN AUX
-2.771244	ADP AUX
-1.7400244	PUNCT AUX
-1.5966839	DET AUX
-2.3530998	ADJ AUX
-1.3086991	PROPN AUX
-2.837036	SCONJ AUX
-2.4163282	VERB AUX
-1.473387	PART AUX
-1.6013439	CCONJ AUX
-1.4025453	ADV AUX
-1.1763108	AUX AUX
-0.585168	PRON AUX
-1.6682928	INTJ AUX
-2.0882761	X AUX
-2.8951082	SYM AUX
-0.8319862	<s> PRON
-2.44585	NUM PRON
-1.8445214	NOUN PRON
-1.1187577	ADP PRON
-1.2688988	PUNCT PRON
-2.0746102	DET PRON
-2.4932797	ADJ PRON
-2.3076072	PROPN PRON
-0.574628	SCONJ PRON
-1.0653671	VERB PRON
-2.2496693	PART PRON
-1.0738802	CCONJ PRON
-1.2292424	ADV PRON
-1.5754355	AUX PRON
-1.7594454	PRON PRON
-1.1994127	INTJ PRON
-2.1674855	X PRON
-2.0181422	SYM PRON
-2.1269026	<s> INTJ
-3.9404929	NUM INTJ
-3.3971078	NOUN INTJ
-4.0406723	ADP INTJ
-2.58948	PUNCT INTJ
-4.454698	DET INTJ
-3.7575815	ADJ INTJ
-3.6829329	PROPN INTJ
-3.9223537	SCONJ INTJ
-3.3855882	VERB INTJ
-4.1389084	PART INTJ
-3.0925303	CCONJ INTJ
-3.1559846	ADV INTJ
-3.691372	AUX INTJ
-3.5891404	PRON INTJ
-1.4057754	INTJ INTJ
-2.2644374	X INTJ
-2.9978888	SYM INTJ
-2.5543947	<s> X
-3.7361834	NUM X
-3.2168565	NOUN X
-3.328946	ADP X
-2.5965242	PUNCT X
-3.852428	DET X
-3.7064204	ADJ X
-3.2059288	PROPN X
-4.2301784	SCONJ X
-3.61494	VERB X
-4.059643	PART X
-3.464968	CCONJ X
-3.5906172	ADV X
-3.9392407	AUX X
-4.177646	PRON X
-2.216598	INTJ X
-1.0253574	X X
-2.8951082	SYM X
-2.797519	<s> SYM
-1.8993905	NUM SYM
-3.0505226	NOUN SYM
-2.6887581	ADP SYM
-2.9205534	PUNCT SYM
-3.2980902	DET SYM
-3.24984	ADJ SYM
-2.7324357	PROPN SYM
-2.8651016	SCONJ SYM
-2.9235601	VERB SYM
-3.3750627	PART SYM
-2.5354695	CCONJ SYM
-3.0590672	ADV SYM
-3.6381137	AUX SYM
-3.3902762	PRON SYM
-2.791092	INTJ SYM
-2.4986708	X SYM
-2.9978888	SYM SYM
-5.596198	PROPN SPACE

\end\
