\data\
ngram 1=19
ngram 2=248

\1-grams:
-2.243184	<unk>	0
0	<s>	-3.5321422
-1.2509165	</s>	0
-1.1661369	NOUN	-4.023603
-1.1925995	PUNCT	-3.7691462
-1.1661369	VERB	-3.84086
-1.1925995	NUM	-3.2740505
-1.2207799	ADP	-3.2011354
-1.2207799	ADJ	-3.0163875
-1.1661369	PROPN	-3.406771
-1.1925995	PART	-3.525464
-1.2207799	DET	-2.8239198
-1.1661369	ADV	-3.5280333
-1.2207799	X	-2.2925916
-1.2207799	CCONJ	-2.8378077
-1.1925995	PRON	-3.0895526
-1.2833012	SCONJ	-2.1292305
-1.398086	INTJ	-1.1087016
-1.8015351	SPACE	-0.35902193

\2-grams:
-1.9511279	NOUN </s>
-0.29698598	PUNCT </s>
-2.1969767	VERB </s>
-2.0658698	NUM </s>
-3.8672621	ADP </s>
-2.9971495	ADJ </s>
-1.942555	PROPN </s>
-2.9192662	PART </s>
-2.9636464	DET </s>
-3.1372886	ADV </s>
-2.881959	X </s>
-3.966834	CCONJ </s>
-3.074229	PRON </s>
-1.8880514	INTJ </s>
-0.697971	<s> NOUN
-0.61746585	NOUN NOUN
-0.92909116	PUNCT NOUN
-0.6467849	VERB NOUN
-0.44229597	NUM NOUN
-0.37657085	ADP NOUN
-0.1043766	ADJ NOUN
-0.4751233	PROPN NOUN
-0.2835482	PART NOUN
-0.23201177	DET NOUN
-1.2656865	ADV NOUN
-0.5868591	X NOUN
-0.29560176	CCONJ NOUN
-1.1387477	PRON NOUN
-0.66171	SCONJ NOUN
-1.3612602	INTJ NOUN
-0.6123813	SPACE NOUN
-1.3846202	<s> PUNCT
-0.5888194	NOUN PUNCT
-1.302956	PUNCT PUNCT
-0.74965835	VERB PUNCT
-1.0109149	NUM PUNCT
-1.74619	ADP PUNCT
-2.1870627	ADJ PUNCT
-0.75356346	PROPN PUNCT
-0.8801948	PART PUNCT
-2.0939384	DET PUNCT
-1.5937268	ADV PUNCT
-1.6357075	X PUNCT
-1.8692051	CCONJ PUNCT
-1.2601933	PRON PUNCT
-2.328516	SCONJ PUNCT
-0.09517027	INTJ PUNCT
-0.92047936	<s> VERB
-0.77414477	NOUN VERB
-1.1439215	PUNCT VERB
-0.8085592	VERB VERB
-1.2732241	NUM VERB
-1.0238599	ADP VERB
-1.7883499	ADJ VERB
-0.8704079	PROPN VERB
-0.93180645	PART VERB
-1.3566417	DET VERB
-0.22516498	ADV VERB
-0.3728966	X VERB
-0.8319103	CCONJ VERB
-0.42498899	PRON VERB
-0.5771451	SCONJ VERB
-1.4746299	INTJ VERB
-0.99451286	SPACE VERB
-1.4500986	<s> NUM
-1.9518325	NOUN NUM
-1.7480596	PUNCT NUM
-1.319934	VERB NUM
-0.5031438	NUM NUM
-1.3668913	ADP NUM
-1.86026	ADJ NUM
-1.762593	PROPN NUM
-1.3839217	PART NUM
-0.62889975	DET NUM
-1.57923	ADV NUM
-1.5661836	X NUM
-1.3557208	CCONJ NUM
-2.1157002	PRON NUM
-1.6940312	SCONJ NUM
-2.104908	INTJ NUM
-1.0934104	<s> ADP
-1.5563241	NOUN ADP
-1.5747329	PUNCT ADP
-1.4181409	VERB ADP
-1.9351624	NUM ADP
-1.8811036	ADP ADP
-3.1802604	ADJ ADP
-1.4658787	PROPN ADP
-2.0496814	PART ADP
-1.9579304	DET ADP
-1.154653	ADV ADP
-2.2472956	X ADP
-1.6755166	CCONJ ADP
-1.1844409	PRON ADP
-1.3130022	SCONJ ADP
-1.7893016	<s> ADJ
-2.1397166	NOUN ADJ
-1.9183427	PUNCT ADJ
-1.510762	VERB ADJ
-1.4119213	NUM ADJ
-1.4131991	ADP ADJ
-1.7477047	ADJ ADJ
-1.773887	PROPN ADJ
-1.2766638	PART ADJ
-1.362043	DET ADJ
-1.796979	ADV ADJ
-1.6569016	X ADJ
-1.3097284	CCONJ ADJ
-2.1685472	PRON ADJ
-1.8618352	SCONJ ADJ
-0.83668745	<s> PROPN
-1.5407772	NOUN PROPN
-1.1272948	PUNCT PROPN
-1.2463486	VERB PROPN
-1.5809858	NUM PROPN
-0.6846288	ADP PROPN
-1.6782366	ADJ PROPN
-1.01983	PROPN PROPN
-1.3785539	PART PROPN
-1.5091225	DET PROPN
-1.8046772	ADV PROPN
-1.125459	X PROPN
-0.8750629	CCONJ PROPN
-2.303466	PRON PROPN
-1.1086909	SCONJ PROPN
-1.4746299	INTJ PROPN
-0.62856257	SPACE PROPN
-2.259819	<s> PART
-0.9139968	NOUN PART
-1.9593202	PUNCT PART
-0.8586266	VERB PART
-1.2469336	NUM PART
-2.9050605	ADP PART
-0.885882	ADJ PART
-1.0515654	PROPN PART
-1.5575881	PART PART
-1.8568952	DET PART
-2.2725177	ADV PART
-2.7052276	X PART
-2.9252055	CCONJ PART
-0.8250555	PRON PART
-2.8705418	SCONJ PART
-1.8674743	INTJ PART
-1.420915	<s> DET
-2.5756512	NOUN DET
-2.0265646	PUNCT DET
-1.5851543	VERB DET
-2.7661314	NUM DET
-1.3014059	ADP DET
-3.1095672	ADJ DET
-2.3106346	PROPN DET
-1.9065905	PART DET
-2.405748	DET DET
-2.0601475	ADV DET
-1.3188654	X DET
-1.50162	CCONJ DET
-2.2318823	PRON DET
-1.3650862	SCONJ DET
-0.75344324	<s> ADV
-1.1083272	NOUN ADV
-1.2021621	PUNCT ADV
-1.3570013	VERB ADV
-1.7191272	NUM ADV
-1.590029	ADP ADV
-2.6904624	ADJ ADV
-1.3080078	PROPN ADV
-1.5158243	PART ADV
-1.74724	DET ADV
-0.8499638	ADV ADV
-1.5124842	X ADV
-1.5283167	CCONJ ADV
-0.6410344	PRON ADV
-1.0375293	SCONJ ADV
-2.0878863	INTJ ADV
-0.99451286	SPACE ADV
-2.5393279	<s> X
-2.4517813	NOUN X
-2.6867716	PUNCT X
-2.386389	VERB X
-2.7776327	NUM X
-2.7211654	ADP X
-3.7845676	ADJ X
-2.548951	PROPN X
-2.5181832	PART X
-2.6938508	DET X
-1.8568248	ADV X
-2.4023955	X X
-2.4954755	CCONJ X
-2.1512175	PRON X
-2.0591593	SCONJ X
-2.0984523	<s> CCONJ
-1.4385493	NOUN CCONJ
-2.0918512	PUNCT CCONJ
-2.0938244	VERB CCONJ
-2.1701293	NUM CCONJ
-3.9884734	ADP CCONJ
-2.5236366	ADJ CCONJ
-1.5376369	PROPN CCONJ
-3.1593187	PART CCONJ
-3.4682488	DET CCONJ
-3.1267936	ADV CCONJ
-3.2514699	X CCONJ
-3.1366093	CCONJ CCONJ
-2.1017623	PRON CCONJ
-3.234147	SCONJ CCONJ
-0.96034443	<s> PRON
-2.4759226	NOUN PRON
-1.5725927	PUNCT PRON
-1.3989506	VERB PRON
-2.533921	NUM PRON
-1.0639683	ADP PRON
-3.3962579	ADJ PRON
-2.4440036	PROPN PRON
-1.9980662	PART PRON
-2.702139	DET PRON
-1.6144844	ADV PRON
-1.1114752	X PRON
-1.7255027	CCONJ PRON
-2.0097306	PRON PRON
-0.68879485	SCONJ PRON
-2.0855951	INTJ PRON
-1.7171042	<s> SCONJ
-3.1030428	NOUN SCONJ
-2.3581614	PUNCT SCONJ
-3.2165027	VERB SCONJ
-4.428212	NUM SCONJ
-3.3977318	ADP SCONJ
-3.436375	PROPN SCONJ
-3.8149495	PART SCONJ
-3.9853163	DET SCONJ
-2.7465599	ADV SCONJ
-3.84416	CCONJ SCONJ
-2.6766827	PRON SCONJ
-2.9920638	SCONJ SCONJ
-3.156047	<s> INTJ
-5.2751875	NOUN INTJ
-3.3955262	PUNCT INTJ
-4.527495	VERB INTJ
-4.3291597	NUM INTJ
-4.652113	PROPN INTJ
-4.5834	PART INTJ
-4.069081	DET INTJ
-4.5831423	ADV INTJ
-2.1987662	INTJ INTJ
-5.5206876	NOUN SPACE
-5.3379445	VERB SPACE
-4.918583	PROPN SPACE
-5.025302	PART SPACE

\end\
