\data\
ngram 1=19
ngram 2=249

\1-grams:
-2.2449317	<unk>	0
0	<s>	-5.356823
-1.2526641	</s>	0
-1.1678846	NOUN	-5.8509064
-1.1943473	PUNCT	-5.5927615
-1.1678846	VERB	-5.667247
-1.1943473	NUM	-4.803063
-1.2225275	ADP	-5.0291157
-1.2225275	ADJ	-4.8439393
-1.1678846	PROPN	-4.9499145
-1.1943473	PART	-5.0429854
-1.2225275	DET	-4.166189
-1.1678846	ADV	-5.3487415
-1.2225275	X	-4.112147
-1.1943473	CCONJ	-4.6672835
-1.1943473	PRON	-4.917324
-1.285049	SCONJ	-3.9503777
-1.3998337	INTJ	-2.1577246
-1.8032827	SPACE	-0.9471477

\2-grams:
-1.9644148	NOUN </s>
-0.29501602	PUNCT </s>
-2.222681	VERB </s>
-2.0629451	NUM </s>
-3.9751704	ADP </s>
-2.935792	ADJ </s>
-1.934738	PROPN </s>
-2.9713721	PART </s>
-3.055197	DET </s>
-3.2715526	ADV </s>
-3.329968	X </s>
-3.9147818	CCONJ </s>
-3.109711	PRON </s>
-1.96945	INTJ </s>
-0.6986887	<s> NOUN
-0.6170678	NOUN NOUN
-0.93128306	PUNCT NOUN
-0.64277387	VERB NOUN
-0.44229692	NUM NOUN
-0.37267914	ADP NOUN
-0.10379104	ADJ NOUN
-0.47714746	PROPN NOUN
-0.28181982	PART NOUN
-0.22894242	DET NOUN
-1.2685235	ADV NOUN
-0.5916629	X NOUN
-0.29454863	CCONJ NOUN
-1.1347473	PRON NOUN
-0.6430019	SCONJ NOUN
-1.3263924	INTJ NOUN
-0.5169213	SPACE NOUN
-1.4191817	<s> PUNCT
-0.58875513	NOUN PUNCT
-1.300867	PUNCT PUNCT
-0.7527	VERB PUNCT
-1.0240171	NUM PUNCT
-1.750743	ADP PUNCT
-2.2013164	ADJ PUNCT
-0.7636936	PROPN PUNCT
-0.88158053	PART PUNCT
-2.1092138	DET PUNCT
-1.6041389	ADV PUNCT
-1.6506516	X PUNCT
-1.8818758	CCONJ PUNCT
-1.2683893	PRON PUNCT
-2.3705726	SCONJ PUNCT
-0.10706507	INTJ PUNCT
-0.9171263	<s> VERB
-0.7738466	NOUN VERB
-1.1453488	PUNCT VERB
-0.81012446	VERB VERB
-1.267975	NUM VERB
-1.0369886	ADP VERB
-1.7903583	ADJ VERB
-0.8656478	PROPN VERB
-0.9347425	PART VERB
-1.3678629	DET VERB
-0.22521093	ADV VERB
-0.37396997	X VERB
-0.8470082	CCONJ VERB
-0.4276789	PRON VERB
-0.5894956	SCONJ VERB
-1.3772128	INTJ VERB
-1.2617598	SPACE VERB
-1.4598553	<s> NUM
-1.9578836	NOUN NUM
-1.7532954	PUNCT NUM
-1.3142598	VERB NUM
-0.5019388	NUM NUM
-1.3621503	ADP NUM
-1.8731303	ADJ NUM
-1.7678155	PROPN NUM
-1.3899043	PART NUM
-0.6286604	DET NUM
-1.5712157	ADV NUM
-1.5555654	X NUM
-1.3536503	CCONJ NUM
-2.1265712	PRON NUM
-1.6763585	SCONJ NUM
-2.5382707	INTJ NUM
-1.0910771	<s> ADP
-1.5556684	NOUN ADP
-1.5822046	PUNCT ADP
-1.4173548	VERB ADP
-1.9161808	NUM ADP
-1.8801718	ADP ADP
-3.2156672	ADJ ADP
-1.4601859	PROPN ADP
-2.054687	PART ADP
-1.9627912	DET ADP
-1.1520104	ADV ADP
-2.2619789	X ADP
-1.6860714	CCONJ ADP
-1.1663188	PRON ADP
-1.3334832	SCONJ ADP
-1.7890257	<s> ADJ
-2.146326	NOUN ADJ
-1.9219933	PUNCT ADJ
-1.5045321	VERB ADJ
-1.4000709	NUM ADJ
-1.4104866	ADP ADJ
-1.7488977	ADJ ADJ
-1.7623702	PROPN ADJ
-1.2793416	PART ADJ
-1.3777692	DET ADJ
-1.802492	ADV ADJ
-1.6386758	X ADJ
-1.302233	CCONJ ADJ
-2.165451	PRON ADJ
-1.8549229	SCONJ ADJ
-0.84139127	<s> PROPN
-1.5450525	NOUN PROPN
-1.1335423	PUNCT PROPN
-1.2406261	VERB PROPN
-1.5769694	NUM PROPN
-0.6850197	ADP PROPN
-1.6679516	ADJ PROPN
-1.0127637	PROPN PROPN
-1.3736248	PART PROPN
-1.5060426	DET PROPN
-1.808201	ADV PROPN
-1.132036	X PROPN
-0.8732208	CCONJ PROPN
-2.312736	PRON PROPN
-1.0829024	SCONJ PROPN
-1.4347781	INTJ PROPN
-0.2974457	SPACE PROPN
-2.25067	<s> PART
-0.9158434	NOUN PART
-1.9473381	PUNCT PART
-0.8653736	VERB PART
-1.2516562	NUM PART
-2.901659	ADP PART
-0.88979965	ADJ PART
-1.0512075	PROPN PART
-1.561299	PART PART
-1.8631004	DET PART
-2.2782536	ADV PART
-2.601957	X PART
-2.899735	CCONJ PART
-0.8177081	PRON PART
-2.7809377	SCONJ PART
-1.9671947	INTJ PART
-1.4145663	<s> DET
-2.5729141	NOUN DET
-2.0240216	PUNCT DET
-1.5866795	VERB DET
-2.741426	NUM DET
-1.2989795	ADP DET
-3.1399276	ADJ DET
-2.3005311	PROPN DET
-1.9073989	PART DET
-2.4076724	DET DET
-2.061182	ADV DET
-1.3160259	X DET
-1.4714772	CCONJ DET
-2.2609122	PRON DET
-1.3632892	SCONJ DET
-0.7468662	<s> ADV
-1.1038433	NOUN ADV
-1.2020994	PUNCT ADV
-1.359928	VERB ADV
-1.7182951	NUM ADV
-1.5993983	ADP ADV
-2.640151	ADJ ADV
-1.3003767	PROPN ADV
-1.5124364	PART ADV
-1.7606697	DET ADV
-0.8464876	ADV ADV
-1.509315	X ADV
-1.519503	CCONJ ADV
-0.64478046	PRON ADV
-1.0380164	SCONJ ADV
-1.7982298	INTJ ADV
-1.2617598	SPACE ADV
-2.5243175	<s> X
-2.459676	NOUN X
-2.7070947	PUNCT X
-2.390401	VERB X
-2.7903473	NUM X
-2.7276173	ADP X
-3.7600298	ADJ X
-2.559177	PROPN X
-2.5556705	PART X
-2.765637	DET X
-1.8560336	ADV X
-2.3589067	X X
-2.4772813	CCONJ X
-2.18173	PRON X
-2.069505	SCONJ X
-2.0814857	<s> CCONJ
-1.4358764	NOUN CCONJ
-2.0900345	PUNCT CCONJ
-2.1031713	VERB CCONJ
-2.1727164	NUM CCONJ
-4.151006	ADP CCONJ
-2.5249472	ADJ CCONJ
-1.5273242	PROPN CCONJ
-3.108761	PART CCONJ
-3.5082948	DET CCONJ
-3.186809	ADV CCONJ
-3.2043192	X CCONJ
-3.215027	CCONJ CCONJ
-2.0896688	PRON CCONJ
-3.3213274	SCONJ CCONJ
-2.5382707	INTJ CCONJ
-0.95885897	<s> PRON
-2.4761562	NOUN PRON
-1.5749102	PUNCT PRON
-1.3898276	VERB PRON
-2.5246198	NUM PRON
-1.0685122	ADP PRON
-3.2591	ADJ PRON
-2.4523757	PROPN PRON
-1.998534	PART PRON
-2.6939826	DET PRON
-1.6206896	ADV PRON
-1.0883089	X PRON
-1.7208319	CCONJ PRON
-1.98598	PRON PRON
-0.69886976	SCONJ PRON
-1.6758397	INTJ PRON
-1.7078892	<s> SCONJ
-3.1105483	NOUN SCONJ
-2.3614104	PUNCT SCONJ
-3.1805892	VERB SCONJ
-4.127214	NUM SCONJ
-3.4520485	ADP SCONJ
-3.3976743	PROPN SCONJ
-3.8773468	PART SCONJ
-4.6160774	DET SCONJ
-2.7440033	ADV SCONJ
-3.9150903	CCONJ SCONJ
-2.732674	PRON SCONJ
-2.927687	SCONJ SCONJ
-3.2114673	<s> INTJ
-4.931078	NOUN INTJ
-3.4001634	PUNCT INTJ
-4.5429263	VERB INTJ
-5.1179743	NUM INTJ
-4.3860197	PROPN INTJ
-4.4790907	PART INTJ
-4.631077	DET INTJ
-4.7818937	ADV INTJ
-1.5827805	INTJ INTJ
-5.0298133	NOUN SPACE
-4.8461537	VERB SPACE
-5.300738	PROPN SPACE
-5.393809	PART SPACE

\end\
