\data\
ngram 1=20
ngram 2=322

\1-grams:
-2.3552456	<unk>	0
0	<s>	-4.327288
-1.2794285	</s>	0
-1.2544924	NUM	-3.7883453
-1.2544924	NOUN	-4.921462
-1.2544924	ADP	-4.6777
-1.2544924	PUNCT	-4.7000804
-1.2544924	DET	-4.617154
-1.2544924	ADJ	-4.469746
-1.2544924	PROPN	-4.6146564
-1.2794285	SCONJ	-3.6547987
-1.2544924	VERB	-4.6658154
-1.2544924	PART	-4.0501738
-1.2544924	CCONJ	-4.1253676
-1.2544924	ADV	-4.2150955
-1.2544924	AUX	-4.274466
-1.2544924	PRON	-4.316023
-1.2544924	INTJ	-2.6685412
-1.2544924	X	-2.636488
-1.2544924	SYM	-2.6751075

\2-grams:
-1.7314517	NUM </s>
-2.2090955	NOUN </s>
-3.6108649	ADP </s>
-0.44315436	PUNCT </s>
-3.9976788	DET </s>
-3.004904	ADJ </s>
-1.5474627	PROPN </s>
-3.1114247	SCONJ </s>
-2.8025105	VERB </s>
-3.4669375	PART </s>
-3.6486814	CCONJ </s>
-2.8349385	ADV </s>
-3.637945	AUX </s>
-3.1352189	PRON </s>
-2.1460543	INTJ </s>
-1.2473751	X </s>
-3.4986954	SYM </s>
-1.7756984	<s> NUM
-1.4734249	NUM NUM
-2.461818	NOUN NUM
-1.5543926	ADP NUM
-1.8722804	PUNCT NUM
-1.8823543	DET NUM
-2.1586986	ADJ NUM
-1.6921904	PROPN NUM
-1.3401284	SCONJ NUM
-1.955839	VERB NUM
-2.1703126	PART NUM
-1.8915253	CCONJ NUM
-1.688756	ADV NUM
-2.1555398	AUX NUM
-2.6028116	PRON NUM
-2.3674896	INTJ NUM
-2.4603677	X NUM
-0.43673807	SYM NUM
-1.0015074	<s> NOUN
-0.42214018	NUM NOUN
-0.9693559	NOUN NOUN
-0.7715892	ADP NOUN
-1.1331717	PUNCT NOUN
-0.27837902	DET NOUN
-0.20396146	ADJ NOUN
-1.1585943	PROPN NOUN
-1.128087	SCONJ NOUN
-0.96205133	VERB NOUN
-0.86652404	PART NOUN
-0.5905589	CCONJ NOUN
-1.5708208	ADV NOUN
-1.7072431	AUX NOUN
-0.7316162	PRON NOUN
-1.0250876	INTJ NOUN
-0.7011481	X NOUN
-0.62718874	SYM NOUN
-1.0150366	<s> ADP
-1.0032526	NUM ADP
-0.57870376	NOUN ADP
-1.7472601	ADP ADP
-1.3870573	PUNCT ADP
-1.9704237	DET ADP
-1.1905735	ADJ ADP
-1.1342423	PROPN ADP
-1.1364564	SCONJ ADP
-0.6261898	VERB ADP
-2.0679018	PART ADP
-1.4172298	CCONJ ADP
-0.98214155	ADV ADP
-1.7431996	AUX ADP
-1.4486535	PRON ADP
-1.5328754	INTJ ADP
-1.5950913	X ADP
-2.4288619	SYM ADP
-1.5270989	<s> PUNCT
-0.59023815	NUM PUNCT
-0.56597847	NOUN PUNCT
-1.7886782	ADP PUNCT
-1.251374	PUNCT PUNCT
-1.819425	DET PUNCT
-1.0867689	ADJ PUNCT
-0.60844004	PROPN PUNCT
-1.6241525	SCONJ PUNCT
-1.1033838	VERB PUNCT
-1.7924947	PART PUNCT
-1.9070067	CCONJ PUNCT
-0.76915395	ADV PUNCT
-1.9877846	AUX PUNCT
-1.2898983	PRON PUNCT
-0.37187582	INTJ PUNCT
-0.49556077	X PUNCT
-2.8067086	SYM PUNCT
-0.74150264	<s> DET
-2.0249164	NUM DET
-1.6723043	NOUN DET
-0.45115137	ADP DET
-1.1469258	PUNCT DET
-1.9570795	DET DET
-2.474842	ADJ DET
-2.1865215	PROPN DET
-0.5731467	SCONJ DET
-0.7293519	VERB DET
-1.7498677	PART DET
-0.95741034	CCONJ DET
-1.1838216	ADV DET
-1.1056247	AUX DET
-1.7433447	PRON DET
-1.583366	INTJ DET
-1.7425357	X DET
-2.7282016	SYM DET
-1.3211758	<s> ADJ
-1.2553785	NUM ADJ
-2.0141401	NOUN ADJ
-1.0819831	ADP ADJ
-1.4632492	PUNCT ADJ
-0.66899395	DET ADJ
-1.08833	ADJ ADJ
-2.2755363	PROPN ADJ
-1.2441041	SCONJ ADJ
-1.1418523	VERB ADJ
-1.2313979	PART ADJ
-0.972366	CCONJ ADJ
-0.87481654	ADV ADJ
-1.2851642	AUX ADJ
-1.210683	PRON ADJ
-1.68326	INTJ ADJ
-1.3177271	X ADJ
-1.4126668	SYM ADJ
-0.80984414	<s> PROPN
-1.2744619	NUM PROPN
-1.792363	NOUN PROPN
-0.72565836	ADP PROPN
-0.99737704	PUNCT PROPN
-0.9704565	DET PROPN
-1.426908	ADJ PROPN
-0.5160589	PROPN PROPN
-1.0894892	SCONJ PROPN
-1.4962878	VERB PROPN
-1.4742161	PART PROPN
-1.0675745	CCONJ PROPN
-1.8342812	ADV PROPN
-2.0376763	AUX PROPN
-1.9552399	PRON PROPN
-1.3748083	INTJ PROPN
-0.9582722	X PROPN
-0.50798595	SYM PROPN
-1.5941902	<s> SCONJ
-2.4559674	NUM SCONJ
-1.9664173	NOUN SCONJ
-2.5761921	ADP SCONJ
-1.9400373	PUNCT SCONJ
-3.624586	DET SCONJ
-1.7246735	ADJ SCONJ
-2.5235865	PROPN SCONJ
-1.7176938	SCONJ SCONJ
-1.4330741	VERB SCONJ
-2.80721	PART SCONJ
-1.8531458	CCONJ SCONJ
-1.7362928	ADV SCONJ
-2.1468308	AUX SCONJ
-2.2616765	PRON SCONJ
-2.1683512	INTJ SCONJ
-2.7172384	X SCONJ
-1.379222	<s> VERB
-1.6805698	NUM VERB
-1.1094626	NOUN VERB
-1.4424238	ADP VERB
-1.1797934	PUNCT VERB
-1.3360071	DET VERB
-2.029887	ADJ VERB
-1.1247449	PROPN VERB
-1.466335	SCONJ VERB
-1.8265469	VERB VERB
-0.20121497	PART VERB
-0.80214965	CCONJ VERB
-0.6609495	ADV VERB
-0.32689315	AUX VERB
-0.5402061	PRON VERB
-0.78204995	INTJ VERB
-1.2940632	X VERB
-1.7170193	SYM VERB
-2.2424078	<s> PART
-2.0312016	NUM PART
-1.4662364	NOUN PART
-2.6015446	ADP PART
-2.2506018	PUNCT PART
-3.204972	DET PART
-1.6820493	ADJ PART
-1.3568978	PROPN PART
-2.0214727	SCONJ PART
-1.2706347	VERB PART
-2.1267562	PART PART
-1.8178711	CCONJ PART
-1.7296103	ADV PART
-0.9850254	AUX PART
-1.8838553	PRON PART
-2.405276	INTJ PART
-2.335436	X PART
-3.4898021	SYM PART
-1.469851	<s> CCONJ
-1.6822673	NUM CCONJ
-1.2054168	NOUN CCONJ
-2.502091	ADP CCONJ
-1.2666839	PUNCT CCONJ
-3.1165504	DET CCONJ
-1.4950039	ADJ CCONJ
-1.2751719	PROPN CCONJ
-2.5460188	SCONJ CCONJ
-1.772979	VERB CCONJ
-2.7419627	PART CCONJ
-3.270044	CCONJ CCONJ
-1.7752364	ADV CCONJ
-2.8377717	AUX CCONJ
-2.0623615	PRON CCONJ
-2.0664704	INTJ CCONJ
-1.9522322	X CCONJ
-3.5651033	SYM CCONJ
-1.0687078	<s> ADV
-2.0114012	NUM ADV
-1.587981	NOUN ADV
-1.8795096	ADP ADV
-1.4761952	PUNCT ADV
-1.7483139	DET ADV
-2.1121285	ADJ ADV
-1.9155416	PROPN ADV
-1.5416023	SCONJ ADV
-1.270693	VERB ADV
-1.396318	PART ADV
-1.1390436	CCONJ ADV
-1.0740638	ADV ADV
-0.89999235	AUX ADV
-1.371129	PRON ADV
-1.5893564	INTJ ADV
-1.8961173	X ADV
-2.362157	SYM ADV
-1.9106528	<s> AUX
-1.8513286	NUM AUX
-1.146568	NOUN AUX
-2.7517	ADP AUX
-1.7262601	PUNCT AUX
-1.5806583	DET AUX
-2.3293424	ADJ AUX
-1.3031498	PROPN AUX
-2.875986	SCONJ AUX
-2.3840246	VERB AUX
-1.4515653	PART AUX
-1.6081713	CCONJ AUX
-1.3686551	ADV AUX
-1.1739229	AUX AUX
-0.58979833	PRON AUX
-1.6908131	INTJ AUX
-2.0924075	X AUX
-2.8067086	SYM AUX
-0.8078697	<s> PRON
-2.3160748	NUM PRON
-1.7988638	NOUN PRON
-1.085634	ADP PRON
-1.2740302	PUNCT PRON
-2.0328228	DET PRON
-2.427039	ADJ PRON
-2.2592685	PROPN PRON
-0.5531763	SCONJ PRON
-1.0427557	VERB PRON
-2.2155402	PART PRON
-1.0537922	CCONJ PRON
-1.2060696	ADV PRON
-1.5415361	AUX PRON
-1.7509624	PRON PRON
-1.1391952	INTJ PRON
-2.2684925	X PRON
-1.9409872	SYM PRON
-2.0715976	<s> INTJ
-3.7883017	NUM INTJ
-3.2478259	NOUN INTJ
-3.9787211	ADP INTJ
-2.5483017	PUNCT INTJ
-4.3161025	DET INTJ
-3.7565272	ADJ INTJ
-3.5294814	PROPN INTJ
-3.727247	SCONJ INTJ
-3.3401608	VERB INTJ
-4.05013	PART INTJ
-3.0058882	CCONJ INTJ
-3.1067524	ADV INTJ
-3.672395	AUX INTJ
-3.5259652	PRON INTJ
-1.4052974	INTJ INTJ
-2.1135962	X INTJ
-2.902609	SYM INTJ
-2.5066051	<s> X
-3.663374	NUM X
-3.022919	NOUN X
-3.2826629	ADP X
-2.5844696	PUNCT X
-3.6471128	DET X
-3.5576959	ADJ X
-3.149768	PROPN X
-4.5564218	SCONJ X
-3.4571922	VERB X
-3.9831896	PART X
-3.4263887	CCONJ X
-3.359772	ADV X
-3.7303853	AUX X
-4.1910515	PRON X
-2.1456494	INTJ X
-0.94188184	X X
-3.0258706	SYM X
-2.813486	<s> SYM
-1.931012	NUM SYM
-3.0416012	NOUN SYM
-2.7883976	ADP SYM
-2.9953573	PUNCT SYM
-3.4315147	DET SYM
-3.270171	ADJ SYM
-2.6709967	PROPN SYM
-3.032047	SCONJ SYM
-3.0306659	VERB SYM
-3.4133413	PART SYM
-2.5731037	CCONJ SYM
-3.167168	ADV SYM
-3.8221529	AUX SYM
-3.4220705	PRON SYM
-2.8445673	INTJ SYM
-2.5115166	X SYM
-2.661737	SYM SYM

\end\
