\data\
ngram 1=19
ngram 2=249
ngram 3=2626
ngram 4=17968

\1-grams:
-2.2449317	<unk>	0
0	<s>	-3.7284331
-1.2526641	</s>	0
-1.1678846	NOUN	-0.96452767
-1.1943473	PUNCT	-0.9890046
-1.1678846	VERB	-0.96452767
-1.1943473	NUM	-0.9305282
-1.2225275	ADP	-0.8854641
-1.2225275	ADJ	-0.8791778
-1.1678846	PROPN	-0.9571869
-1.1943473	PART	-0.8822399
-1.2225275	DET	-0.89057344
-1.1678846	ADV	-0.9427993
-1.2225275	X	-0.8480424
-1.1943473	CCONJ	-0.7748486
-1.1943473	PRON	-0.9422837
-1.285049	SCONJ	-0.6857417
-1.3998337	INTJ	-0.46488678
-1.8032827	SPACE	-0.30103

\2-grams:
-1.2272664	NOUN </s>	0
-1.1694232	PUNCT </s>	0
-1.2596306	VERB </s>	0
-1.220909	NUM </s>	0
-1.8796626	ADP </s>	0
-1.3770307	ADJ </s>	0
-1.2719275	PROPN </s>	0
-1.3680594	PART </s>	0
-1.474873	DET </s>	0
-1.3687227	ADV </s>	0
-1.7431499	X </s>	0
-1.7690473	CCONJ </s>	0
-1.3520846	PRON </s>	0
-1.321174	INTJ </s>	0
-0.6986882	<s> NOUN	-2.977766
-1.1606843	NOUN NOUN	-0.9424361
-1.1615674	PUNCT NOUN	-0.852412
-1.1606843	VERB NOUN	-0.9123566
-1.1143566	NUM NOUN	-0.89086306
-1.0519506	ADP NOUN	-0.86444306
-1.0274332	ADJ NOUN	-0.8843279
-1.111722	PROPN NOUN	-0.91518104
-1.0548027	PART NOUN	-0.835139
-1.0570599	DET NOUN	-0.86268276
-1.1349894	ADV NOUN	-0.81122684
-0.9962977	X NOUN	-0.75180787
-0.9713094	CCONJ NOUN	-0.66290814
-1.1175473	PRON NOUN	-0.79508185
-0.95099115	SCONJ NOUN	-0.5081211
-0.81854343	INTJ NOUN	-0.38353318
-0.6546866	SPACE NOUN	-0.37980977
-1.4191874	<s> PUNCT	-2.243235
-1.1373099	NOUN PUNCT	-0.9222451
-1.1921374	PUNCT PUNCT	-0.7966448
-1.163433	VERB PUNCT	-0.91221476
-1.117028	NUM PUNCT	-0.7838356
-1.0846753	ADP PUNCT	-0.6332657
-1.092752	ADJ PUNCT	-0.56626475
-1.1404426	PROPN PUNCT	-0.84187233
-1.1152654	PART PUNCT	-0.6856047
-1.0596266	DET PUNCT	-0.5638195
-1.137713	ADV PUNCT	-0.7125817
-1.0290513	X PUNCT	-0.521719
-1.1675744	CCONJ PUNCT	-0.42004395
-1.1201664	PRON PUNCT	-0.69249153
-1.6291327	SCONJ PUNCT	-0.3798098
-0.8224991	INTJ PUNCT	-0.36409977
-0.91712546	<s> VERB	-2.7654815
-1.1882987	NOUN VERB	-0.9384958
-1.1615674	PUNCT VERB	-0.8511117
-1.1606843	VERB VERB	-0.91805845
-1.1143566	NUM VERB	-0.79575366
-1.0519506	ADP VERB	-0.7987181
-1.0274332	ADJ VERB	-0.6933006
-1.111722	PROPN VERB	-0.9137459
-1.0825971	PART VERB	-0.8151519
-1.0870342	DET VERB	-0.7288825
-1.1071343	ADV VERB	-0.92267287
-1.0264133	X VERB	-0.76154065
-0.9713094	CCONJ VERB	-0.68511593
-1.0895703	PRON VERB	-0.8715049
-0.95099115	SCONJ VERB	-0.64635456
-0.90906096	INTJ VERB	-0.3150314
-1.0156113	SPACE VERB	-0.34950128
-1.4598616	<s> NUM	-2.2605534
-1.1912284	NOUN NUM	-0.81005466
-1.2220302	PUNCT NUM	-0.6878521
-1.163433	VERB NUM	-0.8599011
-1.0889453	NUM NUM	-0.89086306
-1.1170852	ADP NUM	-0.72347724
-1.1279585	ADJ NUM	-0.62226886
-1.1142187	PROPN NUM	-0.742234
-1.1152654	PART NUM	-0.6383415
-1.0596266	DET NUM	-0.7630841
-1.137713	ADV NUM	-0.7421278
-1.0616165	X NUM	-0.5134547
-1.0414948	CCONJ NUM	-0.5661962
-1.1502578	PRON NUM	-0.57387435
-1.2249606	SCONJ NUM	-0.33336926
-1.441268	INTJ NUM	-0.34950128
-1.0910836	<s> ADP	-2.6524854
-1.194178	NOUN ADP	-0.8578162
-1.1949307	PUNCT ADP	-0.7500187
-1.194178	VERB ADP	-0.8541417
-1.149934	NUM ADP	-0.7091748
-1.1200686	ADP ADP	-0.6343324
-1.3715769	ADJ ADP	-0.35227552
-1.1711978	PROPN ADP	-0.8036498
-1.1855286	PART ADP	-0.59376085
-1.1604544	DET ADP	-0.57841754
-1.1404537	ADV ADP	-0.8001614
-1.2805102	X ADP	-0.38353318
-1.1719042	CCONJ ADP	-0.4864784
-1.1228014	PRON ADP	-0.77862173
-0.95746404	SCONJ ADP	-0.5421765
-1.7890587	<s> ADJ	-2.0758903
-1.194178	NOUN ADJ	-0.7457662
-1.1949307	PUNCT ADJ	-0.72935915
-1.194178	VERB ADJ	-0.7765135
-1.119716	NUM ADJ	-0.6593607
-1.0874435	ADP ADJ	-0.7205616
-1.0323687	ADJ ADJ	-0.66283995
-1.1711978	PROPN ADJ	-0.655785
-1.1505923	PART ADJ	-0.58620167
-1.0622083	DET ADJ	-0.56407225
-1.1404537	ADV ADJ	-0.72377306
-1.1385288	X ADJ	-0.53159773
-1.0831268	CCONJ ADJ	-0.57841754
-1.2208252	PRON ADJ	-0.60910183
-1.1608185	SCONJ ADJ	-0.47950935
-0.84139055	<s> PROPN	-2.849054
-1.1606843	NOUN PROPN	-0.89732563
-1.1615674	PUNCT PROPN	-0.82730126
-1.1882987	VERB PROPN	-0.8862915
-1.1143566	NUM PROPN	-0.7810534
-1.0519506	ADP PROPN	-0.8299378
-1.0274332	ADJ PROPN	-0.67115194
-1.1377909	PROPN PROPN	-0.8643969
-1.1441691	PART PROPN	-0.7004908
-1.0870342	DET PROPN	-0.7170624
-1.1647544	ADV PROPN	-0.71337026
-1.0264133	X PROPN	-0.6690613
-1.0760901	CCONJ PROPN	-0.5878098
-1.1474514	PRON PROPN	-0.5539981
-1.1505256	SCONJ PROPN	-0.42265916
-0.90906096	INTJ PROPN	-0.36223248
-0.6546866	SPACE PROPN	-0.37203205
-2.2507086	<s> PART	-1.5534239
-1.1912284	NOUN PART	-0.9158592
-1.2541336	PUNCT PART	-0.6074515
-1.163433	VERB PART	-0.8964582
-1.117028	NUM PART	-0.7870477
-1.2781898	ADP PART	-0.42455208
-1.0298939	ADJ PART	-0.7267474
-1.1404426	PROPN PART	-0.85727125
-1.1473689	PART PART	-0.62516254
-1.0596266	DET PART	-0.63348895
-1.137713	ADV PART	-0.6318872
-1.223693	X PART	-0.41493243
-1.3459563	CCONJ PART	-0.4144923
-1.0920255	PRON PART	-0.75723165
-1.5429696	SCONJ PART	-0.37980977
-1.441268	INTJ PART	-0.34950128
-1.4145802	<s> DET	-2.3534544
-1.194178	NOUN DET	-0.71399784
-1.1949307	PUNCT DET	-0.6412382
-1.194178	VERB DET	-0.7807075
-1.2557132	NUM DET	-0.5378342
-1.0874435	ADP DET	-0.7361235
-1.3116455	ADJ DET	-0.38726962
-1.1711978	PROPN DET	-0.61582625
-1.223523	PART DET	-0.5186263
-1.1604544	DET DET	-0.5063403
-1.2380358	ADV DET	-0.59218234
-1.0999271	X DET	-0.5631288
-1.1252509	CCONJ DET	-0.53146285
-1.259121	PRON DET	-0.61678326
-1.1608185	SCONJ DET	-0.40774384
-0.74686563	<s> ADV	-2.9435792
-1.1606843	NOUN ADV	-0.89500934
-1.1893619	PUNCT ADV	-0.77403927
-1.1606843	VERB ADV	-0.8220173
-1.1441909	NUM ADV	-0.68811774
-1.1141223	ADP ADV	-0.6881906
-1.0899092	ADJ ADV	-0.44699025
-1.1655252	PROPN ADV	-0.75350153
-1.1122929	PART ADV	-0.62443984
-1.1192317	DET ADV	-0.5644412
-1.1071343	ADV ADV	-0.7590488
-1.1317724	X ADV	-0.46952736
-1.038284	CCONJ ADV	-0.5601174
-1.1175473	PRON ADV	-0.7153399
-0.9929491	SCONJ ADV	-0.45716962
-1.4250561	INTJ ADV	-0.34950128
-1.0156113	SPACE ADV	-0.34950128
-2.5244968	<s> X	-1.3214031
-1.194178	NOUN X	-0.77926767
-1.257357	PUNCT X	-0.58735704
-1.194178	VERB X	-0.7451635
-1.2175184	NUM X	-0.47013843
-1.2358664	ADP X	-0.46998727
-1.6264366	ADJ X	-0.3674314
-1.2683421	PROPN X	-0.57198346
-1.265163	PART X	-0.492436
-1.2409759	DET X	-0.41026747
-1.1706089	ADV X	-0.7083161
-1.3404415	X X	-0.41768816
-1.3525022	CCONJ X	-0.41844535
-1.2208252	PRON X	-0.5886658
-1.1608185	SCONJ X	-0.4309976
-2.081512	<s> CCONJ	-1.6550047
-1.1912284	NOUN CCONJ	-0.85884625
-1.1921374	PUNCT CCONJ	-0.6966051
-1.1912284	VERB CCONJ	-0.7421278
-1.1793089	NUM CCONJ	-0.59541154
-1.7645475	ADP CCONJ	-0.37203205
-1.092752	ADJ CCONJ	-0.6394058
-1.1683522	PROPN CCONJ	-0.75090855
-1.2197127	PART CCONJ	-0.4373427
-1.7696569	DET CCONJ	-0.39579594
-1.3595197	ADV CCONJ	-0.45312294
-1.7165811	X CCONJ	-0.34950128
-1.5255066	CCONJ CCONJ	-0.33424994
-1.1825906	PRON CCONJ	-0.6162853
-1.6291327	SCONJ CCONJ	-0.34950128
-1.441268	INTJ CCONJ	-0.34950128
-0.95886093	<s> PRON	-2.7315865
-1.1912284	NOUN PRON	-0.729954
-1.1921374	PUNCT PRON	-0.7387635
-1.163433	VERB PRON	-0.8402786
-1.2935516	NUM PRON	-0.5116129
-1.054517	ADP PRON	-0.7876384
-1.3661906	ADJ PRON	-0.32747775
-1.1683522	PROPN PRON	-0.6515914
-1.1820362	PART PRON	-0.5936873
-1.237085	DET PRON	-0.46392524
-1.137713	ADV PRON	-0.63839465
-1.0290513	X PRON	-0.57341194
-1.2192985	CCONJ PRON	-0.52557516
-1.1825906	PRON PRON	-0.6887609
-0.99650186	SCONJ PRON	-0.44467372
-1.1886034	INTJ PRON	-0.37203205
-1.7079489	<s> SCONJ	-2.0447056
-1.2630852	NOUN SCONJ	-0.63374853
-1.2638767	PUNCT SCONJ	-0.61557186
-1.3367286	VERB SCONJ	-0.54097116
-1.8620026	NUM SCONJ	-0.34950125
-1.6666384	ADP SCONJ	-0.3136756
-1.6677511	PROPN SCONJ	-0.4144234
-1.9112387	PART SCONJ	-0.3798098
-2.0178263	DET SCONJ	-0.34950128
-1.3733984	ADV SCONJ	-0.40328553
-1.6954648	CCONJ SCONJ	-0.34950128
-1.4705248	PRON SCONJ	-0.43574154
-1.5823685	SCONJ SCONJ	-0.37203205
-3.2149427	<s> INTJ	-0.9956267
-1.8250731	NOUN INTJ	-0.3674314
-1.3101896	PUNCT INTJ	-0.5905836
-1.6294781	VERB INTJ	-0.33387896
-2.1411936	NUM INTJ	-0.34950128
-1.9526485	PROPN INTJ	-0.34950128
-1.7238996	PART INTJ	-0.37203205
-2.0943236	DET INTJ	-0.34950128
-2.026982	ADV INTJ	-0.39579594
-1.0701562	INTJ INTJ	-0.29559073
-1.9085045	NOUN SPACE	-0.34950128
-2.092062	VERB SPACE	-0.37980977
-2.3992257	PROPN SPACE	-0.34950128
-2.319199	PART SPACE	-0.34950128

\3-grams:
-2.485039	<s> NOUN </s>	0
-1.1991662	NOUN NOUN </s>	0
-1.3037456	PUNCT NOUN </s>	0
-1.2084503	VERB NOUN </s>	0
-1.2084886	NUM NOUN </s>	0
-1.4271079	ADP NOUN </s>	0
-1.1804216	ADJ NOUN </s>	0
-1.1975303	PROPN NOUN </s>	0
-1.1911614	PART NOUN </s>	0
-1.3597561	DET NOUN </s>	0
-1.3083003	ADV NOUN </s>	0
-1.6567193	X NOUN </s>	0
-1.4712399	CCONJ NOUN </s>	0
-1.279916	PRON NOUN </s>	0
-1.0208173	<s> PUNCT </s>	0
-1.1326439	NOUN PUNCT </s>	0
-1.0348282	PUNCT PUNCT </s>	0
-1.1226135	VERB PUNCT </s>	0
-1.0660466	NUM PUNCT </s>	0
-1.1874082	ADP PUNCT </s>	0
-1.4128454	ADJ PUNCT </s>	0
-1.10974	PROPN PUNCT </s>	0
-0.9534723	PART PUNCT </s>	0
-0.9610672	DET PUNCT </s>	0
-0.9627402	ADV PUNCT </s>	0
-0.8791283	X PUNCT </s>	0
-1.1476687	CCONJ PUNCT </s>	0
-0.9026717	PRON PUNCT </s>	0
-1.0474195	SCONJ PUNCT </s>	0
-0.78571504	INTJ PUNCT </s>	0
-2.675812	<s> VERB </s>	0
-1.210925	NOUN VERB </s>	0
-1.3128803	PUNCT VERB </s>	0
-1.2518953	VERB VERB </s>	0
-1.4970794	NUM VERB </s>	0
-1.7443863	ADP VERB </s>	0
-1.4838276	ADJ VERB </s>	0
-1.1738265	PROPN VERB </s>	0
-1.3056664	PART VERB </s>	0
-1.1896753	ADV VERB </s>	0
-1.3833137	X VERB </s>	0
-1.3803537	CCONJ VERB </s>	0
-1.3280948	PRON VERB </s>	0
-1.2232705	<s> NUM </s>	0
-1.2286986	NOUN NUM </s>	0
-1.220254	PUNCT NUM </s>	0
-1.2315028	VERB NUM </s>	0
-1.3346066	NUM NUM </s>	0
-1.6332933	ADJ NUM </s>	0
-1.3311756	PROPN NUM </s>	0
-1.5409365	PART NUM </s>	0
-1.6773055	DET NUM </s>	0
-1.4099118	ADV NUM </s>	0
-1.5200437	X NUM </s>	0
-1.459121	CCONJ NUM </s>	0
-2.0087569	NOUN ADP </s>	0
-2.2571805	VERB ADP </s>	0
-1.8723134	NOUN ADJ </s>	0
-1.8569219	PUNCT ADJ </s>	0
-1.3356677	VERB ADJ </s>	0
-1.5995758	NUM ADJ </s>	0
-1.6393516	ADJ ADJ </s>	0
-1.5653523	PROPN ADJ </s>	0
-1.5747781	PART ADJ </s>	0
-2.15402	<s> PROPN </s>	0
-1.2083501	NOUN PROPN </s>	0
-1.2858036	PUNCT PROPN </s>	0
-1.2907741	VERB PROPN </s>	0
-1.7134732	NUM PROPN </s>	0
-1.4660795	ADP PROPN </s>	0
-1.5967523	ADJ PROPN </s>	0
-1.2501733	PROPN PROPN </s>	0
-1.3134189	PART PROPN </s>	0
-1.5958015	X PROPN </s>	0
-1.5520551	CCONJ PROPN </s>	0
-1.4369509	PRON PROPN </s>	0
-1.2556585	NOUN PART </s>	0
-1.3197576	VERB PART </s>	0
-1.8051069	NUM PART </s>	0
-1.7209793	ADJ PART </s>	0
-1.5669937	PROPN PART </s>	0
-1.7678343	PART PART </s>	0
-1.7882633	ADV PART </s>	0
-1.9171927	PRON PART </s>	0
-3.5722725	<s> DET </s>	0
-1.5347153	NOUN DET </s>	0
-1.8076323	VERB DET </s>	0
-1.5810848	PROPN DET </s>	0
-1.5310358	PART DET </s>	0
-1.7421783	CCONJ DET </s>	0
-3.4637256	<s> ADV </s>	0
-1.3485078	NOUN ADV </s>	0
-1.8046265	PUNCT ADV </s>	0
-1.6789864	VERB ADV </s>	0
-1.5196137	ADJ ADV </s>	0
-1.7534405	PROPN ADV </s>	0
-1.6185937	PART ADV </s>	0
-1.76657	ADV ADV </s>	0
-0.6916482	INTJ ADV </s>	0
-1.8886471	PUNCT X </s>	0
-1.6308855	NUM X </s>	0
-1.8522117	PROPN X </s>	0
-2.802693	<s> CCONJ </s>	0
-1.5609978	PART CCONJ </s>	0
-3.7317865	<s> PRON </s>	0
-1.7408048	NOUN PRON </s>	0
-1.7616336	PUNCT PRON </s>	0
-1.3580279	VERB PRON </s>	0
-1.5943363	NUM PRON </s>	0
-1.9463949	ADP PRON </s>	0
-1.5588466	PROPN PRON </s>	0
-1.5308884	PART PRON </s>	0
-1.6492455	ADV PRON </s>	0
-0.882584	NOUN INTJ </s>	0
-0.8705411	INTJ INTJ </s>	0
-0.55120265	<s> NOUN NOUN	-2.4694204
-1.1617546	NOUN NOUN NOUN	-2.9721305
-1.0438637	PUNCT NOUN NOUN	-2.5269392
-1.1106741	VERB NOUN NOUN	-2.8646069
-1.1032338	NUM NOUN NOUN	-2.289108
-1.0837616	ADP NOUN NOUN	-2.5764003
-1.110457	ADJ NOUN NOUN	-2.3993485
-1.0996296	PROPN NOUN NOUN	-2.5966458
-1.1439937	PART NOUN NOUN	-2.7725935
-1.0750535	DET NOUN NOUN	-1.9491549
-1.0534389	ADV NOUN NOUN	-1.8176804
-0.96445847	X NOUN NOUN	-1.4129043
-1.0093578	CCONJ NOUN NOUN	-2.3081055
-1.0240849	PRON NOUN NOUN	-1.3889939
-0.80192536	SCONJ NOUN NOUN	-1.21646
-0.7447436	INTJ NOUN NOUN	-0.2800204
-0.6211607	<s> PUNCT NOUN	-1.6983738
-1.1317737	NOUN PUNCT NOUN	-2.7342563
-1.1296058	PUNCT PUNCT NOUN	-1.8209336
-1.1494703	VERB PUNCT NOUN	-2.2948976
-1.06502	NUM PUNCT NOUN	-1.5339663
-0.95424306	ADP PUNCT NOUN	-1.3471142
-0.71140164	ADJ PUNCT NOUN	-1.031376
-1.0514009	PROPN PUNCT NOUN	-2.115141
-1.0965457	PART PUNCT NOUN	-1.8464419
-0.7111656	DET PUNCT NOUN	-1.034788
-1.0282891	ADV PUNCT NOUN	-1.3449904
-0.75912917	X PUNCT NOUN	-0.73555535
-0.95818543	CCONJ PUNCT NOUN	-0.9929852
-1.048977	PRON PUNCT NOUN	-0.8112203
-0.79144466	SCONJ PUNCT NOUN	-0.30132055
-1.1098607	INTJ PUNCT NOUN	-0.3662998
-0.6159497	<s> VERB NOUN	-2.186232
-1.1699632	NOUN VERB NOUN	-2.820404
-1.0758743	PUNCT VERB NOUN	-2.3327441
-1.1428211	VERB VERB NOUN	-2.732525
-1.0189412	NUM VERB NOUN	-1.6706556
-1.0219057	ADP VERB NOUN	-1.9686096
-0.9272245	ADJ VERB NOUN	-0.9721983
-1.1330643	PROPN VERB NOUN	-2.084078
-1.0441549	PART VERB NOUN	-2.0924165
-0.9485782	DET VERB NOUN	-1.3666966
-1.1209903	ADV VERB NOUN	-2.8156047
-0.99054384	X VERB NOUN	-1.3808527
-1.0060661	CCONJ VERB NOUN	-1.7682167
-1.0908234	PRON VERB NOUN	-2.091374
-1.0073441	SCONJ VERB NOUN	-1.2695961
-0.23381558	SPACE VERB NOUN	-0.2800204
-0.52450264	<s> NUM NOUN	-1.7543818
-0.9905877	NOUN NUM NOUN	-1.8064654
-0.93098766	PUNCT NUM NOUN	-1.7053334
-1.0404341	VERB NUM NOUN	-2.2331738
-1.0977616	NUM NUM NOUN	-2.6235266
-0.89226264	ADP NUM NOUN	-1.5666212
-0.7316976	ADJ NUM NOUN	-0.97265387
-0.9085283	PROPN NUM NOUN	-1.531855
-0.8320664	PART NUM NOUN	-1.7483978
-0.92937845	DET NUM NOUN	-2.1350794
-0.93203664	ADV NUM NOUN	-1.7558805
-0.6957369	X NUM NOUN	-0.9058118
-0.8315265	CCONJ NUM NOUN	-1.2572371
-0.8450775	PRON NUM NOUN	-0.7756864
-0.9361514	SCONJ NUM NOUN	-0.78951377
-0.43939722	<s> ADP NOUN	-2.2195938
-1.0435683	NOUN ADP NOUN	-2.3917117
-0.9091053	PUNCT ADP NOUN	-2.028495
-0.9935348	VERB ADP NOUN	-2.3188105
-0.83306956	NUM ADP NOUN	-1.3271229
-0.8741778	ADP ADP NOUN	-1.2601117
-0.6552431	ADJ ADP NOUN	-0.38582137
-0.9177624	PROPN ADP NOUN	-1.8326962
-0.7839099	PART ADP NOUN	-1.402414
-0.6596579	DET ADP NOUN	-0.96769834
-0.91427404	ADV ADP NOUN	-2.2717779
-0.47544107	X ADP NOUN	-0.50825477
-0.85889065	CCONJ ADP NOUN	-1.1850293
-0.9224801	PRON ADP NOUN	-1.7963694
-0.762661	SCONJ ADP NOUN	-0.89206886
-0.15968181	<s> ADJ NOUN	-1.7901065
-0.7985588	NOUN ADJ NOUN	-2.11146
-0.7842257	PUNCT ADJ NOUN	-1.9527178
-0.94598144	VERB ADJ NOUN	-2.488594
-0.7017137	NUM ADJ NOUN	-1.9778098
-0.7824047	ADP ADJ NOUN	-1.9382217
-0.45041233	ADJ ADJ NOUN	-1.5258901
-0.70649123	PROPN ADJ NOUN	-1.8607067
-0.7939942	PART ADJ NOUN	-2.4167006
-0.56371677	DET ADJ NOUN	-1.6246775
-0.7234176	ADV ADJ NOUN	-1.7767912
-0.42474592	X ADJ NOUN	-1.0133002
-0.6958522	CCONJ ADJ NOUN	-1.6964927
-0.5689137	PRON ADJ NOUN	-1.0862726
-0.4921707	SCONJ ADJ NOUN	-0.6069554
-0.4858511	<s> PROPN NOUN	-2.3920567
-1.0921965	NOUN PROPN NOUN	-2.1066074
-1.0407279	PUNCT PROPN NOUN	-2.302687
-1.0928631	VERB PROPN NOUN	-2.4346528
-0.8859941	NUM PROPN NOUN	-1.7418637
-1.0659413	ADP PROPN NOUN	-2.2813447
-0.8157562	ADJ PROPN NOUN	-1.322179
-1.0520234	PROPN PROPN NOUN	-2.053364
-0.94226867	PART PROPN NOUN	-2.0654962
-0.8505135	DET PROPN NOUN	-1.3825428
-0.8950043	ADV PROPN NOUN	-1.5699763
-0.7950111	X PROPN NOUN	-1.0836046
-0.92251474	CCONJ PROPN NOUN	-1.7278428
-0.7690186	PRON PROPN NOUN	-0.7910556
-0.7779973	SCONJ PROPN NOUN	-0.8905724
-0.94865775	INTJ PROPN NOUN	-0.2800204
-0.47907346	SPACE PROPN NOUN	-0.29191592
-0.8520903	<s> PART NOUN	-0.84083575
-1.1216664	NOUN PART NOUN	-3.0408273
-0.77613467	PUNCT PART NOUN	-1.8674778
-1.1022654	VERB PART NOUN	-2.8904634
-0.95379585	NUM PART NOUN	-1.9245191
-0.8694476	ADP PART NOUN	-0.29899737
-0.85657287	ADJ PART NOUN	-2.221347
-1.0164306	PROPN PART NOUN	-2.3949618
-0.82266355	PART PART NOUN	-1.9911017
-0.5644299	DET PART NOUN	-1.2447332
-0.824786	ADV PART NOUN	-0.86397576
-0.40068594	X PART NOUN	-0.29512745
-0.92310137	CCONJ PART NOUN	-0.29755172
-0.9265022	PRON PART NOUN	-2.355708
-0.6269019	SCONJ PART NOUN	-0.3035564
-0.50056076	INTJ PART NOUN	-0.2800204
-0.23097597	<s> DET NOUN	-2.0932148
-0.83734477	NOUN DET NOUN	-1.5079157
-0.75593734	PUNCT DET NOUN	-1.7568109
-0.9477471	VERB DET NOUN	-2.2941573
-0.5217295	NUM DET NOUN	-0.92313415
-0.9125919	ADP DET NOUN	-1.8716849
-0.53072137	ADJ DET NOUN	-0.4316032
-0.7135369	PROPN DET NOUN	-1.2516668
-0.79196066	PART DET NOUN	-1.5895813
-0.48677978	DET DET NOUN	-0.8127893
-0.7460814	ADV DET NOUN	-1.5239038
-0.7475204	X DET NOUN	-1.1395197
-0.86746705	CCONJ DET NOUN	-1.5031571
-0.6887183	PRON DET NOUN	-0.96305865
-0.6333805	SCONJ DET NOUN	-0.9694376
-0.9488296	<s> ADV NOUN	-2.0344126
-1.0926325	NOUN ADV NOUN	-1.5256029
-1.1038395	PUNCT ADV NOUN	-1.8116797
-1.0314167	VERB ADV NOUN	-1.6296265
-0.96678275	NUM ADV NOUN	-0.7430245
-0.8828182	ADP ADV NOUN	-1.158547
-1.2005367	ADJ ADV NOUN	-0.3035564
-1.1256653	PROPN ADV NOUN	-0.96305865
-1.0982149	PART ADV NOUN	-0.98942786
-0.91729724	DET ADV NOUN	-0.43674415
-1.0641961	ADV ADV NOUN	-1.3787968
-0.96158755	X ADV NOUN	-0.4460646
-0.98307616	CCONJ ADV NOUN	-0.6839417
-1.119257	PRON ADV NOUN	-1.0625491
-1.1200407	SCONJ ADV NOUN	-0.57559276
-0.4625479	<s> X NOUN	-0.95653385
-0.9152936	NOUN X NOUN	-1.3197913
-0.7803452	PUNCT X NOUN	-0.96011275
-0.8110944	VERB X NOUN	-1.2905906
-0.76826596	NUM X NOUN	-0.59388673
-0.7169082	ADP X NOUN	-0.61638075
-0.5490023	ADJ X NOUN	-0.2800204
-0.8246713	PROPN X NOUN	-0.7799954
-0.7352975	PART X NOUN	-0.8682555
-0.9230569	DET X NOUN	-0.3035564
-0.8781717	ADV X NOUN	-1.4275786
-0.49649596	X X NOUN	-0.29321006
-0.89964247	CCONJ X NOUN	-0.5524941
-0.80276394	PRON X NOUN	-0.8816458
-0.68712497	SCONJ X NOUN	-0.33064532
-0.6176141	<s> CCONJ NOUN	-1.2283046
-1.0004358	NOUN CCONJ NOUN	-2.6559873
-0.8465989	PUNCT CCONJ NOUN	-1.3542145
-0.8837174	VERB CCONJ NOUN	-1.4581952
-0.6664813	NUM CCONJ NOUN	-0.7421066
-0.46297637	ADP CCONJ NOUN	-0.2800204
-0.5230443	ADJ CCONJ NOUN	-0.8848325
-0.8313646	PROPN CCONJ NOUN	-1.50267
-0.6103197	PART CCONJ NOUN	-0.695544
-0.46603307	DET CCONJ NOUN	-0.29755172
-0.8825749	ADV CCONJ NOUN	-0.5137647
-0.696992	CCONJ CCONJ NOUN	-0.3662998
-0.75829434	PRON CCONJ NOUN	-0.9389802
-0.2214314	INTJ CCONJ NOUN	-0.2800204
-1.3536841	<s> PRON NOUN	-1.4696333
-0.9341236	NOUN PRON NOUN	-0.9597184
-1.0657854	PUNCT PRON NOUN	-1.2705876
-1.0770532	VERB PRON NOUN	-1.6785284
-0.798963	NUM PRON NOUN	-0.3709824
-0.9857173	ADP PRON NOUN	-1.4507303
-1.1382048	ADJ PRON NOUN	-0.2800204
-0.8193034	PROPN PRON NOUN	-0.6412634
-0.9361023	PART PRON NOUN	-0.86335576
-1.080919	DET PRON NOUN	-0.38582137
-0.9466111	ADV PRON NOUN	-1.0537819
-0.8490178	X PRON NOUN	-0.6086908
-0.9671004	CCONJ PRON NOUN	-0.8254468
-0.9388536	PRON PRON NOUN	-0.5690857
-1.1036453	SCONJ PRON NOUN	-0.58263004
-0.61704713	<s> SCONJ NOUN	-1.4559636
-0.79343736	NOUN SCONJ NOUN	-0.65989274
-0.87177634	PUNCT SCONJ NOUN	-1.180239
-0.8592985	VERB SCONJ NOUN	-0.8531828
-0.85527927	ADP SCONJ NOUN	-0.3035564
-0.9106362	PROPN SCONJ NOUN	-0.3035564
-0.74574023	PART SCONJ NOUN	-0.3035564
-0.835242	ADV SCONJ NOUN	-0.71749395
-0.6301728	CCONJ SCONJ NOUN	-0.2800204
-0.9829868	PRON SCONJ NOUN	-0.2800204
-0.7311138	SCONJ SCONJ NOUN	-0.2800204
-1.6418657	<s> INTJ NOUN	-0.2800204
-0.51659137	NOUN INTJ NOUN	-0.2800204
-1.0180134	PUNCT INTJ NOUN	-0.2800204
-0.6175079	VERB INTJ NOUN	-0.2800204
-0.2071067	NUM INTJ NOUN	-0.2800204
-0.69318753	PART INTJ NOUN	-0.2800204
-0.62481004	NOUN SPACE NOUN	-0.2800204
-0.5580978	VERB SPACE NOUN	-0.2800204
-0.18585667	PROPN SPACE NOUN	-0.2800204
-0.9785985	<s> NOUN PUNCT	-2.0344775
-1.1313176	NOUN NOUN PUNCT	-3.0802372
-1.0412935	PUNCT NOUN PUNCT	-2.3680654
-1.1357026	VERB NOUN PUNCT	-2.884265
-1.1005372	NUM NOUN PUNCT	-2.4430103
-1.0810217	ADP NOUN PUNCT	-1.7845211
-1.1076739	ADJ NOUN PUNCT	-2.627307
-1.0971005	PROPN NOUN PUNCT	-2.3168707
-1.0448132	PART NOUN PUNCT	-3.0486534
-1.0723568	DET NOUN PUNCT	-2.1011014
-1.0505512	ADV NOUN PUNCT	-1.5949981
-1.0350093	X NOUN PUNCT	-0.6796032
-1.00569	CCONJ NOUN PUNCT	-2.0937006
-1.0532496	PRON NOUN PUNCT	-1.329041
-1.0710942	SCONJ NOUN PUNCT	-0.5958269
-0.39383918	INTJ NOUN PUNCT	-0.30842066
-0.367461	SPACE NOUN PUNCT	-0.2800204
-1.3517064	<s> PUNCT PUNCT	-1.0748568
-1.163029	NOUN PUNCT PUNCT	-2.3336375
-1.0993732	PUNCT PUNCT PUNCT	-1.4000301
-1.1529986	VERB PUNCT PUNCT	-2.0304654
-1.0689254	NUM PUNCT PUNCT	-1.2936509
-1.1928084	ADP PUNCT PUNCT	-0.3946072
-1.1281929	ADJ PUNCT PUNCT	-0.28869763
-1.112525	PROPN PUNCT PUNCT	-1.7233671
-1.1018193	PART PUNCT PUNCT	-1.3239665
-1.239657	DET PUNCT PUNCT	-0.30842066
-1.111923	ADV PUNCT PUNCT	-0.6115365
-1.1639745	X PUNCT PUNCT	-0.55659306
-1.2955625	CCONJ PUNCT PUNCT	-0.297639
-1.0536257	PRON PUNCT PUNCT	-0.905796
-1.1213428	INTJ PUNCT PUNCT	-0.5191618
-1.1898632	<s> VERB PUNCT	-1.6521338
-1.1702858	NOUN VERB PUNCT	-2.8081207
-1.0483495	PUNCT VERB PUNCT	-1.8757551
-1.1431388	VERB VERB PUNCT	-2.446492
-1.0863768	NUM VERB PUNCT	-1.3358543
-1.0893413	ADP VERB PUNCT	-1.0071973
-0.92754894	ADJ VERB PUNCT	-0.982112
-1.133378	PROPN VERB PUNCT	-2.1242828
-1.0766814	PART VERB PUNCT	-2.1700547
-1.111255	DET VERB PUNCT	-0.70177925
-1.1491207	ADV VERB PUNCT	-2.750774
-1.0578568	X VERB PUNCT	-1.4814745
-1.2042108	CCONJ VERB PUNCT	-1.2093341
-1.0911372	PRON VERB PUNCT	-1.9261508
-1.1903263	SCONJ VERB PUNCT	-0.82401955
-0.6912412	INTJ VERB PUNCT	-0.3035564
-1.2106357	<s> NUM PUNCT	-1.1333215
-1.0206285	NOUN NUM PUNCT	-1.4492224
-0.93134606	PUNCT NUM PUNCT	-1.5269262
-1.0407443	VERB NUM PUNCT	-1.615361
-1.0980914	NUM NUM PUNCT	-2.11727
-1.0084796	ADP NUM PUNCT	-0.98617977
-1.1398623	ADJ NUM PUNCT	-0.38403732
-1.0053793	PROPN NUM PUNCT	-1.0365956
-1.0127792	PART NUM PUNCT	-1.174479
-1.1050518	DET NUM PUNCT	-0.73765314
-1.0782022	ADV NUM PUNCT	-1.0766271
-1.2805543	X NUM PUNCT	-0.29162896
-1.1792548	CCONJ NUM PUNCT	-0.8758509
-1.0703467	PRON NUM PUNCT	-0.28507861
-1.1677036	SCONJ NUM PUNCT	-0.2800204
-1.7243649	<s> ADP PUNCT	-1.0784082
-1.0772048	NOUN ADP PUNCT	-1.0838704
-1.0587231	PUNCT ADP PUNCT	-0.9994764
-1.0936717	VERB ADP PUNCT	-1.015315
-1.1511275	NUM ADP PUNCT	-0.5067366
-1.107593	ADP ADP PUNCT	-0.5491689
-1.0978048	PROPN ADP PUNCT	-0.6904726
-1.245884	PART ADP PUNCT	-0.5705553
-1.323881	DET ADP PUNCT	-0.28711858
-1.0943164	ADV ADP PUNCT	-0.92684877
-1.1888558	X ADP PUNCT	-0.2800204
-1.2623467	CCONJ ADP PUNCT	-0.28711858
-1.0727767	PRON ADP PUNCT	-0.68332756
-1.3229988	SCONJ ADP PUNCT	-0.2800204
-2.262608	<s> ADJ PUNCT	-0.30253872
-1.1453553	NOUN ADJ PUNCT	-0.3867917
-0.854092	PUNCT ADJ PUNCT	-0.84112823
-1.2221609	VERB ADJ PUNCT	-0.693203
-1.3080205	NUM ADJ PUNCT	-0.3443626
-1.1011963	ADP ADJ PUNCT	-0.59122646
-1.5034112	ADJ ADJ PUNCT	-0.2800204
-1.3103946	PROPN ADJ PUNCT	-0.30842066
-1.1858068	PART ADJ PUNCT	-0.45558405
-1.3253518	DET ADJ PUNCT	-0.28891137
-1.075658	ADV ADJ PUNCT	-0.3374821
-1.3275609	CCONJ ADJ PUNCT	-0.28711858
-1.4810965	PRON ADJ PUNCT	-0.2800204
-0.7479832	<s> PROPN PUNCT	-2.1018963
-1.0955751	NOUN PROPN PUNCT	-2.1053624
-1.0165344	PUNCT PROPN PUNCT	-2.231851
-1.0963345	VERB PROPN PUNCT	-1.9962896
-0.98765296	NUM PROPN PUNCT	-0.85849065
-1.1358876	ADP PROPN PUNCT	-1.6295662
-0.9966818	ADJ PROPN PUNCT	-0.8023922
-1.055346	PROPN PROPN PUNCT	-1.9568019
-1.059762	PART PROPN PUNCT	-1.5499591
-0.97141117	DET PROPN PUNCT	-0.5318689
-0.93069875	ADV PROPN PUNCT	-1.1046078
-1.0482115	X PROPN PUNCT	-0.46628773
-1.024823	CCONJ PROPN PUNCT	-1.3579072
-0.9164692	PRON PROPN PUNCT	-0.44961143
-1.2364672	SCONJ PROPN PUNCT	-0.46500263
-0.9570291	INTJ PROPN PUNCT	-0.2800204
-1.4717735	<s> PART PUNCT	-0.51333857
-1.129732	NOUN PART PUNCT	-2.5489671
-0.94564843	PUNCT PART PUNCT	-1.2066863
-1.110331	VERB PART PUNCT	-2.3560305
-1.0229071	NUM PART PUNCT	-1.5065533
-1.1864451	ADP PART PUNCT	-0.31582072
-0.92579	ADJ PART PUNCT	-0.9174229
-1.0535144	PROPN PART PUNCT	-1.4015566
-0.91110176	PART PART PUNCT	-1.2710378
-1.3936114	DET PART PUNCT	-0.2800204
-0.9471808	ADV PART PUNCT	-0.9408155
-0.93945307	CCONJ PART PUNCT	-0.29755172
-1.0010015	PRON PART PUNCT	-1.2868547
-0.50766325	INTJ PART PUNCT	-0.2800204
-2.3617022	<s> DET PUNCT	-0.5136212
-1.1648962	NOUN DET PUNCT	-0.35324335
-1.1509237	PUNCT DET PUNCT	-0.46930134
-1.1195575	VERB DET PUNCT	-0.6731431
-1.3816895	NUM DET PUNCT	-0.2800204
-1.1796329	ADP DET PUNCT	-0.46112186
-1.1064649	ADJ DET PUNCT	-0.2800204
-1.1422715	PROPN DET PUNCT	-0.67212814
-1.3152378	PART DET PUNCT	-0.2800204
-1.3287398	DET DET PUNCT	-0.2800204
-1.2358578	ADV DET PUNCT	-0.49123853
-1.3373789	X DET PUNCT	-0.2800204
-1.3374202	CCONJ DET PUNCT	-0.4226359
-1.4961321	PRON DET PUNCT	-0.2800204
-1.2275491	SCONJ DET PUNCT	-0.2800204
-1.190063	<s> ADV PUNCT	-1.7939467
-1.0929462	NOUN ADV PUNCT	-1.2190479
-1.066772	PUNCT ADV PUNCT	-1.3675963
-1.0613927	VERB ADV PUNCT	-1.3643583
-1.0673614	NUM ADV PUNCT	-0.5377448
-1.4084642	ADP ADV PUNCT	-0.41666335
-1.0463314	ADJ ADV PUNCT	-0.29755172
-1.2220007	PROPN ADV PUNCT	-0.46600896
-1.3490373	PART ADV PUNCT	-0.83762574
-1.2413907	DET ADV PUNCT	-0.61623573
-1.1877385	ADV ADV PUNCT	-1.0968306
-1.4118327	CCONJ ADV PUNCT	-0.2800204
-1.0741581	PRON ADV PUNCT	-0.57331836
-1.2935872	SCONJ ADV PUNCT	-0.28891137
-0.66387	INTJ ADV PUNCT	-0.2800204
-1.411129	<s> X PUNCT	-0.36464396
-1.2146957	NOUN X PUNCT	-0.53194946
-1.1285446	PUNCT X PUNCT	-0.7309118
-1.2122728	VERB X PUNCT	-0.45558405
-0.976657	NUM X PUNCT	-0.3054143
-1.1747653	ADP X PUNCT	-0.29191592
-0.8219009	ADJ X PUNCT	-0.2800204
-1.1908411	PROPN X PUNCT	-0.38868248
-1.363931	PART X PUNCT	-0.2800204
-1.2607383	ADV X PUNCT	-0.4972695
-1.0871636	X X PUNCT	-0.2800204
-1.2505679	CCONJ X PUNCT	-0.2800204
-1.4686968	PRON X PUNCT	-0.2800204
-1.2054427	SCONJ X PUNCT	-0.2800204
-1.8897384	<s> CCONJ PUNCT	-0.29631162
-1.1225399	NOUN CCONJ PUNCT	-0.81183887
-0.98868966	PUNCT CCONJ PUNCT	-1.0350624
-1.3943161	VERB CCONJ PUNCT	-0.29631162
-1.3763509	NUM CCONJ PUNCT	-0.3035564
-1.1963317	PROPN CCONJ PUNCT	-0.48930407
-1.4055468	ADV CCONJ PUNCT	-0.2800204
-0.77313125	X CCONJ PUNCT	-0.2800204
-1.4505823	PRON CCONJ PUNCT	-0.28891137
-2.476089	<s> PRON PUNCT	-0.5536525
-0.9344424	NOUN PRON PUNCT	-0.91076416
-1.1519619	PUNCT PRON PUNCT	-0.6660747
-1.0478919	VERB PRON PUNCT	-1.8540766
-1.1330006	NUM PRON PUNCT	-1.0834333
-1.1316093	ADP PRON PUNCT	-1.0534316
-0.7139928	ADJ PRON PUNCT	-0.41685468
-1.0626742	PROPN PRON PUNCT	-0.39264882
-0.9365407	PART PRON PUNCT	-1.0991477
-1.3090113	DET PRON PUNCT	-0.2800204
-1.1417094	ADV PRON PUNCT	-0.59651405
-1.4249997	X PRON PUNCT	-0.2800204
-1.119261	CCONJ PRON PUNCT	-0.4798
-0.99348515	PRON PRON PUNCT	-0.64604014
-1.2451551	SCONJ PRON PUNCT	-0.29769716
-2.3367865	<s> SCONJ PUNCT	-0.3275173
-1.4438689	PUNCT SCONJ PUNCT	-0.28592744
-0.08756418	<s> INTJ PUNCT	-1.0829688
-0.2740067	PUNCT INTJ PUNCT	-0.6847162
-0.6186585	VERB INTJ PUNCT	-0.3035564
-0.5993492	PROPN INTJ PUNCT	-0.2800204
-0.44020647	PART INTJ PUNCT	-0.31582072
-0.45746183	INTJ INTJ PUNCT	-0.29191592
-0.6735055	<s> NOUN VERB	-2.3471243
-1.1648277	NOUN NOUN VERB	-2.8753917
-1.1048007	PUNCT NOUN VERB	-2.2097793
-1.1416075	VERB NOUN VERB	-2.5963585
-1.1062579	NUM NOUN VERB	-2.342331
-1.0868345	ADP NOUN VERB	-2.4179106
-1.1135788	ADJ NOUN VERB	-2.194523
-1.1305759	PROPN NOUN VERB	-2.404372
-1.1128845	PART NOUN VERB	-2.5498538
-1.0780776	DET NOUN VERB	-2.1162586
-1.0266216	ADV NOUN VERB	-1.7910669
-0.90405166	X NOUN VERB	-1.6280743
-0.9406536	CCONJ NOUN VERB	-1.8703548
-1.0596511	PRON NOUN VERB	-1.5605099
-0.8055758	SCONJ NOUN VERB	-1.2292321
-1.0369781	<s> PUNCT VERB	-1.3028263
-1.1595007	NOUN PUNCT VERB	-2.528826
-1.166848	PUNCT PUNCT VERB	-1.5355445
-1.1494703	VERB PUNCT VERB	-2.140512
-1.099543	NUM PUNCT VERB	-1.3790661
-0.99166965	ADP PUNCT VERB	-0.9450787
-0.897705	ADJ PUNCT VERB	-0.57789075
-1.1087466	PROPN PUNCT VERB	-1.8552141
-1.1415042	PART PUNCT VERB	-1.6125695
-1.3775842	DET PUNCT VERB	-0.33674052
-1.0657952	ADV PUNCT VERB	-1.1366882
-0.8144704	X PUNCT VERB	-0.5429963
-0.95818543	CCONJ PUNCT VERB	-0.6729211
-0.96918464	PRON PUNCT VERB	-0.91094077
-1.0449303	SCONJ PUNCT VERB	-0.2800204
-1.1098607	INTJ PUNCT VERB	-0.2800204
-0.7643194	<s> VERB VERB	-2.048676
-1.1699632	NOUN VERB VERB	-2.6990857
-1.0758743	PUNCT VERB VERB	-2.0286803
-1.1149983	VERB VERB VERB	-2.3817234
-1.0189412	NUM VERB VERB	-1.362776
-1.0889719	ADP VERB VERB	-1.4705915
-1.000459	ADJ VERB VERB	-0.7386186
-1.1330643	PROPN VERB VERB	-1.8505102
-1.0441549	PART VERB VERB	-1.813552
-0.9485782	DET VERB VERB	-0.917485
-1.148802	ADV VERB VERB	-2.7443497
-1.0227247	X VERB VERB	-1.4366437
-1.0476729	CCONJ VERB VERB	-1.2580383
-1.1206017	PRON VERB VERB	-2.2033694
-1.0600455	SCONJ VERB VERB	-1.1885117
-0.98909914	INTJ VERB VERB	-0.2800204
-1.3899943	<s> NUM VERB	-0.95762265
-1.0521871	NOUN NUM VERB	-1.013602
-1.139183	PUNCT NUM VERB	-0.92152613
-1.1020334	VERB NUM VERB	-1.3936249
-1.0977616	NUM NUM VERB	-1.9622266
-1.1070403	ADP NUM VERB	-0.6675361
-0.91733617	ADJ NUM VERB	-0.2965348
-1.083752	PROPN NUM VERB	-0.63116753
-1.0720718	PART NUM VERB	-0.8862707
-1.0258545	DET NUM VERB	-1.1593814
-1.0364951	ADV NUM VERB	-0.87208915
-1.021767	X NUM VERB	-0.35331017
-1.0299424	CCONJ NUM VERB	-0.60484517
-1.0697052	PRON NUM VERB	-0.46930134
-1.1663083	SCONJ NUM VERB	-0.2800204
-0.92572117	<s> ADP VERB	-1.7645599
-1.0435683	NOUN ADP VERB	-1.6646332
-1.0123622	PUNCT ADP VERB	-1.5241055
-0.9935348	VERB ADP VERB	-1.625244
-0.96110535	NUM ADP VERB	-0.5538871
-0.9723332	ADP ADP VERB	-0.7031809
-1.0864588	ADJ ADP VERB	-0.2800204
-0.94750816	PROPN ADP VERB	-1.1927636
-0.98352987	PART ADP VERB	-0.75551987
-0.9044508	DET ADP VERB	-0.3532204
-0.97595364	ADV ADP VERB	-1.583127
-0.94922125	X ADP VERB	-0.2800204
-1.1125685	CCONJ ADP VERB	-0.69563717
-0.9888836	PRON ADP VERB	-1.1607988
-1.0328333	SCONJ ADP VERB	-0.43607262
-1.6798087	<s> ADJ VERB	-0.56486917
-0.8609413	NOUN ADJ VERB	-0.747356
-1.0069269	PUNCT ADJ VERB	-0.68532485
-1.0059191	VERB ADJ VERB	-1.0410578
-0.97712994	NUM ADJ VERB	-0.7067745
-0.97667146	ADP ADJ VERB	-0.54418385
-0.98098063	ADJ ADJ VERB	-0.3829117
-1.039515	PROPN ADJ VERB	-0.39446348
-0.91641647	PART ADJ VERB	-0.6779001
-1.1588149	DET ADJ VERB	-0.45142543
-0.9502803	ADV ADJ VERB	-0.4976203
-1.2955296	X ADJ VERB	-0.2800204
-0.97020507	CCONJ ADJ VERB	-0.51670027
-0.89629745	PRON ADJ VERB	-0.513011
-1.1676519	SCONJ ADJ VERB	-0.2800204
-0.84789026	<s> PROPN VERB	-2.0299914
-1.0645323	NOUN PROPN VERB	-1.9624422
-1.0700909	PUNCT PROPN VERB	-1.7868494
-1.0928631	VERB PROPN VERB	-1.8989648
-0.9489445	NUM PROPN VERB	-0.8805598
-1.0659413	ADP PROPN VERB	-2.0408418
-0.950681	ADJ PROPN VERB	-0.7147989
-1.0242982	PROPN PROPN VERB	-1.8750895
-0.97665906	PART PROPN VERB	-1.3747567
-0.96756864	DET PROPN VERB	-0.7193228
-0.9996687	ADV PROPN VERB	-1.1375144
-0.9015753	X PROPN VERB	-0.9642921
-1.0766627	CCONJ PROPN VERB	-1.2931418
-0.8586676	PRON PROPN VERB	-0.48694032
-0.85052	SCONJ PROPN VERB	-0.65962
-0.68943363	INTJ PROPN VERB	-0.2800204
-0.76693046	SPACE PROPN VERB	-0.2800204
-0.26893392	<s> PART VERB	-1.3345034
-1.1254951	NOUN PART VERB	-2.5242355
-0.94001627	PUNCT PART VERB	-1.3423681
-1.1060941	VERB PART VERB	-2.233966
-0.98679703	NUM PART VERB	-1.1909757
-0.64990485	ADP PART VERB	-0.4860226
-0.95630807	ADJ PART VERB	-0.64109385
-1.0198679	PROPN PART VERB	-1.4684632
-1.0037714	PART PART VERB	-1.2292398
-0.99333847	DET PART VERB	-0.29172465
-0.8285022	ADV PART VERB	-1.2095916
-0.8375044	X PART VERB	-0.28711858
-0.56536484	CCONJ PART VERB	-0.44017905
-0.93002075	PRON PART VERB	-1.4343636
-0.6311143	SCONJ PART VERB	-0.2800204
-1.4672722	<s> DET VERB	-0.99882245
-0.90284747	NOUN DET VERB	-0.54798234
-1.0912243	PUNCT DET VERB	-0.64546454
-1.0469285	VERB DET VERB	-1.3110994
-1.398159	NUM DET VERB	-0.2800204
-0.9512656	ADP DET VERB	-0.9582298
-1.1501235	PROPN DET VERB	-0.3236735
-1.3299805	PART DET VERB	-0.45065403
-1.1660836	DET DET VERB	-0.29755172
-0.99060637	ADV DET VERB	-0.66858464
-1.0723501	X DET VERB	-0.4040758
-0.92430735	CCONJ DET VERB	-0.7748475
-0.97746944	PRON DET VERB	-0.5377919
-0.8557086	SCONJ DET VERB	-0.3294146
-0.43731797	<s> ADV VERB	-2.5351193
-1.089322	NOUN ADV VERB	-2.9891675
-0.9669012	PUNCT ADV VERB	-2.4310951
-1.0004876	VERB ADV VERB	-2.5209541
-0.8142071	NUM ADV VERB	-1.5882797
-0.87953043	ADP ADV VERB	-1.6064514
-0.5114558	ADJ ADV VERB	-0.6417125
-0.94781417	PROPN ADV VERB	-2.1576474
-0.82194424	PART ADV VERB	-2.0704966
-0.69536847	DET ADV VERB	-1.0576761
-0.937519	ADV ADV VERB	-2.741
-0.44261986	X ADV VERB	-0.9679221
-0.7365168	CCONJ ADV VERB	-1.3757498
-0.89502573	PRON ADV VERB	-2.4694412
-0.7353525	SCONJ ADV VERB	-1.119918
-0.23080996	SPACE ADV VERB	-0.2800204
-0.64259964	<s> X VERB	-0.7606071
-0.8897883	NOUN X VERB	-1.5655087
-0.8263648	PUNCT X VERB	-0.82564855
-0.84444296	VERB X VERB	-1.3168031
-0.6369241	NUM X VERB	-0.6839806
-0.604776	ADP X VERB	-0.68290627
-0.8211968	ADJ X VERB	-0.2800204
-0.703496	PROPN X VERB	-0.9316111
-0.7404613	PART X VERB	-1.1209431
-0.4533954	DET X VERB	-0.544467
-0.8479294	ADV X VERB	-1.543575
-0.70444995	CCONJ X VERB	-0.6656393
-0.67920333	PRON X VERB	-0.9489554
-0.5968361	SCONJ X VERB	-0.34271324
-0.64363617	<s> CCONJ VERB	-1.1012677
-1.0290478	NOUN CCONJ VERB	-1.8313178
-0.9169	PUNCT CCONJ VERB	-1.37614
-0.8837174	VERB CCONJ VERB	-1.7662718
-0.97287667	NUM CCONJ VERB	-0.3390317
-0.7362237	ADP CCONJ VERB	-0.2800204
-0.6178709	ADJ CCONJ VERB	-0.6600491
-1.0027452	PROPN CCONJ VERB	-0.7911542
-0.6843891	PART CCONJ VERB	-0.49377826
-0.6688163	ADV CCONJ VERB	-0.50322986
-0.7305465	X CCONJ VERB	-0.2800204
-0.50581187	CCONJ CCONJ VERB	-0.29512745
-1.0218247	PRON CCONJ VERB	-0.48955882
-0.48922002	SCONJ CCONJ VERB	-0.2800204
-0.3588262	<s> PRON VERB	-2.401607
-0.9306102	NOUN PRON VERB	-1.4059134
-0.9903165	PUNCT PRON VERB	-2.0559335
-1.0440321	VERB PRON VERB	-2.1485212
-0.79471153	NUM PRON VERB	-0.7330426
-0.9822526	ADP PRON VERB	-1.9167707
-0.8889483	ADJ PRON VERB	-0.2800204
-0.94397116	PROPN PRON VERB	-0.7904353
-0.8313634	PART PRON VERB	-1.1704051
-0.5330166	DET PRON VERB	-0.50458753
-0.8707738	ADV PRON VERB	-1.6928322
-0.7646871	X PRON VERB	-1.213347
-0.9022009	CCONJ PRON VERB	-0.811111
-0.7690091	PRON PRON VERB	-0.93799746
-0.775859	SCONJ PRON VERB	-1.3468267
-0.47683102	INTJ PRON VERB	-0.2800204
-0.67051685	<s> SCONJ VERB	-1.4149263
-0.6792525	NOUN SCONJ VERB	-1.0303538
-0.83219194	PUNCT SCONJ VERB	-1.0656581
-0.8098694	VERB SCONJ VERB	-0.6190316
-0.79419345	NUM SCONJ VERB	-0.2800204
-0.85527927	ADP SCONJ VERB	-0.2800204
-0.572996	PROPN SCONJ VERB	-0.4042719
-0.74574023	PART SCONJ VERB	-0.30011508
-0.835242	ADV SCONJ VERB	-0.62073094
-0.49039054	PRON SCONJ VERB	-0.58645225
-0.46024516	SCONJ SCONJ VERB	-0.2800204
-1.7006145	<s> INTJ VERB	-0.2800204
-0.78657	NOUN INTJ VERB	-0.2800204
-1.2367771	PUNCT INTJ VERB	-0.2800204
-0.5988517	VERB INTJ VERB	-0.2800204
-0.18870544	ADV INTJ VERB	-0.2800204
-0.74150276	NOUN SPACE VERB	-0.2800204
-1.5987413	<s> NOUN NUM	-1.5432712
-1.1651436	NOUN NOUN NUM	-1.6991222
-1.1722274	PUNCT NOUN NUM	-1.4293994
-1.1419284	VERB NOUN NUM	-1.586116
-1.1689675	NUM NOUN NUM	-1.3132775
-1.1494203	ADP NOUN NUM	-1.3967848
-1.2107989	ADJ NOUN NUM	-1.0965357
-1.1609664	PROPN NOUN NUM	-1.4457413
-1.2737813	PART NOUN NUM	-1.2399037
-1.1407872	DET NOUN NUM	-0.8844851
-1.1622242	ADV NOUN NUM	-0.9395575
-1.2452717	X NOUN NUM	-0.62027264
-1.2790053	CCONJ NOUN NUM	-0.8600501
-1.1750531	PRON NOUN NUM	-0.81616634
-1.3446584	SCONJ NOUN NUM	-0.5639727
-1.600986	<s> PUNCT NUM	-0.9527485
-1.1963727	NOUN PUNCT NUM	-1.8548032
-1.1760705	PUNCT PUNCT NUM	-1.1299781
-1.1863424	VERB PUNCT NUM	-1.5216068
-1.0097519	NUM PUNCT NUM	-1.7612596
-1.1406859	ADP PUNCT NUM	-0.64301574
-1.4370677	ADJ PUNCT NUM	-0.2800204
-1.221298	PROPN PUNCT NUM	-1.3252795
-1.2043192	PART PUNCT NUM	-1.2135813
-1.044211	DET PUNCT NUM	-0.5195459
-1.2741077	ADV PUNCT NUM	-0.66001594
-1.5293348	X PUNCT NUM	-0.2800204
-1.3097253	CCONJ PUNCT NUM	-0.29512745
-1.3719021	PRON PUNCT NUM	-0.33395413
-1.1300337	<s> VERB NUM	-1.7577437
-1.1702858	NOUN VERB NUM	-2.1907508
-1.1059425	PUNCT VERB NUM	-1.6409171
-1.1431388	VERB VERB NUM	-1.9943875
-1.0863768	NUM VERB NUM	-1.1726153
-1.2146826	ADP VERB NUM	-1.1169336
-1.0890691	ADJ VERB NUM	-0.46320984
-1.133378	PROPN VERB NUM	-1.6372712
-1.1492853	PART VERB NUM	-1.5464998
-1.2228861	DET VERB NUM	-0.72824407
-1.1491207	ADV VERB NUM	-2.262194
-1.0956742	X VERB NUM	-0.9873889
-1.1457186	CCONJ VERB NUM	-0.9504445
-1.1874778	PRON VERB NUM	-1.5381478
-1.0605364	SCONJ VERB NUM	-0.7870171
-0.98999363	INTJ VERB NUM	-0.2800204
-0.392301	<s> NUM NUM	-1.9179549
-0.98755074	NOUN NUM NUM	-1.9883971
-0.96160054	PUNCT NUM NUM	-1.8468144
-1.037397	VERB NUM NUM	-2.4825144
-1.188882	NUM NUM NUM	-1.7437892
-0.8893064	ADP NUM NUM	-1.8088763
-0.7291179	ADJ NUM NUM	-1.2696705
-0.8778512	PROPN NUM NUM	-1.450711
-0.8671846	PART NUM NUM	-2.1213133
-0.92643905	DET NUM NUM	-1.8711249
-0.92893356	ADV NUM NUM	-1.76737
-0.69268763	X NUM NUM	-0.8589976
-0.8692299	CCONJ NUM NUM	-1.4977113
-0.65556395	PRON NUM NUM	-1.0802966
-0.62776273	SCONJ NUM NUM	-0.6437433
-0.22970699	INTJ NUM NUM	-0.2800204
-1.3470522	<s> ADP NUM	-1.4572592
-1.0814847	NOUN ADP NUM	-1.5197685
-1.0639861	PUNCT ADP NUM	-1.262199
-1.0310307	VERB ADP NUM	-1.4014055
-1.0247747	NUM ADP NUM	-0.7010918
-1.1153023	ADP ADP NUM	-0.81718516
-1.0609533	PROPN ADP NUM	-1.2302047
-1.0677048	PART ADP NUM	-0.6679369
-1.3384227	DET ADP NUM	-0.28891137
-1.0994049	ADV ADP NUM	-1.4308419
-1.0289844	CCONJ ADP NUM	-0.64109385
-1.1762841	PRON ADP NUM	-1.0792792
-1.1600661	SCONJ ADP NUM	-0.5242797
-1.8204932	<s> ADJ NUM	-0.990886
-0.947	NOUN ADJ NUM	-0.8302406
-1.0231907	PUNCT ADJ NUM	-0.7567298
-1.0925751	VERB ADJ NUM	-1.1745172
-1.2135539	NUM ADJ NUM	-0.5907588
-1.0461329	ADP ADJ NUM	-0.6796998
-1.0603924	PROPN ADJ NUM	-0.48848376
-1.1150974	PART ADJ NUM	-1.0331692
-1.1932825	DET ADJ NUM	-0.29769716
-1.0193394	ADV ADJ NUM	-0.6921015
-1.1921636	CCONJ ADJ NUM	-0.44744858
-0.912933	PRON ADJ NUM	-0.59872717
-1.7979211	<s> PROPN NUM	-1.2557038
-1.1537956	NOUN PROPN NUM	-1.1188672
-1.2575253	PUNCT PROPN NUM	-1.269285
-1.1542242	VERB PROPN NUM	-1.2880605
-1.1640443	NUM PROPN NUM	-0.5690857
-1.2539351	ADP PROPN NUM	-1.1181586
-1.2153033	ADJ PROPN NUM	-0.35311937
-1.1480914	PROPN PROPN NUM	-1.2221746
-1.1508844	PART PROPN NUM	-0.7696457
-1.1288059	DET PROPN NUM	-0.30132055
-1.3425128	ADV PROPN NUM	-0.5615003
-1.3570765	X PROPN NUM	-0.33367193
-1.0772563	CCONJ PROPN NUM	-1.0187999
-1.3930562	PRON PROPN NUM	-0.2800204
-1.2239085	SCONJ PROPN NUM	-0.35287425
-0.94940114	INTJ PROPN NUM	-0.2800204
-0.7674086	SPACE PROPN NUM	-0.2800204
-1.7223123	<s> PART NUM	-0.5590418
-1.1591263	NOUN PART NUM	-1.8748574
-1.0570464	PUNCT PART NUM	-0.95691776
-1.0828006	VERB PART NUM	-2.152019
-1.1812687	NUM PART NUM	-0.96846604
-1.3409966	ADP PART NUM	-0.2800204
-0.92579	ADJ PART NUM	-1.1211169
-1.0855644	PROPN PART NUM	-1.4921219
-1.0694832	PART PART NUM	-1.390664
-1.5487646	DET PART NUM	-0.2800204
-1.2509258	ADV PART NUM	-0.29964152
-1.121676	X PART NUM	-0.2800204
-0.96616226	PRON PART NUM	-1.182586
-0.9061678	SCONJ PART NUM	-0.2800204
-0.5601469	<s> DET NUM	-1.8669469
-0.83764297	NOUN DET NUM	-1.3601408
-0.8901391	PUNCT DET NUM	-1.5475335
-0.94807684	VERB DET NUM	-1.8913418
-0.8136475	NUM DET NUM	-0.4815055
-0.9129289	ADP DET NUM	-1.6121817
-0.89367664	ADJ DET NUM	-0.3035564
-0.83025724	PROPN DET NUM	-0.90220606
-0.88928944	PART DET NUM	-1.5548457
-0.8318871	DET DET NUM	-0.5242797
-0.8733718	ADV DET NUM	-1.1982353
-0.7050416	X DET NUM	-0.9999101
-0.8679538	CCONJ DET NUM	-1.0579021
-0.7327237	PRON DET NUM	-0.7748475
-0.8492617	SCONJ DET NUM	-0.85707796
-1.5831244	<s> ADV NUM	-1.5517857
-1.0929462	NOUN ADV NUM	-1.5080283
-1.1042649	PUNCT ADV NUM	-1.3039217
-1.031739	VERB ADV NUM	-1.8078712
-1.1277192	NUM ADV NUM	-0.84303844
-0.9183827	ADP ADV NUM	-1.066397
-1.233998	ADJ ADV NUM	-0.3035564
-1.0851216	PROPN ADV NUM	-0.8899745
-0.98755497	PART ADV NUM	-1.250784
-1.0500928	DET ADV NUM	-0.34818843
-1.1426994	ADV ADV NUM	-1.1284735
-1.1712158	X ADV NUM	-0.28891137
-0.98360336	CCONJ ADV NUM	-0.7217303
-1.0741581	PRON ADV NUM	-1.02718
-1.2642881	SCONJ ADV NUM	-0.39934093
-1.520744	<s> X NUM	-0.4864911
-1.0690666	NOUN X NUM	-0.74612844
-1.0577048	PUNCT X NUM	-0.53432363
-1.2209618	VERB X NUM	-0.47878498
-1.3309792	NUM X NUM	-0.31582072
-1.1580892	ADP X NUM	-0.29191592
-1.3375866	PROPN X NUM	-0.30842066
-1.2487268	PART X NUM	-0.29321006
-1.1787777	DET X NUM	-0.2800204
-0.96703494	ADV X NUM	-0.7925867
-1.1010934	X X NUM	-0.2800204
-1.1112243	CCONJ X NUM	-0.2800204
-1.1899891	PRON X NUM	-0.46031624
-1.1277312	<s> CCONJ NUM	-0.7808647
-1.0708139	NOUN CCONJ NUM	-1.4567568
-0.96962833	PUNCT CCONJ NUM	-0.8680006
-1.1089345	VERB CCONJ NUM	-0.78706145
-0.67471313	NUM CCONJ NUM	-1.4217288
-0.7525407	ADP CCONJ NUM	-0.2800204
-1.4305254	ADJ CCONJ NUM	-0.29191592
-1.1117632	PROPN CCONJ NUM	-0.74044096
-1.101256	PART CCONJ NUM	-0.3035564
-1.0103152	ADV CCONJ NUM	-0.29191592
-0.747522	X CCONJ NUM	-0.2800204
-0.9701501	PRON CCONJ NUM	-0.7424793
-2.3217251	<s> PRON NUM	-0.8379025
-1.6119049	NOUN PRON NUM	-0.29755172
-1.3328066	PUNCT PRON NUM	-0.5672256
-1.1851128	VERB PRON NUM	-1.0225624
-1.3257705	NUM PRON NUM	-0.2800204
-1.2341586	ADP PRON NUM	-0.704484
-1.3328421	PROPN PRON NUM	-0.29755172
-1.4418402	PART PRON NUM	-0.81718516
-1.216184	ADV PRON NUM	-0.67343354
-1.4128928	X PRON NUM	-0.28891137
-1.2320986	CCONJ PRON NUM	-0.5137647
-1.5135723	PRON PRON NUM	-0.31582072
-1.4267664	SCONJ PRON NUM	-0.2800204
-0.7740669	INTJ PRON NUM	-0.2800204
-1.6046027	<s> SCONJ NUM	-0.85789484
-1.2843643	NOUN SCONJ NUM	-0.59294593
-1.2399501	PUNCT SCONJ NUM	-0.5319494
-1.2477695	VERB SCONJ NUM	-0.29755172
-1.2234383	ADV SCONJ NUM	-0.38582137
-0.78649765	SCONJ SCONJ NUM	-0.2800204
-1.9536161	<s> INTJ NUM	-0.2800204
-1.2980716	<s> NOUN ADP	-1.8572628
-1.1373618	NOUN NOUN ADP	-2.178741
-1.1726229	PUNCT NOUN ADP	-1.6082716
-1.1422497	VERB NOUN ADP	-1.8467871
-1.1693267	NUM NOUN ADP	-1.7129668
-1.184654	ADP NOUN ADP	-1.4313421
-1.114221	ADJ NOUN ADP	-1.480618
-1.1311979	PROPN NOUN ADP	-1.8981135
-1.1136026	PART NOUN ADP	-1.8572328
-1.1411464	DET NOUN ADP	-1.583882
-1.0896904	ADV NOUN ADP	-1.2058733
-1.0037272	X NOUN ADP	-0.693203
-1.153629	CCONJ NOUN ADP	-1.1673986
-1.0603478	PRON NOUN ADP	-0.9353686
-1.1965127	SCONJ NOUN ADP	-0.7431417
-1.3560073	<s> PUNCT ADP	-1.1055167
-1.1932313	NOUN PUNCT ADP	-2.1463275
-1.2589153	PUNCT PUNCT ADP	-1.3454725
-1.1533101	VERB PUNCT ADP	-1.8661226
-1.1836257	NUM PUNCT ADP	-0.98798096
-1.1934576	ADP PUNCT ADP	-0.5067366
-1.5734922	ADJ PUNCT ADP	-0.2800204
-1.179625	PROPN PUNCT ADP	-1.5568649
-1.1988174	PART PUNCT ADP	-1.2795837
-1.423659	DET PUNCT ADP	-0.2800204
-1.1123719	ADV PUNCT ADP	-1.0507324
-1.322433	X PUNCT ADP	-0.3035564
-1.3254299	CCONJ PUNCT ADP	-0.3662998
-1.1007735	PRON PUNCT ADP	-0.64990884
-1.303504	INTJ PUNCT ADP	-0.2800204
-1.2747698	<s> VERB ADP	-1.6889063
-1.173774	NOUN VERB ADP	-2.1843498
-1.1766479	PUNCT VERB ADP	-1.6428097
-1.1765683	VERB VERB ADP	-1.8560495
-1.1286379	NUM VERB ADP	-1.0893935
-1.1735669	ADP VERB ADP	-1.0840514
-1.2758554	ADJ VERB ADP	-0.30011508
-1.1367695	PROPN VERB ADP	-1.4157676
-1.1955773	PART VERB ADP	-1.2525452
-1.116197	DET VERB ADP	-0.66887367
-1.152566	ADV VERB ADP	-2.2048461
-1.0619062	X VERB ADP	-0.9866056
-1.0528343	CCONJ VERB ADP	-0.8732247
-1.124571	PRON VERB ADP	-1.7148073
-1.0658563	SCONJ VERB ADP	-0.7875211
-2.3423336	<s> NUM ADP	-0.664575
-1.2679479	NOUN NUM ADP	-0.51011145
-1.2717874	PUNCT NUM ADP	-0.5641209
-1.1792798	VERB NUM ADP	-0.9505693
-1.131764	NUM NUM ADP	-1.4731863
-1.2440265	ADP NUM ADP	-0.324257
-1.5881667	ADJ NUM ADP	-0.2800204
-1.1872661	PROPN NUM ADP	-0.5067366
-1.5053844	PART NUM ADP	-0.6366756
-1.110404	DET NUM ADP	-0.88387156
-1.1814737	ADV NUM ADP	-0.7086456
-1.32647	X NUM ADP	-0.2800204
-1.1893002	CCONJ NUM ADP	-0.29776993
-1.3778998	PRON NUM ADP	-0.29755172
-1.6972585	<s> ADP ADP	-1.168272
-1.1479833	NOUN ADP ADP	-0.95177764
-1.0644541	PUNCT ADP ADP	-0.8816618
-1.0985541	VERB ADP ADP	-1.0433333
-1.6630019	NUM ADP ADP	-0.30132055
-1.3050932	ADP ADP ADP	-0.29755172
-1.1033458	PROPN ADP ADP	-0.71258694
-1.3981892	PART ADP ADP	-0.35886273
-1.5163764	DET ADP ADP	-0.2800204
-1.257547	ADV ADP ADP	-0.93146646
-1.4433992	CCONJ ADP ADP	-0.2800204
-1.2360073	PRON ADP ADP	-0.4976203
-1.4838498	SCONJ ADP ADP	-0.2800204
-3.194252	<s> ADJ ADP	-0.2800204
-1.8692415	NOUN ADJ ADP	-0.2800204
-1.8538429	PUNCT ADJ ADP	-0.2800204
-1.3348337	VERB ADJ ADP	-0.443767
-1.8335886	ADP ADJ ADP	-0.2800204
-1.599863	PROPN ADJ ADP	-0.2800204
-1.7376738	PART ADJ ADP	-0.2800204
-1.3612667	<s> PROPN ADP	-1.6781123
-1.1290089	NOUN PROPN ADP	-1.5683777
-1.144369	PUNCT PROPN ADP	-1.4324589
-1.1297587	VERB PROPN ADP	-1.4079158
-1.1740746	NUM PROPN ADP	-0.5580384
-1.140256	ADP PROPN ADP	-1.2190757
-1.3125463	ADJ PROPN ADP	-0.28711858
-1.1211181	PROPN PROPN ADP	-1.5273582
-1.2213346	PART PROPN ADP	-0.89910585
-1.2117559	DET PROPN ADP	-0.44761527
-1.2090245	ADV PROPN ADP	-0.71441674
-0.9997363	X PROPN ADP	-0.5881486
-1.1589105	CCONJ PROPN ADP	-0.86683995
-1.1414199	PRON PROPN ADP	-0.34818843
-1.2188015	SCONJ PROPN ADP	-0.51333857
-1.1345003	<s> PART ADP	-0.73360807
-1.1379503	NOUN PART ADP	-1.4188359
-1.3334764	PUNCT PART ADP	-0.5036086
-1.2155029	VERB PART ADP	-1.4805009
-1.0667902	NUM PART ADP	-0.77376765
-1.6065667	ADJ PART ADP	-0.29191592
-1.2100087	PROPN PART ADP	-0.46708286
-1.5169258	PART PART ADP	-0.41086617
-1.5917577	DET PART ADP	-0.2800204
-1.272129	ADV PART ADP	-0.52761143
-1.1897433	CCONJ PART ADP	-0.2800204
-1.3208796	PRON PART ADP	-0.46500263
-2.077415	<s> DET ADP	-0.73759156
-1.2572523	NOUN DET ADP	-0.43151277
-1.0468478	PUNCT DET ADP	-0.70804065
-1.0953082	VERB DET ADP	-0.92598003
-1.2579895	NUM DET ADP	-0.2800204
-1.0416911	ADP DET ADP	-0.65926236
-1.6000769	PROPN DET ADP	-0.2800204
-1.039499	PART DET ADP	-0.44509846
-1.2718375	ADV DET ADP	-0.4042719
-1.3867191	X DET ADP	-0.3035564
-1.254969	CCONJ DET ADP	-0.46201867
-1.200433	PRON DET ADP	-0.29769716
-1.0335585	<s> ADV ADP	-2.0602431
-1.123046	NOUN ADV ADP	-2.0992255
-1.145771	PUNCT ADV ADP	-1.8900579
-1.061738	VERB ADV ADP	-1.5232155
-0.92492086	NUM ADV ADP	-0.727495
-1.045908	ADP ADV ADP	-0.92615885
-1.2027988	ADJ ADV ADP	-0.29191592
-1.0135183	PROPN ADV ADP	-1.5163627
-0.94147474	PART ADV ADP	-0.9886898
-0.9794143	DET ADV ADP	-0.6780137
-1.0306236	ADV ADV ADP	-1.7794482
-1.1353545	X ADV ADP	-0.29512745
-0.92319036	CCONJ ADV ADP	-0.72875804
-0.9955872	PRON ADV ADP	-1.5714108
-0.8558598	SCONJ ADV ADP	-0.5019182
-2.2348397	<s> X ADP	-0.31582072
-1.3402007	NOUN X ADP	-0.41086617
-1.6614075	PUNCT X ADP	-0.2800204
-1.35911	VERB X ADP	-0.41086617
-1.4346331	PROPN X ADP	-0.41685468
-1.3434727	PART X ADP	-0.2800204
-1.3296268	ADV X ADP	-0.4226359
-1.6310304	PRON X ADP	-0.2800204
-1.1191773	<s> CCONJ ADP	-0.8145367
-1.1230778	NOUN CCONJ ADP	-1.1184852
-1.1512692	PUNCT CCONJ ADP	-1.0852045
-1.0063593	VERB CCONJ ADP	-0.8164386
-1.5664111	NUM CCONJ ADP	-0.2800204
-1.4601078	PROPN CCONJ ADP	-0.38582137
-1.3386478	PART CCONJ ADP	-0.2800204
-1.2106295	ADV CCONJ ADP	-0.2800204
-1.6010102	PRON CCONJ ADP	-0.2800204
-1.0798851	<s> PRON ADP	-1.8162347
-1.0389813	NOUN PRON ADP	-0.7552067
-1.0293338	PUNCT PRON ADP	-1.4793036
-1.1436008	VERB PRON ADP	-1.6402714
-1.0233934	NUM PRON ADP	-0.59122646
-1.1320493	ADP PRON ADP	-1.1714604
-0.93856794	ADJ PRON ADP	-0.31582072
-1.0631878	PROPN PRON ADP	-0.39084202
-1.0689816	PART PRON ADP	-0.789647
-1.1207123	DET PRON ADP	-0.2800204
-1.1423447	ADV PRON ADP	-1.0354042
-0.94945365	X PRON ADP	-0.60098827
-1.1200433	CCONJ PRON ADP	-0.60771203
-0.9938871	PRON PRON ADP	-0.5160679
-0.842674	SCONJ PRON ADP	-0.7814543
-1.387256	<s> SCONJ ADP	-0.87576497
-0.84046733	NOUN SCONJ ADP	-0.5183564
-1.0200748	PUNCT SCONJ ADP	-0.63836354
-1.0565796	VERB SCONJ ADP	-0.29162896
-0.7962006	NUM SCONJ ADP	-0.2800204
-0.8577896	ADP SCONJ ADP	-0.2800204
-0.91289675	PROPN SCONJ ADP	-0.3805018
-0.96891797	PART SCONJ ADP	-0.2800204
-0.22031374	DET SCONJ ADP	-0.2800204
-1.0978885	ADV SCONJ ADP	-0.28711858
-0.9855301	PRON SCONJ ADP	-0.29755172
-2.110121	<s> NOUN ADJ	-1.3360536
-1.1955022	NOUN NOUN ADJ	-1.7460612
-1.2105374	PUNCT NOUN ADJ	-1.437503
-1.1722327	VERB NOUN ADJ	-1.7058158
-1.2042757	NUM NOUN ADJ	-1.2688996
-1.184654	ADP NOUN ADJ	-1.3635046
-1.2112004	ADJ NOUN ADJ	-1.1683793
-1.1936446	PROPN NOUN ADJ	-1.5038898
-1.2743012	PART NOUN ADJ	-1.5862391
-1.2141049	DET NOUN ADJ	-0.9707519
-1.2503891	ADV NOUN ADJ	-0.9246782
-1.2458615	X NOUN ADJ	-0.64921844
-1.2121434	CCONJ NOUN ADJ	-1.3327451
-1.4008887	PRON NOUN ADJ	-0.69563717
-1.3767902	SCONJ NOUN ADJ	-0.46500263
-1.5821261	<s> PUNCT ADJ	-1.0705844
-1.1932313	NOUN PUNCT ADJ	-1.8131559
-1.2133261	PUNCT PUNCT ADJ	-1.1945457
-1.2153025	VERB PUNCT ADJ	-1.6803428
-1.1836257	NUM PUNCT ADJ	-0.99953043
-1.1934576	ADP PUNCT ADJ	-0.9252339
-0.90247977	ADJ PUNCT ADJ	-0.5335265
-1.2172986	PROPN PUNCT ADJ	-1.4215897
-1.1988174	PART PUNCT ADJ	-1.4194872
-0.9652735	DET PUNCT ADJ	-0.61627024
-1.1123719	ADV PUNCT ADJ	-0.9231859
-1.322433	X PUNCT ADJ	-0.28711858
-1.0509107	CCONJ PUNCT ADJ	-0.66887367
-1.5979548	PRON PUNCT ADJ	-0.3867917
-0.7971942	SCONJ PUNCT ADJ	-0.2800204
-1.4923519	<s> VERB ADJ	-1.517966
-1.173774	NOUN VERB ADJ	-2.0972066
-1.1418428	PUNCT VERB ADJ	-1.5770184
-1.1765683	VERB VERB ADJ	-1.9596
-1.1706024	NUM VERB ADJ	-1.1638542
-1.0256441	ADP VERB ADJ	-1.3433517
-1.0941669	ADJ VERB ADJ	-0.70209193
-1.199088	PROPN VERB ADJ	-1.440604
-1.1155174	PART VERB ADJ	-1.508639
-1.116197	DET VERB ADJ	-0.8372781
-1.152566	ADV VERB ADJ	-2.0991662
-1.1419662	X VERB ADJ	-0.8707316
-1.2109957	CCONJ VERB ADJ	-1.3585144
-1.156847	PRON VERB ADJ	-1.3388243
-1.1975145	SCONJ VERB ADJ	-0.90871197
-1.6335294	<s> NUM ADJ	-1.2382358
-1.124835	NOUN NUM ADJ	-1.1785071
-1.1403418	PUNCT NUM ADJ	-0.9878814
-1.0708073	VERB NUM ADJ	-1.6241059
-1.1279224	NUM NUM ADJ	-1.9790606
-1.055629	ADP NUM ADJ	-1.0865532
-1.0531394	ADJ NUM ADJ	-0.59872717
-1.043414	PROPN NUM ADJ	-1.003012
-0.9606177	PART NUM ADJ	-1.3701729
-1.0266048	DET NUM ADJ	-1.3888019
-1.0786462	ADV NUM ADJ	-1.4240637
-1.0230885	X NUM ADJ	-0.71788466
-1.0311348	CCONJ NUM ADJ	-0.8600718
-1.1825049	PRON NUM ADJ	-0.4864911
-0.93779457	SCONJ NUM ADJ	-0.5137647
-1.4656109	<s> ADP ADJ	-1.4917237
-1.0482311	NOUN ADP ADJ	-1.6467375
-1.1047753	PUNCT ADP ADJ	-1.3044369
-1.0275244	VERB ADP ADJ	-1.5264724
-1.0199562	NUM ADP ADJ	-0.8221906
-1.1082687	ADP ADP ADJ	-0.9551794
-0.89165676	ADJ ADP ADJ	-0.3035564
-1.1441588	PROPN ADP ADJ	-1.1436007
-0.93091506	PART ADP ADJ	-0.81114143
-0.91090465	DET ADP ADJ	-0.76423985
-0.98051023	ADV ADP ADJ	-1.5155078
-1.0208902	CCONJ ADP ADJ	-0.8388219
-0.9938187	PRON ADP ADJ	-1.1241816
-0.95577186	SCONJ ADP ADJ	-0.69563717
-1.8308718	<s> ADJ ADJ	-1.1492493
-0.93452317	NOUN ADJ ADJ	-1.0192899
-0.96174216	PUNCT ADJ ADJ	-1.24017
-0.9756452	VERB ADJ ADJ	-1.4920775
-0.7999487	NUM ADJ ADJ	-1.1106105
-1.029598	ADP ADJ ADJ	-1.2009325
-0.98194015	ADJ ADJ ADJ	-0.65989274
-0.8842486	PROPN ADJ ADJ	-1.3858213
-0.96742314	PART ADJ ADJ	-1.4138172
-1.0574899	DET ADJ ADJ	-0.55659306
-1.0640495	ADV ADJ ADJ	-0.8600718
-1.0753136	X ADJ ADJ	-0.29191592
-0.9713422	CCONJ ADJ ADJ	-0.9966672
-1.2898115	PRON ADJ ADJ	-0.2800204
-1.1699046	SCONJ ADJ ADJ	-0.2800204
-1.745044	<s> PROPN ADJ	-1.4838363
-1.1961191	NOUN PROPN ADJ	-1.2225673
-1.1097419	PUNCT PROPN ADJ	-1.3661515
-1.1618992	VERB PROPN ADJ	-1.5305048
-1.2350395	NUM PROPN ADJ	-1.1415575
-1.140256	ADP PROPN ADJ	-1.4363172
-1.1605237	ADJ PROPN ADJ	-0.6868514
-1.1560528	PROPN PROPN ADJ	-1.0575224
-1.1626217	PART PROPN ADJ	-1.1777239
-1.2984354	DET PROPN ADJ	-0.8007947
-1.2090245	ADV PROPN ADJ	-0.86515087
-1.5186536	X PROPN ADJ	-0.5899414
-1.1589105	CCONJ PROPN ADJ	-0.9643394
-1.5590491	PRON PROPN ADJ	-0.2800204
-1.2506936	SCONJ PROPN ADJ	-0.65989274
-2.0039194	<s> PART ADJ	-0.35287425
-1.1340107	NOUN PART ADJ	-2.2272978
-1.0644354	PUNCT PART ADJ	-1.3031518
-1.1146097	VERB PART ADJ	-2.1372514
-1.0622942	NUM PART ADJ	-1.3113858
-1.1681433	ADP PART ADJ	-0.3035564
-0.92992437	ADJ PART ADJ	-1.5245227
-1.0275016	PROPN PART ADJ	-1.707292
-0.96339124	PART PART ADJ	-1.5550426
-0.8086524	DET PART ADJ	-1.0090706
-1.3629873	ADV PART ADJ	-0.59294593
-1.1758244	CCONJ PART ADJ	-0.2800204
-0.9703922	PRON PART ADJ	-1.4488231
-1.5756409	<s> DET ADJ	-1.3055208
-0.93410444	NOUN DET ADJ	-0.9131939
-0.97711873	PUNCT DET ADJ	-1.0612494
-1.0091804	VERB DET ADJ	-1.6244922
-1.024049	NUM DET ADJ	-0.3662998
-1.0265594	ADP DET ADJ	-1.3109982
-0.85275245	ADJ DET ADJ	-0.29191592
-0.83062506	PROPN DET ADJ	-0.9940975
-0.83860683	PART DET ADJ	-1.1339107
-1.1566353	DET DET ADJ	-0.31582072
-0.9854045	ADV DET ADJ	-0.86515087
-0.9809272	X DET ADJ	-0.71788466
-0.9766213	CCONJ DET ADJ	-1.2639116
-0.9726981	PRON DET ADJ	-0.627708
-1.0184646	SCONJ DET ADJ	-0.41685468
-1.947893	<s> ADV ADJ	-1.3409337
-1.1550262	NOUN ADV ADJ	-1.3565558
-1.145771	PUNCT ADV ADJ	-1.2953761
-1.093592	VERB ADV ADJ	-1.7622552
-1.0678381	NUM ADV ADJ	-1.3841333
-0.9992498	ADP ADV ADJ	-1.1599491
-1.0471231	ADJ ADV ADJ	-0.39934093
-1.0855489	PROPN ADV ADJ	-1.1859626
-0.94147474	PART ADV ADJ	-1.440925
-1.050702	DET ADV ADJ	-0.74612844
-1.1023338	ADV ADV ADJ	-1.2571641
-1.1353545	X ADV ADJ	-0.28891137
-1.1398329	CCONJ ADV ADJ	-0.8939759
-1.2291152	PRON ADV ADJ	-0.92356193
-1.2655661	SCONJ ADV ADJ	-0.28891137
-1.621232	<s> X ADJ	-0.55659306
-1.1279538	NOUN X ADJ	-0.9222197
-1.1612113	PUNCT X ADJ	-0.6031876
-1.1079144	VERB X ADJ	-0.91345555
-1.2076167	NUM X ADJ	-0.41685468
-0.8484696	ADJ X ADJ	-0.2800204
-1.2530552	PART X ADJ	-0.41685468
-1.2162402	DET X ADJ	-0.2800204
-1.1395386	ADV X ADJ	-0.9891665
-1.3657365	PRON X ADJ	-0.41685468
-1.2629278	SCONJ X ADJ	-0.2800204
-1.4405806	<s> CCONJ ADJ	-0.76603264
-1.0449188	NOUN CCONJ ADJ	-1.9458523
-1.200523	PUNCT CCONJ ADJ	-0.8599493
-0.9943435	VERB CCONJ ADJ	-1.1391491
-0.9987485	NUM CCONJ ADJ	-0.5040634
-0.6859484	ADJ CCONJ ADJ	-0.7673178
-0.9801279	PROPN CCONJ ADJ	-0.9431269
-1.2887957	PART CCONJ ADJ	-0.2800204
-0.47859314	DET CCONJ ADJ	-0.3035564
-1.2054158	ADV CCONJ ADJ	-0.2800204
-1.0494803	PRON CCONJ ADJ	-0.46500263
-2.382661	<s> PRON ADJ	-0.8894861
-1.512465	NOUN PRON ADJ	-0.3662998
-1.1699715	PUNCT PRON ADJ	-0.6568881
-1.2374642	VERB PRON ADJ	-1.1984953
-1.518867	NUM PRON ADJ	-0.2800204
-1.1469177	ADP PRON ADJ	-0.9754027
-1.1861007	ADJ PRON ADJ	-0.2800204
-1.4756051	PART PRON ADJ	-0.5451957
-1.4209056	ADV PRON ADJ	-0.4864911
-1.4459641	X PRON ADJ	-0.3035564
-1.0595684	CCONJ PRON ADJ	-0.41685468
-1.2904731	SCONJ PRON ADJ	-0.3035564
-1.8433938	<s> SCONJ ADJ	-0.9173003
-1.602675	NOUN SCONJ ADJ	-0.2800204
-1.4658815	PUNCT SCONJ ADJ	-0.76423985
-1.3707399	VERB SCONJ ADJ	-0.2800204
-1.0446914	PART SCONJ ADJ	-0.2800204
-1.0048659	ADV SCONJ ADJ	-0.28891137
-0.66726285	CCONJ SCONJ ADJ	-0.2800204
-1.3059733	<s> NOUN PROPN	-1.7445785
-1.1617546	NOUN NOUN PROPN	-2.2158258
-1.1679934	PUNCT NOUN PROPN	-1.7397044
-1.1384857	VERB NOUN PROPN	-1.6416892
-1.1651194	NUM NOUN PROPN	-1.2307018
-1.1800245	ADP NOUN PROPN	-1.5135063
-1.172071	ADJ NOUN PROPN	-1.5934005
-1.1275518	PROPN NOUN PROPN	-2.0448785
-1.1815886	PART NOUN PROPN	-1.6066105
-1.250293	DET NOUN PROPN	-0.9148289
-1.1576766	ADV NOUN PROPN	-0.9298881
-1.179437	X NOUN PROPN	-0.3967745
-1.1467909	CCONJ NOUN PROPN	-1.1113442
-1.1288071	PRON NOUN PROPN	-0.6675753
-1.3606389	SCONJ NOUN PROPN	-0.29265502
-1.0458338	INTJ NOUN PROPN	-0.2800204
-0.69240576	<s> PUNCT PROPN	-1.6585042
-1.1317737	NOUN PUNCT PROPN	-2.3811142
-1.0953066	PUNCT PUNCT PROPN	-1.7737777
-1.1494703	VERB PUNCT PROPN	-1.9423313
-1.1370491	NUM PUNCT PROPN	-1.190088
-0.95424306	ADP PUNCT PROPN	-1.1787529
-0.96014816	ADJ PUNCT PROPN	-0.5242797
-1.079128	PROPN PUNCT PROPN	-2.2971413
-1.0558078	PART PUNCT PROPN	-1.6181277
-0.84280205	DET PUNCT PROPN	-0.47530758
-1.202829	ADV PUNCT PROPN	-1.2031543
-0.95222336	X PUNCT PROPN	-0.5221216
-0.8882749	CCONJ PUNCT PROPN	-0.7590205
-1.048977	PRON PUNCT PROPN	-0.70740646
-0.79144466	SCONJ PUNCT PROPN	-0.29769716
-1.2846643	INTJ PUNCT PROPN	-0.29755172
-1.0338048	<s> VERB PROPN	-1.8192445
-1.1731238	NOUN VERB PROPN	-2.2289624
-1.1411042	PUNCT VERB PROPN	-1.789509
-1.1459332	VERB VERB PROPN	-2.0789478
-1.089628	NUM VERB PROPN	-1.3082607
-1.0574859	ADP VERB PROPN	-1.4241097
-1.0932151	ADJ VERB PROPN	-0.4972695
-1.1361374	PROPN VERB PROPN	-1.7532631
-1.0797211	PART VERB PROPN	-1.4525533
-0.9516539	DET VERB PROPN	-0.73584235
-1.1519238	ADV VERB PROPN	-2.181751
-1.1410582	X VERB PROPN	-0.7565595
-1.0519525	CCONJ VERB PROPN	-1.1235489
-1.1561174	PRON VERB PROPN	-1.5667237
-1.064863	SCONJ VERB PROPN	-0.62703574
-1.4135996	<s> NUM PROPN	-1.1003196
-1.1239908	NOUN NUM PROPN	-0.73971224
-1.0887966	PUNCT NUM PROPN	-0.8303132
-1.0701425	VERB NUM PROPN	-1.1790825
-1.0977616	NUM NUM PROPN	-1.7204082
-1.0080853	ADP NUM PROPN	-0.75483114
-1.3944689	ADJ NUM PROPN	-0.2800204
-1.1292207	PROPN NUM PROPN	-0.7045388
-0.9597588	PART NUM PROPN	-0.710957
-1.1046022	DET NUM PROPN	-0.8503961
-1.1743138	ADV NUM PROPN	-0.8181771
-1.3097295	X NUM PROPN	-0.2800204
-1.0978649	CCONJ NUM PROPN	-0.8146034
-1.3614957	PRON NUM PROPN	-0.2800204
-1.1663083	SCONJ NUM PROPN	-0.3035564
-0.7274935	<s> ADP PROPN	-1.9515307
-1.0435683	NOUN ADP PROPN	-2.1000192
-0.975148	PUNCT ADP PROPN	-1.7127714
-0.9935348	VERB ADP PROPN	-1.9935662
-0.7648022	NUM ADP PROPN	-1.1378558
-0.83233315	ADP ADP PROPN	-1.1172477
-0.88131094	ADJ ADP PROPN	-0.3035564
-0.9177624	PROPN ADP PROPN	-1.64867
-0.8258827	PART ADP PROPN	-1.1980175
-0.8432181	DET ADP PROPN	-0.63175374
-0.9440198	ADV ADP PROPN	-1.8505298
-0.94922125	X ADP PROPN	-0.29191592
-0.85889065	CCONJ ADP PROPN	-0.85186327
-0.9224801	PRON ADP PROPN	-1.482286
-0.87706834	SCONJ ADP PROPN	-0.64389366
-1.2707925	<s> ADJ PROPN	-0.91606206
-0.9338122	NOUN ADJ PROPN	-0.70131975
-0.96095616	PUNCT ADJ PROPN	-1.0296937
-0.94598144	VERB ADJ PROPN	-1.0195348
-1.0358639	NUM ADJ PROPN	-0.8555188
-0.8500645	ADP ADJ PROPN	-0.93491006
-1.298384	ADJ ADJ PROPN	-0.31582072
-0.8834697	PROPN ADJ PROPN	-0.72117877
-0.9663162	PART ADJ PROPN	-0.8494611
-1.0560572	DET ADJ PROPN	-0.3901201
-1.0030117	ADV ADJ PROPN	-0.5348105
-1.1110411	X ADJ PROPN	-0.31582072
-0.89973545	CCONJ ADJ PROPN	-0.58272576
-1.4406421	PRON ADJ PROPN	-0.2800204
-0.95523554	SCONJ ADJ PROPN	-0.31582072
-1.0206492	<s> PROPN PROPN	-1.8872021
-1.0952713	NOUN PROPN PROPN	-1.8926845
-1.0439376	PUNCT PROPN PROPN	-2.0386376
-1.0960224	VERB PROPN PROPN	-1.6858284
-1.0684744	NUM PROPN PROPN	-0.8099543
-1.1011515	ADP PROPN PROPN	-1.6650513
-0.9962747	ADJ PROPN PROPN	-0.6024655
-1.0550474	PROPN PROPN PROPN	-1.70013
-1.1049268	PART PROPN PROPN	-1.3314064
-1.0722852	DET PROPN PROPN	-0.8052374
-1.0913918	ADV PROPN PROPN	-0.8555341
-0.99475175	X PROPN PROPN	-0.59283113
-1.0827343	CCONJ PROPN PROPN	-1.1399262
-0.91602594	PRON PROPN PROPN	-0.41205728
-1.2044013	SCONJ PROPN PROPN	-0.33555415
-0.95627254	INTJ PROPN PROPN	-0.2800204
-1.5576599	<s> PART PROPN	-0.45845252
-1.1332554	NOUN PART PROPN	-1.8439785
-1.1328214	PUNCT PART PROPN	-0.84260714
-1.1138543	VERB PART PROPN	-1.9598135
-0.994381	NUM PART PROPN	-1.3162125
-1.1656157	ADP PART PROPN	-0.28891137
-0.8965994	ADJ PART PROPN	-1.0922027
-1.0268251	PROPN PART PROPN	-1.6037793
-0.87275046	PART PART PROPN	-1.0719051
-0.75826454	DET PART PROPN	-0.7053019
-1.1783195	ADV PART PROPN	-0.29053992
-1.1731918	CCONJ PART PROPN	-0.2800204
-1.0849199	PRON PART PROPN	-1.0291476
-1.5136273	<s> DET PROPN	-1.0513942
-1.0167181	NOUN DET PROPN	-0.6245531
-0.9816739	PUNCT DET PROPN	-1.0326949
-1.0127335	VERB DET PROPN	-1.0671489
-1.2298951	NUM DET PROPN	-0.28891137
-1.0306597	ADP DET PROPN	-0.9379985
-0.881469	PROPN DET PROPN	-0.51135933
-1.2013172	PART DET PROPN	-0.6488464
-1.1660836	DET DET PROPN	-0.2800204
-1.0603061	ADV DET PROPN	-0.56926006
-0.9147397	X DET PROPN	-0.5590418
-1.1292228	CCONJ DET PROPN	-0.6182251
-1.3642169	PRON DET PROPN	-0.2800204
-1.0636331	SCONJ DET PROPN	-0.29755172
-1.3858047	<s> ADV PROPN	-1.6612818
-1.1581497	NOUN ADV PROPN	-0.9678455
-1.1498151	PUNCT ADV PROPN	-1.4053234
-1.0968002	VERB ADV PROPN	-0.8537618
-1.3948399	NUM ADV PROPN	-0.29172465
-1.1627069	ADP ADV PROPN	-0.5512562
-1.0892383	PROPN ADV PROPN	-0.5511242
-1.4935527	PART ADV PROPN	-0.4530919
-1.2505612	DET ADV PROPN	-0.29398844
-1.2437849	ADV ADV PROPN	-0.861703
-1.3669835	X ADV PROPN	-0.2800204
-1.2536606	CCONJ ADV PROPN	-0.34539902
-1.481014	PRON ADV PROPN	-0.50825477
-1.3068892	SCONJ ADV PROPN	-0.29398844
-0.98834676	<s> X PROPN	-0.52186555
-1.0629092	NOUN X PROPN	-0.9575456
-0.92334735	PUNCT X PROPN	-0.547644
-0.99030924	VERB X PROPN	-0.8181771
-0.9758632	NUM X PROPN	-0.4402895
-0.9940367	ADP X PROPN	-0.4226359
-0.9408412	PROPN X PROPN	-0.46725407
-0.9572342	PART X PROPN	-0.50298274
-0.9327204	DET X PROPN	-0.29755172
-0.9612999	ADV X PROPN	-0.9024634
-0.8676231	X X PROPN	-0.59122646
-0.90862095	CCONJ X PROPN	-0.28891137
-1.0741043	PRON X PROPN	-0.36464396
-0.98705614	SCONJ X PROPN	-0.30842066
-1.0635397	<s> CCONJ PROPN	-0.78129166
-1.0144383	NOUN CCONJ PROPN	-1.7468011
-1.021336	PUNCT CCONJ PROPN	-1.1029665
-1.1660762	VERB CCONJ PROPN	-0.6802627
-0.99726814	NUM CCONJ PROPN	-0.32261822
-1.2641543	ADJ CCONJ PROPN	-0.2800204
-0.8435025	PROPN CCONJ PROPN	-1.9071207
-1.0805123	PART CCONJ PROPN	-0.36464396
-1.2021166	ADV CCONJ PROPN	-0.2800204
-0.7551457	X CCONJ PROPN	-0.2800204
-0.81516606	PRON CCONJ PROPN	-0.57749736
-2.350084	<s> PRON PROPN	-0.78519475
-1.2397063	NOUN PRON PROPN	-0.5639929
-1.2656144	PUNCT PRON PROPN	-0.51546884
-1.2256291	VERB PRON PROPN	-0.62027264
-1.4725432	NUM PRON PROPN	-0.2800204
-1.3595968	ADP PRON PROPN	-0.6241526
-1.0678725	PROPN PRON PROPN	-0.32304174
-1.5763419	PART PRON PROPN	-0.2800204
-1.3232802	DET PRON PROPN	-0.2800204
-1.657285	ADV PRON PROPN	-0.2800204
-1.4115185	X PRON PROPN	-0.30011508
-1.395602	CCONJ PRON PROPN	-0.2800204
-1.6565653	PRON PRON PROPN	-0.2800204
-1.424859	SCONJ PRON PROPN	-0.2800204
-1.0112499	<s> SCONJ PROPN	-1.1012352
-1.2632499	NOUN SCONJ PROPN	-0.29398844
-1.0056337	PUNCT SCONJ PROPN	-0.7775123
-1.1169338	VERB SCONJ PROPN	-0.49483162
-0.84715706	NUM SCONJ PROPN	-0.2800204
-0.9622054	ADP SCONJ PROPN	-0.2800204
-1.1596608	ADV SCONJ PROPN	-0.34539902
-1.5433787	<s> INTJ PROPN	-0.2800204
-0.78657	NOUN INTJ PROPN	-0.2800204
-1.0525516	PUNCT INTJ PROPN	-0.2800204
-0.6208685	PROPN INTJ PROPN	-0.2800204
-0.21613966	DET INTJ PROPN	-0.2800204
-0.62481004	NOUN SPACE PROPN	-0.2800204
-0.3088792	VERB SPACE PROPN	-0.3035564
-0.18585667	PART SPACE PROPN	-0.2800204
-1.1171101	<s> NOUN PART	-1.9763159
-1.1651436	NOUN NOUN PART	-2.7687776
-1.0751195	PUNCT NOUN PART	-1.9283545
-1.1419284	VERB NOUN PART	-2.6499867
-1.1065688	NUM NOUN PART	-2.1975148
-1.1171703	ADP NOUN PART	-2.34472
-1.1138997	ADJ NOUN PART	-2.218498
-1.1308868	PROPN NOUN PART	-2.3046625
-1.0809244	PART NOUN PART	-2.295056
-1.0783885	DET NOUN PART	-1.9839046
-1.0570122	ADV NOUN PART	-1.640746
-0.93489945	X NOUN PART	-0.9790415
-1.0139054	CCONJ NOUN PART	-1.938525
-1.0275507	PRON NOUN PART	-1.5861357
-0.99663985	SCONJ NOUN PART	-0.79419124
-2.14527	<s> PUNCT PART	-0.7008822
-1.232491	NOUN PUNCT PART	-1.8695165
-1.2692808	PUNCT PUNCT PART	-0.89233136
-1.2577258	VERB PUNCT PART	-1.2402697
-1.292226	NUM PUNCT PART	-0.9360497
-1.5940834	ADP PUNCT PART	-0.41685468
-1.4176923	ADJ PUNCT PART	-0.6868514
-1.1521183	PROPN PUNCT PART	-1.5310876
-1.5215222	PART PUNCT PART	-0.74120903
-1.6703674	ADV PUNCT PART	-0.29398844
-1.4974939	CCONJ PUNCT PART	-0.2800204
-1.3808651	PRON PUNCT PART	-0.664575
-1.3353746	INTJ PUNCT PART	-0.3035564
-1.0270607	<s> VERB PART	-1.8166716
-1.1702858	NOUN VERB PART	-2.6582105
-1.076192	PUNCT VERB PART	-1.894895
-1.1431388	VERB VERB PART	-2.3852541
-1.0192577	NUM VERB PART	-1.5964763
-1.0544864	ADP VERB PART	-1.6766648
-0.8950726	ADJ VERB PART	-1.0705844
-1.1054918	PROPN VERB PART	-2.000807
-1.111468	PART VERB PART	-2.2125573
-0.9488922	DET VERB PART	-1.2157968
-1.1491207	ADV VERB PART	-2.6024544
-1.0230702	X VERB PART	-1.6097351
-1.0064625	CCONJ VERB PART	-1.5558746
-1.0911372	PRON VERB PART	-2.0089123
-1.0077789	SCONJ VERB PART	-0.7091695
-0.98999363	INTJ VERB PART	-0.2800204
-1.3216599	<s> NUM PART	-1.1418915
-0.990898	NOUN NUM PART	-1.0982
-1.0031862	PUNCT NUM PART	-0.88165736
-1.0704747	VERB NUM PART	-1.4495002
-1.0980914	NUM NUM PART	-1.9974842
-1.0084796	ADP NUM PART	-1.0228845
-0.86333424	ADJ NUM PART	-0.5398996
-0.9707554	PROPN NUM PART	-0.707041
-1.0726278	PART NUM PART	-0.94165194
-0.9916055	DET NUM PART	-0.85391414
-0.90243703	ADV NUM PART	-1.2875512
-1.1325891	X NUM PART	-0.3035564
-1.0305382	CCONJ NUM PART	-0.8102636
-0.90830696	PRON NUM PART	-0.5019182
-0.9369722	SCONJ NUM PART	-0.35311937
-2.968017	<s> ADP PART	-0.42721406
-1.2978358	NOUN ADP PART	-0.41014785
-1.7039609	PUNCT ADP PART	-0.28891137
-1.6358998	VERB ADP PART	-0.44919574
-1.546771	ADP ADP PART	-0.31582072
-1.7170254	PROPN ADP PART	-0.2800204
-1.5621734	ADV ADP PART	-0.34539902
-1.2798219	X ADP PART	-0.2800204
-1.5406337	PRON ADP PART	-0.29769716
-0.7270469	<s> ADJ PART	-1.5151786
-0.8289098	NOUN ADJ PART	-1.4064035
-0.8145604	PUNCT ADJ PART	-1.3486965
-0.975281	VERB ADJ PART	-1.9082301
-0.73214585	NUM ADJ PART	-1.6491395
-0.81520474	ADP ADJ PART	-1.436502
-0.6394797	ADJ ADJ PART	-0.8479694
-0.8041687	PROPN ADJ PART	-1.1555544
-0.8721086	PART ADJ PART	-1.5046638
-0.6627892	DET ADJ PART	-1.3527992
-0.7541622	ADV ADJ PART	-1.7719424
-0.6793662	X ADJ PART	-0.8713444
-0.7388966	CCONJ ADJ PART	-1.2269219
-0.6534944	PRON ADJ PART	-1.1207743
-0.59322524	SCONJ ADJ PART	-0.81479466
-1.1915057	<s> PROPN PART	-1.833677
-1.157341	NOUN PROPN PART	-1.6443818
-1.0738655	PUNCT PROPN PART	-1.7154318
-1.0963345	VERB PROPN PART	-2.0337124
-0.98765296	NUM PROPN PART	-1.064861
-1.0696571	ADP PROPN PART	-1.926077
-0.9547903	ADJ PROPN PART	-0.79986954
-1.055346	PROPN PROPN PART	-1.6587026
-1.059762	PART PROPN PART	-1.3357818
-0.88932097	DET PROPN PART	-0.99892825
-0.9657328	ADV PROPN PART	-1.1005286
-0.9478884	X PROPN PART	-0.78312516
-0.9732652	CCONJ PROPN PART	-1.5759642
-1.2387053	PRON PROPN PART	-0.58894444
-1.0558476	SCONJ PROPN PART	-0.6925098
-0.9570291	INTJ PROPN PART	-0.2800204
-1.6929338	<s> PART PART	-0.59615743
-1.1633017	NOUN PART PART	-2.071628
-1.0637807	PUNCT PART PART	-0.7856098
-1.1142318	VERB PART PART	-1.5732582
-1.0618633	NUM PART PART	-1.2653694
-1.0070087	ADP PART PART	-0.34818843
-1.5872722	ADJ PART PART	-0.28711858
-1.0572593	PROPN PART PART	-1.2649157
-1.3332967	PART PART PART	-0.54239106
-1.407491	DET PART PART	-0.31582072
-0.9987273	ADV PART PART	-0.45142543
-0.9474754	CCONJ PART PART	-0.29191592
-1.0854067	PRON PART PART	-0.67810744
-1.9744965	<s> DET PART	-0.8443085
-1.107778	NOUN DET PART	-0.47025275
-1.1509237	PUNCT DET PART	-0.5175675
-1.0426755	VERB DET PART	-1.168272
-0.9059674	NUM DET PART	-0.5319494
-1.1222198	ADP DET PART	-0.8007947
-0.89367664	ADJ DET PART	-0.2800204
-1.1422715	PROPN DET PART	-0.64109385
-1.093402	PART DET PART	-0.91036785
-1.3287398	DET DET PART	-0.29191592
-0.9848499	ADV DET PART	-0.7510594
-1.3091375	X DET PART	-0.38582137
-1.1201482	CCONJ DET PART	-0.6952531
-0.83615655	PRON DET PART	-0.7748184
-1.0532742	SCONJ DET PART	-0.28891137
-2.3418536	<s> ADV PART	-0.96587336
-1.1546643	NOUN ADV PART	-1.0882518
-1.1906276	PUNCT ADV PART	-0.72552526
-1.1648638	VERB ADV PART	-0.9733958
-1.2815052	NUM ADV PART	-0.47704893
-1.5400311	ADP ADV PART	-0.28891137
-1.233998	ADJ ADV PART	-0.31582072
-1.2220007	PROPN ADV PART	-0.5221216
-1.4796529	PART ADV PART	-0.42458025
-1.382088	DET ADV PART	-0.29398844
-1.1877385	ADV ADV PART	-0.85365665
-1.1712158	X ADV PART	-0.2800204
-1.5422679	CCONJ ADV PART	-0.2800204
-1.1707217	PRON ADV PART	-0.939189
-1.4297097	SCONJ ADV PART	-0.2800204
-2.1780818	<s> X PART	-0.3035564
-1.6974959	NOUN X PART	-0.31582072
-1.6252232	PUNCT X PART	-0.2800204
-1.6392564	VERB X PART	-0.2800204
-1.4258165	NUM X PART	-0.2800204
-1.5982397	PROPN X PART	-0.2800204
-1.5766113	ADV X PART	-0.3035564
-1.3638096	CCONJ X PART	-0.31582072
-1.5972959	PRON X PART	-0.2800204
-2.472962	<s> CCONJ PART	-0.28891137
-1.3936327	NOUN CCONJ PART	-0.48839667
-1.5550976	VERB CCONJ PART	-0.28891137
-1.4789715	NUM CCONJ PART	-0.3035564
-1.8756182	PROPN CCONJ PART	-0.2800204
-1.7059091	PRON CCONJ PART	-0.2800204
-1.1559205	<s> PRON PART	-1.7669494
-0.96267337	NOUN PRON PART	-1.1471374
-1.024666	PUNCT PRON PART	-1.53521
-1.0443506	VERB PRON PART	-2.1978703
-0.9290883	NUM PRON PART	-0.6568881
-0.9529227	ADP PRON PART	-1.8699645
-1.1254255	ADJ PRON PART	-0.41685468
-0.8549839	PROPN PRON PART	-0.8279638
-0.93171287	PART PRON PART	-1.404112
-1.0726954	DET PRON PART	-0.3035564
-0.94255257	ADV PRON PART	-1.275084
-0.76499665	X PRON PART	-1.1520011
-0.9026753	CCONJ PRON PART	-1.2621254
-0.88746935	PRON PRON PART	-1.2653694
-0.99069124	SCONJ PRON PART	-1.0335728
-0.76307994	INTJ PRON PART	-0.2800204
-2.7736645	<s> SCONJ PART	-0.29398844
-1.8076212	NOUN SCONJ PART	-0.2800204
-1.7580581	VERB SCONJ PART	-0.2800204
-1.7029063	<s> INTJ PART	-0.2800204
-2.2266376	<s> NOUN DET	-1.1502898
-1.2626469	NOUN NOUN DET	-1.1114025
-1.3494078	PUNCT NOUN DET	-1.038089
-1.2044404	VERB NOUN DET	-1.2090529
-1.2422853	NUM NOUN DET	-0.8250336
-1.1497852	ADP NOUN DET	-1.1160359
-1.2490206	ADJ NOUN DET	-0.83822954
-1.2666032	PROPN NOUN DET	-0.9298089
-1.2743012	PART NOUN DET	-0.8999562
-1.3534036	DET NOUN DET	-0.7148801
-1.5082666	ADV NOUN DET	-0.8490124
-1.5037787	X NOUN DET	-0.30215764
-1.3599479	CCONJ NOUN DET	-0.8642479
-1.4008887	PRON NOUN DET	-0.52708966
-1.3767902	SCONJ NOUN DET	-0.2800204
-1.6700529	<s> PUNCT DET	-1.0258641
-1.2253327	NOUN PUNCT DET	-1.7372901
-1.2133261	PUNCT PUNCT DET	-1.1701862
-1.2153025	VERB PUNCT DET	-1.5243657
-1.4066666	NUM PUNCT DET	-0.822514
-1.2605929	ADP PUNCT DET	-0.39934093
-1.4247876	ADJ PUNCT DET	-0.2800204
-1.179625	PROPN PUNCT DET	-1.1226219
-1.102286	PART PUNCT DET	-1.1973639
-1.5719035	DET PUNCT DET	-0.2800204
-1.3354127	ADV PUNCT DET	-0.9440458
-1.5125943	X PUNCT DET	-0.2800204
-1.3254299	CCONJ PUNCT DET	-0.2800204
-1.4653845	PRON PUNCT DET	-0.54239106
-1.303504	INTJ PUNCT DET	-0.2800204
-1.4768872	<s> VERB DET	-1.4879136
-1.173774	NOUN VERB DET	-1.834801
-1.2559404	PUNCT VERB DET	-1.3892804
-1.1765683	VERB VERB DET	-1.9228733
-1.269089	NUM VERB DET	-0.80774605
-1.1735669	ADP VERB DET	-1.1817348
-1.5941238	ADJ VERB DET	-0.3035564
-1.1367695	PROPN VERB DET	-1.3019755
-1.1955773	PART VERB DET	-1.4034095
-1.4859135	DET VERB DET	-0.4042719
-1.182549	ADV VERB DET	-2.0414634
-1.3673475	X VERB DET	-0.40810484
-1.2797638	CCONJ VERB DET	-0.99659806
-1.156847	PRON VERB DET	-1.5102828
-1.1267153	SCONJ VERB DET	-0.72385204
-2.8698738	<s> NUM DET	-0.28592744
-1.5042208	NOUN NUM DET	-0.3805018
-1.6278932	PUNCT NUM DET	-0.31582072
-1.3982733	VERB NUM DET	-0.5414268
-1.2118922	NUM NUM DET	-0.97573996
-1.3553677	ADP NUM DET	-0.28711858
-1.6732838	PROPN NUM DET	-0.3035564
-1.5573119	PART NUM DET	-0.29191592
-1.552277	DET NUM DET	-0.30132055
-1.4193728	ADV NUM DET	-0.30842066
-1.2181469	CCONJ NUM DET	-0.39934093
-1.1907918	<s> ADP DET	-1.599928
-1.0775813	NOUN ADP DET	-1.5096676
-1.0591855	PUNCT ADP DET	-1.3027394
-0.9977232	VERB ADP DET	-1.5124514
-1.151756	NUM ADP DET	-0.70209193
-0.97896874	ADP ADP DET	-0.7440701
-1.1031728	ADJ ADP DET	-0.2800204
-1.0567371	PROPN ADP DET	-1.1369183
-1.0607831	PART ADP DET	-0.82801366
-1.1793579	DET ADP DET	-0.4782489
-1.0153584	ADV ADP DET	-1.4515848
-1.0208902	CCONJ ADP DET	-0.5521529
-0.95897055	PRON ADP DET	-1.2376549
-1.0422945	SCONJ ADP DET	-0.6868514
-2.9910345	<s> ADJ DET	-0.2800204
-1.8343823	NOUN ADJ DET	-0.2800204
-1.8189058	PUNCT ADJ DET	-0.46500263
-1.4853269	VERB ADJ DET	-0.36464396
-1.7432557	NUM ADJ DET	-0.2800204
-1.7434626	PROPN ADJ DET	-0.2800204
-1.5144984	PART ADJ DET	-0.29191592
-1.2406089	CCONJ ADJ DET	-0.28891137
-2.2996125	<s> PROPN DET	-0.9344729
-1.2340117	NOUN PROPN DET	-0.83297944
-1.3772001	PUNCT PROPN DET	-0.8889799
-1.1966097	VERB PROPN DET	-1.0592953
-1.7955728	NUM PROPN DET	-0.2800204
-1.2193031	ADP PROPN DET	-0.90643734
-1.5754303	ADJ PROPN DET	-0.2800204
-1.2817401	PROPN PROPN DET	-0.7728828
-1.4687241	PART PROPN DET	-0.47878498
-1.7195021	DET PROPN DET	-0.2800204
-1.4618611	ADV PROPN DET	-0.58695745
-1.5473975	X PROPN DET	-0.2800204
-1.3415369	CCONJ PROPN DET	-0.74131954
-1.4223615	PRON PROPN DET	-0.2800204
-1.4017444	SCONJ PROPN DET	-0.2800204
-1.668798	<s> PART DET	-0.6211897
-1.1419259	NOUN PART DET	-1.4358606
-1.3462924	PUNCT PART DET	-0.47530758
-1.1527861	VERB PART DET	-1.6238631
-1.4668857	NUM PART DET	-0.5319494
-1.4062902	ADP PART DET	-0.2800204
-1.1036799	ADJ PART DET	-0.64921844
-1.1727049	PROPN PART DET	-1.003012
-1.1630163	PART PART DET	-1.0810254
-1.5310941	ADV PART DET	-0.3035564
-1.09613	PRON PART DET	-0.99473155
-2.6333342	<s> DET DET	-0.4864911
-1.5774641	NOUN DET DET	-0.2800204
-1.499835	PUNCT DET DET	-0.41685468
-1.2348026	VERB DET DET	-0.5590418
-1.2719429	ADP DET DET	-0.4500294
-1.4272633	PROPN DET DET	-0.28891137
-1.2287927	PART DET DET	-0.6868514
-1.3842502	DET DET DET	-0.2800204
-1.4461535	ADV DET DET	-0.29191592
-1.5355829	X DET DET	-0.2800204
-1.254969	CCONJ DET DET	-0.76423985
-1.5600196	PRON DET DET	-0.2800204
-1.5765187	<s> ADV DET	-1.5466999
-1.1033603	NOUN ADV DET	-0.8600501
-1.2079949	PUNCT ADV DET	-1.2632308
-1.2685752	VERB ADV DET	-0.75617236
-1.3356714	ADP ADV DET	-0.37506464
-1.4486331	ADJ ADV DET	-0.2800204
-1.3017093	PROPN ADV DET	-0.33367193
-1.5291063	PART ADV DET	-0.5362481
-1.3871123	ADV ADV DET	-0.89782155
-1.4293221	CCONJ ADV DET	-0.41685468
-1.3206065	PRON ADV DET	-0.64921844
-1.3082849	SCONJ ADV DET	-0.28891137
-1.1459069	<s> X DET	-0.5920193
-1.033607	NOUN X DET	-0.87588656
-1.1503485	PUNCT X DET	-0.57196796
-1.0016468	VERB X DET	-0.8418181
-1.3547115	NUM X DET	-0.2800204
-1.1738894	ADP X DET	-0.3035564
-1.0268697	PROPN X DET	-0.49976474
-1.0871211	PART X DET	-0.29769716
-1.0720513	ADV X DET	-0.88869274
-1.1271988	CCONJ X DET	-0.31582072
-0.87254983	PRON X DET	-0.6850586
-1.0493852	SCONJ X DET	-0.2800204
-1.118213	<s> CCONJ DET	-0.7756864
-1.0200562	NOUN CCONJ DET	-1.3861326
-1.141926	PUNCT CCONJ DET	-0.76383114
-1.1253519	VERB CCONJ DET	-0.35300496
-1.2076986	NUM CCONJ DET	-0.30842066
-0.9471415	PROPN CCONJ DET	-1.1118805
-1.0980136	PART CCONJ DET	-0.4226359
-1.1920642	ADV CCONJ DET	-0.46500263
-1.0171134	CCONJ CCONJ DET	-0.2800204
-0.9239754	PRON CCONJ DET	-0.7707635
-2.3998218	<s> PRON DET	-0.81347394
-1.5260354	NOUN PRON DET	-0.28711858
-1.2898674	PUNCT PRON DET	-0.5589777
-1.2901759	VERB PRON DET	-0.8197442
-1.3726194	NUM PRON DET	-0.2800204
-1.1519891	ADP PRON DET	-0.74025536
-1.6495554	PART PRON DET	-0.2941615
-1.3281181	ADV PRON DET	-0.5246104
-1.4943211	X PRON DET	-0.2800204
-1.2682219	CCONJ PRON DET	-0.30842066
-1.4976206	SCONJ PRON DET	-0.3662998
-1.2869648	<s> SCONJ DET	-1.0988879
-1.4517405	NOUN SCONJ DET	-0.2800204
-1.068088	PUNCT SCONJ DET	-0.9543029
-1.1196514	VERB SCONJ DET	-0.34818843
-0.84942514	NUM SCONJ DET	-0.2800204
-1.1669436	ADP SCONJ DET	-0.2800204
-1.1970423	ADV SCONJ DET	-0.35311937
-0.85428226	<s> NOUN ADV	-2.2510183
-1.1338878	NOUN NOUN ADV	-2.5780087
-1.1334801	PUNCT NOUN ADV	-1.9611639
-1.1384857	VERB NOUN ADV	-2.0998695
-1.1330752	NUM NOUN ADV	-2.046154
-1.1135398	ADP NOUN ADV	-1.8216025
-1.110457	ADJ NOUN ADV	-1.9505035
-1.1275518	PROPN NOUN ADV	-2.1273303
-1.0773512	PART NOUN ADV	-2.4000819
-1.0750535	DET NOUN ADV	-2.1040554
-1.0235975	ADV NOUN ADV	-1.7871518
-1.1270888	X NOUN ADV	-0.950434
-1.0505185	CCONJ NOUN ADV	-1.7522144
-1.056266	PRON NOUN ADV	-1.488023
-0.9904102	SCONJ NOUN ADV	-1.2979949
-0.671467	SPACE NOUN ADV	-0.2800204
-1.1713961	<s> PUNCT ADV	-1.2391375
-1.1627176	NOUN PUNCT ADV	-2.534895
-1.1712227	PUNCT PUNCT ADV	-1.5030874
-1.1526872	VERB PUNCT ADV	-2.1474185
-1.1412551	NUM PUNCT ADV	-1.3173988
-1.1341891	ADP PUNCT ADV	-0.73954195
-1.1275411	ADJ PUNCT ADV	-0.5899414
-1.1442417	PROPN PUNCT ADV	-1.5727425
-1.101353	PART PUNCT ADV	-1.7172107
-1.4210758	DET PUNCT ADV	-0.31582072
-1.0700014	ADV PUNCT ADV	-1.0289212
-1.048128	X PUNCT ADV	-0.46500263
-1.154773	CCONJ PUNCT ADV	-0.61985826
-1.011099	PRON PUNCT ADV	-0.9760026
-1.083675	INTJ PUNCT ADV	-0.46500263
-1.2854906	<s> VERB ADV	-1.627126
-1.1699632	NOUN VERB ADV	-2.1384616
-1.1719615	PUNCT VERB ADV	-1.5600357
-1.1725491	VERB VERB ADV	-1.9377689
-1.123872	NUM VERB ADV	-0.9465603
-1.1683205	ADP VERB ADV	-1.0730009
-1.2674227	ADJ VERB ADV	-0.56621134
-1.1628425	PROPN VERB ADV	-1.4267677
-1.148877	PART VERB ADV	-1.4118912
-1.2910162	DET VERB ADV	-0.557125
-1.148802	ADV VERB ADV	-2.2184713
-1.1366524	X VERB ADV	-0.7893616
-1.1451724	CCONJ VERB ADV	-0.8817598
-1.0908234	PRON VERB ADV	-1.786343
-1.0600455	SCONJ VERB ADV	-0.95701075
-0.98909914	INTJ VERB ADV	-0.2800204
-1.939453	<s> NUM ADV	-0.7946606
-1.1285802	NOUN NUM ADV	-0.78221023
-1.1454927	PUNCT NUM ADV	-0.6272665
-1.1406621	VERB NUM ADV	-1.22971
-1.1013443	NUM NUM ADV	-1.5964066
-1.2426715	ADP NUM ADV	-0.8088062
-1.4077848	ADJ NUM ADV	-0.2800204
-1.1861271	PROPN NUM ADV	-0.5524941
-1.3369076	PART NUM ADV	-0.7148801
-1.0678934	DET NUM ADV	-0.905839
-1.1803495	ADV NUM ADV	-0.7057565
-1.29248	X NUM ADV	-0.3035564
-1.2889359	CCONJ NUM ADV	-0.70209193
-1.0767013	PRON NUM ADV	-0.76603264
-1.4331957	<s> ADP ADV	-1.3205056
-1.0811049	NOUN ADP ADV	-1.2548165
-1.1611365	PUNCT ADP ADV	-1.0578439
-1.0977577	VERB ADP ADV	-1.2634057
-1.2436895	NUM ADP ADV	-0.42458025
-1.1146157	ADP ADP ADV	-0.46500263
-1.0605428	PROPN ADP ADV	-0.79785794
-1.3953042	PART ADP ADV	-0.5195459
-1.5124576	DET ADP ADV	-0.2800204
-1.1972568	ADV ADP ADV	-1.1654278
-1.1348587	CCONJ ADP ADV	-0.33555415
-1.1237898	PRON ADP ADV	-0.79246354
-1.0490388	SCONJ ADP ADV	-0.5491689
-2.3521295	<s> ADJ ADV	-0.3942231
-1.4008144	NOUN ADJ ADV	-0.29398844
-1.520887	PUNCT ADJ ADV	-0.3035564
-1.1716954	VERB ADJ ADV	-0.61638075
-1.4438843	NUM ADJ ADV	-0.41685468
-1.1712725	ADP ADJ ADV	-0.4226359
-1.5018182	ADJ ADJ ADV	-0.2800204
-1.4449941	PROPN ADJ ADV	-0.3035564
-1.2825667	PART ADJ ADV	-0.42274582
-1.3240243	DET ADJ ADV	-0.3035564
-1.3405516	ADV ADJ ADV	-0.29769716
-1.4963127	CCONJ ADJ ADV	-0.2800204
-1.280273	PRON ADJ ADV	-0.28891137
-1.1272765	<s> PROPN ADV	-1.8863817
-1.0983683	NOUN PROPN ADV	-1.5555843
-1.1811278	PUNCT PROPN ADV	-1.5908903
-1.1611736	VERB PROPN ADV	-1.5060425
-0.9905005	NUM PROPN ADV	-0.8205759
-1.1048199	ADP PROPN ADV	-1.5171646
-1.0996721	ADJ PROPN ADV	-0.6211897
-1.1204234	PROPN PROPN ADV	-1.4458246
-1.0221376	PART PROPN ADV	-1.2113423
-0.9313084	DET PROPN ADV	-0.77485996
-1.0960885	ADV PROPN ADV	-1.3552058
-1.2697103	X PROPN ADV	-0.5899414
-1.0888923	CCONJ PROPN ADV	-1.1869706
-1.1399336	PRON PROPN ADV	-0.64109385
-1.0634941	SCONJ PROPN ADV	-0.8768474
-1.1503147	<s> PART ADV	-0.8277682
-1.1293578	NOUN PART ADV	-1.9863074
-1.1249373	PUNCT PART ADV	-0.7655037
-1.1099569	VERB PART ADV	-1.8452764
-1.0569917	NUM PART ADV	-1.2776074
-0.9971725	ADP PART ADV	-0.35311937
-1.3435326	ADJ PART ADV	-0.5195459
-1.0851777	PROPN PART ADV	-1.0336885
-1.4517334	PART PART ADV	-0.6633094
-1.2038484	DET PART ADV	-0.28891137
-1.0441766	ADV PART ADV	-0.8917887
-1.1205132	X PART ADV	-0.2800204
-1.1769927	PRON PART ADV	-0.9531708
-0.90539986	SCONJ PART ADV	-0.2800204
-1.7633739	<s> DET ADV	-0.9631405
-1.1788292	NOUN DET ADV	-0.57425964
-1.1669139	PUNCT DET ADV	-0.48339826
-1.0891849	VERB DET ADV	-1.0184481
-1.2425767	NUM DET ADV	-0.2800204
-1.1341946	ADP DET ADV	-0.8878547
-1.4083228	PROPN DET ADV	-0.29191592
-1.2137243	PART DET ADV	-0.5280879
-1.1778433	DET DET ADV	-0.2800204
-1.1525021	ADV DET ADV	-0.60933787
-1.1901922	X DET ADV	-0.5137647
-1.1394	CCONJ DET ADV	-0.41673988
-1.378652	PRON DET ADV	-0.29191592
-0.8028737	<s> ADV ADV	-2.223028
-1.0616922	NOUN ADV ADV	-2.4443135
-1.0622684	PUNCT ADV ADV	-2.032758
-1.0280156	VERB ADV ADV	-1.7526193
-0.846864	NUM ADV ADV	-1.1264529
-0.9941504	ADP ADV ADV	-0.911609
-1.1887456	ADJ ADV ADV	-0.41685468
-0.94781417	PROPN ADV ADV	-1.6101387
-0.9363051	PART ADV ADV	-1.3945835
-0.9729467	DET ADV ADV	-0.9543029
-1.025965	ADV ADV ADV	-2.0247562
-1.3349013	X ADV ADV	-0.2800204
-0.9174465	CCONJ ADV ADV	-0.85607255
-0.92467415	PRON ADV ADV	-2.0170407
-0.8496285	SCONJ ADV ADV	-0.92608607
-0.65913755	INTJ ADV ADV	-0.2800204
-1.7347295	<s> X ADV	-0.36464396
-0.96429455	NOUN X ADV	-1.0310744
-1.2647222	PUNCT X ADV	-0.5899414
-1.0535115	VERB X ADV	-0.82370853
-1.3738272	NUM X ADV	-0.31582072
-1.3843002	ADP X ADV	-0.2800204
-1.1201652	PROPN X ADV	-0.3662998
-1.2502123	PART X ADV	-0.81479466
-1.0246471	ADV X ADV	-0.9931315
-1.1398567	CCONJ X ADV	-0.41685468
-1.1018953	PRON X ADV	-0.71788466
-1.0335283	<s> CCONJ ADV	-0.89751095
-1.0703369	NOUN CCONJ ADV	-1.3250198
-1.0143894	PUNCT CCONJ ADV	-1.0452338
-0.9874263	VERB CCONJ ADV	-1.2145364
-1.4776258	NUM CCONJ ADV	-0.29398844
-1.214035	ADJ CCONJ ADV	-0.28891137
-1.0602548	PROPN CCONJ ADV	-0.66658396
-1.0999072	PART CCONJ ADV	-0.29191592
-0.8140445	ADV CCONJ ADV	-0.5861086
-0.98366725	CCONJ CCONJ ADV	-0.2800204
-1.3586645	PRON CCONJ ADV	-0.28507861
-0.4984644	SCONJ CCONJ ADV	-0.2800204
-0.4920174	<s> PRON ADV	-2.3314512
-0.90432876	NOUN PRON ADV	-1.4125291
-1.0285566	PUNCT PRON ADV	-1.9728314
-1.0770532	VERB PRON ADV	-1.8455359
-1.0221008	NUM PRON ADV	-0.76503575
-0.9857173	ADP PRON ADV	-1.4926875
-0.89705485	ADJ PRON ADV	-0.29191592
-0.8193034	PROPN PRON ADV	-0.99924284
-0.83519083	PART PRON ADV	-1.1646692
-0.68193555	DET PRON ADV	-0.513011
-0.9090902	ADV PRON ADV	-1.8616588
-1.1604604	X PRON ADV	-0.98788136
-1.0362277	CCONJ PRON ADV	-0.83886504
-0.8472658	PRON PRON ADV	-1.1551349
-0.91276133	SCONJ PRON ADV	-1.2923657
-1.1114032	<s> SCONJ ADV	-1.0935881
-0.75786746	NOUN SCONJ ADV	-0.94340897
-0.9738498	PUNCT SCONJ ADV	-0.89892834
-0.86871827	VERB SCONJ ADV	-0.65414935
-0.8068412	NUM SCONJ ADV	-0.2800204
-0.90618426	ADP SCONJ ADV	-0.38582137
-0.70627004	PROPN SCONJ ADV	-0.5195459
-0.98375916	PART SCONJ ADV	-0.2800204
-1.0890719	ADV SCONJ ADV	-0.5319494
-0.79148316	PRON SCONJ ADV	-0.64109385
-1.6533871	<s> INTJ ADV	-0.2800204
-0.74150276	NOUN SPACE ADV	-0.2800204
-2.432612	<s> NOUN X	-0.8595898
-1.1654599	NOUN NOUN X	-1.2947271
-1.2980239	PUNCT NOUN X	-0.8615012
-1.2770493	VERB NOUN X	-1.0672321
-1.2042757	NUM NOUN X	-1.1503426
-1.2225685	ADP NOUN X	-0.8620727
-1.2112004	ADJ NOUN X	-0.76670057
-1.2285937	PROPN NOUN X	-0.99601585
-1.2282192	PART NOUN X	-1.2382555
-1.2557629	DET NOUN X	-0.9262514
-1.3604621	ADV NOUN X	-0.47025275
-1.7956319	X NOUN X	-0.2800204
-1.5857337	CCONJ NOUN X	-0.6410939
-1.4008887	PRON NOUN X	-0.5707712
-1.521659	SCONJ NOUN X	-0.28711858
-2.8971734	<s> PUNCT X	-0.28592744
-1.306573	NOUN PUNCT X	-1.1747411
-1.4505832	PUNCT PUNCT X	-0.38632935
-1.3386947	VERB PUNCT X	-0.8712944
-1.5055763	NUM PUNCT X	-0.34307057
-1.461654	ADP PUNCT X	-0.3662998
-1.4958107	PROPN PUNCT X	-0.5259171
-1.6549227	PART PUNCT X	-0.5899414
-1.6114688	DET PUNCT X	-0.2800204
-1.4343224	ADV PUNCT X	-0.29769716
-1.4996372	CCONJ PUNCT X	-0.2800204
-1.7903696	PRON PUNCT X	-0.28891137
-1.3370522	INTJ PUNCT X	-0.2800204
-2.2241607	<s> VERB X	-0.89003175
-1.173774	NOUN VERB X	-1.2930337
-1.478235	PUNCT VERB X	-0.70778614
-1.2087897	VERB VERB X	-0.95263594
-1.5780888	NUM VERB X	-0.44509846
-1.3996326	ADP VERB X	-0.48361015
-1.6210508	ADJ VERB X	-0.2800204
-1.2718713	PROPN VERB X	-0.67710054
-1.501917	PART VERB X	-0.4976203
-1.6217228	DET VERB X	-0.2800204
-1.2495455	ADV VERB X	-1.3601018
-1.6773367	X VERB X	-0.29398844
-1.5937619	CCONJ VERB X	-0.35331017
-1.2711743	PRON VERB X	-1.0007243
-1.6851228	SCONJ VERB X	-0.29755172
-3.181137	<s> NUM X	-0.3035564
-1.4104548	NOUN NUM X	-0.28507861
-1.6090093	PUNCT NUM X	-0.2800204
-1.4603012	VERB NUM X	-0.35311937
-1.2072765	NUM NUM X	-0.9113546
-1.7699785	ADP NUM X	-0.2800204
-1.6547787	PROPN NUM X	-0.29512745
-1.539304	PART NUM X	-0.31582072
-1.7033165	DET NUM X	-0.38582137
-1.8074211	ADV NUM X	-0.2800204
-1.5179707	X NUM X	-0.2800204
-1.621151	CCONJ NUM X	-0.2800204
-2.6161623	<s> ADP X	-0.5928025
-1.2019478	NOUN ADP X	-0.6697462
-1.5103624	PUNCT ADP X	-0.42721406
-1.6219525	VERB ADP X	-0.48848376
-1.7385213	NUM ADP X	-0.2800204
-1.5523249	PROPN ADP X	-0.29512745
-1.6348943	PART ADP X	-0.2800204
-1.4398069	ADV ADP X	-0.5017089
-1.3629007	CCONJ ADP X	-0.31582072
-1.6732183	PRON ADP X	-0.29755172
-1.9795401	PUNCT ADJ X	-0.2800204
-1.8569168	VERB ADJ X	-0.3035564
-1.8728197	PART ADJ X	-0.2800204
-1.5231227	X ADJ X	-0.2800204
-2.5429842	<s> PROPN X	-0.73945904
-1.3906858	NOUN PROPN X	-0.5909406
-1.2852507	PUNCT PROPN X	-0.73476857
-1.2476181	VERB PROPN X	-0.48498285
-1.8609376	NUM PROPN X	-0.2800204
-1.1912644	ADP PROPN X	-0.8786689
-1.7660964	ADJ PROPN X	-0.2800204
-1.4119704	PROPN PROPN X	-0.4959777
-1.5045825	PART PROPN X	-0.35311937
-1.6416854	ADV PROPN X	-0.29398844
-1.5206907	CCONJ PROPN X	-0.3035564
-1.2921058	SCONJ PROPN X	-0.28891137
-2.6314807	<s> PART X	-0.2800204
-1.2449131	NOUN PART X	-1.1746571
-1.5103008	PUNCT PART X	-0.28711858
-1.3067681	VERB PART X	-1.0000033
-1.4783914	NUM PART X	-0.5242797
-1.4296627	ADP PART X	-0.2800204
-1.3227443	PROPN PART X	-0.5451957
-1.7037104	PART PART X	-0.31582072
-1.2933704	ADV PART X	-0.35331017
-1.680794	PRON PART X	-0.2800204
-2.7344813	<s> DET X	-0.39934093
-1.6162368	NOUN DET X	-0.29191592
-1.5381558	PUNCT DET X	-0.3035564
-1.5704553	VERB DET X	-0.59294593
-1.377058	ADP DET X	-0.35311937
-1.4355125	PART DET X	-0.28891137
-1.4243965	DET DET X	-0.2800204
-1.637146	ADV DET X	-0.2800204
-1.4219484	X DET X	-0.29191592
-1.5996668	CCONJ DET X	-0.2800204
-2.0012689	<s> ADV X	-1.1611254
-1.1266248	NOUN ADV X	-1.6114423
-1.1966908	PUNCT ADV X	-1.1347101
-1.2569426	VERB ADV X	-0.9559437
-1.2906471	NUM ADV X	-0.5414268
-1.3173386	ADP ADV X	-0.56093866
-1.4082463	ADJ ADV X	-0.2800204
-1.0901012	PROPN ADV X	-0.94147366
-1.0456722	PART ADV X	-0.7207408
-1.39752	DET ADV X	-0.50544053
-1.0345815	ADV ADV X	-1.2983695
-1.3991921	CCONJ ADV X	-0.29191592
-0.9996253	PRON ADV X	-1.043648
-1.279344	SCONJ ADV X	-0.3662998
-1.3510113	NOUN X X	-0.35311937
-1.5278283	PUNCT X X	-0.31582072
-1.8584929	VERB X X	-0.2800204
-1.2770061	NUM X X	-0.2800204
-1.0707369	ADP X X	-0.6815318
-1.6686219	PROPN X X	-0.31582072
-1.4213974	CCONJ X X	-0.2800204
-1.9443727	<s> CCONJ X	-0.38403732
-1.2753621	NOUN CCONJ X	-0.47378844
-1.4676542	PUNCT CCONJ X	-0.3858214
-1.2141994	VERB CCONJ X	-0.7217303
-1.6780742	PROPN CCONJ X	-0.3035564
-1.7095246	PRON CCONJ X	-0.2800204
-2.1540227	<s> PRON X	-0.90220606
-1.4090188	NOUN PRON X	-0.29769716
-1.3512905	PUNCT PRON X	-0.6971511
-1.2840083	VERB PRON X	-0.7602875
-1.518867	NUM PRON X	-0.2800204
-1.3779203	ADP PRON X	-0.6316753
-1.4439647	PART PRON X	-0.3035564
-1.2339747	ADV PRON X	-0.5952492
-1.6184827	X PRON X	-0.2800204
-1.4327903	CCONJ PRON X	-0.3035564
-1.5455037	PRON PRON X	-0.2800204
-1.2904731	SCONJ PRON X	-0.30215764
-2.1731784	<s> SCONJ X	-0.35573068
-1.4517405	NOUN SCONJ X	-0.29191592
-1.4658815	PUNCT SCONJ X	-0.30011508
-1.227297	VERB SCONJ X	-0.29755172
-1.1975958	PROPN SCONJ X	-0.2800204
-1.1970423	ADV SCONJ X	-0.2800204
-1.0130069	PRON SCONJ X	-0.3035564
-1.6298817	<s> NOUN CCONJ	-1.597607
-1.1651436	NOUN NOUN CCONJ	-2.2868757
-1.1373892	PUNCT NOUN CCONJ	-2.0508306
-1.1419284	VERB NOUN CCONJ	-2.1526763
-1.1366484	NUM NOUN CCONJ	-1.5668391
-1.1171703	ADP NOUN CCONJ	-1.7104473
-1.1138997	ADJ NOUN CCONJ	-1.8054518
-1.1609664	PROPN NOUN CCONJ	-1.7763349
-1.1481624	PART NOUN CCONJ	-2.1091733
-1.108468	DET NOUN CCONJ	-1.2945113
-1.2038394	ADV NOUN CCONJ	-1.2603607
-1.0033894	X NOUN CCONJ	-0.9094396
-1.2114736	CCONJ NOUN CCONJ	-0.9291407
-1.0599993	PRON NOUN CCONJ	-0.93728423
-1.3446584	SCONJ NOUN CCONJ	-0.76603264
-2.5138876	<s> PUNCT CCONJ	-0.42968297
-1.1928977	NOUN PUNCT CCONJ	-1.7892656
-1.3669137	PUNCT PUNCT CCONJ	-0.70128536
-1.214943	VERB PUNCT CCONJ	-1.1947622
-1.2804208	NUM PUNCT CCONJ	-0.59648097
-1.5614258	ADP PUNCT CCONJ	-0.3035564
-1.423498	ADJ PUNCT CCONJ	-0.35311937
-1.3036245	PROPN PUNCT CCONJ	-1.1179907
-1.4008738	PART PUNCT CCONJ	-0.42635173
-1.4223654	DET PUNCT CCONJ	-0.2800204
-1.4142903	ADV PUNCT CCONJ	-0.30011508
-1.5108461	X PUNCT CCONJ	-0.2800204
-1.2955625	CCONJ PUNCT CCONJ	-0.35311937
-1.4643253	PRON PUNCT CCONJ	-0.3054143
-1.3019509	INTJ PUNCT CCONJ	-0.38582137
-2.2551506	<s> VERB CCONJ	-0.89988816
-1.1734488	NOUN VERB CCONJ	-1.4853721
-1.2140503	PUNCT VERB CCONJ	-1.1017162
-1.1462531	VERB VERB CCONJ	-1.4275312
-1.2165608	NUM VERB CCONJ	-0.5829745
-1.1731186	ADP VERB CCONJ	-1.0479178
-1.2751323	ADJ VERB CCONJ	-0.6006715
-1.2335613	PROPN VERB CCONJ	-0.84493315
-1.2414162	PART VERB CCONJ	-0.85468245
-1.2286887	DET VERB CCONJ	-0.70209193
-1.182205	ADV VERB CCONJ	-1.5424366
-1.1415119	X VERB CCONJ	-0.7986503
-1.151089	CCONJ VERB CCONJ	-0.8811042
-1.3679068	PRON VERB CCONJ	-0.8013718
-1.3863237	SCONJ VERB CCONJ	-0.3662998
-2.4199214	<s> NUM CCONJ	-0.64921844
-1.1336496	NOUN NUM CCONJ	-0.8185975
-1.2114003	PUNCT NUM CCONJ	-0.6809139
-1.145307	VERB NUM CCONJ	-1.1999296
-1.2022897	NUM NUM CCONJ	-0.98696375
-1.1184008	ADP NUM CCONJ	-0.9967399
-1.4549103	ADJ NUM CCONJ	-0.2800204
-1.3211051	PROPN NUM CCONJ	-0.49142212
-1.3491702	PART NUM CCONJ	-0.79251826
-1.3419553	DET NUM CCONJ	-0.35331017
-1.2466189	ADV NUM CCONJ	-0.7922685
-1.4941769	X NUM CCONJ	-0.2800204
-1.4390756	CCONJ NUM CCONJ	-0.29755172
-4.022699	<s> ADP CCONJ	-0.2800204
-2.0277877	NOUN ADP CCONJ	-0.2800204
-2.21528	VERB ADP CCONJ	-0.2800204
-2.5364692	<s> ADJ CCONJ	-0.3662998
-1.5375633	NOUN ADJ CCONJ	-0.29755172
-1.5223148	PUNCT ADJ CCONJ	-0.36174372
-1.172268	VERB ADJ CCONJ	-0.83455646
-1.4452891	NUM ADJ CCONJ	-0.3805018
-1.3615104	ADP ADJ CCONJ	-0.29769716
-1.473917	PROPN ADJ CCONJ	-0.2800204
-1.2837131	PART ADJ CCONJ	-0.47386116
-1.3253518	DET ADJ CCONJ	-0.2800204
-1.1475711	ADV ADJ CCONJ	-0.29776993
-1.3299143	X ADJ CCONJ	-0.31582072
-1.4982238	CCONJ ADJ CCONJ	-0.2800204
-1.4810965	PRON ADJ CCONJ	-0.2800204
-1.665159	<s> PROPN CCONJ	-1.5077544
-1.1286808	NOUN PROPN CCONJ	-1.3214486
-1.1815627	PUNCT PROPN CCONJ	-1.6655457
-1.0995193	VERB PROPN CCONJ	-1.5878372
-1.0298107	NUM PROPN CCONJ	-0.7773617
-1.1051825	ADP PROPN CCONJ	-1.4460222
-1.2292205	ADJ PROPN CCONJ	-0.5242797
-1.1936344	PROPN PROPN CCONJ	-1.1265919
-1.1104143	PART PROPN CCONJ	-1.1102556
-1.2111549	DET PROPN CCONJ	-0.5590418
-1.0076784	ADV PROPN CCONJ	-1.0759698
-1.0529205	X PROPN CCONJ	-0.5175675
-1.2398293	CCONJ PROPN CCONJ	-1.0490892
-1.3916358	PRON PROPN CCONJ	-0.3035564
-1.2494	SCONJ PROPN CCONJ	-0.49976474
-2.6014042	<s> PART CCONJ	-0.2800204
-1.2042712	NOUN PART CCONJ	-0.8364469
-1.6580672	PUNCT PART CCONJ	-0.2800204
-1.258216	VERB PART CCONJ	-0.5829745
-1.7050595	NUM PART CCONJ	-0.29755172
-1.6231394	ADJ PART CCONJ	-0.3035564
-1.7986611	PROPN PART CCONJ	-0.2800204
-1.673601	PART PART CCONJ	-0.2800204
-1.6913228	ADV PART CCONJ	-0.2800204
-1.1595187	X PART CCONJ	-0.2800204
-1.8195325	PRON PART CCONJ	-0.2800204
-1.9351515	VERB DET CCONJ	-0.3035564
-1.895427	ADV DET CCONJ	-0.31582072
-1.6411077	CCONJ DET CCONJ	-0.31582072
-3.2754748	<s> ADV CCONJ	-0.28592744
-1.5391622	NOUN ADV CCONJ	-0.4708882
-1.6177909	PUNCT ADV CCONJ	-0.3946072
-1.676133	VERB ADV CCONJ	-0.37334275
-1.8209257	NUM ADV CCONJ	-0.2800204
-1.5984011	PROPN ADV CCONJ	-0.3662998
-1.6146852	PART ADV CCONJ	-0.2800204
-1.4139388	ADV ADV CCONJ	-0.29071167
-1.7018132	PRON ADV CCONJ	-0.3035564
-1.8752159	NOUN X CCONJ	-0.2800204
-1.8788532	PUNCT X CCONJ	-0.2800204
-1.2723976	X X CCONJ	-0.2800204
-2.5189106	<s> CCONJ CCONJ	-0.28891137
-1.7172115	NOUN CCONJ CCONJ	-0.3662998
-1.9252839	PUNCT CCONJ CCONJ	-0.2800204
-1.775803	VERB CCONJ CCONJ	-0.3035564
-2.11754	<s> PRON CCONJ	-0.97229856
-1.2475506	NOUN PRON CCONJ	-0.5694653
-1.1635315	PUNCT PRON CCONJ	-0.5655917
-1.2315063	VERB PRON CCONJ	-0.8349581
-1.4950877	NUM PRON CCONJ	-0.2800204
-1.2997938	ADP PRON CCONJ	-0.7673178
-1.5202471	PROPN PRON CCONJ	-0.31582072
-1.4576659	PART PRON CCONJ	-0.2839495
-1.4065766	ADV PRON CCONJ	-0.4639424
-1.2858093	X PRON CCONJ	-0.29755172
-1.4137982	CCONJ PRON CCONJ	-0.2800204
-1.2299428	PRON PRON CCONJ	-0.29776993
-1.2739384	SCONJ PRON CCONJ	-0.34818843
-1.8423846	NOUN SCONJ CCONJ	-0.2800204
-1.8934821	PUNCT SCONJ CCONJ	-0.2800204
-1.4483451	PUNCT INTJ CCONJ	-0.2800204
-1.8713877	<s> NOUN PRON	-1.2892523
-1.1951634	NOUN NOUN PRON	-1.1958065
-1.2101059	PUNCT NOUN PRON	-1.0229992
-1.2388276	VERB NOUN PRON	-1.0315255
-1.2418604	NUM NOUN PRON	-0.73882926
-1.1842585	ADP NOUN PRON	-0.8269566
-1.4448432	ADJ NOUN PRON	-0.45497155
-1.2661784	PROPN NOUN PRON	-0.8269566
-1.2277516	PART NOUN PRON	-0.96361244
-1.3013251	DET NOUN PRON	-0.81592536
-1.2038394	ADV NOUN PRON	-0.8544679
-1.666805	X NOUN PRON	-0.29755172
-1.2790053	CCONJ NOUN PRON	-0.7173251
-1.4001257	PRON NOUN PRON	-0.4639424
-1.3753937	SCONJ NOUN PRON	-0.39934093
-0.9314227	<s> PUNCT PRON	-1.5181423
-1.2249734	NOUN PUNCT PRON	-1.9851172
-1.1340083	PUNCT PUNCT PRON	-1.6037793
-1.1529986	VERB PUNCT PRON	-1.7989931
-1.1831769	NUM PUNCT PRON	-0.9502485
-1.0835571	ADP PUNCT PRON	-0.55343723
-1.5716771	ADJ PUNCT PRON	-0.2800204
-1.1792358	PROPN PUNCT PRON	-1.26329
-1.1018193	PART PUNCT PRON	-1.5454518
-1.5700848	DET PUNCT PRON	-0.2800204
-1.0704089	ADV PUNCT PRON	-1.1375312
-1.2955625	CCONJ PUNCT PRON	-0.5040634
-1.0114717	PRON PUNCT PRON	-0.8005356
-1.0544451	SCONJ PUNCT PRON	-0.2800204
-1.0846139	INTJ PUNCT PRON	-0.36464396
-1.1212766	<s> VERB PRON	-1.7232932
-1.1702858	NOUN VERB PRON	-1.9830347
-1.1723579	PUNCT VERB PRON	-1.5814146
-1.1431388	VERB VERB PRON	-1.9742157
-1.2117181	NUM VERB PRON	-0.8194366
-1.168764	ADP VERB PRON	-1.0534438
-1.448722	ADJ VERB PRON	-0.30842066
-1.1951755	PROPN VERB PRON	-1.2226908
-1.1492853	PART VERB PRON	-1.4335176
-1.1634938	DET VERB PRON	-0.72631055
-1.1788585	ADV VERB PRON	-2.1077998
-1.4385128	X VERB PRON	-0.3018355
-1.2042108	CCONJ VERB PRON	-1.1276602
-1.1529346	PRON VERB PRON	-1.7579783
-1.1206008	SCONJ VERB PRON	-0.55343723
-0.98999363	INTJ VERB PRON	-0.2800204
-2.6417236	<s> NUM PRON	-0.5077762
-1.6226383	NOUN NUM PRON	-0.29398844
-1.6753795	PUNCT NUM PRON	-0.2800204
-1.343384	VERB NUM PRON	-0.8939759
-1.1802478	NUM NUM PRON	-0.8575535
-1.7209572	PROPN NUM PRON	-0.2800204
-1.7303023	PART NUM PRON	-0.39934093
-1.4553131	DET NUM PRON	-0.37334275
-1.539072	ADV NUM PRON	-0.30842066
-1.4368678	PRON NUM PRON	-0.2800204
-0.9728064	<s> ADP PRON	-1.7174668
-1.0439167	NOUN ADP PRON	-1.5902699
-1.0127778	PUNCT ADP PRON	-1.4374218
-0.99384797	VERB ADP PRON	-1.6965333
-0.9144705	NUM ADP PRON	-0.6596177
-1.0317835	ADP ADP PRON	-0.6733886
-0.8415463	ADJ ADP PRON	-0.2800204
-1.0142803	PROPN ADP PRON	-1.0687978
-0.9840872	PART ADP PRON	-0.9034387
-0.904932	DET ADP PRON	-0.49828148
-0.97629416	ADV ADP PRON	-1.6028543
-0.95005727	X ADP PRON	-0.3035564
-0.9288077	CCONJ ADP PRON	-0.7697762
-0.98925227	PRON ADP PRON	-1.4225585
-0.94858295	SCONJ ADP PRON	-0.3718911
-3.1912372	<s> ADJ PRON	-0.2800204
-1.6892767	NOUN ADJ PRON	-0.2800204
-1.8507854	PUNCT ADJ PRON	-0.2800204
-1.3340014	VERB ADJ PRON	-0.3443626
-1.7747078	NUM ADJ PRON	-0.2800204
-1.6492114	ADP ADJ PRON	-0.2800204
-1.5362375	PART ADJ PRON	-0.2800204
-2.4608603	<s> PROPN PRON	-0.7494918
-1.1609156	NOUN PROPN PRON	-0.64062196
-1.3765179	PUNCT PROPN PRON	-0.7566925
-1.2751853	VERB PROPN PRON	-0.64921844
-1.6629975	NUM PROPN PRON	-0.3035564
-1.2188317	ADP PROPN PRON	-0.638208
-1.5470197	ADJ PROPN PRON	-0.2800204
-1.3910937	PROPN PROPN PRON	-0.61635303
-1.4675968	PART PROPN PRON	-0.29964152
-1.7175708	DET PROPN PRON	-0.2800204
-1.359498	ADV PROPN PRON	-0.3975921
-1.6784289	X PROPN PRON	-0.2800204
-1.4979713	CCONJ PROPN PRON	-0.33367193
-1.4209423	PRON PROPN PRON	-0.2800204
-1.3999139	SCONJ PROPN PRON	-0.2800204
-1.4216061	<s> PART PRON	-0.6633094
-1.1675174	NOUN PART PRON	-1.2208302
-1.5007104	PUNCT PART PRON	-0.29755172
-1.1481165	VERB PART PRON	-1.6293956
-1.1931958	NUM PART PRON	-0.6800004
-1.3820325	ADP PART PRON	-0.2800204
-1.468329	ADJ PART PRON	-0.3035564
-1.2561601	PROPN PART PRON	-0.63658416
-1.345588	PART PART PRON	-0.37682027
-1.3871399	DET PART PRON	-0.3035564
-1.2711312	ADV PART PRON	-0.39934093
-1.505962	PRON PART PRON	-0.36871624
-3.2590353	<s> DET PRON	-0.2800204
-1.7823145	NOUN DET PRON	-0.2800204
-1.5363896	PUNCT DET PRON	-0.47378844
-1.3800865	VERB DET PRON	-0.49152705
-1.3760774	ADP DET PRON	-0.3054143
-1.4336634	PART DET PRON	-0.28891137
-1.4225425	DET DET PRON	-0.2800204
-1.6346643	ADV DET PRON	-0.2800204
-1.5837219	X DET PRON	-0.2800204
-1.2814463	CCONJ DET PRON	-0.29398844
-1.0954144	<s> ADV PRON	-1.9069637
-1.189158	NOUN ADV PRON	-0.93713677
-1.1906276	PUNCT ADV PRON	-1.6319547
-1.3009632	VERB ADV PRON	-0.9012576
-1.3852289	NUM ADV PRON	-0.28869763
-1.2258445	ADP ADV PRON	-0.3838189
-1.3876401	ADJ ADV PRON	-0.2800204
-1.3452058	PROPN ADV PRON	-0.4145588
-1.505852	PART ADV PRON	-0.4798
-1.4107356	DET ADV PRON	-0.31582072
-1.1877385	ADV ADV PRON	-0.9385889
-1.3521621	X ADV PRON	-0.2800204
-1.2443336	CCONJ ADV PRON	-0.28592744
-1.2950834	PRON ADV PRON	-0.5570759
-1.2935872	SCONJ ADV PRON	-0.34307057
-0.9033867	<s> X PRON	-0.7467534
-0.95138776	NOUN X PRON	-0.93226516
-0.9820047	PUNCT X PRON	-0.6621105
-0.9116436	VERB X PRON	-1.052671
-1.3101858	NUM X PRON	-0.2800204
-1.3191953	ADP X PRON	-0.2800204
-0.8823736	PROPN X PRON	-0.5558029
-0.87297785	PART X PRON	-0.6868514
-0.9717536	DET X PRON	-0.2800204
-0.96174324	ADV X PRON	-1.1349167
-0.86832106	X X PRON	-0.3035564
-0.9093867	CCONJ X PRON	-0.7342766
-0.9212512	PRON X PRON	-0.8311866
-1.0246978	SCONJ X PRON	-0.2800204
-1.2455791	<s> CCONJ PRON	-0.7254895
-1.0929741	NOUN CCONJ PRON	-1.1454775
-1.2324711	PUNCT CCONJ PRON	-0.7450534
-1.2547725	VERB CCONJ PRON	-0.40179944
-1.431009	NUM CCONJ PRON	-0.29321006
-1.0888048	PROPN CCONJ PRON	-0.6989232
-1.2637302	ADV CCONJ PRON	-0.2800204
-1.001186	PRON CCONJ PRON	-0.83413124
-2.381586	<s> PRON PRON	-0.7808517
-1.2475506	NOUN PRON PRON	-0.29899737
-1.1173894	PUNCT PRON PRON	-0.65167695
-1.1521486	VERB PRON PRON	-1.171776
-1.3403842	NUM PRON PRON	-0.2800204
-1.1414547	ADP PRON PRON	-0.9856559
-1.4901371	PROPN PRON PRON	-0.28711858
-1.4576659	PART PRON PRON	-0.41444936
-1.224604	ADV PRON PRON	-0.4238034
-1.2858093	X PRON PRON	-0.29398844
-1.2434621	CCONJ PRON PRON	-0.34307057
-1.2299428	PRON PRON PRON	-0.35311937
-1.4484539	SCONJ PRON PRON	-0.28711858
-0.6496761	<s> SCONJ PRON	-1.4949409
-1.2108437	NOUN SCONJ PRON	-0.29398844
-0.88059026	PUNCT SCONJ PRON	-1.3798307
-0.92668486	VERB SCONJ PRON	-0.6334893
-0.9075937	ADP SCONJ PRON	-0.3035564
-1.1210461	PROPN SCONJ PRON	-0.2800204
-0.7571211	PART SCONJ PRON	-0.3035564
-0.84852034	ADV SCONJ PRON	-0.71528804
-0.639503	CCONJ SCONJ PRON	-0.2800204
-1.1800812	PRON SCONJ PRON	-0.2800204
-1.6438669	<s> INTJ PRON	-0.2800204
-1.3670275	PUNCT INTJ PRON	-0.2800204
-0.6711432	PROPN INTJ PRON	-0.2800204
-2.526125	<s> NOUN SCONJ	-0.8269471
-1.3099567	NOUN NOUN SCONJ	-0.8885386
-1.4924757	PUNCT NOUN SCONJ	-0.6285473
-1.488655	VERB NOUN SCONJ	-0.6839417
-1.5249434	NUM NOUN SCONJ	-0.54598415
-1.82673	ADP NOUN SCONJ	-0.3035564
-1.4006417	ADJ NOUN SCONJ	-0.6839417
-1.4790936	PROPN NOUN SCONJ	-0.5773436
-1.4692193	PART NOUN SCONJ	-0.6410939
-1.3662031	DET NOUN SCONJ	-0.6140087
-1.7695793	ADV NOUN SCONJ	-0.64109385
-1.6212606	CCONJ NOUN SCONJ	-0.29512745
-1.773972	PRON NOUN SCONJ	-0.31582072
-1.9148812	<s> PUNCT SCONJ	-0.78674996
-1.2335888	NOUN PUNCT SCONJ	-1.3034618
-1.224081	PUNCT PUNCT SCONJ	-0.96590054
-1.2589165	VERB PUNCT SCONJ	-1.2741872
-1.4240876	NUM PUNCT SCONJ	-0.4295501
-1.599015	ADP PUNCT SCONJ	-0.3035564
-1.6169783	ADJ PUNCT SCONJ	-0.2800204
-1.5797765	PROPN PUNCT SCONJ	-0.48695716
-1.5252159	PART PUNCT SCONJ	-0.70961773
-1.61548	DET PUNCT SCONJ	-0.2800204
-1.4362116	ADV PUNCT SCONJ	-0.60540736
-1.5039561	CCONJ PUNCT SCONJ	-0.2800204
-1.6609064	PRON PUNCT SCONJ	-0.56093866
-3.102247	<s> VERB SCONJ	-0.37682027
-1.2876114	NOUN VERB SCONJ	-0.5764483
-1.5990921	PUNCT VERB SCONJ	-0.45558405
-1.5794269	VERB VERB SCONJ	-0.35311937
-1.9524457	NUM VERB SCONJ	-0.2800204
-1.9554101	ADP VERB SCONJ	-0.2800204
-1.5702535	PROPN VERB SCONJ	-0.36972114
-1.8307588	PART VERB SCONJ	-0.31582072
-1.5131326	ADV VERB SCONJ	-0.63860774
-1.7771477	X VERB SCONJ	-0.2800204
-1.5280126	PRON VERB SCONJ	-0.67710054
-2.1104143	PUNCT NUM SCONJ	-0.2800204
-2.050507	NUM NUM SCONJ	-0.2800204
-2.0901597	ADP NUM SCONJ	-0.2800204
-3.0435257	<s> ADP SCONJ	-0.29053992
-1.9602201	NOUN ADP SCONJ	-0.2800204
-1.6130002	PUNCT ADP SCONJ	-0.29162896
-2.1739326	VERB ADP SCONJ	-0.2800204
