\data\
ngram 1=21
ngram 2=323
ngram 3=4233
ngram 4=33406

\1-grams:
-2.3709	<unk>	0
0	<s>	-3.6740756
-1.2819587	</s>	0
-1.2569565	NUM	-0.98193604
-1.2569565	NOUN	-1.0724269
-1.2569565	ADP	-1.0095453
-1.2569565	PUNCT	-1.0543576
-1.2569565	DET	-0.9785694
-1.2569565	ADJ	-1.0219545
-1.2333156	PROPN	-1.052029
-1.2819587	SCONJ	-0.9214864
-1.2569565	VERB	-1.0557746
-1.2569565	PART	-0.90509593
-1.2569565	CCONJ	-0.9665762
-1.2569565	ADV	-1.0265181
-1.2569565	AUX	-0.9470341
-1.2569565	PRON	-0.98360956
-1.2819587	INTJ	-0.80668235
-1.2569565	X	-0.79135275
-1.2569565	SYM	-0.6948141
-2.2362013	SPACE	-0.30103

\2-grams:
-1.2699537	NUM </s>	0
-1.2506804	NOUN </s>	0
-1.444809	ADP </s>	0
-1.2575623	PUNCT </s>	0
-1.7187983	DET </s>	0
-1.2251592	ADJ </s>	0
-1.2376186	PROPN </s>	0
-1.64997	SCONJ </s>	0
-1.2340281	VERB </s>	0
-1.5648279	PART </s>	0
-1.558424	CCONJ </s>	0
-1.2561952	ADV </s>	0
-1.5388819	AUX </s>	0
-1.3040268	PRON </s>	0
-1.5469112	INTJ </s>	0
-1.5315815	X </s>	0
-1.8136914	SYM </s>	0
-1.785068	<s> NUM	-1.9189725
-1.2093374	NUM NUM	-0.8057546
-1.2486583	NOUN NUM	-0.7750319
-1.2106085	ADP NUM	-0.9086038
-1.2554208	PUNCT NUM	-0.83182055
-1.2059708	DET NUM	-0.7765797
-1.2230177	ADJ NUM	-0.6921236
-1.2603545	PROPN NUM	-0.8664434
-1.1075757	SCONJ NUM	-0.6679333
-1.232006	VERB NUM	-0.84936804
-1.2227104	PART NUM	-0.5850272
-1.2519921	CCONJ NUM	-0.6244887
-1.2275813	ADV NUM	-0.76110053
-1.3786501	AUX NUM	-0.5698724
-1.3738099	PRON NUM	-0.517067
-1.5395806	INTJ NUM	-0.46510696
-1.4449856	X NUM	-0.36563453
-0.7953023	SYM NUM	-0.78236216
-1.0212829	<s> NOUN	-2.631589
-1.1581674	NUM NOUN	-0.9985768
-1.2486583	NOUN NOUN	-1.0391204
-1.1857767	ADP NOUN	-0.9684522
-1.230589	PUNCT NOUN	-0.9488298
-1.1548008	DET NOUN	-0.9872262
-1.1981859	ADJ NOUN	-1.0361458
-1.235562	PROPN NOUN	-0.98218596
-1.1340026	SCONJ NOUN	-0.75154155
-1.232006	VERB NOUN	-0.9938568
-1.1324973	PART NOUN	-0.6931004
-1.1939776	CCONJ NOUN	-0.7917281
-1.2027495	ADV NOUN	-0.83887595
-1.1480973	AUX NOUN	-0.74035394
-1.159841	PRON NOUN	-0.8944721
-1.062123	INTJ NOUN	-0.5479333
-1.0767685	X NOUN	-0.61192703
-0.82218194	SYM NOUN	-0.6384878
-0.9881789	<s> ADP	-2.7350674
-1.1829991	NUM ADP	-0.8762566
-1.2486583	NOUN ADP	-0.9838726
-1.2106085	ADP ADP	-0.7922261
-1.2554208	PUNCT ADP	-0.91332203
-1.2059708	DET ADP	-0.78291345
-1.1981859	ADJ ADP	-0.8758595
-1.235562	PROPN ADP	-0.8889095
-1.1340026	SCONJ ADP	-0.8433061
-1.232006	VERB ADP	-0.9938568
-1.1905118	PART ADP	-0.692201
-1.1939776	CCONJ ADP	-0.74942744
-1.2539195	ADV ADP	-0.8781098
-1.23245	AUX ADP	-0.71813285
-1.1846727	PRON ADP	-0.76218843
-1.2840838	INTJ ADP	-0.4503281
-1.1815531	X ADP	-0.48537898
-1.5918006	SYM ADP	-0.34014356
-1.4325572	<s> PUNCT	-2.2451437
-1.1581674	NUM PUNCT	-0.9524641
-1.2486583	NOUN PUNCT	-1.0536954
-1.2106085	ADP PUNCT	-0.8394246
-1.2554208	PUNCT PUNCT	-0.978793
-1.2059708	DET PUNCT	-0.8866651
-1.1981859	ADJ PUNCT	-0.978793
-1.235562	PROPN PUNCT	-1.0450093
-1.1922326	SCONJ PUNCT	-0.72719246
-1.232006	VERB PUNCT	-1.0003877
-1.1605365	PART PUNCT	-0.7329557
-1.1939776	CCONJ PUNCT	-0.6465305
-1.2027495	ADV PUNCT	-0.98218596
-1.1744356	AUX PUNCT	-0.71314824
-1.159841	PRON PUNCT	-0.8532862
-1.0077455	INTJ PUNCT	-0.7104753
-1.0767685	X PUNCT	-0.6129872
-1.453297	SYM PUNCT	-0.3399956
-0.7324878	<s> DET	-3.024892
-1.2673519	NUM DET	-0.66353196
-1.2486583	NOUN DET	-0.9020719
-1.1857767	ADP DET	-0.9257564
-1.2554208	PUNCT DET	-0.90264857
-1.2059708	DET DET	-0.83930504
-1.339569	ADJ DET	-0.7136866
-1.2603545	PROPN DET	-0.80397713
-1.1075757	SCONJ DET	-0.8702303
-1.232006	VERB DET	-0.9297408
-1.1905118	PART DET	-0.69194174
-1.1676395	CCONJ DET	-0.7806458
-1.2539195	ADV DET	-0.8942466
-1.1744356	AUX DET	-0.7825581
-1.2690254	PRON DET	-0.7532147
-1.159075	INTJ DET	-0.46980956
-1.3199418	X DET	-0.42337307
-1.3484468	SYM DET	-0.48930907
-1.324519	<s> ADJ	-2.3967125
-1.2093374	NUM ADJ	-0.79782
-1.2486583	NOUN ADJ	-0.86891806
-1.2106085	ADP ADJ	-0.9088303
-1.2554208	PUNCT ADJ	-0.84641075
-1.1796325	DET ADJ	-0.90166676
-1.1981859	ADJ ADJ	-0.8291161
-1.2603545	PROPN ADJ	-0.75638735
-1.1621424	SCONJ ADJ	-0.78826475
-1.232006	VERB ADJ	-0.9357028
-1.1324973	PART ADJ	-0.80968845
-1.1939776	CCONJ ADJ	-0.785415
-1.2027495	ADV ADJ	-0.94758236
-1.23245	AUX ADJ	-0.77291644
-1.159841	PRON ADJ	-0.78176785
-1.159075	INTJ ADJ	-0.45463398
-1.1437454	X ADJ	-0.54639786
-1.0794076	SYM ADJ	-0.49883762
-0.81695616	<s> PROPN	-2.8359127
-1.2070735	NUM PROPN	-0.8614515
-1.2466455	NOUN PROPN	-0.8985888
-1.2084775	ADP PROPN	-0.9560682
-1.2532898	PUNCT PROPN	-0.9359695
-1.1527879	DET PROPN	-0.8953573
-1.1961731	ADJ PROPN	-0.9332073
-1.2101691	PROPN PROPN	-1.0052221
-1.1598086	SCONJ PROPN	-0.82035863
-1.2299931	VERB PROPN	-0.95651543
-1.2199255	PART PROPN	-0.5484746
-1.1917138	CCONJ PROPN	-0.7282126
-1.2516556	ADV PROPN	-0.8013131
-1.2298635	AUX PROPN	-0.71018636
-1.1825417	PRON PROPN	-0.7309058
-1.1935931	INTJ PROPN	-0.4799573
-1.0164902	X PROPN	-0.5072715
-0.79361093	SYM PROPN	-0.67301285
-0.2763652	SPACE PROPN	-0.3399956
-1.6010644	<s> SCONJ	-2.1310093
-1.3023531	NUM SCONJ	-0.51450765
-1.2756315	NOUN SCONJ	-0.8957359
-1.2674139	ADP SCONJ	-0.67933726
-1.2575623	PUNCT SCONJ	-0.8980869
-1.413833	DET SCONJ	-0.4388397
-1.2251592	ADJ SCONJ	-0.8329591
-1.2625322	PROPN SCONJ	-0.6779027
-1.1947479	SCONJ SCONJ	-0.66105616
-1.2589793	VERB SCONJ	-0.90883356
-1.2986109	PART SCONJ	-0.58389163
-1.2244447	CCONJ SCONJ	-0.65362453
-1.2843866	ADV SCONJ	-0.8466497
-1.3024641	AUX SCONJ	-0.6560724
-1.3390396	PRON SCONJ	-0.52975506
-1.5469112	INTJ SCONJ	-0.3981355
-1.7587334	X SCONJ	-0.3399956
-1.3601329	<s> VERB	-2.3097868
-1.2093374	NUM VERB	-0.8750907
-1.2486583	NOUN VERB	-1.022502
-1.2106085	ADP VERB	-0.9266014
-1.2554208	PUNCT VERB	-0.9614189
-1.1796325	DET VERB	-0.9456832
-1.1981859	ADJ VERB	-0.86230916
-1.235562	PROPN VERB	-0.98218596
-1.1621424	SCONJ VERB	-0.79588485
-1.232006	VERB VERB	-0.89557403
-1.0813273	PART VERB	-0.93774086
-1.1428076	CCONJ VERB	-0.88487816
-1.2027495	ADV VERB	-0.9470012
-1.1232655	AUX VERB	-0.95065075
-1.159841	PRON VERB	-0.978793
-1.0920982	INTJ VERB	-0.63566333
-1.0467933	X VERB	-0.5425316
-1.0319595	SYM VERB	-0.36876747
-2.2424524	<s> PART	-1.6007421
-1.2373766	NUM PART	-0.5970181
-1.2734901	NOUN PART	-0.8398775
-1.2649859	ADP PART	-0.557875
-1.2554208	PUNCT PART	-0.7618444
-1.2961837	DET PART	-0.5391561
-1.1981859	ADJ PART	-0.7061927
-1.235562	PROPN PART	-0.8739151
-1.224564	SCONJ PART	-0.63396394
-1.232006	VERB PART	-0.84805965
-1.1905118	PART PART	-0.7118365
-1.2220168	CCONJ PART	-0.6560058
-1.2539195	ADV PART	-0.7429418
-1.1744356	AUX PART	-0.77414805
-1.2390501	PRON PART	-0.6343702
-1.5395806	INTJ PART	-0.3858682
-1.3779787	X PART	-0.3401107
-1.7963628	SYM PART	-0.3399956
-1.4772644	<s> CCONJ	-2.2310507
-1.1829991	NUM CCONJ	-0.8134022
-1.2486583	NOUN CCONJ	-0.9244354
-1.2649859	ADP CCONJ	-0.6967505
-1.230589	PUNCT CCONJ	-0.91401726
-1.2639852	DET CCONJ	-0.4822893
-1.2230177	ADJ CCONJ	-0.85557663
-1.235562	PROPN CCONJ	-0.9148484
-1.3391234	SCONJ CCONJ	-0.5498507
-1.2568378	VERB CCONJ	-0.87360525
-1.3824974	PART CCONJ	-0.43549
-1.4951652	CCONJ CCONJ	-0.35819218
-1.2539195	ADV CCONJ	-0.7806458
-1.2994268	AUX CCONJ	-0.44713846
-1.2390501	PRON CCONJ	-0.65448624
-1.2840838	INTJ CCONJ	-0.38259265
-1.3199418	X CCONJ	-0.4650724
-1.7963628	SYM CCONJ	-0.3399956
-1.0831021	<s> ADV	-2.6045542
-1.2093374	NUM ADV	-0.72598064
-1.2486583	NOUN ADV	-0.9470012
-1.2369467	ADP ADV	-0.85461676
-1.230589	PUNCT ADV	-0.9620014
-1.1796325	DET ADV	-0.82276875
-1.2773952	ADJ ADV	-0.8318099
-1.235562	PROPN ADV	-0.87950844
-1.1621424	SCONJ ADV	-0.7898446
-1.232006	VERB ADV	-0.9396293
-1.1061591	PART ADV	-0.83928573
-1.2220168	CCONJ ADV	-0.82886237
-1.2275813	ADV ADV	-0.9160419
-1.1232655	AUX ADV	-0.8101025
-1.2110109	PRON ADV	-0.7922261
-1.159075	INTJ ADV	-0.39145848
-1.2687541	X ADV	-0.40790585
-1.2640518	SYM ADV	-0.35268512
-1.9633738	<s> AUX	-1.8334726
-1.2373766	NUM AUX	-0.7355154
-1.2486583	NOUN AUX	-0.9257564
-1.2949611	ADP AUX	-0.56865656
-1.230589	PUNCT AUX	-0.87499356
-1.1796325	DET AUX	-0.835752
-1.2493559	ADJ AUX	-0.80034614
-1.235562	PROPN AUX	-0.9160125
-1.2974879	SCONJ AUX	-0.48626173
-1.283176	VERB AUX	-0.8107932
-1.1061591	PART AUX	-0.6948745
-1.2519921	CCONJ AUX	-0.698549
-1.2539195	ADV AUX	-0.85532165
-1.1480973	AUX AUX	-0.6779937
-1.159841	PRON AUX	-0.92159456
-1.3352714	INTJ AUX	-0.44816273
-1.3779787	X AUX	-0.33096948
-1.453297	SYM AUX	-0.32196155
-0.8218129	<s> PRON	-2.8864946
-1.2673519	NUM PRON	-0.5582768
-1.2486583	NOUN PRON	-0.8435239
-1.2106085	ADP PRON	-0.9532903
-1.2554208	PUNCT PRON	-0.9261664
-1.1796325	DET PRON	-0.7188728
-1.2773952	ADJ PRON	-0.71487325
-1.235562	PROPN PRON	-0.7616321
-1.1075757	SCONJ PRON	-0.8509578
-1.232006	VERB PRON	-0.9695079
-1.2574886	PART PRON	-0.5801411
-1.1676395	CCONJ PRON	-0.7613534
-1.2275813	ADV PRON	-0.82307804
-1.2024748	AUX PRON	-0.74645215
-1.2390501	PRON PRON	-0.7105007
-1.1242967	INTJ PRON	-0.57233644
-1.4449856	X PRON	-0.33015814
-1.453297	SYM PRON	-0.35416391
-2.12549	<s> INTJ	-1.5828965
-1.9493167	NUM INTJ	-0.36289224
-1.302104	NOUN INTJ	-0.61965543
-1.491002	ADP INTJ	-0.3679467
-1.2575623	PUNCT INTJ	-0.6973985
-1.5704172	DET INTJ	-0.32918656
-1.5034113	ADJ INTJ	-0.41785946
-1.4524744	PROPN INTJ	-0.4462042
-1.880343	SCONJ INTJ	-0.3788561
-1.3761919	VERB INTJ	-0.54396665
-1.744216	PART INTJ	-0.36881015
-1.3600912	CCONJ INTJ	-0.45142275
-1.3145359	ADV INTJ	-0.47662753
-1.3822978	AUX INTJ	-0.3938051
-1.4188732	PRON INTJ	-0.42657614
-1.241946	INTJ INTJ	-0.51160693
-1.3832005	X INTJ	-0.40326306
-2.5622187	<s> X	-1.31723
-1.7148343	NUM X	-0.34012505
-1.2486583	NOUN X	-0.68851566
-1.361938	ADP X	-0.49555162
-1.2554208	PUNCT X	-0.6450677
-1.3309621	DET X	-0.5058183
-1.5505437	ADJ X	-0.50065506
-1.3445559	PROPN X	-0.6162876
-2.0489144	SCONJ X	-0.3399956
-1.373389	VERB X	-0.53548753
-1.8601797	PART X	-0.35899132
-1.6994746	CCONJ X	-0.41928038
-1.4167185	ADV X	-0.44328249
-1.600667	AUX X	-0.32035866
-1.6372424	PRON X	-0.35622627
-1.3352714	INTJ X	-0.34015492
-1.0187541	X X	-0.6630828
-1.5918006	SYM X	-0.3788561
-2.8020651	<s> SYM	-1.4141523
-1.2093374	NUM SYM	-0.6083659
-1.2734901	NOUN SYM	-0.79661363
-1.2649859	ADP SYM	-0.7101969
-1.3719721	PUNCT SYM	-0.67210424
-1.3687696	DET SYM	-0.5735339
-1.3073704	ADJ SYM	-0.74317926
-1.2603545	PROPN SYM	-0.7129975
-1.8682816	SCONJ SYM	-0.31844288
-1.3112152	VERB SYM	-0.77107275
-1.6379942	PART SYM	-0.48930907
-1.2519921	CCONJ SYM	-0.65047747
-1.3789108	ADV SYM	-0.5438931
-1.5336602	AUX SYM	-0.36584765
-1.461011	PRON SYM	-0.40155664
-1.761766	INTJ SYM	-0.33999556
-1.7464364	X SYM	-0.36881015
-1.5918006	SYM SYM	-0.36881015
-2.6720572	PROPN SPACE	-0.3399956

\3-grams:
-0.9418609	<s> NUM </s>	0
-1.5771585	NUM NUM </s>	0
-1.2002299	NOUN NUM </s>	0
-1.5397385	ADP NUM </s>	0
-1.4567828	PUNCT NUM </s>	0
-1.8828325	DET NUM </s>	0
-1.7962505	ADJ NUM </s>	0
-1.1714962	PROPN NUM </s>	0
-1.7783433	SCONJ NUM </s>	0
-1.5703002	VERB NUM </s>	0
-1.5902549	CCONJ NUM </s>	0
-1.8741461	ADV NUM </s>	0
-0.80457103	X NUM </s>	0
-1.2929002	SYM NUM </s>	0
-2.1002192	<s> NOUN </s>	0
-1.2695584	NUM NOUN </s>	0
-1.236015	NOUN NOUN </s>	0
-1.2196505	ADP NOUN </s>	0
-1.2968239	PUNCT NOUN </s>	0
-1.2683551	DET NOUN </s>	0
-1.2082392	ADJ NOUN </s>	0
-1.2333843	PROPN NOUN </s>	0
-1.7213497	SCONJ NOUN </s>	0
-1.2450551	VERB NOUN </s>	0
-1.3287064	PART NOUN </s>	0
-1.4944866	CCONJ NOUN </s>	0
-1.5583023	ADV NOUN </s>	0
-1.7169796	AUX NOUN </s>	0
-1.3215331	PRON NOUN </s>	0
-1.6105295	INTJ NOUN </s>	0
-1.1831734	X NOUN </s>	0
-1.0803106	SYM NOUN </s>	0
-2.0735102	NUM ADP </s>	0
-1.4350902	NOUN ADP </s>	0
-1.8613204	ADP ADP </s>	0
-1.9927417	PUNCT ADP </s>	0
-1.9032475	ADJ ADP </s>	0
-1.964992	PROPN ADP </s>	0
-1.4935198	VERB ADP </s>	0
-1.7306982	CCONJ ADP </s>	0
-1.8971283	ADV ADP </s>	0
-1.9707963	PRON ADP </s>	0
-1.8035281	<s> PUNCT </s>	0
-1.1763036	NUM PUNCT </s>	0
-1.2263589	NOUN PUNCT </s>	0
-1.1534898	ADP PUNCT </s>	0
-1.1762912	PUNCT PUNCT </s>	0
-1.1124568	DET PUNCT </s>	0
-1.2026327	ADJ PUNCT </s>	0
-1.2176727	PROPN PUNCT </s>	0
-1.1665643	SCONJ PUNCT </s>	0
-1.1730511	VERB PUNCT </s>	0
-0.9817189	PART PUNCT </s>	0
-1.2686554	CCONJ PUNCT </s>	0
-1.2060255	ADV PUNCT </s>	0
-1.2242922	AUX PUNCT </s>	0
-1.0771258	PRON PUNCT </s>	0
-0.97507185	INTJ PUNCT </s>	0
-0.9898108	X PUNCT </s>	0
-1.7339253	ADP DET </s>	0
-2.2824545	PUNCT DET </s>	0
-1.7379098	VERB DET </s>	0
-2.1451905	CCONJ DET </s>	0
-1.8618531	PRON DET </s>	0
-2.5554004	<s> ADJ </s>	0
-1.4449908	NOUN ADJ </s>	0
-1.6112034	ADP ADJ </s>	0
-1.7818439	PUNCT ADJ </s>	0
-1.8315372	DET ADJ </s>	0
-1.63638	ADJ ADJ </s>	0
-1.5129229	PROPN ADJ </s>	0
-1.8360434	SCONJ ADJ </s>	0
-1.4938259	VERB ADJ </s>	0
-1.7459913	PART ADJ </s>	0
-1.7377223	CCONJ ADJ </s>	0
-1.4316962	ADV ADJ </s>	0
-1.7252238	AUX ADJ </s>	0
-1.6915462	PRON ADJ </s>	0
-1.3947762	INTJ ADJ </s>	0
-1.5108525	X ADJ </s>	0
-1.2388805	SYM ADJ </s>	0
-2.3824937	<s> PROPN </s>	0
-1.5487752	NUM PROPN </s>	0
-1.2449268	NOUN PROPN </s>	0
-1.205941	ADP PROPN </s>	0
-1.3672558	PUNCT PROPN </s>	0
-1.3564632	DET PROPN </s>	0
-1.4195564	ADJ PROPN </s>	0
-1.1762103	PROPN PROPN </s>	0
-1.5857155	SCONJ PROPN </s>	0
-1.2261099	VERB PROPN </s>	0
-1.4921974	PART PROPN </s>	0
-1.6555015	CCONJ PROPN </s>	0
-1.5811355	ADV PROPN </s>	0
-1.6494099	AUX PROPN </s>	0
-1.4105958	PRON PROPN </s>	0
-1.3543062	INTJ PROPN </s>	0
-1.3806443	X PROPN </s>	0
-1.2079837	SYM PROPN </s>	0
-2.220311	NOUN SCONJ </s>	0
-1.9644015	ADP SCONJ </s>	0
-2.0058062	PUNCT SCONJ </s>	0
-2.1680229	ADJ SCONJ </s>	0
-1.4355614	VERB SCONJ </s>	0
-2.489672	<s> VERB </s>	0
-1.8113009	NUM VERB </s>	0
-1.3018137	NOUN VERB </s>	0
-1.7120194	ADP VERB </s>	0
-1.4820464	PUNCT VERB </s>	0
-1.9105636	DET VERB </s>	0
-1.7848121	ADJ VERB </s>	0
-1.4521068	PROPN VERB </s>	0
-1.743447	SCONJ VERB </s>	0
-1.821102	VERB VERB </s>	0
-1.3211609	PART VERB </s>	0
-1.385375	CCONJ VERB </s>	0
-1.3715215	ADV VERB </s>	0
-1.4205716	AUX VERB </s>	0
-1.4033134	PRON VERB </s>	0
-1.5582366	INTJ VERB </s>	0
-1.4598476	X VERB </s>	0
-1.1953826	SYM VERB </s>	0
-1.5000126	NOUN PART </s>	0
-1.8290305	PUNCT PART </s>	0
-1.3819066	PROPN PART </s>	0
-2.1258633	VERB PART </s>	0
-1.7436213	CCONJ PART </s>	0
-2.066835	AUX PART </s>	0
-3.2681243	<s> CCONJ </s>	0
-1.7235285	NOUN CCONJ </s>	0
-1.8207407	PUNCT CCONJ </s>	0
-2.1507497	ADJ CCONJ </s>	0
-2.2051265	PROPN CCONJ </s>	0
-2.1628582	VERB CCONJ </s>	0
-2.066885	ADV CCONJ </s>	0
-3.1597655	<s> ADV </s>	0
-1.8162651	NUM ADV </s>	0
-1.3748854	NOUN ADV </s>	0
-1.7867113	ADP ADV </s>	0
-1.9552674	PUNCT ADV </s>	0
-1.9159939	DET ADV </s>	0
-1.7540317	ADJ ADV </s>	0
-1.6657151	PROPN ADV </s>	0
-1.8845327	SCONJ ADV </s>	0
-1.3578298	VERB ADV </s>	0
-1.9365685	CCONJ ADV </s>	0
-1.4316045	ADV ADV </s>	0
-1.6215293	AUX ADV </s>	0
-1.7717772	PRON ADV </s>	0
-1.266231	INTJ ADV </s>	0
-1.0709211	SYM ADV </s>	0
-1.9929523	NUM AUX </s>	0
-1.8236599	NOUN AUX </s>	0
-2.1506815	PUNCT AUX </s>	0
-1.6919502	DET AUX </s>	0
-2.2040973	PROPN AUX </s>	0
-2.1278977	ADV AUX </s>	0
-1.8148916	PRON AUX </s>	0
-3.883425	<s> PRON </s>	0
-1.5791112	NUM PRON </s>	0
-1.622164	NOUN PRON </s>	0
-1.4098486	ADP PRON </s>	0
-1.9164994	PUNCT PRON </s>	0
-1.7069627	PROPN PRON </s>	0
-1.9787571	SCONJ PRON </s>	0
-1.4886254	VERB PRON </s>	0
-1.6744894	PART PRON </s>	0
-1.7085843	CCONJ PRON </s>	0
-1.8145528	ADV PRON </s>	0
-1.7475915	AUX PRON </s>	0
-1.0465673	SYM PRON </s>	0
-2.2407596	<s> INTJ </s>	0
-1.5416054	NOUN INTJ </s>	0
-1.5445775	PUNCT INTJ </s>	0
-1.5397567	VERB INTJ </s>	0
-1.6447381	INTJ INTJ </s>	0
-0.83745503	<s> X </s>	0
-1.3704665	NOUN X </s>	0
-0.95097667	ADP X </s>	0
-1.2858169	PUNCT X </s>	0
-1.5678715	ADV X </s>	0
-1.6829866	NUM SYM </s>	0
-1.8486847	<s> NUM NUM	-0.5647373
-1.1493597	NUM NUM NUM	-0.4690898
-1.1450443	NOUN NUM NUM	-0.6073819
-1.1915638	ADP NUM NUM	-1.292251
-1.1423988	PUNCT NUM NUM	-0.89754295
-1.1723593	DET NUM NUM	-1.0053234
-1.2618594	ADJ NUM NUM	-0.5481628
-1.3409135	PROPN NUM NUM	-0.8658987
-1.1266574	SCONJ NUM NUM	-1.1103336
-1.1107807	VERB NUM NUM	-1.2369112
-1.0735227	PART NUM NUM	-0.75699586
-1.0721803	CCONJ NUM NUM	-0.72072405
-1.0498521	ADV NUM NUM	-1.0818313
-1.1657089	AUX NUM NUM	-0.5335176
-1.336103	PRON NUM NUM	-0.4672346
-0.97589314	SYM NUM NUM	-1.2462577
-1.9453166	<s> NOUN NUM	-0.9010322
-1.3363764	NUM NOUN NUM	-0.69273376
-1.2621285	NOUN NOUN NUM	-0.9791398
-1.281494	ADP NOUN NUM	-0.9899812
-1.2965703	PUNCT NOUN NUM	-0.9043933
-1.300268	DET NOUN NUM	-1.1136954
-1.3170574	ADJ NOUN NUM	-0.8364152
-1.3299265	PROPN NOUN NUM	-0.97296643
-1.4388423	SCONJ NOUN NUM	-0.2975786
-1.2448522	VERB NOUN NUM	-0.8206791
-1.6318227	PART NOUN NUM	-0.3404642
-1.1089046	CCONJ NOUN NUM	-2.0802836
-1.4111767	ADV NOUN NUM	-0.4541371
-1.3572274	AUX NOUN NUM	-0.3365755
-1.7176877	PRON NOUN NUM	-0.73771596
-1.4550395	INTJ NOUN NUM	-0.28822386
-1.5588553	X NOUN NUM	-0.28822386
-1.2585351	SYM NOUN NUM	-0.64332587
-1.2890412	<s> ADP NUM	-1.4937103
-0.9736947	NUM ADP NUM	-1.1602894
-1.1524769	NOUN ADP NUM	-2.1718616
-1.0324577	ADP ADP NUM	-1.2397612
-1.1118835	PUNCT ADP NUM	-1.3904201
-1.1844966	DET ADP NUM	-0.6509383
-1.1127446	ADJ ADP NUM	-1.1136069
-1.0821874	PROPN ADP NUM	-1.5347283
-1.0590675	SCONJ ADP NUM	-0.9593698
-1.2131323	VERB ADP NUM	-1.9351622
-1.3413544	PART ADP NUM	-0.29825455
-1.0990183	CCONJ ADP NUM	-0.83202827
-1.1327536	ADV ADP NUM	-1.245213
-1.2482538	AUX ADP NUM	-0.71760064
-1.2502346	PRON ADP NUM	-0.8574722
-1.2080519	INTJ ADP NUM	-0.28822386
-1.046106	X ADP NUM	-0.29287603
-1.9163424	<s> PUNCT NUM	-0.7461659
-1.176105	NUM PUNCT NUM	-1.895536
-1.2773364	NOUN PUNCT NUM	-1.6868831
-1.2671938	ADP PUNCT NUM	-0.83321774
-1.260428	PUNCT PUNCT NUM	-0.8948846
-1.335977	DET PUNCT NUM	-0.7921156
-1.260428	ADJ PUNCT NUM	-0.90972227
-1.2423205	PROPN PUNCT NUM	-1.6732501
-1.5267332	SCONJ PUNCT NUM	-0.46780664
-1.2820225	VERB PUNCT NUM	-0.9543343
-1.714043	PART PUNCT NUM	-0.40572134
-1.627618	CCONJ PUNCT NUM	-0.34521732
-1.2638209	ADV PUNCT NUM	-0.92043865
-1.528106	AUX PUNCT NUM	-0.29488516
-1.5821075	PRON PUNCT NUM	-0.56704396
-1.6827598	INTJ PUNCT NUM	-0.4170438
-1.5579263	X PUNCT NUM	-0.48951507
-1.8168775	<s> DET NUM	-1.3321118
-1.688979	NUM DET NUM	-0.28822386
-1.2330905	NOUN DET NUM	-0.72340435
-1.1570603	ADP DET NUM	-1.9064834
-1.1069906	PUNCT DET NUM	-1.3471756
-1.1219759	DET DET NUM	-0.74607825
-1.2806273	ADJ DET NUM	-0.6329806
-1.2480351	PROPN DET NUM	-0.4079974
-1.0724652	SCONJ DET NUM	-0.9833513
-1.1610446	VERB DET NUM	-1.5272992
-1.2678256	PART DET NUM	-0.29016802
-1.1834174	CCONJ DET NUM	-0.8029809
-1.1447773	ADV DET NUM	-0.8476749
-1.1177285	AUX DET NUM	-0.86760485
-1.4861922	PRON DET NUM	-0.4672346
-1.222505	INTJ DET NUM	-0.28822386
-2.4800706	<s> ADJ NUM	-0.46022314
-1.2864771	NUM ADJ NUM	-0.3610056
-1.510291	NOUN ADJ NUM	-0.40683365
-1.2693487	ADP ADJ NUM	-0.8270627
-1.2692055	PUNCT ADJ NUM	-0.7590463
-1.1696658	DET ADJ NUM	-1.6410744
-1.4620842	ADJ ADJ NUM	-0.5406955
-1.4110366	PROPN ADJ NUM	-0.2960054
-1.6313573	SCONJ ADJ NUM	-0.28822386
-1.3390558	VERB ADJ NUM	-0.5776534
-1.7448889	PART ADJ NUM	-0.68138087
-1.3106643	CCONJ ADJ NUM	-0.6288809
-1.2545617	ADV ADJ NUM	-0.61128783
-1.446939	AUX ADJ NUM	-0.3404642
-1.5632347	PRON ADJ NUM	-0.61279917
-1.393664	INTJ ADJ NUM	-0.28822386
-1.5096762	X ADJ NUM	-0.28822386
-2.120699	<s> PROPN NUM	-1.0042019
-1.3448764	NUM PROPN NUM	-1.020085
-1.3270881	NOUN PROPN NUM	-0.969102
-1.2082254	ADP PROPN NUM	-2.059895
-1.194751	PUNCT PROPN NUM	-1.8348495
-1.3141593	DET PROPN NUM	-1.2384508
-1.2828566	ADJ PROPN NUM	-0.85063744
-1.2573794	PROPN PROPN NUM	-1.4059733
-1.1764712	SCONJ PROPN NUM	-0.86367714
-1.2957344	VERB PROPN NUM	-0.89523685
-1.3134675	PART PROPN NUM	-0.4573205
-1.3571235	CCONJ PROPN NUM	-0.65372497
-1.3355851	ADV PROPN NUM	-0.29405883
-1.3642706	AUX PROPN NUM	-0.6587948
-1.6516408	PRON PROPN NUM	-0.690061
-1.5924655	X PROPN NUM	-0.2999491
-1.1528664	SYM PROPN NUM	-0.54942137
-1.7217679	<s> SCONJ NUM	-0.845083
-1.1051759	NUM SCONJ NUM	-0.28988975
-1.1463001	NOUN SCONJ NUM	-1.060931
-1.2498938	ADP SCONJ NUM	-0.4916814
-1.319167	PUNCT SCONJ NUM	-0.64605
-1.0734842	DET SCONJ NUM	-0.2960054
-0.9784136	ADJ SCONJ NUM	-1.8068707
-1.1806201	PROPN SCONJ NUM	-0.86970985
-1.4325438	SCONJ SCONJ NUM	-0.28822386
-1.1574543	VERB SCONJ NUM	-1.1219054
-1.428124	PART SCONJ NUM	-0.28822386
-1.3289368	CCONJ SCONJ NUM	-0.4672346
-1.1645732	ADV SCONJ NUM	-0.4991941
-1.4556088	AUX SCONJ NUM	-0.2960054
-1.3238178	PRON SCONJ NUM	-0.29698798
-1.0040445	INTJ SCONJ NUM	-0.28822386
-0.7659712	X SCONJ NUM	-0.28822386
-2.2288277	<s> VERB NUM	-0.5518839
-1.3071967	NUM VERB NUM	-0.5159076
-1.2177138	NOUN VERB NUM	-1.4309062
-1.2654715	ADP VERB NUM	-0.86367714
-1.2724963	PUNCT VERB NUM	-1.1711123
-1.2150538	DET VERB NUM	-1.1644697
-1.4799483	ADJ VERB NUM	-0.29210907
-1.2314781	PROPN VERB NUM	-1.3250527
-1.3759571	SCONJ VERB NUM	-0.38659114
-1.2159739	VERB VERB NUM	-0.6586748
-1.2168278	PART VERB NUM	-1.3191767
-1.2466192	CCONJ VERB NUM	-1.0697832
-1.226088	ADV VERB NUM	-1.1393915
-1.1999428	AUX VERB NUM	-1.5165187
-1.25788	PRON VERB NUM	-1.3401409
-1.5036845	INTJ VERB NUM	-0.2960054
-1.4047282	X VERB NUM	-0.29212093
-1.3707198	SYM VERB NUM	-0.28822386
-2.2883549	<s> PART NUM	-0.28822386
-0.72221667	NUM PART NUM	-1.0701157
-1.3132609	NOUN PART NUM	-0.85583353
-0.86093396	ADP PART NUM	-1.1219007
-1.5020345	PUNCT PART NUM	-0.3880534
-1.1023533	ADJ PART NUM	-0.62255526
-1.1603706	PROPN PART NUM	-1.0312091
-1.4891801	SCONJ PART NUM	-0.28822386
-1.4136465	VERB PART NUM	-0.32402548
-1.5475084	CCONJ PART NUM	-0.29209718
-1.3377391	ADV PART NUM	-0.650584
-1.3639908	AUX PART NUM	-0.39614514
-1.662238	PRON PART NUM	-0.28822386
-2.0613866	<s> CCONJ NUM	-0.6325497
-0.96081907	NUM CCONJ NUM	-1.2845037
-1.2378625	NOUN CCONJ NUM	-1.4110924
-1.6306707	ADP CCONJ NUM	-0.2960054
-1.1851362	PUNCT CCONJ NUM	-1.1409745
-1.4069046	DET CCONJ NUM	-0.2911434
-1.2352598	ADJ CCONJ NUM	-0.6300957
-1.285255	PROPN CCONJ NUM	-0.93720967
-1.4700729	SCONJ CCONJ NUM	-0.28822386
-1.2888592	VERB CCONJ NUM	-0.60417765
-1.2823387	PART CCONJ NUM	-0.2940469
-1.6904356	ADV CCONJ NUM	-0.2940469
-1.1471123	AUX CCONJ NUM	-0.2975786
-1.3064849	PRON CCONJ NUM	-0.41705966
-1.7009051	<s> ADV NUM	-1.0972981
-1.4741647	NUM ADV NUM	-0.34667644
-1.292037	NOUN ADV NUM	-0.98130274
-1.1326077	ADP ADV NUM	-1.4071255
-1.1464943	PUNCT ADV NUM	-1.2480066
-1.4753723	DET ADV NUM	-0.5704833
-1.5132211	ADJ ADV NUM	-0.4839906
-1.2967174	PROPN ADV NUM	-0.57164395
-1.1358904	SCONJ ADV NUM	-0.8720932
-1.2401812	VERB ADV NUM	-1.4130667
-1.4059405	PART ADV NUM	-0.4716152
-1.212347	CCONJ ADV NUM	-0.80944014
-1.2165939	ADV ADV NUM	-1.1841141
-1.2598234	AUX ADV NUM	-1.1252897
-1.483923	PRON ADV NUM	-0.61995167
-1.4164786	INTJ ADV NUM	-0.28822386
-1.2863245	X ADV NUM	-0.28822386
-2.7524877	<s> AUX NUM	-0.2960054
-1.4083852	NUM AUX NUM	-0.29405883
-1.2364672	NOUN AUX NUM	-1.1187029
-1.2522317	PUNCT AUX NUM	-0.86006016
-1.455564	DET AUX NUM	-0.8932034
-1.5731353	ADJ AUX NUM	-0.29287603
-1.1991628	PROPN AUX NUM	-1.0584246
-1.4778514	VERB AUX NUM	-0.41705972
-1.4657841	ADV AUX NUM	-0.82571167
-1.22685	PRON AUX NUM	-1.253614
-3.237244	<s> PRON NUM	-0.5573002
-2.0140312	NOUN PRON NUM	-0.28822386
-1.2887781	ADP PRON NUM	-1.1911252
-1.6343002	PUNCT PRON NUM	-0.29405883
-1.7361463	PROPN PRON NUM	-0.2999491
-1.803617	SCONJ PRON NUM	-0.29055792
-1.2466371	VERB PRON NUM	-1.039953
-1.5929224	CCONJ PRON NUM	-0.666807
-1.5329535	ADV PRON NUM	-0.41510677
-1.7242727	AUX PRON NUM	-0.2960054
-1.8476658	PRON PRON NUM	-0.28822386
-2.8676903	<s> INTJ NUM	-0.28822386
-1.8297762	NOUN INTJ NUM	-0.28822386
-1.4560056	ADP INTJ NUM	-0.28822386
-1.2998697	PROPN INTJ NUM	-0.28822386
-1.3751795	ADV INTJ NUM	-0.2960054
-1.8857607	NOUN X NUM	-0.28822386
-1.6335453	PUNCT X NUM	-0.29405883
-1.6191999	VERB X NUM	-0.28822386
-1.5318639	ADV X NUM	-0.28822386
-1.8335901	X X NUM	-0.2999491
-0.38083944	SYM X NUM	-0.28822386
-1.2926341	<s> SYM NUM	-0.51396966
-0.30716223	NUM SYM NUM	-1.3672621
-0.83912385	NOUN SYM NUM	-0.58409584
-0.60657096	ADP SYM NUM	-1.0945137
-0.6802793	PUNCT SYM NUM	-0.981543
-0.50289875	DET SYM NUM	-0.6348512
-0.91587454	ADJ SYM NUM	-0.5009886
-0.78533864	PROPN SYM NUM	-0.7341681
-0.42084992	SCONJ SYM NUM	-0.7219501
-0.67763084	VERB SYM NUM	-0.9677807
-0.19563358	PART SYM NUM	-0.5349144
-0.21854974	CCONJ SYM NUM	-1.4697165
-0.37528944	ADV SYM NUM	-0.7619005
-0.6639593	AUX SYM NUM	-0.46868396
-0.78414303	PRON SYM NUM	-0.29698798
-0.6898212	X SYM NUM	-0.28822386
-0.6898212	SYM SYM NUM	-0.2940469
-0.40898275	<s> NUM NOUN	-1.5349811
-0.9382752	NUM NUM NOUN	-1.501738
-0.9091672	NOUN NUM NOUN	-1.2788651
-1.0706278	ADP NUM NOUN	-2.1857235
-0.9866483	PUNCT NUM NOUN	-1.7270007
-0.94314003	DET NUM NOUN	-1.8750429
-0.8526317	ADJ NUM NOUN	-1.5425409
-1.09179	PROPN NUM NOUN	-1.229451
-0.8762582	SCONJ NUM NOUN	-1.7314464
-0.9975934	VERB NUM NOUN	-1.87626
-0.75118583	PART NUM NOUN	-1.1855074
-0.9252604	CCONJ NUM NOUN	-1.417237
-0.919573	ADV NUM NOUN	-1.8183985
-0.8419753	AUX NUM NOUN	-1.137219
-0.62467426	PRON NUM NOUN	-1.085288
-0.33454746	INTJ NUM NOUN	-0.28822386
-0.7861539	X NUM NOUN	-0.2940469
-1.0028375	SYM NUM NOUN	-1.0746185
-0.9830516	<s> NOUN NOUN	-1.6697376
-1.1600903	NUM NOUN NOUN	-1.7664182
-1.2110447	NOUN NOUN NOUN	-2.4484682
-1.1651676	ADP NOUN NOUN	-2.3819857
-1.1455452	PUNCT NOUN NOUN	-2.2881024
-1.1591504	DET NOUN NOUN	-2.663288
-1.20807	ADJ NOUN NOUN	-2.6404257
-1.1541102	PROPN NOUN NOUN	-1.8913901
-0.9826582	SCONJ NOUN NOUN	-1.2347431
-1.1905723	VERB NOUN NOUN	-2.1457446
-1.0638069	PART NOUN NOUN	-1.6755373
-1.0738804	CCONJ NOUN NOUN	-2.0620573
-1.0515907	ADV NOUN NOUN	-1.1181607
-1.0902056	AUX NOUN NOUN	-0.8887074
-1.0911876	PRON NOUN NOUN	-1.8007388
-0.7017782	INTJ NOUN NOUN	-0.7977719
-0.95222145	X NOUN NOUN	-0.9284867
-0.9187956	SYM NOUN NOUN	-0.8292074
-0.86790764	<s> ADP NOUN	-1.853811
-0.9717298	NUM ADP NOUN	-1.2341083
-1.1501632	NOUN ADP NOUN	-3.0126019
-0.972127	ADP ADP NOUN	-1.4967455
-1.0833417	PUNCT ADP NOUN	-1.9597684
-0.95819795	DET ADP NOUN	-1.04549
-1.0823898	ADJ ADP NOUN	-1.8757821
-1.0290226	PROPN ADP NOUN	-1.6877619
-0.9578524	SCONJ ADP NOUN	-1.3651143
-1.1601474	VERB ADP NOUN	-2.5932786
-0.78324425	PART ADP NOUN	-0.91852224
-1.0539298	CCONJ ADP NOUN	-1.313396
-1.0725609	ADV ADP NOUN	-1.8107482
-0.97200245	AUX ADP NOUN	-1.3277607
-0.91028583	PRON ADP NOUN	-1.4420199
-0.8532632	INTJ ADP NOUN	-0.33786258
-0.63826895	X ADP NOUN	-0.53611493
-0.60932374	SYM ADP NOUN	-0.593151
-1.0135903	<s> PUNCT NOUN	-1.2731248
-1.1475455	NUM PUNCT NOUN	-1.7910056
-1.2240762	NOUN PUNCT NOUN	-2.588217
-1.1183534	ADP PUNCT NOUN	-1.637844
-1.2279375	PUNCT PUNCT NOUN	-1.4654046
-1.109878	DET PUNCT NOUN	-1.6698016
-1.1491737	ADJ PUNCT NOUN	-2.00778
-1.21539	PROPN PUNCT NOUN	-2.079892
-1.0367513	SCONJ PUNCT NOUN	-0.8765625
-1.1954691	VERB PUNCT NOUN	-1.6483593
-1.1256403	PART PUNCT NOUN	-0.9331306
-1.1365734	CCONJ PUNCT NOUN	-1.1556994
-1.2313304	ADV PUNCT NOUN	-1.4968212
-1.1683371	AUX PUNCT NOUN	-0.623667
-1.198715	PRON PUNCT NOUN	-1.03499
-1.4919095	INTJ PUNCT NOUN	-0.7148728
-1.1237835	X PUNCT NOUN	-0.59467626
-0.7888636	SYM PUNCT NOUN	-0.28822386
-0.27485177	<s> DET NOUN	-2.684158
-0.78837436	NUM DET NOUN	-0.96041656
-0.97036904	NOUN DET NOUN	-1.963547
-1.0736516	ADP DET NOUN	-3.3214145
-1.0479107	PUNCT DET NOUN	-2.5870626
-0.9670185	DET DET NOUN	-1.8219157
-0.87169987	ADJ DET NOUN	-1.2399316
-0.8463161	PROPN DET NOUN	-1.3960239
-0.9765467	SCONJ DET NOUN	-2.3099365
-1.077636	VERB DET NOUN	-3.0793793
-0.8248589	PART DET NOUN	-1.3628749
-0.900787	CCONJ DET NOUN	-2.2835317
-1.0137378	ADV DET NOUN	-2.1719918
-0.9643812	AUX DET NOUN	-2.2168574
-0.95231944	PRON DET NOUN	-1.6403737
-0.5253033	INTJ DET NOUN	-0.5832054
-0.519942	X DET NOUN	-0.31892166
-0.21602535	SYM DET NOUN	-0.29055792
-0.22834952	<s> ADJ NOUN	-2.1125371
-0.83647287	NUM ADJ NOUN	-1.8917291
-1.0363798	NOUN ADJ NOUN	-1.8305566
-1.0783842	ADP ADJ NOUN	-2.8241096
-1.038403	PUNCT ADJ NOUN	-2.3333592
-1.0834144	DET ADJ NOUN	-3.1930137
-0.9862724	ADJ ADJ NOUN	-2.600962
-0.86581343	PROPN ADJ NOUN	-1.5786657
-0.87925965	SCONJ ADJ NOUN	-1.7791615
-1.0822515	VERB ADJ NOUN	-2.5772488
-0.9978764	PART ADJ NOUN	-1.9986176
-1.0360548	CCONJ ADJ NOUN	-2.3870325
-1.0759751	ADV ADJ NOUN	-2.2298572
-1.0235564	AUX ADJ NOUN	-1.5442501
-0.92739105	PRON ADJ NOUN	-2.3162599
-0.5367885	INTJ ADJ NOUN	-0.42750984
-0.58184016	X ADJ NOUN	-0.7237374
-0.63795406	SYM ADJ NOUN	-0.65856564
-1.3665447	<s> PROPN NOUN	-1.5266073
-1.0367552	NUM PROPN NOUN	-1.254871
-1.094126	NOUN PROPN NOUN	-1.2783647
-1.1778247	ADP PROPN NOUN	-2.0344937
-1.1643596	PUNCT PROPN NOUN	-1.7326231
-1.1068498	DET PROPN NOUN	-2.2451003
-1.1160471	ADJ PROPN NOUN	-1.6615013
-1.2007595	PROPN PROPN NOUN	-2.159759
-1.057277	SCONJ PROPN NOUN	-0.98697674
-1.168008	VERB PROPN NOUN	-1.4971259
-1.0507348	PART PROPN NOUN	-1.2397612
-1.1284529	CCONJ PROPN NOUN	-1.3037112
-1.093131	ADV PROPN NOUN	-0.72605115
-1.2748039	AUX PROPN NOUN	-0.5031389
-0.98757523	PRON PROPN NOUN	-1.262665
-1.1451191	INTJ PROPN NOUN	-0.29209718
-0.8681872	X PROPN NOUN	-0.4486834
-0.9704142	SYM PROPN NOUN	-0.92992055
-1.180392	<s> SCONJ NOUN	-1.0112897
-1.3131819	NUM SCONJ NOUN	-0.29657686
-1.0259204	NOUN SCONJ NOUN	-1.3238635
-0.996806	ADP SCONJ NOUN	-0.6607427
-1.0837572	PUNCT SCONJ NOUN	-1.1856565
-1.1468968	DET SCONJ NOUN	-0.28822386
-1.0385038	ADJ SCONJ NOUN	-1.071426
-0.9627183	PROPN SCONJ NOUN	-0.6300957
-0.9397625	SCONJ SCONJ NOUN	-0.8825915
-1.1294223	VERB SCONJ NOUN	-1.6166474
-1.4423356	PART SCONJ NOUN	-0.2999491
-1.0906624	CCONJ SCONJ NOUN	-0.8729917
-1.0423774	ADV SCONJ NOUN	-0.89445555
-1.0323012	AUX SCONJ NOUN	-0.7786777
-1.0247041	PRON SCONJ NOUN	-0.59574467
-0.7452938	INTJ SCONJ NOUN	-0.28822386
-1.1316344	<s> VERB NOUN	-1.2181097
-0.99891365	NUM VERB NOUN	-0.94350046
-1.1930059	NOUN VERB NOUN	-2.1159961
-1.075117	ADP VERB NOUN	-2.0246737
-1.1566308	PUNCT VERB NOUN	-2.158606
-1.1525501	DET VERB NOUN	-2.1282275
-1.0258193	ADJ VERB NOUN	-1.4227376
-1.1526899	PROPN VERB NOUN	-1.6945655
-1.0324452	SCONJ VERB NOUN	-1.0800753
-1.0396528	VERB VERB NOUN	-1.5860372
-1.1870329	PART VERB NOUN	-2.3235295
-1.1418388	CCONJ VERB NOUN	-1.8971713
-1.142213	ADV VERB NOUN	-1.9974144
-1.1720614	AUX VERB NOUN	-2.0869322
-1.2002037	PRON VERB NOUN	-1.974169
-0.9014488	INTJ VERB NOUN	-0.61103314
-0.8896396	X VERB NOUN	-0.47852212
-1.1315757	SYM VERB NOUN	-0.2960054
-2.5790193	<s> PART NOUN	-0.28822386
-1.0604211	NUM PART NOUN	-0.5508707
-1.0013478	NOUN PART NOUN	-2.2305279
-1.0306718	ADP PART NOUN	-0.29322043
-1.2285788	PUNCT PART NOUN	-0.8081817
-1.2618521	DET PART NOUN	-0.2960054
-1.0272509	ADJ PART NOUN	-0.6266101
-0.9752846	PROPN PART NOUN	-2.3202512
-1.1477708	SCONJ PART NOUN	-0.44646403
-1.0939841	VERB PART NOUN	-0.70372957
-1.3830155	CCONJ PART NOUN	-0.46722278
-1.0533211	ADV PART NOUN	-0.46869287
-1.1698182	AUX PART NOUN	-0.76316214
-0.8996939	PRON PART NOUN	-0.81403124
-1.0726086	INTJ PART NOUN	-0.28822386
-1.026851	X PART NOUN	-0.28822386
-1.3245612	<s> CCONJ NOUN	-1.0403093
-0.9276277	NUM CCONJ NOUN	-0.9391573
-1.0915034	NOUN CCONJ NOUN	-2.7244928
-0.96278805	ADP CCONJ NOUN	-0.8215263
-1.1214005	PUNCT CCONJ NOUN	-1.9239646
-1.0049179	DET CCONJ NOUN	-0.43035376
-1.051211	ADJ CCONJ NOUN	-1.3768853
-1.0215871	PROPN CCONJ NOUN	-2.175495
-1.0576	VERB CCONJ NOUN	-1.2781866
-1.0477507	PART CCONJ NOUN	-0.5612358
-1.2952962	CCONJ CCONJ NOUN	-0.28822386
-1.0939553	ADV CCONJ NOUN	-0.89774895
-1.0244197	AUX CCONJ NOUN	-0.44812238
-0.98388606	PRON CCONJ NOUN	-0.65372497
-0.79930025	INTJ CCONJ NOUN	-0.2999491
-0.6063414	X CCONJ NOUN	-0.3880534
-1.6471492	<s> ADV NOUN	-1.0516019
-1.2833872	NUM ADV NOUN	-0.33916938
-1.1394413	NOUN ADV NOUN	-1.3053114
-1.2431452	ADP ADV NOUN	-0.956242
-1.1980448	PUNCT ADV NOUN	-1.2820807
-1.1194727	DET ADV NOUN	-0.65856564
-1.1252989	ADJ ADV NOUN	-0.6202489
-1.2927806	PROPN ADV NOUN	-0.72484267
-1.1789126	SCONJ ADV NOUN	-0.545251
-1.1218143	VERB ADV NOUN	-1.2288014
-1.174021	PART ADV NOUN	-0.6397686
-1.0949471	CCONJ ADV NOUN	-1.1645421
-1.2135812	ADV ADV NOUN	-0.7775192
-1.3633031	AUX ADV NOUN	-1.008232
-1.4765455	PRON ADV NOUN	-0.40153494
-1.0382328	INTJ ADV NOUN	-0.2940469
-0.8048098	X ADV NOUN	-0.3880534
-1.0547464	SYM ADV NOUN	-0.28822386
-1.4952726	<s> AUX NOUN	-0.5553291
-1.0087479	NUM AUX NOUN	-0.44136333
-1.179817	NOUN AUX NOUN	-1.493852
-1.3566296	ADP AUX NOUN	-0.29016802
-1.2229238	PUNCT AUX NOUN	-0.7707675
-1.1465691	DET AUX NOUN	-0.7008972
-1.3245884	ADJ AUX NOUN	-0.43823949
-1.1754105	PROPN AUX NOUN	-0.99777454
-1.3092645	SCONJ AUX NOUN	-0.28822386
-1.165327	VERB AUX NOUN	-0.6207532
-1.6020415	PART AUX NOUN	-0.28822386
-1.2664099	CCONJ AUX NOUN	-0.29339606
-1.1189718	ADV AUX NOUN	-0.79829466
-1.306785	AUX AUX NOUN	-0.29287603
-1.1704495	PRON AUX NOUN	-1.4643326
-1.0172234	INTJ AUX NOUN	-0.28822386
-1.1055366	X AUX NOUN	-0.28822386
-1.2095312	<s> PRON NOUN	-1.7502743
-0.83169806	NUM PRON NOUN	-0.2921051
-1.062119	NOUN PRON NOUN	-1.0346806
-1.1154828	ADP PRON NOUN	-2.577641
-1.0526706	PUNCT PRON NOUN	-1.6897291
-0.90289503	DET PRON NOUN	-1.1086066
-0.9626158	ADJ PRON NOUN	-0.66997796
-1.0032606	PROPN PRON NOUN	-0.5824556
-1.0135353	SCONJ PRON NOUN	-1.5787711
-1.1681768	VERB PRON NOUN	-2.4737437
-0.8849765	PART PRON NOUN	-0.5493337
-1.0546952	CCONJ PRON NOUN	-1.7882514
-1.0353549	ADV PRON NOUN	-1.2900536
-1.0416311	AUX PRON NOUN	-1.2080333
-0.8894092	PRON PRON NOUN	-0.8980359
-0.9821447	INTJ PRON NOUN	-0.2940469
-0.7699244	X PRON NOUN	-0.28822386
-0.74227923	SYM PRON NOUN	-0.45180592
-1.4166949	<s> INTJ NOUN	-0.56961834
-0.69433206	NOUN INTJ NOUN	-0.77433574
-0.8482241	ADP INTJ NOUN	-0.2911434
-1.1157646	PUNCT INTJ NOUN	-0.5928975
-0.71701705	DET INTJ NOUN	-0.28822386
-1.0684054	ADJ INTJ NOUN	-0.2940469
-1.0126061	PROPN INTJ NOUN	-0.2911434
-0.8631129	VERB INTJ NOUN	-0.48257703
-0.7624548	PART INTJ NOUN	-0.28822386
-1.3222331	CCONJ INTJ NOUN	-0.28822386
-1.1561437	ADV INTJ NOUN	-0.3478817
-0.9384995	AUX INTJ NOUN	-0.28822386
-1.2909219	PRON INTJ NOUN	-0.28822386
-0.77461374	INTJ INTJ NOUN	-0.48951507
-0.76512647	X INTJ NOUN	-0.2940469
-1.4449981	<s> X NOUN	-0.29601738
-0.7242508	NUM X NOUN	-0.2999491
-0.8629971	NOUN X NOUN	-0.8730862
-0.8883095	ADP X NOUN	-0.3732353
-0.9062331	PUNCT X NOUN	-0.790636
-0.7881134	DET X NOUN	-0.32882094
-0.6173756	ADJ X NOUN	-0.40565875
-0.89865625	PROPN X NOUN	-0.33195058
-0.72762245	VERB X NOUN	-0.58075416
-0.8644427	ADV X NOUN	-0.40236494
-0.7506318	AUX X NOUN	-0.2925927
-0.94136	PRON X NOUN	-0.28822386
-0.81070423	INTJ X NOUN	-0.2999491
-0.7229715	X X NOUN	-0.7756552
-0.0756798	<s> SYM NOUN	-1.3216993
-0.8330657	NUM SYM NOUN	-0.37925524
-0.5681795	NOUN SYM NOUN	-1.0602515
-0.6520548	ADP SYM NOUN	-0.6422067
-0.63826215	PUNCT SYM NOUN	-0.6368341
-0.83896047	DET SYM NOUN	-0.4672346
-0.64801025	ADJ SYM NOUN	-0.5371028
-0.692749	PROPN SYM NOUN	-0.4408756
-0.7425113	SCONJ SYM NOUN	-0.28822386
-0.6074699	VERB SYM NOUN	-0.6189849
-0.9895948	CCONJ SYM NOUN	-0.46916813
-0.9256693	ADV SYM NOUN	-0.28822386
-1.0141482	AUX SYM NOUN	-0.28822386
-0.79433894	PRON SYM NOUN	-0.2940469
-0.6023969	INTJ SYM NOUN	-0.28822386
-0.43745178	X SYM NOUN	-0.28822386
-0.7308133	<s> NUM ADP	-1.5778275
-0.99878615	NUM NUM ADP	-1.1147443
-0.9656668	NOUN NUM ADP	-1.0929418
-1.0991513	ADP NUM ADP	-1.7040349
-1.0429804	PUNCT NUM ADP	-1.5161747
-1.080716	DET NUM ADP	-0.9957603
-1.0780995	ADJ NUM ADP	-0.7888867
-1.0648057	PROPN NUM ADP	-1.3697824
-0.94588876	SCONJ NUM ADP	-1.0154542
-1.0781784	VERB NUM ADP	-1.5254954
-0.99748147	PART NUM ADP	-0.4189976
-0.92862505	CCONJ NUM ADP	-1.1208888
-1.0466042	ADV NUM ADP	-1.0580318
-0.94524616	AUX NUM ADP	-1.4997487
-1.2650145	PRON NUM ADP	-0.48951507
-1.0440793	INTJ NUM ADP	-0.28822386
-1.0405871	SYM NUM ADP	-1.0117598
-0.5809107	<s> NOUN ADP	-2.1372535
-1.1849369	NUM NOUN ADP	-2.2738295
-1.2110447	NOUN NOUN ADP	-2.6755633
-1.1914601	ADP NOUN ADP	-2.6707108
-1.1455452	PUNCT NOUN ADP	-2.2131994
-1.1591504	DET NOUN ADP	-3.21853
-1.20807	ADJ NOUN ADP	-3.0758564
-1.1789014	PROPN NOUN ADP	-2.0721667
-0.9826582	SCONJ NOUN ADP	-1.4483902
-1.165781	VERB NOUN ADP	-2.654197
-0.9910412	PART NOUN ADP	-1.9569882
-1.0738804	CCONJ NOUN ADP	-2.2493389
-1.0515907	ADV NOUN ADP	-1.5099918
-0.9845034	AUX NOUN ADP	-1.655219
-1.1174802	PRON NOUN ADP	-2.3071098
-1.1443185	INTJ NOUN ADP	-0.5936227
-1.052366	X NOUN ADP	-0.6433259
-1.0337505	SYM NOUN ADP	-0.75098103
-1.6693342	<s> ADP ADP	-1.2835683
-1.3426247	NUM ADP ADP	-0.4340418
-1.203148	NOUN ADP ADP	-1.6644747
-1.3330969	ADP ADP ADP	-0.6272611
-1.1695821	PUNCT ADP ADP	-1.2855649
-1.2951384	DET ADP ADP	-0.32318366
-1.2088038	ADJ ADP ADP	-0.8245397
-1.1101167	PROPN ADP ADP	-1.035347
-1.1405122	SCONJ ADP ADP	-0.5005374
-1.2131323	VERB ADP ADP	-2.0989997
-1.3413544	PART ADP ADP	-0.2955239
-1.256341	CCONJ ADP ADP	-0.6600977
-1.1029335	ADV ADP ADP	-1.0736444
-1.1780826	AUX ADP ADP	-0.37488168
-1.1382704	PRON ADP ADP	-0.90405816
-1.3987291	INTJ ADP ADP	-0.28822386
-1.2711622	X ADP ADP	-0.28822386
-1.2072889	<s> PUNCT ADP	-1.2152197
-1.2041347	NUM PUNCT ADP	-1.4009567
-1.2510067	NOUN PUNCT ADP	-2.350121
-1.1532453	ADP PUNCT ADP	-0.97220707
-1.2304636	PUNCT PUNCT ADP	-1.4515911
-1.1424206	DET PUNCT ADP	-0.8689709
-1.2304636	ADJ PUNCT ADP	-1.4502598
-1.2423205	PROPN PUNCT ADP	-2.0318832
-1.0396558	SCONJ PUNCT ADP	-0.87569755
-1.2520583	VERB PUNCT ADP	-1.6415155
-1.2274072	PART PUNCT ADP	-0.38863254
-1.0008569	CCONJ PUNCT ADP	-1.004753
-1.2338566	ADV PUNCT ADP	-1.6699665
-1.1724042	AUX PUNCT ADP	-0.8901237
-1.1349211	PRON PUNCT ADP	-1.0771548
-1.1895071	INTJ PUNCT ADP	-0.79207134
-1.5579263	X PUNCT ADP	-0.36292398
-2.0001707	<s> DET ADP	-1.3395845
-1.2325742	NUM DET ADP	-0.5052896
-1.1526027	NOUN DET ADP	-0.79017085
-1.1570603	ADP DET ADP	-1.5708977
-1.1369381	PUNCT DET ADP	-1.26276
-1.1219759	DET DET ADP	-0.70428956
-1.122666	ADJ DET ADP	-0.5298249
-1.318627	PROPN DET ADP	-0.45180592
-1.1463808	SCONJ DET ADP	-1.1442357
-1.1610446	VERB DET ADP	-1.5375816
-1.1106863	PART DET ADP	-0.73451555
-1.137246	CCONJ DET ADP	-1.1100777
-1.1095138	ADV DET ADP	-0.9317916
-1.0756819	AUX DET ADP	-1.1114159
-1.3020239	PRON DET ADP	-0.58292496
-1.4132992	INTJ DET ADP	-0.28822386
-1.114667	<s> ADJ ADP	-1.4709271
-1.0043925	NUM ADJ ADP	-0.5056471
-1.0609103	NOUN ADJ ADP	-1.8482906
-1.1620817	ADP ADJ ADP	-1.4898263
-1.1215953	PUNCT ADJ ADP	-1.6452879
-1.1668406	DET ADJ ADP	-1.5126277
-1.1603934	ADJ ADJ ADP	-0.8389107
-0.98319674	PROPN ADJ ADP	-0.8384755
-0.9787133	SCONJ ADJ ADP	-1.2373778
-1.1330404	VERB ADJ ADP	-2.080497
-1.1037437	PART ADJ ADP	-1.2667191
-1.070882	CCONJ ADJ ADP	-1.3611201
-1.1549184	ADV ADJ ADP	-1.9881642
-1.0235564	AUX ADJ ADP	-1.7852874
-1.0784411	PRON ADJ ADP	-1.288541
-1.1177145	INTJ ADJ ADP	-0.29055792
-1.2457552	X ADJ ADP	-0.2911434
-1.4247777	SYM ADJ ADP	-0.28822386
-1.6055825	<s> PROPN ADP	-1.5028346
-1.0367552	NUM PROPN ADP	-1.0061041
-1.1780705	NOUN PROPN ADP	-1.3773246
-1.1778247	ADP PROPN ADP	-2.2542171
-1.1381825	PUNCT PROPN ADP	-1.7648331
-1.1348263	DET PROPN ADP	-2.1285152
-1.1442164	ADJ PROPN ADP	-1.5614293
-1.1760335	PROPN PROPN ADP	-2.49501
-1.1310881	SCONJ PROPN ADP	-0.7431352
-1.1417251	VERB PROPN ADP	-1.7702086
-1.120236	PART PROPN ADP	-1.4018489
-1.0869375	CCONJ PROPN ADP	-1.4938743
-1.1313765	ADV PROPN ADP	-0.6723227
-1.1448994	AUX PROPN ADP	-0.63763297
-1.0609691	PRON PROPN ADP	-0.8794482
-1.0341963	INTJ PROPN ADP	-0.40070653
-1.136912	X PROPN ADP	-0.4839906
-1.2075751	SYM PROPN ADP	-0.7174884
-1.3998466	<s> SCONJ ADP	-1.029229
-0.68294597	NUM SCONJ ADP	-1.0910702
-1.0834917	NOUN SCONJ ADP	-1.4638183
-1.1762178	ADP SCONJ ADP	-0.60503066
-1.0540006	PUNCT SCONJ ADP	-1.2075474
-1.0822003	DET SCONJ ADP	-0.2960054
-1.1045078	ADJ SCONJ ADP	-0.9030887
-0.9627183	PROPN SCONJ ADP	-0.8371569
-1.1226028	SCONJ SCONJ ADP	-0.44057548
-1.0999715	VERB SCONJ ADP	-1.6740047
-0.7180332	PART SCONJ ADP	-0.6649904
-1.0318726	CCONJ SCONJ ADP	-0.8173544
-1.0072839	ADV SCONJ ADP	-1.1163044
-1.0323012	AUX SCONJ ADP	-0.7917895
-1.2061234	PRON SCONJ ADP	-0.9226872
-0.77134126	X SCONJ ADP	-0.28822386
-0.36888286	<s> VERB ADP	-1.9722035
-0.99891365	NUM VERB ADP	-1.0279142
-1.1930059	NOUN VERB ADP	-2.6600158
-1.1015944	ADP VERB ADP	-1.863599
-1.1566308	PUNCT VERB ADP	-2.26611
-1.1243769	DET VERB ADP	-1.8255823
-1.1103538	ADJ VERB ADP	-1.0616965
-1.1773978	PROPN VERB ADP	-2.1979337
-1.0324452	SCONJ VERB ADP	-1.178483
-1.0908628	VERB VERB ADP	-1.6597967
-1.1082448	PART VERB ADP	-2.421471
-1.0574888	CCONJ VERB ADP	-2.0525205
-1.142213	ADV VERB ADP	-2.3681679
-1.1458626	AUX VERB ADP	-2.8333569
-1.1740048	PRON VERB ADP	-2.3739357
-0.9442068	INTJ VERB ADP	-0.6864578
-0.9430703	X VERB ADP	-0.32813376
-0.9742003	SYM VERB ADP	-0.34308147
-1.6174146	<s> PART ADP	-0.48046604
-1.6101879	NUM PART ADP	-0.28822386
-1.2107879	NOUN PART ADP	-0.68089575
-1.3742436	ADP PART ADP	-0.2940469
-1.040501	PUNCT PART ADP	-0.7771778
-1.2171884	DET PART ADP	-0.2960054
-1.3632649	ADJ PART ADP	-0.39903423
-1.2815125	PROPN PART ADP	-0.5815421
-1.270565	SCONJ PART ADP	-0.3709109
-1.1392643	VERB PART ADP	-0.962885
-1.1003792	CCONJ PART ADP	-0.8771904
-1.1753516	ADV PART ADP	-0.52568424
-1.2311152	AUX PART ADP	-1.0368484
-1.4331404	PRON PART ADP	-0.2960054
-1.0224129	<s> CCONJ ADP	-1.3819323
-1.3614466	NUM CCONJ ADP	-0.5155193
-1.2307708	NOUN CCONJ ADP	-1.6058903
-0.8562073	ADP CCONJ ADP	-1.0334516
-1.1786978	PUNCT CCONJ ADP	-1.6729766
-1.1911732	DET CCONJ ADP	-0.3880534
-1.1856973	ADJ CCONJ ADP	-0.7581063
-1.2357203	PROPN CCONJ ADP	-1.1797858
-1.154684	VERB CCONJ ADP	-0.8538377
-1.2585818	PART CCONJ ADP	-0.28822386
-1.1069258	CCONJ CCONJ ADP	-0.2940469
-1.0560157	ADV CCONJ ADP	-0.8650733
-1.3241786	AUX CCONJ ADP	-0.2999491
-1.391237	PRON CCONJ ADP	-0.63609326
-1.0465456	INTJ CCONJ ADP	-0.28822386
-1.3091761	X CCONJ ADP	-0.28822386
-1.1543534	<s> ADV ADP	-1.5913935
-0.981571	NUM ADV ADP	-0.41171208
-1.1985227	NOUN ADV ADP	-1.8791842
-1.1030216	ADP ADV ADP	-1.2303035
-1.1751978	PUNCT ADV ADP	-1.7461696
-1.1255074	DET ADV ADP	-0.6460562
-1.0960349	ADJ ADV ADP	-0.9938613
-1.0750489	PROPN ADV ADP	-1.1134615
-1.1392604	SCONJ ADV ADP	-0.7140325
-1.1809158	VERB ADV ADP	-2.135681
-1.1379938	PART ADV ADP	-1.170382
-1.2160218	CCONJ ADV ADP	-1.4534003
-1.1292384	ADV ADV ADP	-1.9385504
-1.1033242	AUX ADV ADP	-1.4023507
-1.1427383	PRON ADV ADP	-1.1264932
-1.2046221	INTJ ADV ADP	-0.28822386
-2.696005	<s> AUX ADP	-0.28822386
-1.2219666	NUM AUX ADP	-0.44241107
-1.159792	NOUN AUX ADP	-1.6442038
-1.3914452	ADP AUX ADP	-0.2940469
-1.235243	PUNCT AUX ADP	-0.99195117
-1.2463913	DET AUX ADP	-0.7853316
-1.3432105	ADJ AUX ADP	-0.40565875
-1.1530527	PROPN AUX ADP	-1.3136971
-1.2913077	VERB AUX ADP	-0.5426355
-1.53897	CCONJ AUX ADP	-0.41705966
-1.2563479	ADV AUX ADP	-0.56961834
-1.1802273	PRON AUX ADP	-1.3778927
-1.2773725	INTJ AUX ADP	-0.28822386
-0.92670876	SYM AUX ADP	-0.28822386
-2.309157	<s> PRON ADP	-0.88096374
-1.2737061	NUM PRON ADP	-0.2940469
-1.1379423	NOUN PRON ADP	-0.5491021
-1.1440077	ADP PRON ADP	-1.5732554
-1.1391903	PUNCT PRON ADP	-0.89853585
-1.406548	DET PRON ADP	-0.29016802
-1.2834288	ADJ PRON ADP	-0.34667644
-1.0956225	PROPN PRON ADP	-0.37207156
-1.2389772	SCONJ PRON ADP	-0.69503105
-1.1448032	VERB PRON ADP	-2.0866587
-1.1573226	PART PRON ADP	-0.35121238
-1.2901491	CCONJ PRON ADP	-0.6648764
-1.1426921	ADV PRON ADP	-0.5578401
-1.1688884	AUX PRON ADP	-0.6020587
-1.2896441	PRON PRON ADP	-0.3732353
-1.5122999	INTJ PRON ADP	-0.28822386
-1.0973647	X PRON ADP	-0.28822386
-1.8172927	<s> INTJ ADP	-0.29489544
-1.6914452	NOUN INTJ ADP	-0.28822386
-1.288549	PUNCT INTJ ADP	-0.4340418
-0.8890736	ADJ INTJ ADP	-0.2940469
-1.4828627	PROPN INTJ ADP	-0.28822386
-0.8404856	VERB INTJ ADP	-0.50882024
-1.2519219	CCONJ INTJ ADP	-0.28822386
-1.2426907	AUX INTJ ADP	-0.28822386
-1.144954	PRON INTJ ADP	-0.29212093
-1.7735236	<s> X ADP	-0.2960054
-1.2183015	NOUN X ADP	-0.4170438
-1.2564405	ADP X ADP	-0.2940469
-1.3976034	PUNCT X ADP	-0.29339606
-1.4318796	DET X ADP	-0.28822386
-1.5789154	PROPN X ADP	-0.28822386
-1.3074654	VERB X ADP	-0.29212093
-1.1529646	CCONJ X ADP	-0.28822386
-1.39605	ADV X ADP	-0.28822386
-1.0923786	AUX X ADP	-0.28822386
-1.2309021	X X ADP	-0.35905585
-1.357469	NUM SYM ADP	-0.2960054
-1.4049174	ADP SYM ADP	-0.29287603
-1.5300068	PROPN SYM ADP	-0.41705966
-1.049645	<s> NUM PUNCT	-0.9585642
-0.9662627	NUM NUM PUNCT	-1.0983856
-0.9630737	NOUN NUM PUNCT	-1.5222051
-1.0706278	ADP NUM PUNCT	-1.9125458
-1.0126284	PUNCT NUM PUNCT	-1.7882361
-1.0050818	DET NUM PUNCT	-1.6619279
-0.8246442	ADJ NUM PUNCT	-1.087173
-1.0344348	PROPN NUM PUNCT	-2.1860776
-0.9427203	SCONJ NUM PUNCT	-1.0635996
-1.0753478	VERB NUM PUNCT	-1.0193776
-0.87979305	PART NUM PUNCT	-0.8381293
-1.062879	CCONJ NUM PUNCT	-0.88957024
-0.9770797	ADV NUM PUNCT	-0.70991415
-0.9412845	AUX NUM PUNCT	-0.54585636
-0.8344405	PRON NUM PUNCT	-0.9369888
-0.7589358	INTJ NUM PUNCT	-0.28822386
-0.7033674	X NUM PUNCT	-0.28822386
-0.940755	SYM NUM PUNCT	-1.3531241
-0.6035745	<s> NOUN PUNCT	-2.0154853
-1.1600903	NUM NOUN PUNCT	-2.2252798
-1.2110447	NOUN NOUN PUNCT	-2.8103423
-1.1403763	ADP NOUN PUNCT	-2.748262
-1.120754	PUNCT NOUN PUNCT	-2.3905723
-1.1591504	DET NOUN PUNCT	-2.997335
-1.20807	ADJ NOUN PUNCT	-3.0904775
-1.1541102	PROPN NOUN PUNCT	-2.299932
-1.0504329	SCONJ NOUN PUNCT	-1.001935
-1.1905723	VERB NOUN PUNCT	-2.3896515
-0.95877206	PART NOUN PUNCT	-2.0611956
-0.9831147	CCONJ NOUN PUNCT	-2.5088243
-1.0796486	ADV NOUN PUNCT	-1.2752119
-1.0169605	AUX NOUN PUNCT	-1.1385684
-1.0911876	PRON NOUN PUNCT	-2.4325242
-0.9231926	INTJ NOUN PUNCT	-0.370449
-0.8024261	X NOUN PUNCT	-0.71808535
-0.8863704	SYM NOUN PUNCT	-1.0822443
-2.4304903	<s> ADP PUNCT	-0.5746616
-1.2295389	NUM ADP PUNCT	-0.3971098
-1.177074	NOUN ADP PUNCT	-1.7331533
-1.2241261	ADP ADP PUNCT	-0.7604233
-1.1397753	PUNCT ADP PUNCT	-1.4284285
-1.1382163	DET ADP PUNCT	-0.79771745
-1.1424645	ADJ ADP PUNCT	-1.0260652
-1.17202	PROPN ADP PUNCT	-1.0036
-1.1877853	SCONJ ADP PUNCT	-0.36868948
-1.1870581	VERB ADP PUNCT	-1.9121004
-1.4893398	PART ADP PUNCT	-0.2999491
-1.0990183	CCONJ ADP PUNCT	-0.6318171
-1.1993428	ADV ADP PUNCT	-0.7030709
-1.2482538	AUX ADP PUNCT	-0.5521013
-1.2502346	PRON ADP PUNCT	-1.0387725
-1.4532282	X ADP PUNCT	-0.28822386
-0.9759528	SYM ADP PUNCT	-0.28822386
-1.6109719	<s> PUNCT PUNCT	-0.81138086
-1.176105	NUM PUNCT PUNCT	-1.3768442
-1.2261823	NOUN PUNCT PUNCT	-2.4296627
-1.1880089	ADP PUNCT PUNCT	-0.9469363
-1.1761043	PUNCT PUNCT PUNCT	-1.7454438
-1.1424206	DET PUNCT PUNCT	-0.79664075
-1.1512799	ADJ PUNCT PUNCT	-1.544992
-1.2174962	PROPN PUNCT PUNCT	-2.157532
-1.2772686	SCONJ PUNCT PUNCT	-0.43469292
-1.1728746	VERB PUNCT PUNCT	-1.8320106
-1.1755112	PART PUNCT PUNCT	-0.71639186
-1.2681588	CCONJ PUNCT PUNCT	-0.3268712
-1.1794972	ADV PUNCT PUNCT	-1.488008
-1.2239074	AUX PUNCT PUNCT	-0.6544398
-1.1349211	PRON PUNCT PUNCT	-1.3950412
-1.0101206	INTJ PUNCT PUNCT	-0.6284659
-1.077021	X PUNCT PUNCT	-0.6672387
-2.069782	<s> DET PUNCT	-1.0035124
-1.1465641	NUM DET PUNCT	-0.5745736
-1.2330905	NOUN DET PUNCT	-0.7286471
-1.1292375	ADP DET PUNCT	-1.8089367
-1.1069906	PUNCT DET PUNCT	-1.2292238
-1.1219759	DET DET PUNCT	-0.6394775
-1.122666	ADJ DET PUNCT	-0.36197782
-1.318627	PROPN DET PUNCT	-0.39633292
-1.1463808	SCONJ DET PUNCT	-0.8592594
-1.133222	VERB DET PUNCT	-1.5509715
-1.2678256	PART DET PUNCT	-0.44018924
-1.2350879	CCONJ DET PUNCT	-0.79448354
-1.0768996	ADV DET PUNCT	-0.78851444
-1.0756819	AUX DET PUNCT	-0.9454513
-1.1731023	PRON DET PUNCT	-0.81361854
-1.4132992	INTJ DET PUNCT	-0.28822386
-1.3462347	<s> ADJ PUNCT	-1.0586871
-0.8652593	NUM ADJ PUNCT	-0.83773863
-1.0609103	NOUN ADJ PUNCT	-1.4072094
-1.1045312	ADP ADJ PUNCT	-1.7508379
-1.038403	PUNCT ADJ PUNCT	-1.7985737
-1.1094822	DET ADJ PUNCT	-1.8866651
-1.0369315	ADJ ADJ PUNCT	-1.3968368
-0.98319674	PROPN ADJ PUNCT	-0.8142191
-1.1079247	SCONJ ADJ PUNCT	-0.7778561
-1.1069039	VERB ADJ PUNCT	-1.9979751
-1.0655146	PART ADJ PUNCT	-1.3471216
-1.0038145	CCONJ ADJ PUNCT	-1.5712048
-1.1269789	ADV ADJ PUNCT	-2.0193655
-1.0583835	AUX ADJ PUNCT	-1.7177702
-1.043736	PRON ADJ PUNCT	-1.3483281
-1.1177145	INTJ ADJ PUNCT	-0.2960054
-0.73284805	X ADJ PUNCT	-0.32919836
-0.87486255	SYM ADJ PUNCT	-0.32247618
-0.7480416	<s> PROPN PUNCT	-2.0753362
-1.0367552	NUM PROPN PUNCT	-1.2853762
-1.094126	NOUN PROPN PUNCT	-1.6975055
-1.2057289	ADP PROPN PUNCT	-2.7910948
-1.1381825	PUNCT PROPN PUNCT	-2.47676
-1.1348263	DET PROPN PUNCT	-2.1044152
-1.0895941	ADJ PROPN PUNCT	-1.791579
-1.1760335	PROPN PROPN PUNCT	-2.9151595
-1.057277	SCONJ PROPN PUNCT	-1.0488033
-1.1169425	VERB PROPN PUNCT	-1.8532331
-0.9382075	PART PROPN PUNCT	-1.2499939
-1.0141981	CCONJ PROPN PUNCT	-1.8848302
-1.0254672	ADV PROPN PUNCT	-0.92200094
-0.9638984	AUX PROPN PUNCT	-0.91168433
-1.0227237	PRON PROPN PUNCT	-1.059469
-0.80987	INTJ PROPN PUNCT	-0.37253952
-0.77803695	X PROPN PUNCT	-0.70689285
-0.9353219	SYM PROPN PUNCT	-1.1343815
-2.0655096	<s> SCONJ PUNCT	-0.42935705
-1.1292241	NUM SCONJ PUNCT	-0.28988975
-1.1952153	NOUN SCONJ PUNCT	-0.76905125
-1.566814	ADP SCONJ PUNCT	-0.43313813
-1.1955155	PUNCT SCONJ PUNCT	-0.64939696
-1.237293	ADJ SCONJ PUNCT	-0.37754643
-1.2832985	PROPN SCONJ PUNCT	-0.42362183
-1.4695528	SCONJ SCONJ PUNCT	-0.2960054
-1.1062322	VERB SCONJ PUNCT	-1.2895935
-1.472235	PART SCONJ PUNCT	-0.28822386
-1.1017522	CCONJ SCONJ PUNCT	-0.34448066
-1.360616	ADV SCONJ PUNCT	-0.31753993
-1.1721907	AUX SCONJ PUNCT	-0.34654087
-1.1213642	PRON SCONJ PUNCT	-0.31466112
-1.3549619	<s> VERB PUNCT	-0.9680466
-1.0274222	NUM VERB PUNCT	-0.64277637
-1.2177138	NOUN VERB PUNCT	-2.04557
-1.1015944	ADP VERB PUNCT	-1.3212389
-1.1566308	PUNCT VERB PUNCT	-1.8033488
-1.1826785	DET VERB PUNCT	-1.3083508
-1.0803099	ADJ VERB PUNCT	-0.8633662
-1.1526899	PROPN VERB PUNCT	-1.9046971
-1.0677543	SCONJ VERB PUNCT	-0.6395534
-1.1189259	VERB VERB PUNCT	-1.1275876
-1.1870329	PART VERB PUNCT	-2.0064197
-1.1118646	CCONJ VERB PUNCT	-1.4911467
-1.1962932	ADV VERB PUNCT	-1.8315414
-1.1720614	AUX VERB PUNCT	-2.2657619
-1.2002037	PRON VERB PUNCT	-2.0635436
-1.0448939	INTJ VERB PUNCT	-0.35803217
-1.1597031	X VERB PUNCT	-0.4662593
-0.8589308	SYM VERB PUNCT	-0.29154173
-2.0818672	<s> PART PUNCT	-0.2960054
-0.9349828	NUM PART PUNCT	-0.45311278
-1.1279372	NOUN PART PUNCT	-0.9697824
-1.1204644	ADP PART PUNCT	-0.29055792
-1.3021034	PUNCT PART PUNCT	-0.66203564
-0.92983454	DET PART PUNCT	-0.2921051
-1.0925001	ADJ PART PUNCT	-0.48257703
-1.0862703	PROPN PART PUNCT	-1.1212109
-1.0681708	SCONJ PART PUNCT	-0.34593728
-1.1353686	VERB PART PUNCT	-1.0337572
-1.2273291	PART PART PUNCT	-0.29523528
-1.0439229	CCONJ PART PUNCT	-0.841367
-1.1100643	ADV PART PUNCT	-0.6894919
-1.225421	AUX PART PUNCT	-0.8374447
-1.174309	PRON PART PUNCT	-0.48249954
-1.3338008	<s> CCONJ PUNCT	-0.9288877
-1.6753396	NUM CCONJ PUNCT	-0.2911434
-1.2307708	NOUN CCONJ PUNCT	-0.94001806
-1.3156924	ADP CCONJ PUNCT	-0.29339606
-1.1786978	PUNCT CCONJ PUNCT	-1.3546371
-1.3265195	DET CCONJ PUNCT	-0.2975786
-1.2270103	ADJ CCONJ PUNCT	-0.4682043
-1.2357203	PROPN CCONJ PUNCT	-0.45590416
-1.4420815	SCONJ CCONJ PUNCT	-0.28822386
-1.2799128	VERB CCONJ PUNCT	-0.5249753
-1.2585818	PART CCONJ PUNCT	-0.2940469
-1.2952962	CCONJ CCONJ PUNCT	-0.28822386
-1.4385588	ADV CCONJ PUNCT	-0.2940469
-1.469421	AUX CCONJ PUNCT	-0.28822386
-1.5214936	PRON CCONJ PUNCT	-0.29287603
-0.52187103	SYM CCONJ PUNCT	-0.28822386
-0.4461819	<s> ADV PUNCT	-2.1361063
-0.87801313	NUM ADV PUNCT	-0.6526402
-1.1394413	NOUN ADV PUNCT	-2.0567951
-1.0678418	ADP ADV PUNCT	-1.4212209
-1.1441863	PUNCT ADV PUNCT	-1.8034148
-0.98329276	DET ADV PUNCT	-1.4636192
-1.0283169	ADJ ADV PUNCT	-1.1769854
-1.0422417	PROPN ADV PUNCT	-1.2386485
-1.0524534	SCONJ ADV PUNCT	-0.8858627
-1.1218143	VERB ADV PUNCT	-1.9827528
-1.0937152	PART ADV PUNCT	-0.79091394
-1.1296571	CCONJ ADV PUNCT	-1.4138952
-1.0982268	ADV ADV PUNCT	-1.9429332
-1.0974195	AUX ADV PUNCT	-1.038558
-1.063699	PRON ADV PUNCT	-1.3844731
-1.0382328	INTJ ADV PUNCT	-0.2930769
-1.0563291	X ADV PUNCT	-0.2940469
-0.7080051	SYM ADV PUNCT	-0.2940469
-2.284839	<s> AUX PUNCT	-0.29154173
-1.3598651	NUM AUX PUNCT	-0.33786258
-1.1830909	NOUN AUX PUNCT	-1.270155
-1.1211975	ADP AUX PUNCT	-0.29016802
-1.1856802	PUNCT AUX PUNCT	-0.60112524
-1.2371354	DET AUX PUNCT	-0.63579327
-1.3307074	ADJ AUX PUNCT	-0.29339606
-1.1468248	PROPN AUX PUNCT	-0.8006401
-1.321525	SCONJ AUX PUNCT	-0.28822386
-1.22142	VERB AUX PUNCT	-0.34424132
-1.3648506	PART AUX PUNCT	-0.591198
-1.3772919	CCONJ AUX PUNCT	-0.38185686
-1.2472925	ADV AUX PUNCT	-0.45693964
-1.0478885	AUX AUX PUNCT	-0.76680243
-1.2395533	PRON AUX PUNCT	-1.1504395
-1.1164867	X AUX PUNCT	-0.28822386
-2.2850146	<s> PRON PUNCT	-0.69756866
-1.1103275	NUM PRON PUNCT	-0.28822386
-1.0299364	NOUN PRON PUNCT	-0.9829117
-1.1690139	ADP PRON PUNCT	-1.9813311
-1.1067042	PUNCT PRON PUNCT	-0.8825989
-1.0835305	DET PRON PUNCT	-0.3211137
-0.920004	ADJ PRON PUNCT	-0.73192537
-0.9648652	PROPN PRON PUNCT	-0.67193776
-1.1479778	SCONJ PRON PUNCT	-0.7092687
-1.1423094	VERB PRON PUNCT	-1.9753588
-0.99795073	PART PRON PUNCT	-0.78885865
-1.1326859	CCONJ PRON PUNCT	-0.63120943
-1.1017692	ADV PRON PUNCT	-0.59440666
-1.1195648	AUX PRON PUNCT	-0.8468918
-1.2833519	PRON PRON PUNCT	-0.5057454
-0.890802	INTJ PRON PUNCT	-0.44812238
-1.0877001	X PRON PUNCT	-0.28822386
-1.0066401	SYM PRON PUNCT	-0.28822386
-0.31989622	<s> INTJ PUNCT	-1.2453569
-0.82051486	NUM INTJ PUNCT	-0.28822386
-0.8328254	NOUN INTJ PUNCT	-0.5915879
-0.9783113	ADP INTJ PUNCT	-0.3880534
-0.7938764	PUNCT INTJ PUNCT	-1.2999455
-0.7049239	DET INTJ PUNCT	-0.28822386
-0.72068405	ADJ INTJ PUNCT	-0.29488516
-0.6849956	PROPN INTJ PUNCT	-0.3413309
-0.35445967	SCONJ INTJ PUNCT	-0.2940469
-0.75736135	VERB INTJ PUNCT	-0.56064355
-0.46493965	PART INTJ PUNCT	-0.28822386
-0.75509506	CCONJ INTJ PUNCT	-0.5001116
-0.8103997	ADV INTJ PUNCT	-0.2927017
-0.85232943	AUX INTJ PUNCT	-0.2940469
-1.050909	PRON INTJ PUNCT	-0.2999491
-0.83580136	INTJ INTJ PUNCT	-0.5925853
-1.0546818	X INTJ PUNCT	-0.28822386
-0.18638973	<s> X PUNCT	-0.9713437
-0.9740585	NUM X PUNCT	-0.28822386
-0.831191	NOUN X PUNCT	-0.69570816
-0.75750345	ADP X PUNCT	-0.60265505
-0.7848951	PUNCT X PUNCT	-1.1603044
-0.99020505	DET X PUNCT	-0.28822386
-0.7831899	PROPN X PUNCT	-0.47800475
-0.6731914	VERB X PUNCT	-0.3783729
-0.4886313	CCONJ X PUNCT	-0.2935208
-0.9733422	ADV X PUNCT	-0.2940469
-1.0485162	AUX X PUNCT	-0.2999491
-0.6803071	PRON X PUNCT	-0.28822386
-1.0966315	INTJ X PUNCT	-0.28822386
-0.94578	X X PUNCT	-0.5813373
-2.375273	<s> SYM PUNCT	-0.28822386
-1.8464246	NOUN SYM PUNCT	-0.28822386
-1.716661	ADP SYM PUNCT	-0.28822386
-1.6964203	PUNCT SYM PUNCT	-0.28822386
-2.4035592	<s> NUM DET	-0.41510677
-1.3881247	NUM NUM DET	-0.6185023
-1.7000344	NOUN NUM DET	-0.29209718
-1.2714186	ADP NUM DET	-0.83703727
-1.3283174	PUNCT NUM DET	-0.5677273
-1.4479733	DET NUM DET	-0.29154173
-1.7944727	ADJ NUM DET	-0.3571148
-1.3510301	PROPN NUM DET	-0.7559797
-1.349274	SCONJ NUM DET	-0.4672346
-1.3105098	VERB NUM DET	-0.63128257
-1.5362443	CCONJ NUM DET	-0.41575676
-1.6850227	ADV NUM DET	-0.36973915
-1.434284	AUX NUM DET	-0.33662796
-1.0141264	SYM NUM DET	-0.93231255
-2.2018661	<s> NOUN DET	-0.89482594
-1.2112916	NUM NOUN DET	-1.3201497
-1.2358359	NOUN NOUN DET	-1.8356404
-1.2194476	ADP NOUN DET	-1.7429084
-1.2297413	PUNCT NOUN DET	-1.0661875
-1.2102342	DET NOUN DET	-2.2357478
-1.2328613	ADJ NOUN DET	-2.1504755
-1.2952278	PROPN NOUN DET	-1.3200752
-1.5393138	SCONJ NOUN DET	-0.44479173
-1.1905723	VERB NOUN DET	-1.5071611
-1.328215	PART NOUN DET	-0.9015428
-1.286703	CCONJ NOUN DET	-1.3104728
-1.3530593	ADV NOUN DET	-0.4494753
-1.1783607	AUX NOUN DET	-0.7012655
-1.2799262	PRON NOUN DET	-1.1750076
-1.609217	INTJ NOUN DET	-0.28822386
-1.1827495	X NOUN DET	-0.3924339
-1.3391917	SYM NOUN DET	-0.33544672
-0.39018205	<s> ADP DET	-2.4150002
-0.94507015	NUM ADP DET	-2.0600114
-1.1501632	NOUN ADP DET	-3.2814455
-0.9999743	ADP ADP DET	-2.0745492
-1.0833417	PUNCT ADP DET	-2.3197
-0.9301223	DET ADP DET	-1.8147377
-1.0823898	ADJ ADP DET	-2.2851076
-1.0290226	PROPN ADP DET	-2.4175022
-0.9578524	SCONJ ADP DET	-1.850207
-1.1601474	VERB ADP DET	-2.9859514
-0.8193991	PART ADP DET	-1.223145
-0.9487865	CCONJ ADP DET	-1.8219435
-1.0725609	ADV ADP DET	-2.2692075
-0.86530674	AUX ADP DET	-1.6482056
-0.91028583	PRON ADP DET	-1.9208415
-0.8532632	INTJ ADP DET	-0.45624807
-0.92485255	X ADP DET	-0.44646403
-0.6953493	SYM ADP DET	-0.2960054
-0.7765427	<s> PUNCT DET	-1.6320999
-1.176105	NUM PUNCT DET	-1.7212884
-1.2261823	NOUN PUNCT DET	-2.6062696
-1.0910952	ADP PUNCT DET	-1.3906004
-1.2024341	PUNCT PUNCT DET	-1.8826735
-1.209868	DET PUNCT DET	-0.99790764
-1.2304636	ADJ PUNCT DET	-1.4562073
-1.2174962	PROPN PUNCT DET	-2.4356012
-1.1198225	SCONJ PUNCT DET	-0.9567436
-1.2520583	VERB PUNCT DET	-1.7960091
-1.1291599	PART PUNCT DET	-0.7874516
-1.089086	CCONJ PUNCT DET	-0.83012867
-1.205827	ADV PUNCT DET	-2.0580685
-1.1724042	AUX PUNCT DET	-0.8018517
-1.167107	PRON PUNCT DET	-1.207685
-1.1372534	INTJ PUNCT DET	-0.96168053
-1.077021	X PUNCT DET	-0.9014348
-2.1527214	<s> DET DET	-1.0411372
-1.4828657	NUM DET DET	-0.29523528
-1.05439	NOUN DET DET	-1.3242056
-1.1570603	ADP DET DET	-1.7056246
-1.2038457	PUNCT DET DET	-1.1000092
-1.353955	DET DET DET	-0.5298249
-1.2806273	ADJ DET DET	-0.67524064
-1.4029635	PROPN DET DET	-0.4827035
-1.1078523	SCONJ DET DET	-1.1043231
-1.1610446	VERB DET DET	-1.4896917
-1.1106863	PART DET DET	-0.61510956
-1.1834174	CCONJ DET DET	-0.82132924
-1.0768996	ADV DET DET	-0.94898707
-1.1642865	AUX DET DET	-1.0074984
-1.3020239	PRON DET DET	-0.72521764
-1.2956513	X DET DET	-0.28822386
-3.3480096	<s> ADJ DET	-0.2960054
-1.4080613	NOUN ADJ DET	-0.5193975
-1.2836099	ADP ADJ DET	-0.83934104
-1.4456553	PUNCT ADJ DET	-0.53856194
-1.3310251	DET ADJ DET	-0.7148728
-1.3586862	ADJ ADJ DET	-0.32737812
-1.7515191	PROPN ADJ DET	-0.28822386
-1.2375184	VERB ADJ DET	-1.0152243
-1.3275623	PART ADJ DET	-0.5542306
-1.331665	CCONJ ADJ DET	-0.5732906
-1.2312983	ADV ADJ DET	-1.0598441
-1.3908787	AUX ADJ DET	-0.7726452
-1.601887	PRON ADJ DET	-0.45311278
-2.672788	<s> PROPN DET	-0.6543347
-1.6560587	NUM PROPN DET	-0.33175606
-1.3729292	NOUN PROPN DET	-0.6675962
-1.2382245	ADP PROPN DET	-1.4954176
-1.2916046	PUNCT PROPN DET	-0.86310256
-1.2725474	DET PROPN DET	-1.000631
-1.3248727	ADJ PROPN DET	-0.797515
-1.2873784	PROPN PROPN DET	-1.426205
-1.4065909	SCONJ PROPN DET	-0.43236747
-1.2608178	VERB PROPN DET	-0.97721714
-1.5036049	PART PROPN DET	-0.4294461
-1.4379573	CCONJ PROPN DET	-0.69398516
-1.4871769	ADV PROPN DET	-0.29209718
-1.2094126	AUX PROPN DET	-0.52568424
-1.5185174	PRON PROPN DET	-0.4189976
-1.3903267	X PROPN DET	-0.28822386
-1.5971575	SYM PROPN DET	-0.28822386
-0.5189836	<s> SCONJ DET	-1.7209977
-0.91374683	NUM SCONJ DET	-0.6610656
-1.0232278	NOUN SCONJ DET	-1.9063447
-0.9050759	ADP SCONJ DET	-1.187093
-1.0234734	PUNCT SCONJ DET	-1.6872107
-0.7087537	DET SCONJ DET	-0.46898156
-1.0059274	ADJ SCONJ DET	-1.6583471
-0.87972504	PROPN SCONJ DET	-1.254816
-0.84710133	SCONJ SCONJ DET	-1.1836914
-1.0437202	VERB SCONJ DET	-2.2510567
-0.71531606	PART SCONJ DET	-0.6890834
-0.93004936	CCONJ SCONJ DET	-1.1959851
-0.9721354	ADV SCONJ DET	-1.4188999
-0.9304096	AUX SCONJ DET	-1.1800964
-0.9509362	PRON SCONJ DET	-0.9714455
-1.0040445	INTJ SCONJ DET	-0.28822386
-0.7659712	X SCONJ DET	-0.28822386
-0.79310864	<s> VERB DET	-1.7140968
-1.0274222	NUM VERB DET	-1.0563183
-1.1930059	NOUN VERB DET	-2.4097722
-1.1015944	ADP VERB DET	-2.1419308
-1.1566308	PUNCT VERB DET	-2.249271
-1.1243769	DET VERB DET	-1.9792988
-1.1103538	ADJ VERB DET	-1.1406429
-1.1526899	PROPN VERB DET	-2.305965
-1.0324452	SCONJ VERB DET	-1.2795924
-1.0908628	VERB VERB DET	-1.6737461
-1.1591516	PART VERB DET	-2.6840749
-1.1118646	CCONJ VERB DET	-2.1351945
-1.168412	ADV VERB DET	-2.3580024
-1.1458626	AUX VERB DET	-2.5612943
-1.1492969	PRON VERB DET	-2.4087734
-1.1762016	INTJ VERB DET	-1.0004605
-1.0749161	X VERB DET	-0.53856194
-1.1315757	SYM VERB DET	-0.36973915
-1.1790007	<s> PART DET	-0.7246518
-1.4616688	NUM PART DET	-0.28822386
-1.3073487	NOUN PART DET	-0.5813631
-1.3742436	ADP PART DET	-0.36973915
-1.040501	PUNCT PART DET	-0.8634361
-1.2835212	DET PART DET	-0.2999491
-1.7143085	ADJ PART DET	-0.28822386
-1.3326935	PROPN PART DET	-0.7350718
-0.9386538	SCONJ PART DET	-0.5606507
-1.1010934	VERB PART DET	-1.1250652
-1.0027732	CCONJ PART DET	-0.85239685
-1.1147501	ADV PART DET	-0.90567416
-1.0548017	AUX PART DET	-1.6101605
-1.2892178	PRON PART DET	-0.41705966
-0.71680564	<s> CCONJ DET	-1.6470176
-0.983708	NUM CCONJ DET	-0.9518045
-1.113319	NOUN CCONJ DET	-2.2563715
-1.0999212	ADP CCONJ DET	-1.0555063
-1.118609	PUNCT CCONJ DET	-2.1316757
-0.93021	DET CCONJ DET	-0.64030576
-1.0782222	ADJ CCONJ DET	-1.2317004
-1.0440885	PROPN CCONJ DET	-1.8844033
-0.69269	SCONJ CCONJ DET	-0.40567303
-1.1168032	VERB CCONJ DET	-1.3281112
-1.0406945	PART CCONJ DET	-0.5573002
-1.0323817	CCONJ CCONJ DET	-0.2911434
-1.0903959	ADV CCONJ DET	-0.84332913
-1.0179055	AUX CCONJ DET	-0.73451555
-0.98019296	PRON CCONJ DET	-0.9346951
-0.96749866	INTJ CCONJ DET	-0.2960054
-1.2972101	X CCONJ DET	-0.28822386
-1.078497	<s> ADV DET	-1.6926851
-1.2240846	NUM ADV DET	-0.6345341
-1.1705024	NOUN ADV DET	-1.5127522
-1.1354873	ADP ADV DET	-1.4564738
-1.1488147	PUNCT ADV DET	-1.7075378
-1.2152697	DET ADV DET	-0.7689302
-1.2117512	ADJ ADV DET	-0.8324634
-1.211812	PROPN ADV DET	-1.1153667
-1.0580294	SCONJ ADV DET	-0.9611218
-1.1809158	VERB ADV DET	-1.8083457
-1.1806121	PART ADV DET	-1.2101192
-1.1740335	CCONJ ADV DET	-1.4864385
-1.1873618	ADV ADV DET	-1.3318043
-1.176317	AUX ADV DET	-1.6843941
-1.1427383	PRON ADV DET	-0.75912124
-1.2652838	INTJ ADV DET	-0.28822386
-0.81885755	<s> AUX DET	-1.1604705
-0.97401804	NUM AUX DET	-0.9719919
-1.1536068	NOUN AUX DET	-1.9750425
-1.0360124	ADP AUX DET	-0.8015645
-1.023207	PUNCT AUX DET	-1.5885363
-1.0458729	DET AUX DET	-1.676197
-1.1505966	ADJ AUX DET	-0.9438992
-1.0631567	PROPN AUX DET	-1.8946661
-1.321525	SCONJ AUX DET	-0.28822386
-1.0429025	VERB AUX DET	-1.2093514
-1.6169693	PART AUX DET	-0.28822386
-1.1189659	CCONJ AUX DET	-0.5943582
-1.0875492	ADV AUX DET	-1.7284348
-1.3145846	AUX AUX DET	-0.29405883
-1.0905075	PRON AUX DET	-2.1364405
-1.253514	INTJ AUX DET	-0.28822386
-2.0951042	<s> PRON DET	-1.09491
-1.2380724	NOUN PRON DET	-0.7377564
-1.1801348	ADP PRON DET	-1.2676573
-1.1474522	PUNCT PRON DET	-1.0869098
-1.3219466	DET PRON DET	-0.43668592
-1.0232506	ADJ PRON DET	-0.41608214
-1.8446876	PROPN PRON DET	-0.28822386
-1.1225811	SCONJ PRON DET	-0.63321227
-1.1788642	VERB PRON DET	-1.6664152
-1.2869161	PART PRON DET	-0.50799024
-1.1486881	CCONJ PRON DET	-0.8288947
-1.1532805	ADV PRON DET	-0.81077373
-1.1823496	AUX PRON DET	-0.9926453
-1.309087	PRON PRON DET	-0.64332587
-1.2817582	<s> INTJ DET	-0.78811806
-0.85809743	NUM INTJ DET	-0.28822386
-1.4674758	NOUN INTJ DET	-0.2940469
-1.281197	ADP INTJ DET	-0.28822386
-1.3386829	PUNCT INTJ DET	-0.29322043
-1.3002173	ADJ INTJ DET	-0.28822386
-1.2481194	PROPN INTJ DET	-0.2960054
-0.6778901	SCONJ INTJ DET	-0.28822386
-1.3919239	VERB INTJ DET	-0.28822386
-1.1439801	CCONJ INTJ DET	-0.2940469
-1.2544956	ADV INTJ DET	-0.28822386
-0.9484675	PRON INTJ DET	-0.2911434
-1.6567786	<s> X DET	-0.349554
-1.5924098	NOUN X DET	-0.29287603
-1.3701967	ADP X DET	-0.36973915
-1.4441389	PUNCT X DET	-0.46898156
-1.5032374	DET X DET	-0.28822386
-1.38756	ADJ X DET	-0.28822386
-0.9530022	PART X DET	-0.28822386
-1.5295392	X X DET	-0.2960054
-1.5526652	NUM SYM DET	-0.28822386
-1.8019478	NOUN SYM DET	-0.28822386
-1.6762185	ADP SYM DET	-0.28822386
-1.4610611	DET SYM DET	-0.28822386
-1.4783973	PROPN SYM DET	-0.28822386
-1.0887891	<s> NUM ADJ	-1.3220733
-0.9711431	NUM NUM ADJ	-1.0625817
-1.1910279	NOUN NUM ADJ	-0.93401057
-1.1595209	ADP NUM ADJ	-1.7188977
-1.1423988	PUNCT NUM ADJ	-1.2095917
-1.0107948	DET NUM ADJ	-1.4290094
-0.9937553	ADJ NUM ADJ	-0.90135
-1.2023473	PROPN NUM ADJ	-1.0123805
-1.0750091	SCONJ NUM ADJ	-1.0937533
-1.1427231	VERB NUM ADJ	-1.388817
-1.0735227	PART NUM ADJ	-0.8393034
-0.97390425	CCONJ NUM ADJ	-1.0281261
-1.0149415	ADV NUM ADJ	-1.1831956
-1.0809977	AUX NUM ADJ	-1.1777638
-1.0061061	PRON NUM ADJ	-1.1204472
-1.2817254	SYM NUM ADJ	-0.53709686
-2.2079382	<s> NOUN ADJ	-0.6977466
-1.2112916	NUM NOUN ADJ	-1.3075522
-1.2110447	NOUN NOUN ADJ	-1.4373168
-1.2493638	ADP NOUN ADJ	-1.3792672
-1.2618716	PUNCT NOUN ADJ	-1.3363465
-1.2681377	DET NOUN ADJ	-1.6739212
-1.20807	ADJ NOUN ADJ	-1.6703036
-1.2630975	PROPN NOUN ADJ	-0.8316137
-1.3573029	SCONJ NOUN ADJ	-0.6153291
-1.1905723	VERB NOUN ADJ	-1.2838365
-1.5055932	PART NOUN ADJ	-0.6893498
-1.2349807	CCONJ NOUN ADJ	-0.93159735
-1.1766756	ADV NOUN ADJ	-0.51526064
-1.3572274	AUX NOUN ADJ	-0.534131
-1.2422127	PRON NOUN ADJ	-0.98783284
-1.2529473	INTJ NOUN ADJ	-0.59508884
-1.3699398	X NOUN ADJ	-0.3895027
-1.6159664	SYM NOUN ADJ	-0.2940469
-1.1372745	<s> ADP ADJ	-1.6559619
-1.0327765	NUM ADP ADJ	-1.0150625
-1.177074	NOUN ADP ADJ	-2.7333033
-1.1370864	ADP ADP ADJ	-1.395
-1.0856755	PUNCT ADP ADJ	-1.6816719
-0.96056026	DET ADP ADJ	-0.96908915
-1.1127446	ADJ ADP ADJ	-1.670637
-1.0821874	PROPN ADP ADJ	-1.6518914
-0.99051106	SCONJ ADP ADJ	-1.0683688
-1.2131323	VERB ADP ADJ	-2.3679144
-0.9532865	PART ADP ADJ	-0.8319818
-1.0990183	CCONJ ADP ADJ	-1.233016
-1.1029335	ADV ADP ADJ	-1.6249641
-1.0646758	AUX ADP ADJ	-1.0704023
-1.0108793	PRON ADP ADJ	-1.2961905
-1.1411914	INTJ ADP ADJ	-0.29209718
-1.2065587	X ADP ADJ	-0.3880534
-1.4077253	<s> PUNCT ADJ	-1.0704023
-1.2041347	NUM PUNCT ADJ	-1.2950722
-1.2261823	NOUN PUNCT ADJ	-2.2223334
-1.0910952	ADP PUNCT ADJ	-1.4861044
-1.260428	PUNCT PUNCT ADJ	-1.3063302
-1.1424206	DET PUNCT ADJ	-1.7236148
-1.1761043	ADJ PUNCT ADJ	-1.9084677
-1.2174962	PROPN PUNCT ADJ	-1.790729
-1.2182149	SCONJ PUNCT ADJ	-0.7210428
-1.1976988	VERB PUNCT ADJ	-1.5637383
-1.2274072	PART PUNCT ADJ	-0.9913605
-1.1999317	CCONJ PUNCT ADJ	-1.0094073
-1.205827	ADV PUNCT ADJ	-1.5246265
-1.1724042	AUX PUNCT ADJ	-0.856876
-1.2396607	PRON PUNCT ADJ	-1.0544088
-1.3996223	INTJ PUNCT ADJ	-0.63762414
-1.5579263	X PUNCT ADJ	-0.56961834
-0.7313491	<s> DET ADJ	-2.2859385
-1.0094734	NUM DET ADJ	-0.635313
-1.0237939	NOUN DET ADJ	-1.5436709
-1.1005559	ADP DET ADJ	-2.950076
-1.0502782	PUNCT DET ADJ	-2.3292627
-0.9387766	DET DET ADJ	-1.5863892
-0.91320324	ADJ DET ADJ	-1.0099684
-0.96678674	PROPN DET ADJ	-1.113917
-1.0069975	SCONJ DET ADJ	-1.9735999
-1.0800179	VERB DET ADJ	-2.7121422
-0.86291003	PART DET ADJ	-1.4406943
-0.9873273	CCONJ DET ADJ	-1.9711457
-1.0441716	ADV DET ADJ	-1.940838
-0.9993346	AUX DET ADJ	-2.1718392
-0.95500046	PRON DET ADJ	-1.285719
-1.1474934	INTJ DET ADJ	-0.59425044
-1.0700452	X DET ADJ	-0.5341815
-1.0650556	<s> ADJ ADJ	-1.661536
-0.89609003	NUM ADJ ADJ	-1.3936502
-1.1145655	NOUN ADJ ADJ	-1.211
-1.1045312	ADP ADJ ADJ	-2.144242
-1.038403	PUNCT ADJ ADJ	-1.7872585
-1.1094822	DET ADJ ADJ	-2.3425086
-0.9862724	ADJ ADJ ADJ	-2.086752
-0.9507454	PROPN ADJ ADJ	-1.1660218
-0.9787133	SCONJ ADJ ADJ	-1.3111981
-1.1069039	VERB ADJ ADJ	-1.8335221
-1.03038	PART ADJ ADJ	-1.4728816
-1.0038145	CCONJ ADJ ADJ	-1.76136
-1.1007288	ADV ADJ ADJ	-1.5410347
-1.0583835	AUX ADJ ADJ	-1.0922308
-1.0116	PRON ADJ ADJ	-1.602655
-0.9508894	INTJ ADJ ADJ	-0.3880534
-0.96630085	X ADJ ADJ	-0.3478817
-0.87486255	SYM ADJ ADJ	-0.5604074
-2.515606	<s> PROPN ADJ	-0.8366697
-1.1654532	NUM PROPN ADJ	-0.7288135
-1.2856269	NOUN PROPN ADJ	-0.7228373
-1.3052609	ADP PROPN ADJ	-1.2823253
-1.2568642	PUNCT PROPN ADJ	-0.9772739
-1.3601849	DET PROPN ADJ	-1.3485501
-1.2445492	ADJ PROPN ADJ	-0.88934493
-1.2873784	PROPN PROPN ADJ	-1.2530104
-1.5932473	SCONJ PROPN ADJ	-0.5921734
-1.2957344	VERB PROPN ADJ	-0.8790815
-1.4506228	PART PROPN ADJ	-0.5233393
-1.289	CCONJ PROPN ADJ	-0.66327167
-1.722048	ADV PROPN ADJ	-0.3880534
-1.2094126	AUX PROPN ADJ	-0.40851098
-1.4167695	PRON PROPN ADJ	-0.48618442
-1.4452044	X PROPN ADJ	-0.2960054
-1.4647968	SYM PROPN ADJ	-0.39903423
-1.1470388	<s> SCONJ ADJ	-1.2264628
-1.2681385	NUM SCONJ ADJ	-0.36973915
-1.1187495	NOUN SCONJ ADJ	-1.3567065
-1.1825473	ADP SCONJ ADJ	-0.6321573
-1.028849	PUNCT SCONJ ADJ	-1.1405388
-1.3451519	DET SCONJ ADJ	-0.28822386
-1.108264	ADJ SCONJ ADJ	-1.1243193
-1.3761088	PROPN SCONJ ADJ	-0.6420618
-1.1284343	SCONJ SCONJ ADJ	-0.82086647
-1.1030905	VERB SCONJ ADJ	-1.5919957
-1.2553511	PART SCONJ ADJ	-0.28822386
-1.0366807	CCONJ SCONJ ADJ	-0.82203686
-1.0455296	ADV SCONJ ADJ	-0.81413525
-1.0370868	AUX SCONJ ADJ	-0.9381834
-1.1136186	PRON SCONJ ADJ	-0.6433259
-1.3682661	<s> VERB ADJ	-1.0996765
-1.0579343	NUM VERB ADJ	-0.8866252
-1.1930059	NOUN VERB ADJ	-2.0607655
-1.1599474	ADP VERB ADJ	-1.7250447
-1.1566308	PUNCT VERB ADJ	-1.7632284
-1.1525501	DET VERB ADJ	-1.8055208
-1.0803099	ADJ VERB ADJ	-0.9690002
-1.1773978	PROPN VERB ADJ	-1.6354034
-1.0677543	SCONJ VERB ADJ	-0.9041899
-1.0908628	VERB VERB ADJ	-1.2979277
-1.1591516	PART VERB ADJ	-2.1938272
-1.1740363	CCONJ VERB ADJ	-1.7535241
-1.168412	ADV VERB ADJ	-1.8131896
-1.1720614	AUX VERB ADJ	-2.2423775
-1.2002037	PRON VERB ADJ	-2.099116
-1.0448939	INTJ VERB ADJ	-0.4970103
-1.004009	X VERB ADJ	-0.59425044
-1.1315757	SYM VERB ADJ	-0.4672346
-1.5204507	<s> PART ADJ	-0.33721545
-1.2463486	NUM PART ADJ	-0.54583037
-1.0289322	NOUN PART ADJ	-1.7640201
-1.2152181	ADP PART ADJ	-0.2934119
-1.0329633	PUNCT PART ADJ	-0.7021974
-0.92494184	DET PART ADJ	-0.2975786
-1.087656	ADJ PART ADJ	-0.5233393
-0.9752846	PROPN PART ADJ	-1.9540535
-0.87713766	SCONJ PART ADJ	-0.6345341
-1.0939841	VERB PART ADJ	-1.3517044
-1.5119768	PART PART ADJ	-0.28822386
-1.0893836	CCONJ PART ADJ	-0.7762319
-0.96478593	ADV PART ADJ	-0.6955935
-1.084376	AUX PART ADJ	-1.5188525
-1.08353	PRON PART ADJ	-0.56961036
-0.7763252	X PART ADJ	-0.28822386
-1.5277402	<s> CCONJ ADJ	-0.8909335
-1.0541251	NUM CCONJ ADJ	-0.8046627
-1.1419847	NOUN CCONJ ADJ	-2.1958768
-1.1043391	ADP CCONJ ADJ	-0.90285814
-1.2104557	PUNCT CCONJ ADJ	-1.7075936
-1.0881362	DET CCONJ ADJ	-0.6802852
-1.0232188	ADJ CCONJ ADJ	-2.155488
-1.1308454	PROPN CCONJ ADJ	-1.5560528
-1.0576	VERB CCONJ ADJ	-1.1016865
-1.1987879	PART CCONJ ADJ	-0.45180592
-1.0406643	CCONJ CCONJ ADJ	-0.29405883
-1.0560157	ADV CCONJ ADJ	-0.7299836
-1.0244197	AUX CCONJ ADJ	-0.7304761
-1.0823505	PRON CCONJ ADJ	-0.50471485
-1.0465456	INTJ CCONJ ADJ	-0.28822386
-1.0857371	X CCONJ ADJ	-0.28822386
-1.3762767	<s> ADV ADJ	-1.2797377
-0.9409177	NUM ADV ADJ	-0.8444364
-1.1931553	NOUN ADV ADJ	-1.4171336
-1.0976924	ADP ADV ADJ	-1.4363039
-1.1441863	PUNCT ADV ADJ	-1.531261
-1.0135466	DET ADV ADJ	-2.0029664
-1.0905092	ADJ ADV ADJ	-0.9483314
-1.1326145	PROPN ADV ADJ	-0.7846241
-1.0524534	SCONJ ADV ADJ	-0.7590514
-1.1479092	VERB ADV ADJ	-2.1089973
-1.0259671	PART ADV ADJ	-1.4240347
-1.1673841	CCONJ ADV ADJ	-1.4617543
-1.1243217	ADV ADV ADJ	-1.6486963
-1.035734	AUX ADV ADJ	-2.0324717
-1.0316095	PRON ADV ADJ	-1.24961
-1.2432201	INTJ ADV ADJ	-0.2960054
-0.6790745	X ADV ADJ	-0.36973915
-0.79177177	SYM ADV ADJ	-0.2999491
-1.7624342	<s> AUX ADJ	-0.6138559
-1.1087923	NUM AUX ADJ	-0.51526064
-1.1317992	NOUN AUX ADJ	-1.9720659
-1.3914452	ADP AUX ADJ	-0.29488516
-1.1931764	PUNCT AUX ADJ	-1.1590006
-1.051809	DET AUX ADJ	-1.1307715
-1.0686837	ADJ AUX ADJ	-0.76296115
-1.0682868	PROPN AUX ADJ	-1.496629
-1.0879571	VERB AUX ADJ	-0.82108957
-0.9986957	PART AUX ADJ	-0.38056207
-1.2870468	CCONJ AUX ADJ	-0.29322043
-1.0937976	ADV AUX ADJ	-0.7944468
-0.993527	AUX AUX ADJ	-0.5308817
-1.1222329	PRON AUX ADJ	-2.0238326
-1.7800314	<s> PRON ADJ	-1.2652929
-1.326809	NUM PRON ADJ	-0.28822386
-1.1346645	NOUN PRON ADJ	-0.7591124
-1.1690139	ADP PRON ADJ	-2.1979232
-1.1364709	PUNCT PRON ADJ	-1.2156063
-1.2130617	DET PRON ADJ	-0.8776354
-1.193511	ADJ PRON ADJ	-0.6890834
-1.2726177	PROPN PRON ADJ	-0.48951507
-1.0755749	SCONJ PRON ADJ	-1.1453731
-1.1423094	VERB PRON ADJ	-2.043467
-1.1510586	PART PRON ADJ	-0.5508796
-1.0919422	CCONJ PRON ADJ	-1.3476646
-1.1017692	ADV PRON ADJ	-0.8526691
-1.0788522	AUX PRON ADJ	-1.1964226
-1.2002028	PRON PRON ADJ	-0.7413658
-1.2563608	INTJ PRON ADJ	-0.2960054
-1.0877001	X PRON ADJ	-0.28822386
-1.0066401	SYM PRON ADJ	-0.5341815
-1.9488956	<s> INTJ ADJ	-0.3365755
-0.85809743	NUM INTJ ADJ	-0.28822386
-1.4138194	NOUN INTJ ADJ	-0.54583037
-1.2601227	PUNCT INTJ ADJ	-0.33527648
-0.8158545	DET INTJ ADJ	-0.2999491
-1.3002173	ADJ INTJ ADJ	-0.28822386
-1.2481194	PROPN INTJ ADJ	-0.28822386
-1.3382828	VERB INTJ ADJ	-0.2960054
-1.3821108	CCONJ INTJ ADJ	-0.28822386
-1.0407665	ADV INTJ ADJ	-0.2975786
-1.3498521	PRON INTJ ADJ	-0.28822386
-1.2823544	INTJ INTJ ADJ	-0.29212093
-1.7661501	<s> X ADJ	-0.4672346
-0.9855403	NOUN X ADJ	-0.69728327
-1.2416983	ADP X ADJ	-0.41705966
-1.2119244	PUNCT X ADJ	-0.3998696
-0.88992476	DET X ADJ	-0.36973915
-1.0236562	ADJ X ADJ	-0.29287603
-1.182482	PROPN X ADJ	-0.2911434
-1.2923485	VERB X ADJ	-0.29212093
-0.87838095	ADV X ADJ	-0.29055792
-1.0772603	AUX X ADJ	-0.28822386
-0.9018069	INTJ X ADJ	-0.51396966
-0.9558686	X X ADJ	-0.5330161
-1.9519575	<s> SYM ADJ	-0.28822386
-0.7443223	NOUN SYM ADJ	-0.7688509
-1.3607326	ADP SYM ADJ	-0.40070653
-1.002589	PUNCT SYM ADJ	-0.34667644
-1.0692831	DET SYM ADJ	-0.41705966
-0.49756652	ADJ SYM ADJ	-0.6600898
-0.89066684	PROPN SYM ADJ	-0.4662593
-1.2046351	VERB SYM ADJ	-0.29523528
-1.363478	CCONJ SYM ADJ	-0.28822386
-1.2785759	<s> NUM PROPN	-0.8786507
-0.9709381	NUM NUM PROPN	-0.96007806
-1.1031682	NOUN NUM PROPN	-0.51084566
-1.1592712	ADP NUM PROPN	-1.3178072
-1.0454865	PUNCT NUM PROPN	-1.192418
-1.0105546	DET NUM PROPN	-1.2477871
-1.0354196	ADJ NUM PROPN	-0.5824696
-1.0672388	PROPN NUM PROPN	-1.0760486
-1.2525479	SCONJ NUM PROPN	-0.64477736
-1.1769044	VERB NUM PROPN	-0.8524214
-1.2659438	PART NUM PROPN	-0.49325773
-1.1988789	CCONJ NUM PROPN	-0.5771309
-1.0875192	ADV NUM PROPN	-0.7064684
-1.2703443	AUX NUM PROPN	-0.45663017
-1.119331	PRON NUM PROPN	-0.41011274
-1.281283	SYM NUM PROPN	-0.6037884
-1.7626055	<s> NOUN PROPN	-1.0458257
-1.1847621	NUM NOUN PROPN	-1.0169737
-1.2108756	NOUN NOUN PROPN	-1.722765
-1.19127	ADP NOUN PROPN	-1.3471216
-1.2616377	PUNCT NOUN PROPN	-1.5439163
-1.1837627	DET NOUN PROPN	-1.6550558
-1.2326822	ADJ NOUN PROPN	-1.8768127
-1.1787224	PROPN NOUN PROPN	-1.6544656
-1.4382887	SCONJ NOUN PROPN	-0.4178338
-1.2446494	VERB NOUN PROPN	-1.1264158
-1.5048548	PART NOUN PROPN	-0.99570733
-1.234665	CCONJ NOUN PROPN	-1.2514899
-1.2556765	ADV NOUN PROPN	-0.61627334
-1.2886865	AUX NOUN PROPN	-0.3880534
-1.320925	PRON NOUN PROPN	-1.1774454
-1.2523707	INTJ NOUN PROPN	-0.2940469
-1.2658232	X NOUN PROPN	-0.36394748
-1.437607	SYM NOUN PROPN	-0.5356307
-0.7414323	<s> ADP PROPN	-1.9621443
-1.0020559	NUM ADP PROPN	-1.417953
-1.152283	NOUN ADP PROPN	-2.9878783
-0.9743146	ADP ADP PROPN	-1.4418669
-1.08548	PUNCT ADP PROPN	-1.8898798
-0.9905345	DET ADP PROPN	-1.0883234
-1.0847161	ADJ ADP PROPN	-1.7688804
-1.0310181	PROPN ADP PROPN	-2.5809653
-0.9903265	SCONJ ADP PROPN	-1.0418768
-1.1622672	VERB ADP PROPN	-2.5603895
-0.9530466	PART ADP PROPN	-0.7823204
-1.0987241	CCONJ ADP PROPN	-1.127157
-1.0748231	ADV ADP PROPN	-1.7793772
-1.0171745	AUX ADP PROPN	-1.103269
-0.9426863	PRON ADP PROPN	-1.2235966
-0.85692525	INTJ ADP PROPN	-0.524503
-0.9288376	X ADP PROPN	-0.29055792
-0.93296355	<s> PUNCT PROPN	-1.3951664
-1.203923	NUM PUNCT PROPN	-1.5790092
-1.2260059	NOUN PUNCT PROPN	-2.6192462
-1.1530011	ADP PUNCT PROPN	-1.4347546
-1.1759174	PUNCT PUNCT PROPN	-1.7894866
-1.1422069	DET PUNCT PROPN	-1.4737799
-1.1759174	ADJ PUNCT PROPN	-1.3368376
-1.2173197	PROPN PUNCT PROPN	-2.7123656
-1.1659123	SCONJ PUNCT PROPN	-0.7082041
-1.2518466	VERB PUNCT PROPN	-1.562459
-1.3540877	PART PUNCT PROPN	-0.8650733
-1.0424395	CCONJ PUNCT PROPN	-1.0383526
-1.1793103	ADV PUNCT PROPN	-1.6350458
-1.0844655	AUX PUNCT PROPN	-0.7896142
-1.2807379	PRON PUNCT PROPN	-1.0129697
-1.2485093	INTJ PUNCT PROPN	-0.68987656
-1.0307646	X PUNCT PROPN	-0.76553106
-0.92145675	<s> DET PROPN	-2.0655823
-1.1359863	NUM DET PROPN	-0.4340418
-1.0494184	NOUN DET PROPN	-1.4160922
-1.0978259	ADP DET PROPN	-2.7665086
-1.0477134	PUNCT DET PROPN	-2.1182516
-0.9994589	DET DET PROPN	-1.0827061
-1.1137295	ADJ DET PROPN	-0.3898003
-0.8727865	PROPN DET PROPN	-1.1578264
-1.0044959	SCONJ DET PROPN	-1.6664875
-1.0774374	VERB DET PROPN	-2.1070921
-0.89891005	PART DET PROPN	-0.76306605
-1.0163434	CCONJ DET PROPN	-1.7348502
-1.0135518	ADV DET PROPN	-1.4017049
-0.9641666	AUX DET PROPN	-1.2747866
-1.0249349	PRON DET PROPN	-0.871748
-1.2030252	INTJ DET PROPN	-0.2999491
-0.99072677	X DET PROPN	-0.28822386
-0.94583577	SYM DET PROPN	-0.28822386
-1.0048484	<s> ADJ PROPN	-1.4520345
-0.92910486	NUM ADJ PROPN	-0.7992846
-1.1755373	NOUN ADJ PROPN	-0.9699535
-1.1043307	ADP ADJ PROPN	-1.6975954
-1.0641913	PUNCT ADJ PROPN	-1.510672
-1.1092759	DET ADJ PROPN	-1.9787867
-1.0644447	ADJ ADJ PROPN	-1.3552074
-0.9829813	PROPN ADJ PROPN	-0.95604044
-0.9785151	SCONJ ADJ PROPN	-0.76516384
-1.1328391	VERB ADJ PROPN	-1.2040695
-1.1917627	PART ADJ PROPN	-1.0527909
-1.1957735	CCONJ ADJ PROPN	-1.1235306
-1.1845592	ADV ADJ PROPN	-1.1307715
-1.183275	AUX ADJ PROPN	-0.63235235
-1.1158866	PRON ADJ PROPN	-0.9568944
-1.1849766	INTJ ADJ PROPN	-0.28822386
-1.4947102	X ADJ PROPN	-0.28822386
-0.99469244	SYM ADJ PROPN	-0.29055792
-0.37670887	<s> PROPN PROPN	-2.462984
-1.034485	NUM PROPN PROPN	-1.383007
-1.0671531	NOUN PROPN PROPN	-2.1867297
-1.1492274	ADP PROPN PROPN	-2.7207723
-1.1357675	PUNCT PROPN PROPN	-2.6979632
-1.0782444	DET PROPN PROPN	-2.651927
-1.0874203	ADJ PROPN PROPN	-1.9578614
-1.1737866	PROPN PROPN PROPN	-2.847143
-1.022172	SCONJ PROPN PROPN	-1.4994397
-1.1394026	VERB PROPN PROPN	-2.0324776
-0.9866471	PART PROPN PROPN	-1.7031012
-1.011271	CCONJ PROPN PROPN	-2.0019913
-0.99284804	ADV PROPN PROPN	-1.3183753
-0.9611804	AUX PROPN PROPN	-1.2382416
-0.95252	PRON PROPN PROPN	-1.2021366
-1.0287832	INTJ PROPN PROPN	-0.40153494
-1.047333	X PROPN PROPN	-0.6820564
-1.144136	SYM PROPN PROPN	-0.97091216
-0.24330282	SPACE PROPN PROPN	-0.28822386
-1.0385768	<s> SCONJ PROPN	-1.214516
-1.0108815	NUM SCONJ PROPN	-0.33025256
-1.028411	NOUN SCONJ PROPN	-1.388769
-0.95383614	ADP SCONJ PROPN	-0.80351526
-1.0566437	PUNCT SCONJ PROPN	-1.1811781
-1.1563959	DET SCONJ PROPN	-0.29287603
-1.0414679	ADJ SCONJ PROPN	-1.009529
-1.0650167	PROPN SCONJ PROPN	-0.76554286
-0.89581585	SCONJ SCONJ PROPN	-0.73038703
-1.0750818	VERB SCONJ PROPN	-1.762963
-1.2545956	PART SCONJ PROPN	-0.2960054
-1.1646029	CCONJ SCONJ PROPN	-0.8245816
-0.97729456	ADV SCONJ PROPN	-0.90213364
-0.9843825	AUX SCONJ PROPN	-0.7513569
-1.1130011	PRON SCONJ PROPN	-0.56095946
-1.2811124	<s> VERB PROPN	-1.1406866
-1.1260458	NUM VERB PROPN	-0.5526359
-1.2175285	NOUN VERB PROPN	-1.7160048
-1.1296029	ADP VERB PROPN	-1.3501295
-1.1564455	PUNCT VERB PROPN	-1.7677205
-1.1523597	DET VERB PROPN	-1.3624761
-1.0801146	ADJ VERB PROPN	-0.6503634
-1.1772125	PROPN VERB PROPN	-1.6284567
-1.1059484	SCONJ VERB PROPN	-0.5594814
-1.1809305	VERB VERB PROPN	-0.9215812
-1.186823	PART VERB PROPN	-1.7381908
-1.2085639	CCONJ VERB PROPN	-1.0901951
-1.1960833	ADV VERB PROPN	-1.4157366
-1.2295129	AUX VERB PROPN	-1.5468905
-1.200007	PRON VERB PROPN	-1.5828611
-1.1052551	INTJ VERB PROPN	-0.39023817
-1.0036669	X VERB PROPN	-0.28988975
-1.1937989	SYM VERB PROPN	-0.2911434
-2.6384232	<s> PART PROPN	-0.28822386
-1.164555	NUM PART PROPN	-0.2960054
-1.1354469	NOUN PART PROPN	-1.2067102
-1.5011158	PUNCT PART PROPN	-0.5202883
-1.007688	PROPN PART PROPN	-1.9644452
-1.6506864	SCONJ PART PROPN	-0.28822386
-1.495295	VERB PART PROPN	-0.43823949
-1.3148762	CCONJ PART PROPN	-0.54661125
-1.7872345	ADV PART PROPN	-0.2999491
-1.2952487	AUX PART PROPN	-0.46254095
-1.6604577	PRON PART PROPN	-0.28822386
-0.83831877	INTJ PART PROPN	-0.28822386
-1.056194	X PART PROPN	-0.28822386
-1.1608372	<s> CCONJ PROPN	-1.2570882
-1.1808124	NUM CCONJ PROPN	-0.7711801
-1.169356	NOUN CCONJ PROPN	-1.476683
-1.1636168	ADP CCONJ PROPN	-0.9127749
-1.2101684	PUNCT CCONJ PROPN	-1.6167494
-1.0875506	DET CCONJ PROPN	-0.29322043
-1.1130062	ADJ CCONJ PROPN	-0.8873671
-1.0214015	PROPN CCONJ PROPN	-2.3072402
-0.99191296	SCONJ CCONJ PROPN	-0.71808964
-1.1544068	VERB CCONJ PROPN	-0.6393383
-1.4215815	PART CCONJ PROPN	-0.71027267
-1.0399659	CCONJ CCONJ PROPN	-0.2940469
-1.2908168	ADV CCONJ PROPN	-0.4827035
-1.268932	AUX CCONJ PROPN	-0.28822386
-0.9835762	PRON CCONJ PROPN	-0.49642956
-1.3081632	X CCONJ PROPN	-0.28822386
-1.5962945	<s> ADV PROPN	-1.1750033
-1.1632	NUM ADV PROPN	-0.65228575
-1.2603896	NOUN ADV PROPN	-1.0748906
-1.2965908	ADP ADV PROPN	-0.811409
-1.233085	PUNCT ADV PROPN	-1.226921
-1.3981503	DET ADV PROPN	-0.39633292
-1.3695287	ADJ ADV PROPN	-0.38185686
-1.2115402	PROPN ADV PROPN	-0.5784613
-1.299069	SCONJ ADV PROPN	-0.5937426
-1.2777959	VERB ADV PROPN	-1.1193954
-1.0989566	PART ADV PROPN	-0.5702653
-1.2621651	CCONJ ADV PROPN	-0.87124574
-1.3335803	ADV ADV PROPN	-0.6904105
-1.3152941	AUX ADV PROPN	-0.7140325
-1.590445	PRON ADV PROPN	-0.29640535
-1.4314225	INTJ ADV PROPN	-0.28822386
-1.1144805	<s> AUX PROPN	-0.8053286
-1.4780476	NUM AUX PROPN	-0.4991941
-1.2562327	NOUN AUX PROPN	-1.1667367
-1.4482158	ADP AUX PROPN	-0.2960054
-1.1928605	PUNCT AUX PROPN	-0.8364636
-1.4256951	DET AUX PROPN	-0.8348076
-1.3426806	ADJ AUX PROPN	-0.38378382
-1.2201141	PROPN AUX PROPN	-0.8996493
-1.2304779	VERB AUX PROPN	-0.62421364
-1.5379194	CCONJ AUX PROPN	-0.44479173
-1.1672001	ADV AUX PROPN	-0.83325994
-1.5399213	AUX AUX PROPN	-0.28822386
-1.246856	PRON AUX PROPN	-1.0753406
-1.2763486	INTJ AUX PROPN	-0.28822386
-2.3608458	<s> PRON PROPN	-0.86863506
-1.5116116	NUM PRON PROPN	-0.28822386
-1.3356677	NOUN PRON PROPN	-0.4607789
-1.1715367	ADP PRON PROPN	-1.407064
-1.2435704	PUNCT PRON PROPN	-0.88525045
-1.5960534	DET PRON PROPN	-0.2936072
-1.282912	ADJ PRON PROPN	-0.29209718
-1.0953214	PROPN PRON PROPN	-0.5706862
-1.2386361	SCONJ PRON PROPN	-0.4849634
-1.1982675	VERB PRON PROPN	-1.2374815
-1.3996292	PART PRON PROPN	-0.29209718
-1.2323202	CCONJ PRON PROPN	-0.70935
-1.2803671	ADV PRON PROPN	-0.45167264
-1.219132	AUX PRON PROPN	-0.6478522
-1.3935994	PRON PRON PROPN	-0.2975786
-1.3285478	INTJ PRON PROPN	-0.41705966
-1.0135717	SYM PRON PROPN	-0.28822386
-1.3017862	<s> INTJ PROPN	-0.6225553
-1.0210749	NOUN INTJ PROPN	-0.2921051
-0.87899923	ADP INTJ PROPN	-0.29112563
-1.2008924	PUNCT INTJ PROPN	-0.46898156
-1.1147656	ADJ INTJ PROPN	-0.28822386
-0.93797493	PROPN INTJ PROPN	-0.4662593
-1.4084442	VERB INTJ PROPN	-0.28822386
-1.4021791	CCONJ INTJ PROPN	-0.28822386
-1.0492822	ADV INTJ PROPN	-0.2940469
-1.1839699	PRON INTJ PROPN	-0.2999491
-1.4731977	INTJ INTJ PROPN	-0.28822386
-1.5166591	<s> X PROPN	-0.33916938
-0.9513387	NUM X PROPN	-0.28822386
-1.008869	NOUN X PROPN	-0.46681637
-0.9562991	ADP X PROPN	-0.39903423
-0.86352146	PUNCT X PROPN	-0.7531197
-0.86494064	DET X PROPN	-0.2960054
-1.0570338	ADJ X PROPN	-0.2999491
-0.7281733	PROPN X PROPN	-0.7761226
-0.23142597	SCONJ X PROPN	-0.28822386
-1.2355591	VERB X PROPN	-0.29287603
-0.8774321	PART X PROPN	-0.28822386
-1.0866876	CCONJ X PROPN	-0.28822386
-1.1478127	ADV X PROPN	-0.28822386
-1.0204659	AUX X PROPN	-0.28822386
-0.9209993	PRON X PROPN	-0.28822386
-0.9856918	X X PROPN	-0.49266118
-1.1423495	<s> SYM PROPN	-0.29321027
-1.061012	NUM SYM PROPN	-0.6329806
-0.71544564	NOUN SYM PROPN	-0.66736704
-0.5006974	ADP SYM PROPN	-1.0226917
-0.5548697	PUNCT SYM PROPN	-0.90213364
-0.5026681	DET SYM PROPN	-0.6730968
-0.64445263	ADJ SYM PROPN	-0.41575676
-0.48503083	PROPN SYM PROPN	-1.3158871
-0.730861	SCONJ SYM PROPN	-0.28822386
-0.57207483	VERB SYM PROPN	-0.61389405
-0.8458391	PART SYM PROPN	-0.28822386
-0.82341856	CCONJ SYM PROPN	-0.4657724
-0.65444154	ADV SYM PROPN	-0.29287603
-0.6634203	AUX SYM PROPN	-0.3880534
-0.7834884	PRON SYM PROPN	-0.2960054
-0.59433436	INTJ SYM PROPN	-0.28822386
-0.689253	X SYM PROPN	-0.28822386
-0.105235994	PROPN SPACE PROPN	-0.28822386
-2.5397785	<s> NUM SCONJ	-0.37441653
-1.9317335	NUM NUM SCONJ	-0.2999491
-1.7689413	NOUN NUM SCONJ	-0.28822386
-1.2756283	ADP NUM SCONJ	-0.53758866
-1.4639115	PUNCT NUM SCONJ	-0.8220368
-1.7581263	DET NUM SCONJ	-0.28822386
-1.6150566	ADJ NUM SCONJ	-0.28822386
-1.4170367	PROPN NUM SCONJ	-0.55095327
-1.2734495	SCONJ NUM SCONJ	-0.6890834
-1.3157958	VERB NUM SCONJ	-0.51526064
-1.7527037	CCONJ NUM SCONJ	-0.28822386
-1.4577613	ADV NUM SCONJ	-0.76924217
-1.7591403	SYM NUM SCONJ	-0.2940469
-2.738528	<s> NOUN SCONJ	-0.53612685
-1.2137058	NUM NOUN SCONJ	-0.9864763
-1.3228581	NOUN NOUN SCONJ	-1.3687695
-1.2521898	ADP NOUN SCONJ	-1.413715
-1.3795457	PUNCT NOUN SCONJ	-0.6704155
-1.240859	DET NOUN SCONJ	-1.9426476
-1.2897787	ADJ NOUN SCONJ	-1.7729384
-1.2982717	PROPN NOUN SCONJ	-0.8822496
-1.446083	SCONJ NOUN SCONJ	-0.3365755
-1.2775943	VERB NOUN SCONJ	-1.3590677
-1.3346297	PART NOUN SCONJ	-0.90880823
-1.6023301	CCONJ NOUN SCONJ	-0.750023
-1.4167219	ADV NOUN SCONJ	-0.49700552
-1.5468627	AUX NOUN SCONJ	-0.6902496
-1.2835246	PRON NOUN SCONJ	-1.1863477
-1.5721108	X NOUN SCONJ	-0.28822386
-1.5796895	SYM NOUN SCONJ	-0.2940469
-2.7551286	<s> ADP SCONJ	-0.40499997
-1.2990485	NOUN ADP SCONJ	-0.86550844
-1.5959272	ADP ADP SCONJ	-0.40921822
-1.323115	PUNCT ADP SCONJ	-0.70642734
-1.5625727	DET ADP SCONJ	-0.29055792
-1.6001434	ADJ ADP SCONJ	-0.688108
-1.6006294	PROPN ADP SCONJ	-0.33544672
-1.9280753	SCONJ ADP SCONJ	-0.28822386
-1.2467017	VERB ADP SCONJ	-1.3492072
-1.5717695	PART ADP SCONJ	-0.29287603
-1.5246013	CCONJ ADP SCONJ	-0.3880534
-1.2863369	ADV ADP SCONJ	-0.58026457
-1.6526479	AUX ADP SCONJ	-0.4839906
-1.7147853	PRON ADP SCONJ	-0.5406955
-0.9903634	SYM ADP SCONJ	-0.28822386
-1.55848	<s> PUNCT SCONJ	-0.9355574
-1.2343259	NUM PUNCT SCONJ	-0.7541276
-1.2511936	NOUN PUNCT SCONJ	-1.8759671
-1.3645066	ADP PUNCT SCONJ	-0.60336334
-1.3654565	PUNCT PUNCT SCONJ	-1.0021974
-1.2482481	DET PUNCT SCONJ	-0.57196164
-1.2606549	ADJ PUNCT SCONJ	-1.0959764
-1.3268712	PROPN PUNCT SCONJ	-1.3658774
-1.2776898	SCONJ PUNCT SCONJ	-0.6411673
-1.2522701	VERB PUNCT SCONJ	-1.182568
-1.4361625	PART PUNCT SCONJ	-0.2921051
-1.3497373	CCONJ PUNCT SCONJ	-0.7333915
-1.2640479	ADV PUNCT SCONJ	-1.2259635
-1.350414	AUX PUNCT SCONJ	-0.38659114
-1.3271685	PRON PUNCT SCONJ	-0.8057033
-1.1898648	INTJ PUNCT SCONJ	-0.5256351
-1.3344274	X PUNCT SCONJ	-0.29209718
-4.216311	<s> DET SCONJ	-0.28822386
-1.9210552	NOUN DET SCONJ	-0.2999491
-1.461094	ADP DET SCONJ	-0.5934205
-1.7468836	PUNCT DET SCONJ	-0.29503104
-2.0076945	DET DET SCONJ	-0.28822386
-2.0557833	SCONJ DET SCONJ	-0.28822386
-1.6867243	VERB DET SCONJ	-0.4079974
-2.0856652	ADV DET SCONJ	-0.28822386
-1.975892	AUX DET SCONJ	-0.28822386
-1.9397866	PRON DET SCONJ	-0.28822386
-1.563328	<s> ADJ SCONJ	-1.1241866
-1.6834139	NUM ADJ SCONJ	-0.2940469
-1.1174926	NOUN ADJ SCONJ	-1.0496995
-1.135135	ADP ADJ SCONJ	-1.4576888
-1.1911283	PUNCT ADJ SCONJ	-1.0722808
-1.2740854	DET ADJ SCONJ	-0.82022846
-1.2881125	ADJ ADJ SCONJ	-0.42716908
-1.260513	PROPN ADJ SCONJ	-0.59243983
-1.1113979	SCONJ ADJ SCONJ	-0.9032296
-1.1356584	VERB ADJ SCONJ	-1.6204027
-1.1070173	PART ADJ SCONJ	-0.8891443
-1.1540877	CCONJ ADJ SCONJ	-0.9724609
-1.1575978	ADV ADJ SCONJ	-1.5191938
-1.1415892	AUX ADJ SCONJ	-1.4401304
-1.2075279	PRON ADJ SCONJ	-0.93321687
-1.3947762	INTJ ADJ SCONJ	-0.28822386
-1.3208213	X ADJ SCONJ	-0.28822386
-3.4200943	<s> PROPN SCONJ	-0.29322043
-1.7889079	NUM PROPN SCONJ	-0.3880534
-1.629513	NOUN PROPN SCONJ	-0.4827035
-1.3848876	ADP PROPN SCONJ	-1.294372
-1.8939012	PUNCT PROPN SCONJ	-0.29289028
-1.843761	DET PROPN SCONJ	-0.6745511
-1.2831235	ADJ PROPN SCONJ	-0.5944419
-1.3198506	PROPN PROPN SCONJ	-1.1498282
-1.921507	SCONJ PROPN SCONJ	-0.28822386
-1.3339899	VERB PROPN SCONJ	-0.7698394
-1.504682	PART PROPN SCONJ	-0.28822386
-1.7168255	CCONJ PROPN SCONJ	-0.40706486
-1.9091741	ADV PROPN SCONJ	-0.28822386
-1.8387668	PRON PROPN SCONJ	-0.28822386
-1.5316001	INTJ PROPN SCONJ	-0.28822386
-1.5939193	X PROPN SCONJ	-0.28822386
-1.4655359	SYM PROPN SCONJ	-0.43901834
-2.4406593	<s> SCONJ SCONJ	-0.48618442
-1.5039811	NUM SCONJ SCONJ	-0.28822386
-1.1223783	NOUN SCONJ SCONJ	-1.1196365
-1.5680591	ADP SCONJ SCONJ	-0.5470022
-1.1958352	PUNCT SCONJ SCONJ	-0.98465216
-1.3629397	DET SCONJ SCONJ	-0.28822386
-1.3473083	ADJ SCONJ SCONJ	-0.54337406
-1.2839484	PROPN SCONJ SCONJ	-0.61174494
-1.6761012	SCONJ SCONJ SCONJ	-0.28822386
-1.1685227	VERB SCONJ SCONJ	-1.1866136
-1.5476991	CCONJ SCONJ SCONJ	-0.29055792
-1.2909803	ADV SCONJ SCONJ	-0.46869287
-1.3599478	AUX SCONJ SCONJ	-0.37207156
-1.3639914	PRON SCONJ SCONJ	-0.57164395
-1.817777	<s> VERB SCONJ	-0.7634124
-1.258109	NUM VERB SCONJ	-0.507943
-1.1952817	NOUN VERB SCONJ	-1.9215155
-1.1625787	ADP VERB SCONJ	-1.015922
-1.213441	PUNCT VERB SCONJ	-1.6445508
-1.1853321	DET VERB SCONJ	-1.2164384
-1.1455647	ADJ VERB SCONJ	-0.79462755
-1.1798073	PROPN VERB SCONJ	-1.8845092
-1.31195	SCONJ VERB SCONJ	-0.41575676
-1.2191913	VERB VERB SCONJ	-0.8062655
-1.2519672	PART VERB SCONJ	-1.7073106
-1.2501594	CCONJ VERB SCONJ	-1.3596108
-1.1990232	ADV VERB SCONJ	-1.666935
-1.1746212	AUX VERB SCONJ	-1.9040117
-1.2027636	PRON VERB SCONJ	-1.8918626
-1.5702373	INTJ VERB SCONJ	-0.41510677
-1.27333	X VERB SCONJ	-0.2940469
-1.6512309	<s> PART SCONJ	-0.54199845
-1.5403312	NOUN PART SCONJ	-0.5921734
-1.4772661	ADP PART SCONJ	-0.2999491
-1.3314261	PUNCT PART SCONJ	-0.63890845
-1.6097186	ADJ PART SCONJ	-0.28822386
-1.8627443	PROPN PART SCONJ	-0.28822386
-1.6219014	VERB PART SCONJ	-0.40236494
-1.581269	CCONJ PART SCONJ	-0.29405883
-1.675318	ADV PART SCONJ	-0.2999491
-1.3805187	AUX PART SCONJ	-0.52057195
-1.709146	PRON PART SCONJ	-0.28822386
-1.3434851	<s> CCONJ SCONJ	-1.1048945
-1.6892579	NUM CCONJ SCONJ	-0.29016802
-1.3064907	NOUN CCONJ SCONJ	-1.1417224
-1.0561454	ADP CCONJ SCONJ	-0.59137523
-1.2141969	PUNCT CCONJ SCONJ	-1.4318488
-1.5375108	DET CCONJ SCONJ	-0.28822386
-1.5360937	ADJ CCONJ SCONJ	-0.73032176
-1.4386302	PROPN CCONJ SCONJ	-0.58510894
-1.3366433	VERB CCONJ SCONJ	-0.7078636
-1.4416763	PART CCONJ SCONJ	-0.28822386
-1.3118954	CCONJ CCONJ SCONJ	-0.28822386
-1.365894	ADV CCONJ SCONJ	-0.51395786
-1.4897022	AUX CCONJ SCONJ	-0.28822386
-1.535578	PRON CCONJ SCONJ	-0.59259206
-1.0553164	INTJ CCONJ SCONJ	-0.2999491
-1.5149347	<s> ADV SCONJ	-1.343196
-1.6881012	NUM ADV SCONJ	-0.28822386
-1.2316227	NOUN ADV SCONJ	-1.2481749
-1.4828058	ADP ADV SCONJ	-0.41770467
-1.177885	PUNCT ADV SCONJ	-1.3540943
-1.4897768	DET ADV SCONJ	-0.36396044
-1.2627656	ADJ ADV SCONJ	-0.5706862
-1.3579409	PROPN ADV SCONJ	-0.5630114
-1.243903	SCONJ ADV SCONJ	-0.6903305
-1.1837833	VERB ADV SCONJ	-1.2030067
-1.2854673	PART ADV SCONJ	-0.59456384
-1.3196204	CCONJ ADV SCONJ	-0.85866666
-1.1904353	ADV ADV SCONJ	-0.99667513
-1.3803104	AUX ADV SCONJ	-0.6536503
-1.3478602	PRON ADV SCONJ	-0.7480108
-2.9409373	<s> AUX SCONJ	-0.28822386
-1.7010298	NUM AUX SCONJ	-0.29212093
-1.196723	NOUN AUX SCONJ	-1.3878927
-1.4791336	ADP AUX SCONJ	-0.28822386
-1.3450454	PUNCT AUX SCONJ	-0.60209984
-1.3704851	DET AUX SCONJ	-0.579298
-1.1192346	ADJ AUX SCONJ	-0.6904105
-1.356662	PROPN AUX SCONJ	-0.6578364
-1.1867437	VERB AUX SCONJ	-0.7888969
-1.7919323	CCONJ AUX SCONJ	-0.28822386
-1.2659869	ADV AUX SCONJ	-0.5656029
-1.3360865	PRON AUX SCONJ	-0.71023107
-3.0946882	<s> PRON SCONJ	-0.42821938
-1.9919353	NOUN PRON SCONJ	-0.2999491
-1.4146544	ADP PRON SCONJ	-0.9106792
-1.4070116	PUNCT PRON SCONJ	-0.37921628
-1.8378178	DET PRON SCONJ	-0.28822386
-1.8890129	PROPN PRON SCONJ	-0.29212093
-2.0017753	SCONJ PRON SCONJ	-0.28822386
-1.2437491	VERB PRON SCONJ	-1.34746
-1.7236346	CCONJ PRON SCONJ	-0.2911434
-1.6325355	ADV PRON SCONJ	-0.2911434
-1.1919504	AUX PRON SCONJ	-0.5655483
-1.6547483	PRON PRON SCONJ	-0.28822386
-2.0423791	<s> INTJ SCONJ	-0.47015005
-1.2055217	ADP INTJ SCONJ	-0.2999491
-1.7789606	PUNCT INTJ SCONJ	-0.28822386
-1.6117777	PROPN INTJ SCONJ	-0.28822386
-1.3218786	AUX INTJ SCONJ	-0.28822386
-1.796471	PUNCT X SCONJ	-0.2999491
-1.562964	PROPN X SCONJ	-0.28822386
-1.6433607	ADV X SCONJ	-0.28822386
-1.8044543	<s> NUM VERB	-0.40472397
-1.0691144	NUM NUM VERB	-0.53534764
-1.1450443	NOUN NUM VERB	-0.6181726
-1.1915638	ADP NUM VERB	-0.965308
-1.1423988	PUNCT NUM VERB	-0.69823796
-1.1259953	DET NUM VERB	-0.7158997
-1.3431976	ADJ NUM VERB	-0.45181388
-1.1645001	PROPN NUM VERB	-0.8058499
-1.2530868	SCONJ NUM VERB	-0.5376823
-1.25565	VERB NUM VERB	-0.6127955
-1.1594253	PART NUM VERB	-0.34448066
-1.1311506	CCONJ NUM VERB	-0.6019424
-1.1754358	ADV NUM VERB	-0.5815685
-1.1657089	AUX NUM VERB	-0.4271626
-1.1198924	PRON NUM VERB	-0.2960054
-1.2225279	SYM NUM VERB	-0.51299214
-0.8673202	<s> NOUN VERB	-1.785004
-1.1849369	NUM NOUN VERB	-1.6988282
-1.2110447	NOUN NOUN VERB	-2.2616403
-1.1651676	ADP NOUN VERB	-2.028593
-1.1455452	PUNCT NOUN VERB	-1.7662051
-1.1839416	DET NOUN VERB	-2.6587086
-1.20807	ADJ NOUN VERB	-2.4969945
-1.1541102	PROPN NOUN VERB	-1.8480916
-1.0152248	SCONJ NOUN VERB	-1.3377271
-1.1905723	VERB NOUN VERB	-1.7428391
-1.1512679	PART NOUN VERB	-1.5707767
-1.1089046	CCONJ NOUN VERB	-1.721842
-1.0796486	ADV NOUN VERB	-1.3168427
-1.0520408	AUX NOUN VERB	-0.9141861
-1.0911876	PRON NOUN VERB	-1.8617854
-1.0574967	INTJ NOUN VERB	-0.33995694
-1.1827495	X NOUN VERB	-0.43173397
-1.1905376	SYM NOUN VERB	-0.4110939
-1.4904728	<s> ADP VERB	-1.3151115
-1.1011806	NUM ADP VERB	-0.5610182
-1.203148	NOUN ADP VERB	-2.3163157
-1.1370864	ADP ADP VERB	-0.69788194
-1.0856755	PUNCT ADP VERB	-1.484647
-1.1844966	DET ADP VERB	-0.50773704
-1.1743686	ADJ ADP VERB	-1.5331959
-1.1399664	PROPN ADP VERB	-1.4183168
-1.1405122	SCONJ ADP VERB	-0.5950907
-1.2131323	VERB ADP VERB	-1.9643345
-1.2311815	PART ADP VERB	-0.4612101
-1.0990183	CCONJ ADP VERB	-0.8701613
-1.1327536	ADV ADP VERB	-1.4937456
-1.0174364	AUX ADP VERB	-0.828987
-1.0915302	PRON ADP VERB	-1.1645323
-1.1411914	INTJ ADP VERB	-0.28822386
-1.2711622	X ADP VERB	-0.28822386
-1.2960451	<s> PUNCT VERB	-1.1130507
-1.2340989	NUM PUNCT VERB	-1.422867
-1.2261823	NOUN PUNCT VERB	-2.5315132
-1.1532453	ADP PUNCT VERB	-1.24043
-1.1761043	PUNCT PUNCT VERB	-1.7093017
-1.1424206	DET PUNCT VERB	-0.96743524
-1.2024341	ADJ PUNCT VERB	-1.4594635
-1.2174962	PROPN PUNCT VERB	-2.2955139
-1.0396558	SCONJ PUNCT VERB	-0.635313
-1.1976988	VERB PUNCT VERB	-1.6756957
-0.9815086	PART PUNCT VERB	-1.1281935
-1.1999317	CCONJ PUNCT VERB	-0.8586663
-1.1794972	ADV PUNCT VERB	-1.8403836
-0.97951835	AUX PUNCT VERB	-1.1505356
-1.1349211	PRON PUNCT VERB	-1.1830137
-1.1372534	INTJ PUNCT VERB	-0.60227215
-1.128409	X PUNCT VERB	-0.723211
-1.457762	<s> DET VERB	-1.5803841
-0.8264515	NUM DET VERB	-0.52209204
-0.9973113	NOUN DET VERB	-2.1530015
-1.1265461	ADP DET VERB	-1.9224854
-1.0502782	PUNCT DET VERB	-2.0285175
-1.0021148	DET DET VERB	-0.8443874
-0.95613277	ADJ DET VERB	-0.5576367
-0.90344864	PROPN DET VERB	-1.2350824
-1.0069975	SCONJ DET VERB	-1.1694176
-1.1581757	VERB DET VERB	-1.5909945
-1.1062768	PART DET VERB	-0.5256597
-1.0195055	CCONJ DET VERB	-1.4319891
-1.0441716	ADV DET VERB	-0.9468666
-0.9993346	AUX DET VERB	-1.1921383
-0.9224938	PRON DET VERB	-1.1993476
-1.2130467	INTJ DET VERB	-0.2960054
-0.9975419	X DET VERB	-0.2975786
-1.6734549	<s> ADJ VERB	-0.84296703
-1.149009	NUM ADJ VERB	-0.5626824
-1.2099862	NOUN ADJ VERB	-0.5807536
-1.1323538	ADP ADJ VERB	-1.0458002
-1.1874789	PUNCT ADJ VERB	-0.8635682
-1.1668406	DET ADJ VERB	-1.2806886
-1.0369315	ADJ ADJ VERB	-0.80028886
-1.3233677	PROPN ADJ VERB	-0.34083366
-1.060453	SCONJ ADJ VERB	-0.37254527
-1.2224627	VERB ADJ VERB	-0.89724743
-1.1456656	PART ADJ VERB	-0.60325384
-1.1961025	CCONJ ADJ VERB	-0.7998948
-1.1549184	ADV ADJ VERB	-0.9292947
-1.2348974	AUX ADJ VERB	-0.7226811
-1.0784411	PRON ADJ VERB	-0.75846034
-1.1856642	INTJ ADJ VERB	-0.28822386
-1.3110743	X ADJ VERB	-0.2960054
-1.4247777	SYM ADJ VERB	-0.28822386
-0.89406	<s> PROPN VERB	-1.9625813
-1.0367552	NUM PROPN VERB	-0.745948
-1.1203451	NOUN PROPN VERB	-1.4317391
-1.1778247	ADP PROPN VERB	-1.9906083
-1.1381825	PUNCT PROPN VERB	-1.9447907
-1.1068498	DET PROPN VERB	-1.7173653
-1.1442164	ADJ PROPN VERB	-1.3090564
-1.1760335	PROPN PROPN VERB	-2.4869866
-1.0245981	SCONJ PROPN VERB	-1.3870957
-1.168008	VERB PROPN VERB	-1.1878026
-1.120236	PART PROPN VERB	-0.8671418
-1.1284529	CCONJ PROPN VERB	-1.4113636
-0.9952174	ADV PROPN VERB	-1.1553459
-1.0921041	AUX PROPN VERB	-0.97072256
-1.0227237	PRON PROPN VERB	-0.7923972
-0.87258834	INTJ PROPN VERB	-0.41859972
-1.2415761	X PROPN VERB	-0.29287603
-1.1486576	SYM PROPN VERB	-0.49410936
-1.3756056	<s> SCONJ VERB	-0.90481097
-1.2681385	NUM SCONJ VERB	-0.2960054
-1.1534864	NOUN SCONJ VERB	-1.1107929
-1.3669794	ADP SCONJ VERB	-0.3223537
-1.1190194	PUNCT SCONJ VERB	-1.0226173
-1.3451519	DET SCONJ VERB	-0.28822386
-1.108264	ADJ SCONJ VERB	-0.80523455
-1.1247699	PROPN SCONJ VERB	-0.59481144
-0.9969078	SCONJ SCONJ VERB	-0.32185283
-1.2363008	VERB SCONJ VERB	-1.1195273
-1.457028	PART SCONJ VERB	-0.28822386
-1.2471323	CCONJ SCONJ VERB	-0.42344147
-1.084001	ADV SCONJ VERB	-0.85880774
-1.0370868	AUX SCONJ VERB	-0.33328998
-1.1136186	PRON SCONJ VERB	-0.3488051
-1.7709954	<s> VERB VERB	-0.71025395
-1.3672835	NUM VERB VERB	-0.29503104
-1.2177138	NOUN VERB VERB	-1.4450647
-1.3072326	ADP VERB VERB	-0.8185705
-1.1828296	PUNCT VERB VERB	-1.1003904
-1.2150538	DET VERB VERB	-0.8483796
-1.3029127	ADJ VERB VERB	-0.52119195
-1.2612729	PROPN VERB VERB	-0.9891063
-1.4580411	SCONJ VERB VERB	-0.42798385
-1.2159739	VERB VERB VERB	-1.0170147
-1.1870329	PART VERB VERB	-1.5406805
-1.2088132	CCONJ VERB VERB	-1.0824938
-1.1962932	ADV VERB VERB	-1.153856
-1.2617282	AUX VERB VERB	-1.5681448
-1.228085	PRON VERB VERB	-1.4338202
-1.2605461	INTJ VERB VERB	-0.41608214
-1.4588711	X VERB VERB	-0.28822386
-1.3707198	SYM VERB VERB	-0.28822386
-0.21606208	<s> PART VERB	-1.3343455
-0.7090674	NUM PART VERB	-0.91019636
-0.9699767	NOUN PART VERB	-2.6447682
-0.7155551	ADP PART VERB	-1.4142227
-0.8395139	PUNCT PART VERB	-1.6885388
-0.540312	DET PART VERB	-0.73966587
-0.6621771	ADJ PART VERB	-2.144016
-1.0201776	PROPN PART VERB	-1.8787512
-0.82326376	SCONJ PART VERB	-0.84399366
-0.9141798	VERB PART VERB	-2.688958
-0.4031114	PART PART VERB	-1.3405203
-0.84334946	CCONJ PART VERB	-1.386497
-0.7955763	ADV PART VERB	-1.8068162
-0.9184456	AUX PART VERB	-2.4985366
-0.730274	PRON PART VERB	-1.7412122
-0.54462534	INTJ PART VERB	-0.29523528
-0.68625486	X PART VERB	-0.28822386
-0.23596556	SYM PART VERB	-0.28822386
-1.3906175	<s> CCONJ VERB	-0.92462426
-0.9811443	NUM CCONJ VERB	-0.7525257
-1.1362888	NOUN CCONJ VERB	-2.3335142
-1.0955478	ADP CCONJ VERB	-1.1646923
-1.1431757	PUNCT CCONJ VERB	-2.051345
-0.9253645	DET CCONJ VERB	-0.49266118
-1.0457935	ADJ CCONJ VERB	-1.4396994
-1.1251695	PROPN CCONJ VERB	-1.6597633
-1.2189703	SCONJ CCONJ VERB	-0.28822386
-0.9985036	VERB CCONJ VERB	-2.054106
-0.8381698	PART CCONJ VERB	-0.3720668
-0.8657112	CCONJ CCONJ VERB	-0.2955239
-1.0495145	ADV CCONJ VERB	-1.2854593
-0.928863	AUX CCONJ VERB	-0.38288927
-1.0221561	PRON CCONJ VERB	-1.2373791
-1.2335843	INTJ CCONJ VERB	-0.28822386
-0.6983425	X CCONJ VERB	-0.28988975
-0.5166215	SYM CCONJ VERB	-0.28822386
-1.3579692	<s> ADV VERB	-1.3194854
-0.9761534	NUM ADV VERB	-0.58041215
-1.1394413	NOUN ADV VERB	-2.0480123
-1.0678418	ADP ADV VERB	-1.2811375
-1.1441863	PUNCT ADV VERB	-1.8120362
-0.95500994	DET ADV VERB	-1.6338788
-1.0905092	ADJ ADV VERB	-0.9134861
-1.0158627	PROPN ADV VERB	-1.8372905
-1.090656	SCONJ ADV VERB	-0.7566656
-1.2371686	VERB ADV VERB	-1.1750971
-0.99568367	PART ADV VERB	-1.7768188
-1.0628068	CCONJ ADV VERB	-1.794806
-1.1520853	ADV ADV VERB	-1.6566544
-0.9570545	AUX ADV VERB	-2.4795008
-0.9737723	PRON ADV VERB	-2.1094987
-1.0382328	INTJ ADV VERB	-0.3478817
-1.0563291	X ADV VERB	-0.2960054
-0.79177177	SYM ADV VERB	-0.28822386
-1.153674	<s> AUX VERB	-0.7116171
-0.87131184	NUM AUX VERB	-1.0626847
-1.0946441	NOUN AUX VERB	-2.8173437
-0.6469513	ADP AUX VERB	-1.2879337
-1.0181243	PUNCT AUX VERB	-1.99699
-0.9828912	DET AUX VERB	-2.1155345
-0.92073697	ADJ AUX VERB	-1.1592358
-1.0337107	PROPN AUX VERB	-2.3834906
-0.41758543	SCONJ AUX VERB	-0.59314144
-0.91214174	VERB AUX VERB	-1.2624553
-0.49571124	PART AUX VERB	-1.976022
-0.8359575	CCONJ AUX VERB	-1.7113619
-0.9923435	ADV AUX VERB	-1.7478734
-0.64148986	AUX AUX VERB	-2.4421291
-1.0609429	PRON AUX VERB	-2.710825
-0.5342238	INTJ AUX VERB	-0.32092378
-0.79270595	X AUX VERB	-0.29287603
-0.5406879	SYM AUX VERB	-0.28822386
-0.4411639	<s> PRON VERB	-2.4021823
-0.6191434	NUM PRON VERB	-0.7200935
-0.92079794	NOUN PRON VERB	-2.1910183
-1.1690139	ADP PRON VERB	-1.9792318
-1.0526706	PUNCT PRON VERB	-2.4028296
-0.7757018	DET PRON VERB	-1.7032497
-0.8812021	ADJ PRON VERB	-0.9560896
-0.838262	PROPN PRON VERB	-1.4146078
-0.9592605	SCONJ PRON VERB	-2.191823
-1.1681768	VERB PRON VERB	-1.8971713
-0.8378866	PART PRON VERB	-0.92747337
-0.9589791	CCONJ PRON VERB	-2.0198917
-0.9777627	ADV PRON VERB	-2.0976937
-1.0073498	AUX PRON VERB	-1.8491733
-0.79057246	PRON PRON VERB	-1.6605111
-0.6456068	INTJ PRON VERB	-0.68500555
-0.8485075	X PRON VERB	-0.28822386
-1.0066401	SYM PRON VERB	-0.28822386
