\data\
ngram 1=19
ngram 2=249
ngram 3=2626
ngram 4=17968
ngram 5=77972

\1-grams:
-2.2449317	<unk>	0
0	<s>	-3.7284331
-1.2526641	</s>	0
-1.1678846	NOUN	-0.96452767
-1.1943473	PUNCT	-0.9890046
-1.1678846	VERB	-0.96452767
-1.1943473	NUM	-0.9305282
-1.2225275	ADP	-0.8854641
-1.2225275	ADJ	-0.8791778
-1.1678846	PROPN	-0.9571869
-1.1943473	PART	-0.8822399
-1.2225275	DET	-0.89057344
-1.1678846	ADV	-0.9427993
-1.2225275	X	-0.8480424
-1.1943473	CCONJ	-0.7748486
-1.1943473	PRON	-0.9422837
-1.285049	SCONJ	-0.6857417
-1.3998337	INTJ	-0.46488678
-1.8032827	SPACE	-0.30103

\2-grams:
-1.2272664	NOUN </s>	0
-1.1694232	PUNCT </s>	0
-1.2596306	VERB </s>	0
-1.220909	NUM </s>	0
-1.8796626	ADP </s>	0
-1.3770307	ADJ </s>	0
-1.2719275	PROPN </s>	0
-1.3680594	PART </s>	0
-1.474873	DET </s>	0
-1.3687227	ADV </s>	0
-1.7431499	X </s>	0
-1.7690473	CCONJ </s>	0
-1.3520846	PRON </s>	0
-1.321174	INTJ </s>	0
-0.6986882	<s> NOUN	-2.977766
-1.1606843	NOUN NOUN	-0.9424361
-1.1615674	PUNCT NOUN	-0.852412
-1.1606843	VERB NOUN	-0.9123566
-1.1143566	NUM NOUN	-0.89086306
-1.0519506	ADP NOUN	-0.86444306
-1.0274332	ADJ NOUN	-0.8843279
-1.111722	PROPN NOUN	-0.91518104
-1.0548027	PART NOUN	-0.835139
-1.0570599	DET NOUN	-0.86268276
-1.1349894	ADV NOUN	-0.81122684
-0.9962977	X NOUN	-0.75180787
-0.9713094	CCONJ NOUN	-0.66290814
-1.1175473	PRON NOUN	-0.79508185
-0.95099115	SCONJ NOUN	-0.5081211
-0.81854343	INTJ NOUN	-0.38353318
-0.6546866	SPACE NOUN	-0.37980977
-1.4191874	<s> PUNCT	-2.243235
-1.1373099	NOUN PUNCT	-0.9222451
-1.1921374	PUNCT PUNCT	-0.7966448
-1.163433	VERB PUNCT	-0.91221476
-1.117028	NUM PUNCT	-0.7838356
-1.0846753	ADP PUNCT	-0.6332657
-1.092752	ADJ PUNCT	-0.56626475
-1.1404426	PROPN PUNCT	-0.84187233
-1.1152654	PART PUNCT	-0.6856047
-1.0596266	DET PUNCT	-0.5638195
-1.137713	ADV PUNCT	-0.7125817
-1.0290513	X PUNCT	-0.521719
-1.1675744	CCONJ PUNCT	-0.42004395
-1.1201664	PRON PUNCT	-0.69249153
-1.6291327	SCONJ PUNCT	-0.3798098
-0.8224991	INTJ PUNCT	-0.36409977
-0.91712546	<s> VERB	-2.7654815
-1.1882987	NOUN VERB	-0.9384958
-1.1615674	PUNCT VERB	-0.8511117
-1.1606843	VERB VERB	-0.91805845
-1.1143566	NUM VERB	-0.79575366
-1.0519506	ADP VERB	-0.7987181
-1.0274332	ADJ VERB	-0.6933006
-1.111722	PROPN VERB	-0.9137459
-1.0825971	PART VERB	-0.8151519
-1.0870342	DET VERB	-0.7288825
-1.1071343	ADV VERB	-0.92267287
-1.0264133	X VERB	-0.76154065
-0.9713094	CCONJ VERB	-0.68511593
-1.0895703	PRON VERB	-0.8715049
-0.95099115	SCONJ VERB	-0.64635456
-0.90906096	INTJ VERB	-0.3150314
-1.0156113	SPACE VERB	-0.34950128
-1.4598616	<s> NUM	-2.2605534
-1.1912284	NOUN NUM	-0.81005466
-1.2220302	PUNCT NUM	-0.6878521
-1.163433	VERB NUM	-0.8599011
-1.0889453	NUM NUM	-0.89086306
-1.1170852	ADP NUM	-0.72347724
-1.1279585	ADJ NUM	-0.62226886
-1.1142187	PROPN NUM	-0.742234
-1.1152654	PART NUM	-0.6383415
-1.0596266	DET NUM	-0.7630841
-1.137713	ADV NUM	-0.7421278
-1.0616165	X NUM	-0.5134547
-1.0414948	CCONJ NUM	-0.5661962
-1.1502578	PRON NUM	-0.57387435
-1.2249606	SCONJ NUM	-0.33336926
-1.441268	INTJ NUM	-0.34950128
-1.0910836	<s> ADP	-2.6524854
-1.194178	NOUN ADP	-0.8578162
-1.1949307	PUNCT ADP	-0.7500187
-1.194178	VERB ADP	-0.8541417
-1.149934	NUM ADP	-0.7091748
-1.1200686	ADP ADP	-0.6343324
-1.3715769	ADJ ADP	-0.35227552
-1.1711978	PROPN ADP	-0.8036498
-1.1855286	PART ADP	-0.59376085
-1.1604544	DET ADP	-0.57841754
-1.1404537	ADV ADP	-0.8001614
-1.2805102	X ADP	-0.38353318
-1.1719042	CCONJ ADP	-0.4864784
-1.1228014	PRON ADP	-0.77862173
-0.95746404	SCONJ ADP	-0.5421765
-1.7890587	<s> ADJ	-2.0758903
-1.194178	NOUN ADJ	-0.7457662
-1.1949307	PUNCT ADJ	-0.72935915
-1.194178	VERB ADJ	-0.7765135
-1.119716	NUM ADJ	-0.6593607
-1.0874435	ADP ADJ	-0.7205616
-1.0323687	ADJ ADJ	-0.66283995
-1.1711978	PROPN ADJ	-0.655785
-1.1505923	PART ADJ	-0.58620167
-1.0622083	DET ADJ	-0.56407225
-1.1404537	ADV ADJ	-0.72377306
-1.1385288	X ADJ	-0.53159773
-1.0831268	CCONJ ADJ	-0.57841754
-1.2208252	PRON ADJ	-0.60910183
-1.1608185	SCONJ ADJ	-0.47950935
-0.84139055	<s> PROPN	-2.849054
-1.1606843	NOUN PROPN	-0.89732563
-1.1615674	PUNCT PROPN	-0.82730126
-1.1882987	VERB PROPN	-0.8862915
-1.1143566	NUM PROPN	-0.7810534
-1.0519506	ADP PROPN	-0.8299378
-1.0274332	ADJ PROPN	-0.67115194
-1.1377909	PROPN PROPN	-0.8643969
-1.1441691	PART PROPN	-0.7004908
-1.0870342	DET PROPN	-0.7170624
-1.1647544	ADV PROPN	-0.71337026
-1.0264133	X PROPN	-0.6690613
-1.0760901	CCONJ PROPN	-0.5878098
-1.1474514	PRON PROPN	-0.5539981
-1.1505256	SCONJ PROPN	-0.42265916
-0.90906096	INTJ PROPN	-0.36223248
-0.6546866	SPACE PROPN	-0.37203205
-2.2507086	<s> PART	-1.5534239
-1.1912284	NOUN PART	-0.9158592
-1.2541336	PUNCT PART	-0.6074515
-1.163433	VERB PART	-0.8964582
-1.117028	NUM PART	-0.7870477
-1.2781898	ADP PART	-0.42455208
-1.0298939	ADJ PART	-0.7267474
-1.1404426	PROPN PART	-0.85727125
-1.1473689	PART PART	-0.62516254
-1.0596266	DET PART	-0.63348895
-1.137713	ADV PART	-0.6318872
-1.223693	X PART	-0.41493243
-1.3459563	CCONJ PART	-0.4144923
-1.0920255	PRON PART	-0.75723165
-1.5429696	SCONJ PART	-0.37980977
-1.441268	INTJ PART	-0.34950128
-1.4145802	<s> DET	-2.3534544
-1.194178	NOUN DET	-0.71399784
-1.1949307	PUNCT DET	-0.6412382
-1.194178	VERB DET	-0.7807075
-1.2557132	NUM DET	-0.5378342
-1.0874435	ADP DET	-0.7361235
-1.3116455	ADJ DET	-0.38726962
-1.1711978	PROPN DET	-0.61582625
-1.223523	PART DET	-0.5186263
-1.1604544	DET DET	-0.5063403
-1.2380358	ADV DET	-0.59218234
-1.0999271	X DET	-0.5631288
-1.1252509	CCONJ DET	-0.53146285
-1.259121	PRON DET	-0.61678326
-1.1608185	SCONJ DET	-0.40774384
-0.74686563	<s> ADV	-2.9435792
-1.1606843	NOUN ADV	-0.89500934
-1.1893619	PUNCT ADV	-0.77403927
-1.1606843	VERB ADV	-0.8220173
-1.1441909	NUM ADV	-0.68811774
-1.1141223	ADP ADV	-0.6881906
-1.0899092	ADJ ADV	-0.44699025
-1.1655252	PROPN ADV	-0.75350153
-1.1122929	PART ADV	-0.62443984
-1.1192317	DET ADV	-0.5644412
-1.1071343	ADV ADV	-0.7590488
-1.1317724	X ADV	-0.46952736
-1.038284	CCONJ ADV	-0.5601174
-1.1175473	PRON ADV	-0.7153399
-0.9929491	SCONJ ADV	-0.45716962
-1.4250561	INTJ ADV	-0.34950128
-1.0156113	SPACE ADV	-0.34950128
-2.5244968	<s> X	-1.3214031
-1.194178	NOUN X	-0.77926767
-1.257357	PUNCT X	-0.58735704
-1.194178	VERB X	-0.7451635
-1.2175184	NUM X	-0.47013843
-1.2358664	ADP X	-0.46998727
-1.6264366	ADJ X	-0.3674314
-1.2683421	PROPN X	-0.57198346
-1.265163	PART X	-0.492436
-1.2409759	DET X	-0.41026747
-1.1706089	ADV X	-0.7083161
-1.3404415	X X	-0.41768816
-1.3525022	CCONJ X	-0.41844535
-1.2208252	PRON X	-0.5886658
-1.1608185	SCONJ X	-0.4309976
-2.081512	<s> CCONJ	-1.6550047
-1.1912284	NOUN CCONJ	-0.85884625
-1.1921374	PUNCT CCONJ	-0.6966051
-1.1912284	VERB CCONJ	-0.7421278
-1.1793089	NUM CCONJ	-0.59541154
-1.7645475	ADP CCONJ	-0.37203205
-1.092752	ADJ CCONJ	-0.6394058
-1.1683522	PROPN CCONJ	-0.75090855
-1.2197127	PART CCONJ	-0.4373427
-1.7696569	DET CCONJ	-0.39579594
-1.3595197	ADV CCONJ	-0.45312294
-1.7165811	X CCONJ	-0.34950128
-1.5255066	CCONJ CCONJ	-0.33424994
-1.1825906	PRON CCONJ	-0.6162853
-1.6291327	SCONJ CCONJ	-0.34950128
-1.441268	INTJ CCONJ	-0.34950128
-0.95886093	<s> PRON	-2.7315865
-1.1912284	NOUN PRON	-0.729954
-1.1921374	PUNCT PRON	-0.7387635
-1.163433	VERB PRON	-0.8402786
-1.2935516	NUM PRON	-0.5116129
-1.054517	ADP PRON	-0.7876384
-1.3661906	ADJ PRON	-0.32747775
-1.1683522	PROPN PRON	-0.6515914
-1.1820362	PART PRON	-0.5936873
-1.237085	DET PRON	-0.46392524
-1.137713	ADV PRON	-0.63839465
-1.0290513	X PRON	-0.57341194
-1.2192985	CCONJ PRON	-0.52557516
-1.1825906	PRON PRON	-0.6887609
-0.99650186	SCONJ PRON	-0.44467372
-1.1886034	INTJ PRON	-0.37203205
-1.7079489	<s> SCONJ	-2.0447056
-1.2630852	NOUN SCONJ	-0.63374853
-1.2638767	PUNCT SCONJ	-0.61557186
-1.3367286	VERB SCONJ	-0.54097116
-1.8620026	NUM SCONJ	-0.34950125
-1.6666384	ADP SCONJ	-0.3136756
-1.6677511	PROPN SCONJ	-0.4144234
-1.9112387	PART SCONJ	-0.3798098
-2.0178263	DET SCONJ	-0.34950128
-1.3733984	ADV SCONJ	-0.40328553
-1.6954648	CCONJ SCONJ	-0.34950128
-1.4705248	PRON SCONJ	-0.43574154
-1.5823685	SCONJ SCONJ	-0.37203205
-3.2149427	<s> INTJ	-0.9956267
-1.8250731	NOUN INTJ	-0.3674314
-1.3101896	PUNCT INTJ	-0.5905836
-1.6294781	VERB INTJ	-0.33387896
-2.1411936	NUM INTJ	-0.34950128
-1.9526485	PROPN INTJ	-0.34950128
-1.7238996	PART INTJ	-0.37203205
-2.0943236	DET INTJ	-0.34950128
-2.026982	ADV INTJ	-0.39579594
-1.0701562	INTJ INTJ	-0.29559073
-1.9085045	NOUN SPACE	-0.34950128
-2.092062	VERB SPACE	-0.37980977
-2.3992257	PROPN SPACE	-0.34950128
-2.319199	PART SPACE	-0.34950128

\3-grams:
-2.485039	<s> NOUN </s>	0
-1.1991662	NOUN NOUN </s>	0
-1.3037456	PUNCT NOUN </s>	0
-1.2084503	VERB NOUN </s>	0
-1.2084886	NUM NOUN </s>	0
-1.4271079	ADP NOUN </s>	0
-1.1804216	ADJ NOUN </s>	0
-1.1975303	PROPN NOUN </s>	0
-1.1911614	PART NOUN </s>	0
-1.3597561	DET NOUN </s>	0
-1.3083003	ADV NOUN </s>	0
-1.6567193	X NOUN </s>	0
-1.4712399	CCONJ NOUN </s>	0
-1.279916	PRON NOUN </s>	0
-1.0208173	<s> PUNCT </s>	0
-1.1326439	NOUN PUNCT </s>	0
-1.0348282	PUNCT PUNCT </s>	0
-1.1226135	VERB PUNCT </s>	0
-1.0660466	NUM PUNCT </s>	0
-1.1874082	ADP PUNCT </s>	0
-1.4128454	ADJ PUNCT </s>	0
-1.10974	PROPN PUNCT </s>	0
-0.9534723	PART PUNCT </s>	0
-0.9610672	DET PUNCT </s>	0
-0.9627402	ADV PUNCT </s>	0
-0.8791283	X PUNCT </s>	0
-1.1476687	CCONJ PUNCT </s>	0
-0.9026717	PRON PUNCT </s>	0
-1.0474195	SCONJ PUNCT </s>	0
-0.78571504	INTJ PUNCT </s>	0
-2.675812	<s> VERB </s>	0
-1.210925	NOUN VERB </s>	0
-1.3128803	PUNCT VERB </s>	0
-1.2518953	VERB VERB </s>	0
-1.4970794	NUM VERB </s>	0
-1.7443863	ADP VERB </s>	0
-1.4838276	ADJ VERB </s>	0
-1.1738265	PROPN VERB </s>	0
-1.3056664	PART VERB </s>	0
-1.1896753	ADV VERB </s>	0
-1.3833137	X VERB </s>	0
-1.3803537	CCONJ VERB </s>	0
-1.3280948	PRON VERB </s>	0
-1.2232705	<s> NUM </s>	0
-1.2286986	NOUN NUM </s>	0
-1.220254	PUNCT NUM </s>	0
-1.2315028	VERB NUM </s>	0
-1.3346066	NUM NUM </s>	0
-1.6332933	ADJ NUM </s>	0
-1.3311756	PROPN NUM </s>	0
-1.5409365	PART NUM </s>	0
-1.6773055	DET NUM </s>	0
-1.4099118	ADV NUM </s>	0
-1.5200437	X NUM </s>	0
-1.459121	CCONJ NUM </s>	0
-2.0087569	NOUN ADP </s>	0
-2.2571805	VERB ADP </s>	0
-1.8723134	NOUN ADJ </s>	0
-1.8569219	PUNCT ADJ </s>	0
-1.3356677	VERB ADJ </s>	0
-1.5995758	NUM ADJ </s>	0
-1.6393516	ADJ ADJ </s>	0
-1.5653523	PROPN ADJ </s>	0
-1.5747781	PART ADJ </s>	0
-2.15402	<s> PROPN </s>	0
-1.2083501	NOUN PROPN </s>	0
-1.2858036	PUNCT PROPN </s>	0
-1.2907741	VERB PROPN </s>	0
-1.7134732	NUM PROPN </s>	0
-1.4660795	ADP PROPN </s>	0
-1.5967523	ADJ PROPN </s>	0
-1.2501733	PROPN PROPN </s>	0
-1.3134189	PART PROPN </s>	0
-1.5958015	X PROPN </s>	0
-1.5520551	CCONJ PROPN </s>	0
-1.4369509	PRON PROPN </s>	0
-1.2556585	NOUN PART </s>	0
-1.3197576	VERB PART </s>	0
-1.8051069	NUM PART </s>	0
-1.7209793	ADJ PART </s>	0
-1.5669937	PROPN PART </s>	0
-1.7678343	PART PART </s>	0
-1.7882633	ADV PART </s>	0
-1.9171927	PRON PART </s>	0
-3.5722725	<s> DET </s>	0
-1.5347153	NOUN DET </s>	0
-1.8076323	VERB DET </s>	0
-1.5810848	PROPN DET </s>	0
-1.5310358	PART DET </s>	0
-1.7421783	CCONJ DET </s>	0
-3.4637256	<s> ADV </s>	0
-1.3485078	NOUN ADV </s>	0
-1.8046265	PUNCT ADV </s>	0
-1.6789864	VERB ADV </s>	0
-1.5196137	ADJ ADV </s>	0
-1.7534405	PROPN ADV </s>	0
-1.6185937	PART ADV </s>	0
-1.76657	ADV ADV </s>	0
-0.6916482	INTJ ADV </s>	0
-1.8886471	PUNCT X </s>	0
-1.6308855	NUM X </s>	0
-1.8522117	PROPN X </s>	0
-2.802693	<s> CCONJ </s>	0
-1.5609978	PART CCONJ </s>	0
-3.7317865	<s> PRON </s>	0
-1.7408048	NOUN PRON </s>	0
-1.7616336	PUNCT PRON </s>	0
-1.3580279	VERB PRON </s>	0
-1.5943363	NUM PRON </s>	0
-1.9463949	ADP PRON </s>	0
-1.5588466	PROPN PRON </s>	0
-1.5308884	PART PRON </s>	0
-1.6492455	ADV PRON </s>	0
-0.882584	NOUN INTJ </s>	0
-0.8705411	INTJ INTJ </s>	0
-0.55120265	<s> NOUN NOUN	-2.4986734
-1.1617546	NOUN NOUN NOUN	-0.9557582
-1.0438637	PUNCT NOUN NOUN	-0.8293245
-1.1106741	VERB NOUN NOUN	-0.9327743
-1.1032338	NUM NOUN NOUN	-0.8382182
-1.0837616	ADP NOUN NOUN	-0.8797633
-1.110457	ADJ NOUN NOUN	-0.90502834
-1.0996296	PROPN NOUN NOUN	-0.92802787
-1.1439937	PART NOUN NOUN	-0.8100895
-1.0750535	DET NOUN NOUN	-0.79900193
-1.0534389	ADV NOUN NOUN	-0.7547983
-0.96445847	X NOUN NOUN	-0.676139
-1.0093578	CCONJ NOUN NOUN	-0.6318891
-1.0240849	PRON NOUN NOUN	-0.70068944
-0.80192536	SCONJ NOUN NOUN	-0.4764757
-0.7447436	INTJ NOUN NOUN	-0.3086977
-0.6211607	<s> PUNCT NOUN	-1.7276131
-1.1317737	NOUN PUNCT NOUN	-0.9327743
-1.1296058	PUNCT PUNCT NOUN	-0.6949202
-1.1494703	VERB PUNCT NOUN	-0.86108106
-1.06502	NUM PUNCT NOUN	-0.6992993
-0.95424306	ADP PUNCT NOUN	-0.63352126
-0.71140164	ADJ PUNCT NOUN	-0.58230686
-1.0514009	PROPN PUNCT NOUN	-0.790388
-1.0965457	PART PUNCT NOUN	-0.6443795
-0.7111656	DET PUNCT NOUN	-0.6007305
-1.0282891	ADV PUNCT NOUN	-0.58328056
-0.75912917	X PUNCT NOUN	-0.41121387
-0.95818543	CCONJ PUNCT NOUN	-0.37011123
-1.048977	PRON PUNCT NOUN	-0.45808324
-0.79144466	SCONJ PUNCT NOUN	-0.30033904
-1.1098607	INTJ PUNCT NOUN	-0.3086977
-0.6159497	<s> VERB NOUN	-2.215485
-1.1699632	NOUN VERB NOUN	-0.9557582
-1.0758743	PUNCT VERB NOUN	-0.7913414
-1.1428211	VERB VERB NOUN	-0.945893
-1.0189412	NUM VERB NOUN	-0.7210846
-1.0219057	ADP VERB NOUN	-0.7313435
-0.9272245	ADJ VERB NOUN	-0.60845935
-1.1330643	PROPN VERB NOUN	-0.82636076
-1.0441549	PART VERB NOUN	-0.7248329
-0.9485782	DET VERB NOUN	-0.6841949
-1.1209903	ADV VERB NOUN	-0.9060026
-0.99054384	X VERB NOUN	-0.69735634
-1.0060661	CCONJ VERB NOUN	-0.57580626
-1.0908234	PRON VERB NOUN	-0.759336
-1.0073441	SCONJ VERB NOUN	-0.5525228
-0.23381558	SPACE VERB NOUN	-0.30869767
-0.52450264	<s> NUM NOUN	-1.7836211
-0.9905877	NOUN NUM NOUN	-0.79933393
-0.93098766	PUNCT NUM NOUN	-0.67785615
-1.0404341	VERB NUM NOUN	-0.84386796
-1.0977616	NUM NUM NOUN	-0.9220633
-0.89226264	ADP NUM NOUN	-0.7303491
-0.7316976	ADJ NUM NOUN	-0.57305586
-0.9085283	PROPN NUM NOUN	-0.75090015
-0.8320664	PART NUM NOUN	-0.6048833
-0.92937845	DET NUM NOUN	-0.81642973
-0.93203664	ADV NUM NOUN	-0.7114877
-0.6957369	X NUM NOUN	-0.6168971
-0.8315265	CCONJ NUM NOUN	-0.5965369
-0.8450775	PRON NUM NOUN	-0.47754848
-0.9361514	SCONJ NUM NOUN	-0.3099844
-0.43939722	<s> ADP NOUN	-2.2465043
-1.0435683	NOUN ADP NOUN	-0.9101073
-0.9091053	PUNCT ADP NOUN	-0.7175876
-0.9935348	VERB ADP NOUN	-0.8503279
-0.83306956	NUM ADP NOUN	-0.6264076
-0.8741778	ADP ADP NOUN	-0.5804979
-0.6552431	ADJ ADP NOUN	-0.3148886
-0.9177624	PROPN ADP NOUN	-0.7810065
-0.7839099	PART ADP NOUN	-0.6097896
-0.6596579	DET ADP NOUN	-0.61843866
-0.91427404	ADV ADP NOUN	-0.82938254
-0.47544107	X ADP NOUN	-0.3991565
-0.85889065	CCONJ ADP NOUN	-0.43172663
-0.9224801	PRON ADP NOUN	-0.72680765
-0.762661	SCONJ ADP NOUN	-0.5264354
-0.15968181	<s> ADJ NOUN	-1.8193457
-0.7985588	NOUN ADJ NOUN	-0.8793235
-0.7842257	PUNCT ADJ NOUN	-0.7106241
-0.94598144	VERB ADJ NOUN	-0.8472893
-0.7017137	NUM ADJ NOUN	-0.8064537
-0.7824047	ADP ADJ NOUN	-0.7822107
-0.45041233	ADJ ADJ NOUN	-0.75574887
-0.70649123	PROPN ADJ NOUN	-0.8393604
-0.7939942	PART ADJ NOUN	-0.70071965
-0.56371677	DET ADJ NOUN	-0.74265575
-0.7234176	ADV ADJ NOUN	-0.7808468
-0.42474592	X ADJ NOUN	-0.5868355
-0.6958522	CCONJ ADJ NOUN	-0.6036454
-0.5689137	PRON ADJ NOUN	-0.56750476
-0.4921707	SCONJ ADJ NOUN	-0.3092186
-0.4858511	<s> PROPN NOUN	-2.4213097
-1.0921965	NOUN PROPN NOUN	-0.8498001
-1.0407279	PUNCT PROPN NOUN	-0.7950613
-1.0928631	VERB PROPN NOUN	-0.8906729
-0.8859941	NUM PROPN NOUN	-0.70556456
-1.0659413	ADP PROPN NOUN	-0.85325575
-0.8157562	ADJ PROPN NOUN	-0.7075747
-1.0520234	PROPN PROPN NOUN	-0.82440555
-0.94226867	PART PROPN NOUN	-0.7127123
-0.8505135	DET PROPN NOUN	-0.7069603
-0.8950043	ADV PROPN NOUN	-0.7044606
-0.7950111	X PROPN NOUN	-0.5788517
-0.92251474	CCONJ PROPN NOUN	-0.5249265
-0.7690186	PRON PROPN NOUN	-0.5369637
-0.7779973	SCONJ PROPN NOUN	-0.34295958
-0.94865775	INTJ PROPN NOUN	-0.30869767
-0.47907346	SPACE PROPN NOUN	-0.29621923
-0.8520903	<s> PART NOUN	-0.8628129
-1.1216664	NOUN PART NOUN	-0.94898987
-0.77613467	PUNCT PART NOUN	-0.6628693
-1.1022654	VERB PART NOUN	-0.9397981
-0.95379585	NUM PART NOUN	-0.7890059
-0.8694476	ADP PART NOUN	-0.30366316
-0.85657287	ADJ PART NOUN	-0.84868664
-1.0164306	PROPN PART NOUN	-0.880531
-0.82266355	PART PART NOUN	-0.6553701
-0.5644299	DET PART NOUN	-0.6989583
-0.824786	ADV PART NOUN	-0.5377159
-0.40068594	X PART NOUN	-0.31035268
-0.92310137	CCONJ PART NOUN	-0.30241364
-0.9265022	PRON PART NOUN	-0.80467707
-0.6269019	SCONJ PART NOUN	-0.30869767
-0.50056076	INTJ PART NOUN	-0.30869767
-0.23097597	<s> DET NOUN	-2.1224542
-0.83734477	NOUN DET NOUN	-0.77578634
-0.75593734	PUNCT DET NOUN	-0.67412186
-0.9477471	VERB DET NOUN	-0.81327116
-0.5217295	NUM DET NOUN	-0.5844105
-0.9125919	ADP DET NOUN	-0.74947673
-0.53072137	ADJ DET NOUN	-0.3703112
-0.7135369	PROPN DET NOUN	-0.6450206
-0.79196066	PART DET NOUN	-0.5519563
-0.48677978	DET DET NOUN	-0.58230686
-0.7460814	ADV DET NOUN	-0.5938337
-0.7475204	X DET NOUN	-0.5587594
-0.86746705	CCONJ DET NOUN	-0.5524857
-0.6887183	PRON DET NOUN	-0.5329571
-0.6333805	SCONJ DET NOUN	-0.35162783
-0.9488296	<s> ADV NOUN	-2.0614414
-1.0926325	NOUN ADV NOUN	-0.8018435
-1.1038395	PUNCT ADV NOUN	-0.6387492
-1.0314167	VERB ADV NOUN	-0.7203661
-0.96678275	NUM ADV NOUN	-0.45473325
-0.8828182	ADP ADV NOUN	-0.623113
-1.2005367	ADJ ADV NOUN	-0.30033904
-1.1256653	PROPN ADV NOUN	-0.58293104
-1.0982149	PART ADV NOUN	-0.36082214
-0.91729724	DET ADV NOUN	-0.37766343
-1.0641961	ADV ADV NOUN	-0.5937796
-0.96158755	X ADV NOUN	-0.34620038
-0.98307616	CCONJ ADV NOUN	-0.40126425
-1.119257	PRON ADV NOUN	-0.6175548
-1.1200407	SCONJ ADV NOUN	-0.30857587
-0.4625479	<s> X NOUN	-0.978511
-0.9152936	NOUN X NOUN	-0.6661904
-0.7803452	PUNCT X NOUN	-0.49915466
-0.8110944	VERB X NOUN	-0.59327894
-0.76826596	NUM X NOUN	-0.35574186
-0.7169082	ADP X NOUN	-0.4275127
-0.5490023	ADJ X NOUN	-0.3086977
-0.8246713	PROPN X NOUN	-0.4975669
-0.7352975	PART X NOUN	-0.44297823
-0.9230569	DET X NOUN	-0.30033904
-0.8781717	ADV X NOUN	-0.60883504
-0.49649596	X X NOUN	-0.31014544
-0.89964247	CCONJ X NOUN	-0.3509128
-0.80276394	PRON X NOUN	-0.5143621
-0.68712497	SCONJ X NOUN	-0.35574186
-0.6176141	<s> CCONJ NOUN	-1.250569
-1.0004358	NOUN CCONJ NOUN	-0.89840543
-0.8465989	PUNCT CCONJ NOUN	-0.53877103
-0.8837174	VERB CCONJ NOUN	-0.6621032
-0.6664813	NUM CCONJ NOUN	-0.52687967
-0.46297637	ADP CCONJ NOUN	-0.30869767
-0.5230443	ADJ CCONJ NOUN	-0.63992774
-0.8313646	PROPN CCONJ NOUN	-0.7120898
-0.6103197	PART CCONJ NOUN	-0.3387934
-0.46603307	DET CCONJ NOUN	-0.30241364
-0.8825749	ADV CCONJ NOUN	-0.3881158
-0.696992	CCONJ CCONJ NOUN	-0.3086977
-0.75829434	PRON CCONJ NOUN	-0.5752853
-0.2214314	INTJ CCONJ NOUN	-0.30869767
-1.3536841	<s> PRON NOUN	-1.4963638
-0.9341236	NOUN PRON NOUN	-0.64212495
-1.0657854	PUNCT PRON NOUN	-0.62071306
-1.0770532	VERB PRON NOUN	-0.7217041
-0.798963	NUM PRON NOUN	-0.3678502
-0.9857173	ADP PRON NOUN	-0.6974012
-1.1382048	ADJ PRON NOUN	-0.30869767
-0.8193034	PROPN PRON NOUN	-0.45268828
-0.9361023	PART PRON NOUN	-0.33475864
-1.080919	DET PRON NOUN	-0.31801742
-0.9466111	ADV PRON NOUN	-0.4217174
-0.8490178	X PRON NOUN	-0.49020535
-0.9671004	CCONJ PRON NOUN	-0.4579753
-0.9388536	PRON PRON NOUN	-0.41768554
-1.1036453	SCONJ PRON NOUN	-0.30686742
-0.61704713	<s> SCONJ NOUN	-1.4852166
-0.79343736	NOUN SCONJ NOUN	-0.5138104
-0.87177634	PUNCT SCONJ NOUN	-0.55973506
-0.8592985	VERB SCONJ NOUN	-0.56105554
-0.85527927	ADP SCONJ NOUN	-0.30033904
-0.9106362	PROPN SCONJ NOUN	-0.30869767
-0.74574023	PART SCONJ NOUN	-0.30033904
-0.835242	ADV SCONJ NOUN	-0.31087118
-0.6301728	CCONJ SCONJ NOUN	-0.30869767
-0.9829868	PRON SCONJ NOUN	-0.30869767
-0.7311138	SCONJ SCONJ NOUN	-0.30869767
-1.6418657	<s> INTJ NOUN	-0.30869767
-0.51659137	NOUN INTJ NOUN	-0.30869767
-1.0180134	PUNCT INTJ NOUN	-0.30869767
-0.6175079	VERB INTJ NOUN	-0.30869767
-0.2071067	NUM INTJ NOUN	-0.30869767
-0.69318753	PART INTJ NOUN	-0.30869767
-0.62481004	NOUN SPACE NOUN	-0.30869767
-0.5580978	VERB SPACE NOUN	-0.30869767
-0.18585667	PROPN SPACE NOUN	-0.30869767
-0.9785985	<s> NOUN PUNCT	-2.059476
-1.1313176	NOUN NOUN PUNCT	-0.9698901
-1.0412935	PUNCT NOUN PUNCT	-0.90117425
-1.1357026	VERB NOUN PUNCT	-0.9481708
-1.1005372	NUM NOUN PUNCT	-0.8834455
-1.0810217	ADP NOUN PUNCT	-0.7629104
-1.1076739	ADJ NOUN PUNCT	-0.91592973
-1.0971005	PROPN NOUN PUNCT	-0.89868546
-1.0448132	PART NOUN PUNCT	-0.8232925
-1.0723568	DET NOUN PUNCT	-0.7785462
-1.0505512	ADV NOUN PUNCT	-0.69003963
-1.0350093	X NOUN PUNCT	-0.46926898
-1.00569	CCONJ NOUN PUNCT	-0.59207106
-1.0532496	PRON NOUN PUNCT	-0.57972455
-1.0710942	SCONJ NOUN PUNCT	-0.3833558
-0.39383918	INTJ NOUN PUNCT	-0.29868641
-0.367461	SPACE NOUN PUNCT	-0.30869767
-1.3517064	<s> PUNCT PUNCT	-1.092586
-1.163029	NOUN PUNCT PUNCT	-0.8600359
-1.0993732	PUNCT PUNCT PUNCT	-0.6043963
-1.1529986	VERB PUNCT PUNCT	-0.7471377
-1.0689254	NUM PUNCT PUNCT	-0.57229304
-1.1928084	ADP PUNCT PUNCT	-0.31062913
-1.1281929	ADJ PUNCT PUNCT	-0.30869767
-1.112525	PROPN PUNCT PUNCT	-0.70396286
-1.1018193	PART PUNCT PUNCT	-0.51297486
-1.239657	DET PUNCT PUNCT	-0.29868641
-1.111923	ADV PUNCT PUNCT	-0.38589188
-1.1639745	X PUNCT PUNCT	-0.31801742
-1.2955625	CCONJ PUNCT PUNCT	-0.3086977
-1.0536257	PRON PUNCT PUNCT	-0.39758173
-1.1213428	INTJ PUNCT PUNCT	-0.30449823
-1.1898632	<s> VERB PUNCT	-1.681358
-1.1702858	NOUN VERB PUNCT	-0.9743815
-1.0483495	PUNCT VERB PUNCT	-0.8324777
-1.1431388	VERB VERB PUNCT	-0.8600359
-1.0863768	NUM VERB PUNCT	-0.5919677
-1.0893413	ADP VERB PUNCT	-0.52924013
-0.92754894	ADJ VERB PUNCT	-0.56375545
-1.133378	PROPN VERB PUNCT	-0.8078356
-1.0766814	PART VERB PUNCT	-0.6410843
-1.111255	DET VERB PUNCT	-0.44202197
-1.1491207	ADV VERB PUNCT	-0.89520025
-1.0578568	X VERB PUNCT	-0.58840823
-1.2042108	CCONJ VERB PUNCT	-0.4085771
-1.0911372	PRON VERB PUNCT	-0.7457176
-1.1903263	SCONJ VERB PUNCT	-0.38125437
-0.6912412	INTJ VERB PUNCT	-0.30033904
-1.2106357	<s> NUM PUNCT	-1.1625587
-1.0206285	NOUN NUM PUNCT	-0.6521737
-0.93134606	PUNCT NUM PUNCT	-0.6439182
-1.0407443	VERB NUM PUNCT	-0.67251474
-1.0980914	NUM NUM PUNCT	-0.8382182
-1.0084796	ADP NUM PUNCT	-0.5584763
-1.1398623	ADJ NUM PUNCT	-0.29930538
-1.0053793	PROPN NUM PUNCT	-0.4887454
-1.0127792	PART NUM PUNCT	-0.43672642
-1.1050518	DET NUM PUNCT	-0.45106515
-1.0782022	ADV NUM PUNCT	-0.5321152
-1.2805543	X NUM PUNCT	-0.30869767
-1.1792548	CCONJ NUM PUNCT	-0.42408258
-1.0703467	PRON NUM PUNCT	-0.30449823
-1.1677036	SCONJ NUM PUNCT	-0.30869767
-1.7243649	<s> ADP PUNCT	-1.1076022
-1.0772048	NOUN ADP PUNCT	-0.6240004
-1.0587231	PUNCT ADP PUNCT	-0.53535867
-1.0936717	VERB ADP PUNCT	-0.563004
-1.1511275	NUM ADP PUNCT	-0.39713457
-1.107593	ADP ADP PUNCT	-0.43982732
-1.0978048	PROPN ADP PUNCT	-0.4284125
-1.245884	PART ADP PUNCT	-0.31356937
-1.323881	DET ADP PUNCT	-0.30241364
-1.0943164	ADV ADP PUNCT	-0.5207281
-1.1888558	X ADP PUNCT	-0.30869767
-1.2623467	CCONJ ADP PUNCT	-0.30241364
-1.0727767	PRON ADP PUNCT	-0.43698305
-1.3229988	SCONJ ADP PUNCT	-0.30869767
-2.262608	<s> ADJ PUNCT	-0.30515984
-1.1453553	NOUN ADJ PUNCT	-0.3943221
-0.854092	PUNCT ADJ PUNCT	-0.52779436
-1.2221609	VERB ADJ PUNCT	-0.5042825
-1.3080205	NUM ADJ PUNCT	-0.37199068
-1.1011963	ADP ADJ PUNCT	-0.42850977
-1.5034112	ADJ ADJ PUNCT	-0.30869767
-1.3103946	PROPN ADJ PUNCT	-0.29868641
-1.1858068	PART ADJ PUNCT	-0.3099844
-1.3253518	DET ADJ PUNCT	-0.30033904
-1.075658	ADV ADJ PUNCT	-0.35574186
-1.3275609	CCONJ ADJ PUNCT	-0.30241364
-1.4810965	PRON ADJ PUNCT	-0.30869767
-0.7479832	<s> PROPN PUNCT	-2.1311493
-1.0955751	NOUN PROPN PUNCT	-0.85551345
-1.0165344	PUNCT PROPN PUNCT	-0.8326711
-1.0963345	VERB PROPN PUNCT	-0.80847216
-0.98765296	NUM PROPN PUNCT	-0.5473712
-1.1358876	ADP PROPN PUNCT	-0.6786695
-0.9966818	ADJ PROPN PUNCT	-0.49391067
-1.055346	PROPN PROPN PUNCT	-0.787777
-1.059762	PART PROPN PUNCT	-0.58974934
-0.97141117	DET PROPN PUNCT	-0.43705803
-0.93069875	ADV PROPN PUNCT	-0.56706667
-1.0482115	X PROPN PUNCT	-0.40753916
-1.024823	CCONJ PROPN PUNCT	-0.40728545
-0.9164692	PRON PROPN PUNCT	-0.39265102
-1.2364672	SCONJ PROPN PUNCT	-0.30033904
-0.9570291	INTJ PROPN PUNCT	-0.30869767
-1.4717735	<s> PART PUNCT	-0.5286051
-1.129732	NOUN PART PUNCT	-0.8961823
-0.94564843	PUNCT PART PUNCT	-0.45599955
-1.110331	VERB PART PUNCT	-0.85953337
-1.0229071	NUM PART PUNCT	-0.70261127
-1.1864451	ADP PART PUNCT	-0.29621923
-0.92579	ADJ PART PUNCT	-0.549428
-1.0535144	PROPN PART PUNCT	-0.652641
-0.91110176	PART PART PUNCT	-0.4279027
-1.3936114	DET PART PUNCT	-0.30869767
-0.9471808	ADV PART PUNCT	-0.49668556
-0.93945307	CCONJ PART PUNCT	-0.30241364
-1.0010015	PRON PART PUNCT	-0.5456305
-0.50766325	INTJ PART PUNCT	-0.30869767
-2.3617022	<s> DET PUNCT	-0.5346024
-1.1648962	NOUN DET PUNCT	-0.31586713
-1.1509237	PUNCT DET PUNCT	-0.40705544
-1.1195575	VERB DET PUNCT	-0.46823815
-1.3816895	NUM DET PUNCT	-0.30869767
-1.1796329	ADP DET PUNCT	-0.43769237
-1.1064649	ADJ DET PUNCT	-0.30869767
-1.1422715	PROPN DET PUNCT	-0.30241364
-1.3152378	PART DET PUNCT	-0.30869767
-1.3287398	DET DET PUNCT	-0.30869767
-1.2358578	ADV DET PUNCT	-0.3953187
-1.3373789	X DET PUNCT	-0.30869767
-1.3374202	CCONJ DET PUNCT	-0.29868641
-1.4961321	PRON DET PUNCT	-0.30869767
-1.2275491	SCONJ DET PUNCT	-0.30869767
-1.190063	<s> ADV PUNCT	-1.8187413
-1.0929462	NOUN ADV PUNCT	-0.6824407
-1.066772	PUNCT ADV PUNCT	-0.5959983
-1.0613927	VERB ADV PUNCT	-0.6311359
-1.0673614	NUM ADV PUNCT	-0.45852965
-1.4084642	ADP ADV PUNCT	-0.31333256
-1.0463314	ADJ ADV PUNCT	-0.30241364
-1.2220007	PROPN ADV PUNCT	-0.39275062
-1.3490373	PART ADV PUNCT	-0.33411023
-1.2413907	DET ADV PUNCT	-0.30241364
-1.1877385	ADV ADV PUNCT	-0.51401705
-1.4118327	CCONJ ADV PUNCT	-0.30869767
-1.0741581	PRON ADV PUNCT	-0.48955542
-1.2935872	SCONJ ADV PUNCT	-0.30033904
-0.66387	INTJ ADV PUNCT	-0.30869767
-1.411129	<s> X PUNCT	-0.3775759
-1.2146957	NOUN X PUNCT	-0.4178596
-1.1285446	PUNCT X PUNCT	-0.34296846
-1.2122728	VERB X PUNCT	-0.35753015
-0.976657	NUM X PUNCT	-0.29868641
-1.1747653	ADP X PUNCT	-0.29621923
-0.8219009	ADJ X PUNCT	-0.30869767
-1.1908411	PROPN X PUNCT	-0.35324433
-1.363931	PART X PUNCT	-0.30869767
-1.2607383	ADV X PUNCT	-0.38567492
-1.0871636	X X PUNCT	-0.30869767
-1.2505679	CCONJ X PUNCT	-0.30869767
-1.4686968	PRON X PUNCT	-0.30869767
-1.2054427	SCONJ X PUNCT	-0.30869767
-1.8897384	<s> CCONJ PUNCT	-0.31048027
-1.1225399	NOUN CCONJ PUNCT	-0.5748718
-0.98868966	PUNCT CCONJ PUNCT	-0.50022995
-1.3943161	VERB CCONJ PUNCT	-0.30744895
-1.3763509	NUM CCONJ PUNCT	-0.30033904
-1.1963317	PROPN CCONJ PUNCT	-0.36834463
-1.4055468	ADV CCONJ PUNCT	-0.30869767
-0.77313125	X CCONJ PUNCT	-0.30869767
-1.4505823	PRON CCONJ PUNCT	-0.30869767
-2.476089	<s> PRON PUNCT	-0.58283186
-0.9344424	NOUN PRON PUNCT	-0.5840152
-1.1519619	PUNCT PRON PUNCT	-0.42548478
-1.0478919	VERB PRON PUNCT	-0.6807937
-1.1330006	NUM PRON PUNCT	-0.37199068
-1.1316093	ADP PRON PUNCT	-0.5260232
-0.7139928	ADJ PRON PUNCT	-0.44610775
-1.0626742	PROPN PRON PUNCT	-0.3364744
-0.9365407	PART PRON PUNCT	-0.39725086
-1.3090113	DET PRON PUNCT	-0.30869767
-1.1417094	ADV PRON PUNCT	-0.40937448
-1.4249997	X PRON PUNCT	-0.30869767
-1.119261	CCONJ PRON PUNCT	-0.36129797
-0.99348515	PRON PRON PUNCT	-0.36122507
-1.2451551	SCONJ PRON PUNCT	-0.29868641
-2.3367865	<s> SCONJ PUNCT	-0.3566633
-1.4438689	PUNCT SCONJ PUNCT	-0.3148886
-0.08756418	<s> INTJ PUNCT	-1.0926541
-0.2740067	PUNCT INTJ PUNCT	-0.3939957
-0.6186585	VERB INTJ PUNCT	-0.30869767
-0.5993492	PROPN INTJ PUNCT	-0.30869767
-0.44020647	PART INTJ PUNCT	-0.29621923
-0.45746183	INTJ INTJ PUNCT	-0.32116902
-0.6735055	<s> NOUN VERB	-2.3763773
-1.1648277	NOUN NOUN VERB	-0.97330785
-1.1048007	PUNCT NOUN VERB	-0.7968701
-1.1416075	VERB NOUN VERB	-0.9374694
-1.1062579	NUM NOUN VERB	-0.9169563
-1.0868345	ADP NOUN VERB	-0.8969215
-1.1135788	ADJ NOUN VERB	-0.9304076
-1.1305759	PROPN NOUN VERB	-0.9413684
-1.1128845	PART NOUN VERB	-0.79801536
-1.0780776	DET NOUN VERB	-0.8693536
-1.0266216	ADV NOUN VERB	-0.787777
-0.90405166	X NOUN VERB	-0.7187928
-0.9406536	CCONJ NOUN VERB	-0.61682534
-1.0596511	PRON NOUN VERB	-0.7293858
-0.8055758	SCONJ NOUN VERB	-0.4813872
-1.0369781	<s> PUNCT VERB	-1.3320504
-1.1595007	NOUN PUNCT VERB	-0.9134087
-1.166848	PUNCT PUNCT VERB	-0.60698503
-1.1494703	VERB PUNCT VERB	-0.8706563
-1.099543	NUM PUNCT VERB	-0.6456801
-0.99166965	ADP PUNCT VERB	-0.54255414
-0.897705	ADJ PUNCT VERB	-0.49092686
-1.1087466	PROPN PUNCT VERB	-0.7796504
-1.1415042	PART PUNCT VERB	-0.5803907
-1.3775842	DET PUNCT VERB	-0.2982742
-1.0657952	ADV PUNCT VERB	-0.6143504
-0.8144704	X PUNCT VERB	-0.463443
-0.95818543	CCONJ PUNCT VERB	-0.3568734
-0.96918464	PRON PUNCT VERB	-0.5067282
-1.0449303	SCONJ PUNCT VERB	-0.3086977
-1.1098607	INTJ PUNCT VERB	-0.30869767
-0.7643194	<s> VERB VERB	-2.075705
-1.1699632	NOUN VERB VERB	-0.9991603
-1.0758743	PUNCT VERB VERB	-0.7665877
-1.1149983	VERB VERB VERB	-0.9176909
-1.0189412	NUM VERB VERB	-0.709203
-1.0889719	ADP VERB VERB	-0.70106405
-1.000459	ADJ VERB VERB	-0.51552033
-1.1330643	PROPN VERB VERB	-0.8768967
-1.0441549	PART VERB VERB	-0.7335819
-0.9485782	DET VERB VERB	-0.5251763
-1.148802	ADV VERB VERB	-0.9304076
-1.0227247	X VERB VERB	-0.72982204
-1.0476729	CCONJ VERB VERB	-0.52604985
-1.1206017	PRON VERB VERB	-0.8605927
-1.0600455	SCONJ VERB VERB	-0.51599866
-0.98909914	INTJ VERB VERB	-0.30869767
-1.3899943	<s> NUM VERB	-0.9789331
-1.0521871	NOUN NUM VERB	-0.63793766
-1.139183	PUNCT NUM VERB	-0.48533463
-1.1020334	VERB NUM VERB	-0.6891458
-1.0977616	NUM NUM VERB	-0.8663834
-1.1070403	ADP NUM VERB	-0.45660347
-0.91733617	ADJ NUM VERB	-0.30854106
-1.083752	PROPN NUM VERB	-0.47148854
-1.0720718	PART NUM VERB	-0.35368374
-1.0258545	DET NUM VERB	-0.6202636
-1.0364951	ADV NUM VERB	-0.55035454
-1.021767	X NUM VERB	-0.30698156
-1.0299424	CCONJ NUM VERB	-0.39610356
-1.0697052	PRON NUM VERB	-0.40705544
-1.1663083	SCONJ NUM VERB	-0.30869767
-0.92572117	<s> ADP VERB	-1.793813
-1.0435683	NOUN ADP VERB	-0.84274244
-1.0123622	PUNCT ADP VERB	-0.6769059
-0.9935348	VERB ADP VERB	-0.74055797
-0.96110535	NUM ADP VERB	-0.33552545
-0.9723332	ADP ADP VERB	-0.4535733
-1.0864588	ADJ ADP VERB	-0.30869767
-0.94750816	PROPN ADP VERB	-0.6571922
-0.98352987	PART ADP VERB	-0.37127995
-0.9044508	DET ADP VERB	-0.30412233
-0.97595364	ADV ADP VERB	-0.72110844
-0.94922125	X ADP VERB	-0.30869767
-1.1125685	CCONJ ADP VERB	-0.38567492
-0.9888836	PRON ADP VERB	-0.5833407
-1.0328333	SCONJ ADP VERB	-0.30673698
-1.6798087	<s> ADJ VERB	-0.5851823
-0.8609413	NOUN ADJ VERB	-0.52715355
-1.0069269	PUNCT ADJ VERB	-0.4472255
-1.0059191	VERB ADJ VERB	-0.65096194
-0.97712994	NUM ADJ VERB	-0.393605
-0.97667146	ADP ADJ VERB	-0.43436426
-0.98098063	ADJ ADJ VERB	-0.2979801
-1.039515	PROPN ADJ VERB	-0.3403159
-0.91641647	PART ADJ VERB	-0.43408287
-1.1588149	DET ADJ VERB	-0.35574186
-0.9502803	ADV ADJ VERB	-0.4457137
-1.2955296	X ADJ VERB	-0.30869767
-0.97020507	CCONJ ADJ VERB	-0.30744895
-0.89629745	PRON ADJ VERB	-0.49097982
-1.1676519	SCONJ ADJ VERB	-0.30869767
-0.84789026	<s> PROPN VERB	-2.0592446
-1.0645323	NOUN PROPN VERB	-0.8663834
-1.0700909	PUNCT PROPN VERB	-0.73404646
-1.0928631	VERB PROPN VERB	-0.80258954
-0.9489445	NUM PROPN VERB	-0.5355296
-1.0659413	ADP PROPN VERB	-0.83464026
-0.950681	ADJ PROPN VERB	-0.49592537
-1.0242982	PROPN PROPN VERB	-0.82412696
-0.97665906	PART PROPN VERB	-0.64381003
-0.96756864	DET PROPN VERB	-0.538126
-0.9996687	ADV PROPN VERB	-0.5307515
-0.9015753	X PROPN VERB	-0.59053415
-1.0766627	CCONJ PROPN VERB	-0.46605486
-0.8586676	PRON PROPN VERB	-0.38693884
-0.85052	SCONJ PROPN VERB	-0.35976973
-0.68943363	INTJ PROPN VERB	-0.30869767
-0.76693046	SPACE PROPN VERB	-0.30869767
-0.26893392	<s> PART VERB	-1.3637564
-1.1254951	NOUN PART VERB	-0.936622
-0.94001627	PUNCT PART VERB	-0.4798168
-1.1060941	VERB PART VERB	-0.8833765
-0.98679703	NUM PART VERB	-0.66144055
-0.64990485	ADP PART VERB	-0.3741187
-0.95630807	ADJ PART VERB	-0.5362725
-1.0198679	PROPN PART VERB	-0.7020155
-1.0037714	PART PART VERB	-0.46945843
-0.99333847	DET PART VERB	-0.30241364
-0.8285022	ADV PART VERB	-0.6248506
-0.8375044	X PART VERB	-0.31613743
-0.56536484	CCONJ PART VERB	-0.31312424
-0.93002075	PRON PART VERB	-0.6202636
-0.6311143	SCONJ PART VERB	-0.30869767
-1.4672722	<s> DET VERB	-1.0280564
-0.90284747	NOUN DET VERB	-0.46702126
-1.0912243	PUNCT DET VERB	-0.4310637
-1.0469285	VERB DET VERB	-0.6557155
-1.398159	NUM DET VERB	-0.30869767
-0.9512656	ADP DET VERB	-0.5812794
-1.1501235	PROPN DET VERB	-0.31312424
-1.3299805	PART DET VERB	-0.3072521
-1.1660836	DET DET VERB	-0.3086977
-0.99060637	ADV DET VERB	-0.37899113
-1.0723501	X DET VERB	-0.3071719
-0.92430735	CCONJ DET VERB	-0.4435209
-0.97746944	PRON DET VERB	-0.4419107
-0.8557086	SCONJ DET VERB	-0.30366316
-0.43731797	<s> ADV VERB	-2.5643725
-1.089322	NOUN ADV VERB	-0.9720034
-0.9669012	PUNCT ADV VERB	-0.8226787
-1.0004876	VERB ADV VERB	-0.9022503
-0.8142071	NUM ADV VERB	-0.7370663
-0.87953043	ADP ADV VERB	-0.75355726
-0.5114558	ADJ ADV VERB	-0.5255999
-0.94781417	PROPN ADV VERB	-0.8969215
-0.82194424	PART ADV VERB	-0.7293858
-0.69536847	DET ADV VERB	-0.5774298
-0.937519	ADV ADV VERB	-0.89665866
-0.44261986	X ADV VERB	-0.48254693
-0.7365168	CCONJ ADV VERB	-0.5774298
-0.89502573	PRON ADV VERB	-0.84565693
-0.7353525	SCONJ ADV VERB	-0.545193
-0.23080996	SPACE ADV VERB	-0.30869767
-0.64259964	<s> X VERB	-0.78282946
-0.8897883	NOUN X VERB	-0.7618716
-0.8263648	PUNCT X VERB	-0.48229754
-0.84444296	VERB X VERB	-0.6373909
-0.6369241	NUM X VERB	-0.40923405
-0.604776	ADP X VERB	-0.4700169
-0.8211968	ADJ X VERB	-0.30869767
-0.703496	PROPN X VERB	-0.5960647
-0.7404613	PART X VERB	-0.49305356
-0.4533954	DET X VERB	-0.42698583
-0.8479294	ADV X VERB	-0.7071037
-0.70444995	CCONJ X VERB	-0.42019114
-0.67920333	PRON X VERB	-0.55467784
-0.5968361	SCONJ X VERB	-0.29621923
-0.64363617	<s> CCONJ VERB	-1.1304871
-1.0290478	NOUN CCONJ VERB	-0.8015782
-0.9169	PUNCT CCONJ VERB	-0.5143282
-0.8837174	VERB CCONJ VERB	-0.8210776
-0.97287667	NUM CCONJ VERB	-0.3099844
-0.7362237	ADP CCONJ VERB	-0.30869767
-0.6178709	ADJ CCONJ VERB	-0.504512
-1.0027452	PROPN CCONJ VERB	-0.50870264
-0.6843891	PART CCONJ VERB	-0.3385043
-0.6688163	ADV CCONJ VERB	-0.4258182
-0.7305465	X CCONJ VERB	-0.30869767
-0.50581187	CCONJ CCONJ VERB	-0.31035268
-1.0218247	PRON CCONJ VERB	-0.3364744
-0.48922002	SCONJ CCONJ VERB	-0.30869767
-0.3588262	<s> PRON VERB	-2.43086
-0.9306102	NOUN PRON VERB	-0.79211974
-0.9903165	PUNCT PRON VERB	-0.7843164
-1.0440321	VERB PRON VERB	-0.81327116
-0.79471153	NUM PRON VERB	-0.39815205
-0.9822526	ADP PRON VERB	-0.7648665
-0.8889483	ADJ PRON VERB	-0.3086977
-0.94397116	PROPN PRON VERB	-0.5660831
-0.8313634	PART PRON VERB	-0.5034444
-0.5330166	DET PRON VERB	-0.40236363
-0.8707738	ADV PRON VERB	-0.60320735
-0.7646871	X PRON VERB	-0.6264149
-0.9022009	CCONJ PRON VERB	-0.495779
-0.7690091	PRON PRON VERB	-0.5044953
-0.775859	SCONJ PRON VERB	-0.43270522
-0.47683102	INTJ PRON VERB	-0.30869767
-0.67051685	<s> SCONJ VERB	-1.4416039
-0.6792525	NOUN SCONJ VERB	-0.6951643
-0.83219194	PUNCT SCONJ VERB	-0.55078214
-0.8098694	VERB SCONJ VERB	-0.42026758
-0.79419345	NUM SCONJ VERB	-0.30869767
-0.85527927	ADP SCONJ VERB	-0.3086977
-0.572996	PROPN SCONJ VERB	-0.31244028
-0.74574023	PART SCONJ VERB	-0.3015233
-0.835242	ADV SCONJ VERB	-0.30499217
-0.49039054	PRON SCONJ VERB	-0.34865266
-0.46024516	SCONJ SCONJ VERB	-0.30869767
-1.7006145	<s> INTJ VERB	-0.30869767
-0.78657	NOUN INTJ VERB	-0.30869767
-1.2367771	PUNCT INTJ VERB	-0.30869767
-0.5988517	VERB INTJ VERB	-0.3086977
-0.18870544	ADV INTJ VERB	-0.30869767
-0.74150276	NOUN SPACE VERB	-0.30869767
-1.5987413	<s> NOUN NUM	-1.5725068
-1.1651436	NOUN NOUN NUM	-0.72410136
-1.1722274	PUNCT NOUN NUM	-0.58604944
-1.1419284	VERB NOUN NUM	-0.6611105
-1.1689675	NUM NOUN NUM	-0.62489045
-1.1494203	ADP NOUN NUM	-0.6106227
-1.2107989	ADJ NOUN NUM	-0.62655157
-1.1609664	PROPN NOUN NUM	-0.6680244
-1.2737813	PART NOUN NUM	-0.5452334
-1.1407872	DET NOUN NUM	-0.5256493
-1.1622242	ADV NOUN NUM	-0.5549382
-1.2452717	X NOUN NUM	-0.43905282
-1.2790053	CCONJ NOUN NUM	-0.40236363
-1.1750531	PRON NOUN NUM	-0.48012164
-1.3446584	SCONJ NOUN NUM	-0.30366316
-1.600986	<s> PUNCT NUM	-0.9819072
-1.1963727	NOUN PUNCT NUM	-0.7831567
-1.1760705	PUNCT PUNCT NUM	-0.5235703
-1.1863424	VERB PUNCT NUM	-0.65923274
-1.0097519	NUM PUNCT NUM	-0.7319237
-1.1406859	ADP PUNCT NUM	-0.45015436
-1.4370677	ADJ PUNCT NUM	-0.30869767
-1.221298	PROPN PUNCT NUM	-0.57387865
-1.2043192	PART PUNCT NUM	-0.4288322
-1.044211	DET PUNCT NUM	-0.31062913
-1.2741077	ADV PUNCT NUM	-0.4324916
-1.5293348	X PUNCT NUM	-0.30869767
-1.3097253	CCONJ PUNCT NUM	-0.30366316
-1.3719021	PRON PUNCT NUM	-0.3141141
-1.1300337	<s> VERB NUM	-1.7843239
-1.1702858	NOUN VERB NUM	-0.85551345
-1.1059425	PUNCT VERB NUM	-0.6373909
-1.1431388	VERB VERB NUM	-0.78268117
-1.0863768	NUM VERB NUM	-0.618002
-1.2146826	ADP VERB NUM	-0.5121343
-1.0890691	ADJ VERB NUM	-0.4622655
-1.133378	PROPN VERB NUM	-0.74641937
-1.1492853	PART VERB NUM	-0.55081177
-1.2228861	DET VERB NUM	-0.45632014
-1.1491207	ADV VERB NUM	-0.7869787
-1.0956742	X VERB NUM	-0.5274521
-1.1457186	CCONJ VERB NUM	-0.45820814
-1.1874778	PRON VERB NUM	-0.6456103
-1.0605364	SCONJ VERB NUM	-0.4435209
-0.98999363	INTJ VERB NUM	-0.30869767
-0.392301	<s> NUM NUM	-1.9471931
-0.98755074	NOUN NUM NUM	-0.85628223
-0.96160054	PUNCT NUM NUM	-0.68762434
-1.037397	VERB NUM NUM	-0.90203977
-1.188882	NUM NUM NUM	-0.68560404
-0.8893064	ADP NUM NUM	-0.7612252
-0.7291179	ADJ NUM NUM	-0.6709112
-0.8778512	PROPN NUM NUM	-0.69281423
-0.8671846	PART NUM NUM	-0.6244612
-0.92643905	DET NUM NUM	-0.7613214
-0.92893356	ADV NUM NUM	-0.7618716
-0.69268763	X NUM NUM	-0.4666372
-0.8692299	CCONJ NUM NUM	-0.563004
-0.65556395	PRON NUM NUM	-0.5193529
-0.62776273	SCONJ NUM NUM	-0.36537415
-0.22970699	INTJ NUM NUM	-0.30869767
-1.3470522	<s> ADP NUM	-1.4865123
-1.0814847	NOUN ADP NUM	-0.727131
-1.0639861	PUNCT ADP NUM	-0.5083386
-1.0310307	VERB ADP NUM	-0.6609907
-1.0247747	NUM ADP NUM	-0.38567492
-1.1153023	ADP ADP NUM	-0.56105554
-1.0609533	PROPN ADP NUM	-0.6175548
-1.0677048	PART ADP NUM	-0.34949946
-1.3384227	DET ADP NUM	-0.31801742
-1.0994049	ADV ADP NUM	-0.6432292
-1.0289844	CCONJ ADP NUM	-0.41492745
-1.1762841	PRON ADP NUM	-0.48127365
-1.1600661	SCONJ ADP NUM	-0.31062913
-1.8204932	<s> ADJ NUM	-1.020139
-0.947	NOUN ADJ NUM	-0.5602248
-1.0231907	PUNCT ADJ NUM	-0.52268517
-1.0925751	VERB ADJ NUM	-0.5689429
-1.2135539	NUM ADJ NUM	-0.31356937
-1.0461329	ADP ADJ NUM	-0.53275454
-1.0603924	PROPN ADJ NUM	-0.38567492
-1.1150974	PART ADJ NUM	-0.43289518
-1.1932825	DET ADJ NUM	-0.29868641
-1.0193394	ADV ADJ NUM	-0.45969743
-1.1921636	CCONJ ADJ NUM	-0.31801742
-0.912933	PRON ADJ NUM	-0.3775759
-1.7979211	<s> PROPN NUM	-1.2849568
-1.1537956	NOUN PROPN NUM	-0.6388455
-1.2575253	PUNCT PROPN NUM	-0.5788709
-1.1542242	VERB PROPN NUM	-0.6408652
-1.1640443	NUM PROPN NUM	-0.45180944
-1.2539351	ADP PROPN NUM	-0.5851823
-1.2153033	ADJ PROPN NUM	-0.31035268
-1.1480914	PROPN PROPN NUM	-0.55488527
-1.1508844	PART PROPN NUM	-0.43611676
-1.1288059	DET PROPN NUM	-0.3110165
-1.3425128	ADV PROPN NUM	-0.37262815
-1.3570765	X PROPN NUM	-0.36129797
-1.0772563	CCONJ PROPN NUM	-0.36834463
-1.3930562	PRON PROPN NUM	-0.3086977
-1.2239085	SCONJ PROPN NUM	-0.30366316
-0.94940114	INTJ PROPN NUM	-0.30869767
-0.7674086	SPACE PROPN NUM	-0.30869767
-1.7223123	<s> PART NUM	-0.5882107
-1.1591263	NOUN PART NUM	-0.73582625
-1.0570464	PUNCT PART NUM	-0.48966062
-1.0828006	VERB PART NUM	-0.77975255
-1.1812687	NUM PART NUM	-0.43769237
-1.3409966	ADP PART NUM	-0.30869767
-0.92579	ADJ PART NUM	-0.59285927
-1.0855644	PROPN PART NUM	-0.64092946
-1.0694832	PART PART NUM	-0.45076716
-1.5487646	DET PART NUM	-0.30869767
-1.2509258	ADV PART NUM	-0.3015233
-1.121676	X PART NUM	-0.30869767
-0.96616226	PRON PART NUM	-0.6292752
-0.9061678	SCONJ PART NUM	-0.30869767
-0.5601469	<s> DET NUM	-1.8932917
-0.83764297	NOUN DET NUM	-0.71351564
-0.8901391	PUNCT DET NUM	-0.54088914
-0.94807684	VERB DET NUM	-0.714688
-0.8136475	NUM DET NUM	-0.39870563
-0.9129289	ADP DET NUM	-0.619733
-0.89367664	ADJ DET NUM	-0.30869767
-0.83025724	PROPN DET NUM	-0.47638285
-0.88928944	PART DET NUM	-0.5468802
-0.8318871	DET DET NUM	-0.37735724
-0.8733718	ADV DET NUM	-0.53149456
-0.7050416	X DET NUM	-0.6000713
-0.8679538	CCONJ DET NUM	-0.48497736
-0.7327237	PRON DET NUM	-0.4620043
-0.8492617	SCONJ DET NUM	-0.3775759
-1.5831244	<s> ADV NUM	-1.5778496
-1.0929462	NOUN ADV NUM	-0.7308918
-1.1042649	PUNCT ADV NUM	-0.5230686
-1.031739	VERB ADV NUM	-0.76667094
-1.1277192	NUM ADV NUM	-0.4355679
-0.9183827	ADP ADV NUM	-0.57685935
-1.233998	ADJ ADV NUM	-0.30033904
-1.0851216	PROPN ADV NUM	-0.55082154
-0.98755497	PART ADV NUM	-0.4275127
-1.0500928	DET ADV NUM	-0.3775759
-1.1426994	ADV ADV NUM	-0.56416523
-1.1712158	X ADV NUM	-0.30033904
-0.98360336	CCONJ ADV NUM	-0.38132408
-1.0741581	PRON ADV NUM	-0.562619
-1.2642881	SCONJ ADV NUM	-0.29868641
-1.520744	<s> X NUM	-0.51566
-1.0690666	NOUN X NUM	-0.57117724
-1.0577048	PUNCT X NUM	-0.34523752
-1.2209618	VERB X NUM	-0.35496205
-1.3309792	NUM X NUM	-0.30869767
-1.1580892	ADP X NUM	-0.32116902
-1.3375866	PROPN X NUM	-0.29868641
-1.2487268	PART X NUM	-0.3015233
-1.1787777	DET X NUM	-0.30869767
-0.96703494	ADV X NUM	-0.4885557
-1.1010934	X X NUM	-0.30869767
-1.1112243	CCONJ X NUM	-0.3086977
-1.1899891	PRON X NUM	-0.3775759
-1.1277312	<s> CCONJ NUM	-0.8059615
-1.0708139	NOUN CCONJ NUM	-0.6816602
-0.96962833	PUNCT CCONJ NUM	-0.46376014
-1.1089345	VERB CCONJ NUM	-0.50438005
-0.67471313	NUM CCONJ NUM	-0.65480846
-0.7525407	ADP CCONJ NUM	-0.30869767
-1.4305254	ADJ CCONJ NUM	-0.30869767
-1.1117632	PROPN CCONJ NUM	-0.47457343
-1.101256	PART CCONJ NUM	-0.30869767
-1.0103152	ADV CCONJ NUM	-0.3110165
-0.747522	X CCONJ NUM	-0.30869767
-0.9701501	PRON CCONJ NUM	-0.46402133
-2.3217251	<s> PRON NUM	-0.8616953
-1.6119049	NOUN PRON NUM	-0.3086977
-1.3328066	PUNCT PRON NUM	-0.36425126
-1.1851128	VERB PRON NUM	-0.5146449
-1.3257705	NUM PRON NUM	-0.30869767
-1.2341586	ADP PRON NUM	-0.47529054
-1.3328421	PROPN PRON NUM	-0.30241364
-1.4418402	PART PRON NUM	-0.30366316
-1.216184	ADV PRON NUM	-0.42850977
-1.4128928	X PRON NUM	-0.30033904
-1.2320986	CCONJ PRON NUM	-0.44610775
-1.5135723	PRON PRON NUM	-0.29621923
-1.4267664	SCONJ PRON NUM	-0.30869767
-0.7740669	INTJ PRON NUM	-0.30869767
-1.6046027	<s> SCONJ NUM	-0.887111
-1.2843643	NOUN SCONJ NUM	-0.44610775
-1.2399501	PUNCT SCONJ NUM	-0.41492745
-1.2477695	VERB SCONJ NUM	-0.30241364
-1.2234383	ADV SCONJ NUM	-0.30033904
-0.78649765	SCONJ SCONJ NUM	-0.30869767
-1.9536161	<s> INTJ NUM	-0.30869767
-1.2980716	<s> NOUN ADP	-1.8865159
-1.1373618	NOUN NOUN ADP	-0.895372
-1.1726229	PUNCT NOUN ADP	-0.64581764
-1.1422497	VERB NOUN ADP	-0.817588
-1.1693267	NUM NOUN ADP	-0.805041
-1.184654	ADP NOUN ADP	-0.68506813
-1.114221	ADJ NOUN ADP	-0.77673125
-1.1311979	PROPN NOUN ADP	-0.8308902
-1.1136026	PART NOUN ADP	-0.6757809
-1.1411464	DET NOUN ADP	-0.72058445
-1.0896904	ADV NOUN ADP	-0.56868213
-1.0037272	X NOUN ADP	-0.52276593
-1.153629	CCONJ NOUN ADP	-0.44666174
-1.0603478	PRON NOUN ADP	-0.5352492
-1.1965127	SCONJ NOUN ADP	-0.337887
-1.3560073	<s> PUNCT ADP	-1.1347507
-1.1932313	NOUN PUNCT ADP	-0.8404064
-1.2589153	PUNCT PUNCT ADP	-0.536052
-1.1533101	VERB PUNCT ADP	-0.81441694
-1.1836257	NUM PUNCT ADP	-0.5452334
-1.1934576	ADP PUNCT ADP	-0.4178596
-1.5734922	ADJ PUNCT ADP	-0.30869767
-1.179625	PROPN PUNCT ADP	-0.65407807
-1.1988174	PART PUNCT ADP	-0.47286648
-1.423659	DET PUNCT ADP	-0.30869767
-1.1123719	ADV PUNCT ADP	-0.49742162
-1.322433	X PUNCT ADP	-0.30033904
-1.3254299	CCONJ PUNCT ADP	-0.30241364
-1.1007735	PRON PUNCT ADP	-0.45820814
-1.303504	INTJ PUNCT ADP	-0.30869767
-1.2747698	<s> VERB ADP	-1.7181404
-1.173774	NOUN VERB ADP	-0.92446
-1.1766479	PUNCT VERB ADP	-0.6635917
-1.1765683	VERB VERB ADP	-0.83254087
-1.1286379	NUM VERB ADP	-0.5773355
-1.1735669	ADP VERB ADP	-0.5550591
-1.2758554	ADJ VERB ADP	-0.3015233
-1.1367695	PROPN VERB ADP	-0.768327
-1.1955773	PART VERB ADP	-0.55597353
-1.116197	DET VERB ADP	-0.43687814
-1.152566	ADV VERB ADP	-0.8255644
-1.0619062	X VERB ADP	-0.5180074
-1.0528343	CCONJ VERB ADP	-0.4430702
-1.124571	PRON VERB ADP	-0.72883743
-1.0658563	SCONJ VERB ADP	-0.4285098
-2.3423336	<s> NUM ADP	-0.693681
-1.2679479	NOUN NUM ADP	-0.42503458
-1.2717874	PUNCT NUM ADP	-0.36129797
-1.1792798	VERB NUM ADP	-0.55101645
-1.131764	NUM NUM ADP	-0.74847746
-1.2440265	ADP NUM ADP	-0.31545576
-1.5881667	ADJ NUM ADP	-0.30869767
-1.1872661	PROPN NUM ADP	-0.43008077
-1.5053844	PART NUM ADP	-0.3055443
-1.110404	DET NUM ADP	-0.5048357
-1.1814737	ADV NUM ADP	-0.40547067
-1.32647	X NUM ADP	-0.30869767
-1.1893002	CCONJ NUM ADP	-0.3193653
-1.3778998	PRON NUM ADP	-0.3086977
-1.6972585	<s> ADP ADP	-1.1974796
-1.1479833	NOUN ADP ADP	-0.5791086
-1.0644541	PUNCT ADP ADP	-0.47394052
-1.0985541	VERB ADP ADP	-0.5922711
-1.6630019	NUM ADP ADP	-0.30869767
-1.3050932	ADP ADP ADP	-0.30241364
-1.1033458	PROPN ADP ADP	-0.4657089
-1.3981892	PART ADP ADP	-0.31801742
-1.5163764	DET ADP ADP	-0.30869767
-1.257547	ADV ADP ADP	-0.48710772
-1.4433992	CCONJ ADP ADP	-0.30869767
-1.2360073	PRON ADP ADP	-0.34074548
-1.4838498	SCONJ ADP ADP	-0.30869767
-3.194252	<s> ADJ ADP	-0.30869767
-1.8692415	NOUN ADJ ADP	-0.30869767
-1.8538429	PUNCT ADJ ADP	-0.30869767
-1.3348337	VERB ADJ ADP	-0.38650548
-1.8335886	ADP ADJ ADP	-0.30869767
-1.599863	PROPN ADJ ADP	-0.30869767
-1.7376738	PART ADJ ADP	-0.30869767
-1.3612667	<s> PROPN ADP	-1.7073463
-1.1290089	NOUN PROPN ADP	-0.719109
-1.144369	PUNCT PROPN ADP	-0.64581764
-1.1297587	VERB PROPN ADP	-0.67256147
-1.1740746	NUM PROPN ADP	-0.41277713
-1.140256	ADP PROPN ADP	-0.66559213
-1.3125463	ADJ PROPN ADP	-0.31613743
-1.1211181	PROPN PROPN ADP	-0.6787739
-1.2213346	PART PROPN ADP	-0.42332593
-1.2117559	DET PROPN ADP	-0.36129797
-1.2090245	ADV PROPN ADP	-0.36986426
-0.9997363	X PROPN ADP	-0.49222872
-1.1589105	CCONJ PROPN ADP	-0.33011028
-1.1414199	PRON PROPN ADP	-0.37735724
-1.2188015	SCONJ PROPN ADP	-0.30732426
-1.1345003	<s> PART ADP	-0.7627629
-1.1379503	NOUN PART ADP	-0.7490981
-1.3334764	PUNCT PART ADP	-0.31356937
-1.2155029	VERB PART ADP	-0.6927222
-1.0667902	NUM PART ADP	-0.5011041
-1.6065667	ADJ PART ADP	-0.32116902
-1.2100087	PROPN PART ADP	-0.45188606
-1.5169258	PART PART ADP	-0.30366316
-1.5917577	DET PART ADP	-0.30869767
-1.272129	ADV PART ADP	-0.3432771
-1.1897433	CCONJ PART ADP	-0.30869767
-1.3208796	PRON PART ADP	-0.36834463
-2.077415	<s> DET ADP	-0.7597722
-1.2572523	NOUN DET ADP	-0.36129797
-1.0468478	PUNCT DET ADP	-0.49410868
-1.0953082	VERB DET ADP	-0.48593265
-1.2579895	NUM DET ADP	-0.3086977
-1.0416911	ADP DET ADP	-0.463443
-1.6000769	PROPN DET ADP	-0.30869767
-1.039499	PART DET ADP	-0.4355679
-1.2718375	ADV DET ADP	-0.31035268
-1.3867191	X DET ADP	-0.30033904
-1.254969	CCONJ DET ADP	-0.3148886
-1.200433	PRON DET ADP	-0.31062913
-1.0335585	<s> ADV ADP	-2.0894787
-1.123046	NOUN ADV ADP	-0.89620996
-1.145771	PUNCT ADV ADP	-0.6844607
-1.061738	VERB ADV ADP	-0.74167484
-0.92492086	NUM ADV ADP	-0.46050537
-1.045908	ADP ADV ADP	-0.48325372
-1.2027988	ADJ ADV ADP	-0.32116902
-1.0135183	PROPN ADV ADP	-0.719109
-0.94147474	PART ADV ADP	-0.49378943
-0.9794143	DET ADV ADP	-0.41554046
-1.0306236	ADV ADV ADP	-0.71589005
-1.1353545	X ADV ADP	-0.30033904
-0.92319036	CCONJ ADV ADP	-0.45299548
-0.9955872	PRON ADV ADP	-0.6717495
-0.8558598	SCONJ ADV ADP	-0.37771052
-2.2348397	<s> X ADP	-0.29621923
-1.3402007	NOUN X ADP	-0.3148886
-1.6614075	PUNCT X ADP	-0.30869767
-1.35911	VERB X ADP	-0.38183537
-1.4346331	PROPN X ADP	-0.32116902
-1.3434727	PART X ADP	-0.30869767
-1.3296268	ADV X ADP	-0.3775759
-1.6310304	PRON X ADP	-0.30869767
-1.1191773	<s> CCONJ ADP	-0.8352673
-1.1230778	NOUN CCONJ ADP	-0.6059531
-1.1512692	PUNCT CCONJ ADP	-0.40376222
-1.0063593	VERB CCONJ ADP	-0.50106215
-1.5664111	NUM CCONJ ADP	-0.30869767
-1.4601078	PROPN CCONJ ADP	-0.30366316
-1.3386478	PART CCONJ ADP	-0.30869767
-1.2106295	ADV CCONJ ADP	-0.3086977
-1.6010102	PRON CCONJ ADP	-0.30869767
-1.0798851	<s> PRON ADP	-1.8425069
-1.0389813	NOUN PRON ADP	-0.5121343
-1.0293338	PUNCT PRON ADP	-0.64692587
-1.1436008	VERB PRON ADP	-0.73788434
-1.0233934	NUM PRON ADP	-0.37735724
-1.1320493	ADP PRON ADP	-0.57763696
-0.93856794	ADJ PRON ADP	-0.29621923
-1.0631878	PROPN PRON ADP	-0.33706558
-1.0689816	PART PRON ADP	-0.34620038
-1.1207123	DET PRON ADP	-0.30869767
-1.1423447	ADV PRON ADP	-0.3792447
-0.94945365	X PRON ADP	-0.463443
-1.1200433	CCONJ PRON ADP	-0.366533
-0.9938871	PRON PRON ADP	-0.37745932
-0.842674	SCONJ PRON ADP	-0.35987157
-1.387256	<s> SCONJ ADP	-0.9049944
-0.84046733	NOUN SCONJ ADP	-0.3884432
-1.0200748	PUNCT SCONJ ADP	-0.3816152
-1.0565796	VERB SCONJ ADP	-0.30449823
-0.7962006	NUM SCONJ ADP	-0.30869767
-0.8577896	ADP SCONJ ADP	-0.3086977
-0.91289675	PROPN SCONJ ADP	-0.30033904
-0.96891797	PART SCONJ ADP	-0.30869767
-0.22031374	DET SCONJ ADP	-0.30869767
-1.0978885	ADV SCONJ ADP	-0.30241364
-0.9855301	PRON SCONJ ADP	-0.30509564
-2.110121	<s> NOUN ADJ	-1.359551
-1.1955022	NOUN NOUN ADJ	-0.67985094
-1.2105374	PUNCT NOUN ADJ	-0.5515989
-1.1722327	VERB NOUN ADJ	-0.6527331
-1.2042757	NUM NOUN ADJ	-0.59558845
-1.184654	ADP NOUN ADJ	-0.6347729
-1.2112004	ADJ NOUN ADJ	-0.54364747
-1.1936446	PROPN NOUN ADJ	-0.60995173
-1.2743012	PART NOUN ADJ	-0.53247786
-1.2141049	DET NOUN ADJ	-0.5404947
-1.2503891	ADV NOUN ADJ	-0.4567213
-1.2458615	X NOUN ADJ	-0.57140994
-1.2121434	CCONJ NOUN ADJ	-0.5288708
-1.4008887	PRON NOUN ADJ	-0.4355679
-1.3767902	SCONJ NOUN ADJ	-0.30033904
-1.5821261	<s> PUNCT ADJ	-1.0948772
-1.1932313	NOUN PUNCT ADJ	-0.7130345
-1.2133261	PUNCT PUNCT ADJ	-0.5815793
-1.2153025	VERB PUNCT ADJ	-0.71180975
-1.1836257	NUM PUNCT ADJ	-0.49020535
-1.1934576	ADP PUNCT ADJ	-0.46152604
-0.90247977	ADJ PUNCT ADJ	-0.48307285
-1.2172986	PROPN PUNCT ADJ	-0.62009543
-1.1988174	PART PUNCT ADJ	-0.54638386
-0.9652735	DET PUNCT ADJ	-0.49410868
-1.1123719	ADV PUNCT ADJ	-0.51543945
-1.322433	X PUNCT ADJ	-0.31613743
-1.0509107	CCONJ PUNCT ADJ	-0.31014544
-1.5979548	PRON PUNCT ADJ	-0.3015233
-0.7971942	SCONJ PUNCT ADJ	-0.30869767
-1.4923519	<s> VERB ADJ	-1.5401884
-1.173774	NOUN VERB ADJ	-0.7652942
-1.1418428	PUNCT VERB ADJ	-0.56728613
-1.1765683	VERB VERB ADJ	-0.6719356
-1.1706024	NUM VERB ADJ	-0.5111303
-1.0256441	ADP VERB ADJ	-0.6333022
-1.0941669	ADJ VERB ADJ	-0.6171674
-1.199088	PROPN VERB ADJ	-0.6317442
-1.1155174	PART VERB ADJ	-0.48593265
-1.116197	DET VERB ADJ	-0.55318356
-1.152566	ADV VERB ADJ	-0.7098514
-1.1419662	X VERB ADJ	-0.52468497
-1.2109957	CCONJ VERB ADJ	-0.44297823
-1.156847	PRON VERB ADJ	-0.5559864
-1.1975145	SCONJ VERB ADJ	-0.46189684
-1.6335294	<s> NUM ADJ	-1.2585033
-1.124835	NOUN NUM ADJ	-0.6041935
-1.1403418	PUNCT NUM ADJ	-0.50218046
-1.0708073	VERB NUM ADJ	-0.61468554
-1.1279224	NUM NUM ADJ	-0.7269764
-1.055629	ADP NUM ADJ	-0.54401827
-1.0531394	ADJ NUM ADJ	-0.48672038
-1.043414	PROPN NUM ADJ	-0.45884478
-0.9606177	PART NUM ADJ	-0.5207162
-1.0266048	DET NUM ADJ	-0.66804963
-1.0786462	ADV NUM ADJ	-0.6669784
-1.0230885	X NUM ADJ	-0.49726027
-1.0311348	CCONJ NUM ADJ	-0.4742673
-1.1825049	PRON NUM ADJ	-0.31062913
-0.93779457	SCONJ NUM ADJ	-0.32116902
-1.4656109	<s> ADP ADJ	-1.5208925
-1.0482311	NOUN ADP ADJ	-0.734879
-1.1047753	PUNCT ADP ADJ	-0.48691797
-1.0275244	VERB ADP ADJ	-0.62605655
-1.0199562	NUM ADP ADJ	-0.51783496
-1.1082687	ADP ADP ADJ	-0.46525463
-0.89165676	ADJ ADP ADJ	-0.30033904
-1.1441588	PROPN ADP ADJ	-0.57044244
-0.93091506	PART ADP ADJ	-0.46189684
-0.91090465	DET ADP ADJ	-0.5202574
-0.98051023	ADV ADP ADJ	-0.59232295
-1.0208902	CCONJ ADP ADJ	-0.40705544
-0.9938187	PRON ADP ADJ	-0.59317577
-0.95577186	SCONJ ADP ADJ	-0.48672038
-1.8308718	<s> ADJ ADJ	-1.1783555
-0.93452317	NOUN ADJ ADJ	-0.6413459
-0.96174216	PUNCT ADJ ADJ	-0.6506807
-0.9756452	VERB ADJ ADJ	-0.6838439
-0.7999487	NUM ADJ ADJ	-0.6786059
-1.029598	ADP ADJ ADJ	-0.6171674
-0.98194015	ADJ ADJ ADJ	-0.54301775
-0.8842486	PROPN ADJ ADJ	-0.75735015
-0.96742314	PART ADJ ADJ	-0.57813
-1.0574899	DET ADJ ADJ	-0.39019772
-1.0640495	ADV ADJ ADJ	-0.48672038
-1.0753136	X ADJ ADJ	-0.32116902
-0.9713422	CCONJ ADJ ADJ	-0.48672038
-1.2898115	PRON ADJ ADJ	-0.30869767
-1.1699046	SCONJ ADJ ADJ	-0.30869767
-1.745044	<s> PROPN ADJ	-1.5130303
-1.1961191	NOUN PROPN ADJ	-0.6367762
-1.1097419	PUNCT PROPN ADJ	-0.5605066
-1.1618992	VERB PROPN ADJ	-0.62758946
-1.2350395	NUM PROPN ADJ	-0.53247786
-1.140256	ADP PROPN ADJ	-0.6440118
-1.1605237	ADJ PROPN ADJ	-0.56105554
-1.1560528	PROPN PROPN ADJ	-0.5274521
-1.1626217	PART PROPN ADJ	-0.44297823
-1.2984354	DET PROPN ADJ	-0.49410868
-1.2090245	ADV PROPN ADJ	-0.4862367
-1.5186536	X PROPN ADJ	-0.31801742
-1.1589105	CCONJ PROPN ADJ	-0.4419107
-1.5590491	PRON PROPN ADJ	-0.30869767
-1.2506936	SCONJ PROPN ADJ	-0.29621923
-2.0039194	<s> PART ADJ	-0.38183537
-1.1340107	NOUN PART ADJ	-0.7089914
-1.0644354	PUNCT PART ADJ	-0.4534523
-1.1146097	VERB PART ADJ	-0.71013063
-1.0622942	NUM PART ADJ	-0.5437907
-1.1681433	ADP PART ADJ	-0.30033904
-0.92992437	ADJ PART ADJ	-0.56481725
-1.0275016	PROPN PART ADJ	-0.5604024
-0.96339124	PART PART ADJ	-0.47051254
-0.8086524	DET PART ADJ	-0.67019993
-1.3629873	ADV PART ADJ	-0.44610775
-1.1758244	CCONJ PART ADJ	-0.30869767
-0.9703922	PRON PART ADJ	-0.5515989
-1.5756409	<s> DET ADJ	-1.326591
-0.93410444	NOUN DET ADJ	-0.6904595
-0.97711873	PUNCT DET ADJ	-0.54401827
-1.0091804	VERB DET ADJ	-0.6685862
-1.024049	NUM DET ADJ	-0.31613743
-1.0265594	ADP DET ADJ	-0.5759951
-0.85275245	ADJ DET ADJ	-0.32116902
-0.83062506	PROPN DET ADJ	-0.6159186
-0.83860683	PART DET ADJ	-0.56105554
-1.1566353	DET DET ADJ	-0.29621923
-0.9854045	ADV DET ADJ	-0.4766728
-0.9809272	X DET ADJ	-0.54301775
-0.9766213	CCONJ DET ADJ	-0.5256492
-0.9726981	PRON DET ADJ	-0.54301775
-1.0184646	SCONJ DET ADJ	-0.31801742
-1.947893	<s> ADV ADJ	-1.3568392
-1.1550262	NOUN ADV ADJ	-0.67230994
-1.145771	PUNCT ADV ADJ	-0.54789567
-1.093592	VERB ADV ADJ	-0.6732284
-1.0678381	NUM ADV ADJ	-0.6151441
-0.9992498	ADP ADV ADJ	-0.6171674
-1.0471231	ADJ ADV ADJ	-0.31062913
-1.0855489	PROPN ADV ADJ	-0.6141542
-0.94147474	PART ADV ADJ	-0.5377159
-1.050702	DET ADV ADJ	-0.4742673
-1.1023338	ADV ADV ADJ	-0.5990235
-1.1353545	X ADV ADJ	-0.30033904
-1.1398329	CCONJ ADV ADJ	-0.49726027
-1.2291152	PRON ADV ADJ	-0.52700406
-1.2655661	SCONJ ADV ADJ	-0.31801742
-1.621232	<s> X ADJ	-0.566289
-1.1279538	NOUN X ADJ	-0.5882107
-1.1612113	PUNCT X ADJ	-0.3581341
-1.1079144	VERB X ADJ	-0.53882074
-1.2076167	NUM X ADJ	-0.29621923
-0.8484696	ADJ X ADJ	-0.30869767
-1.2530552	PART X ADJ	-0.32116902
-1.2162402	DET X ADJ	-0.30869767
-1.1395386	ADV X ADJ	-0.53247786
-1.3657365	PRON X ADJ	-0.29621923
-1.2629278	SCONJ X ADJ	-0.30869767
-1.4405806	<s> CCONJ ADJ	-0.7951387
-1.0449188	NOUN CCONJ ADJ	-0.70348233
-1.200523	PUNCT CCONJ ADJ	-0.40657234
-0.9943435	VERB CCONJ ADJ	-0.65380955
-0.9987485	NUM CCONJ ADJ	-0.31014544
-0.6859484	ADJ CCONJ ADJ	-0.51566
-0.9801279	PROPN CCONJ ADJ	-0.56105554
-1.2887957	PART CCONJ ADJ	-0.30869767
-0.47859314	DET CCONJ ADJ	-0.30033904
-1.2054158	ADV CCONJ ADJ	-0.30869767
-1.0494803	PRON CCONJ ADJ	-0.36916995
-2.382661	<s> PRON ADJ	-0.91175044
-1.512465	NOUN PRON ADJ	-0.3953187
-1.1699715	PUNCT PRON ADJ	-0.47585154
-1.2374642	VERB PRON ADJ	-0.61347026
-1.518867	NUM PRON ADJ	-0.30869767
-1.1469177	ADP PRON ADJ	-0.65599203
-1.1861007	ADJ PRON ADJ	-0.30869767
-1.4756051	PART PRON ADJ	-0.30869767
-1.4209056	ADV PRON ADJ	-0.37735724
-1.4459641	X PRON ADJ	-0.30033904
-1.0595684	CCONJ PRON ADJ	-0.32116902
-1.2904731	SCONJ PRON ADJ	-0.30033904
-1.8433938	<s> SCONJ ADJ	-0.94640636
-1.602675	NOUN SCONJ ADJ	-0.30869767
-1.4658815	PUNCT SCONJ ADJ	-0.31613743
-1.3707399	VERB SCONJ ADJ	-0.3086977
-1.0446914	PART SCONJ ADJ	-0.30869767
-1.0048659	ADV SCONJ ADJ	-0.31801742
-0.66726285	CCONJ SCONJ ADJ	-0.30869767
-1.3059733	<s> NOUN PROPN	-1.7738315
-1.1617546	NOUN NOUN PROPN	-0.8882514
-1.1679934	PUNCT NOUN PROPN	-0.6652535
-1.1384857	VERB NOUN PROPN	-0.7522166
-1.1651194	NUM NOUN PROPN	-0.6717495
-1.1800245	ADP NOUN PROPN	-0.700844
-1.172071	ADJ NOUN PROPN	-0.78665423
-1.1275518	PROPN NOUN PROPN	-0.85325575
-1.1815886	PART NOUN PROPN	-0.64082783
-1.250293	DET NOUN PROPN	-0.5328189
-1.1576766	ADV NOUN PROPN	-0.48406538
-1.179437	X NOUN PROPN	-0.4258182
-1.1467909	CCONJ NOUN PROPN	-0.44391754
-1.1288071	PRON NOUN PROPN	-0.50022995
-1.3606389	SCONJ NOUN PROPN	-0.30116767
-1.0458338	INTJ NOUN PROPN	-0.30869767
-0.69240576	<s> PUNCT PROPN	-1.6877425
-1.1317737	NOUN PUNCT PROPN	-0.87207645
-1.0953066	PUNCT PUNCT PROPN	-0.6601861
-1.1494703	VERB PUNCT PROPN	-0.8004023
-1.1370491	NUM PUNCT PROPN	-0.56830335
-0.95424306	ADP PUNCT PROPN	-0.5989166
-0.96014816	ADJ PUNCT PROPN	-0.40753916
-1.079128	PROPN PUNCT PROPN	-0.7968701
-1.0558078	PART PUNCT PROPN	-0.57809246
-0.84280205	DET PUNCT PROPN	-0.40966365
-1.202829	ADV PUNCT PROPN	-0.50467706
-0.95222336	X PUNCT PROPN	-0.3775759
-0.8882749	CCONJ PUNCT PROPN	-0.41331372
-1.048977	PRON PUNCT PROPN	-0.4435209
-0.79144466	SCONJ PUNCT PROPN	-0.30241364
-1.2846643	INTJ PUNCT PROPN	-0.3086977
-1.0338048	<s> VERB PROPN	-1.8484827
-1.1731238	NOUN VERB PROPN	-0.8887382
-1.1411042	PUNCT VERB PROPN	-0.7199715
-1.1459332	VERB VERB PROPN	-0.8517343
-1.089628	NUM VERB PROPN	-0.65612525
-1.0574859	ADP VERB PROPN	-0.6714441
-1.0932151	ADJ VERB PROPN	-0.38567492
-1.1361374	PROPN VERB PROPN	-0.7794907
-1.0797211	PART VERB PROPN	-0.64390564
-0.9516539	DET VERB PROPN	-0.52977496
-1.1519238	ADV VERB PROPN	-0.8314587
-1.1410582	X VERB PROPN	-0.5135455
-1.0519525	CCONJ VERB PROPN	-0.49391067
-1.1561174	PRON VERB PROPN	-0.67856055
-1.064863	SCONJ VERB PROPN	-0.4335146
-1.4135996	<s> NUM PROPN	-1.129549
-1.1239908	NOUN NUM PROPN	-0.51294893
-1.0887966	PUNCT NUM PROPN	-0.44808927
-1.0701425	VERB NUM PROPN	-0.64851725
-1.0977616	NUM NUM PROPN	-0.7837119
-1.0080853	ADP NUM PROPN	-0.45004708
-1.3944689	ADJ NUM PROPN	-0.3086977
-1.1292207	PROPN NUM PROPN	-0.45337236
-0.9597588	PART NUM PROPN	-0.3984771
-1.1046022	DET NUM PROPN	-0.5083491
-1.1743138	ADV NUM PROPN	-0.45023942
-1.3097295	X NUM PROPN	-0.3086977
-1.0978649	CCONJ NUM PROPN	-0.4349231
-1.3614957	PRON NUM PROPN	-0.3086977
-1.1663083	SCONJ NUM PROPN	-0.30869767
-0.7274935	<s> ADP PROPN	-1.980769
-1.0435683	NOUN ADP PROPN	-0.8663834
-0.975148	PUNCT ADP PROPN	-0.67155623
-0.9935348	VERB ADP PROPN	-0.83779883
-0.7648022	NUM ADP PROPN	-0.5858304
-0.83233315	ADP ADP PROPN	-0.619733
-0.88131094	ADJ ADP PROPN	-0.30869767
-0.9177624	PROPN ADP PROPN	-0.75635225
-0.8258827	PART ADP PROPN	-0.50802326
-0.8432181	DET ADP PROPN	-0.40663928
-0.9440198	ADV ADP PROPN	-0.736518
-0.94922125	X ADP PROPN	-0.32116902
-0.85889065	CCONJ ADP PROPN	-0.3817427
-0.9224801	PRON ADP PROPN	-0.6750956
-0.87706834	SCONJ ADP PROPN	-0.3704951
-1.2707925	<s> ADJ PROPN	-0.9413625
-0.9338122	NOUN ADJ PROPN	-0.5095128
-0.96095616	PUNCT ADJ PROPN	-0.5369637
-0.94598144	VERB ADJ PROPN	-0.5616579
-1.0358639	NUM ADJ PROPN	-0.45015436
-0.8500645	ADP ADJ PROPN	-0.5582739
-1.298384	ADJ ADJ PROPN	-0.29621923
-0.8834697	PROPN ADJ PROPN	-0.44262484
-0.9663162	PART ADJ PROPN	-0.4797331
-1.0560572	DET ADJ PROPN	-0.36129797
-1.0030117	ADV ADJ PROPN	-0.43769237
-1.1110411	X ADJ PROPN	-0.29621923
-0.89973545	CCONJ ADJ PROPN	-0.37458816
-1.4406421	PRON ADJ PROPN	-0.30869767
-0.95523554	SCONJ ADJ PROPN	-0.29621923
-1.0206492	<s> PROPN PROPN	-1.9164553
-1.0952713	NOUN PROPN PROPN	-0.80360824
-1.0439376	PUNCT PROPN PROPN	-0.727393
-1.0960224	VERB PROPN PROPN	-0.7675309
-1.0684744	NUM PROPN PROPN	-0.5663401
-1.1011515	ADP PROPN PROPN	-0.7152379
-0.9962747	ADJ PROPN PROPN	-0.4951567
-1.0550474	PROPN PROPN PROPN	-0.7400359
-1.1049268	PART PROPN PROPN	-0.5210519
-1.0722852	DET PROPN PROPN	-0.46977764
-1.0913918	ADV PROPN PROPN	-0.41331372
-0.99475175	X PROPN PROPN	-0.43936247
-1.0827343	CCONJ PROPN PROPN	-0.42531812
-0.91602594	PRON PROPN PROPN	-0.37016383
-1.2044013	SCONJ PROPN PROPN	-0.3015233
-0.95627254	INTJ PROPN PROPN	-0.30869767
-1.5576599	<s> PART PROPN	-0.48012164
-1.1332554	NOUN PART PROPN	-0.8112516
-1.1328214	PUNCT PART PROPN	-0.3727193
-1.1138543	VERB PART PROPN	-0.80850947
-0.994381	NUM PART PROPN	-0.5832162
-1.1656157	ADP PART PROPN	-0.31801742
-0.8965994	ADJ PART PROPN	-0.59472203
-1.0268251	PROPN PART PROPN	-0.7092413
-0.87275046	PART PART PROPN	-0.47148854
-0.75826454	DET PART PROPN	-0.54443586
-1.1783195	ADV PART PROPN	-0.30985552
-1.1731918	CCONJ PART PROPN	-0.30869767
-1.0849199	PRON PART PROPN	-0.49639392
-1.5136273	<s> DET PROPN	-1.0688987
-1.0167181	NOUN DET PROPN	-0.4730334
-0.9816739	PUNCT DET PROPN	-0.46792057
-1.0127335	VERB DET PROPN	-0.6241805
-1.2298951	NUM DET PROPN	-0.30033904
-1.0306597	ADP DET PROPN	-0.47814864
-0.881469	PROPN DET PROPN	-0.50438005
-1.2013172	PART DET PROPN	-0.3099844
-1.1660836	DET DET PROPN	-0.30869767
-1.0603061	ADV DET PROPN	-0.36521614
-0.9147397	X DET PROPN	-0.42850977
-1.1292228	CCONJ DET PROPN	-0.3597132
-1.3642169	PRON DET PROPN	-0.30869767
-1.0636331	SCONJ DET PROPN	-0.30241364
-1.3858047	<s> ADV PROPN	-1.6879596
-1.1581497	NOUN ADV PROPN	-0.6423334
-1.1498151	PUNCT ADV PROPN	-0.5529991
-1.0968002	VERB ADV PROPN	-0.56407696
-1.3948399	NUM ADV PROPN	-0.30241364
-1.1627069	ADP ADV PROPN	-0.4038916
-1.0892383	PROPN ADV PROPN	-0.433849
-1.4935527	PART ADV PROPN	-0.30184683
-1.2505612	DET ADV PROPN	-0.30366316
-1.2437849	ADV ADV PROPN	-0.43629837
-1.3669835	X ADV PROPN	-0.30869767
-1.2536606	CCONJ ADV PROPN	-0.3015233
-1.481014	PRON ADV PROPN	-0.30310738
-1.3068892	SCONJ ADV PROPN	-0.30366316
-0.98834676	<s> X PROPN	-0.5377422
-1.0629092	NOUN X PROPN	-0.5979722
-0.92334735	PUNCT X PROPN	-0.41097364
-0.99030924	VERB X PROPN	-0.52739114
-0.9758632	NUM X PROPN	-0.30449823
-0.9940367	ADP X PROPN	-0.31613743
-0.9408412	PROPN X PROPN	-0.4195847
-0.9572342	PART X PROPN	-0.33408555
-0.9327204	DET X PROPN	-0.30241364
-0.9612999	ADV X PROPN	-0.5285419
-0.8676231	X X PROPN	-0.29868641
-0.90862095	CCONJ X PROPN	-0.31801742
-1.0741043	PRON X PROPN	-0.30732426
-0.98705614	SCONJ X PROPN	-0.30241364
-1.0635397	<s> CCONJ PROPN	-0.80351406
-1.0144383	NOUN CCONJ PROPN	-0.8183713
-1.021336	PUNCT CCONJ PROPN	-0.46713477
-1.1660762	VERB CCONJ PROPN	-0.49249494
-0.99726814	NUM CCONJ PROPN	-0.3402157
-1.2641543	ADJ CCONJ PROPN	-0.30869767
-0.8435025	PROPN CCONJ PROPN	-0.7863034
-1.0805123	PART CCONJ PROPN	-0.30241364
-1.2021166	ADV CCONJ PROPN	-0.30869767
-0.7551457	X CCONJ PROPN	-0.30869767
-0.81516606	PRON CCONJ PROPN	-0.413851
-2.350084	<s> PRON PROPN	-0.809251
-1.2397063	NOUN PRON PROPN	-0.4227168
-1.2656144	PUNCT PRON PROPN	-0.40937448
-1.2256291	VERB PRON PROPN	-0.4738149
-1.4725432	NUM PRON PROPN	-0.30869767
-1.3595968	ADP PRON PROPN	-0.43211067
-1.0678725	PROPN PRON PROPN	-0.34462494
-1.5763419	PART PRON PROPN	-0.3086977
-1.3232802	DET PRON PROPN	-0.30869767
-1.657285	ADV PRON PROPN	-0.3086977
-1.4115185	X PRON PROPN	-0.3015233
-1.395602	CCONJ PRON PROPN	-0.3086977
-1.6565653	PRON PRON PROPN	-0.30869767
-1.424859	SCONJ PRON PROPN	-0.30869767
-1.0112499	<s> SCONJ PROPN	-1.1223352
-1.2632499	NOUN SCONJ PROPN	-0.30366316
-1.0056337	PUNCT SCONJ PROPN	-0.45808324
-1.1169338	VERB SCONJ PROPN	-0.36129835
-0.84715706	NUM SCONJ PROPN	-0.30869767
-0.9622054	ADP SCONJ PROPN	-0.30869767
-1.1596608	ADV SCONJ PROPN	-0.3015233
-1.5433787	<s> INTJ PROPN	-0.30869767
-0.78657	NOUN INTJ PROPN	-0.30869767
-1.0525516	PUNCT INTJ PROPN	-0.30869767
-0.6208685	PROPN INTJ PROPN	-0.30869767
-0.21613966	DET INTJ PROPN	-0.30869767
-0.62481004	NOUN SPACE PROPN	-0.30869767
-0.3088792	VERB SPACE PROPN	-0.30033904
-0.18585667	PART SPACE PROPN	-0.30869767
-1.1171101	<s> NOUN PART	-2.0055377
-1.1651436	NOUN NOUN PART	-0.91459674
-1.0751195	PUNCT NOUN PART	-0.72740144
-1.1419284	VERB NOUN PART	-0.9101073
-1.1065688	NUM NOUN PART	-0.81617
-1.1171703	ADP NOUN PART	-0.8314587
-1.1138997	ADJ NOUN PART	-0.85389644
-1.1308868	PROPN NOUN PART	-0.85233176
-1.0809244	PART NOUN PART	-0.7289577
-1.0783885	DET NOUN PART	-0.7776842
-1.0570122	ADV NOUN PART	-0.7362199
-0.93489945	X NOUN PART	-0.519698
-1.0139054	CCONJ NOUN PART	-0.66880774
-1.0275507	PRON NOUN PART	-0.67580885
-0.99663985	SCONJ NOUN PART	-0.34939164
-2.14527	<s> PUNCT PART	-0.7150509
-1.232491	NOUN PUNCT PART	-0.72575337
-1.2692808	PUNCT PUNCT PART	-0.47904816
-1.2577258	VERB PUNCT PART	-0.5793046
-1.292226	NUM PUNCT PART	-0.4537694
-1.5940834	ADP PUNCT PART	-0.32116902
-1.4176923	ADJ PUNCT PART	-0.30033904
-1.1521183	PROPN PUNCT PART	-0.6398676
-1.5215222	PART PUNCT PART	-0.30732426
-1.6703674	ADV PUNCT PART	-0.30366316
-1.4974939	CCONJ PUNCT PART	-0.30869767
-1.3808651	PRON PUNCT PART	-0.36916995
-1.3353746	INTJ PUNCT PART	-0.30869767
-1.0270607	<s> VERB PART	-1.8435377
-1.1702858	NOUN VERB PART	-0.95222425
-1.076192	PUNCT VERB PART	-0.7438674
-1.1431388	VERB VERB PART	-0.9047456
-1.0192577	NUM VERB PART	-0.66963273
-1.0544864	ADP VERB PART	-0.7303491
-0.8950726	ADJ VERB PART	-0.559764
-1.1054918	PROPN VERB PART	-0.8513098
-1.111468	PART VERB PART	-0.7595003
-0.9488922	DET VERB PART	-0.50912786
-1.1491207	ADV VERB PART	-0.8813802
-1.0230702	X VERB PART	-0.7450092
-1.0064625	CCONJ VERB PART	-0.5735071
-1.0911372	PRON VERB PART	-0.8458977
-1.0077789	SCONJ VERB PART	-0.39998332
-0.98999363	INTJ VERB PART	-0.30869767
-1.3216599	<s> NUM PART	-1.1710603
-0.990898	NOUN NUM PART	-0.65723985
-1.0031862	PUNCT NUM PART	-0.48452634
-1.0704747	VERB NUM PART	-0.6927222
-1.0980914	NUM NUM PART	-0.8106183
-1.0084796	ADP NUM PART	-0.585019
-0.86333424	ADJ NUM PART	-0.46788716
-0.9707554	PROPN NUM PART	-0.4852577
-1.0726278	PART NUM PART	-0.36707443
-0.9916055	DET NUM PART	-0.5164665
-0.90243703	ADV NUM PART	-0.5973662
-1.1325891	X NUM PART	-0.30366316
-1.0305382	CCONJ NUM PART	-0.3884432
-0.90830696	PRON NUM PART	-0.40753916
-0.9369722	SCONJ NUM PART	-0.3148886
-2.968017	<s> ADP PART	-0.45632014
-1.2978358	NOUN ADP PART	-0.40753916
-1.7039609	PUNCT ADP PART	-0.30033904
-1.6358998	VERB ADP PART	-0.35324433
-1.546771	ADP ADP PART	-0.29621923
-1.7170254	PROPN ADP PART	-0.30869767
-1.5621734	ADV ADP PART	-0.31014544
-1.2798219	X ADP PART	-0.30869767
-1.5406337	PRON ADP PART	-0.30241364
-0.7270469	<s> ADJ PART	-1.5399415
-0.8289098	NOUN ADJ PART	-0.64553666
-0.8145604	PUNCT ADJ PART	-0.63803333
-0.975281	VERB ADJ PART	-0.69040823
-0.73214585	NUM ADJ PART	-0.56835896
-0.81520474	ADP ADJ PART	-0.6644147
-0.6394797	ADJ ADJ PART	-0.579198
-0.8041687	PROPN ADJ PART	-0.5558044
-0.8721086	PART ADJ PART	-0.46525463
-0.6627892	DET ADJ PART	-0.5359628
-0.7541622	ADV ADJ PART	-0.6787296
-0.6793662	X ADJ PART	-0.4689007
-0.7388966	CCONJ ADJ PART	-0.5815793
-0.6534944	PRON ADJ PART	-0.4700169
-0.59322524	SCONJ ADJ PART	-0.54301775
-1.1915057	<s> PROPN PART	-1.8628932
-1.157341	NOUN PROPN PART	-0.7227026
-1.0738655	PUNCT PROPN PART	-0.6598502
-1.0963345	VERB PROPN PART	-0.80570394
-0.98765296	NUM PROPN PART	-0.46170607
-1.0696571	ADP PROPN PART	-0.7421262
-0.9547903	ADJ PROPN PART	-0.487054
-1.055346	PROPN PROPN PART	-0.7432132
-1.059762	PART PROPN PART	-0.49195838
-0.88932097	DET PROPN PART	-0.48696244
-0.9657328	ADV PROPN PART	-0.5185577
-0.9478884	X PROPN PART	-0.4622655
-0.9732652	CCONJ PROPN PART	-0.44854215
-1.2387053	PRON PROPN PART	-0.31399876
-1.0558476	SCONJ PROPN PART	-0.36448506
-0.9570291	INTJ PROPN PART	-0.30869767
-1.6929338	<s> PART PART	-0.61138266
-1.1633017	NOUN PART PART	-0.84945184
-1.0637807	PUNCT PART PART	-0.40620515
-1.1142318	VERB PART PART	-0.7458744
-1.0618633	NUM PART PART	-0.53818905
-1.0070087	ADP PART PART	-0.3193653
-1.5872722	ADJ PART PART	-0.30241364
-1.0572593	PROPN PART PART	-0.7185343
-1.3332967	PART PART PART	-0.3099844
-1.407491	DET PART PART	-0.29621923
-0.9987273	ADV PART PART	-0.4349231
-0.9474754	CCONJ PART PART	-0.29621923
-1.0854067	PRON PART PART	-0.417289
-1.9744965	<s> DET PART	-0.85260916
-1.107778	NOUN DET PART	-0.49905747
-1.1509237	PUNCT DET PART	-0.39713457
-1.0426755	VERB DET PART	-0.55890524
-0.9059674	NUM DET PART	-0.49410868
-1.1222198	ADP DET PART	-0.50664735
-0.89367664	ADJ DET PART	-0.30869767
-1.1422715	PROPN DET PART	-0.49410868
-1.093402	PART DET PART	-0.3953187
-1.3287398	DET DET PART	-0.30869767
-0.9848499	ADV DET PART	-0.50664735
-1.3091375	X DET PART	-0.31801742
-1.1201482	CCONJ DET PART	-0.37199068
-0.83615655	PRON DET PART	-0.53247786
-1.0532742	SCONJ DET PART	-0.30033904
-2.3418536	<s> ADV PART	-0.98112607
-1.1546643	NOUN ADV PART	-0.65045583
-1.1906276	PUNCT ADV PART	-0.45471182
-1.1648638	VERB ADV PART	-0.54550815
-1.2815052	NUM ADV PART	-0.30033904
-1.5400311	ADP ADV PART	-0.30033904
-1.233998	ADJ ADV PART	-0.29621923
-1.2220007	PROPN ADV PART	-0.431817
-1.4796529	PART ADV PART	-0.3015233
-1.382088	DET ADV PART	-0.30366316
-1.1877385	ADV ADV PART	-0.46415544
-1.1712158	X ADV PART	-0.30869767
-1.5422679	CCONJ ADV PART	-0.30869767
-1.1707217	PRON ADV PART	-0.48966062
-1.4297097	SCONJ ADV PART	-0.30869767
-2.1780818	<s> X PART	-0.30033904
-1.6974959	NOUN X PART	-0.29621923
-1.6252232	PUNCT X PART	-0.30869767
-1.6392564	VERB X PART	-0.30869767
-1.4258165	NUM X PART	-0.30869767
-1.5982397	PROPN X PART	-0.30869767
-1.5766113	ADV X PART	-0.30033904
-1.3638096	CCONJ X PART	-0.30869767
-1.5972959	PRON X PART	-0.30869767
-2.472962	<s> CCONJ PART	-0.31801742
-1.3936327	NOUN CCONJ PART	-0.38398892
-1.5550976	VERB CCONJ PART	-0.31801742
-1.4789715	NUM CCONJ PART	-0.30869767
-1.8756182	PROPN CCONJ PART	-0.30869767
-1.7059091	PRON CCONJ PART	-0.30869767
-1.1559205	<s> PRON PART	-1.7930133
-0.96267337	NOUN PRON PART	-0.6043362
-1.024666	PUNCT PRON PART	-0.5840152
-1.0443506	VERB PRON PART	-0.7720138
-0.9290883	NUM PRON PART	-0.4349231
-0.9529227	ADP PRON PART	-0.70028216
-1.1254255	ADJ PRON PART	-0.30869767
-0.8549839	PROPN PRON PART	-0.5236299
-0.93171287	PART PRON PART	-0.42203394
-1.0726954	DET PRON PART	-0.30033904
-0.94255257	ADV PRON PART	-0.49964315
-0.76499665	X PRON PART	-0.5650779
-0.9026753	CCONJ PRON PART	-0.42056942
-0.88746935	PRON PRON PART	-0.59970134
-0.99069124	SCONJ PRON PART	-0.37199068
-0.76307994	INTJ PRON PART	-0.30869767
-2.7736645	<s> SCONJ PART	-0.30366316
-1.8076212	NOUN SCONJ PART	-0.30869767
-1.7580581	VERB SCONJ PART	-0.30869767
-1.7029063	<s> INTJ PART	-0.30869767
-2.2266376	<s> NOUN DET	-1.1697444
-1.2626469	NOUN NOUN DET	-0.5569576
-1.3494078	PUNCT NOUN DET	-0.47524148
-1.2044404	VERB NOUN DET	-0.56835896
-1.2422853	NUM NOUN DET	-0.56684947
-1.1497852	ADP NOUN DET	-0.5854657
-1.2490206	ADJ NOUN DET	-0.56884193
-1.2666032	PROPN NOUN DET	-0.5581018
-1.2743012	PART NOUN DET	-0.5025589
-1.3534036	DET NOUN DET	-0.4429562
-1.5082666	ADV NOUN DET	-0.4231432
-1.5037787	X NOUN DET	-0.30033904
-1.3599479	CCONJ NOUN DET	-0.3509128
-1.4008887	PRON NOUN DET	-0.4275127
-1.3767902	SCONJ NOUN DET	-0.30869767
-1.6700529	<s> PUNCT DET	-1.055019
-1.2253327	NOUN PUNCT DET	-0.6699513
-1.2133261	PUNCT PUNCT DET	-0.48247856
-1.2153025	VERB PUNCT DET	-0.6401406
-1.4066666	NUM PUNCT DET	-0.38650548
-1.2605929	ADP PUNCT DET	-0.37735724
-1.4247876	ADJ PUNCT DET	-0.30869767
-1.179625	PROPN PUNCT DET	-0.64770466
-1.102286	PART PUNCT DET	-0.514661
-1.5719035	DET PUNCT DET	-0.30869767
-1.3354127	ADV PUNCT DET	-0.38800645
-1.5125943	X PUNCT DET	-0.30869767
-1.3254299	CCONJ PUNCT DET	-0.3086977
-1.4653845	PRON PUNCT DET	-0.31613743
-1.303504	INTJ PUNCT DET	-0.30869767
-1.4768872	<s> VERB DET	-1.5139775
-1.173774	NOUN VERB DET	-0.7713892
-1.2559404	PUNCT VERB DET	-0.52936333
-1.1765683	VERB VERB DET	-0.7139877
-1.269089	NUM VERB DET	-0.4888449
-1.1735669	ADP VERB DET	-0.5449099
-1.5941238	ADJ VERB DET	-0.30033904
-1.1367695	PROPN VERB DET	-0.63462585
-1.1955773	PART VERB DET	-0.5791086
-1.4859135	DET VERB DET	-0.36834463
-1.182549	ADV VERB DET	-0.7335979
-1.3673475	X VERB DET	-0.29930538
-1.2797638	CCONJ VERB DET	-0.38961685
-1.156847	PRON VERB DET	-0.60025144
-1.1267153	SCONJ VERB DET	-0.40753916
-2.8698738	<s> NUM DET	-0.3148886
-1.5042208	NOUN NUM DET	-0.3110165
-1.6278932	PUNCT NUM DET	-0.30033904
-1.3982733	VERB NUM DET	-0.4478228
-1.2118922	NUM NUM DET	-0.6334594
-1.3553677	ADP NUM DET	-0.31613743
-1.6732838	PROPN NUM DET	-0.30033904
-1.5573119	PART NUM DET	-0.29621923
-1.552277	DET NUM DET	-0.3110165
-1.4193728	ADV NUM DET	-0.29868641
-1.2181469	CCONJ NUM DET	-0.3775759
-1.1907918	<s> ADP DET	-1.625992
-1.0775813	NOUN ADP DET	-0.7090764
-1.0591855	PUNCT ADP DET	-0.5501987
-0.9977232	VERB ADP DET	-0.6421548
-1.151756	NUM ADP DET	-0.3953187
-0.97896874	ADP ADP DET	-0.4888449
-1.1031728	ADJ ADP DET	-0.30869767
-1.0567371	PROPN ADP DET	-0.60552865
-1.0607831	PART ADP DET	-0.3728276
-1.1793579	DET ADP DET	-0.38183537
-1.0153584	ADV ADP DET	-0.59567595
-1.0208902	CCONJ ADP DET	-0.38567492
-0.95897055	PRON ADP DET	-0.6099403
-1.0422945	SCONJ ADP DET	-0.49410868
-2.9910345	<s> ADJ DET	-0.30869767
-1.8343823	NOUN ADJ DET	-0.30869767
-1.8189058	PUNCT ADJ DET	-0.30869767
-1.4853269	VERB ADJ DET	-0.3775759
-1.7432557	NUM ADJ DET	-0.30869767
-1.7434626	PROPN ADJ DET	-0.30869767
-1.5144984	PART ADJ DET	-0.32116902
-1.2406089	CCONJ ADJ DET	-0.31801742
-2.2996125	<s> PROPN DET	-0.9539276
-1.2340117	NOUN PROPN DET	-0.56105554
-1.3772001	PUNCT PROPN DET	-0.46790722
-1.1966097	VERB PROPN DET	-0.6395997
-1.7955728	NUM PROPN DET	-0.30869767
-1.2193031	ADP PROPN DET	-0.51552033
-1.5754303	ADJ PROPN DET	-0.30869767
-1.2817401	PROPN PROPN DET	-0.6151441
-1.4687241	PART PROPN DET	-0.31887472
-1.7195021	DET PROPN DET	-0.30869767
-1.4618611	ADV PROPN DET	-0.38183537
-1.5473975	X PROPN DET	-0.30869767
-1.3415369	CCONJ PROPN DET	-0.31014544
-1.4223615	PRON PROPN DET	-0.30869767
-1.4017444	SCONJ PROPN DET	-0.30869767
-1.668798	<s> PART DET	-0.6503585
-1.1419259	NOUN PART DET	-0.65136766
-1.3462924	PUNCT PART DET	-0.30744895
-1.1527861	VERB PART DET	-0.60570544
-1.4668857	NUM PART DET	-0.49410868
-1.4062902	ADP PART DET	-0.30869767
-1.1036799	ADJ PART DET	-0.51566
-1.1727049	PROPN PART DET	-0.57468176
-1.1630163	PART PART DET	-0.3991565
-1.5310941	ADV PART DET	-0.30033904
-1.09613	PRON PART DET	-0.56399155
-2.6333342	<s> DET DET	-0.51566
-1.5774641	NOUN DET DET	-0.3086977
-1.499835	PUNCT DET DET	-0.32116902
-1.2348026	VERB DET DET	-0.40753916
-1.2719429	ADP DET DET	-0.36834463
-1.4272633	PROPN DET DET	-0.31801742
-1.2287927	PART DET DET	-0.41492745
-1.3842502	DET DET DET	-0.30869767
-1.4461535	ADV DET DET	-0.29621923
-1.5355829	X DET DET	-0.30869767
-1.254969	CCONJ DET DET	-0.3953187
-1.5600196	PRON DET DET	-0.30869767
-1.5765187	<s> ADV DET	-1.5698245
-1.1033603	NOUN ADV DET	-0.64376265
-1.2079949	PUNCT ADV DET	-0.46998245
-1.2685752	VERB ADV DET	-0.44116664
-1.3356714	ADP ADV DET	-0.3627295
-1.4486331	ADJ ADV DET	-0.30869767
-1.3017093	PROPN ADV DET	-0.316972
-1.5291063	PART ADV DET	-0.3015233
-1.3871123	ADV ADV DET	-0.40937448
-1.4293221	CCONJ ADV DET	-0.32116902
-1.3206065	PRON ADV DET	-0.4742673
-1.3082849	SCONJ ADV DET	-0.30033904
-1.1459069	<s> X DET	-0.62122685
-1.033607	NOUN X DET	-0.5818506
-1.1503485	PUNCT X DET	-0.36834463
-1.0016468	VERB X DET	-0.49383646
-1.3547115	NUM X DET	-0.30869767
-1.1738894	ADP X DET	-0.30033904
-1.0268697	PROPN X DET	-0.41492745
-1.0871211	PART X DET	-0.31062913
-1.0720513	ADV X DET	-0.43698305
-1.1271988	CCONJ X DET	-0.29621923
-0.87254983	PRON X DET	-0.49222872
-1.0493852	SCONJ X DET	-0.3086977
-1.118213	<s> CCONJ DET	-0.80098677
-1.0200562	NOUN CCONJ DET	-0.6804028
-1.141926	PUNCT CCONJ DET	-0.36479607
-1.1253519	VERB CCONJ DET	-0.34231496
-1.2076986	NUM CCONJ DET	-0.29868641
-0.9471415	PROPN CCONJ DET	-0.5880593
-1.0980136	PART CCONJ DET	-0.30241364
-1.1920642	ADV CCONJ DET	-0.30033904
-1.0171134	CCONJ CCONJ DET	-0.30869767
-0.9239754	PRON CCONJ DET	-0.4429562
-2.3998218	<s> PRON DET	-0.8365596
-1.5260354	NOUN PRON DET	-0.31613743
-1.2898674	PUNCT PRON DET	-0.3833558
-1.2901759	VERB PRON DET	-0.5067544
-1.3726194	NUM PRON DET	-0.30869767
-1.1519891	ADP PRON DET	-0.49647024
-1.6495554	PART PRON DET	-0.30869767
-1.3281181	ADV PRON DET	-0.36129797
-1.4943211	X PRON DET	-0.3086977
-1.2682219	CCONJ PRON DET	-0.29868641
-1.4976206	SCONJ PRON DET	-0.3086977
-1.2869648	<s> SCONJ DET	-1.1281099
-1.4517405	NOUN SCONJ DET	-0.30869767
-1.068088	PUNCT SCONJ DET	-0.50664735
-1.1196514	VERB SCONJ DET	-0.37735724
-0.84942514	NUM SCONJ DET	-0.30869767
-1.1669436	ADP SCONJ DET	-0.30869767
-1.1970423	ADV SCONJ DET	-0.30869767
-0.85428226	<s> NOUN ADV	-2.2802553
-1.1338878	NOUN NOUN ADV	-0.88261116
-1.1334801	PUNCT NOUN ADV	-0.6751795
-1.1384857	VERB NOUN ADV	-0.7863155
-1.1330752	NUM NOUN ADV	-0.7251316
-1.1135398	ADP NOUN ADV	-0.65914464
-1.110457	ADJ NOUN ADV	-0.7759292
-1.1275518	PROPN NOUN ADV	-0.81231004
-1.0773512	PART NOUN ADV	-0.72687984
-1.0750535	DET NOUN ADV	-0.725026
-1.0235975	ADV NOUN ADV	-0.62182707
-1.1270888	X NOUN ADV	-0.5114443
-1.0505185	CCONJ NOUN ADV	-0.49592537
-1.056266	PRON NOUN ADV	-0.58954656
-0.9904102	SCONJ NOUN ADV	-0.4003391
-0.671467	SPACE NOUN ADV	-0.30869767
-1.1713961	<s> PUNCT ADV	-1.2655945
-1.1627176	NOUN PUNCT ADV	-0.8965768
-1.1712227	PUNCT PUNCT ADV	-0.5774298
-1.1526872	VERB PUNCT ADV	-0.8177402
-1.1412551	NUM PUNCT ADV	-0.5911845
-1.1341891	ADP PUNCT ADV	-0.44444868
-1.1275411	ADJ PUNCT ADV	-0.49410868
-1.1442417	PROPN PUNCT ADV	-0.6861001
-1.101353	PART PUNCT ADV	-0.5715716
-1.4210758	DET PUNCT ADV	-0.29621923
-1.0700014	ADV PUNCT ADV	-0.52788925
-1.048128	X PUNCT ADV	-0.49410868
-1.154773	CCONJ PUNCT ADV	-0.36448506
-1.011099	PRON PUNCT ADV	-0.49483398
-1.083675	INTJ PUNCT ADV	-0.31801742
-1.2854906	<s> VERB ADV	-1.6535829
-1.1699632	NOUN VERB ADV	-0.86371565
-1.1719615	PUNCT VERB ADV	-0.61808103
-1.1725491	VERB VERB ADV	-0.80034816
-1.123872	NUM VERB ADV	-0.49804562
-1.1683205	ADP VERB ADV	-0.5599791
-1.2674227	ADJ VERB ADV	-0.44844812
-1.1628425	PROPN VERB ADV	-0.703236
-1.148877	PART VERB ADV	-0.5468107
-1.2910162	DET VERB ADV	-0.34462494
-1.148802	ADV VERB ADV	-0.8112516
-1.1366524	X VERB ADV	-0.5026228
-1.1451724	CCONJ VERB ADV	-0.47732806
-1.0908234	PRON VERB ADV	-0.6990773
-1.0600455	SCONJ VERB ADV	-0.4641971
-0.98909914	INTJ VERB ADV	-0.30869767
-1.939453	<s> NUM ADV	-0.8237959
-1.1285802	NOUN NUM ADV	-0.524917
-1.1454927	PUNCT NUM ADV	-0.39275062
-1.1406621	VERB NUM ADV	-0.58018243
-1.1013443	NUM NUM ADV	-0.753106
-1.2426715	ADP NUM ADV	-0.49097982
-1.4077848	ADJ NUM ADV	-0.3086977
-1.1861271	PROPN NUM ADV	-0.42126763
-1.3369076	PART NUM ADV	-0.3509128
-1.0678934	DET NUM ADV	-0.50079703
-1.1803495	ADV NUM ADV	-0.43769237
-1.29248	X NUM ADV	-0.30033904
-1.2889359	CCONJ NUM ADV	-0.3953187
-1.0767013	PRON NUM ADV	-0.49410868
-1.4331957	<s> ADP ADV	-1.3411161
-1.0811049	NOUN ADP ADV	-0.6875672
-1.1611365	PUNCT ADP ADV	-0.4439792
-1.0977577	VERB ADP ADV	-0.6376173
-1.2436895	NUM ADP ADV	-0.36129797
-1.1146157	ADP ADP ADV	-0.36916995
-1.0605428	PROPN ADP ADV	-0.55390924
-1.3953042	PART ADP ADV	-0.30515984
-1.5124576	DET ADP ADV	-0.30869767
-1.1972568	ADV ADP ADV	-0.47671717
-1.1348587	CCONJ ADP ADV	-0.31399876
-1.1237898	PRON ADP ADV	-0.4497041
-1.0490388	SCONJ ADP ADV	-0.43982732
-2.3521295	<s> ADJ ADV	-0.4231432
-1.4008144	NOUN ADJ ADV	-0.30366316
-1.520887	PUNCT ADJ ADV	-0.30033904
-1.1716954	VERB ADJ ADV	-0.48966062
-1.4438843	NUM ADJ ADV	-0.32116902
-1.1712725	ADP ADJ ADV	-0.4355679
-1.5018182	ADJ ADJ ADV	-0.30869767
-1.4449941	PROPN ADJ ADV	-0.30033904
-1.2825667	PART ADJ ADV	-0.31333256
-1.3240243	DET ADJ ADV	-0.30033904
-1.3405516	ADV ADJ ADV	-0.29868641
-1.4963127	CCONJ ADJ ADV	-0.30869767
-1.280273	PRON ADJ ADV	-0.30033904
-1.1272765	<s> PROPN ADV	-1.9126539
-1.0983683	NOUN PROPN ADV	-0.6852835
-1.1811278	PUNCT PROPN ADV	-0.61911994
-1.1611736	VERB PROPN ADV	-0.6739318
-0.9905005	NUM PROPN ADV	-0.5536672
-1.1048199	ADP PROPN ADV	-0.61823875
-1.0996721	ADJ PROPN ADV	-0.53247786
-1.1204234	PROPN PROPN ADV	-0.6172036
-1.0221376	PART PROPN ADV	-0.52259576
-0.9313084	DET PROPN ADV	-0.5092999
-1.0960885	ADV PROPN ADV	-0.45651898
-1.2697103	X PROPN ADV	-0.41492745
-1.0888923	CCONJ PROPN ADV	-0.34865266
-1.1399336	PRON PROPN ADV	-0.31801742
-1.0634941	SCONJ PROPN ADV	-0.34751573
-1.1503147	<s> PART ADV	-0.8499488
-1.1293578	NOUN PART ADV	-0.7836236
-1.1249373	PUNCT PART ADV	-0.3724004
-1.1099569	VERB PART ADV	-0.79401815
-1.0569917	NUM PART ADV	-0.5913762
-0.9971725	ADP PART ADV	-0.36834463
-1.3435326	ADJ PART ADV	-0.4355679
-1.0851777	PROPN PART ADV	-0.54919815
-1.4517334	PART PART ADV	-0.3071719
-1.2038484	DET PART ADV	-0.31801742
-1.0441766	ADV PART ADV	-0.50793093
-1.1205132	X PART ADV	-0.30869767
-1.1769927	PRON PART ADV	-0.42897052
-0.90539986	SCONJ PART ADV	-0.30869767
-1.7633739	<s> DET ADV	-0.9923242
-1.1788292	NOUN DET ADV	-0.4355679
-1.1669139	PUNCT DET ADV	-0.34266493
-1.0891849	VERB DET ADV	-0.5764817
-1.2425767	NUM DET ADV	-0.30869767
-1.1341946	ADP DET ADV	-0.4782341
-1.4083228	PROPN DET ADV	-0.32116902
-1.2137243	PART DET ADV	-0.30732426
-1.1778433	DET DET ADV	-0.30869767
-1.1525021	ADV DET ADV	-0.39713457
-1.1901922	X DET ADV	-0.44610775
-1.1394	CCONJ DET ADV	-0.3403159
-1.378652	PRON DET ADV	-0.29621923
-0.8028737	<s> ADV ADV	-2.2473884
-1.0616922	NOUN ADV ADV	-0.8513098
-1.0622684	PUNCT ADV ADV	-0.6248506
-1.0280156	VERB ADV ADV	-0.68748975
-0.846864	NUM ADV ADV	-0.519414
-0.9941504	ADP ADV ADV	-0.49163193
-1.1887456	ADJ ADV ADV	-0.32116902
-0.94781417	PROPN ADV ADV	-0.6661904
-0.9363051	PART ADV ADV	-0.44589692
-0.9729467	DET ADV ADV	-0.5059996
-1.025965	ADV ADV ADV	-0.6786804
-1.3349013	X ADV ADV	-0.30869767
-0.9174465	CCONJ ADV ADV	-0.4492993
-0.92467415	PRON ADV ADV	-0.6643794
-0.8496285	SCONJ ADV ADV	-0.43985844
-0.65913755	INTJ ADV ADV	-0.30869767
-1.7347295	<s> X ADV	-0.3775759
-0.96429455	NOUN X ADV	-0.64212495
-1.2647222	PUNCT X ADV	-0.41492745
-1.0535115	VERB X ADV	-0.47333926
-1.3738272	NUM X ADV	-0.30869767
-1.3843002	ADP X ADV	-0.30869767
-1.1201652	PROPN X ADV	-0.3953187
-1.2502123	PART X ADV	-0.32116902
-1.0246471	ADV X ADV	-0.54401827
-1.1398567	CCONJ X ADV	-0.29621923
-1.1018953	PRON X ADV	-0.54301775
-1.0335283	<s> CCONJ ADV	-0.9182415
-1.0703369	NOUN CCONJ ADV	-0.66939735
-1.0143894	PUNCT CCONJ ADV	-0.47353244
-0.9874263	VERB CCONJ ADV	-0.5038774
-1.4776258	NUM CCONJ ADV	-0.30869767
-1.214035	ADJ CCONJ ADV	-0.30033904
-1.0602548	PROPN CCONJ ADV	-0.48089895
-1.0999072	PART CCONJ ADV	-0.29621923
-0.8140445	ADV CCONJ ADV	-0.4231432
-0.98366725	CCONJ CCONJ ADV	-0.30869767
-1.3586645	PRON CCONJ ADV	-0.30449823
-0.4984644	SCONJ CCONJ ADV	-0.30869767
-0.4920174	<s> PRON ADV	-2.3581815
-0.90432876	NOUN PRON ADV	-0.6356289
-1.0285566	PUNCT PRON ADV	-0.63114953
-1.0770532	VERB PRON ADV	-0.66901773
-1.0221008	NUM PRON ADV	-0.3627295
-0.9857173	ADP PRON ADV	-0.57763696
-0.89705485	ADJ PRON ADV	-0.32116902
-0.8193034	PROPN PRON ADV	-0.6367762
-0.83519083	PART PRON ADV	-0.5535877
-0.68193555	DET PRON ADV	-0.46525463
-0.9090902	ADV PRON ADV	-0.5269086
-1.1604604	X PRON ADV	-0.41492745
-1.0362277	CCONJ PRON ADV	-0.43211067
-0.8472658	PRON PRON ADV	-0.5791086
-0.91276133	SCONJ PRON ADV	-0.36959505
-1.1114032	<s> SCONJ ADV	-1.1127003
-0.75786746	NOUN SCONJ ADV	-0.6203953
-0.9738498	PUNCT SCONJ ADV	-0.4513976
-0.86871827	VERB SCONJ ADV	-0.57813
-0.8068412	NUM SCONJ ADV	-0.30869767
-0.90618426	ADP SCONJ ADV	-0.30033904
-0.70627004	PROPN SCONJ ADV	-0.3953187
-0.98375916	PART SCONJ ADV	-0.30869767
-1.0890719	ADV SCONJ ADV	-0.3148886
-0.79148316	PRON SCONJ ADV	-0.36834463
-1.6533871	<s> INTJ ADV	-0.3086977
-0.74150276	NOUN SPACE ADV	-0.30869767
-2.432612	<s> NOUN X	-0.88876915
-1.1654599	NOUN NOUN X	-0.70524204
-1.2980239	PUNCT NOUN X	-0.45858926
-1.2770493	VERB NOUN X	-0.56633055
-1.2042757	NUM NOUN X	-0.58697677
-1.2225685	ADP NOUN X	-0.49208117
-1.2112004	ADJ NOUN X	-0.53580445
-1.2285937	PROPN NOUN X	-0.560063
-1.2282192	PART NOUN X	-0.5702516
-1.2557629	DET NOUN X	-0.4988222
-1.3604621	ADV NOUN X	-0.40412217
-1.7956319	X NOUN X	-0.30869767
-1.5857337	CCONJ NOUN X	-0.30241364
-1.4008887	PRON NOUN X	-0.46163896
-1.521659	SCONJ NOUN X	-0.3086977
-2.8971734	<s> PUNCT X	-0.3148886
-1.306573	NOUN PUNCT X	-0.6217474
-1.4505832	PUNCT PUNCT X	-0.33245456
-1.3386947	VERB PUNCT X	-0.44584876
-1.5055763	NUM PUNCT X	-0.31399876
-1.461654	ADP PUNCT X	-0.31613743
-1.4958107	PROPN PUNCT X	-0.35780182
-1.6549227	PART PUNCT X	-0.30755284
-1.6114688	DET PUNCT X	-0.30869767
-1.4343224	ADV PUNCT X	-0.31062913
-1.4996372	CCONJ PUNCT X	-0.30869767
-1.7903696	PRON PUNCT X	-0.30869767
-1.3370522	INTJ PUNCT X	-0.30869767
-2.2241607	<s> VERB X	-0.91479474
-1.173774	NOUN VERB X	-0.7873732
-1.478235	PUNCT VERB X	-0.3791498
-1.2087897	VERB VERB X	-0.5785978
-1.5780888	NUM VERB X	-0.31062913
-1.3996326	ADP VERB X	-0.4349231
-1.6210508	ADJ VERB X	-0.30869767
-1.2718713	PROPN VERB X	-0.50079703
-1.501917	PART VERB X	-0.31048027
-1.6217228	DET VERB X	-0.3086977
-1.2495455	ADV VERB X	-0.6412098
-1.6773367	X VERB X	-0.30366316
-1.5937619	CCONJ VERB X	-0.2979801
-1.2711743	PRON VERB X	-0.5195583
-1.6851228	SCONJ VERB X	-0.3086977
-3.181137	<s> NUM X	-0.30033904
-1.4104548	NOUN NUM X	-0.31399876
-1.6090093	PUNCT NUM X	-0.3086977
-1.4603012	VERB NUM X	-0.30033904
-1.2072765	NUM NUM X	-0.61546475
-1.7699785	ADP NUM X	-0.30869767
-1.6547787	PROPN NUM X	-0.30033904
-1.539304	PART NUM X	-0.29621923
-1.7033165	DET NUM X	-0.30033904
-1.8074211	ADV NUM X	-0.30869767
-1.5179707	X NUM X	-0.30869767
-1.621151	CCONJ NUM X	-0.30869767
-2.6161623	<s> ADP X	-0.6137836
-1.2019478	NOUN ADP X	-0.5359628
-1.5103624	PUNCT ADP X	-0.31035268
-1.6219525	VERB ADP X	-0.35753015
-1.7385213	NUM ADP X	-0.30869767
-1.5523249	PROPN ADP X	-0.30033904
-1.6348943	PART ADP X	-0.30869767
-1.4398069	ADV ADP X	-0.41588145
-1.3629007	CCONJ ADP X	-0.29621923
-1.6732183	PRON ADP X	-0.30241364
-1.9795401	PUNCT ADJ X	-0.30869767
-1.8569168	VERB ADJ X	-0.30033904
-1.8728197	PART ADJ X	-0.30869767
-1.5231227	X ADJ X	-0.30869767
-2.5429842	<s> PROPN X	-0.7578116
-1.3906858	NOUN PROPN X	-0.4062156
-1.2852507	PUNCT PROPN X	-0.4457721
-1.2476181	VERB PROPN X	-0.417289
-1.8609376	NUM PROPN X	-0.30869767
-1.1912644	ADP PROPN X	-0.5102015
-1.7660964	ADJ PROPN X	-0.30869767
-1.4119704	PROPN PROPN X	-0.3333105
-1.5045825	PART PROPN X	-0.31035268
-1.6416854	ADV PROPN X	-0.30366316
-1.5206907	CCONJ PROPN X	-0.30033904
-1.2921058	SCONJ PROPN X	-0.30033904
-2.6314807	<s> PART X	-0.30869767
-1.2449131	NOUN PART X	-0.56912434
-1.5103008	PUNCT PART X	-0.30241364
-1.3067681	VERB PART X	-0.52084595
-1.4783914	NUM PART X	-0.4355679
-1.4296627	ADP PART X	-0.30869767
-1.3227443	PROPN PART X	-0.44528428
-1.7037104	PART PART X	-0.30869767
-1.2933704	ADV PART X	-0.30698156
-1.680794	PRON PART X	-0.3086977
-2.7344813	<s> DET X	-0.42850977
-1.6162368	NOUN DET X	-0.32116902
-1.5381558	PUNCT DET X	-0.30033904
-1.5704553	VERB DET X	-0.44610775
-1.377058	ADP DET X	-0.31035268
-1.4355125	PART DET X	-0.30869767
-1.4243965	DET DET X	-0.30869767
-1.637146	ADV DET X	-0.30869767
-1.4219484	X DET X	-0.29621923
-1.5996668	CCONJ DET X	-0.30869767
-2.0012689	<s> ADV X	-1.1903378
-1.1266248	NOUN ADV X	-0.81124604
-1.1966908	PUNCT ADV X	-0.5232737
-1.2569426	VERB ADV X	-0.5237768
-1.2906471	NUM ADV X	-0.34871694
-1.3173386	ADP ADV X	-0.4355679
-1.4082463	ADJ ADV X	-0.30869767
-1.0901012	PROPN ADV X	-0.5913762
-1.0456722	PART ADV X	-0.39777932
-1.39752	DET ADV X	-0.31801742
-1.0345815	ADV ADV X	-0.65165925
-1.3991921	CCONJ ADV X	-0.32116902
-0.9996253	PRON ADV X	-0.5761621
-1.279344	SCONJ ADV X	-0.30241364
-1.3510113	NOUN X X	-0.31035268
-1.5278283	PUNCT X X	-0.29621923
-1.8584929	VERB X X	-0.30869767
-1.2770061	NUM X X	-0.30869767
-1.0707369	ADP X X	-0.3110165
-1.6686219	PROPN X X	-0.30869767
-1.4213974	CCONJ X X	-0.30869767
-1.9443727	<s> CCONJ X	-0.38398892
-1.2753621	NOUN CCONJ X	-0.40401238
-1.4676542	PUNCT CCONJ X	-0.30033904
-1.2141994	VERB CCONJ X	-0.48307285
-1.6780742	PROPN CCONJ X	-0.30033904
-1.7095246	PRON CCONJ X	-0.30869767
-2.1540227	<s> PRON X	-0.9229366
-1.4090188	NOUN PRON X	-0.31062913
-1.3512905	PUNCT PRON X	-0.39680153
-1.2840083	VERB PRON X	-0.5163441
-1.518867	NUM PRON X	-0.30869767
-1.3779203	ADP PRON X	-0.43008077
-1.4439647	PART PRON X	-0.30366316
-1.2339747	ADV PRON X	-0.4036862
-1.6184827	X PRON X	-0.30869767
-1.4327903	CCONJ PRON X	-0.30033904
-1.5455037	PRON PRON X	-0.30869767
-1.2904731	SCONJ PRON X	-0.30033904
-2.1731784	<s> SCONJ X	-0.3709972
-1.4517405	NOUN SCONJ X	-0.29621923
-1.4658815	PUNCT SCONJ X	-0.3015233
-1.227297	VERB SCONJ X	-0.30241364
-1.1975958	PROPN SCONJ X	-0.30869767
-1.1970423	ADV SCONJ X	-0.30869767
-1.0130069	PRON SCONJ X	-0.30033904
-1.6298817	<s> NOUN CCONJ	-1.62333
-1.1651436	NOUN NOUN CCONJ	-0.879915
-1.1373892	PUNCT NOUN CCONJ	-0.64896435
-1.1419284	VERB NOUN CCONJ	-0.8332834
-1.1366484	NUM NOUN CCONJ	-0.6960426
-1.1171703	ADP NOUN CCONJ	-0.71453345
-1.1138997	ADJ NOUN CCONJ	-0.78835684
-1.1609664	PROPN NOUN CCONJ	-0.7782048
-1.1481624	PART NOUN CCONJ	-0.7116669
-1.108468	DET NOUN CCONJ	-0.62007046
-1.2038394	ADV NOUN CCONJ	-0.54342246
-1.0033894	X NOUN CCONJ	-0.56798136
-1.2114736	CCONJ NOUN CCONJ	-0.41363597
-1.0599993	PRON NOUN CCONJ	-0.5434772
-1.3446584	SCONJ NOUN CCONJ	-0.3148886
-2.5138876	<s> PUNCT CCONJ	-0.45852965
-1.1928977	NOUN PUNCT CCONJ	-0.7842813
-1.3669137	PUNCT PUNCT CCONJ	-0.37546176
-1.214943	VERB PUNCT CCONJ	-0.60465753
-1.2804208	NUM PUNCT CCONJ	-0.33610368
-1.5614258	ADP PUNCT CCONJ	-0.30033904
-1.423498	ADJ PUNCT CCONJ	-0.30366316
-1.3036245	PROPN PUNCT CCONJ	-0.5471996
-1.4008738	PART PUNCT CCONJ	-0.30592597
-1.4223654	DET PUNCT CCONJ	-0.30869767
-1.4142903	ADV PUNCT CCONJ	-0.3015233
-1.5108461	X PUNCT CCONJ	-0.30869767
-1.2955625	CCONJ PUNCT CCONJ	-0.30033904
-1.4643253	PRON PUNCT CCONJ	-0.31062913
-1.3019509	INTJ PUNCT CCONJ	-0.30869767
-2.2551506	<s> VERB CCONJ	-0.924181
-1.1734488	NOUN VERB CCONJ	-0.6852835
-1.2140503	PUNCT VERB CCONJ	-0.51312196
-1.1462531	VERB VERB CCONJ	-0.6554742
-1.2165608	NUM VERB CCONJ	-0.40753916
-1.1731186	ADP VERB CCONJ	-0.54891884
-1.2751323	ADJ VERB CCONJ	-0.44844812
-1.2335613	PROPN VERB CCONJ	-0.53275454
-1.2414162	PART VERB CCONJ	-0.392061
-1.2286887	DET VERB CCONJ	-0.5202574
-1.182205	ADV VERB CCONJ	-0.69800264
-1.1415119	X VERB CCONJ	-0.5404947
-1.151089	CCONJ VERB CCONJ	-0.566289
-1.3679068	PRON VERB CCONJ	-0.42437896
-1.3863237	SCONJ VERB CCONJ	-0.30241364
-2.4199214	<s> NUM CCONJ	-0.6783872
-1.1336496	NOUN NUM CCONJ	-0.5465864
-1.2114003	PUNCT NUM CCONJ	-0.4355679
-1.145307	VERB NUM CCONJ	-0.5272571
-1.2022897	NUM NUM CCONJ	-0.50493145
-1.1184008	ADP NUM CCONJ	-0.55783397
-1.4549103	ADJ NUM CCONJ	-0.30869767
-1.3211051	PROPN NUM CCONJ	-0.36834463
-1.3491702	PART NUM CCONJ	-0.3881158
-1.3419553	DET NUM CCONJ	-0.3581341
-1.2466189	ADV NUM CCONJ	-0.57140994
-1.4941769	X NUM CCONJ	-0.30869767
-1.4390756	CCONJ NUM CCONJ	-0.30241364
-4.022699	<s> ADP CCONJ	-0.30869767
-2.0277877	NOUN ADP CCONJ	-0.30869767
-2.21528	VERB ADP CCONJ	-0.30869767
-2.5364692	<s> ADJ CCONJ	-0.3953187
-1.5375633	NOUN ADJ CCONJ	-0.30241364
-1.5223148	PUNCT ADJ CCONJ	-0.30449823
-1.172268	VERB ADJ CCONJ	-0.5761621
-1.4452891	NUM ADJ CCONJ	-0.29621923
-1.3615104	ADP ADJ CCONJ	-0.31062913
-1.473917	PROPN ADJ CCONJ	-0.30869767
-1.2837131	PART ADJ CCONJ	-0.36472893
-1.3253518	DET ADJ CCONJ	-0.3086977
-1.1475711	ADV ADJ CCONJ	-0.31479588
-1.3299143	X ADJ CCONJ	-0.30869767
-1.4982238	CCONJ ADJ CCONJ	-0.30869767
-1.4810965	PRON ADJ CCONJ	-0.30869767
-1.665159	<s> PROPN CCONJ	-1.528485
-1.1286808	NOUN PROPN CCONJ	-0.6836012
-1.1815627	PUNCT PROPN CCONJ	-0.5863611
-1.0995193	VERB PROPN CCONJ	-0.69963413
-1.0298107	NUM PROPN CCONJ	-0.53895956
-1.1051825	ADP PROPN CCONJ	-0.6051916
-1.2292205	ADJ PROPN CCONJ	-0.37735724
-1.1936344	PROPN PROPN CCONJ	-0.6116442
-1.1104143	PART PROPN CCONJ	-0.4885557
-1.2111549	DET PROPN CCONJ	-0.42850977
-1.0076784	ADV PROPN CCONJ	-0.5773864
-1.0529205	X PROPN CCONJ	-0.4622655
-1.2398293	CCONJ PROPN CCONJ	-0.45632014
-1.3916358	PRON PROPN CCONJ	-0.30033904
-1.2494	SCONJ PROPN CCONJ	-0.30033904
-2.6014042	<s> PART CCONJ	-0.30869767
-1.2042712	NOUN PART CCONJ	-0.58378357
-1.6580672	PUNCT PART CCONJ	-0.30869767
-1.258216	VERB PART CCONJ	-0.46790722
-1.7050595	NUM PART CCONJ	-0.3086977
-1.6231394	ADJ PART CCONJ	-0.30033904
-1.7986611	PROPN PART CCONJ	-0.30869767
-1.673601	PART PART CCONJ	-0.30869767
-1.6913228	ADV PART CCONJ	-0.30869767
-1.1595187	X PART CCONJ	-0.30869767
-1.8195325	PRON PART CCONJ	-0.30869767
-1.9351515	VERB DET CCONJ	-0.30033904
-1.895427	ADV DET CCONJ	-0.30869767
-1.6411077	CCONJ DET CCONJ	-0.29621923
-3.2754748	<s> ADV CCONJ	-0.3148886
-1.5391622	NOUN ADV CCONJ	-0.31586713
-1.6177909	PUNCT ADV CCONJ	-0.31062913
-1.676133	VERB ADV CCONJ	-0.3071719
-1.8209257	NUM ADV CCONJ	-0.30869767
-1.5984011	PROPN ADV CCONJ	-0.31613743
-1.6146852	PART ADV CCONJ	-0.30869767
-1.4139388	ADV ADV CCONJ	-0.3141141
-1.7018132	PRON ADV CCONJ	-0.30033904
-1.8752159	NOUN X CCONJ	-0.30869767
-1.8788532	PUNCT X CCONJ	-0.30869767
-1.2723976	X X CCONJ	-0.30869767
-2.5189106	<s> CCONJ CCONJ	-0.31801742
-1.7172115	NOUN CCONJ CCONJ	-0.3953187
-1.9252839	PUNCT CCONJ CCONJ	-0.30869767
-1.775803	VERB CCONJ CCONJ	-0.30033904
-2.11754	<s> PRON CCONJ	-1.0014675
-1.2475506	NOUN PRON CCONJ	-0.433849
-1.1635315	PUNCT PRON CCONJ	-0.45420212
-1.2315063	VERB PRON CCONJ	-0.5209093
-1.4950877	NUM PRON CCONJ	-0.30869767
-1.2997938	ADP PRON CCONJ	-0.51566
-1.5202471	PROPN PRON CCONJ	-0.29621923
-1.4576659	PART PRON CCONJ	-0.3055443
-1.4065766	ADV PRON CCONJ	-0.31080514
-1.2858093	X PRON CCONJ	-0.30241364
-1.4137982	CCONJ PRON CCONJ	-0.30869767
-1.2299428	PRON PRON CCONJ	-0.30673698
-1.2739384	SCONJ PRON CCONJ	-0.29868641
-1.8423846	NOUN SCONJ CCONJ	-0.30869767
-1.8934821	PUNCT SCONJ CCONJ	-0.30869767
-1.4483451	PUNCT INTJ CCONJ	-0.30869767
-1.8713877	<s> NOUN PRON	-1.3066409
-1.1951634	NOUN NOUN PRON	-0.7301873
-1.2101059	PUNCT NOUN PRON	-0.5936152
-1.2388276	VERB NOUN PRON	-0.59824103
-1.2418604	NUM NOUN PRON	-0.50229603
-1.1842585	ADP NOUN PRON	-0.549407
-1.4448432	ADJ NOUN PRON	-0.37546176
-1.2661784	PROPN NOUN PRON	-0.5342373
-1.2277516	PART NOUN PRON	-0.55344856
-1.3013251	DET NOUN PRON	-0.52059793
-1.2038394	ADV NOUN PRON	-0.4742673
-1.666805	X NOUN PRON	-0.30241364
-1.2790053	CCONJ NOUN PRON	-0.31333837
-1.4001257	PRON NOUN PRON	-0.3828139
-1.3753937	SCONJ NOUN PRON	-0.3086977
-0.9314227	<s> PUNCT PRON	-1.541228
-1.2249734	NOUN PUNCT PRON	-0.7248329
-1.1340083	PUNCT PUNCT PRON	-0.5519708
-1.1529986	VERB PUNCT PRON	-0.68750757
-1.1831769	NUM PUNCT PRON	-0.5264354
-1.0835571	ADP PUNCT PRON	-0.4657089
-1.5716771	ADJ PUNCT PRON	-0.30869767
-1.1792358	PROPN PUNCT PRON	-0.6246334
-1.1018193	PART PUNCT PRON	-0.5210423
-1.5700848	DET PUNCT PRON	-0.30869767
-1.0704089	ADV PUNCT PRON	-0.5226662
-1.2955625	CCONJ PUNCT PRON	-0.3015233
-1.0114717	PRON PUNCT PRON	-0.45268828
-1.0544451	SCONJ PUNCT PRON	-0.30869767
-1.0846139	INTJ PUNCT PRON	-0.31613743
-1.1212766	<s> VERB PRON	-1.7477618
-1.1702858	NOUN VERB PRON	-0.8750857
-1.1723579	PUNCT VERB PRON	-0.66369736
-1.1431388	VERB VERB PRON	-0.77167803
-1.2117181	NUM VERB PRON	-0.5210423
-1.168764	ADP VERB PRON	-0.5926595
-1.448722	ADJ VERB PRON	-0.29868641
-1.1951755	PROPN VERB PRON	-0.608273
-1.1492853	PART VERB PRON	-0.58673036
-1.1634938	DET VERB PRON	-0.47529054
-1.1788585	ADV VERB PRON	-0.7755796
-1.4385128	X VERB PRON	-0.30336443
-1.2042108	CCONJ VERB PRON	-0.4501471
-1.1529346	PRON VERB PRON	-0.66435057
-1.1206008	SCONJ VERB PRON	-0.36361697
-0.98999363	INTJ VERB PRON	-0.30869767
-2.6417236	<s> NUM PRON	-0.5367373
-1.6226383	NOUN NUM PRON	-0.30589357
-1.6753795	PUNCT NUM PRON	-0.3086977
-1.343384	VERB NUM PRON	-0.53311557
-1.1802478	NUM NUM PRON	-0.5573456
-1.7209572	PROPN NUM PRON	-0.30869767
-1.7303023	PART NUM PRON	-0.3086977
-1.4553131	DET NUM PRON	-0.3015233
-1.539072	ADV NUM PRON	-0.30241364
-1.4368678	PRON NUM PRON	-0.30869767
-0.9728064	<s> ADP PRON	-1.74672
-1.0439167	NOUN ADP PRON	-0.74536324
-1.0127778	PUNCT ADP PRON	-0.5841666
-0.99384797	VERB ADP PRON	-0.70382375
-0.9144705	NUM ADP PRON	-0.40401238
-1.0317835	ADP ADP PRON	-0.49163193
-0.8415463	ADJ ADP PRON	-0.3086977
-1.0142803	PROPN ADP PRON	-0.6093651
-0.9840872	PART ADP PRON	-0.47007233
-0.904932	DET ADP PRON	-0.35496205
-0.97629416	ADV ADP PRON	-0.66643935
-0.95005727	X ADP PRON	-0.30033904
-0.9288077	CCONJ ADP PRON	-0.44746122
-0.98925227	PRON ADP PRON	-0.643226
-0.94858295	SCONJ ADP PRON	-0.35496205
-3.1912372	<s> ADJ PRON	-0.30869767
-1.6892767	NOUN ADJ PRON	-0.30869767
-1.8507854	PUNCT ADJ PRON	-0.30869767
-1.3340014	VERB ADJ PRON	-0.37199068
-1.7747078	NUM ADJ PRON	-0.30869767
-1.6492114	ADP ADJ PRON	-0.30869767
-1.5362375	PART ADJ PRON	-0.3086977
-2.4608603	<s> PROPN PRON	-0.7740634
-1.1609156	NOUN PROPN PRON	-0.49895918
-1.3765179	PUNCT PROPN PRON	-0.4700169
-1.2751853	VERB PROPN PRON	-0.4285098
-1.6629975	NUM PROPN PRON	-0.30033904
-1.2188317	ADP PROPN PRON	-0.47754848
-1.5470197	ADJ PROPN PRON	-0.3086977
-1.3910937	PROPN PROPN PRON	-0.39026415
-1.4675968	PART PROPN PRON	-0.29930538
-1.7175708	DET PROPN PRON	-0.30869767
-1.359498	ADV PROPN PRON	-0.35574186
-1.6784289	X PROPN PRON	-0.30869767
-1.4979713	CCONJ PROPN PRON	-0.30449823
-1.4209423	PRON PROPN PRON	-0.30869767
-1.3999139	SCONJ PROPN PRON	-0.30869767
-1.4216061	<s> PART PRON	-0.69245535
-1.1675174	NOUN PART PRON	-0.71314937
-1.5007104	PUNCT PART PRON	-0.30241364
-1.1481165	VERB PART PRON	-0.69899446
-1.1931958	NUM PART PRON	-0.49015486
-1.3820325	ADP PART PRON	-0.30869767
-1.468329	ADJ PART PRON	-0.30033904
-1.2561601	PROPN PART PRON	-0.48966062
-1.345588	PART PART PRON	-0.30509564
-1.3871399	DET PART PRON	-0.30033904
-1.2711312	ADV PART PRON	-0.3193653
-1.505962	PRON PART PRON	-0.30033904
-3.2590353	<s> DET PRON	-0.3086977
-1.7823145	NOUN DET PRON	-0.30869767
-1.5363896	PUNCT DET PRON	-0.29868641
-1.3800865	VERB DET PRON	-0.3529294
-1.3760774	ADP DET PRON	-0.30673698
-1.4336634	PART DET PRON	-0.30033904
-1.4225425	DET DET PRON	-0.30869767
-1.6346643	ADV DET PRON	-0.30869767
-1.5837219	X DET PRON	-0.30869767
-1.2814463	CCONJ DET PRON	-0.30366316
-1.0954144	<s> ADV PRON	-1.9362168
-1.189158	NOUN ADV PRON	-0.5906477
-1.1906276	PUNCT ADV PRON	-0.5886003
-1.3009632	VERB ADV PRON	-0.48826674
-1.3852289	NUM ADV PRON	-0.3055443
-1.2258445	ADP ADV PRON	-0.34539124
-1.3876401	ADJ ADV PRON	-0.30869767
-1.3452058	PROPN ADV PRON	-0.30673698
-1.505852	PART ADV PRON	-0.3015233
-1.4107356	DET ADV PRON	-0.29621923
-1.1877385	ADV ADV PRON	-0.4311256
-1.3521621	X ADV PRON	-0.30869767
-1.2443336	CCONJ ADV PRON	-0.30366316
-1.2950834	PRON ADV PRON	-0.41145343
-1.2935872	SCONJ ADV PRON	-0.30869767
-0.9033867	<s> X PRON	-0.7576532
-0.95138776	NOUN X PRON	-0.5952718
-0.9820047	PUNCT X PRON	-0.42130825
-0.9116436	VERB X PRON	-0.57562727
-1.3101858	NUM X PRON	-0.30869767
-1.3191953	ADP X PRON	-0.30869767
-0.8823736	PROPN X PRON	-0.4792521
-0.87297785	PART X PRON	-0.45632014
-0.9717536	DET X PRON	-0.30869767
-0.96174324	ADV X PRON	-0.60660076
-0.86832106	X X PRON	-0.30869767
-0.9093867	CCONJ X PRON	-0.3953187
-0.9212512	PRON X PRON	-0.49222872
-1.0246978	SCONJ X PRON	-0.3086977
-1.2455791	<s> CCONJ PRON	-0.7499958
-1.0929741	NOUN CCONJ PRON	-0.6321928
-1.2324711	PUNCT CCONJ PRON	-0.3528447
-1.2547725	VERB CCONJ PRON	-0.37262815
-1.431009	NUM CCONJ PRON	-0.30449823
-1.0888048	PROPN CCONJ PRON	-0.46313745
-1.2637302	ADV CCONJ PRON	-0.30869767
-1.001186	PRON CCONJ PRON	-0.45664054
-2.381586	<s> PRON PRON	-0.7992043
-1.2475506	NOUN PRON PRON	-0.30184683
-1.1173894	PUNCT PRON PRON	-0.44746122
-1.1521486	VERB PRON PRON	-0.65618384
-1.3403842	NUM PRON PRON	-0.30869767
-1.1414547	ADP PRON PRON	-0.53947604
-1.4901371	PROPN PRON PRON	-0.31613743
-1.4576659	PART PRON PRON	-0.3055443
-1.224604	ADV PRON PRON	-0.31442374
-1.2858093	X PRON PRON	-0.30869767
-1.2434621	CCONJ PRON PRON	-0.30449823
-1.2299428	PRON PRON PRON	-0.36834463
-1.4484539	SCONJ PRON PRON	-0.3086977
-0.6496761	<s> SCONJ PRON	-1.5241404
-1.2108437	NOUN SCONJ PRON	-0.30366316
-0.88059026	PUNCT SCONJ PRON	-0.6319946
-0.92668486	VERB SCONJ PRON	-0.49222872
-0.9075937	ADP SCONJ PRON	-0.30033904
-1.1210461	PROPN SCONJ PRON	-0.30869767
-0.7571211	PART SCONJ PRON	-0.30033904
-0.84852034	ADV SCONJ PRON	-0.37449965
-0.639503	CCONJ SCONJ PRON	-0.30869767
-1.1800812	PRON SCONJ PRON	-0.30869767
-1.6438669	<s> INTJ PRON	-0.30869767
-1.3670275	PUNCT INTJ PRON	-0.30869767
-0.6711432	PROPN INTJ PRON	-0.30869767
-2.526125	<s> NOUN SCONJ	-0.8514535
-1.3099567	NOUN NOUN SCONJ	-0.58940494
-1.4924757	PUNCT NOUN SCONJ	-0.35496205
-1.488655	VERB NOUN SCONJ	-0.4738149
-1.5249434	NUM NOUN SCONJ	-0.3990869
-1.82673	ADP NOUN SCONJ	-0.30033904
-1.4006417	ADJ NOUN SCONJ	-0.44528428
-1.4790936	PROPN NOUN SCONJ	-0.41277713
-1.4692193	PART NOUN SCONJ	-0.41492748
-1.3662031	DET NOUN SCONJ	-0.40753916
-1.7695793	ADV NOUN SCONJ	-0.30033904
-1.6212606	CCONJ NOUN SCONJ	-0.30366316
-1.773972	PRON NOUN SCONJ	-0.29621923
-1.9148812	<s> PUNCT SCONJ	-0.81054276
-1.2335888	NOUN PUNCT SCONJ	-0.6684732
-1.224081	PUNCT PUNCT SCONJ	-0.46492893
-1.2589165	VERB PUNCT SCONJ	-0.6351548
-1.4240876	NUM PUNCT SCONJ	-0.3794413
-1.599015	ADP PUNCT SCONJ	-0.30033904
-1.6169783	ADJ PUNCT SCONJ	-0.30869767
