\data\
ngram 1=19
ngram 2=249
ngram 3=2684

\1-grams:
-2.2449317	<unk>	0
0	<s>	-3.825351
-1.2526641	</s>	0
-1.2225275	DET	-0.8981266
-1.1678846	NOUN	-0.96637183
-1.1943473	PUNCT	-0.9963657
-1.1678846	VERB	-0.96637183
-1.1943473	NUM	-0.93493736
-1.2225275	ADP	-0.89085555
-1.2225275	ADJ	-0.8926246
-1.1678846	PROPN	-0.96494234
-1.1943473	PART	-0.8780056
-1.1678846	ADV	-0.9532146
-1.2225275	X	-0.8681124
-1.1943473	CCONJ	-0.7974564
-1.1943473	PRON	-0.9444827
-1.285049	SCONJ	-0.6968463
-1.3998337	INTJ	-0.48811665
-1.8032827	SPACE	-0.30103

\2-grams:
-1.482426	DET </s>	0
-1.2291105	NOUN </s>	0
-1.1767844	PUNCT </s>	0
-1.2614747	VERB </s>	0
-1.1899483	NUM </s>	0
-1.6681355	ADP </s>	0
-1.3298393	ADJ </s>	0
-1.2445532	PROPN </s>	0
-1.371235	PART </s>	0
-1.2903193	ADV </s>	0
-1.4364657	X </s>	0
-1.7916551	CCONJ </s>	0
-1.3542836	PRON </s>	0
-1.0933185	INTJ </s>	0
-1.4168211	<s> DET	-2.480189
-1.1680076	DET DET	-0.941107
-1.1960222	NOUN DET	-1.8771037
-1.17415	PUNCT DET	-2.1440632
-1.1960222	VERB DET	-2.6266875
-1.2601223	NUM DET	-1.1142619
-1.1016544	ADP DET	-2.2812548
-1.2724373	ADJ DET	-0.7525513
-1.1789533	PROPN DET	-1.5608988
-1.227056	PART DET	-1.9506456
-1.2134303	ADV DET	-1.8931881
-1.119997	X DET	-1.3470657
-1.1478587	CCONJ DET	-1.713342
-1.2230241	PRON DET	-1.3531282
-1.1807091	SCONJ DET	-1.3768649
-0.69676477	<s> NOUN	-3.1184096
-1.0646131	DET NOUN	-2.869988
-1.1625285	NOUN NOUN	-3.7374744
-1.1689286	PUNCT NOUN	-3.1447067
-1.1365654	VERB NOUN	-3.5280042
-1.1187657	NUM NOUN	-3.1245577
-1.0661191	ADP NOUN	-3.1080632
-1.0408798	ADJ NOUN	-3.152642
-1.1194775	PROPN NOUN	-3.249843
-1.0586097	PART NOUN	-3.5219953
-1.1454047	ADV NOUN	-2.5656145
-1.0163677	X NOUN	-1.9973264
-0.99391717	CCONJ NOUN	-2.844885
-1.1197462	PRON NOUN	-2.230852
-0.97146314	SCONJ NOUN	-1.7871866
-0.87101954	INTJ NOUN	-0.39761728
-0.6546866	SPACE NOUN	-0.39518973
-1.4267216	<s> PUNCT	-2.373742
-1.0671797	DET PUNCT	-1.0950305
-1.1391541	NOUN PUNCT	-3.751179
-1.1994984	PUNCT PUNCT	-2.747462
-1.1652771	VERB PUNCT	-3.410017
-1.1214372	NUM PUNCT	-2.4998932
-1.0988297	ADP PUNCT	-1.7275465
-1.1061987	ADJ PUNCT	-1.2011032
-1.1481981	PROPN PUNCT	-2.9517329
-1.118998	PART PUNCT	-2.9055474
-1.1201035	ADV PUNCT	-2.1860306
-1.0491213	X PUNCT	-1.1067903
-1.1901822	CCONJ PUNCT	-1.2916493
-1.1223654	PRON PUNCT	-2.1087148
-1.3264182	SCONJ PUNCT	-0.571878
-0.8005883	INTJ PUNCT	-1.060916
-0.91491574	<s> VERB	-2.903724
-1.0646131	DET VERB	-1.7823999
-1.1901429	NOUN VERB	-3.571914
-1.1689286	PUNCT VERB	-2.9180603
-1.1625285	VERB VERB	-3.3617942
-1.1187657	NUM VERB	-2.2979457
-1.0661191	ADP VERB	-2.4710233
-1.0408798	ADJ VERB	-1.5212511
-1.1194775	PROPN VERB	-2.8381362
-1.0863439	PART VERB	-2.8720028
-1.1175495	ADV VERB	-3.5834756
-1.0464833	X VERB	-2.137526
-0.9639429	CCONJ VERB	-2.3176057
-1.0917692	PRON VERB	-2.9411366
-0.97146314	SCONJ VERB	-1.8714644
-0.87101954	INTJ VERB	-0.32367662
-1.0156113	SPACE VERB	-0.290492
-1.4584562	<s> NUM	-2.3999999
-1.0671797	DET NUM	-2.4937637
-1.1930726	NOUN NUM	-2.4328887
-1.2293912	PUNCT NUM	-2.3168545
-1.1652771	VERB NUM	-2.8967133
-1.0933545	NUM NUM	-3.048268
-1.1311624	ADP NUM	-2.1828957
-1.1061987	ADJ NUM	-1.609684
-1.1219742	PROPN NUM	-1.9845452
-1.118998	PART NUM	-2.448208
-1.1481283	ADV NUM	-2.293824
-1.0491213	X NUM	-1.1482245
-1.0641025	CCONJ NUM	-1.8564923
-1.1524569	PRON NUM	-1.4225414
-1.175427	SCONJ NUM	-1.1081234
-1.477885	INTJ NUM	-0.290492
-1.1079081	<s> ADP	-2.7603366
-1.1327311	DET ADP	-1.3458289
-1.1960222	NOUN ADP	-2.8284264
-1.2022917	PUNCT ADP	-2.5418653
-1.1960222	VERB ADP	-2.798485
-1.1543431	NUM ADP	-1.7836328
-1.1342062	ADP ADP	-1.7261635
-1.2724373	ADJ ADP	-0.63317966
-1.1789533	PROPN ADP	-2.3425078
-1.189161	PART ADP	-1.9120375
-1.150869	ADV ADP	-2.766523
-1.2479252	X ADP	-0.71553886
-1.1945121	CCONJ ADP	-1.6000432
-1.1250004	PRON ADP	-2.301747
-0.9780782	SCONJ ADP	-1.2404852
-1.7882173	<s> ADJ	-2.1874924
-1.0697615	DET ADJ	-1.9327888
-1.1960222	NOUN ADJ	-2.368139
-1.2022917	PUNCT ADJ	-2.2781382
-1.1960222	VERB ADJ	-2.712568
-1.1241251	NUM ADJ	-2.303136
-1.0713732	ADP ADJ	-2.2472055
-1.0458153	ADJ ADJ	-1.9395537
-1.1789533	PROPN ADJ	-2.0819092
-1.1543087	PART ADJ	-2.5884619
-1.150869	ADV ADJ	-2.2231224
-1.119997	X ADJ	-1.38754
-1.0673374	CCONJ ADJ	-2.0633476
-1.2230241	PRON ADJ	-1.506467
-1.1807091	SCONJ ADJ	-1.1972895
-0.8394951	<s> PROPN	-2.988992
-1.0945873	DET PROPN	-1.7204022
-1.1625285	NOUN PROPN	-2.8244667
-1.1689286	PUNCT PROPN	-2.9300082
-1.1901429	VERB PROPN	-2.9317868
-1.1187657	NUM PROPN	-2.055282
-1.0661191	ADP PROPN	-2.801127
-1.0408798	ADJ PROPN	-1.6550356
-1.1455464	PROPN PROPN	-2.7164216
-1.1477677	PART PROPN	-2.444819
-1.1454047	ADV PROPN	-2.0761495
-1.0464833	X PROPN	-1.5006168
-1.0261146	CCONJ PROPN	-2.271348
-1.1496505	PRON PROPN	-1.1800444
-1.1113725	SCONJ PROPN	-1.3544909
-0.96026874	INTJ PROPN	-0.32752538
-0.6546866	SPACE PROPN	-0.2986449
-2.2486575	<s> PART	-1.671201
-1.0671797	DET PART	-1.4334741
-1.1930726	NOUN PART	-3.4299183
-1.2293912	PUNCT PART	-2.2052643
-1.1652771	VERB PART	-3.2877064
-1.1214372	NUM PART	-2.3289905
-1.2917854	ADP PART	-0.806167
-1.0433406	ADJ PART	-2.4418263
-1.1481981	PROPN PART	-2.7091358
-1.1510258	PART PART	-2.3222387
-1.1481283	ADV PART	-1.5868906
-1.2437631	X PART	-0.5585067
-1.3006341	CCONJ PART	-0.6549704
-1.0942245	PRON PART	-2.6044834
-1.5598308	SCONJ PART	-0.30070728
-1.3393738	INTJ PART	-0.39518973
-0.74365133	<s> ADV	-3.0848358
-1.1267848	DET ADV	-1.4544241
-1.1365654	NOUN ADV	-3.2594268
-1.1967231	PUNCT ADV	-2.873072
-1.1625285	VERB ADV	-2.8262048
-1.1486001	NUM ADV	-1.9216979
-1.1281399	ADP ADV	-1.9718747
-1.103356	ADJ ADV	-0.83235914
-1.1732806	PROPN ADV	-2.4293864
-1.0863439	PART ADV	-2.320603
-1.1175495	ADV ADV	-2.9822192
-1.1518424	X ADV	-1.3265294
-1.0608917	CCONJ ADV	-1.7150321
-1.1197462	PRON ADV	-2.769974
-1.0132837	SCONJ ADV	-1.4556617
-1.4611752	INTJ ADV	-0.290492
-1.0156113	SPACE ADV	-0.290492
-2.5411983	<s> X	-1.408767
-1.248529	DET X	-0.8636285
-1.1960222	NOUN X	-1.9475511
-1.2647182	PUNCT X	-1.4845929
-1.1960222	VERB X	-1.895804
-1.2219275	NUM X	-0.95501363
-1.169397	ADP X	-1.0094182
-1.6398834	ADJ X	-0.29727542
-1.2760977	PROPN X	-1.266181
-1.2685766	PART X	-1.3980322
-1.1810241	ADV X	-2.0691798
-1.3005801	X X	-0.683924
-1.3751099	CCONJ X	-0.8845049
-1.2230241	PRON X	-1.4049054
-1.1807091	SCONJ X	-0.6800532
-2.0869446	<s> CCONJ	-1.7774334
-1.6487845	DET CCONJ	-0.41133088
-1.1930726	NOUN CCONJ	-2.9880362
-1.1994984	PUNCT CCONJ	-2.0936162
-1.1930726	VERB CCONJ	-2.14125
-1.1837181	NUM CCONJ	-1.5380085
-1.6477344	ADP CCONJ	-0.29629984
-1.1061987	ADJ CCONJ	-1.1720877
-1.1761076	PROPN CCONJ	-2.2988296
-1.2231772	PART CCONJ	-0.9743694
-1.3699349	ADV CCONJ	-0.8906243
-1.7366512	X CCONJ	-0.35023984
-1.4491258	CCONJ CCONJ	-0.6240714
-1.1847895	PRON CCONJ	-1.4648075
-1.6449114	SCONJ CCONJ	-0.290492
-1.477885	INTJ CCONJ	-0.290492
-0.9574533	<s> PRON	-2.8710358
-1.2446382	DET PRON	-0.8031632
-1.1930726	NOUN PRON	-1.9076674
-1.1994984	PUNCT PRON	-2.4918752
-1.1652771	VERB PRON	-2.790707
-1.25645	NUM PRON	-1.2266887
-1.0687382	ADP PRON	-2.453084
-1.3796372	ADJ PRON	-0.38334265
-1.1761076	PROPN PRON	-1.3974087
-1.1856049	PART PRON	-1.8152604
-1.1481283	ADV PRON	-2.2175088
-1.0491213	X PRON	-1.5211744
-1.2419063	CCONJ PRON	-1.4612899
-1.1847895	PRON PRON	-1.5459312
-1.016913	SCONJ PRON	-1.775084
-1.2345195	INTJ PRON	-0.36655578
-1.706144	<s> SCONJ	-2.1845403
-2.0253794	DET SCONJ	-0.290492
-1.2649294	NOUN SCONJ	-1.4861683
-1.2384329	PUNCT SCONJ	-1.8237633
-1.3385727	VERB SCONJ	-1.1522576
-1.8664118	NUM SCONJ	-0.3396935
-1.6787071	ADP SCONJ	-0.39968953
-1.523461	PROPN SCONJ	-0.8188162
-1.8245482	PART SCONJ	-0.53070253
-1.3838136	ADV SCONJ	-1.2683048
-1.5786308	CCONJ SCONJ	-0.36655578
-1.4727237	PRON SCONJ	-1.163856
-1.5997803	SCONJ SCONJ	-0.41953897
-3.1630294	<s> INTJ	-1.0642945
-2.1018767	DET INTJ	-0.290492
-1.8269172	NOUN INTJ	-0.35023984
-1.2812045	PUNCT INTJ	-1.1720726
-1.6313223	VERB INTJ	-0.38913238
-2.1456027	NUM INTJ	-0.290492
-1.8130616	PROPN INTJ	-0.35023984
-1.7261249	PART INTJ	-0.36655578
-2.0373971	ADV INTJ	-0.45883113
-1.1223785	INTJ INTJ	-0.37782615
-1.9103487	NOUN SPACE	-0.290492
-2.0939062	VERB SPACE	-0.30070728
-2.4069812	PROPN SPACE	-0.290492
-2.3200445	PART SPACE	-0.290492

\3-grams:
-3.4745207	<s> DET </s>
-2.6513653	NOUN DET </s>
-3.0417478	VERB DET </s>
-1.993476	PROPN DET </s>
-2.9054525	PART DET </s>
-2.663664	CCONJ DET </s>
-2.4642787	<s> NOUN </s>
-2.641211	DET NOUN </s>
-1.7770827	NOUN NOUN </s>
-1.7284565	PUNCT NOUN </s>
-1.9595656	VERB NOUN </s>
-2.177314	NUM NOUN </s>
-2.8055313	ADP NOUN </s>
-1.8778208	ADJ NOUN </s>
-1.9655933	PROPN NOUN </s>
-1.914475	PART NOUN </s>
-2.595995	ADV NOUN </s>
-2.8668914	X NOUN </s>
-2.0154467	CCONJ NOUN </s>
-2.3538435	PRON NOUN </s>
-0.9941071	<s> PUNCT </s>
-1.0873169	DET PUNCT </s>
-0.25680298	NOUN PUNCT </s>
-0.38432446	PUNCT PUNCT </s>
-0.22645493	VERB PUNCT </s>
-0.36547276	NUM PUNCT </s>
-1.7089001	ADP PUNCT </s>
-2.0489914	ADJ PUNCT </s>
-0.7172864	PROPN PUNCT </s>
-0.20758285	PART PUNCT </s>
-0.3225521	ADV PUNCT </s>
-0.7117031	X PUNCT </s>
-1.7140042	CCONJ PUNCT </s>
-0.16397332	PRON PUNCT </s>
-1.427751	SCONJ PUNCT </s>
-0.16277742	INTJ PUNCT </s>
-2.7341857	<s> VERB </s>
-2.000925	NOUN VERB </s>
-2.2168145	PUNCT VERB </s>
-2.032389	VERB VERB </s>
-2.3120055	NUM VERB </s>
-2.8620937	ADP VERB </s>
-2.0745761	ADJ VERB </s>
-1.9731936	PROPN VERB </s>
-2.176767	PART VERB </s>
-2.4539764	ADV VERB </s>
-2.0435565	X VERB </s>
-2.4421008	CCONJ VERB </s>
-2.826364	PRON VERB </s>
-1.30268	<s> NUM </s>
-3.226589	DET NUM </s>
-1.9536175	NOUN NUM </s>
-1.567197	PUNCT NUM </s>
-2.4845533	VERB NUM </s>
-2.4290497	NUM NUM </s>
-3.226149	ADP NUM </s>
-2.6081815	ADJ NUM </s>
-1.7371072	PROPN NUM </s>
-2.8580134	PART NUM </s>
-2.48864	ADV NUM </s>
-2.1523654	X NUM </s>
-2.294969	CCONJ NUM </s>
-4.103301	<s> ADP </s>
-3.4651053	NOUN ADP </s>
-3.878969	PUNCT ADP </s>
-3.8724227	VERB ADP </s>
-3.2598245	NOUN ADJ </s>
-3.4015045	PUNCT ADJ </s>
-2.901757	VERB ADJ </s>
-3.19164	NUM ADJ </s>
-2.9322872	ADJ ADJ </s>
-2.0715525	PROPN ADJ </s>
-3.4881575	PART ADJ </s>
-3.3101547	ADV ADJ </s>
-2.168414	<s> PROPN </s>
-2.7827313	DET PROPN </s>
-1.8226695	NOUN PROPN </s>
-1.5798666	PUNCT PROPN </s>
-2.0897968	VERB PROPN </s>
-2.6701245	NUM PROPN </s>
-2.584528	ADP PROPN </s>
-2.2865357	ADJ PROPN </s>
-1.7627412	PROPN PROPN </s>
-2.1048744	PART PROPN </s>
-1.8700781	X PROPN </s>
-2.404322	CCONJ PROPN </s>
-1.8686545	PRON PROPN </s>
-2.9532301	NOUN PART </s>
-2.774544	VERB PART </s>
-3.3038058	NUM PART </s>
-3.3894832	ADJ PART </s>
-3.2818806	PROPN PART </s>
-3.4850335	PART PART </s>
-2.5444255	ADV PART </s>
-3.775613	PRON PART </s>
-3.2123218	<s> ADV </s>
-2.550691	DET ADV </s>
-3.0197282	NOUN ADV </s>
-3.6591609	PUNCT ADV </s>
-2.953691	VERB ADV </s>
-3.030831	NUM ADV </s>
-1.8933526	ADJ ADV </s>
-3.2091846	PROPN ADV </s>
-3.0858917	PART ADV </s>
-3.5787878	ADV ADV </s>
-0.7239367	INTJ ADV </s>
-2.5926938	<s> X </s>
-2.929102	NOUN X </s>
-2.4215965	PUNCT X </s>
-2.098994	NUM X </s>
-2.1638868	PROPN X </s>
-2.5703616	PART X </s>
-2.876575	<s> CCONJ </s>
-2.202595	PART CCONJ </s>
-3.8223493	<s> PRON </s>
-2.8471353	NOUN PRON </s>
-3.4431887	PUNCT PRON </s>
-2.7875936	VERB PRON </s>
-2.325449	NUM PRON </s>
-3.6195784	ADP PRON </s>
-2.2573097	PROPN PRON </s>
-2.6063623	PART PRON </s>
-3.1972008	ADV PRON </s>
-1.9338214	<s> INTJ </s>
-0.8743385	NOUN INTJ </s>
-1.9929887	PUNCT INTJ </s>
-0.93899345	INTJ INTJ </s>
-2.6532915	<s> DET DET
-1.9042059	DET DET DET
-2.7030606	NOUN DET DET
-2.6384587	PUNCT DET DET
-2.5097501	VERB DET DET
-2.503012	ADP DET DET
-2.2161305	PROPN DET DET
-2.2451808	PART DET DET
-2.5526192	ADV DET DET
-2.1381967	X DET DET
-1.7195675	CCONJ DET DET
-2.1330676	PRON DET DET
-2.2136497	<s> NOUN DET
-2.6635382	DET NOUN DET
-2.6764684	NOUN NOUN DET
-2.4245424	PUNCT NOUN DET
-2.5254612	VERB NOUN DET
-2.9061868	NUM NOUN DET
-2.3117244	ADP NOUN DET
-2.930117	ADJ NOUN DET
-2.5057013	PROPN NOUN DET
-2.9471076	PART NOUN DET
-2.2431803	ADV NOUN DET
-2.3053985	X NOUN DET
-2.4869301	CCONJ NOUN DET
-2.2590623	PRON NOUN DET
-2.5008013	SCONJ NOUN DET
-1.7129667	<s> PUNCT DET
-2.1169963	DET PUNCT DET
-2.0868192	NOUN PUNCT DET
-1.8000355	PUNCT PUNCT DET
-1.9981416	VERB PUNCT DET
-2.1684928	NUM PUNCT DET
-1.9741869	ADP PUNCT DET
-2.0128567	ADJ PUNCT DET
-2.2111838	PROPN PUNCT DET
-2.0105336	PART PUNCT DET
-1.8403661	ADV PUNCT DET
-2.0930026	X PUNCT DET
-2.14781	CCONJ PUNCT DET
-2.4246006	PRON PUNCT DET
-1.4264908	SCONJ PUNCT DET
-1.896649	INTJ PUNCT DET
-1.4723561	<s> VERB DET
-2.0381503	DET VERB DET
-1.7313691	NOUN VERB DET
-1.6740618	PUNCT VERB DET
-1.4170898	VERB VERB DET
-1.9297227	NUM VERB DET
-1.5244831	ADP VERB DET
-2.2450845	ADJ VERB DET
-1.7411363	PROPN VERB DET
-1.6020253	PART VERB DET
-1.5466516	ADV VERB DET
-2.374866	X VERB DET
-1.4524561	CCONJ VERB DET
-1.4925181	PRON VERB DET
-1.4280362	SCONJ VERB DET
-2.9665577	<s> NUM DET
-2.98962	DET NUM DET
-2.814644	NOUN NUM DET
-2.8328571	PUNCT NUM DET
-2.841851	VERB NUM DET
-2.64344	NUM NUM DET
-2.713193	ADP NUM DET
-2.635596	PROPN NUM DET
-3.1926126	PART NUM DET
-2.8468838	ADV NUM DET
-2.1422331	CCONJ NUM DET
-1.189891	<s> ADP DET
-1.306554	DET ADP DET
-1.3907465	NOUN ADP DET
-1.3458356	PUNCT ADP DET
-1.2965245	VERB ADP DET
-1.4432627	NUM ADP DET
-1.3016915	ADP ADP DET
-1.4600203	ADJ ADP DET
-1.4138902	PROPN ADP DET
-1.2819186	PART ADP DET
-1.3043921	ADV ADP DET
-1.3604963	CCONJ ADP DET
-1.2057245	PRON ADP DET
-1.2644632	SCONJ ADP DET
-3.016287	<s> ADJ DET
-3.2380054	NOUN ADJ DET
-2.7038581	PUNCT ADJ DET
-3.0053554	VERB ADJ DET
-3.1699762	NUM ADJ DET
-3.3144612	ADP ADJ DET
-3.1666532	PROPN ADJ DET
-3.3212698	PART ADJ DET
-2.6698372	CCONJ ADJ DET
-2.312772	<s> PROPN DET
-2.7385137	DET PROPN DET
-2.466924	NOUN PROPN DET
-2.4408867	PUNCT PROPN DET
-2.0864944	VERB PROPN DET
-3.0913017	NUM PROPN DET
-2.163445	ADP PROPN DET
-2.5019674	ADJ PROPN DET
-2.574243	PROPN PROPN DET
-2.4750345	PART PROPN DET
-2.1929924	ADV PROPN DET
-2.3532376	X PROPN DET
-2.0704465	CCONJ PROPN DET
-2.0244887	PRON PROPN DET
-2.2094817	SCONJ PROPN DET
-1.6370081	<s> PART DET
-2.1022954	NOUN PART DET
-2.1155546	PUNCT PART DET
-1.6847681	VERB PART DET
-2.572865	NUM PART DET
-1.8157412	ADP PART DET
-2.44076	ADJ PART DET
-2.0259335	PROPN PART DET
-1.5981258	PART PART DET
-2.3089602	ADV PART DET
-2.1917565	PRON PART DET
-1.5826985	<s> ADV DET
-2.7380288	NOUN ADV DET
-1.746625	PUNCT ADV DET
-2.495121	VERB ADV DET
-2.1346982	ADP ADV DET
-1.8463793	ADJ ADV DET
-2.6956258	PROPN ADV DET
-2.5002408	PART ADV DET
-2.3450432	ADV ADV DET
-2.2981868	X ADV DET
-2.3965397	CCONJ ADV DET
-2.7926943	PRON ADV DET
-2.1430092	SCONJ ADV DET
-1.1341659	<s> X DET
-1.4765728	NOUN X DET
-1.4529026	PUNCT X DET
-1.1332203	VERB X DET
-1.6882441	NUM X DET
-1.5393597	ADP X DET
-1.2413119	PROPN X DET
-1.7726301	PART X DET
-1.3402631	ADV X DET
-1.6039239	CCONJ X DET
-1.1050453	PRON X DET
-1.2925844	SCONJ X DET
-1.1769344	<s> CCONJ DET
-1.5358266	NOUN CCONJ DET
-1.4106528	PUNCT CCONJ DET
-2.1624644	VERB CCONJ DET
-1.9099406	NUM CCONJ DET
-1.316793	PROPN CCONJ DET
-1.1649725	PART CCONJ DET
-1.2726581	ADV CCONJ DET
-1.3708293	CCONJ CCONJ DET
-0.9856005	PRON CCONJ DET
-2.3949971	<s> PRON DET
-2.4746888	NOUN PRON DET
-2.3808136	PUNCT PRON DET
-2.1911082	VERB PRON DET
-2.037441	NUM PRON DET
-2.0241487	ADP PRON DET
-2.4425318	PROPN PRON DET
-2.0380487	PART PRON DET
-2.212384	ADV PRON DET
-2.2145636	X PRON DET
-1.9946636	CCONJ PRON DET
-2.2713041	SCONJ PRON DET
-1.2930722	<s> SCONJ DET
-2.295928	NOUN SCONJ DET
-1.3598021	PUNCT SCONJ DET
-1.4755477	VERB SCONJ DET
-0.9528884	NUM SCONJ DET
-1.3392547	ADP SCONJ DET
-1.412835	ADV SCONJ DET
-0.22642434	<s> DET NOUN
-0.20054553	DET DET NOUN
-0.24758042	NOUN DET NOUN
-0.21519928	PUNCT DET NOUN
-0.21301043	VERB DET NOUN
-0.19766408	NUM DET NOUN
-0.24156678	ADP DET NOUN
-0.22093955	ADJ DET NOUN
-0.250302	PROPN DET NOUN
-0.27937222	PART DET NOUN
-0.19718556	ADV DET NOUN
-0.25525218	X DET NOUN
-0.22586453	CCONJ DET NOUN
-0.31378898	PRON DET NOUN
-0.15815426	SCONJ DET NOUN
-0.55431825	<s> NOUN NOUN
-0.84758806	DET NOUN NOUN
-0.68442684	NOUN NOUN NOUN
-0.5246857	PUNCT NOUN NOUN
-0.57735527	VERB NOUN NOUN
-0.73768187	NUM NOUN NOUN
-0.4738695	ADP NOUN NOUN
-0.68281156	ADJ NOUN NOUN
-0.56014776	PROPN NOUN NOUN
-0.66983426	PART NOUN NOUN
-0.6388777	ADV NOUN NOUN
-0.62450755	X NOUN NOUN
-0.438739	CCONJ NOUN NOUN
-0.8555833	PRON NOUN NOUN
-0.64620537	SCONJ NOUN NOUN
-0.74808836	INTJ NOUN NOUN
-0.6178769	<s> PUNCT NOUN
-0.3187293	DET PUNCT NOUN
-0.94154817	NOUN PUNCT NOUN
-0.8950788	PUNCT PUNCT NOUN
-1.0489359	VERB PUNCT NOUN
-0.96044785	NUM PUNCT NOUN
-0.41959253	ADP PUNCT NOUN
-0.3132539	ADJ PUNCT NOUN
-0.73739505	PROPN PUNCT NOUN
-1.0324155	PART PUNCT NOUN
-0.9128334	ADV PUNCT NOUN
-0.5595448	X PUNCT NOUN
-0.41880184	CCONJ PUNCT NOUN
-1.3739781	PRON PUNCT NOUN
-0.49676105	SCONJ PUNCT NOUN
-1.4572402	INTJ PUNCT NOUN
-0.6082308	<s> VERB NOUN
-0.46299785	DET VERB NOUN
-0.6681867	NOUN VERB NOUN
-0.5294332	PUNCT VERB NOUN
-0.5677798	VERB VERB NOUN
-0.55419314	NUM VERB NOUN
-0.39975297	ADP VERB NOUN
-0.5956513	ADJ VERB NOUN
-0.68818504	PROPN VERB NOUN
-0.706748	PART VERB NOUN
-0.67587566	ADV VERB NOUN
-0.91353583	X VERB NOUN
-0.4396746	CCONJ VERB NOUN
-0.7633227	PRON VERB NOUN
-0.57524943	SCONJ VERB NOUN
-1.0786971	INTJ VERB NOUN
-0.279737	SPACE VERB NOUN
-0.5058048	<s> NUM NOUN
-0.22816524	DET NUM NOUN
-0.55027497	NOUN NUM NOUN
-0.55754983	PUNCT NUM NOUN
-0.5290619	VERB NUM NOUN
-0.34453523	NUM NUM NOUN
-0.5322076	ADP NUM NOUN
-0.48054343	ADJ NUM NOUN
-0.414272	PROPN NUM NOUN
-0.5963007	PART NUM NOUN
-0.4228501	ADV NUM NOUN
-0.54613703	X NUM NOUN
-0.5781903	CCONJ NUM NOUN
-0.60585207	PRON NUM NOUN
-0.3536306	SCONJ NUM NOUN
-0.44121546	<s> ADP NOUN
-0.30057877	DET ADP NOUN
-0.34416795	NOUN ADP NOUN
-0.3818888	PUNCT ADP NOUN
-0.3557452	VERB ADP NOUN
-0.37817407	NUM ADP NOUN
-0.36607993	ADP ADP NOUN
-0.3275838	ADJ ADP NOUN
-0.38941103	PROPN ADP NOUN
-0.3780071	PART ADP NOUN
-0.33533752	ADV ADP NOUN
-0.25895175	X ADP NOUN
-0.296218	CCONJ ADP NOUN
-0.37662208	PRON ADP NOUN
-0.351427	SCONJ ADP NOUN
-0.1528163	<s> ADJ NOUN
-0.13686821	DET ADJ NOUN
-0.072608024	NOUN ADJ NOUN
-0.114493094	PUNCT ADJ NOUN
-0.10652401	VERB ADJ NOUN
-0.12627043	NUM ADJ NOUN
-0.0966486	ADP ADJ NOUN
-0.034287035	ADJ ADJ NOUN
-0.07865828	PROPN ADJ NOUN
-0.04329515	PART ADJ NOUN
-0.2328227	ADV ADJ NOUN
-0.11090768	X ADJ NOUN
-0.08861701	CCONJ ADJ NOUN
-0.39578474	PRON ADJ NOUN
-0.11382629	SCONJ ADJ NOUN
-0.48652232	<s> PROPN NOUN
-0.28496692	DET PROPN NOUN
-0.6182305	NOUN PROPN NOUN
-0.5493073	PUNCT PROPN NOUN
-0.4031051	VERB PROPN NOUN
-0.19906723	NUM PROPN NOUN
-0.45336172	ADP PROPN NOUN
-0.28301188	ADJ PROPN NOUN
-0.6095259	PROPN PROPN NOUN
-0.28756982	PART PROPN NOUN
-0.46433276	ADV PROPN NOUN
-0.4344263	X PROPN NOUN
-0.46899098	CCONJ PROPN NOUN
-0.47141206	PRON PROPN NOUN
-0.46794778	SCONJ PROPN NOUN
-1.046153	INTJ PROPN NOUN
-0.46808392	SPACE PROPN NOUN
-0.8493922	<s> PART NOUN
-0.09408702	DET PART NOUN
-0.31512743	NOUN PART NOUN
-0.24433525	PUNCT PART NOUN
-0.32519794	VERB PART NOUN
-0.32739317	NUM PART NOUN
-0.68794096	ADP PART NOUN
-0.07474186	ADJ PART NOUN
-0.20063841	PROPN PART NOUN
-0.22487064	PART PART NOUN
-0.87508863	ADV PART NOUN
-0.458031	X PART NOUN
-1.0594952	CCONJ PART NOUN
-0.10524114	PRON PART NOUN
-0.6334472	SCONJ PART NOUN
-0.3278485	INTJ PART NOUN
-0.94292533	<s> ADV NOUN
-1.0942155	DET ADV NOUN
-1.7195151	NOUN ADV NOUN
-0.9800466	PUNCT ADV NOUN
-1.1730376	VERB ADV NOUN
-1.431561	NUM ADV NOUN
-0.8199343	ADP ADV NOUN
-1.425701	ADJ ADV NOUN
-1.6107125	PROPN ADV NOUN
-1.3966415	PART ADV NOUN
-1.5537595	ADV ADV NOUN
-1.0941316	X ADV NOUN
-1.164012	CCONJ ADV NOUN
-1.8742065	PRON ADV NOUN
-0.97408336	SCONJ ADV NOUN
-0.43471494	<s> X NOUN
-0.79465175	DET X NOUN
-0.63523453	NOUN X NOUN
-0.49803638	PUNCT X NOUN
-0.52349174	VERB X NOUN
-0.7016546	NUM X NOUN
-0.713821	ADP X NOUN
-0.52234674	ADJ X NOUN
-0.75793827	PROPN X NOUN
-0.7075459	PART X NOUN
-0.5608208	ADV X NOUN
-0.55450153	X X NOUN
-0.62557065	CCONJ X NOUN
-0.5637542	PRON X NOUN
-0.41926444	SCONJ X NOUN
-0.6394439	<s> CCONJ NOUN
-0.367117	DET CCONJ NOUN
-0.16998373	NOUN CCONJ NOUN
-0.6767635	PUNCT CCONJ NOUN
-0.6488353	VERB CCONJ NOUN
-0.7713043	NUM CCONJ NOUN
-0.57334524	ADP CCONJ NOUN
-0.33977434	ADJ CCONJ NOUN
-0.63919324	PROPN CCONJ NOUN
-0.34219512	PART CCONJ NOUN
-0.5797945	ADV CCONJ NOUN
-0.4356026	CCONJ CCONJ NOUN
-0.44565952	PRON CCONJ NOUN
-0.2678718	INTJ CCONJ NOUN
-1.3602196	<s> PRON NOUN
-1.1204741	DET PRON NOUN
-0.9745278	NOUN PRON NOUN
-1.2586234	PUNCT PRON NOUN
-1.0529642	VERB PRON NOUN
-1.031927	NUM PRON NOUN
-0.9317525	ADP PRON NOUN
-0.9997185	ADJ PRON NOUN
-0.7485083	PROPN PRON NOUN
-1.1273005	PART PRON NOUN
-1.251668	ADV PRON NOUN
-1.1447606	X PRON NOUN
-0.7705548	CCONJ PRON NOUN
-1.2591265	PRON PRON NOUN
-1.3739882	SCONJ PRON NOUN
-0.61860585	<s> SCONJ NOUN
-1.0493603	NOUN SCONJ NOUN
-0.5955651	PUNCT SCONJ NOUN
-0.5817093	VERB SCONJ NOUN
-0.8447349	ADP SCONJ NOUN
-1.1500272	PROPN SCONJ NOUN
-0.9854457	PART SCONJ NOUN
-0.6331391	ADV SCONJ NOUN
-0.42936116	CCONJ SCONJ NOUN
-1.7245587	PRON SCONJ NOUN
-0.5206038	SCONJ SCONJ NOUN
-1.6170672	<s> INTJ NOUN
-0.49347746	NOUN INTJ NOUN
-1.6631006	PUNCT INTJ NOUN
-0.6991942	VERB INTJ NOUN
-0.50473	NUM INTJ NOUN
-0.74522	PART INTJ NOUN
-0.62822264	NOUN SPACE NOUN
-0.63311636	VERB SPACE NOUN
-0.22100003	PROPN SPACE NOUN
-2.3778934	<s> DET PUNCT
-1.8386136	DET DET PUNCT
-1.7821814	NOUN DET PUNCT
-2.2808642	PUNCT DET PUNCT
-2.1029747	VERB DET PUNCT
-1.9980915	NUM DET PUNCT
-2.2103093	ADP DET PUNCT
-1.5364082	ADJ DET PUNCT
-1.2448653	PROPN DET PUNCT
-2.5241115	PART DET PUNCT
-2.1625674	ADV DET PUNCT
-2.1251183	X DET PUNCT
-2.082976	CCONJ DET PUNCT
-2.0889459	PRON DET PUNCT
-2.2392182	SCONJ DET PUNCT
-0.9950211	<s> NOUN PUNCT
-0.6553001	DET NOUN PUNCT
-0.5549361	NOUN NOUN PUNCT
-0.66625345	PUNCT NOUN PUNCT
-0.54418534	VERB NOUN PUNCT
-0.57066953	NUM NOUN PUNCT
-1.2428979	ADP NOUN PUNCT
-0.44172224	ADJ NOUN PUNCT
-0.819716	PROPN NOUN PUNCT
-0.38796598	PART NOUN PUNCT
-0.9005046	ADV NOUN PUNCT
-1.5105706	X NOUN PUNCT
-0.6263012	CCONJ NOUN PUNCT
-0.8538783	PRON NOUN PUNCT
-1.6605165	SCONJ NOUN PUNCT
-0.42006224	INTJ NOUN PUNCT
-0.33338454	SPACE NOUN PUNCT
-1.3511156	<s> PUNCT PUNCT
-1.6710278	DET PUNCT PUNCT
-1.3197042	NOUN PUNCT PUNCT
-1.3063004	PUNCT PUNCT PUNCT
-1.2939105	VERB PUNCT PUNCT
-1.1894249	NUM PUNCT PUNCT
-1.8603312	ADP PUNCT PUNCT
-1.5046287	ADJ PUNCT PUNCT
-1.1376317	PROPN PUNCT PUNCT
-1.5733386	PART PUNCT PUNCT
-1.716099	ADV PUNCT PUNCT
-1.2201501	X PUNCT PUNCT
-1.5387093	CCONJ PUNCT PUNCT
-1.2172998	PRON PUNCT PUNCT
-1.216024	INTJ PUNCT PUNCT
-1.1723336	<s> VERB PUNCT
-1.3463846	DET VERB PUNCT
-0.6525209	NOUN VERB PUNCT
-0.9459482	PUNCT VERB PUNCT
-0.79472965	VERB VERB PUNCT
-0.9657856	NUM VERB PUNCT
-1.4889565	ADP VERB PUNCT
-0.5933281	ADJ VERB PUNCT
-0.6273812	PROPN VERB PUNCT
-0.6065696	PART VERB PUNCT
-0.71122116	ADV VERB PUNCT
-0.5983716	X VERB PUNCT
-1.0314527	CCONJ VERB PUNCT
-0.92728865	PRON VERB PUNCT
-1.1256068	SCONJ VERB PUNCT
-0.7363242	INTJ VERB PUNCT
-1.0805063	<s> NUM PUNCT
-1.8728926	DET NUM PUNCT
-0.9258403	NOUN NUM PUNCT
-0.7726734	PUNCT NUM PUNCT
-1.1831424	VERB NUM PUNCT
-0.8516114	NUM NUM PUNCT
-1.4278655	ADP NUM PUNCT
-1.6459405	ADJ NUM PUNCT
-0.90553665	PROPN NUM PUNCT
-1.3001404	PART NUM PUNCT
-1.2399694	ADV NUM PUNCT
-1.4806061	X NUM PUNCT
-1.1971375	CCONJ NUM PUNCT
-1.7735415	PRON NUM PUNCT
-1.9876579	SCONJ NUM PUNCT
-1.7389448	<s> ADP PUNCT
-1.8098633	DET ADP PUNCT
-1.725234	NOUN ADP PUNCT
-1.6666473	PUNCT ADP PUNCT
-1.7572645	VERB ADP PUNCT
-1.6985594	NUM ADP PUNCT
-1.7933193	ADP ADP PUNCT
-1.6293095	PROPN ADP PUNCT
-1.7063212	PART ADP PUNCT
-1.8950224	ADV ADP PUNCT
-1.3039113	X ADP PUNCT
-1.9447504	CCONJ ADP PUNCT
-1.761953	PRON ADP PUNCT
-1.9748089	SCONJ ADP PUNCT
-2.1918647	<s> ADJ PUNCT
-2.5199196	DET ADJ PUNCT
-2.501743	NOUN ADJ PUNCT
-1.4516121	PUNCT ADJ PUNCT
-2.2981052	VERB ADJ PUNCT
-2.4709036	NUM ADJ PUNCT
-2.2596664	ADP ADJ PUNCT
-2.815038	ADJ ADJ PUNCT
-2.4749756	PROPN ADJ PUNCT
-2.61361	PART ADJ PUNCT
-2.2330565	ADV ADJ PUNCT
-2.3607113	CCONJ ADJ PUNCT
-2.412764	PRON ADJ PUNCT
-0.71066195	<s> PROPN PUNCT
-1.276297	DET PROPN PUNCT
-0.65472764	NOUN PROPN PUNCT
-0.57727087	PUNCT PROPN PUNCT
-0.8224605	VERB PROPN PUNCT
-1.1922103	NUM PROPN PUNCT
-1.0993685	ADP PROPN PUNCT
-0.8636415	ADJ PROPN PUNCT
-0.65738064	PROPN PROPN PUNCT
-0.8638039	PART PROPN PUNCT
-1.0308373	ADV PROPN PUNCT
-1.2870487	X PROPN PUNCT
-0.86137736	CCONJ PROPN PUNCT
-0.8450571	PRON PROPN PUNCT
-1.7733691	SCONJ PROPN PUNCT
-0.6961416	INTJ PROPN PUNCT
-1.468204	<s> PART PUNCT
-2.0063355	DET PART PUNCT
-0.7807547	NOUN PART PUNCT
-0.9912403	PUNCT PART PUNCT
-0.84531623	VERB PART PUNCT
-0.7728921	NUM PART PUNCT
-1.5530376	ADP PART PUNCT
-1.5346739	ADJ PART PUNCT
-1.2805479	PROPN PART PUNCT
-1.011225	PART PART PUNCT
-0.77474886	ADV PART PUNCT
-0.9518913	CCONJ PART PUNCT
-1.3178866	PRON PART PUNCT
-0.71403897	INTJ PART PUNCT
-1.2429328	<s> ADV PUNCT
-1.3057142	DET ADV PUNCT
-2.0702457	NOUN ADV PUNCT
-1.5084553	PUNCT ADV PUNCT
-1.3919156	VERB ADV PUNCT
-1.7103655	NUM ADV PUNCT
-2.0931163	ADP ADV PUNCT
-1.3106271	ADJ ADV PUNCT
-2.1654053	PROPN ADV PUNCT
-1.6661332	PART ADV PUNCT
-1.9524952	ADV ADV PUNCT
-2.242278	X ADV PUNCT
-2.1835659	CCONJ ADV PUNCT
-2.41611	PRON ADV PUNCT
-2.0123332	SCONJ ADV PUNCT
-0.69588816	INTJ ADV PUNCT
-1.3572892	<s> X PUNCT
-1.8303005	NOUN X PUNCT
-1.0213201	PUNCT X PUNCT
-1.800903	VERB X PUNCT
-1.2676739	NUM X PUNCT
-1.6645072	ADP X PUNCT
-0.8985036	ADJ X PUNCT
-1.2869518	PROPN X PUNCT
-2.0052433	PART X PUNCT
-1.9222958	ADV X PUNCT
-1.4521186	X X PUNCT
-1.7630284	CCONJ X PUNCT
-2.14072	PRON X PUNCT
-1.5228988	SCONJ X PUNCT
-1.793109	<s> CCONJ PUNCT
-2.2577329	NOUN CCONJ PUNCT
-0.98159486	PUNCT CCONJ PUNCT
-2.2694256	VERB CCONJ PUNCT
-2.3299372	NUM CCONJ PUNCT
-2.0870047	PROPN CCONJ PUNCT
-1.883267	ADV CCONJ PUNCT
-0.8984036	X CCONJ PUNCT
-1.9925027	PRON CCONJ PUNCT
-2.4477887	<s> PRON PUNCT
-1.4051707	DET PRON PUNCT
-1.1296673	NOUN PRON PUNCT
-1.9647259	PUNCT PRON PUNCT
-0.8241615	VERB PRON PUNCT
-0.62869835	NUM PRON PUNCT
-1.5142857	ADP PRON PUNCT
-0.7868625	ADJ PRON PUNCT
-1.1310977	PROPN PRON PUNCT
-0.7905418	PART PRON PUNCT
-1.9582608	ADV PRON PUNCT
-2.3461823	X PRON PUNCT
-1.4936061	CCONJ PRON PUNCT
-1.0762489	PRON PRON PUNCT
-2.1817405	SCONJ PRON PUNCT
-2.3771834	<s> SCONJ PUNCT
-2.5807295	NOUN SCONJ PUNCT
-2.143726	PUNCT SCONJ PUNCT
-2.3622806	ADV SCONJ PUNCT
-2.1575816	PRON SCONJ PUNCT
-0.08288677	<s> INTJ PUNCT
-0.055672027	PUNCT INTJ PUNCT
-0.463967	VERB INTJ PUNCT
-0.48819584	NUM INTJ PUNCT
-0.479397	PROPN INTJ PUNCT
-0.40426278	PART INTJ PUNCT
-0.3144583	INTJ INTJ PUNCT
-1.4931889	<s> DET VERB
-1.3602468	DET DET VERB
-1.4820157	NOUN DET VERB
-1.5697954	PUNCT DET VERB
-1.2811286	VERB DET VERB
-1.7992326	NUM DET VERB
-1.3373506	ADP DET VERB
-1.5350696	ADJ DET VERB
-1.5732359	PROPN DET VERB
-1.6022698	PART DET VERB
-1.3078206	ADV DET VERB
-1.352535	X DET VERB
-1.1733152	CCONJ DET VERB
-1.2062722	PRON DET VERB
-1.2613976	SCONJ DET VERB
-0.6689256	<s> NOUN VERB
-0.6522488	DET NOUN VERB
-0.77255917	NOUN NOUN VERB
-0.8503889	PUNCT NOUN VERB
-0.84145314	VERB NOUN VERB
-0.67981666	NUM NOUN VERB
-0.61453843	ADP NOUN VERB
-0.88107866	ADJ NOUN VERB
-0.7440395	PROPN NOUN VERB
-0.8811934	PART NOUN VERB
-0.6751226	ADV NOUN VERB
-0.27862003	X NOUN VERB
-0.88794553	CCONJ NOUN VERB
-0.6204021	PRON NOUN VERB
-0.44799042	SCONJ NOUN VERB
-1.0422891	<s> PUNCT VERB
-1.0867988	DET PUNCT VERB
-1.1526784	NOUN PUNCT VERB
-1.1849549	PUNCT PUNCT VERB
-1.1931278	VERB PUNCT VERB
-1.1796291	NUM PUNCT VERB
-0.8320541	ADP PUNCT VERB
-0.91191155	ADJ PUNCT VERB
-1.0297089	PROPN PUNCT VERB
-1.2735429	PART PUNCT VERB
-1.0611494	ADV PUNCT VERB
-0.7523349	X PUNCT VERB
-0.82691306	CCONJ PUNCT VERB
-1.2606218	PRON PUNCT VERB
-0.7997105	SCONJ PUNCT VERB
-1.6131728	INTJ PUNCT VERB
-0.7625067	<s> VERB VERB
-0.8341677	DET VERB VERB
-0.81419617	NOUN VERB VERB
-0.82861805	PUNCT VERB VERB
-0.8936865	VERB VERB VERB
-0.9024924	NUM VERB VERB
-0.9439315	ADP VERB VERB
-1.0318522	ADJ VERB VERB
-0.9408783	PROPN VERB VERB
-1.0061926	PART VERB VERB
-0.75174606	ADV VERB VERB
-0.6650277	X VERB VERB
-0.9982543	CCONJ VERB VERB
-0.6488409	PRON VERB VERB
-0.59388304	SCONJ VERB VERB
-0.78752184	INTJ VERB VERB
-1.4135231	<s> NUM VERB
-1.3503035	DET NUM VERB
-1.4295521	NOUN NUM VERB
-1.447701	PUNCT NUM VERB
-1.4809188	VERB NUM VERB
-1.0286164	NUM NUM VERB
-1.5434732	ADP NUM VERB
-1.5255488	ADJ NUM VERB
-1.4109944	PROPN NUM VERB
-1.7290912	PART NUM VERB
-1.4315858	ADV NUM VERB
-1.3650157	X NUM VERB
-1.4883521	CCONJ NUM VERB
-1.4298458	PRON NUM VERB
-1.7524087	SCONJ NUM VERB
-0.89987993	<s> ADP VERB
-1.0779462	DET ADP VERB
-1.0713718	NOUN ADP VERB
-0.9719218	PUNCT ADP VERB
-1.0787649	VERB ADP VERB
-1.291542	NUM ADP VERB
-1.1275249	ADP ADP VERB
-1.4407856	ADJ ADP VERB
-1.1182417	PROPN ADP VERB
-1.0791798	PART ADP VERB
-1.0751419	ADV ADP VERB
-0.9242682	X ADP VERB
-1.2287704	CCONJ ADP VERB
-1.0738107	PRON ADP VERB
-1.3296437	SCONJ ADP VERB
-1.7176201	<s> ADJ VERB
-1.8026431	DET ADJ VERB
-1.590168	NOUN ADJ VERB
-1.7787983	PUNCT ADJ VERB
-1.7611854	VERB ADJ VERB
-1.8693223	NUM ADJ VERB
-1.8152488	ADP ADJ VERB
-1.7975893	ADJ ADJ VERB
-1.9662534	PROPN ADJ VERB
-2.0162292	PART ADJ VERB
-1.8253138	ADV ADJ VERB
-2.1783564	X ADJ VERB
-1.8006864	CCONJ ADJ VERB
-1.4377911	PRON ADJ VERB
-1.9076476	SCONJ ADJ VERB
-0.8778609	<s> PROPN VERB
-1.0741267	DET PROPN VERB
-0.78647685	NOUN PROPN VERB
-1.0860106	PUNCT PROPN VERB
-0.96184266	VERB PROPN VERB
-1.1386559	NUM PROPN VERB
-0.69074917	ADP PROPN VERB
-1.0446838	ADJ PROPN VERB
-0.7564325	PROPN PROPN VERB
-1.0533483	PART PROPN VERB
-0.8633864	ADV PROPN VERB
-0.5673195	X PROPN VERB
-0.9544386	CCONJ PROPN VERB
-0.74906516	PRON PROPN VERB
-0.6654034	SCONJ PROPN VERB
-0.7430684	INTJ PROPN VERB
-0.8673321	SPACE PROPN VERB
-0.26521188	<s> PART VERB
-1.5697968	DET PART VERB
-0.83455056	NOUN PART VERB
-0.7768123	PUNCT PART VERB
-0.99957067	VERB PART VERB
-1.1273587	NUM PART VERB
-0.4095096	ADP PART VERB
-2.1191125	ADJ PART VERB
-1.1890897	PROPN PART VERB
-1.228385	PART PART VERB
-0.303266	ADV PART VERB
-0.54061496	X PART VERB
-0.28530672	CCONJ PART VERB
-1.1608342	PRON PART VERB
-0.6385275	SCONJ PART VERB
-0.42796314	<s> ADV VERB
-0.23841353	DET ADV VERB
-0.16429503	NOUN ADV VERB
-0.34687054	PUNCT ADV VERB
-0.22201246	VERB ADV VERB
-0.20842445	NUM ADV VERB
-0.25269818	ADP ADV VERB
-0.21601585	ADJ ADV VERB
-0.17888749	PROPN ADV VERB
-0.17697313	PART ADV VERB
-0.13364807	ADV ADV VERB
-0.09043627	X ADV VERB
-0.18715186	CCONJ ADV VERB
-0.15485641	PRON ADV VERB
-0.20662476	SCONJ ADV VERB
-0.27835456	SPACE ADV VERB
-0.66322756	<s> X VERB
-0.21427849	DET X VERB
-0.3011616	NOUN X VERB
-0.6232691	PUNCT X VERB
-0.46548623	VERB X VERB
-0.3205249	NUM X VERB
-0.28614715	ADP X VERB
-0.8975612	ADJ X VERB
-0.31811768	PROPN X VERB
-0.24781469	PART X VERB
-0.3618499	ADV X VERB
-0.41407752	CCONJ X VERB
-0.41577122	PRON X VERB
-0.5797025	SCONJ X VERB
-0.6256064	<s> CCONJ VERB
-1.0162199	DET CCONJ VERB
-1.059762	NOUN CCONJ VERB
-0.59033966	PUNCT CCONJ VERB
-0.24785239	VERB CCONJ VERB
-1.6442633	NUM CCONJ VERB
-0.9044904	ADP CCONJ VERB
-0.5723019	ADJ CCONJ VERB
-1.5736191	PROPN CCONJ VERB
-0.61870605	PART CCONJ VERB
-0.5181289	ADV CCONJ VERB
-0.8354916	X CCONJ VERB
-0.4335683	CCONJ CCONJ VERB
-1.0862824	PRON CCONJ VERB
-0.5235706	SCONJ CCONJ VERB
-0.3590066	<s> PRON VERB
-0.3746627	DET PRON VERB
-0.45969152	NOUN PRON VERB
-0.37356192	PUNCT PRON VERB
-0.55077386	VERB PRON VERB
-0.53537965	NUM PRON VERB
-0.40213332	ADP PRON VERB
-0.94690853	ADJ PRON VERB
-0.51497775	PROPN PRON VERB
-0.6659727	PART PRON VERB
-0.43149966	ADV PRON VERB
-0.22741877	X PRON VERB
-0.75221074	CCONJ PRON VERB
-0.4812119	PRON PRON VERB
-0.28911686	SCONJ PRON VERB
-0.44252646	INTJ PRON VERB
-0.652831	<s> SCONJ VERB
-0.22724037	NOUN SCONJ VERB
-0.6711117	PUNCT SCONJ VERB
-0.5397906	VERB SCONJ VERB
-0.5746443	NUM SCONJ VERB
-0.8447349	ADP SCONJ VERB
-0.3561967	PROPN SCONJ VERB
-0.31483138	PART SCONJ VERB
-0.5083227	ADV SCONJ VERB
-0.21706761	PRON SCONJ VERB
-0.5206038	SCONJ SCONJ VERB
-1.6170672	<s> INTJ VERB
-0.80237395	NOUN INTJ VERB
-1.8604186	PUNCT INTJ VERB
-0.65208316	VERB INTJ VERB
-0.80237395	PROPN INTJ VERB
-0.15544936	ADV INTJ VERB
-0.76611805	NOUN SPACE VERB
-0.56728077	<s> DET NUM
-0.88569903	DET DET NUM
-0.56250405	NOUN DET NUM
-0.60168225	PUNCT DET NUM
-0.69306934	VERB DET NUM
-0.7982101	NUM DET NUM
-0.6351913	ADP DET NUM
-0.84156275	ADJ DET NUM
-0.7111098	PROPN DET NUM
-0.46217412	PART DET NUM
-0.71232253	ADV DET NUM
-0.62502635	X DET NUM
-0.9762377	CCONJ DET NUM
-0.6040882	PRON DET NUM
-0.7920349	SCONJ DET NUM
-1.5982511	<s> NOUN NUM
-2.1739347	DET NOUN NUM
-2.0267086	NOUN NOUN NUM
-1.7439505	PUNCT NOUN NUM
-1.9384363	VERB NOUN NUM
-1.9333458	NUM NOUN NUM
-1.7958062	ADP NOUN NUM
-2.2932556	ADJ NOUN NUM
-1.8430576	PROPN NOUN NUM
-2.4349697	PART NOUN NUM
-1.804263	ADV NOUN NUM
-1.9992356	X NOUN NUM
-2.3430223	CCONJ NOUN NUM
-1.8399863	PRON NOUN NUM
-1.9052353	SCONJ NOUN NUM
-1.6371548	<s> PUNCT NUM
-1.2724677	DET PUNCT NUM
-1.9307208	NOUN PUNCT NUM
-1.7592065	PUNCT PUNCT NUM
-1.9238191	VERB PUNCT NUM
-0.82315385	NUM PUNCT NUM
-1.6294732	ADP PUNCT NUM
-2.03598	ADJ PUNCT NUM
-1.7367243	PROPN PUNCT NUM
-1.8387088	PART PUNCT NUM
-1.9701055	ADV PUNCT NUM
-2.1280289	X PUNCT NUM
-1.6230307	CCONJ PUNCT NUM
-2.3584275	PRON PUNCT NUM
-1.1374378	<s> VERB NUM
-1.6571068	DET VERB NUM
-1.3597072	NOUN VERB NUM
-1.2722086	PUNCT VERB NUM
-1.3140365	VERB VERB NUM
-1.3628218	NUM VERB NUM
-1.5062466	ADP VERB NUM
-1.6225826	ADJ VERB NUM
-1.2674708	PROPN VERB NUM
-1.3311661	PART VERB NUM
-1.2913117	ADV VERB NUM
-1.5132709	X VERB NUM
-1.6241221	CCONJ VERB NUM
-1.4129348	PRON VERB NUM
-1.3081208	SCONJ VERB NUM
-1.090394	INTJ VERB NUM
-0.4115454	<s> NUM NUM
-0.58904123	DET NUM NUM
-0.35261074	NOUN NUM NUM
-0.4089257	PUNCT NUM NUM
-0.32141402	VERB NUM NUM
-1.3437316	NUM NUM NUM
-0.30162883	ADP NUM NUM
-0.2750448	ADJ NUM NUM
-0.5326343	PROPN NUM NUM
-0.23124294	PART NUM NUM
-0.45801967	ADV NUM NUM
-0.3414768	X NUM NUM
-0.30400327	CCONJ NUM NUM
-0.26566744	PRON NUM NUM
-0.4519397	SCONJ NUM NUM
-0.2765126	INTJ NUM NUM
-1.344522	<s> ADP NUM
-1.8171482	DET ADP NUM
-1.403524	NOUN ADP NUM
-1.3404465	PUNCT ADP NUM
-1.4593694	VERB ADP NUM
-1.4442948	NUM ADP NUM
-1.490484	ADP ADP NUM
-1.2767689	PROPN ADP NUM
-1.3240725	PART ADP NUM
-1.3570051	ADV ADP NUM
-1.477759	CCONJ ADP NUM
-1.355688	PRON ADP NUM
-1.300081	SCONJ ADP NUM
-1.8009912	<s> ADJ NUM
-2.3280535	DET ADJ NUM
-1.7886456	NOUN ADJ NUM
-1.8410239	PUNCT ADJ NUM
-1.8381271	VERB ADJ NUM
-2.014453	NUM ADJ NUM
-1.8865694	ADP ADJ NUM
-2.5870702	ADJ ADJ NUM
-1.914589	PROPN ADJ NUM
-1.8689764	PART ADJ NUM
-1.8669164	ADV ADJ NUM
-2.3607113	CCONJ ADJ NUM
-1.4087021	PRON ADJ NUM
-1.7924864	<s> PROPN NUM
-1.9469438	DET PROPN NUM
-1.8029982	NOUN PROPN NUM
-1.680378	PUNCT PROPN NUM
-1.7450806	VERB PROPN NUM
-1.8554124	NUM PROPN NUM
-1.8968407	ADP PROPN NUM
-2.049568	ADJ PROPN NUM
-1.7187283	PROPN PROPN NUM
-2.0176265	PART PROPN NUM
-1.8319173	ADV PROPN NUM
-1.6725403	X PROPN NUM
-1.5918456	CCONJ PROPN NUM
-1.9638821	PRON PROPN NUM
-1.7683568	SCONJ PROPN NUM
-1.0471433	INTJ PROPN NUM
-0.86803305	SPACE PROPN NUM
-1.7560982	<s> PART NUM
-2.189287	DET PART NUM
-1.6361417	NOUN PART NUM
-1.6779246	PUNCT PART NUM
-1.1519933	VERB PART NUM
-1.8354818	NUM PART NUM
-1.5152408	ADP PART NUM
-1.5869423	ADJ PART NUM
-1.3974795	PROPN PART NUM
-1.1856515	PART PART NUM
-1.872648	ADV PART NUM
-1.0098481	X PART NUM
-1.7927215	PRON PART NUM
-1.0043225	SCONJ PART NUM
-1.5868653	<s> ADV NUM
-1.6948395	DET ADV NUM
-1.8754885	NOUN ADV NUM
-1.5915893	PUNCT ADV NUM
-1.0602734	VERB ADV NUM
-1.4165995	NUM ADV NUM
-1.1725099	ADP ADV NUM
-1.5734134	ADJ ADV NUM
-1.8147426	PROPN ADV NUM
-1.2742105	PART ADV NUM
-1.9419237	ADV ADV NUM
-1.7254184	X ADV NUM
-1.1860702	CCONJ ADV NUM
-1.9784902	PRON ADV NUM
-1.6263794	SCONJ ADV NUM
-1.5218942	<s> X NUM
-1.6617794	DET X NUM
-1.6066029	NOUN X NUM
-1.2712995	PUNCT X NUM
-1.8443263	VERB X NUM
-1.6915957	NUM X NUM
-1.6645072	ADP X NUM
-1.7914647	PROPN X NUM
-1.5231612	PART X NUM
-1.5202961	ADV X NUM
-1.4521186	X X NUM
-1.5373515	CCONJ X NUM
-1.4754654	PRON X NUM
-1.5228988	SCONJ X NUM
-1.1161667	<s> CCONJ NUM
-1.5355946	NOUN CCONJ NUM
-1.2742908	PUNCT CCONJ NUM
-1.7746109	VERB CCONJ NUM
-0.15924156	NUM CCONJ NUM
-0.94582623	ADP CCONJ NUM
-1.7377626	ADJ CCONJ NUM
-1.7178097	PROPN CCONJ NUM
-1.2898047	PART CCONJ NUM
-1.1862448	ADV CCONJ NUM
-0.86626536	X CCONJ NUM
-1.0028104	PRON CCONJ NUM
-2.327524	<s> PRON NUM
-2.4580915	NOUN PRON NUM
-2.2717428	PUNCT PRON NUM
-1.9576718	VERB PRON NUM
-2.008755	NUM PRON NUM
-2.1396904	ADP PRON NUM
-1.9373212	PROPN PRON NUM
-1.6395384	PART PRON NUM
-2.1354089	ADV PRON NUM
-2.192501	X PRON NUM
-2.060336	CCONJ PRON NUM
-2.3090906	PRON PRON NUM
-2.7820199	SCONJ PRON NUM
-0.81759083	INTJ PRON NUM
-1.597517	<s> SCONJ NUM
-1.9127138	NOUN SCONJ NUM
-1.8424454	PUNCT SCONJ NUM
-1.8010114	VERB SCONJ NUM
-1.3362154	ADP SCONJ NUM
-1.6209711	ADV SCONJ NUM
-0.9102518	SCONJ SCONJ NUM
-2.121524	<s> INTJ NUM
-2.138342	<s> DET ADP
-1.8818642	DET DET ADP
-2.0034761	NOUN DET ADP
-2.0775676	PUNCT DET ADP
-1.8591094	VERB DET ADP
-1.7857568	NUM DET ADP
-1.9332104	ADP DET ADP
-2.3410702	PROPN DET ADP
-2.093376	PART DET ADP
-2.125294	ADV DET ADP
-1.9860573	X DET ADP
-1.9558052	CCONJ DET ADP
-1.664818	PRON DET ADP
-1.2868158	<s> NOUN ADP
-1.3303306	DET NOUN ADP
-1.5511886	NOUN NOUN ADP
-1.5767609	PUNCT NOUN ADP
-1.703402	VERB NOUN ADP
-1.4121765	NUM NOUN ADP
-1.7126343	ADP NOUN ADP
-1.7232057	ADJ NOUN ADP
-1.3751508	PROPN NOUN ADP
-1.722151	PART NOUN ADP
-1.4614443	ADV NOUN ADP
-1.6163558	X NOUN ADP
-1.7691586	CCONJ NOUN ADP
-1.3652309	PRON NOUN ADP
-1.2368528	SCONJ NOUN ADP
-1.3815894	<s> PUNCT ADP
-1.9553447	DET PUNCT ADP
-1.6187817	NOUN PUNCT ADP
-1.5149357	PUNCT PUNCT ADP
-1.6221427	VERB PUNCT ADP
-1.646503	NUM PUNCT ADP
-1.7685874	ADP PUNCT ADP
-2.242331	ADJ PUNCT ADP
-1.4278911	PROPN PUNCT ADP
-1.726312	PART PUNCT ADP
-1.3079488	ADV PUNCT ADP
-1.8635383	X PUNCT ADP
-1.7183869	CCONJ PUNCT ADP
-1.7868651	PRON PUNCT ADP
-1.9093333	INTJ PUNCT ADP
-1.2754133	<s> VERB ADP
-1.4185675	DET VERB ADP
-1.411325	NOUN VERB ADP
-1.3746352	PUNCT VERB ADP
-1.5285363	VERB VERB ADP
-1.3923681	NUM VERB ADP
-1.6163234	ADP VERB ADP
-1.8795929	ADJ VERB ADP
-1.512986	PROPN VERB ADP
-1.7228305	PART VERB ADP
-1.3857962	ADV VERB ADP
-1.3375589	X VERB ADP
-1.5999063	CCONJ VERB ADP
-1.2634147	PRON VERB ADP
-1.195787	SCONJ VERB ADP
-2.357882	<s> NUM ADP
-1.9934863	DET NUM ADP
-2.3210568	NOUN NUM ADP
-2.4037519	PUNCT NUM ADP
-2.140351	VERB NUM ADP
-1.6632535	NUM NUM ADP
-2.348806	ADP NUM ADP
-2.5849373	ADJ NUM ADP
-2.0032043	PROPN NUM ADP
-2.2464166	PART NUM ADP
-1.8185009	ADV NUM ADP
-1.9378545	X NUM ADP
-2.1764574	CCONJ NUM ADP
-2.0447078	PRON NUM ADP
-1.7213119	<s> ADP ADP
-2.1116176	DET ADP ADP
-2.050856	NOUN ADP ADP
-1.7795227	PUNCT ADP ADP
-1.8979367	VERB ADP ADP
-2.148995	NUM ADP ADP
-2.3656278	ADP ADP ADP
-1.8598145	PROPN ADP ADP
-2.216489	PART ADP ADP
-1.9624298	ADV ADP ADP
-2.3915815	CCONJ ADP ADP
-2.0650113	PRON ADP ADP
-2.2102032	SCONJ ADP ADP
-3.2629817	<s> ADJ ADP
-2.9860802	DET ADJ ADP
-3.4444656	NOUN ADJ ADP
-3.1655655	PUNCT ADJ ADP
-2.785542	VERB ADJ ADP
-3.3776405	NUM ADJ ADP
-3.3144612	ADP ADJ ADP
-2.927081	PROPN ADJ ADP
-3.5028584	PART ADJ ADP
-1.3672309	<s> PROPN ADP
-1.8025084	DET PROPN ADP
-1.3432124	NOUN PROPN ADP
-1.5796866	PUNCT PROPN ADP
-1.5960536	VERB PROPN ADP
-1.904108	NUM PROPN ADP
-1.7061434	ADP PROPN ADP
-2.1878395	ADJ PROPN ADP
-1.1997774	PROPN PROPN ADP
-1.7373143	PART PROPN ADP
-1.4398401	ADV PROPN ADP
-1.4098823	X PROPN ADP
-1.5481808	CCONJ PROPN ADP
-1.4736592	PRON PROPN ADP
-1.2117435	SCONJ PROPN ADP
-1.1604046	<s> PART ADP
-2.4254687	DET PART ADP
-2.123241	NOUN PART ADP
-2.1332154	PUNCT PART ADP
-1.9030986	VERB PART ADP
-1.7980553	NUM PART ADP
-3.2772794	ADJ PART ADP
-2.495377	PROPN PART ADP
-2.651803	PART PART ADP
-1.4128323	ADV PART ADP
-1.5606806	CCONJ PART ADP
-2.7573369	PRON PART ADP
-1.0443456	<s> ADV ADP
-1.1675392	DET ADV ADP
-1.1602681	NOUN ADV ADP
-1.0264703	PUNCT ADV ADP
-1.3955901	VERB ADV ADP
-1.3812225	NUM ADV ADP
-1.3288224	ADP ADV ADP
-1.4272268	ADJ ADV ADP
-0.9918359	PROPN ADV ADP
-1.509404	PART ADV ADP
-1.257148	ADV ADV ADP
-1.5589677	X ADV ADP
-1.1861277	CCONJ ADV ADP
-1.2134262	PRON ADV ADP
-1.2691858	SCONJ ADV ADP
-2.2446115	<s> X ADP
-2.2977798	NOUN X ADP
-2.3526242	PUNCT X ADP
-2.2504756	VERB X ADP
-1.9927313	NUM X ADP
-1.8420492	PROPN X ADP
-2.2178411	PART X ADP
-2.264977	ADV X ADP
-2.2261295	PRON X ADP
-1.1046232	<s> CCONJ ADP
-1.9502565	NOUN CCONJ ADP
-1.0942445	PUNCT CCONJ ADP
-1.5486194	VERB CCONJ ADP
-2.3689294	NUM CCONJ ADP
-2.4783132	PROPN CCONJ ADP
-1.7219024	PART CCONJ ADP
-1.6376768	ADV CCONJ ADP
-2.2882266	PRON CCONJ ADP
-1.092593	<s> PRON ADP
-1.4495294	DET PRON ADP
-1.2682836	NOUN PRON ADP
-1.0669988	PUNCT PRON ADP
-1.223728	VERB PRON ADP
-1.2337706	NUM PRON ADP
-1.3696122	ADP PRON ADP
-1.0013603	ADJ PRON ADP
-1.1774205	PROPN PRON ADP
-1.2411844	PART PRON ADP
-1.2952623	ADV PRON ADP
-1.2371137	X PRON ADP
-1.1923374	CCONJ PRON ADP
-1.2907928	PRON PRON ADP
-1.1191641	SCONJ PRON ADP
-1.3691865	<s> SCONJ ADP
-0.2663217	DET SCONJ ADP
-1.1743658	NOUN SCONJ ADP
-1.4079622	PUNCT SCONJ ADP
-1.3461534	VERB SCONJ ADP
-0.88807994	NUM SCONJ ADP
-0.84669286	ADP SCONJ ADP
-0.943006	PROPN SCONJ ADP
-1.0309739	PART SCONJ ADP
-1.352073	ADV SCONJ ADP
-0.98836863	PRON SCONJ ADP
-1.558957	<s> DET ADJ
-1.6517413	DET DET ADJ
-1.5216194	NOUN DET ADJ
-1.5095245	PUNCT DET ADJ
-1.3037472	VERB DET ADJ
-1.2780094	NUM DET ADJ
-1.3184605	ADP DET ADJ
-1.234922	ADJ DET ADJ
-1.1529717	PROPN DET ADJ
-1.3914573	PART DET ADJ
-1.4808941	ADV DET ADJ
-1.2778385	X DET ADJ
-1.0389811	CCONJ DET ADJ
-1.2827791	PRON DET ADJ
-1.4879475	SCONJ DET ADJ
-2.0846083	<s> NOUN ADJ
-2.2555618	DET NOUN ADJ
-2.1799316	NOUN NOUN ADJ
-2.0265284	PUNCT NOUN ADJ
-1.9907312	VERB NOUN ADJ
-2.2357254	NUM NOUN ADJ
-2.1052933	ADP NOUN ADJ
-2.333648	ADJ NOUN ADJ
-2.0123768	PROPN NOUN ADJ
-2.4013176	PART NOUN ADJ
-2.0955563	ADV NOUN ADJ
-2.0219603	X NOUN ADJ
-2.1222951	CCONJ NOUN ADJ
-2.3511589	PRON NOUN ADJ
-2.3149045	SCONJ NOUN ADJ
-1.5632784	<s> PUNCT ADJ
-0.9999989	DET PUNCT ADJ
-2.035882	NOUN PUNCT ADJ
-1.9203998	PUNCT PUNCT ADJ
-1.9333899	VERB PUNCT ADJ
-1.8316205	NUM PUNCT ADJ
-1.2772827	ADP PUNCT ADJ
-1.0311426	ADJ PUNCT ADJ
-1.7700914	PROPN PUNCT ADJ
-1.8142655	PART PUNCT ADJ
-1.8244705	ADV PUNCT ADJ
-1.4324132	X PUNCT ADJ
-1.1673297	CCONJ PUNCT ADJ
-2.3231907	PRON PUNCT ADJ
-1.1611103	SCONJ PUNCT ADJ
-1.4866678	<s> VERB ADJ
-1.4924552	DET VERB ADJ
-1.5295194	NOUN VERB ADJ
-1.4396999	PUNCT VERB ADJ
-1.4257414	VERB VERB ADJ
-1.421093	NUM VERB ADJ
-1.4261365	ADP VERB ADJ
-1.625152	ADJ VERB ADJ
-1.559043	PROPN VERB ADJ
-1.5527253	PART VERB ADJ
-1.5063938	ADV VERB ADJ
-1.7881827	X VERB ADJ
-1.3106838	CCONJ VERB ADJ
-1.6872823	PRON VERB ADJ
-1.3539263	SCONJ VERB ADJ
-1.6360195	<s> NUM ADJ
-1.536207	DET NUM ADJ
-1.6547928	NOUN NUM ADJ
-1.8020457	PUNCT NUM ADJ
-1.4226505	VERB NUM ADJ
-1.2410107	NUM NUM ADJ
-1.6186078	ADP NUM ADJ
-1.6461607	ADJ NUM ADJ
-1.3301427	PROPN NUM ADJ
-1.3577031	PART NUM ADJ
-1.4853976	ADV NUM ADJ
-1.1064607	X NUM ADJ
-1.5908045	CCONJ NUM ADJ
-1.5689714	PRON NUM ADJ
-1.4261217	SCONJ NUM ADJ
-1.4565928	<s> ADP ADJ
-1.2233332	DET ADP ADJ
-1.4339405	NOUN ADP ADJ
-1.4181784	PUNCT ADP ADJ
-1.3349979	VERB ADP ADJ
-1.3935798	NUM ADP ADJ
-1.4030788	ADP ADP ADJ
-0.9853212	ADJ ADP ADJ
-1.6153802	PROPN ADP ADJ
-1.3769006	PART ADP ADJ
-1.358717	ADV ADP ADJ
-1.5619587	X ADP ADJ
-1.2289611	CCONJ ADP ADJ
-1.5284665	PRON ADP ADJ
-1.1760509	SCONJ ADP ADJ
-1.7564499	<s> ADJ ADJ
-1.8519248	DET ADJ ADJ
-1.8651403	NOUN ADJ ADJ
-1.6789103	PUNCT ADJ ADJ
-1.656194	VERB ADJ ADJ
-1.9119589	NUM ADJ ADJ
-1.7119063	ADP ADJ ADJ
-1.9685639	ADJ ADJ ADJ
-1.4965097	PROPN ADJ ADJ
-1.8074404	PART ADJ ADJ
-1.8131759	ADV ADJ ADJ
-1.8968952	X ADJ ADJ
-1.6479132	CCONJ ADJ ADJ
-2.1413944	PRON ADJ ADJ
-1.9099463	SCONJ ADJ ADJ
-1.7514616	<s> PROPN ADJ
-1.742918	DET PROPN ADJ
-2.077551	NOUN PROPN ADJ
-1.8436044	PUNCT PROPN ADJ
-1.6260153	VERB PROPN ADJ
-1.540907	NUM PROPN ADJ
-1.6673133	ADP PROPN ADJ
-1.9187727	ADJ PROPN ADJ
-1.9899564	PROPN PROPN ADJ
-1.6073468	PART PROPN ADJ
-1.7419444	ADV PROPN ADJ
-1.7601736	X PROPN ADJ
-1.7952986	CCONJ PROPN ADJ
-2.0244887	PRON PROPN ADJ
-1.6653159	SCONJ PROPN ADJ
-2.0977032	<s> PART ADJ
-1.2411702	DET PART ADJ
-1.2899344	NOUN PART ADJ
-1.3029506	PUNCT PART ADJ
-1.278478	VERB PART ADJ
-1.3727657	NUM PART ADJ
-1.5286415	ADP PART ADJ
-1.2876024	ADJ PART ADJ
-1.1688018	PROPN PART ADJ
-1.0804288	PART PART ADJ
-2.1036072	ADV PART ADJ
-1.5421861	CCONJ PART ADJ
-1.4970533	PRON PART ADJ
-1.9452056	<s> ADV ADJ
-1.3260355	DET ADV ADJ
-2.2507308	NOUN ADV ADJ
-1.8678384	PUNCT ADV ADJ
-1.3148594	VERB ADV ADJ
-1.019354	NUM ADV ADJ
-1.259433	ADP ADV ADJ
-1.0402197	ADJ ADV ADJ
-1.7478817	PROPN ADV ADJ
-1.343056	PART ADV ADJ
-2.1188405	ADV ADV ADJ
-1.8418796	X ADV ADJ
-1.5046827	CCONJ ADV ADJ
-2.3333051	PRON ADV ADJ
-2.020526	SCONJ ADV ADJ
-1.692385	<s> X ADJ
-1.7001146	DET X ADJ
-1.7140894	NOUN X ADJ
-1.4065672	PUNCT X ADJ
-1.5129466	VERB X ADJ
-1.5451537	NUM X ADJ
-0.92246854	ADJ X ADJ
-2.079961	PROPN X ADJ
-2.02955	PART X ADJ
-1.6425151	ADV X ADJ
-1.6668487	PRON X ADJ
-1.5656003	SCONJ X ADJ
-1.4252913	<s> CCONJ ADJ
-0.6966294	DET CCONJ ADJ
-1.2308172	NOUN CCONJ ADJ
-1.532559	PUNCT CCONJ ADJ
-1.4215705	VERB CCONJ ADJ
-1.5591829	NUM CCONJ ADJ
-0.9470687	ADP CCONJ ADJ
-0.75628567	ADJ CCONJ ADJ
-1.6249007	PROPN CCONJ ADJ
-1.6720815	PART CCONJ ADJ
-1.2577477	ADV CCONJ ADJ
-1.4740047	PRON CCONJ ADJ
-2.408189	<s> PRON ADJ
-2.4054866	NOUN PRON ADJ
-2.3378465	PUNCT PRON ADJ
-1.9879317	VERB PRON ADJ
-2.2477427	NUM PRON ADJ
-2.0571089	ADP PRON ADJ
-1.2973735	ADJ PRON ADJ
-2.0053527	PART PRON ADJ
-2.4436312	ADV PRON ADJ
-2.3576176	X PRON ADJ
-1.7627959	CCONJ PRON ADJ
-2.6088436	SCONJ PRON ADJ
-1.8609083	<s> SCONJ ADJ
-2.4895053	NOUN SCONJ ADJ
-1.7493505	PUNCT SCONJ ADJ
-1.9457533	VERB SCONJ ADJ
-1.3699801	PART SCONJ ADJ
-1.694623	ADV SCONJ ADJ
-0.823065	CCONJ SCONJ ADJ
-1.4934461	<s> DET PROPN
-1.4768622	DET DET PROPN
-1.4215088	NOUN DET PROPN
-1.3510795	PUNCT DET PROPN
-1.6747591	VERB DET PROPN
-1.5074972	NUM DET PROPN
-1.3603557	ADP DET PROPN
-1.3631501	PROPN DET PROPN
-1.8214382	PART DET PROPN
-1.5024502	ADV DET PROPN
-1.3834548	X DET PROPN
-1.3306923	CCONJ DET PROPN
-1.7304211	PRON DET PROPN
-1.7216887	SCONJ DET PROPN
-1.287061	<s> NOUN PROPN
-2.115069	DET NOUN PROPN
-1.4684815	NOUN NOUN PROPN
-1.3596232	PUNCT NOUN PROPN
-1.8257064	VERB NOUN PROPN
-1.9550276	NUM NOUN PROPN
-1.5895377	ADP NOUN PROPN
-1.5830861	ADJ NOUN PROPN
-1.1327561	PROPN NOUN PROPN
-1.8740715	PART NOUN PROPN
-1.6918211	ADV NOUN PROPN
-1.9758862	X NOUN PROPN
-1.7482535	CCONJ NOUN PROPN
-1.6605726	PRON NOUN PROPN
-1.7989489	SCONJ NOUN PROPN
-1.1174471	INTJ NOUN PROPN
-0.6741307	<s> PUNCT PROPN
-0.99825364	DET PUNCT PROPN
-1.3151984	NOUN PUNCT PROPN
-0.92612016	PUNCT PUNCT PROPN
-1.4101273	VERB PUNCT PROPN
-1.3771082	NUM PUNCT PROPN
-0.5779257	ADP PUNCT PROPN
-0.9524235	ADJ PUNCT PROPN
-0.5644726	PROPN PUNCT PROPN
-1.2908975	PART PUNCT PROPN
-1.0784615	ADV PUNCT PROPN
-0.7818676	X PUNCT PROPN
-0.80603856	CCONJ PUNCT PROPN
-1.6678576	PRON PUNCT PROPN
-0.7020317	SCONJ PUNCT PROPN
-1.6131728	INTJ PUNCT PROPN
-1.0427746	<s> VERB PROPN
-1.2256893	DET VERB PROPN
-1.2731134	NOUN VERB PROPN
-1.0801165	PUNCT VERB PROPN
-1.2206349	VERB VERB PROPN
-1.0180941	NUM VERB PROPN
-1.0603728	ADP VERB PROPN
-1.4849136	ADJ VERB PROPN
-1.0666375	PROPN VERB PROPN
-1.4169418	PART VERB PROPN
-1.3477696	ADV VERB PROPN
-1.6673403	X VERB PROPN
-1.228692	CCONJ VERB PROPN
-1.3164102	PRON VERB PROPN
-1.3892782	SCONJ VERB PROPN
-1.4178424	<s> NUM PROPN
-1.8392714	DET NUM PROPN
-1.730382	NOUN NUM PROPN
-1.5841559	PUNCT NUM PROPN
-1.7842767	VERB NUM PROPN
-1.3806108	NUM NUM PROPN
-1.6122429	ADP NUM PROPN
-2.3381023	ADJ NUM PROPN
-1.5470159	PROPN NUM PROPN
-2.0019605	PART NUM PROPN
-1.6767782	ADV NUM PROPN
-1.7441314	X NUM PROPN
-1.5537677	CCONJ NUM PROPN
-2.033955	PRON NUM PROPN
-1.4252797	SCONJ NUM PROPN
-0.73997676	<s> ADP PROPN
-0.70899755	DET ADP PROPN
-0.6287023	NOUN ADP PROPN
-0.73418146	PUNCT ADP PROPN
-0.70132434	VERB ADP PROPN
-0.48863992	NUM ADP PROPN
-0.5676924	ADP ADP PROPN
-0.76867145	ADJ ADP PROPN
-0.5405593	PROPN ADP PROPN
-0.64205045	PART ADP PROPN
-0.7583381	ADV ADP PROPN
-1.0162683	X ADP PROPN
-0.7498318	CCONJ ADP PROPN
-0.7200697	PRON ADP PROPN
-0.72989404	SCONJ ADP PROPN
-1.2822709	<s> ADJ PROPN
-2.0052304	DET ADJ PROPN
-1.7529628	NOUN ADJ PROPN
-1.3748093	PUNCT ADJ PROPN
-1.7588618	VERB ADJ PROPN
-1.7784204	NUM ADJ PROPN
-1.4450758	ADP ADJ PROPN
-2.5632224	ADJ ADJ PROPN
-1.503122	PROPN ADJ PROPN
-1.9700129	PART ADJ PROPN
-1.9229196	ADV ADJ PROPN
-1.9395019	X ADJ PROPN
-1.5765584	CCONJ ADJ PROPN
-2.1771495	PRON ADJ PROPN
-1.6306132	SCONJ ADJ PROPN
-1.0153828	<s> PROPN PROPN
-0.955163	DET PROPN PROPN
-0.84157294	NOUN PROPN PROPN
-0.8590519	PUNCT PROPN PROPN
-1.2333392	VERB PROPN PROPN
-1.3545363	NUM PROPN PROPN
-1.0978221	ADP PROPN PROPN
-1.190357	ADJ PROPN PROPN
-0.99835646	PROPN PROPN PROPN
-1.0824448	PART PROPN PROPN
-1.170214	ADV PROPN PROPN
-1.2303942	X PROPN PROPN
-1.1909745	CCONJ PROPN PROPN
-1.0167943	PRON PROPN PROPN
-1.53301	SCONJ PROPN PROPN
-1.0563244	INTJ PROPN PROPN
-1.5904739	<s> PART PROPN
-1.2408736	DET PART PROPN
-1.5598631	NOUN PART PROPN
-1.4882236	PUNCT PART PROPN
-1.2980735	VERB PART PROPN
-1.0612719	NUM PART PROPN
-1.3755482	ADP PART PROPN
-1.4729165	ADJ PART PROPN
-1.042905	PROPN PART PROPN
-1.2619863	PART PART PROPN
-1.8767542	ADV PART PROPN
-1.5386376	CCONJ PART PROPN
-1.6612382	PRON PART PROPN
-1.3912634	<s> ADV PROPN
-1.924788	DET ADV PROPN
-2.4030907	NOUN ADV PROPN
-1.4541395	PUNCT ADV PROPN
-2.025696	VERB ADV PROPN
-2.19373	NUM ADV PROPN
-1.5657978	ADP ADV PROPN
-1.8021784	ADJ ADV PROPN
-2.11536	PROPN ADV PROPN
-2.224671	PART ADV PROPN
-2.2070577	ADV ADV PROPN
-2.2579093	X ADV PROPN
-1.9592055	CCONJ ADV PROPN
-2.6266217	PRON ADV PROPN
-2.0191019	SCONJ ADV PROPN
-0.99275225	<s> X PROPN
-1.0907724	DET X PROPN
-1.1344856	NOUN X PROPN
-1.0397245	PUNCT X PROPN
-1.1789008	VERB X PROPN
-0.9279269	NUM X PROPN
-1.1367543	ADP X PROPN
-1.0596792	PROPN X PROPN
-1.138371	PART X PROPN
-1.169642	ADV X PROPN
-0.34677774	X X PROPN
-1.3916669	CCONJ X PROPN
-1.3479656	PRON X PROPN
-0.99819565	SCONJ X PROPN
-1.0717126	<s> CCONJ PROPN
-1.1507047	NOUN CCONJ PROPN
-0.97492886	PUNCT CCONJ PROPN
-1.7459217	VERB CCONJ PROPN
-1.4525188	NUM CCONJ PROPN
-0.9308063	ADP CCONJ PROPN
-1.766546	ADJ CCONJ PROPN
-0.21200004	PROPN CCONJ PROPN
-1.1497374	PART CCONJ PROPN
-1.6037306	ADV CCONJ PROPN
-0.51860064	X CCONJ PROPN
-1.3183331	CCONJ CCONJ PROPN
-0.88906074	PRON CCONJ PROPN
-2.368252	<s> PRON PROPN
-1.6986368	DET PRON PROPN
-1.6035788	NOUN PRON PROPN
-2.2271483	PUNCT PRON PROPN
-2.5259802	VERB PRON PROPN
-2.2002308	NUM PRON PROPN
-2.4846535	ADP PRON PROPN
-1.3827732	PROPN PRON PROPN
-2.5401988	PART PRON PROPN
-2.9447553	ADV PRON PROPN
-1.8767194	X PRON PROPN
-2.1590812	CCONJ PRON PROPN
-2.3444178	PRON PRON PROPN
-2.7800105	SCONJ PRON PROPN
-1.0547832	<s> SCONJ PROPN
-1.829749	NOUN SCONJ PROPN
-1.0694476	PUNCT SCONJ PROPN
-1.0812829	VERB SCONJ PROPN
-0.9330002	NUM SCONJ PROPN
-1.0397232	ADP SCONJ PROPN
-1.4059726	ADV SCONJ PROPN
-2.0443556	PRON SCONJ PROPN
-1.6202056	<s> INTJ PROPN
-0.26451686	DET INTJ PROPN
-0.8342679	NOUN INTJ PROPN
-1.6567658	PUNCT INTJ PROPN
-0.8342679	PROPN INTJ PROPN
-0.62822264	NOUN SPACE PROPN
-0.31112173	VERB SPACE PROPN
-0.22100003	PART SPACE PROPN
-2.0037444	<s> DET PART
-1.360826	DET DET PART
-1.9668036	NOUN DET PART
-2.1399212	PUNCT DET PART
-1.9096583	VERB DET PART
-1.3403815	NUM DET PART
-2.0855858	ADP DET PART
-1.2804954	ADJ DET PART
-1.8251663	PROPN DET PART
-1.8366725	PART DET PART
-1.753131	ADV DET PART
-1.8645718	X DET PART
-1.6294163	CCONJ DET PART
-1.10328	PRON DET PART
-1.8310252	SCONJ DET PART
-1.1350052	<s> NOUN PART
-0.8605391	DET NOUN PART
-0.90352225	NOUN NOUN PART
-1.1699562	PUNCT NOUN PART
-0.837986	VERB NOUN PART
-0.8788861	NUM NOUN PART
-0.7094864	ADP NOUN PART
-0.90605533	ADJ NOUN PART
-0.90622324	PROPN NOUN PART
-1.1667242	PART NOUN PART
-0.9310599	ADV NOUN PART
-1.1318549	X NOUN PART
-0.8783927	CCONJ NOUN PART
-0.6856134	PRON NOUN PART
-1.2004622	SCONJ NOUN PART
-2.1719964	<s> PUNCT PART
-2.1551642	DET PUNCT PART
-1.9073836	NOUN PUNCT PART
-2.2737937	PUNCT PUNCT PART
-2.2582834	VERB PUNCT PART
-1.9743352	NUM PUNCT PART
-2.5023057	ADP PUNCT PART
-1.4601781	ADJ PUNCT PART
-1.5008469	PROPN PUNCT PART
-2.681477	PART PUNCT PART
-2.779825	ADV PUNCT PART
-2.376214	CCONJ PUNCT PART
-2.1483312	PRON PUNCT PART
-1.8835073	INTJ PUNCT PART
-1.0546942	<s> VERB PART
-0.65795785	DET VERB PART
-0.8776072	NOUN VERB PART
-1.0220008	PUNCT VERB PART
-0.935625	VERB VERB PART
-0.70021534	NUM VERB PART
-0.7753545	ADP VERB PART
-0.659474	ADJ VERB PART
-0.8357403	PROPN VERB PART
-0.65875155	PART VERB PART
-0.9194149	ADV VERB PART
-0.6420716	X VERB PART
-0.7763889	CCONJ VERB PART
-0.8945005	PRON VERB PART
-1.2728091	SCONJ VERB PART
-1.090394	INTJ VERB PART
-1.3460103	<s> NUM PART
-1.7954495	DET NUM PART
-1.4074081	NOUN NUM PART
-1.4866852	PUNCT NUM PART
-1.5039154	VERB NUM PART
-1.0227125	NUM NUM PART
-1.2165936	ADP NUM PART
-1.4110153	ADJ NUM PART
-1.5321351	PROPN NUM PART
-1.8107767	PART NUM PART
-1.0607185	ADV NUM PART
-1.552194	X NUM PART
-1.2826794	CCONJ NUM PART
-1.203913	PRON NUM PART
-1.1901025	SCONJ NUM PART
-2.93763	<s> ADP PART
-2.8919833	NOUN ADP PART
-3.2928522	PUNCT ADP PART
-2.8239057	VERB ADP PART
-2.6052215	ADP ADP PART
-3.0691364	PROPN ADP PART
-3.0006437	ADV ADP PART
-1.6794945	X ADP PART
-2.8196	PRON ADP PART
-0.7539085	<s> ADJ PART
-0.6684264	DET ADJ PART
-1.1377872	NOUN ADJ PART
-1.0359905	PUNCT ADJ PART
-0.88788754	VERB ADJ PART
-0.71842813	NUM ADJ PART
-0.98769414	ADP ADJ PART
-1.4361653	ADJ ADJ PART
-1.2056907	PROPN ADJ PART
-1.4245814	PART ADJ PART
-0.4620185	ADV ADJ PART
-0.79180014	X ADJ PART
-0.9774404	CCONJ ADJ PART
-0.31529346	PRON ADJ PART
-0.83037317	SCONJ ADJ PART
-1.2171026	<s> PROPN PART
-0.9737423	DET PROPN PART
-1.211074	NOUN PROPN PART
-1.2936071	PUNCT PROPN PART
-0.8904642	VERB PROPN PART
-1.091445	NUM PROPN PART
-0.8679818	ADP PROPN PART
-0.97590274	ADJ PROPN PART
-1.1279002	PROPN PROPN PART
-1.2958351	PART PROPN PART
-1.0091562	ADV PROPN PART
-1.0153865	X PROPN PART
-0.72996694	CCONJ PROPN PART
-1.1615247	PRON PROPN PART
-1.1303862	SCONJ PROPN PART
-1.0573381	INTJ PROPN PART
-1.758962	<s> PART PART
-2.1645024	DET PART PART
-1.3780134	NOUN PART PART
-1.6383866	PUNCT PART PART
-1.816573	VERB PART PART
-1.2748799	NUM PART PART
-0.9839628	ADP PART PART
-2.8766255	ADJ PART PART
-1.6294731	PROPN PART PART
-2.2948434	PART PART PART
-1.7294601	ADV PART PART
-1.2482293	CCONJ PART PART
-2.244334	PRON PART PART
-2.3579736	<s> ADV PART
-1.9253621	DET ADV PART
-2.4360898	NOUN ADV PART
-2.4505374	PUNCT ADV PART
-1.9818506	VERB ADV PART
-1.7116326	NUM ADV PART
-2.40264	ADP ADV PART
-1.6110446	ADJ ADV PART
-2.3702183	PROPN ADV PART
-2.49377	PART ADV PART
-2.2816634	ADV ADV PART
-2.0409737	X ADV PART
-2.5462382	CCONJ ADV PART
-2.333234	PRON ADV PART
-2.4594967	SCONJ ADV PART
-2.2429953	<s> X PART
-2.8513968	NOUN X PART
-2.5471642	PUNCT X PART
-2.7300324	VERB X PART
-1.9901615	NUM X PART
-2.3312433	PROPN X PART
-2.8951943	ADV X PART
-1.6490006	CCONJ X PART
-2.4394825	PRON X PART
-2.3470933	<s> CCONJ PART
-3.0189807	NOUN CCONJ PART
-2.785767	VERB CCONJ PART
-2.370781	NUM CCONJ PART
-3.2046359	PROPN CCONJ PART
-2.0058181	PART CCONJ PART
-2.5494273	PRON CCONJ PART
-1.1699696	<s> PRON PART
-1.2342122	DET PRON PART
-1.0519477	NOUN PRON PART
-1.1115062	PUNCT PRON PART
-0.61661714	VERB PRON PART
-0.8520189	NUM PRON PART
-0.5891479	ADP PRON PART
-0.7813433	ADJ PRON PART
-0.98297954	PROPN PRON PART
-0.5764135	PART PRON PART
-1.0956216	ADV PRON PART
-0.73328424	X PRON PART
-0.4095938	CCONJ PRON PART
-0.6271531	PRON PRON PART
-1.2682745	SCONJ PRON PART
-0.80537117	INTJ PRON PART
-2.768645	<s> SCONJ PART
-2.7020788	NOUN SCONJ PART
-2.3873706	VERB SCONJ PART
-1.782717	<s> INTJ PART
-2.107062	PUNCT INTJ PART
-1.7742407	<s> DET ADV
-1.6757674	DET DET ADV
-1.847023	NOUN DET ADV
-2.0187948	PUNCT DET ADV
-1.7007842	VERB DET ADV
-1.8240988	NUM DET ADV
-1.6477728	ADP DET ADV
-2.2030513	PROPN DET ADV
-1.937457	PART DET ADV
-1.7379198	ADV DET ADV
-1.7970076	X DET ADV
-1.6527277	CCONJ DET ADV
-2.07842	PRON DET ADV
-0.8488995	<s> NOUN ADV
-0.7692254	DET NOUN ADV
-1.0970988	NOUN NOUN ADV
-1.1373304	PUNCT NOUN ADV
-1.361078	VERB NOUN ADV
-1.0132861	NUM NOUN ADV
-1.3079373	ADP NOUN ADV
-1.2066194	ADJ NOUN ADV
-1.1073674	PROPN NOUN ADV
-1.0998846	PART NOUN ADV
-0.75324994	ADV NOUN ADV
-1.5034429	X NOUN ADV
-1.189979	CCONJ NOUN ADV
-0.8514289	PRON NOUN ADV
-0.70686966	SCONJ NOUN ADV
-1.107899	INTJ NOUN ADV
-0.7167753	SPACE NOUN ADV
-1.1825851	<s> PUNCT ADV
-1.9171298	DET PUNCT ADV
-1.183474	NOUN PUNCT ADV
-1.2187271	PUNCT PUNCT ADV
-1.2041171	VERB PUNCT ADV
-1.2557651	NUM PUNCT ADV
-1.5587442	ADP PUNCT ADV
-1.413573	ADJ PUNCT ADV
-1.3673744	PROPN PUNCT ADV
-1.2536341	PART PUNCT ADV
-1.204046	ADV PUNCT ADV
-1.5058867	X PUNCT ADV
-1.2344306	CCONJ PUNCT ADV
-1.2608808	PRON PUNCT ADV
-1.533631	INTJ PUNCT ADV
-1.2789537	<s> VERB ADV
-1.5662925	DET VERB ADV
-1.3672391	NOUN VERB ADV
-1.3708122	PUNCT VERB ADV
-1.4004688	VERB VERB ADV
-1.5745689	NUM VERB ADV
-1.5677029	ADP VERB ADV
-1.5708588	ADJ VERB ADV
-1.435501	PROPN VERB ADV
-1.5125879	PART VERB ADV
-1.3333099	ADV VERB ADV
-1.599815	X VERB ADV
-1.6827123	CCONJ VERB ADV
-1.1371424	PRON VERB ADV
-1.1136566	SCONJ VERB ADV
-1.089294	INTJ VERB ADV
-1.9632721	<s> NUM ADV
-1.7636613	DET NUM ADV
-1.9596391	NOUN NUM ADV
-1.8963846	PUNCT NUM ADV
-1.784446	VERB NUM ADV
-1.4903883	NUM NUM ADV
-2.1379547	ADP NUM ADV
-2.2028272	ADJ NUM ADV
-1.9235697	PROPN NUM ADV
-2.117618	PART NUM ADV
-1.9632338	ADV NUM ADV
-1.752869	X NUM ADV
-1.89517	CCONJ NUM ADV
-1.4962137	PRON NUM ADV
-1.4321129	<s> ADP ADV
-2.10901	DET ADP ADV
-1.7052169	NOUN ADP ADV
-1.5117464	PUNCT ADP ADV
-1.6354237	VERB ADP ADV
-1.805212	NUM ADP ADV
-1.7368212	ADP ADP ADV
-1.7099551	PROPN ADP ADV
-1.7077292	PART ADP ADV
-1.6405495	ADV ADP ADV
-1.7052022	CCONJ ADP ADV
-1.615157	PRON ADP ADV
-1.2998239	SCONJ ADP ADV
-2.3573146	<s> ADJ ADV
-2.6600347	DET ADJ ADV
-2.8109622	NOUN ADJ ADV
-2.8250642	PUNCT ADJ ADV
-2.6141105	VERB ADJ ADV
-2.92738	NUM ADJ ADV
-2.4871778	ADP ADJ ADV
-2.8133645	ADJ ADJ ADV
-2.85595	PROPN ADJ ADV
-2.7545676	PART ADJ ADV
-2.5465658	ADV ADJ ADV
-2.9969568	CCONJ ADJ ADV
-2.0088975	PRON ADJ ADV
-1.1407547	<s> PROPN ADV
-1.2317473	DET PROPN ADV
-1.3005288	NOUN PROPN ADV
-1.3952589	PUNCT PROPN ADV
-1.4600631	VERB PROPN ADV
-1.6259487	NUM PROPN ADV
-1.3676933	ADP PROPN ADV
-1.5945005	ADJ PROPN ADV
-1.3403652	PROPN PROPN ADV
-1.4670675	PART PROPN ADV
-0.8935056	ADV PROPN ADV
-1.8067855	X PROPN ADV
-1.2281637	CCONJ PROPN ADV
-1.139254	PRON PROPN ADV
-0.786639	SCONJ PROPN ADV
-1.1365541	<s> PART ADV
-1.9967976	DET PART ADV
-1.4484897	NOUN PART ADV
-1.8674234	PUNCT PART ADV
-1.4675124	VERB PART ADV
-1.2744453	NUM PART ADV
-1.0306381	ADP PART ADV
-2.7091253	ADJ PART ADV
-1.8741482	PROPN PART ADV
-2.1601145	PART PART ADV
-1.1632402	ADV PART ADV
-1.2895136	X PART ADV
-1.2724341	CCONJ PART ADV
-1.9564252	PRON PART ADV
-0.9914829	SCONJ PART ADV
-0.79747266	<s> ADV ADV
-0.99372923	DET ADV ADV
-0.7699306	NOUN ADV ADV
-0.8133329	PUNCT ADV ADV
-1.1240153	VERB ADV ADV
-1.004513	NUM ADV ADV
-1.2589588	ADP ADV ADV
-1.4177055	ADJ ADV ADV
-0.86829245	PROPN ADV ADV
-0.9493998	PART ADV ADV
-0.94723195	ADV ADV ADV
-2.2406812	X ADV ADV
-1.1225693	CCONJ ADV ADV
-0.7397597	PRON ADV ADV
-0.91217697	SCONJ ADV ADV
-0.69539434	INTJ ADV ADV
-1.7499012	<s> X ADV
-1.4337997	NOUN X ADV
-1.7641658	PUNCT X ADV
-1.3776565	VERB X ADV
-1.701033	NUM X ADV
-1.955978	ADP X ADV
-1.6656269	PROPN X ADV
-1.5732341	PART X ADV
-1.5458133	ADV X ADV
-1.4195673	CCONJ X ADV
-1.5682793	PRON X ADV
-1.0067555	<s> CCONJ ADV
-1.7848916	NOUN CCONJ ADV
-1.1160353	PUNCT CCONJ ADV
-1.110626	VERB CCONJ ADV
-2.0436444	NUM CCONJ ADV
-1.4576352	ADJ CCONJ ADV
-2.1120682	PROPN CCONJ ADV
-1.4856445	PART CCONJ ADV
-0.81405073	ADV CCONJ ADV
-1.3341846	CCONJ CCONJ ADV
-1.6987126	PRON CCONJ ADV
-0.54002595	SCONJ CCONJ ADV
-0.4859059	<s> PRON ADV
-0.55944514	DET PRON ADV
-0.57535464	NOUN PRON ADV
-0.5219805	PUNCT PRON ADV
-0.9347638	VERB PRON ADV
-0.9252775	NUM PRON ADV
-1.0180401	ADP PRON ADV
-0.9550131	ADJ PRON ADV
-0.7307148	PROPN PRON ADV
-0.82863796	PART PRON ADV
-0.41470712	ADV PRON ADV
-1.4270444	X PRON ADV
-1.0493897	CCONJ PRON ADV
-0.7132601	PRON PRON ADV
-0.56425035	SCONJ PRON ADV
-1.0978122	<s> SCONJ ADV
-0.7387904	NOUN SCONJ ADV
-1.099732	PUNCT SCONJ ADV
-1.0741106	VERB SCONJ ADV
-0.9008384	NUM SCONJ ADV
-0.7469751	ADP SCONJ ADV
-0.5768289	PROPN SCONJ ADV
-1.2856573	PART SCONJ ADV
-1.1122451	ADV SCONJ ADV
-0.6959632	PRON SCONJ ADV
-1.7567382	<s> INTJ ADV
-0.76611805	NOUN SPACE ADV
-2.7359397	<s> DET X
-1.9526641	DET DET X
-2.7378545	NOUN DET X
-2.8497634	PUNCT DET X
-2.926276	VERB DET X
-2.4719708	ADP DET X
-2.68086	PART DET X
-2.9597795	ADV DET X
-2.1702082	X DET X
-2.7995849	CCONJ DET X
-2.4474351	<s> NOUN X
-2.265114	DET NOUN X
-2.5235357	NOUN NOUN X
-2.4663098	PUNCT NOUN X
-2.631712	VERB NOUN X
-2.2209127	NUM NOUN X
-2.4986331	ADP NOUN X
-2.714995	ADJ NOUN X
-2.4201043	PROPN NOUN X
-2.4147768	PART NOUN X
-2.6610026	ADV NOUN X
-3.0517623	X NOUN X
-2.7325346	CCONJ NOUN X
-2.405745	PRON NOUN X
-2.3149045	SCONJ NOUN X
-2.8583853	<s> PUNCT X
-2.178772	DET PUNCT X
-2.7520308	NOUN PUNCT X
-2.7128153	PUNCT PUNCT X
-2.7386267	VERB PUNCT X
-2.8433008	NUM PUNCT X
-2.3292642	ADP PUNCT X
-2.6228921	PROPN PUNCT X
-2.7286656	PART PUNCT X
-2.6583655	ADV PUNCT X
-2.4012282	CCONJ PUNCT X
-2.7906451	PRON PUNCT X
-2.1371799	INTJ PUNCT X
-2.2213595	<s> VERB X
-2.6309857	DET VERB X
-2.4359562	NOUN VERB X
-2.399734	PUNCT VERB X
-2.5569022	VERB VERB X
-2.5913014	NUM VERB X
-2.5735078	ADP VERB X
-2.4115705	ADJ VERB X
-2.5017204	PROPN VERB X
-2.7596524	PART VERB X
-2.3349988	ADV VERB X
-2.713283	X VERB X
-2.6017244	CCONJ VERB X
-2.1963432	PRON VERB X
-2.5850792	SCONJ VERB X
-3.2779374	<s> NUM X
-2.922901	DET NUM X
-2.862026	NOUN NUM X
-3.2079997	PUNCT NUM X
-3.1839232	VERB NUM X
-2.5116656	NUM NUM X
-3.070966	ADP NUM X
-2.473585	PROPN NUM X
-3.3511486	PART NUM X
-3.1967645	ADV NUM X
-2.172944	X NUM X
-2.9193735	CCONJ NUM X
-2.6564848	<s> ADP X
-2.7472956	NOUN ADP X
-2.698463	PUNCT ADP X
-2.7950394	VERB ADP X
-2.7864063	NUM ADP X
-2.7349553	ADP ADP X
-2.7772708	PROPN ADP X
-2.9148111	PART ADP X
-2.9884372	ADV ADP X
-2.4072158	CCONJ ADP X
-2.7964365	PRON ADP X
-2.233988	SCONJ ADP X
-3.5672085	PUNCT ADJ X
-3.733116	VERB ADJ X
-3.9029064	PART ADJ X
-2.4154541	X ADJ X
-2.5548944	<s> PROPN X
-2.505156	NOUN PROPN X
-2.494888	PUNCT PROPN X
-2.817619	VERB PROPN X
-3.1589406	NUM PROPN X
-2.4284143	ADP PROPN X
-2.7657478	ADJ PROPN X
-2.6076813	PROPN PROPN X
-2.8378315	PART PROPN X
-2.6198535	ADV PROPN X
-2.8495426	CCONJ PROPN X
-2.066168	SCONJ PROPN X
-2.5709844	<s> PART X
-2.4609585	NOUN PART X
-2.4089298	PUNCT PART X
-2.5576067	VERB PART X
-2.4772515	NUM PART X
-1.8404284	ADP PART X
-2.8184752	PROPN PART X
-3.2289164	PART PART X
-1.8916343	ADV PART X
-3.3443067	PRON PART X
-2.0342371	<s> ADV X
-1.7464207	DET ADV X
-1.7890055	NOUN ADV X
-1.8999335	PUNCT ADV X
-2.0997653	VERB ADV X
-1.8109485	NUM ADV X
-2.1672661	ADP ADV X
-1.8256252	ADJ ADV X
-1.7483104	PROPN ADV X
-1.8696808	PART ADV X
-1.8541684	ADV ADV X
-2.1964338	CCONJ ADV X
-1.9310414	PRON ADV X
-1.9436876	SCONJ ADV X
-2.3586311	NOUN X X
-2.3738093	PUNCT X X
-2.9986062	VERB X X
-1.7961867	NUM X X
-1.0234957	ADP X X
-2.159878	PROPN X X
-2.4911911	PART X X
-1.9159245	CCONJ X X
-2.034549	<s> CCONJ X
-2.8337455	NOUN CCONJ X
-2.1279392	PUNCT CCONJ X
-2.0530171	VERB CCONJ X
-3.1914372	PROPN CCONJ X
-2.5931783	PRON CCONJ X
-2.1599605	<s> PRON X
-2.2933528	NOUN PRON X
-1.9967706	PUNCT PRON X
-2.3018653	VERB PRON X
-2.037441	NUM PRON X
-2.3040347	ADP PRON X
-2.3130796	PART PRON X
-2.0349665	ADV PRON X
-2.5788355	X PRON X
-2.1836126	CCONJ PRON X
-2.3755848	PRON PRON X
-2.0356698	SCONJ PRON X
-2.1750412	<s> SCONJ X
-2.2582035	NOUN SCONJ X
-2.1802912	PUNCT SCONJ X
-1.6950788	VERB SCONJ X
-1.6858476	PROPN SCONJ X
-2.0772521	ADV SCONJ X
-1.625445	PRON SCONJ X
-2.1390247	DET DET CCONJ
-3.4805903	VERB DET CCONJ
-2.888922	ADV DET CCONJ
-2.7550883	CCONJ DET CCONJ
-1.6222388	<s> NOUN CCONJ
-1.6427586	DET NOUN CCONJ
-1.4181248	NOUN NOUN CCONJ
-1.1342032	PUNCT NOUN CCONJ
-1.386785	VERB NOUN CCONJ
-1.5894073	NUM NOUN CCONJ
-1.4255735	ADP NOUN CCONJ
-1.3960056	ADJ NOUN CCONJ
-1.5229981	PROPN NOUN CCONJ
-1.4133196	PART NOUN CCONJ
-1.4449224	ADV NOUN CCONJ
-1.4518063	X NOUN CCONJ
-2.1007094	CCONJ NOUN CCONJ
-1.5387307	PRON NOUN CCONJ
-1.5723143	SCONJ NOUN CCONJ
-2.49516	<s> PUNCT CCONJ
-1.9540714	DET PUNCT CCONJ
-1.9931161	NOUN PUNCT CCONJ
-2.1513352	PUNCT PUNCT CCONJ
-2.2985187	VERB PUNCT CCONJ
-2.1692622	NUM PUNCT CCONJ
-2.491576	ADP PUNCT CCONJ
-1.5582864	ADJ PUNCT CCONJ
-1.917161	PROPN PUNCT CCONJ
-2.6803892	PART PUNCT CCONJ
-2.7054193	ADV PUNCT CCONJ
-2.1092772	X PUNCT CCONJ
-1.5770628	CCONJ PUNCT CCONJ
-2.469601	PRON PUNCT CCONJ
-1.6203676	INTJ PUNCT CCONJ
-2.2942476	<s> VERB CCONJ
-1.8452327	DET VERB CCONJ
-2.113866	NOUN VERB CCONJ
-1.9206073	PUNCT VERB CCONJ
-1.9941888	VERB VERB CCONJ
-2.072715	NUM VERB CCONJ
-1.7636992	ADP VERB CCONJ
-1.5054834	ADJ VERB CCONJ
-2.2511659	PROPN VERB CCONJ
-2.200096	PART VERB CCONJ
-2.1417594	ADV VERB CCONJ
-1.7088344	X VERB CCONJ
-2.2414072	CCONJ VERB CCONJ
-2.291533	PRON VERB CCONJ
-2.3985476	SCONJ VERB CCONJ
-2.4431605	<s> NUM CCONJ
-2.8646038	DET NUM CCONJ
-2.1622841	NOUN NUM CCONJ
-2.1424615	PUNCT NUM CCONJ
-2.0147364	VERB NUM CCONJ
-2.1618512	NUM NUM CCONJ
-1.8062568	ADP NUM CCONJ
-2.402317	ADJ NUM CCONJ
-2.2289386	PROPN NUM CCONJ
-2.4532285	PART NUM CCONJ
-2.2571023	ADV NUM CCONJ
-2.1482937	X NUM CCONJ
-2.4474232	CCONJ NUM CCONJ
-4.0935326	<s> ADP CCONJ
-3.9090266	NOUN ADP CCONJ
-3.8193357	VERB ADP CCONJ
-3.651996	PROPN ADP CCONJ
-2.6291337	<s> ADJ CCONJ
-2.5199196	DET ADJ CCONJ
-2.9966643	NOUN ADJ CCONJ
-2.3116727	PUNCT ADJ CCONJ
-2.3582299	VERB ADJ CCONJ
-2.6730213	NUM ADJ CCONJ
-2.6713417	ADP ADJ CCONJ
-2.8572795	PROPN ADJ CCONJ
-2.6927683	PART ADJ CCONJ
-2.4320886	ADV ADJ CCONJ
-1.9596344	X ADJ CCONJ
-2.9988778	CCONJ ADJ CCONJ
-2.412764	PRON ADJ CCONJ
-1.6677921	<s> PROPN CCONJ
-1.80228	DET PROPN CCONJ
-1.6157255	NOUN PROPN CCONJ
-1.3706563	PUNCT PROPN CCONJ
-1.4524393	VERB PROPN CCONJ
-1.6710448	NUM PROPN CCONJ
-1.4564459	ADP PROPN CCONJ
-1.8448622	ADJ PROPN CCONJ
-1.6999798	PROPN PROPN CCONJ
-1.6132712	PART PROPN CCONJ
-1.3264132	ADV PROPN CCONJ
-1.4302346	X PROPN CCONJ
-1.8611252	CCONJ PROPN CCONJ
-1.9878978	PRON PROPN CCONJ
-1.4676467	SCONJ PROPN CCONJ
-2.7328775	<s> PART CCONJ
-3.0115469	NOUN PART CCONJ
-3.2690115	PUNCT PART CCONJ
-3.1860383	VERB PART CCONJ
-2.966292	NUM PART CCONJ
-3.292017	ADJ PART CCONJ
-3.6126754	PROPN PART CCONJ
-3.387643	PART PART CCONJ
-2.4812036	ADV PART CCONJ
-1.3446597	X PART CCONJ
-3.5026896	PRON PART CCONJ
-3.304713	<s> ADV CCONJ
-3.2475166	NOUN ADV CCONJ
-2.955796	PUNCT ADV CCONJ
-2.9587197	VERB ADV CCONJ
-2.8253102	NUM ADV CCONJ
-2.9601474	PROPN ADV CCONJ
-3.2594204	PART ADV CCONJ
-3.3115745	ADV ADV CCONJ
-3.55754	PRON ADV CCONJ
-2.961787	NOUN X CCONJ
-2.8045063	PUNCT X CCONJ
-1.6858215	X X CCONJ
-2.463038	<s> CCONJ CCONJ
-3.4279022	NOUN CCONJ CCONJ
-3.0532992	PUNCT CCONJ CCONJ
-3.0936663	VERB CCONJ CCONJ
-3.4975517	PROPN CCONJ CCONJ
-2.1338272	<s> PRON CCONJ
-1.9170083	NOUN PRON CCONJ
-2.0417843	PUNCT PRON CCONJ
-2.0534985	VERB PRON CCONJ
-2.2233374	NUM PRON CCONJ
-2.064776	ADP PRON CCONJ
-2.2319243	PROPN PRON CCONJ
-2.0690963	PART PRON CCONJ
-2.1906517	ADV PRON CCONJ
-2.0980144	X PRON CCONJ
-2.3047926	CCONJ PRON CCONJ
-1.7877369	PRON PRON CCONJ
-2.132221	SCONJ PRON CCONJ
-2.7385697	NOUN SCONJ CCONJ
-3.1189992	PUNCT SCONJ CCONJ
-2.1565132	PUNCT INTJ CCONJ
-3.098253	<s> DET PRON
-1.9504054	DET DET PRON
-2.7726004	NOUN DET PRON
-2.4653416	PUNCT DET PRON
-2.6612527	VERB DET PRON
-2.7185967	ADP DET PRON
-2.6796765	PART DET PRON
-2.9572165	ADV DET PRON
-2.4064176	X DET PRON
-2.331406	CCONJ DET PRON
-1.8776376	<s> NOUN PRON
-2.3933296	DET NOUN PRON
-2.6781065	NOUN NOUN PRON
-2.222622	PUNCT NOUN PRON
-2.566095	VERB NOUN PRON
-2.5988734	NUM NOUN PRON
-2.4714277	ADP NOUN PRON
-3.0738733	ADJ NOUN PRON
-2.6214266	PROPN NOUN PRON
-2.8143542	PART NOUN PRON
-1.9326476	ADV NOUN PRON
-2.615704	X NOUN PRON
-2.5317128	CCONJ NOUN PRON
-2.2007213	PRON NOUN PRON
-2.0849934	SCONJ NOUN PRON
-0.959115	<s> PUNCT PRON
-1.9182991	DET PUNCT PRON
-1.7234174	NOUN PUNCT PRON
-1.1825209	PUNCT PUNCT PRON
-1.6089741	VERB PUNCT PRON
-1.8355124	NUM PUNCT PRON
-1.5588634	ADP PUNCT PRON
-2.059495	ADJ PUNCT PRON
-1.7847197	PROPN PUNCT PRON
-1.4937358	PART PUNCT PRON
-1.3695109	ADV PUNCT PRON
-1.3856186	CCONJ PUNCT PRON
-1.4634836	PRON PUNCT PRON
-1.4384518	SCONJ PUNCT PRON
-1.4005809	INTJ PUNCT PRON
-1.1186435	<s> VERB PRON
-1.4274871	DET VERB PRON
-1.5505806	NOUN VERB PRON
-1.3403584	PUNCT VERB PRON
-1.3108389	VERB VERB PRON
-1.8082191	NUM VERB PRON
-1.5335453	ADP VERB PRON
-2.1349204	ADJ VERB PRON
-1.5972583	PROPN VERB PRON
-1.4486997	PART VERB PRON
-1.4194844	ADV VERB PRON
-2.2069612	X VERB PRON
-1.2943926	CCONJ VERB PRON
-1.1285748	PRON VERB PRON
-1.5165516	SCONJ VERB PRON
-1.090394	INTJ VERB PRON
-2.733839	<s> NUM PRON
-2.7459273	DET NUM PRON
-2.7239728	NOUN NUM PRON
-3.2237773	PUNCT NUM PRON
-2.3727758	VERB NUM PRON
-2.4072044	NUM NUM PRON
-3.08663	ADP NUM PRON
-2.739444	PROPN NUM PRON
-2.6851525	PART NUM PRON
-2.7750614	ADV NUM PRON
-2.2270439	PRON NUM PRON
-0.97263396	<s> ADP PRON
-1.2484999	DET ADP PRON
-1.2275872	NOUN ADP PRON
-1.0344645	PUNCT ADP PRON
-1.0528226	VERB ADP PRON
-1.3295467	NUM ADP PRON
-1.2350101	ADP ADP PRON
-1.1535113	ADJ ADP PRON
-1.2804189	PROPN ADP PRON
-1.0961093	PART ADP PRON
-1.0296382	ADV ADP PRON
-1.2943975	X ADP PRON
-1.1001146	CCONJ ADP PRON
-0.9378948	PRON ADP PRON
-1.1506629	SCONJ ADP PRON
-3.3279705	<s> ADJ PRON
-3.2773278	NOUN ADJ PRON
-3.4317827	PUNCT ADJ PRON
-3.1083734	VERB ADJ PRON
-3.4424703	NUM ADJ PRON
-3.1400197	ADP ADJ PRON
-3.5059934	PART ADJ PRON
-2.4572246	<s> PROPN PRON
-2.7365468	DET PROPN PRON
-2.502311	NOUN PROPN PRON
-2.4408255	PUNCT PROPN PRON
-2.5345454	VERB PROPN PRON
-2.8890848	NUM PROPN PRON
-2.3867452	ADP PROPN PRON
-2.5006404	ADJ PROPN PRON
-2.4856846	PROPN PROPN PRON
-2.7772841	PART PROPN PRON
-2.1377025	ADV PROPN PRON
-2.5256772	X PROPN PRON
-2.3986259	CCONJ PROPN PRON
-2.023169	PRON PROPN PRON
-2.2081296	SCONJ PROPN PRON
-1.388686	<s> PART PRON
-2.1773267	DET PART PRON
-2.4770553	NOUN PART PRON
-2.9003294	PUNCT PART PRON
-1.6401333	VERB PART PRON
-1.9109639	NUM PART PRON
-1.7901503	ADP PART PRON
-2.8228278	ADJ PART PRON
-2.5829191	PROPN PART PRON
-2.4545596	PART PART PRON
-1.8009055	ADV PART PRON
-2.6463864	PRON PART PRON
-1.0958042	<s> ADV PRON
-2.2488663	DET ADV PRON
-2.6634245	NOUN ADV PRON
-1.275617	PUNCT ADV PRON
-2.0814824	VERB ADV PRON
-2.293023	NUM ADV PRON
-1.9854308	ADP ADV PRON
-1.8039943	ADJ ADV PRON
-2.7253127	PROPN ADV PRON
-2.4357514	PART ADV PRON
-2.118814	ADV ADV PRON
-2.259571	X ADV PRON
-1.9595464	CCONJ ADV PRON
-2.4870713	PRON ADV PRON
-1.8071469	SCONJ ADV PRON
-0.95507044	<s> X PRON
-1.3783207	DET X PRON
-1.2768781	NOUN X PRON
-1.0213201	PUNCT X PRON
-0.9742459	VERB X PRON
-1.8599008	NUM X PRON
-1.8891573	ADP X PRON
-1.1689215	PROPN X PRON
-1.2394366	PART X PRON
-1.1192527	ADV X PRON
-1.1512747	X X PRON
-0.77741945	CCONJ X PRON
-0.93523604	PRON X PRON
-1.26929	SCONJ X PRON
-1.2537227	<s> CCONJ PRON
-1.8854811	NOUN CCONJ PRON
-1.4608014	PUNCT CCONJ PRON
-2.1040468	VERB CCONJ PRON
-1.861326	NUM CCONJ PRON
-1.7480595	PROPN CCONJ PRON
-1.6540043	ADV CCONJ PRON
-0.82241964	PRON CCONJ PRON
-2.3629277	<s> PRON PRON
-2.0357141	NOUN PRON PRON
-2.261475	PUNCT PRON PRON
-1.8155315	VERB PRON PRON
-2.0222418	NUM PRON PRON
-1.7630616	ADP PRON PRON
-1.9449924	PROPN PRON PRON
-1.8246013	PART PRON PRON
-2.172104	ADV PRON PRON
-2.0980144	X PRON PRON
-1.6771959	CCONJ PRON PRON
-1.8422484	PRON PRON PRON
-2.2638707	SCONJ PRON PRON
-0.6523074	<s> SCONJ PRON
-1.7018514	NOUN SCONJ PRON
-0.6248334	PUNCT SCONJ PRON
-0.84839344	VERB SCONJ PRON
-1.0054661	ADP SCONJ PRON
-1.5986023	PROPN SCONJ PRON
-0.99877894	PART SCONJ PRON
-0.70938194	ADV SCONJ PRON
-0.7870534	CCONJ SCONJ PRON
-1.9863921	PRON SCONJ PRON
-1.7552193	<s> INTJ PRON
-2.0626707	PUNCT INTJ PRON
-0.90812254	PROPN INTJ PRON
-3.9361615	<s> DET SCONJ
-2.4523506	<s> NOUN SCONJ
-2.5684886	DET NOUN SCONJ
-3.1892126	NOUN NOUN SCONJ
-2.9883578	PUNCT NOUN SCONJ
-3.4374328	VERB NOUN SCONJ
-3.1571195	NUM NOUN SCONJ
-3.892654	ADP NOUN SCONJ
-3.093351	ADJ NOUN SCONJ
-3.1560252	PROPN NOUN SCONJ
-3.2830555	PART NOUN SCONJ
-2.5394633	ADV NOUN SCONJ
-3.3060603	CCONJ NOUN SCONJ
-3.1446097	PRON NOUN SCONJ
-1.9454052	<s> PUNCT SCONJ
-2.1612668	DET PUNCT SCONJ
-2.4800043	NOUN PUNCT SCONJ
-2.0421576	PUNCT PUNCT SCONJ
-2.2431643	VERB PUNCT SCONJ
-2.5367844	NUM PUNCT SCONJ
-2.6364307	ADP PUNCT SCONJ
-2.2669482	ADJ PUNCT SCONJ
-2.8390336	PROPN PUNCT SCONJ
-2.4508364	PART PUNCT SCONJ
-1.948059	ADV PUNCT SCONJ
-2.3826725	CCONJ PUNCT SCONJ
-2.3946068	PRON PUNCT SCONJ
-2.119968	INTJ PUNCT SCONJ
-3.0994947	<s> VERB SCONJ
-3.3462338	NOUN VERB SCONJ
-2.967246	PUNCT VERB SCONJ
-3.455409	VERB VERB SCONJ
-3.4610438	NUM VERB SCONJ
-3.6341214	ADP VERB SCONJ
-3.0680082	PROPN VERB SCONJ
-3.6726346	PART VERB SCONJ
-3.256672	ADV VERB SCONJ
-3.0825593	X VERB SCONJ
-2.539919	PRON VERB SCONJ
-3.7640183	PUNCT NUM SCONJ
-3.9478934	NUM NUM SCONJ
-3.5857615	ADP NUM SCONJ
-2.9927013	<s> ADP SCONJ
-3.869001	NOUN ADP SCONJ
-3.0672553	PUNCT ADP SCONJ
-3.8750896	VERB ADP SCONJ
-3.0331159	<s> PROPN SCONJ
-4.1105824	NOUN PROPN SCONJ
-3.243115	PUNCT PROPN SCONJ
-3.7861567	VERB PROPN SCONJ
-3.8117087	ADP PROPN SCONJ
-3.5630352	PROPN PROPN SCONJ
-3.7222521	PART PROPN SCONJ
-3.048759	<s> PART SCONJ
-3.795241	NOUN PART SCONJ
-3.7515616	VERB PART SCONJ
-2.163357	<s> ADV SCONJ
-4.228264	NOUN ADV SCONJ
-2.4130037	PUNCT ADV SCONJ
-3.7889555	VERB ADV SCONJ
-3.1403003	ADP ADV SCONJ
-3.625794	PROPN ADV SCONJ
-3.6844835	ADV ADV SCONJ
-3.4483447	PRON ADV SCONJ
-2.6146595	SCONJ ADV SCONJ
-3.0776038	<s> CCONJ SCONJ
-4.2810726	NOUN CCONJ SCONJ
-3.3603022	PUNCT CCONJ SCONJ
-3.434286	VERB CCONJ SCONJ
-2.3435006	<s> PRON SCONJ
-3.1555834	NOUN PRON SCONJ
-2.657282	PUNCT PRON SCONJ
-2.985543	VERB PRON SCONJ
-3.6926699	ADP PRON SCONJ
-3.0631764	PART PRON SCONJ
-2.2447097	ADV PRON SCONJ
-3.1709878	<s> SCONJ SCONJ
-3.0982435	PUNCT SCONJ SCONJ
-2.405828	VERB SCONJ SCONJ
-4.1389685	VERB DET INTJ
-4.2638707	<s> NOUN INTJ
-4.5855126	PUNCT NOUN INTJ
-4.974455	VERB NOUN INTJ
-4.599093	ADJ NOUN INTJ
-2.9905598	<s> PUNCT INTJ
-2.1895692	DET PUNCT INTJ
-4.022478	NOUN PUNCT INTJ
-2.8751476	PUNCT PUNCT INTJ
-3.313491	VERB PUNCT INTJ
-3.3020337	NUM PUNCT INTJ
-2.6902103	ADP PUNCT INTJ
-3.131312	PROPN PUNCT INTJ
-3.7076879	PART PUNCT INTJ
-3.1486948	ADV PUNCT INTJ
-2.0548878	CCONJ PUNCT INTJ
-3.2413685	PRON PUNCT INTJ
-1.9425151	INTJ PUNCT INTJ
-4.25327	<s> VERB INTJ
-4.6754947	NOUN VERB INTJ
-4.0149	PUNCT VERB INTJ
-3.934976	PROPN VERB INTJ
-4.937591	ADV VERB INTJ
-4.290683	PRON VERB INTJ
-3.4953265	PUNCT NUM INTJ
-4.254316	NOUN PROPN INTJ
-4.0725474	PUNCT PROPN INTJ
-4.3668437	VERB PROPN INTJ
-3.6891549	CCONJ PROPN INTJ
-4.8264294	NOUN PART INTJ
-4.684218	VERB PART INTJ
-3.66912	PART PART INTJ
-3.9641647	PRON PART INTJ
-4.774857	NOUN ADV INTJ
-3.9314585	PROPN ADV INTJ
-1.7200828	<s> INTJ INTJ
-1.7509755	PUNCT INTJ INTJ
-0.81144077	PART INTJ INTJ
-0.9473275	INTJ INTJ INTJ
-5.210659	NOUN NOUN SPACE
-5.0072737	VERB NOUN SPACE
-4.581248	ADP NOUN SPACE
-4.6319118	ADJ NOUN SPACE
-5.1129856	NOUN VERB SPACE
-4.550907	VERB VERB SPACE
-5.1221037	ADV VERB SPACE
-4.414455	NOUN PROPN SPACE
-3.8741584	NUM PART SPACE

\end\
