\data\
ngram 1=19
ngram 2=242

\1-grams:
-2.2411478	<unk>	0
0	<s>	-3.6182249
-1.2411479	</s>	0
-1.2109531	DET	-2.887566
-1.1562142	NOUN	-4.079614
-1.1827219	PUNCT	-3.807198
-1.1827219	VERB	-3.8937945
-1.1827219	NUM	-3.2648554
-1.2109531	ADP	-3.2282586
-1.2109531	ADJ	-3.0608807
-1.1562142	PROPN	-3.4529836
-1.1827219	PART	-3.5036306
-1.1827219	ADV	-3.5895877
-1.2109531	X	-2.2500713
-1.1827219	CCONJ	-2.9140322
-1.1827219	PRON	-3.142713
-1.3086741	SCONJ	-2.2040167
-1.4867995	INTJ	-1.0074666
-2.0056195	SPACE	-0.30103

\2-grams:
-2.9287114	DET </s>
-1.8974663	NOUN </s>
-0.24873714	PUNCT </s>
-2.1407275	VERB </s>
-2.0959795	NUM </s>
-3.8625746	ADP </s>
-2.968153	ADJ </s>
-1.8653736	PROPN </s>
-3.0216603	PART </s>
-3.1670146	ADV </s>
-2.7469947	X </s>
-3.9708748	CCONJ </s>
-3.1467597	PRON </s>
-1.7598552	INTJ </s>
-1.4300385	<s> DET
-2.4582758	DET DET
-2.5445046	NOUN DET
-2.1050658	PUNCT DET
-1.5484275	VERB DET
-2.7284489	NUM DET
-1.3009856	ADP DET
-3.0099785	ADJ DET
-2.2769206	PROPN DET
-1.9398391	PART DET
-2.0485892	ADV DET
-1.2663119	X DET
-1.484337	CCONJ DET
-2.2215633	PRON DET
-1.3767735	SCONJ DET
-0.699073	<s> NOUN
-0.22167017	DET NOUN
-0.6335855	NOUN NOUN
-0.9516589	PUNCT NOUN
-0.6261382	VERB NOUN
-0.40302005	NUM NOUN
-0.3622549	ADP NOUN
-0.0998354	ADJ NOUN
-0.48585814	PROPN NOUN
-0.27823606	PART NOUN
-1.2412766	ADV NOUN
-0.55090165	X NOUN
-0.27612567	CCONJ NOUN
-1.1708472	PRON NOUN
-0.6449242	SCONJ NOUN
-1.6146768	INTJ NOUN
-0.58986986	SPACE NOUN
-1.4637306	<s> PUNCT
-2.0950956	DET PUNCT
-0.58049226	NOUN PUNCT
-1.3556119	PUNCT PUNCT
-0.7440176	VERB PUNCT
-1.083955	NUM PUNCT
-1.7388479	ADP PUNCT
-2.1642215	ADJ PUNCT
-0.7133935	PROPN PUNCT
-0.855657	PART PUNCT
-1.7060298	ADV PUNCT
-1.6075296	X PUNCT
-1.8730183	CCONJ PUNCT
-1.2407532	PRON PUNCT
-2.398833	SCONJ PUNCT
-0.10815057	INTJ PUNCT
-0.9008709	<s> VERB
-1.3886224	DET VERB
-0.7681416	NOUN VERB
-1.2118315	PUNCT VERB
-0.80522054	VERB VERB
-1.2824311	NUM VERB
-1.0477006	ADP VERB
-1.8110051	ADJ VERB
-0.8902898	PROPN VERB
-0.926611	PART VERB
-0.2212688	ADV VERB
-0.39901406	X VERB
-0.85165983	CCONJ VERB
-0.42558882	PRON VERB
-0.54595333	SCONJ VERB
-1.5292984	INTJ VERB
-1.4727423	<s> NUM
-0.64607316	DET NUM
-2.0039053	NOUN NUM
-1.8740354	PUNCT NUM
-1.3304032	VERB NUM
-0.5279613	NUM NUM
-1.4282125	ADP NUM
-1.902496	ADJ NUM
-1.8120813	PROPN NUM
-1.4716005	PART NUM
-1.5976026	ADV NUM
-1.6831851	X NUM
-1.4069415	CCONJ NUM
-2.1533694	PRON NUM
-1.6956103	SCONJ NUM
-1.9896313	INTJ NUM
-1.1447706	<s> ADP
-1.9800886	DET ADP
-1.5479993	NOUN ADP
-1.6708771	PUNCT ADP
-1.4181622	VERB ADP
-1.9120998	NUM ADP
-1.9665031	ADP ADP
-3.075327	ADJ ADP
-1.4953275	PROPN ADP
-2.0729072	PART ADP
-1.1710091	ADV ADP
-2.239526	X ADP
-1.7779318	CCONJ ADP
-1.1757059	PRON ADP
-1.3459401	SCONJ ADP
-1.7901763	<s> ADJ
-1.3731891	DET ADJ
-2.17641	NOUN ADJ
-1.9633783	PUNCT ADJ
-1.5032754	VERB ADJ
-1.4046798	NUM ADJ
-1.4144591	ADP ADJ
-1.7212834	ADJ ADJ
-1.7763976	PROPN ADJ
-1.3209472	PART ADJ
-1.8251665	ADV ADJ
-1.683672	X ADJ
-1.3171059	CCONJ ADJ
-2.243665	PRON ADJ
-1.8629115	SCONJ ADJ
-0.8438315	<s> PROPN
-1.476173	DET PROPN
-1.5338461	NOUN PROPN
-1.1700592	PUNCT PROPN
-1.2339789	VERB PROPN
-1.5305156	NUM PROPN
-0.68521494	ADP PROPN
-1.6441331	ADJ PROPN
-0.9997564	PROPN PROPN
-1.3796638	PART PROPN
-1.8169395	ADV PROPN
-1.0993576	X PROPN
-0.89239395	CCONJ PROPN
-2.3104453	PRON PROPN
-1.1542946	SCONJ PROPN
-1.4479673	INTJ PROPN
-0.50491077	SPACE PROPN
-2.234304	<s> PART
-1.924074	DET PART
-0.93874836	NOUN PART
-1.9820538	PUNCT PART
-0.931256	VERB PART
-1.2847497	NUM PART
-2.9584985	ADP PART
-0.9200957	ADJ PART
-1.076232	PROPN PART
-1.5550253	PART PART
-2.325282	ADV PART
-2.7879813	X PART
-2.9400413	CCONJ PART
-0.83706737	PRON PART
-2.8610365	SCONJ PART
-1.9025917	INTJ PART
-0.7290591	<s> ADV
-1.7508098	DET ADV
-1.0783455	NOUN ADV
-1.2801701	PUNCT ADV
-1.3523952	VERB ADV
-1.7004075	NUM ADV
-1.6000563	ADP ADV
-2.6624496	ADJ ADV
-1.3093265	PROPN ADV
-1.5205562	PART ADV
-0.8312247	ADV ADV
-1.5724427	X ADV
-1.5393441	CCONJ ADV
-0.6284415	PRON ADV
-1.016739	SCONJ ADV
-1.9025917	INTJ ADV
-2.563624	<s> X
-2.7319317	DET X
-2.527035	NOUN X
-2.8744285	PUNCT X
-2.4479713	VERB X
-2.86966	NUM X
-2.88549	ADP X
-4.1178694	ADJ X
-2.635979	PROPN X
-2.6248977	PART X
-1.955475	ADV X
-2.5142467	X X
-2.6559882	CCONJ X
-2.2091718	PRON X
-2.13705	SCONJ X
-2.0640197	<s> CCONJ
-3.4254758	DET CCONJ
-1.4156063	NOUN CCONJ
-2.1061466	PUNCT CCONJ
-2.0904195	VERB CCONJ
-2.2216816	NUM CCONJ
-3.914631	ADP CCONJ
-2.5236616	ADJ CCONJ
-1.5389022	PROPN CCONJ
-3.0904377	PART CCONJ
-3.1600542	ADV CCONJ
-3.2286115	X CCONJ
-3.3166075	CCONJ CCONJ
-2.077519	PRON CCONJ
-3.2157154	SCONJ CCONJ
-1.9896313	INTJ CCONJ
-0.94542754	<s> PRON
-2.6881132	DET PRON
-2.4590452	NOUN PRON
-1.6691238	PUNCT PRON
-1.3727798	VERB PRON
-2.4891973	NUM PRON
-1.0619643	ADP PRON
-3.361727	ADJ PRON
-2.4675975	PROPN PRON
-2.0135553	PART PRON
-1.6246666	ADV PRON
-1.0983516	X PRON
-1.7338806	CCONJ PRON
-1.9860482	PRON PRON
-0.72756016	SCONJ PRON
-1.9512247	INTJ PRON
-1.6968988	<s> SCONJ
-2.973067	NOUN SCONJ
-2.403538	PUNCT SCONJ
-3.1155448	VERB SCONJ
-4.187189	NUM SCONJ
-3.4734	ADP SCONJ
-3.4172475	PROPN SCONJ
-3.7743068	PART SCONJ
-2.726693	ADV SCONJ
-4.013843	CCONJ SCONJ
-2.5241551	PRON SCONJ
-3.2512956	SCONJ SCONJ
-3.1167784	<s> INTJ
-5.085311	NOUN INTJ
-3.5262208	PUNCT INTJ
-4.786132	VERB INTJ
-4.5219264	NUM INTJ
-4.455558	PROPN INTJ
-4.677028	PART INTJ
-1.5798731	INTJ INTJ
-5.5855513	NOUN SPACE
-5.339524	VERB SPACE

\end\
