\data\
ngram 1=20
ngram 2=322

\1-grams:
-2.3552456	<unk>	0
0	<s>	-3.3730526
-1.2794285	</s>	0
-1.2544924	ADP	-3.7234693
-1.2544924	DET	-3.6629238
-1.2544924	PROPN	-3.660449
-1.2544924	CCONJ	-3.1711466
-1.2544924	NOUN	-3.9672256
-1.2544924	PUNCT	-3.7458436
-1.2544924	NUM	-2.8341026
-1.2544924	ADJ	-3.5155084
-1.2794285	SCONJ	-2.7899566
-1.2544924	VERB	-3.711576
-1.2544924	PART	-3.095931
-1.2544924	ADV	-3.2608573
-1.2544924	AUX	-3.3202271
-1.2544924	PRON	-3.3617837
-1.2544924	INTJ	-1.7144539
-1.2544924	X	-1.6822454
-1.2544924	SYM	-1.8649138

\2-grams:
-3.6117733	ADP </s>
-4.0002065	DET </s>
-1.5472589	PROPN </s>
-3.6522017	CCONJ </s>
-2.2091217	NOUN </s>
-0.4431767	PUNCT </s>
-1.7315434	NUM </s>
-3.0027902	ADJ </s>
-3.116385	SCONJ </s>
-2.8026567	VERB </s>
-3.4696724	PART </s>
-2.8353784	ADV </s>
-3.640367	AUX </s>
-3.1359115	PRON </s>
-2.1493566	INTJ </s>
-1.2478015	X </s>
-3.0346832	SYM </s>
-1.0150119	<s> ADP
-1.7472718	ADP ADP
-1.9704351	DET ADP
-1.1342533	PROPN ADP
-1.4172508	CCONJ ADP
-0.5787065	NOUN ADP
-1.3869573	PUNCT ADP
-1.003252	NUM ADP
-1.1905782	ADJ ADP
-1.1364827	SCONJ ADP
-0.6261863	VERB ADP
-2.067898	PART ADP
-0.9821457	ADV ADP
-1.7432024	AUX ADP
-1.4485583	PRON ADP
-1.5330052	INTJ ADP
-1.5950598	X ADP
-2.4508953	SYM ADP
-0.74151266	<s> DET
-0.451142	ADP DET
-1.957091	DET DET
-2.1865554	PROPN DET
-0.95743185	CCONJ DET
-1.6723102	NOUN DET
-1.1469113	PUNCT DET
-2.0249104	NUM DET
-2.4748435	ADJ DET
-0.5731539	SCONJ DET
-0.72935504	VERB DET
-1.7498659	PART DET
-1.1837583	ADV DET
-1.1056283	AUX DET
-1.7433472	PRON DET
-1.5834928	INTJ DET
-1.7424915	X DET
-2.772966	SYM DET
-0.8098314	<s> PROPN
-0.7256624	ADP PROPN
-0.970387	DET PROPN
-0.5160421	PROPN PROPN
-1.0675958	CCONJ PROPN
-1.7923689	NOUN PROPN
-0.99732536	PUNCT PROPN
-1.2744608	NUM PROPN
-1.4269125	ADJ PROPN
-1.089513	SCONJ PROPN
-1.4962908	VERB PROPN
-1.4742153	PART PROPN
-1.8342841	ADV PROPN
-2.0376782	AUX PROPN
-1.9552419	PRON PROPN
-1.3749459	INTJ PROPN
-0.95826495	X PROPN
-0.5085093	SYM PROPN
-1.4698735	<s> CCONJ
-2.502101	ADP CCONJ
-3.1165516	DET CCONJ
-1.2750744	PROPN CCONJ
-3.2700174	CCONJ CCONJ
-1.2054228	NOUN CCONJ
-1.2666895	PUNCT CCONJ
-1.6822646	NUM CCONJ
-1.4950085	ADJ CCONJ
-2.546697	SCONJ CCONJ
-1.7729818	VERB CCONJ
-2.7419457	PART CCONJ
-1.7752395	ADV CCONJ
-2.8377626	AUX CCONJ
-2.0623631	PRON CCONJ
-2.0665388	INTJ CCONJ
-1.9521604	X CCONJ
-3.0389934	SYM CCONJ
-1.0015199	<s> NOUN
-0.7715924	ADP NOUN
-0.27838796	DET NOUN
-1.1586292	PROPN NOUN
-0.59049606	CCONJ NOUN
-0.9693619	NOUN NOUN
-1.1331774	PUNCT NOUN
-0.42214003	NUM NOUN
-0.20396242	ADJ NOUN
-1.1281129	SCONJ NOUN
-0.9620544	VERB NOUN
-0.86652374	PART NOUN
-1.5708244	ADV NOUN
-1.7072461	AUX NOUN
-0.7316196	PRON NOUN
-1.0252349	INTJ NOUN
-0.7011441	X NOUN
-0.62779254	SYM NOUN
-1.5271236	<s> PUNCT
-1.78869	ADP PUNCT
-1.8194368	DET PUNCT
-0.60846806	PROPN PUNCT
-1.9070263	CCONJ PUNCT
-0.5659718	NOUN PUNCT
-1.2513797	PUNCT PUNCT
-0.590238	NUM PUNCT
-1.0867736	ADJ PUNCT
-1.6242336	SCONJ PUNCT
-1.1033868	VERB PUNCT
-1.7924927	PART PUNCT
-0.7691583	ADV PUNCT
-1.9877867	AUX PUNCT
-1.2899014	PRON PUNCT
-0.37202927	INTJ PUNCT
-0.4955582	X PUNCT
-2.8608572	SYM PUNCT
-1.7757365	<s> NUM
-1.5544045	ADP NUM
-1.8823658	DET NUM
-1.6922252	PROPN NUM
-1.8915449	CCONJ NUM
-2.461823	NOUN NUM
-1.8722857	PUNCT NUM
-1.4734232	NUM NUM
-2.158702	ADJ NUM
-1.3401706	SCONJ NUM
-1.9558415	VERB NUM
-2.170308	PART NUM
-1.6887593	ADV NUM
-2.155541	AUX NUM
-2.6028082	PRON NUM
-2.3674712	INTJ NUM
-2.4601364	X NUM
-0.43722275	SYM NUM
-1.3211939	<s> ADJ
-1.0819951	ADP ADJ
-0.668998	DET ADJ
-2.2755697	PROPN ADJ
-0.97238743	CCONJ ADJ
-2.0141459	NOUN ADJ
-1.4632549	PUNCT ADJ
-1.2553774	NUM ADJ
-1.0883348	ADJ ADJ
-1.2441379	SCONJ ADJ
-1.1418552	VERB ADJ
-1.2313973	PART ADJ
-0.87482077	ADV ADJ
-1.2851677	AUX ADJ
-1.2106861	PRON ADJ
-1.6833793	INTJ ADJ
-1.3177104	X ADJ
-1.4115098	SYM ADJ
-1.5942377	<s> SCONJ
-2.576287	ADP SCONJ
-3.625662	DET SCONJ
-2.5237064	PROPN SCONJ
-1.8532233	CCONJ SCONJ
-1.966435	NOUN SCONJ
-1.9400612	PUNCT SCONJ
-2.4564536	NUM SCONJ
-1.7246972	ADJ SCONJ
-1.7178931	SCONJ SCONJ
-1.4330834	VERB SCONJ
-2.8078072	PART SCONJ
-1.7363319	ADV SCONJ
-2.1469126	AUX SCONJ
-2.2617724	PRON SCONJ
-2.17182	INTJ SCONJ
-2.730001	X SCONJ
-1.3792416	<s> VERB
-1.4423937	ADP VERB
-1.3360192	DET VERB
-1.1247798	PROPN VERB
-0.80217123	CCONJ VERB
-1.1094686	NOUN VERB
-1.1797991	PUNCT VERB
-1.680567	NUM VERB
-2.0298905	ADJ VERB
-1.4663914	SCONJ VERB
-1.8265495	VERB VERB
-0.20121492	PART VERB
-0.6609539	ADV VERB
-0.32688883	AUX VERB
-0.54020953	PRON VERB
-0.78220063	INTJ VERB
-1.2940475	X VERB
-1.7214292	SYM VERB
-2.2425056	<s> PART
-2.601554	ADP PART
-3.2049708	DET PART
-1.3569329	PROPN PART
-1.8178911	CCONJ PART
-1.4662422	NOUN PART
-2.2506063	PUNCT PART
-2.0311954	NUM PART
-1.6820537	ADJ PART
-2.0216753	SCONJ PART
-1.2706376	VERB PART
-2.1267521	PART PART
-1.7296137	ADV PART
-0.9850291	AUX PART
-1.8838576	PRON PART
-2.4052422	INTJ PART
-2.3352628	X PART
-3.0151887	SYM PART
-1.0687212	<s> ADV
-1.8795211	ADP ADV
-1.7483256	DET ADV
-1.9155761	PROPN ADV
-1.1390649	CCONJ ADV
-1.5879533	NOUN ADV
-1.4762008	PUNCT ADV
-2.0113955	NUM ADV
-2.1121318	ADJ ADV
-1.5416694	SCONJ ADV
-1.2706959	VERB ADV
-1.3963171	PART ADV
-1.0740681	ADV ADV
-0.89999604	AUX ADV
-1.3711321	PRON ADV
-1.5894827	INTJ ADV
-1.8960543	X ADV
-2.3810244	SYM ADV
-1.9107021	<s> AUX
-2.751708	ADP AUX
-1.5806702	DET AUX
-1.3031847	PROPN AUX
-1.608192	CCONJ AUX
-1.1465619	NOUN AUX
-1.7262654	PUNCT AUX
-1.8513246	NUM AUX
-2.3293447	ADJ AUX
-2.8774369	SCONJ AUX
-2.3840258	VERB AUX
-1.4515643	PART AUX
-1.368659	ADV AUX
-1.1739265	AUX AUX
-0.5898018	PRON AUX
-1.6909318	INTJ AUX
-2.0923083	X AUX
-2.8608572	SYM AUX
-0.8078802	<s> PRON
-1.0856462	ADP PRON
-2.032834	DET PRON
-2.2593021	PROPN PRON
-1.0538136	CCONJ PRON
-1.7988696	NOUN PRON
-1.2740358	PUNCT PRON
-2.3160632	NUM PRON
-2.4270406	ADJ PRON
-0.5531832	SCONJ PRON
-1.0427415	VERB PRON
-2.2155352	PART PRON
-1.2060736	ADV PRON
-1.5415393	AUX PRON
-1.7509649	PRON PRON
-1.1393402	INTJ PRON
-2.268344	X PRON
-1.9482143	SYM PRON
-2.0716658	<s> INTJ
-3.9786637	ADP INTJ
-4.3159413	DET INTJ
-3.5294878	PROPN INTJ
-3.0058837	CCONJ INTJ
-3.2478244	NOUN INTJ
-2.548305	PUNCT INTJ
-3.7879548	NUM INTJ
-3.756465	ADJ INTJ
-3.737654	SCONJ INTJ
-3.3401477	VERB INTJ
-4.049783	PART INTJ
-3.10673	ADV INTJ
-3.672312	AUX INTJ
-3.5259125	PRON INTJ
-1.4054338	INTJ INTJ
-2.113492	X INTJ
-2.8608572	SYM INTJ
-2.5067787	<s> X
-3.282661	ADP X
-3.6470878	DET X
-3.1497915	PROPN X
-3.426341	CCONJ X
-3.0229206	NOUN X
-2.5844727	PUNCT X
-3.6631136	NUM X
-3.5576582	ADJ X
-3.9758472	SCONJ X
-3.4571738	VERB X
-3.982892	PART X
-3.359728	ADV X
-3.73029	AUX X
-4.190795	PRON X
-2.1457007	INTJ X
-0.9418748	X X
-3.1194062	SYM X
-2.8138306	<s> SYM
-2.7884052	ADP SYM
-3.4315042	DET SYM
-2.6702046	PROPN SYM
-2.5731156	CCONJ SYM
-3.0416026	NOUN SYM
-2.995356	PUNCT SYM
-1.9310073	NUM SYM
-3.2701538	ADJ SYM
-3.0341265	SCONJ SYM
-3.030661	VERB SYM
-3.4132612	PART SYM
-3.1671412	ADV SYM
-3.8220341	AUX SYM
-3.42203	PRON SYM
-2.7474096	INTJ SYM
-2.5112565	X SYM
-2.6999028	SYM SYM

\end\
