\data\
ngram 1=21
ngram 2=323
ngram 3=4248

\1-grams:
-2.3709	<unk>	0
0	<s>	-3.6740828
-1.3084887	</s>	0
-1.2569565	ADP	-1.0157943
-1.2569565	DET	-0.98193604
-1.2333156	PROPN	-1.054822
-1.2569565	CCONJ	-0.9648356
-1.2569565	NOUN	-1.0696955
-1.2569565	PUNCT	-1.0585947
-1.2569565	NUM	-0.9852767
-1.2569565	ADJ	-1.0250022
-1.2819587	SCONJ	-0.9194804
-1.2569565	VERB	-1.0613966
-1.2569565	PART	-0.90309
-1.2569565	ADV	-1.0250022
-1.2569565	AUX	-0.9415482
-1.2569565	PRON	-0.98025596
-1.2569565	INTJ	-0.8190563
-1.2569565	X	-0.7754621
-1.2569565	SYM	-0.69703555
-2.2362013	SPACE	-0.30103

\2-grams:
-1.374283	ADP </s>	0
-1.6478539	DET </s>	0
-1.2424778	PROPN </s>	0
-1.5619687	CCONJ </s>	0
-1.2499807	NOUN </s>	0
-1.2388799	PUNCT </s>	0
-1.2172415	NUM </s>	0
-1.2052875	ADJ </s>	0
-1.5726864	SCONJ </s>	0
-1.2416818	VERB </s>	0
-1.6507753	PART </s>	0
-1.2303591	ADV </s>	0
-1.5386813	AUX </s>	0
-1.3387446	PRON </s>	0
-1.5667416	INTJ </s>	0
-1.3725952	X </s>	0
-0.9890294	<s> ADP	-2.7601464
-1.2168574	ADP ADP	-2.3601577
-1.1829991	DET ADP	-2.0806315
-1.2383549	PROPN ADP	-2.9217627
-1.2202762	CCONJ ADP	-2.1207626
-1.2459269	NOUN ADP	-3.74966
-1.2596579	PUNCT ADP	-2.7401397
-1.1615081	NUM ADP	-2.3226163
-1.2012336	ADJ ADP	-2.6662633
-1.1319966	SCONJ ADP	-2.1110735
-1.237628	VERB ADP	-3.4403005
-1.1885059	PART ADP	-1.549673
-1.2260654	ADV ADP	-2.635153
-1.2269641	AUX ADP	-1.9975369
-1.1813191	PRON ADP	-2.2533114
-1.2506722	INTJ ADP	-0.8357746
-1.2528635	X ADP	-0.5793776
-1.372967	SYM ADP	-0.45268005
-0.7318526	<s> DET	-3.031371
-1.1920257	ADP DET	-3.6458325
-1.2093374	DET DET	-2.136665
-1.2383549	PROPN DET	-1.9456142
-1.1658987	CCONJ DET	-2.6590593
-1.2459269	NOUN DET	-2.6987438
-1.2596579	PUNCT DET	-2.9937649
-1.2407173	NUM DET	-1.2873248
-1.3773949	ADJ DET	-1.5480908
-1.1055697	SCONJ DET	-2.650579
-1.237628	VERB DET	-3.3538415
-1.1304914	PART DET	-1.8199828
-1.2524036	ADV DET	-2.4912202
-1.1426114	AUX DET	-2.6326206
-1.2356966	PRON DET	-2.0073063
-1.171449	INTJ DET	-0.8120004
-1.3620882	X DET	-0.7083382
-1.372967	SYM DET	-0.3929829
-0.8125368	<s> PROPN	-2.8767986
-1.1900128	ADP PROPN	-3.3577757
-1.1561545	DET PROPN	-3.0583854
-1.212962	PROPN PROPN	-3.515306
-1.1899731	CCONJ PROPN	-2.496235
-1.243914	NOUN PROPN	-2.5303988
-1.2575269	PUNCT PROPN	-3.1106768
-1.2104143	NUM PROPN	-2.0046499
-1.1992208	ADJ PROPN	-2.459507
-1.1578026	SCONJ PROPN	-2.1188521
-1.2356151	VERB PROPN	-2.5924435
-1.2179195	PART PROPN	-2.0559697
-1.2501397	ADV PROPN	-1.8093721
-1.2243776	AUX PROPN	-1.6644176
-1.2053934	PRON PROPN	-1.7948198
-1.1684327	INTJ PROPN	-0.87099075
-1.0582914	X PROPN	-1.1012102
-0.8235258	SYM PROPN	-1.6927205
-0.2763652	SPACE PROPN	-0.33046046
-1.4653137	<s> CCONJ	-2.2529001
-1.2712349	ADP CCONJ	-1.6301446
-1.2673519	DET CCONJ	-0.9506608
-1.2383549	PROPN CCONJ	-2.7523532
-1.4934245	CCONJ CCONJ	-0.54201496
-1.2459269	NOUN CCONJ	-3.1154609
-1.2348261	PUNCT CCONJ	-2.8354926
-1.1863399	NUM CCONJ	-1.6717857
-1.2260654	ADJ CCONJ	-2.413054
-1.3371174	SCONJ CCONJ	-0.96976495
-1.2624598	VERB CCONJ	-2.3108456
-1.3804914	PART CCONJ	-0.8742037
-1.2804428	ADV CCONJ	-1.8748877
-1.2939409	AUX CCONJ	-0.91586894
-1.2356966	PRON CCONJ	-1.721748
-1.2506722	INTJ CCONJ	-0.3945771
-1.3040512	X CCONJ	-0.49477214
-1.6979703	SYM CCONJ	-0.33046046
-1.0056635	<s> NOUN	-2.6836748
-1.1920257	ADP NOUN	-3.3078213
-1.1581674	DET NOUN	-3.7376606
-1.2383549	PROPN NOUN	-2.849985
-1.1658987	CCONJ NOUN	-2.9376016
-1.2459269	NOUN NOUN	-3.371953
-1.2596579	PUNCT NOUN	-2.9807954
-1.1615081	NUM NOUN	-2.8133748
-1.2012336	ADJ NOUN	-3.6708202
-1.1319966	SCONJ NOUN	-2.0594096
-1.237628	VERB NOUN	-3.104853
-1.1885059	PART NOUN	-2.5949016
-1.2012336	ADV NOUN	-1.9994708
-1.1689496	AUX NOUN	-1.9768094
-1.1564872	PRON NOUN	-2.9551826
-1.1044722	INTJ NOUN	-1.0672824
-1.0309027	X NOUN	-1.1903701
-0.8805685	SYM NOUN	-1.5371684
-1.453676	<s> PUNCT	-2.2394881
-1.2168574	ADP PUNCT	-2.29944
-1.1829991	DET PUNCT	-2.2077215
-1.2383549	PROPN PUNCT	-3.4124699
-1.1922369	CCONJ PUNCT	-1.6518202
-1.2459269	NOUN PUNCT	-3.7571979
-1.2348261	PUNCT PUNCT	-2.8697371
-1.1863399	NUM PUNCT	-2.6869516
-1.2012336	ADJ PUNCT	-2.7857869
-1.1902267	SCONJ PUNCT	-1.5286814
-1.237628	VERB PUNCT	-2.9538114
-1.1585307	PART PUNCT	-1.6645402
-1.2012336	ADV PUNCT	-2.8354926
-1.1689496	AUX PUNCT	-1.6886168
-1.1564872	PRON PUNCT	-2.3983636
-0.9952876	INTJ PUNCT	-1.7018427
-1.0608779	X PUNCT	-1.5188671
-1.372967	SYM PUNCT	-0.33046046
-1.7735739	<s> NUM	-1.9669328
-1.2168574	ADP NUM	-2.6104782
-1.2093374	DET NUM	-2.2692218
-1.2631475	PROPN NUM	-2.4668584
-1.2202762	CCONJ NUM	-1.7809027
-1.2459269	NOUN NUM	-1.9015979
-1.2596579	PUNCT NUM	-2.3256865
-1.2126781	NUM NUM	-1.8979442
-1.2524036	ADJ NUM	-1.8066128
-1.1319966	SCONJ NUM	-1.9161029
-1.237628	VERB NUM	-2.188543
-1.2207043	PART NUM	-1.4803346
-1.2524036	ADV NUM	-2.008996
-1.3731642	AUX NUM	-1.675869
-1.4118719	PRON NUM	-1.35237
-1.4726892	INTJ NUM	-0.4829445
-1.4290949	X NUM	-0.31780776
-0.8253287	SYM NUM	-1.8685927
-1.3206598	<s> ADJ	-2.4329066
-1.1920257	ADP ADJ	-3.0140705
-1.1581674	DET ADJ	-3.3697124
-1.2631475	PROPN ADJ	-1.818034
-1.1658987	CCONJ ADJ	-2.6092865
-1.2459269	NOUN ADJ	-2.2879584
-1.2596579	PUNCT ADJ	-2.6520352
-1.1863399	NUM ADJ	-2.108859
-1.2012336	ADJ ADJ	-2.8059638
-1.1601365	SCONJ ADJ	-2.0192494
-1.237628	VERB ADJ	-2.9235902
-1.1304914	PART ADJ	-2.2975318
-1.2012336	ADV ADJ	-2.756098
-1.1969888	AUX ADJ	-2.4195237
-1.1564872	PRON ADJ	-2.5356781
-1.2506722	INTJ ADJ	-0.54243994
-1.0930765	X ADJ	-0.8898392
-0.979359	SYM ADJ	-0.96931094
-1.5957778	<s> SCONJ	-2.167468
-1.2454714	ADP SCONJ	-1.5916158
-1.4171996	DET SCONJ	-0.7591038
-1.2653252	PROPN SCONJ	-1.6796013
-1.222704	CCONJ SCONJ	-1.7802874
-1.2729001	NOUN SCONJ	-2.3839831
-1.2617993	PUNCT SCONJ	-2.2252731
-1.2732946	NUM SCONJ	-1.0941132
-1.2032558	ADJ SCONJ	-2.2301736
-1.2252682	SCONJ SCONJ	-1.6404352
-1.2396501	VERB SCONJ	-2.6869287
-1.296605	PART SCONJ	-0.9152555
-1.2828708	ADV SCONJ	-1.9768229
-1.2969782	AUX SCONJ	-1.6551378
-1.335686	PRON SCONJ	-1.5510215
-1.3522104	INTJ SCONJ	-0.6074233
-1.7428427	X SCONJ	-0.28260726
-1.3612161	<s> VERB	-2.3319461
-1.2168574	ADP VERB	-2.6795866
-1.1829991	DET VERB	-2.6931927
-1.2383549	PROPN VERB	-2.901057
-1.1658987	CCONJ VERB	-2.744712
-1.2459269	NOUN VERB	-3.2158134
-1.2348261	PUNCT VERB	-2.9380898
-1.2126781	NUM VERB	-1.5771801
-1.2012336	ADJ VERB	-1.8756722
-1.1902267	SCONJ VERB	-1.7260152
-1.288798	VERB VERB	-2.2766197
-1.0793213	PART VERB	-3.2389572
-1.2012336	ADV VERB	-2.9576204
-1.1177796	AUX VERB	-3.3406312
-1.1564872	PRON VERB	-3.1499045
-1.0744969	INTJ VERB	-1.2543079
-1.0930765	X VERB	-0.72173953
-1.018005	SYM VERB	-0.5477177
-2.2565548	<s> PART	-1.6205485
-1.2712349	ADP PART	-1.6462519
-1.2995504	DET PART	-1.0538343
-1.2383549	PROPN PART	-2.7046998
-1.2502514	CCONJ PART	-1.7345903
-1.2707586	NOUN PART	-2.9153159
-1.2596579	PUNCT PART	-1.9509643
-1.2407173	NUM PART	-1.3750619
-1.2524036	ADJ PART	-2.386631
-1.2574911	SCONJ PART	-1.2499572
-1.237628	VERB PART	-2.859587
-1.1885059	PART PART	-1.8764882
-1.2524036	ADV PART	-1.9798722
-1.1689496	AUX PART	-2.7178197
-1.2356966	PRON PART	-1.9451125
-1.4726892	INTJ PART	-0.4065277
-1.4290949	X PART	-0.44413543
-1.8073821	SYM PART	-0.33046046
-1.0927819	<s> ADV	-2.6295502
-1.2712349	ADP ADV	-2.2235618
-1.2093374	DET ADV	-2.3280544
-1.2383549	PROPN ADV	-2.155122
-1.1922369	CCONJ ADV	-2.3975039
-1.2459269	NOUN ADV	-2.7189653
-1.2348261	PUNCT ADV	-2.6214728
-1.2407173	NUM ADV	-1.2700528
-1.2804428	ADJ ADV	-1.7757576
-1.1601365	SCONJ ADV	-1.656777
-1.237628	VERB ADV	-2.7795606
-1.1304914	PART ADV	-2.1504936
-1.2012336	ADV ADV	-2.5297732
-1.1426114	AUX ADV	-2.7693536
-1.2076573	PRON ADV	-2.3265498
-1.2092565	INTJ ADV	-0.6199168
-1.3040512	X ADV	-0.49890292
-1.2899157	SYM ADV	-0.31973046
-1.9594207	<s> AUX	-1.8874182
-1.30121	ADP AUX	-1.4788992
-1.2093374	DET AUX	-2.4900908
-1.2383549	PROPN AUX	-2.7574928
-1.2502514	CCONJ AUX	-2.0833066
-1.2459269	NOUN AUX	-3.1719084
-1.2348261	PUNCT AUX	-2.4394634
-1.2407173	NUM AUX	-1.4390438
-1.2804428	ADJ AUX	-1.6595975
-1.2225579	SCONJ AUX	-0.8155414
-1.3168373	VERB AUX	-1.7762033
-1.1041532	PART AUX	-2.3423424
-1.2260654	ADV AUX	-2.240811
-1.1426114	AUX AUX	-2.648366
-1.1564872	PRON AUX	-3.1116385
-1.4056823	INTJ AUX	-0.83165705
-1.3040512	X AUX	-0.41599768
-1.61065	SYM AUX	-0.29176533
-0.8319898	<s> PRON	-2.9085002
-1.2168574	ADP PRON	-2.9695709
-1.1829991	DET PRON	-2.077173
-1.2383549	PROPN PRON	-1.8407166
-1.1658987	CCONJ PRON	-2.5162702
-1.2459269	NOUN PRON	-2.572489
-1.2596579	PUNCT PRON	-2.8696947
-1.2706926	NUM PRON	-1.0480689
-1.2524036	ADJ PRON	-1.5599232
-1.1055697	SCONJ PRON	-2.6022484
-1.237628	VERB PRON	-3.0132809
-1.2207043	PART PRON	-1.3603241
-1.2524036	ADV PRON	-2.4184062
-1.1689496	AUX PRON	-2.1367052
-1.1813191	PRON PRON	-2.0871634
-1.1044722	INTJ PRON	-1.1992465
-1.4290949	X PRON	-0.43533012
-1.61065	SYM PRON	-0.7646122
-2.1269062	<s> INTJ	-1.6318737
-1.4931957	ADP INTJ	-0.41728938
-1.568562	DET INTJ	-0.31188476
-1.3794814	PROPN INTJ	-0.5785464
-1.442237	CCONJ INTJ	-0.7863412
-1.2970968	NOUN INTJ	-1.0611339
-1.2596579	PUNCT INTJ	-1.5623108
-1.9403604	NUM INTJ	-0.29176533
-1.3773949	ADJ INTJ	-0.45477325
-1.8662757	SCONJ INTJ	-0.28260726
-1.3468125	VERB INTJ	-0.85114115
-1.6359882	PART INTJ	-0.25623757
-1.3773949	ADV INTJ	-0.6592623
-1.5281743	AUX INTJ	-0.44387272
-1.508845	PRON INTJ	-0.4772873
-1.2092565	INTJ INTJ	-0.8718647
-1.5083604	X INTJ	-0.39593437
-1.61065	SYM INTJ	-0.29176533
-2.5543983	<s> X	-1.3746305
-1.368187	ADP X	-0.9523251
-1.3721364	DET X	-0.6655753
-1.3794814	PROPN X	-1.016811
-1.6184685	CCONJ X	-0.830444
-1.2707586	NOUN X	-1.2104971
-1.2596579	PUNCT X	-1.5638095
-1.9403604	NUM X	-0.5016959
-1.5535913	ADJ X	-0.6056676
-2.0469086	SCONJ X	-0.33046046
-1.3168373	VERB X	-0.6402367
-1.8581737	PART X	-0.33575064
-1.4152026	ADV X	-0.44565672
-1.5951811	AUX X	-0.31973046
-1.566882	PRON X	-0.33442205
-1.4726892	INTJ X	-0.38202608
-1.0028635	X X	-1.0779172
-1.4757473	SYM X	-0.29176533
-2.7975225	<s> SYM	-1.4461659
-1.2712349	ADP SYM	-1.6828976
-1.3343287	DET SYM	-1.3040309
-1.2631475	PROPN SYM	-1.682141
-1.28245	CCONJ SYM	-1.6743354
-1.2970968	NOUN SYM	-1.5413574
-1.3440106	PUNCT SYM	-1.5445063
-1.2126781	NUM SYM	-1.9634316
-1.2804428	ADJ SYM	-1.1917633
-1.8662757	SCONJ SYM	-1.0635153
-1.237628	VERB SYM	-1.5795648
-1.7330245	PART SYM	-1.1987581
-1.3773949	ADV SYM	-1.1061251
-1.5951811	AUX SYM	-0.5916796
-1.508845	PRON SYM	-0.9325909
-1.7741399	INTJ SYM	-0.33681646
-1.7305458	X SYM	-0.30672017
-1.61065	SYM SYM	-0.28260726
-2.67485	PROPN SPACE	-0.33046046

\3-grams:
-3.9335835	<s> ADP </s>
-3.4584394	ADP ADP </s>
-3.730193	PROPN ADP </s>
-3.0532339	CCONJ ADP </s>
-3.847096	NOUN ADP </s>
-3.5548453	PUNCT ADP </s>
-3.47348	NUM ADP </s>
-3.6283522	ADJ ADP </s>
-3.359239	VERB ADP </s>
-3.4498587	ADV ADP </s>
-3.1622362	AUX ADP </s>
-3.357643	PRON ADP </s>
-4.108935	ADP DET </s>
-3.9686365	CCONJ DET </s>
-3.8942714	NOUN DET </s>
-4.2337346	PUNCT DET </s>
-3.8169436	VERB DET </s>
-3.9421978	AUX DET </s>
-2.4227345	<s> PROPN </s>
-1.9969836	ADP PROPN </s>
-2.5706265	DET PROPN </s>
-1.2098842	PROPN PROPN </s>
-2.315165	CCONJ PROPN </s>
-1.757212	NOUN PROPN </s>
-2.2289422	PUNCT PROPN </s>
-1.9488584	NUM PROPN </s>
-2.2549493	ADJ PROPN </s>
-2.860765	SCONJ PROPN </s>
-2.2686703	VERB PROPN </s>
-2.4170072	PART PROPN </s>
-2.3045244	ADV PROPN </s>
-2.3996966	AUX PROPN </s>
-2.3618662	PRON PROPN </s>
-1.19768	INTJ PROPN </s>
-0.9373195	X PROPN </s>
-1.2143184	SYM PROPN </s>
-2.7541528	<s> CCONJ </s>
-3.9496548	PROPN CCONJ </s>
-3.7069087	NOUN CCONJ </s>
-3.3073232	PUNCT CCONJ </s>
-3.7013712	ADJ CCONJ </s>
-3.60338	VERB CCONJ </s>
-3.150036	ADV CCONJ </s>
-2.217529	<s> NOUN </s>
-2.0748096	ADP NOUN </s>
-2.5666354	DET NOUN </s>
-1.7699561	PROPN NOUN </s>
-2.4678183	CCONJ NOUN </s>
-2.0212884	NOUN NOUN </s>
-2.2228124	PUNCT NOUN </s>
-2.0256374	NUM NOUN </s>
-2.3394604	ADJ NOUN </s>
-3.147583	SCONJ NOUN </s>
-2.2946978	VERB NOUN </s>
-2.08847	PART NOUN </s>
-2.6113954	ADV NOUN </s>
-3.0048776	AUX NOUN </s>
-2.3210957	PRON NOUN </s>
-1.7694801	INTJ NOUN </s>
-0.77259135	X NOUN </s>
-1.0715079	SYM NOUN </s>
-1.7693812	<s> PUNCT </s>
-0.61261433	ADP PUNCT </s>
-0.796884	DET PUNCT </s>
-0.61564344	PROPN PUNCT </s>
-1.7885077	CCONJ PUNCT </s>
-0.4008091	NOUN PUNCT </s>
-0.3749826	PUNCT PUNCT </s>
-0.5800594	NUM PUNCT </s>
-0.48220158	ADJ PUNCT </s>
-0.8786799	SCONJ PUNCT </s>
-0.3269376	VERB PUNCT </s>
-0.6526542	PART PUNCT </s>
-0.5162354	ADV PUNCT </s>
-0.72569495	AUX PUNCT </s>
-0.32188737	PRON PUNCT </s>
-0.74382395	INTJ PUNCT </s>
-0.5987531	X PUNCT </s>
-0.9364802	SYM PUNCT </s>
-0.89216256	<s> NUM </s>
-2.3098638	ADP NUM </s>
-3.328868	DET NUM </s>
-1.703329	PROPN NUM </s>
-2.8435776	CCONJ NUM </s>
-1.6712655	NOUN NUM </s>
-0.87866247	PUNCT NUM </s>
-2.228536	NUM NUM </s>
-2.67556	ADJ NUM </s>
-2.98013	SCONJ NUM </s>
-2.7040582	VERB NUM </s>
-2.4483	PART NUM </s>
-3.0758731	ADV NUM </s>
-2.3750875	PRON NUM </s>
-0.57111394	X NUM </s>
-1.8610446	SYM NUM </s>
-2.505763	<s> ADJ </s>
-3.354131	ADP ADJ </s>
-3.7400353	DET ADJ </s>
-2.5507965	PROPN ADJ </s>
-2.9125206	CCONJ ADJ </s>
-2.498351	NOUN ADJ </s>
-3.131269	PUNCT ADJ </s>
-3.1439524	NUM ADJ </s>
-3.4664285	ADJ ADJ </s>
-3.056046	SCONJ ADJ </s>
-2.821185	VERB ADJ </s>
-2.7893322	PART ADJ </s>
-2.707026	ADV ADJ </s>
-2.65028	AUX ADJ </s>
-3.399224	PRON ADJ </s>
-1.461868	INTJ ADJ </s>
-1.6075095	X ADJ </s>
-1.6697011	SYM ADJ </s>
-3.4481206	<s> SCONJ </s>
-2.384962	ADP SCONJ </s>
-3.5707395	NOUN SCONJ </s>
-3.2060156	PUNCT SCONJ </s>
-3.5130157	ADJ SCONJ </s>
-2.7665725	VERB SCONJ </s>
-2.7180648	<s> VERB </s>
-2.827132	ADP VERB </s>
-3.2237046	DET VERB </s>
-2.648463	PROPN VERB </s>
-2.7397525	CCONJ VERB </s>
-2.585732	NOUN VERB </s>
-2.897315	PUNCT VERB </s>
-2.5949163	NUM VERB </s>
-2.8916569	ADJ VERB </s>
-2.738144	SCONJ VERB </s>
-2.7275634	VERB VERB </s>
-2.754932	PART VERB </s>
-2.856938	ADV VERB </s>
-2.856606	AUX VERB </s>
-2.9386604	PRON VERB </s>
-2.1210449	INTJ VERB </s>
-1.7712703	X VERB </s>
-1.3380233	SYM VERB </s>
-2.9909956	PROPN PART </s>
-3.0455058	CCONJ PART </s>
-3.1677754	NOUN PART </s>
-4.0590777	VERB PART </s>
-3.7351723	AUX PART </s>
-3.2115223	<s> ADV </s>
-2.7985518	ADP ADV </s>
-3.3998632	DET ADV </s>
-2.376174	PROPN ADV </s>
-3.0590239	CCONJ ADV </s>
-2.507317	NOUN ADV </s>
-3.1596396	PUNCT ADV </s>
-2.3373203	NUM ADV </s>
-2.7866974	ADJ ADV </s>
-2.7223036	SCONJ ADV </s>
-2.5467646	VERB ADV </s>
-3.21602	PART ADV </s>
-2.757889	ADV ADV </s>
-3.373771	AUX ADV </s>
-2.9214973	PRON ADV </s>
-1.6464121	INTJ ADV </s>
-1.029679	SYM ADV </s>
-3.301533	DET AUX </s>
-4.03516	PROPN AUX </s>
-3.8352947	NOUN AUX </s>
-3.702425	PUNCT AUX </s>
-2.0206087	NUM AUX </s>
-3.5165718	ADV AUX </s>
-3.9725535	PRON AUX </s>
-3.8277836	<s> PRON </s>
-2.8515635	ADP PRON </s>
-2.8784945	PROPN PRON </s>
-3.6636062	CCONJ PRON </s>
-2.993095	NOUN PRON </s>
-3.6623461	PUNCT PRON </s>
-2.0205197	NUM PRON </s>
-3.6752996	SCONJ PRON </s>
-2.9302077	VERB PRON </s>
-2.4715734	PART PRON </s>
-3.3381066	ADV PRON </s>
-3.2097564	AUX PRON </s>
-2.1612794	<s> INTJ </s>
-1.7689736	PROPN INTJ </s>
-2.1916707	NOUN INTJ </s>
-1.991879	PUNCT INTJ </s>
-2.0770679	VERB INTJ </s>
-0.7841363	<s> X </s>
-0.7758448	ADP X </s>
-2.03092	PROPN X </s>
-1.4393201	NOUN X </s>
-1.3494959	PUNCT X </s>
-1.758702	VERB X </s>
-1.4376229	ADV X </s>
-1.6684587	<s> ADP ADP
-2.1579778	ADP ADP ADP
-2.2097914	DET ADP ADP
-2.2125213	PROPN ADP ADP
-1.8278289	CCONJ ADP ADP
-2.1804168	NOUN ADP ADP
-1.5966358	PUNCT ADP ADP
-2.3221376	NUM ADP ADP
-2.0754895	ADJ ADP ADP
-1.9721936	SCONJ ADP ADP
-1.3492684	VERB ADP ADP
-1.9942153	PART ADP ADP
-1.8608172	ADV ADP ADP
-1.9465828	AUX ADP ADP
-1.586841	PRON ADP ADP
-1.7889299	INTJ ADP ADP
-1.2948629	X ADP ADP
-2.0123224	<s> DET ADP
-2.1889465	ADP DET ADP
-2.006476	DET DET ADP
-2.0891988	PROPN DET ADP
-1.8006773	CCONJ DET ADP
-2.1032307	NOUN DET ADP
-1.8815305	PUNCT DET ADP
-1.4508657	NUM DET ADP
-1.5729403	ADJ DET ADP
-1.7899832	SCONJ DET ADP
-1.9185867	VERB DET ADP
-1.7693496	PART DET ADP
-1.7984276	ADV DET ADP
-1.7833216	AUX DET ADP
-1.8536546	PRON DET ADP
-1.743103	INTJ DET ADP
-1.5877571	X DET ADP
-1.5931753	<s> PROPN ADP
-1.1209756	ADP PROPN ADP
-1.0022707	DET PROPN ADP
-1.0264059	PROPN PROPN ADP
-1.1503518	CCONJ PROPN ADP
-1.3339145	NOUN PROPN ADP
-1.5074962	PUNCT PROPN ADP
-1.1897641	NUM PROPN ADP
-1.0772136	ADJ PROPN ADP
-1.8038583	SCONJ PROPN ADP
-0.89936125	VERB PROPN ADP
-0.97190267	PART PROPN ADP
-1.562512	ADV PROPN ADP
-1.4655232	AUX PROPN ADP
-1.3833688	PRON PROPN ADP
-1.2588186	INTJ PROPN ADP
-1.3229207	X PROPN ADP
-1.281212	SYM PROPN ADP
-1.0089164	<s> CCONJ ADP
-0.78734446	ADP CCONJ ADP
-1.5491552	DET CCONJ ADP
-1.7378011	PROPN CCONJ ADP
-1.1051245	CCONJ CCONJ ADP
-1.6123688	NOUN CCONJ ADP
-1.2386162	PUNCT CCONJ ADP
-1.6267776	NUM CCONJ ADP
-1.8607188	ADJ CCONJ ADP
-1.6522087	VERB CCONJ ADP
-1.8173071	PART CCONJ ADP
-1.2151009	ADV CCONJ ADP
-1.7312896	AUX CCONJ ADP
-1.5016645	PRON CCONJ ADP
-1.2351751	INTJ CCONJ ADP
-0.5783056	<s> NOUN ADP
-0.6153187	ADP NOUN ADP
-0.4737423	DET NOUN ADP
-0.8129708	PROPN NOUN ADP
-0.7208651	CCONJ NOUN ADP
-0.69305396	NOUN NOUN ADP
-0.813251	PUNCT NOUN ADP
-0.5606151	NUM NOUN ADP
-0.5712224	ADJ NOUN ADP
-0.75206614	SCONJ NOUN ADP
-0.4381692	VERB NOUN ADP
-0.66686875	PART NOUN ADP
-0.6917627	ADV NOUN ADP
-0.28261325	AUX NOUN ADP
-0.658404	PRON NOUN ADP
-1.167658	INTJ NOUN ADP
-1.2159904	X NOUN ADP
-1.1186438	SYM NOUN ADP
-1.2004863	<s> PUNCT ADP
-1.6533558	ADP PUNCT ADP
-1.6259449	DET PUNCT ADP
-1.3931513	PROPN PUNCT ADP
-0.81169856	CCONJ PUNCT ADP
-1.37815	NOUN PUNCT ADP
-1.541705	PUNCT PUNCT ADP
-1.361413	NUM PUNCT ADP
-1.4798572	ADJ PUNCT ADP
-0.8470309	SCONJ PUNCT ADP
-1.380846	VERB PUNCT ADP
-1.6346126	PART PUNCT ADP
-1.2583038	ADV PUNCT ADP
-1.1022437	AUX PUNCT ADP
-1.4317425	PRON PUNCT ADP
-1.3040398	INTJ PUNCT ADP
-1.4295845	X PUNCT ADP
-0.74105376	<s> NUM ADP
-1.0258454	ADP NUM ADP
-1.5426059	DET NUM ADP
-1.2293397	PROPN NUM ADP
-0.8949795	CCONJ NUM ADP
-1.080138	NOUN NUM ADP
-1.0173972	PUNCT NUM ADP
-1.0206691	NUM NUM ADP
-1.3533697	ADJ NUM ADP
-1.3088934	SCONJ NUM ADP
-0.8677161	VERB NUM ADP
-1.4604989	PART NUM ADP
-1.2251456	ADV NUM ADP
-0.42087018	AUX NUM ADP
-1.407214	PRON NUM ADP
-1.005315	INTJ NUM ADP
-1.08832	X NUM ADP
-1.0699522	SYM NUM ADP
-1.0953577	<s> ADJ ADP
-1.7579203	ADP ADJ ADP
-1.9225674	DET ADJ ADP
-1.2002249	PROPN ADJ ADP
-1.3980546	CCONJ ADJ ADP
-0.5339934	NOUN ADJ ADP
-1.0818158	PUNCT ADJ ADP
-2.0026054	NUM ADJ ADP
-2.2968156	ADJ ADJ ADP
-1.1621479	SCONJ ADJ ADP
-0.8957187	VERB ADJ ADP
-1.149074	PART ADJ ADP
-0.75573444	ADV ADJ ADP
-0.64867294	AUX ADJ ADP
-1.4270929	PRON ADJ ADP
-1.1608319	INTJ ADJ ADP
-1.6061864	X ADJ ADP
-1.8419296	SYM ADJ ADP
-1.3979232	<s> SCONJ ADP
-1.2706013	ADP SCONJ ADP
-0.9842539	DET SCONJ ADP
-1.0116391	PROPN SCONJ ADP
-1.2348264	CCONJ SCONJ ADP
-1.0324953	NOUN SCONJ ADP
-1.1269052	PUNCT SCONJ ADP
-0.4274098	NUM SCONJ ADP
-1.5469621	ADJ SCONJ ADP
-1.5391175	SCONJ SCONJ ADP
-1.0854299	VERB SCONJ ADP
-0.5792757	PART SCONJ ADP
-1.1077806	ADV SCONJ ADP
-1.1759958	AUX SCONJ ADP
-0.94313747	PRON SCONJ ADP
-0.76526916	X SCONJ ADP
-0.36703014	<s> VERB ADP
-0.8272466	ADP VERB ADP
-0.8625504	DET VERB ADP
-0.7027238	PROPN VERB ADP
-0.7038413	CCONJ VERB ADP
-0.5124533	NOUN VERB ADP
-0.6464155	PUNCT VERB ADP
-0.6441024	NUM VERB ADP
-0.8544663	ADJ VERB ADP
-0.64507455	SCONJ VERB ADP
-0.6683579	VERB VERB ADP
-0.77971756	PART VERB ADP
-0.5823425	ADV VERB ADP
-0.4754404	AUX VERB ADP
-0.76051086	PRON VERB ADP
-0.86555576	INTJ VERB ADP
-0.919237	X VERB ADP
-1.0838975	SYM VERB ADP
-1.6884356	<s> PART ADP
-2.4347806	ADP PART ADP
-1.7425902	DET PART ADP
-2.5685904	PROPN PART ADP
-1.2455018	CCONJ PART ADP
-2.551868	NOUN PART ADP
-1.3620654	PUNCT PART ADP
-2.383273	NUM PART ADP
-2.7501686	ADJ PART ADP
-1.3692396	SCONJ PART ADP
-2.1436536	VERB PART ADP
-1.9769306	ADV PART ADP
-1.8452617	AUX PART ADP
-2.7413726	PRON PART ADP
-1.1477463	<s> ADV ADP
-1.1820066	ADP ADV ADP
-1.9609665	DET ADV ADP
-1.1624815	PROPN ADV ADP
-1.0727623	CCONJ ADV ADP
-0.9140504	NOUN ADV ADP
-0.97347796	PUNCT ADV ADP
-1.293749	NUM ADV ADP
-1.0199245	ADJ ADV ADP
-1.1584169	SCONJ ADV ADP
-0.6803145	VERB ADV ADP
-1.1602628	PART ADV ADP
-0.6693388	ADV ADV ADP
-1.4764115	AUX ADV ADP
-1.383504	PRON ADV ADP
-1.2515175	INTJ ADV ADP
-1.158393	SYM ADV ADP
-2.8508532	<s> AUX ADP
-2.1419456	ADP AUX ADP
-1.9867034	DET AUX ADP
-1.6058015	PROPN AUX ADP
-2.2449942	CCONJ AUX ADP
-1.623631	NOUN AUX ADP
-1.6205759	PUNCT AUX ADP
-1.5116165	NUM AUX ADP
-1.7426349	ADJ AUX ADP
-1.449555	VERB AUX ADP
-2.0681243	ADV AUX ADP
-1.7901878	PRON AUX ADP
-1.7260866	INTJ AUX ADP
-0.8637866	SYM AUX ADP
-2.3188398	<s> PRON ADP
-1.5488919	ADP PRON ADP
-2.5001233	DET PRON ADP
-2.0341403	PROPN PRON ADP
-2.1056466	CCONJ PRON ADP
-2.2915304	NOUN PRON ADP
-2.2928085	PUNCT PRON ADP
-1.7862244	NUM PRON ADP
-1.9433576	ADJ PRON ADP
-2.3295093	SCONJ PRON ADP
-0.89559793	VERB PRON ADP
-1.9115546	PART PRON ADP
-2.3429742	ADV PRON ADP
-1.7866852	AUX PRON ADP
-2.289136	PRON PRON ADP
-2.1204224	INTJ PRON ADP
-1.2240875	X PRON ADP
-1.7548167	<s> INTJ ADP
-1.0626014	DET INTJ ADP
-1.5154443	PROPN INTJ ADP
-1.7630807	CCONJ INTJ ADP
-2.1284964	NOUN INTJ ADP
-1.631522	PUNCT INTJ ADP
-0.99156594	ADJ INTJ ADP
-0.69605273	VERB INTJ ADP
-1.040143	AUX INTJ ADP
-0.8689237	SYM INTJ ADP
-2.4041302	<s> X ADP
-1.4899144	ADP X ADP
-2.0623322	PROPN X ADP
-1.3939592	NOUN X ADP
-1.9071621	PUNCT X ADP
-0.25269493	SCONJ X ADP
-1.4383469	VERB X ADP
-1.2313826	INTJ X ADP
-1.2534794	X X ADP
-1.9931883	ADP SYM ADP
-2.1985574	PROPN SYM ADP
-2.4611597	PUNCT SYM ADP
-2.844265	NUM SYM ADP
-1.0131537	X SYM ADP
-0.38735938	<s> ADP DET
-0.38797647	ADP ADP DET
-0.33041322	DET ADP DET
-0.5950166	PROPN ADP DET
-0.40094134	CCONJ ADP DET
-0.46350312	NOUN ADP DET
-0.47894132	PUNCT ADP DET
-0.27342075	NUM ADP DET
-0.42297804	ADJ ADP DET
-0.39035442	SCONJ ADP DET
-0.43617076	VERB ADP DET
-0.48841035	PART ADP DET
-0.4254565	ADV ADP DET
-0.44249457	AUX ADP DET
-0.42589828	PRON ADP DET
-0.5716047	INTJ ADP DET
-0.93747216	X ADP DET
-0.88115126	SYM ADP DET
-2.1503494	<s> DET DET
-2.0628047	ADP DET DET
-2.0613675	DET DET DET
-2.208228	PROPN DET DET
-2.0434854	CCONJ DET DET
-1.5079563	NOUN DET DET
-2.1466086	PUNCT DET DET
-1.7660106	NUM DET DET
-1.5189291	ADJ DET DET
-1.8440267	SCONJ DET DET
-2.0103638	VERB DET DET
-1.6865016	PART DET DET
-1.8310006	ADV DET DET
-1.8219398	AUX DET DET
-1.7486656	PRON DET DET
-1.6006496	X DET DET
-2.6442757	<s> PROPN DET
-2.0380545	ADP PROPN DET
-2.328443	DET PROPN DET
-2.2533286	PROPN PROPN DET
-2.2181046	CCONJ PROPN DET
-2.2776978	NOUN PROPN DET
-2.5854297	PUNCT PROPN DET
-2.1434884	NUM PROPN DET
-2.1718316	ADJ PROPN DET
-2.4520898	SCONJ PROPN DET
-1.8276616	VERB PROPN DET
-2.3369215	PART PROPN DET
-2.3720884	ADV PROPN DET
-1.7306223	AUX PROPN DET
-2.233916	PRON PROPN DET
-1.9118229	INTJ PROPN DET
-1.9945089	X PROPN DET
-2.459812	SYM PROPN DET
-0.71923107	<s> CCONJ DET
-0.9984677	ADP CCONJ DET
-0.63766456	DET CCONJ DET
-0.98448384	PROPN CCONJ DET
-0.9827051	CCONJ CCONJ DET
-0.9820522	NOUN CCONJ DET
-0.78993213	PUNCT CCONJ DET
-1.1057094	NUM CCONJ DET
-1.37588	ADJ CCONJ DET
-0.959447	SCONJ CCONJ DET
-1.2431263	VERB CCONJ DET
-1.0847459	PART CCONJ DET
-1.2378066	ADV CCONJ DET
-0.86397123	AUX CCONJ DET
-1.1234256	PRON CCONJ DET
-1.0324471	INTJ CCONJ DET
-1.3885846	X CCONJ DET
-2.1663182	<s> NOUN DET
-1.722287	ADP NOUN DET
-1.6146623	DET NOUN DET
-1.7956219	PROPN NOUN DET
-1.7812545	CCONJ NOUN DET
-1.6811631	NOUN NOUN DET
-2.0753527	PUNCT NOUN DET
-1.6744246	NUM NOUN DET
-1.6488032	ADJ NOUN DET
-2.308555	SCONJ NOUN DET
-1.7372062	VERB NOUN DET
-2.0037835	PART NOUN DET
-1.9279152	ADV NOUN DET
-1.7638146	AUX NOUN DET
-1.9398795	PRON NOUN DET
-2.0561695	INTJ NOUN DET
-2.0870733	X NOUN DET
-1.8261878	SYM NOUN DET
-0.7744916	<s> PUNCT DET
-1.1178719	ADP PUNCT DET
-1.4376824	DET PUNCT DET
-1.0008479	PROPN PUNCT DET
-1.2480876	CCONJ PUNCT DET
-1.1719527	NOUN PUNCT DET
-1.112735	PUNCT PUNCT DET
-1.081296	NUM PUNCT DET
-1.4463034	ADJ PUNCT DET
-0.85872453	SCONJ PUNCT DET
-1.2743278	VERB PUNCT DET
-1.4086759	PART PUNCT DET
-0.93831056	ADV PUNCT DET
-1.2166634	AUX PUNCT DET
-1.3551042	PRON PUNCT DET
-1.018286	INTJ PUNCT DET
-1.0935928	X PUNCT DET
-2.4100206	<s> NUM DET
-1.9730895	ADP NUM DET
-2.8096802	DET NUM DET
-2.0015643	PROPN NUM DET
-1.92313	CCONJ NUM DET
-2.4788573	NOUN NUM DET
-2.2355378	PUNCT NUM DET
-2.0835288	NUM NUM DET
-2.685931	ADJ NUM DET
-2.4681823	SCONJ NUM DET
-2.1715536	VERB NUM DET
-2.5002303	ADV NUM DET
-1.8983259	AUX NUM DET
-2.3899405	PRON NUM DET
-1.614723	SYM NUM DET
-3.2130826	<s> ADJ DET
-2.5058084	ADP ADJ DET
-2.9917936	DET ADJ DET
-2.6413522	CCONJ ADJ DET
-2.4321392	NOUN ADJ DET
-2.907722	PUNCT ADJ DET
-3.2375574	ADJ ADJ DET
-2.2332976	VERB ADJ DET
-2.389314	PART ADJ DET
-1.9305646	ADV ADJ DET
-2.1156738	AUX ADJ DET
-2.8132312	PRON ADJ DET
-0.5011251	<s> SCONJ DET
-0.5555016	ADP SCONJ DET
-0.66273725	DET SCONJ DET
-0.6081594	PROPN SCONJ DET
-0.62509286	CCONJ SCONJ DET
-0.59383404	NOUN SCONJ DET
-0.6310855	PUNCT SCONJ DET
-0.72317207	NUM SCONJ DET
-0.6209691	ADJ SCONJ DET
-0.5355841	SCONJ SCONJ DET
-0.506928	VERB SCONJ DET
-0.7407034	PART SCONJ DET
-0.62308216	ADV SCONJ DET
-0.53821874	AUX SCONJ DET
-0.71860147	PRON SCONJ DET
-1.2605709	INTJ SCONJ DET
-0.7592024	X SCONJ DET
-0.786918	<s> VERB DET
-0.6041903	ADP VERB DET
-0.84688175	DET VERB DET
-0.62703985	PROPN VERB DET
-0.6849277	CCONJ VERB DET
-0.8092066	NOUN VERB DET
-0.7605827	PUNCT VERB DET
-0.8730967	NUM VERB DET
-0.95238376	ADJ VERB DET
-0.64677525	SCONJ VERB DET
-0.7674371	VERB VERB DET
-0.588258	PART VERB DET
-0.7042671	ADV VERB DET
-0.834014	AUX VERB DET
-0.7359595	PRON VERB DET
-0.8406533	INTJ VERB DET
-0.96227795	X VERB DET
-0.86334693	SYM VERB DET
-1.1537361	<s> PART DET
-2.1808648	ADP PART DET
-1.8872515	DET PART DET
-2.6385226	PROPN PART DET
-1.1446679	CCONJ PART DET
-2.7041557	NOUN PART DET
-1.3091874	PUNCT PART DET
-2.3441129	NUM PART DET
-3.3497047	ADJ PART DET
-0.90610296	SCONJ PART DET
-1.9670173	VERB PART DET
-2.6799848	PART PART DET
-1.5891948	ADV PART DET
-1.3022933	AUX PART DET
-2.489334	PRON PART DET
-1.0663825	X PART DET
-1.0842621	<s> ADV DET
-0.9518177	ADP ADV DET
-2.0635996	DET ADV DET
-1.3867816	PROPN ADV DET
-1.0291462	CCONJ ADV DET
-1.3520914	NOUN ADV DET
-1.0704224	PUNCT ADV DET
-1.0948125	NUM ADV DET
-1.3046435	ADJ ADV DET
-0.88594687	SCONJ ADV DET
-1.0916637	VERB ADV DET
-1.2057406	PART ADV DET
-1.4107807	ADV ADV DET
-1.2274042	AUX ADV DET
-1.985996	PRON ADV DET
-1.5706499	INTJ ADV DET
-0.84738356	<s> AUX DET
-1.2116984	ADP AUX DET
-0.9438363	DET AUX DET
-1.0091145	PROPN AUX DET
-1.6995249	CCONJ AUX DET
-1.2845787	NOUN AUX DET
-0.9505976	PUNCT AUX DET
-0.83922	NUM AUX DET
-0.91430426	ADJ AUX DET
-1.6553975	SCONJ AUX DET
-0.82008404	VERB AUX DET
-3.1585925	PART AUX DET
-0.70268977	ADV AUX DET
-2.981789	AUX AUX DET
-1.0622237	PRON AUX DET
-1.6848176	INTJ AUX DET
-1.2423881	X AUX DET
-2.0699341	<s> PRON DET
-1.8425891	ADP PRON DET
-2.348077	DET PRON DET
-2.53882	PROPN PRON DET
-2.0468042	CCONJ PRON DET
-2.2194872	NOUN PRON DET
-2.0977898	PUNCT PRON DET
-1.7883027	ADJ PRON DET
-2.1729379	SCONJ PRON DET
-1.3866471	VERB PRON DET
-1.2145548	PART PRON DET
-1.9890544	ADV PRON DET
-1.2764145	AUX PRON DET
-2.0065217	PRON PRON DET
-2.1494496	INTJ PRON DET
-1.3511986	<s> INTJ DET
-1.2427615	ADP INTJ DET
-1.0359502	DET INTJ DET
-1.1769965	PROPN INTJ DET
-1.4467072	CCONJ INTJ DET
-2.0030704	NOUN INTJ DET
-2.1978173	PUNCT INTJ DET
-0.850873	NUM INTJ DET
-1.3947395	ADJ INTJ DET
-1.7762599	VERB INTJ DET
-1.4115024	ADV INTJ DET
-1.1243322	PRON INTJ DET
-1.7305788	<s> X DET
-1.5089273	ADP X DET
-2.0262861	PROPN X DET
-1.7599245	NOUN X DET
-1.6809101	PUNCT X DET
-1.7528181	VERB X DET
-1.9401351	X X DET
-2.7552304	ADP SYM DET
-2.2052531	DET SYM DET
-2.3705726	PROPN SYM DET
-2.5152485	NOUN SYM DET
-2.5812948	PUNCT SYM DET
-0.73270714	<s> ADP PROPN
-0.8986912	ADP ADP PROPN
-1.071646	DET ADP PROPN
-0.28588223	PROPN ADP PROPN
-0.98953986	CCONJ ADP PROPN
-0.7107401	NOUN ADP PROPN
-0.83828557	PUNCT ADP PROPN
-0.86819315	NUM ADP PROPN
-0.91065156	ADJ ADP PROPN
-1.0552223	SCONJ ADP PROPN
-0.8515748	VERB ADP PROPN
-0.91666824	PART ADP PROPN
-0.84794307	ADV ADP PROPN
-0.93666714	AUX ADP PROPN
-1.1151142	PRON ADP PROPN
-0.6448595	INTJ ADP PROPN
-0.9371765	X ADP PROPN
-1.2344474	SYM ADP PROPN
-0.934621	<s> DET PROPN
-0.84585184	ADP DET PROPN
-1.1766586	DET DET PROPN
-0.88922226	PROPN DET PROPN
-0.89444	CCONJ DET PROPN
-1.3014388	NOUN DET PROPN
-0.88723505	PUNCT DET PROPN
-1.3217114	NUM DET PROPN
-1.3285942	ADJ DET PROPN
-0.97645396	SCONJ DET PROPN
-1.2217261	VERB DET PROPN
-1.1856906	PART DET PROPN
-1.1419677	ADV DET PROPN
-1.3602297	AUX DET PROPN
-1.3375912	PRON DET PROPN
-1.6305104	INTJ DET PROPN
-0.69937503	X DET PROPN
-1.0230317	SYM DET PROPN
-0.3728771	<s> PROPN PROPN
-0.60495216	ADP PROPN PROPN
-0.36681217	DET PROPN PROPN
-0.6307034	PROPN PROPN PROPN
-0.48056585	CCONJ PROPN PROPN
-0.3032053	NOUN PROPN PROPN
-0.3850982	PUNCT PROPN PROPN
-0.6052346	NUM PROPN PROPN
-0.50866807	ADJ PROPN PROPN
-0.6962311	SCONJ PROPN PROPN
-0.569767	VERB PROPN PROPN
-0.36275482	PART PROPN PROPN
-0.60433203	ADV PROPN PROPN
-0.50774217	AUX PROPN PROPN
-0.62420547	PRON PROPN PROPN
-0.7023948	INTJ PROPN PROPN
-0.7602801	X PROPN PROPN
-0.9006527	SYM PROPN PROPN
-0.25074738	SPACE PROPN PROPN
-1.1742213	<s> CCONJ PROPN
-1.3427076	ADP CCONJ PROPN
-1.5417212	DET CCONJ PROPN
-0.40806144	PROPN CCONJ PROPN
-1.0982676	CCONJ CCONJ PROPN
-1.7010969	NOUN CCONJ PROPN
-1.2494125	PUNCT CCONJ PROPN
-1.2048861	NUM CCONJ PROPN
-1.6610309	ADJ CCONJ PROPN
-1.1108212	SCONJ CCONJ PROPN
-1.8719842	VERB CCONJ PROPN
-0.73642164	PART CCONJ PROPN
-1.7613558	ADV CCONJ PROPN
-1.7191063	AUX CCONJ PROPN
-1.5587752	PRON CCONJ PROPN
-1.4012852	X CCONJ PROPN
-1.7344466	<s> NOUN PROPN
-1.9739848	ADP NOUN PROPN
-2.1341753	DET NOUN PROPN
-1.1889495	PROPN NOUN PROPN
-1.9307164	CCONJ NOUN PROPN
-1.6242954	NOUN NOUN PROPN
-1.4766406	PUNCT NOUN PROPN
-2.0198681	NUM NOUN PROPN
-1.7363796	ADJ NOUN PROPN
-2.0839972	SCONJ NOUN PROPN
-2.0277398	VERB NOUN PROPN
-1.8247128	PART NOUN PROPN
-1.9430387	ADV NOUN PROPN
-2.0540698	AUX NOUN PROPN
-1.9055042	PRON NOUN PROPN
-1.7677529	INTJ NOUN PROPN
-1.6051847	X NOUN PROPN
-1.7287519	SYM NOUN PROPN
-0.94845486	<s> PUNCT PROPN
-0.9519526	ADP PUNCT PROPN
-0.8586521	DET PUNCT PROPN
-0.630688	PROPN PUNCT PROPN
-0.90461725	CCONJ PUNCT PROPN
-1.1111389	NOUN PUNCT PROPN
-1.1265312	PUNCT PUNCT PROPN
-1.1951499	NUM PUNCT PROPN
-1.5287215	ADJ PUNCT PROPN
-1.1521661	SCONJ PUNCT PROPN
-1.3908601	VERB PUNCT PROPN
-1.0101571	PART PUNCT PROPN
-1.2808231	ADV PUNCT PROPN
-1.380996	AUX PUNCT PROPN
-1.6078279	PRON PUNCT PROPN
-1.311837	INTJ PUNCT PROPN
-0.91964835	X PUNCT PROPN
-1.3071535	<s> NUM PROPN
-1.2791247	ADP NUM PROPN
-0.9562453	DET NUM PROPN
-1.3491414	PROPN NUM PROPN
-1.4613318	CCONJ NUM PROPN
-1.6275643	NOUN NUM PROPN
-1.1879339	PUNCT NUM PROPN
-1.0822219	NUM NUM PROPN
-1.6029242	ADJ NUM PROPN
-1.5715816	SCONJ NUM PROPN
-1.5295603	VERB NUM PROPN
-1.263011	PART NUM PROPN
-1.5302843	ADV NUM PROPN
-1.7882345	AUX NUM PROPN
-1.3242205	PRON NUM PROPN
-1.5003994	SYM NUM PROPN
-1.0180509	<s> ADJ PROPN
-1.3212097	ADP ADJ PROPN
-1.3711452	DET ADJ PROPN
-1.0224602	PROPN ADJ PROPN
-1.5888405	CCONJ ADJ PROPN
-1.4665568	NOUN ADJ PROPN
-1.221686	PUNCT ADJ PROPN
-1.468899	NUM ADJ PROPN
-1.5105187	ADJ ADJ PROPN
-1.2895614	SCONJ ADJ PROPN
-1.7523609	VERB ADJ PROPN
-1.5470009	PART ADJ PROPN
-1.785168	ADV ADJ PROPN
-2.1844819	AUX ADJ PROPN
-1.7204303	PRON ADJ PROPN
-1.1603049	INTJ ADJ PROPN
-1.8670282	X ADJ PROPN
-1.2401474	SYM ADJ PROPN
-1.0391461	<s> SCONJ PROPN
-1.0034368	ADP SCONJ PROPN
-1.4152757	DET SCONJ PROPN
-0.9353701	PROPN SCONJ PROPN
-1.1692624	CCONJ SCONJ PROPN
-1.0559049	NOUN SCONJ PROPN
-1.1578312	PUNCT SCONJ PROPN
-1.2127079	NUM SCONJ PROPN
-1.298985	ADJ SCONJ PROPN
-1.1068805	SCONJ SCONJ PROPN
-0.98878026	VERB SCONJ PROPN
-1.7345704	PART SCONJ PROPN
-1.1853479	ADV SCONJ PROPN
-1.0577091	AUX SCONJ PROPN
-1.2950342	PRON SCONJ PROPN
-1.321386	<s> VERB PROPN
-1.3273876	ADP VERB PROPN
-1.3763224	DET VERB PROPN
-1.2807474	PROPN VERB PROPN
-1.711558	CCONJ VERB PROPN
-1.4786813	NOUN VERB PROPN
-1.1894785	PUNCT VERB PROPN
-1.4141524	NUM VERB PROPN
-1.5141413	ADJ VERB PROPN
-1.5106688	SCONJ VERB PROPN
-1.4769216	VERB VERB PROPN
-1.4916064	PART VERB PROPN
-1.574345	ADV VERB PROPN
-1.7973886	AUX VERB PROPN
-1.5830761	PRON VERB PROPN
-1.2324673	INTJ VERB PROPN
-1.0634966	X VERB PROPN
-1.5824361	SYM VERB PROPN
-2.6479547	<s> PART PROPN
-0.7316322	PROPN PART PROPN
-1.6980113	CCONJ PART PROPN
-1.8150775	NOUN PART PROPN
-1.8954401	PUNCT PART PROPN
-1.9159061	NUM PART PROPN
-2.2705333	SCONJ PART PROPN
-2.7638617	VERB PART PROPN
-2.676303	ADV PART PROPN
-2.600935	AUX PART PROPN
-2.9040046	PRON PART PROPN
-0.96446896	INTJ PART PROPN
-1.0916761	X PART PROPN
-1.5663809	<s> ADV PROPN
-1.6096092	ADP ADV PROPN
-2.344488	DET ADV PROPN
-1.7396413	PROPN ADV PROPN
-1.7308412	CCONJ ADV PROPN
-1.8453968	NOUN ADV PROPN
-1.5791817	PUNCT ADV PROPN
-1.2512022	NUM ADV PROPN
-2.1225324	ADJ ADV PROPN
-1.5560788	SCONJ ADV PROPN
-1.9506975	VERB ADV PROPN
-1.8550034	PART ADV PROPN
-2.1417072	ADV ADV PROPN
-2.3574526	AUX ADV PROPN
-2.7490733	PRON ADV PROPN
-1.6586765	INTJ ADV PROPN
-1.1014749	<s> AUX PROPN
-2.4354362	ADP AUX PROPN
-2.0646899	DET AUX PROPN
-2.1575809	PROPN AUX PROPN
-2.1759052	CCONJ AUX PROPN
-2.134898	NOUN AUX PROPN
-1.7662098	PUNCT AUX PROPN
-1.4401467	NUM AUX PROPN
-1.713853	ADJ AUX PROPN
-1.8141704	VERB AUX PROPN
-1.6367527	ADV AUX PROPN
-3.2100375	AUX AUX PROPN
-2.2422175	PRON AUX PROPN
-1.724882	INTJ AUX PROPN
-2.2992647	<s> PRON PROPN
-1.5987301	ADP PRON PROPN
-2.3446867	DET PRON PROPN
-1.6338891	PROPN PRON PROPN
-1.9996856	CCONJ PRON PROPN
-2.5307827	NOUN PRON PROPN
-2.223435	PUNCT PRON PROPN
-1.9580761	NUM PRON PROPN
-2.102708	ADJ PRON PROPN
-2.5281546	SCONJ PRON PROPN
-1.8516877	VERB PRON PROPN
-1.8330439	PART PRON PROPN
-2.327881	ADV PRON PROPN
-1.8543242	AUX PRON PROPN
-2.381465	PRON PRON PROPN
-2.1334825	INTJ PRON PROPN
-1.2720118	<s> INTJ PROPN
-0.9085154	ADP INTJ PROPN
-0.91290265	PROPN INTJ PROPN
-1.7173858	CCONJ INTJ PROPN
-1.3242639	NOUN INTJ PROPN
-1.3494928	PUNCT INTJ PROPN
-1.2983795	ADJ INTJ PROPN
-1.6287487	VERB INTJ PROPN
-1.5632389	ADV INTJ PROPN
-1.301397	PRON INTJ PROPN
-1.5860147	INTJ INTJ PROPN
-1.1447023	X INTJ PROPN
-1.4518077	<s> X PROPN
-1.2405411	ADP X PROPN
-0.9216128	DET X PROPN
-0.30645236	PROPN X PROPN
-1.495567	CCONJ X PROPN
-1.1902032	NOUN X PROPN
-0.7715477	PUNCT X PROPN
-1.1738045	ADJ X PROPN
-1.0597125	VERB X PROPN
-0.888892	PART X PROPN
-1.1854252	ADV X PROPN
-1.0816612	AUX X PROPN
-0.9702943	PRON X PROPN
-1.0137396	X X PROPN
-1.0362108	<s> SYM PROPN
-0.32000732	ADP SYM PROPN
-0.47116387	DET SYM PROPN
-0.097202554	PROPN SYM PROPN
-1.2185596	CCONJ SYM PROPN
-0.69324374	NOUN SYM PROPN
-0.3966525	PUNCT SYM PROPN
-1.6083113	NUM SYM PROPN
-0.8784499	ADJ SYM PROPN
-1.3076626	SCONJ SYM PROPN
-0.55260307	VERB SYM PROPN
-1.5548493	PART SYM PROPN
-1.1077948	ADV SYM PROPN
-0.7492339	AUX SYM PROPN
-1.0378149	PRON SYM PROPN
-0.40277305	INTJ SYM PROPN
-0.7095084	X SYM PROPN
-0.1078875	PROPN SPACE PROPN
-3.647404	<s> ADP CCONJ
-2.6056752	ADP ADP CCONJ
-2.4217384	DET ADP CCONJ
-3.0609214	PROPN ADP CCONJ
-2.320888	CCONJ ADP CCONJ
-2.7699711	NOUN ADP CCONJ
-2.6252518	PUNCT ADP CCONJ
-3.408986	NUM ADP CCONJ
-2.6568506	ADJ ADP CCONJ
-2.8228374	SCONJ ADP CCONJ
-2.1764972	VERB ADP CCONJ
-2.6057136	PART ADP CCONJ
-2.9346225	ADV ADP CCONJ
-2.365206	AUX ADP CCONJ
-2.1450777	PRON ADP CCONJ
-3.4592257	<s> DET CCONJ
-3.1641245	ADP DET CCONJ
-2.8550994	DET DET CCONJ
-3.2881966	CCONJ DET CCONJ
-3.4384253	NOUN DET CCONJ
-3.6036525	PUNCT DET CCONJ
-1.9699438	NUM DET CCONJ
-2.6017616	ADJ DET CCONJ
-3.7447207	SCONJ DET CCONJ
-3.076566	VERB DET CCONJ
-2.8854818	PART DET CCONJ
-3.2204976	ADV DET CCONJ
-3.2617579	AUX DET CCONJ
-2.3744888	PRON DET CCONJ
-1.7908864	<s> PROPN CCONJ
-1.1351103	ADP PROPN CCONJ
-1.4510778	DET PROPN CCONJ
-1.2466723	PROPN PROPN CCONJ
-1.3634803	CCONJ PROPN CCONJ
-1.561748	NOUN PROPN CCONJ
-1.3724331	PUNCT PROPN CCONJ
-1.4532682	NUM PROPN CCONJ
-1.3828214	ADJ PROPN CCONJ
-1.5172184	SCONJ PROPN CCONJ
-1.2335469	VERB PROPN CCONJ
-1.2500993	PART PROPN CCONJ
-1.2607447	ADV PROPN CCONJ
-1.3815881	AUX PROPN CCONJ
-1.2862784	PRON PROPN CCONJ
-1.3306792	INTJ PROPN CCONJ
-1.5664855	X PROPN CCONJ
-1.2669657	SYM PROPN CCONJ
-3.41463	<s> CCONJ CCONJ
-3.5937002	PROPN CCONJ CCONJ
-3.4887702	NOUN CCONJ CCONJ
-2.9614282	PUNCT CCONJ CCONJ
-2.8895183	NUM CCONJ CCONJ
-3.5654488	ADJ CCONJ CCONJ
-3.4681518	VERB CCONJ CCONJ
-3.011995	ADV CCONJ CCONJ
-1.5150204	<s> NOUN CCONJ
-1.0008318	ADP NOUN CCONJ
-1.364471	DET NOUN CCONJ
-1.3381664	PROPN NOUN CCONJ
-1.6462082	CCONJ NOUN CCONJ
-1.1889745	NOUN NOUN CCONJ
-0.99060166	PUNCT NOUN CCONJ
-1.300472	NUM NOUN CCONJ
-1.1973579	ADJ NOUN CCONJ
-1.3650006	SCONJ NOUN CCONJ
-1.0890846	VERB NOUN CCONJ
-1.2197543	PART NOUN CCONJ
-1.2353321	ADV NOUN CCONJ
-1.4071805	AUX NOUN CCONJ
-1.0736939	PRON NOUN CCONJ
-2.135002	INTJ NOUN CCONJ
-1.6054825	X NOUN CCONJ
-1.2228248	SYM NOUN CCONJ
-1.7633157	<s> PUNCT CCONJ
-1.452516	ADP PUNCT CCONJ
-1.6955614	DET PUNCT CCONJ
-1.352268	PROPN PUNCT CCONJ
-2.1159396	CCONJ PUNCT CCONJ
-1.199727	NOUN PUNCT CCONJ
-1.4240265	PUNCT PUNCT CCONJ
-1.4163642	NUM PUNCT CCONJ
-1.1325089	ADJ PUNCT CCONJ
-2.0546644	SCONJ PUNCT CCONJ
-1.2416149	VERB PUNCT CCONJ
-1.5260404	PART PUNCT CCONJ
-1.3402524	ADV PUNCT CCONJ
-1.426056	AUX PUNCT CCONJ
-1.2272799	PRON PUNCT CCONJ
-1.4498115	INTJ PUNCT CCONJ
-1.5074687	X PUNCT CCONJ
-0.93553275	SYM PUNCT CCONJ
-2.400886	<s> NUM CCONJ
-1.4176425	ADP NUM CCONJ
-2.3977108	DET NUM CCONJ
-1.556434	PROPN NUM CCONJ
-1.9485614	CCONJ NUM CCONJ
-1.7183114	NOUN NUM CCONJ
-2.0037043	PUNCT NUM CCONJ
-1.7063389	NUM NUM CCONJ
-1.8031985	ADJ NUM CCONJ
-1.8358333	SCONJ NUM CCONJ
-1.7646918	VERB NUM CCONJ
-2.1558857	PART NUM CCONJ
-1.9555783	ADV NUM CCONJ
-1.7007773	AUX NUM CCONJ
-1.9824138	PRON NUM CCONJ
-0.964986	X NUM CCONJ
-1.7340362	SYM NUM CCONJ
-1.7189957	<s> ADJ CCONJ
-1.5405525	ADP ADJ CCONJ
-1.7041981	DET ADJ CCONJ
-1.5943481	PROPN ADJ CCONJ
-1.6734731	CCONJ ADJ CCONJ
-1.4409614	NOUN ADJ CCONJ
-1.2515656	PUNCT ADJ CCONJ
-1.6217315	NUM ADJ CCONJ
-1.7085141	ADJ ADJ CCONJ
-2.0033832	SCONJ ADJ CCONJ
-1.3605896	VERB ADJ CCONJ
-1.5581133	PART ADJ CCONJ
-1.212779	ADV ADJ CCONJ
-1.1232023	AUX ADJ CCONJ
-1.6455367	PRON ADJ CCONJ
-1.3611598	INTJ ADJ CCONJ
-1.8534048	SYM ADJ CCONJ
-2.666126	<s> SCONJ CCONJ
-1.477096	ADP SCONJ CCONJ
-2.7083378	PROPN SCONJ CCONJ
-2.8953574	CCONJ SCONJ CCONJ
-2.9769757	NOUN SCONJ CCONJ
-2.799145	PUNCT SCONJ CCONJ
-2.7326632	ADJ SCONJ CCONJ
-2.4874961	VERB SCONJ CCONJ
-3.1005576	ADV SCONJ CCONJ
-2.419216	PRON SCONJ CCONJ
-2.3979034	<s> VERB CCONJ
-1.7132334	ADP VERB CCONJ
-2.0271876	DET VERB CCONJ
-2.2168796	PROPN VERB CCONJ
-2.16592	CCONJ VERB CCONJ
-1.9558448	NOUN VERB CCONJ
-1.7635562	PUNCT VERB CCONJ
-1.8834003	NUM VERB CCONJ
-1.737707	ADJ VERB CCONJ
-1.8830336	SCONJ VERB CCONJ
-1.6871417	VERB VERB CCONJ
-1.6484363	PART VERB CCONJ
-1.708449	ADV VERB CCONJ
-1.6084014	AUX VERB CCONJ
-1.9512676	PRON VERB CCONJ
-2.129687	INTJ VERB CCONJ
-1.5991445	SYM VERB CCONJ
-2.3630972	PROPN PART CCONJ
-2.3872657	CCONJ PART CCONJ
-2.938667	NOUN PART CCONJ
-1.9454104	NUM PART CCONJ
-3.215371	ADJ PART CCONJ
-2.8870199	VERB PART CCONJ
-3.0406797	ADV PART CCONJ
-3.1307528	AUX PART CCONJ
-3.0837483	PRON PART CCONJ
-2.5928936	<s> ADV CCONJ
-1.7416159	ADP ADV CCONJ
-2.198248	DET ADV CCONJ
-1.7642933	PROPN ADV CCONJ
-2.0167918	CCONJ ADV CCONJ
-1.5552517	NOUN ADV CCONJ
-1.9799155	PUNCT ADV CCONJ
-2.003082	NUM ADV CCONJ
-1.6728528	ADJ ADV CCONJ
-2.1258738	SCONJ ADV CCONJ
-1.4377128	VERB ADV CCONJ
-2.415323	PART ADV CCONJ
-1.7685512	ADV ADV CCONJ
-2.306104	AUX ADV CCONJ
-1.903171	PRON ADV CCONJ
-2.5609121	ADP AUX CCONJ
-3.2439296	DET AUX CCONJ
-3.000673	PROPN AUX CCONJ
-3.1674666	CCONJ AUX CCONJ
-2.8921764	NOUN AUX CCONJ
-3.0859017	PUNCT AUX CCONJ
-2.0704913	NUM AUX CCONJ
-1.7242072	SCONJ AUX CCONJ
-2.873016	VERB AUX CCONJ
-3.0110426	ADV AUX CCONJ
-3.6443024	AUX AUX CCONJ
-2.7109096	PRON AUX CCONJ
-2.835267	<s> PRON CCONJ
-1.740361	ADP PRON CCONJ
-2.663601	DET PRON CCONJ
-2.3514507	PROPN PRON CCONJ
-2.6115112	CCONJ PRON CCONJ
-2.512953	NOUN PRON CCONJ
-2.5849476	PUNCT PRON CCONJ
-2.0645986	NUM PRON CCONJ
-2.5167239	ADJ PRON CCONJ
-2.4128199	SCONJ PRON CCONJ
-1.7745323	VERB PRON CCONJ
-2.1705265	PART PRON CCONJ
-2.4389424	ADV PRON CCONJ
-2.786812	AUX PRON CCONJ
-3.1367302	PRON PRON CCONJ
-2.189553	<s> INTJ CCONJ
-1.8953528	NOUN INTJ CCONJ
-2.2194278	PUNCT INTJ CCONJ
-1.4394624	ADJ INTJ CCONJ
-0.78919953	SCONJ INTJ CCONJ
-1.5170147	VERB INTJ CCONJ
-1.6060321	ADV INTJ CCONJ
-1.3628273	AUX INTJ CCONJ
-1.4449735	PRON INTJ CCONJ
-1.8849233	INTJ INTJ CCONJ
-1.1258777	ADP X CCONJ
-1.5789899	CCONJ X CCONJ
-2.2403646	NOUN X CCONJ
-2.6158156	PUNCT X CCONJ
-1.5668775	ADJ X CCONJ
-1.4556324	VERB X CCONJ
-0.95189804	PART X CCONJ
-1.5054581	X X CCONJ
-2.925004	NUM SYM CCONJ
-2.1058064	ADV SYM CCONJ
-0.8652518	<s> ADP NOUN
-0.87104416	ADP ADP NOUN
-1.0857662	DET ADP NOUN
-1.2155629	PROPN ADP NOUN
-0.8125001	CCONJ ADP NOUN
-0.6913118	NOUN ADP NOUN
-0.76129794	PUNCT ADP NOUN
-1.0617871	NUM ADP NOUN
-0.83619463	ADJ ADP NOUN
-0.7282968	SCONJ ADP NOUN
-0.82378864	VERB ADP NOUN
-0.6735556	PART ADP NOUN
-0.82241076	ADV ADP NOUN
-0.6459229	AUX ADP NOUN
-0.8429282	PRON ADP NOUN
-0.73323345	INTJ ADP NOUN
-0.45651782	X ADP NOUN
-0.39996052	SYM ADP NOUN
-0.26792648	<s> DET NOUN
-0.2623408	ADP DET NOUN
-0.25647444	DET DET NOUN
-0.4641633	PROPN DET NOUN
-0.29951283	CCONJ DET NOUN
-0.6996343	NOUN DET NOUN
-0.3645709	PUNCT DET NOUN
-0.33130404	NUM DET NOUN
-0.26498717	ADJ DET NOUN
-0.24995536	SCONJ DET NOUN
-0.22504257	VERB DET NOUN
-0.36528572	PART DET NOUN
-0.25878367	ADV DET NOUN
-0.33317682	AUX DET NOUN
-0.37104568	PRON DET NOUN
-0.34391809	INTJ DET NOUN
-0.40354326	X DET NOUN
-0.4471649	SYM DET NOUN
-1.3660538	<s> PROPN NOUN
-1.3034508	ADP PROPN NOUN
-0.80946136	DET PROPN NOUN
-1.3264611	PROPN PROPN NOUN
-1.2348491	CCONJ PROPN NOUN
-1.2252825	NOUN PROPN NOUN
-1.3708544	PUNCT PROPN NOUN
-0.73959184	NUM PROPN NOUN
-0.7967858	ADJ PROPN NOUN
-1.332444	SCONJ PROPN NOUN
-1.1018505	VERB PROPN NOUN
-0.8906227	PART PROPN NOUN
-1.2330278	ADV PROPN NOUN
-1.569663	AUX PROPN NOUN
-0.59550834	PRON PROPN NOUN
-1.5244204	INTJ PROPN NOUN
-0.888822	X PROPN NOUN
-0.72277427	SYM PROPN NOUN
-1.3226098	<s> CCONJ NOUN
-1.120048	ADP CCONJ NOUN
-1.0841098	DET CCONJ NOUN
-0.57495105	PROPN CCONJ NOUN
-0.89510864	CCONJ CCONJ NOUN
-0.37198788	NOUN CCONJ NOUN
-0.9340121	PUNCT CCONJ NOUN
-0.8798697	NUM CCONJ NOUN
-1.1255525	ADJ CCONJ NOUN
-1.0919431	VERB CCONJ NOUN
-0.69698447	PART CCONJ NOUN
-1.1467713	ADV CCONJ NOUN
-1.3954476	AUX CCONJ NOUN
-1.2801144	PRON CCONJ NOUN
-0.8767984	INTJ CCONJ NOUN
-0.48130512	X CCONJ NOUN
-0.5253915	SYM CCONJ NOUN
-0.98434144	<s> NOUN NOUN
-0.891031	ADP NOUN NOUN
-1.0461618	DET NOUN NOUN
-0.9227855	PROPN NOUN NOUN
-0.88554823	CCONJ NOUN NOUN
-0.8837418	NOUN NOUN NOUN
-0.66213256	PUNCT NOUN NOUN
-1.0717533	NUM NOUN NOUN
-0.9859035	ADJ NOUN NOUN
-0.90588105	SCONJ NOUN NOUN
-0.9186453	VERB NOUN NOUN
-0.9432085	PART NOUN NOUN
-0.9268211	ADV NOUN NOUN
-1.1409277	AUX NOUN NOUN
-1.163762	PRON NOUN NOUN
-0.34021422	INTJ NOUN NOUN
-0.553383	X NOUN NOUN
-0.8034271	SYM NOUN NOUN
-0.9996163	<s> PUNCT NOUN
-0.7044099	ADP PUNCT NOUN
-0.62959975	DET PUNCT NOUN
-1.3010591	PROPN PUNCT NOUN
-0.7957993	CCONJ PUNCT NOUN
-1.1169564	NOUN PUNCT NOUN
-1.3830858	PUNCT PUNCT NOUN
-0.8784878	NUM PUNCT NOUN
-0.7824502	ADJ PUNCT NOUN
-0.9657016	SCONJ PUNCT NOUN
-1.3141004	VERB PUNCT NOUN
-1.1229966	PART PUNCT NOUN
-1.3942802	ADV PUNCT NOUN
-1.3810539	AUX PUNCT NOUN
-1.488651	PRON PUNCT NOUN
-1.2325208	INTJ PUNCT NOUN
-1.0552332	X PUNCT NOUN
-0.42049772	<s> NUM NOUN
-0.38774973	ADP NUM NOUN
-0.32041568	DET NUM NOUN
-1.1940603	PROPN NUM NOUN
-0.34632176	CCONJ NUM NOUN
-0.63372564	NOUN NUM NOUN
-0.5872457	PUNCT NUM NOUN
-0.33569497	NUM NUM NOUN
-0.23926088	ADJ NUM NOUN
-0.23696406	SCONJ NUM NOUN
-0.28514895	VERB NUM NOUN
-0.25656867	PART NUM NOUN
-0.18160601	ADV NUM NOUN
-0.46967703	AUX NUM NOUN
-0.22871874	PRON NUM NOUN
-0.26635012	INTJ NUM NOUN
-0.95766354	X NUM NOUN
-0.7809447	SYM NUM NOUN
-0.2310572	<s> ADJ NOUN
-0.14096218	ADP ADJ NOUN
-0.11519204	DET ADJ NOUN
-0.22011733	PROPN ADJ NOUN
-0.1704819	CCONJ ADJ NOUN
-0.46329647	NOUN ADJ NOUN
-0.28070584	PUNCT ADJ NOUN
-0.110752665	NUM ADJ NOUN
-0.14458522	ADJ ADJ NOUN
-0.17883001	SCONJ ADJ NOUN
-0.3084898	VERB ADJ NOUN
-0.24973235	PART ADJ NOUN
-0.48040038	ADV ADJ NOUN
-0.91827184	AUX ADJ NOUN
-0.13687363	PRON ADJ NOUN
-0.35256743	INTJ ADJ NOUN
-0.2172435	X ADJ NOUN
-0.26441735	SYM ADJ NOUN
-1.1922481	<s> SCONJ NOUN
-1.1933267	ADP SCONJ NOUN
-1.6687183	DET SCONJ NOUN
-1.2777392	PROPN SCONJ NOUN
-1.1688099	CCONJ SCONJ NOUN
-1.1444521	NOUN SCONJ NOUN
-1.0950955	PUNCT SCONJ NOUN
-1.4852229	NUM SCONJ NOUN
-1.203403	ADJ SCONJ NOUN
-0.9558951	SCONJ SCONJ NOUN
-1.0839422	VERB SCONJ NOUN
-1.722543	PART SCONJ NOUN
-1.2047076	ADV SCONJ NOUN
-1.1759958	AUX SCONJ NOUN
-1.244292	PRON SCONJ NOUN
-1.2697129	INTJ SCONJ NOUN
-1.1194828	<s> VERB NOUN
-0.6232214	ADP VERB NOUN
-0.5351603	DET VERB NOUN
-1.2027727	PROPN VERB NOUN
-0.84913665	CCONJ VERB NOUN
-1.06315	NOUN VERB NOUN
-0.7654153	PUNCT VERB NOUN
-0.685287	NUM VERB NOUN
-0.4617657	ADJ VERB NOUN
-0.7909576	SCONJ VERB NOUN
-0.6955279	VERB VERB NOUN
-0.91624576	PART VERB NOUN
-0.98490965	ADV VERB NOUN
-1.2383137	AUX VERB NOUN
-1.1841999	PRON VERB NOUN
-0.8570953	INTJ VERB NOUN
-0.63064647	X VERB NOUN
-0.80921876	SYM VERB NOUN
-2.6287594	<s> PART NOUN
-1.9279429	ADP PART NOUN
-1.7425902	DET PART NOUN
-0.36309192	PROPN PART NOUN
-1.8351185	CCONJ PART NOUN
-0.63762283	NOUN PART NOUN
-1.5418073	PUNCT PART NOUN
-1.1212488	NUM PART NOUN
-1.9415958	ADJ PART NOUN
-1.4988956	SCONJ PART NOUN
-2.2228527	VERB PART NOUN
-2.052235	ADV PART NOUN
-2.1704562	AUX PART NOUN
-1.2891691	PRON PART NOUN
-1.6316892	<s> ADV NOUN
-1.5196452	ADP ADV NOUN
-1.8932712	DET ADV NOUN
-1.7085522	PROPN ADV NOUN
-1.3508489	CCONJ ADV NOUN
-1.4786253	NOUN ADV NOUN
-1.360417	PUNCT ADV NOUN
-1.4582103	NUM ADV NOUN
-1.4444046	ADJ ADV NOUN
-1.474207	SCONJ ADV NOUN
-1.5762554	VERB ADV NOUN
-1.6178985	PART ADV NOUN
-1.8513207	ADV ADV NOUN
-1.8892565	AUX ADV NOUN
-2.5219712	PRON ADV NOUN
-1.052454	INTJ ADV NOUN
-0.7968385	X ADV NOUN
-1.0206839	SYM ADV NOUN
-1.415425	<s> AUX NOUN
-1.8107501	ADP AUX NOUN
-1.9251798	DET AUX NOUN
-1.999094	PROPN AUX NOUN
-2.20429	CCONJ AUX NOUN
-1.5798854	NOUN AUX NOUN
-1.8272424	PUNCT AUX NOUN
-1.6239614	NUM AUX NOUN
-1.6582273	ADJ AUX NOUN
-1.3483934	VERB AUX NOUN
-3.1708167	PART AUX NOUN
-1.5683258	ADV AUX NOUN
-3.4328384	AUX AUX NOUN
-1.6984903	PRON AUX NOUN
-1.389524	INTJ AUX NOUN
-1.2549052	X AUX NOUN
-1.2059973	<s> PRON NOUN
-0.37540117	ADP PRON NOUN
-1.0532631	DET PRON NOUN
-1.475203	PROPN PRON NOUN
-0.7225138	CCONJ PRON NOUN
-1.6201743	NOUN PRON NOUN
-1.2235719	PUNCT PRON NOUN
-1.167563	NUM PRON NOUN
-1.0902954	ADJ PRON NOUN
-1.1388494	SCONJ PRON NOUN
-0.52421343	VERB PRON NOUN
-0.9664354	PART PRON NOUN
-1.1979212	ADV PRON NOUN
-0.96014684	AUX PRON NOUN
-1.3131132	PRON PRON NOUN
-1.5576499	INTJ PRON NOUN
-0.87156355	X PRON NOUN
-0.27608976	SYM PRON NOUN
-1.4315509	<s> INTJ NOUN
-0.695421	ADP INTJ NOUN
-0.8776506	DET INTJ NOUN
-1.0554599	PROPN INTJ NOUN
-0.38837484	NOUN INTJ NOUN
-1.3466377	PUNCT INTJ NOUN
-0.7635959	ADJ INTJ NOUN
-0.86602116	VERB INTJ NOUN
-0.88783824	ADV INTJ NOUN
-1.2885729	AUX INTJ NOUN
-1.3626888	PRON INTJ NOUN
-0.95915544	INTJ INTJ NOUN
-0.6004212	X INTJ NOUN
-0.8335426	SYM INTJ NOUN
-1.6258122	<s> X NOUN
-0.9647012	ADP X NOUN
-0.63428503	DET X NOUN
-1.1273161	PROPN X NOUN
-0.5185846	NOUN X NOUN
-0.77114904	PUNCT X NOUN
-0.8686613	NUM X NOUN
-0.5366266	ADJ X NOUN
-0.6319274	VERB X NOUN
-0.5872617	ADV X NOUN
-0.95931965	AUX X NOUN
-0.9597351	PRON X NOUN
-0.8313319	INTJ X NOUN
-0.66243315	X X NOUN
-0.81213546	SYM X NOUN
-0.08043968	<s> SYM NOUN
-0.8731476	ADP SYM NOUN
-0.9209439	DET SYM NOUN
-1.1046867	PROPN SYM NOUN
-1.1645101	CCONJ SYM NOUN
-0.2168935	NOUN SYM NOUN
-0.62671286	PUNCT SYM NOUN
-1.7217674	NUM SYM NOUN
-0.6803139	ADJ SYM NOUN
-1.5197862	SCONJ SYM NOUN
-0.6621004	VERB SYM NOUN
-1.2753705	ADV SYM NOUN
-1.2659986	AUX SYM NOUN
-1.4857416	PRON SYM NOUN
-0.52557313	X SYM NOUN
-2.4487941	<s> ADP PUNCT
-1.77479	ADP ADP PUNCT
-1.4393002	DET ADP PUNCT
-2.148211	PROPN ADP PUNCT
-1.808067	CCONJ ADP PUNCT
-2.0038702	NOUN ADP PUNCT
-1.4384849	PUNCT ADP PUNCT
-2.5248227	NUM ADP PUNCT
-1.7333494	ADJ ADP PUNCT
-2.0873108	SCONJ ADP PUNCT
-1.5206558	VERB ADP PUNCT
-1.7592807	PART ADP PUNCT
-2.0322056	ADV ADP PUNCT
-1.7162066	AUX ADP PUNCT
-1.2819009	PRON ADP PUNCT
-1.5634835	X ADP PUNCT
-1.1083325	SYM ADP PUNCT
-2.072322	<s> DET PUNCT
-1.7858661	ADP DET PUNCT
-1.4907634	DET DET PUNCT
-1.8783623	PROPN DET PUNCT
-1.9013865	CCONJ DET PUNCT
-2.0030944	NOUN DET PUNCT
-1.9131589	PUNCT DET PUNCT
-1.0332034	NUM DET PUNCT
-1.6036451	ADJ DET PUNCT
-1.8176248	SCONJ DET PUNCT
-1.7741303	VERB DET PUNCT
-1.648639	PART DET PUNCT
-1.8551948	ADV DET PUNCT
-1.786392	AUX DET PUNCT
-1.2587733	PRON DET PUNCT
-1.743103	INTJ DET PUNCT
-1.0308534	SYM DET PUNCT
-0.73468864	<s> PROPN PUNCT
-0.5214839	ADP PROPN PUNCT
-0.91577625	DET PROPN PUNCT
-0.55012685	PROPN PROPN PUNCT
-0.57908285	CCONJ PROPN PUNCT
-0.76000285	NOUN PROPN PUNCT
-0.5823443	PUNCT PROPN PUNCT
-0.6546809	NUM PROPN PUNCT
-0.67264414	ADJ PROPN PUNCT
-1.0605615	SCONJ PROPN PUNCT
-0.72450936	VERB PROPN PUNCT
-0.82777315	PART PROPN PUNCT
-0.90059435	ADV PROPN PUNCT
-0.7947724	AUX PROPN PUNCT
-0.7616551	PRON PROPN PUNCT
-0.52461755	INTJ PROPN PUNCT
-0.490727	X PROPN PUNCT
-0.5328772	SYM PROPN PUNCT
-1.3695298	<s> CCONJ PUNCT
-2.0927334	ADP CCONJ PUNCT
-1.6426089	DET CCONJ PUNCT
-2.468912	PROPN CCONJ PUNCT
-1.5110372	CCONJ CCONJ PUNCT
-2.2860818	NOUN CCONJ PUNCT
-1.4745677	PUNCT CCONJ PUNCT
-2.7047067	NUM CCONJ PUNCT
-2.3101583	ADJ CCONJ PUNCT
-1.7984449	SCONJ CCONJ PUNCT
-2.2486417	VERB CCONJ PUNCT
-1.6494839	PART CCONJ PUNCT
-2.1522305	ADV CCONJ PUNCT
-1.8650776	AUX CCONJ PUNCT
-2.317056	PRON CCONJ PUNCT
-0.5281324	SYM CCONJ PUNCT
-0.593086	<s> NOUN PUNCT
-0.51192594	ADP NOUN PUNCT
-0.69481015	DET NOUN PUNCT
-0.5032828	PROPN NOUN PUNCT
-0.36424536	CCONJ NOUN PUNCT
-0.515856	NOUN NOUN PUNCT
-0.533799	PUNCT NOUN PUNCT
-0.56249195	NUM NOUN PUNCT
-0.5347613	ADJ NOUN PUNCT
-1.0217953	SCONJ NOUN PUNCT
-0.67534626	VERB NOUN PUNCT
-0.5096432	PART NOUN PUNCT
-0.79633313	ADV NOUN PUNCT
-0.8554739	AUX NOUN PUNCT
-0.48895508	PRON NOUN PUNCT
-0.7820002	INTJ NOUN PUNCT
-0.633465	X NOUN PUNCT
-0.38914835	SYM NOUN PUNCT
-1.5475816	<s> PUNCT PUNCT
-1.368372	ADP PUNCT PUNCT
-1.5305787	DET PUNCT PUNCT
-1.2061647	PROPN PUNCT PUNCT
-2.0188804	CCONJ PUNCT PUNCT
-1.278429	NOUN PUNCT PUNCT
-1.0751808	PUNCT PUNCT PUNCT
-1.3386148	NUM PUNCT PUNCT
-1.2118418	ADJ PUNCT PUNCT
-1.2977502	SCONJ PUNCT PUNCT
-1.0929586	VERB PUNCT PUNCT
-1.2752339	PART PUNCT PUNCT
-1.355753	ADV PUNCT PUNCT
-1.2941054	AUX PUNCT PUNCT
-1.0492365	PRON PUNCT PUNCT
-1.0876771	INTJ PUNCT PUNCT
-1.0426947	X PUNCT PUNCT
-0.93553275	SYM PUNCT PUNCT
-0.9909777	<s> NUM PUNCT
-0.6489989	ADP NUM PUNCT
-0.67391455	DET NUM PUNCT
-0.17392349	PROPN NUM PUNCT
-0.8385706	CCONJ NUM PUNCT
-0.29565904	NOUN NUM PUNCT
-0.5019748	PUNCT NUM PUNCT
-0.75964546	NUM NUM PUNCT
-0.7089068	ADJ NUM PUNCT
-0.86992097	SCONJ NUM PUNCT
-1.1580325	VERB NUM PUNCT
-0.88632417	PART NUM PUNCT
-1.3447671	ADV NUM PUNCT
-1.2844528	AUX NUM PUNCT
-0.79864466	PRON NUM PUNCT
-0.964986	X NUM PUNCT
-0.4411521	SYM NUM PUNCT
-1.3534837	<s> ADJ PUNCT
-1.2822272	ADP ADJ PUNCT
-1.4381509	DET ADJ PUNCT
-1.1042745	PROPN ADJ PUNCT
-1.0098922	CCONJ ADJ PUNCT
-0.86822027	NOUN ADJ PUNCT
-0.84875834	PUNCT ADJ PUNCT
-1.3478509	NUM ADJ PUNCT
-1.4521898	ADJ ADJ PUNCT
-1.2468752	SCONJ ADJ PUNCT
-0.90525234	VERB ADJ PUNCT
-0.94673514	PART ADJ PUNCT
-0.7012521	ADV ADJ PUNCT
-0.62536734	AUX ADJ PUNCT
-1.1777049	PRON ADJ PUNCT
-0.99869597	INTJ ADJ PUNCT
-0.8968656	X ADJ PUNCT
-0.88751173	SYM ADJ PUNCT
-1.966718	<s> SCONJ PUNCT
-1.7412738	ADP SCONJ PUNCT
-1.4713187	PROPN SCONJ PUNCT
-1.8222041	CCONJ SCONJ PUNCT
-1.6149377	NOUN SCONJ PUNCT
-1.6959842	PUNCT SCONJ PUNCT
-1.4952337	NUM SCONJ PUNCT
-2.020755	ADJ SCONJ PUNCT
-2.1498356	SCONJ SCONJ PUNCT
-1.4304181	VERB SCONJ PUNCT
-1.7491429	PART SCONJ PUNCT
-1.9873866	ADV SCONJ PUNCT
-1.5661021	AUX SCONJ PUNCT
-1.5153642	PRON SCONJ PUNCT
-1.3464208	<s> VERB PUNCT
-1.3163095	ADP VERB PUNCT
-1.3719368	DET VERB PUNCT
-0.9514929	PROPN VERB PUNCT
-1.2299522	CCONJ VERB PUNCT
-1.1309861	NOUN VERB PUNCT
-1.1121418	PUNCT VERB PUNCT
-0.95946395	NUM VERB PUNCT
-1.1156671	ADJ VERB PUNCT
-1.1965859	SCONJ VERB PUNCT
-1.153282	VERB VERB PUNCT
-1.1813751	PART VERB PUNCT
-1.0979867	ADV VERB PUNCT
-1.0288808	AUX VERB PUNCT
-1.0614648	PRON VERB PUNCT
-1.2529391	INTJ VERB PUNCT
-1.0100584	X VERB PUNCT
-1.1921171	SYM VERB PUNCT
-2.1482084	<s> PART PUNCT
-2.0362463	ADP PART PUNCT
-1.1941437	DET PART PUNCT
-1.6505266	PROPN PART PUNCT
-0.87597954	CCONJ PART PUNCT
-2.0548744	NOUN PART PUNCT
-1.5503846	PUNCT PART PUNCT
-1.5475736	NUM PART PUNCT
-2.3234138	ADJ PART PUNCT
-1.18674	SCONJ PART PUNCT
-1.8845681	VERB PART PUNCT
-2.0727186	PART PART PUNCT
-1.7089065	ADV PART PUNCT
-1.9320437	AUX PART PUNCT
-1.8612747	PRON PART PUNCT
-0.44141728	<s> ADV PUNCT
-0.7721281	ADP ADV PUNCT
-0.85489076	DET ADV PUNCT
-0.87486815	PROPN ADV PUNCT
-0.9264512	CCONJ ADV PUNCT
-0.61482215	NOUN ADV PUNCT
-0.7794719	PUNCT ADV PUNCT
-0.6996617	NUM ADV PUNCT
-0.5838388	ADJ ADV PUNCT
-0.7707975	SCONJ ADV PUNCT
-0.7746172	VERB ADV PUNCT
-1.3262783	PART ADV PUNCT
-0.5557704	ADV ADV PUNCT
-1.7947774	AUX ADV PUNCT
-0.9914315	PRON ADV PUNCT
-0.69954795	INTJ ADV PUNCT
-0.7968385	X ADV PUNCT
-0.63336927	SYM ADV PUNCT
-2.2295096	<s> AUX PUNCT
-1.8706516	ADP AUX PUNCT
-2.1582403	DET AUX PUNCT
-2.057015	PROPN AUX PUNCT
-2.2396863	CCONJ AUX PUNCT
-1.899212	NOUN AUX PUNCT
-1.9436854	PUNCT AUX PUNCT
-1.6966417	NUM AUX PUNCT
-2.0153904	ADJ AUX PUNCT
-1.6683149	SCONJ AUX PUNCT
-1.5923059	VERB AUX PUNCT
-2.3091996	PART AUX PUNCT
-1.931423	ADV AUX PUNCT
-2.5590613	AUX AUX PUNCT
-1.932637	PRON AUX PUNCT
-1.2549052	X AUX PUNCT
-2.206617	<s> PRON PUNCT
-0.94050294	ADP PRON PUNCT
-2.0813856	DET PRON PUNCT
-1.1998187	PROPN PRON PUNCT
-1.8932012	CCONJ PRON PUNCT
-1.5805635	NOUN PRON PUNCT
-2.0314715	PUNCT PRON PUNCT
-1.6360694	NUM PRON PUNCT
-1.2159563	ADJ PRON PUNCT
-1.9978218	SCONJ PRON PUNCT
-0.980606	VERB PRON PUNCT
-0.9267549	PART PRON PUNCT
-1.9193537	ADV PRON PUNCT
-1.5628892	AUX PRON PUNCT
-1.8181795	PRON PRON PUNCT
-1.2237128	INTJ PRON PUNCT
-1.2138593	X PRON PUNCT
-1.5720087	SYM PRON PUNCT
-0.30759767	<s> INTJ PUNCT
-0.86593735	ADP INTJ PUNCT
-0.6370353	DET INTJ PUNCT
-0.5000871	PROPN INTJ PUNCT
-0.19916373	CCONJ INTJ PUNCT
-1.0289469	NOUN INTJ PUNCT
-0.23175214	PUNCT INTJ PUNCT
-0.65521866	NUM INTJ PUNCT
-0.67472386	ADJ INTJ PUNCT
-0.57726383	SCONJ INTJ PUNCT
-0.49649405	VERB INTJ PUNCT
-0.6466614	PART INTJ PUNCT
-0.59853137	ADV INTJ PUNCT
-0.43389988	AUX INTJ PUNCT
-0.66681737	PRON INTJ PUNCT
-0.40756762	INTJ INTJ PUNCT
-0.9536035	X INTJ PUNCT
-0.65521866	SYM INTJ PUNCT
-0.18025076	<s> X PUNCT
-0.44421333	ADP X PUNCT
-0.9220196	DET X PUNCT
-0.9545594	PROPN X PUNCT
-0.19208252	CCONJ X PUNCT
-0.6330968	NOUN X PUNCT
-0.38117093	PUNCT X PUNCT
-1.0237983	ADJ X PUNCT
-0.6082616	VERB X PUNCT
-1.2801639	ADV X PUNCT
-1.0829666	AUX X PUNCT
-0.61212665	PRON X PUNCT
-1.1451888	INTJ X PUNCT
-0.52466947	X X PUNCT
-2.367403	<s> SYM PUNCT
-2.642823	ADP SYM PUNCT
-2.5037217	CCONJ SYM PUNCT
-2.6250243	NOUN SYM PUNCT
-2.5812948	PUNCT SYM PUNCT
-1.295068	<s> ADP NUM
-1.1653215	ADP ADP NUM
-1.7406341	DET ADP NUM
-1.3516912	PROPN ADP NUM
-1.427633	CCONJ ADP NUM
-1.5868068	NOUN ADP NUM
-1.397514	PUNCT ADP NUM
-1.1275988	NUM ADP NUM
-1.6787752	ADJ ADP NUM
-1.2441279	SCONJ ADP NUM
-1.5089294	VERB ADP NUM
-1.9225496	PART ADP NUM
-1.4526639	ADV ADP NUM
-1.5285978	AUX ADP NUM
-1.7011313	PRON ADP NUM
-1.1355181	INTJ ADP NUM
-1.1427177	X ADP NUM
-1.8290559	<s> DET NUM
-1.7591753	ADP DET NUM
-1.9169667	DET DET NUM
-2.1657517	PROPN DET NUM
-1.9538387	CCONJ DET NUM
-2.2720292	NOUN DET NUM
-1.8269967	PUNCT DET NUM
-2.241063	NUM DET NUM
-1.7138766	ADJ DET NUM
-1.7266297	SCONJ DET NUM
-1.9227002	VERB DET NUM
-2.104202	PART DET NUM
-1.8925171	ADV DET NUM
-1.9403816	AUX DET NUM
-2.3667474	PRON DET NUM
-1.6541463	INTJ DET NUM
-2.178268	<s> PROPN NUM
-1.2776287	ADP PROPN NUM
-1.9434757	DET PROPN NUM
-2.0218122	PROPN PROPN NUM
-2.155952	CCONJ PROPN NUM
-1.7850438	NOUN PROPN NUM
-1.3578407	PUNCT PROPN NUM
-1.0803778	NUM PROPN NUM
-1.8437121	ADJ PROPN NUM
-1.3975095	SCONJ PROPN NUM
-1.843937	VERB PROPN NUM
-2.1870024	PART PROPN NUM
-2.1962142	ADV PROPN NUM
-1.5879753	AUX PROPN NUM
-1.8561646	PRON PROPN NUM
-2.142348	X PROPN NUM
-1.5163492	SYM PROPN NUM
-2.1526296	<s> CCONJ NUM
-2.1664493	ADP CCONJ NUM
-1.6512758	DET CCONJ NUM
-2.0664062	PROPN CCONJ NUM
-1.8802903	NOUN CCONJ NUM
-1.8463614	PUNCT CCONJ NUM
-0.4432596	NUM CCONJ NUM
-2.202272	ADJ CCONJ NUM
-1.9163685	SCONJ CCONJ NUM
-1.9838369	VERB CCONJ NUM
-1.5178146	PART CCONJ NUM
-2.503616	ADV CCONJ NUM
-1.5941038	AUX CCONJ NUM
-2.0601335	PRON CCONJ NUM
-1.4167982	X CCONJ NUM
-1.9381478	<s> NOUN NUM
-2.3936937	ADP NOUN NUM
-2.8235328	DET NOUN NUM
-1.9647423	PROPN NOUN NUM
-1.6424801	CCONJ NOUN NUM
-2.564502	NOUN NOUN NUM
-2.3763175	PUNCT NOUN NUM
-2.5708938	NUM NOUN NUM
-3.0491452	ADJ NOUN NUM
-2.389036	SCONJ NOUN NUM
-2.5369573	VERB NOUN NUM
-2.871253	PART NOUN NUM
-2.3105018	ADV NOUN NUM
-2.334712	AUX NOUN NUM
-2.8988512	PRON NOUN NUM
-2.135002	INTJ NOUN NUM
-2.2892344	X NOUN NUM
-1.72893	SYM NOUN NUM
-1.9028898	<s> PUNCT NUM
-1.8846408	ADP PUNCT NUM
-1.7125959	DET PUNCT NUM
-1.7695358	PROPN PUNCT NUM
-2.246621	CCONJ PUNCT NUM
-2.0557697	NOUN PUNCT NUM
-2.093748	PUNCT PUNCT NUM
-0.7752623	NUM PUNCT NUM
-2.0907636	ADJ PUNCT NUM
-1.8233666	SCONJ PUNCT NUM
-2.1959224	VERB PUNCT NUM
-2.0810761	PART PUNCT NUM
-2.0654535	ADV PUNCT NUM
-2.177561	AUX PUNCT NUM
-2.3427064	PRON PUNCT NUM
-1.909342	INTJ PUNCT NUM
-1.8659543	X PUNCT NUM
-1.8022804	<s> NUM NUM
-1.517985	ADP NUM NUM
-1.6042155	DET NUM NUM
-1.8726299	PROPN NUM NUM
-1.4045366	CCONJ NUM NUM
-1.7323682	NOUN NUM NUM
-1.6673319	PUNCT NUM NUM
-1.5535661	NUM NUM NUM
-1.943353	ADJ NUM NUM
-1.1002686	SCONJ NUM NUM
-1.177969	VERB NUM NUM
-1.2213539	PART NUM NUM
-1.1659927	ADV NUM NUM
-1.4830053	AUX NUM NUM
-1.6641089	PRON NUM NUM
-0.6519245	SYM NUM NUM
-2.5341492	<s> ADJ NUM
-2.3641238	ADP ADJ NUM
-1.7452694	DET ADJ NUM
-2.314981	PROPN ADJ NUM
-2.4791498	CCONJ ADJ NUM
-2.7756643	NOUN ADJ NUM
-2.3356757	PUNCT ADJ NUM
-2.4772062	NUM ADJ NUM
-2.970142	ADJ ADJ NUM
-2.8535953	SCONJ ADJ NUM
-2.7962449	VERB ADJ NUM
-2.1303394	PART ADJ NUM
-2.3739626	ADV ADJ NUM
-2.816693	AUX ADJ NUM
-2.4803808	PRON ADJ NUM
-1.898137	X ADJ NUM
-1.7277408	<s> SCONJ NUM
-1.7058356	ADP SCONJ NUM
-1.5763559	DET SCONJ NUM
-1.2148794	PROPN SCONJ NUM
-2.0233557	CCONJ SCONJ NUM
-1.5551238	NOUN SCONJ NUM
-1.8466228	PUNCT SCONJ NUM
-1.4145662	NUM SCONJ NUM
-0.5047143	ADJ SCONJ NUM
-2.1370316	SCONJ SCONJ NUM
-1.704334	VERB SCONJ NUM
-1.722543	PART SCONJ NUM
-1.937477	ADV SCONJ NUM
-1.8878618	AUX SCONJ NUM
-1.9684649	PRON SCONJ NUM
-1.2697129	INTJ SCONJ NUM
-2.1506934	<s> VERB NUM
-2.0424585	ADP VERB NUM
-1.6583563	DET VERB NUM
-1.7633551	PROPN VERB NUM
-1.9644666	CCONJ VERB NUM
-1.8565489	NOUN VERB NUM
-1.8309888	PUNCT VERB NUM
-1.7166189	NUM VERB NUM
-2.1370814	ADJ VERB NUM
-2.1576066	SCONJ VERB NUM
-2.0034516	VERB VERB NUM
-2.06433	PART VERB NUM
-1.8909404	ADV VERB NUM
-1.9176337	AUX VERB NUM
-1.9230847	PRON VERB NUM
-2.2600715	INTJ VERB NUM
-1.6858165	X VERB NUM
-1.4974686	SYM VERB NUM
-2.2686017	<s> PART NUM
-0.8567619	ADP PART NUM
-1.9326798	PROPN PART NUM
-2.2023447	CCONJ PART NUM
-2.376462	NOUN PART NUM
-2.6404774	PUNCT PART NUM
-0.3979585	NUM PART NUM
-2.4725134	ADJ PART NUM
-2.0276072	SCONJ PART NUM
-3.004338	VERB PART NUM
-2.1135614	ADV PART NUM
-2.9179137	AUX PART NUM
-2.9055362	PRON PART NUM
-1.7208885	<s> ADV NUM
-0.9217078	ADP ADV NUM
-2.4160483	DET ADV NUM
-2.2116792	PROPN ADV NUM
-1.7784942	CCONJ ADV NUM
-2.258939	NOUN ADV NUM
-1.5246451	PUNCT ADV NUM
-1.5794955	NUM ADV NUM
-1.8897991	ADJ ADV NUM
-1.1122485	SCONJ ADV NUM
-1.54245	VERB ADV NUM
-2.4125378	PART ADV NUM
-1.4768099	ADV ADV NUM
-1.8346086	AUX ADV NUM
-2.4722617	PRON ADV NUM
-1.6600666	INTJ ADV NUM
-2.748735	<s> AUX NUM
-2.1937106	DET AUX NUM
-1.9065576	PROPN AUX NUM
-2.225388	NOUN AUX NUM
-2.0124795	PUNCT AUX NUM
-1.9989204	NUM AUX NUM
-2.2675645	ADJ AUX NUM
-1.9101593	VERB AUX NUM
-2.059965	ADV AUX NUM
-2.010019	PRON AUX NUM
-3.2718287	<s> PRON NUM
-2.1315904	ADP PRON NUM
-2.5964832	CCONJ PRON NUM
-3.7558997	NOUN PRON NUM
-3.1666818	PUNCT PRON NUM
-3.2042103	SCONJ PRON NUM
-2.2930381	VERB PRON NUM
-2.8852386	ADV PRON NUM
-3.2478857	AUX PRON NUM
-3.2430952	PRON PRON NUM
-2.8605487	<s> INTJ NUM
-1.4865826	ADP INTJ NUM
-1.7269263	PROPN INTJ NUM
-2.0316207	VERB INTJ NUM
-1.7022895	ADV INTJ NUM
-1.5465806	PRON INTJ NUM
-2.0975678	ADP X NUM
-2.3996453	NOUN X NUM
-2.3637683	PUNCT X NUM
-1.4602559	ADV X NUM
-2.1434126	X X NUM
-0.7245052	SYM X NUM
-1.3990848	<s> SYM NUM
-0.46404994	ADP SYM NUM
-0.31408525	DET SYM NUM
-1.0804394	PROPN SYM NUM
-0.06825716	CCONJ SYM NUM
-1.0667481	NOUN SYM NUM
-0.5261897	PUNCT SYM NUM
-0.023965813	NUM SYM NUM
-0.67793185	ADJ SYM NUM
-0.05977713	SCONJ SYM NUM
-0.38108325	VERB SYM NUM
-0.032539524	PART SYM NUM
-0.09929527	ADV SYM NUM
-0.3136543	AUX SYM NUM
-0.8158399	PRON SYM NUM
-0.8242251	X SYM NUM
-0.6753377	SYM SYM NUM
-1.1292222	<s> ADP ADJ
-1.0727715	ADP ADP ADJ
-1.2981446	DET ADP ADJ
-1.4399598	PROPN ADP ADJ
-0.96391475	CCONJ ADP ADJ
-1.0072424	NOUN ADP ADJ
-1.0866094	PUNCT ADP ADJ
-1.4889493	NUM ADP ADJ
-1.0998747	ADJ ADP ADJ
-1.1990539	SCONJ ADP ADJ
-1.0903409	VERB ADP ADJ
-1.0446259	PART ADP ADJ
-1.0921451	ADV ADP ADJ
-1.075488	AUX ADP ADJ
-1.1684643	PRON ADP ADJ
-1.2230992	INTJ ADP ADJ
-1.2868807	X ADP ADJ
-1.2352326	SYM ADP ADJ
-0.7366162	<s> DET ADJ
-0.6582042	ADP DET ADJ
-0.6896793	DET DET ADJ
-0.9202894	PROPN DET ADJ
-0.67520833	CCONJ DET ADJ
-1.204714	NOUN DET ADJ
-0.7047906	PUNCT DET ADJ
-1.1091399	NUM DET ADJ
-0.8427508	ADJ DET ADJ
-0.71164536	SCONJ DET ADJ
-0.60413927	VERB DET ADJ
-0.4356317	PART DET ADJ
-0.61038864	ADV DET ADJ
-0.46474838	AUX DET ADJ
-0.77893525	PRON DET ADJ
-0.85526955	INTJ DET ADJ
-0.89763606	X DET ADJ
-1.0236301	SYM DET ADJ
-2.4357343	<s> PROPN ADJ
-2.2852073	ADP PROPN ADJ
-2.019401	DET PROPN ADJ
-2.4069402	PROPN PROPN ADJ
-2.292399	CCONJ PROPN ADJ
-2.3905215	NOUN PROPN ADJ
-2.4237661	PUNCT PROPN ADJ
-1.7905846	NUM PROPN ADJ
-2.0427363	ADJ PROPN ADJ
-2.5018883	SCONJ PROPN ADJ
-1.9811064	VERB PROPN ADJ
-2.1159477	PART PROPN ADJ
-2.6932707	ADV PROPN ADJ
-1.6859155	AUX PROPN ADJ
-2.0582433	PRON PROPN ADJ
-1.7779061	X PROPN ADJ
-2.0217264	SYM PROPN ADJ
-1.4654703	<s> CCONJ ADJ
-1.1134177	ADP CCONJ ADJ
-0.8675884	DET CCONJ ADJ
-1.3458942	PROPN CCONJ ADJ
-0.89510864	CCONJ CCONJ ADJ
-0.96989816	NOUN CCONJ ADJ
-1.2129691	PUNCT CCONJ ADJ
-1.2635667	NUM CCONJ ADJ
-0.23556133	ADJ CCONJ ADJ
-1.8865674	SCONJ CCONJ ADJ
-1.3768247	VERB CCONJ ADJ
-1.003394	PART CCONJ ADJ
-1.3468826	ADV CCONJ ADJ
-1.1686652	AUX CCONJ ADJ
-1.6433142	PRON CCONJ ADJ
-1.3113796	INTJ CCONJ ADJ
-0.9360971	X CCONJ ADJ
-2.22968	<s> NOUN ADJ
-2.0758288	ADP NOUN ADJ
-2.1466637	DET NOUN ADJ
-2.1804624	PROPN NOUN ADJ
-2.2299974	CCONJ NOUN ADJ
-1.9563626	NOUN NOUN ADJ
-1.7592677	PUNCT NOUN ADJ
-1.5409336	NUM NOUN ADJ
-2.1006727	ADJ NOUN ADJ
-2.389036	SCONJ NOUN ADJ
-1.9129081	VERB NOUN ADJ
-2.2699375	PART NOUN ADJ
-1.9589164	ADV NOUN ADJ
-1.869893	AUX NOUN ADJ
-2.2033627	PRON NOUN ADJ
-1.167658	INTJ NOUN ADJ
-1.7826868	X NOUN ADJ
-2.3068032	SYM NOUN ADJ
-1.3965725	<s> PUNCT ADJ
-1.0232874	ADP PUNCT ADJ
-0.70859593	DET PUNCT ADJ
-1.7199016	PROPN PUNCT ADJ
-0.9852184	CCONJ PUNCT ADJ
-1.5095984	NOUN PUNCT ADJ
-1.791223	PUNCT PUNCT ADJ
-1.582714	NUM PUNCT ADJ
-0.9603846	ADJ PUNCT ADJ
-1.2878332	SCONJ PUNCT ADJ
-1.5138782	VERB PUNCT ADJ
-1.2186857	PART PUNCT ADJ
-1.3974854	ADV PUNCT ADJ
-1.1768891	AUX PUNCT ADJ
-1.7033403	PRON PUNCT ADJ
-1.6220222	INTJ PUNCT ADJ
-1.628167	X PUNCT ADJ
-1.1165762	<s> NUM ADJ
-1.2292835	ADP NUM ADJ
-1.1219015	DET NUM ADJ
-1.9870737	PROPN NUM ADJ
-1.0895774	CCONJ NUM ADJ
-1.9067595	NOUN NUM ADJ
-1.4720533	PUNCT NUM ADJ
-1.164296	NUM NUM ADJ
-1.4302676	ADJ NUM ADJ
-1.2292491	SCONJ NUM ADJ
-1.019314	VERB NUM ADJ
-1.115154	PART NUM ADJ
-1.1428932	ADV NUM ADJ
-1.063756	AUX NUM ADJ
-1.0870247	PRON NUM ADJ
-1.0108906	INTJ NUM ADJ
-1.7662591	SYM NUM ADJ
-1.0524267	<s> ADJ ADJ
-1.0526171	ADP ADJ ADJ
-1.0730773	DET ADJ ADJ
-1.1161757	PROPN ADJ ADJ
-1.0534606	CCONJ ADJ ADJ
-1.3692304	NOUN ADJ ADJ
-1.1210226	PUNCT ADJ ADJ
-1.0379374	NUM ADJ ADJ
-0.7559378	ADJ ADJ ADJ
-1.0772958	SCONJ ADJ ADJ
-1.2797761	VERB ADJ ADJ
-1.139219	PART ADJ ADJ
-1.3819207	ADV ADJ ADJ
-1.6817495	AUX ADJ ADJ
-1.225497	PRON ADJ ADJ
-1.3512701	INTJ ADJ ADJ
-1.1832292	X ADJ ADJ
-0.9891145	SYM ADJ ADJ
-1.1750929	<s> SCONJ ADJ
-1.2932878	ADP SCONJ ADJ
-1.5897609	DET SCONJ ADJ
-1.4137129	PROPN SCONJ ADJ
-1.2726483	CCONJ SCONJ ADJ
-1.2291725	NOUN SCONJ ADJ
-1.2125375	PUNCT SCONJ ADJ
-1.3037698	NUM SCONJ ADJ
-1.2754059	ADJ SCONJ ADJ
-1.2594194	SCONJ SCONJ ADJ
-1.2387925	VERB SCONJ ADJ
-1.7356393	PART SCONJ ADJ
-1.2654068	ADV SCONJ ADJ
-1.1941073	AUX SCONJ ADJ
-1.3990405	PRON SCONJ ADJ
-1.374935	<s> VERB ADJ
-1.0403707	ADP VERB ADJ
-0.98515147	DET VERB ADJ
-1.3285301	PROPN VERB ADJ
-1.1002829	CCONJ VERB ADJ
-1.1653969	NOUN VERB ADJ
-1.2117561	PUNCT VERB ADJ
-1.1405997	NUM VERB ADJ
-1.183259	ADJ VERB ADJ
-1.0899478	SCONJ VERB ADJ
-1.1332731	VERB VERB ADJ
-1.0877857	PART VERB ADJ
-1.194467	ADV VERB ADJ
-1.1410708	AUX VERB ADJ
-1.0988604	PRON VERB ADJ
-1.082681	INTJ VERB ADJ
-0.8800797	X VERB ADJ
-0.9973369	SYM VERB ADJ
-1.5984161	<s> PART ADJ
-1.8739057	ADP PART ADJ
-1.4677771	DET PART ADJ
-0.8081105	PROPN PART ADJ
-1.1978269	CCONJ PART ADJ
-1.2152269	NOUN PART ADJ
-1.3927524	PUNCT PART ADJ
-1.6856825	NUM PART ADJ
-2.321679	ADJ PART ADJ
-0.9757055	SCONJ PART ADJ
-1.6144927	VERB PART ADJ
-2.6799848	PART PART ADJ
-1.4259317	ADV PART ADJ
-1.2399215	AUX PART ADJ
-1.5788281	PRON PART ADJ
-1.0663825	X PART ADJ
-1.3922739	<s> ADV ADJ
-0.81772995	ADP ADV ADJ
-0.26908612	DET ADV ADJ
-1.7877598	PROPN ADV ADJ
-0.990825	CCONJ ADV ADJ
-1.3793244	NOUN ADV ADJ
-1.1101236	PUNCT ADV ADJ
-0.7696737	NUM ADV ADJ
-1.0161979	ADJ ADV ADJ
-1.1177351	SCONJ ADV ADJ
-0.6993832	VERB ADV ADJ
-0.70841354	PART ADV ADJ
-0.93493813	ADV ADV ADJ
-0.77154297	AUX ADV ADJ
-1.1725776	PRON ADV ADJ
-1.3871751	INTJ ADV ADJ
-0.9165486	X ADV ADJ
-1.1480441	SYM ADV ADJ
-1.7648095	<s> AUX ADJ
-1.8752109	ADP AUX ADJ
-1.4755864	DET AUX ADJ
-1.3033098	PROPN AUX ADJ
-2.638159	CCONJ AUX ADJ
-1.228904	NOUN AUX ADJ
-1.4028486	PUNCT AUX ADJ
-1.2334766	NUM AUX ADJ
-1.1188351	ADJ AUX ADJ
-1.1039816	VERB AUX ADJ
-2.5646446	PART AUX ADJ
-1.5945145	ADV AUX ADJ
-2.6285343	AUX AUX ADJ
-1.1451659	PRON AUX ADJ
-1.2677939	X AUX ADJ
-1.8452426	<s> PRON ADJ
-0.81608164	ADP PRON ADJ
-1.66295	DET PRON ADJ
-1.9058766	PROPN PRON ADJ
-1.3508824	CCONJ PRON ADJ
-2.1629155	NOUN PRON ADJ
-1.8011144	PUNCT PRON ADJ
-1.6360694	NUM PRON ADJ
-1.6988987	ADJ PRON ADJ
-1.725191	SCONJ PRON ADJ
-0.989528	VERB PRON ADJ
-1.0217503	PART PRON ADJ
-1.7946677	ADV PRON ADJ
-1.044328	AUX PRON ADJ
-1.8463656	PRON PRON ADJ
-2.0068746	INTJ PRON ADJ
-1.2138593	X PRON ADJ
-0.649755	SYM PRON ADJ
-2.189553	<s> INTJ ADJ
-1.0626014	DET INTJ ADJ
-1.6075906	PROPN INTJ ADJ
-1.7630807	CCONJ INTJ ADJ
-1.8953528	NOUN INTJ ADJ
-1.9128698	PUNCT INTJ ADJ
-0.8689237	NUM INTJ ADJ
-1.6603338	VERB INTJ ADJ
-1.6060321	ADV INTJ ADJ
-1.459947	INTJ INTJ ADJ
-1.7646544	<s> X ADJ
-1.4542171	ADP X ADJ
-1.3874024	DET X ADJ
-1.6195576	PROPN X ADJ
-1.0480919	NOUN X ADJ
-1.6129235	PUNCT X ADJ
-0.82773787	ADJ X ADJ
-1.3753594	VERB X ADJ
-1.0258869	ADV X ADJ
-0.9835085	AUX X ADJ
-0.9831203	PRON X ADJ
-0.5596627	INTJ X ADJ
-1.1708428	X X ADJ
-1.9116868	<s> SYM ADJ
-1.7852211	ADP SYM ADJ
-1.5915548	DET SYM ADJ
-1.7982881	PROPN SYM ADJ
-2.3508358	CCONJ SYM ADJ
-1.2839761	NOUN SYM ADJ
-1.6338047	PUNCT SYM ADJ
-0.3862219	ADJ SYM ADJ
-1.7844831	VERB SYM ADJ
-1.8392003	ADV SYM ADJ
-1.6360077	PRON SYM ADJ
-0.8101211	INTJ SYM ADJ
-2.8399303	<s> ADP SCONJ
-2.4610736	ADP ADP SCONJ
-2.82652	DET ADP SCONJ
-3.17584	PROPN ADP SCONJ
-3.002143	CCONJ ADP SCONJ
-3.1322148	NOUN ADP SCONJ
-2.4622242	PUNCT ADP SCONJ
-3.391982	NUM ADP SCONJ
-2.8490968	ADJ ADP SCONJ
-3.1801767	SCONJ ADP SCONJ
-2.1539528	VERB ADP SCONJ
-1.864508	PART ADP SCONJ
-2.5053785	ADV ADP SCONJ
-2.1989877	AUX ADP SCONJ
-2.445646	PRON ADP SCONJ
-1.2552761	SYM ADP SCONJ
-4.133264	<s> DET SCONJ
-3.6137187	ADP DET SCONJ
-3.2204401	DET DET SCONJ
-3.3145037	PUNCT DET SCONJ
-2.446204	NUM DET SCONJ
-3.839374	SCONJ DET SCONJ
-3.5663862	VERB DET SCONJ
-3.6777713	ADV DET SCONJ
-3.821097	AUX DET SCONJ
-3.1979885	PRON DET SCONJ
-3.3666987	<s> PROPN SCONJ
-2.1879995	ADP PROPN SCONJ
-2.6537628	DET PROPN SCONJ
-2.5468175	PROPN PROPN SCONJ
-2.5111282	CCONJ PROPN SCONJ
-2.718417	NOUN PROPN SCONJ
-3.468971	PUNCT PROPN SCONJ
-2.451567	NUM PROPN SCONJ
-2.4045393	ADJ PROPN SCONJ
-3.2191818	SCONJ PROPN SCONJ
-2.0703619	VERB PROPN SCONJ
-3.0948575	PART PROPN SCONJ
-2.9110837	ADV PROPN SCONJ
-2.824425	PRON PROPN SCONJ
-1.8407168	INTJ PROPN SCONJ
-2.143653	X PROPN SCONJ
-1.88616	SYM PROPN SCONJ
-1.33883	<s> CCONJ SCONJ
-1.5743825	ADP CCONJ SCONJ
-1.9308761	DET CCONJ SCONJ
-2.5432553	PROPN CCONJ SCONJ
-1.5290022	CCONJ CCONJ SCONJ
-2.1700757	NOUN CCONJ SCONJ
-1.5667629	PUNCT CCONJ SCONJ
-2.1840985	NUM CCONJ SCONJ
-2.2963893	ADJ CCONJ SCONJ
-1.974948	VERB CCONJ SCONJ
-1.9025705	PART CCONJ SCONJ
-1.9163816	ADV CCONJ SCONJ
-1.960887	AUX CCONJ SCONJ
-1.9327866	PRON CCONJ SCONJ
-1.2361864	INTJ CCONJ SCONJ
-2.7336154	<s> NOUN SCONJ
-1.9823166	ADP NOUN SCONJ
-1.864852	DET NOUN SCONJ
-2.1586823	PROPN NOUN SCONJ
-2.28782	CCONJ NOUN SCONJ
-2.1014795	NOUN NOUN SCONJ
-2.6649764	PUNCT NOUN SCONJ
-2.0464642	NUM NOUN SCONJ
-1.9865808	ADJ NOUN SCONJ
-2.439207	SCONJ NOUN SCONJ
-1.8657681	VERB NOUN SCONJ
-1.8964763	PART NOUN SCONJ
-2.049411	ADV NOUN SCONJ
-1.6891701	AUX NOUN SCONJ
-1.9025105	PRON NOUN SCONJ
-2.2373312	X NOUN SCONJ
-2.4453528	SYM NOUN SCONJ
-1.5936617	<s> PUNCT SCONJ
-2.0998902	ADP PUNCT SCONJ
-1.975971	DET PUNCT SCONJ
-2.1888819	PROPN PUNCT SCONJ
-1.4512022	CCONJ PUNCT SCONJ
-1.939244	NOUN PUNCT SCONJ
-2.0651817	PUNCT PUNCT SCONJ
-2.1807244	NUM PUNCT SCONJ
-1.7932959	ADJ PUNCT SCONJ
-1.3445021	SCONJ PUNCT SCONJ
-1.887248	VERB PUNCT SCONJ
-2.0813828	PART PUNCT SCONJ
-1.724381	ADV PUNCT SCONJ
-2.0014622	AUX PUNCT SCONJ
-1.7941055	PRON PUNCT SCONJ
-1.7115927	INTJ PUNCT SCONJ
-2.0632396	X PUNCT SCONJ
-2.415051	<s> NUM SCONJ
-2.3408444	ADP NUM SCONJ
-3.367084	DET NUM SCONJ
-2.1367607	PROPN NUM SCONJ
-2.8052502	CCONJ NUM SCONJ
-2.8001187	NOUN NUM SCONJ
-2.4595037	PUNCT NUM SCONJ
-2.928446	NUM NUM SCONJ
-2.3143282	ADJ NUM SCONJ
-2.2025352	SCONJ NUM SCONJ
-2.3506582	VERB NUM SCONJ
-2.5620873	PART NUM SCONJ
-2.3933558	ADV NUM SCONJ
-2.5062325	SYM NUM SCONJ
-1.6108675	<s> ADJ SCONJ
-1.7658933	ADP ADJ SCONJ
-2.7997541	DET ADJ SCONJ
-1.7349594	PROPN ADJ SCONJ
-1.9457084	CCONJ ADJ SCONJ
-1.3888241	NOUN ADJ SCONJ
-1.7207439	PUNCT ADJ SCONJ
-2.78586	NUM ADJ SCONJ
-2.6272645	ADJ ADJ SCONJ
-1.6244066	SCONJ ADJ SCONJ
-1.3858813	VERB ADJ SCONJ
-1.6290923	PART ADJ SCONJ
-1.2773724	ADV ADJ SCONJ
-1.0411536	AUX ADJ SCONJ
-1.7552305	PRON ADJ SCONJ
-1.460815	INTJ ADJ SCONJ
-1.8694438	X ADJ SCONJ
-1.9385237	SYM ADJ SCONJ
-2.4486976	<s> SCONJ SCONJ
-1.6589205	ADP SCONJ SCONJ
-1.7221774	DET SCONJ SCONJ
-1.5941226	PROPN SCONJ SCONJ
-2.4554663	CCONJ SCONJ SCONJ
-1.5197029	NOUN SCONJ SCONJ
-1.5264608	PUNCT SCONJ SCONJ
-2.013507	NUM SCONJ SCONJ
-2.2119849	ADJ SCONJ SCONJ
-1.6397899	VERB SCONJ SCONJ
-1.8816657	ADV SCONJ SCONJ
-1.7808766	AUX SCONJ SCONJ
-1.4754142	PRON SCONJ SCONJ
-1.8499613	<s> VERB SCONJ
-1.8830184	ADP VERB SCONJ
-1.6483444	DET VERB SCONJ
-1.0841587	PROPN VERB SCONJ
-1.4986421	CCONJ VERB SCONJ
-1.3720652	NOUN VERB SCONJ
-1.3741469	PUNCT VERB SCONJ
-1.3630008	NUM VERB SCONJ
-1.2350034	ADJ VERB SCONJ
-2.0174413	SCONJ VERB SCONJ
-1.775164	VERB VERB SCONJ
-1.6065602	PART VERB SCONJ
-1.3743734	ADV VERB SCONJ
-1.5368361	AUX VERB SCONJ
-1.3051465	PRON VERB SCONJ
-1.6780427	INTJ VERB SCONJ
-1.5305058	X VERB SCONJ
-1.5849724	SYM VERB SCONJ
-1.7293261	<s> PART SCONJ
-2.6402736	ADP PART SCONJ
-3.6256742	PROPN PART SCONJ
-2.214822	CCONJ PART SCONJ
-3.5765877	NOUN PART SCONJ
-2.113406	PUNCT PART SCONJ
-3.361592	ADJ PART SCONJ
-3.2915547	VERB PART SCONJ
-2.9984758	ADV PART SCONJ
-2.604277	AUX PART SCONJ
-3.0337217	PRON PART SCONJ
-1.5648911	<s> ADV SCONJ
-2.298771	ADP ADV SCONJ
-2.5725582	DET ADV SCONJ
-1.8455883	PROPN ADV SCONJ
-1.8121959	CCONJ ADV SCONJ
-1.6246511	NOUN ADV SCONJ
-1.4315586	PUNCT ADV SCONJ
-2.2932086	NUM ADV SCONJ
-1.4956908	ADJ ADV SCONJ
-1.4354415	SCONJ ADV SCONJ
-1.7412319	VERB ADV SCONJ
-2.033936	PART ADV SCONJ
-1.7149137	ADV ADV SCONJ
-2.514312	AUX ADV SCONJ
-2.03077	PRON ADV SCONJ
-2.9759107	<s> AUX SCONJ
-2.1599636	ADP AUX SCONJ
-2.0985599	DET AUX SCONJ
-2.5184157	PROPN AUX SCONJ
-2.9155133	CCONJ AUX SCONJ
-1.9516059	NOUN AUX SCONJ
-2.0606794	PUNCT AUX SCONJ
-2.4699006	NUM AUX SCONJ
-1.2911981	ADJ AUX SCONJ
-1.170825	VERB AUX SCONJ
-2.1124334	ADV AUX SCONJ
-2.7404995	PRON AUX SCONJ
-3.0543284	<s> PRON SCONJ
-2.2236598	ADP PRON SCONJ
-3.1983428	DET PRON SCONJ
-2.9658697	PROPN PRON SCONJ
-2.9572885	CCONJ PRON SCONJ
-3.6238904	NOUN PRON SCONJ
-3.0917237	PUNCT PRON SCONJ
-3.7542481	SCONJ PRON SCONJ
-1.7674927	VERB PRON SCONJ
-3.0076208	ADV PRON SCONJ
-1.8277904	AUX PRON SCONJ
-3.1064708	PRON PRON SCONJ
-2.2943397	<s> INTJ SCONJ
-1.315132	ADP INTJ SCONJ
-1.6656578	PROPN INTJ SCONJ
-1.8141551	CCONJ INTJ SCONJ
-2.6445863	PUNCT INTJ SCONJ
-1.9659905	VERB INTJ SCONJ
-1.6535074	ADV INTJ SCONJ
-1.4072015	AUX INTJ SCONJ
-2.156605	PROPN X SCONJ
-2.934156	PUNCT X SCONJ
-1.9259005	VERB X SCONJ
-1.5246477	<s> ADP VERB
-1.7848899	ADP ADP VERB
-1.7595465	DET ADP VERB
-1.57892	PROPN ADP VERB
-1.3676146	CCONJ ADP VERB
-1.4416195	NOUN ADP VERB
-1.3049635	PUNCT ADP VERB
-1.9164494	NUM ADP VERB
-1.2123009	ADJ ADP VERB
-1.629172	SCONJ ADP VERB
-1.502979	VERB ADP VERB
-1.4270493	PART ADP VERB
-1.2371503	ADV ADP VERB
-1.3926753	AUX ADP VERB
-1.1858065	PRON ADP VERB
-1.5012977	INTJ ADP VERB
-1.4681953	X ADP VERB
-1.4702532	<s> DET VERB
-1.7398607	ADP DET VERB
-1.3265854	DET DET VERB
-0.66907877	PROPN DET VERB
-1.2343949	CCONJ DET VERB
-0.4468306	NOUN DET VERB
-1.0180713	PUNCT DET VERB
-0.8702834	NUM DET VERB
-1.1630145	ADJ DET VERB
-1.4963844	SCONJ DET VERB
-1.7828925	VERB DET VERB
-1.648639	PART DET VERB
-1.5964233	ADV DET VERB
-1.458408	AUX DET VERB
-0.7777736	PRON DET VERB
-1.743103	INTJ DET VERB
-1.1132642	X DET VERB
-0.9001614	<s> PROPN VERB
-1.3630903	ADP PROPN VERB
-1.370656	DET PROPN VERB
-0.9951135	PROPN PROPN VERB
-1.1185212	CCONJ PROPN VERB
-1.1348965	NOUN PROPN VERB
-1.1577381	PUNCT PROPN VERB
-1.303802	NUM PROPN VERB
-1.2186589	ADJ PROPN VERB
-0.7514341	SCONJ PROPN VERB
-1.4875376	VERB PROPN VERB
-1.2841305	PART PROPN VERB
-0.6877007	ADV PROPN VERB
-0.8179662	AUX PROPN VERB
-1.0703963	PRON PROPN VERB
-0.8836113	INTJ PROPN VERB
-1.3551594	X PROPN VERB
-1.5031799	SYM PROPN VERB
-1.3818035	<s> CCONJ VERB
-0.46315452	ADP CCONJ VERB
-0.66057307	DET CCONJ VERB
-1.1715546	PROPN CCONJ VERB
-0.8222492	CCONJ CCONJ VERB
-0.77869415	NOUN CCONJ VERB
-0.8538108	PUNCT CCONJ VERB
-0.9487506	NUM CCONJ VERB
-1.012188	ADJ CCONJ VERB
-1.786845	SCONJ CCONJ VERB
-0.23330437	VERB CCONJ VERB
-0.8757572	PART CCONJ VERB
-0.62285656	ADV CCONJ VERB
-0.74918675	AUX CCONJ VERB
-0.5491391	PRON CCONJ VERB
-1.0324471	INTJ CCONJ VERB
-0.81939787	X CCONJ VERB
-0.8646362	<s> NOUN VERB
-1.2784883	ADP NOUN VERB
-1.0582814	DET NOUN VERB
-0.9712859	PROPN NOUN VERB
-1.2274232	CCONJ NOUN VERB
-1.0619293	NOUN NOUN VERB
-1.1633651	PUNCT NOUN VERB
-1.1431988	NUM NOUN VERB
-1.1342742	ADJ NOUN VERB
-0.7187046	SCONJ NOUN VERB
-1.3335673	VERB NOUN VERB
-1.1053587	PART NOUN VERB
-0.71221304	ADV NOUN VERB
-1.1522887	AUX NOUN VERB
-1.1096737	PRON NOUN VERB
-1.1982929	INTJ NOUN VERB
-1.1433003	X NOUN VERB
-1.399133	SYM NOUN VERB
-1.3025637	<s> PUNCT VERB
-1.1774222	ADP PUNCT VERB
-1.4084928	DET PUNCT VERB
-1.0905135	PROPN PUNCT VERB
-1.0013082	CCONJ PUNCT VERB
-1.1789267	NOUN PUNCT VERB
-1.1595988	PUNCT PUNCT VERB
-1.3238405	NUM PUNCT VERB
-1.3974305	ADJ PUNCT VERB
-1.3087454	SCONJ PUNCT VERB
-1.3301312	VERB PUNCT VERB
-0.61940765	PART PUNCT VERB
-1.0161767	ADV PUNCT VERB
-0.6853373	AUX PUNCT VERB
-1.2954048	PRON PUNCT VERB
-1.3527576	INTJ PUNCT VERB
-1.1066266	X PUNCT VERB
-0.93553275	SYM PUNCT VERB
-1.8450699	<s> NUM VERB
-1.7579367	ADP NUM VERB
-1.7806275	DET NUM VERB
-1.7207288	PROPN NUM VERB
-1.3311554	CCONJ NUM VERB
-1.5519208	NOUN NUM VERB
-1.7631416	PUNCT NUM VERB
-1.6024877	NUM NUM VERB
-1.6285855	ADJ NUM VERB
-1.7032411	SCONJ NUM VERB
-1.8973256	VERB NUM VERB
-1.46369	PART NUM VERB
-1.7134976	ADV NUM VERB
-1.757865	AUX NUM VERB
-1.8827227	PRON NUM VERB
-1.9044789	SYM NUM VERB
-1.6362218	<s> ADJ VERB
-2.1556122	ADP ADJ VERB
-2.1536136	DET ADJ VERB
-2.1503098	PROPN ADJ VERB
-2.029979	CCONJ ADJ VERB
-1.8855869	NOUN ADJ VERB
-1.8874369	PUNCT ADJ VERB
-2.16228	NUM ADJ VERB
-2.1386216	ADJ ADJ VERB
-1.8015795	SCONJ ADJ VERB
-2.174429	VERB ADJ VERB
-2.0536346	PART ADJ VERB
-1.9591606	ADV ADJ VERB
-1.7960249	AUX ADJ VERB
-2.0695715	PRON ADJ VERB
-1.4597644	INTJ ADJ VERB
-1.6061864	X ADJ VERB
-1.9373428	SYM ADJ VERB
-1.4475523	<s> SCONJ VERB
-1.5854175	ADP SCONJ VERB
-1.603593	DET SCONJ VERB
-1.2603608	PROPN SCONJ VERB
-1.6438369	CCONJ SCONJ VERB
-1.3327786	NOUN SCONJ VERB
-1.3376807	PUNCT SCONJ VERB
-1.423059	NUM SCONJ VERB
-1.5435175	ADJ SCONJ VERB
-1.7475206	SCONJ SCONJ VERB
-1.6671443	VERB SCONJ VERB
-1.1280972	ADV SCONJ VERB
-1.5456337	AUX SCONJ VERB
-1.6133177	PRON SCONJ VERB
-1.822407	<s> VERB VERB
-2.2310631	ADP VERB VERB
-1.9320458	DET VERB VERB
-1.9481522	PROPN VERB VERB
-1.783653	CCONJ VERB VERB
-1.8204217	NOUN VERB VERB
-1.9548154	PUNCT VERB VERB
-1.8121948	NUM VERB VERB
-1.9166566	ADJ VERB VERB
-2.0227084	SCONJ VERB VERB
-1.3297434	VERB VERB VERB
-1.7821183	PART VERB VERB
-1.8733846	ADV VERB VERB
-1.8305161	AUX VERB VERB
-1.7631145	PRON VERB VERB
-1.3489846	INTJ VERB VERB
-0.19475347	<s> PART VERB
-0.14540556	ADP PART VERB
-0.18303764	DET PART VERB
-0.8221156	PROPN PART VERB
-0.3381914	CCONJ PART VERB
-0.20620269	NOUN PART VERB
-0.21082072	PUNCT PART VERB
-0.42646265	NUM PART VERB
-0.039137628	ADJ PART VERB
-0.38961157	SCONJ PART VERB
-0.075744025	VERB PART VERB
-0.05448867	PART PART VERB
-0.09794668	ADV PART VERB
-0.16680889	AUX PART VERB
-0.08744733	PRON PART VERB
-0.40242276	INTJ PART VERB
-0.36297035	X PART VERB
-0.24284352	SYM PART VERB
-1.3604095	<s> ADV VERB
-1.0046246	ADP ADV VERB
-0.68474627	DET ADV VERB
-0.30359238	PROPN ADV VERB
-0.60625076	CCONJ ADV VERB
-0.6379088	NOUN ADV VERB
-0.8686943	PUNCT ADV VERB
-0.81322503	NUM ADV VERB
-0.9894661	ADJ ADV VERB
-0.9499706	SCONJ ADV VERB
-1.6736679	VERB ADV VERB
-0.33289853	PART ADV VERB
-0.9144836	ADV ADV VERB
-0.27731475	AUX ADV VERB
-0.2411888	PRON ADV VERB
-0.817828	INTJ ADV VERB
-1.2793895	X ADV VERB
-1.0206839	SYM ADV VERB
-1.1483879	<s> AUX VERB
-0.14091331	ADP AUX VERB
-0.36961758	DET AUX VERB
-0.32308933	PROPN AUX VERB
-0.30297995	CCONJ AUX VERB
-0.33797717	NOUN AUX VERB
-0.40599313	PUNCT AUX VERB
-0.396457	NUM AUX VERB
-0.44568098	ADJ AUX VERB
-0.2311172	SCONJ AUX VERB
-0.5201994	VERB AUX VERB
-0.034705155	PART AUX VERB
-0.4976622	ADV AUX VERB
-0.037080746	AUX AUX VERB
-0.36748496	PRON AUX VERB
-0.5711423	INTJ AUX VERB
-0.75574476	X AUX VERB
-0.6808772	SYM AUX VERB
-0.44075137	<s> PRON VERB
-1.0284255	ADP PRON VERB
-0.27150998	DET PRON VERB
-0.32332602	PROPN PRON VERB
-0.43467605	CCONJ PRON VERB
-0.2753603	NOUN PRON VERB
-0.40777332	PUNCT PRON VERB
-0.3381737	NUM PRON VERB
-0.57413673	ADJ PRON VERB
-0.39175096	SCONJ PRON VERB
-1.1258663	VERB PRON VERB
-0.4360055	PART PRON VERB
-0.2877524	ADV PRON VERB
-0.2902713	AUX PRON VERB
-0.29656202	PRON PRON VERB
-0.3984978	INTJ PRON VERB
-0.69663507	X PRON VERB
-1.2416046	SYM PRON VERB
-0.87675595	<s> INTJ VERB
-0.88700545	ADP INTJ VERB
-0.897802	PROPN INTJ VERB
-1.2703542	CCONJ INTJ VERB
-0.6091813	NOUN INTJ VERB
-0.8019117	PUNCT INTJ VERB
-0.82513005	NUM INTJ VERB
-0.9514855	ADJ INTJ VERB
-0.988255	VERB INTJ VERB
-0.66502935	PART INTJ VERB
-0.6049428	ADV INTJ VERB
-0.9944791	AUX INTJ VERB
-0.616165	PRON INTJ VERB
-0.99867064	INTJ INTJ VERB
-0.5965316	X INTJ VERB
-1.387192	<s> X VERB
-1.4542171	ADP X VERB
-1.3874024	DET X VERB
-1.7486067	PROPN X VERB
-1.3460826	NOUN X VERB
-1.513262	PUNCT X VERB
-1.3609042	ADJ X VERB
-1.2469724	VERB X VERB
-0.50963235	PART X VERB
-1.0258869	ADV X VERB
-1.0457114	INTJ X VERB
-1.2752807	X X VERB
-0.83039355	SYM X VERB
-2.206977	<s> SYM VERB
-2.329743	ADP SYM VERB
-2.0509107	DET SYM VERB
-2.2697074	PROPN SYM VERB
-1.5214227	NOUN SYM VERB
-1.7525686	PUNCT SYM VERB
-2.695921	NUM SYM VERB
-1.8416243	ADJ SYM VERB
-1.2632973	VERB SYM VERB
-1.8606957	ADV SYM VERB
-1.0587732	AUX SYM VERB
-2.9523175	<s> ADP PART
-2.0927105	ADP ADP PART
-3.1118226	DET ADP PART
-3.1459188	PROPN ADP PART
-2.353547	CCONJ ADP PART
-3.0619452	NOUN ADP PART
-2.685453	PUNCT ADP PART
-3.408986	NUM ADP PART
-2.7999308	ADJ ADP PART
-1.7336063	SCONJ ADP PART
-2.2383568	VERB ADP PART
-2.6697655	ADV ADP PART
-2.4180977	AUX ADP PART
-2.344462	PRON ADP PART
-1.5944692	X ADP PART
-3.7836113	<s> DET PART
-3.4318564	ADP DET PART
-3.2449026	DET DET PART
-2.9554763	PROPN DET PART
-3.2953944	CCONJ DET PART
-3.1271932	NOUN DET PART
-3.3038151	PUNCT DET PART
-2.377407	NUM DET PART
-3.6853316	SCONJ DET PART
-3.0678697	VERB DET PART
-3.1238818	ADV DET PART
-3.3743773	AUX DET PART
-2.8919044	PRON DET PART
-1.2706763	<s> PROPN PART
-1.1683604	ADP PROPN PART
-1.5058142	DET PROPN PART
-1.4500675	PROPN PROPN PART
-1.432003	CCONJ PROPN PART
-1.7425532	NOUN PROPN PART
-1.5287269	PUNCT PROPN PART
-1.8548784	NUM PROPN PART
-1.7776977	ADJ PROPN PART
-1.0099773	SCONJ PROPN PART
-0.8865601	VERB PROPN PART
-1.7915684	PART PROPN PART
-1.1370547	ADV PROPN PART
-0.8854932	AUX PROPN PART
-1.4326953	PRON PROPN PART
-1.8268528	INTJ PROPN PART
-1.8687471	X PROPN PART
-1.4259654	SYM PROPN PART
-1.8835131	<s> CCONJ PART
-2.2552881	ADP CCONJ PART
-1.5561305	DET CCONJ PART
-2.3108919	PROPN CCONJ PART
-1.9663991	NOUN CCONJ PART
-1.7780493	PUNCT CCONJ PART
-2.0583978	NUM CCONJ PART
-1.7500814	ADJ CCONJ PART
-0.2234023	SCONJ CCONJ PART
-1.7412426	VERB CCONJ PART
-1.9199772	PART CCONJ PART
-1.7037458	ADV CCONJ PART
-1.6024987	AUX CCONJ PART
-1.343895	PRON CCONJ PART
-1.9578502	<s> NOUN PART
-1.4366692	ADP NOUN PART
-1.2950395	DET NOUN PART
-1.6243224	PROPN NOUN PART
-1.7565198	CCONJ NOUN PART
-1.702561	NOUN NOUN PART
-1.9391906	PUNCT NOUN PART
-1.7798591	NUM NOUN PART
-1.533969	ADJ NOUN PART
-1.8042963	SCONJ NOUN PART
-1.3041444	VERB NOUN PART
-1.4030448	PART NOUN PART
-1.7892191	ADV NOUN PART
-1.4397964	AUX NOUN PART
-1.3035201	PRON NOUN PART
-2.09801	X NOUN PART
-1.9089301	SYM NOUN PART
-2.3723016	<s> PUNCT PART
-2.3292594	ADP PUNCT PART
-2.6454303	DET PUNCT PART
-2.388807	PROPN PUNCT PART
-2.0221653	CCONJ PUNCT PART
-2.2620025	NOUN PUNCT PART
-2.5368617	PUNCT PUNCT PART
-2.3707862	NUM PUNCT PART
-2.1994138	ADJ PUNCT PART
-2.2074254	SCONJ PUNCT PART
-2.2148097	VERB PUNCT PART
-1.9931383	PART PUNCT PART
-2.154949	ADV PUNCT PART
-1.9042113	AUX PUNCT PART
-2.2583477	PRON PUNCT PART
-2.103645	INTJ PUNCT PART
-1.7610018	X PUNCT PART
-2.2700615	<s> NUM PART
-1.8692447	ADP NUM PART
-2.21439	DET NUM PART
-2.1003656	PROPN NUM PART
-2.3293748	CCONJ NUM PART
-2.2545578	NOUN NUM PART
-2.3323243	PUNCT NUM PART
-1.9733564	NUM NUM PART
-1.7336249	ADJ NUM PART
-2.7824328	SCONJ NUM PART
-2.0074444	VERB NUM PART
-2.171945	PART NUM PART
-2.194541	ADV NUM PART
-2.1027625	AUX NUM PART
-1.8837954	SYM NUM PART
-2.1709166	<s> ADJ PART
-2.68556	ADP ADJ PART
-2.61141	DET ADJ PART
-2.0412338	PROPN ADJ PART
-2.0630162	CCONJ ADJ PART
-1.6457859	NOUN ADJ PART
-2.1682093	PUNCT ADJ PART
-3.175366	ADJ ADJ PART
-2.3921793	SCONJ ADJ PART
-1.2097055	VERB ADJ PART
-1.3712866	PART ADJ PART
-1.283317	ADV ADJ PART
-0.80184317	AUX ADJ PART
-1.656082	PRON ADJ PART
-1.898137	X ADJ PART
-1.966516	SYM ADJ PART
-2.0109422	<s> SCONJ PART
-1.635852	ADP SCONJ PART
-2.6673691	PROPN SCONJ PART
-2.4643068	CCONJ SCONJ PART
-2.0313685	NOUN SCONJ PART
-1.7033532	PUNCT SCONJ PART
-2.5189555	ADJ SCONJ PART
-2.5895085	SCONJ SCONJ PART
-2.272396	VERB SCONJ PART
-2.0724797	ADV SCONJ PART
-2.330434	AUX SCONJ PART
-1.8756881	PRON SCONJ PART
-1.8802867	<s> VERB PART
-1.6711036	ADP VERB PART
-1.3624295	DET VERB PART
-1.3086928	PROPN VERB PART
-1.3842139	CCONJ VERB PART
-1.1919512	NOUN VERB PART
-1.6116599	PUNCT VERB PART
-1.4571246	NUM VERB PART
-1.4648696	ADJ VERB PART
-1.536399	SCONJ VERB PART
-1.5848311	VERB VERB PART
-1.7018199	PART VERB PART
-1.2737056	ADV VERB PART
-1.1400692	AUX VERB PART
-1.00754	PRON VERB PART
-1.9880726	INTJ VERB PART
-1.6858165	X VERB PART
-1.5837023	SYM VERB PART
-1.5769498	<s> PART PART
-1.8381894	ADP PART PART
-2.0105708	DET PART PART
-2.6752148	PROPN PART PART
-1.5612707	CCONJ PART PART
-2.2175825	NOUN PART PART
-1.5418073	PUNCT PART PART
-2.0142648	NUM PART PART
-2.0318744	ADJ PART PART
-2.170014	SCONJ PART PART
-2.1201677	VERB PART PART
-2.416757	ADV PART PART
-2.3547852	AUX PART PART
-1.7212839	PRON PART PART
-2.1133149	<s> ADV PART
-1.4088693	ADP ADV PART
-2.5696785	DET ADV PART
-2.1094143	PROPN ADV PART
-1.7030727	CCONJ ADV PART
-1.8696811	NOUN ADV PART
-1.8597308	PUNCT ADV PART
-1.8921208	NUM ADV PART
-1.1349789	ADJ ADV PART
-2.008414	SCONJ ADV PART
-1.3992541	VERB ADV PART
-1.9555547	PART ADV PART
-1.9756699	ADV ADV PART
-1.8124353	AUX ADV PART
-1.9025985	PRON ADV PART
-1.6600666	INTJ ADV PART
-0.8120415	<s> AUX PART
-1.8107501	ADP AUX PART
-0.98007244	DET AUX PART
-1.0918006	PROPN AUX PART
-0.7872378	CCONJ AUX PART
-1.0263474	NOUN AUX PART
-1.0047853	PUNCT AUX PART
-1.3573669	NUM AUX PART
-1.0910841	ADJ AUX PART
-1.0653254	SCONJ AUX PART
-1.0649046	VERB AUX PART
-2.4980211	PART AUX PART
-0.90274537	ADV AUX PART
-2.8441133	AUX AUX PART
-0.8349309	PRON AUX PART
-0.2903224	INTJ AUX PART
-2.8701632	<s> PRON PART
-1.8165786	ADP PRON PART
-3.0558019	DET PRON PART
-2.53882	PROPN PRON PART
-2.844643	CCONJ PRON PART
-2.6205382	NOUN PRON PART
-2.7372112	PUNCT PRON PART
-2.0645986	NUM PRON PART
-2.1091204	ADJ PRON PART
-2.583146	SCONJ PRON PART
-1.399376	VERB PRON PART
-2.0298104	PART PRON PART
-2.9199846	ADV PRON PART
-1.6858213	AUX PRON PART
-2.9013684	PRON PRON PART
-2.5847552	<s> INTJ PART
-1.867106	CCONJ INTJ PART
-2.8008132	PUNCT INTJ PART
-2.0316207	VERB INTJ PART
-1.3099842	AUX INTJ PART
-1.4137546	PRON INTJ PART
-1.7986658	ADP X PART
-2.163019	PROPN X PART
-1.6103307	CCONJ X PART
-2.6813307	PUNCT X PART
-1.7892628	VERB X PART
-2.2461889	X X PART
-0.8498006	SYM SYM PART
-1.7867165	<s> ADP ADV
-1.5942739	ADP ADP ADV
-2.0180044	DET ADP ADV
-2.2634237	PROPN ADP ADV
-1.6170166	CCONJ ADP ADV
-2.003926	NOUN ADP ADV
-1.7280282	PUNCT ADP ADV
-2.3745503	NUM ADP ADV
-1.9172039	ADJ ADP ADV
-1.8314065	SCONJ ADP ADV
-1.7878525	VERB ADP ADV
-2.3489082	PART ADP ADV
-1.7724565	ADV ADP ADV
-1.7178326	AUX ADP ADV
-1.7234852	PRON ADP ADV
-1.8316886	<s> DET ADV
-1.8652679	ADP DET ADV
-1.8655366	DET DET ADV
-1.6197369	PROPN DET ADV
-1.8517354	CCONJ DET ADV
-1.6086614	NOUN DET ADV
-1.7107432	PUNCT DET ADV
-2.0913537	NUM DET ADV
-1.7569532	ADJ DET ADV
-2.0357723	SCONJ DET ADV
-1.7341464	VERB DET ADV
-1.6325079	PART DET ADV
-1.6826375	ADV DET ADV
-1.3412054	AUX DET ADV
-1.5382109	PRON DET ADV
-1.4700297	INTJ DET ADV
-1.7403864	<s> PROPN ADV
-1.9039317	ADP PROPN ADV
-1.9863975	DET PROPN ADV
-1.9690485	PROPN PROPN ADV
-1.7744213	CCONJ PROPN ADV
-2.115138	NOUN PROPN ADV
-2.1520395	PUNCT PROPN ADV
-2.004414	NUM PROPN ADV
-1.88521	ADJ PROPN ADV
-1.7481732	SCONJ PROPN ADV
-1.6933848	VERB PROPN ADV
-2.2115326	PART PROPN ADV
-1.8212729	ADV PROPN ADV
-1.5372765	AUX PROPN ADV
-1.9579396	PRON PROPN ADV
-1.4168346	INTJ PROPN ADV
-1.7713441	X PROPN ADV
-1.7809954	SYM PROPN ADV
-0.8193609	<s> CCONJ ADV
-1.1776987	ADP CCONJ ADV
-1.3922989	DET CCONJ ADV
-1.5995612	PROPN CCONJ ADV
-1.5110372	CCONJ CCONJ ADV
-1.384135	NOUN CCONJ ADV
-0.9248363	PUNCT CCONJ ADV
-1.2293708	NUM CCONJ ADV
-1.1176194	ADJ CCONJ ADV
-1.1751992	SCONJ CCONJ ADV
-1.2583344	VERB CCONJ ADV
-1.6494839	PART CCONJ ADV
-0.4830473	ADV CCONJ ADV
-1.0226643	AUX CCONJ ADV
-1.2055014	PRON CCONJ ADV
-1.2938155	X CCONJ ADV
-1.7207971	<s> NOUN ADV
-1.7087569	ADP NOUN ADV
-1.547109	DET NOUN ADV
-1.6648968	PROPN NOUN ADV
-1.7661898	CCONJ NOUN ADV
-1.6666679	NOUN NOUN ADV
-1.8863194	PUNCT NOUN ADV
-1.1960497	NUM NOUN ADV
-1.6365689	ADJ NOUN ADV
-1.6752323	SCONJ NOUN ADV
-1.5855002	VERB NOUN ADV
-1.6536907	PART NOUN ADV
-1.5580597	ADV NOUN ADV
-1.6327876	AUX NOUN ADV
-1.5197285	PRON NOUN ADV
-1.5799253	INTJ NOUN ADV
-1.6569129	X NOUN ADV
-1.6744088	SYM NOUN ADV
-1.187539	<s> PUNCT ADV
-1.5413054	ADP PUNCT ADV
-1.5495356	DET PUNCT ADV
-1.5434318	PROPN PUNCT ADV
-0.9391527	CCONJ PUNCT ADV
-1.5014875	NOUN PUNCT ADV
-1.6126006	PUNCT PUNCT ADV
-1.5812185	NUM PUNCT ADV
-1.4511092	ADJ PUNCT ADV
-1.2096161	SCONJ PUNCT ADV
-1.4901462	VERB PUNCT ADV
-1.267679	PART PUNCT ADV
-1.3586851	ADV PUNCT ADV
-0.8978725	AUX PUNCT ADV
-1.4530596	PRON PUNCT ADV
-1.3034779	INTJ PUNCT ADV
-1.5074687	X PUNCT ADV
-0.93553275	SYM PUNCT ADV
-2.134189	<s> NUM ADV
-1.935647	ADP NUM ADV
-2.0698223	DET NUM ADV
-2.0919144	PROPN NUM ADV
-1.9534851	CCONJ NUM ADV
-2.212832	NOUN NUM ADV
-2.2213135	PUNCT NUM ADV
-2.0532568	NUM NUM ADV
-2.0040627	ADJ NUM ADV
-2.2877722	SCONJ NUM ADV
-2.0892284	VERB NUM ADV
-2.171945	PART NUM ADV
-2.3425267	ADV NUM ADV
-1.823609	AUX NUM ADV
-2.1084168	SYM NUM ADV
-2.3167765	<s> ADJ ADV
-2.5632455	ADP ADJ ADV
-2.5096023	DET ADJ ADV
-2.0437799	PROPN ADJ ADV
-2.2156641	CCONJ ADJ ADV
-1.8735892	NOUN ADJ ADV
-2.410633	PUNCT ADJ ADV
-2.7000892	NUM ADJ ADV
-2.6558754	ADJ ADJ ADV
-2.2116916	SCONJ ADJ ADV
-1.8436993	VERB ADJ ADV
-1.5550257	PART ADJ ADV
-1.8340217	ADV ADJ ADV
-1.5372707	AUX ADJ ADV
-2.2548494	PRON ADJ ADV
-1.4511696	<s> SCONJ ADV
-1.8054495	ADP SCONJ ADV
-1.6853617	DET SCONJ ADV
-1.788536	PROPN SCONJ ADV
-1.5749869	CCONJ SCONJ ADV
-1.6247224	NOUN SCONJ ADV
-1.4823886	PUNCT SCONJ ADV
-2.0630746	NUM SCONJ ADV
-1.5143005	ADJ SCONJ ADV
-1.826693	SCONJ SCONJ ADV
-1.615199	VERB SCONJ ADV
-1.8334476	PART SCONJ ADV
-1.4679728	ADV SCONJ ADV
-1.4083126	AUX SCONJ ADV
-1.6110032	PRON SCONJ ADV
-1.5317687	<s> VERB ADV
-1.5504375	ADP VERB ADV
-1.2139884	DET VERB ADV
-1.3763876	PROPN VERB ADV
-1.3253253	CCONJ VERB ADV
-1.2416024	NOUN VERB ADV
-1.4714081	PUNCT VERB ADV
-1.3751984	NUM VERB ADV
-1.4205817	ADJ VERB ADV
-1.2982647	SCONJ VERB ADV
-1.3931227	VERB VERB ADV
-1.2979969	PART VERB ADV
-1.4133724	ADV VERB ADV
-1.1996672	AUX VERB ADV
-1.1606089	PRON VERB ADV
-1.4633516	INTJ VERB ADV
-1.5297549	X VERB ADV
-1.4974686	SYM VERB ADV
-0.8472465	<s> PART ADV
-1.4553235	ADP PART ADV
-0.9303629	DET PART ADV
-1.6789901	PROPN PART ADV
-1.0826085	CCONJ PART ADV
-1.614426	NOUN PART ADV
-0.9691906	PUNCT PART ADV
-2.1290839	NUM PART ADV
-1.6917746	ADJ PART ADV
-0.7934426	SCONJ PART ADV
-1.5824075	VERB PART ADV
-1.565559	PART PART ADV
-1.4596052	ADV PART ADV
-1.0424466	AUX PART ADV
-1.4904991	PRON PART ADV
-1.084521	INTJ PART ADV
-1.0423429	<s> ADV ADV
-1.0971445	ADP ADV ADV
-1.3622962	DET ADV ADV
-1.1461641	PROPN ADV ADV
-1.1152498	CCONJ ADV ADV
-1.0125858	NOUN ADV ADV
-0.9686677	PUNCT ADV ADV
-1.1723123	NUM ADV ADV
-0.97669286	ADJ ADV ADV
-1.0310115	SCONJ ADV ADV
-0.9970266	VERB ADV ADV
-1.273237	PART ADV ADV
-1.2804672	ADV ADV ADV
-1.1451803	AUX ADV ADV
-1.2101182	PRON ADV ADV
-1.1381675	INTJ ADV ADV
-0.62603974	X ADV ADV
-1.1480441	SYM ADV ADV
-1.7434536	<s> AUX ADV
-1.1587222	ADP AUX ADV
-0.831454	DET AUX ADV
-0.81760585	PROPN AUX ADV
-0.8381595	CCONJ AUX ADV
-0.8413522	NOUN AUX ADV
-0.91982675	PUNCT AUX ADV
-1.0042934	NUM AUX ADV
-0.9857287	ADJ AUX ADV
-1.3466314	SCONJ AUX ADV
-0.98841685	VERB AUX ADV
-1.3579965	PART AUX ADV
-1.4298892	ADV AUX ADV
-1.2474226	AUX AUX ADV
-0.8715515	PRON AUX ADV
-1.575006	INTJ AUX ADV
-0.7597872	X AUX ADV
-1.1883194	<s> PRON ADV
-1.6846763	ADP PRON ADV
-1.4215518	DET PRON ADV
-1.3386651	PROPN PRON ADV
-1.2855693	CCONJ PRON ADV
-1.449258	NOUN PRON ADV
-1.3477209	PUNCT PRON ADV
-1.3181801	NUM PRON ADV
-1.5483187	ADJ PRON ADV
-1.4928632	SCONJ PRON ADV
-1.3441975	VERB PRON ADV
-1.392401	PART PRON ADV
-1.513724	ADV PRON ADV
-1.1532912	AUX PRON ADV
-1.4715923	PRON PRON ADV
-1.3976982	INTJ PRON ADV
-1.557067	<s> INTJ ADV
-1.2594006	ADP INTJ ADV
-1.4948418	PROPN INTJ ADV
-1.6392639	CCONJ INTJ ADV
-1.5585281	NOUN INTJ ADV
-1.7934861	PUNCT INTJ ADV
-1.7972956	VERB INTJ ADV
-1.6701868	ADV INTJ ADV
-1.2285011	AUX INTJ ADV
-1.3193985	PRON INTJ ADV
-1.2514161	INTJ INTJ ADV
-2.3354611	<s> X ADV
-1.9995561	PROPN X ADV
-1.6790612	NOUN X ADV
-2.013316	PUNCT X ADV
-1.5668775	ADJ X ADV
-1.4556324	VERB X ADV
-1.0506256	AUX X ADV
-0.87970877	SYM X ADV
-2.6088305	ADP SYM ADV
-2.4801886	NOUN SYM ADV
-2.0733414	PUNCT SYM ADV
-2.4143698	VERB SYM ADV
-1.8541261	ADV SYM ADV
-1.4733374	AUX SYM ADV
-2.7755353	<s> ADP AUX
-2.8842597	ADP ADP AUX
-3.1288161	DET ADP AUX
-2.9303997	PROPN ADP AUX
-2.7864048	CCONJ ADP AUX
-2.895774	NOUN ADP AUX
-2.3924649	PUNCT ADP AUX
-2.7780867	NUM ADP AUX
-2.5505955	ADJ ADP AUX
-3.216506	SCONJ ADP AUX
-2.6890028	VERB ADP AUX
-2.6333578	ADV ADP AUX
-3.0353022	AUX ADP AUX
-2.6293929	PRON ADP AUX
-1.1805944	<s> DET AUX
-2.7374163	ADP DET AUX
-1.569488	DET DET AUX
-0.94913614	PROPN DET AUX
-1.5676672	CCONJ DET AUX
-0.7041378	NOUN DET AUX
-1.1773154	PUNCT DET AUX
-1.1465694	NUM DET AUX
-1.2676327	ADJ DET AUX
-1.587072	SCONJ DET AUX
-2.4758577	VERB DET AUX
-2.6166859	PART DET AUX
-1.7646408	ADV DET AUX
-2.6596289	AUX DET AUX
-1.3074276	PRON DET AUX
-0.7032006	INTJ DET AUX
-1.0615156	<s> PROPN AUX
-1.4441307	ADP PROPN AUX
-1.4254745	DET PROPN AUX
-1.3129692	PROPN PROPN AUX
-1.153667	CCONJ PROPN AUX
-1.3617148	NOUN PROPN AUX
-1.3733829	PUNCT PROPN AUX
-1.4008144	NUM PROPN AUX
-1.2993144	ADJ PROPN AUX
-0.5617667	SCONJ PROPN AUX
-1.486102	VERB PROPN AUX
-1.629328	PART PROPN AUX
-0.8006334	ADV PROPN AUX
-1.6427281	AUX PROPN AUX
-1.1917162	PRON PROPN AUX
-1.3306792	INTJ PROPN AUX
-1.7713441	X PROPN AUX
-1.5154228	SYM PROPN AUX
-1.5437057	<s> CCONJ AUX
-1.8270981	ADP CCONJ AUX
-1.5561305	DET CCONJ AUX
-1.924964	PROPN CCONJ AUX
-1.1115499	CCONJ CCONJ AUX
-1.6761496	NOUN CCONJ AUX
-1.4199115	PUNCT CCONJ AUX
-1.3564568	NUM CCONJ AUX
-1.7764434	ADJ CCONJ AUX
-1.4834528	VERB CCONJ AUX
-1.0499402	PART CCONJ AUX
-1.4379445	ADV CCONJ AUX
-0.5526138	AUX CCONJ AUX
-1.4892316	PRON CCONJ AUX
-0.93319005	<s> NOUN AUX
-1.4712145	ADP NOUN AUX
-1.070673	DET NOUN AUX
-1.1010695	PROPN NOUN AUX
-1.2784874	CCONJ NOUN AUX
-1.100669	NOUN NOUN AUX
-1.2325095	PUNCT NOUN AUX
-1.1930795	NUM NOUN AUX
-1.1738706	ADJ NOUN AUX
-0.5356871	SCONJ NOUN AUX
-1.5546144	VERB NOUN AUX
-0.9870458	PART NOUN AUX
-0.83442014	ADV NOUN AUX
-2.1292048	AUX NOUN AUX
-1.0679386	PRON NOUN AUX
-1.7683278	INTJ NOUN AUX
-1.960453	X NOUN AUX
-1.9057173	SYM NOUN AUX
-1.7753712	<s> PUNCT AUX
-2.242548	ADP PUNCT AUX
-2.0929654	DET PUNCT AUX
-1.593689	PROPN PUNCT AUX
-1.9395998	CCONJ PUNCT AUX
-1.7728097	NOUN PUNCT AUX
-1.7598753	PUNCT PUNCT AUX
-1.6819249	NUM PUNCT AUX
-1.9464573	ADJ PUNCT AUX
-2.4225633	SCONJ PUNCT AUX
-1.8993924	VERB PUNCT AUX
-1.6888524	PART PUNCT AUX
-1.70165	ADV PUNCT AUX
-1.8230441	AUX PUNCT AUX
-1.6655843	PRON PUNCT AUX
-1.7515615	INTJ PUNCT AUX
-1.490471	X PUNCT AUX
-0.93553275	SYM PUNCT AUX
-1.6849631	<s> NUM AUX
-2.0755136	ADP NUM AUX
-1.9407563	DET NUM AUX
-1.6550434	PROPN NUM AUX
-1.5777264	CCONJ NUM AUX
-1.6720817	NOUN NUM AUX
-1.9067422	PUNCT NUM AUX
-2.1160696	NUM NUM AUX
-1.8705285	ADJ NUM AUX
-1.8564646	SCONJ NUM AUX
-2.708624	VERB NUM AUX
-2.0672483	PART NUM AUX
-2.084368	ADV NUM AUX
-2.3032494	PRON NUM AUX
-1.9551086	SYM NUM AUX
-1.756744	<s> ADJ AUX
-2.721097	ADP ADJ AUX
-2.6084905	DET ADJ AUX
-2.709097	PROPN ADJ AUX
-2.142861	CCONJ ADJ AUX
-2.1119494	NOUN ADJ AUX
-2.135251	PUNCT ADJ AUX
-2.6140857	NUM ADJ AUX
-3.0006642	ADJ ADJ AUX
-1.9028112	SCONJ ADJ AUX
-2.396203	VERB ADJ AUX
-2.4640381	PART ADJ AUX
-1.9298844	ADV ADJ AUX
-2.9325783	AUX ADJ AUX
-2.2761533	PRON ADJ AUX
-2.715766	<s> SCONJ AUX
-2.65179	ADP SCONJ AUX
-1.7206935	DET SCONJ AUX
-2.7263072	PROPN SCONJ AUX
-2.8230984	CCONJ SCONJ AUX
-2.5842538	NOUN SCONJ AUX
-2.650126	PUNCT SCONJ AUX
-2.8628216	ADJ SCONJ AUX
-3.3330605	VERB SCONJ AUX
-2.802626	ADV SCONJ AUX
-2.6938937	AUX SCONJ AUX
-2.6011577	PRON SCONJ AUX
-1.2983536	INTJ SCONJ AUX
-2.230739	<s> VERB AUX
-2.8612878	ADP VERB AUX
-2.2063103	DET VERB AUX
-2.692252	PROPN VERB AUX
-2.762343	CCONJ VERB AUX
-2.434442	NOUN VERB AUX
-2.8850327	PUNCT VERB AUX
-2.4884279	NUM VERB AUX
-2.4579482	ADJ VERB AUX
-2.3005652	SCONJ VERB AUX
-2.6387165	VERB VERB AUX
-2.4348454	PART VERB AUX
-2.6099753	ADV VERB AUX
-2.3800855	AUX VERB AUX
-2.1117318	PRON VERB AUX
-2.0540488	<s> PART AUX
-1.5267531	ADP PART AUX
-1.4625928	DET PART AUX
-2.2037907	PROPN PART AUX
-1.9877311	CCONJ PART AUX
-1.6860865	NOUN PART AUX
-1.7061164	PUNCT PART AUX
-1.9887476	NUM PART AUX
-1.5507334	ADJ PART AUX
-1.9818997	SCONJ PART AUX
-1.2388355	VERB PART AUX
-1.1498319	PART PART AUX
-1.3273034	ADV PART AUX
-1.2477585	AUX PART AUX
-1.5567658	PRON PART AUX
-1.0750461	INTJ PART AUX
-1.058038	X PART AUX
-0.99397326	<s> ADV AUX
-2.0820656	ADP ADV AUX
-2.040414	DET ADV AUX
-1.4187322	PROPN ADV AUX
-1.4233842	CCONJ ADV AUX
-1.5562545	NOUN ADV AUX
-1.2870622	PUNCT ADV AUX
-1.8038186	NUM ADV AUX
-1.8878291	ADJ ADV AUX
-1.6752826	SCONJ ADV AUX
-2.0949543	VERB ADV AUX
-1.5045977	PART ADV AUX
-1.5994369	ADV ADV AUX
-1.2817128	AUX ADV AUX
-1.1310627	PRON ADV AUX
-1.0565846	INTJ ADV AUX
-1.2886477	X ADV AUX
-2.0851657	<s> AUX AUX
-1.3421549	ADP AUX AUX
-1.0636778	DET AUX AUX
-1.147646	PROPN AUX AUX
-1.083198	CCONJ AUX AUX
-1.0229411	NOUN AUX AUX
-1.1324503	PUNCT AUX AUX
-0.98851717	NUM AUX AUX
-1.0712572	ADJ AUX AUX
-0.89160585	SCONJ AUX AUX
-1.2974882	VERB AUX AUX
-1.7266071	PART AUX AUX
-1.721245	ADV AUX AUX
-1.8165472	AUX AUX AUX
-1.3073448	PRON AUX AUX
-0.7597872	X AUX AUX
-0.84365356	SYM AUX AUX
-0.33800238	<s> PRON AUX
-1.2593015	ADP PRON AUX
-0.5487983	DET PRON AUX
-0.5037457	PROPN PRON AUX
-0.54810023	CCONJ PRON AUX
-0.45834243	NOUN PRON AUX
-0.35239443	PUNCT PRON AUX
-0.5341003	NUM PRON AUX
-0.32884303	ADJ PRON AUX
-0.3646702	SCONJ PRON AUX
-1.0962875	VERB PRON AUX
-0.9561702	PART PRON AUX
-0.4898975	ADV PRON AUX
-1.5225363	AUX PRON AUX
-0.46982414	PRON PRON AUX
-0.38477919	INTJ PRON AUX
-0.5722789	X PRON AUX
-1.4492505	SYM PRON AUX
-1.6024128	<s> INTJ AUX
-1.5838577	PROPN INTJ AUX
-1.2114059	CCONJ INTJ AUX
-1.9484384	NOUN INTJ AUX
-1.8466372	PUNCT INTJ AUX
-1.1150237	ADV INTJ AUX
-1.8533093	INTJ INTJ AUX
-2.4340053	<s> X AUX
-2.0933712	PROPN X AUX
-1.8359754	NOUN X AUX
-2.6158156	PUNCT X AUX
-1.7191963	VERB X AUX
-1.4077657	ADV X AUX
-1.2508823	INTJ X AUX
-1.5780648	X X AUX
-2.5952046	NOUN SYM AUX
-2.654254	VERB SYM AUX
-1.4102286	AUX SYM AUX
-1.17203	<s> ADP PRON
-1.0348982	ADP ADP PRON
-0.6624389	DET ADP PRON
-1.4576104	PROPN ADP PRON
-1.052725	CCONJ ADP PRON
-1.1956208	NOUN ADP PRON
-1.0838068	PUNCT ADP PRON
-0.96643114	NUM ADP PRON
-0.84849626	ADJ ADP PRON
-0.93184614	SCONJ ADP PRON
-1.0789924	VERB ADP PRON
-0.83416915	PART ADP PRON
-0.9756003	ADV ADP PRON
-1.121469	AUX ADP PRON
-0.87067676	PRON ADP PRON
-1.2268999	INTJ ADP PRON
-1.4681953	X ADP PRON
-2.2880933	<s> DET PRON
-2.1851268	ADP DET PRON
-1.6881088	DET DET PRON
-1.7523875	PROPN DET PRON
-2.0078943	CCONJ DET PRON
-1.280846	NOUN DET PRON
-2.005906	PUNCT DET PRON
-1.7609911	NUM DET PRON
-1.80176	ADJ DET PRON
-2.3314378	SCONJ DET PRON
-2.4231894	VERB DET PRON
-1.8184034	PART DET PRON
-2.0656195	ADV DET PRON
-2.292498	AUX DET PRON
-1.7596524	PRON DET PRON
-1.6426419	INTJ DET PRON
-1.4746795	X DET PRON
-2.3593102	<s> PROPN PRON
-2.185518	ADP PROPN PRON
-2.3186126	DET PROPN PRON
-2.3324995	PROPN PROPN PRON
-2.366158	CCONJ PROPN PRON
-2.5228035	NOUN PROPN PRON
-2.617582	PUNCT PROPN PRON
-2.1717062	NUM PROPN PRON
-2.0150523	ADJ PROPN PRON
