\data\
ngram 1=19
ngram 2=242
ngram 3=2569

\1-grams:
-2.2411478	<unk>	0
0	<s>	-3.7728214
-1.2411479	</s>	0
-1.2109531	DET	-0.94747096
-1.1562142	NOUN	-1.0168492
-1.1827219	PUNCT	-1.0182782
-1.1827219	VERB	-1.0052513
-1.1827219	NUM	-0.9787041
-1.2109531	ADP	-0.9226474
-1.2109531	ADJ	-0.9386801
-1.1562142	PROPN	-1.0065924
-1.1827219	PART	-0.9096824
-1.1827219	ADV	-1.0039524
-1.2109531	X	-0.8782909
-1.1827219	CCONJ	-0.84134716
-1.1827219	PRON	-0.98000026
-1.3086741	SCONJ	-0.7045765
-1.4867995	INTJ	-0.4789963
-2.0056195	SPACE	-0.32636482

\2-grams:
-1.4668615	DET </s>	0
-1.216509	NOUN </s>	0
-1.1812336	PUNCT </s>	0
-1.2494625	VERB </s>	0
-1.215365	NUM </s>	0
-1.7814963	ADP </s>	0
-1.3079442	ADJ </s>	0
-1.2321928	PROPN </s>	0
-1.4754477	PART </s>	0
-1.3200142	ADV </s>	0
-1.4755816	X </s>	0
-1.8821167	CCONJ </s>	0
-1.3950621	PRON </s>	0
-0.9925644	INTJ </s>	0
-1.4300342	<s> DET	-2.3217242
-1.1913946	DET DET	-0.7729664
-1.1837151	NOUN DET	-1.7199792
-1.1786298	PUNCT DET	-1.8805647
-1.1843712	VERB DET	-2.47292
-1.2504042	NUM DET	-0.95353806
-1.1200094	ADP DET	-2.0776947
-1.2510648	ADJ DET	-0.6219758
-1.166944	PROPN DET	-1.4358419
-1.2049555	PART DET	-1.7440144
-1.2013144	ADV DET	-1.7386912
-1.0775653	X DET	-1.2182072
-1.1286415	CCONJ DET	-1.5362804
-1.2124176	PRON DET	-1.2351341
-1.2069017	SCONJ DET	-1.2166392
-0.69907343	<s> NOUN	-2.959086
-1.050119	DET NOUN	-2.6894193
-1.1507748	NOUN NOUN	-3.532196
-1.1457225	PUNCT NOUN	-2.9287894
-1.1513674	VERB NOUN	-3.3652463
-1.1097559	NUM NOUN	-2.9202816
-1.0525253	ADP NOUN	-2.9194872
-1.0199523	ADJ NOUN	-2.941743
-1.1340368	PROPN NOUN	-3.048636
-1.0371267	PART NOUN	-3.3069067
-1.1338301	ADV NOUN	-2.40179
-0.97463536	X NOUN	-1.802744
-0.9752797	CCONJ NOUN	-2.6678004
-1.1098781	PRON NOUN	-2.0407984
-0.9299766	SCONJ NOUN	-1.6502182
-1.127312	INTJ NOUN	-0.373176
-0.608623	SPACE NOUN	-0.3077867
-1.4637296	<s> PUNCT	-2.1799538
-1.0825894	DET PUNCT	-1.0027962
-1.1532245	NOUN PUNCT	-3.5572612
-1.1760414	PUNCT PUNCT	-2.5050664
-1.1538872	VERB PUNCT	-3.2193387
-1.1121894	NUM PUNCT	-2.2113209
-1.0849578	ADP PUNCT	-1.574405
-1.0850577	ADJ PUNCT	-1.0579559
-1.13645	PROPN PUNCT	-2.793073
-1.097268	PART PUNCT	-2.7014244
-1.1081911	ADV PUNCT	-1.9287893
-1.0747349	X PUNCT	-0.9242757
-1.17145	CCONJ PUNCT	-1.1661494
-1.1123049	PRON PUNCT	-1.9471911
-1.2826282	SCONJ PUNCT	-0.39002672
-0.70285296	INTJ PUNCT	-1.0736097
-0.9008707	<s> VERB	-2.7625806
-1.0523982	DET VERB	-1.609155
-1.1810876	NOUN VERB	-3.3760827
-1.1481359	PUNCT VERB	-2.676877
-1.1538872	VERB VERB	-3.1861644
-1.1121894	NUM VERB	-2.0708373
-1.0549521	ADP VERB	-2.2551658
-1.0221217	ADJ VERB	-1.2998171
-1.1102298	PROPN VERB	-2.6359446
-1.0674455	PART VERB	-2.673992
-1.136257	ADV VERB	-3.4135447
-1.0396098	X VERB	-1.8957343
-0.97772944	CCONJ VERB	-2.1222465
-1.0842391	PRON VERB	-2.7623508
-0.93300265	SCONJ VERB	-1.7492195
-0.9810092	INTJ VERB	-0.30778667
-1.4727414	<s> NUM	-2.228934
-1.0523982	DET NUM	-2.2949924
-1.1810876	NOUN NUM	-2.1918268
-1.2058637	PUNCT NUM	-2.0750961
-1.1538872	VERB NUM	-2.6909404
-1.0841308	NUM NUM	-2.795343
-1.1171916	ADP NUM	-1.9317923
-1.0850577	ADJ NUM	-1.4259753
-1.13645	PROPN NUM	-1.7689359
-1.1292903	PART NUM	-2.166163
-1.136257	ADV NUM	-2.0920255
-1.0396098	X NUM	-0.8613093
-1.045226	CCONJ NUM	-1.623658
-1.1745443	PRON NUM	-1.267107
-1.1327124	SCONJ NUM	-0.9502747
-1.3789147	INTJ NUM	-0.3077867
-1.1447684	<s> ADP	-2.5702665
-1.1176851	DET ADP	-1.164952
-1.1837151	NOUN ADP	-2.6551507
-1.2086368	PUNCT ADP	-2.2879643
-1.1843712	VERB ADP	-2.6197736
-1.1772366	NUM ADP	-1.5750489
-1.1200094	ADP ADP	-1.5102702
-1.2510648	ADJ ADP	-0.61172104
-1.166944	PROPN ADP	-2.1517076
-1.1670972	PART ADP	-1.6760136
-1.1386976	ADV ADP	-2.5689821
-1.2050425	X ADP	-0.58710194
-1.1753048	CCONJ ADP	-1.3744441
-1.1147456	PRON ADP	-2.1174264
-0.9783489	SCONJ ADP	-1.0647479
-1.7901664	<s> ADJ	-2.0554335
-1.0546893	DET ADJ	-1.7808369
-1.1837151	NOUN ADJ	-2.1653755
-1.1786298	PUNCT ADJ	-2.0771098
-1.1843712	VERB ADJ	-2.5407407
-1.1146367	NUM ADJ	-2.080248
-1.0573927	ADP ADJ	-2.0622263
-1.054789	ADJ ADJ	-1.7627292
-1.166944	PROPN ADJ	-1.8815832
-1.132276	PART ADJ	-2.3968759
-1.1386976	ADV ADJ	-2.0261137
-1.1582677	X ADJ	-1.213781
-1.0481052	CCONJ ADJ	-1.8845586
-1.250553	PRON ADJ	-1.3643777
-1.2069017	SCONJ ADJ	-1.0891691
-0.8438322	<s> PROPN	-2.8278763
-1.0801468	DET PROPN	-1.5750442
-1.1784761	NOUN PROPN	-2.6530466
-1.1457225	PUNCT PROPN	-2.705096
-1.1789833	VERB PROPN	-2.7643049
-1.1097559	NUM PROPN	-1.8983172
-1.0525253	ADP PROPN	-2.6119869
-1.0199523	ADJ PROPN	-1.4840351
-1.1340368	PROPN PROPN	-2.53473
-1.1263248	PART PROPN	-2.2265768
-1.1338301	ADV PROPN	-1.8882582
-1.0047065	X PROPN	-1.3184295
-1.0423656	CCONJ PROPN	-2.0726538
-1.1397107	PRON PROPN	-1.0393517
-1.1279292	SCONJ PROPN	-1.1862837
-0.9753449	INTJ PROPN	-0.35346758
-0.45852426	SPACE PROPN	-0.3077867
-2.2342985	<s> PART	-1.5392845
-1.0523982	DET PART	-1.2760937
-1.1810876	NOUN PART	-3.2270331
-1.2378861	PUNCT PART	-1.9932477
-1.1538872	VERB PART	-3.051869
-1.1121894	NUM PART	-2.1007032
-1.3866258	ADP PART	-0.5784396
-1.0221217	ADJ PART	-2.2434363
-1.13645	PROPN PART	-2.5048108
-1.1292903	PART PART	-2.1535783
-1.136257	ADV PART	-1.3816118
-1.4616088	X PART	-0.42392775
-1.282068	CCONJ PART	-0.58938044
-1.1123049	PRON PART	-2.4195685
-1.6359338	SCONJ PART	-0.29898906
-1.2896923	INTJ PART	-0.361571
-0.72905886	<s> ADV	-2.9426515
-1.1501069	DET ADV	-1.2839353
-1.1270417	NOUN ADV	-3.1028974
-1.1760414	PUNCT ADV	-2.608538
-1.1816689	VERB ADV	-2.6389847
-1.1421869	NUM ADV	-1.7095095
-1.1171916	ADP ADV	-1.7683079
-1.0850577	ADJ ADV	-0.72193396
-1.1643556	PROPN ADV	-2.246281
-1.097268	PART ADV	-2.1347003
-1.136257	ADV ADV	-2.8118489
-1.1548618	X ADV	-1.0564277
-1.0833647	CCONJ ADV	-1.5281425
-1.1123049	PRON ADV	-2.6143088
-1.0214777	SCONJ ADV	-1.3312178
-1.3789147	INTJ ADV	-0.30778667
-2.5635648	<s> X	-1.2600529
-1.2802242	DET X	-0.81724334
-1.2136762	NOUN X	-1.7205086
-1.3135512	PUNCT X	-1.1604695
-1.1843712	VERB X	-1.6668694
-1.2122813	NUM X	-0.8091609
-1.1932002	ADP X	-0.75539666
-1.9512473	ADJ X	-0.3077867
-1.3018655	PROPN X	-1.0644289
-1.2922915	PART X	-1.1660774
-1.1688786	ADV X	-1.8637409
-1.2574698	X X	-0.4862969
-1.3559532	CCONJ X	-0.7426865
-1.2124176	PRON X	-1.2157481
-1.2069017	SCONJ X	-0.5932071
-2.0640159	<s> CCONJ	-1.6450696
-1.6352968	DET CCONJ	-0.42392775
-1.1810876	NOUN CCONJ	-2.8202991
-1.2058637	PUNCT CCONJ	-1.8988631
-1.1816689	VERB CCONJ	-1.963078
-1.2092192	NUM CCONJ	-1.3469416
-1.6306226	ADP CCONJ	-0.3338468
-1.1586854	ADJ CCONJ	-1.0794064
-1.1643556	PROPN CCONJ	-2.1282544
-1.2879821	PART CCONJ	-0.8219957
-1.3585026	ADV CCONJ	-0.7534039
-1.8127197	X CCONJ	-0.30778667
-1.4308612	CCONJ CCONJ	-0.39762545
-1.1745443	PRON CCONJ	-1.3007554
-1.6359338	SCONJ CCONJ	-0.3077867
-1.3789147	INTJ CCONJ	-0.3077867
-0.94542724	<s> PRON	-2.7474034
-1.2300882	DET PRON	-0.63997126
-1.1810876	NOUN PRON	-1.7440646
-1.1760414	PUNCT PRON	-2.240698
-1.1538872	VERB PRON	-2.6186
-1.2470623	NUM PRON	-1.0812395
-1.0549521	ADP PRON	-2.2724142
-1.509602	ADJ PRON	-0.27352113
-1.1941781	PROPN PRON	-1.232604
-1.1638631	PART PRON	-1.5926648
-1.1662629	ADV PRON	-2.0395308
-1.0396098	X PRON	-1.2809783
-1.2232466	CCONJ PRON	-1.3088777
-1.1745443	PRON PRON	-1.429558
-1.0735434	SCONJ PRON	-1.6110877
-1.3789147	INTJ PRON	-0.3077867
-1.6968715	<s> SCONJ	-2.0615127
-1.2550778	NOUN SCONJ	-1.4240301
-1.2499547	PUNCT SCONJ	-1.597936
-1.372186	VERB SCONJ	-1.0284144
-1.9986644	NUM SCONJ	-0.3474877
-1.6689055	ADP SCONJ	-0.29847702
-1.5156846	PROPN SCONJ	-0.6664026
-1.8125049	PART SCONJ	-0.5131342
-1.3750538	ADV SCONJ	-1.1255921
-1.8465447	CCONJ SCONJ	-0.3911865
-1.4653913	PRON SCONJ	-1.1224748
-1.5623231	SCONJ SCONJ	-0.30778667
-3.1153839	<s> INTJ	-0.9609404
-1.9862216	NOUN INTJ	-0.3077867
-1.4323137	PUNCT INTJ	-1.0281237
-1.8319801	VERB INTJ	-0.2972507
-2.172458	NUM INTJ	-0.3077867
-1.9709703	PROPN INTJ	-0.3474877
-1.8740603	PART INTJ	-0.361571
-1.0291977	INTJ INTJ	-0.34777376
-2.4266248	NOUN SPACE	-0.3077867
-2.2937965	VERB SPACE	-0.3077867

\3-grams:
-3.3683703	<s> DET </s>
-2.7318041	NOUN DET </s>
-3.0001566	VERB DET </s>
-1.8977909	PROPN DET </s>
-2.7789977	PART DET </s>
-2.5623567	CCONJ DET </s>
-2.4229965	<s> NOUN </s>
-2.6694186	DET NOUN </s>
-1.7271004	NOUN NOUN </s>
-1.6033323	PUNCT NOUN </s>
-1.9139122	VERB NOUN </s>
-2.1593788	NUM NOUN </s>
-2.7390301	ADP NOUN </s>
-1.8619953	ADJ NOUN </s>
-1.9288274	PROPN NOUN </s>
-1.8634323	PART NOUN </s>
-2.5354352	ADV NOUN </s>
-2.736686	X NOUN </s>
-1.9566394	CCONJ NOUN </s>
-2.3272557	PRON NOUN </s>
-0.91180825	<s> PUNCT </s>
-1.0107197	DET PUNCT </s>
-0.22232077	NOUN PUNCT </s>
-0.3714543	PUNCT PUNCT </s>
-0.17959225	VERB PUNCT </s>
-0.2653286	NUM PUNCT </s>
-1.5927142	ADP PUNCT </s>
-1.9328204	ADJ PUNCT </s>
-0.7201277	PROPN PUNCT </s>
-0.1525761	PART PUNCT </s>
-0.20544963	ADV PUNCT </s>
-0.62492806	X PUNCT </s>
-1.596469	CCONJ PUNCT </s>
-0.14164372	PRON PUNCT </s>
-0.06778327	INTJ PUNCT </s>
-2.736302	<s> VERB </s>
-1.9368474	NOUN VERB </s>
-2.178732	PUNCT VERB </s>
-1.9762613	VERB VERB </s>
-2.3839064	NUM VERB </s>
-2.8896995	ADP VERB </s>
-2.1034865	ADJ VERB </s>
-1.9015571	PROPN VERB </s>
-2.1448014	PART VERB </s>
-2.4262903	ADV VERB </s>
-2.0124812	X VERB </s>
-2.5647802	CCONJ VERB </s>
-2.841824	PRON VERB </s>
-1.3580787	<s> NUM </s>
-3.2349083	DET NUM </s>
-1.8404132	NOUN NUM </s>
-1.7455165	PUNCT NUM </s>
-2.5046551	VERB NUM </s>
-2.3990798	NUM NUM </s>
-3.0043488	ADP NUM </s>
-1.7566688	PROPN NUM </s>
-2.8527567	PART NUM </s>
-2.425268	ADV NUM </s>
-1.8709949	X NUM </s>
-2.128403	CCONJ NUM </s>
-3.9857328	<s> ADP </s>
-3.4608753	NOUN ADP </s>
-3.6879618	PUNCT ADP </s>
-3.0910492	NOUN ADJ </s>
-3.1889546	PUNCT ADJ </s>
-2.9235053	VERB ADJ </s>
-3.1884964	NUM ADJ </s>
-2.7541559	ADJ ADJ </s>
-2.079234	PROPN ADJ </s>
-3.3267052	PART ADJ </s>
-3.1166093	ADV ADJ </s>
-2.0975623	<s> PROPN </s>
-2.640906	DET PROPN </s>
-1.7696452	NOUN PROPN </s>
-1.4556079	PUNCT PROPN </s>
-2.0464978	VERB PROPN </s>
-2.5514863	NUM PROPN </s>
-2.490355	ADP PROPN </s>
-2.1630125	ADJ PROPN </s>
-1.7137235	PROPN PROPN </s>
-2.0377803	PART PROPN </s>
-2.228062	X PROPN </s>
-2.292493	CCONJ PROPN </s>
-2.1008086	PRON PROPN </s>
-3.032275	NOUN PART </s>
-2.833908	VERB PART </s>
-3.4747055	ADJ PART </s>
-3.258493	PROPN PART </s>
-2.4415739	ADV PART </s>
-3.6696725	PRON PART </s>
-3.1607332	<s> ADV </s>
-2.413676	DET ADV </s>
-2.9848003	NOUN ADV </s>
-3.6164227	PUNCT ADV </s>
-2.9169903	VERB ADV </s>
-2.8519728	NUM ADV </s>
-3.0950494	PROPN ADV </s>
-3.2826257	PART ADV </s>
-3.8197336	ADV ADV </s>
-0.714891	INTJ ADV </s>
-2.470916	<s> X </s>
-2.769373	NOUN X </s>
-2.1679523	PUNCT X </s>
-2.0342329	PROPN X </s>
-2.3514574	PART X </s>
-2.841659	<s> CCONJ </s>
-3.9616835	<s> PRON </s>
-2.7862625	NOUN PRON </s>
-3.4549785	PUNCT PRON </s>
-2.8147101	VERB PRON </s>
-2.204754	NUM PRON </s>
-2.1987126	PROPN PRON </s>
-2.4653676	PART PRON </s>
-3.2538111	ADV PRON </s>
-1.7801708	<s> INTJ </s>
-0.7520073	NOUN INTJ </s>
-1.7448051	PUNCT INTJ </s>
-0.8850788	INTJ INTJ </s>
-2.622716	<s> DET DET
-2.6318822	NOUN DET DET
-2.528792	PUNCT DET DET
-2.6257646	VERB DET DET
-2.4546545	ADP DET DET
-2.308178	PROPN DET DET
-2.3909655	PART DET DET
-2.609929	ADV DET DET
-2.053588	X DET DET
-1.7327439	CCONJ DET DET
-2.0628817	PRON DET DET
-2.1996377	<s> NOUN DET
-2.7009091	DET NOUN DET
-2.6252007	NOUN NOUN DET
-2.453853	PUNCT NOUN DET
-2.516552	VERB NOUN DET
-2.882498	NUM NOUN DET
-2.3242066	ADP NOUN DET
-2.935098	ADJ NOUN DET
-2.4709103	PROPN NOUN DET
-2.8526738	PART NOUN DET
-2.2199695	ADV NOUN DET
-2.3063505	X NOUN DET
-2.4335542	CCONJ NOUN DET
-2.3963645	PRON NOUN DET
-2.5667427	SCONJ NOUN DET
-1.7589401	<s> PUNCT DET
-2.0173936	DET PUNCT DET
-2.133803	NOUN PUNCT DET
-1.801804	PUNCT PUNCT DET
-2.1059256	VERB PUNCT DET
-2.1283908	NUM PUNCT DET
-1.9574546	ADP PUNCT DET
-1.9315325	ADJ PUNCT DET
-2.1961753	PROPN PUNCT DET
-2.1740906	PART PUNCT DET
-2.2312617	ADV PUNCT DET
-2.0729966	CCONJ PUNCT DET
-2.663429	PRON PUNCT DET
-1.2451584	SCONJ PUNCT DET
-2.032751	INTJ PUNCT DET
-1.4645855	<s> VERB DET
-2.0469732	DET VERB DET
-1.6989859	NOUN VERB DET
-1.6309942	PUNCT VERB DET
-1.3950567	VERB VERB DET
-1.8716531	NUM VERB DET
-1.5569975	ADP VERB DET
-2.2126296	ADJ VERB DET
-1.6857611	PROPN VERB DET
-1.5762086	PART VERB DET
-1.521726	ADV VERB DET
-2.445427	X VERB DET
-1.4047871	CCONJ VERB DET
-1.4711022	PRON VERB DET
-1.4183161	SCONJ VERB DET
-2.9418209	<s> NUM DET
-2.852092	DET NUM DET
-2.6879594	NOUN NUM DET
-2.6077275	PUNCT NUM DET
-2.7552826	VERB NUM DET
-2.7612875	NUM NUM DET
-2.7191708	ADP NUM DET
-2.576838	PROPN NUM DET
-3.1130583	PART NUM DET
-2.7930713	ADV NUM DET
-2.0180397	CCONJ NUM DET
-1.189186	<s> ADP DET
-1.5324385	DET ADP DET
-1.4033695	NOUN ADP DET
-1.3668092	PUNCT ADP DET
-1.2892551	VERB ADP DET
-1.4115435	NUM ADP DET
-1.1860499	ADP ADP DET
-1.4489934	PROPN ADP DET
-1.216804	PART ADP DET
-1.317686	ADV ADP DET
-1.3081338	CCONJ ADP DET
-1.1626177	PRON ADP DET
-1.2562292	SCONJ ADP DET
-2.957789	<s> ADJ DET
-3.0665514	NOUN ADJ DET
-2.6095853	PUNCT ADJ DET
-2.916345	VERB ADJ DET
-2.989333	NUM ADJ DET
-3.122135	ADP ADJ DET
-2.965602	PROPN ADJ DET
-3.4779353	PART ADJ DET
-2.5465193	CCONJ ADJ DET
-2.2872217	<s> PROPN DET
-2.5953748	DET PROPN DET
-2.4180713	NOUN PROPN DET
-2.454614	PUNCT PROPN DET
-2.0590718	VERB PROPN DET
-2.928267	NUM PROPN DET
-2.160493	ADP PROPN DET
-2.379389	ADJ PROPN DET
-2.495921	PROPN PROPN DET
-2.469686	PART PROPN DET
-2.2014537	ADV PROPN DET
-2.337598	X PROPN DET
-2.0462506	CCONJ PROPN DET
-1.9119881	PRON PROPN DET
-2.210783	SCONJ PROPN DET
-1.6019188	<s> PART DET
-2.1268911	NOUN PART DET
-2.1511705	PUNCT PART DET
-1.6989841	VERB PART DET
-2.6228976	NUM PART DET
-1.587223	ADP PART DET
-2.3840764	ADJ PART DET
-2.0428677	PROPN PART DET
-1.6431764	PART PART DET
-2.299959	ADV PART DET
-2.267229	PRON PART DET
-1.5867134	<s> ADV DET
-2.698063	NOUN ADV DET
-1.7552286	PUNCT ADV DET
-2.446886	VERB ADV DET
-2.0648155	ADP ADV DET
-1.701886	ADJ ADV DET
-2.6416533	PROPN ADV DET
-2.4066744	PART ADV DET
-2.2969813	ADV ADV DET
-2.0241156	X ADV DET
-2.4148734	CCONJ ADV DET
-2.7796767	PRON ADV DET
-2.2316537	SCONJ ADV DET
-1.1405683	<s> X DET
-1.4671123	NOUN X DET
-1.431023	PUNCT X DET
-1.0497364	VERB X DET
-1.5134192	NUM X DET
-1.4577034	ADP X DET
-1.2018307	PROPN X DET
-1.6190184	PART X DET
-1.3428229	ADV X DET
-1.4103174	CCONJ X DET
-1.0428987	PRON X DET
-1.2244123	SCONJ X DET
-1.1838503	<s> CCONJ DET
-1.5495842	NOUN CCONJ DET
-1.3670042	PUNCT CCONJ DET
-2.165483	VERB CCONJ DET
-1.8696147	NUM CCONJ DET
-1.3051722	PROPN CCONJ DET
-1.0465431	PART CCONJ DET
-1.3717295	ADV CCONJ DET
-1.119626	CCONJ CCONJ DET
-0.94166744	PRON CCONJ DET
-2.365906	<s> PRON DET
-2.543526	NOUN PRON DET
-2.2521293	PUNCT PRON DET
-2.1532464	VERB PRON DET
-2.097624	NUM PRON DET
-2.0525453	ADP PRON DET
-2.2767828	PROPN PRON DET
-2.0890198	PART PRON DET
-2.1534383	ADV PRON DET
-2.0373435	X PRON DET
-2.0696921	CCONJ PRON DET
-2.245851	SCONJ PRON DET
-1.2988994	<s> SCONJ DET
-2.2750804	NOUN SCONJ DET
-1.3690188	PUNCT SCONJ DET
-1.415544	VERB SCONJ DET
-1.2139634	ADP SCONJ DET
-1.3589466	ADV SCONJ DET
-0.22243316	<s> DET NOUN
-0.25707304	DET DET NOUN
-0.24194807	NOUN DET NOUN
-0.20262028	PUNCT DET NOUN
-0.20670067	VERB DET NOUN
-0.21691607	NUM DET NOUN
-0.2469583	ADP DET NOUN
-0.2607903	ADJ DET NOUN
-0.24358986	PROPN DET NOUN
-0.27963206	PART DET NOUN
-0.19126269	ADV DET NOUN
-0.27457112	X DET NOUN
-0.21523315	CCONJ DET NOUN
-0.28848752	PRON DET NOUN
-0.16789414	SCONJ DET NOUN
-0.5688916	<s> NOUN NOUN
-0.8585067	DET NOUN NOUN
-0.71188515	NOUN NOUN NOUN
-0.5384849	PUNCT NOUN NOUN
-0.58708704	VERB NOUN NOUN
-0.7586395	NUM NOUN NOUN
-0.4751824	ADP NOUN NOUN
-0.70927894	ADJ NOUN NOUN
-0.5802292	PROPN NOUN NOUN
-0.6817889	PART NOUN NOUN
-0.6418807	ADV NOUN NOUN
-0.62403584	X NOUN NOUN
-0.45077324	CCONJ NOUN NOUN
-0.89764154	PRON NOUN NOUN
-0.6593673	SCONJ NOUN NOUN
-0.57280856	INTJ NOUN NOUN
-0.5960181	<s> PUNCT NOUN
-0.33609667	DET PUNCT NOUN
-0.9627843	NOUN PUNCT NOUN
-0.87895775	PUNCT PUNCT NOUN
-1.1103246	VERB PUNCT NOUN
-0.9900163	NUM PUNCT NOUN
-0.41780257	ADP PUNCT NOUN
-0.3095473	ADJ PUNCT NOUN
-0.717831	PROPN PUNCT NOUN
-1.1275377	PART PUNCT NOUN
-1.0213519	ADV PUNCT NOUN
-0.6237061	X PUNCT NOUN
-0.4127	CCONJ PUNCT NOUN
-1.3905015	PRON PUNCT NOUN
-0.6522919	SCONJ PUNCT NOUN
-1.8128271	INTJ PUNCT NOUN
-0.6090774	<s> VERB NOUN
-0.45611656	DET VERB NOUN
-0.65597486	NOUN VERB NOUN
-0.5183988	PUNCT VERB NOUN
-0.5563736	VERB VERB NOUN
-0.5365138	NUM VERB NOUN
-0.37695915	ADP VERB NOUN
-0.5773022	ADJ VERB NOUN
-0.6745128	PROPN VERB NOUN
-0.70627487	PART VERB NOUN
-0.6620682	ADV VERB NOUN
-0.9450425	X VERB NOUN
-0.43005854	CCONJ VERB NOUN
-0.74477303	PRON VERB NOUN
-0.56381804	SCONJ VERB NOUN
-0.9231373	INTJ VERB NOUN
-0.47911328	<s> NUM NOUN
-0.22014228	DET NUM NOUN
-0.53249437	NOUN NUM NOUN
-0.50448316	PUNCT NUM NOUN
-0.48837847	VERB NUM NOUN
-0.32046473	NUM NUM NOUN
-0.5043315	ADP NUM NOUN
-0.42365688	ADJ NUM NOUN
-0.40206844	PROPN NUM NOUN
-0.55721676	PART NUM NOUN
-0.38247615	ADV NUM NOUN
-0.46395215	X NUM NOUN
-0.52284265	CCONJ NUM NOUN
-0.6037268	PRON NUM NOUN
-0.327023	SCONJ NUM NOUN
-0.4499472	<s> ADP NOUN
-0.28499705	DET ADP NOUN
-0.3318831	NOUN ADP NOUN
-0.36638755	PUNCT ADP NOUN
-0.35096258	VERB ADP NOUN
-0.39884618	NUM ADP NOUN
-0.35554084	ADP ADP NOUN
-0.32487062	ADJ ADP NOUN
-0.37508678	PROPN ADP NOUN
-0.38353723	PART ADP NOUN
-0.32793882	ADV ADP NOUN
-0.27302024	X ADP NOUN
-0.28360268	CCONJ ADP NOUN
-0.36157456	PRON ADP NOUN
-0.3610325	SCONJ ADP NOUN
-0.1528309	<s> ADJ NOUN
-0.1375918	DET ADJ NOUN
-0.08107595	NOUN ADJ NOUN
-0.113094844	PUNCT ADJ NOUN
-0.09896139	VERB ADJ NOUN
-0.12453621	NUM ADJ NOUN
-0.09243446	ADP ADJ NOUN
-0.033871416	ADJ ADJ NOUN
-0.08025865	PROPN ADJ NOUN
-0.041051343	PART ADJ NOUN
-0.2335064	ADV ADJ NOUN
-0.08157914	X ADJ NOUN
-0.0846654	CCONJ ADJ NOUN
-0.4111684	PRON ADJ NOUN
-0.13257499	SCONJ ADJ NOUN
-0.50093687	<s> PROPN NOUN
-0.2855615	DET PROPN NOUN
-0.6356496	NOUN PROPN NOUN
-0.5768123	PUNCT PROPN NOUN
-0.3992194	VERB PROPN NOUN
-0.19062126	NUM PROPN NOUN
-0.45814228	ADP PROPN NOUN
-0.30313405	ADJ PROPN NOUN
-0.65156996	PROPN PROPN NOUN
-0.2760958	PART PROPN NOUN
-0.4511748	ADV PROPN NOUN
-0.45725608	X PROPN NOUN
-0.46171486	CCONJ PROPN NOUN
-0.49780712	PRON PROPN NOUN
-0.45403656	SCONJ PROPN NOUN
-0.5375795	SPACE PROPN NOUN
-0.82040703	<s> PART NOUN
-0.089771725	DET PART NOUN
-0.31334126	NOUN PART NOUN
-0.23846659	PUNCT PART NOUN
-0.31780332	VERB PART NOUN
-0.33980688	NUM PART NOUN
-0.750152	ADP PART NOUN
-0.0744518	ADJ PART NOUN
-0.19846961	PROPN PART NOUN
-0.21628411	PART PART NOUN
-0.9251658	ADV PART NOUN
-0.35073772	X PART NOUN
-1.3649263	CCONJ PART NOUN
-0.10262069	PRON PART NOUN
-0.61255705	SCONJ PART NOUN
-0.36076155	INTJ PART NOUN
-0.92291546	<s> ADV NOUN
-1.0681987	DET ADV NOUN
-1.7137978	NOUN ADV NOUN
-0.96430516	PUNCT ADV NOUN
-1.1436287	VERB ADV NOUN
-1.5719063	NUM ADV NOUN
-0.76461494	ADP ADV NOUN
-1.4671676	ADJ ADV NOUN
-1.5845255	PROPN ADV NOUN
-1.356568	PART ADV NOUN
-1.5420842	ADV ADV NOUN
-1.0643644	X ADV NOUN
-1.1259766	CCONJ ADV NOUN
-1.8275036	PRON ADV NOUN
-0.92913026	SCONJ ADV NOUN
-0.39594087	<s> X NOUN
-0.692314	DET X NOUN
-0.6138265	NOUN X NOUN
-0.5468421	PUNCT X NOUN
-0.5030824	VERB X NOUN
-0.6460589	NUM X NOUN
-0.7461497	ADP X NOUN
-0.25188363	ADJ X NOUN
-0.7870641	PROPN X NOUN
-0.69727427	PART X NOUN
-0.5270682	ADV X NOUN
-0.34296474	X X NOUN
-0.78255236	CCONJ X NOUN
-0.52173525	PRON X NOUN
-0.40752888	SCONJ X NOUN
-0.6590979	<s> CCONJ NOUN
-0.34561232	DET CCONJ NOUN
-0.15905964	NOUN CCONJ NOUN
-0.64816904	PUNCT CCONJ NOUN
-0.6408583	VERB CCONJ NOUN
-0.7336003	NUM CCONJ NOUN
-0.6073261	ADP CCONJ NOUN
-0.35267738	ADJ CCONJ NOUN
-0.6268543	PROPN CCONJ NOUN
-0.3903178	PART CCONJ NOUN
-0.5351604	ADV CCONJ NOUN
-0.60098803	CCONJ CCONJ NOUN
-0.43745828	PRON CCONJ NOUN
-0.25194365	INTJ CCONJ NOUN
-1.3837732	<s> PRON NOUN
-1.1483701	DET PRON NOUN
-0.95689416	NOUN PRON NOUN
-1.2702001	PUNCT PRON NOUN
-1.0893526	VERB PRON NOUN
-1.0277263	NUM PRON NOUN
-0.95286727	ADP PRON NOUN
-0.87711215	ADJ PRON NOUN
-0.73808426	PROPN PRON NOUN
-1.1531725	PART PRON NOUN
-1.2624149	ADV PRON NOUN
-1.2651846	X PRON NOUN
-0.7873719	CCONJ PRON NOUN
-1.2126894	PRON PRON NOUN
-1.3550861	SCONJ PRON NOUN
-0.60801667	<s> SCONJ NOUN
-1.0827439	NOUN SCONJ NOUN
-0.5812601	PUNCT SCONJ NOUN
-0.5419319	VERB SCONJ NOUN
-0.8696109	ADP SCONJ NOUN
-1.0329094	PROPN SCONJ NOUN
-0.9508927	PART SCONJ NOUN
-0.6347587	ADV SCONJ NOUN
-0.19282627	CCONJ SCONJ NOUN
-1.7287142	PRON SCONJ NOUN
-0.64381975	SCONJ SCONJ NOUN
-1.6792413	<s> INTJ NOUN
-0.7860851	NOUN INTJ NOUN
-1.5721499	PUNCT INTJ NOUN
-0.42587167	VERB SPACE NOUN
-2.3484018	<s> DET PUNCT
-1.6798356	DET DET PUNCT
-1.751906	NOUN DET PUNCT
-2.2389703	PUNCT DET PUNCT
-2.1173153	VERB DET PUNCT
-1.8468344	NUM DET PUNCT
-2.1859405	ADP DET PUNCT
-1.4288559	ADJ DET PUNCT
-1.2400553	PROPN DET PUNCT
-2.4543824	PART DET PUNCT
-2.1701946	ADV DET PUNCT
-2.0855956	CCONJ DET PUNCT
-2.0124087	PRON DET PUNCT
-2.1029644	SCONJ DET PUNCT
-1.0266432	<s> NOUN PUNCT
-0.63130265	DET NOUN PUNCT
-0.5419875	NOUN NOUN PUNCT
-0.6505563	PUNCT NOUN PUNCT
-0.5388051	VERB NOUN PUNCT
-0.5618832	NUM NOUN PUNCT
-1.2680451	ADP NOUN PUNCT
-0.43180728	ADJ NOUN PUNCT
-0.7990517	PROPN NOUN PUNCT
-0.37563148	PART NOUN PUNCT
-0.91633564	ADV NOUN PUNCT
-1.5429082	X NOUN PUNCT
-0.6058483	CCONJ NOUN PUNCT
-0.83324456	PRON NOUN PUNCT
-1.6612558	SCONJ NOUN PUNCT
-0.57308203	INTJ NOUN PUNCT
-1.3177933	<s> PUNCT PUNCT
-1.8635055	DET PUNCT PUNCT
-1.352519	NOUN PUNCT PUNCT
-1.2886853	PUNCT PUNCT PUNCT
-1.3904926	VERB PUNCT PUNCT
-1.327879	NUM PUNCT PUNCT
-1.8418865	ADP PUNCT PUNCT
-1.4927337	ADJ PUNCT PUNCT
-1.1536965	PROPN PUNCT PUNCT
-1.7036147	PART PUNCT PUNCT
-1.8403637	ADV PUNCT PUNCT
-1.0654486	X PUNCT PUNCT
-1.5422812	CCONJ PUNCT PUNCT
-1.2673386	PRON PUNCT PUNCT
-1.8244667	INTJ PUNCT PUNCT
-1.1556268	<s> VERB PUNCT
-1.3106515	DET VERB PUNCT
-0.65030134	NOUN VERB PUNCT
-0.9099623	PUNCT VERB PUNCT
-0.79394186	VERB VERB PUNCT
-0.9859391	NUM VERB PUNCT
-1.4845836	ADP VERB PUNCT
-0.59583735	ADJ VERB PUNCT
-0.63862413	PROPN VERB PUNCT
-0.59249467	PART VERB PUNCT
-0.70503646	ADV VERB PUNCT
-0.5915586	X VERB PUNCT
-0.99881047	CCONJ VERB PUNCT
-0.9510908	PRON VERB PUNCT
-1.2101151	SCONJ VERB PUNCT
-0.92386913	INTJ VERB PUNCT
-1.0279413	<s> NUM PUNCT
-1.9737669	DET NUM PUNCT
-0.94532096	NOUN NUM PUNCT
-0.78208584	PUNCT NUM PUNCT
-1.2952716	VERB NUM PUNCT
-0.9064359	NUM NUM PUNCT
-1.6002182	ADP NUM PUNCT
-1.7616456	ADJ NUM PUNCT
-0.8856132	PROPN NUM PUNCT
-1.3549942	PART NUM PUNCT
-1.2528001	ADV NUM PUNCT
-1.4744875	X NUM PUNCT
-1.4029746	CCONJ NUM PUNCT
-1.9111642	PRON NUM PUNCT
-1.8346511	SCONJ NUM PUNCT
-1.801686	<s> ADP PUNCT
-1.7935967	DET ADP PUNCT
-1.6998996	NOUN ADP PUNCT
-1.6486402	PUNCT ADP PUNCT
-1.7386391	VERB ADP PUNCT
-1.651799	NUM ADP PUNCT
-1.8413703	ADP ADP PUNCT
-1.5735025	PROPN ADP PUNCT
-1.7242503	PART ADP PUNCT
-1.8854488	ADV ADP PUNCT
-1.1959436	X ADP PUNCT
-1.8272935	CCONJ ADP PUNCT
-1.7394334	PRON ADP PUNCT
-1.8576936	SCONJ ADP PUNCT
-2.2221756	<s> ADJ PUNCT
-2.5497234	DET ADJ PUNCT
-2.5120075	NOUN ADJ PUNCT
-1.3859526	PUNCT ADJ PUNCT
-2.3042011	VERB ADJ PUNCT
-2.4986677	NUM ADJ PUNCT
-2.4543004	ADP ADJ PUNCT
-2.632406	ADJ ADJ PUNCT
-2.3296247	PROPN ADJ PUNCT
-2.7264783	PART ADJ PUNCT
-2.1625526	ADV ADJ PUNCT
-2.2990043	CCONJ ADJ PUNCT
-2.2395608	PRON ADJ PUNCT
-0.6454837	<s> PROPN PUNCT
-1.2798169	DET PROPN PUNCT
-0.63157034	NOUN PROPN PUNCT
-0.5320375	PUNCT PROPN PUNCT
-0.8152629	VERB PROPN PUNCT
-1.2437791	NUM PROPN PUNCT
-1.0826616	ADP PROPN PUNCT
-0.85022944	ADJ PROPN PUNCT
-0.6299521	PROPN PROPN PUNCT
-0.8645759	PART PROPN PUNCT
-1.0073583	ADV PROPN PUNCT
-1.1916561	X PROPN PUNCT
-0.8423208	CCONJ PROPN PUNCT
-0.76806366	PRON PROPN PUNCT
-1.7144209	SCONJ PROPN PUNCT
-0.69464225	INTJ PROPN PUNCT
-1.61815	<s> PART PUNCT
-2.026116	DET PART PUNCT
-0.7612126	NOUN PART PUNCT
-0.969257	PUNCT PART PUNCT
-0.8264401	VERB PART PUNCT
-0.76888883	NUM PART PUNCT
-1.3656182	ADP PART PUNCT
-1.5560157	ADJ PART PUNCT
-1.2574377	PROPN PART PUNCT
-0.99056864	PART PART PUNCT
-0.7819477	ADV PART PUNCT
-1.1535555	CCONJ PART PUNCT
-1.3381742	PRON PART PUNCT
-0.6903569	INTJ PART PUNCT
-1.4360119	<s> ADV PUNCT
-1.2514216	DET ADV PUNCT
-2.0911398	NOUN ADV PUNCT
-1.5215052	PUNCT ADV PUNCT
-1.3792422	VERB ADV PUNCT
-1.7782823	NUM ADV PUNCT
-2.0937521	ADP ADV PUNCT
-1.2960314	ADJ ADV PUNCT
-2.183911	PROPN ADV PUNCT
-1.7101244	PART ADV PUNCT
-1.9600006	ADV ADV PUNCT
-1.967344	X ADV PUNCT
-2.0505512	CCONJ ADV PUNCT
-2.512985	PRON ADV PUNCT
-2.0319028	SCONJ ADV PUNCT
-0.682747	INTJ ADV PUNCT
-1.2427456	<s> X PUNCT
-1.8152041	NOUN X PUNCT
-0.9069415	PUNCT X PUNCT
-1.778681	VERB X PUNCT
-1.4565083	ADP X PUNCT
-1.1687474	PROPN X PUNCT
-1.9484847	PART X PUNCT
-2.0659719	ADV X PUNCT
-1.2123636	X X PUNCT
-1.5955063	CCONJ X PUNCT
-2.144969	PRON X PUNCT
-1.4218286	SCONJ X PUNCT
-1.8441314	<s> CCONJ PUNCT
-2.2518854	NOUN CCONJ PUNCT
-0.9671449	PUNCT CCONJ PUNCT
-2.3659525	VERB CCONJ PUNCT
-2.1741738	NUM CCONJ PUNCT
-2.0913932	PROPN CCONJ PUNCT
-1.7352238	ADV CCONJ PUNCT
-0.693766	X CCONJ PUNCT
-1.9927402	PRON CCONJ PUNCT
-2.4707756	<s> PRON PUNCT
-1.3214287	DET PRON PUNCT
-1.0981297	NOUN PRON PUNCT
-1.8946805	PUNCT PRON PUNCT
-0.80707234	VERB PRON PUNCT
-0.6054343	NUM PRON PUNCT
-1.5079752	ADP PRON PUNCT
-1.0958976	ADJ PRON PUNCT
-1.1019866	PROPN PRON PUNCT
-0.76780045	PART PRON PUNCT
-2.009413	ADV PRON PUNCT
-2.1465774	X PRON PUNCT
-1.4185718	CCONJ PRON PUNCT
-1.1074064	PRON PRON PUNCT
-2.2170522	SCONJ PRON PUNCT
-2.578563	<s> SCONJ PUNCT
-2.4902327	NOUN SCONJ PUNCT
-2.0934026	PUNCT SCONJ PUNCT
-2.200568	ADV SCONJ PUNCT
-2.0898778	PRON SCONJ PUNCT
-0.09164408	<s> INTJ PUNCT
-0.07567392	PUNCT INTJ PUNCT
-0.44597924	VERB INTJ PUNCT
-0.21803032	NUM INTJ PUNCT
-0.41350183	PROPN INTJ PUNCT
-0.31692195	PART INTJ PUNCT
-0.32718408	INTJ INTJ PUNCT
-1.570764	<s> DET VERB
-1.486377	DET DET VERB
-1.4492555	NOUN DET VERB
-1.5480429	PUNCT DET VERB
-1.3011378	VERB DET VERB
-1.8270714	NUM DET VERB
-1.3439493	ADP DET VERB
-1.412593	ADJ DET VERB
-1.6331643	PROPN DET VERB
-1.4967074	PART DET VERB
-1.3139619	ADV DET VERB
-1.2802247	X DET VERB
-1.1856334	CCONJ DET VERB
-1.2855564	PRON DET VERB
-1.2821442	SCONJ DET VERB
-0.6700756	<s> NOUN VERB
-0.6552288	DET NOUN VERB
-0.76768994	NOUN NOUN VERB
-0.86437374	PUNCT NOUN VERB
-0.82834697	VERB NOUN VERB
-0.66928005	NUM NOUN VERB
-0.61148053	ADP NOUN VERB
-0.8821448	ADJ NOUN VERB
-0.741965	PROPN NOUN VERB
-0.8903298	PART NOUN VERB
-0.66925925	ADV NOUN VERB
-0.28177184	X NOUN VERB
-0.8880714	CCONJ NOUN VERB
-0.6121328	PRON NOUN VERB
-0.43914402	SCONJ NOUN VERB
-1.0414361	<s> PUNCT VERB
-1.0957004	DET PUNCT VERB
-1.2285167	NOUN PUNCT VERB
-1.1975311	PUNCT PUNCT VERB
-1.2697394	VERB PUNCT VERB
-1.3153492	NUM PUNCT VERB
-0.8312948	ADP PUNCT VERB
-0.9313666	ADJ PUNCT VERB
-1.0069768	PROPN PUNCT VERB
-1.3578792	PART PUNCT VERB
-1.1387349	ADV PUNCT VERB
-0.8375528	X PUNCT VERB
-0.8806119	CCONJ PUNCT VERB
-1.3467097	PRON PUNCT VERB
-0.7859277	SCONJ PUNCT VERB
-1.835462	INTJ PUNCT VERB
-0.76209444	<s> VERB VERB
-0.8388621	DET VERB VERB
-0.8067189	NOUN VERB VERB
-0.8402551	PUNCT VERB VERB
-0.8941927	VERB VERB VERB
-0.8995955	NUM VERB VERB
-0.9635271	ADP VERB VERB
-1.0663234	ADJ VERB VERB
-0.9381311	PROPN VERB VERB
-1.01628	PART VERB VERB
-0.7478912	ADV VERB VERB
-0.6771414	X VERB VERB
-1.018366	CCONJ VERB VERB
-0.64624375	PRON VERB VERB
-0.5732336	SCONJ VERB VERB
-0.92386913	INTJ VERB VERB
-1.4460998	<s> NUM VERB
-1.3903266	DET NUM VERB
-1.4630952	NOUN NUM VERB
-1.4597211	PUNCT NUM VERB
-1.4454646	VERB NUM VERB
-1.0272185	NUM NUM VERB
-1.5553544	ADP NUM VERB
-1.4728723	ADJ NUM VERB
-1.3825698	PROPN NUM VERB
-1.7896892	PART NUM VERB
-1.3822491	ADV NUM VERB
-1.4744875	X NUM VERB
-1.4848688	CCONJ NUM VERB
-1.4753292	PRON NUM VERB
-1.8346511	SCONJ NUM VERB
-0.88303685	<s> ADP VERB
-1.0479536	DET ADP VERB
-1.0981146	NOUN ADP VERB
-1.0084798	PUNCT ADP VERB
-1.0865359	VERB ADP VERB
-1.331084	NUM ADP VERB
-1.1835338	ADP ADP VERB
-1.3782758	ADJ ADP VERB
-1.169256	PROPN ADP VERB
-1.0528731	PART ADP VERB
-1.0998775	ADV ADP VERB
-0.98042333	X ADP VERB
-1.2594357	CCONJ ADP VERB
-1.0751324	PRON ADP VERB
-1.2480333	SCONJ ADP VERB
-1.7002684	<s> ADJ VERB
-1.7514921	DET ADJ VERB
-1.5793	NOUN ADJ VERB
-1.790077	PUNCT ADJ VERB
-1.8308854	VERB ADJ VERB
-1.9478909	NUM ADJ VERB
-1.8161428	ADP ADJ VERB
-1.8317866	ADJ ADJ VERB
-1.9873455	PROPN ADJ VERB
-1.9821564	PART ADJ VERB
-1.7987317	ADV ADJ VERB
-1.9631264	X ADJ VERB
-1.841676	CCONJ ADJ VERB
-1.3962795	PRON ADJ VERB
-1.7826949	SCONJ ADJ VERB
-0.9285919	<s> PROPN VERB
-1.121786	DET PROPN VERB
-0.8075425	NOUN PROPN VERB
-1.149678	PUNCT PROPN VERB
-0.96348333	VERB PROPN VERB
-1.1194211	NUM PROPN VERB
-0.692793	ADP PROPN VERB
-1.0447913	ADJ PROPN VERB
-0.7300508	PROPN PROPN VERB
-1.0813793	PART PROPN VERB
-0.8847467	ADV PROPN VERB
-0.5590496	X PROPN VERB
-0.9605049	CCONJ PROPN VERB
-0.74196005	PRON PROPN VERB
-0.6719931	SCONJ PROPN VERB
-0.6903332	INTJ PROPN VERB
-0.53453934	SPACE PROPN VERB
-0.274597	<s> PART VERB
-1.5886915	DET PART VERB
-0.8351955	NOUN PART VERB
-0.80088466	PUNCT PART VERB
-0.9882399	VERB PART VERB
-1.1207368	NUM PART VERB
-0.44211188	ADP PART VERB
-2.084209	ADJ PART VERB
-1.185694	PROPN PART VERB
-1.2350525	PART PART VERB
-0.29346004	ADV PART VERB
-0.7430659	X PART VERB
-0.24284704	CCONJ PART VERB
-1.1293563	PRON PART VERB
-0.5881715	SCONJ PART VERB
-0.41024363	<s> ADV VERB
-0.24365191	DET ADV VERB
-0.16394831	NOUN ADV VERB
-0.34478366	PUNCT ADV VERB
-0.22788255	VERB ADV VERB
-0.21106878	NUM ADV VERB
-0.2640012	ADP ADV VERB
-0.20219359	ADJ ADV VERB
-0.17421803	PROPN ADV VERB
-0.1700998	PART ADV VERB
-0.13230076	ADV ADV VERB
-0.11443522	X ADV VERB
-0.19375691	CCONJ ADV VERB
-0.15306795	PRON ADV VERB
-0.20147556	SCONJ ADV VERB
-0.77730036	<s> X VERB
-0.25195214	DET X VERB
-0.3079103	NOUN X VERB
-0.63818365	PUNCT X VERB
-0.4958631	VERB X VERB
-0.3277153	NUM X VERB
-0.28351736	ADP X VERB
-0.31235138	PROPN X VERB
-0.23329514	PART X VERB
-0.37735462	ADV X VERB
-0.3743562	CCONJ X VERB
-0.45332977	PRON X VERB
-0.64547646	SCONJ X VERB
-0.6190804	<s> CCONJ VERB
-0.9866405	DET CCONJ VERB
-1.0804161	NOUN CCONJ VERB
-0.6299258	PUNCT CCONJ VERB
-0.23589393	VERB CCONJ VERB
-1.5182186	NUM CCONJ VERB
-0.87477833	ADP CCONJ VERB
-0.52847147	ADJ CCONJ VERB
-1.6464955	PROPN CCONJ VERB
-0.56945324	PART CCONJ VERB
-0.5548485	ADV CCONJ VERB
-0.46687827	CCONJ CCONJ VERB
-1.0642526	PRON CCONJ VERB
-0.5147362	SCONJ CCONJ VERB
-0.36226594	<s> PRON VERB
-0.40041822	DET PRON VERB
-0.46898288	NOUN PRON VERB
-0.3690639	PUNCT PRON VERB
-0.54975456	VERB PRON VERB
-0.5229928	NUM PRON VERB
-0.4002536	ADP PRON VERB
-0.8441756	ADJ PRON VERB
-0.5227228	PROPN PRON VERB
-0.6535031	PART PRON VERB
-0.4177444	ADV PRON VERB
-0.23808214	X PRON VERB
-0.7327534	CCONJ PRON VERB
-0.47743964	PRON PRON VERB
-0.29677415	SCONJ PRON VERB
-0.5310507	INTJ PRON VERB
-0.6405083	<s> SCONJ VERB
-0.22539417	NOUN SCONJ VERB
-0.65227324	PUNCT SCONJ VERB
-0.5342782	VERB SCONJ VERB
-0.45681745	NUM SCONJ VERB
-0.8709328	ADP SCONJ VERB
-0.38084835	PROPN SCONJ VERB
-0.28109506	PART SCONJ VERB
-0.4929139	ADV SCONJ VERB
-0.19994457	PRON SCONJ VERB
-0.64458853	SCONJ SCONJ VERB
-1.6162112	<s> INTJ VERB
-0.7487069	NOUN INTJ VERB
-0.5373267	VERB INTJ VERB
-0.75978696	PROPN INTJ VERB
-0.58160436	<s> DET NUM
-0.77053124	DET DET NUM
-0.578253	NOUN DET NUM
-0.6289574	PUNCT DET NUM
-0.70375717	VERB DET NUM
-0.76660234	NUM DET NUM
-0.62843984	ADP DET NUM
-0.8708344	ADJ DET NUM
-0.71325004	PROPN DET NUM
-0.46640533	PART DET NUM
-0.75079834	ADV DET NUM
-0.61943954	X DET NUM
-1.0223321	CCONJ DET NUM
-0.6163709	PRON DET NUM
-0.75321573	SCONJ DET NUM
-1.5856446	<s> NOUN NUM
-2.2411175	DET NOUN NUM
-2.0742426	NOUN NOUN NUM
-1.7969425	PUNCT NOUN NUM
-1.9782927	VERB NOUN NUM
-2.1278508	NUM NOUN NUM
-1.844128	ADP NOUN NUM
-2.4077625	ADJ NOUN NUM
-1.8881979	PROPN NOUN NUM
-2.4828732	PART NOUN NUM
-1.7937511	ADV NOUN NUM
-2.1023955	X NOUN NUM
-2.377913	CCONJ NOUN NUM
-1.8911585	PRON NOUN NUM
-1.8754244	SCONJ NOUN NUM
-1.7477039	<s> PUNCT NUM
-1.1710882	DET PUNCT NUM
-1.9885962	NOUN PUNCT NUM
-1.7990147	PUNCT PUNCT NUM
-2.008904	VERB PUNCT NUM
-0.98175085	NUM PUNCT NUM
-1.6782408	ADP PUNCT NUM
-1.9448105	ADJ PUNCT NUM
-1.7514578	PROPN PUNCT NUM
-1.9622945	PART PUNCT NUM
-2.1440897	ADV PUNCT NUM
-1.9326588	X PUNCT NUM
-1.5468742	CCONJ PUNCT NUM
-2.4657812	PRON PUNCT NUM
-1.1387061	<s> VERB NUM
-1.8254571	DET VERB NUM
-1.3907151	NOUN VERB NUM
-1.3283257	PUNCT VERB NUM
-1.3417175	VERB VERB NUM
-1.420526	NUM VERB NUM
-1.5357344	ADP VERB NUM
-1.5811231	ADJ VERB NUM
-1.2441472	PROPN VERB NUM
-1.3239121	PART VERB NUM
-1.2959138	ADV VERB NUM
-1.4841573	X VERB NUM
-1.6625377	CCONJ VERB NUM
-1.3998369	PRON VERB NUM
-1.3088138	SCONJ VERB NUM
-0.92386913	INTJ VERB NUM
-0.4416721	<s> NUM NUM
-0.5946659	DET NUM NUM
-0.3628023	NOUN NUM NUM
-0.43988922	PUNCT NUM NUM
-0.34330443	VERB NUM NUM
-1.4699335	NUM NUM NUM
-0.31548092	ADP NUM NUM
-0.31078422	ADJ NUM NUM
-0.5467536	PROPN NUM NUM
-0.23820259	PART NUM NUM
-0.5142754	ADV NUM NUM
-0.37238276	X NUM NUM
-0.32165676	CCONJ NUM NUM
-0.2683708	PRON NUM NUM
-0.46588504	SCONJ NUM NUM
-0.26099974	INTJ NUM NUM
-1.3436137	<s> ADP NUM
-1.6936135	DET ADP NUM
-1.4631125	NOUN ADP NUM
-1.3863106	PUNCT ADP NUM
-1.5049429	VERB ADP NUM
-1.4850781	NUM ADP NUM
-1.480236	ADP ADP NUM
-1.4154632	PROPN ADP NUM
-1.3816718	PART ADP NUM
-1.4158152	ADV ADP NUM
-1.5973351	CCONJ ADP NUM
-1.4171964	PRON ADP NUM
-1.5352116	SCONJ ADP NUM
-1.7758898	<s> ADJ NUM
-2.2069077	DET ADJ NUM
-1.7480161	NOUN ADJ NUM
-1.8905686	PUNCT ADJ NUM
-1.900694	VERB ADJ NUM
-1.9902306	NUM ADJ NUM
-1.9026508	ADP ADJ NUM
-2.4495707	ADJ ADJ NUM
-1.9397273	PROPN ADJ NUM
-1.9668758	PART ADJ NUM
-1.8186868	ADV ADJ NUM
-2.4973333	CCONJ ADJ NUM
-1.4023134	PRON ADJ NUM
-1.8067732	<s> PROPN NUM
-2.0920374	DET PROPN NUM
-1.8475077	NOUN PROPN NUM
-1.7055881	PUNCT PROPN NUM
-1.7716258	VERB PROPN NUM
-2.0958438	NUM PROPN NUM
-1.9259026	ADP PROPN NUM
-2.3628068	ADJ PROPN NUM
-1.889937	PROPN PROPN NUM
-2.0693786	PART PROPN NUM
-1.8214942	ADV PROPN NUM
-1.5564842	X PROPN NUM
-1.5679377	CCONJ PROPN NUM
-1.8786758	PRON PROPN NUM
-1.6441503	SCONJ PROPN NUM
-0.979238	INTJ PROPN NUM
-1.739247	<s> PART NUM
-2.0604334	DET PART NUM
-1.7079628	NOUN PART NUM
-1.7261564	PUNCT PART NUM
-1.2077233	VERB PART NUM
-1.9167479	NUM PART NUM
-1.3614883	ADP PART NUM
-1.6559007	ADJ PART NUM
-1.4833556	PROPN PART NUM
-1.2356483	PART PART NUM
-2.033493	ADV PART NUM
-1.0388609	X PART NUM
-1.8598441	PRON PART NUM
-1.5872656	<s> ADV NUM
-1.813456	DET ADV NUM
-1.898545	NOUN ADV NUM
-1.5923011	PUNCT ADV NUM
-1.0673652	VERB ADV NUM
-1.454028	NUM ADV NUM
-1.2051055	ADP ADV NUM
-1.4892465	ADJ ADV NUM
-1.8342149	PROPN ADV NUM
-1.3911152	PART ADV NUM
-1.9439228	ADV ADV NUM
-1.784572	X ADV NUM
-1.2039806	CCONJ ADV NUM
-1.9811507	PRON ADV NUM
-1.6693854	SCONJ ADV NUM
-1.5197713	<s> X NUM
-1.7007337	NOUN X NUM
-1.5804857	PUNCT X NUM
-1.9088683	VERB X NUM
-1.6752964	NUM X NUM
-1.6204166	ADP X NUM
-1.9841863	PROPN X NUM
-1.6097052	PART X NUM
-1.6072931	ADV X NUM
-1.1962733	X X NUM
-1.5740954	CCONJ X NUM
-1.5718296	PRON X NUM
-1.4015514	SCONJ X NUM
-1.0902185	<s> CCONJ NUM
-1.5882434	NOUN CCONJ NUM
-1.2990324	PUNCT CCONJ NUM
-1.8737912	VERB CCONJ NUM
-0.16496736	NUM CCONJ NUM
-0.89826727	ADP CCONJ NUM
-1.8769712	ADJ CCONJ NUM
-1.680274	PROPN CCONJ NUM
-1.3745868	PART CCONJ NUM
-1.1493058	ADV CCONJ NUM
-0.67040044	X CCONJ NUM
-0.9985846	PRON CCONJ NUM
-2.3161483	<s> PRON NUM
-2.4285567	NOUN PRON NUM
-2.268188	PUNCT PRON NUM
-1.9860959	VERB PRON NUM
-2.0731294	NUM PRON NUM
-2.216902	ADP PRON NUM
-1.9363949	PROPN PRON NUM
-1.6395247	PART PRON NUM
-2.1988034	ADV PRON NUM
-2.1633933	X PRON NUM
-2.1946394	CCONJ PRON NUM
-2.2722354	PRON PRON NUM
-0.5424281	INTJ PRON NUM
-1.5996401	<s> SCONJ NUM
-1.9585408	NOUN SCONJ NUM
-1.9523882	PUNCT SCONJ NUM
-1.8668482	VERB SCONJ NUM
-1.1744589	ADP SCONJ NUM
-1.6769747	ADV SCONJ NUM
-0.6871761	SCONJ SCONJ NUM
-1.9986234	<s> INTJ NUM
-2.1604023	<s> DET ADP
-1.702935	DET DET ADP
-1.9948229	NOUN DET ADP
-2.24538	PUNCT DET ADP
-1.8645802	VERB DET ADP
-1.6723034	NUM DET ADP
-1.9942842	ADP DET ADP
-2.2535806	PROPN DET ADP
-1.9453756	PART DET ADP
-2.1777894	ADV DET ADP
-2.0379157	X DET ADP
-1.8300216	CCONJ DET ADP
-1.6542726	PRON DET ADP
-1.2874185	<s> NOUN ADP
-1.3470759	DET NOUN ADP
-1.5466622	NOUN NOUN ADP
-1.5714427	PUNCT NOUN ADP
-1.6860336	VERB NOUN ADP
-1.3911903	NUM NOUN ADP
-1.7114309	ADP NOUN ADP
-1.7099311	ADJ NOUN ADP
-1.3708438	PROPN NOUN ADP
-1.7394832	PART NOUN ADP
-1.4723057	ADV NOUN ADP
-1.5791017	X NOUN ADP
-1.7845231	CCONJ NOUN ADP
-1.3517818	PRON NOUN ADP
-1.2492192	SCONJ NOUN ADP
-1.4616132	<s> PUNCT ADP
-1.87897	DET PUNCT ADP
-1.6966649	NOUN PUNCT ADP
-1.5600228	PUNCT PUNCT ADP
-1.7537432	VERB PUNCT ADP
-1.7345423	NUM PUNCT ADP
-1.7825705	ADP PUNCT ADP
-2.1002572	ADJ PUNCT ADP
-1.4059	PROPN PUNCT ADP
-1.824536	PART PUNCT ADP
-1.614316	ADV PUNCT ADP
-1.739698	X PUNCT ADP
-1.7345544	CCONJ PUNCT ADP
-1.874306	PRON PUNCT ADP
-1.2701968	<s> VERB ADP
-1.3555255	DET VERB ADP
-1.4077361	NOUN VERB ADP
-1.3740098	PUNCT VERB ADP
-1.5343915	VERB VERB ADP
-1.405028	NUM VERB ADP
-1.652229	ADP VERB ADP
-1.9770052	ADJ VERB ADP
-1.5127875	PROPN VERB ADP
-1.7372136	PART VERB ADP
-1.3918583	ADV VERB ADP
-1.344567	X VERB ADP
-1.6043619	CCONJ VERB ADP
-1.2699671	PRON VERB ADP
-1.1933812	SCONJ VERB ADP
-2.3804638	<s> NUM ADP
-2.0218713	DET NUM ADP
-2.2112854	NOUN NUM ADP
-2.3526485	PUNCT NUM ADP
-2.0836477	VERB NUM ADP
-1.6564865	NUM NUM ADP
-2.3222136	ADP NUM ADP
-2.4115257	ADJ NUM ADP
-1.9054146	PROPN NUM ADP
-2.0942945	PART NUM ADP
-1.7398715	ADV NUM ADP
-2.2750409	CCONJ NUM ADP
-2.0885558	PRON NUM ADP
-1.7510238	<s> ADP ADP
-1.9742575	DET ADP ADP
-2.1397815	NOUN ADP ADP
-1.8789848	PUNCT ADP ADP
-1.9607893	VERB ADP ADP
-2.2609358	NUM ADP ADP
-2.4813967	ADP ADP ADP
-1.988821	PROPN ADP ADP
-2.1710708	PART ADP ADP
-1.9897451	ADV ADP ADP
-2.3416796	CCONJ ADP ADP
-2.2029164	PRON ADP ADP
-2.0358744	SCONJ ADP ADP
-3.1227176	<s> ADJ ADP
-2.8230786	DET ADJ ADP
-3.231922	NOUN ADJ ADP
-3.1518915	PUNCT ADJ ADP
-2.7337167	VERB ADJ ADP
-3.1517262	NUM ADJ ADP
-3.122135	ADP ADJ ADP
-2.7917144	PROPN ADJ ADP
-3.4779353	PART ADJ ADP
-1.4023452	<s> PROPN ADP
-1.7450374	DET PROPN ADP
-1.3605462	NOUN PROPN ADP
-1.677168	PUNCT PROPN ADP
-1.629742	VERB PROPN ADP
-1.9080932	NUM PROPN ADP
-1.7599862	ADP PROPN ADP
-2.1437497	ADJ PROPN ADP
-1.1690993	PROPN PROPN ADP
-1.8823501	PART PROPN ADP
-1.5042117	ADV PROPN ADP
-1.5208678	X PROPN ADP
-1.6218903	CCONJ PROPN ADP
-1.4804995	PRON PROPN ADP
-1.3694981	SCONJ PROPN ADP
-1.1247661	<s> PART ADP
-2.248472	DET PART ADP
-2.1646018	NOUN PART ADP
-2.2853453	PUNCT PART ADP
-1.918728	VERB PART ADP
-1.741578	NUM PART ADP
-3.1220348	ADJ PART ADP
-2.5478919	PROPN PART ADP
-2.690525	PART PART ADP
-1.3883234	ADV PART ADP
-1.431245	CCONJ PART ADP
-2.6278815	PRON PART ADP
-1.0641762	<s> ADV ADP
-1.1947601	DET ADV ADP
-1.1710198	NOUN ADV ADP
-1.0301628	PUNCT ADV ADP
-1.4023243	VERB ADV ADP
-1.3522311	NUM ADV ADP
-1.3932343	ADP ADV ADP
-1.3047305	ADJ ADV ADP
-1.0385058	PROPN ADV ADP
-1.4528112	PART ADV ADP
-1.27571	ADV ADV ADP
-1.6172978	X ADV ADP
-1.2040648	CCONJ ADV ADP
-1.2246498	PRON ADV ADP
-1.2922559	SCONJ ADV ADP
-2.1337135	<s> X ADP
-2.3834574	NOUN X ADP
-2.0559568	PUNCT X ADP
-2.4089792	VERB X ADP
-1.7790216	NUM X ADP
-1.9305197	PROPN X ADP
-2.1921573	PART X ADP
-2.229877	ADV X ADP
-2.2340326	PRON X ADP
-1.1309043	<s> CCONJ ADP
-2.0327992	NOUN CCONJ ADP
-1.1516376	PUNCT CCONJ ADP
-1.6889288	VERB CCONJ ADP
-2.3399503	NUM CCONJ ADP
-2.5264113	PROPN CCONJ ADP
-1.6037024	PART CCONJ ADP
-1.737711	ADV CCONJ ADP
-2.314431	PRON CCONJ ADP
-1.1009024	<s> PRON ADP
-1.3448029	DET PRON ADP
-1.2824823	NOUN PRON ADP
-1.0744069	PUNCT PRON ADP
-1.225931	VERB PRON ADP
-1.3184942	NUM PRON ADP
-1.3498626	ADP PRON ADP
-1.0971477	ADJ PRON ADP
-1.1826525	PROPN PRON ADP
-1.2548248	PART PRON ADP
-1.2869229	ADV PRON ADP
-1.2655472	X PRON ADP
-1.1158594	CCONJ PRON ADP
-1.3077928	PRON PRON ADP
-1.1200273	SCONJ PRON ADP
-1.373098	<s> SCONJ ADP
-1.1727209	NOUN SCONJ ADP
-1.5256474	PUNCT SCONJ ADP
-1.3722275	VERB SCONJ ADP
-0.7590672	NUM SCONJ ADP
-0.9110972	ADP SCONJ ADP
-1.0456004	PROPN SCONJ ADP
-1.2068045	PART SCONJ ADP
-1.3740544	ADV SCONJ ADP
-0.9946492	PRON SCONJ ADP
-1.5327617	<s> DET ADJ
-1.5067128	DET DET ADJ
-1.5375497	NOUN DET ADJ
-1.5894321	PUNCT DET ADJ
-1.312291	VERB DET ADJ
-1.2815448	NUM DET ADJ
-1.2959287	ADP DET ADJ
-1.183358	ADJ DET ADJ
-1.1924427	PROPN DET ADJ
-1.4733992	PART DET ADJ
-1.4482113	ADV DET ADJ
-1.1943657	X DET ADJ
-1.0680238	CCONJ DET ADJ
-1.3218988	PRON DET ADJ
-1.5287805	SCONJ DET ADJ
-2.0804672	<s> NOUN ADJ
-2.229275	DET NOUN ADJ
-2.2571883	NOUN NOUN ADJ
-2.0514898	PUNCT NOUN ADJ
-2.0003943	VERB NOUN ADJ
-2.2879193	NUM NOUN ADJ
-2.1216543	ADP NOUN ADJ
-2.3712327	ADJ NOUN ADJ
-2.047666	PROPN NOUN ADJ
-2.4558191	PART NOUN ADJ
-2.1877613	ADV NOUN ADJ
-2.1027398	X NOUN ADJ
-2.2018242	CCONJ NOUN ADJ
-2.3963645	PRON NOUN ADJ
-2.2241662	SCONJ NOUN ADJ
-1.5373404	<s> PUNCT ADJ
-1.0670369	DET PUNCT ADJ
-2.1031654	NOUN PUNCT ADJ
-1.896281	PUNCT PUNCT ADJ
-1.9831642	VERB PUNCT ADJ
-1.9070846	NUM PUNCT ADJ
-1.2998557	ADP PUNCT ADJ
-1.0370479	ADJ PUNCT ADJ
-1.7512989	PROPN PUNCT ADJ
-1.8804395	PART PUNCT ADJ
-1.9838059	ADV PUNCT ADJ
-1.449244	X PUNCT ADJ
-1.1649611	CCONJ PUNCT ADJ
-2.2843626	PRON PUNCT ADJ
-1.0139028	SCONJ PUNCT ADJ
-1.4886714	<s> VERB ADJ
-1.4895349	DET VERB ADJ
-1.5400736	NOUN VERB ADJ
-1.462574	PUNCT VERB ADJ
-1.4304366	VERB VERB ADJ
-1.3533777	NUM VERB ADJ
-1.4446095	ADP VERB ADJ
-1.5850887	ADJ VERB ADJ
-1.5412337	PROPN VERB ADJ
-1.5516894	PART VERB ADJ
-1.4990872	ADV VERB ADJ
-1.7664883	X VERB ADJ
-1.3432685	CCONJ VERB ADJ
-1.6730182	PRON VERB ADJ
-1.3818648	SCONJ VERB ADJ
-1.6073258	<s> NUM ADJ
-1.5595695	DET NUM ADJ
-1.645833	NOUN NUM ADJ
-1.8002827	PUNCT NUM ADJ
-1.3849293	VERB NUM ADJ
-1.2347187	NUM NUM ADJ
-1.6721094	ADP NUM ADJ
-1.6431025	ADJ NUM ADJ
-1.3826472	PROPN NUM ADJ
-1.4467692	PART NUM ADJ
-1.4628971	ADV NUM ADJ
-1.6488975	X NUM ADJ
-1.6257354	CCONJ NUM ADJ
-1.6411709	PRON NUM ADJ
-1.6234915	SCONJ NUM ADJ
-1.4510989	<s> ADP ADJ
-1.2068034	DET ADP ADJ
-1.4476542	NOUN ADP ADJ
-1.455896	PUNCT ADP ADJ
-1.3305582	VERB ADP ADJ
-1.3312063	NUM ADP ADJ
-1.4292611	ADP ADP ADJ
-0.94672644	ADJ ADP ADJ
-1.7236116	PROPN ADP ADJ
-1.3669007	PART ADP ADJ
-1.3468472	ADV ADP ADJ
-1.3892801	X ADP ADJ
-1.2390932	CCONJ ADP ADJ
-1.5776333	PRON ADP ADJ
-1.1107013	SCONJ ADP ADJ
-1.7365344	<s> ADJ ADJ
-1.8139523	DET ADJ ADJ
-1.9097687	NOUN ADJ ADJ
-1.6632261	PUNCT ADJ ADJ
-1.6658256	VERB ADJ ADJ
-1.8827609	NUM ADJ ADJ
-1.6770749	ADP ADJ ADJ
-1.9577879	ADJ ADJ ADJ
-1.4510896	PROPN ADJ ADJ
-1.775729	PART ADJ ADJ
-1.8170912	ADV ADJ ADJ
-1.73767	X ADJ ADJ
-1.6828864	CCONJ ADJ ADJ
-2.220644	PRON ADJ ADJ
-1.7743367	<s> PROPN ADJ
-1.7117547	DET PROPN ADJ
-2.1015525	NOUN PROPN ADJ
-1.862524	PUNCT PROPN ADJ
-1.6112065	VERB PROPN ADJ
-1.5517544	NUM PROPN ADJ
-1.6750742	ADP PROPN ADJ
-1.8326567	ADJ PROPN ADJ
-2.0296364	PROPN PROPN ADJ
-1.632309	PART PROPN ADJ
-1.7755761	ADV PROPN ADJ
-1.7674003	X PROPN ADJ
-1.798128	CCONJ PROPN ADJ
-2.0557137	PRON PROPN ADJ
-1.807192	SCONJ PROPN ADJ
-2.0839472	<s> PART ADJ
-1.4790589	DET PART ADJ
-1.333143	NOUN PART ADJ
-1.2950251	PUNCT PART ADJ
-1.3154646	VERB PART ADJ
-1.354294	NUM PART ADJ
-1.3628311	ADP PART ADJ
-1.301836	ADJ PART ADJ
-1.2006649	PROPN PART ADJ
-1.0912701	PART PART ADJ
-2.133094	ADV PART ADJ
-1.4144298	CCONJ PART ADJ
-1.553372	PRON PART ADJ
-1.9481802	<s> ADV ADJ
-1.3215806	DET ADV ADJ
-2.2360659	NOUN ADV ADJ
-1.8866228	PUNCT ADV ADJ
-1.314577	VERB ADV ADJ
-0.99511606	NUM ADV ADJ
-1.2722735	ADP ADV ADJ
-1.3047305	ADJ ADV ADJ
-1.6942291	PROPN ADV ADJ
-1.4528112	PART ADV ADJ
-2.1410246	ADV ADV ADJ
-1.6172978	X ADV ADJ
-1.4576955	CCONJ ADV ADJ
-2.4456477	PRON ADV ADJ
-1.9387642	SCONJ ADV ADJ
-1.9674135	<s> X ADJ
-1.6903772	NOUN X ADJ
-1.60616	PUNCT X ADJ
-1.5976063	VERB X ADJ
-1.5679061	NUM X ADJ
-1.9267266	PROPN X ADJ
-2.0081859	PART X ADJ
-1.5849736	ADV X ADJ
-2.0264096	PRON X ADJ
-1.4672389	SCONJ X ADJ
-1.4102707	<s> CCONJ ADJ
-0.73954946	DET CCONJ ADJ
-1.2477983	NOUN CCONJ ADJ
-1.5377898	PUNCT CCONJ ADJ
-1.4052367	VERB CCONJ ADJ
-1.6299973	NUM CCONJ ADJ
-0.8992168	ADP CCONJ ADJ
-0.7699348	ADJ CCONJ ADJ
-1.5984362	PROPN CCONJ ADJ
-1.702612	PART CCONJ ADJ
-1.236705	ADV CCONJ ADJ
-1.583149	PRON CCONJ ADJ
-2.4305112	<s> PRON ADJ
-2.4517248	NOUN PRON ADJ
-2.3575253	PUNCT PRON ADJ
-2.051022	VERB PRON ADJ
-2.1215162	NUM PRON ADJ
-2.1434522	ADP PRON ADJ
-2.3118553	PART PRON ADJ
-2.3994718	ADV PRON ADJ
-2.2005227	X PRON ADJ
-1.8836582	CCONJ PRON ADJ
-2.5209854	SCONJ PRON ADJ
-1.8575399	<s> SCONJ ADJ
-2.4426732	NOUN SCONJ ADJ
-1.732365	PUNCT SCONJ ADJ
-1.9029408	VERB SCONJ ADJ
-1.3105239	PART SCONJ ADJ
-1.8109114	ADV SCONJ ADJ
-1.4277166	<s> DET PROPN
-1.4988705	DET DET PROPN
-1.4070572	NOUN DET PROPN
-1.2949612	PUNCT DET PROPN
-1.6635587	VERB DET PROPN
-1.4957498	NUM DET PROPN
-1.3252537	ADP DET PROPN
-1.3299593	PROPN DET PROPN
-1.799218	PART DET PROPN
-1.4616263	ADV DET PROPN
-1.352042	X DET PROPN
-1.3114011	CCONJ DET PROPN
-1.6464934	PRON DET PROPN
-1.7449486	SCONJ DET PROPN
-1.2586628	<s> NOUN PROPN
-2.1252475	DET NOUN PROPN
-1.4641336	NOUN NOUN PROPN
-1.3412004	PUNCT NOUN PROPN
-1.8233123	VERB NOUN PROPN
-1.9490001	NUM NOUN PROPN
-1.5702524	ADP NOUN PROPN
-1.5766958	ADJ NOUN PROPN
-1.138653	PROPN NOUN PROPN
-1.8664058	PART NOUN PROPN
-1.7035247	ADV NOUN PROPN
-1.9087846	X NOUN PROPN
-1.7463185	CCONJ NOUN PROPN
-1.6285367	PRON NOUN PROPN
-1.7310088	SCONJ NOUN PROPN
-0.64181024	<s> PUNCT PROPN
-0.982666	DET PUNCT PROPN
-1.352506	NOUN PUNCT PROPN
-0.92071706	PUNCT PUNCT PROPN
-1.5036111	VERB PUNCT PROPN
-1.4327676	NUM PUNCT PROPN
-0.5844754	ADP PUNCT PROPN
-1.0589631	ADJ PUNCT PROPN
-0.58026636	PROPN PUNCT PROPN
-1.4623622	PART PUNCT PROPN
-1.2450433	ADV PUNCT PROPN
-0.7899099	X PUNCT PROPN
-0.81948817	CCONJ PUNCT PROPN
-1.6816859	PRON PUNCT PROPN
-0.7854998	SCONJ PUNCT PROPN
-1.8344687	INTJ PUNCT PROPN
-1.0439775	<s> VERB PROPN
-1.2097985	DET VERB PROPN
-1.2533894	NOUN VERB PROPN
-1.0396895	PUNCT VERB PROPN
-1.2181374	VERB VERB PROPN
-1.001273	NUM VERB PROPN
-1.092843	ADP VERB PROPN
-1.6228812	ADJ VERB PROPN
-1.0676808	PROPN VERB PROPN
-1.4411751	PART VERB PROPN
-1.341318	ADV VERB PROPN
-1.7532245	X VERB PROPN
-1.2319742	CCONJ VERB PROPN
-1.2857496	PRON VERB PROPN
-1.3645794	SCONJ VERB PROPN
-1.3644753	<s> NUM PROPN
-1.8341541	DET NUM PROPN
-1.6834443	NOUN NUM PROPN
-1.4789755	PUNCT NUM PROPN
-1.7212944	VERB NUM PROPN
-1.3473564	NUM NUM PROPN
-1.5146221	ADP NUM PROPN
-2.2112584	ADJ NUM PROPN
-1.5988024	PROPN NUM PROPN
-1.8986287	PART NUM PROPN
-1.6150372	ADV NUM PROPN
-1.4737148	X NUM PROPN
-1.5158528	CCONJ NUM PROPN
-2.0759847	PRON NUM PROPN
-1.4478395	SCONJ NUM PROPN
-0.7544888	<s> ADP PROPN
-0.74255174	DET ADP PROPN
-0.6293868	NOUN ADP PROPN
-0.7240824	PUNCT ADP PROPN
-0.6978556	VERB ADP PROPN
-0.46255454	NUM ADP PROPN
-0.6012707	ADP ADP PROPN
-0.7137856	ADJ ADP PROPN
-0.51915747	PROPN ADP PROPN
-0.656705	PART ADP PROPN
-0.75481844	ADV ADP PROPN
-1.184836	X ADP PROPN
-0.7643007	CCONJ ADP PROPN
-0.7226192	PRON ADP PROPN
-0.7255861	SCONJ ADP PROPN
-1.2995569	<s> ADJ PROPN
-2.007885	DET ADJ PROPN
-1.6135019	NOUN ADJ PROPN
-1.3996669	PUNCT ADJ PROPN
-1.740291	VERB ADJ PROPN
-1.7150056	NUM ADJ PROPN
-1.4446564	ADP ADJ PROPN
-2.591608	ADJ ADJ PROPN
-1.542394	PROPN ADJ PROPN
-1.9399569	PART ADJ PROPN
-1.8687892	ADV ADJ PROPN
-1.9619675	X ADJ PROPN
-1.5089253	CCONJ ADJ PROPN
-2.031974	PRON ADJ PROPN
-1.5489558	SCONJ ADJ PROPN
-0.9949504	<s> PROPN PROPN
-0.906064	DET PROPN PROPN
-0.81628466	NOUN PROPN PROPN
-0.83680415	PUNCT PROPN PROPN
-1.2503085	VERB PROPN PROPN
-1.3642871	NUM PROPN PROPN
-1.104466	ADP PROPN PROPN
-1.2219248	ADJ PROPN PROPN
-1.0065395	PROPN PROPN PROPN
-1.0390846	PART PROPN PROPN
-1.1489385	ADV PROPN PROPN
-1.3366528	X PROPN PROPN
-1.1907368	CCONJ PROPN PROPN
-1.0740385	PRON PROPN PROPN
-1.6436431	SCONJ PROPN PROPN
-0.9784919	INTJ PROPN PROPN
-1.6208524	<s> PART PROPN
-1.1846392	DET PART PROPN
-1.5566896	NOUN PART PROPN
-1.4298446	PUNCT PART PROPN
-1.3136308	VERB PART PROPN
-1.0877237	NUM PART PROPN
-1.3601496	ADP PART PROPN
-1.4075593	ADJ PART PROPN
-1.0044377	PROPN PART PROPN
-1.2906202	PART PART PROPN
-1.7751149	ADV PART PROPN
-1.411486	CCONJ PART PROPN
-1.6747694	PRON PART PROPN
-1.4065024	<s> ADV PROPN
-1.8964945	DET ADV PROPN
-2.424066	NOUN ADV PROPN
-1.4694612	PUNCT ADV PROPN
-1.9790639	VERB ADV PROPN
-2.0856516	NUM ADV PROPN
-1.5363146	ADP ADV PROPN
-1.6601067	ADJ ADV PROPN
-2.1015072	PROPN ADV PROPN
-2.1971684	PART ADV PROPN
-2.186636	ADV ADV PROPN
-1.9834466	X ADV PROPN
-1.9266131	CCONJ ADV PROPN
-2.579023	PRON ADV PROPN
-2.179524	SCONJ ADV PROPN
-0.9721491	<s> X PROPN
-1.0024197	DET X PROPN
-1.1061935	NOUN X PROPN
-0.890462	PUNCT X PROPN
-1.1727161	VERB X PROPN
-0.93845975	NUM X PROPN
-0.99982256	ADP X PROPN
-1.0282412	PROPN X PROPN
-1.2271435	PART X PROPN
-1.1472623	ADV X PROPN
-0.73283494	X X PROPN
-1.3804985	CCONJ X PROPN
-1.2566512	PRON X PROPN
-1.0037819	SCONJ X PROPN
-1.0651585	<s> CCONJ PROPN
-1.1664131	NOUN CCONJ PROPN
-0.9507274	PUNCT CCONJ PROPN
-1.7498614	VERB CCONJ PROPN
-1.5276994	NUM CCONJ PROPN
-0.8973198	ADP CCONJ PROPN
-0.21640608	PROPN CCONJ PROPN
-1.1719881	PART CCONJ PROPN
-1.5054566	ADV CCONJ PROPN
-0.6698049	X CCONJ PROPN
-1.0837314	CCONJ CCONJ PROPN
-0.9062454	PRON CCONJ PROPN
-2.3494315	<s> PRON PROPN
-1.5464456	DET PRON PROPN
-1.5358713	NOUN PRON PROPN
-2.1362739	PUNCT PRON PROPN
-2.5482347	VERB PRON PROPN
-2.049943	NUM PRON PROPN
-2.78751	ADP PRON PROPN
-1.4520328	PROPN PRON PROPN
-2.494576	PART PRON PROPN
-2.8186767	ADV PRON PROPN
-1.8247918	X PRON PROPN
-2.1928601	CCONJ PRON PROPN
-2.4070964	PRON PRON PROPN
-2.6163056	SCONJ PRON PROPN
-1.0809324	<s> SCONJ PROPN
-1.795001	NOUN SCONJ PROPN
-1.1035769	PUNCT SCONJ PROPN
-1.1839061	VERB SCONJ PROPN
-0.94544435	ADP SCONJ PROPN
-1.4528279	ADV SCONJ PROPN
-2.0081449	PRON SCONJ PROPN
-1.5941669	<s> INTJ PROPN
-0.747066	NOUN INTJ PROPN
-1.5270755	PUNCT INTJ PROPN
-0.75825053	PROPN INTJ PROPN
-0.16813548	NOUN SPACE PROPN
-0.37147576	VERB SPACE PROPN
-1.9861379	<s> DET PART
-1.2216482	DET DET PART
-2.178859	NOUN DET PART
-2.2836146	PUNCT DET PART
-1.9574885	VERB DET PART
-1.281114	NUM DET PART
-2.2104695	ADP DET PART
-1.206822	ADJ DET PART
-1.9854343	PROPN DET PART
-1.8212017	PART DET PART
-1.7265078	ADV DET PART
-1.9868257	X DET PART
-1.5854337	CCONJ DET PART
-1.1923956	PRON DET PART
-1.8970777	SCONJ DET PART
-1.144499	<s> NOUN PART
-0.8869499	DET NOUN PART
-0.9191351	NOUN NOUN PART
-1.1939752	PUNCT NOUN PART
-0.85770625	VERB NOUN PART
-0.8986388	NUM NOUN PART
-0.7103539	ADP NOUN PART
-0.90461546	ADJ NOUN PART
-0.9031832	PROPN NOUN PART
-1.1879345	PART NOUN PART
-0.95277935	ADV NOUN PART
-1.120065	X NOUN PART
-0.88248193	CCONJ NOUN PART
-0.6861224	PRON NOUN PART
-1.2332685	SCONJ NOUN PART
-2.1000676	<s> PUNCT PART
-2.0571241	DET PUNCT PART
-1.9454223	NOUN PUNCT PART
-2.2106438	PUNCT PUNCT PART
-2.3062804	VERB PUNCT PART
-2.0475929	NUM PUNCT PART
-2.5425055	ADP PUNCT PART
-1.4394115	ADJ PUNCT PART
-1.4993353	PROPN PUNCT PART
-2.6630995	PART PUNCT PART
-2.6645608	ADV PUNCT PART
-2.2498436	CCONJ PUNCT PART
-2.2570937	PRON PUNCT PART
-1.0869887	<s> VERB PART
-0.6695663	DET VERB PART
-0.9267016	NOUN VERB PART
-1.1130829	PUNCT VERB PART
-0.9696526	VERB VERB PART
-0.7405426	NUM VERB PART
-0.7886503	ADP VERB PART
-0.6522744	ADJ VERB PART
-0.87038153	PROPN VERB PART
-0.67298645	PART VERB PART
-0.97525084	ADV VERB PART
-0.62171066	X VERB PART
-0.80312204	CCONJ VERB PART
-0.9315193	PRON VERB PART
-1.3474178	SCONJ VERB PART
-0.92386913	INTJ VERB PART
-1.3595697	<s> NUM PART
-1.7866683	DET NUM PART
-1.3971853	NOUN NUM PART
-1.4940846	PUNCT NUM PART
-1.5207163	VERB NUM PART
-1.0422081	NUM NUM PART
-1.1907737	ADP NUM PART
-1.5095321	ADJ NUM PART
-1.5622791	PROPN NUM PART
-1.8592623	PART NUM PART
-1.105947	ADV NUM PART
-1.6282657	X NUM PART
-1.3033683	CCONJ NUM PART
-1.1623683	PRON NUM PART
-1.3244569	SCONJ NUM PART
-2.9700274	<s> ADP PART
-2.84324	NOUN ADP PART
-3.3080285	PUNCT ADP PART
-2.8944836	VERB ADP PART
-3.3274844	PROPN ADP PART
-3.0277243	ADV ADP PART
-2.9334948	PRON ADP PART
-0.75528264	<s> ADJ PART
-0.6758367	DET ADJ PART
-1.0888371	NOUN ADJ PART
-1.0554792	PUNCT ADJ PART
-0.92322505	VERB ADJ PART
-0.73320365	NUM ADJ PART
-1.014146	ADP ADJ PART
-1.485669	ADJ ADJ PART
-1.2026474	PROPN ADJ PART
-1.4769759	PART ADJ PART
-0.46809745	ADV ADJ PART
-1.0056132	X ADJ PART
-1.0203149	CCONJ ADJ PART
-0.31159857	PRON ADJ PART
-0.774888	SCONJ ADJ PART
-1.2521882	<s> PROPN PART
-1.000953	DET PROPN PART
-1.2278764	NOUN PROPN PART
-1.3111694	PUNCT PROPN PART
-0.9035916	VERB PROPN PART
-1.1343787	NUM PROPN PART
-0.86021113	ADP PROPN PART
-0.90962195	ADJ PROPN PART
-1.1359974	PROPN PROPN PART
-1.3541207	PART PROPN PART
-1.0230657	ADV PROPN PART
-0.9534382	X PROPN PART
-0.73447436	CCONJ PROPN PART
-1.2689598	PRON PROPN PART
-1.0951875	SCONJ PROPN PART
-0.979238	INTJ PROPN PART
-1.774585	<s> PART PART
-2.0402193	DET PART PART
-1.3739235	NOUN PART PART
-1.7151191	PUNCT PART PART
-1.7848862	VERB PART PART
-1.2773806	NUM PART PART
-1.0939922	ADP PART PART
-2.7845838	ADJ PART PART
-1.6496862	PROPN PART PART
-2.2710097	PART PART PART
-1.8272133	ADV PART PART
-1.4129554	CCONJ PART PART
-2.2372422	PRON PART PART
-2.3965304	<s> ADV PART
-1.813456	DET ADV PART
-2.4315212	NOUN ADV PART
-2.523795	PUNCT ADV PART
-1.9865801	VERB ADV PART
-1.7345889	NUM ADV PART
-2.2564785	ADP ADV PART
-1.4892465	ADJ ADV PART
-2.3314126	PROPN ADV PART
-2.6355932	PART ADV PART
-2.333346	ADV ADV PART
-1.8062665	X ADV PART
-2.5308237	CCONJ ADV PART
-2.3971872	PRON ADV PART
-2.3314438	SCONJ ADV PART
-2.4632647	<s> X PART
-2.7640893	NOUN X PART
-2.3661983	PUNCT X PART
-2.6606655	VERB X PART
-2.3828862	PRON X PART
-2.3615272	<s> CCONJ PART
-3.0646076	NOUN CCONJ PART
-2.771857	VERB CCONJ PART
-2.4070892	NUM CCONJ PART
-3.2300298	PROPN CCONJ PART
-1.8472291	PART CCONJ PART
-2.385123	PRON CCONJ PART
-1.186697	<s> PRON PART
-1.1489764	DET PRON PART
-1.0777571	NOUN PRON PART
-1.1231017	PUNCT PRON PART
-0.61736494	VERB PRON PART
-0.8212467	NUM PRON PART
-0.58610237	ADP PRON PART
-0.85258627	ADJ PRON PART
-0.9893538	PROPN PRON PART
-0.59097916	PART PRON PART
-1.1550727	ADV PRON PART
-0.6875667	X PRON PART
-0.42913175	CCONJ PRON PART
-0.63015413	PRON PRON PART
-1.2755525	SCONJ PRON PART
-2.8067389	<s> SCONJ PART
-2.3190634	VERB SCONJ PART
-1.7355685	<s> INTJ PART
-1.8770502	PUNCT INTJ PART
-1.7431878	<s> DET ADV
-1.7237009	DET DET ADV
-1.8065305	NOUN DET ADV
-2.161464	PUNCT DET ADV
-1.6787288	VERB DET ADV
-1.6435115	ADP DET ADV
-2.2878833	PROPN DET ADV
-1.9491801	PART DET ADV
-1.6897442	ADV DET ADV
-1.7723606	X DET ADV
-1.7283835	CCONJ DET ADV
-2.20644	PRON DET ADV
-0.81555116	<s> NOUN ADV
-0.7628333	DET NOUN ADV
-1.0726874	NOUN NOUN ADV
-1.1712503	PUNCT NOUN ADV
-1.3469646	VERB NOUN ADV
-0.97832555	NUM NOUN ADV
-1.2833885	ADP NOUN ADV
-1.1891152	ADJ NOUN ADV
-1.0829463	PROPN NOUN ADV
-1.1005847	PART NOUN ADV
-0.727127	ADV NOUN ADV
-1.5531825	X NOUN ADV
-1.186178	CCONJ NOUN ADV
-0.8430319	PRON NOUN ADV
-0.7052071	SCONJ NOUN ADV
-0.87565666	INTJ NOUN ADV
-0.26403284	SPACE NOUN ADV
-1.2293024	<s> PUNCT ADV
-1.8444421	DET PUNCT ADV
-1.2529633	NOUN PUNCT ADV
-1.2525978	PUNCT PUNCT ADV
-1.2826118	VERB PUNCT ADV
-1.3513469	NUM PUNCT ADV
-1.5065207	ADP PUNCT ADV
-1.327148	ADJ PUNCT ADV
-1.386088	PROPN PUNCT ADV
-1.3472972	PART PUNCT ADV
-1.2927562	ADV PUNCT ADV
-1.7262213	X PUNCT ADV
-1.2329142	CCONJ PUNCT ADV
-1.3228403	PRON PUNCT ADV
-1.8244667	INTJ PUNCT ADV
-1.2777442	<s> VERB ADV
-1.6602417	DET VERB ADV
-1.3600059	NOUN VERB ADV
-1.3894526	PUNCT VERB ADV
-1.3964261	VERB VERB ADV
-1.5584407	NUM VERB ADV
-1.556962	ADP VERB ADV
-1.584747	ADJ VERB ADV
-1.4086679	PROPN VERB ADV
-1.514873	PART VERB ADV
-1.3324049	ADV VERB ADV
-1.5942354	X VERB ADV
-1.6891812	CCONJ VERB ADV
-1.1345874	PRON VERB ADV
-1.1110418	SCONJ VERB ADV
-1.974258	<s> NUM ADV
-1.734345	DET NUM ADV
-1.9908147	NOUN NUM ADV
-2.0102954	PUNCT NUM ADV
-1.7581031	VERB NUM ADV
-1.4629947	NUM NUM ADV
-2.0628586	ADP NUM ADV
-2.206223	ADJ NUM ADV
-1.9285114	PROPN NUM ADV
-2.1257591	PART NUM ADV
-1.8867619	ADV NUM ADV
-1.641557	X NUM ADV
-1.7755625	CCONJ NUM ADV
-1.4350256	PRON NUM ADV
-1.4199033	<s> ADP ADV
-2.1225948	DET ADP ADV
-1.7168816	NOUN ADP ADV
-1.5477275	PUNCT ADP ADV
-1.6279323	VERB ADP ADV
-1.836425	NUM ADP ADV
-1.7014183	ADP ADP ADV
-1.733746	PROPN ADP ADV
-1.7271146	PART ADP ADV
-1.6141497	ADV ADP ADV
-1.6999631	CCONJ ADP ADV
-1.6451204	PRON ADP ADV
-1.2991865	SCONJ ADP ADV
-2.3035653	<s> ADJ ADV
-2.713214	DET ADJ ADV
-2.9675252	NOUN ADJ ADV
-2.7571156	PUNCT ADJ ADV
-2.6146712	VERB ADJ ADV
-2.889233	NUM ADJ ADV
-2.6100523	ADP ADJ ADV
-2.632406	ADJ ADJ ADV
-2.7080863	PROPN ADJ ADV
-2.7785912	PART ADJ ADV
-2.6710482	ADV ADJ ADV
-2.8124852	CCONJ ADJ ADV
-2.0597012	PRON ADJ ADV
-1.1489911	<s> PROPN ADV
-1.2251527	DET PROPN ADV
-1.2903594	NOUN PROPN ADV
-1.4929777	PUNCT PROPN ADV
-1.4587252	VERB PROPN ADV
-1.5516747	NUM PROPN ADV
-1.3389336	ADP PROPN ADV
-1.5727687	ADJ PROPN ADV
-1.3111382	PROPN PROPN ADV
-1.5005486	PART PROPN ADV
-0.90094626	ADV PROPN ADV
-1.7669036	X PROPN ADV
-1.256426	CCONJ PROPN ADV
-1.0763745	PRON PROPN ADV
-0.77428377	SCONJ PROPN ADV
-1.1066723	<s> PART ADV
-2.0456693	DET PART ADV
-1.4457991	NOUN PART ADV
-1.8846756	PUNCT PART ADV
-1.4920589	VERB PART ADV
-1.1944528	NUM PART ADV
-1.085979	ADP PART ADV
-3.1004515	ADJ PART ADV
-1.9269958	PROPN PART ADV
-2.1877925	PART PART ADV
-1.1240144	ADV PART ADV
-1.1788327	CCONJ PART ADV
-1.9893599	PRON PART ADV
-0.9038721	SCONJ PART ADV
-0.7780936	<s> ADV ADV
-1.0166988	DET ADV ADV
-0.759307	NOUN ADV ADV
-0.8012415	PUNCT ADV ADV
-1.1072993	VERB ADV ADV
-0.96800816	NUM ADV ADV
-1.2343322	ADP ADV ADV
-1.6616518	ADJ ADV ADV
-0.8587729	PROPN ADV ADV
-0.92462504	PART ADV ADV
-0.9428857	ADV ADV ADV
-1.126047	CCONJ ADV ADV
-0.7366277	PRON ADV ADV
-0.9478144	SCONJ ADV ADV
-0.6877996	INTJ ADV ADV
-1.7005409	<s> X ADV
-1.5455427	NOUN X ADV
-1.6771752	PUNCT X ADV
-1.4520518	VERB X ADV
-1.5444801	NUM X ADV
-1.9068056	PROPN X ADV
-1.8366828	PART X ADV
-1.5716821	ADV X ADV
-1.438782	CCONJ X ADV
-1.6677337	PRON X ADV
-0.9703843	<s> CCONJ ADV
-1.814514	NOUN CCONJ ADV
-1.0983461	PUNCT CCONJ ADV
-1.1511047	VERB CCONJ ADV
-2.1137161	NUM CCONJ ADV
-1.4827402	ADJ CCONJ ADV
-2.08539	PROPN CCONJ ADV
-1.5441139	PART CCONJ ADV
-0.87395394	ADV CCONJ ADV
-1.6421402	PRON CCONJ ADV
-0.53093016	SCONJ CCONJ ADV
-0.47365084	<s> PRON ADV
-0.63124406	DET PRON ADV
-0.5801807	NOUN PRON ADV
-0.5280597	PUNCT PRON ADV
-0.9287754	VERB PRON ADV
-1.0551959	NUM PRON ADV
-0.9972065	ADP PRON ADV
-0.85258627	ADJ PRON ADV
-0.73814446	PROPN PRON ADV
-0.8276303	PART PRON ADV
-0.41737324	ADV PRON ADV
-1.384487	X PRON ADV
-1.0408212	CCONJ PRON ADV
-0.708014	PRON PRON ADV
-0.55850726	SCONJ PRON ADV
-1.0821567	<s> SCONJ ADV
-0.72859585	NOUN SCONJ ADV
-1.1149079	PUNCT SCONJ ADV
-1.0811327	VERB SCONJ ADV
-0.77034533	NUM SCONJ ADV
-0.92915446	ADP SCONJ ADV
-0.57780254	PROPN SCONJ ADV
-1.0758746	ADV SCONJ ADV
-0.73722905	PRON SCONJ ADV
-1.7339857	<s> INTJ ADV
-2.780826	<s> DET X
-1.8012791	DET DET X
-2.6568809	NOUN DET X
-2.6653755	PUNCT DET X
-2.9201107	VERB DET X
-2.4671483	ADP DET X
-2.7003212	PART DET X
-2.1121924	X DET X
-2.6550524	CCONJ DET X
-2.4682221	<s> NOUN X
-2.3435383	DET NOUN X
-2.5451567	NOUN NOUN X
-2.514166	PUNCT NOUN X
-2.657358	VERB NOUN X
-2.3385968	NUM NOUN X
-2.5585923	ADP NOUN X
-2.7551007	ADJ NOUN X
-2.432824	PROPN NOUN X
-2.4633105	PART NOUN X
-2.7366807	ADV NOUN X
-2.8248732	CCONJ NOUN X
-2.4006865	PRON NOUN X
-2.3168595	SCONJ NOUN X
-2.8672152	<s> PUNCT X
-2.954316	NOUN PUNCT X
-2.6720452	PUNCT PUNCT X
-2.9269593	VERB PUNCT X
-2.8985822	NUM PUNCT X
-2.562815	ADP PUNCT X
-2.61072	PROPN PUNCT X
-2.9177537	PART PUNCT X
-2.794493	ADV PUNCT X
-2.3014834	CCONJ PUNCT X
-2.9560974	PRON PUNCT X
-2.2207117	<s> VERB X
-2.6569436	DET VERB X
-2.492574	NOUN VERB X
-2.5063753	PUNCT VERB X
-2.5908947	VERB VERB X
-2.7635155	NUM VERB X
-2.5327694	ADP VERB X
-2.3565154	ADJ VERB X
-2.5907202	PROPN VERB X
-2.81437	PART VERB X
-2.3668242	ADV VERB X
-2.8229127	X VERB X
-2.6059992	CCONJ VERB X
-2.2301335	PRON VERB X
-2.6660984	SCONJ VERB X
-3.167212	<s> NUM X
-3.0989285	DET NUM X
-2.9957628	NOUN NUM X
-3.016045	PUNCT NUM X
-3.1801126	VERB NUM X
-2.5721698	NUM NUM X
-2.8643715	ADP NUM X
-2.7162807	PROPN NUM X
-3.2434907	PART NUM X
-3.0393703	ADV NUM X
-1.8690718	X NUM X
-2.6916466	CCONJ NUM X
-2.7966747	<s> ADP X
-2.9195378	NOUN ADP X
-2.687784	PUNCT ADP X
-2.8760486	VERB ADP X
-2.6067388	NUM ADP X
-2.5320456	ADP ADP X
-2.8967762	PROPN ADP X
-2.7077036	PART ADP X
-3.3240418	ADV ADP X
-3.013569	PRON ADP X
-2.0865233	SCONJ ADP X
-4.0151606	VERB ADJ X
-2.618007	<s> PROPN X
-2.5288296	NOUN PROPN X
-2.575977	PUNCT PROPN X
-2.7589204	VERB PROPN X
-2.5207758	ADP PROPN X
-2.619666	ADJ PROPN X
-2.698866	PROPN PROPN X
-2.800824	PART PROPN X
-2.7035947	ADV PROPN X
-3.0608642	CCONJ PROPN X
-2.1381638	SCONJ PROPN X
-2.6581707	<s> PART X
-2.554603	NOUN PART X
-2.511941	PUNCT PART X
-2.607962	VERB PART X
-2.3896377	NUM PART X
-1.6407502	ADP PART X
-2.939506	PROPN PART X
-1.9191905	ADV PART X
-3.382654	PRON PART X
-2.0750368	<s> ADV X
-1.7499259	DET ADV X
-1.870041	NOUN ADV X
-1.9454634	PUNCT ADV X
-2.1726706	VERB ADV X
-1.8640695	NUM ADV X
-2.3336396	ADP ADV X
-1.6821136	ADJ ADV X
-1.8282597	PROPN ADV X
-1.896346	PART ADV X
-1.8964204	ADV ADV X
-2.2574542	CCONJ ADV X
-2.0042274	PRON ADV X
-2.0546498	SCONJ ADV X
-2.5079942	NOUN X X
-2.0808713	PUNCT X X
-2.7552376	VERB X X
-1.8087524	NUM X X
-1.5246911	ADP X X
-1.9740804	PROPN X X
-2.226162	PART X X
-1.6957082	CCONJ X X
-2.0468621	<s> CCONJ X
-3.1482801	NOUN CCONJ X
-2.1439843	PUNCT CCONJ X
-2.1869802	VERB CCONJ X
-3.0991898	PROPN CCONJ X
-2.4305103	PRON CCONJ X
-2.186841	<s> PRON X
-2.2272496	NOUN PRON X
-2.0747511	PUNCT PRON X
-2.2882345	VERB PRON X
-2.097624	NUM PRON X
-2.3811295	ADP PRON X
-2.2179132	PART PRON X
-2.0696135	ADV PRON X
-2.3436222	X PRON X
-2.213705	CCONJ PRON X
-2.4558144	PRON PRON X
-2.0229855	SCONJ PRON X
-2.1638367	<s> SCONJ X
-2.2750804	NOUN SCONJ X
-2.2392278	PUNCT SCONJ X
-1.9029408	VERB SCONJ X
-1.5479023	PROPN SCONJ X
-1.813866	PRON SCONJ X
-1.9641265	DET DET CCONJ
-3.3978071	VERB DET CCONJ
-2.795685	ADV DET CCONJ
-2.8662481	CCONJ DET CCONJ
-1.5990512	<s> NOUN CCONJ
-1.6183534	DET NOUN CCONJ
-1.4070852	NOUN NOUN CCONJ
-1.0801976	PUNCT NOUN CCONJ
-1.3643984	VERB NOUN CCONJ
-1.5968164	NUM NOUN CCONJ
-1.415657	ADP NOUN CCONJ
-1.3815734	ADJ NOUN CCONJ
-1.521045	PROPN NOUN CCONJ
-1.4121958	PART NOUN CCONJ
-1.4433835	ADV NOUN CCONJ
-1.3857943	X NOUN CCONJ
-2.1130178	CCONJ NOUN CCONJ
-1.5713948	PRON NOUN CCONJ
-1.5366751	SCONJ NOUN CCONJ
-2.503181	<s> PUNCT CCONJ
-1.8776782	DET PUNCT CCONJ
-2.0128403	NOUN PUNCT CCONJ
-2.0969524	PUNCT PUNCT CCONJ
-2.3178375	VERB PUNCT CCONJ
-2.2334034	NUM PUNCT CCONJ
-2.3748946	ADP PUNCT CCONJ
-1.4979949	ADJ PUNCT CCONJ
-1.9203988	PROPN PUNCT CCONJ
-2.6613438	PART PUNCT CCONJ
-2.7529647	ADV PUNCT CCONJ
-1.498959	CCONJ PUNCT CCONJ
-2.524421	PRON PUNCT CCONJ
-2.0489752	INTJ PUNCT CCONJ
-2.2932024	<s> VERB CCONJ
-1.7649363	DET VERB CCONJ
-2.1225483	NOUN VERB CCONJ
-1.842806	PUNCT VERB CCONJ
-1.9780997	VERB VERB CCONJ
-2.037063	NUM VERB CCONJ
-1.7514321	ADP VERB CCONJ
-1.5493774	ADJ VERB CCONJ
-2.2677116	PROPN VERB CCONJ
-2.2354505	PART VERB CCONJ
-2.1440713	ADV VERB CCONJ
-1.6718243	X VERB CCONJ
-2.2255237	CCONJ VERB CCONJ
-2.2818377	PRON VERB CCONJ
-2.322664	SCONJ VERB CCONJ
-2.4385362	<s> NUM CCONJ
-2.9955258	DET NUM CCONJ
-2.3211164	NOUN NUM CCONJ
-2.2016714	PUNCT NUM CCONJ
-2.070895	VERB NUM CCONJ
-2.1753817	NUM NUM CCONJ
-1.837352	ADP NUM CCONJ
-2.4318233	ADJ NUM CCONJ
-2.2440472	PROPN NUM CCONJ
-2.6967778	PART NUM CCONJ
-2.2866719	ADV NUM CCONJ
-2.3910942	CCONJ NUM CCONJ
-3.914285	<s> ADP CCONJ
-4.0020347	NOUN ADP CCONJ
-3.7197144	VERB ADP CCONJ
-3.46091	PROPN ADP CCONJ
-2.7485363	<s> ADJ CCONJ
-2.5837224	DET ADJ CCONJ
-3.022834	NOUN ADJ CCONJ
-2.456585	PUNCT ADJ CCONJ
-2.3303862	VERB ADJ CCONJ
-2.5135102	NUM ADJ CCONJ
-2.7413769	ADP ADJ CCONJ
-2.7471316	PROPN ADJ CCONJ
-2.6477444	PART ADJ CCONJ
-2.3580737	ADV ADJ CCONJ
-2.2834792	PRON ADJ CCONJ
-1.6989111	<s> PROPN CCONJ
-1.8200848	DET PROPN CCONJ
-1.6326617	NOUN PROPN CCONJ
-1.3588444	PUNCT PROPN CCONJ
-1.4420202	VERB PROPN CCONJ
-1.6493928	NUM PROPN CCONJ
-1.4443539	ADP PROPN CCONJ
-1.790003	ADJ PROPN CCONJ
-1.7286751	PROPN PROPN CCONJ
-1.6555028	PART PROPN CCONJ
-1.3275437	ADV PROPN CCONJ
-1.3643794	X PROPN CCONJ
-1.9695973	CCONJ PROPN CCONJ
-1.8925304	PRON PROPN CCONJ
-1.4442513	SCONJ PROPN CCONJ
-2.655275	<s> PART CCONJ
-2.9864964	NOUN PART CCONJ
-3.1141667	PUNCT PART CCONJ
-3.175963	VERB PART CCONJ
-2.911462	NUM PART CCONJ
-3.1800463	ADJ PART CCONJ
-3.491643	PROPN PART CCONJ
-2.3597326	ADV PART CCONJ
-3.399401	PRON PART CCONJ
-3.2576609	<s> ADV CCONJ
-3.2821808	NOUN ADV CCONJ
-2.9600217	PUNCT ADV CCONJ
-2.859989	VERB ADV CCONJ
-2.68728	NUM ADV CCONJ
-3.1076758	PROPN ADV CCONJ
-3.1424487	PART ADV CCONJ
-3.2957711	ADV ADV CCONJ
-3.6349618	PRON ADV CCONJ
-2.86743	NOUN X CCONJ
-1.4103726	X X CCONJ
-2.681554	<s> CCONJ CCONJ
-3.858834	NOUN CCONJ CCONJ
-2.909331	PUNCT CCONJ CCONJ
-2.984606	VERB CCONJ CCONJ
-3.3223648	PROPN CCONJ CCONJ
-2.148762	<s> PRON CCONJ
-1.9151793	NOUN PRON CCONJ
-2.016506	PUNCT PRON CCONJ
-2.0146499	VERB PRON CCONJ
-2.0731294	NUM PRON CCONJ
-2.112685	ADP PRON CCONJ
-2.1030593	PROPN PRON CCONJ
-2.0298655	PART PRON CCONJ
-2.253419	ADV PRON CCONJ
-2.1633933	X PRON CCONJ
-2.2118459	CCONJ PRON CCONJ
-1.8179773	PRON PRON CCONJ
-2.0167658	SCONJ PRON CCONJ
-2.6695187	NOUN SCONJ CCONJ
-2.9096642	PUNCT SCONJ CCONJ
-1.9073126	PUNCT INTJ CCONJ
-3.100848	<s> DET PRON
-1.7724999	DET DET PRON
-2.6517825	NOUN DET PRON
-2.4523418	PUNCT DET PRON
-2.655983	VERB DET PRON
-2.649472	ADP DET PRON
-2.6574547	PART DET PRON
-2.8018312	ADV DET PRON
-2.2590559	X DET PRON
-2.461045	CCONJ DET PRON
-1.8577576	<s> NOUN PRON
-2.4083095	DET NOUN PRON
-2.6293964	NOUN NOUN PRON
-2.2387078	PUNCT NOUN PRON
-2.5923715	VERB NOUN PRON
-2.5889862	NUM NOUN PRON
-2.447698	ADP NOUN PRON
-3.0438645	ADJ NOUN PRON
-2.6003344	PROPN NOUN PRON
-2.8586051	PART NOUN PRON
-1.9534883	ADV NOUN PRON
-2.5638814	X NOUN PRON
-2.4858663	CCONJ NOUN PRON
-2.1349308	PRON NOUN PRON
-2.2235196	SCONJ NOUN PRON
-1.1075394	<s> PUNCT PRON
-1.8635055	DET PUNCT PRON
-1.7753749	NOUN PUNCT PRON
-1.2698047	PUNCT PUNCT PRON
-1.6730537	VERB PUNCT PRON
-1.8279679	NUM PUNCT PRON
-1.5737776	ADP PUNCT PRON
-2.0777702	ADJ PUNCT PRON
-1.7984672	PROPN PUNCT PRON
-1.6236665	PART PUNCT PRON
-1.5748665	ADV PUNCT PRON
-1.3444244	CCONJ PUNCT PRON
-1.4949379	PRON PUNCT PRON
-1.2439275	SCONJ PUNCT PRON
-1.8244667	INTJ PUNCT PRON
-1.101251	<s> VERB PRON
-1.4434093	DET VERB PRON
-1.5220815	NOUN VERB PRON
-1.3215467	PUNCT VERB PRON
-1.3016948	VERB VERB PRON
-1.6941426	NUM VERB PRON
-1.5223709	ADP VERB PRON
-1.9672922	ADJ VERB PRON
-1.5996087	PROPN VERB PRON
-1.428927	PART VERB PRON
-1.4019144	ADV VERB PRON
-2.241966	X VERB PRON
-1.2759652	CCONJ VERB PRON
-1.122571	PRON VERB PRON
-1.5124012	SCONJ VERB PRON
-0.92386913	INTJ VERB PRON
-2.940849	<s> NUM PRON
-2.7905347	DET NUM PRON
-2.5436091	NOUN NUM PRON
-3.1754155	PUNCT NUM PRON
-2.3091245	VERB NUM PRON
-2.3545766	NUM NUM PRON
-2.8822896	ADP NUM PRON
-2.7172017	PROPN NUM PRON
-2.7044413	PART NUM PRON
-2.6351888	ADV NUM PRON
-2.139258	PRON NUM PRON
-0.9305353	<s> ADP PRON
-1.2755901	DET ADP PRON
-1.2182401	NOUN ADP PRON
-1.0148014	PUNCT ADP PRON
-1.0618451	VERB ADP PRON
-1.3602029	NUM ADP PRON
-1.1962211	ADP ADP PRON
-1.3782758	ADJ ADP PRON
-1.2411696	PROPN ADP PRON
-1.0770605	PART ADP PRON
-1.0266193	ADV ADP PRON
-1.1618025	X ADP PRON
-1.1328712	CCONJ ADP PRON
-0.96538997	PRON ADP PRON
-1.1738236	SCONJ ADP PRON
-3.273803	<s> ADJ PRON
-3.3827007	NOUN ADJ PRON
-3.0523436	VERB ADJ PRON
-3.3045688	NUM ADJ PRON
-3.424708	PART ADJ PRON
-2.424342	<s> PROPN PRON
-2.61463	DET PROPN PRON
-2.4863207	NOUN PROPN PRON
-2.4201393	PUNCT PROPN PRON
-2.5338097	VERB PROPN PRON
-2.8083992	NUM PROPN PRON
-2.3835046	ADP PROPN PRON
-2.4107692	ADJ PROPN PRON
-2.6228678	PROPN PROPN PRON
-2.6673064	PART PROPN PRON
-2.2051663	ADV PROPN PRON
-2.3866386	CCONJ PROPN PRON
-1.9256041	PRON PROPN PRON
-2.0867393	SCONJ PROPN PRON
-1.3887391	<s> PART PRON
-2.0757172	DET PART PRON
-2.4655411	NOUN PART PRON
-2.879238	PUNCT PART PRON
-1.6455129	VERB PART PRON
-1.8058513	NUM PART PRON
-1.5606202	ADP PART PRON
-2.7932484	ADJ PART PRON
-2.4893184	PROPN PART PRON
-2.4561245	PART PART PRON
-1.7818193	ADV PART PRON
-2.6275246	PRON PART PRON
-1.1011349	<s> ADV PRON
-2.1533256	DET ADV PRON
-2.609982	NOUN ADV PRON
-1.3141257	PUNCT ADV PRON
-2.0477278	VERB ADV PRON
-2.1440258	NUM ADV PRON
-1.9860209	ADP ADV PRON
-2.8591096	PROPN ADV PRON
-2.440932	PART ADV PRON
-2.1202562	ADV ADV PRON
-2.0033052	X ADV PRON
-1.8787572	CCONJ ADV PRON
-2.5015607	PRON ADV PRON
-1.8609095	SCONJ ADV PRON
-0.93808854	<s> X PRON
-1.353087	DET X PRON
-1.2536676	NOUN X PRON
-1.0259593	PUNCT X PRON
-0.9520824	VERB X PRON
-1.6752964	NUM X PRON
-1.6204166	ADP X PRON
-1.270538	PROPN X PRON
-1.2992549	PART X PRON
-1.1382327	ADV X PRON
-0.73916066	CCONJ X PRON
-0.92382693	PRON X PRON
-1.4015514	SCONJ X PRON
-1.255457	<s> CCONJ PRON
-1.8905183	NOUN CCONJ PRON
-1.4099555	PUNCT CCONJ PRON
-2.0892208	VERB CCONJ PRON
-2.1968586	NUM CCONJ PRON
-1.7769163	PROPN CCONJ PRON
-1.5670366	ADV CCONJ PRON
-0.87154055	PRON CCONJ PRON
-2.3433325	<s> PRON PRON
-1.9434551	NOUN PRON PRON
-2.2147777	PUNCT PRON PRON
-1.8100127	VERB PRON PRON
-1.9088778	NUM PRON PRON
-1.7266364	ADP PRON PRON
-1.9363949	PROPN PRON PRON
-1.7783873	PART PRON PRON
-2.0863907	ADV PRON PRON
-2.1633933	X PRON PRON
-1.634234	CCONJ PRON PRON
-1.8927078	PRON PRON PRON
-2.2355099	SCONJ PRON PRON
-0.66692436	<s> SCONJ PRON
-1.723384	NOUN SCONJ PRON
-0.620248	PUNCT SCONJ PRON
-0.8736541	VERB SCONJ PRON
-0.94957894	ADP SCONJ PRON
-1.0188518	PART SCONJ PRON
-0.72830105	ADV SCONJ PRON
-1.9761835	PRON SCONJ PRON
-1.7609304	<s> INTJ PRON
-2.382588	<s> NOUN SCONJ
-2.467744	DET NOUN SCONJ
-3.0977778	NOUN NOUN SCONJ
-2.9028063	PUNCT NOUN SCONJ
-3.3314326	VERB NOUN SCONJ
-3.161412	NUM NOUN SCONJ
-3.7583532	ADP NOUN SCONJ
-3.0291524	ADJ NOUN SCONJ
-3.0473497	PROPN NOUN SCONJ
-3.175293	PART NOUN SCONJ
-2.4543757	ADV NOUN SCONJ
-3.5066664	CCONJ NOUN SCONJ
-3.0255542	PRON NOUN SCONJ
-2.1006405	<s> PUNCT SCONJ
-2.0649948	DET PUNCT SCONJ
-2.4825482	NOUN PUNCT SCONJ
-2.0679393	PUNCT PUNCT SCONJ
-2.2892437	VERB PUNCT SCONJ
-2.4222093	NUM PUNCT SCONJ
-2.548948	ADP PUNCT SCONJ
-2.127997	ADJ PUNCT SCONJ
-2.8014133	PROPN PUNCT SCONJ
-2.4772274	PART PUNCT SCONJ
-2.2073321	ADV PUNCT SCONJ
-2.4218419	PRON PUNCT SCONJ
-2.074363	INTJ PUNCT SCONJ
-3.0526536	<s> VERB SCONJ
-3.257129	NOUN VERB SCONJ
-2.8715043	PUNCT VERB SCONJ
-3.4373505	VERB VERB SCONJ
-3.4542246	ADP VERB SCONJ
-2.9597013	PROPN VERB SCONJ
-3.7176516	PART VERB SCONJ
-3.2243376	ADV VERB SCONJ
-3.094793	X VERB SCONJ
-2.4601932	PRON VERB SCONJ
-4.01452	NUM NUM SCONJ
-3.4036138	ADP NUM SCONJ
-2.9919665	<s> ADP SCONJ
-3.7983718	NOUN ADP SCONJ
-3.3816593	PUNCT ADP SCONJ
-3.7565277	VERB ADP SCONJ
-3.0306995	<s> PROPN SCONJ
-3.9430146	NOUN PROPN SCONJ
-3.2764523	PUNCT PROPN SCONJ
-3.8746846	VERB PROPN SCONJ
-3.7171555	ADP PROPN SCONJ
-3.627101	PROPN PROPN SCONJ
-3.5165448	PART PROPN SCONJ
-2.9325225	<s> PART SCONJ
-3.810811	NOUN PART SCONJ
-3.643414	VERB PART SCONJ
-2.1546376	<s> ADV SCONJ
-4.1479006	NOUN ADV SCONJ
-2.4334388	PUNCT ADV SCONJ
-3.672825	VERB ADV SCONJ
-2.946553	ADP ADV SCONJ
-3.4472628	PROPN ADV SCONJ
-3.845689	ADV ADV SCONJ
-3.463202	PRON ADV SCONJ
-2.492106	SCONJ ADV SCONJ
-3.0909503	<s> CCONJ SCONJ
-4.246148	NOUN CCONJ SCONJ
-2.2893107	<s> PRON SCONJ
-2.9972188	NOUN PRON SCONJ
-2.5447354	PUNCT PRON SCONJ
-2.942267	VERB PRON SCONJ
-3.5196037	ADP PRON SCONJ
-2.852028	PART PRON SCONJ
-2.1235433	ADV PRON SCONJ
-3.349134	<s> SCONJ SCONJ
-2.8732133	PUNCT SCONJ SCONJ
-2.2842722	VERB SCONJ SCONJ
-4.2170434	<s> NOUN INTJ
-4.455282	PUNCT NOUN INTJ
-4.4735117	ADJ NOUN INTJ
-3.2549033	<s> PUNCT INTJ
-3.9410706	NOUN PUNCT INTJ
-2.8520534	PUNCT PUNCT INTJ
-3.687732	VERB PUNCT INTJ
-3.1295643	NUM PUNCT INTJ
-3.14006	PROPN PUNCT INTJ
-3.7763736	PART PUNCT INTJ
-3.1776247	ADV PUNCT INTJ
-3.1960266	PRON PUNCT INTJ
-4.229154	<s> VERB INTJ
-4.606746	NOUN VERB INTJ
-4.102518	PROPN VERB INTJ
-4.2289243	PRON VERB INTJ
-3.6055498	PUNCT NUM INTJ
-3.960161	PUNCT PROPN INTJ
-4.275603	VERB PROPN INTJ
-3.5746174	CCONJ PROPN INTJ
-4.536086	VERB PART INTJ
-3.555029	PART PART INTJ
-3.861788	PRON PART INTJ
-1.6383083	<s> INTJ INTJ
-1.5443245	PUNCT INTJ INTJ
-0.6779761	PART INTJ INTJ
-0.8975716	INTJ INTJ INTJ
-4.583539	ADJ NOUN SPACE
-4.997193	NOUN VERB SPACE
-5.0241485	ADV VERB SPACE

\end\
