\data\
ngram 1=21
ngram 2=324
ngram 3=4259
ngram 4=33315

\1-grams:
-2.3722422	<unk>	0
0	<s>	-3.6740863
-1.2833012	</s>	0
-1.258299	ADP	-1.0079689
-1.258299	DET	-0.9852767
-1.234658	PROPN	-1.052029
-1.258299	CCONJ	-0.96830994
-1.258299	NOUN	-1.0710634
-1.258299	PUNCT	-1.0599979
-1.258299	PRON	-0.9768762
-1.258299	ADV	-1.0250022
-1.258299	VERB	-1.0641806
-1.258299	AUX	-0.93224823
-1.258299	PART	-0.89701587
-1.258299	ADJ	-1.0250022
-1.258299	INTJ	-0.8141489
-1.258299	NUM	-0.9918821
-1.2833012	SCONJ	-0.9211464
-1.258299	X	-0.796523
-1.258299	SYM	-0.70645803
-2.2375438	SPACE	-0.30103

\2-grams:
-1.3635577	ADP </s>	0
-1.5773982	DET </s>	0
-1.2377259	PROPN </s>	0
-1.5604314	CCONJ </s>	0
-1.2494224	NOUN </s>	0
-1.2383571	PUNCT </s>	0
-1.2974399	PRON </s>	0
-1.2547982	ADV </s>	0
-1.2425396	VERB </s>	0
-1.5923002	AUX </s>	0
-1.5570678	PART </s>	0
-1.2283188	ADJ </s>	0
-1.4742008	INTJ </s>	0
-1.2498775	NUM </s>	0
-1.5749996	SCONJ </s>	0
-1.3886445	X </s>	0
-1.8382695	SYM </s>	0
-0.9774077	<s> ADP	-2.716246
-1.2354956	ADP ADP	-0.7868351
-1.1864579	DET ADP	-0.76985365
-1.2356751	PROPN ADP	-0.85620457
-1.1958365	CCONJ ADP	-0.68845016
-1.247406	NOUN ADP	-0.9471245
-1.261179	PUNCT ADP	-0.872218
-1.1780572	PRON ADP	-0.7182443
-1.2261833	ADV ADP	-0.8635442
-1.2405232	VERB ADP	-0.95383185
-1.2500167	AUX ADP	-0.6801927
-1.2147844	PART ADP	-0.6320601
-1.201345	ADJ ADP	-0.8422535
-1.2459652	INTJ ADP	-0.45267105
-1.1682248	NUM ADP	-0.8296012
-1.141305	SCONJ ADP	-0.7844746
-1.1490827	X ADP	-0.4772604
-1.3897673	SYM ADP	-0.40700975
-0.7250044	<s> DET	-2.9767087
-1.1843116	ADP DET	-0.886392
-1.2128034	DET DET	-0.78598845
-1.2356751	PROPN DET	-0.7784306
-1.169491	CCONJ DET	-0.7465627
-1.247406	NOUN DET	-0.84802645
-1.261179	PUNCT DET	-0.8430226
-1.2324504	PRON DET	-0.73411745
-1.2525289	ADV DET	-0.86681163
-1.2405232	VERB DET	-0.8823893
-1.1597749	AUX DET	-0.74999714
-1.1245425	PART DET	-0.6839006
-1.3427708	ADJ DET	-0.65393734
-1.1319175	INTJ DET	-0.48500633
-1.2474563	NUM DET	-0.63897383
-1.141305	SCONJ DET	-0.8572904
-1.2283393	X DET	-0.42044306
-1.3070925	SYM DET	-0.42203116
-0.81682515	<s> PROPN	-2.800993
-1.1823045	ADP PROPN	-0.92458117
-1.1596123	DET PROPN	-0.8639059
-1.2102818	PROPN PROPN	-0.976524
-1.2214764	CCONJ PROPN	-0.67377
-1.2453989	NOUN PROPN	-0.8756478
-1.259054	PUNCT PROPN	-0.89789164
-1.2021453	PRON PROPN	-0.68576336
-1.2502713	ADV PROPN	-0.7606863
-1.2385161	VERB PROPN	-0.9152915
-1.2152278	AUX PROPN	-0.68017536
-1.2120072	PART PROPN	-0.50406826
-1.2240583	ADJ PROPN	-0.89157295
-1.1637005	INTJ PROPN	-0.4667481
-1.2171512	NUM PROPN	-0.82134
-1.1670351	SCONJ PROPN	-0.7803412
-1.0496894	X PROPN	-0.47790444
-0.8418466	SYM PROPN	-0.65618485
-0.27643922	SPACE PROPN	-0.34845465
-1.4954019	<s> CCONJ	-2.1660984
-1.2935278	ADP CCONJ	-0.62047243
-1.2708358	DET CCONJ	-0.4625302
-1.2356751	PROPN CCONJ	-0.88841116
-1.4971496	CCONJ CCONJ	-0.35153237
-1.2722443	NOUN CCONJ	-0.89512616
-1.2363406	PUNCT CCONJ	-0.8756478
-1.2324504	PRON CCONJ	-0.6249793
-1.2525289	ADV CCONJ	-0.73359776
-1.2653617	VERB CCONJ	-0.810359
-1.3226308	AUX CCONJ	-0.43570656
-1.37464	PART CCONJ	-0.3531527
-1.2261833	ADJ CCONJ	-0.8354404
-1.3429885	INTJ CCONJ	-0.3290505
-1.1930631	NUM CCONJ	-0.78598845
-1.3045025	SCONJ CCONJ	-0.44041917
-1.2741472	X CCONJ	-0.4162007
-1.7123697	SYM CCONJ	-0.34845462
-0.9975933	<s> NOUN	-2.6202278
-1.1843116	ADP NOUN	-0.94202507
-1.1616194	DET NOUN	-0.9454313
-1.2356751	PROPN NOUN	-0.94373155
-1.169491	CCONJ NOUN	-0.75929457
-1.247406	NOUN NOUN	-1.0025742
-1.2363406	PUNCT NOUN	-0.93686503
-1.1532189	PRON NOUN	-0.8532869
-1.201345	ADV NOUN	-0.7972627
-1.2405232	VERB NOUN	-0.96043724
-1.1597749	AUX NOUN	-0.70799917
-1.1245425	PART NOUN	-0.6525298
-1.201345	ADJ NOUN	-1.0010843
-1.0697231	INTJ NOUN	-0.46817815
-1.1682248	NUM NOUN	-0.95049113
-1.141305	SCONJ NOUN	-0.704715
-1.1142914	X NOUN	-0.5651634
-0.87038434	SYM NOUN	-0.61509335
-1.4799904	<s> PUNCT	-2.1485817
-1.2354956	ADP PUNCT	-0.7972627
-1.2128034	DET PUNCT	-0.8312368
-1.2356751	PROPN PUNCT	-1.0128626
-1.2238841	CCONJ PUNCT	-0.58199966
-1.247406	NOUN PUNCT	-1.0214912
-1.2363406	PUNCT PUNCT	-0.9471245
-1.1532189	PRON PUNCT	-0.81134915
-1.201345	ADV PUNCT	-0.9554926
-1.2405232	VERB PUNCT	-0.9717603
-1.1597749	AUX PUNCT	-0.6853047
-1.15259	PART PUNCT	-0.70050424
-1.201345	ADJ PUNCT	-0.9454313
-0.99049157	INTJ PUNCT	-0.68123394
-1.1682248	NUM PUNCT	-0.9137683
-1.1994448	SCONJ PUNCT	-0.7313317
-1.0820819	X PUNCT	-0.5893283
-1.3897673	SYM PUNCT	-0.34845465
-0.83915704	<s> PRON	-2.8464632
-1.20915	ADP PRON	-0.9291683
-1.1864579	DET PRON	-0.6893456
-1.2356751	PROPN PRON	-0.7267629
-1.169491	CCONJ PRON	-0.7121953
-1.247406	NOUN PRON	-0.8218005
-1.261179	PUNCT PRON	-0.8613114
-1.1780572	PRON PRON	-0.6810095
-1.2261833	ADV PRON	-0.7930894
-1.2405232	VERB PRON	-0.9312308
-1.1878225	AUX PRON	-0.71905327
-1.2495755	PART PRON	-0.5428393
-1.2525289	ADJ PRON	-0.62672335
-1.1319175	INTJ PRON	-0.55618954
-1.2774411	NUM PRON	-0.5425255
-1.1149153	SCONJ PRON	-0.8303634
-1.4504901	X PRON	-0.31917748
-1.3897673	SYM PRON	-0.3232546
-1.0922501	<s> ADV	-2.5618901
-1.2354956	ADP ADV	-0.8282883
-1.2128034	DET ADV	-0.7683599
-1.2356751	PROPN ADV	-0.83861333
-1.1958365	CCONJ ADV	-0.7770816
-1.247406	NOUN ADV	-0.9045473
-1.2363406	PUNCT ADV	-0.93370056
-1.2044028	PRON ADV	-0.74480945
-1.201345	ADV ADV	-0.8756478
-1.2405232	VERB ADV	-0.9008033
-1.1085908	AUX ADV	-0.78509957
-1.0981969	PART ADV	-0.7996849
-1.2805765	ADJ ADV	-0.8142092
-1.2045314	INTJ ADV	-0.39591393
-1.2194088	NUM ADV	-0.7215306
-1.1994448	SCONJ ADV	-0.72058254
-1.2741472	X ADV	-0.33975273
-1.2376674	SYM ADV	-0.32379192
-1.350094	<s> VERB	-2.2677314
-1.20915	ADP VERB	-0.8840595
-1.1864579	DET VERB	-0.8945496
-1.2356751	PROPN VERB	-0.93686503
-1.1446526	CCONJ VERB	-0.84052825
-1.247406	NOUN VERB	-0.9812361
-1.2363406	PUNCT VERB	-0.9192084
-1.1532189	PRON VERB	-0.95049113
-1.2261833	ADV VERB	-0.91154754
-1.2405232	VERB VERB	-0.85172725
-1.1085908	AUX VERB	-0.9155892
-1.0733585	PART VERB	-0.9119397
-1.201345	ADJ VERB	-0.855211
-1.0697231	INTJ VERB	-0.5949697
-1.2194088	NUM VERB	-0.8100822
-1.1694027	SCONJ VERB	-0.73502797
-1.0240495	X VERB	-0.5191002
-1.0360143	SYM VERB	-0.3730867
-1.9799435	<s> AUX	-1.8040521
-1.2935278	ADP AUX	-0.5458516
-1.1864579	DET AUX	-0.787375
-1.2356751	PROPN AUX	-0.91232103
-1.2538689	CCONJ AUX	-0.65367913
-1.247406	NOUN AUX	-0.9001181
-1.2363406	PUNCT AUX	-0.8585365
-1.1532189	PRON AUX	-0.8913907
-1.2261833	ADV AUX	-0.8145065
-1.2917073	VERB AUX	-0.7765419
-1.1597749	AUX AUX	-0.69885075
-1.15259	PART AUX	-0.66449714
-1.2525289	ADJ AUX	-0.7412139
-1.3429885	INTJ AUX	-0.4311772
-1.2474563	NUM AUX	-0.7057144
-1.2317203	SCONJ AUX	-0.45848596
-1.3834355	X AUX	-0.37368172
-1.6258779	SYM AUX	-0.29943702
-2.2500975	<s> PART	-1.5770997
-1.2635431	ADP PART	-0.5133843
-1.3030453	DET PART	-0.49475873
-1.2356751	PROPN PART	-0.8460798
-1.2238841	CCONJ PART	-0.64274883
-1.2722443	NOUN PART	-0.8076038
-1.261179	PUNCT PART	-0.717104
-1.2324504	PRON PART	-0.60306454
-1.2525289	ADV PART	-0.6991022
-1.2405232	VERB PART	-0.8029282
-1.1597749	AUX PART	-0.7288431
-1.2147844	PART PART	-0.690187
-1.2261833	ADJ PART	-0.6795449
-1.468116	INTJ PART	-0.36493498
-1.2474563	NUM PART	-0.56530774
-1.2665886	SCONJ PART	-0.58488107
-1.5298225	X PART	-0.31985956
-1.8204815	SYM PART	-0.34845465
-1.3169808	<s> ADJ	-2.38486
-1.1843116	ADP ADJ	-0.872218
-1.1616194	DET ADJ	-0.853824
-1.2604744	PROPN ADJ	-0.69406146
-1.169491	CCONJ ADJ	-0.73619944
-1.247406	NOUN ADJ	-0.82049257
-1.261179	PUNCT ADJ	-0.8266891
-1.1780572	PRON ADJ	-0.74346477
-1.201345	ADV ADJ	-0.9187576
-1.2405232	VERB ADJ	-0.9032758
-1.1878225	AUX ADJ	-0.7294805
-1.1245425	PART ADJ	-0.74511856
-1.201345	ADJ ADJ	-0.81080496
-1.1667086	INTJ ADJ	-0.44930768
-1.1930631	NUM ADJ	-0.7675824
-1.1694027	SCONJ ADJ	-0.734256
-1.1142914	X ADJ	-0.51322824
-0.9974498	SYM ADJ	-0.49202782
-2.1512551	<s> INTJ	-1.5423222
-1.661936	ADP INTJ	-0.34236223
-1.5721892	DET INTJ	-0.31985956
-1.4492917	PROPN INTJ	-0.44734675
-1.4001263	CCONJ INTJ	-0.43725002
-1.29859	NOUN INTJ	-0.5555687
-1.261179	PUNCT INTJ	-0.6689469
-1.5057158	PRON INTJ	-0.32993153
-1.3427708	ADV INTJ	-0.42918772
-1.3819491	VERB INTJ	-0.5225405
-1.5191607	AUX INTJ	-0.32749623
-1.6303153	PART INTJ	-0.3471442
-1.3775619	ADJ INTJ	-0.35232687
-1.2917731	INTJ INTJ	-0.46063784
-1.8223183	NUM INTJ	-0.3462728
-1.6487356	SCONJ INTJ	-0.3471442
-1.5298225	X INTJ	-0.294317
-1.6258779	SYM INTJ	-0.34845465
-1.7761561	<s> NUM	-1.8928344
-1.20915	ADP NUM	-0.88948
-1.2128034	DET NUM	-0.7316743
-1.2604744	PROPN NUM	-0.8555156
-1.2538689	CCONJ NUM	-0.6033559
-1.247406	NOUN NUM	-0.74516344
-1.261179	PUNCT NUM	-0.7565017
-1.4086926	PRON NUM	-0.46433377
-1.2525289	ADV NUM	-0.71560794
-1.2405232	VERB NUM	-0.81978875
-1.3640646	AUX NUM	-0.532318
-1.2147844	PART NUM	-0.56307125
-1.2525289	ADJ NUM	-0.64632696
-1.5474484	INTJ NUM	-0.3156528
-1.2194088	NUM NUM	-0.7824527
-1.1149153	SCONJ NUM	-0.6380234
-1.4504901	X NUM	-0.31917748
-0.87038434	SYM NUM	-0.7262079
-1.5918181	<s> SCONJ	-2.1099174
-1.237765	ADP SCONJ	-0.6339553
-1.4207312	DET SCONJ	-0.4076004
-1.262646	PROPN SCONJ	-0.6620971
-1.2564636	CCONJ SCONJ	-0.63360065
-1.2743798	NOUN SCONJ	-0.84602
-1.2633144	PUNCT SCONJ	-0.85913074
-1.3705645	PRON SCONJ	-0.4570421
-1.313156	ADV SCONJ	-0.7843326
-1.2425396	VERB SCONJ	-0.8613114
-1.3259366	AUX SCONJ	-0.62811255
-1.3786848	PART SCONJ	-0.471718
-1.2283188	ADJ SCONJ	-0.7959187
-1.4062704	INTJ SCONJ	-0.4133241
-1.2800359	NUM SCONJ	-0.478854
-1.2019963	SCONJ SCONJ	-0.63228923
-1.6361266	X SCONJ	-0.3471442
-2.5379171	<s> X	-1.3117918
-1.3605286	ADP X	-0.45721355
-1.3378364	DET X	-0.43491447
-1.3768452	PROPN X	-0.58658594
-1.5552224	CCONJ X	-0.39747125
-1.247406	NOUN X	-0.6339749
-1.261179	PUNCT X	-0.60958093
-1.7101756	PRON X	-0.3471442
-1.4153848	ADV X	-0.3938432
-1.3197548	VERB X	-0.47513762
-1.5862154	AUX X	-0.32435584
-1.8527689	PART X	-0.34736234
-1.553842	ADJ X	-0.45314664
-1.6445851	INTJ X	-0.34658378
-1.7251816	NUM X	-0.30723196
-1.9531045	SCONJ X	-0.34845465
-1.0520972	X X	-0.6459143
-1.4919708	SYM X	-0.3471442
-2.9019177	<s> SYM	-1.2871403
-1.2635431	ADP SYM	-0.62483597
-1.3378364	DET SYM	-0.56524825
-1.2604744	PROPN SYM	-0.69609606
-1.2538689	CCONJ SYM	-0.62171894
-1.2722443	NOUN SYM	-0.7490787
-1.345557	PUNCT SYM	-0.6225744
-1.4545004	PRON SYM	-0.4164979
-1.3775619	ADV SYM	-0.5298065
-1.2405232	VERB SYM	-0.7768406
-1.5191607	AUX SYM	-0.35301378
-1.727452	PART SYM	-0.38491073
-1.2805765	ADJ SYM	-0.74666834
-1.6445851	INTJ SYM	-0.34845465
-1.2194088	NUM SYM	-0.605257
-1.8728075	SCONJ SYM	-0.3111627
-1.7522761	X SYM	-0.3468172
-1.6258779	SYM SYM	-0.3468172
-2.6723816	PROPN SPACE	-0.34845465

\3-grams:
-3.8971717	<s> ADP </s>	0
-1.9705017	ADP ADP </s>	0
-1.9335672	PROPN ADP </s>	0
-1.6876127	CCONJ ADP </s>	0
-1.4256705	NOUN ADP </s>	0
-1.9582855	PUNCT ADP </s>	0
-1.8900539	PRON ADP </s>	0
-1.8846374	ADV ADP </s>	0
-1.5333129	VERB ADP </s>	0
-1.8368706	AUX ADP </s>	0
-1.9230845	ADJ ADP </s>	0
-1.9982873	NUM ADP </s>	0
-2.0087163	ADP DET </s>	0
-2.055535	CCONJ DET </s>	0
-1.9911559	NOUN DET </s>	0
-2.1697662	PUNCT DET </s>	0
-1.8579278	PRON DET </s>	0
-1.8379831	VERB DET </s>	0
-2.051332	AUX DET </s>	0
-2.3340433	<s> PROPN </s>	0
-1.1814688	ADP PROPN </s>	0
-1.4115006	DET PROPN </s>	0
-1.182459	PROPN PROPN </s>	0
-1.6331809	CCONJ PROPN </s>	0
-1.2222975	NOUN PROPN </s>	0
-1.4592775	PUNCT PROPN </s>	0
-1.671626	PRON PROPN </s>	0
-1.4699117	ADV PROPN </s>	0
-1.2204388	VERB PROPN </s>	0
-1.765924	AUX PROPN </s>	0
-1.4420153	PART PROPN </s>	0
-1.4186926	ADJ PROPN </s>	0
-1.3283519	INTJ PROPN </s>	0
-1.5445834	NUM PROPN </s>	0
-1.7205526	SCONJ PROPN </s>	0
-1.2384241	X PROPN </s>	0
-1.1318282	SYM PROPN </s>	0
-2.7333872	<s> CCONJ </s>	0
-2.1917102	PROPN CCONJ </s>	0
-1.7361301	NOUN CCONJ </s>	0
-1.8352035	PUNCT CCONJ </s>	0
-2.033343	ADV CCONJ </s>	0
-2.1190825	VERB CCONJ </s>	0
-2.1387925	ADJ CCONJ </s>	0
-2.1098077	<s> NOUN </s>	0
-1.2281097	ADP NOUN </s>	0
-1.2935666	DET NOUN </s>	0
-1.2298162	PROPN NOUN </s>	0
-1.5014805	CCONJ NOUN </s>	0
-1.2606697	NOUN NOUN </s>	0
-1.2850004	PUNCT NOUN </s>	0
-1.306137	PRON NOUN </s>	0
-1.4136187	ADV NOUN </s>	0
-1.246522	VERB NOUN </s>	0
-1.7177498	AUX NOUN </s>	0
-1.3143048	PART NOUN </s>	0
-1.2080932	ADJ NOUN </s>	0
-1.4037442	INTJ NOUN </s>	0
-1.2664939	NUM NOUN </s>	0
-1.6666512	SCONJ NOUN </s>	0
-1.1782157	X NOUN </s>	0
-1.0560827	SYM NOUN </s>	0
-1.7492467	<s> PUNCT </s>	0
-1.1439936	ADP PUNCT </s>	0
-1.1065423	DET PUNCT </s>	0
-1.2188561	PROPN PUNCT </s>	0
-1.2355506	CCONJ PUNCT </s>	0
-1.2274847	NOUN PUNCT </s>	0
-1.177851	PUNCT PUNCT </s>	0
-1.0962161	PRON PUNCT </s>	0
-1.1862192	ADV PUNCT </s>	0
-1.1777538	VERB PUNCT </s>	0
-1.130473	AUX PUNCT </s>	0
-0.98315585	PART PUNCT </s>	0
-1.202385	ADJ PUNCT </s>	0
-0.92707807	INTJ PUNCT </s>	0
-1.1707219	NUM PUNCT </s>	0
-1.1972963	SCONJ PUNCT </s>	0
-0.9990898	X PUNCT </s>	0
-0.98000735	SYM PUNCT </s>	0
-3.870668	<s> PRON </s>	0
-1.3610507	ADP PRON </s>	0
-1.711578	PROPN PRON </s>	0
-1.7455794	CCONJ PRON </s>	0
-1.5287826	NOUN PRON </s>	0
-1.8511015	PUNCT PRON </s>	0
-1.7648215	ADV PRON </s>	0
-1.4262419	VERB PRON </s>	0
-1.8578802	AUX PRON </s>	0
-1.6291213	PART PRON </s>	0
-1.4226339	NUM PRON </s>	0
-1.8322858	SCONJ PRON </s>	0
-1.1017005	SYM PRON </s>	0
-3.0403469	<s> ADV </s>	0
-1.8346148	ADP ADV </s>	0
-1.7657412	DET ADV </s>	0
-1.4066526	PROPN ADV </s>	0
-1.7469188	CCONJ ADV </s>	0
-1.3258936	NOUN ADV </s>	0
-1.9544338	PUNCT ADV </s>	0
-1.7525645	PRON ADV </s>	0
-1.3841289	ADV ADV </s>	0
-1.3635355	VERB ADV </s>	0
-1.6256301	AUX ADV </s>	0
-1.9013962	PART ADV </s>	0
-1.8079674	ADJ ADV </s>	0
-1.2627622	INTJ ADV </s>	0
-1.8062671	NUM ADV </s>	0
-0.89933336	SYM ADV </s>	0
-2.498867	<s> VERB </s>	0
-1.8424317	ADP VERB </s>	0
-1.8599156	DET VERB </s>	0
-1.4939868	PROPN VERB </s>	0
-1.38348	CCONJ VERB </s>	0
-1.296431	NOUN VERB </s>	0
-1.5339524	PUNCT VERB </s>	0
-1.411221	PRON VERB </s>	0
-1.4090124	ADV VERB </s>	0
-1.6899741	VERB VERB </s>	0
-1.3763192	AUX VERB </s>	0
-1.3314655	PART VERB </s>	0
-1.8545771	ADJ VERB </s>	0
-1.370344	INTJ VERB </s>	0
-1.758881	NUM VERB </s>	0
-1.722023	SCONJ VERB </s>	0
-1.4559218	X VERB </s>	0
-1.2297723	SYM VERB </s>	0
-1.6993572	DET AUX </s>	0
-1.643642	NOUN AUX </s>	0
-2.175477	PUNCT AUX </s>	0
-1.7203678	PRON AUX </s>	0
-2.1352003	ADV AUX </s>	0
-2.0016994	NUM AUX </s>	0
-1.395297	PROPN PART </s>	0
-1.7624817	CCONJ PART </s>	0
-1.5076493	NOUN PART </s>	0
-1.8256804	PUNCT PART </s>	0
-1.9362853	VERB PART </s>	0
-2.0303311	AUX PART </s>	0
-2.4894614	<s> ADJ </s>	0
-1.5417148	ADP ADJ </s>	0
-1.6930711	DET ADJ </s>	0
-1.6249905	PROPN ADJ </s>	0
-1.6871215	CCONJ ADJ </s>	0
-1.2788398	NOUN ADJ </s>	0
-1.5744892	PUNCT ADJ </s>	0
-1.5552284	PRON ADJ </s>	0
-1.3804092	ADV ADJ </s>	0
-1.4433498	VERB ADJ </s>	0
-1.6747464	AUX ADJ </s>	0
-1.6828256	PART ADJ </s>	0
-1.5435407	ADJ ADJ </s>	0
-1.3825626	INTJ ADJ </s>	0
-1.8294327	NUM ADJ </s>	0
-1.4860988	X ADJ </s>	0
-1.2476768	SYM ADJ </s>	0
-2.0717468	<s> INTJ </s>	0
-1.5703875	PROPN INTJ </s>	0
-1.5588485	NOUN INTJ </s>	0
-1.4039237	PUNCT INTJ </s>	0
-1.5520115	VERB INTJ </s>	0
-1.5625293	INTJ INTJ </s>	0
-0.8483695	<s> NUM </s>	0
-1.5459164	ADP NUM </s>	0
-1.8323617	DET NUM </s>	0
-1.1938664	PROPN NUM </s>	0
-1.5944095	CCONJ NUM </s>	0
-1.2066389	NOUN NUM </s>	0
-1.498829	PUNCT NUM </s>	0
-1.5043961	PRON NUM </s>	0
-1.4899607	VERB NUM </s>	0
-1.6147131	PART NUM </s>	0
-1.6410347	ADJ NUM </s>	0
-1.4862001	NUM NUM </s>	0
-1.7362698	SCONJ NUM </s>	0
-0.827319	X NUM </s>	0
-1.1569853	SYM NUM </s>	0
-3.4138713	<s> SCONJ </s>	0
-1.9048167	ADP SCONJ </s>	0
-2.1536977	NOUN SCONJ </s>	0
-1.9991605	PUNCT SCONJ </s>	0
-1.5026325	VERB SCONJ </s>	0
-2.1057167	ADJ SCONJ </s>	0
-0.742913	<s> X </s>	0
-0.88147944	ADP X </s>	0
-1.6778467	PROPN X </s>	0
-1.3559806	NOUN X </s>	0
-1.3573911	PUNCT X </s>	0
-1.423414	ADV X </s>	0
-1.5859514	VERB X </s>	0
-1.702708	NUM SYM </s>	0
-1.6869066	<s> ADP ADP	-1.2884505
-1.4160868	ADP ADP ADP	-0.6238014
-1.2399963	DET ADP ADP	-0.2973923
-1.1772223	PROPN ADP ADP	-1.0127822
-1.1308117	CCONJ ADP ADP	-0.62686175
-1.177569	NOUN ADP ADP	-1.656894
-1.1771044	PUNCT ADP ADP	-1.3177745
-1.1385531	PRON ADP ADP	-0.8738327
-1.1156918	ADV ADP ADP	-1.0790393
-1.2104859	VERB ADP ADP	-2.1246607
-1.1803491	AUX ADP ADP	-0.42018595
-1.4689276	PART ADP ADP	-0.2791486
-1.2421988	ADJ ADP ADP	-0.77660525
-1.1952608	NUM ADP ADP	-0.46372372
-1.2814366	SCONJ ADP ADP	-0.5511517
-1.2949177	X ADP ADP	-0.29018852
-1.9846578	<s> DET ADP	-1.3700117
-1.128119	ADP DET ADP	-1.58046
-1.1763961	DET DET ADP	-0.60129833
-1.3241903	PROPN DET ADP	-0.44807404
-1.1805456	CCONJ DET ADP	-1.0798844
-1.1907334	NOUN DET ADP	-0.8284382
-1.1514039	PUNCT DET ADP	-1.2732677
-1.3190417	PRON DET ADP	-0.53793454
-1.1297425	ADV DET ADP	-0.9660471
-1.1517336	VERB DET ADP	-1.5798067
-1.1242659	AUX DET ADP	-1.1563921
-1.1346703	PART DET ADP	-0.6653341
-1.104707	ADJ DET ADP	-0.5776644
-1.3627442	INTJ DET ADP	-0.29018852
-1.3559388	NUM DET ADP	-0.42605773
-1.1037186	SCONJ DET ADP	-1.1464586
-1.2924684	X DET ADP	-0.29018852
-1.6057193	<s> PROPN ADP	-1.4994125
-1.1812541	ADP PROPN ADP	-2.2728825
-1.1389186	DET PROPN ADP	-2.1550121
-1.1822679	PROPN PROPN ADP	-2.5271592
-1.2005782	CCONJ PROPN ADP	-1.5173532
-1.1602155	NOUN PROPN ADP	-1.3869839
-1.1605169	PUNCT PROPN ADP	-1.7645109
-1.1242285	PRON PROPN ADP	-0.90057135
-1.1180887	ADV PROPN ADP	-0.7010847
-1.1360594	VERB PROPN ADP	-1.7631917
-1.1503488	AUX PROPN ADP	-0.6088249
-1.3079245	PART PROPN ADP	-1.3935906
-1.1437391	ADJ PROPN ADP	-1.5346828
-1.0641879	INTJ PROPN ADP	-0.36061814
-1.0319546	NUM PROPN ADP	-1.1119921
-1.1759079	SCONJ PROPN ADP	-0.659603
-1.2377396	X PROPN ADP	-0.5657993
-1.182993	SYM PROPN ADP	-0.79521334
-1.0169634	<s> CCONJ ADP	-1.394419
-0.8692425	ADP CCONJ ADP	-1.116076
-1.3383753	DET CCONJ ADP	-0.30111897
-1.2052504	PROPN CCONJ ADP	-1.1778522
-1.2811406	CCONJ CCONJ ADP	-0.29018852
-1.2702771	NOUN CCONJ ADP	-1.5983297
-1.1555709	PUNCT CCONJ ADP	-1.6549362
-1.2879359	PRON CCONJ ADP	-0.6702974
-1.0815467	ADV CCONJ ADP	-0.8786311
-1.2168766	VERB CCONJ ADP	-0.8075584
-1.44831	AUX CCONJ ADP	-0.29018852
-1.3470925	PART CCONJ ADP	-0.29018852
-1.1902725	ADJ CCONJ ADP	-0.73609906
-1.2181518	INTJ CCONJ ADP	-0.29018852
-1.2903845	NUM CCONJ ADP	-0.5087719
-1.305302	X CCONJ ADP	-0.29018852
-0.5682193	<s> NOUN ADP	-2.1947775
-1.1999145	ADP NOUN ADP	-2.6885111
-1.1522568	DET NOUN ADP	-3.23699
-1.2016208	PROPN NOUN ADP	-2.0708797
-1.0493768	CCONJ NOUN ADP	-2.2730832
-1.2093997	NOUN NOUN ADP	-2.6929626
-1.1684724	PUNCT NOUN ADP	-2.2404473
-1.1015205	PRON NOUN ADP	-2.316076
-1.0831275	ADV NOUN ADP	-1.4968457
-1.1672628	VERB NOUN ADP	-2.6591213
-1.0203048	AUX NOUN ADP	-1.8388884
-0.97498035	PART NOUN ADP	-1.9798567
-1.2079098	ADJ NOUN ADP	-3.079013
-1.086301	INTJ NOUN ADP	-0.56299615
-1.2083805	NUM NOUN ADP	-2.318784
-0.9817007	SCONJ NOUN ADP	-1.4755633
-0.9472126	X NOUN ADP	-0.60129833
-1.0141307	SYM NOUN ADP	-0.7829789
-1.1976298	<s> PUNCT ADP	-1.2398826
-1.1816792	ADP PUNCT ADP	-0.88561016
-1.2063209	DET PUNCT ADP	-0.8440853
-1.2457792	PROPN PUNCT ADP	-2.0640838
-1.0151216	CCONJ PUNCT ADP	-1.0213492
-1.2544078	NOUN PUNCT ADP	-2.3492045
-1.2064048	PUNCT PUNCT ADP	-1.4606104
-1.1287061	PRON PUNCT ADP	-1.1331989
-1.2428411	ADV PUNCT ADP	-1.650311
-1.2310406	VERB PUNCT ADP	-1.6399591
-1.1802415	AUX PUNCT ADP	-0.8331903
-1.2913532	PART PUNCT ADP	-0.41386133
-1.2327799	ADJ PUNCT ADP	-1.4156034
-1.0659016	INTJ PUNCT ADP	-0.81793016
-1.2311252	NUM PUNCT ADP	-1.4592505
-1.073815	SCONJ PUNCT ADP	-0.8657353
-1.5731425	X PUNCT ADP	-0.46019974
-2.3547816	<s> PRON ADP	-0.90823215
-1.1684806	ADP PRON ADP	-1.561206
-1.3010837	DET PRON ADP	-0.2791486
-1.3640689	PROPN PRON ADP	-0.2846335
-1.2750754	CCONJ PRON ADP	-0.62229276
-1.1489853	NOUN PRON ADP	-0.6217266
-1.168571	PUNCT PRON ADP	-0.85371697
-1.5233757	PRON PRON ADP	-0.40554526
-1.1424127	ADV PRON ADP	-0.5685781
-1.1335167	VERB PRON ADP	-2.1025934
-1.2089633	AUX PRON ADP	-0.7116084
-1.235432	PART PRON ADP	-0.2857388
-1.2242645	ADJ PRON ADP	-0.34395054
-1.5006434	INTJ PRON ADP	-0.29018852
-1.3730178	NUM PRON ADP	-0.29018852
-1.2830923	SCONJ PRON ADP	-0.62704694
-1.0309223	X PRON ADP	-0.29018852
-1.1520733	<s> ADV ADP	-1.594302
-1.2396909	ADP ADV ADP	-1.2014637
-1.1204892	DET ADV ADP	-0.6407742
-1.0957323	PROPN ADV ADP	-1.1630412
-1.2532929	CCONJ ADV ADP	-1.4373934
-1.1880422	NOUN ADV ADP	-1.8472446
-1.1435989	PUNCT ADV ADP	-1.7346082
-1.117267	PRON ADV ADP	-1.1212982
-1.1313148	ADV ADV ADP	-1.9485625
-1.1303184	VERB ADV ADP	-2.1241553
-1.0691719	AUX ADV ADP	-1.3650749
-1.1375711	PART ADV ADP	-1.1789463
-1.0529681	ADJ ADV ADP	-1.015099
-1.2508211	INTJ ADV ADP	-0.29018852
-0.9723393	NUM ADV ADP	-0.41968143
-1.1931949	SCONJ ADV ADP	-0.6643355
-1.1060044	SYM ADV ADP	-0.29018852
-0.36373323	<s> VERB ADP	-1.99889
-1.1019055	ADP VERB ADP	-1.8641126
-1.1256728	DET VERB ADP	-1.8425037
-1.167804	PROPN VERB ADP	-2.2071826
-1.0553949	CCONJ VERB ADP	-2.0771098
-1.1874303	NOUN VERB ADP	-2.6785066
-1.1501473	PUNCT VERB ADP	-2.2921088
-1.2076703	PRON VERB ADP	-2.3915348
-1.1590867	ADV VERB ADP	-2.3554294
-1.0828506	VERB VERB ADP	-1.6291869
-1.1465281	AUX VERB ADP	-2.8514366
-1.1428787	PART VERB ADP	-2.4697459
-1.0622756	ADJ VERB ADP	-1.1283578
-0.9934682	INTJ VERB ADP	-0.70841956
-1.0100566	NUM VERB ADP	-1.0742941
-1.0080025	SCONJ VERB ADP	-1.1762793
-0.91931903	X VERB ADP	-0.3456483
-1.075576	SYM VERB ADP	-0.34114736
-2.7026443	<s> AUX ADP	-0.2827975
-1.4761499	ADP AUX ADP	-0.29018852
-1.188958	DET AUX ADP	-0.76691306
-1.1719376	PROPN AUX ADP	-1.3112231
-1.3953136	CCONJ AUX ADP	-0.38704097
-1.1486126	NOUN AUX ADP	-1.6689698
-1.2137764	PUNCT AUX ADP	-1.0465993
-1.1580918	PRON AUX ADP	-1.3849721
-1.176747	ADV AUX ADP	-0.53678644
-1.2268862	VERB AUX ADP	-0.6218684
-1.3243588	ADJ AUX ADP	-0.29340246
-1.2571306	INTJ AUX ADP	-0.29018852
-1.227865	NUM AUX ADP	-0.3886879
-1.734354	<s> PART ADP	-0.37467712
-1.4209088	ADP PART ADP	-0.2827975
-1.2512323	DET PART ADP	-0.29018852
-1.2952836	PROPN PART ADP	-0.6041067
-1.1092654	CCONJ PART ADP	-0.7961401
-1.1756296	NOUN PART ADP	-0.7123098
-1.0266721	PUNCT PART ADP	-0.8421269
-1.45201	PRON PART ADP	-0.2791486
-1.1188053	ADV PART ADP	-0.527084
-1.1885564	VERB PART ADP	-0.967121
-1.1743784	AUX PART ADP	-1.0044963
-1.3628912	ADJ PART ADP	-0.2857388
-1.1463522	SCONJ PART ADP	-0.3951718
-1.1173546	<s> ADJ ADP	-1.472621
-1.1433372	ADP ADJ ADP	-1.4947665
-1.1802588	DET ADJ ADP	-1.5393751
-0.96167314	PROPN ADJ ADP	-0.891281
-1.0401073	CCONJ ADJ ADP	-1.3428133
-1.0474393	NOUN ADJ ADP	-1.9143306
-1.0700814	PUNCT ADJ ADP	-1.6589886
-1.0650759	PRON ADJ ADP	-1.2710538
-1.1540234	ADV ADJ ADP	-1.9665474
-1.1404022	VERB ADJ ADP	-2.0751116
-0.99078125	AUX ADJ ADP	-1.777967
-1.0598218	PART ADJ ADP	-1.2372417
-1.1960346	ADJ ADJ ADP	-0.85077214
-0.95556015	INTJ ADJ ADP	-0.2864773
-1.0839223	NUM ADJ ADP	-0.55794084
-0.9243567	SCONJ ADJ ADP	-1.2932957
-1.0855532	X ADJ ADP	-0.4297632
-1.4538167	SYM ADJ ADP	-0.29018852
-1.6796985	<s> INTJ ADP	-0.3226063
-1.0531646	DET INTJ ADP	-0.29018852
-1.4537816	PROPN INTJ ADP	-0.29018852
-1.2225311	CCONJ INTJ ADP	-0.29018852
-1.1366988	PUNCT INTJ ADP	-0.56436044
-1.0611173	PRON INTJ ADP	-0.30482444
-0.85966384	VERB INTJ ADP	-0.44682166
-0.9544373	AUX INTJ ADP	-0.2827975
-1.0966301	ADJ INTJ ADP	-0.29018852
-0.78681517	SYM INTJ ADP	-0.29018852
-0.7590115	<s> NUM ADP	-1.5705953
-1.1341321	ADP NUM ADP	-1.6897482
-1.1100795	DET NUM ADP	-1.0438472
-1.087076	PROPN NUM ADP	-1.4552886
-0.98176104	CCONJ NUM ADP	-1.0530604
-1.034329	NOUN NUM ADP	-1.1149226
-1.0371053	PUNCT NUM ADP	-1.5425221
-1.2719328	PRON NUM ADP	-0.5942021
-1.0634584	ADV NUM ADP	-1.0660813
-1.080727	VERB NUM ADP	-1.5257195
-0.89622724	AUX NUM ADP	-1.4550219
-1.0490059	PART NUM ADP	-0.39058137
-1.0771282	ADJ NUM ADP	-0.7648401
-0.7697986	INTJ NUM ADP	-0.29018852
-1.0148754	NUM NUM ADP	-1.156648
-1.055282	SCONJ NUM ADP	-0.97649705
-1.0275371	X NUM ADP	-0.29018852
-0.983591	SYM NUM ADP	-1.030695
-1.3711782	<s> SCONJ ADP	-1.078997
-1.1763015	ADP SCONJ ADP	-0.6482948
-1.1089997	DET SCONJ ADP	-0.29367134
-0.9750549	PROPN SCONJ ADP	-0.85220945
-0.98846644	CCONJ SCONJ ADP	-0.83605576
-1.0526406	NOUN SCONJ ADP	-1.4727457
-1.0307989	PUNCT SCONJ ADP	-1.2014703
-1.3086114	PRON SCONJ ADP	-0.87485445
-0.9903643	ADV SCONJ ADP	-1.1032286
-1.1026645	VERB SCONJ ADP	-1.6773937
-1.039639	AUX SCONJ ADP	-0.733704
-0.79622924	PART SCONJ ADP	-0.66506624
-1.1023421	ADJ SCONJ ADP	-0.9355938
-0.7962034	NUM SCONJ ADP	-1.0814897
-1.1989757	SCONJ SCONJ ADP	-0.4587724
-0.84521115	X SCONJ ADP	-0.29018852
-1.8805358	<s> X ADP	-0.28133428
-1.2602898	ADP X ADP	-0.28070864
-1.3521036	DET X ADP	-0.29018852
-1.1496682	CCONJ X ADP	-0.29018852
-1.292052	NOUN X ADP	-0.51929355
-1.2898386	PUNCT X ADP	-0.29018852
-1.3021882	ADV X ADP	-0.29018852
-1.1145884	VERB X ADP	-0.37809202
-1.0768911	AUX X ADP	-0.29018852
-0.9556263	INTJ X ADP	-0.29018852
-0.51192236	SCONJ X ADP	-0.29018852
-1.1276644	X X ADP	-0.32111138
-1.133229	ADP SYM ADP	-0.28700554
-1.5615208	PROPN SYM ADP	-0.4297632
-1.6683979	PUNCT SYM ADP	-0.2791486
-1.3729377	NUM SYM ADP	-0.2827975
-0.8061196	X SYM ADP	-0.29018852
-0.39251393	<s> ADP DET	-2.432024
-1.0054114	ADP ADP DET	-2.0758026
-0.9263496	DET ADP DET	-1.8354876
-1.0308309	PROPN ADP DET	-2.4528487
-0.96219015	CCONJ ADP DET	-1.8110119
-1.1478087	NOUN ADP DET	-3.268807
-1.0877492	PUNCT ADP DET	-2.3284938
-0.9063096	PRON ADP DET	-1.9385734
-1.0822952	ADV ADP DET	-2.2731597
-1.154516	VERB ADP DET	-3.0024946
-0.89437044	AUX ADP DET	-1.6680588
-0.8144237	PART ADP DET	-1.2152857
-1.0739621	ADJ ADP DET	-2.2712548
-0.7713074	INTJ ADP DET	-0.45994914
-0.9299757	NUM ADP DET	-2.0802608
-0.931836	SCONJ ADP DET	-1.8304057
-0.83223426	X ADP DET	-0.54964375
-0.90196717	SYM ADP DET	-0.30111897
-2.149194	<s> DET DET	-1.0591519
-1.1885538	ADP DET DET	-1.7048742
-1.447457	DET DET DET	-0.47707632
-1.5214536	PROPN DET DET	-0.42482954
-1.1387489	CCONJ DET DET	-0.73609906
-1.1210332	NOUN DET DET	-1.3145692
-1.1895001	PUNCT DET DET	-1.1385298
-1.1435599	PRON DET DET	-0.7340849
-1.097216	ADV DET DET	-0.8684789
-1.1548384	VERB DET DET	-1.4742122
-1.1748389	AUX DET DET	-1.0671297
-1.0775034	PART DET DET	-0.6767826
-1.1816304	ADJ DET DET	-0.68175167
-1.2566705	NUM DET DET	-0.28996727
-1.1066633	SCONJ DET DET	-1.0598184
-1.3050414	X DET DET	-0.29018852
-2.7856042	<s> PROPN DET	-0.6028875
-1.2709669	ADP PROPN DET	-1.4771082
-1.2355888	DET PROPN DET	-1.0470356
-1.2909017	PROPN PROPN DET	-1.470843
-1.3266218	CCONJ PROPN DET	-0.6399014
-1.3806368	NOUN PROPN DET	-0.6945751
-1.3630135	PUNCT PROPN DET	-0.8289355
-1.6226809	PRON PROPN DET	-0.4186101
-1.4693034	ADV PROPN DET	-0.36439162
-1.2201989	VERB PROPN DET	-1.0152197
-1.2106771	AUX PROPN DET	-0.36654
-1.4887813	PART PROPN DET	-0.33802778
-1.4767607	ADJ PROPN DET	-0.7390207
-1.5134318	INTJ PROPN DET	-0.29018852
-1.4631033	NUM PROPN DET	-0.42605773
-1.4857017	SCONJ PROPN DET	-0.5569128
-1.4314849	X PROPN DET	-0.29018852
-1.6145141	SYM PROPN DET	-0.29018852
-0.7242002	<s> CCONJ DET	-1.6472471
-1.0269591	ADP CCONJ DET	-1.0066324
-0.7748376	DET CCONJ DET	-0.62847793
-1.051126	PROPN CCONJ DET	-1.8865325
-0.8731321	CCONJ CCONJ DET	-0.5030308
-1.1185813	NOUN CCONJ DET	-2.270249
-1.1248813	PUNCT CCONJ DET	-2.123901
-1.0719455	PRON CCONJ DET	-0.91243184
-1.0777084	ADV CCONJ DET	-0.8874838
-1.0996916	VERB CCONJ DET	-1.3198581
-0.99958843	AUX CCONJ DET	-0.7435883
-0.98986703	PART CCONJ DET	-0.42238355
-1.0244825	ADJ CCONJ DET	-1.2732105
-1.2049512	INTJ CCONJ DET	-0.29018852
-0.97912854	NUM CCONJ DET	-0.917146
-0.78069746	SCONJ CCONJ DET	-0.4297632
-1.1202788	X CCONJ DET	-0.2791486
-2.1797864	<s> NOUN DET	-0.8617501
-1.1999145	ADP NOUN DET	-1.7764688
-1.2033206	DET NOUN DET	-2.2254543
-1.2594987	PROPN NOUN DET	-1.277721
-1.2942085	CCONJ NOUN DET	-1.3478937
-1.2093997	NOUN NOUN DET	-1.8351336
-1.2227299	PUNCT NOUN DET	-1.115559
-1.351623	PRON NOUN DET	-1.1683276
-1.3044088	ADV NOUN DET	-0.5556013
-1.246302	VERB NOUN DET	-1.4898471
-1.2336227	AUX NOUN DET	-0.7069257
-1.3940876	PART NOUN DET	-0.83806854
-1.2326916	ADJ NOUN DET	-2.1676373
-1.5306721	INTJ NOUN DET	-0.29018852
-1.2083805	NUM NOUN DET	-1.3165102
-1.4361105	SCONJ NOUN DET	-0.4007804
-1.1076795	X NOUN DET	-0.38690487
-1.2794201	SYM NOUN DET	-0.41744602
-0.78510875	<s> PUNCT DET	-1.599839
-1.0846113	ADP PUNCT DET	-1.4335742
-1.2063209	DET PUNCT DET	-1.0206662
-1.2209246	PROPN PUNCT DET	-2.4867117
-1.1136773	CCONJ PUNCT DET	-0.821082
-1.2295532	NOUN PUNCT DET	-2.6375957
-1.2064048	PUNCT PUNCT DET	-1.9121572
-1.1609429	PRON PUNCT DET	-1.2262826
-1.214773	ADV PUNCT DET	-2.0818777
-1.2591088	VERB PUNCT DET	-1.8136092
-1.1802415	AUX PUNCT DET	-0.88821846
-1.2321819	PART PUNCT DET	-0.7734097
-1.2327799	ADJ PUNCT DET	-1.457028
-1.2068294	INTJ PUNCT DET	-0.99946505
-1.2011168	NUM PUNCT DET	-1.7879889
-1.1543831	SCONJ PUNCT DET	-0.9804839
-1.090087	X PUNCT DET	-0.9238862
-2.1116488	<s> PRON DET	-1.0692093
-1.1744078	ADP PRON DET	-1.2533067
-1.4243087	DET PRON DET	-0.41744602
-1.678724	PROPN PRON DET	-0.30111897
-1.0892992	CCONJ PRON DET	-0.8742068
-1.2456853	NOUN PRON DET	-0.74712753
-1.1432071	PUNCT PRON DET	-1.0816833
-1.287409	PRON PRON DET	-0.5577479
-1.1500636	ADV PRON DET	-0.81841767
-1.1652973	VERB PRON DET	-1.6513249
-1.1209065	AUX PRON DET	-0.97500527
-1.1408172	PART PRON DET	-0.5513525
-1.0142013	ADJ PRON DET	-0.33142626
-1.531575	INTJ PRON DET	-0.29018852
-1.1110129	SCONJ PRON DET	-0.6905308
-1.0837299	<s> ADV DET	-1.6776235
-1.1277994	ADP ADV DET	-1.4139558
-1.166322	DET ADV DET	-0.7722601
-1.20503	PROPN ADV DET	-1.2081851
-1.1315982	CCONJ ADV DET	-1.4913185
-1.1629586	NOUN ADV DET	-1.5140595
-1.1460681	PUNCT ADV DET	-1.6913645
-1.1629524	PRON ADV DET	-0.83465374
-1.1920116	ADV ADV DET	-1.2887037
-1.1872249	VERB ADV DET	-1.8229727
-1.1777661	AUX ADV DET	-1.7169255
-1.1020867	PART ADV DET	-1.1955595
-1.2523516	ADJ ADV DET	-0.83001614
-1.2618319	INTJ ADV DET	-0.29018852
-1.1597986	NUM ADV DET	-0.62105936
-1.0544319	SCONJ ADV DET	-0.95171285
-0.7806352	<s> VERB DET	-1.7348372
-1.1019055	ADP VERB DET	-2.1596022
-1.1256728	DET VERB DET	-2.0123947
-1.1430593	PROPN VERB DET	-2.3362541
-1.0817418	CCONJ VERB DET	-2.1793752
-1.212175	NOUN VERB DET	-2.4355507
-1.1501473	PUNCT VERB DET	-2.272079
-1.1566852	PRON VERB DET	-2.4117463
-1.1590867	ADV VERB DET	-2.3403883
-1.1109736	VERB VERB DET	-1.6693413
-1.1465281	AUX VERB DET	-2.5290647
-1.1691189	PART VERB DET	-2.6851447
-1.1533678	ADJ VERB DET	-1.1332073
-1.0469624	INTJ VERB DET	-0.9759057
-1.0383979	NUM VERB DET	-1.0567498
-1.0080025	SCONJ VERB DET	-1.297936
-1.2525961	X VERB DET	-0.3991117
-1.075576	SYM VERB DET	-0.37177125
-0.8484499	<s> AUX DET	-1.1213214
-1.2396493	ADP AUX DET	-0.6768463
-1.0964512	DET AUX DET	-1.6711676
-1.0781538	PROPN AUX DET	-1.9102402
-1.2615886	CCONJ AUX DET	-0.58741784
-1.1387308	NOUN AUX DET	-1.9733603
-1.0393698	PUNCT AUX DET	-1.5918211
-1.120293	PRON AUX DET	-2.1551747
-1.0601051	ADV AUX DET	-1.6966443
-0.99764764	VERB AUX DET	-1.2444594
-1.1543076	AUX AUX DET	-0.28070864
-1.5952116	PART AUX DET	-0.29018852
-1.123982	ADJ AUX DET	-0.93160194
-1.011235	NUM AUX DET	-0.9803008
-1.3357949	SCONJ AUX DET	-0.29018852
-1.1631255	X AUX DET	-0.29018852
-1.1085057	<s> PART DET	-0.771354
-1.3246063	ADP PART DET	-0.398029
-1.3724523	DET PART DET	-0.29018852
-1.3279788	PROPN PART DET	-0.7058518
-0.9958406	CCONJ PART DET	-0.89123946
-1.3512416	NOUN PART DET	-0.5463765
-1.1012685	PUNCT PART DET	-0.8644359
-1.2730834	PRON PART DET	-0.37177125
-1.1030178	ADV PART DET	-0.80555475
-1.0618082	VERB PART DET	-1.1079713
-1.072643	AUX PART DET	-1.5464352
-1.513625	PART PART DET	-0.29018852
-1.6425635	ADJ PART DET	-0.29018852
-1.5261383	NUM PART DET	-0.29018852
-0.90575516	SCONJ PART DET	-0.5347114
-1.0121357	X PART DET	-0.29018852
-3.1129718	<s> ADJ DET	-0.28133428
-1.3386979	ADP ADJ DET	-0.858272
-1.3141974	DET ADJ DET	-0.64609003
-1.7332809	PROPN ADJ DET	-0.29018852
-1.3371359	CCONJ ADJ DET	-0.5556824
-1.3964871	NOUN ADJ DET	-0.55190766
-1.6091094	PUNCT ADJ DET	-0.43110073
-1.595605	PRON ADJ DET	-0.33826476
-1.2314501	ADV ADJ DET	-1.0435965
-1.2461164	VERB ADJ DET	-1.0136862
-1.3926315	AUX ADJ DET	-0.7781412
-1.2612908	PART ADJ DET	-0.6241653
-1.4204075	ADJ ADJ DET	-0.2827975
-1.3362771	<s> INTJ DET	-0.7412251
-1.1804132	ADP INTJ DET	-0.29018852
-1.0148469	DET INTJ DET	-0.29018852
-1.2519118	PROPN INTJ DET	-0.29018852
-1.330949	CCONJ INTJ DET	-0.29018852
-1.4110136	NOUN INTJ DET	-0.2846335
-1.5371467	PUNCT INTJ DET	-0.29018852
-1.0229783	PRON INTJ DET	-0.2827975
-1.2305794	ADV INTJ DET	-0.2791486
-1.3964566	VERB INTJ DET	-0.29018852
-1.2191265	ADJ INTJ DET	-0.29018852
-0.9023769	NUM INTJ DET	-0.29018852
-0.84305865	SCONJ INTJ DET	-0.29018852
-2.5375686	<s> NUM DET	-0.29744482
-1.2405124	ADP NUM DET	-0.83196455
-1.5376174	DET NUM DET	-0.2864773
-1.3724763	PROPN NUM DET	-0.84429824
-1.5443833	CCONJ NUM DET	-0.36859575
-1.4681882	NOUN NUM DET	-0.2931721
-1.4177678	PUNCT NUM DET	-0.60149837
-1.502901	PRON NUM DET	-0.29018852
-1.4276922	ADV NUM DET	-0.29891077
-1.3123438	VERB NUM DET	-0.5569128
-1.2906961	AUX NUM DET	-0.30004176
-1.5914763	ADJ NUM DET	-0.29279804
-1.4023905	NUM NUM DET	-0.64498055
-1.3351067	SCONJ NUM DET	-0.47721025
-1.0668972	SYM NUM DET	-0.9688976
-0.51750314	<s> SCONJ DET	-1.7441839
-0.90849984	ADP SCONJ DET	-1.1581651
-0.9449353	DET SCONJ DET	-0.34030348
-0.8947714	PROPN SCONJ DET	-1.2542365
-0.89981186	CCONJ SCONJ DET	-1.1939105
-0.99878246	NOUN SCONJ DET	-1.9086765
-1.0046532	PUNCT SCONJ DET	-1.6893619
-0.8685686	PRON SCONJ DET	-1.023802
-0.9578972	ADV SCONJ DET	-1.452873
-1.0493613	VERB SCONJ DET	-2.256917
-0.94107044	AUX SCONJ DET	-1.1401054
-0.79622924	PART SCONJ DET	-0.71287763
-1.006625	ADJ SCONJ DET	-1.6845597
-1.0174974	NUM SCONJ DET	-0.785733
-0.7982339	SCONJ SCONJ DET	-1.1526079
-0.84521115	X SCONJ DET	-0.29018852
-2.163776	<s> X DET	-0.29018852
-1.3519497	ADP X DET	-0.47721025
-1.3968	DET X DET	-0.29018852
-1.4436313	PROPN X DET	-0.29018852
-1.554594	NOUN X DET	-0.2857388
-1.3151777	PUNCT X DET	-0.45047975
-1.494117	VERB X DET	-0.29018852
-0.9262145	PART X DET	-0.29018852
-1.3922659	ADJ X DET	-0.29018852
-1.6837261	X X DET	-0.29018852
-1.655474	ADP SYM DET	-0.29018852
-1.470424	DET SYM DET	-0.29018852
-1.4651293	PROPN SYM DET	-0.29018852
-1.6035508	NOUN SYM DET	-0.29018852
-1.6289912	PUNCT SYM DET	-0.29018852
-1.5457119	NUM SYM DET	-0.29018852
-0.7221088	<s> ADP PROPN	-2.0046983
-1.0051938	ADP ADP PROPN	-1.4562194
-1.0170738	DET ADP PROPN	-1.0812321
-1.0306342	PROPN ADP PROPN	-2.607069
-1.0759883	CCONJ ADP PROPN	-1.1449945
-1.1720116	NOUN ADP PROPN	-3.0055122
-1.0875331	PUNCT ADP PROPN	-1.903021
-0.9687206	PRON ADP PROPN	-1.2233381
-1.0820774	ADV ADP PROPN	-1.7653465
-1.1543071	VERB ADP PROPN	-2.5804293
-1.0105575	AUX ADP PROPN	-1.1126621
-0.90667987	PART ADP PROPN	-0.6737427
-1.0737377	ADJ ADP PROPN	-1.7872504
-0.866182	INTJ ADP PROPN	-0.62847793
-1.0096418	NUM ADP PROPN	-1.4449598
-0.9949445	SCONJ ADP PROPN	-0.98531556
-0.83193636	X ADP PROPN	-0.29561934
-1.1197507	SYM ADP PROPN	-0.29018852
-0.9223271	<s> DET PROPN	-2.0849016
-1.0992008	ADP DET PROPN	-2.784747
-1.0105398	DET DET PROPN	-1.0878408
-0.8546127	PROPN DET PROPN	-1.1270825
-0.9850803	CCONJ DET PROPN	-1.7381594
-1.0825338	NOUN DET PROPN	-1.447121
-1.0330735	PUNCT DET PROPN	-2.128117
-1.0471207	PRON DET PROPN	-0.8609491
-1.0004507	ADV DET PROPN	-1.3495188
-1.1209825	VERB DET PROPN	-2.1104748
-1.0062038	AUX DET PROPN	-1.2846032
-0.9257615	PART DET PROPN	-0.748436
-1.0390435	ADJ DET PROPN	-0.38697994
-1.1769607	INTJ DET PROPN	-0.2827975
-1.1586089	NUM DET PROPN	-0.42526752
-1.0023237	SCONJ DET PROPN	-1.6818713
-1.0344957	X DET PROPN	-0.2857388
-1.0579621	SYM DET PROPN	-0.29018852
-0.36578032	<s> PROPN PROPN	-2.4775634
-1.127891	ADP PROPN PROPN	-2.7441127
-1.1082737	DET PROPN PROPN	-2.6752787
-1.1798339	PROPN PROPN PROPN	-2.881471
-0.985328	CCONJ PROPN PROPN	-2.0284536
-1.0789577	NOUN PROPN PROPN	-2.2282207
-1.1317356	PUNCT PROPN PROPN	-2.7204423
-0.9584797	PRON PROPN PROPN	-1.2127247
-0.97894084	ADV PROPN PROPN	-1.3050611
-1.1335399	VERB PROPN PROPN	-2.0338542
-1.0044019	AUX PROPN PROPN	-1.238355
-0.99030733	PART PROPN PROPN	-1.7275337
-1.0867842	ADJ PROPN PROPN	-1.9610004
-0.97036016	INTJ PROPN PROPN	-0.49512634
-1.0294932	NUM PROPN PROPN	-1.4556752
-1.0246323	SCONJ PROPN PROPN	-1.469993
-1.0396873	X PROPN PROPN	-0.6898529
-1.1269561	SYM PROPN PROPN	-1.0433156
-0.2370615	SPACE PROPN PROPN	-0.29018852
-1.1686549	<s> CCONJ PROPN	-1.2428577
-1.2177247	ADP CCONJ PROPN	-0.8942022
-1.208572	DET CCONJ PROPN	-0.2827975
-1.0309788	PROPN CCONJ PROPN	-2.3230503
-1.1283627	CCONJ CCONJ PROPN	-0.29018852
-1.1780815	NOUN CCONJ PROPN	-1.512173
-1.1882988	PUNCT CCONJ PROPN	-1.5958815
-0.9811837	PRON CCONJ PROPN	-0.5405494
-1.2848057	ADV CCONJ PROPN	-0.5571301
-1.1792319	VERB CCONJ PROPN	-0.61024314
-1.3335706	AUX CCONJ PROPN	-0.29018852
-1.363022	PART CCONJ PROPN	-0.80002785
-1.1556854	ADJ CCONJ PROPN	-0.92807543
-1.2349374	NUM CCONJ PROPN	-0.76227355
-1.0991459	SCONJ CCONJ PROPN	-0.4297632
-1.7269397	<s> NOUN PROPN	-1.1249686
-1.2276701	ADP NOUN PROPN	-1.39067
-1.1768447	DET NOUN PROPN	-1.6504111
-1.1751449	PROPN NOUN PROPN	-1.763825
-1.2422441	CCONJ NOUN PROPN	-1.3211498
-1.2339877	NOUN NOUN PROPN	-1.7648154
-1.2523968	PUNCT NOUN PROPN	-1.5933731
-1.2640862	PRON NOUN PROPN	-1.1815894
-1.304043	ADV NOUN PROPN	-0.54972345
-1.2181205	VERB NOUN PROPN	-1.1393561
-1.1814182	AUX NOUN PROPN	-0.46372372
-1.4919014	PART NOUN PROPN	-0.9428958
-1.2324977	ADJ NOUN PROPN	-1.9287578
-1.0858289	INTJ NOUN PROPN	-0.2857388
-1.2081743	NUM NOUN PROPN	-0.9600232
-1.3545291	SCONJ NOUN PROPN	-0.5105414
-1.2607751	X NOUN PROPN	-0.36259836
-1.4569839	SYM NOUN PROPN	-0.5036514
-0.9360541	<s> PUNCT PROPN	-1.3766671
-1.1143773	ADP PUNCT PROPN	-1.4604685
-1.1388218	DET PUNCT PROPN	-1.4856732
-1.2207361	PROPN PUNCT PROPN	-2.7427366
-1.0612576	CCONJ PUNCT PROPN	-1.0072101
-1.2293648	NOUN PUNCT PROPN	-2.6145809
-1.1798415	PUNCT PUNCT PROPN	-1.7910995
-1.2747655	PRON PUNCT PROPN	-0.99128854
-1.1882097	ADV PUNCT PROPN	-1.6443735
-1.2588826	VERB PUNCT PROPN	-1.5792929
-1.1798768	AUX PUNCT PROPN	-0.7987205
-1.2908983	PART PUNCT PROPN	-0.8938342
-1.1781484	ADJ PUNCT PROPN	-1.317496
-1.2064381	INTJ PUNCT PROPN	-0.7096773
-1.1728367	NUM PUNCT PROPN	-1.6243064
-1.154074	SCONJ PUNCT PROPN	-0.7341959
-1.0897174	X PUNCT PROPN	-0.83912647
-2.3279417	<s> PRON PROPN	-0.7789662
-1.1432226	ADP PRON PROPN	-1.4419234
-1.6085259	DET PRON PROPN	-0.2846335
-1.1558616	PROPN PRON PROPN	-0.52715486
-1.2807968	CCONJ PRON PROPN	-0.7356739
-1.1943159	NOUN PRON PROPN	-0.4674855
-1.2063234	PUNCT PRON PROPN	-0.87547934
-1.2800466	PRON PRON PROPN	-0.28999487
-1.2336335	ADV PRON PROPN	-0.52370626
-1.219732	VERB PRON PROPN	-1.2227696
-1.2137947	AUX PRON PROPN	-0.70183516
-1.4834992	ADJ PRON PROPN	-0.2846335
-1.3609512	INTJ PRON PROPN	-0.4297632
-1.3836731	NUM PRON PROPN	-0.29018852
-1.235064	SCONJ PRON PROPN	-0.60585445
-1.0705874	SYM PRON PROPN	-0.29018852
-1.6325694	<s> ADV PROPN	-1.154771
-1.1275473	ADP ADV PROPN	-0.78922236
-1.3951161	DET ADV PROPN	-0.43074363
-1.2469451	PROPN ADV PROPN	-0.6207932
-1.368034	CCONJ ADV PROPN	-0.84594995
-1.252789	NOUN ADV PROPN	-1.0526273
-1.2305182	PUNCT ADV PROPN	-1.2537235
-1.4710605	PRON ADV PROPN	-0.33576393
-1.3833137	ADV ADV PROPN	-0.7368114
-1.3214825	VERB ADV PROPN	-1.0769296
-1.3172667	AUX ADV PROPN	-0.68387073
-1.1018329	PART ADV PROPN	-0.5748287
-1.6211687	ADJ ADV PROPN	-0.29744482
-1.4110351	INTJ ADV PROPN	-0.2791486
-1.1594517	NUM ADV PROPN	-0.6313461
-1.2579207	SCONJ ADV PROPN	-0.46507856
-1.3377316	<s> VERB PROPN	-1.1289176
-1.1299198	ADP VERB PROPN	-1.3602997
-1.153586	DET VERB PROPN	-1.3676254
-1.1676073	PROPN VERB PROPN	-1.640041
-1.2065134	CCONJ VERB PROPN	-1.1050651
-1.2119783	NOUN VERB PROPN	-1.7320687
-1.1499505	PUNCT VERB PROPN	-1.7595274
-1.2074614	PRON VERB PROPN	-1.5583136
-1.1868703	ADV VERB PROPN	-1.3968555
-1.1731116	VERB VERB PROPN	-0.96982276
-1.2303065	AUX VERB PROPN	-1.5463086
-1.1968243	PART VERB PROPN	-1.7297636
-1.1531382	ADJ VERB PROPN	-0.6011945
-1.1785592	INTJ VERB PROPN	-0.4150505
-1.2632662	NUM VERB PROPN	-0.47503185
-1.1240923	SCONJ VERB PROPN	-0.56559205
-0.9814383	X VERB PROPN	-0.29250732
-1.4173712	SYM VERB PROPN	-0.30482444
-1.1632292	<s> AUX PROPN	-0.77628136
-1.5834861	ADP AUX PROPN	-0.29018852
-1.3408623	DET AUX PROPN	-0.7989715
-1.1682503	PROPN AUX PROPN	-0.8788308
-1.5278908	CCONJ AUX PROPN	-0.37965748
-1.2689469	NOUN AUX PROPN	-1.1767213
-1.1709728	PUNCT AUX PROPN	-0.7704741
-1.250755	PRON AUX PROPN	-1.0809264
-1.2138728	ADV AUX PROPN	-0.757706
-1.3519562	VERB AUX PROPN	-0.4894667
-1.58091	AUX AUX PROPN	-0.29018852
-1.4005376	ADJ AUX PROPN	-0.38690487
-1.0404079	INTJ AUX PROPN	-0.29018852
-1.4773948	NUM AUX PROPN	-0.52173954
-2.6125917	<s> PART PROPN	-0.29018852
-1.0433779	PROPN PART PROPN	-2.0091953
-1.2377328	CCONJ PART PROPN	-0.52836275
-1.1372958	NOUN PART PROPN	-1.1812239
-1.4852551	PUNCT PART PROPN	-0.55879545
-1.632563	PRON PART PROPN	-0.29018852
-1.6338003	ADV PART PROPN	-0.2827975
-1.3457739	VERB PART PROPN	-0.4797302
-1.2842841	AUX PART PROPN	-0.42126465
-0.86596316	INTJ PART PROPN	-0.29018852
-1.242888	NUM PART PROPN	-0.28133428
-1.6019287	SCONJ PART PROPN	-0.29018852
-1.0424492	X PART PROPN	-0.29018852
-1.014059	<s> ADJ PROPN	-1.4617616
-1.0918498	ADP ADJ PROPN	-1.7481744
-1.0933601	DET ADJ PROPN	-1.9551446
-0.9642586	PROPN ADJ PROPN	-0.9639723
-1.2032996	CCONJ ADJ PROPN	-1.1651707
-1.1653618	NOUN ADJ PROPN	-1.0101439
-1.0725262	PUNCT ADJ PROPN	-1.5225422
-1.1480252	PRON ADJ PROPN	-0.9524246
-1.1564227	ADV ADJ PROPN	-1.1012876
-1.1428119	VERB ADJ PROPN	-1.2183099
-1.2384312	AUX ADJ PROPN	-0.6085815
-1.2414013	PART ADJ PROPN	-0.9945478
-1.0646565	ADJ ADJ PROPN	-1.4022543
-1.2087857	INTJ ADJ PROPN	-0.29018852
-0.9685017	NUM ADJ PROPN	-0.81942505
-1.0018826	SCONJ ADJ PROPN	-0.7941049
-0.9555484	SYM ADJ PROPN	-0.36439162
-1.2953451	<s> INTJ PROPN	-0.6357769
-0.76543814	ADP INTJ PROPN	-0.2950126
-0.84446543	PROPN INTJ PROPN	-0.40231654
-1.3490286	CCONJ INTJ PROPN	-0.29018852
-0.9630674	NOUN INTJ PROPN	-0.28771082
-1.1218619	PUNCT INTJ PROPN	-0.58868635
-1.2512084	PRON INTJ PROPN	-0.29018852
-1.185935	ADV INTJ PROPN	-0.29018852
-1.3631256	VERB INTJ PROPN	-0.2827975
-1.2360988	ADJ INTJ PROPN	-0.29018852
-1.2589787	INTJ INTJ PROPN	-0.29018852
-1.0171185	X INTJ PROPN	-0.29018852
-1.3134757	<s> NUM PROPN	-0.9738313
-1.1696343	ADP NUM PROPN	-1.3492731
-1.0020691	DET NUM PROPN	-1.3212656
-1.0924629	PROPN NUM PROPN	-1.1523376
-1.215956	CCONJ NUM PROPN	-0.5986654
-1.0081475	NOUN NUM PROPN	-0.5785767
-1.0132482	PUNCT NUM PROPN	-1.2465142
-1.1383408	PRON NUM PROPN	-0.55418336
-1.0705129	ADV NUM PROPN	-0.8005748
-1.1828469	VERB NUM PROPN	-0.8879597
-1.2806352	AUX NUM PROPN	-0.49878442
-1.2589016	PART NUM PROPN	-0.59894145
-1.0392699	ADJ NUM PROPN	-0.659603
-0.98997253	NUM NUM PROPN	-1.0122616
-1.2443427	SCONJ NUM PROPN	-0.5961086
-1.2041756	SYM NUM PROPN	-0.5910987
-1.0401013	<s> SCONJ PROPN	-1.2196271
-1.0010428	ADP SCONJ PROPN	-0.78512084
-1.1817969	DET SCONJ PROPN	-0.2857388
-1.025697	PROPN SCONJ PROPN	-0.8002407
-1.105299	CCONJ SCONJ PROPN	-0.6782436
-1.0276097	NOUN SCONJ PROPN	-1.40278
-1.1960139	PUNCT SCONJ PROPN	-1.1528536
-1.0853025	PRON SCONJ PROPN	-0.45462638
-0.9605965	ADV SCONJ PROPN	-0.8648039
-1.1058215	VERB SCONJ PROPN	-1.7295601
-1.1041865	AUX SCONJ PROPN	-0.73635876
-1.3463677	PART SCONJ PROPN	-0.29018852
-1.0714281	ADJ SCONJ PROPN	-1.0017452
-1.0237797	NUM SCONJ PROPN	-0.29367134
-0.93155295	SCONJ SCONJ PROPN	-0.58741784
-1.5931613	<s> X PROPN	-0.34114736
-0.97979426	ADP X PROPN	-0.44807404
-1.1023211	DET X PROPN	-0.2827975
-0.65936947	PROPN X PROPN	-0.8162264
-1.1070466	CCONJ X PROPN	-0.29018852
-0.9734554	NOUN X PROPN	-0.3886879
-0.86713845	PUNCT X PROPN	-0.8764485
-0.8226169	PRON X PROPN	-0.29018852
-1.1068295	ADV X PROPN	-0.29018852
-1.0813497	VERB X PROPN	-0.37809202
-0.8793079	PART X PROPN	-0.29018852
-0.93300366	ADJ X PROPN	-0.2791486
-0.86672896	NUM X PROPN	-0.29018852
-0.50052834	SCONJ X PROPN	-0.29018852
-0.97748715	X X PROPN	-0.544157
-0.93570673	<s> SYM PROPN	-0.31746766
-0.572079	ADP SYM PROPN	-1.1540303
-0.5047725	DET SYM PROPN	-0.7232319
-0.55069566	PROPN SYM PROPN	-1.3406105
-0.87333715	CCONJ SYM PROPN	-0.5686207
-0.7485939	NOUN SYM PROPN	-0.80286324
-0.5928977	PUNCT SYM PROPN	-0.9689527
-0.87863785	PRON SYM PROPN	-0.28133428
-0.73604196	ADV SYM PROPN	-0.2838457
-0.6003861	VERB SYM PROPN	-0.76449287
-0.6897739	AUX SYM PROPN	-0.398029
-0.77039367	PART SYM PROPN	-0.29018852
-0.6375894	ADJ SYM PROPN	-0.52173954
-0.6936786	INTJ SYM PROPN	-0.30482444
-0.8685509	NUM SYM PROPN	-0.63323694
-0.64402467	SCONJ SYM PROPN	-0.29018852
-0.469886	X SYM PROPN	-0.2827975
-0.10296734	PROPN SPACE PROPN	-0.29018852
-3.7346096	<s> ADP CCONJ	-0.29018852
-1.5143355	ADP ADP CCONJ	-0.3358991
-1.3831716	DET ADP CCONJ	-0.39252934
-1.347099	PROPN ADP CCONJ	-0.42271867
-1.5159054	CCONJ ADP CCONJ	-0.50084823
-1.2377967	NOUN ADP CCONJ	-1.1723492
-1.378423	PUNCT ADP CCONJ	-0.5219554
-1.6717438	PRON ADP CCONJ	-0.59623575
-1.5307022	ADV ADP CCONJ	-0.33802778
-1.2445041	VERB ADP CCONJ	-1.3222516
-1.6657366	AUX ADP CCONJ	-0.2846335
-1.3916602	ADJ ADP CCONJ	-0.43023732
-1.8313174	NUM ADP CCONJ	-0.29018852
-1.5637845	SCONJ ADP CCONJ	-0.29018852
-3.4176083	<s> DET CCONJ	-0.4735361
-1.3425926	ADP DET CCONJ	-0.6537982
-1.7674689	DET DET CCONJ	-0.29018852
-1.8688538	PROPN DET CCONJ	-0.29018852
-1.7031481	CCONJ DET CCONJ	-0.2846335
-1.8521165	NOUN DET CCONJ	-0.2846335
-1.8195081	PUNCT DET CCONJ	-0.29018852
-1.6724687	PRON DET CCONJ	-0.2931721
-1.7956284	ADV DET CCONJ	-0.29018852
-1.4365401	VERB DET CCONJ	-0.5029675
-1.6980596	AUX DET CCONJ	-0.29018852
-1.7637461	PART DET CCONJ	-0.29018852
-1.733783	ADJ DET CCONJ	-0.29018852
-1.5903683	NUM DET CCONJ	-0.29018852
-1.7695435	<s> PROPN CCONJ	-1.3593069
-1.2091488	ADP PROPN CCONJ	-2.2380447
-1.1389186	DET PROPN CCONJ	-1.6736866
-1.158881	PROPN PROPN CCONJ	-2.3314366
-0.9561238	CCONJ PROPN CCONJ	-1.2649839
-1.1602155	NOUN PROPN CCONJ	-1.1631278
-1.1883649	PUNCT PROPN CCONJ	-1.8472987
-1.0774314	PRON PROPN CCONJ	-0.85131216
-1.0796962	ADV PROPN CCONJ	-0.9126885
-1.1903042	VERB PROPN CCONJ	-1.4318283
-1.1503488	AUX PROPN CCONJ	-0.58816427
-1.0546618	PART PROPN CCONJ	-1.1478012
-1.1437391	ADJ PROPN CCONJ	-1.164728
-1.3835766	INTJ PROPN CCONJ	-0.30111897
-1.1228448	NUM PROPN CCONJ	-0.81204784
-1.1337272	SCONJ PROPN CCONJ	-0.9915608
-1.3797052	X PROPN CCONJ	-0.29279804
-1.1314728	SYM PROPN CCONJ	-0.7127204
-3.443064	<s> CCONJ CCONJ	-0.29018852
-2.1555712	PROPN CCONJ CCONJ	-0.2827975
-1.5578134	NOUN CCONJ CCONJ	-0.32843345
-1.6132526	PUNCT CCONJ CCONJ	-0.3208384
-1.9974866	ADV CCONJ CCONJ	-0.29018852
-1.8750318	VERB CCONJ CCONJ	-0.30482444
-1.9546547	ADJ CCONJ CCONJ	-0.29018852
-2.0273335	NUM CCONJ CCONJ	-0.29018852
-1.5208173	<s> NOUN CCONJ	-1.4307612
-1.1759666	ADP NOUN CCONJ	-2.3606534
-1.2339419	DET NOUN CCONJ	-2.403776
-1.1527615	PROPN NOUN CCONJ	-1.6068556
-1.1581718	CCONJ NOUN CCONJ	-1.3863397
-1.2365158	NOUN NOUN CCONJ	-2.2189903
-1.1708066	PUNCT NOUN CCONJ	-2.0600214
-1.1623273	PRON NOUN CCONJ	-1.9371575
-1.1831328	ADV NOUN CCONJ	-1.0753431
-1.2208067	VERB NOUN CCONJ	-2.0751677
-1.0584445	AUX NOUN CCONJ	-0.78106475
-1.0514071	PART NOUN CCONJ	-1.4488907
-1.2101142	ADJ NOUN CCONJ	-2.458297
-1.2108606	NUM NOUN CCONJ	-1.5990807
-1.090837	SCONJ NOUN CCONJ	-1.018317
-1.2681785	X NOUN CCONJ	-0.4989978
-1.2172587	SYM NOUN CCONJ	-0.6021128
-1.7312344	<s> PUNCT CCONJ	-0.66515106
-1.3530982	ADP PUNCT CCONJ	-1.0064492
-1.2819704	DET PUNCT CCONJ	-0.69586545
-1.2433906	PROPN PUNCT CCONJ	-2.0417004
-1.4134228	CCONJ PUNCT CCONJ	-0.29367134
-1.2272971	NOUN PUNCT CCONJ	-2.5198643
-1.2615818	PUNCT PUNCT CCONJ	-1.4689066
-1.1258066	PRON PUNCT CCONJ	-1.1891668
-1.2122353	ADV PUNCT CCONJ	-1.5444306
-1.2022883	VERB PUNCT CCONJ	-1.7658125
-1.2270112	AUX PUNCT CCONJ	-0.54487944
-1.3535298	PART PUNCT CCONJ	-0.4086473
-1.1512372	ADJ PUNCT CCONJ	-1.6801178
-1.2608484	INTJ PUNCT CCONJ	-0.48472205
-1.170511	NUM PUNCT CCONJ	-1.3262767
-1.2487454	SCONJ PUNCT CCONJ	-0.28524724
-1.1943946	X PUNCT CCONJ	-0.44374233
-0.9795078	SYM PUNCT CCONJ	-0.29018852
-2.8291566	<s> PRON CCONJ	-0.45832306
-1.1744078	ADP PRON CCONJ	-1.3109186
-1.624058	DET PRON CCONJ	-0.2827975
-1.3790431	PROPN PRON CCONJ	-0.28999487
-1.2289547	CCONJ PRON CCONJ	-0.56299615
-1.2456853	NOUN PRON CCONJ	-0.47159296
-1.3359468	PUNCT PRON CCONJ	-0.6368644
-1.6028059	PRON PRON CCONJ	-0.29018852
-1.2387315	ADV PRON CCONJ	-0.63695043
-1.1933393	VERB PRON CCONJ	-1.3179774
-1.529505	AUX PRON CCONJ	-0.29891077
-1.4589812	PART PRON CCONJ	-0.2791486
-1.6778762	ADJ PRON CCONJ	-0.29018852
-1.3966123	NUM PRON CCONJ	-0.29018852
-1.1924727	SCONJ PRON CCONJ	-0.75276965
-2.6686494	<s> ADV CCONJ	-0.7173911
-1.2902908	ADP ADV CCONJ	-0.70969826
-1.166322	DET ADV CCONJ	-0.60783666
-1.20503	PROPN ADV CCONJ	-0.53437597
-1.3096799	CCONJ ADV CCONJ	-0.76180565
-1.287805	NOUN ADV CCONJ	-1.2303271
-1.2307689	PUNCT ADV CCONJ	-0.91374475
-1.3211598	PRON ADV CCONJ	-0.7547176
-1.1620694	ADV ADV CCONJ	-0.89824563
-1.1872249	VERB ADV CCONJ	-1.4442123
-1.3765457	AUX ADV CCONJ	-0.72913504
-1.4144089	PART ADV CCONJ	-0.5155201
-1.3052176	ADJ ADV CCONJ	-0.5132477
-1.4123473	INTJ ADV CCONJ	-0.29018852
-1.8047318	NUM ADV CCONJ	-0.29018852
-1.6555189	SCONJ ADV CCONJ	-0.37355247
-2.388849	<s> VERB CCONJ	-0.8617163
-1.1325755	ADP VERB CCONJ	-1.1947486
-1.2542485	DET VERB CCONJ	-0.85071206
-1.254696	PROPN VERB CCONJ	-0.9753074
-1.2481401	CCONJ VERB CCONJ	-0.8407502
-1.2409312	NOUN VERB CCONJ	-1.368922
-1.2069993	PUNCT VERB CCONJ	-1.3920312
-1.268322	PRON VERB CCONJ	-1.2999923
-1.1897132	ADV VERB CCONJ	-1.4057286
-1.2114263	VERB VERB CCONJ	-0.8789946
-1.2033802	AUX VERB CCONJ	-1.8021455
-1.1997306	PART VERB CCONJ	-1.6761787
-1.2300849	ADJ VERB CCONJ	-0.60057056
-1.6928424	INTJ VERB CCONJ	-0.30482444
-1.4499202	NUM VERB CCONJ	-0.32783625
-1.3591212	SCONJ VERB CCONJ	-0.5358361
-1.4343437	SYM VERB CCONJ	-0.29018852
-1.6518047	ADP AUX CCONJ	-0.29018852
-1.6275901	DET AUX CCONJ	-0.2931721
-1.3303517	PROPN AUX CCONJ	-0.41499817
-1.7701638	CCONJ AUX CCONJ	-0.29018852
-1.3213979	NOUN AUX CCONJ	-0.6412702
-1.6956437	PUNCT AUX CCONJ	-0.44503883
-1.3030212	PRON AUX CCONJ	-0.69598186
-1.851957	ADV AUX CCONJ	-0.29018852
-1.780133	AUX AUX CCONJ	-0.29018852
-1.8758708	ADJ AUX CCONJ	-0.29018852
-1.7176064	NUM AUX CCONJ	-0.2827975
-1.226558	PROPN PART CCONJ	-0.771873
-1.4751995	CCONJ PART CCONJ	-0.2846335
-1.3417954	NOUN PART CCONJ	-0.49420613
-1.7322938	PRON PART CCONJ	-0.29018852
-1.8552517	ADV PART CCONJ	-0.29018852
-1.4496704	VERB PART CCONJ	-0.52173954
-1.5878766	AUX PART CCONJ	-0.34395054
-1.7985913	ADJ PART CCONJ	-0.29018852
-1.6812238	NUM PART CCONJ	-0.29891077
-1.7914107	<s> ADJ CCONJ	-0.95251703
-1.1760014	ADP ADJ CCONJ	-1.6314385
-1.1834908	DET ADJ CCONJ	-1.7738082
-1.2390387	PROPN ADJ CCONJ	-0.4820214
-1.0780863	CCONJ ADJ CCONJ	-1.1449368
-1.1656418	NOUN ADJ CCONJ	-1.0346813
-1.1304725	PUNCT ADJ CCONJ	-1.5870423
-1.1064664	PRON ADJ CCONJ	-1.0634192
-1.1566415	ADV ADJ CCONJ	-1.6095412
-1.1167704	VERB ADJ CCONJ	-1.6153984
-0.9935616	AUX ADJ CCONJ	-1.311957
-1.0629673	PART ADJ CCONJ	-1.0106975
-1.0648837	ADJ ADJ CCONJ	-1.3850328
-1.3814788	INTJ ADJ CCONJ	-0.2827975
-0.9687027	NUM ADJ CCONJ	-0.76992947
-1.1474477	SCONJ ADJ CCONJ	-0.62661713
-1.4679502	SYM ADJ CCONJ	-0.29018852
-2.1895094	<s> INTJ CCONJ	-0.2864773
-1.661015	NOUN INTJ CCONJ	-0.29018852
-1.69522	PUNCT INTJ CCONJ	-0.29018852
-1.4859692	ADV INTJ CCONJ	-0.29018852
-1.277643	VERB INTJ CCONJ	-0.2846335
-1.3209791	ADJ INTJ CCONJ	-0.29018852
-1.5019557	INTJ INTJ CCONJ	-0.29018852
-0.8835385	SCONJ INTJ CCONJ	-0.29018852
-2.2238069	<s> NUM CCONJ	-0.37145612
-1.1667801	ADP NUM CCONJ	-1.2935853
-1.4184958	DET NUM CCONJ	-0.4564832
-1.1518414	PROPN NUM CCONJ	-1.0473565
-1.2901773	CCONJ NUM CCONJ	-0.41285416
-1.1512294	NOUN NUM CCONJ	-0.5415093
-1.2803353	PUNCT NUM CCONJ	-0.6671889
-1.2825855	PRON NUM CCONJ	-0.29018852
-1.4111215	ADV NUM CCONJ	-0.5910636
-1.1793948	VERB NUM CCONJ	-0.6593635
-1.0840466	AUX NUM CCONJ	-0.40329695
-1.4531898	PART NUM CCONJ	-0.2827975
-1.1913993	ADJ NUM CCONJ	-0.40071115
-1.1647924	NUM NUM CCONJ	-0.4688995
-1.2383163	SCONJ NUM CCONJ	-0.39117026
-0.8164549	X NUM CCONJ	-0.2791486
-1.2585194	SYM NUM CCONJ	-0.36690733
-2.6094923	<s> SCONJ CCONJ	-0.60214895
-1.1382122	ADP SCONJ CCONJ	-1.0068818
-1.7764539	PROPN SCONJ CCONJ	-0.29018852
-1.6146829	CCONJ SCONJ CCONJ	-0.29018852
-1.8186084	NOUN SCONJ CCONJ	-0.37355247
-1.8273935	PUNCT SCONJ CCONJ	-0.7307932
-1.5713989	PRON SCONJ CCONJ	-0.29018852
-1.9020871	ADV SCONJ CCONJ	-0.29018852
-1.3477004	VERB SCONJ CCONJ	-0.65531045
-1.7424693	AUX SCONJ CCONJ	-0.29018852
-1.6300803	ADJ SCONJ CCONJ	-0.29744482
-1.3122684	ADP X CCONJ	-0.40554526
-1.4210008	DET X CCONJ	-0.29018852
-1.1955851	CCONJ X CCONJ	-0.29018852
-1.6280725	NOUN X CCONJ	-0.2827975
-1.4324615	PUNCT X CCONJ	-0.2827975
-1.374866	VERB X CCONJ	-0.29018852
-0.9360698	PART X CCONJ	-0.29018852
-1.4151974	ADJ X CCONJ	-0.29018852
-1.5154277	X X CCONJ	-0.2827975
-1.5419041	ADV SYM CCONJ	-0.29018852
-1.4310046	NUM SYM CCONJ	-0.29018852
-0.8707387	<s> ADP NOUN	-1.8931836
-1.0353503	ADP ADP NOUN	-1.5252068
-0.9546035	DET ADP NOUN	-1.040869
-1.0554243	PROPN ADP NOUN	-1.712784
-1.0348476	CCONJ ADP NOUN	-1.3330827
-1.1478087	NOUN ADP NOUN	-3.0248153
-1.0877492	PUNCT ADP NOUN	-1.9773072
-0.9365037	PRON ADP NOUN	-1.438847
-1.0822952	ADV ADP NOUN	-1.8227288
-1.154516	VERB ADP NOUN	-2.6118588
-1.0108392	AUX ADP NOUN	-1.3283242
-0.7746443	PART ADP NOUN	-0.91244996
-1.0479385	ADJ ADP NOUN	-1.8751589
-0.86652315	INTJ ADP NOUN	-0.41057843
-0.9815557	NUM ADP NOUN	-1.1837549
-0.931836	SCONJ ADP NOUN	-1.3309262
-0.68974286	X ADP NOUN	-0.38309354
-0.4768154	SYM ADP NOUN	-0.6533015
-0.2662121	<s> DET NOUN	-2.7129936
-1.0750759	ADP DET NOUN	-3.333132
-0.94807	DET DET NOUN	-1.8177581
-0.85477793	PROPN DET NOUN	-1.3798455
-0.9275893	CCONJ DET NOUN	-2.2808304
-0.9739711	NOUN DET NOUN	-1.9180808
-1.0332884	PUNCT DET NOUN	-2.6127398
-0.9421468	PRON DET NOUN	-1.6272836
-1.0006393	ADV DET NOUN	-2.1605191
-1.0710732	VERB DET NOUN	-3.0815525
-0.97428197	AUX DET NOUN	-2.2006454
-0.8184159	PART DET NOUN	-1.361003
-0.8571403	ADJ DET NOUN	-1.1999614
-0.4000554	INTJ DET NOUN	-0.6028875
-0.74693394	NUM DET NOUN	-0.9756135
-0.9741478	SCONJ DET NOUN	-2.3202016
-0.48104107	X DET NOUN	-0.3231353
-0.39528117	SYM DET NOUN	-0.29891077
-1.362848	<s> PROPN NOUN	-1.5310795
-1.1812541	ADP PROPN NOUN	-2.074621
-1.1109499	DET PROPN NOUN	-2.2774708
-1.2069863	PROPN PROPN NOUN	-2.1853952
-1.2005782	CCONJ PROPN NOUN	-1.3377755
-1.0813917	NOUN PROPN NOUN	-1.3450346
-1.1605169	PUNCT PROPN NOUN	-1.7603248
-0.9966955	PRON PROPN NOUN	-1.2961179
-1.0796962	ADV PROPN NOUN	-0.68945026
-1.1360594	VERB PROPN NOUN	-1.493994
-1.2106771	AUX PROPN NOUN	-0.41396466
-1.12386	PART PROPN NOUN	-1.2599671
-1.0891732	ADJ PROPN NOUN	-1.6858325
-1.0641879	INTJ PROPN NOUN	-0.2857388
-1.0319546	NUM PROPN NOUN	-1.3019195
-1.0599669	SCONJ PROPN NOUN	-1.0133749
-0.9737472	X PROPN NOUN	-0.52381784
-1.0437884	SYM PROPN NOUN	-1.0394634
-1.2795309	<s> CCONJ NOUN	-1.0626732
-0.9391744	ADP CCONJ NOUN	-0.8519823
-1.3742594	DET CCONJ NOUN	-0.3357739
-1.0263981	PROPN CCONJ NOUN	-2.1867929
-1.1089648	CCONJ CCONJ NOUN	-0.2857388
-1.1185813	NOUN CCONJ NOUN	-2.738108
-1.1248813	PUNCT CCONJ NOUN	-1.9152734
-0.8936591	PRON CCONJ NOUN	-0.71287763
-1.1189541	ADV CCONJ NOUN	-0.91549885
-1.038055	VERB CCONJ NOUN	-1.272582
-0.99958843	AUX CCONJ NOUN	-0.4735361
-1.1423202	PART CCONJ NOUN	-0.60214895
-1.0244825	ADJ CCONJ NOUN	-1.3791949
-1.0331286	INTJ CCONJ NOUN	-0.29018852
-0.9205485	NUM CCONJ NOUN	-0.96930015
-0.64707327	X CCONJ NOUN	-0.43942168
-0.66907763	SYM CCONJ NOUN	-0.29018852
-0.9785394	<s> NOUN NOUN	-1.7365807
-1.1999145	ADP NOUN NOUN	-2.4050426
-1.1522568	DET NOUN NOUN	-2.6763785
-1.150557	PROPN NOUN NOUN	-1.9066833
-1.0493768	CCONJ NOUN NOUN	-2.0910575
-1.2093997	NOUN NOUN NOUN	-2.4461
-1.1684724	PUNCT NOUN NOUN	-2.2967885
-1.0503359	PRON NOUN NOUN	-1.8317242
-1.055152	ADV NOUN NOUN	-1.1634216
-1.1672628	VERB NOUN NOUN	-2.148772
-1.0553948	AUX NOUN NOUN	-0.8989315
-1.0896958	PART NOUN NOUN	-1.6779727
-1.2079098	ADJ NOUN NOUN	-2.658363
-0.67446804	INTJ NOUN NOUN	-0.7326389
-1.1573167	NUM NOUN NOUN	-1.7521734
-0.9817007	SCONJ NOUN NOUN	-1.2477024
-0.9046486	X NOUN NOUN	-0.9648829
-1.0141307	SYM NOUN NOUN	-0.91849834
-1.0095475	<s> PUNCT NOUN	-1.2610382
-1.0819048	ADP PUNCT NOUN	-1.640244
-1.078349	DET PUNCT NOUN	-1.7019198
-1.2186685	PROPN PUNCT NOUN	-2.0931687
-1.1674217	CCONJ PUNCT NOUN	-1.1065216
-1.2272971	NOUN PUNCT NOUN	-2.6112099
-1.2038672	PUNCT PUNCT NOUN	-1.4862651
-1.2299376	PRON PUNCT NOUN	-1.0654626
-1.1860206	ADV PUNCT NOUN	-1.5008222
-1.2022883	VERB PUNCT NOUN	-1.6495733
-1.1301477	AUX PUNCT NOUN	-0.628077
-1.0882022	PART PUNCT NOUN	-0.9149823
-1.1512372	ADJ PUNCT NOUN	-2.0300221
-1.409227	INTJ PUNCT NOUN	-0.651828
-1.1442963	NUM PUNCT NOUN	-1.8315454
-1.035688	SCONJ PUNCT NOUN	-0.8757305
-1.0400618	X PUNCT NOUN	-0.60989344
-0.9795078	SYM PUNCT NOUN	-0.29018852
-1.1879584	<s> PRON NOUN	-1.7654878
-1.1379321	ADP PRON NOUN	-2.5884345
-0.8638692	DET PRON NOUN	-1.0695243
-0.9681324	PROPN PRON NOUN	-0.57568806
-1.0402411	CCONJ PRON NOUN	-1.7829443
-1.0408179	NOUN PRON NOUN	-1.0101084
-1.050672	PUNCT PRON NOUN	-1.6733289
-0.9072682	PRON PRON NOUN	-0.8795575
-1.0348965	ADV PRON NOUN	-1.2957971
-1.1566594	VERB PRON NOUN	-2.4653935
-1.0300157	AUX PRON NOUN	-1.2162147
-0.96476245	PART PRON NOUN	-0.5593687
-0.94870126	ADJ PRON NOUN	-0.5980351
-0.99923384	INTJ PRON NOUN	-0.28700554
-0.8703943	NUM PRON NOUN	-0.34114736
-1.0041748	SCONJ PRON NOUN	-1.5984317
-0.72618973	X PRON NOUN	-0.2827975
-0.7641698	SYM PRON NOUN	-0.53989387
-1.6227677	<s> ADV NOUN	-1.0775132
-1.2357926	ADP ADV NOUN	-0.92701125
-1.1170864	DET ADV NOUN	-0.6561212
-1.1980258	PROPN ADV NOUN	-0.77157354
-1.1623112	CCONJ ADV NOUN	-1.168739
-1.1069694	NOUN ADV NOUN	-1.3024743
-1.1950824	PUNCT ADV NOUN	-1.3168206
-1.5526118	PRON ADV NOUN	-0.37749296
-1.1857643	ADV ADV NOUN	-0.8037303
-1.1277502	VERB ADV NOUN	-1.2273619
-1.3074669	AUX ADV NOUN	-1.0131477
-1.1342776	PART ADV NOUN	-0.6713323
-1.1178521	ADJ ADV NOUN	-0.6407742
-1.2400826	INTJ ADV NOUN	-0.29018852
-1.2823764	NUM ADV NOUN	-0.3625008
-1.1887097	SCONJ ADV NOUN	-0.6182891
-0.8293401	X ADV NOUN	-0.4297632
-0.8875889	SYM ADV NOUN	-0.29018852
-1.1145314	<s> VERB NOUN	-1.2660582
-1.1019055	ADP VERB NOUN	-2.033009
-1.153796	DET VERB NOUN	-2.153013
-1.1430593	PROPN VERB NOUN	-1.693101
-1.1719887	CCONJ VERB NOUN	-1.9234581
-1.1874303	NOUN VERB NOUN	-2.128614
-1.1501473	PUNCT VERB NOUN	-2.168218
-1.2076703	PRON VERB NOUN	-1.982956
-1.1327815	ADV VERB NOUN	-2.0120711
-1.0315408	VERB VERB NOUN	-1.6149989
-1.2006967	AUX VERB NOUN	-2.0884473
-1.1428787	PART VERB NOUN	-2.3527534
-1.0905687	ADJ VERB NOUN	-1.4276462
-0.86388385	INTJ VERB NOUN	-0.5986654
-1.0100566	NUM VERB NOUN	-0.9949283
-1.0080025	SCONJ VERB NOUN	-1.0473565
-0.91931903	X VERB NOUN	-0.5210608
-1.075576	SYM VERB NOUN	-0.29640076
-1.4402491	<s> AUX NOUN	-0.5948534
-1.2396493	ADP AUX NOUN	-0.29018852
-1.1749667	DET AUX NOUN	-0.729462
-1.1618024	PROPN AUX NOUN	-1.0115137
-1.177954	CCONJ AUX NOUN	-0.37145612
-1.2267821	NOUN AUX NOUN	-1.630612
-1.2011807	PUNCT AUX NOUN	-0.7459849
-1.1771505	PRON AUX NOUN	-1.4737877
-1.1265073	ADV AUX NOUN	-0.8085086
-1.15931	VERB AUX NOUN	-0.6529604
-1.4998415	AUX AUX NOUN	-0.2846335
-1.447582	PART AUX NOUN	-0.29018852
-1.2349557	ADJ AUX NOUN	-0.3886879
-1.0259959	INTJ AUX NOUN	-0.29018852
-1.0529702	NUM AUX NOUN	-0.3825197
-1.3357949	SCONJ AUX NOUN	-0.29018852
-2.5524254	<s> PART NOUN	-0.29018852
-0.9298384	ADP PART NOUN	-0.3522715
-1.2176508	DET PART NOUN	-0.29018852
-0.9837613	PROPN PART NOUN	-2.3297434
-1.5091662	CCONJ PART NOUN	-0.52048254
-0.9766798	NOUN PART NOUN	-2.23274
-1.2766645	PUNCT PART NOUN	-0.7488519
-0.90036416	PRON PART NOUN	-0.82355857
-1.0511824	ADV PART NOUN	-0.4622106
-1.0960666	VERB PART NOUN	-0.7644023
-1.1576418	AUX PART NOUN	-0.78228223
-0.95699054	ADJ PART NOUN	-0.72459096
-1.057641	INTJ PART NOUN	-0.29018852
-0.9518081	NUM PART NOUN	-0.5379955
-1.231647	SCONJ PART NOUN	-0.4989978
-1.0121357	X PART NOUN	-0.29018852
-0.22660303	<s> ADJ NOUN	-2.1423225
-1.1156102	ADP ADJ NOUN	-2.8553538
-1.064843	DET ADJ NOUN	-3.2117636
-0.844286	PROPN ADJ NOUN	-1.5696115
-0.9781305	CCONJ ADJ NOUN	-2.3985882
-1.0229148	NOUN ADJ NOUN	-1.8153925
-1.0440189	PUNCT ADJ NOUN	-2.3662517
-0.9134425	PRON ADJ NOUN	-2.3362253
-1.0748919	ADV ADJ NOUN	-2.2485282
-1.0896683	VERB ADJ NOUN	-2.6116216
-1.0229805	AUX ADJ NOUN	-1.520696
-0.9925482	PART ADJ NOUN	-1.9923161
-0.98336613	ADJ ADJ NOUN	-2.6412091
-0.52876747	INTJ ADJ NOUN	-0.44630092
-0.8469244	NUM ADJ NOUN	-1.9146899
-0.8604536	SCONJ ADJ NOUN	-1.7720996
-0.61976284	X ADJ NOUN	-0.7095597
-0.6073999	SYM ADJ NOUN	-0.7139546
-1.475122	<s> INTJ NOUN	-0.51583254
-0.98620063	ADP INTJ NOUN	-0.2827975
-0.9910599	DET INTJ NOUN	-0.29018852
-1.3437539	PROPN INTJ NOUN	-0.29018852
-1.2939353	CCONJ INTJ NOUN	-0.29018852
-0.7443564	NOUN INTJ NOUN	-0.69059557
-1.0525237	PUNCT INTJ NOUN	-0.6092881
-1.200413	ADV INTJ NOUN	-0.2827975
-0.9435229	VERB INTJ NOUN	-0.29003358
-1.0835105	AUX INTJ NOUN	-0.29018852
-0.82786727	PART INTJ NOUN	-0.29018852
-0.9697722	ADJ INTJ NOUN	-0.30482444
-0.8987018	INTJ INTJ NOUN	-0.34395054
-0.704655	X INTJ NOUN	-0.30111897
-0.7542164	SYM INTJ NOUN	-0.29018852
-0.43871224	<s> NUM NOUN	-1.5263917
-1.0804466	ADP NUM NOUN	-2.214208
-0.96409714	DET NUM NOUN	-1.899389
-1.087076	PROPN NUM NOUN	-1.2501417
-0.9026648	CCONJ NUM NOUN	-1.432424
-0.94490254	NOUN NUM NOUN	-1.2317678
-0.95402867	PUNCT NUM NOUN	-1.7552471
-0.6868954	PRON NUM NOUN	-1.0433083
-0.9014669	ADV NUM NOUN	-1.8315439
-1.0028688	VERB NUM NOUN	-1.8838562
-0.8492936	AUX NUM NOUN	-1.1744232
-0.76961625	PART NUM NOUN	-1.2185303
-0.88597476	ADJ NUM NOUN	-1.5654258
-0.6856284	INTJ NUM NOUN	-0.29018852
-0.956929	NUM NUM NOUN	-1.5336055
-0.8630662	SCONJ NUM NOUN	-1.7331018
-1.0275371	X NUM NOUN	-0.2827975
-0.983591	SYM NUM NOUN	-1.0700254
-1.1705279	<s> SCONJ NOUN	-1.0760413
-0.90849984	ADP SCONJ NOUN	-0.72704357
-1.171199	DET SCONJ NOUN	-0.29018852
-0.9750549	PROPN SCONJ NOUN	-0.62940943
-1.0406563	CCONJ SCONJ NOUN	-0.88861096
-1.0823009	NOUN SCONJ NOUN	-1.3627831
-1.0307989	PUNCT SCONJ NOUN	-1.2001137
-1.0777029	PRON SCONJ NOUN	-0.4829358
-1.0254561	ADV SCONJ NOUN	-0.934452
-1.1319888	VERB SCONJ NOUN	-1.5962944
-1.039639	AUX SCONJ NOUN	-0.7768093
-1.3330537	PART SCONJ NOUN	-0.2791486
-1.0362471	ADJ SCONJ NOUN	-1.1671759
-0.8615315	INTJ SCONJ NOUN	-0.29018852
-1.325019	NUM SCONJ NOUN	-0.29891077
-0.92797357	SCONJ SCONJ NOUN	-0.8715402
-1.5562432	<s> X NOUN	-0.2878039
-0.9980042	ADP X NOUN	-0.33802778
-0.6823247	DET X NOUN	-0.3231353
-0.9152067	PROPN X NOUN	-0.41285416
-0.84086734	NOUN X NOUN	-0.84176445
-0.9109463	PUNCT X NOUN	-0.89907265
-0.7923138	ADV X NOUN	-0.37355247
-0.77552074	VERB X NOUN	-0.66353077
-0.789026	AUX X NOUN	-0.29279804
-0.7357344	ADJ X NOUN	-0.41057843
-0.7183492	INTJ X NOUN	-0.2827975
-0.73865473	X X NOUN	-0.81758034
-0.8389194	SYM X NOUN	-0.29018852
-0.10548589	<s> SYM NOUN	-1.1389751
-0.7207327	ADP SYM NOUN	-0.71530956
-0.90275764	DET SYM NOUN	-0.5007551
-0.679088	PROPN SYM NOUN	-0.47271103
-0.8804915	CCONJ SYM NOUN	-0.5227238
-0.6015343	NOUN SYM NOUN	-1.0992945
-0.67655355	PUNCT SYM NOUN	-0.7807782
-0.8903153	PRON SYM NOUN	-0.2846335
-0.7424812	ADV SYM NOUN	-0.29018852
-0.60304224	VERB SYM NOUN	-0.7367687
-0.9055407	AUX SYM NOUN	-0.2791486
-0.5966877	ADJ SYM NOUN	-0.5768717
-0.7025715	INTJ SYM NOUN	-0.29018852
-0.8759019	NUM SYM NOUN	-0.38970804
-0.65266556	SCONJ SYM NOUN	-0.29018852
-0.70207214	X SYM NOUN	-0.29018852
-2.4329324	<s> ADP PUNCT	-0.55909586
-1.1892378	ADP ADP PUNCT	-0.7351645
-1.0972764	DET ADP PUNCT	-0.867378
-1.2120787	PROPN ADP PUNCT	-0.99480903
-1.1831675	CCONJ ADP PUNCT	-0.6139021
-1.177569	NOUN ADP PUNCT	-1.7383904
-1.1472111	PUNCT ADP PUNCT	-1.3796144
-1.321615	PRON ADP PUNCT	-1.0572357
-1.21304	ADV ADP PUNCT	-0.7122205
-1.1842763	VERB ADP PUNCT	-1.916439
-1.251686	AUX ADP PUNCT	-0.5866697
-1.4689276	PART ADP PUNCT	-0.29640076
-1.1074228	ADJ ADP PUNCT	-0.99897945
-1.2955908	NUM ADP PUNCT	-0.32152992
-1.1185186	SCONJ ADP PUNCT	-0.33695304
-1.1370721	SYM ADP PUNCT	-0.29018852
-2.0864537	<s> DET PUNCT	-1.0517346
-1.1310319	ADP DET PUNCT	-1.8018565
-1.0907422	DET DET PUNCT	-0.7138314
-1.2588594	PROPN DET PUNCT	-0.518303
-1.1850891	CCONJ DET PUNCT	-0.8616288
-1.2363441	NOUN DET PUNCT	-0.7776163
-1.1548018	PUNCT DET PUNCT	-1.2290722
-1.25603	PRON DET PUNCT	-0.7555834
-1.0337536	ADV DET PUNCT	-0.80286324
-1.1270292	VERB DET PUNCT	-1.5613763
-1.1282232	AUX DET PUNCT	-0.91195756
-1.2115936	PART DET PUNCT	-0.48430628
-1.1816304	ADJ DET PUNCT	-0.32987335
-1.1702323	NUM DET PUNCT	-0.53853977
-1.0709143	SCONJ DET PUNCT	-0.8779962
-1.0732181	SYM DET PUNCT	-0.29018852
-0.73500395	<s> PROPN PUNCT	-2.101219
-1.1550435	ADP PROPN PUNCT	-2.7980242
-1.1389186	DET PROPN PUNCT	-2.1022458
-1.1822679	PROPN PROPN PUNCT	-2.9429438
-1.1030066	CCONJ PROPN PUNCT	-1.893494
-1.1323208	NOUN PROPN PUNCT	-1.753813
-1.1343474	PUNCT PROPN PUNCT	-2.4962962
-0.961337	PRON PROPN PUNCT	-1.0760268
-1.0796962	ADV PROPN PUNCT	-0.9354915
-1.1360594	VERB PROPN PUNCT	-1.8343587
-0.96885425	AUX PROPN PUNCT	-0.90424746
-0.9425333	PART PROPN PUNCT	-1.2708931
-1.1155999	ADJ PROPN PUNCT	-1.7765242
-0.83838034	INTJ PROPN PUNCT	-0.45279634
-1.0601894	NUM PROPN PUNCT	-1.3270842
-1.0599669	SCONJ PROPN PUNCT	-1.0447218
-0.76764566	X PROPN PUNCT	-0.78019154
-0.9385387	SYM PROPN PUNCT	-1.1955255
-1.3349248	<s> CCONJ PUNCT	-0.9105912
-1.5388924	ADP CCONJ PUNCT	-0.2846335
-1.4034597	DET CCONJ PUNCT	-0.29018852
-1.2470756	PROPN CCONJ PUNCT	-0.5269582
-1.2961092	CCONJ CCONJ PUNCT	-0.29018852
-1.2399724	NOUN CCONJ PUNCT	-0.9396627
-1.1885952	PUNCT CCONJ PUNCT	-1.3686731
-1.5364013	PRON CCONJ PUNCT	-0.29018852
-1.4354476	ADV CCONJ PUNCT	-0.29003358
-1.267496	VERB CCONJ PUNCT	-0.507283
-1.4664977	AUX CCONJ PUNCT	-0.29018852
-1.2239141	PART CCONJ PUNCT	-0.2846335
-1.3344573	ADJ CCONJ PUNCT	-0.50003827
-1.7427204	NUM CCONJ PUNCT	-0.2827975
-0.6763791	SYM CCONJ PUNCT	-0.29018852
-0.60058755	<s> NOUN PUNCT	-2.0548754
-1.1488507	ADP NOUN PUNCT	-2.7591894
-1.1522568	DET NOUN PUNCT	-3.0082273
-1.150557	PROPN NOUN PUNCT	-2.3236327
-0.9910866	CCONJ NOUN PUNCT	-2.5183423
-1.2093997	NOUN NOUN PUNCT	-2.8296292
-1.1436906	PUNCT NOUN PUNCT	-2.4133518
-1.0751746	PRON NOUN PUNCT	-2.4331279
-1.0831275	ADV NOUN PUNCT	-1.2889798
-1.1672628	VERB NOUN PUNCT	-2.408147
-1.0553948	AUX NOUN PUNCT	-1.1347252
-0.942612	PART NOUN PUNCT	-2.0517228
-1.2079098	ADJ NOUN PUNCT	-3.0983562
-0.924397	INTJ NOUN PUNCT	-0.3278747
-1.1573167	NUM NOUN PUNCT	-2.230442
-1.0141928	SCONJ NOUN PUNCT	-1.0305413
-0.86588633	X NOUN PUNCT	-0.77711916
-0.941203	SYM NOUN PUNCT	-1.050933
-1.5177507	<s> PUNCT PUNCT	-0.8129331
-1.1782975	ADP PUNCT PUNCT	-0.9842576
-1.1683338	DET PUNCT PUNCT	-0.7894589
-1.2186685	PROPN PUNCT PUNCT	-2.1662703
-1.3151275	CCONJ PUNCT PUNCT	-0.37965748
-1.2272971	NOUN PUNCT PUNCT	-2.4318092
-1.1776525	PUNCT PUNCT PUNCT	-1.7658662
-1.1258066	PRON PUNCT PUNCT	-1.3911086
-1.2122353	ADV PUNCT PUNCT	-1.4779983
-1.1775662	VERB PUNCT PUNCT	-1.798612
-1.2270112	AUX PUNCT PUNCT	-0.5833856
-1.1759079	PART PUNCT PUNCT	-0.6445273
-1.1512372	ADJ PUNCT PUNCT	-1.5462737
-1.0244333	INTJ PUNCT PUNCT	-0.65974396
-1.1984103	NUM PUNCT PUNCT	-1.403437
-1.2487454	SCONJ PUNCT PUNCT	-0.41209984
-0.99878997	X PUNCT PUNCT	-0.6592236
-0.9795078	SYM PUNCT PUNCT	-0.29018852
-2.254108	<s> PRON PUNCT	-0.7447497
-1.1655471	ADP PRON PUNCT	-1.9772644
-1.2108054	DET PRON PUNCT	-0.2913942
-0.93291193	PROPN PRON PUNCT	-0.5917411
-1.1626489	CCONJ PRON PUNCT	-0.65858614
-1.0729584	NOUN PRON PUNCT	-1.0490761
-1.0765868	PUNCT PRON PUNCT	-0.8877641
-1.267319	PRON PRON PUNCT	-0.35251957
-1.0668004	ADV PRON PUNCT	-0.58781385
-1.1308222	VERB PRON PUNCT	-1.9608872
-1.1533839	AUX PRON PUNCT	-0.8093925
-1.0359359	PART PRON PUNCT	-0.73749804
-0.90127015	ADJ PRON PUNCT	-0.75243163
-0.99923384	INTJ PRON PUNCT	-0.43110073
-1.1490837	NUM PRON PUNCT	-0.29018852
-1.1809121	SCONJ PRON PUNCT	-0.6494165
-1.0222735	X PRON PUNCT	-0.29018852
-1.0527844	SYM PRON PUNCT	-0.29018852
-0.43936908	<s> ADV PUNCT	-2.1449304
-1.0895891	ADP ADV PUNCT	-1.3959049
-0.9815475	DET ADV PUNCT	-1.493464
-1.0629609	PROPN ADV PUNCT	-1.2248447
-1.028443	CCONJ ADV PUNCT	-1.4325507
-1.1314942	NOUN ADV PUNCT	-2.0612633
-1.1411438	PUNCT ADV PUNCT	-1.8009889
-1.0411882	PRON ADV PUNCT	-1.3602997
-1.1025946	ADV ADV PUNCT	-1.9424566
-1.1277502	VERB ADV PUNCT	-1.9801757
-1.1327999	AUX ADV PUNCT	-1.0530604
-1.1342776	PART ADV PUNCT	-0.8611936
-1.0201576	ADJ ADV PUNCT	-1.1471882
-1.0200216	INTJ ADV PUNCT	-0.33220693
-0.84182614	NUM ADV PUNCT	-0.6760665
-1.0899818	SCONJ ADV PUNCT	-0.88384914
-1.0081728	X ADV PUNCT	-0.2864773
-0.80696315	SYM ADV PUNCT	-0.2846335
-1.3088444	<s> VERB PUNCT	-1.0340785
-1.1301235	ADP VERB PUNCT	-1.3458233
-1.153796	DET VERB PUNCT	-1.3194753
-1.167804	PROPN VERB PUNCT	-1.9384909
-1.1397773	CCONJ VERB PUNCT	-1.494572
-1.212175	NOUN VERB PUNCT	-2.0481944
-1.1501473	PUNCT VERB PUNCT	-1.8269361
-1.1814301	PRON VERB PUNCT	-2.0413501
-1.1870885	ADV VERB PUNCT	-1.8422731
-1.1109736	VERB VERB PUNCT	-1.1487219
-1.1727685	AUX VERB PUNCT	-2.2719216
-1.1970472	PART VERB PUNCT	-2.0120792
-1.0622756	ADJ VERB PUNCT	-0.8670598
-1.1079836	INTJ VERB PUNCT	-0.3316097
-1.0383979	NUM VERB PUNCT	-0.66712016
-1.0820242	SCONJ VERB PUNCT	-0.62528956
-0.98177373	X VERB PUNCT	-0.41744602
-0.9624619	SYM VERB PUNCT	-0.28700554
-2.1583154	<s> AUX PUNCT	-0.28524724
-1.048971	ADP AUX PUNCT	-0.40554526
-1.133937	DET AUX PUNCT	-0.6560776
-1.1618024	PROPN AUX PUNCT	-0.8416678
-1.3652655	CCONJ AUX PUNCT	-0.41495514
-1.1387308	NOUN AUX PUNCT	-1.2342074
-1.1636364	PUNCT AUX PUNCT	-0.5841311
-1.1771505	PRON AUX PUNCT	-1.1412343
-1.250178	ADV AUX PUNCT	-0.5066384
-1.2702837	VERB AUX PUNCT	-0.34806553
-1.0189207	AUX AUX PUNCT	-0.8210718
-1.2216166	PART AUX PUNCT	-0.6533015
-1.3032795	ADJ AUX PUNCT	-0.2827975
-1.3577849	NUM AUX PUNCT	-0.33366755
-1.3357949	SCONJ AUX PUNCT	-0.29018852
-1.1631255	X AUX PUNCT	-0.29018852
-2.268427	<s> PART PUNCT	-0.2846335
-1.3380128	ADP PART PUNCT	-0.28133428
-0.99096096	DET PART PUNCT	-0.351164
-1.0372658	PROPN PART PUNCT	-1.1255305
-1.097488	CCONJ PART PUNCT	-0.8397852
-1.1290259	NOUN PART PUNCT	-0.9758188
-1.1578362	PUNCT PART PUNCT	-0.58372116
-1.1762325	PRON PART PUNCT	-0.48048908
-1.0090218	ADV PART PUNCT	-0.70944893
-1.137645	VERB PART PUNCT	-1.0380926
-1.213501	AUX PART PUNCT	-0.8476538
-1.0932451	PART PART PUNCT	-0.29437125
-1.1489446	ADJ PART PUNCT	-0.4548121
-1.0291457	NUM PART PUNCT	-0.36859575
-1.1317445	SCONJ PART PUNCT	-0.37104943
-1.3522146	<s> ADJ PUNCT	-1.061728
-1.0895478	ADP ADJ PUNCT	-1.740438
-1.118728	DET ADJ PUNCT	-1.8890028
-0.9967479	PROPN ADJ PUNCT	-0.8648224
-1.0747625	CCONJ ADJ PUNCT	-1.573108
-1.0229148	NOUN ADJ PUNCT	-1.4321231
-1.0440189	PUNCT ADJ PUNCT	-1.7931637
-1.0302181	PRON ADJ PUNCT	-1.3286266
-1.1260133	ADV ADJ PUNCT	-2.0115693
-1.1404022	VERB ADJ PUNCT	-2.0080316
-1.0577595	AUX ADJ PUNCT	-1.7262993
-1.0248837	PART ADJ PUNCT	-1.337528
-1.0342805	ADJ ADJ PUNCT	-1.4169652
-0.95556015	INTJ ADJ PUNCT	-0.28133428
-0.9025219	NUM ADJ PUNCT	-0.8344611
-1.08996	SCONJ ADJ PUNCT	-0.73714256
-0.67019844	X ADJ PUNCT	-0.29811057
-0.95151997	SYM ADJ PUNCT	-0.32558712
-0.31888685	<s> INTJ PUNCT	-1.2513375
-0.89252937	ADP INTJ PUNCT	-0.29891077
-0.69231164	DET INTJ PUNCT	-0.29018852
-0.67960346	PROPN INTJ PUNCT	-0.3935451
-0.6387386	CCONJ INTJ PUNCT	-0.45298228
-0.8194057	NOUN INTJ PUNCT	-0.47543967
-0.7735232	PUNCT INTJ PUNCT	-1.2901031
-0.8192582	PRON INTJ PUNCT	-0.28188235
-0.7167627	ADV INTJ PUNCT	-0.28835303
-0.7338173	VERB INTJ PUNCT	-0.5804329
-0.81021315	AUX INTJ PUNCT	-0.28802007
-0.80603224	PART INTJ PUNCT	-0.29018852
-0.6680034	ADJ INTJ PUNCT	-0.2931721
-0.72281754	INTJ INTJ PUNCT	-0.5399766
-0.64048743	NUM INTJ PUNCT	-0.2827975
-0.5762737	SCONJ INTJ PUNCT	-0.29018852
-0.9461323	X INTJ PUNCT	-0.29018852
-0.7357705	SYM INTJ PUNCT	-0.29018852
-0.9861372	<s> NUM PUNCT	-1.0300885
-1.0804466	ADP NUM PUNCT	-1.9558206
-0.96409714	DET NUM PUNCT	-1.6572675
-1.0592965	PROPN NUM PUNCT	-2.2470112
-1.0785435	CCONJ NUM PUNCT	-0.94052297
-0.9727144	NOUN NUM PUNCT	-1.5377332
-1.0076118	PUNCT NUM PUNCT	-1.8209636
-0.8525672	PRON NUM PUNCT	-0.9299347
-0.9592275	ADV NUM PUNCT	-0.72313476
-1.080727	VERB NUM PUNCT	-1.0565776
-1.0782474	AUX NUM PUNCT	-0.558213
-0.86101425	PART NUM PUNCT	-0.8129091
-0.88597476	ADJ NUM PUNCT	-1.1023719
-0.7697986	INTJ NUM PUNCT	-0.29018852
-0.956929	NUM NUM PUNCT	-1.1110644
-0.930112	SCONJ NUM PUNCT	-1.1096164
-0.7288437	X NUM PUNCT	-0.29018852
-0.9513617	SYM NUM PUNCT	-1.3678763
-1.9988871	<s> SCONJ PUNCT	-0.4273284
-1.5165375	ADP SCONJ PUNCT	-0.34883323
-1.1445804	PROPN SCONJ PUNCT	-0.38801622
-1.1824108	CCONJ SCONJ PUNCT	-0.29520574
-1.1564503	NOUN SCONJ PUNCT	-0.77270615
-1.2006562	PUNCT SCONJ PUNCT	-0.64275146
-1.09443	PRON SCONJ PUNCT	-0.2966351
-1.2141438	ADV SCONJ PUNCT	-0.3132884
-1.17139	VERB SCONJ PUNCT	-1.2602106
-1.2655004	AUX SCONJ PUNCT	-0.29632595
-1.1858227	PART SCONJ PUNCT	-0.2791486
-1.2359941	ADJ SCONJ PUNCT	-0.32265204
-1.1440573	NUM SCONJ PUNCT	-0.29640076
-1.4718916	SCONJ SCONJ PUNCT	-0.2857388
-0.17584904	<s> X PUNCT	-0.98952925
-0.83563596	ADP X PUNCT	-0.581632
-0.8436893	DET X PUNCT	-0.2864773
-0.9820249	PROPN X PUNCT	-0.5007551
-0.53207576	CCONJ X PUNCT	-0.3706559
-0.90231967	NOUN X PUNCT	-0.69216514
-0.81187904	PUNCT X PUNCT	-1.1994897
-0.59081995	PRON X PUNCT	-0.29018852
-1.0615531	ADV X PUNCT	-0.29018852
-0.77041894	VERB X PUNCT	-0.32225403
-0.85722697	AUX X PUNCT	-0.30482444
-0.94149065	ADJ X PUNCT	-0.2846335
-0.8769443	NUM X PUNCT	-0.29018852
-0.9310532	X X PUNCT	-0.55576456
-2.2397263	<s> SYM PUNCT	-0.29018852
-1.5176793	ADP SYM PUNCT	-0.29018852
-1.4850873	CCONJ SYM PUNCT	-0.29018852
-1.813122	NOUN SYM PUNCT	-0.29018852
-1.6683979	PUNCT SYM PUNCT	-0.29018852
-1.1687775	<s> ADP PRON	-1.6587565
-1.0381582	ADP ADP PRON	-1.3378762
-0.95702684	DET ADP PRON	-1.4281522
-1.05793	PROPN ADP PRON	-1.5420107
-1.1264602	CCONJ ADP PRON	-1.1994251
-1.2009361	NOUN ADP PRON	-2.566583
-1.0903511	PUNCT ADP PRON	-1.7007396
-0.93912196	PRON ADP PRON	-1.3985186
-1.0849164	ADV ADP PRON	-1.6703124
-1.1570302	VERB ADP PRON	-2.3898537
-1.1147765	AUX ADP PRON	-0.86808395
-0.8168337	PART ADP PRON	-0.61918664
-1.076663	ADJ ADP PRON	-1.8266716
-0.8706381	INTJ ADP PRON	-0.2838457
-0.9838023	NUM ADP PRON	-1.2959939
-0.9647292	SCONJ ADP PRON	-1.2378938
-1.439491	X ADP PRON	-0.29018852
-2.3066194	<s> DET PRON	-1.233786
-1.128119	ADP DET PRON	-1.5994996
-1.0489192	DET DET PRON	-0.9601668
-1.1402409	PROPN DET PRON	-0.7804597
-1.093168	CCONJ DET PRON	-1.0327226
-1.055587	NOUN DET PRON	-1.5810798
-1.1514039	PUNCT DET PRON	-1.3553869
-1.1393093	PRON DET PRON	-0.96337354
-1.1682217	ADV DET PRON	-0.8373617
-1.1517336	VERB DET PRON	-1.2958993
-1.2807598	AUX DET PRON	-0.8347216
-1.2060212	PART DET PRON	-0.60214895
-1.5092341	ADJ DET PRON	-0.5266732
-1.1859212	INTJ DET PRON	-0.2791486
-1.2498249	NUM DET PRON	-0.30482444
-1.2319441	SCONJ DET PRON	-0.79179764
-1.2924684	X DET PRON	-0.2791486
-2.3657656	<s> PROPN PRON	-0.9158505
-1.2389588	ADP PROPN PRON	-1.3815341
-1.2355888	DET PROPN PRON	-1.0517439
-1.233197	PROPN PROPN PRON	-1.3742852
-1.504931	CCONJ PROPN PRON	-0.6163802
-1.2941349	NOUN PROPN PRON	-0.7760321
-1.1883649	PUNCT PROPN PRON	-0.7964759
-1.6226809	PRON PROPN PRON	-0.2857388
-1.3874167	ADV PROPN PRON	-0.4894667
-1.4115138	VERB PROPN PRON	-0.60211843
-1.3643674	AUX PROPN PRON	-0.7202483
-1.3079245	PART PROPN PRON	-0.34395054
-1.2061596	ADJ PROPN PRON	-1.0488816
-1.5134318	INTJ PROPN PRON	-0.29018852
-1.4631033	NUM PROPN PRON	-0.5119723
-1.4857017	SCONJ PROPN PRON	-0.30482444
-1.5491788	X PROPN PRON	-0.2827975
-1.4873459	SYM PROPN PRON	-0.2846335
-0.64264953	<s> CCONJ PRON	-1.7017517
-1.1371024	ADP CCONJ PRON	-0.650498
-0.9347227	DET CCONJ PRON	-0.5099249
-1.0773472	PROPN CCONJ PRON	-1.5514171
-1.2666707	CCONJ CCONJ PRON	-0.2827975
-1.1717653	NOUN CCONJ PRON	-1.9283702
-1.099103	PUNCT CCONJ PRON	-2.1278276
-0.8936591	PRON CCONJ PRON	-1.3362662
-1.005384	ADV CCONJ PRON	-1.1489918
-1.0996916	VERB CCONJ PRON	-1.1934981
-1.1086154	AUX CCONJ PRON	-0.34030348
-1.1423202	PART CCONJ PRON	-0.30111897
-1.1488075	ADJ CCONJ PRON	-1.2361261
-0.96335125	INTJ CCONJ PRON	-0.398029
-1.0851498	NUM CCONJ PRON	-0.6850357
-1.1533725	SCONJ CCONJ PRON	-0.30111897
-1.1202788	X CCONJ PRON	-0.29018852
-1.936817	<s> NOUN PRON	-1.1894778
-1.2278899	ADP NOUN PRON	-1.6929703
-1.2033206	DET NOUN PRON	-2.1611023
-1.2295964	PROPN NOUN PRON	-1.0797406
-1.3528001	CCONJ NOUN PRON	-1.3343244
-1.2341816	NOUN NOUN PRON	-1.4531932
-1.2227299	PUNCT NOUN PRON	-1.1637176
-1.191764	PRON NOUN PRON	-1.1735291
-1.1798247	ADV NOUN PRON	-0.92090774
-1.2183266	VERB NOUN PRON	-1.2624245
-1.4416155	AUX NOUN PRON	-1.0177462
-1.3137828	PART NOUN PRON	-0.8942022
-1.2589737	ADJ NOUN PRON	-2.0109327
-1.5306721	INTJ NOUN PRON	-0.29018852
-1.2083805	NUM NOUN PRON	-1.3955848
-1.2867445	SCONJ NOUN PRON	-0.93472636
-1.5505395	X NOUN PRON	-0.30111897
-1.4577754	SYM NOUN PRON	-0.47721025
-0.57700735	<s> PUNCT PRON	-1.796572
-1.1468564	ADP PUNCT PRON	-1.1731055
-1.2063209	DET PUNCT PRON	-1.170021
-1.2209246	PROPN PUNCT PRON	-2.0953555
-1.1728486	CCONJ PUNCT PRON	-0.9534414
-1.2295532	NOUN PUNCT PRON	-2.4574041
-1.1800411	PUNCT PUNCT PRON	-1.9002885
-1.0986978	PRON PUNCT PRON	-1.4546479
-1.214773	ADV PUNCT PRON	-1.9733675
-1.2310406	VERB PUNCT PRON	-1.7201709
-1.3584228	AUX PUNCT PRON	-0.7510703
-1.1336262	PART PUNCT PRON	-0.7514359
-1.2327799	ADJ PUNCT PRON	-1.5925595
-1.1546055	INTJ PUNCT PRON	-1.3478262
-1.1466849	NUM PUNCT PRON	-1.4761283
-1.073815	SCONJ PUNCT PRON	-0.9106954
-1.3477235	X PUNCT PRON	-0.92469454
-2.0983465	<s> PRON PRON	-1.2658343
-1.1406842	ADP PRON PRON	-1.5859377
-1.0848541	DET PRON PRON	-0.7819457
-1.4665632	PROPN PRON PRON	-0.5588126
-1.0812886	CCONJ PRON PRON	-1.1734556
-1.1109579	NOUN PRON PRON	-0.99901175
-1.0793809	PUNCT PRON PRON	-1.1779208
-1.2739129	PRON PRON PRON	-0.72863597
-1.1837168	ADV PRON PRON	-1.0193418
-1.1871791	VERB PRON PRON	-1.6110201
-1.1580203	AUX PRON PRON	-1.0397578
-1.1275764	PART PRON PRON	-0.6617251
-1.2242645	ADJ PRON PRON	-0.5680659
-1.3511426	INTJ PRON PRON	-0.29018852
-1.5119026	NUM PRON PRON	-0.29018852
-1.1428126	SCONJ PRON PRON	-1.1072847
-1.0619818	SYM PRON PRON	-0.29018852
-0.99805355	<s> ADV PRON	-1.7476608
-1.0923696	ADP ADV PRON	-1.2231477
-1.1625421	DET ADV PRON	-0.7658837
-1.2015138	PROPN ADV PRON	-1.2259018
-1.0933737	CCONJ ADV PRON	-1.5918411
-1.1880422	NOUN ADV PRON	-1.8151947
-1.1435989	PUNCT ADV PRON	-1.7371368
-1.1589935	PRON ADV PRON	-1.0607868
-1.1888767	ADV ADV PRON	-1.4146305
-1.1842983	VERB ADV PRON	-1.5853224
-1.2613109	AUX ADV PRON	-1.1111445
-1.2791826	PART ADV PRON	-0.46765798
-1.0529681	ADJ ADV PRON	-1.1532117
-1.0264595	INTJ ADV PRON	-0.47721025
-1.054395	NUM ADV PRON	-0.9161223
-1.0511687	SCONJ ADV PRON	-1.0817902
-1.2615794	X ADV PRON	-0.29018852
-1.0254843	<s> VERB PRON	-1.3855212
-1.1301235	ADP VERB PRON	-1.6048192
-1.0992606	DET VERB PRON	-1.5210433
-1.167804	PROPN VERB PRON	-1.8438408
-1.1097908	CCONJ VERB PRON	-1.921186
-1.1874303	NOUN VERB PRON	-2.0253284
-1.1501473	PUNCT VERB PRON	-1.8511871
-1.1814301	PRON VERB PRON	-2.2010825
-1.1870885	ADV VERB PRON	-1.8950019
-1.2082614	VERB VERB PRON	-1.1602744
-1.1465281	AUX VERB PRON	-2.1053123
-1.1691189	PART VERB PRON	-2.354812
-1.0905687	ADJ VERB PRON	-0.7041477
-0.9934682	INTJ VERB PRON	-0.857255
-1.0687187	NUM VERB PRON	-0.51552004
-1.0820242	SCONJ VERB PRON	-0.75460076
-1.4549232	X VERB PRON	-0.2791486
-1.075576	SYM VERB PRON	-0.2857388
-0.34968847	<s> AUX PRON	-1.4856732
-1.2490392	ADP AUX PRON	-0.398029
-1.1381329	DET AUX PRON	-1.0854176
-1.3110943	PROPN AUX PRON	-0.7030819
-0.95104575	CCONJ AUX PRON	-0.9366542
-1.1991326	NOUN AUX PRON	-1.1878546
-1.0422302	PUNCT AUX PRON	-1.2884581
-1.1807959	PRON AUX PRON	-1.3480718
-1.0634273	ADV AUX PRON	-1.5403601
-1.1638727	VERB AUX PRON	-0.39688388
-1.6977786	AUX AUX PRON	-0.29018852
-1.2408558	ADJ AUX PRON	-0.5995413
-1.5991998	NUM AUX PRON	-0.2846335
-1.1775357	SCONJ AUX PRON	-0.29018852
-0.8449403	SYM AUX PRON	-0.29018852
-1.5658554	<s> PART PRON	-0.5753887
-1.569613	ADP PART PRON	-0.29018852
-1.4388138	DET PART PRON	-0.29018852
-1.6657933	PROPN PART PRON	-0.30111897
-1.1759564	CCONJ PART PRON	-0.71276987
-1.6322064	NOUN PART PRON	-0.2846335
-1.1750484	PUNCT PART PRON	-0.38030022
-1.6568718	PRON PART PRON	-0.29018852
-1.6532335	ADV PART PRON	-0.29018852
-1.2406166	VERB PART PRON	-0.52381784
-1.0910264	AUX PART PRON	-1.1991162
-1.1538446	SCONJ PART PRON	-0.30270317
-3.4873905	<s> ADJ PRON	-0.29018852
-1.2113236	ADP ADJ PRON	-0.9354903
-1.2216624	DET ADJ PRON	-0.8592769
-1.6860806	PROPN ADJ PRON	-0.29018852
-1.6997353	CCONJ ADJ PRON	-0.41285416
-1.680133	NOUN ADJ PRON	-0.5497683
-1.5027382	PUNCT ADJ PRON	-0.3825197
-1.6973722	PRON ADJ PRON	-0.36439162
-1.1895947	ADV ADJ PRON	-1.1645072
-1.2038825	VERB ADJ PRON	-0.9836952
-1.4540964	AUX ADJ PRON	-0.7808022
-1.3759358	PART ADJ PRON	-0.52524066
-1.4703417	ADJ ADJ PRON	-0.28999487
-1.845787	NUM ADJ PRON	-0.29018852
-1.6849757	SCONJ ADJ PRON	-0.29018852
-1.4993764	X ADJ PRON	-0.29018852
-0.94630265	<s> INTJ PRON	-0.980073
-1.0084974	ADP INTJ PRON	-0.29018852
-1.2519118	PROPN INTJ PRON	-0.29018852
-0.73598874	CCONJ INTJ PRON	-0.36069512
-1.3599297	NOUN INTJ PRON	-0.29018852
-1.0191013	PUNCT INTJ PRON	-0.60214895
-0.85909975	PRON INTJ PRON	-0.2846335
-1.1732044	ADV INTJ PRON	-0.2846335
-1.0264907	VERB INTJ PRON	-0.2846335
-0.84305865	PART INTJ PRON	-0.2791486
-1.2191265	ADJ INTJ PRON	-0.29018852
-1.244989	INTJ INTJ PRON	-0.2827975
-0.84305865	SCONJ INTJ PRON	-0.29018852
-2.8652394	<s> NUM PRON	-0.30482444
-1.2826748	ADP NUM PRON	-0.9354903
-1.6872503	DET NUM PRON	-0.530484
-1.3778989	PROPN NUM PRON	-0.74379313
-1.4199104	CCONJ NUM PRON	-0.30111897
-1.7152761	NOUN NUM PRON	-0.29018852
-1.7399539	PUNCT NUM PRON	-0.37716657
-1.3771278	PRON NUM PRON	-0.29018852
-1.839481	ADV NUM PRON	-0.29018852
-1.3174683	VERB NUM PRON	-0.32987335
-1.4485074	AUX NUM PRON	-0.4297632
-1.606166	ADJ NUM PRON	-0.53678644
-1.7884779	NUM NUM PRON	-0.29018852
-1.5892147	SCONJ NUM PRON	-0.398029
-0.52493906	<s> SCONJ PRON	-1.7347087
-0.7997116	ADP SCONJ PRON	-1.3851421
-0.58813584	DET SCONJ PRON	-0.7038759
-0.7940907	PROPN SCONJ PRON	-1.3385454
-0.89619946	CCONJ SCONJ PRON	-1.5364537
-1.0494897	NOUN SCONJ PRON	-1.9071859
-1.0019145	PUNCT SCONJ PRON	-1.798002
-0.8120208	PRON SCONJ PRON	-1.3630457
-0.95497644	ADV SCONJ PRON	-1.5984882
-1.0463419	VERB SCONJ PRON	-2.1024122
-0.9370494	AUX SCONJ PRON	-1.2596902
-0.6172653	PART SCONJ PRON	-0.7500108
-1.0328429	ADJ SCONJ PRON	-1.5063109
-0.43371758	INTJ SCONJ PRON	-0.54964375
-0.7921417	NUM SCONJ PRON	-0.845187
-0.7953638	SCONJ SCONJ PRON	-1.2741565
-0.59543204	X SCONJ PRON	-0.29018852
-1.524711	PROPN X PRON	-0.29018852
-1.8581616	NOUN X PRON	-0.29018852
-1.7060862	PUNCT X PRON	-0.29891077
-1.6174716	VERB X PRON	-0.29018852
-1.1742446	AUX X PRON	-0.29018852
-1.8134493	X X PRON	-0.29018852
-2.2397263	<s> SYM PRON	-0.29018852
-1.5176793	ADP SYM PRON	-0.29018852
-1.7474997	PROPN SYM PRON	-0.29018852
-0.5017998	PRON SYM PRON	-0.6945751
-1.7914217	VERB SYM PRON	-0.29018852
-1.791882	<s> ADP ADV	-1.0967133
-1.0735769	ADP ADP ADV	-0.88186944
-1.3703955	DET ADP ADV	-0.36806577
-1.2499788	PROPN ADP ADV	-0.80064034
-1.084094	CCONJ ADP ADV	-0.7312131
-1.2037785	NOUN ADP ADV	-1.776799
-1.1472111	PUNCT ADP ADV	-1.1064969
-1.2516671	PRON ADP ADV	-0.72536016
-1.1457802	ADV ADP ADV	-0.927224
-1.2383794	VERB ADP ADV	-1.6622022
-1.1190935	AUX ADP ADV	-0.4347356
-1.6639537	PART ADP ADV	-0.29018852
-1.2043861	ADJ ADP ADV	-0.8537824
-1.42629	NUM ADP ADV	-0.38531554
-1.3529015	SCONJ ADP ADV	-0.43751103
-1.4542149	X ADP ADV	-0.29018852
-1.8816215	<s> DET ADV	-1.2850204
-1.1310319	ADP DET ADV	-1.8601054
-1.0907422	DET DET ADV	-0.769359
-1.0963751	PROPN DET ADV	-0.60534996
-1.2369711	CCONJ DET ADV	-1.037628
-1.0582789	NOUN DET ADV	-1.2532581
-1.122672	PUNCT DET ADV	-1.4480458
-1.0543067	PRON DET ADV	-0.73785496
-1.1328015	ADV DET ADV	-1.0568919
-1.184551	VERB DET ADV	-1.680265
-1.0125026	AUX DET ADV	-1.5384014
-1.2982373	PART DET ADV	-0.6188544
-1.2682741	ADJ DET ADV	-0.28070864
-1.3646983	NUM DET ADV	-0.37809202
-1.1066633	SCONJ DET ADV	-0.967629
-1.3050414	X DET ADV	-0.29018852
-1.7347894	<s> PROPN ADV	-1.44887
-1.1812541	ADP PROPN ADV	-1.4683341
-1.1688133	DET PROPN ADV	-1.1283492
-1.2610916	PROPN PROPN ADV	-1.6153998
-1.2590433	CCONJ PROPN ADV	-0.97311974
-1.2565897	NOUN PROPN ADV	-0.7526211
-1.284553	PUNCT PROPN ADV	-1.0818421
-1.3879081	PRON PROPN ADV	-0.41728178
-1.3185477	ADV PROPN ADV	-0.6241653
-1.2201989	VERB PROPN ADV	-0.95992255
-1.1503488	AUX PROPN ADV	-0.43759304
-1.3079245	PART PROPN ADV	-0.5036514
-1.2410921	ADJ PROPN ADV	-0.7712606
-1.3274881	INTJ PROPN ADV	-0.30111897
-1.2842417	NUM PROPN ADV	-0.52188176
-1.095283	SCONJ PROPN ADV	-1.0607868
-1.4314849	X PROPN ADV	-0.29018852
-1.3891037	SYM PROPN ADV	-0.4094935
-0.8432491	<s> CCONJ ADV	-1.4113767
-1.2114952	ADP CCONJ ADV	-0.62390065
-1.3383753	DET CCONJ ADV	-0.29018852
-1.1704012	PROPN CCONJ ADV	-1.1605202
-1.2811406	CCONJ CCONJ ADV	-0.29018852
-1.1474421	NOUN CCONJ ADV	-1.8007
-1.102007	PUNCT CCONJ ADV	-1.928746
-1.0243788	PRON CCONJ ADV	-0.6571398
-0.97630334	ADV CCONJ ADV	-1.4001453
-1.1030734	VERB CCONJ ADV	-1.125325
-1.1168401	AUX CCONJ ADV	-0.31882808
-1.2112515	PART CCONJ ADV	-0.29018852
-1.0552492	ADJ CCONJ ADV	-1.4173245
-1.0145947	NUM CCONJ ADV	-0.600514
-1.0919769	SCONJ CCONJ ADV	-0.2846335
-1.305302	X CCONJ ADV	-0.29018852
-1.7100704	<s> NOUN ADV	-1.1183218
-1.2278899	ADP NOUN ADV	-1.6352074
-1.2312961	DET NOUN ADV	-2.1888463
-1.175339	PROPN NOUN ADV	-1.2257402
-1.2425903	CCONJ NOUN ADV	-1.2739311
-1.2093997	NOUN NOUN ADV	-1.7041538
-1.1947544	PUNCT NOUN ADV	-1.1819013
-1.191764	PRON NOUN ADV	-1.5206184
-1.1798247	ADV NOUN ADV	-0.75117916
-1.2183266	VERB NOUN ADV	-1.5292296
-1.2336227	AUX NOUN ADV	-0.48918813
-1.2460353	PART NOUN ADV	-1.0196947
-1.2869492	ADJ NOUN ADV	-2.0207722
-1.3473545	INTJ NOUN ADV	-0.2827975
-1.2083805	NUM NOUN ADV	-1.6541586
-1.1758115	SCONJ NOUN ADV	-0.8534993
-1.5012904	X NOUN ADV	-0.2864773
-1.2794201	SYM NOUN ADV	-0.398029
-1.2388605	<s> PUNCT ADV	-1.0754876
-1.2158511	ADP PUNCT ADV	-0.84750265
-1.2406985	DET PUNCT ADV	-0.77754295
-1.2186685	PROPN PUNCT ADV	-1.8817698
-1.0574031	CCONJ PUNCT ADV	-0.93598545
-1.2520192	NOUN PUNCT ADV	-2.2460046
-1.2317665	PUNCT PUNCT ADV	-1.2963225
-1.192384	PRON PUNCT ADV	-1.0259675
-1.2122353	ADV PUNCT ADV	-1.5180281
-1.1775662	VERB PUNCT ADV	-1.5007093
-1.0509975	AUX PUNCT ADV	-0.9304175
-1.0502057	PART PUNCT ADV	-0.600514
-1.2300733	ADJ PUNCT ADV	-1.3608749
-1.2021556	INTJ PUNCT ADV	-0.59182906
-1.2602398	NUM PUNCT ADV	-1.1571009
-1.1506879	SCONJ PUNCT ADV	-0.5358746
-1.1943946	X PUNCT ADV	-0.46864524
-0.9795078	SYM PUNCT ADV	-0.29018852
-1.1842096	<s> PRON ADV	-1.85111
-1.171434	ADP PRON ADV	-1.3138429
-1.0890923	DET PRON ADV	-0.9579634
-1.0129725	PROPN PRON ADV	-0.8447979
-1.0475231	CCONJ PRON ADV	-1.4214091
-1.0464727	NOUN PRON ADV	-1.3948228
-1.0559514	PUNCT PRON ADV	-1.7432177
-0.9130187	PRON PRON ADV	-0.9304175
-1.0732198	ADV PRON ADV	-1.2160013
-1.1362281	VERB PRON ADV	-1.652967
-1.162707	AUX PRON ADV	-1.1268772
-1.1341463	PART PRON ADV	-0.63680387
-1.2310326	ADJ PRON ADV	-0.29279804
-1.1296175	INTJ PRON ADV	-0.54964375
-1.163018	NUM PRON ADV	-0.5030308
-1.0092673	SCONJ PRON ADV	-1.3438456
-1.050328	<s> ADV ADV	-1.609029
-1.0895891	ADP ADV ADV	-1.1945975
-0.9815475	DET ADV ADV	-1.0648179
-1.092996	PROPN ADV ADV	-1.0450548
-1.124782	CCONJ ADV ADV	-1.3367374
-1.1314942	NOUN ADV ADV	-1.7049354
-1.1411438	PUNCT ADV ADV	-1.6644412
-1.0411882	PRON ADV ADV	-1.1980907
-1.1285875	ADV ADV ADV	-1.2773913
-1.153743	VERB ADV ADV	-1.8134837
-1.0982573	AUX ADV ADV	-1.697353
-1.0283775	PART ADV ADV	-0.96861845
-1.0503448	ADJ ADV ADV	-0.8973316
-1.1799119	INTJ ADV ADV	-0.2827975
-1.0511392	NUM ADV ADV	-0.51740277
-1.0479299	SCONJ ADV ADV	-0.74749255
-1.0081728	X ADV ADV	-0.2857388
-1.0969037	SYM ADV ADV	-0.29018852
-1.5155487	<s> VERB ADV	-0.937325
-1.1603031	ADP VERB ADV	-1.1481313
-1.153796	DET VERB ADV	-1.5232085
-1.1430593	PROPN VERB ADV	-1.5154912
-1.2067821	CCONJ VERB ADV	-1.4553616
-1.1874303	NOUN VERB ADV	-1.9815048
-1.1763875	PUNCT VERB ADV	-1.5054142
-1.2076703	PRON VERB ADV	-2.0043705
-1.1870885	ADV VERB ADV	-1.5608213
-1.1410447	VERB VERB ADV	-0.9615299
-1.1727685	AUX VERB ADV	-2.1512618
-1.1970472	PART VERB ADV	-1.9471531
-1.1533678	ADJ VERB ADV	-0.5819969
-1.1079836	INTJ VERB ADV	-0.38386142
-1.1365604	NUM VERB ADV	-0.58978885
-1.0820242	SCONJ VERB ADV	-0.60736406
-1.4549232	X VERB ADV	-0.2827975
-1.4186535	SYM VERB ADV	-0.29018852
-1.7596899	<s> AUX ADV	-0.5970751
-0.96789277	ADP AUX ADV	-0.7661086
-0.9666273	DET AUX ADV	-1.6571039
-1.048331	PROPN AUX ADV	-1.9364676
-0.89810586	CCONJ AUX ADV	-1.5088798
-1.1068501	NOUN AUX ADV	-2.3462853
-1.0337048	PUNCT AUX ADV	-1.5293376
-1.1139698	PRON AUX ADV	-2.260409
-1.0849719	ADV AUX ADV	-0.85926783
-0.95938194	VERB AUX ADV	-0.88905406
-0.72766507	AUX AUX ADV	-1.6602308
-0.80619013	PART AUX ADV	-1.1879737
-0.9561082	ADJ AUX ADV	-0.7968086
-1.1983323	INTJ AUX ADV	-0.29018852
-0.9317834	NUM AUX ADV	-0.7510519
-1.0830635	SCONJ AUX ADV	-0.30482444
-0.6915074	X AUX ADV	-0.4297632
-0.82557267	SYM AUX ADV	-0.29018852
-0.7938911	<s> PART ADV	-0.8651297
-0.993837	ADP PART ADV	-0.46269685
-0.8587328	DET PART ADV	-0.6009208
-1.0583216	PROPN PART ADV	-1.2083669
-0.9506615	CCONJ PART ADV	-0.85666585
-1.0266297	NOUN PART ADV	-1.441921
-0.84922755	PUNCT PART ADV	-0.977092
-0.8963399	PRON PART ADV	-0.7552838
-0.92146546	ADV PART ADV	-0.7423197
-1.0266297	VERB PART ADV	-1.3074569
-0.9664543	AUX PART ADV	-1.6705713
-0.8596497	PART PART ADV	-0.7138842
-0.95314527	ADJ PART ADV	-1.0151063
-1.0477067	INTJ PART ADV	-0.29018852
-1.3948082	NUM PART ADV	-0.29018852
-0.9015075	SCONJ PART ADV	-0.62940943
-1.0022112	X PART ADV	-0.29018852
-2.3547153	<s> ADJ ADV	-0.481063
-1.287991	ADP ADJ ADV	-0.64312255
-1.1900277	DET ADJ ADV	-0.99970555
-1.3207318	PROPN ADJ ADV	-0.28353098
-1.3251851	CCONJ ADJ ADV	-0.63238966
-1.207436	NOUN ADJ ADV	-0.5362219
-1.2843683	PUNCT ADJ ADV	-0.60882866
-1.3869487	PRON ADJ ADV	-0.48003477
-1.2607573	ADV ADJ ADV	-1.0340645
-1.2394795	VERB ADJ ADV	-1.1304549
-1.1487861	AUX ADJ ADV	-0.96402663
-1.1082038	PART ADJ ADV	-0.87899
-1.2072382	ADJ ADJ ADV	-0.5748287
-1.4213355	NUM ADJ ADV	-0.29367134
-1.2919662	SCONJ ADJ ADV	-0.28820038
-1.5159533	<s> INTJ ADV	-0.4285227
-1.2158072	ADP INTJ ADV	-0.29018852
-1.0400128	DET INTJ ADV	-0.29018852
-1.2845778	PROPN INTJ ADV	-0.29018852
-1.2077354	CCONJ INTJ ADV	-0.29018852
-1.4479171	NOUN INTJ ADV	-0.29018852
-1.4422663	PUNCT INTJ ADV	-0.29005942
-1.2741016	PRON INTJ ADV	-0.2791486
-1.4350368	VERB INTJ ADV	-0.29018852
-0.9441088	AUX INTJ ADV	-0.29018852
-1.276115	INTJ INTJ ADV	-0.29018852
-2.0270138	<s> NUM ADV	-0.37157214
-1.3160436	ADP NUM ADV	-0.8297709
-1.1645718	DET NUM ADV	-0.75276965
-1.1900141	PROPN NUM ADV	-0.71329945
-1.2982194	CCONJ NUM ADV	-0.35728678
-1.5581105	NOUN NUM ADV	-0.30270317
-1.4891291	PUNCT NUM ADV	-0.44012856
-1.4853501	PRON NUM ADV	-0.29018852
-1.4193279	ADV NUM ADV	-0.3303161
-1.2618501	VERB NUM ADV	-0.5430119
-1.1751945	AUX NUM ADV	-0.46612483
-1.466105	PART NUM ADV	-0.29018852
-1.2656283	ADJ NUM ADV	-0.40005466
-1.2675418	NUM NUM ADV	-0.37951005
-1.3270236	SCONJ NUM ADV	-0.29279804
-1.333174	SYM NUM ADV	-0.29604506
-1.4323124	<s> SCONJ ADV	-0.83843267
-1.5664229	ADP SCONJ ADV	-0.34030348
-1.3524301	DET SCONJ ADV	-0.29018852
-1.5425295	PROPN SCONJ ADV	-0.29744482
-1.1116436	CCONJ SCONJ ADV	-0.44077092
-1.1944792	NOUN SCONJ ADV	-0.8258243
-1.2006562	PUNCT SCONJ ADV	-0.75893813
-1.3374746	PRON SCONJ ADV	-0.31844705
-1.1138084	ADV SCONJ ADV	-0.7203084
-1.1095705	VERB SCONJ ADV	-1.1121706
-1.1105958	AUX SCONJ ADV	-0.34114736
-1.1483489	ADJ SCONJ ADV	-0.8474065
-1.4852693	NUM SCONJ ADV	-0.29018852
-1.323894	SCONJ SCONJ ADV	-0.39252934
-2.1824477	<s> X ADV	-0.29018852
-1.616356	PROPN X ADV	-0.29018852
-1.4351344	NOUN X ADV	-0.2857388
-1.3284242	PUNCT X ADV	-0.34030348
-1.3695829	ADV X ADV	-0.29018852
-1.3129847	VERB X ADV	-0.2827975
-1.1228456	AUX X ADV	-0.29018852
-1.7127075	X X ADV	-0.29018852
-0.87204707	SYM X ADV	-0.29018852
-1.4632335	ADP SYM ADV	-0.29018852
-1.7346284	NOUN SYM ADV	-0.29018852
-1.430279	PUNCT SYM ADV	-0.29018852
-1.2022043	ADV SYM ADV	-0.2791486
-1.5488406	VERB SYM ADV	-0.29018852
-1.2356892	AUX SYM ADV	-0.29018852
-1.6229862	ADJ SYM ADV	-0.29018852
-1.5034553	<s> ADP VERB	-1.3217596
-1.1852671	ADP ADP VERB	-0.7577865
-1.1361563	DET ADP VERB	-0.5033546
-1.141897	PROPN ADP VERB	-1.3761554
-1.1264602	CCONJ ADP VERB	-0.8781308
-1.1748925	NOUN ADP VERB	-2.3265305
-1.0903511	PUNCT ADP VERB	-1.5062282
-1.1867679	PRON ADP VERB	-1.1707895
-1.1427659	ADV ADP VERB	-1.4908997
-1.2076435	VERB ADP VERB	-1.9721569
-1.0616021	AUX ADP VERB	-0.82119995
-1.3051976	PART ADP VERB	-0.4136206
-1.1662606	ADJ ADP VERB	-1.5605822
-1.2340194	INTJ ADP VERB	-0.29018852
-1.1107863	NUM ADP VERB	-0.5998775
-1.162552	SCONJ ADP VERB	-0.6643355
-1.2846619	X ADP VERB	-0.29018852
-1.4840832	<s> DET VERB	-1.5853328
-1.128119	ADP DET VERB	-1.9133176
-1.0135735	DET DET VERB	-0.83842707
-0.97577405	PROPN DET VERB	-1.2610285
-1.0552942	CCONJ DET VERB	-1.3961045
-1.0274813	NOUN DET VERB	-2.1537952
-1.0358748	PUNCT DET VERB	-2.0294905
-0.9145695	PRON DET VERB	-1.1720693
-1.0313166	ADV DET VERB	-0.9836165
-1.1517336	VERB DET VERB	-1.5967065
-1.0444672	AUX DET VERB	-1.1803726
-1.0197223	PART DET VERB	-0.43944985
-0.9897591	ADJ DET VERB	-0.53675044
-1.1859212	INTJ DET VERB	-0.2827975
-0.88797325	NUM DET VERB	-0.56256056
-1.0682015	SCONJ DET VERB	-1.1556219
-1.0419722	X DET VERB	-0.2846335
-0.9299365	<s> PROPN VERB	-1.9391096
-1.1812541	ADP PROPN VERB	-1.9983195
-1.1389186	DET PROPN VERB	-1.6994092
-1.2069863	PROPN PROPN VERB	-2.4953735
-1.1030066	CCONJ PROPN VERB	-1.4121628
-1.1323208	NOUN PROPN VERB	-1.4513378
-1.1343474	PUNCT PROPN VERB	-1.956014
-0.9966955	PRON PROPN VERB	-0.7557145
-0.98146033	ADV PROPN VERB	-1.1185654
-1.1903042	VERB PROPN VERB	-1.1385552
-1.0501888	AUX PROPN VERB	-0.89996827
-1.12386	PART PROPN VERB	-0.88602537
-1.1437391	ADJ PROPN VERB	-1.2989895
-0.9014386	INTJ PROPN VERB	-0.41941434
-1.0319546	NUM PROPN VERB	-0.76897395
-1.027308	SCONJ PROPN VERB	-1.3747098
-1.2377396	X PROPN VERB	-0.29279804
-1.1314728	SYM PROPN VERB	-0.5553449
-1.3490285	<s> CCONJ VERB	-0.96748483
-1.0736084	ADP CCONJ VERB	-1.1705246
-0.9296206	DET CCONJ VERB	-0.37023938
-1.1638271	PROPN CCONJ VERB	-1.6575899
-0.86741936	CCONJ CCONJ VERB	-0.29003358
-1.1156964	NOUN CCONJ VERB	-2.3342865
-1.1218207	PUNCT CCONJ VERB	-2.0360475
-1.0157839	PRON CCONJ VERB	-1.2611431
-1.0739037	ADV CCONJ VERB	-1.275264
-0.981515	VERB CCONJ VERB	-2.0588598
-0.99329567	AUX CCONJ VERB	-0.3922692
-0.8715025	PART CCONJ VERB	-0.29340246
-1.0495464	ADJ CCONJ VERB	-1.4348248
-0.95596015	INTJ CCONJ VERB	-0.2827975
-1.0437173	NUM CCONJ VERB	-0.803301
-1.1445287	SCONJ CCONJ VERB	-0.29018852
-0.7412206	X CCONJ VERB	-0.2931721
-0.6654724	SYM CCONJ VERB	-0.29018852
-0.8753943	<s> NOUN VERB	-1.8219591
-1.1736324	ADP NOUN VERB	-2.062925
-1.1770387	DET NOUN VERB	-2.658018
-1.150557	PROPN NOUN VERB	-1.8869745
-1.1167216	CCONJ NOUN VERB	-1.7470555
-1.2093997	NOUN NOUN VERB	-2.2770958
-1.1684724	PUNCT NOUN VERB	-1.7997775
-1.0751746	PRON NOUN VERB	-1.8661045
-1.0831275	ADV NOUN VERB	-1.3360624
-1.1672628	VERB NOUN VERB	-1.7584916
-1.0553948	AUX NOUN VERB	-0.9202271
-1.1358255	PART NOUN VERB	-1.5732768
-1.2079098	ADJ NOUN VERB	-2.5035205
-1.1975013	INTJ NOUN VERB	-0.33383363
-1.1820985	NUM NOUN VERB	-1.6884992
-1.0141928	SCONJ NOUN VERB	-1.3420303
-1.1076795	X NOUN VERB	-0.36154726
-1.2118286	SYM NOUN VERB	-0.4546898
-1.2888274	<s> PUNCT VERB	-1.0960151
-1.1437342	ADP PUNCT VERB	-1.2573587
-1.1362221	DET PUNCT VERB	-0.94657445
-1.2186685	PROPN PUNCT VERB	-2.322921
-1.1089379	CCONJ PUNCT VERB	-0.89136314
-1.2272971	NOUN PUNCT VERB	-2.5539322
-1.2038672	PUNCT PUNCT VERB	-1.7229177
-1.1578207	PRON PUNCT VERB	-1.1794839
-1.1860206	ADV PUNCT VERB	-1.8195701
-1.2022883	VERB PUNCT VERB	-1.6973829
-0.9541185	AUX PUNCT VERB	-1.1595803
-0.9829321	PART PUNCT VERB	-1.1134336
-1.2300733	ADJ PUNCT VERB	-1.4679737
-1.1504586	INTJ PUNCT VERB	-0.5894932
-1.1984103	NUM PUNCT VERB	-1.4409357
-1.0707433	SCONJ PUNCT VERB	-0.6617251
-1.1366397	X PUNCT VERB	-0.76694316
-0.9795078	SYM PUNCT VERB	-0.29018852
-0.44586062	<s> PRON VERB	-2.4003997
-1.1379321	ADP PRON VERB	-1.9710768
-0.77192795	DET PRON VERB	-1.6898788
-0.7900585	PROPN PRON VERB	-1.41917
-0.9743835	CCONJ PRON VERB	-2.0130591
-0.95659834	NOUN PRON VERB	-2.1796925
-1.050672	PUNCT PRON VERB	-2.400311
-0.7131605	PRON PRON VERB	-1.6356201
-0.9773612	ADV PRON VERB	-2.0670419
-1.1566594	VERB PRON VERB	-1.8687111
-0.96374387	AUX PRON VERB	-1.7783506
-0.8500457	PART PRON VERB	-0.9255809
-0.81959045	ADJ PRON VERB	-0.9340641
-0.6143335	INTJ PRON VERB	-0.6267309
-0.6177004	NUM PRON VERB	-0.67145014
-0.9496653	SCONJ PRON VERB	-2.1587703
-0.80812794	X PRON VERB	-0.29018852
-1.0527844	SYM PRON VERB	-0.29018852
-1.3885266	<s> ADV VERB	-1.2798473
-1.0923696	ADP ADV VERB	-1.324135
-0.98403543	DET ADV VERB	-1.6396611
-0.9857373	PROPN ADV VERB	-1.8423004
-1.0611539	CCONJ ADV VERB	-1.812363
-1.1602142	NOUN ADV VERB	-2.0582097
-1.1435989	PUNCT ADV VERB	-1.8350652
-0.9534983	PRON ADV VERB	-2.117972
-1.1591427	ADV ADV VERB	-1.6545641
-1.2140322	VERB ADV VERB	-1.2042596
-0.9847705	AUX ADV VERB	-2.4717984
-1.0309563	PART ADV VERB	-1.7808838
-1.0529681	ADJ ADV VERB	-0.94272083
-0.7391546	INTJ ADV VERB	-0.2973573
-0.9723393	NUM ADV VERB	-0.62560236
-1.0511687	SCONJ ADV VERB	-0.8531427
-1.2615794	X ADV VERB	-0.29018852
-1.7857825	<s> VERB VERB	-0.72265357
-1.2659249	ADP VERB VERB	-0.8100398
-1.1838671	DET VERB VERB	-0.87484384
-1.251821	PROPN VERB VERB	-1.0444636
-1.1719887	CCONJ VERB VERB	-1.0949479
-1.212175	NOUN VERB VERB	-1.4467369
-1.1763875	PUNCT VERB VERB	-1.1127976
-1.2355986	PRON VERB VERB	-1.4240832
-1.2170208	ADV VERB VERB	-1.1526415
-1.2082614	VERB VERB VERB	-1.0354049
-1.2625976	AUX VERB VERB	-1.5741
-1.2268956	PART VERB VERB	-1.5413483
-1.2687798	ADJ VERB VERB	-0.54629576
-1.26395	INTJ VERB VERB	-0.37581632
-1.3157988	NUM VERB VERB	-0.29604506
-1.3533212	SCONJ VERB VERB	-0.40231654
-1.4549232	X VERB VERB	-0.29018852
-1.4186535	SYM VERB VERB	-0.29018852
-1.1233147	<s> AUX VERB	-0.73763025
-0.659984	ADP AUX VERB	-1.2570051
-0.9941129	DET AUX VERB	-2.1045282
-1.048331	PROPN AUX VERB	-2.3967257
-0.82478213	CCONJ AUX VERB	-1.7033539
-1.1322656	NOUN AUX VERB	-2.8366494
-1.0337048	PUNCT AUX VERB	-2.0107327
-1.0643883	PRON AUX VERB	-2.7095692
-0.99676317	ADV AUX VERB	-1.7421923
-0.90160215	VERB AUX VERB	-1.2582098
-0.69889826	AUX AUX VERB	-2.476783
-0.5695155	PART AUX VERB	-1.9772011
-0.8942039	ADJ AUX VERB	-1.1640204
-0.4370342	INTJ AUX VERB	-0.3339742
-0.8700994	NUM AUX VERB	-1.0748382
-0.44058213	SCONJ AUX VERB	-0.60149837
-0.6915074	X AUX VERB	-0.2857388
-0.49955148	SYM AUX VERB	-0.29018852
-0.20230052	<s> PART VERB	-1.3290915
-0.6816613	ADP PART VERB	-1.4177059
-0.4685921	DET PART VERB	-0.76853776
-1.0278685	PROPN PART VERB	-1.9022915
-0.8150254	CCONJ PART VERB	-1.4206145
-0.9961897	NOUN PART VERB	-2.665786
-0.82051224	PUNCT PART VERB	-1.6802403
-0.6976847	PRON PART VERB	-1.7348145
-0.79382163	ADV PART VERB	-1.7852986
-0.9410867	VERB PART VERB	-2.7036262
-0.90677285	AUX PART VERB	-2.4869237
-0.47683597	PART PART VERB	-1.3256596
-0.6676864	ADJ PART VERB	-2.136769
-0.56037176	INTJ PART VERB	-0.28133428
-0.701068	NUM PART VERB	-0.9080111
-0.79733664	SCONJ PART VERB	-0.8236143
-0.7108819	X PART VERB	-0.29018852
-0.2294538	SYM PART VERB	-0.29018852
-1.6958675	<s> ADJ VERB	-0.81359565
-1.1156102	ADP ADJ VERB	-1.025761
-1.1484046	DET ADJ VERB	-1.2992783
-1.3018631	PROPN ADJ VERB	-0.34077007
-1.1992381	CCONJ ADJ VERB	-0.78400636
-1.274139	NOUN ADJ VERB	-0.56685483
-1.1935133	PUNCT ADJ VERB	-0.8783112
-1.1029775	PRON ADJ VERB	-0.6930187
-1.1540234	ADV ADJ VERB	-0.89485097
-1.2297106	VERB ADJ VERB	-0.8884245
-1.2339609	AUX ADJ VERB	-0.7467245
