\data\
ngram 1=21
ngram 2=323
ngram 3=4248
ngram 4=33386

\1-grams:
-2.3709	<unk>	0
0	<s>	-3.6740828
-1.3084887	</s>	0
-1.2569565	ADP	-1.0157943
-1.2569565	DET	-0.98193604
-1.2333156	PROPN	-1.054822
-1.2569565	CCONJ	-0.9648356
-1.2569565	NOUN	-1.0696955
-1.2569565	PUNCT	-1.0585947
-1.2569565	NUM	-0.9852767
-1.2569565	ADJ	-1.0250022
-1.2819587	SCONJ	-0.9194804
-1.2569565	VERB	-1.0613966
-1.2569565	PART	-0.90309
-1.2569565	ADV	-1.0250022
-1.2569565	AUX	-0.9415482
-1.2569565	PRON	-0.98025596
-1.2569565	INTJ	-0.8190563
-1.2569565	X	-0.7754621
-1.2569565	SYM	-0.69703555
-2.2362013	SPACE	-0.30103

\2-grams:
-1.374283	ADP </s>	0
-1.6478539	DET </s>	0
-1.2424778	PROPN </s>	0
-1.5619687	CCONJ </s>	0
-1.2499807	NOUN </s>	0
-1.2388799	PUNCT </s>	0
-1.2172415	NUM </s>	0
-1.2052875	ADJ </s>	0
-1.5726864	SCONJ </s>	0
-1.2416818	VERB </s>	0
-1.6507753	PART </s>	0
-1.2303591	ADV </s>	0
-1.5386813	AUX </s>	0
-1.3387446	PRON </s>	0
-1.5667416	INTJ </s>	0
-1.3725952	X </s>	0
-0.9890294	<s> ADP	-2.7326746
-1.2168574	ADP ADP	-0.81244874
-1.1829991	DET ADP	-0.7899797
-1.2383549	PROPN ADP	-0.90699047
-1.2202762	CCONJ ADP	-0.76005936
-1.2459269	NOUN ADP	-0.9875903
-1.2596579	PUNCT ADP	-0.9216159
-1.1615081	NUM ADP	-0.8791675
-1.2012336	ADJ ADP	-0.879352
-1.1319966	SCONJ ADP	-0.83386093
-1.237628	VERB ADP	-1.004232
-1.1885059	PART ADP	-0.6893245
-1.2260654	ADV ADP	-0.8751409
-1.2269641	AUX ADP	-0.71992064
-1.1813191	PRON ADP	-0.76388586
-1.2506722	INTJ ADP	-0.4682476
-1.2528635	X ADP	-0.43641007
-1.372967	SYM ADP	-0.33833736
-0.7318526	<s> DET	-3.0102332
-1.1920257	ADP DET	-0.9427402
-1.2093374	DET DET	-0.82514626
-1.2383549	PROPN DET	-0.817215
-1.1658987	CCONJ DET	-0.7994006
-1.2459269	NOUN DET	-0.9163959
-1.2596579	PUNCT DET	-0.8951532
-1.2407173	NUM DET	-0.6712878
-1.3773949	ADJ DET	-0.7106733
-1.1055697	SCONJ DET	-0.87555474
-1.237628	VERB DET	-0.93683136
-1.1304914	PART DET	-0.7091191
-1.2524036	ADV DET	-0.8807864
-1.1426114	AUX DET	-0.8001548
-1.2356966	PRON DET	-0.7459209
-1.171449	INTJ DET	-0.5185059
-1.3620882	X DET	-0.4686013
-1.372967	SYM DET	-0.38936833
-0.8125368	<s> PROPN	-2.8474367
-1.1900128	ADP PROPN	-0.9702855
-1.1561545	DET PROPN	-0.9185116
-1.212962	PROPN PROPN	-1.0123197
-1.1899731	CCONJ PROPN	-0.7499554
-1.243914	NOUN PROPN	-0.9015697
-1.2575269	PUNCT PROPN	-0.95400965
-1.2104143	NUM PROPN	-0.87601554
-1.1992208	ADJ PROPN	-0.92375004
-1.1578026	SCONJ PROPN	-0.8079236
-1.2356151	VERB PROPN	-0.97113556
-1.2179195	PART PROPN	-0.5573754
-1.2501397	ADV PROPN	-0.79871565
-1.2243776	AUX PROPN	-0.74541354
-1.2053934	PRON PROPN	-0.7556753
-1.1684327	INTJ PROPN	-0.44879425
-1.0582914	X PROPN	-0.50193065
-0.8235258	SYM PROPN	-0.6975198
-0.2763652	SPACE PROPN	-0.34670582
-1.4653137	<s> CCONJ	-2.230053
-1.2712349	ADP CCONJ	-0.6994283
-1.2673519	DET CCONJ	-0.5304255
-1.2383549	PROPN CCONJ	-0.9157334
-1.4934245	CCONJ CCONJ	-0.3694243
-1.2459269	NOUN CCONJ	-0.9410782
-1.2348261	PUNCT CCONJ	-0.9097642
-1.1863399	NUM CCONJ	-0.81787324
-1.2260654	ADJ CCONJ	-0.8662448
-1.3371174	SCONJ CCONJ	-0.49603346
-1.2624598	VERB CCONJ	-0.87154055
-1.3804914	PART CCONJ	-0.39825097
-1.2804428	ADV CCONJ	-0.7917949
-1.2939409	AUX CCONJ	-0.4447879
-1.2356966	PRON CCONJ	-0.6229933
-1.2506722	INTJ CCONJ	-0.34464413
-1.3040512	X CCONJ	-0.4021812
-1.6979703	SYM CCONJ	-0.34670582
-1.0056635	<s> NOUN	-2.654313
-1.1920257	ADP NOUN	-0.9925866
-1.1581674	DET NOUN	-0.9875903
-1.2383549	PROPN NOUN	-0.9841841
-1.1658987	CCONJ NOUN	-0.7998824
-1.2459269	NOUN NOUN	-1.050642
-1.2596579	PUNCT NOUN	-0.9772904
-1.1615081	NUM NOUN	-0.9875903
-1.2012336	ADJ NOUN	-1.0280567
-1.1319966	SCONJ NOUN	-0.77540445
-1.237628	VERB NOUN	-1.0091027
-1.1885059	PART NOUN	-0.6674556
-1.2012336	ADV NOUN	-0.8397373
-1.1689496	AUX NOUN	-0.7684016
-1.1564872	PRON NOUN	-0.8953207
-1.1044722	INTJ NOUN	-0.5268841
-1.0309027	X NOUN	-0.6084566
-0.8805685	SYM NOUN	-0.6521609
-1.453676	<s> PUNCT	-2.2162733
-1.2168574	ADP PUNCT	-0.83942175
-1.1829991	DET PUNCT	-0.87035066
-1.2383549	PROPN PUNCT	-1.0579169
-1.1922369	CCONJ PUNCT	-0.6508639
-1.2459269	NOUN PUNCT	-1.0636503
-1.2348261	PUNCT PUNCT	-0.9892835
-1.1863399	NUM PUNCT	-0.94483835
-1.2012336	ADJ PUNCT	-0.9875903
-1.1902267	SCONJ PUNCT	-0.7444868
-1.237628	VERB PUNCT	-1.0025963
-1.1585307	PART PUNCT	-0.73771286
-1.2012336	ADV PUNCT	-0.9909701
-1.1689496	AUX PUNCT	-0.7362664
-1.1564872	PRON PUNCT	-0.8671521
-0.9952876	INTJ PUNCT	-0.6941161
-1.0608779	X PUNCT	-0.6248243
-1.372967	SYM PUNCT	-0.34670585
-1.7735739	<s> NUM	-1.9375708
-1.2168574	ADP NUM	-0.9348807
-1.2093374	DET NUM	-0.7870923
-1.2631475	PROPN NUM	-0.8809229
-1.2202762	CCONJ NUM	-0.6506123
-1.2459269	NOUN NUM	-0.7805966
-1.2596579	PUNCT NUM	-0.8108778
-1.2126781	NUM NUM	-0.8289618
-1.2524036	ADJ NUM	-0.68705493
-1.1319966	SCONJ NUM	-0.6908449
-1.237628	VERB NUM	-0.8651544
-1.2207043	PART NUM	-0.5868733
-1.2524036	ADV NUM	-0.7813508
-1.3731642	AUX NUM	-0.5813699
-1.4118719	PRON NUM	-0.5043282
-1.4726892	INTJ NUM	-0.47152096
-1.4290949	X NUM	-0.3617069
-0.8253287	SYM NUM	-0.79109365
-1.3206598	<s> ADJ	-2.4125574
-1.1920257	ADP ADJ	-0.8946687
-1.1581674	DET ADJ	-0.89958334
-1.2631475	PROPN ADJ	-0.7585223
-1.1658987	CCONJ ADJ	-0.77626354
-1.2459269	NOUN ADJ	-0.858104
-1.2596579	PUNCT ADJ	-0.8671521
-1.1863399	NUM ADJ	-0.8106308
-1.2012336	ADJ ADJ	-0.8496866
-1.1601365	SCONJ ADJ	-0.7938633
-1.237628	VERB ADJ	-0.9337096
-1.1304914	PART ADJ	-0.7958452
-1.2012336	ADV ADJ	-0.95668787
-1.1969888	AUX ADJ	-0.76358247
-1.1564872	PRON ADJ	-0.7931382
-1.2506722	INTJ ADJ	-0.4312926
-1.0930765	X ADJ	-0.5359724
-0.979359	SYM ADJ	-0.5136834
-1.5957778	<s> SCONJ	-2.14633
-1.2454714	ADP SCONJ	-0.6719527
-1.4171996	DET SCONJ	-0.4624585
-1.2653252	PROPN SCONJ	-0.7211521
-1.222704	CCONJ SCONJ	-0.67744315
-1.2729001	NOUN SCONJ	-0.8804743
-1.2617993	PUNCT SCONJ	-0.9069738
-1.2732946	NUM SCONJ	-0.5562916
-1.2032558	ADJ SCONJ	-0.8372379
-1.2252682	SCONJ SCONJ	-0.6729838
-1.2396501	VERB SCONJ	-0.9069647
-1.296605	PART SCONJ	-0.6063012
-1.2828708	ADV SCONJ	-0.827796
-1.2969782	AUX SCONJ	-0.66352934
-1.335686	PRON SCONJ	-0.5261238
-1.3522104	INTJ SCONJ	-0.47156596
-1.7428427	X SCONJ	-0.3550801
-1.3612161	<s> VERB	-2.3087316
-1.2168574	ADP VERB	-0.92326415
-1.1829991	DET VERB	-0.9269041
-1.2383549	PROPN VERB	-0.9772904
-1.1658987	CCONJ VERB	-0.8886434
-1.2459269	NOUN VERB	-1.0265085
-1.2348261	PUNCT VERB	-0.96495664
-1.2126781	NUM VERB	-0.86743146
-1.2012336	ADJ VERB	-0.90157044
-1.1902267	SCONJ VERB	-0.79111063
-1.288798	VERB VERB	-0.896392
-1.0793213	PART VERB	-0.95226234
-1.2012336	ADV VERB	-0.95041823
-1.1177796	AUX VERB	-0.9559273
-1.1564872	PRON VERB	-0.9892835
-1.0744969	INTJ VERB	-0.61254174
-1.0930765	X VERB	-0.5704342
-1.018005	SYM VERB	-0.38417238
-2.2565548	<s> PART	-1.5937257
-1.2712349	ADP PART	-0.5804539
-1.2995504	DET PART	-0.54019064
-1.2383549	PROPN PART	-0.8604201
-1.2502514	CCONJ PART	-0.6610471
-1.2707586	NOUN PART	-0.8592159
-1.2596579	PUNCT PART	-0.789706
-1.2407173	NUM PART	-0.60060734
-1.2524036	ADJ PART	-0.7342221
-1.2574911	SCONJ PART	-0.6253888
-1.237628	VERB PART	-0.84898186
-1.1885059	PART PART	-0.72674406
-1.2524036	ADV PART	-0.72826797
-1.1689496	AUX PART	-0.7667429
-1.2356966	PRON PART	-0.6345396
-1.4726892	INTJ PART	-0.43421257
-1.4290949	X PART	-0.38936833
-1.8073821	SYM PART	-0.34670582
-1.0927819	<s> ADV	-2.6019647
-1.2712349	ADP ADV	-0.86527216
-1.2093374	DET ADV	-0.8006559
-1.2383549	PROPN ADV	-0.8816273
-1.1922369	CCONJ ADV	-0.8263075
-1.2459269	NOUN ADV	-0.9485662
-1.2348261	PUNCT ADV	-0.9833347
-1.2407173	NUM ADV	-0.7313474
-1.2804428	ADJ ADV	-0.85939384
-1.1601365	SCONJ ADV	-0.7759676
-1.237628	VERB ADV	-0.9410782
-1.1304914	PART ADV	-0.84341043
-1.2012336	ADV ADV	-0.92882574
-1.1426114	AUX ADV	-0.8164953
-1.2076573	PRON ADV	-0.7846994
-1.2092565	INTJ ADV	-0.43375468
-1.3040512	X ADV	-0.39681312
-1.2899157	SYM ADV	-0.34589878
-1.9594207	<s> AUX	-1.8692557
-1.30121	ADP AUX	-0.57201993
-1.2093374	DET AUX	-0.84615254
-1.2383549	PROPN AUX	-0.93820447
-1.2502514	CCONJ AUX	-0.69360507
-1.2459269	NOUN AUX	-0.9297614
-1.2348261	PUNCT AUX	-0.8969896
-1.2407173	NUM AUX	-0.754449
-1.2804428	ADJ AUX	-0.7962265
-1.2225579	SCONJ AUX	-0.4963155
-1.3168373	VERB AUX	-0.84406364
-1.1041532	PART AUX	-0.677068
-1.2260654	ADV AUX	-0.854065
-1.1426114	AUX AUX	-0.6924649
-1.1564872	PRON AUX	-0.9319569
-1.4056823	INTJ AUX	-0.4686013
-1.3040512	X AUX	-0.33366996
-1.61065	SYM AUX	-0.35339227
-0.8319898	<s> PRON	-2.8791382
-1.2168574	ADP PRON	-0.95745325
-1.1829991	DET PRON	-0.7330561
-1.2383549	PROPN PRON	-0.7946327
-1.1658987	CCONJ PRON	-0.7735688
-1.2459269	NOUN PRON	-0.8698778
-1.2596579	PUNCT PRON	-0.88827777
-1.2706926	NUM PRON	-0.576471
-1.2524036	ADJ PRON	-0.6998981
-1.1055697	SCONJ PRON	-0.8292414
-1.237628	VERB PRON	-0.9802026
-1.2207043	PART PRON	-0.570526
-1.2524036	ADV PRON	-0.81445104
-1.1689496	AUX PRON	-0.76182127
-1.1813191	PRON PRON	-0.7170453
-1.1044722	INTJ PRON	-0.5838358
-1.4290949	X PRON	-0.36797014
-1.61065	SYM PRON	-0.33326322
-2.1269062	<s> INTJ	-1.6034769
-1.4931957	ADP INTJ	-0.3654495
-1.568562	DET INTJ	-0.33833736
-1.3794814	PROPN INTJ	-0.45208603
-1.442237	CCONJ INTJ	-0.42872983
-1.2970968	NOUN INTJ	-0.6189153
-1.2596579	PUNCT INTJ	-0.68594265
-1.9403604	NUM INTJ	-0.34670582
-1.3773949	ADJ INTJ	-0.39734662
-1.8662757	SCONJ INTJ	-0.34670585
-1.3468125	VERB INTJ	-0.58254004
-1.6359882	PART INTJ	-0.36018327
-1.3773949	ADV INTJ	-0.4464336
-1.5281743	AUX INTJ	-0.33366996
-1.508845	PRON INTJ	-0.3699559
-1.2092565	INTJ INTJ	-0.49228323
-1.5083604	X INTJ	-0.32308817
-1.61065	SYM INTJ	-0.34670582
-2.5543983	<s> X	-1.3698106
-1.368187	ADP X	-0.4950569
-1.3721364	DET X	-0.51796365
-1.3794814	PROPN X	-0.58259267
-1.6184685	CCONJ X	-0.36884564
-1.2707586	NOUN X	-0.6823112
-1.2596579	PUNCT X	-0.676675
-1.9403604	NUM X	-0.33175686
-1.5535913	ADJ X	-0.43970144
-2.0469086	SCONJ X	-0.34670582
-1.3168373	VERB X	-0.4547241
-1.8581737	PART X	-0.35339227
-1.4152026	ADV X	-0.41957587
-1.5951811	AUX X	-0.34282595
-1.566882	PRON X	-0.33326322
-1.4726892	INTJ X	-0.34314796
-1.0028635	X X	-0.6237599
-1.4757473	SYM X	-0.35339227
-2.7975225	<s> SYM	-1.4257249
-1.2712349	ADP SYM	-0.6796227
-1.3343287	DET SYM	-0.6420441
-1.2631475	PROPN SYM	-0.7118301
-1.28245	CCONJ SYM	-0.6382302
-1.2970968	NOUN SYM	-0.7520805
-1.3440106	PUNCT SYM	-0.6475702
-1.2126781	NUM SYM	-0.68538284
-1.2804428	ADJ SYM	-0.77471805
-1.8662757	SCONJ SYM	-0.3406243
-1.237628	VERB SYM	-0.8199127
-1.7330245	PART SYM	-0.41713428
-1.3773949	ADV SYM	-0.56024754
-1.5951811	AUX SYM	-0.39730912
-1.508845	PRON SYM	-0.4525936
-1.7741399	INTJ SYM	-0.34670585
-1.7305458	X SYM	-0.35339227
-1.61065	SYM SYM	-0.3550801
-2.67485	PROPN SPACE	-0.34670582

\3-grams:
-3.911137	<s> ADP </s>	0
-1.857913	ADP ADP </s>	0
-1.9578377	PROPN ADP </s>	0
-1.7769452	CCONJ ADP </s>	0
-1.5246227	NOUN ADP </s>	0
-2.1096702	PUNCT ADP </s>	0
-2.0340924	NUM ADP </s>	0
-1.8710743	ADJ ADP </s>	0
-1.4879045	VERB ADP </s>	0
-1.7216773	ADV ADP </s>	0
-1.873252	AUX ADP </s>	0
-1.9245951	PRON ADP </s>	0
-1.7328917	ADP DET </s>	0
-2.109665	CCONJ DET </s>	0
-2.0269067	NOUN DET </s>	0
-2.2408407	PUNCT DET </s>	0
-1.7269828	VERB DET </s>	0
-2.1170268	AUX DET </s>	0
-2.4227169	<s> PROPN </s>	0
-1.1856291	ADP PROPN </s>	0
-1.3598542	DET PROPN </s>	0
-1.2014041	PROPN PROPN </s>	0
-1.7235272	CCONJ PROPN </s>	0
-1.2068167	NOUN PROPN </s>	0
-1.4244332	PUNCT PROPN </s>	0
-1.5574232	NUM PROPN </s>	0
-1.4104779	ADJ PROPN </s>	0
-1.5744265	SCONJ PROPN </s>	0
-1.2960823	VERB PROPN </s>	0
-1.5198288	PART PROPN </s>	0
-1.6974428	ADV PROPN </s>	0
-1.7012624	AUX PROPN </s>	0
-1.5293754	PRON PROPN </s>	0
-1.2574373	INTJ PROPN </s>	0
-1.252804	X PROPN </s>	0
-1.132137	SYM PROPN </s>	0
-2.7578487	<s> CCONJ </s>	0
-2.20276	PROPN CCONJ </s>	0
-1.7324414	NOUN CCONJ </s>	0
-1.8173572	PUNCT CCONJ </s>	0
-2.158231	ADJ CCONJ </s>	0
-2.1622453	VERB CCONJ </s>	0
-2.070492	ADV CCONJ </s>	0
-2.217522	<s> NOUN </s>	0
-1.2512842	ADP NOUN </s>	0
-1.3284099	DET NOUN </s>	0
-1.2282233	PROPN NOUN </s>	0
-1.5005119	CCONJ NOUN </s>	0
-1.2403847	NOUN NOUN </s>	0
-1.2833977	PUNCT NOUN </s>	0
-1.2936977	NUM NOUN </s>	0
-1.2177993	ADJ NOUN </s>	0
-1.8644743	SCONJ NOUN </s>	0
-1.2251456	VERB NOUN </s>	0
-1.2878377	PART NOUN </s>	0
-1.4734044	ADV NOUN </s>	0
-1.8626374	AUX NOUN </s>	0
-1.3151919	PRON NOUN </s>	0
-1.4521052	INTJ NOUN </s>	0
-1.1882501	X NOUN </s>	0
-1.0879374	SYM NOUN </s>	0
-1.7694919	<s> PUNCT </s>	0
-1.1122005	ADP PUNCT </s>	0
-1.104311	DET PUNCT </s>	0
-1.2219379	PROPN PUNCT </s>	0
-1.186274	CCONJ PUNCT </s>	0
-1.2276713	NOUN PUNCT </s>	0
-1.1780485	PUNCT PUNCT </s>	0
-1.1598427	NUM PUNCT </s>	0
-1.2025948	ADJ PUNCT </s>	0
-1.2278936	SCONJ PUNCT </s>	0
-1.1666173	VERB PUNCT </s>	0
-0.9882845	PART PUNCT </s>	0
-1.1797351	ADV PUNCT </s>	0
-1.1399734	AUX PUNCT </s>	0
-1.0821564	PRON PUNCT </s>	0
-0.92844874	INTJ PUNCT </s>	0
-0.9844136	X PUNCT </s>	0
-0.9295221	SYM PUNCT </s>	0
-0.8921673	<s> NUM </s>	0
-1.4744935	ADP NUM </s>	0
-1.8508261	DET NUM </s>	0
-1.172818	PROPN NUM </s>	0
-1.7106447	CCONJ NUM </s>	0
-1.2049054	NOUN NUM </s>	0
-1.5020137	PUNCT NUM </s>	0
-1.4630177	NUM NUM </s>	0
-1.6442907	ADJ NUM </s>	0
-1.757051	SCONJ NUM </s>	0
-1.5506736	VERB NUM </s>	0
-1.6258153	PART NUM </s>	0
-1.8477578	ADV NUM </s>	0
-1.5019109	PRON NUM </s>	0
-0.8170431	X NUM </s>	0
-1.2267312	SYM NUM </s>	0
-2.506542	<s> ADJ </s>	0
-1.517094	ADP ADJ </s>	0
-1.6887897	DET ADJ </s>	0
-1.5041077	PROPN ADJ </s>	0
-1.667798	CCONJ ADJ </s>	0
-1.3660793	NOUN ADJ </s>	0
-1.5735968	PUNCT ADJ </s>	0
-1.8317409	NUM ADJ </s>	0
-1.6340771	ADJ ADJ </s>	0
-1.8233646	SCONJ ADJ </s>	0
-1.4906175	VERB ADJ </s>	0
-1.6788299	PART ADJ </s>	0
-1.3334073	ADV ADJ </s>	0
-1.655117	AUX ADJ </s>	0
-1.6742636	PRON ADJ </s>	0
-1.32791	INTJ ADJ </s>	0
-1.4813956	X ADJ </s>	0
-1.2091392	SYM ADJ </s>	0
-3.430577	<s> SCONJ </s>	0
-1.9229121	ADP SCONJ </s>	0
-2.1690047	NOUN SCONJ </s>	0
-1.9192178	PUNCT SCONJ </s>	0
-2.1271443	ADJ SCONJ </s>	0
-1.4866772	VERB SCONJ </s>	0
-2.718882	<s> VERB </s>	0
-1.7094594	ADP VERB </s>	0
-1.8497101	DET VERB </s>	0
-1.4414585	PROPN VERB </s>	0
-1.3897945	CCONJ VERB </s>	0
-1.2995893	NOUN VERB </s>	0
-1.4291247	PUNCT VERB </s>	0
-1.832852	NUM VERB </s>	0
-1.8710619	ADJ VERB </s>	0
-1.8746431	SCONJ VERB </s>	0
-1.583559	VERB VERB </s>	0
-1.3708963	PART VERB </s>	0
-1.4654597	ADV VERB </s>	0
-1.3333515	AUX VERB </s>	0
-1.4079175	PRON VERB </s>	0
-1.4850923	INTJ VERB </s>	0
-1.5980345	X VERB </s>	0
-1.1931235	SYM VERB </s>	0
-1.4594297	PROPN PART </s>	0
-1.97928	CCONJ PART </s>	0
-1.4359827	NOUN PART </s>	0
-1.9776101	VERB PART </s>	0
-1.8990772	AUX PART </s>	0
-3.2120771	<s> ADV </s>	0
-1.7745901	ADP ADV </s>	0
-1.8762903	DET ADV </s>	0
-1.402894	PROPN ADV </s>	0
-1.7398463	CCONJ ADV </s>	0
-1.2869186	NOUN ADV </s>	0
-2.0744662	PUNCT ADV </s>	0
-1.8004713	NUM ADV </s>	0
-1.8224962	ADJ ADV </s>	0
-1.8460418	SCONJ ADV </s>	0
-1.4033357	VERB ADV </s>	0
-1.9134847	PART ADV </s>	0
-1.4856818	ADV ADV </s>	0
-1.6151497	AUX ADV </s>	0
-1.7600765	PRON ADV </s>	0
-1.4373034	INTJ ADV </s>	0
-0.91704214	SYM ADV </s>	0
-1.6840018	DET AUX </s>	0
-2.2224472	PROPN AUX </s>	0
-1.8244	NOUN AUX </s>	0
-2.1634014	PUNCT AUX </s>	0
-1.9960654	NUM AUX </s>	0
-2.1282716	ADV AUX </s>	0
-1.8186886	PRON AUX </s>	0
-3.8320065	<s> PRON </s>	0
-1.3716421	ADP PRON </s>	0
-1.7596264	PROPN PRON </s>	0
-1.9260643	CCONJ PRON </s>	0
-1.5286142	NOUN PRON </s>	0
-1.8507162	PUNCT PRON </s>	0
-1.4462957	NUM PRON </s>	0
-1.8475461	SCONJ PRON </s>	0
-1.4974573	VERB PRON </s>	0
-1.6875887	PART PRON </s>	0
-1.7660791	ADV PRON </s>	0
-1.7801261	AUX PRON </s>	0
-2.1653054	<s> INTJ </s>	0
-1.6119287	PROPN INTJ </s>	0
-1.6052823	NOUN INTJ </s>	0
-1.4232068	PUNCT INTJ </s>	0
-1.7889748	VERB INTJ </s>	0
-0.78483635	<s> X </s>	0
-0.8897215	ADP X </s>	0
-1.679711	PROPN X </s>	0
-1.1652919	NOUN X </s>	0
-1.1992319	PUNCT X </s>	0
-1.557969	VERB X </s>	0
-1.3858056	ADV X </s>	0
-1.6684761	<s> ADP ADP	-1.2997074
-1.4111056	ADP ADP ADP	-0.6274367
-1.2988069	DET ADP ADP	-0.34339458
-1.1458101	PROPN ADP ADP	-1.0607214
-1.091001	CCONJ ADP ADP	-0.6852662
-1.2004617	NOUN ADP ADP	-1.6674091
-1.1609855	PUNCT ADP ADP	-1.3081002
-1.2346295	NUM ADP ADP	-0.4571682
-1.244748	ADJ ADP ADP	-0.80294895
-1.2249817	SCONJ ADP ADP	-0.5455
-1.2171034	VERB ADP ADP	-2.1189628
-1.3474517	PART ADP ADP	-0.27544984
-1.1623504	ADV ADP ADP	-1.0071572
-1.3381637	AUX ADP ADP	-0.4135887
-1.1845392	PRON ADP ADP	-0.86427903
-1.4158044	INTJ ADP ADP	-0.29589948
-1.2390984	X ADP ADP	-0.29589948
-2.012378	<s> DET ADP	-1.2979832
-1.1368786	ADP DET ADP	-1.5819793
-1.2155181	DET DET ADP	-0.67099077
-1.4037732	PROPN DET ADP	-0.45303962
-1.121604	CCONJ DET ADP	-1.050647
-1.1553112	NOUN DET ADP	-0.834214
-1.1011372	PUNCT DET ADP	-1.3083802
-1.2392175	NUM DET ADP	-0.42975178
-1.2645566	ADJ DET ADP	-0.52666175
-1.153262	SCONJ DET ADP	-1.1034471
-1.1586438	VERB DET ADP	-1.5621333
-1.1873266	PART DET ADP	-0.6222576
-1.1612015	ADV DET ADP	-0.95752275
-1.1329497	AUX DET ADP	-1.1138119
-1.2905052	PRON DET ADP	-0.4846257
-1.4106516	INTJ DET ADP	-0.29589948
-1.2903249	X DET ADP	-0.29589948
-1.5931718	<s> PROPN ADP	-1.5365553
-1.1852401	ADP PROPN ADP	-2.2633688
-1.1366749	DET PROPN ADP	-2.1261873
-1.1762965	PROPN PROPN ADP	-2.4990494
-1.0776331	CCONJ PROPN ADP	-1.4934626
-1.1444483	NOUN PROPN ADP	-1.3753439
-1.1494242	PUNCT PROPN ADP	-1.7527074
-1.0444143	NUM PROPN ADP	-1.1168596
-1.1352487	ADJ PROPN ADP	-1.526812
-1.1631358	SCONJ PROPN ADP	-0.7670299
-1.1443098	VERB PROPN ADP	-1.7412891
-1.2162964	PART PROPN ADP	-1.369905
-1.1539278	ADV PROPN ADP	-0.7678911
-1.082366	AUX PROPN ADP	-0.6378873
-1.1203067	PRON PROPN ADP	-0.83955985
-1.106789	INTJ PROPN ADP	-0.45004144
-1.1489288	X PROPN ADP	-0.48522434
-1.1830153	SYM PROPN ADP	-0.65222806
-1.0089387	<s> CCONJ ADP	-1.4205247
-0.84581983	ADP CCONJ ADP	-1.0527778
-1.2316118	DET CCONJ ADP	-0.2913011
-1.1961577	PROPN CCONJ ADP	-1.1804111
-1.1367928	CCONJ CCONJ ADP	-0.28047273
-1.2781246	NOUN CCONJ ADP	-1.6012543
-1.1507814	PUNCT CCONJ ADP	-1.6908119
-1.2888442	NUM CCONJ ADP	-0.47603017
-1.1940713	ADJ CCONJ ADP	-0.81803167
-1.1589322	VERB CCONJ ADP	-0.8552151
-1.2618203	PART CCONJ ADP	-0.29589948
-1.056632	ADV CCONJ ADP	-0.84793633
-1.2860688	AUX CCONJ ADP	-0.27544984
-1.4919704	PRON CCONJ ADP	-0.6356766
-1.1035446	INTJ CCONJ ADP	-0.29589948
-0.5783053	<s> NOUN ADP	-2.1722064
-1.1927773	ADP NOUN ADP	-2.6902199
-1.1522001	DET NOUN ADP	-3.2385352
-1.1735723	PROPN NOUN ADP	-2.0820801
-1.0811774	CCONJ NOUN ADP	-2.2836003
-1.2152518	NOUN NOUN ADP	-2.6982837
-1.1666787	PUNCT NOUN ADP	-2.220242
-1.1769786	NUM NOUN ADP	-2.3186474
-1.1926664	ADJ NOUN ADP	-3.0839586
-1.0076082	SCONJ NOUN ADP	-1.5162326
-1.1737125	VERB NOUN ADP	-2.6597395
-0.98367953	PART NOUN ADP	-1.9523668
-1.0200245	ADV NOUN ADP	-1.502307
-1.0158489	AUX NOUN ADP	-1.8080972
-1.1389585	PRON NOUN ADP	-2.3343487
-1.1258131	INTJ NOUN ADP	-0.5738921
-1.0058419	X NOUN ADP	-0.53363883
-0.99940926	SYM NOUN ADP	-0.70309657
-1.2005221	<s> PUNCT ADP	-1.2352359
-1.1814226	ADP PUNCT ADP	-0.8775991
-1.1686822	DET PUNCT ADP	-0.8472047
-1.2484933	PROPN PUNCT ADP	-2.0643919
-0.99031377	CCONJ PUNCT ADP	-1.0355335
-1.2542267	NOUN PUNCT ADP	-2.3788679
-1.17986	PUNCT PUNCT ADP	-1.4808179
-1.1898227	NUM PUNCT ADP	-1.4127278
-1.2325746	ADJ PUNCT ADP	-1.4334173
-1.05288	SCONJ PUNCT ADP	-0.8852966
-1.2195252	VERB PUNCT ADP	-1.6560166
-1.1839142	PART PUNCT ADP	-0.39133
-1.207899	ADV PUNCT ADP	-1.6520627
-1.1890488	AUX PUNCT ADP	-0.92134947
-1.14213	PRON PUNCT ADP	-1.1700115
-1.0784864	INTJ PUNCT ADP	-0.7725351
-1.5599889	X PUNCT ADP	-0.459235
-0.74104214	<s> NUM ADP	-1.5727943
-1.1103482	ADP NUM ADP	-1.7084299
-1.1167877	DET NUM ADP	-0.9956804
-1.0699824	PROPN NUM ADP	-1.4539534
-0.9697906	CCONJ NUM ADP	-1.0919744
-1.006628	NOUN NUM ADP	-1.1166878
-1.0210897	PUNCT NUM ADP	-1.5414827
-0.99821055	NUM NUM ADP	-1.1505462
-1.1934738	ADJ NUM ADP	-0.7775661
-0.94876444	SCONJ NUM ADP	-1.0015668
-1.0978088	VERB NUM ADP	-1.5855333
-1.0083793	PART NUM ADP	-0.43256447
-1.0775194	ADV NUM ADP	-1.0309943
-0.88971853	AUX NUM ADP	-1.4666734
-1.247896	PRON NUM ADP	-0.75107145
-0.9920872	INTJ NUM ADP	-0.29589948
-1.0405842	X NUM ADP	-0.29589948
-1.0063376	SYM NUM ADP	-1.0363187
-1.0953873	<s> ADJ ADP	-1.4954972
-1.124758	ADP ADJ ADP	-1.4575961
-1.1849264	DET ADJ ADP	-1.5350538
-0.98293465	PROPN ADJ ADP	-0.85603976
-1.0290556	CCONJ ADJ ADP	-1.3407662
-1.0694019	NOUN ADJ ADP	-1.8359667
-1.0784501	PUNCT ADJ ADP	-1.6450008
-1.0995597	NUM ADJ ADP	-0.48798317
-1.1626616	ADJ ADJ ADP	-0.745274
-0.9751025	SCONJ ADJ ADP	-1.2183105
-1.1360502	VERB ADJ ADP	-2.0729127
-1.0689055	PART ADJ ADP	-1.3005197
-1.1572615	ADV ADJ ADP	-2.0048838
-0.98419106	AUX ADJ ADP	-1.7914968
-1.0630729	PRON ADJ ADP	-1.3104005
-1.0452127	INTJ ADJ ADP	-0.29589948
-1.3100799	X ADJ ADP	-0.27544984
-1.4614971	SYM ADJ ADP	-0.29589948
-1.3979915	<s> SCONJ ADP	-1.0478833
-1.1722612	ADP SCONJ ADP	-0.736361
-1.0951844	DET SCONJ ADP	-0.29260996
-0.9794824	PROPN SCONJ ADP	-0.8581723
-0.9822428	CCONJ SCONJ ADP	-0.7870376
-1.0762498	NOUN SCONJ ADP	-1.4738156
-1.065229	PUNCT SCONJ ADP	-1.2044195
-0.71844614	NUM SCONJ ADP	-1.0783852
-1.1793635	ADJ SCONJ ADP	-0.9290658
-1.1089492	SCONJ SCONJ ADP	-0.44473314
-1.0927826	VERB SCONJ ADP	-1.6822803
-0.71831745	PART SCONJ ADP	-0.6697043
-1.00421	ADV SCONJ ADP	-1.0918572
-1.0823973	AUX SCONJ ADP	-0.7060989
-1.2014554	PRON SCONJ ADP	-0.9441259
-0.7694061	X SCONJ ADP	-0.29589948
-0.3670336	<s> VERB ADP	-1.9782763
-1.1273376	ADP VERB ADP	-1.8630838
-1.1169102	DET VERB ADP	-1.8618723
-1.1659436	PROPN VERB ADP	-2.2050152
-1.0617548	CCONJ VERB ADP	-2.0622592
-1.190424	NOUN VERB ADP	-2.6877193
-1.15361	PUNCT VERB ADP	-2.2727654
-1.0155231	NUM VERB ADP	-1.0605607
-1.0576437	ADJ VERB ADP	-1.1080443
-1.02312	SCONJ VERB ADP	-1.1572211
-1.1004654	VERB VERB ADP	-1.6386911
-1.1161779	PART VERB ADP	-2.4403322
-1.1390715	ADV VERB ADP	-2.349891
-1.1708131	AUX VERB ADP	-2.8398066
-1.1779368	PRON VERB ADP	-2.3892088
-1.0276402	INTJ VERB ADP	-0.65399635
-0.94148123	X VERB ADP	-0.38748354
-1.1916224	SYM VERB ADP	-0.28351453
-1.6893808	<s> PART ADP	-0.4436895
-1.4591047	ADP PART ADP	-0.29589948
-1.2836957	DET PART ADP	-0.29589948
-1.2839917	PROPN PART ADP	-0.60297084
-1.0923767	CCONJ PART ADP	-0.8696792
-1.1755054	NOUN PART ADP	-0.7059165
-1.0458262	PUNCT PART ADP	-0.77166295
-1.6024064	NUM PART ADP	-0.29589948
-1.5858628	ADJ PART ADP	-0.45004144
-1.1173335	SCONJ PART ADP	-0.42268527
-1.1481384	VERB PART ADP	-0.9400735
-1.1708391	ADV PART ADP	-0.47310084
-1.1579635	AUX PART ADP	-1.0915607
-1.4392465	PRON PART ADP	-0.27544984
-1.1477505	<s> ADV ADP	-1.6034318
-1.0983196	ADP ADV ADP	-1.2161604
-1.1471399	DET ADV ADP	-0.6683613
-1.0675257	PROPN ADV ADP	-1.1384258
-1.2129972	CCONJ ADV ADP	-1.5117546
-1.1901871	NOUN ADV ADP	-1.8552177
-1.1459728	PUNCT ADV ADP	-1.742368
-1.1061221	NUM ADV ADP	-0.36622068
-1.0723417	ADJ ADV ADP	-0.9694863
-1.1533802	SCONJ ADV ADP	-0.70324534
-1.128686	VERB ADV ADP	-2.1271813
-1.1317053	PART ADV ADP	-1.1766185
-1.1271911	ADV ADV ADP	-1.9398332
-1.0726918	AUX ADV ADP	-1.3932213
-1.1270884	PRON ADV ADP	-1.102527
-1.1978072	INTJ ADV ADP	-0.28047273
-1.1389427	SYM ADV ADP	-0.29589948
-2.7800946	<s> AUX ADP	-0.29589948
-1.4031246	ADP AUX ADP	-0.28047273
-1.2387562	DET AUX ADP	-0.7464794
-1.1713432	PROPN AUX ADP	-1.3589973
-1.3819342	CCONJ AUX ADP	-0.42975178
-1.134614	NOUN AUX ADP	-1.6683571
-1.2429978	PUNCT AUX ADP	-0.9946587
-1.2163138	NUM AUX ADP	-0.49592084
-1.251768	ADJ AUX ADP	-0.35932526
-1.194451	VERB AUX ADP	-0.6370575
-1.214722	ADV AUX ADP	-0.56098795
-1.1555463	PRON AUX ADP	-1.3885877
-1.3089156	INTJ AUX ADP	-0.29589948
-0.86561835	SYM AUX ADP	-0.29589948
-2.3188136	<s> PRON ADP	-0.88335335
-1.176293	ADP PRON ADP	-1.5637949
-1.2259568	DET PRON ADP	-0.36951423
-1.11202	PROPN PRON ADP	-0.37674272
-1.2780013	CCONJ PRON ADP	-0.671488
-1.2306306	NOUN PRON ADP	-0.4975503
-1.1900043	PUNCT PRON ADP	-0.8085753
-1.3861994	NUM PRON ADP	-0.27544984
-1.2615987	ADJ PRON ADP	-0.27831295
-1.2799869	SCONJ PRON ADP	-0.65877676
-1.1481625	VERB PRON ADP	-2.099191
-1.2551877	PART PRON ADP	-0.30391338
-1.1787525	ADV PRON ADP	-0.5234727
-1.1615933	AUX PRON ADP	-0.6723098
-1.3891199	PRON PRON ADP	-0.32878304
-1.488807	INTJ PRON ADP	-0.29589948
-1.1304381	X PRON ADP	-0.29589948
-1.755258	<s> INTJ ADP	-0.2814744
-1.0611584	DET INTJ ADP	-0.29589948
-1.2968745	PROPN INTJ ADP	-0.26557517
-1.3760033	CCONJ INTJ ADP	-0.29589948
-1.6502942	NOUN INTJ ADP	-0.29589948
-1.2772611	PUNCT INTJ ADP	-0.46996975
-0.9339129	ADJ INTJ ADP	-0.28047273
-0.8042167	VERB INTJ ADP	-0.5222628
-0.97038805	AUX INTJ ADP	-0.27544984
-0.7884795	SYM INTJ ADP	-0.29589948
-2.3956919	<s> X ADP	-0.29589948
-1.3020765	ADP X ADP	-0.28351453
-1.6121416	PROPN X ADP	-0.29589948
-1.3041922	NOUN X ADP	-0.5038731
-1.2499743	PUNCT X ADP	-0.28966284
-0.24028747	SCONJ X ADP	-0.29589948
-1.2569543	VERB X ADP	-0.29589948
-1.147661	INTJ X ADP	-0.29589948
-1.1124921	X X ADP	-0.28367755
-1.1215533	ADP SYM ADP	-0.27831295
-1.5223281	PROPN SYM ADP	-0.43427807
-1.6728772	PUNCT SYM ADP	-0.26557517
-1.5674587	NUM SYM ADP	-0.29589948
-0.8902167	X SYM ADP	-0.29589948
-0.38735983	<s> ADP DET	-2.4532175
-1.0096736	ADP ADP DET	-2.1025934
-0.93356496	DET ADP DET	-1.8461993
-1.0346502	PROPN ADP DET	-2.419268
-1.0076878	CCONJ ADP DET	-1.8495282
-1.147467	NOUN ADP DET	-3.2771435
-1.0745208	PUNCT ADP DET	-2.3405921
-0.9505298	NUM ADP DET	-2.0723288
-1.1084478	ADJ ADP DET	-2.2770178
-0.9417415	SCONJ ADP DET	-1.838996
-1.1641088	VERB ADP DET	-2.997183
-0.79304963	PART ADP DET	-1.2330434
-1.0701966	ADV ADP DET	-2.2539637
-0.905693	AUX ADP DET	-1.6808604
-0.9037122	PRON ADP DET	-1.9464152
-0.774163	INTJ ADP DET	-0.47944462
-0.8727522	X ADP DET	-0.29206413
-0.8082385	SYM ADP DET	-0.30933934
-2.1504364	<s> DET DET	-1.0751187
-1.1673561	ADP DET DET	-1.735545
-1.3499013	DET DET DET	-0.5110334
-1.4102939	PROPN DET DET	-0.43869597
-1.2240391	CCONJ DET DET	-0.8368448
-1.0599167	NOUN DET DET	-1.3234581
-1.2381386	PUNCT DET DET	-1.0846634
-1.2454625	NUM DET DET	-0.26557517
-1.1844652	ADJ DET DET	-0.6282497
-1.1180323	SCONJ DET DET	-1.0496839
-1.1614473	VERB DET DET	-1.4829937
-1.0594923	PART DET DET	-0.76457804
-1.1260227	ADV DET DET	-0.88378584
-1.136573	AUX DET DET	-1.034348
-1.1679721	PRON DET DET	-0.6917789
-1.3015926	X DET DET	-0.29589948
-2.6442363	<s> PROPN DET	-0.72761637
-1.275054	ADP PROPN DET	-1.5143002
-1.3132732	DET PROPN DET	-1.0573831
-1.2850417	PROPN PROPN DET	-1.4408455
-1.5260059	CCONJ PROPN DET	-0.6809341
-1.3651806	NOUN PROPN DET	-0.68024427
-1.2652721	PUNCT PROPN DET	-0.92598706
-1.4073522	NUM PROPN DET	-0.41700286
-1.358241	ADJ PROPN DET	-0.7605787
-1.472108	SCONJ PROPN DET	-0.46229565
-1.2608184	VERB PROPN DET	-1.0331963
-1.5176604	PART PROPN DET	-0.37674272
-1.4628999	ADV PROPN DET	-0.29206413
-1.3113472	AUX PROPN DET	-0.43672693
-1.5279701	PRON PROPN DET	-0.3506019
-1.4808295	INTJ PROPN DET	-0.29589948
-1.3859609	X PROPN DET	-0.29589948
-1.6145742	SYM PROPN DET	-0.29589948
-0.719237	<s> CCONJ DET	-1.6734339
-1.1468619	ADP CCONJ DET	-1.1288457
-0.8018695	DET CCONJ DET	-0.65613145
-1.0391983	PROPN CCONJ DET	-1.916393
-1.1168414	CCONJ CCONJ DET	-0.30391338
-1.1486249	NOUN CCONJ DET	-2.2747653
-1.1173108	PUNCT CCONJ DET	-2.1219146
-0.94418913	NUM CCONJ DET	-0.84055686
-1.0533134	ADJ CCONJ DET	-1.2399552
-0.735654	SCONJ CCONJ DET	-0.4442429
-1.1177771	VERB CCONJ DET	-1.3084269
-1.1623559	PART CCONJ DET	-0.4475119
-1.1292633	ADV CCONJ DET	-0.9476325
-1.0275543	AUX CCONJ DET	-0.76332563
-0.9834101	PRON CCONJ DET	-0.92328763
-0.9969375	INTJ CCONJ DET	-0.27544984
-1.2633616	X CCONJ DET	-0.29589948
-2.166307	<s> NOUN DET	-0.8905988
-1.1927773	ADP NOUN DET	-1.7511714
-1.231228	DET NOUN DET	-2.267319
-1.2577193	PROPN NOUN DET	-1.2743119
-1.41931	CCONJ NOUN DET	-1.3295296
-1.2400303	NOUN NOUN DET	-1.8465589
-1.2209281	PUNCT NOUN DET	-1.1087418
-1.2032568	NUM NOUN DET	-1.3315207
-1.2437232	ADJ NOUN DET	-2.1512225
-1.4350388	SCONJ NOUN DET	-0.37674272
-1.1984909	VERB NOUN DET	-1.5185673
-1.2193142	PART NOUN DET	-0.9624616
-1.2962785	ADV NOUN DET	-0.5372922
-1.2898515	AUX NOUN DET	-0.6454892
-1.31459	PRON NOUN DET	-1.2078612
-1.4501812	INTJ NOUN DET	-0.26557517
-1.5051756	X NOUN DET	-0.29589948
-1.2654837	SYM NOUN DET	-0.47698206
-0.77450496	<s> PUNCT DET	-1.6299391
-1.084406	ADP PUNCT DET	-1.4188726
-1.2035773	DET PUNCT DET	-1.0354449
-1.2236489	PROPN PUNCT DET	-2.45063
-1.1310413	CCONJ PUNCT DET	-0.7951991
-1.2293823	NOUN PUNCT DET	-2.6303167
-1.2062124	PUNCT PUNCT DET	-1.9257532
-1.1898227	NUM PUNCT DET	-1.744151
-1.2325746	ADJ PUNCT DET	-1.4826831
-1.1330595	SCONJ PUNCT DET	-0.983258
-1.2475805	VERB PUNCT DET	-1.8086993
-1.2356474	PART PUNCT DET	-0.8095572
-1.207899	ADV PUNCT DET	-2.065932
-1.1429489	AUX PUNCT DET	-0.8248463
-1.2091529	PRON PUNCT DET	-1.2222018
-1.1249839	INTJ PUNCT DET	-1.0816555
-1.1266049	X PUNCT DET	-0.89020085
-2.4104464	<s> NUM DET	-0.42750618
-1.2434524	ADP NUM DET	-0.81283593
-1.5414721	DET NUM DET	-0.29589948
-1.3019224	PROPN NUM DET	-0.8250755
-1.5321672	CCONJ NUM DET	-0.4415632
-1.4674945	NOUN NUM DET	-0.28555432
-1.4290687	PUNCT NUM DET	-0.54825544
-1.469026	NUM NUM DET	-0.54897827
-1.5908751	ADJ NUM DET	-0.29589948
-1.2667668	SCONJ NUM DET	-0.48203146
-1.2994971	VERB NUM DET	-0.59831405
-1.5418025	ADV NUM DET	-0.36951423
-1.2809565	AUX NUM DET	-0.30104715
-1.5159152	PRON NUM DET	-0.29589948
-1.1309763	SYM NUM DET	-0.9581315
-3.2196598	<s> ADJ DET	-0.28047273
-1.3223473	ADP ADJ DET	-0.81803167
-1.32098	DET ADJ DET	-0.6625246
-1.3292775	CCONJ ADJ DET	-0.5351021
-1.3955876	NOUN ADJ DET	-0.43368712
-1.4655501	PUNCT ADJ DET	-0.53605783
-1.4988859	ADJ ADJ DET	-0.29333878
-1.2434632	VERB ADJ DET	-1.0246507
-1.4076619	PART ADJ DET	-0.605843
-1.236246	ADV ADJ DET	-1.1008357
-1.3889976	AUX ADJ DET	-0.7658113
-1.7474631	PRON ADJ DET	-0.41827753
-0.5011316	<s> SCONJ DET	-1.7712592
-0.8651081	ADP SCONJ DET	-1.1900737
-0.72340596	DET SCONJ DET	-0.45004144
-0.89621633	PROPN SCONJ DET	-1.2837428
-0.8905029	CCONJ SCONJ DET	-1.2709132
-1.0161859	NOUN SCONJ DET	-1.8996246
-1.008813	PUNCT SCONJ DET	-1.6804192
-0.9487892	NUM SCONJ DET	-0.7399485
-1.0030191	ADJ SCONJ DET	-1.6810585
-0.83182985	SCONJ SCONJ DET	-1.1593062
-1.0365924	VERB SCONJ DET	-2.2701998
-0.7157229	PART SCONJ DET	-0.6069702
-0.969169	ADV SCONJ DET	-1.4324348
-0.9673025	AUX SCONJ DET	-1.166163
-0.9482677	PRON SCONJ DET	-1.0398479
-1.1165144	INTJ SCONJ DET	-0.29589948
-0.7642174	X SCONJ DET	-0.29589948
-0.7869271	<s> VERB DET	-1.7358109
-1.0991585	ADP VERB DET	-2.1643827
-1.1169102	DET VERB DET	-1.9859062
-1.1412059	PROPN VERB DET	-2.3290982
-1.0880805	CCONJ VERB DET	-2.137587
-1.190424	NOUN VERB DET	-2.4323106
-1.15361	PUNCT VERB DET	-2.2747047
-1.0438737	NUM VERB DET	-1.0855875
-1.1162224	ADJ VERB DET	-1.160026
-1.02312	SCONJ VERB DET	-1.2933631
-1.0722864	VERB VERB DET	-1.6726805
-1.167148	PART VERB DET	-2.6957679
-1.165304	ADV VERB DET	-2.3618615
-1.1445806	AUX VERB DET	-2.5404978
-1.153199	PRON VERB DET	-2.4137604
-1.1583674	INTJ VERB DET	-0.99204826
-1.01517	X VERB DET	-0.51391286
-1.0426779	SYM VERB DET	-0.36538565
-1.1539245	<s> PART DET	-0.69099337
-1.3618634	ADP PART DET	-0.30391338
-1.2619708	DET PART DET	-0.26557517
-1.4420763	PROPN PART DET	-0.6873812
-0.9860324	CCONJ PART DET	-0.8536181
-1.3022887	NOUN PART DET	-0.58654207
-1.0386337	PUNCT PART DET	-0.81231076
-1.5637954	NUM PART DET	-0.29589948
-1.689436	ADJ PART DET	-0.29589948
-0.88524616	SCONJ PART DET	-0.6026131
-1.1029055	VERB PART DET	-1.1187358
-1.535102	PART PART DET	-0.29589948
-1.1012263	ADV PART DET	-0.92241234
-1.0625	AUX PART DET	-1.572499
-1.4143265	PRON PART DET	-0.2913011
-1.0045899	X PART DET	-0.29589948
-1.0842686	<s> ADV DET	-1.6810917
-1.1334195	ADP ADV DET	-1.4498839
-1.1505252	DET ADV DET	-0.92328763
-1.2065423	PROPN ADV DET	-1.1138821
-1.1367736	CCONJ ADV DET	-1.5143601
-1.1648327	NOUN ADV DET	-1.5356138
-1.1481867	PUNCT ADV DET	-1.7030118
-1.1627696	NUM ADV DET	-0.6006985
-1.2701471	ADJ ADV DET	-0.84625953
-1.0284457	SCONJ ADV DET	-0.99188316
-1.1853559	VERB ADV DET	-1.817104
-1.1346647	PART ADV DET	-1.1995696
-1.18777	ADV ADV DET	-1.2817875
-1.1805739	AUX ADV DET	-1.7138827
-1.092275	PRON ADV DET	-0.8178235
-1.4502445	INTJ ADV DET	-0.29589948
-0.84748286	<s> AUX DET	-1.1261064
-1.0501968	ADP AUX DET	-0.67459565
-1.0352675	DET AUX DET	-1.680133
-1.1049814	PROPN AUX DET	-1.8852372
-1.1025962	CCONJ AUX DET	-0.6405054
-1.1531945	NOUN AUX DET	-2.0029056
-1.0285232	PUNCT AUX DET	-1.5906436
-0.964724	NUM AUX DET	-1.0919744
-1.1258391	ADJ AUX DET	-0.99216664
-1.3383908	SCONJ AUX DET	-0.29589948
-1.0216407	VERB AUX DET	-1.2046039
-1.5750635	PART AUX DET	-0.29589948
-1.0899622	ADV AUX DET	-1.711801
-1.1594143	AUX AUX DET	-0.28528887
-1.0932053	PRON AUX DET	-2.159038
-1.2722834	INTJ AUX DET	-0.29589948
-1.1385999	X AUX DET	-0.29589948
-2.0699534	<s> PRON DET	-1.1020355
-1.1819013	ADP PRON DET	-1.275037
-1.5726476	DET PRON DET	-0.4028502
-1.7130328	PROPN PRON DET	-0.30594018
-1.1309237	CCONJ PRON DET	-0.8942119
-1.2913208	NOUN PRON DET	-0.7445843
-1.1295934	PUNCT PRON DET	-1.0369835
-1.1150093	ADJ PRON DET	-0.343504
-1.1490992	SCONJ PRON DET	-0.7529658
-1.1794626	VERB PRON DET	-1.6950563
-1.2717886	PART PRON DET	-0.53402215
-1.1866125	ADV PRON DET	-0.82491887
-1.1701288	AUX PRON DET	-1.0906761
-1.4052376	PRON PRON DET	-0.62613267
-1.5167359	INTJ PRON DET	-0.29589948
-1.3511999	<s> INTJ DET	-0.7604235
-1.2366474	ADP INTJ DET	-0.29589948
-1.0361184	DET INTJ DET	-0.29589948
-1.1849384	PROPN INTJ DET	-0.28047273
-1.1628404	CCONJ INTJ DET	-0.29589948
-1.6007745	NOUN INTJ DET	-0.29589948
-1.3368886	PUNCT INTJ DET	-0.27147296
-0.77519006	NUM INTJ DET	-0.29589948
-1.3246127	ADJ INTJ DET	-0.29589948
-1.4374245	VERB INTJ DET	-0.26557517
-1.1901631	ADV INTJ DET	-0.27544984
-1.006165	PRON INTJ DET	-0.27544984
-1.736795	<s> X DET	-0.30739367
-1.4256871	ADP X DET	-0.30391338
-1.5001445	PROPN X DET	-0.29589948
-1.4400581	NOUN X DET	-0.26557517
-1.3583455	PUNCT X DET	-0.4518835
-1.5522863	VERB X DET	-0.29589948
-1.4952191	X X DET	-0.27544984
-1.7159014	ADP SYM DET	-0.29589948
-1.5224808	DET SYM DET	-0.29589948
-1.4227914	PROPN SYM DET	-0.29589948
-1.607599	NOUN SYM DET	-0.29589948
-1.6728772	PUNCT SYM DET	-0.29589948
-0.73270816	<s> ADP PROPN	-2.0241528
-0.981563	ADP ADP PROPN	-1.4486303
-0.99148864	DET ADP PROPN	-1.1148072
-1.0344764	PROPN ADP PROPN	-2.604108
-1.0874149	CCONJ ADP PROPN	-1.1548715
-1.1472797	NOUN ADP PROPN	-3.0071497
-1.0743365	PUNCT ADP PROPN	-1.9122076
-1.0053699	NUM ADP PROPN	-1.489028
-1.1082282	ADJ ADP PROPN	-1.7870085
-1.0048224	SCONJ ADP PROPN	-1.0119593
-1.1639214	VERB ADP PROPN	-2.573077
-0.95929813	PART ADP PROPN	-0.7010696
-1.0977147	ADV ADP PROPN	-1.7903638
-1.0214373	AUX ADP PROPN	-1.1556187
-0.966312	PRON ADP PROPN	-1.2207218
-0.9838457	INTJ ADP PROPN	-0.49223495
-0.9875701	X ADP PROPN	-0.28555432
-1.0422676	SYM ADP PROPN	-0.29589948
-0.93462485	<s> DET PROPN	-2.0779362
-1.1340467	ADP DET PROPN	-2.776846
-0.9650437	DET DET PROPN	-1.0717458
-0.88018245	PROPN DET PROPN	-1.1476686
-0.97152454	CCONJ DET PROPN	-1.7591997
-1.0850967	NOUN DET PROPN	-1.434498
-1.0446543	PUNCT DET PROPN	-2.132695
-1.2325503	NUM DET PROPN	-0.43087894
-1.1741863	ADJ DET PROPN	-0.43720105
-1.0148948	SCONJ DET PROPN	-1.6932955
-1.0778873	VERB DET PROPN	-2.0969894
-0.95171934	PART DET PROPN	-0.7572871
-1.0529103	ADV DET PROPN	-1.3853058
-0.9832937	AUX DET PROPN	-1.2547493
-1.0616798	PRON DET PROPN	-0.868562
-1.2199548	INTJ DET PROPN	-0.29589948
-0.803465	X DET PROPN	-0.28215998
-1.0122653	SYM DET PROPN	-0.29589948
-0.37287652	<s> PROPN PROPN	-2.488275
-1.1320645	ADP PROPN PROPN	-2.7371805
-1.0800017	DET PROPN PROPN	-2.662366
-1.1740987	PROPN PROPN PROPN	-2.8689606
-0.9692935	CCONJ PROPN PROPN	-2.0166593
-1.0879616	NOUN PROPN PROPN	-2.2202356
-1.1470618	PUNCT PROPN PROPN	-2.708355
-1.042194	NUM PROPN PROPN	-1.4338875
-1.104815	ADJ PROPN PROPN	-1.9612124
-1.0447662	SCONJ PROPN PROPN	-1.5240993
-1.1420649	VERB PROPN PROPN	-2.0330527
-1.0012594	PART PROPN PROPN	-1.7270919
-0.9729589	ADV PROPN PROPN	-1.2950604
-0.99870473	AUX PROPN PROPN	-1.2138807
-0.9698705	PRON PROPN PROPN	-1.2281446
-0.90346265	INTJ PROPN PROPN	-0.4416019
-1.0605319	X PROPN PROPN	-0.71451664
-1.127409	SYM PROPN PROPN	-1.0285752
-0.23846398	SPACE PROPN PROPN	-0.29589948
-1.1742454	<s> CCONJ PROPN	-1.2717643
-1.1513634	ADP CCONJ PROPN	-0.7773725
-1.3583252	DET CCONJ PROPN	-0.27147296
-1.0165074	PROPN CCONJ PROPN	-2.308492
-1.0380876	CCONJ CCONJ PROPN	-0.28047273
-1.1788157	NOUN CCONJ PROPN	-1.4998161
-1.2086097	PUNCT CCONJ PROPN	-1.6410649
-1.2238926	NUM CCONJ PROPN	-0.7571652
-1.1177542	ADJ CCONJ PROPN	-0.9131299
-0.95390636	SCONJ CCONJ PROPN	-0.73530805
-1.1552846	VERB CCONJ PROPN	-0.6540858
-1.390706	PART CCONJ PROPN	-0.6859267
-1.288697	ADV CCONJ PROPN	-0.53318393
-1.2731491	AUX CCONJ PROPN	-0.29589948
-0.940645	PRON CCONJ PROPN	-0.5085487
-1.2751302	X CCONJ PROPN	-0.29589948
-1.7344416	<s> NOUN PROPN	-1.1268469
-1.1925957	ADP NOUN PROPN	-1.3788779
-1.2030686	DET NOUN PROPN	-1.631418
-1.1996624	PROPN NOUN PROPN	-1.7137227
-1.2414517	CCONJ NOUN PROPN	-1.3284432
-1.2150846	NOUN NOUN PROPN	-1.7287424
-1.282703	PUNCT NOUN PROPN	-1.5765063
-1.1768014	NUM NOUN PROPN	-1.0133991
-1.2172679	ADJ NOUN PROPN	-1.9254216
-1.3520161	SCONJ NOUN PROPN	-0.4873379
-1.224581	VERB NOUN PROPN	-1.1601043
-1.5913315	PART NOUN PROPN	-0.97009265
-1.2502161	ADV NOUN PROPN	-0.6255726
-1.1779221	AUX NOUN PROPN	-0.43256447
-1.2730492	PRON NOUN PROPN	-1.1564809
-1.2325912	INTJ NOUN PROPN	-0.28047273
-1.1869465	X NOUN PROPN	-0.35204333
-1.4440031	SYM NOUN PROPN	-0.5660211
-0.9484745	<s> PUNCT PROPN	-1.3702753
-1.0841995	ADP PUNCT PROPN	-1.4560065
-1.1684488	DET PUNCT PROPN	-1.4404538
-1.2234769	PROPN PUNCT PROPN	-2.7417982
-1.0785846	CCONJ PUNCT PROPN	-0.9448365
-1.2292103	NOUN PUNCT PROPN	-2.6206763
-1.1796778	PUNCT PUNCT PROPN	-1.7973694
-1.1615738	NUM PUNCT PROPN	-1.5873982
-1.1779847	ADJ PUNCT PROPN	-1.3319397
-1.1791639	SCONJ PUNCT PROPN	-0.7097115
-1.247374	VERB PUNCT PROPN	-1.6273457
-1.1835861	PART PUNCT PROPN	-0.88757205
-1.1813644	ADV PUNCT PROPN	-1.6205636
-1.101004	AUX PUNCT PROPN	-0.7864371
-1.2467083	PRON PUNCT PROPN	-0.989277
-1.2358407	INTJ PUNCT PROPN	-0.72055304
-1.0746315	X PUNCT PROPN	-0.78032607
-1.3071594	<s> NUM PROPN	-0.8828443
-1.1730182	ADP NUM PROPN	-1.3400118
-0.97569317	DET NUM PROPN	-1.2995298
-1.046872	PROPN NUM PROPN	-1.1707675
-1.2037631	CCONJ NUM PROPN	-0.54957616
-1.0441964	NOUN NUM PROPN	-0.53674495
-1.0561346	PUNCT NUM PROPN	-1.2433195
-0.972575	NUM NUM PROPN	-1.0032505
-1.0938822	ADJ NUM PROPN	-0.64188886
-1.2600285	SCONJ NUM PROPN	-0.5814933
-1.1700722	VERB NUM PROPN	-0.8286227
-1.2781081	PART NUM PROPN	-0.5544088
-1.0838723	ADV NUM PROPN	-0.7292386
-1.2720209	AUX NUM PROPN	-0.42740193
-1.0014665	PRON NUM PROPN	-0.44333184
-1.1735337	SYM NUM PROPN	-0.60429984
-1.0180755	<s> ADJ PROPN	-1.433696
-1.0707371	ADP ADJ PROPN	-1.7083638
-1.0692472	DET ADJ PROPN	-1.966721
-0.9827219	PROPN ADJ PROPN	-0.9658894
-1.2395301	CCONJ ADJ PROPN	-1.1109177
-1.1923366	NOUN ADJ PROPN	-1.0017738
-1.1059122	PUNCT ADJ PROPN	-1.5594363
-0.93331766	NUM ADJ PROPN	-0.81683904
-1.0384413	ADJ ADJ PROPN	-1.3746984
-0.97490984	SCONJ ADJ PROPN	-0.79754716
-1.1358479	VERB ADJ PROPN	-1.2085778
-1.1941814	PART ADJ PROPN	-1.0715343
-1.15706	ADV ADJ PROPN	-1.0827944
-1.2268491	AUX ADJ PROPN	-0.58351266
-1.142447	PRON ADJ PROPN	-0.9661115
-1.0446913	INTJ ADJ PROPN	-0.29589948
-1.4780502	X ADJ PROPN	-0.29589948
-0.9295703	SYM ADJ PROPN	-0.36951423
-1.0391829	<s> SCONJ PROPN	-1.2100962
-0.99808437	ADP SCONJ PROPN	-0.8012182
-1.1905648	DET SCONJ PROPN	-0.29589948
-1.0296977	PROPN SCONJ PROPN	-0.8264904
-1.1675888	CCONJ SCONJ PROPN	-0.7903526
-1.0214932	NOUN SCONJ PROPN	-1.3990896
-1.0678988	PUNCT SCONJ PROPN	-1.2067037
-1.1546133	NUM SCONJ PROPN	-0.34530607
-1.0087094	ADJ SCONJ PROPN	-1.0815607
-0.880403	SCONJ SCONJ PROPN	-0.70096016
-1.0956279	VERB SCONJ PROPN	-1.7511084
-1.4634488	PART SCONJ PROPN	-0.26557517
-1.006994	ADV SCONJ PROPN	-0.9110166
-1.0275985	AUX SCONJ PROPN	-0.73692846
-1.210299	PRON SCONJ PROPN	-0.5896481
-1.3214167	<s> VERB PROPN	-1.1223207
-1.1572726	ADP VERB PROPN	-1.3668346
-1.174822	DET VERB PROPN	-1.3852878
-1.1919847	PROPN VERB PROPN	-1.6482315
-1.2127544	CCONJ VERB PROPN	-1.0813432
-1.2149814	NOUN VERB PROPN	-1.7437999
-1.1287019	PUNCT VERB PROPN	-1.7587439
-1.1418538	NUM VERB PROPN	-0.55114293
-1.116031	ADJ VERB PROPN	-0.58824897
-1.0966696	SCONJ VERB PROPN	-0.5717896
-1.1977437	VERB VERB PROPN	-0.93880534
-1.1948633	PART VERB PROPN	-1.7574832
-1.1930192	ADV VERB PROPN	-1.4185108
-1.1985283	AUX VERB PROPN	-1.5625966
-1.2039778	PRON VERB PROPN	-1.5769507
-1.1579573	INTJ VERB PROPN	-0.4659999
-0.941207	X VERB PROPN	-0.28047273
-1.4148606	SYM VERB PROPN	-0.29589948
-2.6257246	<s> PART PROPN	-0.29589948
-1.0126475	PROPN PART PROPN	-1.9808568
-1.2254442	CCONJ PART PROPN	-0.4442429
-1.141279	NOUN PART PROPN	-1.2257489
-1.5091445	PUNCT PART PROPN	-0.58400536
-1.1467717	NUM PART PROPN	-0.28351453
-1.6229488	SCONJ PART PROPN	-0.29589948
-1.3514061	VERB PART PROPN	-0.45523793
-1.6447161	ADV PART PROPN	-0.30594018
-1.2734481	AUX PART PROPN	-0.45381412
-1.6638739	PRON PART PROPN	-0.29589948
-0.86742365	INTJ PART PROPN	-0.29589948
-1.0294658	X PART PROPN	-0.29589948
-1.5663998	<s> ADV PROPN	-1.224941
-1.1682888	ADP ADV PROPN	-0.82172596
-1.4618865	DET ADV PROPN	-0.42040333
-1.248385	PROPN ADV PROPN	-0.6334659
-1.2626286	CCONJ ADV PROPN	-0.88699996
-1.3271369	NOUN ADV PROPN	-1.0789611
-1.2650847	PUNCT ADV PROPN	-1.214216
-1.3766282	NUM ADV PROPN	-0.6197808
-1.4505955	ADJ ADV PROPN	-0.27147296
-1.3399984	SCONJ ADV PROPN	-0.5763546
-1.2819173	VERB ADV PROPN	-1.0509634
-1.0956616	PART ADV PROPN	-0.54786676
-1.3341603	ADV ADV PROPN	-0.72495145
-1.3191715	AUX ADV PROPN	-0.7034344
-1.4777212	PRON ADV PROPN	-0.29774654
-1.4489281	INTJ ADV PROPN	-0.29589948
-1.1016908	<s> AUX PROPN	-0.805653
-1.4758587	ADP AUX PROPN	-0.29589948
-1.5000969	DET AUX PROPN	-0.8132549
-1.1710802	PROPN AUX PROPN	-0.8196027
-1.3811843	CCONJ AUX PROPN	-0.4335184
-1.258656	NOUN AUX PROPN	-1.1464095
-1.127058	PUNCT AUX PROPN	-0.8220813
-1.37008	NUM AUX PROPN	-0.45484087
-1.3218555	ADJ AUX PROPN	-0.3747822
-1.2471462	VERB AUX PROPN	-0.47721332
-1.2606695	ADV AUX PROPN	-0.838669
-1.5139515	AUX AUX PROPN	-0.29589948
-1.2896034	PRON AUX PROPN	-1.0272161
-1.307852	INTJ AUX PROPN	-0.29589948
-2.299266	<s> PRON PROPN	-0.8322344
-1.1510113	ADP PRON PROPN	-1.4081317
-1.6319491	DET PRON PROPN	-0.28739038
-1.1152354	PROPN PRON PROPN	-0.54452777
-1.224438	CCONJ PRON PROPN	-0.74644315
-1.1874733	NOUN PRON PROPN	-0.4889046
-1.2307245	PUNCT PRON PROPN	-0.89360034
-1.3962688	NUM PRON PROPN	-0.29589948
-1.3738796	ADJ PRON PROPN	-0.28351453
-1.1869	SCONJ PRON PROPN	-0.51679355
-1.2044083	VERB PRON PROPN	-1.2467746
-1.401361	PART PRON PROPN	-0.28555432
-1.2281486	ADV PRON PROPN	-0.4738378
-1.2169439	AUX PRON PROPN	-0.6249571
-1.2903032	PRON PRON PROPN	-0.28645507
-1.5013816	INTJ PRON PROPN	-0.29589948
-1.2720069	<s> INTJ PROPN	-0.6614316
-1.050879	ADP INTJ PROPN	-0.30594018
-1.033787	PROPN INTJ PROPN	-0.29260996
-1.3331629	CCONJ INTJ PROPN	-0.29589948
-0.9762675	NOUN INTJ PROPN	-0.28351453
-1.1916804	PUNCT INTJ PROPN	-0.6022954
-1.1599811	ADJ INTJ PROPN	-0.29589948
-1.3629887	VERB INTJ PROPN	-0.27544984
-1.2666318	ADV INTJ PROPN	-0.26557517
-1.0941896	PRON INTJ PROPN	-0.26557517
-1.299323	INTJ INTJ PROPN	-0.29589948
-1.0298952	X INTJ PROPN	-0.29589948
-1.4548116	<s> X PROPN	-0.34465316
-1.092523	ADP X PROPN	-0.42750618
-0.77470994	DET X PROPN	-0.28351453
-0.6756871	PROPN X PROPN	-0.7694727
-1.0343714	CCONJ X PROPN	-0.29589948
-1.0034447	NOUN X PROPN	-0.41776723
-0.91467845	PUNCT X PROPN	-0.85939074
-1.030438	ADJ X PROPN	-0.27544984
-1.1776822	VERB X PROPN	-0.38309464
-0.82758087	PART X PROPN	-0.29589948
-1.071444	ADV X PROPN	-0.29589948
-1.047204	AUX X PROPN	-0.29589948
-0.9612532	PRON X PROPN	-0.29589948
-1.0721699	X X PROPN	-0.527789
-1.0373418	<s> SYM PROPN	-0.31801227
-0.5719737	ADP SYM PROPN	-1.1434817
-0.5039517	DET SYM PROPN	-0.71834683
-0.51046413	PROPN SYM PROPN	-1.251854
-0.83917546	CCONJ SYM PROPN	-0.5738921
-0.69601303	NOUN SYM PROPN	-0.7993382
-0.58841234	PUNCT SYM PROPN	-0.96660984
-0.82720506	NUM SYM PROPN	-0.60263854
-0.6703287	ADJ SYM PROPN	-0.49669856
-0.6372243	SCONJ SYM PROPN	-0.29589948
-0.6049582	VERB SYM PROPN	-0.76218736
-0.77614164	PART SYM PROPN	-0.29589948
-0.724268	ADV SYM PROPN	-0.27831295
-0.63970256	AUX SYM PROPN	-0.4028502
-0.80858076	PRON SYM PROPN	-0.27147296
-0.6005385	INTJ SYM PROPN	-0.30933934
-0.75319886	X SYM PROPN	-0.26557517
-0.10341407	PROPN SPACE PROPN	-0.29589948
-3.6506424	<s> ADP CCONJ	-0.29589948
-1.5056782	ADP ADP CCONJ	-0.37572938
-1.3788358	DET ADP CCONJ	-0.39780083
-1.2994016	PROPN ADP CCONJ	-0.4298854
-1.414173	CCONJ ADP CCONJ	-0.4436895
-1.2336805	NOUN ADP CCONJ	-1.2019231
-1.4132545	PUNCT ADP CCONJ	-0.55876815
-1.969036	NUM ADP CCONJ	-0.29589948
-1.3915737	ADJ ADP CCONJ	-0.39133
-1.7041717	SCONJ ADP CCONJ	-0.29589948
-1.2503221	VERB ADP CCONJ	-1.330692
-1.7447066	PART ADP CCONJ	-0.29589948
-1.508423	ADV ADP CCONJ	-0.30061588
-1.6733054	AUX ADP CCONJ	-0.28215998
-1.6549135	PRON ADP CCONJ	-0.62360317
-3.4614549	<s> DET CCONJ	-0.3506019
-1.2706198	ADP DET CCONJ	-0.6521374
-1.7710168	DET DET CCONJ	-0.29589948
-1.692404	CCONJ DET CCONJ	-0.27147296
-1.8787026	NOUN DET CCONJ	-0.28047273
-1.8261353	PUNCT DET CCONJ	-0.28555432
-1.5931162	NUM DET CCONJ	-0.29589948
-1.7698424	ADJ DET CCONJ	-0.29589948
-1.9688389	SCONJ DET CCONJ	-0.29589948
-1.3445852	VERB DET CCONJ	-0.58782184
-1.7726896	PART DET CCONJ	-0.29589948
-1.6351864	ADV DET CCONJ	-0.29589948
-1.7002257	AUX DET CCONJ	-0.29589948
-1.6371344	PRON DET CCONJ	-0.3364414
-1.7908809	<s> PROPN CCONJ	-1.3575456
-1.1852401	ADP PROPN CCONJ	-2.2398481
-1.1366749	DET PROPN CCONJ	-1.697456
-1.152889	PROPN PROPN CCONJ	-2.323715
-0.97180367	CCONJ PROPN CCONJ	-1.3253934
-1.1444483	NOUN PROPN CCONJ	-1.1618973
-1.1756195	PUNCT PROPN CCONJ	-1.8559452
-1.1028396	NUM PROPN CCONJ	-0.8124992
-1.1352487	ADJ PROPN CCONJ	-1.2048233
-1.1210282	SCONJ PROPN CCONJ	-0.9516466
-1.1986687	VERB PROPN CCONJ	-1.4628372
-1.1341251	PART PROPN CCONJ	-1.1258763
-1.0734367	ADV PROPN CCONJ	-0.91068155
-1.0400096	AUX PROPN CCONJ	-0.7325866
-1.0783317	PRON PROPN CCONJ	-0.8639935
-1.2559144	INTJ PROPN CCONJ	-0.30933934
-1.3859609	X PROPN CCONJ	-0.29797792
-1.1314926	SYM PROPN CCONJ	-0.727001
-3.3334317	<s> CCONJ CCONJ	-0.29589948
-2.1650248	PROPN CCONJ CCONJ	-0.28047273
-1.493538	NOUN CCONJ CCONJ	-0.33895415
-1.5994483	PUNCT CCONJ CCONJ	-0.34014425
-2.0418663	NUM CCONJ CCONJ	-0.29589948
-1.9585557	ADJ CCONJ CCONJ	-0.29589948
-1.9621831	VERB CCONJ CCONJ	-0.26557517
-1.8668778	ADV CCONJ CCONJ	-0.29589948
-1.5150179	<s> NOUN CCONJ	-1.4301194
-1.1664072	ADP NOUN CCONJ	-2.3511539
-1.231228	DET NOUN CCONJ	-2.4084687
-1.1487938	PROPN NOUN CCONJ	-1.5583078
-1.1957214	CCONJ NOUN CCONJ	-1.3608332
-1.2400303	NOUN NOUN CCONJ	-2.210924
-1.1666787	PUNCT NOUN CCONJ	-2.0640874
-1.2032568	NUM NOUN CCONJ	-1.5902643
-1.1926664	ADJ NOUN CCONJ	-2.471179
-1.0430104	SCONJ NOUN CCONJ	-1.0022078
-1.2247691	VERB NOUN CCONJ	-2.0826044
-1.0632946	PART NOUN CCONJ	-1.466504
-1.1713145	ADV NOUN CCONJ	-1.1168596
-1.0894884	AUX NOUN CCONJ	-0.8517045
-1.1688559	PRON NOUN CCONJ	-1.9380362
-1.5869035	INTJ NOUN CCONJ	-0.29589948
-1.1873806	X NOUN CCONJ	-0.4854306
-1.1976446	SYM NOUN CCONJ	-0.6086664
-1.7634206	<s> PUNCT CCONJ	-0.67409825
-1.3024379	ADP PUNCT CCONJ	-1.0555837
-1.2794839	DET PUNCT CCONJ	-0.7454678
-1.246319	PROPN PUNCT CCONJ	-2.044553
-1.333719	CCONJ PUNCT CCONJ	-0.29797792
-1.2273285	NOUN PUNCT CCONJ	-2.5257008
-1.2318041	PUNCT PUNCT CCONJ	-1.5022235
-1.1594574	NUM PUNCT CCONJ	-1.3270793
-1.1512687	ADJ PUNCT CCONJ	-1.7176429
-1.2856247	SCONJ PUNCT CCONJ	-0.29589948
-1.2172153	VERB PUNCT CCONJ	-1.7750702
-1.5330752	PART PUNCT CCONJ	-0.4470153
-1.205589	ADV PUNCT CCONJ	-1.5823809
-1.2361634	AUX PUNCT CCONJ	-0.61473596
-1.1096728	PRON PUNCT CCONJ	-1.2339015
-1.12121	INTJ PUNCT CCONJ	-0.5181677
-1.1801496	X PUNCT CCONJ	-0.440414
-0.9286239	SYM PUNCT CCONJ	-0.29589948
-2.4006705	<s> NUM CCONJ	-0.3008908
-1.1406654	ADP NUM CCONJ	-1.3052039
-1.4244955	DET NUM CCONJ	-0.46968544
-1.2477721	PROPN NUM CCONJ	-1.0130681
-1.3785022	CCONJ NUM CCONJ	-0.3642308
-1.1544514	NOUN NUM CCONJ	-0.54706764
-1.1977894	PUNCT NUM CCONJ	-0.6421795
-1.1946785	NUM NUM CCONJ	-0.542861
-1.1410272	ADJ NUM CCONJ	-0.3792143
-1.2544101	SCONJ NUM CCONJ	-0.38311443
-1.1325679	VERB NUM CCONJ	-0.7199392
-1.4075332	PART NUM CCONJ	-0.28047273
-1.2197428	ADV NUM CCONJ	-0.49542108
-1.0768273	AUX NUM CCONJ	-0.4485517
-1.2572148	PRON NUM CCONJ	-0.29589948
-0.8115368	X NUM CCONJ	-0.26557517
-1.2800316	SYM NUM CCONJ	-0.3845099
-1.7191346	<s> ADJ CCONJ	-1.0235064
-1.1571717	ADP ADJ CCONJ	-1.5988593
-1.1557798	DET ADJ CCONJ	-1.7561742
-1.2001401	PROPN ADJ CCONJ	-0.5102369
-1.1048272	CCONJ ADJ CCONJ	-1.109741
-1.1294789	NOUN ADJ CCONJ	-1.0393672
-1.1087729	PUNCT ADJ CCONJ	-1.5513461
-0.9716304	NUM ADJ CCONJ	-0.89417356
-1.0689918	ADJ ADJ CCONJ	-1.3572103
-1.1613102	SCONJ ADJ CCONJ	-0.53477097
-1.1122531	VERB ADJ CCONJ	-1.6501327
-1.1099914	PART ADJ CCONJ	-1.0323491
-1.159678	ADV ADJ CCONJ	-1.6427605
-0.98672205	AUX ADJ CCONJ	-1.3587
-1.1041749	PRON ADJ CCONJ	-1.1006616
-1.3379936	INTJ ADJ CCONJ	-0.29589948
-1.4751761	SYM ADJ CCONJ	-0.29589948
-2.6693025	<s> SCONJ CCONJ	-0.6773161
-1.1384137	ADP SCONJ CCONJ	-0.8624853
-1.6817174	PROPN SCONJ CCONJ	-0.29589948
-1.7920997	CCONJ SCONJ CCONJ	-0.29589948
-1.8195549	NOUN SCONJ CCONJ	-0.37048236
-1.9156083	PUNCT SCONJ CCONJ	-0.48203146
-1.7780389	ADJ SCONJ CCONJ	-0.29260996
-1.2935596	VERB SCONJ CCONJ	-0.5684151
-1.9570975	ADV SCONJ CCONJ	-0.29589948
-1.6464529	PRON SCONJ CCONJ	-0.29589948
-2.3983686	<s> VERB CCONJ	-0.7787298
-1.159874	ADP VERB CCONJ	-1.1321902
-1.2099625	DET VERB CCONJ	-0.87799025
-1.2225448	PROPN VERB CCONJ	-0.9121445
-1.2159578	CCONJ VERB CCONJ	-0.86089224
-1.2436905	NOUN VERB CCONJ	-1.3348577
-1.2724661	PUNCT VERB CCONJ	-1.3273345
-1.4549792	NUM VERB CCONJ	-0.28815708
-1.267464	ADJ VERB CCONJ	-0.6354847
-1.3721875	SCONJ VERB CCONJ	-0.52666175
-1.2007828	VERB VERB CCONJ	-0.85992384
-1.1975168	PART VERB CCONJ	-1.6653984
-1.1956726	ADV VERB CCONJ	-1.400137
-1.2311946	AUX VERB CCONJ	-1.7773083
-1.2345378	PRON VERB CCONJ	-1.3187876
-1.5659578	INTJ VERB CCONJ	-0.27544984
-1.4314117	SYM VERB CCONJ	-0.29589948
-1.2634232	PROPN PART CCONJ	-0.7584774
-1.4562914	CCONJ PART CCONJ	-0.30391338
-1.2887467	NOUN PART CCONJ	-0.5006339
-1.545945	NUM PART CCONJ	-0.27147296
-1.5743278	ADJ PART CCONJ	-0.27544984
-1.4515649	VERB PART CCONJ	-0.47944462
-1.7183574	ADV PART CCONJ	-0.29589948
-1.7981378	AUX PART CCONJ	-0.29774654
-1.7620158	PRON PART CCONJ	-0.29589948
-2.5931947	<s> ADV CCONJ	-0.86023563
-1.2523556	ADP ADV CCONJ	-0.6577343
-1.1112474	DET ADV CCONJ	-0.7345484
-1.2097628	PROPN ADV CCONJ	-0.6110988
-1.3789551	CCONJ ADV CCONJ	-0.7452729
-1.2580342	NOUN ADV CCONJ	-1.2577935
-1.2356564	PUNCT ADV CCONJ	-0.974038
-1.6298314	NUM ADV CCONJ	-0.30594018
-1.3269413	ADJ ADV CCONJ	-0.5385299
-1.5364901	SCONJ ADV CCONJ	-0.29260996
-1.188029	VERB ADV CCONJ	-1.437502
-1.4983695	PART ADV CCONJ	-0.5553056
-1.1602892	ADV ADV CCONJ	-0.8718158
-1.3244388	AUX ADV CCONJ	-0.7365362
-1.3346936	PRON ADV CCONJ	-0.71974516
-1.6560814	ADP AUX CCONJ	-0.29589948
-1.8339857	DET AUX CCONJ	-0.28047273
-1.3739895	PROPN AUX CCONJ	-0.3287397
-1.7776666	CCONJ AUX CCONJ	-0.29589948
-1.3937484	NOUN AUX CCONJ	-0.6094497
-1.8131518	PUNCT AUX CCONJ	-0.4028502
-1.6398939	NUM AUX CCONJ	-0.27147296
-1.4075825	SCONJ AUX CCONJ	-0.29589948
-1.9461069	VERB AUX CCONJ	-0.29589948
-1.8503697	ADV AUX CCONJ	-0.29589948
-1.770998	AUX AUX CCONJ	-0.29589948
-1.2984288	PRON AUX CCONJ	-0.67305493
-2.8353796	<s> PRON CCONJ	-0.59338796
-1.1819013	ADP PRON CCONJ	-1.3197222
-1.5726476	DET PRON CCONJ	-0.27147296
-1.3912345	PROPN PRON CCONJ	-0.30256745
-1.2296199	CCONJ PRON CCONJ	-0.5739529
-1.2384261	NOUN PRON CCONJ	-0.45309964
-1.2763484	PUNCT PRON CCONJ	-0.68944556
-1.5707706	NUM PRON CCONJ	-0.29589948
-1.603064	ADJ PRON CCONJ	-0.29589948
-1.237549	SCONJ PRON CCONJ	-0.75823784
-1.2074758	VERB PRON CCONJ	-1.3294137
-1.4138957	PART PRON CCONJ	-0.29589948
-1.232903	ADV PRON CCONJ	-0.5267156
-1.5313528	AUX PRON CCONJ	-0.27147296
-1.7629657	PRON PRON CCONJ	-0.29589948
-2.190755	<s> INTJ CCONJ	-0.30256745
-1.416965	NOUN INTJ CCONJ	-0.29589948
-1.5927784	PUNCT INTJ CCONJ	-0.29589948
-1.3679801	ADJ INTJ CCONJ	-0.29589948
-0.68073547	SCONJ INTJ CCONJ	-0.29589948
-1.2444456	VERB INTJ CCONJ	-0.28047273
-1.4614577	ADV INTJ CCONJ	-0.29589948
-1.1849494	AUX INTJ CCONJ	-0.29589948
-1.310249	PRON INTJ CCONJ	-0.29589948
-1.4972796	INTJ INTJ CCONJ	-0.29589948
-1.3197277	ADP X CCONJ	-0.38048893
-1.1178796	CCONJ X CCONJ	-0.29589948
-1.647531	NOUN X CCONJ	-0.29589948
-1.6660788	PUNCT X CCONJ	-0.29589948
-1.3975377	ADJ X CCONJ	-0.29589948
-1.3584849	VERB X CCONJ	-0.29589948
-0.8794595	PART X CCONJ	-0.29589948
-1.3229917	X X CCONJ	-0.29260996
-1.6484522	NUM SYM CCONJ	-0.29589948
-1.5462056	ADV SYM CCONJ	-0.29589948
-0.8652532	<s> ADP NOUN	-1.8824689
-0.9817544	ADP ADP NOUN	-1.4993596
-0.93356496	DET ADP NOUN	-1.0435618
-1.0346502	PROPN ADP NOUN	-1.6985183
-1.0458496	CCONJ ADP NOUN	-1.3319397
-1.147467	NOUN ADP NOUN	-3.0265782
-1.0745208	PUNCT ADP NOUN	-1.9820143
-0.97716606	NUM ADP NOUN	-1.2176058
-1.054733	ADJ ADP NOUN	-1.8812827
-0.9417415	SCONJ ADP NOUN	-1.330692
-1.1641088	VERB ADP NOUN	-2.6163218
-0.8683649	PART ADP NOUN	-0.90697044
-1.0701966	ADV ADP NOUN	-1.8340875
-0.97949135	AUX ADP NOUN	-1.3237149
-0.9037122	PRON ADP NOUN	-1.4312102
-0.774163	INTJ ADP NOUN	-0.3121076
-0.70653987	X ADP NOUN	-0.40886354
-0.6985023	SYM ADP NOUN	-0.54897827
-0.26792735	<s> DET NOUN	-2.708941
-1.0839902	ADP DET NOUN	-3.3355396
-0.9349957	DET DET NOUN	-1.8269601
-0.8803445	PROPN DET NOUN	-1.3976604
-0.8873079	CCONJ DET NOUN	-2.2904782
-0.97594035	NOUN DET NOUN	-1.9378664
-1.0448521	PUNCT DET NOUN	-2.6058686
-0.74010146	NUM DET NOUN	-1.015557
-0.8617443	ADJ DET NOUN	-1.212139
-0.98700637	SCONJ DET NOUN	-2.3395228
-1.0780814	VERB DET NOUN	-3.087229
-0.8351173	PART DET NOUN	-1.3522471
-0.99505305	ADV DET NOUN	-2.1943827
-0.98350745	AUX DET NOUN	-2.2121007
-0.91547805	PRON DET NOUN	-1.6600546
-0.45605576	INTJ DET NOUN	-0.53034514
-0.501669	X DET NOUN	-0.32182074
-0.46166098	SYM DET NOUN	-0.28047273
-1.3660518	<s> PROPN NOUN	-1.5459967
-1.213164	ADP PROPN NOUN	-2.0644689
-1.1085829	DET PROPN NOUN	-2.2552524
-1.2010379	PROPN PROPN NOUN	-2.1732
-1.0776331	CCONJ PROPN NOUN	-1.3339866
-1.0655465	NOUN PROPN NOUN	-1.3244545
-1.1756195	PUNCT PROPN NOUN	-1.7673473
-1.0444143	NUM PROPN NOUN	-1.2614318
-1.055782	ADJ PROPN NOUN	-1.6892773
-1.0826448	SCONJ PROPN NOUN	-1.018976
-1.1443098	VERB PROPN NOUN	-1.4915968
-1.0054774	PART PROPN NOUN	-1.2645154
-1.0734367	ADV PROPN NOUN	-0.70653576
-1.2418396	AUX PROPN NOUN	-0.43386889
-1.0783317	PRON PROPN NOUN	-1.2395989
-1.2559144	INTJ PROPN NOUN	-0.28047273
-0.9364957	X PROPN NOUN	-0.533718
-1.0058146	SYM PROPN NOUN	-1.0365509
-1.3226335	<s> CCONJ NOUN	-1.0666192
-0.98903054	ADP CCONJ NOUN	-0.8146211
-1.0301536	DET CCONJ NOUN	-0.4436895
-1.0144963	PROPN CCONJ NOUN	-2.2022955
-1.1168414	CCONJ CCONJ NOUN	-0.28555432
-1.0984614	NOUN CCONJ NOUN	-2.7365198
-1.1173108	PUNCT CCONJ NOUN	-1.9185997
-0.91597176	NUM CCONJ NOUN	-1.0416225
-1.0255083	ADJ CCONJ NOUN	-1.3778869
-1.028312	VERB CCONJ NOUN	-1.2857573
-1.018472	PART CCONJ NOUN	-0.6069702
-1.0879678	ADV CCONJ NOUN	-0.95454377
-1.2625148	AUX CCONJ NOUN	-0.30256745
-0.9373362	PRON CCONJ NOUN	-0.681078
-0.83516496	INTJ CCONJ NOUN	-0.26557517
-0.59540194	X CCONJ NOUN	-0.46229565
-0.51473886	SYM CCONJ NOUN	-0.29589948
-0.9843407	<s> NOUN NOUN	-1.7004344
-1.1664072	ADP NOUN NOUN	-2.3914053
-1.1522001	DET NOUN NOUN	-2.692609
-1.1487938	PROPN NOUN NOUN	-1.9018102
-1.0811774	CCONJ NOUN NOUN	-2.092428
-1.2152518	NOUN NOUN NOUN	-2.4564428
-1.1666787	PUNCT NOUN NOUN	-2.2932775
-1.1769786	NUM NOUN NOUN	-1.7483003
-1.1926664	ADJ NOUN NOUN	-2.653149
-1.0076082	SCONJ NOUN NOUN	-1.2500342
-1.1737125	VERB NOUN NOUN	-2.1544373
-1.0216652	PART NOUN NOUN	-1.6967524
-1.0200245	ADV NOUN NOUN	-1.1741091
-1.0511097	AUX NOUN NOUN	-0.9404412
-1.0599304	PRON NOUN NOUN	-1.7994134
-0.7614275	INTJ NOUN NOUN	-0.81397855
-0.9167275	X NOUN NOUN	-0.82476157
-0.9263376	SYM NOUN NOUN	-0.9024323
-0.9996388	<s> PUNCT NOUN	-1.2690806
-1.084406	ADP PUNCT NOUN	-1.6326087
-1.0782065	DET PUNCT NOUN	-1.6849878
-1.2236489	PROPN PUNCT NOUN	-2.0860295
-1.0788993	CCONJ PUNCT NOUN	-1.1618106
-1.2293823	NOUN PUNCT NOUN	-2.6084752
-1.2062124	PUNCT PUNCT NOUN	-1.5016614
-1.1617674	NUM PUNCT NOUN	-1.8256559
-1.1533225	ADJ PUNCT NOUN	-2.0312877
-1.05288	SCONJ PUNCT NOUN	-0.85060614
-1.1931727	VERB PUNCT NOUN	-1.6477177
-1.1376927	PART PUNCT NOUN	-0.93283206
-1.1815466	ADV PUNCT NOUN	-1.5160886
-1.1012762	AUX PUNCT NOUN	-0.7178655
-1.1743499	PRON PUNCT NOUN	-1.0632248
-1.4865252	INTJ PUNCT NOUN	-0.7048218
-1.0288136	X PUNCT NOUN	-0.62442833
-0.4204921	<s> NUM NOUN	-1.5517573
-1.1103482	ADP NUM NOUN	-2.203987
-0.9408576	DET NUM NOUN	-1.9054216
-1.0699824	PROPN NUM NOUN	-1.2590687
-0.8903911	CCONJ NUM NOUN	-1.4050063
-0.94933295	NOUN NUM NOUN	-1.2536614
-0.96754265	PUNCT NUM NOUN	-1.7343378
-0.9400529	NUM NUM NOUN	-1.5245882
-0.8660681	ADJ NUM NOUN	-1.5635382
-0.94876444	SCONJ NUM NOUN	-1.7147864
-0.9900967	VERB NUM NOUN	-1.9120458
-0.76814103	PART NUM NOUN	-1.191255
-0.9432634	ADV NUM NOUN	-1.8096417
-0.84280217	AUX NUM NOUN	-1.1633043
-0.666355	PRON NUM NOUN	-1.0660799
-0.27695405	INTJ NUM NOUN	-0.28351453
-0.80687404	X NUM NOUN	-0.29589948
-1.0063376	SYM NUM NOUN	-1.0587152
-0.23106124	<s> ADJ NOUN	-2.137448
-1.0709276	ADP ADJ NOUN	-2.8439016
-1.0694349	DET ADJ NOUN	-3.2065692
-0.86561334	PROPN ADJ NOUN	-1.5855458
-0.9669098	CCONJ ADJ NOUN	-2.4191902
-1.0188276	NOUN ADJ NOUN	-1.8257256
-1.052427	PUNCT ADJ NOUN	-2.3556771
-0.8136442	NUM ADJ NOUN	-1.8952385
-0.9877901	ADJ ADJ NOUN	-2.6111681
-0.87558347	SCONJ ADJ NOUN	-1.7826525
-1.0853648	VERB ADJ NOUN	-2.602766
-1.0016783	PART ADJ NOUN	-2.0189223
-1.1030332	ADV ADJ NOUN	-2.2689974
-1.0163746	AUX ADJ NOUN	-1.5194403
-0.88618857	PRON ADJ NOUN	-2.3407083
-0.5121489	INTJ ADJ NOUN	-0.36730742
-0.5589979	X ADJ NOUN	-0.644534
-0.59107286	SYM ADJ NOUN	-0.7655202
-1.1922907	<s> SCONJ NOUN	-1.0489395
-0.9941844	ADP SCONJ NOUN	-0.67731607
-1.3460021	DET SCONJ NOUN	-0.29589948
-0.93750817	PROPN SCONJ NOUN	-0.630377
-0.9822428	CCONJ SCONJ NOUN	-0.83837837
-1.0189427	NOUN SCONJ NOUN	-1.3586943
-1.0374612	PUNCT SCONJ NOUN	-1.197216
-1.3646945	NUM SCONJ NOUN	-0.29206413
-1.0355505	ADJ SCONJ NOUN	-1.1031771
-0.8774326	SCONJ SCONJ NOUN	-0.88167953
-1.122209	VERB SCONJ NOUN	-1.6281158
-1.450343	PART SCONJ NOUN	-0.26557517
-1.00421	ADV SCONJ NOUN	-0.9581682
-1.0233443	AUX SCONJ NOUN	-0.80939037
-1.0216244	PRON SCONJ NOUN	-0.62594706
-1.1254836	INTJ SCONJ NOUN	-0.29589948
-1.1195027	<s> VERB NOUN	-1.2636818
-1.0991585	ADP VERB NOUN	-2.0409744
-1.144998	DET VERB NOUN	-2.148537
-1.1412059	PROPN VERB NOUN	-1.7049525
-1.1460645	CCONJ VERB NOUN	-1.9146726
-1.190424	NOUN VERB NOUN	-2.145713
-1.15361	PUNCT VERB NOUN	-2.1828203
-1.0155231	NUM VERB NOUN	-0.9432122
-1.0310735	ADJ VERB NOUN	-1.4365984
-1.0584477	SCONJ VERB NOUN	-1.041852
-1.0722864	VERB VERB NOUN	-1.6020482
-1.1409156	PART VERB NOUN	-2.3420925
-1.1390715	ADV VERB NOUN	-2.0102727
-1.1708131	AUX VERB NOUN	-2.089983
-1.2041692	PRON VERB NOUN	-2.0032663
-0.8458366	INTJ VERB NOUN	-0.65161985
-0.8235073	X VERB NOUN	-0.44313484
-0.9319765	SYM VERB NOUN	-0.29333878
-2.6063297	<s> PART NOUN	-0.29589948
-0.9849262	ADP PART NOUN	-0.3570927
-1.2836957	DET PART NOUN	-0.27544984
-1.0100393	PROPN PART NOUN	-2.3225574
-1.3976891	CCONJ PART NOUN	-0.3506019
-0.9866558	NOUN PART NOUN	-2.2598095
-1.1871818	PUNCT PART NOUN	-0.8230558
-0.9824115	NUM PART NOUN	-0.52746487
-1.0331755	ADJ PART NOUN	-0.7046026
-1.1173335	SCONJ PART NOUN	-0.41653818
-1.1101819	VERB PART NOUN	-0.7683858
-1.2404997	ADV PART NOUN	-0.42555457
-1.2675707	AUX PART NOUN	-0.7789176
-0.9754515	PRON PART NOUN	-0.7789176
-1.631692	<s> ADV NOUN	-1.1205178
-1.2413876	ADP ADV NOUN	-0.90873116
-1.1899741	DET ADV NOUN	-0.635011
-1.241666	PROPN ADV NOUN	-0.7444479
-1.0640048	CCONJ ADV NOUN	-1.1822929
-1.1338413	NOUN ADV NOUN	-1.3558244
-1.2275875	PUNCT ADV NOUN	-1.3021433
-1.2138674	NUM ADV NOUN	-0.33204615
-1.1021427	ADJ ADV NOUN	-0.59952307
-1.1497742	SCONJ ADV NOUN	-0.54825544
-1.1263533	VERB ADV NOUN	-1.2665505
-1.1707436	PART ADV NOUN	-0.6962876
-1.1822916	ADV ADV NOUN	-0.79274285
-1.3670093	AUX ADV NOUN	-1.0548047
-1.5593323	PRON ADV NOUN	-0.47365272
-0.92534053	INTJ ADV NOUN	-0.28555432
-0.674964	X ADV NOUN	-0.4028502
-0.91048944	SYM ADV NOUN	-0.29589948
-1.4158192	<s> AUX NOUN	-0.6034246
-1.1392732	ADP AUX NOUN	-0.3596005
-1.1840725	DET AUX NOUN	-0.69726616
-1.1650928	PROPN AUX NOUN	-1.0473218
-1.2608583	CCONJ AUX NOUN	-0.40133372
-1.1856763	NOUN AUX NOUN	-1.6460485
-1.1935731	PUNCT AUX NOUN	-0.8122633
-1.0945115	NUM AUX NOUN	-0.40524444
-1.3919685	ADJ AUX NOUN	-0.3788497
-1.1398203	VERB AUX NOUN	-0.66736054
-1.4215333	PART AUX NOUN	-0.29589948
-1.1652522	ADV AUX NOUN	-0.8298693
-1.491179	AUX AUX NOUN	-0.27544984
-1.1494308	PRON AUX NOUN	-1.4924645
-1.0823177	INTJ AUX NOUN	-0.29589948
-1.1505052	X AUX NOUN	-0.29589948
-1.2059929	<s> PRON NOUN	-1.7495137
-1.1201296	ADP PRON NOUN	-2.57747
-0.8759248	DET PRON NOUN	-1.1234112
-1.0196078	PROPN PRON NOUN	-0.5725627
-1.1195748	CCONJ PRON NOUN	-1.8017006
-1.0341659	NOUN PRON NOUN	-1.0336626
-1.0378115	PUNCT PRON NOUN	-1.687901
-0.81058645	NUM PRON NOUN	-0.32878304
-0.9889181	ADJ PRON NOUN	-0.6427647
-1.0052067	SCONJ PRON NOUN	-1.587382
-1.1715451	VERB PRON NOUN	-2.4830198
-0.88194954	PART PRON NOUN	-0.5955204
-1.0307268	ADV PRON NOUN	-1.282741
-1.0712577	AUX PRON NOUN	-1.2327678
-0.88454545	PRON PRON NOUN	-0.91945386
-1.2156289	INTJ PRON NOUN	-0.29589948
-0.8015156	X PRON NOUN	-0.29589948
-0.64888614	SYM PRON NOUN	-0.44308156
-1.4313447	<s> INTJ NOUN	-0.5374095
-0.7762619	ADP INTJ NOUN	-0.38309464
-0.790224	DET INTJ NOUN	-0.29589948
-0.9088822	PROPN INTJ NOUN	-0.4028502
-0.7626525	NOUN INTJ NOUN	-0.80832076
-1.1213299	PUNCT INTJ NOUN	-0.6022954
-0.90157425	ADJ INTJ NOUN	-0.38309464
-0.8877274	VERB INTJ NOUN	-0.50168145
-1.1639247	ADV INTJ NOUN	-0.35204333
-1.1206567	AUX INTJ NOUN	-0.29589948
-1.2325706	PRON INTJ NOUN	-0.29589948
-0.8578576	INTJ INTJ NOUN	-0.3919632
-0.68174696	X INTJ NOUN	-0.30594018
-0.76229525	SYM INTJ NOUN	-0.29589948
-1.6302544	<s> X NOUN	-0.27296007
-0.8382345	ADP X NOUN	-0.33445472
-0.6025474	DET X NOUN	-0.28215998
-0.9773235	PROPN X NOUN	-0.3790692
-0.81203866	NOUN X NOUN	-0.7571245
-0.94652545	PUNCT X NOUN	-0.90027475
-0.5682701	NUM X NOUN	-0.26557517
-0.75621957	ADJ X NOUN	-0.33895415
-0.939558	VERB X NOUN	-0.50168145
-0.6168147	ADV X NOUN	-0.29260996
-0.83742493	AUX X NOUN	-0.29589948
-0.9508817	PRON X NOUN	-0.29589948
-0.768765	INTJ X NOUN	-0.27544984
-0.70175993	X X NOUN	-0.6560959
-0.8202765	SYM X NOUN	-0.29589948
-0.08058138	<s> SYM NOUN	-1.3234934
-0.7244648	ADP SYM NOUN	-0.6981058
-0.79316926	DET SYM NOUN	-0.50168145
-0.7218712	PROPN SYM NOUN	-0.50452805
-0.85211337	CCONJ SYM NOUN	-0.47721332
-0.6134109	NOUN SYM NOUN	-1.0695382
-0.675167	PUNCT SYM NOUN	-0.7732742
-0.8384747	NUM SYM NOUN	-0.32878304
-0.58414197	ADJ SYM NOUN	-0.5984401
-0.6534101	SCONJ SYM NOUN	-0.29589948
-0.6098782	VERB SYM NOUN	-0.71750724
-0.7361368	ADV SYM NOUN	-0.29589948
-1.0486679	AUX SYM NOUN	-0.29589948
-1.080424	PRON SYM NOUN	-0.29589948
-0.54486203	X SYM NOUN	-0.29589948
-2.4488995	<s> ADP PUNCT	-0.5708779
-1.1470741	ADP ADP PUNCT	-0.7796919
-1.1417372	DET ADP PUNCT	-0.82734233
-1.2127041	PROPN ADP PUNCT	-0.9918276
-1.091001	CCONJ ADP PUNCT	-0.6549203
-1.1743472	NOUN ADP PUNCT	-1.7388066
-1.1310477	PUNCT ADP PUNCT	-1.3983332
-1.2874063	NUM ADP PUNCT	-0.32594562
-1.1408441	ADJ ADP PUNCT	-1.033032
-1.081841	SCONJ ADP PUNCT	-0.31992555
-1.1909888	VERB ADP PUNCT	-1.9207293
-1.3474517	PART ADP PUNCT	-0.33221257
-1.1623504	ADV ADP PUNCT	-0.7156464
-1.184954	AUX ADP PUNCT	-0.56333566
-1.244285	PRON ADP PUNCT	-1.0401437
-1.4044567	X ADP PUNCT	-0.29589948
-1.050852	SYM ADP PUNCT	-0.29589948
-2.0723855	<s> DET PUNCT	-1.0265713
-1.1368786	ADP DET PUNCT	-1.8119687
-1.1630843	DET DET PUNCT	-0.69765526
-1.3205751	PROPN DET PUNCT	-0.47603017
-1.1678456	CCONJ DET PUNCT	-0.8173812
-1.1934693	NOUN DET PUNCT	-0.7465229
-1.1011372	PUNCT DET PUNCT	-1.1872101
-1.0843937	NUM DET PUNCT	-0.61073506
-1.1084071	ADJ DET PUNCT	-0.3590109
-1.0800434	SCONJ DET PUNCT	-0.84102535
-1.1586438	VERB DET PUNCT	-1.5877774
-1.1873266	PART DET PUNCT	-0.43473163
-1.0254495	ADV DET PUNCT	-0.7653537
-1.0913185	AUX DET PUNCT	-0.9525562
-1.1635631	PRON DET PUNCT	-0.78128546
-1.4106516	INTJ DET PUNCT	-0.29589948
-1.0199583	SYM DET PUNCT	-0.29589948
-0.7346882	<s> PROPN PUNCT	-2.1103363
-1.1590036	ADP PROPN PUNCT	-2.8045237
-1.1366749	DET PROPN PUNCT	-2.1070173
-1.1762965	PROPN PROPN PUNCT	-2.9334114
-1.0042967	CCONJ PROPN PUNCT	-1.9007875
-1.0902878	NOUN PROPN PUNCT	-1.738613
-1.1494242	PUNCT PROPN PUNCT	-2.5047264
-1.0444143	NUM PROPN PUNCT	-1.3182942
-1.0806894	ADJ PROPN PUNCT	-1.770498
-1.0826448	SCONJ PROPN PUNCT	-1.0602093
-1.1443098	VERB PROPN PUNCT	-1.8494687
-0.9530957	PART PROPN PUNCT	-1.2621409
-1.0055568	ADV PROPN PUNCT	-0.91215783
-0.96598065	AUX PROPN PUNCT	-0.8934372
-0.9723511	PRON PROPN PUNCT	-1.0625385
-0.83451056	INTJ PROPN PUNCT	-0.3973241
-0.7944664	X PROPN PUNCT	-0.7362256
-0.970882	SYM PROPN PUNCT	-1.1630003
-1.3695686	<s> CCONJ PUNCT	-0.9671523
-1.4060982	ADP CCONJ PUNCT	-0.2870172
-1.4290847	DET CCONJ PUNCT	-0.28047273
-1.3690267	PROPN CCONJ PUNCT	-0.51959527
-1.2979981	CCONJ CCONJ PUNCT	-0.29589948
-1.240214	NOUN CCONJ PUNCT	-0.9329938
-1.1772516	PUNCT CCONJ PUNCT	-1.36058
-1.8548745	NUM CCONJ PUNCT	-0.29589948
-1.2316469	ADJ CCONJ PUNCT	-0.51829225
-1.3964368	SCONJ CCONJ PUNCT	-0.29589948
-1.3312654	VERB CCONJ PUNCT	-0.42848486
-1.249264	PART CCONJ PUNCT	-0.29589948
-1.3567585	ADV CCONJ PUNCT	-0.28815708
-1.3438479	AUX CCONJ PUNCT	-0.29589948
-1.4792591	PRON CCONJ PUNCT	-0.27147296
-0.5173146	SYM CCONJ PUNCT	-0.29589948
-0.59308565	<s> NOUN PUNCT	-2.0588179
-1.1415471	ADP NOUN PUNCT	-2.7641277
-1.1522001	DET NOUN PUNCT	-3.0110831
-1.1735723	PROPN NOUN PUNCT	-2.3149328
-0.96420133	CCONJ NOUN PUNCT	-2.5254076
-1.2152518	NOUN NOUN PUNCT	-2.8243296
-1.1666787	PUNCT NOUN PUNCT	-2.415228
-1.1769786	NUM NOUN PUNCT	-2.2191133
-1.1926664	ADJ NOUN PUNCT	-3.104279
-1.0076082	SCONJ NOUN PUNCT	-1.0541507
-1.1737125	VERB NOUN PUNCT	-2.4041219
-0.9487506	PART NOUN PUNCT	-2.0696154
-1.1043569	ADV NOUN PUNCT	-1.3013308
-1.0158489	AUX NOUN PUNCT	-1.1512247
-1.0847089	PRON NOUN PUNCT	-2.434459
-1.0398024	INTJ NOUN PUNCT	-0.39728522
-0.84282225	X NOUN PUNCT	-0.6955682
-0.9263376	SYM NOUN PUNCT	-1.1142485
-1.5476453	<s> PUNCT PUNCT	-0.8504702
-1.2159023	ADP PUNCT PUNCT	-0.9566393
-1.133798	DET PUNCT PUNCT	-0.82784134
-1.2215953	PROPN PUNCT PUNCT	-2.174531
-1.333719	CCONJ PUNCT PUNCT	-0.28739038
-1.2273285	NOUN PUNCT PUNCT	-2.4469981
-1.1776857	PUNCT PUNCT PUNCT	-1.7943568
-1.187359	NUM PUNCT PUNCT	-1.4033711
-1.2022094	ADJ PUNCT PUNCT	-1.5716323
-1.2271789	SCONJ PUNCT PUNCT	-0.48490438
-1.2172153	VERB PUNCT PUNCT	-1.8451982
-1.1800052	PART PUNCT PUNCT	-0.7203168
-1.205589	ADV PUNCT PUNCT	-1.4968895
-1.3608937	AUX PUNCT PUNCT	-0.60577005
-1.1096728	PRON PUNCT PUNCT	-1.3843565
-0.9604074	INTJ PUNCT PUNCT	-0.6448716
-0.9838761	X PUNCT PUNCT	-0.62182486
-0.9286239	SYM PUNCT PUNCT	-0.29589948
-0.9909693	<s> NUM PUNCT	-1.034245
-1.0867052	ADP NUM PUNCT	-1.9303012
-0.97334534	DET NUM PUNCT	-1.6706533
-1.0446432	PROPN NUM PUNCT	-2.232765
-1.0195676	CCONJ NUM PUNCT	-0.9268811
-0.97966	NOUN NUM PUNCT	-1.563738
-0.99603254	PUNCT NUM PUNCT	-1.819652
-0.9422072	NUM NUM PUNCT	-1.1006694
-0.8685882	ADJ NUM PUNCT	-1.1320658
-0.9897214	SCONJ NUM PUNCT	-1.0579271
-1.0709392	VERB NUM PUNCT	-1.0541105
-0.8993447	PART NUM PUNCT	-0.7858677
-0.94568586	ADV NUM PUNCT	-0.7245978
-1.0065985	AUX NUM PUNCT	-0.51366544
-0.9083701	PRON NUM PUNCT	-0.931422
-0.8115368	X NUM PUNCT	-0.29589948
-0.9466027	SYM NUM PUNCT	-1.3584372
-1.3535374	<s> ADJ PUNCT	-1.0694137
-1.0970093	ADP ADJ PUNCT	-1.7451566
-1.0955576	DET ADJ PUNCT	-1.9220401
-0.9505022	PROPN ADJ PUNCT	-0.84866005
-1.0290556	CCONJ ADJ PUNCT	-1.5703834
-1.043379	NOUN ADJ PUNCT	-1.4475653
-1.052427	PUNCT ADJ PUNCT	-1.8133792
-0.8694445	NUM ADJ PUNCT	-0.8611128
-1.0386373	ADJ ADJ PUNCT	-1.3917679
-1.0569085	SCONJ ADJ PUNCT	-0.746639
-1.1099684	VERB ADJ PUNCT	-2.0026686
-1.0339924	PART ADJ PUNCT	-1.350435
-1.1293015	ADV ADJ PUNCT	-2.0126808
-1.0511354	AUX ADJ PUNCT	-1.7477807
-1.0630729	PRON ADJ PUNCT	-1.3518839
-1.0452127	INTJ ADJ PUNCT	-0.28047273
-0.71001434	X ADJ PUNCT	-0.33204615
-0.9299011	SYM ADJ PUNCT	-0.31814283
-1.9670978	<s> SCONJ PUNCT	-0.43462163
-1.5747343	ADP SCONJ PUNCT	-0.40791404
-1.218066	PROPN SCONJ PUNCT	-0.42208695
-1.174357	CCONJ SCONJ PUNCT	-0.3506019
-1.1496962	NOUN SCONJ PUNCT	-0.8268291
-1.2479686	PUNCT SCONJ PUNCT	-0.6786141
-1.1633153	NUM SCONJ PUNCT	-0.30256745
-1.2853992	ADJ SCONJ PUNCT	-0.46883076
-1.4590347	SCONJ SCONJ PUNCT	-0.28351453
-1.0989953	VERB SCONJ PUNCT	-1.2899197
-1.2888652	PART SCONJ PUNCT	-0.26557517
-1.3543451	ADV SCONJ PUNCT	-0.28091764
-1.1632899	AUX SCONJ PUNCT	-0.29260996
-1.2209265	PRON SCONJ PUNCT	-0.28934133
-1.3464541	<s> VERB PUNCT	-1.0305065
-1.1273376	ADP VERB PUNCT	-1.3385504
-1.144998	DET VERB PUNCT	-1.3330173
-1.1412059	PROPN VERB PUNCT	-1.9426098
-1.1460645	CCONJ VERB PUNCT	-1.5157624
-1.190424	NOUN VERB PUNCT	-2.059436
-1.15361	PUNCT VERB PUNCT	-1.8189899
-1.0438737	NUM VERB PUNCT	-0.69241315
-1.0576437	ADJ VERB PUNCT	-0.89370084
-1.0969056	SCONJ VERB PUNCT	-0.6188192
-1.1004654	VERB VERB PUNCT	-1.14831
-1.1950674	PART VERB PUNCT	-2.0258064
-1.1932232	ADV VERB PUNCT	-1.8526769
-1.1708131	AUX VERB PUNCT	-2.279979
-1.2041692	PRON VERB PUNCT	-2.0630486
-1.0881034	INTJ VERB PUNCT	-0.3219711
-1.01517	X VERB PUNCT	-0.4786587
-1.1916224	SYM VERB PUNCT	-0.28047273
-2.1505044	<s> PART PUNCT	-0.28351453
-1.133723	ADP PART PUNCT	-0.29260996
-1.0240357	DET PART PUNCT	-0.4786587
-1.033206	PROPN PART PUNCT	-1.1059654
-1.0869821	CCONJ PART PUNCT	-0.8964632
-1.1339638	NOUN PART PUNCT	-0.95258296
-1.1821895	PUNCT PART PUNCT	-0.6795603
-0.9775951	NUM PART PUNCT	-0.3919632
-1.0906922	ADJ PART PUNCT	-0.51340365
-1.0238189	SCONJ PART PUNCT	-0.3466443
-1.1065285	VERB PART PUNCT	-1.021094
-1.0784009	PART PART PUNCT	-0.2913011
-1.0072551	ADV PART PUNCT	-0.76745427
-1.2037833	AUX PART PUNCT	-0.8564025
-1.1017601	PRON PART PUNCT	-0.5006339
-0.44141752	<s> ADV PUNCT	-2.1297486
-1.0658457	ADP ADV PUNCT	-1.4195819
-0.9965344	DET ADV PUNCT	-1.4887402
-1.0371269	PROPN ADV PUNCT	-1.237624
-1.0341783	CCONJ ADV PUNCT	-1.4552045
-1.1598642	NOUN ADV PUNCT	-2.0723512
-1.1437701	PUNCT ADV PUNCT	-1.8291266
-0.87764835	NUM ADV PUNCT	-0.6712935
-1.0398289	ADJ ADV PUNCT	-1.1753503
-1.0230478	SCONJ ADV PUNCT	-0.86409307
-1.1263533	VERB ADV PUNCT	-1.9979686
-1.0904907	PART ADV PUNCT	-0.8090282
-1.0986773	ADV ADV PUNCT	-1.9508524
-1.0699613	AUX ADV PUNCT	-1.0453075
-1.0861521	PRON ADV PUNCT	-1.4044325
-1.0374885	INTJ ADV PUNCT	-0.28460556
-0.9742712	X ADV PUNCT	-0.28351453
-0.8057172	SYM ADV PUNCT	-0.28047273
-2.2320855	<s> AUX PUNCT	-0.2881176
-1.1392732	ADP AUX PUNCT	-0.36951423
-1.142736	DET AUX PUNCT	-0.6581227
-1.1650928	PROPN AUX PUNCT	-0.8274119
-1.3643386	CCONJ AUX PUNCT	-0.29206413
-1.128755	NOUN AUX PUNCT	-1.2825657
-1.1558313	PUNCT AUX PUNCT	-0.6044964
-1.3557644	NUM AUX PUNCT	-0.34530607
-1.3919685	ADJ AUX PUNCT	-0.28047273
-1.3513753	SCONJ AUX PUNCT	-0.29589948
-1.1862814	VERB AUX PUNCT	-0.37021664
-1.1732754	PART AUX PUNCT	-0.60359746
-1.251767	ADV AUX PUNCT	-0.5267036
-1.1648409	AUX AUX PUNCT	-0.83613217
-1.1789042	PRON AUX PUNCT	-1.1619936
-1.1505052	X AUX PUNCT	-0.29589948
-2.2065732	<s> PRON PUNCT	-0.7542784
-1.1735157	ADP PRON PUNCT	-1.9895741
-1.1513892	DET PRON PUNCT	-0.2898833
-0.88278246	PROPN PRON PUNCT	-0.67297703
-1.1648598	CCONJ PRON PUNCT	-0.7321156
-1.0341659	NOUN PRON PUNCT	-0.98179156
-1.0637745	PUNCT PRON PUNCT	-0.8769834
-1.146671	NUM PRON PUNCT	-0.29589948
-0.8992369	ADJ PRON PUNCT	-0.74441004
-1.1796112	SCONJ PRON PUNCT	-0.6945921
-1.1456914	VERB PRON PUNCT	-1.9910601
-0.93438345	PART PRON PUNCT	-0.78367335
-1.0968477	ADV PRON PUNCT	-0.6113259
-1.112191	AUX PRON PUNCT	-0.8230346
-1.2783923	PRON PRON PUNCT	-0.4498042
-0.9339685	INTJ PRON PUNCT	-0.5244162
-1.1208041	X PRON PUNCT	-0.29589948
-0.99517417	SYM PRON PUNCT	-0.29589948
-0.30755094	<s> INTJ PUNCT	-1.2735204
-0.98601323	ADP INTJ PUNCT	-0.28047273
-0.6633146	DET INTJ PUNCT	-0.29589948
-0.672927	PROPN INTJ PUNCT	-0.34304768
-0.600996	CCONJ INTJ PUNCT	-0.5633611
-0.83604	NOUN INTJ PUNCT	-0.46198758
-0.7902833	PUNCT INTJ PUNCT	-1.293726
-0.7376003	NUM INTJ PUNCT	-0.26557517
-0.8714777	ADJ INTJ PUNCT	-0.29260996
-0.64053524	SCONJ INTJ PUNCT	-0.26557517
-0.73194385	VERB INTJ PUNCT	-0.63933593
-0.5671079	PART INTJ PUNCT	-0.29589948
-0.6815637	ADV INTJ PUNCT	-0.3232664
-0.80509824	AUX INTJ PUNCT	-0.27544984
-0.8001747	PRON INTJ PUNCT	-0.27831295
-0.835782	INTJ INTJ PUNCT	-0.62577647
-0.9619999	X INTJ PUNCT	-0.29589948
-0.7376003	SYM INTJ PUNCT	-0.29589948
-0.18041112	<s> X PUNCT	-0.9700674
-0.7852105	ADP X PUNCT	-0.64083534
-0.8933501	DET X PUNCT	-0.27147296
-0.80325025	PROPN X PUNCT	-0.47337532
-0.53635716	CCONJ X PUNCT	-0.40657574
-0.8156905	NOUN X PUNCT	-0.6613736
-0.7936733	PUNCT X PUNCT	-1.1625078
-0.87600887	ADJ X PUNCT	-0.28047273
-0.59810483	VERB X PUNCT	-0.3697235
-1.2360132	ADV X PUNCT	-0.29589948
-1.0483471	AUX X PUNCT	-0.29589948
-0.6337256	PRON X PUNCT	-0.29589948
-1.0692055	INTJ X PUNCT	-0.29589948
-0.8510762	X X PUNCT	-0.5698508
-2.3512676	<s> SYM PUNCT	-0.29589948
-1.5191343	ADP SYM PUNCT	-0.29589948
-1.4729526	CCONJ SYM PUNCT	-0.29589948
-1.8005143	NOUN SYM PUNCT	-0.29589948
-1.6728772	PUNCT SYM PUNCT	-0.29589948
-1.2950754	<s> ADP NUM	-1.500879
-1.042136	ADP ADP NUM	-1.2645751
-1.1880556	DET ADP NUM	-0.66040915
-1.087858	PROPN ADP NUM	-1.5827986
-1.1899896	CCONJ ADP NUM	-0.8322097
-1.1743472	NOUN ADP NUM	-2.1822238
-1.1030413	PUNCT ADP NUM	-1.380544
-0.9791141	NUM ADP NUM	-1.189987
-1.1110845	ADJ ADP NUM	-1.1190617
-1.0429845	SCONJ ADP NUM	-0.95741665
-1.2171034	VERB ADP NUM	-1.9764161
-1.2384349	PART ADP NUM	-0.2697797
-1.1303409	ADV ADP NUM	-1.2370687
-1.1247725	AUX ADP NUM	-0.6806374
-1.1845392	PRON ADP NUM	-0.8378136
-0.9893902	INTJ ADP NUM	-0.27544984
-1.1534361	X ADP NUM	-0.28047273
-1.8290975	<s> DET NUM	-1.3485357
-1.1673561	ADP DET NUM	-1.9348418
-1.1195952	DET DET NUM	-0.7706219
-1.2553561	PROPN DET NUM	-0.38048893
-1.1717801	CCONJ DET NUM	-0.8568757
-1.1582277	NOUN DET NUM	-0.77715427
-1.1038401	PUNCT DET NUM	-1.378936
-1.5659705	NUM DET NUM	-0.29589948
-1.2706015	ADJ DET NUM	-0.5658089
-1.082737	SCONJ DET NUM	-1.0680593
-1.1614473	VERB DET NUM	-1.5004952
-1.1923991	PART DET NUM	-0.29774654
-1.1260227	ADV DET NUM	-0.8747916
-1.136573	AUX DET NUM	-0.8475837
-1.4796196	PRON DET NUM	-0.40175444
-1.237889	INTJ DET NUM	-0.29589948
-2.1782742	<s> PROPN NUM	-0.94784325
-1.1875296	ADP PROPN NUM	-2.0995364
-1.3630569	DET PROPN NUM	-1.2767901
-1.2576401	PROPN PROPN NUM	-1.5658791
-1.4328907	CCONJ PROPN NUM	-0.69427884
-1.2439908	NOUN PROPN NUM	-0.9813148
-1.2059762	PUNCT PROPN NUM	-1.813702
-1.2536658	NUM PROPN NUM	-1.0735425
-1.2736752	ADJ PROPN NUM	-0.7643961
-1.085273	SCONJ PROPN NUM	-0.8709887
-1.2635391	VERB PROPN NUM	-0.90831536
-1.325822	PART PROPN NUM	-0.49592084
-1.3864087	ADV PROPN NUM	-0.3441723
-1.2462275	AUX PROPN NUM	-0.69550145
-1.3519094	PRON PROPN NUM	-0.74104923
-1.5954453	X PROPN NUM	-0.26557517
-1.1872935	SYM PROPN NUM	-0.5629636
-2.1529403	<s> CCONJ NUM	-0.5817714
-1.6225927	ADP CCONJ NUM	-0.30256745
-1.3712312	DET CCONJ NUM	-0.30594018
-1.1961577	PROPN CCONJ NUM	-1.0184283
-1.243701	NOUN CCONJ NUM	-1.4127432
-1.3702852	PUNCT CCONJ NUM	-1.1163993
-0.94888026	NUM CCONJ NUM	-1.2754223
-1.2357115	ADJ CCONJ NUM	-0.5806496
-1.4105302	SCONJ CCONJ NUM	-0.29589948
-1.2386323	VERB CCONJ NUM	-0.6427647
-1.1831076	PART CCONJ NUM	-0.28047273
-1.675558	ADV CCONJ NUM	-0.28351453
-1.2860688	AUX CCONJ NUM	-0.28047273
-1.3581216	PRON CCONJ NUM	-0.4854306
-1.2894702	X CCONJ NUM	-0.29589948
-1.9381411	<s> NOUN NUM	-0.947496
-1.2508689	ADP NOUN NUM	-0.99710834
-1.3279082	DET NOUN NUM	-1.0816089
-1.3245019	PROPN NOUN NUM	-1.1553637
-1.0811774	CCONJ NOUN NUM	-2.0137498
-1.2942798	NOUN NOUN NUM	-0.97302014
-1.3176082	PUNCT NOUN NUM	-0.9134019
-1.3279082	NUM NOUN NUM	-0.6217798
-1.3683745	ADJ NOUN NUM	-0.8182355
-1.4350388	SCONJ NOUN NUM	-0.27147296
-1.2826378	VERB NOUN NUM	-0.81325585
-1.4651592	PART NOUN NUM	-0.37941527
-1.5516318	ADV NOUN NUM	-0.42268527
-1.3586758	AUX NOUN NUM	-0.343504
-1.7104677	PRON NOUN NUM	-0.7031754
-1.5869035	INTJ NOUN NUM	-0.29589948
-1.6954589	X NOUN NUM	-0.29589948
-1.2654837	SYM NOUN NUM	-0.87997144
-1.9030701	<s> PUNCT NUM	-0.77607363
-1.3577803	ADP PUNCT NUM	-0.78637034
-1.3805337	DET PUNCT NUM	-0.7931405
-1.2484933	PROPN PUNCT NUM	-1.6672798
-1.6384981	CCONJ PUNCT NUM	-0.29206413
-1.2542267	NOUN PUNCT NUM	-1.6825291
-1.2642615	PUNCT PUNCT NUM	-1.0375301
-1.1617674	NUM PUNCT NUM	-1.9310781
-1.2625682	ADJ PUNCT NUM	-0.8917581
-1.6701584	SCONJ PUNCT NUM	-0.41827753
-1.2775742	VERB PUNCT NUM	-0.95999455
-1.670421	PART PUNCT NUM	-0.34913045
-1.2659479	ADV PUNCT NUM	-0.99222326
-1.4470706	AUX PUNCT NUM	-0.28528887
-1.5901107	PRON PUNCT NUM	-0.60842365
-1.4865252	INTJ PUNCT NUM	-0.45004144
-1.5599889	X PUNCT NUM	-0.4442429
-1.8023057	<s> NUM NUM	-0.5725565
-1.173259	ADP NUM NUM	-1.3795893
-1.1704633	DET NUM NUM	-0.9486733
-1.2975577	PROPN NUM NUM	-0.85755706
-1.0757974	CCONJ NUM NUM	-0.6867275
-1.1584048	NOUN NUM NUM	-0.49567845
-1.123058	PUNCT NUM NUM	-0.84866005
-1.1985583	NUM NUM NUM	-0.64926237
-1.2719156	ADJ NUM NUM	-0.50168145
-1.133259	SCONJ NUM NUM	-1.1156527
-1.1035327	VERB NUM NUM	-1.259735
-1.0172532	PART NUM NUM	-0.8690845
-1.0459466	ADV NUM NUM	-1.114916
-1.1670076	AUX NUM NUM	-0.5515251
-1.3471352	PRON NUM NUM	-0.42750618
-0.97927666	SYM NUM NUM	-1.2885722
-2.5351496	<s> ADJ NUM	-0.45720786
-1.2270296	ADP ADJ NUM	-0.8056628
-1.1908247	DET ADJ NUM	-1.675119
-1.3340753	PROPN ADJ NUM	-0.27831295
-1.2488227	CCONJ ADJ NUM	-0.62360317
-1.578942	NOUN ADJ NUM	-0.34178597
-1.2460263	PUNCT ADJ NUM	-0.7409164
-1.2224762	NUM ADJ NUM	-0.29301977
-1.4049137	ADJ ADJ NUM	-0.6069702
-1.714432	SCONJ ADJ NUM	-0.29589948
-1.3454238	VERB ADJ NUM	-0.5910279
-1.7006258	PART ADJ NUM	-0.7319089
-1.2981768	ADV ADJ NUM	-0.63487995
-1.4456892	AUX ADJ NUM	-0.3364414
-1.763881	PRON ADJ NUM	-0.7018534
-1.5066613	X ADJ NUM	-0.29589948
-1.727887	<s> SCONJ NUM	-0.7747704
-1.3513482	ADP SCONJ NUM	-0.48000464
-1.1807902	DET SCONJ NUM	-0.26557517
-1.1371365	PROPN SCONJ NUM	-0.8138242
-1.2432524	CCONJ SCONJ NUM	-0.6049434
-1.1422853	NOUN SCONJ NUM	-1.039569
-1.3345948	PUNCT SCONJ NUM	-0.613425
-1.0398668	NUM SCONJ NUM	-0.30160856
-1.0059743	ADJ SCONJ NUM	-1.8106005
-1.2974359	SCONJ SCONJ NUM	-0.28351453
-1.1878163	VERB SCONJ NUM	-1.1461035
-1.450343	PART SCONJ NUM	-0.29589948
-1.1643034	ADV SCONJ NUM	-0.527789
-1.3318572	AUX SCONJ NUM	-0.33221257
-1.3301662	PRON SCONJ NUM	-0.2697797
-1.1254836	INTJ SCONJ NUM	-0.29589948
-2.150906	<s> VERB NUM	-0.5870973
-1.3046333	ADP VERB NUM	-0.8632333
-1.2072911	DET VERB NUM	-1.1725812
-1.2200954	PROPN VERB NUM	-1.3289683
-1.2507825	CCONJ VERB NUM	-1.0421591
-1.2151617	NOUN VERB NUM	-1.4438311
-1.2696404	PUNCT VERB NUM	-1.2243793
-1.3807945	NUM VERB NUM	-0.48539388
-1.4219751	ADJ VERB NUM	-0.30256745
-1.3668975	SCONJ VERB NUM	-0.3506019
-1.1979773	VERB VERB NUM	-0.5782367
-1.2569462	PART VERB NUM	-1.2685468
-1.2230614	ADV VERB NUM	-1.1734538
-1.1708131	AUX VERB NUM	-1.5287772
-1.2619268	PRON VERB NUM	-1.3424287
-1.5535914	INTJ VERB NUM	-0.29589948
-1.4459807	X VERB NUM	-0.26557517
-1.2697282	SYM VERB NUM	-0.29589948
-2.272782	<s> PART NUM	-0.29589948
-0.8743062	ADP PART NUM	-1.0553112
-1.1294832	PROPN PART NUM	-1.045501
-1.408794	CCONJ PART NUM	-0.27831295
-1.2676445	NOUN PART NUM	-0.8602357
-1.6465118	PUNCT PART NUM	-0.30594018
-0.7028748	NUM PART NUM	-1.0884933
-1.0999273	ADJ PART NUM	-0.576239
-1.4709752	SCONJ PART NUM	-0.27544984
-1.2927477	VERB PART NUM	-0.31814283
-1.4363731	ADV PART NUM	-0.6773161
-1.4235619	AUX PART NUM	-0.41159996
-1.5271149	PRON PART NUM	-0.26557517
-1.7209166	<s> ADV NUM	-1.0847093
-1.1009244	ADP ADV NUM	-1.4357417
-1.3796191	DET ADV NUM	-0.5384254
-1.4760357	PROPN ADV NUM	-0.6222576
-1.2629755	CCONJ ADV NUM	-0.85418516
-1.3274404	NOUN ADV NUM	-1.0726929
-1.1481867	PUNCT ADV NUM	-1.2687635
-1.2934003	NUM ADV NUM	-0.28739038
-1.451091	ADJ ADV NUM	-0.52404314
-1.2099962	SCONJ ADV NUM	-0.83538055
-1.2474606	VERB ADV NUM	-1.431726
-1.4079067	PART ADV NUM	-0.43132246
-1.2200671	ADV ADV NUM	-1.1896214
-1.1805739	AUX ADV NUM	-1.164597
-1.5777943	PRON ADV NUM	-0.61264783
-1.4502445	INTJ ADV NUM	-0.29589948
-2.7608166	<s> AUX NUM	-0.27544984
-1.6456254	DET AUX NUM	-0.9312258
-1.1531909	PROPN AUX NUM	-1.0818216
-1.2391514	NOUN AUX NUM	-1.1229203
-1.4253013	PUNCT AUX NUM	-0.87176526
-1.4022563	NUM AUX NUM	-0.29206413
-1.5515118	ADJ AUX NUM	-0.28351453
-1.4939249	VERB AUX NUM	-0.5012249
-1.5566323	ADV AUX NUM	-0.7147129
-1.2320172	PRON AUX NUM	-1.2219094
-3.273498	<s> PRON NUM	-0.4028502
-1.2968343	ADP PRON NUM	-1.2029068
-1.5918193	CCONJ PRON NUM	-0.71756816
-2.0521352	NOUN PRON NUM	-0.29589948
-1.5354993	PUNCT PRON NUM	-0.29206413
-1.8018243	SCONJ PRON NUM	-0.38309464
-1.252912	VERB PRON NUM	-1.0387753
-1.5345384	ADV PRON NUM	-0.42750618
-1.8135608	AUX PRON NUM	-0.29589948
-1.8683243	PRON PRON NUM	-0.29589948
-2.8383818	<s> INTJ NUM	-0.29589948
-1.3619163	ADP INTJ NUM	-0.29589948
-1.5726153	PROPN INTJ NUM	-0.29589948
-1.7454253	VERB INTJ NUM	-0.29589948
-1.3778412	ADV INTJ NUM	-0.29589948
-1.4049141	PRON INTJ NUM	-0.29589948
-1.6314374	ADP X NUM	-0.29589948
-1.8648531	NOUN X NUM	-0.29589948
-1.6401136	PUNCT X NUM	-0.28047273
-1.4071038	ADV X NUM	-0.29589948
-1.7799076	X X NUM	-0.26557517
-0.61377984	SYM X NUM	-0.29589948
-1.4017093	<s> SYM NUM	-0.41700286
-0.6381454	ADP SYM NUM	-1.1148542
-0.50414836	DET SYM NUM	-0.7384348
-0.7140062	PROPN SYM NUM	-0.6909598
-0.2708515	CCONJ SYM NUM	-1.5363891
-0.76712257	NOUN SYM NUM	-0.58759606
-0.6669806	PUNCT SYM NUM	-0.9410106
-0.28785214	NUM SYM NUM	-1.379802
-0.85845625	ADJ SYM NUM	-0.49172825
-0.54098654	SCONJ SYM NUM	-0.67319417
-0.7409406	VERB SYM NUM	-1.0011675
-0.2483137	PART SYM NUM	-0.541016
-0.4495538	ADV SYM NUM	-0.76986074
-0.6401748	AUX SYM NUM	-0.4961422
-0.65396816	PRON SYM NUM	-0.29301977
-0.7538776	X SYM NUM	-0.29589948
-0.6914654	SYM SYM NUM	-0.29589948
-1.1292249	<s> ADP ADJ	-1.6912073
-1.071552	ADP ADP ADJ	-1.412763
-1.0967313	DET ADP ADJ	-1.0138979
-1.1133664	PROPN ADP ADJ	-1.6919665
-1.0458496	CCONJ ADP ADJ	-1.2213103
-1.1719692	NOUN ADP ADJ	-2.750412
-1.1006924	PUNCT ADP ADJ	-1.7041248
-0.97716606	NUM ADP ADJ	-0.94958776
-1.0807606	ADJ ADP ADJ	-1.6666454
-1.0050145	SCONJ ADP ADJ	-1.0675358
-1.2145785	VERB ADP ADJ	-2.347661
-0.911564	PART ADP ADJ	-0.8183434
-1.0979313	ADV ADP ADJ	-1.6309161
-1.0216969	AUX ADP ADJ	-1.1423018
-1.0399691	PRON ADP ADJ	-1.3792117
-1.1461189	INTJ ADP ADJ	-0.28351453
-1.1454259	X ADP ADJ	-0.27544984
-1.0429238	SYM ADP ADJ	-0.29589948
-0.73661876	<s> DET ADJ	-2.2837565
-1.1084002	ADP DET ADJ	-2.9644966
-0.9349957	DET DET ADJ	-1.6192533
-0.93909645	PROPN DET ADJ	-1.1925695
-0.9417304	CCONJ DET ADJ	-2.015519
-1.0271885	NOUN DET ADJ	-1.5683447
-1.0448521	PUNCT DET ADJ	-2.3339732
-0.9671657	NUM DET ADJ	-0.7655439
-0.8617443	ADJ DET ADJ	-1.0281537
-1.0150881	SCONJ DET ADJ	-1.966922
-1.0780814	VERB DET ADJ	-2.7265668
-0.870684	PART DET ADJ	-1.4084432
-1.0231161	ADV DET ADJ	-1.9666098
-0.98350745	AUX DET ADJ	-2.1558206
-1.06197	PRON DET ADJ	-1.3366101
-1.397764	INTJ DET ADJ	-0.51391286
-1.0792882	X DET ADJ	-0.6103693
-1.012854	SYM DET ADJ	-0.29589948
-2.4357455	<s> PROPN ADJ	-0.89991534
-1.2778711	ADP PROPN ADJ	-1.2726176
-1.3167416	DET PROPN ADJ	-1.3683766
-1.2576401	PROPN PROPN ADJ	-1.2611737
-1.3506714	CCONJ PROPN ADJ	-0.65091777
-1.4205593	NOUN PROPN ADJ	-0.65085226
-1.2059762	PUNCT PROPN ADJ	-0.9716377
-1.173115	NUM PROPN ADJ	-0.7129852
-1.3156154	ADJ PROPN ADJ	-0.81339025
-1.5812259	SCONJ PROPN ADJ	-0.6581227
-1.2635391	VERB PROPN ADJ	-0.9125007
-1.325822	PART PROPN ADJ	-0.566502
-1.7753665	ADV PROPN ADJ	-0.30933934
-1.2462275	AUX PROPN ADJ	-0.36980444
-1.2826232	PRON PROPN ADJ	-0.5356918
-1.3967515	X PROPN ADJ	-0.4028502
-1.4960569	SYM PROPN ADJ	-0.3919632
-1.4655032	<s> CCONJ ADJ	-0.97444445
-0.947019	ADP CCONJ ADJ	-0.9173648
-0.96089756	DET CCONJ ADJ	-0.66564125
-1.0932641	PROPN CCONJ ADJ	-1.5419189
-1.0306978	CCONJ CCONJ ADJ	-0.29206413
-1.1486249	NOUN CCONJ ADJ	-2.2123644
-1.2054405	PUNCT CCONJ ADJ	-1.7095698
-1.0418547	NUM CCONJ ADJ	-0.80481845
-1.0255083	ADJ CCONJ ADJ	-2.1688595
-1.3827864	SCONJ CCONJ ADJ	-0.29589948
-1.056135	VERB CCONJ ADJ	-1.0640593
-1.1623559	PART CCONJ ADJ	-0.46138012
-1.0502602	ADV CCONJ ADJ	-0.7517478
-1.0275543	AUX CCONJ ADJ	-0.6049434
-1.1610872	PRON CCONJ ADJ	-0.44289672
-1.2528951	INTJ CCONJ ADJ	-0.29589948
-0.9835423	X CCONJ ADJ	-0.28047273
-2.2296672	<s> NOUN ADJ	-0.7279424
-1.1927773	ADP NOUN ADJ	-1.3640182
-1.231228	DET NOUN ADJ	-1.6360545
-1.2577193	PROPN NOUN ADJ	-0.88592315
-1.1957214	CCONJ NOUN ADJ	-0.93843806
-1.2152518	NOUN NOUN ADJ	-1.4257228
-1.2209281	PUNCT NOUN ADJ	-1.3388525
-1.2032568	NUM NOUN ADJ	-1.3447847
-1.2174449	ADJ NOUN ADJ	-1.6947929
-1.4350388	SCONJ NOUN ADJ	-0.38992977
-1.1984909	VERB NOUN ADJ	-1.3081998
-1.4651592	PART NOUN ADJ	-0.7177111
-1.2091099	ADV NOUN ADJ	-0.5507371
-1.2304567	AUX NOUN ADJ	-0.4779867
-1.2356385	PRON NOUN ADJ	-1.0480474
-1.1258131	INTJ NOUN ADJ	-0.76842237
-1.3717735	X NOUN ADJ	-0.29206413
-1.5728122	SYM NOUN ADJ	-0.28047273
-1.3966286	<s> PUNCT ADJ	-1.0556743
-1.084406	ADP PUNCT ADJ	-1.4782283
-1.1363837	DET PUNCT ADJ	-1.703257
-1.2236489	PROPN PUNCT ADJ	-1.7746311
-1.1903087	CCONJ PUNCT ADJ	-1.0758978
-1.2293823	NOUN PUNCT ADJ	-2.2222178
-1.2342677	PUNCT PUNCT ADJ	-1.3064195
-1.1617674	NUM PUNCT ADJ	-1.324252
-1.1781669	ADJ PUNCT ADJ	-1.9100163
-1.1330595	SCONJ PUNCT ADJ	-0.8395428
-1.2475805	VERB PUNCT ADJ	-1.5802108
-1.2356474	PART PUNCT ADJ	-0.94344
-1.207899	ADV PUNCT ADJ	-1.5536844
-1.2991731	AUX PUNCT ADJ	-0.8802545
-1.24699	PRON PUNCT ADJ	-1.0684736
-1.3862228	INTJ PUNCT ADJ	-0.5897273
-1.5599889	X PUNCT ADJ	-0.49163648
-1.116565	<s> NUM ADJ	-1.3515973
-1.1703876	ADP NUM ADJ	-1.6899359
-0.97334534	DET NUM ADJ	-1.4041835
-1.2477721	PROPN NUM ADJ	-1.08133
-0.9314439	CCONJ NUM ADJ	-0.98148584
-1.1997765	NOUN NUM ADJ	-0.94736606
-1.1196568	PUNCT NUM ADJ	-1.2020727
-0.9704577	NUM NUM ADJ	-1.0850449
-1.0030531	ADJ NUM ADJ	-1.0239798
-1.1286749	SCONJ NUM ADJ	-1.1375694
-1.1325679	VERB NUM ADJ	-1.4079405
-1.0829968	PART NUM ADJ	-0.8829038
-1.0080192	ADV NUM ADJ	-1.2174716
-1.0768273	AUX NUM ADJ	-1.2532526
-0.99670243	PRON NUM ADJ	-1.0673413
-0.9976396	INTJ NUM ADJ	-0.29589948
-1.2800316	SYM NUM ADJ	-0.56878424
-1.0524535	<s> ADJ ADJ	-1.6896839
-1.0970093	ADP ADJ ADJ	-2.1201777
-1.1233528	DET ADJ ADJ	-2.3409085
-0.98293465	PROPN ADJ ADJ	-1.2197316
-0.9669098	CCONJ ADJ ADJ	-1.7551275
-1.1266515	NOUN ADJ ADJ	-1.1638446
-1.0784501	PUNCT ADJ ADJ	-1.7749872
-0.8694445	NUM ADJ ADJ	-1.3933535
-1.01247	ADJ ADJ ADJ	-2.0975578
-0.9751025	SCONJ ADJ ADJ	-1.2056036
-1.1099684	VERB ADJ ADJ	-1.8383664
-1.0689055	PART ADJ ADJ	-1.4762683
-1.1293015	ADV ADJ ADJ	-1.5622402
-1.0511354	AUX ADJ ADJ	-1.0824811
-1.0281277	PRON ADJ ADJ	-1.5921729
-1.1389441	INTJ ADJ ADJ	-0.26557517
-1.0611305	X ADJ ADJ	-0.36951423
-0.9299011	SYM ADJ ADJ	-0.5414769
-1.175144	<s> SCONJ ADJ	-1.2004685
-1.2603627	ADP SCONJ ADJ	-0.71043795
-1.191431	DET SCONJ ADJ	-0.26557517
-1.2944236	PROPN SCONJ ADJ	-0.6378873
-1.0388837	CCONJ SCONJ ADJ	-0.8132549
-1.1114223	NOUN SCONJ ADJ	-1.3398597
-1.040185	PUNCT SCONJ ADJ	-1.2085305
-1.1552557	NUM SCONJ ADJ	-0.4786587
-1.0707175	ADJ SCONJ ADJ	-1.0851865
-1.1144706	SCONJ SCONJ ADJ	-0.8998065
-1.125522	VERB SCONJ ADJ	-1.5758013
-1.2792912	PART SCONJ ADJ	-0.29589948
-1.0423282	ADV SCONJ ADJ	-0.87561405
-1.0279729	AUX SCONJ ADJ	-0.87650394
-1.1099417	PRON SCONJ ADJ	-0.68044525
-1.3749706	<s> VERB ADJ	-1.1156812
-1.0991585	ADP VERB ADJ	-1.6928637
-1.144998	DET VERB ADJ	-1.811982
-1.1659436	PROPN VERB ADJ	-1.6793597
-1.2130007	CCONJ VERB ADJ	-1.7603005
-1.190424	NOUN VERB ADJ	-2.084291
-1.15361	PUNCT VERB ADJ	-1.8011824
-1.0438737	NUM VERB ADJ	-0.93196213
-1.1162224	ADJ VERB ADJ	-1.0310916
-1.0584477	SCONJ VERB ADJ	-0.8180023
-1.0722864	VERB VERB ADJ	-1.2752936
-1.167148	PART VERB ADJ	-2.164832
-1.1932232	ADV VERB ADJ	-1.8726988
-1.1708131	AUX VERB ADJ	-2.2275028
-1.2041692	PRON VERB ADJ	-2.0886078
-1.0881034	INTJ VERB ADJ	-0.44816387
-0.94148123	X VERB ADJ	-0.5356918
-1.1916224	SYM VERB ADJ	-0.48203146
-1.5989404	<s> PART ADJ	-0.31546605
-1.2284883	ADP PART ADJ	-0.4028502
-0.90183294	DET PART ADJ	-0.28351453
-0.98002815	PROPN PART ADJ	-1.9805267
-1.1387274	CCONJ PART ADJ	-0.7663217
-1.0643973	NOUN PART ADJ	-1.7859393
-1.0386337	PUNCT PART ADJ	-0.62494224
-1.3668998	NUM PART ADJ	-0.5080334
-0.9718409	ADJ PART ADJ	-0.5170585
-0.946916	SCONJ PART ADJ	-0.5833135
-1.1029055	VERB PART ADJ	-1.336656
-1.535102	PART PART ADJ	-0.29589948
-1.049592	ADV PART ADJ	-0.7178237
-1.0625	AUX PART ADJ	-1.5145786
-1.0265285	PRON PART ADJ	-0.59859145
-1.0045899	X PART ADJ	-0.29589948
-1.3922756	<s> ADV ADJ	-1.2710497
-1.0957304	ADP ADV ADJ	-1.4412023
-0.9965344	DET ADV ADJ	-2.0279334
-1.241666	PROPN ADV ADJ	-0.67124104
-1.2093136	CCONJ ADV ADJ	-1.4566799
-1.1875464	NOUN ADV ADJ	-1.4266725
-1.1437701	PUNCT ADV ADJ	-1.5525085
-0.97569615	NUM ADV ADJ	-0.8128521
-1.1021427	ADJ ADV ADJ	-0.9391551
-1.0230478	SCONJ ADV ADJ	-0.72836334
-1.1523762	VERB ADV ADJ	-2.106725
-1.0227801	PART ADV ADJ	-1.4265568
-1.1248	ADV ADV ADJ	-1.6414902
-1.0124696	AUX ADV ADJ	-2.0278447
-1.0194882	PRON ADV ADJ	-1.2206737
-1.2689838	INTJ ADV ADJ	-0.27544984
-0.9742712	X ADV ADJ	-0.30594018
-1.1296147	SYM ADV ADJ	-0.29589948
-1.7657506	<s> AUX ADJ	-0.6141384
-1.3908272	ADP AUX ADJ	-0.30160856
-1.0733659	DET AUX ADJ	-1.1345105
-1.084174	PROPN AUX ADJ	-1.5295258
-1.5124123	CCONJ AUX ADJ	-0.30391338
-1.1593951	NOUN AUX ADJ	-1.9880359
-1.1972314	PUNCT AUX ADJ	-1.1682518
-1.0985569	NUM AUX ADJ	-0.50367874
-1.0443289	ADJ AUX ADJ	-0.76169133
-1.1011666	VERB AUX ADJ	-0.83445305
-1.3431765	PART AUX ADJ	-0.36951423
-1.0641048	ADV AUX ADJ	-0.8653029
-0.98421896	AUX AUX ADJ	-0.45470893
-1.1246898	PRON AUX ADJ	-2.0231574
-1.1627461	X AUX ADJ	-0.29589948
-1.8452235	<s> PRON ADJ	-1.2610587
-1.1735157	ADP PRON ADJ	-2.2313783
-1.0915947	DET PRON ADJ	-0.92811525
-1.289563	PROPN PRON ADJ	-0.71803284
-1.0785692	CCONJ PRON ADJ	-1.3473741
-1.1392611	NOUN PRON ADJ	-0.7178154
-1.1208789	PUNCT PRON ADJ	-1.2440488
-1.2966572	NUM PRON ADJ	-0.28047273
-1.1720468	ADJ PRON ADJ	-0.67151237
-1.1012725	SCONJ PRON ADJ	-1.1335917
-1.1456914	VERB PRON ADJ	-2.0839238
-1.1454891	PART PRON ADJ	-0.6454892
-1.0968477	ADV PRON ADJ	-0.85462624
-1.112191	AUX PRON ADJ	-1.2437447
-1.1952713	PRON PRON ADJ	-0.6683374
-1.3037362	INTJ PRON ADJ	-0.29589948
-1.1208041	X PRON ADJ	-0.29589948
-0.99517417	SYM PRON ADJ	-0.78646064
-2.190755	<s> INTJ ADJ	-0.30256745
-1.0611584	DET INTJ ADJ	-0.29589948
-1.4598097	PROPN INTJ ADJ	-0.29589948
-1.3760033	CCONJ INTJ ADJ	-0.29589948
-1.4976246	NOUN INTJ ADJ	-0.27544984
-1.2772611	PUNCT INTJ ADJ	-0.277452
-0.7884795	NUM INTJ ADJ	-0.29589948
-1.4738464	VERB INTJ ADJ	-0.27544984
-1.3016058	ADV INTJ ADJ	-0.29589948
-1.2480483	INTJ INTJ ADJ	-0.30594018
-1.7709318	<s> X ADJ	-0.6103693
-1.1042488	ADP X ADJ	-0.4028502
-1.1557907	DET X ADJ	-0.29589948
-1.1778455	PROPN X ADJ	-0.30594018
-1.0096111	NOUN X ADJ	-0.60096896
-1.2113497	PUNCT X ADJ	-0.43711707
-1.041981	ADJ X ADJ	-0.30256745
-1.2619811	VERB X ADJ	-0.30933934
-0.9975829	ADV X ADJ	-0.27544984
-1.0622599	AUX X ADJ	-0.29589948
-0.97384524	PRON X ADJ	-0.29589948
-0.88225627	INTJ X ADJ	-0.5311881
-0.9019015	X X ADJ	-0.59363997
-1.9230824	<s> SYM ADJ	-0.29589948
-1.3632191	ADP SYM ADJ	-0.4028502
-1.1809905	DET SYM ADJ	-0.43427807
-0.89676523	PROPN SYM ADJ	-0.5080334
-1.3184763	CCONJ SYM ADJ	-0.29589948
-0.8769673	NOUN SYM ADJ	-0.6398657
-1.0050039	PUNCT SYM ADJ	-0.28645507
-0.55124664	ADJ SYM ADJ	-0.65236396
-1.2354398	VERB SYM ADJ	-0.38309464
-1.2858413	ADV SYM ADJ	-0.29589948
-1.1328397	PRON SYM ADJ	-0.29589948
-0.6373208	INTJ SYM ADJ	-0.29589948
-2.8403215	<s> ADP SCONJ	-0.44158036
-1.4178277	ADP ADP SCONJ	-0.44158036
-1.5570326	DET ADP SCONJ	-0.28047273
-1.5202072	PROPN ADP SCONJ	-0.32682624
-1.7156342	CCONJ ADP SCONJ	-0.27544984
-1.2931821	NOUN ADP SCONJ	-0.8451977
-1.4088676	PUNCT ADP SCONJ	-0.67210805
-1.9518969	NUM ADP SCONJ	-0.29589948
-1.5911132	ADJ ADP SCONJ	-0.6516319
-1.8998588	SCONJ ADP SCONJ	-0.29589948
-1.2478243	VERB ADP SCONJ	-1.3531605
-1.5823433	PART ADP SCONJ	-0.3506019
-1.3256795	ADV ADP SCONJ	-0.50367874
-1.6607221	AUX ADP SCONJ	-0.51174414
-1.7140367	PRON ADP SCONJ	-0.57894146
-1.0596094	SYM ADP SCONJ	-0.29589948
-4.0546265	<s> DET SCONJ	-0.29589948
-1.4709588	ADP DET SCONJ	-0.59820735
-1.8361102	DET DET SCONJ	-0.26557517
-1.7410825	PUNCT DET SCONJ	-0.29206413
-1.8254825	NUM DET SCONJ	-0.29589948
-2.0632837	SCONJ DET SCONJ	-0.29589948
-1.5996275	VERB DET SCONJ	-0.4634816
-2.0697825	ADV DET SCONJ	-0.29589948
-1.9941393	AUX DET SCONJ	-0.29589948
-1.9336499	PRON DET SCONJ	-0.29589948
-3.366818	<s> PROPN SCONJ	-0.3506019
-1.3129674	ADP PROPN SCONJ	-1.3112109
-1.9178766	DET PROPN SCONJ	-0.6540858
-1.3201461	PROPN PROPN SCONJ	-1.1494218
-1.8574733	CCONJ PROPN SCONJ	-0.4743266
-1.5464987	NOUN PROPN SCONJ	-0.6069702
-1.9062083	PUNCT PROPN SCONJ	-0.34530607
-1.664858	NUM PROPN SCONJ	-0.3506019
-1.4144013	ADJ PROPN SCONJ	-0.5507371
-1.9103241	SCONJ PROPN SCONJ	-0.29589948
-1.3368636	VERB PROPN SCONJ	-0.7756027
-1.5316687	PART PROPN SCONJ	-0.29589948
-1.9011161	ADV PROPN SCONJ	-0.29589948
-1.7386736	PRON PROPN SCONJ	-0.29589948
-1.345901	INTJ PROPN SCONJ	-0.29589948
-1.468283	X PROPN SCONJ	-0.29589948
-1.4968028	SYM PROPN SCONJ	-0.43210864
-1.3388785	<s> CCONJ SCONJ	-1.1381559
-1.0434978	ADP CCONJ SCONJ	-0.71229833
-1.5763494	DET CCONJ SCONJ	-0.29589948
-1.6812081	PROPN CCONJ SCONJ	-0.57631505
-1.314335	CCONJ CCONJ SCONJ	-0.29589948
-1.2784414	NOUN CCONJ SCONJ	-1.1766324
-1.2126797	PUNCT CCONJ SCONJ	-1.4475491
-1.6811565	NUM CCONJ SCONJ	-0.30256745
-1.4599516	ADJ CCONJ SCONJ	-0.68915695
-1.3367472	VERB CCONJ SCONJ	-0.736189
-1.4111884	PART CCONJ SCONJ	-0.29589948
-1.3637553	ADV CCONJ SCONJ	-0.4571682
-1.4909844	AUX CCONJ SCONJ	-0.29589948
-1.4930501	PRON CCONJ SCONJ	-0.46911103
-1.1043823	INTJ CCONJ SCONJ	-0.26557517
-2.7336905	<s> NOUN SCONJ	-0.5287305
-1.253568	ADP NOUN SCONJ	-1.4004174
-1.2639215	DET NOUN SCONJ	-1.9141396
-1.3277643	PROPN NOUN SCONJ	-0.9265627
-1.6070048	CCONJ NOUN SCONJ	-0.8129388
-1.3269732	NOUN NOUN SCONJ	-1.3861933
-1.4004755	PUNCT NOUN SCONJ	-0.6896839
-1.2057029	NUM NOUN SCONJ	-1.0185982
-1.2743038	ADJ NOUN SCONJ	-1.802686
-1.4418722	SCONJ NOUN SCONJ	-0.3570927
-1.2553496	VERB NOUN SCONJ	-1.3834647
-1.3744328	PART NOUN SCONJ	-0.93368244
-1.4788394	ADV NOUN SCONJ	-0.45502144
-1.4475334	AUX NOUN SCONJ	-0.61572367
-1.276882	PRON NOUN SCONJ	-1.1728828
-1.5869448	X NOUN SCONJ	-0.29589948
-1.6519098	SYM NOUN SCONJ	-0.29589948
-1.5937515	<s> PUNCT SCONJ	-0.91870165
-1.3581681	ADP PUNCT SCONJ	-0.58759606
-1.2417992	DET PUNCT SCONJ	-0.605363
-1.3031077	PROPN PUNCT SCONJ	-1.355666
-1.3411192	CCONJ PUNCT SCONJ	-0.7810846
-1.2295543	NOUN PUNCT SCONJ	-1.8745135
-1.3694031	PUNCT PUNCT SCONJ	-0.98036337
-1.4123001	NUM PUNCT SCONJ	-0.72498286
-1.2627896	ADJ PUNCT SCONJ	-1.1339248
-1.2318317	SCONJ PUNCT SCONJ	-0.6274367
-1.2477871	VERB PUNCT SCONJ	-1.2109188
-1.5426881	PART PUNCT SCONJ	-0.29333878
-1.236161	ADV PUNCT SCONJ	-1.2295662
-1.4476746	AUX PUNCT SCONJ	-0.3315918
-1.3858984	PRON PUNCT SCONJ	-0.8358078
-1.3052741	INTJ PUNCT SCONJ	-0.52565664
-1.4328233	X PUNCT SCONJ	-0.2870172
-2.4158363	<s> NUM SCONJ	-0.5080334
-1.2471372	ADP NUM SCONJ	-0.52029145
-1.8894202	DET NUM SCONJ	-0.29589948
-1.4881529	PROPN NUM SCONJ	-0.5898646
-1.7488964	CCONJ NUM SCONJ	-0.29589948
-1.709887	NOUN NUM SCONJ	-0.29589948
-1.436619	PUNCT NUM SCONJ	-0.8602159
-1.9259758	NUM NUM SCONJ	-0.26557517
-1.6055697	ADJ NUM SCONJ	-0.30160856
-1.2033962	SCONJ NUM SCONJ	-0.6463361
-1.3044267	VERB NUM SCONJ	-0.547624
-1.6621755	PART NUM SCONJ	-0.29589948
-1.448431	ADV NUM SCONJ	-0.78646064
-1.764103	SYM NUM SCONJ	-0.28351453
-1.6109657	<s> ADJ SCONJ	-1.0517054
-1.1546323	ADP ADJ SCONJ	-1.4641914
-1.2569839	DET ADJ SCONJ	-0.83376163
-1.2551627	PROPN ADJ SCONJ	-0.6652978
-1.1890777	CCONJ ADJ SCONJ	-0.99071395
-1.1586336	NOUN ADJ SCONJ	-1.0613235
-1.2019331	PUNCT ADJ SCONJ	-1.0996784
-1.6949222	NUM ADJ SCONJ	-0.28047273
-1.2867309	ADJ ADJ SCONJ	-0.5055915
-1.1046842	SCONJ ADJ SCONJ	-0.912867
-1.1362525	VERB ADJ SCONJ	-1.6358459
-1.1071324	PART ADJ SCONJ	-0.9151751
-1.187362	ADV ADJ SCONJ	-1.5223303
-1.1306087	AUX ADJ SCONJ	-1.4735651
-1.1430148	PRON ADJ SCONJ	-0.90503764
-1.3269106	INTJ ADJ SCONJ	-0.29589948
-1.4802775	X ADJ SCONJ	-0.29589948
-1.4626242	SYM ADJ SCONJ	-0.29589948
-2.4500585	<s> SCONJ SCONJ	-0.43132246
-1.5924585	ADP SCONJ SCONJ	-0.52175003
-1.396159	DET SCONJ SCONJ	-0.29589948
-1.310372	PROPN SCONJ SCONJ	-0.5638573
-1.5874624	CCONJ SCONJ SCONJ	-0.29589948
-1.1920035	NOUN SCONJ SCONJ	-1.169204
-1.1371324	PUNCT SCONJ SCONJ	-0.9602835
-1.4064853	NUM SCONJ SCONJ	-0.26557517
-1.3505565	ADJ SCONJ SCONJ	-0.5367699
-1.1648483	VERB SCONJ SCONJ	-1.2160975
-1.4455541	ADV SCONJ SCONJ	-0.48798317
-1.3617196	AUX SCONJ SCONJ	-0.36996076
-1.2318207	PRON SCONJ SCONJ	-0.63998413
-1.8500699	<s> VERB SCONJ	-0.7966569
-1.1576729	ADP VERB SCONJ	-0.97135335
-1.1752353	DET VERB SCONJ	-1.1974149
-1.1923676	PROPN VERB SCONJ	-1.8942626
-1.2510513	CCONJ VERB SCONJ	-1.3500142
-1.2153419	NOUN VERB SCONJ	-1.89115
-1.2079659	PUNCT VERB SCONJ	-1.6510967
-1.2228128	NUM VERB SCONJ	-0.53346705
-1.1489748	ADJ VERB SCONJ	-0.8356617
-1.2981929	SCONJ VERB SCONJ	-0.3919632
-1.2362949	VERB VERB SCONJ	-0.73808134
-1.2571816	PART VERB SCONJ	-1.7195541
-1.1934276	ADV VERB SCONJ	-1.7152805
-1.1710045	AUX VERB SCONJ	-1.9020072
-1.178117	PRON VERB SCONJ	-1.9303484
-1.5546117	INTJ VERB SCONJ	-0.5080334
-1.3673038	X VERB SCONJ	-0.27544984
-1.4173734	SYM VERB SCONJ	-0.29589948
-1.7308737	<s> PART SCONJ	-0.50883126
-1.5087192	ADP PART SCONJ	-0.26557517
-1.871372	PROPN PART SCONJ	-0.29589948
-1.5734346	CCONJ PART SCONJ	-0.30739367
-1.6505622	NOUN PART SCONJ	-0.2913011
-1.3372209	PUNCT PART SCONJ	-0.50883126
-1.7930698	ADJ PART SCONJ	-0.29589948
-1.7662585	VERB PART SCONJ	-0.30594018
-1.6822394	ADV PART SCONJ	-0.29589948
-1.3584285	AUX PART SCONJ	-0.5237887
-1.7131896	PRON PART SCONJ	-0.29589948
-1.56492	<s> ADV SCONJ	-1.3165631
-1.5635406	ADP ADV SCONJ	-0.36622068
-1.5746095	DET ADV SCONJ	-0.42268527
-1.3524858	PROPN ADV SCONJ	-0.6002549
-1.3198575	CCONJ ADV SCONJ	-0.8675413
-1.2258921	NOUN ADV SCONJ	-1.2600845
-1.1505985	PUNCT ADV SCONJ	-1.3755425
-1.7032292	NUM ADV SCONJ	-0.29589948
-1.2272469	ADJ ADV SCONJ	-0.6249571
-1.2755162	SCONJ ADV SCONJ	-0.67232484
-1.218404	VERB ADV SCONJ	-1.1798618
-1.2819324	PART ADV SCONJ	-0.5964278
-1.1907673	ADV ADV SCONJ	-0.96280855
-1.3839699	AUX ADV SCONJ	-0.69168437
-1.404283	PRON ADV SCONJ	-0.64926237
-2.95942	<s> AUX SCONJ	-0.29589948
-1.4299237	ADP AUX SCONJ	-0.30594018
-1.3017699	DET AUX SCONJ	-0.58005595
-1.3744093	PROPN AUX SCONJ	-0.68888545
-1.6306409	CCONJ AUX SCONJ	-0.29589948
-1.1994387	NOUN AUX SCONJ	-1.3891824
-1.3526069	PUNCT AUX SCONJ	-0.6335793
-1.8575324	NUM AUX SCONJ	-0.26557517
-1.2006763	ADJ AUX SCONJ	-0.7146211
-1.1549282	VERB AUX SCONJ	-0.77588147
-1.3241158	ADV AUX SCONJ	-0.5749421
-1.340961	PRON AUX SCONJ	-0.6517293
-3.0550232	<s> PRON SCONJ	-0.5080334
-1.4715878	ADP PRON SCONJ	-0.9444771
-1.8457478	DET PRON SCONJ	-0.29589948
-1.9110078	PROPN PRON SCONJ	-0.29589948
-1.7137945	CCONJ PRON SCONJ	-0.30594018
-2.0056353	NOUN PRON SCONJ	-0.26557517
-1.4507442	PUNCT PRON SCONJ	-0.34556448
-1.9815292	SCONJ PRON SCONJ	-0.29589948
-1.2798115	VERB PRON SCONJ	-1.3367481
-1.5179269	ADV PRON SCONJ	-0.29206413
-1.1836265	AUX PRON SCONJ	-0.5693202
-1.6683904	PRON PRON SCONJ	-0.29589948
-2.297458	<s> INTJ SCONJ	-0.4028502
