\data\
ngram 1=21
ngram 2=324
ngram 3=4236
ngram 4=33410

\1-grams:
-2.3722422	<unk>	0
0	<s>	-3.6740863
-1.2833012	</s>	0
-1.258299	ADP	-1.0095453
-1.258299	DET	-0.9785694
-1.234658	PROPN	-1.052029
-1.258299	CCONJ	-0.9665762
-1.258299	NOUN	-1.0724269
-1.258299	PUNCT	-1.0543576
-1.258299	NUM	-0.98193604
-1.258299	ADJ	-1.0219545
-1.2833012	SCONJ	-0.9214864
-1.258299	VERB	-1.0557746
-1.258299	PART	-0.90509593
-1.258299	ADV	-1.0265181
-1.258299	AUX	-0.9470341
-1.258299	PRON	-0.98360956
-1.258299	INTJ	-0.8091855
-1.258299	X	-0.79135275
-1.258299	SYM	-0.6928674
-2.2375438	SPACE	-0.30103

\2-grams:
-1.4449998	ADP </s>	0
-1.7191834	DET </s>	0
-1.2377259	PROPN </s>	0
-1.5586977	CCONJ </s>	0
-1.2507861	NOUN </s>	0
-1.2576741	PUNCT </s>	0
-1.2700897	NUM </s>	0
-1.225271	ADJ </s>	0
-1.6503451	SCONJ </s>	0
-1.2341337	VERB </s>	0
-1.5651479	PART </s>	0
-1.256314	ADV </s>	0
-1.5391556	AUX </s>	0
-1.3041732	PRON </s>	0
-1.5497996	INTJ </s>	0
-1.5319668	X </s>	0
-1.8158467	SYM </s>	0
-0.98811966	<s> ADP	-2.7356086
-1.2107264	ADP ADP	-0.79317445
-1.2060959	DET ADP	-0.7839526
-1.2356751	PROPN ADP	-0.8896158
-1.1941029	CCONJ ADP	-0.7501583
-1.2487695	NOUN ADP	-0.9843967
-1.2555387	PUNCT ADP	-0.9143008
-1.183117	NUM ADP	-0.8765355
-1.1982973	ADJ ADP	-0.8766049
-1.1341237	SCONJ ADP	-0.843642
-1.2321173	VERB ADP	-0.99438095
-1.190655	PART ADP	-0.69339484
-1.2540448	ADV ADP	-0.878634
-1.2325932	AUX ADP	-0.7190668
-1.1847906	PRON ADP	-0.7636434
-1.2868097	INTJ ADP	-0.45116785
-1.1817353	X ADP	-0.48626804
-1.5961757	SYM ADP	-0.34171778
-0.73249876	<s> DET	-3.0255756
-1.1858879	ADP DET	-0.92623365
-1.2060959	DET DET	-0.83994514
-1.2604744	PROPN DET	-0.8046172
-1.1677573	CCONJ DET	-0.78131884
-1.2487695	NOUN DET	-0.9027555
-1.2555387	PUNCT DET	-0.9033124
-1.267495	NUM DET	-0.66466683
-1.3397231	ADJ DET	-0.714139
-1.1076896	SCONJ DET	-0.8712029
-1.2321173	VERB DET	-0.93021804
-1.190655	PART DET	-0.69232625
-1.2540448	ADV DET	-0.8949301
-1.1745608	AUX DET	-0.78302556
-1.2691686	PRON DET	-0.7537849
-1.1617452	INTJ DET	-0.47218895
-1.3201923	X DET	-0.42386192
-1.3544897	SYM DET	-0.48921293
-0.8169434	<s> PROPN	-2.8364604
-1.2086014	ADP PROPN	-0.9565924
-1.1529049	DET PROPN	-0.8961027
-1.2102818	PROPN PROPN	-1.0057464
-1.1918454	CCONJ PROPN	-0.72891885
-1.2467624	NOUN PROPN	-0.8991129
-1.2534137	PUNCT PROPN	-0.9364493
-1.207205	NUM PROPN	-0.86197567
-1.1962901	ADJ PROPN	-0.93368167
-1.1599443	SCONJ PROPN	-0.82108945
-1.2301102	VERB PROPN	-0.95726085
-1.2200873	PART PROPN	-0.5500174
-1.2517872	ADV PROPN	-0.8017334
-1.2300137	AUX PROPN	-0.7108699
-1.1826656	PRON PROPN	-0.73132604
-1.1962873	INTJ PROPN	-0.48105577
-1.0166218	X PROPN	-0.5077217
-0.801226	SYM PROPN	-0.6737306
-0.27643922	SPACE PROPN	-0.33788693
-1.4772756	<s> CCONJ	-2.2317686
-1.2651196	ADP CCONJ	-0.69779414
-1.2641283	DET CCONJ	-0.48305234
-1.2356751	PROPN CCONJ	-0.915466
-1.4954159	CCONJ CCONJ	-0.358691
-1.2487695	NOUN CCONJ	-0.92495954
-1.2307004	PUNCT CCONJ	-0.9147626
-1.183117	NUM CCONJ	-0.81414795
-1.2231356	ADJ CCONJ	-0.8562944
-1.3393176	SCONJ CCONJ	-0.55145496
-1.2569556	VERB CCONJ	-0.8745812
-1.3827202	PART CCONJ	-0.43732506
-1.2540448	ADV CCONJ	-0.78131884
-1.2995938	AUX CCONJ	-0.44771633
-1.2391838	PRON CCONJ	-0.6551698
-1.2868097	INTJ CCONJ	-0.38648674
-1.3201923	X CCONJ	-0.4664001
-1.7984097	SYM CCONJ	-0.33788693
-1.0212939	<s> NOUN	-2.6321132
-1.1858879	ADP NOUN	-0.9689764
-1.154912	DET NOUN	-0.9877504
-1.2356751	PROPN NOUN	-0.9827101
-1.1941029	CCONJ NOUN	-0.79215467
-1.2487695	NOUN NOUN	-1.0396447
-1.2307004	PUNCT NOUN	-0.949354
-1.1582787	NUM NOUN	-0.99932224
-1.1982973	ADJ NOUN	-1.03667
-1.1341237	SCONJ NOUN	-0.7522593
-1.2321173	VERB NOUN	-0.99438095
-1.1326226	PART NOUN	-0.69357765
-1.2028608	ADV NOUN	-0.83962137
-1.1482152	AUX NOUN	-0.74130225
-1.1599522	PRON NOUN	-0.89499635
-1.0647597	INTJ NOUN	-0.5489014
-1.0769117	X NOUN	-0.61369604
-0.8297895	SYM NOUN	-0.6392466
-1.4325684	<s> PUNCT	-2.2456677
-1.2107264	ADP PUNCT	-0.8399488
-1.2060959	DET PUNCT	-0.8873714
-1.2356751	PROPN PUNCT	-1.0455334
-1.1941029	CCONJ PUNCT	-0.64728934
-1.2487695	NOUN PUNCT	-1.0542196
-1.2555387	PUNCT PUNCT	-0.9793172
-1.1582787	NUM PUNCT	-0.95298827
-1.1982973	ADJ PUNCT	-0.9793172
-1.1923711	SCONJ PUNCT	-0.72814083
-1.2321173	VERB PUNCT	-1.0009118
-1.1606702	PART PUNCT	-0.73371446
-1.2028608	ADV PUNCT	-0.9827101
-1.1745608	AUX PUNCT	-0.71362555
-1.1599522	PRON PUNCT	-0.8538104
-1.0103666	INTJ PUNCT	-0.711193
-1.0769117	X PUNCT	-0.61373264
-1.458733	SYM PUNCT	-0.33788693
-1.78508	<s> NUM	-1.9194967
-1.2107264	ADP NUM	-0.9093101
-1.2060959	DET NUM	-0.77731055
-1.2604744	PROPN NUM	-0.8669676
-1.2521353	CCONJ NUM	-0.6252196
-1.2487695	NOUN NUM	-0.7759473
-1.2555387	PUNCT NUM	-0.8325793
-1.2094626	NUM NUM	-0.8061678
-1.2231356	ADJ NUM	-0.6925368
-1.1076896	SCONJ NUM	-0.66840446
-1.2321173	VERB NUM	-0.8498453
-1.2228645	PART NUM	-0.5858877
-1.2276992	ADV NUM	-0.76152086
-1.3788505	AUX NUM	-0.57033056
-1.3739921	PRON NUM	-0.51818335
-1.542485	INTJ NUM	-0.46729827
-1.4453199	X NUM	-0.3706445
-0.8029497	SYM NUM	-0.78315324
-1.3245302	<s> ADJ	-2.3976884
-1.2107264	ADP ADJ	-0.9093545
-1.1797504	DET ADJ	-0.9024122
-1.2604744	PROPN ADJ	-0.7577088
-1.1941029	CCONJ ADJ	-0.78618884
-1.2487695	NOUN ADJ	-0.8694422
-1.2555387	PUNCT ADJ	-0.8469349
-1.2094626	NUM ADJ	-0.79847014
-1.1982973	ADJ ADJ	-0.8298615
-1.1622716	SCONJ ADJ	-0.78897464
-1.2321173	VERB ADJ	-0.93668157
-1.1326226	PART ADJ	-0.8106959
-1.2028608	ADV ADJ	-0.9480568
-1.2325932	AUX ADJ	-0.77369034
-1.1599522	PRON ADJ	-0.782292
-1.1617452	INTJ ADJ	-0.45571828
-1.1439124	X ADJ	-0.54783106
-1.0391546	SYM ADJ	-0.48362976
-1.6010759	<s> SCONJ	-2.1315336
-1.2675407	ADP SCONJ	-0.6804228
-1.4140239	DET SCONJ	-0.439924
-1.262646	PROPN SCONJ	-0.6786657
-1.2245716	CCONJ SCONJ	-0.6546324
-1.2757434	NOUN SCONJ	-0.8961491
-1.2576741	PUNCT SCONJ	-0.89887804
-1.3024997	NUM SCONJ	-0.5151846
-1.225271	ADJ SCONJ	-0.8334303
-1.1948793	SCONJ SCONJ	-0.6617825
-1.2590911	VERB SCONJ	-0.9092049
-1.2987843	PART SCONJ	-0.58507586
-1.2845135	ADV SCONJ	-0.84748346
-1.3026229	AUX SCONJ	-0.656468
-1.3391984	PRON SCONJ	-0.53021336
-1.5497996	INTJ SCONJ	-0.39970973
-1.7593834	X SCONJ	-0.33788693
-1.3601441	<s> VERB	-2.3102639
-1.2107264	ADP VERB	-0.92712563
-1.1797504	DET VERB	-0.946347
-1.2356751	PROPN VERB	-0.9827101
-1.142919	CCONJ VERB	-0.8854023
-1.2487695	NOUN VERB	-1.0230261
-1.2555387	PUNCT VERB	-0.96194315
-1.2094626	NUM VERB	-0.87616646
-1.1982973	ADJ VERB	-0.86273575
-1.1622716	SCONJ VERB	-0.7966157
-1.2321173	VERB VERB	-0.8962803
-1.0814387	PART VERB	-0.938265
-1.2028608	ADV VERB	-0.9475254
-1.1233768	AUX VERB	-0.9511749
-1.1599522	PRON VERB	-0.9793172
-1.0947444	INTJ VERB	-0.6369453
-1.0469269	X VERB	-0.54389465
-1.0391546	SYM VERB	-0.36961567
-2.242466	<s> PART	-1.6011266
-1.2651196	ADP PART	-0.55873543
-1.2963378	DET PART	-0.54044193
-1.2356751	PROPN PART	-0.8745327
-1.2221504	CCONJ PART	-0.6567366
-1.273608	NOUN PART	-0.84059525
-1.2555387	PUNCT PART	-0.7625901
-1.2375102	NUM PART	-0.59843534
-1.1982973	ADJ PART	-0.7069997
-1.224713	SCONJ PART	-0.6347103
-1.2321173	VERB PART	-0.8485271
-1.190655	PART PART	-0.7121723
-1.2540448	ADV PART	-0.7436516
-1.1745608	AUX PART	-0.775124
-1.2391838	PRON PART	-0.6349531
-1.542485	INTJ PART	-0.38662106
-1.3782651	X PART	-0.34086356
-1.7984097	SYM PART	-0.33788693
-1.0831132	<s> ADV	-2.6049807
-1.237072	ADP ADV	-0.8553755
-1.1797504	DET ADV	-0.8233928
-1.2356751	PROPN ADV	-0.8799287
-1.2221504	CCONJ ADV	-0.8295262
-1.2487695	NOUN ADV	-0.9475254
-1.2307004	PUNCT ADV	-0.96274674
-1.2094626	NUM ADV	-0.7266642
-1.2775288	ADJ ADV	-0.83252764
-1.1622716	SCONJ ADV	-0.7902578
-1.2321173	VERB ADV	-0.94037473
-1.106277	PART ADV	-0.83975315
-1.2276992	ADV ADV	-0.9167873
-1.1233768	AUX ADV	-0.8110813
-1.2111362	PRON ADV	-0.79317445
-1.1617452	INTJ ADV	-0.39316693
-1.2689769	X ADV	-0.40949714
-1.2704875	SYM ADV	-0.35549882
-1.963386	<s> AUX	-1.8338084
-1.2951043	ADP AUX	-0.5698818
-1.1797504	DET AUX	-0.8362232
-1.2356751	PROPN AUX	-0.91667634
-1.2521353	CCONJ AUX	-0.6993321
-1.2487695	NOUN AUX	-0.92623365
-1.2307004	PUNCT AUX	-0.8756666
-1.2375102	NUM AUX	-0.7362611
-1.2494812	ADJ AUX	-0.8008094
-1.2976643	SCONJ AUX	-0.4875894
-1.2833012	VERB AUX	-0.81119823
-1.106277	PART AUX	-0.6950472
-1.2540448	ADV AUX	-0.8565721
-1.1482152	AUX AUX	-0.678956
-1.1599522	PRON AUX	-0.9225733
-1.3380251	INTJ AUX	-0.44864285
-1.3782651	X AUX	-0.33166164
-1.458733	SYM AUX	-0.32122087
-0.82182384	<s> PRON	-2.8872125
-1.2107264	ADP PRON	-0.95399654
-1.1797504	DET PRON	-0.71938205
-1.2356751	PROPN PRON	-0.76264
-1.1677573	CCONJ PRON	-0.76236045
-1.2487695	NOUN PRON	-0.84414804
-1.2555387	PUNCT PRON	-0.92714244
-1.267495	NUM PRON	-0.5594673
-1.2775288	ADJ PRON	-0.7157337
-1.1076896	SCONJ PRON	-0.8518998
-1.2321173	VERB PRON	-0.9699852
-1.2576556	PART PRON	-0.5809243
-1.2276992	ADV PRON	-0.82369566
-1.2026083	AUX PRON	-0.74711597
-1.2391838	PRON PRON	-0.7119342
-1.1269541	INTJ PRON	-0.5738028
-1.4453199	X PRON	-0.33110008
-1.458733	SYM PRON	-0.35427192
-2.1254647	<s> INTJ	-1.5836142
-1.4871695	ADP INTJ	-0.36888865
-1.5654819	DET INTJ	-0.33042717
-1.4492917	PROPN INTJ	-0.44755784
-1.3569587	CCONJ INTJ	-0.45243335
-1.2999536	NOUN INTJ	-0.6220546
-1.2555387	PUNCT INTJ	-0.6981293
-1.9376891	NUM INTJ	-0.36440808
-1.4995787	ADJ INTJ	-0.42112523
-1.8689384	SCONJ INTJ	-0.3830336
-1.3735431	VERB INTJ	-0.5458852
-1.7355322	PART INTJ	-0.3712994
-1.312077	ADV INTJ	-0.47769547
-1.3788505	AUX INTJ	-0.3942852
-1.415426	PRON INTJ	-0.42771852
-1.2410018	INTJ INTJ	-0.5121089
-1.3782651	X INTJ	-0.40295488
-1.7984097	SYM INTJ	-0.33788693
-2.562235	<s> X	-1.3183285
-1.362105	ADP X	-0.4976343
-1.3311291	DET X	-0.505991
-1.3447014	PROPN X	-0.6169825
-1.6998757	CCONJ X	-0.41974622
-1.2487695	NOUN X	-0.68979764
-1.2555387	PUNCT X	-0.64625007
-1.7152355	NUM X	-0.34123707
-1.5507942	ADJ X	-0.5015033
-2.0499103	SCONJ X	-0.33788693
-1.3735431	VERB X	-0.5370835
-1.860849	PART X	-0.3598739
-1.4169006	ADV X	-0.4434798
-1.6010013	AUX X	-0.31973702
-1.6375767	PRON X	-0.3566639
-1.3380251	INTJ X	-0.3420139
-1.0188793	X X	-0.66325533
-1.5961757	SYM X	-0.3830336
-2.8020859	<s> SYM	-1.4141822
-1.2651196	ADP SYM	-0.71083075
-1.3689519	DET SYM	-0.5738697
-1.2604744	PROPN SYM	-0.7027808
-1.2521353	CCONJ SYM	-0.65075636
-1.273608	NOUN SYM	-0.79723126
-1.3721262	PUNCT SYM	-0.6729952
-1.2094626	NUM SYM	-0.6097418
-1.3075136	ADJ SYM	-0.7433519
-1.8689384	SCONJ SYM	-0.31796306
-1.3113488	VERB SYM	-0.77118605
-1.6383954	PART SYM	-0.48921293
-1.3790778	ADV SYM	-0.545216
-1.5339466	AUX SYM	-0.36587748
-1.4612339	PRON SYM	-0.4020808
-1.6396217	INTJ SYM	-0.33788693
-1.7471058	X SYM	-0.3712994
-1.5961757	SYM SYM	-0.3712994
-2.6723816	PROPN SPACE	-0.33788693

\3-grams:
-1.8588328	ADP ADP </s>	0
-1.9624445	PROPN ADP </s>	0
-1.7306768	CCONJ ADP </s>	0
-1.4350805	NOUN ADP </s>	0
-1.9903303	PUNCT ADP </s>	0
-2.0745502	NUM ADP </s>	0
-1.9032869	ADJ ADP </s>	0
-1.4935089	VERB ADP </s>	0
-1.8970745	ADV ADP </s>	0
-1.9724998	PRON ADP </s>	0
-1.7338367	ADP DET </s>	0
-2.146653	CCONJ DET </s>	0
-2.2839015	PUNCT DET </s>	0
-1.737821	VERB DET </s>	0
-1.8582269	PRON DET </s>	0
-2.38252	<s> PROPN </s>	0
-1.2059541	ADP PROPN </s>	0
-1.3565193	DET PROPN </s>	0
-1.1762214	PROPN PROPN </s>	0
-1.6556363	CCONJ PROPN </s>	0
-1.2449433	NOUN PROPN </s>	0
-1.3672702	PUNCT PROPN </s>	0
-1.5487936	NUM PROPN </s>	0
-1.4195611	ADJ PROPN </s>	0
-1.5857923	SCONJ PROPN </s>	0
-1.226146	VERB PROPN </s>	0
-1.4905124	PART PROPN </s>	0
-1.5811173	ADV PROPN </s>	0
-1.6472604	AUX PROPN </s>	0
-1.4105812	PRON PROPN </s>	0
-1.3519237	INTJ PROPN </s>	0
-1.3805927	X PROPN </s>	0
-1.2080339	SYM PROPN </s>	0
-3.2680624	<s> CCONJ </s>	0
-2.2064285	PROPN CCONJ </s>	0
-1.723484	NOUN CCONJ </s>	0
-1.8207268	PUNCT CCONJ </s>	0
-2.152101	ADJ CCONJ </s>	0
-2.1643543	VERB CCONJ </s>	0
-2.068221	ADV CCONJ </s>	0
-2.1002212	<s> NOUN </s>	0
-1.2196616	ADP NOUN </s>	0
-1.268367	DET NOUN </s>	0
-1.2333953	PROPN NOUN </s>	0
-1.4944782	CCONJ NOUN </s>	0
-1.2360247	NOUN NOUN </s>	0
-1.2968377	PUNCT NOUN </s>	0
-1.2695918	NUM NOUN </s>	0
-1.2082484	ADJ NOUN </s>	0
-1.7193393	SCONJ NOUN </s>	0
-1.2450662	VERB NOUN </s>	0
-1.328717	PART NOUN </s>	0
-1.5583959	ADV NOUN </s>	0
-1.7151402	AUX NOUN </s>	0
-1.3215498	PRON NOUN </s>	0
-1.6118525	INTJ NOUN </s>	0
-1.1834283	X NOUN </s>	0
-1.0803571	SYM NOUN </s>	0
-1.8035295	<s> PUNCT </s>	0
-1.1535022	ADP PUNCT </s>	0
-1.1124805	DET PUNCT </s>	0
-1.2176816	PROPN PUNCT </s>	0
-1.2687241	CCONJ PUNCT </s>	0
-1.2263678	NOUN PUNCT </s>	0
-1.1763006	PUNCT PUNCT </s>	0
-1.1763138	NUM PUNCT </s>	0
-1.2026427	ADJ PUNCT </s>	0
-1.1666373	SCONJ PUNCT </s>	0
-1.17306	VERB PUNCT </s>	0
-0.981748	PART PUNCT </s>	0
-1.2060356	ADV PUNCT </s>	0
-1.2242994	AUX PUNCT </s>	0
-1.0771358	PRON PUNCT </s>	0
-0.9750953	INTJ PUNCT </s>	0
-0.9898524	X PUNCT </s>	0
-0.9418612	<s> NUM </s>	0
-1.5397989	ADP NUM </s>	0
-1.8839871	DET NUM </s>	0
-1.1715016	PROPN NUM </s>	0
-1.5881035	CCONJ NUM </s>	0
-1.2002912	NOUN NUM </s>	0
-1.4568517	PUNCT NUM </s>	0
-1.5771208	NUM NUM </s>	0
-1.7971909	ADJ NUM </s>	0
-1.7793117	SCONJ NUM </s>	0
-1.5703142	VERB NUM </s>	0
-1.875074	ADV NUM </s>	0
-0.80096304	X NUM </s>	0
-1.2929446	SYM NUM </s>	0
-2.5554445	<s> ADJ </s>	0
-1.6112388	ADP ADJ </s>	0
-1.8317169	DET ADJ </s>	0
-1.5132046	PROPN ADJ </s>	0
-1.7358028	CCONJ ADJ </s>	0
-1.4450238	NOUN ADJ </s>	0
-1.7819191	PUNCT ADJ </s>	0
-1.6365155	ADJ ADJ </s>	0
-1.8371873	SCONJ ADJ </s>	0
-1.4939494	VERB ADJ </s>	0
-1.7440755	PART ADJ </s>	0
-1.4317045	ADV ADJ </s>	0
-1.7233043	AUX ADJ </s>	0
-1.6915877	PRON ADJ </s>	0
-1.3962549	INTJ ADJ </s>	0
-1.512505	X ADJ </s>	0
-1.174784	SYM ADJ </s>	0
-1.9660455	ADP SCONJ </s>	0
-2.2216237	NOUN SCONJ </s>	0
-2.0024908	PUNCT SCONJ </s>	0
-2.169352	ADJ SCONJ </s>	0
-1.4355069	VERB SCONJ </s>	0
-2.4896777	<s> VERB </s>	0
-1.7120438	ADP VERB </s>	0
-1.9086093	DET VERB </s>	0
-1.4521292	PROPN VERB </s>	0
-1.3853937	CCONJ VERB </s>	0
-1.3018283	NOUN VERB </s>	0
-1.4820716	PUNCT VERB </s>	0
-1.8093506	NUM VERB </s>	0
-1.7848079	ADJ VERB </s>	0
-1.7414035	SCONJ VERB </s>	0
-1.8212386	VERB VERB </s>	0
-1.3211793	PART VERB </s>	0
-1.3715419	ADV VERB </s>	0
-1.420594	AUX VERB </s>	0
-1.4033337	PRON VERB </s>	0
-1.5562885	INTJ VERB </s>	0
-1.4579	X VERB </s>	0
-1.1926383	SYM VERB </s>	0
-1.3818797	PROPN PART </s>	0
-1.7405578	CCONJ PART </s>	0
-1.4999907	NOUN PART </s>	0
-1.8258777	PUNCT PART </s>	0
-2.127132	VERB PART </s>	0
-2.0683577	AUX PART </s>	0
-3.159761	<s> ADV </s>	0
-1.786856	ADP ADV </s>	0
-1.917062	DET ADV </s>	0
-1.6656926	PROPN ADV </s>	0
-1.9376407	CCONJ ADV </s>	0
-1.374903	NOUN ADV </s>	0
-1.9534103	PUNCT ADV </s>	0
-1.8173788	NUM ADV </s>	0
-1.7541426	ADJ ADV </s>	0
-1.885453	SCONJ ADV </s>	0
-1.3578769	VERB ADV </s>	0
-1.4316635	ADV ADV </s>	0
-1.6217244	AUX ADV </s>	0
-1.7699252	PRON ADV </s>	0
-1.2639924	INTJ ADV </s>	0
-1.0730371	SYM ADV </s>	0
-1.691859	DET AUX </s>	0
-2.2054057	PROPN AUX </s>	0
-1.8235922	NOUN AUX </s>	0
-2.1520083	PUNCT AUX </s>	0
-1.994336	NUM AUX </s>	0
-2.1295407	ADV AUX </s>	0
-1.8149345	PRON AUX </s>	0
-3.8812528	<s> PRON </s>	0
-1.4098806	ADP PRON </s>	0
-1.7045867	PROPN PRON </s>	0
-1.7088022	CCONJ PRON </s>	0
-1.622176	NOUN PRON </s>	0
-1.9144071	PUNCT PRON </s>	0
-1.5806619	NUM PRON </s>	0
-1.9800773	SCONJ PRON </s>	0
-1.4886277	VERB PRON </s>	0
-1.6757457	PART PRON </s>	0
-1.8122953	ADV PRON </s>	0
-1.7454212	AUX PRON </s>	0
-1.0479763	SYM PRON </s>	0
-2.241073	<s> INTJ </s>	0
-1.5424595	NOUN INTJ </s>	0
-1.545049	PUNCT INTJ </s>	0
-1.5374147	VERB INTJ </s>	0
-1.6471406	INTJ INTJ </s>	0
-0.83745325	<s> X </s>	0
-0.951025	ADP X </s>	0
-1.3705112	NOUN X </s>	0
-1.2858677	PUNCT X </s>	0
-1.569184	ADV X </s>	0
-1.6850882	NUM SYM </s>	0
-1.6694046	<s> ADP ADP	-1.28365
-1.3332136	ADP ADP ADP	-0.6273307
-1.2952567	DET ADP ADP	-0.3232282
-1.1101493	PROPN ADP ADP	-1.0354133
-1.2563955	CCONJ ADP ADP	-0.66020375
-1.2031653	NOUN ADP ADP	-1.6645753
-1.1696484	PUNCT ADP ADP	-1.2856716
-1.3425803	NUM ADP ADP	-0.43411475
-1.2088537	ADJ ADP ADP	-0.8246137
-1.1404872	SCONJ ADP ADP	-0.5006199
-1.2131494	VERB ADP ADP	-2.0990965
-1.341489	PART ADP ADP	-0.29560438
-1.1029482	ADV ADP ADP	-1.0737507
-1.1781529	AUX ADP ADP	-0.37493062
-1.1384116	PRON ADP ADP	-0.904136
-1.4000607	INTJ ADP ADP	-0.28811333
-1.2683446	X ADP ADP	-0.28811333
-2.000172	<s> DET ADP	-1.339658
-1.1570725	ADP DET ADP	-1.5710044
-1.1219865	DET DET ADP	-0.70432335
-1.3186452	PROPN DET ADP	-0.45181572
-1.1372803	CCONJ DET ADP	-1.1101565
-1.1526264	NOUN DET ADP	-0.79024476
-1.1369666	PUNCT DET ADP	-1.2628458
-1.2326939	NUM DET ADP	-0.50535595
-1.1226394	ADJ DET ADP	-0.529872
-1.1464375	SCONJ DET ADP	-1.1443424
-1.161057	VERB DET ADP	-1.5376694
-1.1106511	PART DET ADP	-0.7345489
-1.1095356	ADV DET ADP	-0.9318877
-1.0756824	AUX DET ADP	-1.1115023
-1.3020422	PRON DET ADP	-0.5829879
-1.4154766	INTJ DET ADP	-0.28811333
-1.6056066	<s> PROPN ADP	-1.5029328
-1.1778378	ADP PROPN ADP	-2.2544267
-1.134861	DET PROPN ADP	-2.1286113
-1.1760452	PROPN PROPN ADP	-2.4951115
-1.0869752	CCONJ PROPN ADP	-1.4939747
-1.1780856	NOUN PROPN ADP	-1.3774242
-1.1381917	PUNCT PROPN ADP	-1.7649391
-1.0367616	NUM PROPN ADP	-1.006182
-1.1442198	ADJ PROPN ADP	-1.5615358
-1.1311162	SCONJ PROPN ADP	-0.74320316
-1.1417557	VERB PROPN ADP	-1.7703038
-1.1204593	PART PROPN ADP	-1.4019268
-1.131371	ADV PROPN ADP	-0.672371
-1.1449246	AUX PROPN ADP	-0.6377052
-1.0609636	PRON PROPN ADP	-0.87949646
-1.0342727	INTJ PROPN ADP	-0.40078136
-1.1368846	X PROPN ADP	-0.4840004
-1.2076272	SYM PROPN ADP	-0.71757853
-1.0224142	<s> CCONJ ADP	-1.3820244
-0.85625863	ADP CCONJ ADP	-1.0335399
-1.191255	DET CCONJ ADP	-0.38810492
-1.2357489	PROPN CCONJ ADP	-1.1798716
-1.1038668	CCONJ CCONJ ADP	-0.29404515
-1.230796	NOUN CCONJ ADP	-1.6059909
-1.1787453	PUNCT CCONJ ADP	-1.6730719
-1.3615096	NUM CCONJ ADP	-0.5155971
-1.1857418	ADJ CCONJ ADP	-0.7581874
-1.1547534	VERB CCONJ ADP	-0.8539283
-1.2564701	PART CCONJ ADP	-0.28811333
-1.0560467	ADV CCONJ ADP	-0.86514723
-1.3218632	AUX CCONJ ADP	-0.30005908
-1.391317	PRON CCONJ ADP	-0.63617104
-1.0441129	INTJ CCONJ ADP	-0.28811333
-1.3108118	X CCONJ ADP	-0.28811333
-0.5809108	<s> NOUN ADP	-2.1373494
-1.1914715	ADP NOUN ADP	-2.6708484
-1.1591604	DET NOUN ADP	-3.2186456
-1.1789119	PROPN NOUN ADP	-2.0722635
-1.073878	CCONJ NOUN ADP	-2.2494347
-1.2110546	NOUN NOUN ADP	-2.675665
-1.1455559	PUNCT NOUN ADP	-2.2132952
-1.1849651	NUM NOUN ADP	-2.273921
-1.20808	ADJ NOUN ADP	-3.0759625
-0.98268145	SCONJ NOUN ADP	-1.4484824
-1.1657909	VERB NOUN ADP	-2.654303
-0.99104697	PART NOUN ADP	-1.9572991
-1.0516207	ADV NOUN ADP	-1.5100907
-0.9845521	AUX NOUN ADP	-1.6553191
-1.1174914	PRON NOUN ADP	-2.3072114
-1.144386	INTJ NOUN ADP	-0.5936477
-1.0525568	X NOUN ADP	-0.6433774
-1.0337937	SYM NOUN ADP	-0.7510781
-1.2072893	<s> PUNCT ADP	-1.215313
-1.1532588	ADP PUNCT ADP	-0.9722975
-1.142447	DET PUNCT ADP	-0.8690772
-1.2423308	PROPN PUNCT ADP	-2.0321562
-1.0008951	CCONJ PUNCT ADP	-1.0048519
-1.251017	NOUN PUNCT ADP	-2.350296
-1.2304753	PUNCT PUNCT ADP	-1.4516853
-1.2041464	NUM PUNCT ADP	-1.4010521
-1.2304753	ADJ PUNCT ADP	-1.4503534
-1.0397116	SCONJ PUNCT ADP	-0.8758036
-1.25207	VERB PUNCT ADP	-1.6416109
-1.2274601	PART PUNCT ADP	-0.38867345
-1.2338682	ADV PUNCT ADP	-1.670067
-1.1724122	AUX PUNCT ADP	-0.89021254
-1.1349336	PRON PUNCT ADP	-1.0794097
-1.1895473	INTJ PUNCT ADP	-0.79214096
-1.5580851	X PUNCT ADP	-0.3629919
-0.730814	<s> NUM ADP	-1.577922
-1.0991868	ADP NUM ADP	-1.7041352
-1.080757	DET NUM ADP	-0.9958563
-1.0648205	PROPN NUM ADP	-1.3698735
-0.92866606	CCONJ NUM ADP	-1.1209667
-0.96572006	NOUN NUM ADP	-1.0930389
-1.0430224	PUNCT NUM ADP	-1.5162668
-0.9987846	NUM NUM ADP	-1.1148313
-1.078097	ADJ NUM ADP	-0.7889615
-0.9458971	SCONJ NUM ADP	-1.0155346
-1.0781932	VERB NUM ADP	-1.525571
-0.99752986	PART NUM ADP	-0.4190683
-1.0466076	ADV NUM ADP	-1.0581018
-0.9452348	AUX NUM ADP	-1.4998448
-1.2651411	PRON NUM ADP	-0.48955965
-1.0459934	INTJ NUM ADP	-0.28811333
-1.0406297	SYM NUM ADP	-1.0118486
-1.1146688	<s> ADJ ADP	-1.4710181
-1.1620986	ADP ADJ ADP	-1.4899011
-1.1668854	DET ADJ ADP	-1.5127115
-0.9832891	PROPN ADJ ADP	-0.8385495
-1.070925	CCONJ ADJ ADP	-1.3612058
-1.0609276	NOUN ADJ ADP	-1.8483753
-1.1216162	PUNCT ADJ ADP	-1.6453832
-1.0043964	NUM ADJ ADP	-0.5057409
-1.1604456	ADJ ADJ ADP	-0.8390089
-0.978727	SCONJ ADJ ADP	-1.2374697
-1.1331007	VERB ADJ ADP	-2.080593
-1.1038113	PART ADJ ADP	-1.2668186
-1.1549265	ADV ADJ ADP	-1.9882655
-1.023596	AUX ADJ ADP	-1.7853835
-1.078456	PRON ADJ ADP	-1.2886399
-1.1176977	INTJ ADJ ADP	-0.29057682
-1.2458923	X ADJ ADP	-0.29119492
-1.4236956	SYM ADJ ADP	-0.28811333
-1.3998488	<s> SCONJ ADP	-1.0293155
-1.1763629	ADP SCONJ ADP	-0.6051064
-1.0822403	DET SCONJ ADP	-0.29604056
-0.96276474	PROPN SCONJ ADP	-0.8372453
-1.0319718	CCONJ SCONJ ADP	-0.817428
-1.0834969	NOUN SCONJ ADP	-1.4639179
-1.0540448	PUNCT SCONJ ADP	-1.2076396
-0.6829507	NUM SCONJ ADP	-1.0911545
-1.1045251	ADJ SCONJ ADP	-0.9031775
-1.1226468	SCONJ SCONJ ADP	-0.44063908
-1.0999765	VERB SCONJ ADP	-1.6740991
-0.71803635	PART SCONJ ADP	-0.66505677
-1.0073249	ADV SCONJ ADP	-1.1163708
-1.0322926	AUX SCONJ ADP	-0.7918853
-1.2061231	PRON SCONJ ADP	-0.92275685
-0.77237415	X SCONJ ADP	-0.28811333
-0.36888292	<s> VERB ADP	-1.9723052
-1.1016012	ADP VERB ADP	-1.8639597
-1.1243964	DET VERB ADP	-1.8256884
-1.1774105	PROPN VERB ADP	-2.1980352
-1.0574983	CCONJ VERB ADP	-2.0526268
-1.1930178	NOUN VERB ADP	-2.660122
-1.1566435	PUNCT VERB ADP	-2.266212
-0.9989565	NUM VERB ADP	-1.0280083
-1.1103537	ADJ VERB ADP	-1.06179
-1.0324694	SCONJ VERB ADP	-1.1785634
-1.0908891	VERB VERB ADP	-1.6598859
-1.1082567	PART VERB ADP	-2.4215772
-1.1422257	ADV VERB ADP	-2.3682652
-1.1458753	AUX VERB ADP	-2.833463
-1.1740177	PRON VERB ADP	-2.3740377
-0.9442921	INTJ VERB ADP	-0.6865538
-0.9431853	X VERB ADP	-0.32814085
-0.9741899	SYM VERB ADP	-0.34319013
-1.6174031	<s> PART ADP	-0.48053238
-1.3743696	ADP PART ADP	-0.29404515
-1.2172698	DET PART ADP	-0.29604056
-1.2815512	PROPN PART ADP	-0.58164966
-1.1004378	CCONJ PART ADP	-0.87727463
-1.2108406	NOUN PART ADP	-0.6809799
-1.0405378	PUNCT PART ADP	-0.7772658
-1.611823	NUM PART ADP	-0.28811333
-1.3633235	ADJ PART ADP	-0.39901602
-1.2705898	SCONJ PART ADP	-0.37099507
-1.1392696	VERB PART ADP	-0.9629715
-1.1753837	ADV PART ADP	-0.5257918
-1.2312242	AUX PART ADP	-1.0369544
-1.4331286	PRON PART ADP	-0.29604056
-1.1543534	<s> ADV ADP	-1.591481
-1.1030527	ADP ADV ADP	-1.2304026
-1.1255183	DET ADV ADP	-0.6461432
-1.0750439	PROPN ADV ADP	-1.1135457
-1.2160498	CCONJ ADV ADP	-1.4534999
-1.1985353	NOUN ADV ADP	-1.8792745
-1.1752281	PUNCT ADV ADP	-1.7462758
-0.9815854	NUM ADV ADP	-0.4117955
-1.0960604	ADJ ADV ADP	-0.9939431
-1.1392473	SCONJ ADV ADP	-0.7141213
-1.1809483	VERB ADV ADP	-2.1357822
-1.1379867	PART ADV ADP	-1.170456
-1.1292688	ADV ADV ADP	-1.9386395
-1.1033846	AUX ADV ADP	-1.4024407
-1.1428007	PRON ADV ADP	-1.1265864
-1.204957	INTJ ADV ADP	-0.28811333
-2.695914	<s> AUX ADP	-0.28811333
-1.3916626	ADP AUX ADP	-0.29404515
-1.2463957	DET AUX ADP	-0.7854208
-1.1530782	PROPN AUX ADP	-1.3137962
-1.5390389	CCONJ AUX ADP	-0.4171657
-1.1598023	NOUN AUX ADP	-1.64431
-1.2352731	PUNCT AUX ADP	-0.9920416
-1.22201	NUM AUX ADP	-0.44246256
-1.343197	ADJ AUX ADP	-0.4056564
-1.2912884	VERB AUX ADP	-0.5426816
-1.2564646	ADV AUX ADP	-0.56970084
-1.1802907	PRON AUX ADP	-1.3779937
-1.278697	INTJ AUX ADP	-0.28811333
-0.9279298	SYM AUX ADP	-0.28811333
-2.3091626	<s> PRON ADP	-0.8810609
-1.144043	ADP PRON ADP	-1.5733489
-1.4065362	DET PRON ADP	-0.2901653
-1.0956919	PROPN PRON ADP	-0.37213454
-1.2902871	CCONJ PRON ADP	-0.6649737
-1.1379664	NOUN PRON ADP	-0.5492003
-1.1392514	PUNCT PRON ADP	-0.8986229
-1.2738092	NUM PRON ADP	-0.29404515
-1.2834972	ADJ PRON ADP	-0.3467569
-1.2390591	SCONJ PRON ADP	-0.6950934
-1.1448162	VERB PRON ADP	-2.087034
-1.1573778	PART PRON ADP	-0.35125694
-1.1427217	ADV PRON ADP	-0.55792356
-1.1689377	AUX PRON ADP	-0.6021475
-1.2898614	PRON PRON ADP	-0.373277
-1.5139699	INTJ PRON ADP	-0.28811333
-1.0988711	X PRON ADP	-0.28811333
-1.817542	<s> INTJ ADP	-0.2949717
-1.4859436	PROPN INTJ ADP	-0.28811333
-1.2497002	CCONJ INTJ ADP	-0.28811333
-1.6952752	NOUN INTJ ADP	-0.28811333
-1.2891098	PUNCT INTJ ADP	-0.43411475
-0.88972723	ADJ INTJ ADP	-0.29404515
-0.8408681	VERB INTJ ADP	-0.50886476
-1.2449957	AUX INTJ ADP	-0.28811333
-1.1456262	PRON INTJ ADP	-0.29222697
-1.7736242	<s> X ADP	-0.29604056
-1.2569788	ADP X ADP	-0.29404515
-1.4328692	DET X ADP	-0.28811333
-1.5801511	PROPN X ADP	-0.28811333
-1.1543428	CCONJ X ADP	-0.28811333
-1.2184933	NOUN X ADP	-0.41705364
-1.3979162	PUNCT X ADP	-0.29338202
-1.3050276	VERB X ADP	-0.29222697
-1.3970039	ADV X ADP	-0.28811333
-1.093295	AUX X ADP	-0.28811333
-1.2308205	X X ADP	-0.3590897
-1.4050987	ADP SYM ADP	-0.29285228
-1.5320632	PROPN SYM ADP	-0.4171657
-1.3539063	NUM SYM ADP	-0.29604056
-0.39016604	<s> ADP DET	-2.41517
-1.0000341	ADP ADP DET	-2.0746493
-0.93017864	DET ADP DET	-1.8148321
-1.0290532	PROPN ADP DET	-2.4176846
-0.9488175	CCONJ ADP DET	-1.8220369
-1.150181	NOUN ADP DET	-3.2815561
-1.0834013	PUNCT ADP DET	-2.3201046
-0.9450536	NUM ADP DET	-2.0601115
-1.0824314	ADJ ADP DET	-2.2852137
-0.9578376	SCONJ ADP DET	-1.8503131
-1.1601653	VERB ADP DET	-2.9860573
-0.81944543	PART ADP DET	-1.2232113
-1.0725775	ADV ADP DET	-2.2693028
-0.86534566	AUX ADP DET	-1.6483046
-0.9103768	PRON ADP DET	-1.9212044
-0.8532345	INTJ ADP DET	-0.45627582
-0.92484975	X ADP DET	-0.44653887
-0.69124013	SYM ADP DET	-0.29604056
-2.152723	<s> DET DET	-1.0412278
-1.1570725	ADP DET DET	-1.7057309
-1.3539732	DET DET DET	-0.529872
-1.4029856	PROPN DET DET	-0.48273697
-1.1834556	CCONJ DET DET	-0.8214184
-1.0544088	NOUN DET DET	-1.3243122
-1.203879	PUNCT DET DET	-1.1000903
-1.4830786	NUM DET DET	-0.2953429
-1.2805889	ADJ DET DET	-0.67522246
-1.1079042	SCONJ DET DET	-1.1043894
-1.161057	VERB DET DET	-1.4897913
-1.1106511	PART DET DET	-0.6151726
-1.0769199	ADV DET DET	-0.94905347
-1.1642871	AUX DET DET	-1.0075696
-1.3020422	PRON DET DET	-0.72529244
-1.296892	X DET DET	-0.28811333
-2.6728158	<s> PROPN DET	-0.6544287
-1.2382364	ADP PROPN DET	-1.4955236
-1.2725893	DET PROPN DET	-1.0007049
-1.2873904	PROPN PROPN DET	-1.4263046
-1.4380301	CCONJ PROPN DET	-0.694063
-1.3729478	NOUN PROPN DET	-0.66766846
-1.2916144	PUNCT PROPN DET	-0.8631884
-1.6560748	NUM PROPN DET	-0.3318463
-1.3248739	ADJ PROPN DET	-0.79762197
-1.4066348	SCONJ PROPN DET	-0.4324745
-1.2608533	VERB PROPN DET	-0.9773063
-1.5018376	PART PROPN DET	-0.4294976
-1.487158	ADV PROPN DET	-0.29205886
-1.2094349	AUX PROPN DET	-0.5257918
-1.5184934	PRON PROPN DET	-0.4190683
-1.3902667	X PROPN DET	-0.28811333
-1.5972657	SYM PROPN DET	-0.28811333
-0.71680635	<s> CCONJ DET	-1.6471171
-1.1000217	ADP CCONJ DET	-1.0555578
-0.93026346	DET CCONJ DET	-0.64034766
-1.0441102	PROPN CCONJ DET	-1.8844912
-1.0322298	CCONJ CCONJ DET	-0.29119492
-1.1133415	NOUN CCONJ DET	-2.2564662
-1.1186551	PUNCT CCONJ DET	-2.1317658
-0.98373884	NUM CCONJ DET	-0.9518837
-1.0782617	ADJ CCONJ DET	-1.2318074
-0.69272435	SCONJ CCONJ DET	-0.4057572
-1.1168735	VERB CCONJ DET	-1.3282018
-1.0410031	PART CCONJ DET	-0.557371
-1.090435	ADV CCONJ DET	-0.8434363
-1.0179156	AUX CCONJ DET	-0.7345489
-0.98022985	PRON CCONJ DET	-0.9347908
-0.9681625	INTJ CCONJ DET	-0.29604056
-1.2988373	X CCONJ DET	-0.28811333
-2.2018685	<s> NOUN DET	-0.89492023
-1.2194597	ADP NOUN DET	-1.743008
-1.2102454	DET NOUN DET	-2.2358422
-1.2952416	PROPN NOUN DET	-1.32015
-1.2866993	CCONJ NOUN DET	-1.3105652
-1.2358464	NOUN NOUN DET	-1.8357469
-1.2297542	PUNCT NOUN DET	-1.0662866
-1.2113216	NUM NOUN DET	-1.3202556
-1.2328719	ADJ NOUN DET	-2.15057
-1.5393976	SCONJ NOUN DET	-0.4447735
-1.1905828	VERB NOUN DET	-1.5072607
-1.3282275	PART NOUN DET	-0.90164995
-1.3531195	ADV NOUN DET	-0.44951355
-1.1784366	AUX NOUN DET	-0.70134467
-1.2799425	PRON NOUN DET	-1.1751136
-1.610543	INTJ NOUN DET	-0.28811333
-1.1830072	X NOUN DET	-0.3925144
-1.3392788	SYM NOUN DET	-0.33548847
-0.7765429	<s> PUNCT DET	-1.6321994
-1.0911069	ADP PUNCT DET	-1.3907068
-1.2098988	DET PUNCT DET	-0.99800587
-1.2175059	PROPN PUNCT DET	-2.4357762
-1.0891331	CCONJ PUNCT DET	-0.8302023
-1.2261921	NOUN PUNCT DET	-2.6063707
-1.2024449	PUNCT PUNCT DET	-1.8827798
-1.176116	NUM PUNCT DET	-1.7213761
-1.2304753	ADJ PUNCT DET	-1.4563073
-1.1198896	SCONJ PUNCT DET	-0.95682234
-1.25207	VERB PUNCT DET	-1.7961035
-1.1292021	PART PUNCT DET	-0.78753084
-1.2058378	ADV PUNCT DET	-2.0581682
-1.1724122	AUX PUNCT DET	-0.80192655
-1.1671205	PRON PUNCT DET	-1.2077845
-1.1372889	INTJ PUNCT DET	-0.9617765
-1.0770735	X PUNCT DET	-0.90154123
-2.4035692	<s> NUM DET	-0.41510403
-1.2714525	ADP NUM DET	-0.83713686
-1.448029	DET NUM DET	-0.29149303
-1.3510401	PROPN NUM DET	-0.7560754
-1.5363413	CCONJ NUM DET	-0.41579017
-1.7002339	NOUN NUM DET	-0.29205886
-1.3283708	PUNCT NUM DET	-0.5677827
-1.3881027	NUM NUM DET	-0.6185538
-1.7954165	ADJ NUM DET	-0.3571121
-1.349269	SCONJ NUM DET	-0.46728617
-1.3105191	VERB NUM DET	-0.6313296
-1.6849965	ADV NUM DET	-0.36975807
-1.4342101	AUX NUM DET	-0.33673555
-1.014151	SYM NUM DET	-0.93235964
-3.3481667	<s> ADJ DET	-0.29604056
-1.2836105	ADP ADJ DET	-0.8394314
-1.3310554	DET ADJ DET	-0.71493137
-1.7493787	PROPN ADJ DET	-0.28811333
-1.3316957	CCONJ ADJ DET	-0.5733377
-1.4080678	NOUN ADJ DET	-0.5194364
-1.445663	PUNCT ADJ DET	-0.5386424
-1.3587244	ADJ ADJ DET	-0.32747114
-1.2375607	VERB ADJ DET	-1.0153031
-1.3276172	PART ADJ DET	-0.55431795
-1.2312918	ADV ADJ DET	-1.0599424
-1.3909148	AUX ADJ DET	-0.7727256
-1.6018757	PRON ADJ DET	-0.45319527
-0.518984	<s> SCONJ DET	-1.7210972
-0.90516204	ADP SCONJ DET	-1.1871991
-0.70878005	DET SCONJ DET	-0.46904457
-0.879769	PROPN SCONJ DET	-1.2549133
-0.9301366	CCONJ SCONJ DET	-1.196077
-1.023235	NOUN SCONJ DET	-1.9064442
-1.0235195	PUNCT SCONJ DET	-1.687304
-0.91376257	NUM SCONJ DET	-0.66115403
-1.0059445	ADJ SCONJ DET	-1.6589664
-0.8471298	SCONJ SCONJ DET	-1.1837895
-1.043727	VERB SCONJ DET	-2.2511566
-0.7153266	PART SCONJ DET	-0.6891349
-0.97217834	ADV SCONJ DET	-1.4190061
-0.9304063	AUX SCONJ DET	-1.1801805
-0.9509417	PRON SCONJ DET	-0.9715325
-1.0057979	INTJ SCONJ DET	-0.28811333
-0.7669653	X SCONJ DET	-0.28811333
-0.7931088	<s> VERB DET	-1.714189
-1.1016012	ADP VERB DET	-2.1420252
-1.1243964	DET VERB DET	-1.9793924
-1.1527019	PROPN VERB DET	-2.3060663
-1.1118754	CCONJ VERB DET	-2.1353009
-1.1930178	NOUN VERB DET	-2.4098737
-1.1566435	PUNCT VERB DET	-2.2493613
-1.027468	NUM VERB DET	-1.0563812
-1.1103537	ADJ VERB DET	-1.1407411
-1.0324694	SCONJ VERB DET	-1.2796905
-1.0908891	VERB VERB DET	-1.6738383
-1.1591651	PART VERB DET	-2.684181
-1.1684254	ADV VERB DET	-2.3580918
-1.1458753	AUX VERB DET	-2.561449
-1.1493089	PRON VERB DET	-2.4088795
-1.1763471	INTJ VERB DET	-1.0005234
-1.0750718	X VERB DET	-0.5386424
-1.1315608	SYM VERB DET	-0.36975807
-1.1789964	<s> PART DET	-0.7247197
-1.3743696	ADP PART DET	-0.36975807
-1.2807435	DET PART DET	-0.30005908
-1.332737	PROPN PART DET	-0.73514473
-1.0028199	CCONJ PART DET	-0.85248524
-1.3074144	NOUN PART DET	-0.5814576
-1.0405378	PUNCT PART DET	-0.86351645
-1.4596982	NUM PART DET	-0.28811333
-1.7155441	ADJ PART DET	-0.28811333
-0.93866533	SCONJ PART DET	-0.5607465
-1.1010983	VERB PART DET	-1.1251535
-1.114778	ADV PART DET	-0.90573716
-1.0548743	AUX PART DET	-1.6102512
-1.2892094	PRON PART DET	-0.4171657
-1.0784969	<s> ADV DET	-1.6927911
-1.1355208	ADP ADV DET	-1.4565798
-1.2152833	DET ADV DET	-0.76895285
-1.2118052	PROPN ADV DET	-1.1154279
-1.174059	CCONJ ADV DET	-1.4865382
-1.1705142	NOUN ADV DET	-1.5135914
-1.1488433	PUNCT ADV DET	-1.7076441
-1.2241098	NUM ADV DET	-0.6345824
-1.2117845	ADJ ADV DET	-0.832538
-1.0580187	SCONJ ADV DET	-0.9611917
-1.1809483	VERB ADV DET	-1.8084401
-1.1806042	PART ADV DET	-1.2102057
-1.1873966	ADV ADV DET	-1.3318884
-1.1763885	AUX ADV DET	-1.6844819
-1.1428007	PRON ADV DET	-0.7591728
-1.2630569	INTJ ADV DET	-0.28811333
-0.8188566	<s> AUX DET	-1.1605608
-1.0361383	ADP AUX DET	-0.8015348
-1.045882	DET AUX DET	-1.6763034
-1.0631852	PROPN AUX DET	-1.8947723
-1.1190093	CCONJ AUX DET	-0.59442407
-1.1536237	NOUN AUX DET	-1.9751489
-1.0232334	PUNCT AUX DET	-1.5886359
-0.9740534	NUM AUX DET	-0.9720862
-1.1505966	ADJ AUX DET	-0.9439679
-1.3231568	SCONJ AUX DET	-0.28811333
-1.0428973	VERB AUX DET	-1.2094578
-1.6179212	PART AUX DET	-0.28811333
-1.0876461	ADV AUX DET	-1.728541
-1.3146791	AUX AUX DET	-0.2941296
-1.0905712	PRON AUX DET	-2.1365297
-1.2547934	INTJ AUX DET	-0.28811333
-2.0951064	<s> PRON DET	-1.0949879
-1.1801593	ADP PRON DET	-1.2677507
-1.3219134	DET PRON DET	-0.43670487
-1.8460587	PROPN PRON DET	-0.28811333
-1.1487595	CCONJ PRON DET	-0.82897043
-1.2380849	NOUN PRON DET	-0.73782706
-1.1474957	PUNCT PRON DET	-1.0870069
-1.023268	ADJ PRON DET	-0.41613364
-1.1226234	SCONJ PRON DET	-0.6333083
-1.1788692	VERB PRON DET	-1.6665056
-1.2869445	PART PRON DET	-0.50805
-1.1532955	ADV PRON DET	-0.8108802
-1.1823795	AUX PRON DET	-0.9927521
-1.3092487	PRON PRON DET	-0.6433774
-1.2818587	<s> INTJ DET	-0.78816634
-1.2840176	ADP INTJ DET	-0.28811333
-1.2470014	PROPN INTJ DET	-0.29604056
-1.1448939	CCONJ INTJ DET	-0.29404515
-1.4673095	NOUN INTJ DET	-0.29404515
-1.3395575	PUNCT INTJ DET	-0.29326499
-0.8604007	NUM INTJ DET	-0.28811333
-1.3041915	ADJ INTJ DET	-0.28811333
-0.68036896	SCONJ INTJ DET	-0.28811333
-1.391527	VERB INTJ DET	-0.28811333
-1.2530445	ADV INTJ DET	-0.28811333
-0.9491045	PRON INTJ DET	-0.29119492
-1.6568124	<s> X DET	-0.34962884
-1.3677447	ADP X DET	-0.36975807
-1.504373	DET X DET	-0.28811333
-1.5926794	NOUN X DET	-0.29285228
-1.4443535	PUNCT X DET	-0.46904457
-1.3890907	ADJ X DET	-0.28811333
-0.9546633	PART X DET	-0.28811333
-1.5293543	X X DET	-0.29604056
-1.6800237	ADP SYM DET	-0.28811333
-1.4644289	DET SYM DET	-0.28811333
-1.4800036	PROPN SYM DET	-0.28811333
-1.8059376	NOUN SYM DET	-0.28811333
-1.5566621	NUM SYM DET	-0.28811333
-0.7415025	<s> ADP PROPN	-1.962246
-0.97436666	ADP ADP PROPN	-1.4419731
-0.9905944	DET ADP PROPN	-1.0884235
-1.0310463	PROPN ADP PROPN	-2.581067
-1.0987635	CCONJ ADP PROPN	-1.1272581
-1.1522992	NOUN ADP PROPN	-2.9879842
-1.0855356	PUNCT ADP PROPN	-1.8899815
-1.0020363	NUM ADP PROPN	-1.4180428
-1.0847546	ADJ ADP PROPN	-1.768982
-0.99030954	SCONJ ADP PROPN	-1.0419769
-1.1622834	VERB ADP PROPN	-2.5605364
-0.95310307	PART ADP PROPN	-0.78238904
-1.0748377	ADV ADP PROPN	-1.7794832
-1.0172243	AUX ADP PROPN	-1.1033632
-0.9427777	PRON ADP PROPN	-1.2236972
-0.8568903	INTJ ADP PROPN	-0.5245447
-0.92882764	X ADP PROPN	-0.29057682
-0.92145693	<s> DET PROPN	-2.0656884
-1.097843	ADP DET PROPN	-2.7667575
-0.99947506	DET DET PROPN	-1.0827897
-0.87279963	PROPN DET PROPN	-1.157933
-1.0163794	CCONJ DET PROPN	-1.7349463
-1.0494454	NOUN DET PROPN	-1.4161866
-1.0477448	PUNCT DET PROPN	-2.118353
-1.1361108	NUM DET PROPN	-0.43411475
-1.1137137	ADJ DET PROPN	-0.38986334
-1.004548	SCONJ DET PROPN	-1.6665937
-1.0774536	VERB DET PROPN	-2.107194
-0.8988942	PART DET PROPN	-0.7631439
-1.0135772	ADV DET PROPN	-1.4017863
-0.9641734	AUX DET PROPN	-1.2748759
-1.0249541	PRON DET PROPN	-0.8718453
-1.200797	INTJ DET PROPN	-0.30005908
-0.9905027	X DET PROPN	-0.28811333
-0.94726384	SYM DET PROPN	-0.28811333
-0.3767326	<s> PROPN PROPN	-2.463086
-1.1492431	ADP PROPN PROPN	-2.720874
-1.0782795	DET PROPN PROPN	-2.6522124
-1.1738015	PROPN PROPN PROPN	-2.847249
-1.0113082	CCONJ PROPN PROPN	-2.0020974
-1.067168	NOUN PROPN PROPN	-2.1868315
-1.13578	PUNCT PROPN PROPN	-2.6981962
-1.0344946	NUM PROPN PROPN	-1.3831133
-1.0874262	ADJ PROPN PROPN	-1.9579628
-1.0221984	SCONJ PROPN PROPN	-1.4995273
-1.1394377	VERB PROPN PROPN	-2.032584
-0.98682714	PART PROPN PROPN	-1.7032021
-0.9928469	ADV PROPN PROPN	-1.3184688
-0.9612018	AUX PROPN PROPN	-1.2383236
-0.9525188	PRON PROPN PROPN	-1.2022319
-1.0288736	INTJ PROPN PROPN	-0.4015947
-1.0473175	X PROPN PROPN	-0.68211937
-1.1441895	SYM PROPN PROPN	-0.97099394
-0.24489892	SPACE PROPN PROPN	-0.28811333
-1.160839	<s> CCONJ PROPN	-1.2571723
-1.1637232	ADP CCONJ PROPN	-0.91284126
-1.0876179	DET CCONJ PROPN	-0.29326499
-1.0214198	PROPN CCONJ PROPN	-2.3073375
-1.0398047	CCONJ CCONJ PROPN	-0.29404515
-1.169379	NOUN CCONJ PROPN	-1.476784
-1.2102207	PUNCT CCONJ PROPN	-1.6168462
-1.1808555	NUM CCONJ PROPN	-0.7712508
-1.1130452	ADJ CCONJ PROPN	-0.8874593
-0.99196625	SCONJ CCONJ PROPN	-0.7181957
-1.1544776	VERB CCONJ PROPN	-0.63943654
-1.423479	PART CCONJ PROPN	-0.7103242
-1.2908722	ADV CCONJ PROPN	-0.48273697
-1.268939	AUX CCONJ PROPN	-0.28811333
-0.98360896	PRON CCONJ PROPN	-0.49650317
-1.3098012	X CCONJ PROPN	-0.28811333
-1.7626065	<s> NOUN PROPN	-1.0459199
-1.191282	ADP NOUN PROPN	-1.3472278
-1.183774	DET NOUN PROPN	-1.6551422
-1.1787338	PROPN NOUN PROPN	-1.6545669
-1.2346629	CCONJ NOUN PROPN	-1.2515609
-1.2108864	NOUN NOUN PROPN	-1.7228669
-1.2616525	PUNCT NOUN PROPN	-1.5440174
-1.1847912	NUM NOUN PROPN	-1.0170647
-1.2326937	ADJ NOUN PROPN	-1.8769146
-1.4383577	SCONJ NOUN PROPN	-0.41792572
-1.2446623	VERB NOUN PROPN	-1.1265111
-1.5048767	PART NOUN PROPN	-0.99580634
-1.2557261	ADV NOUN PROPN	-0.61631507
-1.2887866	AUX NOUN PROPN	-0.38810492
-1.3209443	PRON NOUN PROPN	-1.1775397
-1.2524605	INTJ NOUN PROPN	-0.29404515
-1.2661388	X NOUN PROPN	-0.36393523
-1.4377198	SYM NOUN PROPN	-0.53565574
-0.93296385	<s> PUNCT PROPN	-1.3952674
-1.1530155	ADP PUNCT PROPN	-1.4348439
-1.1422343	DET PUNCT PROPN	-1.473875
-1.2173302	PROPN PUNCT PROPN	-2.7124677
-1.0424831	CCONJ PUNCT PROPN	-1.0384517
-1.2260164	NOUN PUNCT PROPN	-2.6195087
-1.1759285	PUNCT PUNCT PROPN	-1.7895827
-1.2039355	NUM PUNCT PROPN	-1.5791037
-1.1759285	ADJ PUNCT PROPN	-1.3369383
-1.1659886	SCONJ PUNCT PROPN	-0.7082911
-1.2518591	VERB PUNCT PROPN	-1.5625606
-1.354161	PART PUNCT PROPN	-0.86514723
-1.1793214	ADV PUNCT PROPN	-1.6351297
-1.0844731	AUX PUNCT PROPN	-0.789722
-1.2807567	PRON PUNCT PROPN	-1.0130528
-1.2485572	INTJ PUNCT PROPN	-0.6899333
-1.0308132	X PUNCT PROPN	-0.76561826
-1.2785777	<s> NUM PROPN	-0.87874115
-1.1593084	ADP NUM PROPN	-1.3179034
-1.0105857	DET NUM PROPN	-1.2478882
-1.0672514	PROPN NUM PROPN	-1.0761375
-1.1989472	CCONJ NUM PROPN	-0.5772291
-1.1032354	NOUN NUM PROPN	-0.51091427
-1.045525	PUNCT NUM PROPN	-1.192524
-0.97093505	NUM NUM PROPN	-0.9601592
-1.035415	ADJ NUM PROPN	-0.5825511
-1.25256	SCONJ NUM PROPN	-0.64487445
-1.1769204	VERB NUM PROPN	-0.8524986
-1.266021	PART NUM PROPN	-0.49332565
-1.0875206	ADV NUM PROPN	-0.7065395
-1.2703142	AUX NUM PROPN	-0.4567194
-1.1194074	PRON NUM PROPN	-0.41016936
-1.2813499	SYM NUM PROPN	-0.60386527
-1.0048499	<s> ADJ PROPN	-1.4521236
-1.1043463	ADP ADJ PROPN	-1.6977015
-1.1093162	DET ADJ PROPN	-1.9788883
-0.98307496	PROPN ADJ PROPN	-0.9561253
-1.1958325	CCONJ ADJ PROPN	-1.1236309
-1.175561	NOUN ADJ PROPN	-0.9700422
-1.0642107	PUNCT ADJ PROPN	-1.5107732
-0.92910904	NUM ADJ PROPN	-0.7993716
-1.0644876	ADJ ADJ PROPN	-1.3552976
-0.9785298	SCONJ ADJ PROPN	-0.76525575
-1.1329005	VERB ADJ PROPN	-1.2041758
-1.1918472	PART ADJ PROPN	-1.0528572
-1.1845688	ADV ADJ PROPN	-1.1308781
-1.1833339	AUX ADJ PROPN	-0.63245904
-1.115904	PRON ADJ PROPN	-0.9569828
-1.1820183	INTJ ADJ PROPN	-0.28811333
-1.4963617	X ADJ PROPN	-0.28811333
-1.0023227	SYM ADJ PROPN	-0.29057682
-1.0385777	<s> SCONJ PROPN	-1.214622
-0.95391536	ADP SCONJ PROPN	-0.803594
-1.1535645	DET SCONJ PROPN	-0.29285228
-1.0650688	PROPN SCONJ PROPN	-0.76564246
-1.1647253	CCONJ SCONJ PROPN	-0.82467777
-1.0284139	NOUN SCONJ PROPN	-1.3888633
-1.0566841	PUNCT SCONJ PROPN	-1.1812704
-1.0108839	NUM SCONJ PROPN	-0.33029962
-1.0414805	ADJ SCONJ PROPN	-1.0096354
-0.89583755	SCONJ SCONJ PROPN	-0.7304593
-1.075085	VERB SCONJ PROPN	-1.7630582
-1.2515632	PART SCONJ PROPN	-0.29604056
-0.97732866	ADV SCONJ PROPN	-0.9022256
-0.9843724	AUX SCONJ PROPN	-0.7514541
-1.1129954	PRON SCONJ PROPN	-0.56102425
-1.2811129	<s> VERB PROPN	-1.1407872
-1.1296109	ADP VERB PROPN	-1.3502307
-1.1523814	DET VERB PROPN	-1.3625664
-1.1772261	PROPN VERB PROPN	-1.6285534
-1.2085786	CCONJ VERB PROPN	-1.090291
-1.2175419	NOUN VERB PROPN	-1.7161111
-1.156459	PUNCT VERB PROPN	-1.7678267
-1.1261045	NUM VERB PROPN	-0.5527128
-1.0801153	ADJ VERB PROPN	-0.6504522
-1.1059783	SCONJ VERB PROPN	-0.55955493
-1.180964	VERB VERB PROPN	-0.92167336
-1.1868383	PART VERB PROPN	-1.7382882
-1.1960987	ADV VERB PROPN	-1.4158332
-1.2295293	AUX VERB PROPN	-1.5469965
-1.2000213	PRON VERB PROPN	-1.5829626
-1.1053808	INTJ VERB PROPN	-0.3903041
-1.0038012	X VERB PROPN	-0.28987157
-1.1910726	SYM VERB PROPN	-0.29119492
-2.6393929	<s> PART PROPN	-0.28811333
-1.0077058	PROPN PART PROPN	-1.964542
-1.3149602	CCONJ PART PROPN	-0.5466736
-1.1354861	NOUN PART PROPN	-1.2068105
-1.5012078	PUNCT PART PROPN	-0.5203109
-1.1647334	NUM PART PROPN	-0.29604056
-1.6519214	SCONJ PART PROPN	-0.28811333
-1.4953008	VERB PART PROPN	-0.43828773
-1.7884092	ADV PART PROPN	-0.30005908
-1.2953631	AUX PART PROPN	-0.4626096
-1.661576	PRON PART PROPN	-0.28811333
-0.83423555	INTJ PART PROPN	-0.28811333
-1.0577048	X PART PROPN	-0.28811333
-1.5962944	<s> ADV PROPN	-1.175083
-1.296641	ADP ADV PROPN	-0.8115009
-1.3981732	DET ADV PROPN	-0.39641073
-1.2115345	PROPN ADV PROPN	-0.57853687
-1.2621979	CCONJ ADV PROPN	-0.8713294
-1.2604053	NOUN ADV PROPN	-1.0749763
-1.2331209	PUNCT ADV PROPN	-1.2270008
-1.1632235	NUM ADV PROPN	-0.65230465
-1.3695785	ADJ ADV PROPN	-0.3819158
-1.2990519	SCONJ ADV PROPN	-0.59381557
-1.2778378	VERB ADV PROPN	-1.1194861
-1.098951	PART ADV PROPN	-0.570336
-1.3336304	ADV ADV PROPN	-0.690497
-1.3153949	AUX ADV PROPN	-0.7141213
-1.5906239	PRON ADV PROPN	-0.29649165
-1.4332407	INTJ ADV PROPN	-0.28811333
-1.1144782	<s> AUX PROPN	-0.8054208
-1.4459913	ADP AUX PROPN	-0.29604056
-1.4257042	DET AUX PROPN	-0.8348892
-1.2201452	PROPN AUX PROPN	-0.8997377
-1.5379932	CCONJ AUX PROPN	-0.4447735
-1.256247	NOUN AUX PROPN	-1.1668373
-1.1928893	PUNCT AUX PROPN	-0.8365543
-1.4781299	NUM AUX PROPN	-0.49923307
-1.3426692	ADJ AUX PROPN	-0.3838404
-1.2304627	VERB AUX PROPN	-0.6242582
-1.167297	ADV AUX PROPN	-0.833359
-1.53747	AUX AUX PROPN	-0.28811333
-1.2469316	PRON AUX PROPN	-1.075434
-1.2776743	INTJ AUX PROPN	-0.28811333
-2.3608522	<s> PRON PROPN	-0.86872095
-1.1715753	ADP PRON PROPN	-1.4071653
-1.5937791	DET PRON PROPN	-0.2936638
-1.0953925	PROPN PRON PROPN	-0.57075846
-1.2324433	CCONJ PRON PROPN	-0.70940596
-1.3357077	NOUN PRON PROPN	-0.4608425
-1.2436496	PUNCT PRON PROPN	-0.8853477
-1.5131181	NUM PRON PROPN	-0.28811333
-1.282983	ADJ PRON PROPN	-0.29205886
-1.2387197	SCONJ PRON PROPN	-0.48501492
-1.198283	VERB PRON PROPN	-1.2375704
-1.3997302	PART PRON PROPN	-0.29205886
-1.2804095	ADV PRON PROPN	-0.45177966
-1.2191892	AUX PRON PROPN	-0.64792436
-1.3938798	PRON PRON PROPN	-0.29764348
-1.3259389	INTJ PRON PROPN	-0.4171657
-1.0148894	SYM PRON PROPN	-0.28811333
-1.3018829	<s> INTJ PROPN	-0.6226301
-0.8795059	ADP INTJ PROPN	-0.29106912
-0.9385981	PROPN INTJ PROPN	-0.46625656
-1.4050598	CCONJ INTJ PROPN	-0.28811333
-1.021774	NOUN INTJ PROPN	-0.29211485
-1.2014768	PUNCT INTJ PROPN	-0.46904457
-1.1131555	ADJ INTJ PROPN	-0.28811333
-1.4078664	VERB INTJ PROPN	-0.28811333
-1.0499433	ADV INTJ PROPN	-0.29404515
-1.1821182	PRON INTJ PROPN	-0.30005908
-1.4758086	INTJ INTJ PROPN	-0.28811333
-1.5167687	<s> X PROPN	-0.33925194
-0.95675355	ADP X PROPN	-0.39901602
-0.86483455	DET X PROPN	-0.29604056
-0.728196	PROPN X PROPN	-0.7762091
-1.0879396	CCONJ X PROPN	-0.28811333
-1.0090704	NOUN X PROPN	-0.4668446
-0.86367345	PUNCT X PROPN	-0.7531944
-0.9529097	NUM X PROPN	-0.28811333
-1.054028	ADJ X PROPN	-0.30005908
-0.23292619	SCONJ X PROPN	-0.28811333
-1.2337377	VERB X PROPN	-0.29285228
-0.878971	PART X PROPN	-0.28811333
-1.1453483	ADV X PROPN	-0.28811333
-1.0211505	AUX X PROPN	-0.28811333
-0.92235315	PRON X PROPN	-0.28811333
-0.98565793	X X PROPN	-0.49274957
-1.1429449	<s> SYM PROPN	-0.29319277
-0.5014533	ADP SYM PROPN	-1.0227869
-0.50364226	DET SYM PROPN	-0.67313087
-0.49266097	PROPN SYM PROPN	-1.3159832
-0.8250594	CCONJ SYM PROPN	-0.46574265
-0.7164707	NOUN SYM PROPN	-0.66746527
-0.5558401	PUNCT SYM PROPN	-0.9022256
-1.0648067	NUM SYM PROPN	-0.6329995
-0.6453521	ADJ SYM PROPN	-0.41579017
-0.73486125	SCONJ SYM PROPN	-0.28811333
-0.5727986	VERB SYM PROPN	-0.61399364
-0.84971017	PART SYM PROPN	-0.28811333
-0.6561042	ADV SYM PROPN	-0.29285228
-0.665633	AUX SYM PROPN	-0.38810492
-0.78630686	PRON SYM PROPN	-0.29604056
-0.6824332	INTJ SYM PROPN	-0.28811333
-0.69381756	X SYM PROPN	-0.28811333
-0.10583893	PROPN SPACE PROPN	-0.28811333
-3.6532469	<s> ADP CCONJ	-0.28811333
-1.7264905	ADP ADP CCONJ	-0.2903523
-1.4587762	DET ADP CCONJ	-0.2896514
-1.391675	PROPN ADP CCONJ	-0.4220229
-1.5238874	CCONJ ADP CCONJ	-0.5458493
-1.2665262	NOUN ADP CCONJ	-1.1806158
-1.5479251	PUNCT ADP CCONJ	-0.50125504
-1.9637679	NUM ADP CCONJ	-0.28811333
-1.3414775	ADJ ADP CCONJ	-0.5247575
-1.5759751	SCONJ ADP CCONJ	-0.28811333
-1.2765104	VERB ADP CCONJ	-1.2989306
-1.7419233	PART ADP CCONJ	-0.28811333
-1.4430664	ADV ADP CCONJ	-0.3672313
-1.6492783	AUX ADP CCONJ	-0.29106912
-1.6600819	PRON ADP CCONJ	-0.672371
-3.4107003	<s> DET CCONJ	-0.39901602
-1.2253944	ADP DET CCONJ	-0.6828889
-1.9174585	DET DET CCONJ	-0.28811333
-1.8821306	PROPN DET CCONJ	-0.28811333
-1.5607708	CCONJ DET CCONJ	-0.29604056
-1.9987916	NOUN DET CCONJ	-0.28811333
-1.8813554	PUNCT DET CCONJ	-0.29404515
-1.562416	NUM DET CCONJ	-0.28811333
-1.9624405	SCONJ DET CCONJ	-0.28811333
-1.3441893	VERB DET CCONJ	-0.5523268
-1.7590609	PART DET CCONJ	-0.28811333
-1.6542126	ADV DET CCONJ	-0.28811333
-1.6838335	AUX DET CCONJ	-0.29285228
-1.6449382	PRON DET CCONJ	-0.35917374
-1.7584404	<s> PROPN CCONJ	-1.418116
-1.1778378	ADP PROPN CCONJ	-2.2282233
-1.134861	DET PROPN CCONJ	-1.6839405
-1.152651	PROPN PROPN CCONJ	-2.3362017
-1.01423	CCONJ PROPN CCONJ	-1.2970839
-1.1203583	NOUN PROPN CCONJ	-1.1416392
-1.1643695	PUNCT PROPN CCONJ	-1.8495727
-1.1275953	NUM PROPN CCONJ	-0.77573305
-1.1442198	ADJ PROPN CCONJ	-1.1713794
-1.1311162	SCONJ PROPN CCONJ	-0.981087
-1.1680405	VERB PROPN CCONJ	-1.4455459
-1.050925	PART PROPN CCONJ	-1.1008967
-1.093126	ADV PROPN CCONJ	-0.894287
-1.0921265	AUX PROPN CCONJ	-0.6964797
-1.1493335	PRON PROPN CCONJ	-0.8613025
-1.2946057	INTJ PROPN CCONJ	-0.35917374
-1.3797064	X PROPN CCONJ	-0.29295328
-1.0968268	SYM PROPN CCONJ	-0.6504522
-3.491893	<s> CCONJ CCONJ	-0.28811333
-2.1711266	PROPN CCONJ CCONJ	-0.29764348
-1.4847786	NOUN CCONJ CCONJ	-0.2941296
-1.6922792	PUNCT CCONJ CCONJ	-0.29579124
-2.0487766	NUM CCONJ CCONJ	-0.28811333
-1.9335654	ADJ CCONJ CCONJ	-0.28811333
-1.9436591	VERB CCONJ CCONJ	-0.30005908
-2.0332348	ADV CCONJ CCONJ	-0.28811333
-1.4958285	<s> NOUN CCONJ	-1.4243069
-1.1914715	ADP NOUN CCONJ	-2.3473299
-1.2382336	DET NOUN CCONJ	-2.4039667
-1.1789119	PROPN NOUN CCONJ	-1.5644583
-1.1887649	CCONJ NOUN CCONJ	-1.3796597
-1.2621397	NOUN NOUN CCONJ	-2.2144563
-1.171849	PUNCT NOUN CCONJ	-2.0915315
-1.2113216	NUM NOUN CCONJ	-1.5854316
-1.20808	ADJ NOUN CCONJ	-2.4671052
-1.0504601	SCONJ NOUN CCONJ	-0.9870447
-1.2168759	VERB NOUN CCONJ	-2.0544448
-1.1053469	PART NOUN CCONJ	-1.4767008
-1.1767157	ADV NOUN CCONJ	-1.0932692
-1.0520977	AUX NOUN CCONJ	-0.84927607
-1.1753966	PRON NOUN CCONJ	-1.9461281
-1.610543	INTJ NOUN CCONJ	-0.28811333
-1.3703363	X NOUN CCONJ	-0.5342329
-1.1905994	SYM NOUN CCONJ	-0.52626216
-1.7559773	<s> PUNCT CCONJ	-0.73783004
-1.3087757	ADP PUNCT CCONJ	-0.9801633
-1.2862178	DET PUNCT CCONJ	-0.7111434
-1.2401037	PROPN PUNCT CCONJ	-2.061915
-1.4399725	CCONJ PUNCT CCONJ	-0.2941296
-1.2240884	NOUN PUNCT CCONJ	-2.518588
-1.227952	PUNCT PUNCT CCONJ	-1.4970696
-1.17375	NUM PUNCT CCONJ	-1.3334318
-1.200079	ADJ PUNCT CCONJ	-1.690806
-1.419912	SCONJ PUNCT CCONJ	-0.29604056
-1.195482	VERB PUNCT CCONJ	-1.7835263
-1.3487657	PART PUNCT CCONJ	-0.44992864
-1.2034719	ADV PUNCT CCONJ	-1.5717725
-1.3438122	AUX PUNCT CCONJ	-0.63271743
-1.1024452	PRON PUNCT CCONJ	-1.233915
-1.1335195	INTJ PUNCT CCONJ	-0.51597834
-1.2479769	X PUNCT CCONJ	-0.49472785
-0.7900197	SYM PUNCT CCONJ	-0.28811333
-2.2923815	<s> NUM CCONJ	-0.33787236
-1.1565835	ADP NUM CCONJ	-1.2584593
-1.3453159	DET NUM CCONJ	-0.5221431
-1.1987485	PROPN NUM CCONJ	-0.99362254
-1.2729871	CCONJ NUM CCONJ	-0.38905293
-1.0999818	NOUN NUM CCONJ	-0.58360934
-1.2173234	PUNCT NUM CCONJ	-0.64962274
-1.1917281	NUM NUM CCONJ	-0.544083
-1.1296204	ADJ NUM CCONJ	-0.39101848
-1.32579	SCONJ NUM CCONJ	-0.372756
-1.1736685	VERB NUM CCONJ	-0.77727383
-1.3983274	PART NUM CCONJ	-0.29057682
-1.2220423	ADV NUM CCONJ	-0.57766044
-1.0755761	AUX NUM CCONJ	-0.41220778
-1.2651411	PRON NUM CCONJ	-0.28811333
-0.7872557	X NUM CCONJ	-0.30005908
-1.2179965	SYM NUM CCONJ	-0.3712026
-1.7835317	<s> ADJ CCONJ	-1.0107156
-1.1648438	ADP ADJ CCONJ	-1.6235324
-1.1697061	DET ADJ CCONJ	-1.7719667
-1.2007623	PROPN ADJ CCONJ	-0.50202936
-1.0738809	CCONJ ADJ CCONJ	-1.0826573
-1.1470116	NOUN ADJ CCONJ	-1.0372387
-1.1564189	PUNCT ADJ CCONJ	-1.5537493
-1.0068604	NUM ADJ CCONJ	-0.7785846
-1.0673404	ADJ ADJ CCONJ	-1.3376825
-1.0633364	SCONJ ADJ CCONJ	-0.5494729
-1.1092299	VERB ADJ CCONJ	-1.6112353
-1.106825	PART ADJ CCONJ	-1.0334381
-1.1874341	ADV ADJ CCONJ	-1.6224152
-1.0263233	AUX ADJ CCONJ	-1.3137188
-1.081491	PRON ADJ CCONJ	-1.1326234
-1.395145	INTJ ADJ CCONJ	-0.28811333
-1.4372251	SYM ADJ CCONJ	-0.28811333
-2.9312441	<s> SCONJ CCONJ	-0.29119492
-1.0778923	ADP SCONJ CCONJ	-0.8396724
-1.6387906	PROPN SCONJ CCONJ	-0.28811333
-1.6114937	CCONJ SCONJ CCONJ	-0.28811333
-1.687867	NOUN SCONJ CCONJ	-0.49946284
-1.834651	PUNCT SCONJ CCONJ	-0.59222496
-1.6394246	ADJ SCONJ CCONJ	-0.29326499
-1.3489236	VERB SCONJ CCONJ	-0.59363914
-1.7836101	AUX SCONJ CCONJ	-0.28811333
-1.6531602	PRON SCONJ CCONJ	-0.28811333
-2.3995664	<s> VERB CCONJ	-0.711747
-1.1320606	ADP VERB CCONJ	-1.0871288
-1.2177123	DET VERB CCONJ	-0.8500568
-1.2340083	PROPN VERB CCONJ	-0.8930682
-1.211816	CCONJ VERB CCONJ	-0.9017242
-1.2462852	NOUN VERB CCONJ	-1.3624463
-1.2132412	PUNCT VERB CCONJ	-1.3069568
-1.4423355	NUM VERB CCONJ	-0.32984608
-1.2186179	ADJ VERB CCONJ	-0.5934802
-1.2514701	SCONJ VERB CCONJ	-0.5342329
-1.2189728	VERB VERB CCONJ	-0.90860116
-1.1895632	PART VERB CCONJ	-1.6618025
-1.1988236	ADV VERB CCONJ	-1.3897362
-1.2324482	AUX VERB CCONJ	-1.796333
-1.2306154	PRON VERB CCONJ	-1.2988132
-1.5671939	INTJ VERB CCONJ	-0.29604056
-1.3864809	SYM VERB CCONJ	-0.28811333
-1.2157708	PROPN PART CCONJ	-0.760542
-1.3538526	CCONJ PART CCONJ	-0.2901653
-1.2833344	NOUN PART CCONJ	-0.5203884
-1.5392654	NUM PART CCONJ	-0.2941296
-1.5751214	ADJ PART CCONJ	-0.29404515
-1.3702531	VERB PART CCONJ	-0.4194498
-1.8900127	ADV PART CCONJ	-0.28811333
-1.5944872	AUX PART CCONJ	-0.37213454
-1.7585231	PRON PART CCONJ	-0.28811333
-2.6988864	<s> ADV CCONJ	-0.8170083
-1.3488623	ADP ADV CCONJ	-0.65640634
-1.1255183	DET ADV CCONJ	-0.6920696
-1.253974	PROPN ADV CCONJ	-0.57898104
-1.2625395	CCONJ ADV CCONJ	-0.6956972
-1.2606645	NOUN ADV CCONJ	-1.24428
-1.233356	PUNCT ADV CCONJ	-0.9121532
-1.6202568	NUM ADV CCONJ	-0.29119492
-1.3106319	ADJ ADV CCONJ	-0.5390832
-1.5560623	SCONJ ADV CCONJ	-0.44816697
-1.210984	VERB ADV CCONJ	-1.4642744
-1.3413274	PART ADV CCONJ	-0.48955965
-1.1573609	ADV ADV CCONJ	-0.85849625
-1.3157978	AUX ADV CCONJ	-0.80082893
-1.1847185	PRON ADV CCONJ	-0.6978204
-1.4346257	INTJ ADV CCONJ	-0.28811333
-1.6302025	DET AUX CCONJ	-0.2901653
-1.4091834	PROPN AUX CCONJ	-0.3712737
-1.6223475	CCONJ AUX CCONJ	-0.30005908
-1.3028607	NOUN AUX CCONJ	-0.67601347
-1.80578	PUNCT AUX CCONJ	-0.29057682
-1.643448	NUM AUX CCONJ	-0.30005908
-1.911461	ADJ AUX CCONJ	-0.28811333
-1.3760232	SCONJ AUX CCONJ	-0.28811333
-1.9253417	VERB AUX CCONJ	-0.28811333
-1.8345671	ADV AUX CCONJ	-0.28811333
-1.7468337	AUX AUX CCONJ	-0.28811333
-1.3357617	PRON AUX CCONJ	-0.6873227
-2.813657	<s> PRON CCONJ	-0.5934802
-1.1773567	ADP PRON CCONJ	-1.3247038
-1.5668718	DET PRON CCONJ	-0.29764348
-1.3747002	PROPN PRON CCONJ	-0.29604056
-1.2428386	CCONJ PRON CCONJ	-0.4970733
-1.2866582	NOUN PRON CCONJ	-0.40689668
-1.2509224	PUNCT PRON CCONJ	-0.6397667
-1.3544775	NUM PRON CCONJ	-0.28811333
-1.6060271	ADJ PRON CCONJ	-0.29604056
-1.1580764	SCONJ PRON CCONJ	-0.8521434
-1.2663716	VERB PRON CCONJ	-1.3270594
-1.4232861	PART PRON CCONJ	-0.28811333
-1.2383374	ADV PRON CCONJ	-0.4926653
-1.4371588	AUX PRON CCONJ	-0.29326499
-1.6096034	PRON PRON CCONJ	-0.28811333
-2.1970663	<s> INTJ CCONJ	-0.29205886
-1.5231888	NOUN INTJ CCONJ	-0.28811333
-1.6176472	PUNCT INTJ CCONJ	-0.28811333
-1.3655297	ADJ INTJ CCONJ	-0.28811333
-1.2362094	VERB INTJ CCONJ	-0.29404515
-1.497413	ADV INTJ CCONJ	-0.28811333
-1.2449957	AUX INTJ CCONJ	-0.28811333
-1.4208978	PRON INTJ CCONJ	-0.28811333
-1.5264825	INTJ INTJ CCONJ	-0.28811333
-1.3677447	ADP X CCONJ	-0.3478635
-1.504373	DET X CCONJ	-0.28811333
-1.6487062	NOUN X CCONJ	-0.29604056
-1.5859351	PUNCT X CCONJ	-0.29285228
-1.3890907	ADJ X CCONJ	-0.28811333
-1.5621264	VERB X CCONJ	-0.28811333
-0.9546633	PART X CCONJ	-0.28811333
-1.3745412	X X CCONJ	-0.29326499
-1.3772551	NUM SYM CCONJ	-0.28811333
-0.86797786	<s> ADP NOUN	-1.8539124
-0.97218305	ADP ADP NOUN	-1.4968467
-0.9582581	DET ADP NOUN	-1.0455906
-1.0290532	PROPN ADP NOUN	-1.6878636
-1.0539694	CCONJ ADP NOUN	-1.3134873
-1.150181	NOUN ADP NOUN	-3.0127232
-1.0834013	PUNCT ADP NOUN	-1.9598744
-0.9717122	NUM ADP NOUN	-1.234209
-1.0824314	ADJ ADP NOUN	-1.8758831
-0.9578376	SCONJ ADP NOUN	-1.3652096
-1.1601653	VERB ADP NOUN	-2.5933847
-0.7832868	PART ADP NOUN	-0.91861266
-1.0725775	ADV ADP NOUN	-1.810845
-0.9720523	AUX ADP NOUN	-1.327867
-0.9103768	PRON ADP NOUN	-1.4428309
-0.8532345	INTJ ADP NOUN	-0.33787236
-0.6382675	X ADP NOUN	-0.536131
-0.60907483	SYM ADP NOUN	-0.59325695
-0.27485177	<s> DET NOUN	-2.6842642
-1.0736669	ADP DET NOUN	-3.321528
-0.9670326	DET DET NOUN	-1.822022
-0.8463277	PROPN DET NOUN	-1.39612
-0.9008138	CCONJ DET NOUN	-2.2836375
-0.9703908	NOUN DET NOUN	-1.9636385
-1.0479411	PUNCT DET NOUN	-2.5872068
-0.78842914	NUM DET NOUN	-0.9604829
-0.8716899	ADJ DET NOUN	-1.2400317
-0.9765946	SCONJ DET NOUN	-2.3101294
-1.0776513	VERB DET NOUN	-3.0794857
-0.8248448	PART DET NOUN	-1.3629758
-1.0137622	ADV DET NOUN	-2.1720982
-0.9643872	AUX DET NOUN	-2.216959
-0.95233464	PRON DET NOUN	-1.6404743
-0.5254167	INTJ DET NOUN	-0.5833123
-0.51986545	X DET NOUN	-0.31894663
-0.21581239	SYM DET NOUN	-0.29057682
-1.3665687	<s> PROPN NOUN	-1.526704
-1.1778378	ADP PROPN NOUN	-2.0345953
-1.1068823	DET PROPN NOUN	-2.2452018
-1.2007719	PROPN PROPN NOUN	-2.1598651
-1.1284944	CCONJ PROPN NOUN	-1.3038014
-1.0941385	NOUN PROPN NOUN	-1.2784709
-1.1643695	PUNCT PROPN NOUN	-1.7327293
-1.0367616	NUM PROPN NOUN	-1.2549773
-1.1160501	ADJ PROPN NOUN	-1.6616029
-1.0573007	SCONJ PROPN NOUN	-0.9870478
-1.1680405	VERB PROPN NOUN	-1.4972181
-1.050925	PART PROPN NOUN	-1.2398558
-1.093126	ADV PROPN NOUN	-0.7261418
-1.274838	AUX PROPN NOUN	-0.5032226
-0.98757064	PRON PROPN NOUN	-1.262754
-1.1452177	INTJ PROPN NOUN	-0.29205886
-0.8681725	X PROPN NOUN	-0.4487592
-0.9704443	SYM PROPN NOUN	-0.93000954
-1.3245637	<s> CCONJ NOUN	-1.0404158
-0.9628536	ADP CCONJ NOUN	-0.8215959
-1.0049711	DET CCONJ NOUN	-0.43042186
-1.0216045	PROPN CCONJ NOUN	-2.1761131
-1.2964375	CCONJ CCONJ NOUN	-0.28811333
-1.0915216	NOUN CCONJ NOUN	-2.724599
-1.1214421	PUNCT CCONJ NOUN	-1.9240658
-0.92765087	NUM CCONJ NOUN	-0.93923515
-1.0512437	ADJ CCONJ NOUN	-1.3769916
-1.0576555	VERB CCONJ NOUN	-1.2782769
-1.0480344	PART CCONJ NOUN	-0.5612955
-1.0939891	ADV CCONJ NOUN	-0.8978307
-1.0244212	AUX CCONJ NOUN	-0.44816697
-0.9839175	PRON CCONJ NOUN	-0.65380454
-0.7997103	INTJ CCONJ NOUN	-0.30005908
-0.6063126	X CCONJ NOUN	-0.38810492
-0.9830518	<s> NOUN NOUN	-1.6698438
-1.1651782	ADP NOUN NOUN	-2.382092
-1.1591604	DET NOUN NOUN	-2.6633945
-1.1541202	PROPN NOUN NOUN	-1.8914962
-1.073878	CCONJ NOUN NOUN	-2.0621488
-1.2110546	NOUN NOUN NOUN	-2.448574
-1.1455559	PUNCT NOUN NOUN	-2.2882042
-1.160117	NUM NOUN NOUN	-1.7665198
-1.20808	ADJ NOUN NOUN	-2.6405318
-0.98268145	SCONJ NOUN NOUN	-1.2348428
-1.1905828	VERB NOUN NOUN	-2.145851
-1.0638138	PART NOUN NOUN	-1.6756433
-1.0516207	ADV NOUN NOUN	-1.1182525
-1.0902677	AUX NOUN NOUN	-0.88880765
-1.0911981	PRON NOUN NOUN	-1.8008361
-0.7018026	INTJ NOUN NOUN	-0.7978716
-0.95237297	X NOUN NOUN	-0.92857206
-0.91882867	SYM NOUN NOUN	-0.82927996
-1.0135907	<s> PUNCT NOUN	-1.2732162
-1.118369	ADP PUNCT NOUN	-1.6379453
-1.1099063	DET PUNCT NOUN	-1.6698968
-1.2154022	PROPN PUNCT NOUN	-2.079998
-1.1366334	CCONJ PUNCT NOUN	-1.1557853
-1.2240884	NOUN PUNCT NOUN	-2.588323
-1.227952	PUNCT PUNCT NOUN	-1.4655019
-1.1475585	NUM PUNCT NOUN	-1.7911116
-1.1491859	ADJ PUNCT NOUN	-2.0078766
-1.036813	SCONJ PUNCT NOUN	-0.8766504
-1.195482	VERB PUNCT NOUN	-1.6484653
-1.1256882	PART PUNCT NOUN	-0.9332054
-1.2313449	ADV PUNCT NOUN	-1.4969217
-1.1683495	AUX PUNCT NOUN	-0.62376297
-1.1987333	PRON PUNCT NOUN	-1.035066
-1.4920042	INTJ PUNCT NOUN	-0.71493137
-1.1238497	X PUNCT NOUN	-0.59477526
-0.7900197	SYM PUNCT NOUN	-0.28811333
-0.4089831	<s> NUM NOUN	-1.5350772
-1.0706651	ADP NUM NOUN	-2.185825
-0.943174	DET NUM NOUN	-1.8751396
-1.091809	PROPN NUM NOUN	-1.2295476
-0.92530674	CCONJ NUM NOUN	-1.4173437
-0.9092187	NOUN NUM NOUN	-1.2789618
-0.9866893	PUNCT NUM NOUN	-1.7271024
-0.938276	NUM NUM NOUN	-1.5018442
-0.8526325	ADJ NUM NOUN	-1.542647
-0.87626827	SCONJ NUM NOUN	-1.7315526
-0.9976083	VERB NUM NOUN	-1.8763621
-0.7512182	PART NUM NOUN	-1.1856079
-0.91957784	ADV NUM NOUN	-1.8184944
-0.84196967	AUX NUM NOUN	-1.137325
-0.6247088	PRON NUM NOUN	-1.0853883
-0.33445513	INTJ NUM NOUN	-0.28811333
-0.7829014	X NUM NOUN	-0.29404515
-1.0028818	SYM NUM NOUN	-1.0747199
-0.22834979	<s> ADJ NOUN	-2.112639
-1.0783981	ADP ADJ NOUN	-2.8242157
-1.0834515	DET ADJ NOUN	-3.19313
-0.86588395	PROPN ADJ NOUN	-1.5787572
-1.0360947	CCONJ ADJ NOUN	-2.3871338
-1.0363961	NOUN ADJ NOUN	-1.8306627
-1.0384203	PUNCT ADJ NOUN	-2.3334656
-0.8364756	NUM ADJ NOUN	-1.8920676
-0.9863074	ADJ ADJ NOUN	-2.6011074
-0.8792706	SCONJ ADJ NOUN	-1.7792621
-1.0823052	VERB ADJ NOUN	-2.577355
-0.99792945	PART ADJ NOUN	-1.9987144
-1.0759817	ADV ADJ NOUN	-2.2299545
-1.023596	AUX ADJ NOUN	-1.5443455
-0.92740154	PRON ADJ NOUN	-2.316366
-0.5367841	INTJ ADJ NOUN	-0.42752445
-0.58186996	X ADJ NOUN	-0.7238274
-0.6490347	SYM ADJ NOUN	-0.6586488
-1.1803935	<s> SCONJ NOUN	-1.0113786
-0.996902	ADP SCONJ NOUN	-0.660837
-1.1441473	DET SCONJ NOUN	-0.28811333
-0.96276474	PROPN SCONJ NOUN	-0.6301636
-1.090776	CCONJ SCONJ NOUN	-0.87309766
-1.0259249	NOUN SCONJ NOUN	-1.3239642
-1.0838046	PUNCT SCONJ NOUN	-1.1857631
-1.3107939	NUM SCONJ NOUN	-0.29668516
-1.0385187	ADJ SCONJ NOUN	-1.0715268
-0.9397914	SCONJ SCONJ NOUN	-0.8826858
-1.1294277	VERB SCONJ NOUN	-1.6167482
-1.4438654	PART SCONJ NOUN	-0.30005908
-1.0424218	ADV SCONJ NOUN	-0.8945463
-1.0322926	AUX SCONJ NOUN	-0.77875686
-1.024704	PRON SCONJ NOUN	-0.595852
-0.74129194	INTJ SCONJ NOUN	-0.28811333
-1.1316346	<s> VERB NOUN	-1.2182109
-1.0751233	ADP VERB NOUN	-2.02478
-1.152571	DET VERB NOUN	-2.1283293
-1.1527019	PROPN VERB NOUN	-1.6946671
-1.1418505	CCONJ VERB NOUN	-1.8972679
-1.1930178	NOUN VERB NOUN	-2.116098
-1.1566435	PUNCT VERB NOUN	-2.1587033
-0.9989565	NUM VERB NOUN	-0.9436011
-1.0258193	ADJ VERB NOUN	-1.4235854
-1.0324694	SCONJ VERB NOUN	-1.0801749
-1.0396762	VERB VERB NOUN	-1.5861434
-1.1870472	PART VERB NOUN	-2.3236353
-1.1422257	ADV VERB NOUN	-1.9975203
-1.172075	AUX VERB NOUN	-2.087034
-1.2002172	PRON VERB NOUN	-1.9742707
-0.9015261	INTJ VERB NOUN	-0.61112314
-0.88974136	X VERB NOUN	-0.47855616
-1.1315608	SYM VERB NOUN	-0.29604056
-2.5799093	<s> PART NOUN	-0.28811333
-1.0307525	ADP PART NOUN	-0.29326499
-1.2592714	DET PART NOUN	-0.29604056
-0.9753108	PROPN PART NOUN	-2.3203483
-1.3831635	CCONJ PART NOUN	-0.46720225
-1.00139	NOUN PART NOUN	-2.2307339
-1.2286559	PUNCT PART NOUN	-0.80819476
-1.0606153	NUM PART NOUN	-0.5508957
-1.0272934	ADJ PART NOUN	-0.62664354
-1.1478118	SCONJ PART NOUN	-0.44653887
-1.0939965	VERB PART NOUN	-0.70382285
-1.0533587	ADV PART NOUN	-0.46877205
-1.1699351	AUX PART NOUN	-0.763232
-0.89970034	PRON PART NOUN	-0.8141116
-1.0740674	INTJ PART NOUN	-0.28811333
-1.0283098	X PART NOUN	-0.28811333
-1.6471494	<s> ADV NOUN	-1.0517025
-1.2432011	ADP ADV NOUN	-0.9563252
-1.1194922	DET ADV NOUN	-0.6586488
-1.29278	PROPN ADV NOUN	-0.7249385
-1.0949768	CCONJ ADV NOUN	-1.1646482
-1.139458	NOUN ADV NOUN	-1.3054125
-1.1980857	PUNCT ADV NOUN	-1.2821766
-1.2834333	NUM ADV NOUN	-0.33925194
-1.125336	ADJ ADV NOUN	-0.62033594
-1.1789055	SCONJ ADV NOUN	-0.54533446
-1.1218505	VERB ADV NOUN	-1.2288879
-1.1740203	PART ADV NOUN	-0.639859
-1.2136284	ADV ADV NOUN	-0.777608
-1.3634374	AUX ADV NOUN	-1.0083196
-1.4767118	PRON ADV NOUN	-0.4015947
-1.0385138	INTJ ADV NOUN	-0.29404515
-0.80481386	X ADV NOUN	-0.38810492
-1.0568898	SYM ADV NOUN	-0.28811333
-1.4952688	<s> AUX NOUN	-0.55541706
-1.3569247	ADP AUX NOUN	-0.2901653
-1.1465847	DET AUX NOUN	-0.70097977
-1.1754526	PROPN AUX NOUN	-0.99781716
-1.266483	CCONJ AUX NOUN	-0.29338202
-1.1798385	NOUN AUX NOUN	-1.4939433
-1.2229719	PUNCT AUX NOUN	-0.7708665
-1.008792	NUM AUX NOUN	-0.44147092
-1.3245949	ADJ AUX NOUN	-0.43828773
-1.310888	SCONJ AUX NOUN	-0.28811333
-1.165324	VERB AUX NOUN	-0.6208311
-1.602967	PART AUX NOUN	-0.28811333
-1.1190857	ADV AUX NOUN	-0.79838806
-1.306895	AUX AUX NOUN	-0.29285228
-1.1705332	PRON AUX NOUN	-1.4644336
-1.013614	INTJ AUX NOUN	-0.28811333
-1.1069078	X AUX NOUN	-0.28811333
-1.2095317	<s> PRON NOUN	-1.7503804
-1.1155198	ADP PRON NOUN	-2.5777428
-0.90289426	DET PRON NOUN	-1.1086903
-1.0033236	PROPN PRON NOUN	-0.5825219
-1.0547831	CCONJ PRON NOUN	-1.7883523
-1.0621433	NOUN PRON NOUN	-1.0347546
-1.0527257	PUNCT PRON NOUN	-1.6898192
-0.83174396	NUM PRON NOUN	-0.29211485
-0.96265435	ADJ PRON NOUN	-0.67006385
-1.0135894	SCONJ PRON NOUN	-1.5788596
-1.1681933	VERB PRON NOUN	-2.4738455
-0.88501203	PART PRON NOUN	-0.5494189
-1.0353818	ADV PRON NOUN	-1.2901486
-1.041673	AUX PRON NOUN	-1.2081398
-0.88950396	PRON PRON NOUN	-0.89812505
-0.9822424	INTJ PRON NOUN	-0.29404515
-0.76970774	X PRON NOUN	-0.28811333
-0.7380698	SYM PRON NOUN	-0.45181572
-1.41687	<s> INTJ NOUN	-0.56970084
-0.8489292	ADP INTJ NOUN	-0.29119492
-0.7174283	DET INTJ NOUN	-0.28811333
-1.0136648	PROPN INTJ NOUN	-0.29119492
-1.3252155	CCONJ INTJ NOUN	-0.28811333
-0.69479185	NOUN INTJ NOUN	-0.7744194
-1.1164346	PUNCT INTJ NOUN	-0.59293574
-1.0675339	ADJ INTJ NOUN	-0.29404515
-0.8638344	VERB INTJ NOUN	-0.48260474
-0.76495314	PART INTJ NOUN	-0.28811333
-1.1573722	ADV INTJ NOUN	-0.3478635
-0.93587536	AUX INTJ NOUN	-0.28811333
-1.29397	PRON INTJ NOUN	-0.28811333
-0.7749917	INTJ INTJ NOUN	-0.48955965
-0.765177	X INTJ NOUN	-0.29404515
-1.4450718	<s> X NOUN	-0.29612538
-0.8886323	ADP X NOUN	-0.373277
-0.7880191	DET X NOUN	-0.3288917
-0.8986721	PROPN X NOUN	-0.3319695
-0.86311615	NOUN X NOUN	-0.87317854
-0.90637267	PUNCT X NOUN	-0.7907158
-0.72042847	NUM X NOUN	-0.30005908
-0.61733043	ADJ X NOUN	-0.4056564
-0.7277448	VERB X NOUN	-0.5808178
-0.8643451	ADV X NOUN	-0.40240946
-0.75012505	AUX X NOUN	-0.29261768
-0.94275534	PRON X NOUN	-0.28811333
-0.8108112	INTJ X NOUN	-0.30005908
-0.72294974	X X NOUN	-0.77573305
-0.0757272	<s> SYM NOUN	-1.3217771
-0.65305185	ADP SYM NOUN	-0.6422693
-0.840925	DET SYM NOUN	-0.46728617
-0.69979024	PROPN SYM NOUN	-0.4409323
-0.99182445	CCONJ SYM NOUN	-0.46918422
-0.56885934	NOUN SYM NOUN	-1.0603429
-0.6393572	PUNCT SYM NOUN	-0.63690317
-0.8351512	NUM SYM NOUN	-0.37926504
-0.64885265	ADJ SYM NOUN	-0.53720987
-0.74642366	SCONJ SYM NOUN	-0.28811333
-0.60820055	VERB SYM NOUN	-0.61902755
-0.9285569	ADV SYM NOUN	-0.28811333
-1.0198455	AUX SYM NOUN	-0.28811333
-0.7970209	PRON SYM NOUN	-0.29404515
-0.69220114	INTJ SYM NOUN	-0.28811333
-0.43498924	X SYM NOUN	-0.28811333
-2.4305613	<s> ADP PUNCT	-0.5747315
-1.2242169	ADP ADP PUNCT	-0.7605086
-1.1382987	DET ADP PUNCT	-0.7978075
-1.1720576	PROPN ADP PUNCT	-1.0036907
-1.0990561	CCONJ ADP PUNCT	-0.631894
-1.1770902	NOUN ADP PUNCT	-1.7332594
-1.1398373	PUNCT ADP PUNCT	-1.4285228
-1.2295047	NUM ADP PUNCT	-0.3971734
-1.1425074	ADJ ADP PUNCT	-1.0261502
-1.1877575	SCONJ ADP PUNCT	-0.36874205
-1.1870743	VERB ADP PUNCT	-1.9121977
-1.4895289	PART ADP PUNCT	-0.30005908
-1.1993611	ADV ADP PUNCT	-0.7031711
-1.2483364	AUX ADP PUNCT	-0.55214834
-1.2504175	PRON ADP PUNCT	-1.0388615
-1.4545674	X ADP PUNCT	-0.28811333
-0.97771186	SYM ADP PUNCT	-0.28811333
-2.0697834	<s> DET PUNCT	-1.0036187
-1.1292491	ADP DET PUNCT	-1.8090429
-1.1219865	DET DET PUNCT	-0.63954854
-1.3186452	PROPN DET PUNCT	-0.39641073
-1.2351308	CCONJ DET PUNCT	-0.7945777
-1.233119	NOUN DET PUNCT	-0.72873735
-1.1070172	PUNCT DET PUNCT	-1.2293181
-1.1466624	NUM DET PUNCT	-0.57467055
-1.1226394	ADJ DET PUNCT	-0.36203077
-1.1464375	SCONJ DET PUNCT	-0.85935533
-1.1332334	VERB DET PUNCT	-1.5510778
-1.2677752	PART DET PUNCT	-0.44027448
-1.0769199	ADV DET PUNCT	-0.78861344
-1.0756824	AUX DET PUNCT	-0.9455371
-1.1731158	PRON DET PUNCT	-0.8137127
-1.4154766	INTJ DET PUNCT	-0.28811333
-0.7479329	<s> PROPN PUNCT	-2.0755746
-1.2057431	ADP PROPN PUNCT	-2.7912009
-1.134861	DET PROPN PUNCT	-2.1045213
-1.1760452	PROPN PROPN PUNCT	-2.9152656
-1.01423	CCONJ PROPN PUNCT	-1.8849365
-1.0941385	NOUN PROPN PUNCT	-1.6976117
-1.1381917	PUNCT PROPN PUNCT	-2.4768658
-1.0367616	NUM PROPN PUNCT	-1.2854775
-1.089597	ADJ PROPN PUNCT	-1.7916849
-1.0573007	SCONJ PROPN PUNCT	-1.0488938
-1.1169714	VERB PROPN PUNCT	-1.8533304
-0.9383544	PART PROPN PUNCT	-1.2501001
-1.0254629	ADV PROPN PUNCT	-0.922102
-0.96391505	AUX PROPN PUNCT	-0.91178036
-1.0227187	PRON PROPN PUNCT	-1.0595644
-0.80991554	INTJ PROPN PUNCT	-0.37261143
-0.778025	X PROPN PUNCT	-0.7069654
-0.9353497	SYM PROPN PUNCT	-1.1344739
-1.3338034	<s> CCONJ PUNCT	-0.92899406
-1.3158402	ADP CCONJ PUNCT	-0.29338202
-1.3266312	DET CCONJ PUNCT	-0.29764348
-1.2357489	PROPN CCONJ PUNCT	-0.45599097
-1.2964375	CCONJ CCONJ PUNCT	-0.28811333
-1.230796	NOUN CCONJ PUNCT	-0.9401126
-1.1787453	PUNCT CCONJ PUNCT	-1.3547434
-1.6754693	NUM CCONJ PUNCT	-0.29119492
-1.2270592	ADJ CCONJ PUNCT	-0.4682622
-1.4438379	SCONJ CCONJ PUNCT	-0.28811333
-1.2800055	VERB CCONJ PUNCT	-0.5250307
-1.2564701	PART CCONJ PUNCT	-0.29404515
-1.4386337	ADV CCONJ PUNCT	-0.29404515
-1.4704766	AUX CCONJ PUNCT	-0.28811333
-1.5216016	PRON CCONJ PUNCT	-0.29285228
-0.5232866	SYM CCONJ PUNCT	-0.28811333
-0.6035746	<s> NOUN PUNCT	-2.0155914
-1.1403863	ADP NOUN PUNCT	-2.7483962
-1.1591604	DET NOUN PUNCT	-2.997441
-1.1541202	PROPN NOUN PUNCT	-2.3000379
-0.9831129	CCONJ NOUN PUNCT	-2.5091257
-1.2110546	NOUN NOUN PUNCT	-2.8104484
-1.1207639	PUNCT NOUN PUNCT	-2.3906784
-1.160117	NUM NOUN PUNCT	-2.2253816
-1.20808	ADJ NOUN PUNCT	-3.0905833
-1.0504601	SCONJ NOUN PUNCT	-1.0020412
-1.1905828	VERB NOUN PUNCT	-2.3897576
-0.9587774	PART NOUN PUNCT	-2.0612974
-1.0796807	ADV NOUN PUNCT	-1.2753181
-1.017013	AUX NOUN PUNCT	-1.1386694
-1.0911981	PRON NOUN PUNCT	-2.4326303
-0.9232333	INTJ NOUN PUNCT	-0.3705309
-0.8025335	X NOUN PUNCT	-0.7181651
-0.8864011	SYM NOUN PUNCT	-1.0823463
-1.610973	<s> PUNCT PUNCT	-0.81145424
-1.1880234	ADP PUNCT PUNCT	-0.947038
-1.142447	DET PUNCT PUNCT	-0.79674715
-1.2175059	PROPN PUNCT PUNCT	-2.157638
-1.2682297	CCONJ PUNCT PUNCT	-0.326905
-1.2261921	NOUN PUNCT PUNCT	-2.4297686
-1.1761146	PUNCT PUNCT PUNCT	-1.7455499
-1.176116	NUM PUNCT PUNCT	-1.3769403
-1.1512896	ADJ PUNCT PUNCT	-1.5450938
-1.2773651	SCONJ PUNCT PUNCT	-0.4347515
-1.1728842	VERB PUNCT PUNCT	-1.8321168
-1.1755582	PART PUNCT PUNCT	-0.7164605
-1.1795075	ADV PUNCT PUNCT	-1.4881053
-1.2239163	AUX PUNCT PUNCT	-0.65452236
-1.1349336	PRON PUNCT PUNCT	-1.3951426
-1.0101471	INTJ PUNCT PUNCT	-0.62856185
-1.0770735	X PUNCT PUNCT	-0.6673263
-1.0496465	<s> NUM PUNCT	-0.95866483
-1.0706651	ADP NUM PUNCT	-1.9126477
-1.005121	DET NUM PUNCT	-1.6620212
-1.0344515	PROPN NUM PUNCT	-2.1861794
-1.0629425	CCONJ NUM PUNCT	-0.8896766
-0.963132	NOUN NUM PUNCT	-1.5223023
-1.0126721	PUNCT NUM PUNCT	-1.7883377
-0.9662635	NUM NUM PUNCT	-1.0984919
-0.824645	ADJ NUM PUNCT	-1.087279
-0.942732	SCONJ NUM PUNCT	-1.0637007
-1.0753657	VERB NUM PUNCT	-1.0194789
-0.87983656	PART NUM PUNCT	-0.8382145
-0.97708523	ADV NUM PUNCT	-0.7100026
-0.9412774	AUX NUM PUNCT	-0.54594004
-0.83449644	PRON NUM PUNCT	-0.93701696
-0.75483525	INTJ NUM PUNCT	-0.28811333
-0.7037	X NUM PUNCT	-0.28811333
-0.9407933	SYM NUM PUNCT	-1.3532256
-1.3462378	<s> ADJ PUNCT	-1.0587784
-1.104546	ADP ADJ PUNCT	-1.7509391
-1.1095215	DET ADJ PUNCT	-1.8867712
-0.9832891	PROPN ADJ PUNCT	-0.8143045
-1.0038514	CCONJ ADJ PUNCT	-1.571311
-1.0609276	NOUN ADJ PUNCT	-1.4073018
-1.0384203	PUNCT ADJ PUNCT	-1.7986753
-0.86526215	NUM ADJ PUNCT	-0.8378164
-1.0369709	ADJ ADJ PUNCT	-1.3969377
-1.1079432	SCONJ ADJ PUNCT	-0.7779504
-1.1069607	VERB ADJ PUNCT	-1.9980769
-1.0655766	PART ADJ PUNCT	-1.3472278
-1.1269865	ADV ADJ PUNCT	-2.019472
-1.0584265	AUX ADJ PUNCT	-1.7178762
-1.0437497	PRON ADJ PUNCT	-1.3484242
-1.1176977	INTJ ADJ PUNCT	-0.29604056
-0.73289007	X ADJ PUNCT	-0.32926467
-0.88398945	SYM ADJ PUNCT	-0.32253978
-2.065516	<s> SCONJ PUNCT	-0.4294293
-1.5648346	ADP SCONJ PUNCT	-0.43316075
-1.2833673	PROPN SCONJ PUNCT	-0.42368972
-1.1018426	CCONJ SCONJ PUNCT	-0.3445466
-1.1952145	NOUN SCONJ PUNCT	-0.7691467
-1.1955624	PUNCT SCONJ PUNCT	-0.64948064
-1.1292113	NUM SCONJ PUNCT	-0.28987157
-1.2373054	ADJ SCONJ PUNCT	-0.377622
-1.4696075	SCONJ SCONJ PUNCT	-0.29604056
-1.1062319	VERB SCONJ PUNCT	-1.2896944
-1.4737895	PART SCONJ PUNCT	-0.28811333
-1.3606832	ADV SCONJ PUNCT	-0.31761062
-1.1721668	AUX SCONJ PUNCT	-0.34660023
-1.1213475	PRON SCONJ PUNCT	-0.3147135
-1.3549623	<s> VERB PUNCT	-0.96815294
-1.1016012	ADP VERB PUNCT	-1.3213404
-1.1827009	DET VERB PUNCT	-1.3084524
-1.1527019	PROPN VERB PUNCT	-1.904803
-1.1118754	CCONJ VERB PUNCT	-1.4912483
-1.2177265	NOUN VERB PUNCT	-2.0456717
-1.1566435	PUNCT VERB PUNCT	-1.8034548
-1.027468	NUM VERB PUNCT	-0.6428715
-1.0803099	ADJ VERB PUNCT	-0.8634658
-1.0677805	SCONJ VERB PUNCT	-0.6396477
-1.1189541	VERB VERB PUNCT	-1.1276938
-1.1870472	PART VERB PUNCT	-2.0065258
-1.1963077	ADV VERB PUNCT	-1.8316475
-1.172075	AUX VERB PUNCT	-2.265868
-1.2002172	PRON VERB PUNCT	-2.0636497
-1.0450014	INTJ VERB PUNCT	-0.358082
-1.1598926	X VERB PUNCT	-0.46625656
-0.85892284	SYM VERB PUNCT	-0.29149303
-2.081839	<s> PART PUNCT	-0.29604056
-1.1205492	ADP PART PUNCT	-0.29057682
-0.92989117	DET PART PUNCT	-0.29211485
-1.0862997	PROPN PART PUNCT	-1.1213069
-1.0439825	CCONJ PART PUNCT	-0.84146804
-1.1279871	NOUN PART PUNCT	-0.96987087
-1.3021827	PUNCT PART PUNCT	-0.6621063
-0.9351141	NUM PART PUNCT	-0.45319527
-1.0925405	ADJ PART PUNCT	-0.48260474
-1.0681957	SCONJ PART PUNCT	-0.34597653
-1.1353781	VERB PART PUNCT	-1.0338516
-1.2270368	PART PART PUNCT	-0.2953429
-1.1100996	ADV PART PUNCT	-0.689505
-1.2255411	AUX PART PUNCT	-0.83754504
-1.1743118	PRON PART PUNCT	-0.48259038
-0.4461819	<s> ADV PUNCT	-2.136208
-1.067879	ADP ADV PUNCT	-1.4213176
-0.983307	DET ADV PUNCT	-1.4637254
-1.0422413	PROPN ADV PUNCT	-1.2387502
-1.1296893	CCONJ ADV PUNCT	-1.4139968
-1.139458	NOUN ADV PUNCT	-2.056901
-1.1442225	PUNCT ADV PUNCT	-1.8035166
-0.87803125	NUM ADV PUNCT	-0.6527256
-1.0283465	ADJ ADV PUNCT	-1.1770868
-1.052448	SCONJ ADV PUNCT	-0.8859633
-1.1218505	VERB ADV PUNCT	-1.9828546
-1.0937147	PART ADV PUNCT	-0.791004
-1.098263	ADV ADV PUNCT	-1.9430393
-1.0974922	AUX ADV PUNCT	-1.0386534
-1.0637633	PRON ADV PUNCT	-1.384574
-1.0385138	INTJ ADV PUNCT	-0.29309297
-1.0531125	X ADV PUNCT	-0.29404515
-0.7079773	SYM ADV PUNCT	-0.29404515
-2.2848115	<s> AUX PUNCT	-0.29149303
-1.1213506	ADP AUX PUNCT	-0.2901653
-1.2371496	DET AUX PUNCT	-0.6358534
-1.1468594	PROPN AUX PUNCT	-0.8007413
-1.3773706	CCONJ AUX PUNCT	-0.3819158
-1.1831092	NOUN AUX PUNCT	-1.2702612
-1.1857185	PUNCT AUX PUNCT	-0.6011963
-1.3599509	NUM AUX PUNCT	-0.33787236
-1.3307074	ADJ AUX PUNCT	-0.29338202
-1.3231568	SCONJ AUX PUNCT	-0.28811333
-1.2214123	VERB AUX PUNCT	-0.3443297
-1.3645899	PART AUX PUNCT	-0.59119534
-1.2474326	ADV AUX PUNCT	-0.4569919
-1.0479398	AUX AUX PUNCT	-0.7667726
-1.239643	PRON AUX PUNCT	-1.1505367
-1.1178752	X AUX PUNCT	-0.28811333
-2.2850206	<s> PRON PUNCT	-0.6976574
-1.1690556	ADP PRON PUNCT	-1.9814371
-1.0835295	DET PRON PUNCT	-0.32115296
-0.96492285	PROPN PRON PUNCT	-0.672031
-1.132791	CCONJ PRON PUNCT	-0.631304
-1.029959	NOUN PRON PUNCT	-0.983018
-1.1067666	PUNCT PRON PUNCT	-0.88268816
-1.1104145	NUM PRON PUNCT	-0.28811333
-0.92003894	ADJ PRON PUNCT	-0.73195034
-1.1480514	SCONJ PRON PUNCT	-0.7093688
-1.1423249	VERB PRON PUNCT	-1.975465
-0.9979968	PART PRON PUNCT	-0.78884757
-1.1018006	ADV PRON PUNCT	-0.594507
-1.1196147	AUX PRON PUNCT	-0.84698904
-1.2835866	PRON PRON PUNCT	-0.5058176
-0.89088124	INTJ PRON PUNCT	-0.44816697
-1.0891942	X PRON PUNCT	-0.28811333
-1.0079365	SYM PRON PUNCT	-0.28811333
-0.31991228	<s> INTJ PUNCT	-1.245463
-0.9794251	ADP INTJ PUNCT	-0.38810492
-0.70542634	DET INTJ PUNCT	-0.28811333
-0.68557024	PROPN INTJ PUNCT	-0.3413863
-0.75567174	CCONJ INTJ PUNCT	-0.500172
-0.8335502	NOUN INTJ PUNCT	-0.59160686
-0.794242	PUNCT INTJ PUNCT	-1.300047
-0.82296	NUM INTJ PUNCT	-0.28811333
-0.72166055	ADJ INTJ PUNCT	-0.29489923
-0.35044593	SCONJ INTJ PUNCT	-0.29404515
-0.7580101	VERB INTJ PUNCT	-0.56069595
-0.4610733	PART INTJ PUNCT	-0.28811333
-0.81104225	ADV INTJ PUNCT	-0.29270792
-0.85283244	AUX INTJ PUNCT	-0.29404515
-1.0521586	PRON INTJ PUNCT	-0.30005908
-0.8363097	INTJ INTJ PUNCT	-0.59261894
-1.0566981	X INTJ PUNCT	-0.28811333
-0.18639384	<s> X PUNCT	-0.9714305
-0.7577423	ADP X PUNCT	-0.60273284
-0.99005485	DET X PUNCT	-0.28811333
-0.783202	PROPN X PUNCT	-0.47804374
-0.48849112	CCONJ X PUNCT	-0.2935485
-0.8313017	NOUN X PUNCT	-0.6957953
-0.7850007	PUNCT X PUNCT	-1.1604058
-0.97565126	NUM X PUNCT	-0.28811333
-0.6732993	VERB X PUNCT	-0.37840217
-0.9732167	ADV X PUNCT	-0.29404515
-1.0492845	AUX X PUNCT	-0.30005908
-0.676201	PRON X PUNCT	-0.28811333
-1.0985196	INTJ X PUNCT	-0.28811333
-0.9457437	X X PUNCT	-0.58143747
-2.3782387	<s> SYM PUNCT	-0.28811333
-1.7199714	ADP SYM PUNCT	-0.28811333
-1.8498893	NOUN SYM PUNCT	-0.28811333
-1.6998901	PUNCT SYM PUNCT	-0.28811333
-1.2891115	<s> ADP NUM	-1.4938055
-1.0325161	ADP ADP NUM	-1.2398558
-1.1845884	DET ADP NUM	-0.6510464
-1.082218	PROPN ADP NUM	-1.5348251
-1.0990561	CCONJ ADP NUM	-0.8321054
-1.1524922	NOUN ADP NUM	-2.1719677
-1.1119417	PUNCT ADP NUM	-1.390516
-0.9736757	NUM ADP NUM	-1.1603854
-1.1127847	ADJ ADP NUM	-1.1136956
-1.0590467	SCONJ ADP NUM	-0.9594619
-1.2131494	VERB ADP NUM	-1.9352682
-1.341489	PART ADP NUM	-0.29833227
-1.1327692	ADV ADP NUM	-1.245319
-1.2483364	AUX ADP NUM	-0.7176794
-1.2504175	PRON ADP NUM	-0.85753846
-1.2050737	INTJ ADP NUM	-0.28811333
-1.0460905	X ADP NUM	-0.29285228
-1.8168783	<s> DET NUM	-1.3322109
-1.1570725	ADP DET NUM	-1.9065847
-1.1219865	DET DET NUM	-0.7461675
-1.2480505	PROPN DET NUM	-0.40803912
-1.1834556	CCONJ DET NUM	-0.8030646
-1.233119	NOUN DET NUM	-0.7234569
-1.1070172	PUNCT DET NUM	-1.3472747
-1.690417	NUM DET NUM	-0.28811333
-1.2805889	ADJ DET NUM	-0.6329995
-1.0725129	SCONJ DET NUM	-0.9834305
-1.161057	VERB DET NUM	-1.5273998
-1.2677752	PART DET NUM	-0.2901653
-1.144801	ADV DET NUM	-0.8477614
-1.1177291	AUX DET NUM	-0.86768436
-1.4862202	PRON DET NUM	-0.46728617
-1.220064	INTJ DET NUM	-0.28811333
-2.120724	<s> PROPN NUM	-1.0043001
-1.2082366	ADP PROPN NUM	-2.0600011
-1.3142054	DET PROPN NUM	-1.2385323
-1.2573905	PROPN PROPN NUM	-1.4060742
-1.3571839	CCONJ PROPN NUM	-0.65380454
-1.3271048	NOUN PROPN NUM	-0.9691731
-1.1947589	PUNCT PROPN NUM	-1.8349392
-1.3448843	NUM PROPN NUM	-1.0201707
-1.2828577	ADJ PROPN NUM	-0.85069853
-1.1764971	SCONJ PROPN NUM	-0.8637535
-1.2957728	VERB PROPN NUM	-0.89532375
-1.313787	PART PROPN NUM	-0.45740795
-1.3355718	ADV PROPN NUM	-0.2941296
-1.3643024	AUX PROPN NUM	-0.6588282
-1.6516082	PRON PROPN NUM	-0.69016695
-1.5934379	X PROPN NUM	-0.30005908
-1.1529053	SYM PROPN NUM	-0.5494729
-2.0613968	<s> CCONJ NUM	-0.63262886
-1.6285788	ADP CCONJ NUM	-0.29604056
-1.4046175	DET CCONJ NUM	-0.29119492
-1.2852752	PROPN CCONJ NUM	-0.9372795
-1.2378795	NOUN CCONJ NUM	-1.4111722
-1.1851732	PUNCT CCONJ NUM	-1.1410747
-0.9608357	NUM CCONJ NUM	-1.2846034
-1.2352959	ADJ CCONJ NUM	-0.6301636
-1.4718394	SCONJ CCONJ NUM	-0.28811333
-1.2889334	VERB CCONJ NUM	-0.60426563
-1.2800062	PART CCONJ NUM	-0.29404515
-1.6905255	ADV CCONJ NUM	-0.29404515
-1.1470912	AUX CCONJ NUM	-0.29764348
-1.3065263	PRON CCONJ NUM	-0.4171657
-1.945318	<s> NOUN NUM	-0.901118
-1.2815078	ADP NOUN NUM	-0.99008226
-1.3002819	DET NOUN NUM	-1.1137816
-1.3299414	PROPN NOUN NUM	-0.9730636
-1.1089021	CCONJ NOUN NUM	-2.0803907
-1.2621397	NOUN NOUN NUM	-0.97924656
-1.2965853	PUNCT NOUN NUM	-0.90445805
-1.3364165	NUM NOUN NUM	-0.6928275
-1.3170702	ADJ NOUN NUM	-0.8365085
-1.4389088	SCONJ NOUN NUM	-0.29764348
-1.2448642	VERB NOUN NUM	-0.8207701
-1.631848	PART NOUN NUM	-0.3405231
-1.4112453	ADV NOUN NUM	-0.45420343
-1.3573421	AUX NOUN NUM	-0.3366089
-1.7177324	PRON NOUN NUM	-0.73773485
-1.45274	INTJ NOUN NUM	-0.28811333
-1.557223	X NOUN NUM	-0.28811333
-1.2586075	SYM NOUN NUM	-0.6433774
-1.9163446	<s> PUNCT NUM	-0.74624926
-1.2672112	ADP PUNCT NUM	-0.8332825
-1.3360181	DET PUNCT NUM	-0.79220444
-1.2423308	PROPN PUNCT NUM	-1.6733466
-1.6256828	CCONJ PUNCT NUM	-0.3453243
-1.2773473	NOUN PUNCT NUM	-1.6873393
-1.2604403	PUNCT PUNCT NUM	-0.89497787
-1.176116	NUM PUNCT NUM	-1.895642
-1.2604403	ADJ PUNCT NUM	-0.90981513
-1.5269045	SCONJ PUNCT NUM	-0.4678043
-1.282035	VERB PUNCT NUM	-0.95442146
-1.7121079	PART PUNCT NUM	-0.4058296
-1.2638333	ADV PUNCT NUM	-0.9205319
-1.5281241	AUX PUNCT NUM	-0.29489923
-1.5821425	PRON PUNCT NUM	-0.56711185
-1.6807396	INTJ PUNCT NUM	-0.41705364
-1.5580851	X PUNCT NUM	-0.48955965
-1.8486909	<s> NUM NUM	-0.56481516
-1.1916027	ADP NUM NUM	-1.2923347
-1.172403	DET NUM NUM	-1.0053813
-1.3409353	PROPN NUM NUM	-0.865937
-1.0722294	CCONJ NUM NUM	-0.720773
-1.1451164	NOUN NUM NUM	-0.60743016
-1.1424454	PUNCT NUM NUM	-0.897642
-1.1493539	NUM NUM NUM	-0.4691667
-1.2618498	ADJ NUM NUM	-0.5482258
-1.1266649	SCONJ NUM NUM	-1.1104295
-1.1107934	VERB NUM NUM	-1.237
-1.0735701	PART NUM NUM	-0.7570297
-1.0498524	ADV NUM NUM	-1.0818899
-1.165683	AUX NUM NUM	-0.5336245
-1.3335701	PRON NUM NUM	-0.46728617
-0.9759251	SYM NUM NUM	-1.2463578
-2.4801083	<s> ADJ NUM	-0.460314
-1.2693661	ADP ADJ NUM	-0.8271412
-1.1697061	DET ADJ NUM	-1.6411805
-1.411263	PROPN ADJ NUM	-0.29604056
-1.31073	CCONJ ADJ NUM	-0.6289693
-1.5103316	NOUN ADJ NUM	-0.40689668
-1.26923	PUNCT ADJ NUM	-0.75910604
-1.2864777	NUM ADJ NUM	-0.36107635
-1.4621775	ADJ ADJ NUM	-0.5407289
-1.6314017	SCONJ ADJ NUM	-0.28811333
-1.339144	VERB ADJ NUM	-0.5776642
-1.7429838	PART ADJ NUM	-0.6814472
-1.2545683	ADV ADJ NUM	-0.61133724
-1.4470315	AUX ADJ NUM	-0.3405231
-1.5632689	PRON ADJ NUM	-0.61284626
-1.395145	INTJ ADJ NUM	-0.28811333
-1.5113318	X ADJ NUM	-0.28811333
-1.7217736	<s> SCONJ NUM	-0.8451489
-1.2500843	ADP SCONJ NUM	-0.49171525
-1.0735451	DET SCONJ NUM	-0.29604056
-1.1807078	PROPN SCONJ NUM	-0.8697847
-1.3291553	CCONJ SCONJ NUM	-0.46728617
-1.1463094	NOUN SCONJ NUM	-1.0610127
-1.3192581	PUNCT SCONJ NUM	-0.6460994
-1.1052003	NUM SCONJ NUM	-0.28987157
-0.9784296	ADJ SCONJ NUM	-1.806965
-1.4326533	SCONJ SCONJ NUM	-0.28811333
-1.1574631	VERB SCONJ NUM	-1.1219846
-1.4296427	PART SCONJ NUM	-0.28811333
-1.16464	ADV SCONJ NUM	-0.49923307
-1.4555976	AUX SCONJ NUM	-0.29604056
-1.3238307	PRON SCONJ NUM	-0.2970417
-1.0057979	INTJ SCONJ NUM	-0.28811333
-0.7669653	X SCONJ NUM	-0.28811333
-2.2288313	<s> VERB NUM	-0.5519258
-1.2654812	ADP VERB NUM	-0.8637535
-1.2150779	DET VERB NUM	-1.1645634
-1.2314924	PROPN VERB NUM	-1.3251325
-1.246634	CCONJ VERB NUM	-1.0698619
-1.2177265	NOUN VERB NUM	-1.4309961
-1.272513	PUNCT VERB NUM	-1.1711965
-1.307284	NUM VERB NUM	-0.51597834
-1.4799483	ADJ VERB NUM	-0.2921429
-1.3760104	SCONJ VERB NUM	-0.3865614
-1.2160089	VERB VERB NUM	-0.658742
-1.2168432	PART VERB NUM	-1.3192834
-1.2261035	ADV VERB NUM	-1.1394925
-1.1999573	AUX VERB NUM	-1.5166131
-1.2578954	PRON VERB NUM	-1.3402362
-1.503994	INTJ VERB NUM	-0.29604056
-1.405061	X VERB NUM	-0.29222697
-1.372018	SYM VERB NUM	-0.28811333
-2.2882922	<s> PART NUM	-0.28811333
-0.86096466	ADP PART NUM	-1.1219785
-1.1603944	PROPN PART NUM	-1.0312979
-1.5476458	CCONJ PART NUM	-0.29205886
-1.3133177	NOUN PART NUM	-0.8559084
-1.5021225	PUNCT PART NUM	-0.38810492
-0.7222797	NUM PART NUM	-1.070213
-1.1023762	ADJ PART NUM	-0.6226301
-1.4866413	SCONJ PART NUM	-0.28811333
-1.4136486	VERB PART NUM	-0.3241169
-1.3377727	ADV PART NUM	-0.65065885
-1.3641212	AUX PART NUM	-0.39621148
-1.663353	PRON PART NUM	-0.28811333
-1.7009052	<s> ADV NUM	-1.0973972
-1.132646	ADP ADV NUM	-1.407213
-1.4754066	DET ADV NUM	-0.5705675
-1.296713	PROPN ADV NUM	-0.5717069
-1.2123804	CCONJ ADV NUM	-0.8095233
-1.2920567	NOUN ADV NUM	-0.98136866
-1.1465268	PUNCT ADV NUM	-1.2480999
-1.4742229	NUM ADV NUM	-0.3467569
-1.5132997	ADJ ADV NUM	-0.4840004
-1.1358806	SCONJ ADV NUM	-0.87216675
-1.2402235	VERB ADV NUM	-1.4131591
-1.4059333	PART ADV NUM	-0.4716956
-1.2166362	ADV ADV NUM	-1.1842074
-1.2599196	AUX ADV NUM	-1.125382
-1.4840758	PRON ADV NUM	-0.61997664
-1.418289	INTJ ADV NUM	-0.28811333
-1.2880746	X ADV NUM	-0.28811333
-2.7523372	<s> AUX NUM	-0.29604056
-1.4555385	DET AUX NUM	-0.8932549
-1.1991699	PROPN AUX NUM	-1.0585237
-1.2364632	NOUN AUX NUM	-1.1187962
-1.2522364	PUNCT AUX NUM	-0.86012614
-1.408393	NUM AUX NUM	-0.2941296
-1.5730664	ADJ AUX NUM	-0.29285228
-1.4777902	VERB AUX NUM	-0.4171657
-1.4658878	ADV AUX NUM	-0.8257455
-1.2268875	PRON AUX NUM	-1.2537199
-3.2372549	<s> PRON NUM	-0.557371
-1.288792	ADP PRON NUM	-1.191202
-1.7335402	PROPN PRON NUM	-0.30005908
-1.593042	CCONJ PRON NUM	-0.6668585
-2.0152025	NOUN PRON NUM	-0.28811333
-1.6343762	PUNCT PRON NUM	-0.2941296
-1.8037229	SCONJ PRON NUM	-0.29057682
-1.2466326	VERB PRON NUM	-1.0400394
-1.532953	ADV PRON NUM	-0.41510403
-1.7243041	AUX PRON NUM	-0.29604056
-1.8493519	PRON PRON NUM	-0.28811333
-2.8704953	<s> INTJ NUM	-0.28811333
-1.4585172	ADP INTJ NUM	-0.28811333
-1.3003341	PROPN INTJ NUM	-0.28811333
-1.8332045	NOUN INTJ NUM	-0.28811333
-1.372132	ADV INTJ NUM	-0.29604056
-1.8874495	NOUN X NUM	-0.28811333
-1.6337394	PUNCT X NUM	-0.2941296
-1.6210471	VERB X NUM	-0.28811333
-1.5330958	ADV X NUM	-0.28811333
-1.8346945	X X NUM	-0.30005908
-0.37607688	SYM X NUM	-0.28811333
-1.2934761	<s> SYM NUM	-0.5140757
-0.6075357	ADP SYM NUM	-1.0946012
-0.50387365	DET SYM NUM	-0.63494
-0.7918465	PROPN SYM NUM	-0.73419076
-0.21895683	CCONJ SYM NUM	-1.4697913
-0.84048706	NOUN SYM NUM	-0.5841811
-0.6815749	PUNCT SYM NUM	-0.98161596
-0.30782846	NUM SYM NUM	-1.3673682
-0.91755676	ADJ SYM NUM	-0.50106156
-0.4218822	SCONJ SYM NUM	-0.72202927
-0.6785543	VERB SYM NUM	-0.9678724
-0.19603989	PART SYM NUM	-0.53500676
-0.37616265	ADV SYM NUM	-0.76196676
-0.66617554	AUX SYM NUM	-0.46870893
-0.7869659	PRON SYM NUM	-0.2970417
-0.6943893	X SYM NUM	-0.28811333
-0.6943893	SYM SYM NUM	-0.29404515
-1.1368635	<s> ADP ADJ	-1.6565323
-1.1371608	ADP ADP ADJ	-1.3950741
-0.9606151	DET ADP ADJ	-0.96917987
-1.082218	PROPN ADP ADJ	-1.6519903
-1.0990561	CCONJ ADP ADJ	-1.233116
-1.1770902	NOUN ADP ADJ	-2.7334049
-1.0857302	PUNCT ADP ADJ	-1.681768
-1.0327547	NUM ADP ADJ	-1.0151513
-1.1127847	ADJ ADP ADJ	-1.6707262
-0.99049336	SCONJ ADP ADJ	-1.0684519
-1.2131494	VERB ADP ADJ	-2.368011
-0.95334154	PART ADP ADJ	-0.8320548
-1.1029482	ADV ADP ADJ	-1.6250476
-1.0647299	AUX ADP ADJ	-1.070486
-1.0109847	PRON ADP ADJ	-1.2962654
-1.1411209	INTJ ADP ADJ	-0.29205886
-1.2065363	X ADP ADJ	-0.38810492
-0.73134923	<s> DET ADJ	-2.2860394
-1.1005695	ADP DET ADJ	-2.950201
-0.9387867	DET DET ADJ	-1.5864798
-0.9667984	PROPN DET ADJ	-1.1139917
-0.98735577	CCONJ DET ADJ	-1.9712468
-1.0238149	NOUN DET ADJ	-1.5437653
-1.0503052	PUNCT DET ADJ	-2.3293586
-1.0095549	NUM DET ADJ	-0.635376
-0.9131896	ADJ DET ADJ	-1.0100262
-1.0070437	SCONJ DET ADJ	-1.9737005
-1.0800307	VERB DET ADJ	-2.7122765
-0.8628924	PART DET ADJ	-1.4407643
-1.044194	ADV DET ADJ	-1.9412172
-0.99933803	AUX DET ADJ	-2.1719344
-0.9550122	PRON DET ADJ	-1.2858131
-1.1479245	INTJ DET ADJ	-0.594295
-1.0666062	X DET ADJ	-0.5342329
-2.5156326	<s> PROPN ADJ	-0.83674884
-1.3052748	ADP PROPN ADJ	-1.2824249
-1.3602362	DET PROPN ADJ	-1.3486111
-1.2873904	PROPN PROPN ADJ	-1.2530923
-1.2890518	CCONJ PROPN ADJ	-0.6633521
-1.2856421	NOUN PROPN ADJ	-0.7229103
-1.2568733	PUNCT PROPN ADJ	-0.9773627
-1.1654584	NUM PROPN ADJ	-0.7289195
-1.2445501	ADJ PROPN ADJ	-0.8894389
-1.5933148	SCONJ PROPN ADJ	-0.59222496
-1.2957728	VERB PROPN ADJ	-0.879164
-1.451061	PART PROPN ADJ	-0.5234022
-1.7220155	ADV PROPN ADJ	-0.38810492
-1.2094349	AUX PROPN ADJ	-0.4085218
-1.4167507	PRON PROPN ADJ	-0.4861662
-1.442791	X PROPN ADJ	-0.29604056
-1.4648765	SYM PROPN ADJ	-0.39901602
-1.5277443	<s> CCONJ ADJ	-0.8910325
-1.1044301	ADP CCONJ ADJ	-0.9029652
-1.0882007	DET CCONJ ADJ	-0.68029505
-1.1308677	PROPN CCONJ ADJ	-1.5561461
-1.0404998	CCONJ CCONJ ADJ	-0.2941296
-1.1420052	NOUN CCONJ ADJ	-2.1959777
-1.2105067	PUNCT CCONJ ADJ	-1.7076837
-1.0541562	NUM CCONJ ADJ	-0.80468166
-1.0232494	ADJ CCONJ ADJ	-2.1555893
-1.0576555	VERB CCONJ ADJ	-1.101786
-1.1991895	PART CCONJ ADJ	-0.45181572
-1.0560467	ADV CCONJ ADJ	-0.7300576
-1.0244212	AUX CCONJ ADJ	-0.7305276
-1.0823898	PRON CCONJ ADJ	-0.50480175
-1.0441129	INTJ CCONJ ADJ	-0.28811333
-1.0823736	X CCONJ ADJ	-0.28811333
-2.2079408	<s> NOUN ADJ	-0.6978456
-1.2493765	ADP NOUN ADJ	-1.3793491
-1.2681506	DET NOUN ADJ	-1.6740222
-1.2631103	PROPN NOUN ADJ	-0.831714
-1.2349774	CCONJ NOUN ADJ	-0.931688
-1.2110546	NOUN NOUN ADJ	-1.437423
-1.2618854	PUNCT NOUN ADJ	-1.3364408
-1.2113216	NUM NOUN ADJ	-1.3076535
-1.20808	ADJ NOUN ADJ	-1.6704042
-1.357358	SCONJ NOUN ADJ	-0.6153625
-1.1905828	VERB NOUN ADJ	-1.2839081
-1.5056121	PART NOUN ADJ	-0.6894161
-1.1767157	ADV NOUN ADJ	-0.5153432
-1.3573421	AUX NOUN ADJ	-0.53422666
-1.2422276	PRON NOUN ADJ	-0.98790014
-1.2530341	INTJ NOUN ADJ	-0.59515965
-1.3703363	X NOUN ADJ	-0.38952768
-1.614051	SYM NOUN ADJ	-0.29404515
-1.4077262	<s> PUNCT ADJ	-1.070486
-1.0911069	ADP PUNCT ADJ	-1.4861728
-1.142447	DET PUNCT ADJ	-1.7236985
-1.2175059	PROPN PUNCT ADJ	-1.7908132
-1.1999924	CCONJ PUNCT ADJ	-1.0094907
-1.2261921	NOUN PUNCT ADJ	-2.2224398
-1.2604403	PUNCT PUNCT ADJ	-1.3064293
-1.2041464	NUM PUNCT ADJ	-1.2951704
-1.1761146	ADJ PUNCT ADJ	-1.9085518
-1.2182989	SCONJ PUNCT ADJ	-0.7210818
-1.1977092	VERB PUNCT ADJ	-1.563826
-1.2274601	PART PUNCT ADJ	-0.9914202
-1.2058378	ADV PUNCT ADJ	-1.5247272
-1.1724122	AUX PUNCT ADJ	-0.8569733
-1.2396766	PRON PUNCT ADJ	-1.0544866
-1.3996873	INTJ PUNCT ADJ	-0.63768387
-1.5580851	X PUNCT ADJ	-0.56970084
-1.0887902	<s> NUM ADJ	-1.3221357
-1.159557	ADP NUM ADJ	-1.7189938
-1.0108249	DET NUM ADJ	-1.4290974
-1.2023633	PROPN NUM ADJ	-1.0123876
-0.9739435	CCONJ NUM ADJ	-1.0282104
-1.1911082	NOUN NUM ADJ	-0.9340295
-1.1424454	PUNCT NUM ADJ	-1.2120676
-0.9711393	NUM NUM ADJ	-1.0626658
-0.9937501	ADJ NUM ADJ	-0.9013983
-1.0750158	SCONJ NUM ADJ	-1.0938593
-1.1427367	VERB NUM ADJ	-1.3889152
-1.0735701	PART NUM ADJ	-0.8394109
-1.0149417	ADV NUM ADJ	-1.1832814
-1.0809765	AUX NUM ADJ	-1.1778443
-1.0061626	PRON NUM ADJ	-1.1204987
-1.2817901	SYM NUM ADJ	-0.5371676
-1.0650573	<s> ADJ ADJ	-1.661632
-1.104546	ADP ADJ ADJ	-2.1443212
-1.1095215	DET ADJ ADJ	-2.3426898
-0.9508311	PROPN ADJ ADJ	-1.1661137
-1.0038514	CCONJ ADJ ADJ	-1.7614591
-1.114585	NOUN ADJ ADJ	-1.2110739
-1.0384203	PUNCT ADJ ADJ	-1.7873161
-0.89609313	NUM ADJ ADJ	-1.3937305
-0.9863074	ADJ ADJ ADJ	-2.0868485
-0.978727	SCONJ ADJ ADJ	-1.3112773
-1.1069607	VERB ADJ ADJ	-1.8336217
-1.0304372	PART ADJ ADJ	-1.4729775
-1.1007358	ADV ADJ ADJ	-1.5411139
-1.0584265	AUX ADJ ADJ	-1.0922939
-1.0116128	PRON ADJ ADJ	-1.6027329
-0.950878	INTJ ADJ ADJ	-0.38810492
-0.96637285	X ADJ ADJ	-0.3478635
-0.88398945	SYM ADJ ADJ	-0.56048226
-1.1470398	<s> SCONJ ADJ	-1.2265601
-1.1826786	ADP SCONJ ADJ	-0.63223886
-1.3466189	DET SCONJ ADJ	-0.28811333
-1.3762115	PROPN SCONJ ADJ	-0.64211845
-1.0367699	CCONJ SCONJ ADJ	-0.82205576
-1.118752	NOUN SCONJ ADJ	-1.3568047
-1.0288858	PUNCT SCONJ ADJ	-1.1406454
-1.2681388	NUM SCONJ ADJ	-0.36975807
-1.1082773	ADJ SCONJ ADJ	-1.124403
-1.1284692	SCONJ SCONJ ADJ	-0.82089144
-1.1030929	VERB SCONJ ADJ	-1.5920879
-1.252309	PART SCONJ ADJ	-0.28811333
-1.0455683	ADV SCONJ ADJ	-0.8142184
-1.0370739	AUX SCONJ ADJ	-0.9382718
-1.1136104	PRON SCONJ ADJ	-0.6433774
-1.3682666	<s> VERB ADJ	-1.0997514
-1.1599551	ADP VERB ADJ	-1.7251453
-1.152571	DET VERB ADJ	-1.8056208
-1.1774105	PROPN VERB ADJ	-1.6355096
-1.1740488	CCONJ VERB ADJ	-1.7536186
-1.1930178	NOUN VERB ADJ	-2.0608623
-1.1566435	PUNCT VERB ADJ	-1.7633297
-1.0579835	NUM VERB ADJ	-0.8866849
-1.0803099	ADJ VERB ADJ	-0.96909744
-1.0677805	SCONJ VERB ADJ	-0.90425855
-1.0908891	VERB VERB ADJ	-1.2980194
-1.1591651	PART VERB ADJ	-2.1939337
-1.1684254	ADV VERB ADJ	-1.813296
-1.172075	AUX VERB ADJ	-2.2424836
-1.2002172	PRON VERB ADJ	-2.0992222
-1.0450014	INTJ VERB ADJ	-0.4970733
-1.0041413	X VERB ADJ	-0.594295
-1.1315608	SYM VERB ADJ	-0.46728617
-1.5204444	<s> PART ADJ	-0.33727658
-1.2153413	ADP PART ADJ	-0.29349443
-0.9250122	DET PART ADJ	-0.29764348
-0.9753108	PROPN PART ADJ	-1.9541547
-1.089459	CCONJ PART ADJ	-0.77630377
-1.0289772	NOUN PART ADJ	-1.7641202
-1.0330124	PUNCT PART ADJ	-0.7022885
-1.2466466	NUM PART ADJ	-0.5458493
-1.087705	ADJ PART ADJ	-0.5234022
-0.8771597	SCONJ PART ADJ	-0.6345824
-1.0939965	VERB PART ADJ	-1.3517823
-1.5131446	PART PART ADJ	-0.28811333
-0.9648166	ADV PART ADJ	-0.69569325
-1.0844721	AUX PART ADJ	-1.5189589
-1.0835398	PRON PART ADJ	-0.5696447
-0.7724171	X PART ADJ	-0.28811333
-1.3762769	<s> ADV ADJ	-1.2798387
-1.0977323	ADP ADV ADJ	-1.4364048
-1.0135618	DET ADV ADJ	-2.0030675
-1.132614	PROPN ADV ADJ	-0.78470755
-1.1674194	CCONJ ADV ADJ	-1.4618554
-1.1931741	NOUN ADV ADJ	-1.4172288
-1.1442225	PUNCT ADV ADJ	-1.5313623
-0.9409386	NUM ADV ADJ	-0.84446216
-1.0905434	ADJ ADV ADJ	-0.9484231
-1.052448	SCONJ ADV ADJ	-0.75914204
-1.1479475	VERB ADV ADJ	-2.1090984
-1.0259665	PART ADV ADJ	-1.4241412
-1.1243601	ADV ADV ADJ	-1.6487973
-1.0357972	AUX ADV ADJ	-2.032578
-1.0316691	PRON ADV ADJ	-1.2497107
-1.2411872	INTJ ADV ADJ	-0.29604056
-0.6790775	X ADV ADJ	-0.36975807
-0.78803945	SYM ADV ADJ	-0.30005908
-1.7624236	<s> AUX ADJ	-0.6138837
-1.3916626	ADP AUX ADJ	-0.29489923
-1.0518118	DET AUX ADJ	-1.1308781
-1.0683079	PROPN AUX ADJ	-1.4967301
-1.2870854	CCONJ AUX ADJ	-0.29326499
-1.131809	NOUN AUX ADJ	-1.9721723
-1.1932038	PUNCT AUX ADJ	-1.1590849
-1.1088258	NUM AUX ADJ	-0.5153432
-1.0686765	ADJ AUX ADJ	-0.76304764
-1.087945	VERB AUX ADJ	-0.8211721
-0.9985806	PART AUX ADJ	-0.38064462
-1.0938778	ADV AUX ADJ	-0.7945459
-0.99355555	AUX AUX ADJ	-0.5309094
-1.1222883	PRON AUX ADJ	-2.0239334
-1.7800333	<s> PRON ADJ	-1.2653853
-1.1690556	ADP PRON ADJ	-2.1980186
-1.2130601	DET PRON ADJ	-0.87770617
-1.2727346	PROPN PRON ADJ	-0.48955965
-1.0920379	CCONJ PRON ADJ	-1.3477553
-1.1346931	NOUN PRON ADJ	-0.75910985
-1.1365377	PUNCT PRON ADJ	-1.2157053
-1.3242943	NUM PRON ADJ	-0.28811333
-1.1935766	ADJ PRON ADJ	-0.6891349
-1.0756371	SCONJ PRON ADJ	-1.1454536
-1.1423249	VERB PRON ADJ	-2.0435631
-1.1511241	PART PRON ADJ	-0.5509589
-1.1018006	ADV PRON ADJ	-0.85277635
-1.0788977	AUX PRON ADJ	-1.1965157
-1.2003968	PRON PRON ADJ	-0.7413536
-1.2565444	INTJ PRON ADJ	-0.29604056
-1.0891942	X PRON ADJ	-0.28811333
-1.0079365	SYM PRON ADJ	-0.5342329
-1.9493625	<s> INTJ ADJ	-0.3366089
-0.8126503	DET INTJ ADJ	-0.30005908
-1.2470014	PROPN INTJ ADJ	-0.28811333
-1.3850145	CCONJ INTJ ADJ	-0.28811333
-1.4157059	NOUN INTJ ADJ	-0.5458493
-1.2608525	PUNCT INTJ ADJ	-0.3352377
-0.8604007	NUM INTJ ADJ	-0.28811333
-1.3041915	ADJ INTJ ADJ	-0.28811333
-1.339964	VERB INTJ ADJ	-0.29604056
-1.0414817	ADV INTJ ADJ	-0.29764348
-1.3528132	PRON INTJ ADJ	-0.28811333
-1.280615	INTJ INTJ ADJ	-0.29222697
-1.7662675	<s> X ADJ	-0.46728617
-1.2422879	ADP X ADJ	-0.4171657
-0.88980055	DET X ADJ	-0.36975807
-1.1824816	PROPN X ADJ	-0.29119492
-0.98566765	NOUN X ADJ	-0.6973562
-1.2121545	PUNCT X ADJ	-0.3998978
-1.0235071	ADJ X ADJ	-0.29285228
-1.290048	VERB X ADJ	-0.29222697
-0.8782737	ADV X ADJ	-0.29057682
-1.0781238	AUX X ADJ	-0.28811333
-0.89855677	INTJ X ADJ	-0.5140757
-0.9558273	X X ADJ	-0.53308415
-1.9396563	<s> SYM ADJ	-0.28811333
-1.342448	ADP SYM ADJ	-0.40078136
-1.0581418	DET SYM ADJ	-0.4171657
-0.8914324	PROPN SYM ADJ	-0.46625656
-1.3468064	CCONJ SYM ADJ	-0.28811333
-0.74120045	NOUN SYM ADJ	-0.7689351
-0.9951263	PUNCT SYM ADJ	-0.3467569
-0.4955203	ADJ SYM ADJ	-0.6601477
-1.1949978	VERB SYM ADJ	-0.2953429
-0.7516773	INTJ SYM ADJ	-0.28811333
-2.7551968	<s> ADP SCONJ	-0.4050554
-1.5960929	ADP ADP SCONJ	-0.40929118
-1.5627421	DET ADP SCONJ	-0.29057682
-1.6007009	PROPN ADP SCONJ	-0.33548847
-1.5246668	CCONJ ADP SCONJ	-0.38810492
-1.2990611	NOUN ADP SCONJ	-0.86560667
-1.3231895	PUNCT ADP SCONJ	-0.7065118
-1.6002345	ADJ ADP SCONJ	-0.6881053
-1.928991	SCONJ ADP SCONJ	-0.28811333
-1.2467124	VERB ADP SCONJ	-1.3493131
-1.5692832	PART ADP SCONJ	-0.29285228
-1.286348	ADV ADP SCONJ	-0.5803342
-1.6503963	AUX ADP SCONJ	-0.4840004
-1.712906	PRON ADP SCONJ	-0.5407289
-0.9921269	SYM ADP SCONJ	-0.28811333
-4.2175493	<s> DET SCONJ	-0.28811333
-1.4610785	ADP DET SCONJ	-0.5934802
-2.0089364	DET DET SCONJ	-0.28811333
-1.9183488	NOUN DET SCONJ	-0.30005908
-1.746887	PUNCT DET SCONJ	-0.295084
-2.0572	SCONJ DET SCONJ	-0.28811333
-1.6866984	VERB DET SCONJ	-0.40803912
-2.0869038	ADV DET SCONJ	-0.28811333
-1.9769977	AUX DET SCONJ	-0.28811333
-1.9409639	PRON DET SCONJ	-0.28811333
-3.42014	<s> PROPN SCONJ	-0.29326499
-1.384903	ADP PROPN SCONJ	-1.2944654
-1.8439121	DET PROPN SCONJ	-0.674642
-1.3198624	PROPN PROPN SCONJ	-1.1499144
-1.7148635	CCONJ PROPN SCONJ	-0.40713388
-1.6295438	NOUN PROPN SCONJ	-0.48273697
-1.8939357	PUNCT PROPN SCONJ	-0.29295328
-1.7889255	NUM PROPN SCONJ	-0.38810492
-1.2831235	ADJ PROPN SCONJ	-0.59452444
-1.9226427	SCONJ PROPN SCONJ	-0.28811333
-1.3340305	VERB PROPN SCONJ	-0.7699457
-1.5029032	PART PROPN SCONJ	-0.28811333
-1.9100821	ADV PROPN SCONJ	-0.28811333
-1.8396747	PRON PROPN SCONJ	-0.28811333
-1.533032	INTJ PROPN SCONJ	-0.28811333
-1.5948889	X PROPN SCONJ	-0.28811333
-1.4656123	SYM PROPN SCONJ	-0.43908137
-1.3434874	<s> CCONJ SCONJ	-1.1049927
-1.0562153	ADP CCONJ SCONJ	-0.5913823
-1.5386887	DET CCONJ SCONJ	-0.28811333
-1.4386652	PROPN CCONJ SCONJ	-0.58520603
-1.3130577	CCONJ CCONJ SCONJ	-0.28811333
-1.3065141	NOUN CCONJ SCONJ	-1.1418214
-1.214241	PUNCT CCONJ SCONJ	-1.4319365
-1.6893642	NUM CCONJ SCONJ	-0.2901653
-1.5361764	ADJ CCONJ SCONJ	-0.7304092
-1.3367352	VERB CCONJ SCONJ	-0.7079267
-1.4435676	PART CCONJ SCONJ	-0.28811333
-1.3659444	ADV CCONJ SCONJ	-0.51399165
-1.4907757	AUX CCONJ SCONJ	-0.28811333
-1.5356637	PRON CCONJ SCONJ	-0.59266686
-1.0527536	INTJ CCONJ SCONJ	-0.30005908
-2.738534	<s> NOUN SCONJ	-0.5362153
-1.2521986	ADP NOUN SCONJ	-1.4138212
-1.2408673	DET NOUN SCONJ	-1.9427489
-1.2982812	PROPN NOUN SCONJ	-0.8823478
-1.6023107	CCONJ NOUN SCONJ	-0.75012195
-1.3228669	NOUN NOUN SCONJ	-1.3688761
-1.3795581	PUNCT NOUN SCONJ	-0.67050254
-1.2137313	NUM NOUN SCONJ	-0.98657596
-1.2897869	ADJ NOUN SCONJ	-1.7730443
-1.4461367	SCONJ NOUN SCONJ	-0.3366089
-1.2776031	VERB NOUN SCONJ	-1.3591738
-1.3346338	PART NOUN SCONJ	-0.90890723
-1.4167808	ADV NOUN SCONJ	-0.4970396
-1.5470175	AUX NOUN SCONJ	-0.6903232
-1.2835358	PRON NOUN SCONJ	-1.1864421
-1.5703703	X NOUN SCONJ	-0.28811333
-1.5798154	SYM NOUN SCONJ	-0.29404515
-1.5584809	<s> PUNCT SCONJ	-0.9356406
-1.3645267	ADP PUNCT SCONJ	-0.60342807
-1.2482804	DET PUNCT SCONJ	-0.5720677
-1.3268827	PROPN PUNCT SCONJ	-1.3659708
-1.34982	CCONJ PUNCT SCONJ	-0.7334623
-1.2512031	NOUN PUNCT SCONJ	-1.8760732
-1.3654711	PUNCT PUNCT SCONJ	-1.0022906
-1.2343374	NUM PUNCT SCONJ	-0.75421184
-1.2606664	ADJ PUNCT SCONJ	-1.0960765
-1.2777841	SCONJ PUNCT SCONJ	-0.64124024
-1.2522808	VERB PUNCT SCONJ	-1.1826742
-1.4362452	PART PUNCT SCONJ	-0.29211485
-1.2640593	ADV PUNCT SCONJ	-1.2260697
-1.3504239	AUX PUNCT SCONJ	-0.3865614
-1.3271865	PRON PUNCT SCONJ	-0.8057886
-1.1899031	INTJ PUNCT SCONJ	-0.5256482
-1.3345193	X PUNCT SCONJ	-0.29205886
-2.5397813	<s> NUM SCONJ	-0.37452412
-1.2756548	ADP NUM SCONJ	-0.5376868
-1.7558687	DET NUM SCONJ	-0.28811333
-1.417039	PROPN NUM SCONJ	-0.5510593
-1.75388	CCONJ NUM SCONJ	-0.28811333
-1.7668563	NOUN NUM SCONJ	-0.28811333
-1.463969	PUNCT NUM SCONJ	-0.82205576
-1.9327012	NUM NUM SCONJ	-0.30005908
-1.6149899	ADJ NUM SCONJ	-0.28811333
-1.2734356	SCONJ NUM SCONJ	-0.6891349
-1.3157982	VERB NUM SCONJ	-0.5153432
-1.4577348	ADV NUM SCONJ	-0.7693482
-1.7568797	SYM NUM SCONJ	-0.29404515
-1.5633324	<s> ADJ SCONJ	-1.1242553
-1.135147	ADP ADJ SCONJ	-1.4587433
-1.2741352	DET ADJ SCONJ	-0.8203267
-1.2606705	PROPN ADJ SCONJ	-0.5925061
-1.154132	CCONJ ADJ SCONJ	-0.97256726
-1.117508	NOUN ADJ SCONJ	-1.0497997
-1.1911476	PUNCT ADJ SCONJ	-1.0723803
-1.6809831	NUM ADJ SCONJ	-0.29404515
-1.2881733	ADJ ADJ SCONJ	-0.42725554
-1.11141	SCONJ ADJ SCONJ	-0.90329593
-1.1357126	VERB ADJ SCONJ	-1.6205032
-1.107077	PART ADJ SCONJ	-0.889223
-1.1576022	ADV ADJ SCONJ	-1.5193
-1.1416335	AUX ADJ SCONJ	-1.4402248
-1.2075415	PRON ADJ SCONJ	-0.93330264
-1.3962549	INTJ ADJ SCONJ	-0.28811333
-1.3180597	X ADJ SCONJ	-0.28811333
-2.4406734	<s> SCONJ SCONJ	-0.4861662
-1.5660671	ADP SCONJ SCONJ	-0.54708636
-1.3644186	DET SCONJ SCONJ	-0.28811333
-1.284014	PROPN SCONJ SCONJ	-0.6118113
-1.5457072	CCONJ SCONJ SCONJ	-0.29057682
-1.1223766	NOUN SCONJ SCONJ	-1.1197184
-1.1958805	PUNCT SCONJ SCONJ	-0.9847493
-1.5051564	NUM SCONJ SCONJ	-0.28811333
-1.3473221	ADJ SCONJ SCONJ	-0.54344887
-1.6772723	SCONJ SCONJ SCONJ	-0.28811333
-1.1685212	VERB SCONJ SCONJ	-1.1867057
-1.2910354	ADV SCONJ SCONJ	-0.46877205
-1.3599079	AUX SCONJ SCONJ	-0.37213454
-1.3639576	PRON SCONJ SCONJ	-0.5717069
-1.8177778	<s> VERB SCONJ	-0.7634942
-1.1625826	ADP VERB SCONJ	-1.0160222
-1.18535	DET VERB SCONJ	-1.2165381
-1.1798166	PROPN VERB SCONJ	-1.8846152
-1.2501692	CCONJ VERB SCONJ	-1.3597051
-1.1952906	NOUN VERB SCONJ	-1.9216164
-1.2134516	PUNCT VERB SCONJ	-1.6446569
-1.2581769	NUM VERB SCONJ	-0.5080401
-1.145561	ADJ VERB SCONJ	-0.7947182
-1.3119863	SCONJ VERB SCONJ	-0.41579017
-1.2192208	VERB VERB SCONJ	-0.8063547
-1.2519794	PART VERB SCONJ	-1.7074059
-1.1990339	ADV VERB SCONJ	-1.6670412
-1.1746311	AUX VERB SCONJ	-1.9041123
-1.2027735	PRON VERB SCONJ	-1.891969
-1.5681989	INTJ VERB SCONJ	-0.41510403
-1.2735481	X VERB SCONJ	-0.29404515
-1.6512117	<s> PART SCONJ	-0.5421044
-1.4747138	ADP PART SCONJ	-0.30005908
-1.8605182	PROPN PART SCONJ	-0.28811333
-1.5813543	CCONJ PART SCONJ	-0.2941296
-1.5403899	NOUN PART SCONJ	-0.59222496
-1.331457	PUNCT PART SCONJ	-0.6390144
-1.607053	ADJ PART SCONJ	-0.28811333
-1.6218752	VERB PART SCONJ	-0.40240946
-1.6727791	ADV PART SCONJ	-0.30005908
-1.3806142	AUX PART SCONJ	-0.5206378
-1.7103156	PRON PART SCONJ	-0.28811333
-1.5149345	<s> ADV SCONJ	-1.3432778
-1.4828665	ADP ADV SCONJ	-0.41779897
-1.4897896	DET ADV SCONJ	-0.36402678
-1.3579254	PROPN ADV SCONJ	-0.56307
-1.3196471	CCONJ ADV SCONJ	-0.8587308
-1.2316318	NOUN ADV SCONJ	-1.2482746
-1.1779103	PUNCT ADV SCONJ	-1.3541875
-1.6858023	NUM ADV SCONJ	-0.28811333
-1.2627947	ADJ ADV SCONJ	-0.57075846
-1.2438809	SCONJ ADV SCONJ	-0.6903902
-1.1838102	VERB ADV SCONJ	-1.2031063
-1.2854512	PART ADV SCONJ	-0.59467053
-1.1904643	ADV ADV SCONJ	-0.9967748
-1.3804096	AUX ADV SCONJ	-0.6537568
-1.3479458	PRON ADV SCONJ	-0.7481065
-2.9418976	<s> AUX SCONJ	-0.28811333
-1.4766481	ADP AUX SCONJ	-0.28811333
-1.3704753	DET AUX SCONJ	-0.57938945
-1.3566855	PROPN AUX SCONJ	-0.6579086
-1.7931956	CCONJ AUX SCONJ	-0.28811333
-1.1967256	NOUN AUX SCONJ	-1.3879924
-1.3450656	PUNCT AUX SCONJ	-0.60216975
-1.6986803	NUM AUX SCONJ	-0.29222697
-1.1192172	ADJ AUX SCONJ	-0.690497
-1.1867191	VERB AUX SCONJ	-0.78898335
-1.266077	ADV AUX SCONJ	-0.56568205
-1.336154	PRON AUX SCONJ	-0.710319
-3.0946996	<s> PRON SCONJ	-0.42824706
-1.4146789	ADP PRON SCONJ	-0.9107789
-1.8389288	DET PRON SCONJ	-0.28811333
-1.8904175	PROPN PRON SCONJ	-0.29222697
-1.7238247	CCONJ PRON SCONJ	-0.29119492
-1.9930732	NOUN PRON SCONJ	-0.30005908
-1.4070657	PUNCT PRON SCONJ	-0.3792926
-2.003116	SCONJ PRON SCONJ	-0.28811333
-1.2437471	VERB PRON SCONJ	-1.3475661
-1.6325461	ADV PRON SCONJ	-0.29119492
-1.191965	AUX PRON SCONJ	-0.5656362
-1.652329	PRON PRON SCONJ	-0.28811333
-2.0425775	<s> INTJ SCONJ	-0.47022086
-1.2021466	ADP INTJ SCONJ	-0.30005908
-1.6145811	PROPN INTJ SCONJ	-0.28811333
-1.7768235	PUNCT INTJ SCONJ	-0.28811333
-1.3240426	AUX INTJ SCONJ	-0.28811333
-1.5588465	PROPN X SCONJ	-0.28811333
-1.7930686	PUNCT X SCONJ	-0.30005908
-1.6448852	ADV X SCONJ	-0.28811333
-1.4905431	<s> ADP VERB	-1.3152121
-1.1371608	ADP ADP VERB	-0.69796175
-1.1845884	DET ADP VERB	-0.5078174
-1.1400013	PROPN ADP VERB	-1.4184175
-1.0990561	CCONJ ADP VERB	-0.87024736
-1.2031653	NOUN ADP VERB	-2.3165073
-1.0857302	PUNCT ADP VERB	-1.4847424
-1.101155	NUM ADP VERB	-0.56110066
-1.1744149	ADJ ADP VERB	-1.5332963
-1.1404872	SCONJ ADP VERB	-0.5951725
-1.2131494	VERB ADP VERB	-1.9644358
-1.2312859	PART ADP VERB	-0.46130413
