\data\
ngram 1=20
ngram 2=322
ngram 3=4293
ngram 4=33800

\1-grams:
-2.3552456	<unk>	0
0	<s>	-inf
-1.2794285	</s>	0
-1.2544924	ADP	-inf
-1.2544924	DET	-inf
-1.2544924	PROPN	-inf
-1.2544924	CCONJ	-inf
-1.2544924	NOUN	-inf
-1.2544924	PUNCT	-inf
-1.2544924	NUM	-inf
-1.2544924	ADJ	-inf
-1.2794285	SCONJ	-2.2474823
-1.2544924	VERB	-inf
-1.2544924	PART	-inf
-1.2544924	ADV	-inf
-1.2544924	AUX	-inf
-1.2544924	PRON	-inf
-1.2544924	INTJ	-inf
-1.2544924	X	-inf
-1.2544924	SYM	-1.5682017

\2-grams:
-1.366423	ADP </s>	0
-1.6418045	DET </s>	0
-1.234686	PROPN </s>	0
-1.6954817	CCONJ </s>	0
-1.2471546	NOUN </s>	0
-1.2318659	PUNCT </s>	0
-1.2191259	NUM </s>	0
-1.230449	ADJ </s>	0
-1.5615122	SCONJ </s>	0
-1.2416571	VERB </s>	0
-1.5603052	PART </s>	0
-1.2289436	ADV </s>	0
-1.60206	AUX </s>	0
-1.2942966	PRON </s>	0
-1.4890205	INTJ </s>	0
-1.4149734	X </s>	0
-2.0874047	SYM </s>	0
-1.0150058	<s> ADP	-2.735998
-1.2151552	ADP ADP	-0.835407
-1.1895068	DET ADP	-0.83157694
-1.234686	PROPN ADP	-0.91731685
-1.1903317	CCONJ ADP	-0.7731558
-1.2471546	NOUN ADP	-1.016534
-1.2566894	PUNCT ADP	-0.9259977
-1.1679734	NUM ADP	-0.87040013
-1.2056253	ADJ ADP	-0.91697305
-1.1662915	SCONJ ADP	-0.8608521
-1.2416571	VERB ADP	-1.0198492
-1.1923285	PART ADP	-0.7227897
-1.2289436	ADV ADP	-0.9045012
-1.2662679	AUX ADP	-0.7228721
-1.20412	PRON ADP	-0.7618204
-1.225779	INTJ ADP	-0.50392103
-1.146128	X ADP	-0.523074
-1.425503	SYM ADP	-0.38729176
-0.7415095	<s> DET	-3.0179164
-1.1903317	ADP DET	-0.9581824
-1.2438645	DET DET	-0.83377486
-1.234686	PROPN DET	-0.8222908
-1.1640028	CCONJ DET	-0.84091765
-1.2471546	NOUN DET	-0.91770643
-1.2566894	PUNCT DET	-0.9060238
-1.2471546	NUM DET	-0.69603765
-1.3469545	ADJ DET	-0.7289747
-1.1121697	SCONJ DET	-0.8999642
-1.2416571	VERB DET	-0.94639087
-1.1343366	PART DET	-0.7532433
-1.2552725	ADV DET	-0.90466154
-1.1760912	AUX DET	-0.8231731
-1.2321486	PRON DET	-0.76660454
-1.1879904	INTJ DET	-0.46403518
-1.2600714	X DET	-0.49644092
-1.3320874	SYM DET	-0.34623277
-0.8098276	<s> PROPN	-2.8706887
-1.1903317	ADP PROPN	-0.9908285
-1.1646833	DET PROPN	-0.9280806
-1.234686	PROPN PROPN	-1.0296457
-1.1903317	CCONJ PROPN	-0.75085753
-1.2471546	NOUN PROPN	-0.93233186
-1.2566894	PUNCT PROPN	-0.96910924
-1.2191259	NUM PROPN	-0.8865744
-1.2056253	ADJ PROPN	-0.96051806
-1.1662915	SCONJ PROPN	-0.8321551
-1.2416571	VERB PROPN	-0.9950974
-1.2970638	PART PROPN	-0.5290742
-1.2552725	ADV PROPN	-0.84609056
-1.2340832	AUX PROPN	-0.7604276
-1.1777911	PRON PROPN	-0.7876522
-1.225779	INTJ PROPN	-0.5016878
-1.0559514	X PROPN	-0.5330564
-0.8106294	SYM PROPN	-0.6904934
-1.4698563	<s> CCONJ	-2.2440023
-1.2695129	ADP CCONJ	-0.70405114
-1.2438645	DET CCONJ	-0.543681
-1.234686	PROPN CCONJ	-0.9491345
-1.4913617	CCONJ CCONJ	-0.3751473
-1.2471546	NOUN CCONJ	-0.9669475
-1.2318659	PUNCT CCONJ	-0.9442857
-1.192797	NUM CCONJ	-0.80287707
-1.230449	ADJ CCONJ	-0.9080454
-1.3002615	SCONJ CCONJ	-0.5033659
-1.2664807	VERB CCONJ	-0.8919605
-1.3842139	PART CCONJ	-0.43164995
-1.2552725	ADV CCONJ	-0.8034904
-1.2662679	AUX CCONJ	-0.48404202
-1.2321486	PRON CCONJ	-0.682001
-1.3129293	INTJ CCONJ	-0.33253944
-1.3058288	X CCONJ	-0.42972943
-2.0829697	SYM CCONJ	-0.35444853
-1.001514	<s> NOUN	-2.6790023
-1.1903317	ADP NOUN	-1.0064336
-1.1646833	DET NOUN	-1.0198492
-1.234686	PROPN NOUN	-1.0098265
-1.1640028	CCONJ NOUN	-0.8318927
-1.2471546	NOUN NOUN	-1.0755646
-1.2318659	PUNCT NOUN	-0.99956715
-1.1679734	NUM NOUN	-1.0148667
-1.2056253	ADJ NOUN	-1.066761
-1.138388	SCONJ NOUN	-0.76963705
-1.2416571	VERB NOUN	-1.0376439
-1.1623652	PART NOUN	-0.6994848
-1.20412	ADV NOUN	-0.87864697
-1.1497624	AUX NOUN	-0.77118886
-1.1529675	PRON NOUN	-0.9137606
-1.0630517	INTJ NOUN	-0.60468125
-1.0839801	X NOUN	-0.6523858
-0.8366945	SYM NOUN	-0.650269
-1.5271039	<s> PUNCT	-2.1614532
-1.2151552	ADP PUNCT	-0.8656129
-1.1895068	DET PUNCT	-0.8912356
-1.234686	PROPN PUNCT	-1.0682408
-1.2183604	CCONJ PUNCT	-0.6746283
-1.2471546	NOUN PUNCT	-1.0841932
-1.2318659	PUNCT PUNCT	-1.003014
-1.1679734	NUM PUNCT	-0.9709613
-1.2056253	ADJ PUNCT	-1.0115131
-1.1961114	SCONJ PUNCT	-0.7525144
-1.2416571	VERB PUNCT	-1.024775
-1.1623652	PART PUNCT	-0.7699562
-1.20412	ADV PUNCT	-1.0181947
-1.1760912	AUX PUNCT	-0.75657856
-1.1777911	PRON PUNCT	-0.8854507
-1.0118992	INTJ PUNCT	-0.7359539
-1.0839801	X PUNCT	-0.65715235
-1.425503	SYM PUNCT	-0.35444853
-1.7757018	<s> NUM	-1.9559671
-1.2151552	ADP NUM	-0.93681467
-1.2158358	DET NUM	-0.7866743
-1.2595096	PROPN NUM	-0.9014659
-1.2183604	CCONJ NUM	-0.66226816
-1.2471546	NOUN NUM	-0.7864706
-1.2566894	PUNCT NUM	-0.8160258
-1.2191259	NUM NUM	-0.8357573
-1.230449	ADJ NUM	-0.6854085
-1.1121697	SCONJ NUM	-0.71512353
-1.2416571	VERB NUM	-0.87057346
-1.2245132	PART NUM	-0.57805777
-1.2289436	ADV NUM	-0.7914434
-1.3802112	AUX NUM	-0.59637403
-1.40824	PRON NUM	-0.50079757
-1.4220737	INTJ NUM	-0.4722745
-1.6580114	X NUM	-0.34623277
-0.8106294	SYM NUM	-0.79969203
-1.3211817	<s> ADJ	-2.4199169
-1.1903317	ADP ADJ	-0.9322168
-1.1646833	DET ADJ	-0.92390466
-1.2595096	PROPN ADJ	-0.7745837
-1.1640028	CCONJ ADJ	-0.8036996
-1.2471546	NOUN ADJ	-0.8987465
-1.2566894	PUNCT ADJ	-0.8740513
-1.192797	NUM ADJ	-0.81170183
-1.2056253	ADJ ADJ	-0.8509724
-1.1662915	SCONJ ADJ	-0.7904503
-1.2416571	VERB ADJ	-0.95428735
-1.1623652	PART ADJ	-0.8222876
-1.20412	ADV ADJ	-0.98495495
-1.20412	AUX ADJ	-0.7817451
-1.1529675	PRON ADJ	-0.8242322
-1.225779	INTJ ADJ	-0.4911281
-1.146128	X ADJ	-0.5631926
-0.9601407	SYM ADJ	-0.5138136
-1.5941924	<s> SCONJ	-2.1658947
-1.2414842	ADP SCONJ	-0.690248
-1.4657133	DET SCONJ	-0.46505308
-1.3138672	PROPN SCONJ	-0.7101552
-1.2805083	CCONJ SCONJ	-0.68860334
-1.2719783	NOUN SCONJ	-0.90082985
-1.2566894	PUNCT SCONJ	-0.91499275
-1.2771178	NUM SCONJ	-0.55543625
-1.2056253	ADJ SCONJ	-0.85469073
-1.1962314	SCONJ SCONJ	-0.69565046
-1.2416571	VERB SCONJ	-0.92198396
-1.2970638	PART SCONJ	-0.61443734
-1.2833012	ADV SCONJ	-0.8522619
-1.30103	AUX SCONJ	-0.704189
-1.3668473	PRON SCONJ	-0.538972
-1.4220737	INTJ SCONJ	-0.42868447
-1.6580114	X SCONJ	-0.34218243
-1.3792276	<s> VERB	-2.3180947
-1.2151552	ADP VERB	-0.9546073
-1.1895068	DET VERB	-0.9616152
-1.234686	PROPN VERB	-0.99609274
-1.1640028	CCONJ VERB	-0.90836203
-1.2471546	NOUN VERB	-1.0516798
-1.2318659	PUNCT VERB	-0.98191047
-1.2191259	NUM VERB	-0.8486304
-1.2056253	ADJ VERB	-0.90296185
-1.1662915	SCONJ VERB	-0.81339574
-1.2416571	VERB VERB	-0.91286254
-1.083184	PART VERB	-0.98191047
-1.20412	ADV VERB	-0.96724933
-1.1249387	AUX VERB	-0.9782913
-1.1529675	PRON VERB	-1.0131931
-1.0910804	INTJ VERB	-0.66226816
-1.0559514	X VERB	-0.57319623
-1.0830973	SYM VERB	-0.42175764
-2.2424037	<s> PART	-1.6396635
-1.2695129	ADP PART	-0.5739334
-1.3060124	DET PART	-0.5580749
-1.234686	PROPN PART	-0.8816052
-1.2183604	CCONJ PART	-0.6964977
-1.2719783	NOUN PART	-0.86625516
-1.2566894	PUNCT PART	-0.77578455
-1.2471546	NUM PART	-0.60094076
-1.2056253	ADJ PART	-0.74880314
-1.2281309	SCONJ PART	-0.6686639
-1.2416571	VERB PART	-0.8613079
-1.1923285	PART PART	-0.78604794
-1.2552725	ADV PART	-0.7579424
-1.1760912	AUX PART	-0.7909548
-1.2321486	PRON PART	-0.6537363
-1.4890205	INTJ PART	-0.37938333
-1.4149734	X PART	-0.38420126
-2.0829697	SYM PART	-0.35444853
-1.0687143	<s> ADV	-2.6460907
-1.2414842	ADP ADV	-0.8787483
-1.1895068	DET ADV	-0.8196
-1.234686	PROPN ADV	-0.9130373
-1.1903317	CCONJ ADV	-0.8503701
-1.2471546	NOUN ADV	-0.9801047
-1.2566894	PUNCT ADV	-0.9845113
-1.2191259	NUM ADV	-0.74287915
-1.2848066	ADJ ADV	-0.8779595
-1.1961114	SCONJ ADV	-0.8004074
-1.2416571	VERB ADV	-0.9653814
-1.1080076	PART ADV	-0.8600794
-1.20412	ADV ADV	-0.9303072
-1.1249387	AUX ADV	-0.8332436
-1.20412	PRON ADV	-0.82661617
-1.225779	INTJ ADV	-0.43915233
-1.2600714	X ADV	-0.45446604
-1.1899877	SYM ADV	-0.3343615
-1.9106547	<s> AUX	-1.9128559
-1.3316609	ADP AUX	-0.58794415
-1.1895068	DET AUX	-0.88590056
-1.234686	PROPN AUX	-0.9704617
-1.2483237	CCONJ AUX	-0.70834774
-1.2471546	NOUN AUX	-0.96011686
-1.2566894	PUNCT AUX	-0.90992576
-1.2771178	NUM AUX	-0.7351792
-1.2567779	ADJ AUX	-0.80631465
-1.2627004	SCONJ AUX	-0.5033659
-1.2928096	VERB AUX	-0.84113246
-1.1080076	PART AUX	-0.7159228
-1.2289436	ADV AUX	-0.90257084
-1.1497624	AUX AUX	-0.7142373
-1.1529675	PRON AUX	-0.9534404
-1.3640817	INTJ AUX	-0.4807586
-1.3058288	X AUX	-0.36702564
-1.425503	SYM AUX	-0.35444853
-0.80787647	<s> PRON	-2.9241576
-1.2151552	ADP PRON	-0.9721528
-1.1895068	DET PRON	-0.7681856
-1.234686	PROPN PRON	-0.7886621
-1.1640028	CCONJ PRON	-0.7699562
-1.2471546	NOUN PRON	-0.8969761
-1.2566894	PUNCT PRON	-0.93696856
-1.2771178	NUM PRON	-0.5936612
-1.2567779	ADJ PRON	-0.7374927
-1.1121697	SCONJ PRON	-0.87206066
-1.2416571	VERB PRON	-1.0040894
-1.2245132	PART PRON	-0.5907446
-1.2289436	ADV PRON	-0.86250675
-1.1760912	AUX PRON	-0.7875804
-1.1777911	PRON PRON	-0.7328218
-1.1210437	INTJ PRON	-0.6145972
-1.4149734	X PRON	-0.41539952
-1.425503	SYM PRON	-0.34895414
-2.071597	<s> INTJ	-1.660437
-1.4913617	ADP INTJ	-0.35578147
-1.5168657	DET INTJ	-0.3394613
-1.3760152	PROPN INTJ	-0.45620835
-1.3944517	CCONJ INTJ	-0.4747713
-1.3263359	NOUN INTJ	-0.62884325
-1.2566894	PUNCT INTJ	-0.72728574
-1.8211858	NUM INTJ	-0.3349857
-1.4195051	ADJ INTJ	-0.4238115
-1.6394212	SCONJ INTJ	-0.3446081
-1.3508016	VERB INTJ	-0.5828528
-1.5603052	PART INTJ	-0.33816952
-1.3454491	ADV INTJ	-0.47622555
-1.4259686	AUX INTJ	-0.39375782
-1.4539975	PRON INTJ	-0.4312585
-1.225779	INTJ INTJ	-0.5356922
-1.4149734	X INTJ	-0.45495987
-1.5446795	SYM INTJ	-0.35444853
-2.5065916	<s> X	-1.3759921
-1.366423	ADP X	-0.53084016
-1.3060124	DET X	-0.54464436
-1.3438305	PROPN X	-0.6055988
-1.5493536	CCONJ X	-0.4101733
-1.2471546	NOUN X	-0.7306447
-1.2566894	PUNCT X	-0.67101276
-1.7242758	NUM X	-0.34045807
-1.5066553	ADJ X	-0.4967028
-2.4308066	SCONJ X	-0.35444853
-1.3208383	VERB X	-0.53060174
-1.8613353	PART X	-0.35444853
-1.4593924	ADV X	-0.46540445
-1.5351132	AUX X	-0.33803192
-1.563142	PRON X	-0.34827217
-1.3640817	INTJ X	-0.36787716
-1.0559514	X X	-0.6647688
-2.0829697	SYM X	-0.35444853
-2.8134513	<s> SYM	-1.6016248
-1.2994761	ADP SYM	-0.67153203
-1.3407745	DET SYM	-0.60157585
-1.2595096	PROPN SYM	-0.7716015
-1.2805083	CCONJ SYM	-0.65656847
-1.2719783	NOUN SYM	-0.80005044
-1.373195	PUNCT SYM	-0.6473796
-1.2191259	NUM SYM	-0.6541839
-1.3147697	ADJ SYM	-0.7371496
-1.8573148	SCONJ SYM	-0.3349857
-1.2416571	VERB SYM	-0.7977328
-1.6394866	PART SYM	-0.5138136
-1.4179997	ADV SYM	-0.5329421
-1.5351132	AUX SYM	-0.36998048
-1.6300887	PRON SYM	-0.40069705
-1.6651118	INTJ SYM	-0.35444853
-1.6580114	X SYM	-0.33816952
-1.5446795	SYM SYM	-0.34218243

\3-grams:
-3.8963494	<s> ADP </s>	0
-1.8823825	ADP ADP </s>	0
-1.9731754	PROPN ADP </s>	0
-1.7015266	CCONJ ADP </s>	0
-1.5310073	NOUN ADP </s>	0
-1.990521	PUNCT ADP </s>	0
-2.0192683	NUM ADP </s>	0
-1.8731639	ADJ ADP </s>	0
-1.5343225	VERB ADP </s>	0
-1.8655745	ADV ADP </s>	0
-1.8590508	AUX ADP </s>	0
-1.9146792	PRON ADP </s>	0
-1.7304407	ADP DET </s>	0
-2.0567675	NOUN DET </s>	0
-2.235393	PUNCT DET </s>	0
-1.8378297	VERB DET </s>	0
-2.1179109	AUX DET </s>	0
-1.8984298	PRON DET </s>	0
-2.3410304	<s> PROPN </s>	0
-1.1849798	ADP PROPN </s>	0
-1.414841	DET PROPN </s>	0
-1.172848	PROPN PROPN </s>	0
-1.646199	CCONJ PROPN </s>	0
-1.2162373	NOUN PROPN </s>	0
-1.366283	PUNCT PROPN </s>	0
-1.5448773	NUM PROPN </s>	0
-1.4256058	ADJ PROPN </s>	0
-1.7895229	SCONJ PROPN </s>	0
-1.264047	VERB PROPN </s>	0
-1.4099822	PART PROPN </s>	0
-1.490387	ADV PROPN </s>	0
-1.7127657	AUX PROPN </s>	0
-1.431665	PRON PROPN </s>	0
-1.28	INTJ PROPN </s>	0
-1.3908154	X PROPN </s>	0
-1.0811989	SYM PROPN </s>	0
-2.827343	<s> CCONJ </s>	0
-2.2837632	PROPN CCONJ </s>	0
-2.3310513	NOUN CCONJ </s>	0
-1.8515316	PUNCT CCONJ </s>	0
-2.1436813	ADV CCONJ </s>	0
-2.0259292	<s> NOUN </s>	0
-1.2595959	ADP NOUN </s>	0
-1.2730114	DET NOUN </s>	0
-1.23308	PROPN NOUN </s>	0
-1.5065827	CCONJ NOUN </s>	0
-1.24455	NOUN NOUN </s>	0
-1.3195404	PUNCT NOUN </s>	0
-1.2680291	NUM NOUN </s>	0
-1.2109601	ADJ NOUN </s>	0
-1.6657047	SCONJ NOUN </s>	0
-1.2329164	VERB NOUN </s>	0
-1.4837375	PART NOUN </s>	0
-1.4320247	ADV NOUN </s>	0
-1.7646205	AUX NOUN </s>	0
-1.4671383	PRON NOUN </s>	0
-1.5427866	INTJ NOUN </s>	0
-1.2997639	X NOUN </s>	0
-1.0204675	SYM NOUN </s>	0
-1.6289799	<s> PUNCT </s>	0
-1.1099939	ADP PUNCT </s>	0
-1.1057569	DET PUNCT </s>	0
-1.211214	PROPN PUNCT </s>	0
-1.14002	CCONJ PUNCT </s>	0
-1.2271664	NOUN PUNCT </s>	0
-1.1707015	PUNCT PUNCT </s>	0
-1.1648549	NUM PUNCT </s>	0
-1.2054068	ADJ PUNCT </s>	0
-1.159184	SCONJ PUNCT </s>	0
-1.1677482	VERB PUNCT </s>	0
-0.96154433	PART PUNCT </s>	0
-1.1858822	ADV PUNCT </s>	0
-1.1389517	AUX PUNCT </s>	0
-1.0793444	PRON PUNCT </s>	0
-0.9190846	INTJ PUNCT </s>	0
-0.96822125	X PUNCT </s>	0
-0.8617077	SYM PUNCT </s>	0
-0.881753	<s> NUM </s>	0
-1.5310235	ADP NUM </s>	0
-1.8469269	DET NUM </s>	0
-1.2984711	PROPN NUM </s>	0
-1.6113499	CCONJ NUM </s>	0
-1.2488736	NOUN NUM </s>	0
-1.4032594	PUNCT NUM </s>	0
-1.4544377	NUM NUM </s>	0
-1.6476943	ADJ NUM </s>	0
-1.7721779	SCONJ NUM </s>	0
-1.6395898	VERB NUM </s>	0
-1.6102204	PART NUM </s>	0
-1.8572375	ADV NUM </s>	0
-1.4718714	PRON NUM </s>	0
-0.9201583	X NUM </s>	0
-1.2076787	SYM NUM </s>	0
-2.5318198	<s> ADJ </s>	0
-1.5421686	ADP ADJ </s>	0
-1.8309598	DET ADJ </s>	0
-1.7250344	PROPN ADJ </s>	0
-1.6873837	CCONJ ADJ </s>	0
-1.2953017	NOUN ADJ </s>	0
-1.5681139	PUNCT ADJ </s>	0
-1.8464746	NUM ADJ </s>	0
-1.5393173	ADJ ADJ </s>	0
-1.8299413	SCONJ ADJ </s>	0
-1.4402877	VERB ADJ </s>	0
-1.6956503	PART ADJ </s>	0
-1.3448659	ADV ADJ </s>	0
-1.665429	AUX ADJ </s>	0
-1.5801338	PRON ADJ </s>	0
-1.532166	X ADJ </s>	0
-1.2035685	SYM ADJ </s>	0
-3.432578	<s> SCONJ </s>	0
-1.9306617	ADP SCONJ </s>	0
-2.1719656	NOUN SCONJ </s>	0
-2.0208905	PUNCT SCONJ </s>	0
-2.1260126	ADJ SCONJ </s>	0
-1.5683537	VERB SCONJ </s>	0
-2.4975526	<s> VERB </s>	0
-1.9331912	ADP VERB </s>	0
-1.8603255	DET VERB </s>	0
-1.439817	PROPN VERB </s>	0
-1.3822048	CCONJ VERB </s>	0
-1.3363606	NOUN VERB </s>	0
-1.4765205	PUNCT VERB </s>	0
-1.7319001	NUM VERB </s>	0
-1.796374	ADJ VERB </s>	0
-1.7832582	SCONJ VERB </s>	0
-1.5920259	VERB VERB </s>	0
-1.3388728	PART VERB </s>	0
-1.4618593	ADV VERB </s>	0
-1.3352537	AUX VERB </s>	0
-1.4569174	PRON VERB </s>	0
-1.5295665	INTJ VERB </s>	0
-1.52424	X VERB </s>	0
-1.4435698	SYM VERB </s>	0
-1.5128875	PROPN PART </s>	0
-1.8019723	CCONJ PART </s>	0
-1.5897036	NOUN PART </s>	0
-1.8474826	PUNCT PART </s>	0
-1.9667825	VERB PART </s>	0
-1.9023039	AUX PART </s>	0
-3.110197	<s> ADV </s>	0
-1.7716405	ADP ADV </s>	0
-1.7826169	DET ADV </s>	0
-1.4746842	PROPN ADV </s>	0
-1.7476473	CCONJ ADV </s>	0
-1.3353878	NOUN ADV </s>	0
-1.9750139	PUNCT ADV </s>	0
-1.800361	NUM ADV </s>	0
-1.845484	ADJ ADV </s>	0
-1.8641977	SCONJ ADV </s>	0
-1.3617157	VERB ADV </s>	0
-1.9238697	PART ADV </s>	0
-1.4799366	ADV ADV </s>	0
-1.7395831	AUX ADV </s>	0
-1.8024323	PRON ADV </s>	0
-1.3294528	INTJ ADV </s>	0
-0.9615295	SYM ADV </s>	0
-1.7116143	DET AUX </s>	0
-2.2709963	PROPN AUX </s>	0
-1.634448	NOUN AUX </s>	0
-2.0059936	NUM AUX </s>	0
-2.1891448	ADV AUX </s>	0
-1.7054484	PRON AUX </s>	0
-3.9306717	<s> PRON </s>	0
-1.409906	ADP PRON </s>	0
-1.8765728	PROPN PRON </s>	0
-1.6917772	CCONJ PRON </s>	0
-1.6317538	NOUN PRON </s>	0
-1.9434828	PUNCT PRON </s>	0
-1.470736	NUM PRON </s>	0
-1.9793088	SCONJ PRON </s>	0
-1.4413497	VERB PRON </s>	0
-1.6704632	PART PRON </s>	0
-1.768059	ADV PRON </s>	0
-1.7896792	AUX PRON </s>	0
-1.0719975	SYM PRON </s>	0
-2.3727505	<s> INTJ </s>	0
-1.6244972	PROPN INTJ </s>	0
-1.5374216	NOUN INTJ </s>	0
-1.4237446	PUNCT INTJ </s>	0
-1.7576418	VERB INTJ </s>	0
-1.6493539	INTJ INTJ </s>	0
-0.7531012	<s> X </s>	0
-0.8590772	ADP X </s>	0
-1.7018404	PROPN X </s>	0
-1.2180706	NOUN X </s>	0
-1.2246215	PUNCT X </s>	0
-1.647963	VERB X </s>	0
-1.5142148	ADV X </s>	0
-1.67675	NUM SYM </s>	0
-1.7669698	<s> ADP ADP	-1.1777834
-1.3484786	ADP ADP ADP	-0.6397703
-1.2804785	DET ADP ADP	-0.2959321
-1.1766827	PROPN ADP ADP	-1.1226583
-1.1539841	CCONJ ADP ADP	-0.6973252
-1.1827543	NOUN ADP ADP	-1.6616071
-1.2005601	PUNCT ADP ADP	-1.2519656
-1.2770811	NUM ADP ADP	-0.29216704
-1.2488927	ADJ ADP ADP	-0.84479886
-1.1213949	SCONJ ADP ADP	-0.54221153
-1.2121847	VERB ADP ADP	-2.1199126
-1.251565	PART ADP ADP	-0.3022472
-1.1712946	ADV ADP ADP	-1.0788348
-1.1629221	AUX ADP ADP	-0.4822644
-1.1771003	PRON ADP ADP	-0.9291511
-1.449734	INTJ ADP ADP	-0.29226524
-1.3477707	X ADP ADP	-0.29226524
-1.9395117	<s> DET ADP	-1.3446764
-1.1407753	ADP DET ADP	-1.5799234
-1.1211112	DET DET ADP	-0.7145976
-1.3090614	PROPN DET ADP	-0.52756494
-1.1363324	CCONJ DET ADP	-1.0897667
-1.169264	NOUN DET ADP	-0.7785598
-1.092723	PUNCT DET ADP	-1.2888333
-1.4902246	NUM DET ADP	-0.38041985
-1.187179	ADJ DET ADP	-0.55651116
-1.1058809	SCONJ DET ADP	-1.1070114
-1.1566579	VERB DET ADP	-1.6041443
-1.1407182	PART DET ADP	-0.716212
-1.103431	ADV DET ADP	-1.0239792
-1.1283965	AUX DET ADP	-1.218162
-1.3914126	PRON DET ADP	-0.64427334
-1.3957617	INTJ DET ADP	-0.29226524
-1.3481027	X DET ADP	-0.29226524
-1.5691688	<s> PROPN ADP	-1.5503378
-1.1849798	ADP PROPN ADP	-2.252684
-1.1428722	DET PROPN ADP	-2.1045249
-1.172848	PROPN PROPN ADP	-2.480302
-1.1190771	CCONJ PROPN ADP	-1.4589906
-1.1842136	NOUN PROPN ADP	-1.385016
-1.1370393	PUNCT PROPN ADP	-1.7484438
-1.0339911	NUM PROPN ADP	-1.1365991
-1.1515017	ADJ PROPN ADP	-1.5284315
-1.1987354	SCONJ PROPN ADP	-0.73698604
-1.1476374	VERB PROPN ADP	-1.7564893
-1.1808963	PART PROPN ADP	-1.260973
-1.1406783	ADV PROPN ADP	-0.7602795
-1.0709288	AUX PROPN ADP	-0.583552
-1.0819021	PRON PROPN ADP	-0.88961077
-1.0221213	INTJ PROPN ADP	-0.3096371
-1.154447	X PROPN ADP	-0.5351561
-1.1331146	SYM PROPN ADP	-0.71260923
-1.021817	<s> CCONJ ADP	-1.4211795
-0.8615494	ADP CCONJ ADP	-1.0656166
-1.3652298	DET CCONJ ADP	-0.29814723
-1.2002139	PROPN CCONJ ADP	-1.2186161
-1.1336854	CCONJ CCONJ ADP	-0.28473347
-1.2308731	NOUN CCONJ ADP	-1.6324686
-1.1618311	PUNCT CCONJ ADP	-1.7170873
-1.2568629	NUM CCONJ ADP	-0.4578998
-1.1594626	ADJ CCONJ ADP	-0.87399143
-1.1597852	VERB CCONJ ADP	-0.9061285
-1.296657	PART CCONJ ADP	-0.29226524
-1.0633243	ADV CCONJ ADP	-0.8367666
-1.2788525	AUX CCONJ ADP	-0.28225166
-1.2927642	PRON CCONJ ADP	-0.71768093
-1.0930275	INTJ CCONJ ADP	-0.29226524
-1.2962779	X CCONJ ADP	-0.29226524
-0.5939518	<s> NOUN ADP	-2.161617
-1.2017059	ADP NOUN ADP	-2.6903148
-1.1888345	DET NOUN ADP	-3.2192755
-1.1788119	PROPN NOUN ADP	-2.0827036
-1.1223357	CCONJ NOUN ADP	-2.2467775
-1.2197638	NOUN NOUN ADP	-2.6340158
-1.1685525	PUNCT NOUN ADP	-2.2240305
-1.1838522	NUM NOUN ADP	-2.2445514
-1.2109601	ADJ NOUN ADP	-3.0728753
-0.984298	SCONJ NOUN ADP	-1.4709837
-1.181843	VERB NOUN ADP	-2.6519163
-1.0046058	PART NOUN ADP	-1.9477557
-1.0476325	ADV NOUN ADP	-1.5296077
-1.0016701	AUX NOUN ADP	-1.8036798
-1.109033	PRON NOUN ADP	-2.326817
-1.1127398	INTJ NOUN ADP	-0.5454006
-0.9904246	X NOUN ADP	-0.6504622
-1.0666082	SYM NOUN ADP	-0.7238341
-1.2191256	<s> PUNCT ADP	-1.1789093
-1.2174747	ADP PUNCT ADP	-0.9536473
-1.1703635	DET PUNCT ADP	-0.9057156
-1.2380146	PROPN PUNCT ADP	-2.0454614
-1.0042597	CCONJ PUNCT ADP	-1.013693
-1.253967	NOUN PUNCT ADP	-2.3250077
-1.1727878	PUNCT PUNCT ADP	-1.4299585
-1.2250808	NUM PUNCT ADP	-1.3342711
-1.2356601	ADJ PUNCT ADP	-1.4039706
-1.0362446	SCONJ PUNCT ADP	-0.8689037
-1.220885	VERB PUNCT ADP	-1.6653103
-1.18769	PART PUNCT ADP	-0.3997026
-1.2423416	ADV PUNCT ADP	-1.6456763
-1.1884133	AUX PUNCT ADP	-0.8550707
-1.2443442	PRON PUNCT ADP	-1.158265
-1.145726	INTJ PUNCT ADP	-0.8374507
-1.5764717	X PUNCT ADP	-0.51306236
-0.7238581	<s> NUM ADP	-1.5904192
-1.129491	ADP NUM ADP	-1.6908209
-1.064829	DET NUM ADP	-1.0372962
-1.10055	PROPN NUM ADP	-1.3762273
-0.9319818	CCONJ NUM ADP	-1.0920815
-1.0005751	NOUN NUM ADP	-1.1617825
-1.0618882	PUNCT NUM ADP	-1.5332233
-0.991759	NUM NUM ADP	-0.9692332
-1.0667496	ADJ NUM ADP	-0.7855385
-0.94642913	SCONJ NUM ADP	-0.9773369
-1.0632497	VERB NUM ADP	-1.6053346
-0.92245555	PART NUM ADP	-0.35893065
-1.0855432	ADV NUM ADP	-1.0488063
-0.8893063	AUX NUM ADP	-1.4977312
-1.3056712	PRON NUM ADP	-0.6033442
-0.9218311	INTJ NUM ADP	-0.29226524
-0.90804064	X NUM ADP	-0.29226524
-1.0225829	SYM NUM ADP	-0.8892776
-1.132111	<s> ADJ ADP	-1.5233952
-1.1441469	ADP ADJ ADP	-1.497668
-1.1655105	DET ADJ ADP	-1.5172323
-1.0018415	PROPN ADJ ADP	-0.8756329
-1.0385455	CCONJ ADJ ADP	-1.3910708
-1.064107	NOUN ADJ ADP	-1.8338017
-1.0654734	PUNCT ADJ ADP	-1.6554897
-1.04926	NUM ADJ ADP	-0.5043257
-1.1588073	ADJ ADJ ADP	-0.8138267
-0.95809406	SCONJ ADJ ADP	-1.2407209
-1.1662174	VERB ADJ ADP	-2.0821586
-1.0754379	PART ADJ ADP	-1.2725222
-1.1656744	ADV ADJ ADP	-2.001535
-0.98439187	AUX ADJ ADP	-1.8171242
-1.0594043	PRON ADJ ADP	-1.3545908
-0.8531245	INTJ ADJ ADP	-0.3008643
-1.1021935	X ADJ ADP	-0.30742723
-1.4612305	SYM ADJ ADP	-0.29226524
-1.324971	<s> SCONJ ADP	-1.1306012
-1.1903764	ADP SCONJ ADP	-0.583552
-1.082057	DET SCONJ ADP	-0.28473347
-0.9754783	PROPN SCONJ ADP	-0.8314933
-1.042107	CCONJ SCONJ ADP	-0.8473742
-1.0526031	NOUN SCONJ ADP	-1.4829409
-1.0305793	PUNCT SCONJ ADP	-1.2278354
-0.6774032	NUM SCONJ ADP	-1.0571135
-1.103272	ADJ SCONJ ADP	-0.92464554
-1.1288745	SCONJ SCONJ ADP	-0.4268567
-1.1063203	VERB SCONJ ADP	-1.6904119
-0.71738195	PART SCONJ ADP	-0.7445608
-1.0020174	ADV SCONJ ADP	-1.154935
-1.048737	AUX SCONJ ADP	-0.69951355
-1.2047911	PRON SCONJ ADP	-0.8989706
-0.4147166	<s> VERB ADP	-1.9160807
-1.102254	ADP VERB ADP	-1.8660599
-1.1259453	DET VERB ADP	-1.851119
-1.1646163	PROPN VERB ADP	-2.2006426
-1.0801768	CCONJ VERB ADP	-2.0679348
-1.1954427	NOUN VERB ADP	-2.6633058
-1.1504339	PUNCT VERB ADP	-2.2769783
-0.98735183	NUM VERB ADP	-1.0172493
-1.058437	ADJ VERB ADP	-1.1247549
-1.034833	SCONJ VERB ADP	-1.2021503
-1.0846775	VERB VERB ADP	-1.6347619
-1.1256733	PART VERB ADP	-2.4345753
-1.1357728	ADV VERB ADP	-2.346243
-1.1468148	AUX VERB ADP	-2.8444161
-1.1817167	PRON VERB ADP	-2.4061005
-0.98292637	INTJ VERB ADP	-0.7343965
-1.035809	X VERB ADP	-0.4204619
-1.0531561	SYM VERB ADP	-0.33452928
-1.7040865	<s> PART ADP	-0.5504653
-1.3622398	ADP PART ADP	-0.2862294
-1.1965458	DET PART ADP	-0.28473347
-1.1875565	PROPN PART ADP	-0.5572709
-1.1167989	CCONJ PART ADP	-0.87281704
-1.1719846	NOUN PART ADP	-0.72680026
-1.0541532	PUNCT PART ADP	-0.7819339
-1.6029028	NUM PART ADP	-0.29226524
-1.3795241	ADJ PART ADP	-0.45576626
-1.4150834	SCONJ PART ADP	-0.42718595
-1.1841266	VERB PART ADP	-0.97381943
-1.1265935	ADV PART ADP	-0.5192786
-1.2187908	AUX PART ADP	-1.0848083
-1.4335881	PRON PART ADP	-0.2773301
-1.1432791	<s> ADV ADP	-1.6197352
-1.132317	ADP ADV ADP	-1.2154816
-1.1551199	DET ADV ADP	-0.6480367
-1.0708393	PROPN ADV ADP	-1.1449494
-1.225147	CCONJ ADV ADP	-1.489199
-1.2016015	NOUN ADV ADP	-1.8664037
-1.144597	PUNCT ADV ADP	-1.7596266
-1.0441271	NUM ADV ADP	-0.40237483
-1.1070917	ADJ ADV ADP	-1.0370052
-1.1656206	SCONJ ADV ADP	-0.7312795
-1.1328161	VERB ADV ADP	-2.1511168
-1.1364415	PART ADV ADP	-1.2099235
-1.1239322	ADV ADV ADP	-1.9508976
-1.109365	AUX ADV ADP	-1.3871983
-1.1073078	PRON ADV ADP	-1.1602604
-1.2242588	INTJ ADV ADP	-0.2862294
-1.1533756	SYM ADV ADP	-0.29226524
-2.6156845	<s> AUX ADP	-0.28473347
-1.5101118	ADP AUX ADP	-0.28225166
-1.2183436	DET AUX ADP	-0.79657114
-1.1475046	PROPN AUX ADP	-1.3459871
-1.3958312	CCONJ AUX ADP	-0.35147366
-1.1496904	NOUN AUX ADP	-1.6639316
-1.1902955	PUNCT AUX ADP	-1.00123
-1.2724404	NUM AUX ADP	-0.48090392
-1.3265055	ADJ AUX ADP	-0.3659824
-1.237767	VERB AUX ADP	-0.6128831
-1.2343249	ADV AUX ADP	-0.596032
-1.1555293	PRON AUX ADP	-1.41736
-0.86798865	SYM AUX ADP	-0.29226524
-2.2904806	<s> PRON ADP	-0.92054886
-1.1765641	ADP PRON ADP	-1.603332
-1.2392781	DET PRON ADP	-0.34327054
-1.1569881	PROPN PRON ADP	-0.34662077
-1.3543602	CCONJ PRON ADP	-0.7105412
-1.1531191	NOUN PRON ADP	-0.61549765
-1.1394657	PUNCT PRON ADP	-0.9230816
-1.3243653	NUM PRON ADP	-0.29226524
-1.199481	ADJ PRON ADP	-0.34708464
-1.2334496	SCONJ PRON ADP	-0.71768093
-1.1540161	VERB PRON ADP	-2.125617
-1.2603834	PART PRON ADP	-0.36410815
-1.1612686	ADV PRON ADP	-0.54732966
-1.1743114	AUX PRON ADP	-0.6627567
-1.402695	PRON PRON ADP	-0.34327054
-1.1517867	X PRON ADP	-0.29226524
-1.7554218	<s> INTJ ADP	-0.3276652
-1.1083106	DET INTJ ADP	-0.29226524
-1.3519728	PROPN INTJ ADP	-0.2773301
-1.2823099	CCONJ INTJ ADP	-0.29226524
-1.6693006	NOUN INTJ ADP	-0.29226524
-1.1606945	PUNCT INTJ ADP	-0.49929246
-0.80716527	ADJ INTJ ADP	-0.28027633
-0.81159496	VERB INTJ ADP	-0.5305417
-1.0429623	AUX INTJ ADP	-0.28225166
-1.0771396	PRON INTJ ADP	-0.31260118
-0.7805307	SYM INTJ ADP	-0.29226524
-1.8157909	<s> X ADP	-0.28225166
-1.1480118	ADP X ADP	-0.28794536
-1.4342821	DET X ADP	-0.29226524
-1.5521736	PROPN X ADP	-0.29226524
-1.1698889	CCONJ X ADP	-0.29226524
-1.1761745	NOUN X ADP	-0.5727814
-1.2405162	PUNCT X ADP	-0.28405517
-0.5079173	SCONJ X ADP	-0.29226524
-1.1358795	VERB X ADP	-0.38353342
-1.377848	ADV X ADP	-0.29226524
-1.1208444	AUX X ADP	-0.29226524
-1.1687031	INTJ X ADP	-0.29226524
-1.2057661	X X ADP	-0.36410815
-1.0804801	ADP SYM ADP	-0.28794536
-1.6919776	PUNCT SYM ADP	-0.2773301
-1.3463017	NUM SYM ADP	-0.29226524
-0.95777994	X SYM ADP	-0.29226524
-0.38746464	<s> ADP DET	-2.3956895
-1.0148846	ADP ADP DET	-2.0870924
-0.9110895	DET ADP DET	-1.8508776
-1.0337657	PROPN ADP DET	-2.392559
-0.95812404	CCONJ ADP DET	-1.8463736
-1.1559699	NOUN ADP DET	-3.251941
-1.0826511	PUNCT ADP DET	-2.3150203
-0.9176266	NUM ADP DET	-2.0781925
-1.0844849	ADJ ADP DET	-2.2882793
-0.93865764	SCONJ ADP DET	-1.831041
-1.1592851	VERB ADP DET	-2.985369
-0.808337	PART ADP DET	-1.2505342
-1.0792636	ADV ADP DET	-2.2794976
-0.88398325	AUX ADP DET	-1.6838913
-0.8980666	PRON ADP DET	-1.9588382
-0.8078926	INTJ ADP DET	-0.5098721
-0.8714384	X ADP DET	-0.46453905
-0.8762969	SYM ADP DET	-0.28225166
-2.14377	<s> DET DET	-1.0583787
-1.1738423	ADP DET DET	-1.7581865
-1.5467579	DET DET DET	-0.5192786
-1.5108168	PROPN DET DET	-0.41518196
-1.1429021	CCONJ DET DET	-0.85981715
-1.0769995	NOUN DET DET	-1.3233478
-1.1952608	PUNCT DET DET	-1.0640081
-1.3679519	NUM DET DET	-0.28027633
-1.1967696	ADJ DET DET	-0.75461185
-1.1112196	SCONJ DET DET	-1.11232
-1.1620508	VERB DET DET	-1.502944
-1.0869749	PART DET DET	-0.69917864
-1.108682	ADV DET DET	-0.910695
-1.1351177	AUX DET DET	-1.0785415
-1.1421187	PRON DET DET	-0.78557837
-2.6073983	<s> PROPN DET	-0.7148787
-1.2427102	ADP PROPN DET	-1.5014961
-1.2394869	DET PROPN DET	-1.0820836
-1.2815273	PROPN PROPN DET	-1.4479632
-1.342134	CCONJ PROPN DET	-0.64397264
-1.4256855	NOUN PROPN DET	-0.6564309
-1.2875892	PUNCT PROPN DET	-0.8534876
-1.3963561	NUM PROPN DET	-0.4357562
-1.3282226	ADJ PROPN DET	-0.77344275
-1.5637019	SCONJ PROPN DET	-0.36410815
-1.2318915	VERB PROPN DET	-1.0537083
-1.5000229	PART PROPN DET	-0.35445046
-1.3404272	ADV PROPN DET	-0.2959321
-1.2302903	AUX PROPN DET	-0.44276947
-1.5319811	PRON PROPN DET	-0.2964585
-1.519718	INTJ PROPN DET	-0.29226524
-1.4850034	X PROPN DET	-0.29226524
-1.7671604	SYM PROPN DET	-0.29226524
-0.73213035	<s> CCONJ DET	-1.6590321
-1.0513964	ADP CCONJ DET	-1.0672977
-0.86458147	DET CCONJ DET	-0.6821742
-1.0465603	PROPN CCONJ DET	-1.8762482
-0.8473406	CCONJ CCONJ DET	-0.5504653
-1.1131803	NOUN CCONJ DET	-2.2720692
-1.1315007	PUNCT CCONJ DET	-2.1274054
-0.9490832	NUM CCONJ DET	-0.85315466
-1.0320382	ADJ CCONJ DET	-1.2763243
-0.78074	SCONJ CCONJ DET	-0.45136046
-1.1221591	VERB CCONJ DET	-1.3161957
-1.0434681	PART CCONJ DET	-0.45136046
-1.0976058	ADV CCONJ DET	-0.9304216
-1.1334157	AUX CCONJ DET	-0.7660651
-0.98345685	PRON CCONJ DET	-0.8779309
-0.9655145	INTJ CCONJ DET	-0.28225166
-1.1180344	X CCONJ DET	-0.2773301
-2.1495554	<s> NOUN DET	-0.8943957
-1.2017059	ADP NOUN DET	-1.774261
-1.2151215	DET NOUN DET	-2.2639678
-1.2629889	PROPN NOUN DET	-1.2975485
-1.248232	CCONJ NOUN DET	-1.3489773
-1.2197638	NOUN NOUN DET	-1.8328682
-1.2228206	PUNCT NOUN DET	-1.1303914
-1.210139	NUM NOUN DET	-1.3152254
-1.2357464	ADJ NOUN DET	-2.187857
-1.437499	SCONJ NOUN DET	-0.38041985
-1.2066294	VERB NOUN DET	-1.5069677
-1.239406	PART NOUN DET	-0.9157995
-1.3232421	ADV NOUN DET	-0.51901007
-1.1944864	AUX NOUN DET	-0.70533335
-1.312725	PRON NOUN DET	-1.2523189
-1.5427866	INTJ NOUN DET	-0.2773301
-1.1488682	X NOUN DET	-0.3792845
-1.2446208	SYM NOUN DET	-0.455224
-0.7797545	<s> PUNCT DET	-1.5789473
-1.0824587	ADP PUNCT DET	-1.3504679
-1.1703635	DET PUNCT DET	-1.0591635
-1.2131846	PROPN PUNCT DET	-2.4212582
-1.1441705	CCONJ PUNCT DET	-0.7985041
-1.2291371	NOUN PUNCT DET	-2.5841157
-1.2271609	PUNCT PUNCT DET	-1.8372151
-1.1670713	NUM PUNCT DET	-1.6483277
-1.2356601	ADJ PUNCT DET	-1.420143
-1.2147743	SCONJ PUNCT DET	-0.9381047
-1.248922	VERB PUNCT DET	-1.8046613
-1.18769	PART PUNCT DET	-0.7451497
-1.2143048	ADV PUNCT DET	-2.0490882
-1.1423773	AUX PUNCT DET	-0.8075668
-1.1717659	PRON PUNCT DET	-1.2161205
-1.145726	INTJ PUNCT DET	-1.0686102
-1.1477635	X PUNCT DET	-0.87819564
-2.4090393	<s> NUM DET	-0.42725292
-1.2345217	ADP NUM DET	-0.81466854
-1.4270335	DET NUM DET	-0.28794536
-1.3545381	PROPN NUM DET	-0.8436699
-1.5318797	CCONJ NUM DET	-0.374374
-1.4604671	NOUN NUM DET	-0.2836681
-1.3418398	PUNCT NUM DET	-0.6201397
-1.564306	NUM NUM DET	-0.43423486
-1.5716469	ADJ NUM DET	-0.34708464
-1.2648569	SCONJ NUM DET	-0.5504653
-1.3453497	VERB NUM DET	-0.5812417
-1.5460749	ADV NUM DET	-0.45048022
-1.2787338	AUX NUM DET	-0.3785222
-1.4874811	PRON NUM DET	-0.29226524
-0.99536055	SYM NUM DET	-0.97333646
-3.3466108	<s> ADJ DET	-0.28225166
-1.2943461	ADP ADJ DET	-0.8690841
-1.286034	DET ADJ DET	-0.66212493
-1.7822748	PROPN ADJ DET	-0.29226524
-1.5950296	CCONJ ADJ DET	-0.51901007
-1.3576221	NOUN ADJ DET	-0.5015232
-1.5988969	PUNCT ADJ DET	-0.5974885
-1.4160811	ADJ ADJ DET	-0.3197099
-1.2420837	VERB ADJ DET	-1.0562767
-1.3349954	PART ADJ DET	-0.5799923
-1.2410651	ADV ADJ DET	-1.0974264
-1.3815308	AUX ADJ DET	-0.8579006
-1.6158259	PRON ADJ DET	-0.39286637
-0.53353155	<s> SCONJ DET	-1.7468797
-0.8784722	ADP SCONJ DET	-1.2040944
-0.7055425	DET SCONJ DET	-0.47732988
-0.926922	PROPN SCONJ DET	-1.2525322
-0.8944998	CCONJ SCONJ DET	-1.2725903
-0.9935583	NOUN SCONJ DET	-1.9069093
-0.9994982	PUNCT SCONJ DET	-1.6764851
-0.9072352	NUM SCONJ DET	-0.65250367
-1.0307095	ADJ SCONJ DET	-1.6795671
-0.8094034	SCONJ SCONJ DET	-1.1562874
-1.0473163	VERB SCONJ DET	-2.2587068
-0.71242875	PART SCONJ DET	-0.71981156
-0.9643295	ADV SCONJ DET	-1.4566299
-0.9424803	AUX SCONJ DET	-1.1631575
-0.8840786	PRON SCONJ DET	-1.040385
-1.0996386	INTJ SCONJ DET	-0.29226524
-0.757969	X SCONJ DET	-0.29226524
-0.7823225	<s> VERB DET	-1.7223017
-1.102254	ADP VERB DET	-2.150941
-1.1259453	DET VERB DET	-1.9858806
-1.1398556	PROPN VERB DET	-2.3391967
-1.0801768	CCONJ VERB DET	-2.095337
-1.1954427	NOUN VERB DET	-2.4127314
-1.1504339	PUNCT VERB DET	-2.2216952
-1.0459112	NUM VERB DET	-1.0738182
-1.1491892	ADJ VERB DET	-1.2027702
-1.034833	SCONJ VERB DET	-1.2569635
-1.0846775	VERB VERB DET	-1.6545802
-1.1766921	PART VERB DET	-2.6812034
-1.162031	ADV VERB DET	-2.3292527
-1.173073	AUX VERB DET	-2.5479984
-1.1817167	PRON VERB DET	-2.442904
-1.0823209	INTJ VERB DET	-1.0037826
-1.1057571	X VERB DET	-0.5351561
-1.0531561	SYM VERB DET	-0.41878158
-1.0997279	<s> PART DET	-0.7698492
-1.4313698	ADP PART DET	-0.29226524
-1.4407707	DET PART DET	-0.29226524
-1.3143692	PROPN PART DET	-0.7819339
-1.0110174	CCONJ PART DET	-0.8918875
-1.2988148	NOUN PART DET	-0.6541808
-1.0051408	PUNCT PART DET	-0.90589446
-1.4522016	NUM PART DET	-0.29226524
-1.7083104	ADJ PART DET	-0.29226524
-0.87704086	SCONJ PART DET	-0.59589124
-1.0976433	VERB PART DET	-1.1494018
-1.5463774	PART PART DET	-0.29226524
-1.1173806	ADV PART DET	-0.9255503
-1.0352143	AUX PART DET	-1.6086316
-1.2759814	PRON PART DET	-0.53444993
-1.0914255	X PART DET	-0.29226524
-1.0734419	<s> ADV DET	-1.7190301
-1.1350291	ADP ADV DET	-1.4679514
-1.2051867	DET ADV DET	-0.7762726
-1.2099392	PROPN ADV DET	-1.2418859
-1.1489817	CCONJ ADV DET	-1.5171505
-1.1760913	NOUN ADV DET	-1.5352427
-1.1467826	PUNCT ADV DET	-1.6966865
-1.2080774	NUM ADV DET	-0.6270641
-1.2254496	ADJ ADV DET	-0.84904397
-1.0796282	SCONJ ADV DET	-1.0368588
-1.1893967	VERB ADV DET	-1.8338137
-1.1006328	PART ADV DET	-1.3059483
-1.2164704	ADV ADV DET	-1.332818
-1.1849288	AUX ADV DET	-1.7088096
-1.1101953	PRON ADV DET	-0.83406353
-1.3413272	INTJ ADV DET	-0.29226524
-0.82990247	<s> AUX DET	-1.1806278
-1.0443158	ADP AUX DET	-0.6623292
-1.0606978	DET AUX DET	-1.6591913
-1.0853612	PROPN AUX DET	-1.9128289
-1.1150223	CCONJ AUX DET	-0.574045
-1.1413709	NOUN AUX DET	-1.995587
-1.0169148	PUNCT AUX DET	-1.5664749
-0.9495969	NUM AUX DET	-1.0024812
-1.1289295	ADJ AUX DET	-1.0149157
-1.0108995	VERB AUX DET	-1.2383552
-1.6317371	PART AUX DET	-0.29226524
-1.0766661	ADV AUX DET	-1.7822255
-1.1695125	AUX AUX DET	-0.3022472
-1.0932336	PRON AUX DET	-2.160349
-1.3133454	INTJ AUX DET	-0.29226524
-1.1972204	X AUX DET	-0.29226524
-2.0581365	<s> PRON DET	-1.1978242
-1.1792889	ADP PRON DET	-1.2961464
-1.3300372	DET PRON DET	-0.55559367
-1.8368996	PROPN PRON DET	-0.28225166
-1.1381326	CCONJ PRON DET	-0.885041
-1.2983263	NOUN PRON DET	-0.78481835
-1.1745753	PUNCT PRON DET	-1.1247721
-1.0169871	ADJ PRON DET	-0.45869488
-1.1099653	SCONJ PRON DET	-0.8018859
-1.1827149	VERB PRON DET	-1.7078
-1.268385	PART PRON DET	-0.6546966
-1.1646571	ADV PRON DET	-0.8132036
-1.1321434	AUX PRON DET	-1.0899682
-1.4107009	PRON PRON DET	-0.57172954
-1.5700792	INTJ PRON DET	-0.29226524
-1.3750365	<s> INTJ DET	-0.7290536
-1.2769873	ADP INTJ DET	-0.29226524
-1.0947381	DET INTJ DET	-0.29226524
-1.2340606	PROPN INTJ DET	-0.28473347
-1.152736	CCONJ INTJ DET	-0.28473347
-1.5309535	NOUN INTJ DET	-0.29226524
-1.3588274	PUNCT INTJ DET	-0.2964585
-0.8490381	NUM INTJ DET	-0.29226524
-0.851059	SCONJ INTJ DET	-0.29226524
-1.3683217	VERB INTJ DET	-0.28225166
-1.3331504	ADV INTJ DET	-0.29226524
-1.0668747	PRON INTJ DET	-0.28225166
-1.6460934	<s> X DET	-0.35857975
-1.4357327	ADP X DET	-0.45048022
-1.493689	DET X DET	-0.29226524
-1.4769249	PROPN X DET	-0.29226524
-1.455713	NOUN X DET	-0.2794325
-1.3488634	PUNCT X DET	-0.44067007
-1.4348087	ADJ X DET	-0.29226524
-1.563037	VERB X DET	-0.29226524
-0.8668872	PART X DET	-0.29226524
-1.4851508	X X DET	-0.28225166
-1.4572392	DET SYM DET	-0.29226524
-1.5473197	PROPN SYM DET	-0.29226524
-1.8040147	NOUN SYM DET	-0.29226524
-1.6506509	PUNCT SYM DET	-0.29226524
-1.5293248	NUM SYM DET	-0.29226524
-0.7269649	<s> ADP PROPN	-1.9606361
-1.0446948	ADP ADP PROPN	-1.4668888
-1.0023392	DET ADP PROPN	-1.093046
-1.0337657	PROPN ADP PROPN	-2.5707092
-1.1044315	CCONJ ADP PROPN	-1.15432
-1.1559699	NOUN ADP PROPN	-2.9931884
-1.0826511	PUNCT ADP PROPN	-1.8892324
-0.9973373	NUM ADP PROPN	-1.3890833
-1.0844849	ADJ ADP PROPN	-1.7727268
-1.037473	SCONJ ADP PROPN	-1.0284425
-1.1592851	VERB ADP PROPN	-2.5554776
-0.9743126	PART ADP PROPN	-0.7980007
-1.0792636	ADV ADP PROPN	-1.7912278
-0.99995714	AUX ADP PROPN	-1.1677028
-0.9605656	PRON ADP PROPN	-1.2219044
-0.8988606	INTJ ADP PROPN	-0.42466885
-0.8714384	X ADP PROPN	-0.3008643
-1.0849494	SYM ADP PROPN	-0.29226524
-0.9423845	<s> DET PROPN	-2.0561109
-1.1123977	ADP DET PROPN	-2.7529855
-0.9706541	DET DET PROPN	-1.0609021
-0.86925983	PROPN DET PROPN	-1.1667321
-1.0185047	CCONJ DET PROPN	-1.6837182
-1.0699087	NOUN DET PROPN	-1.4583986
-1.0364848	PUNCT DET PROPN	-2.0885754
-1.1595626	NUM DET PROPN	-0.44000924
-1.0521529	ADJ DET PROPN	-0.45198464
-1.0357959	SCONJ DET PROPN	-1.6844033
-1.0761905	VERB DET PROPN	-2.1060224
-0.8950255	PART DET PROPN	-0.81029993
-1.0106658	ADV DET PROPN	-1.4080415
-0.9785968	AUX DET PROPN	-1.3158801
-1.0849162	PRON DET PROPN	-0.9186639
-1.2375553	INTJ DET PROPN	-0.28225166
-0.8695195	X DET PROPN	-0.28556392
-0.9072235	SYM DET PROPN	-0.29226524
-0.38559985	<s> PROPN PROPN	-2.4721324
-1.1340308	ADP PROPN PROPN	-2.7112823
-1.0886536	DET PROPN PROPN	-2.6240087
-1.172848	PROPN PROPN PROPN	-2.8101254
-0.9724324	CCONJ PROPN PROPN	-1.9634511
-1.0755341	NOUN PROPN PROPN	-2.1980405
-1.1370393	PUNCT PROPN PROPN	-2.7080083
-1.0339911	NUM PROPN PROPN	-1.3651302
-1.0969958	ADJ PROPN PROPN	-1.9065894
-1.0032653	SCONJ PROPN PROPN	-1.4876863
-1.1476374	VERB PROPN PROPN	-2.0103798
-1.0999244	PART PROPN PROPN	-1.6647837
-1.004377	ADV PROPN PROPN	-1.2765949
-0.9900255	AUX PROPN PROPN	-1.2469382
-0.97586894	PRON PROPN PROPN	-1.2331161
-0.8614222	INTJ PROPN PROPN	-0.4935252
-1.0717103	X PROPN PROPN	-0.659642
-1.0811989	SYM PROPN PROPN	-0.9651546
-1.1972903	<s> CCONJ PROPN	-1.2620695
-1.1659615	ADP CCONJ PROPN	-0.802675
-1.1313655	DET CCONJ PROPN	-0.30742723
-1.0239087	PROPN CCONJ PROPN	-2.2707832
-1.1336854	CCONJ CCONJ PROPN	-0.29226524
-1.1694456	NOUN CCONJ PROPN	-1.4809027
-1.1618311	PUNCT CCONJ PROPN	-1.5981822
-1.3252494	NUM CCONJ PROPN	-0.7575829
-1.1246544	ADJ CCONJ PROPN	-0.87062
-1.0736016	SCONJ CCONJ PROPN	-0.53444993
-1.1974301	VERB CCONJ PROPN	-0.61203265
-1.4222115	PART CCONJ PROPN	-0.6032772
-1.3638456	ADV CCONJ PROPN	-0.4562829
-1.2788525	AUX CCONJ PROPN	-0.29226524
-1.0850714	PRON CCONJ PROPN	-0.4015422
-1.2962779	X CCONJ PROPN	-0.29226524
-1.7547722	<s> NOUN PROPN	-1.1388181
-1.2017059	ADP NOUN PROPN	-1.339376
-1.1888345	DET NOUN PROPN	-1.6775426
-1.1788119	PROPN NOUN PROPN	-1.721693
-1.2020912	CCONJ NOUN PROPN	-1.3075421
-1.2197638	NOUN NOUN PROPN	-1.6985395
-1.2527295	PUNCT NOUN PROPN	-1.5504208
-1.1838522	NUM NOUN PROPN	-1.0024242
-1.2357464	ADJ NOUN PROPN	-1.9094319
-1.437499	SCONJ NOUN PROPN	-0.44226265
-1.2329164	VERB NOUN PROPN	-1.1054804
-1.4837375	PART NOUN PROPN	-0.9201355
-1.2363224	ADV NOUN PROPN	-0.6127285
-1.245965	AUX NOUN PROPN	-0.41974095
-1.271436	PRON NOUN PROPN	-1.2253071
-1.1127398	INTJ NOUN PROPN	-0.28225166
-1.2177953	X NOUN PROPN	-0.38907707
-1.6400646	SYM NOUN PROPN	-0.40433723
-0.8759395	<s> PUNCT PROPN	-1.3617413
-1.0824587	ADP PUNCT PROPN	-1.3941447
-1.138107	DET PUNCT PROPN	-1.3977412
-1.2131846	PROPN PUNCT PROPN	-2.7090588
-1.0923622	CCONJ PUNCT PROPN	-0.9928567
-1.2291371	NOUN PUNCT PROPN	-2.6289988
-1.199124	PUNCT PUNCT PROPN	-1.6634562
-1.1951083	NUM PUNCT PROPN	-1.5024749
-1.1812869	ADJ PUNCT PROPN	-1.2912402
-1.1628075	SCONJ PUNCT PROPN	-0.69319063
-1.248922	VERB PUNCT PROPN	-1.5892559
-1.18769	PART PUNCT PROPN	-0.8370342
-1.2143048	ADV PUNCT PROPN	-1.5975281
-1.1423773	AUX PUNCT PROPN	-0.84839034
-1.2443442	PRON PUNCT PROPN	-1.0030692
-1.3251278	INTJ PUNCT PROPN	-0.6144295
-1.0964289	X PUNCT PROPN	-0.6344606
-1.3606725	<s> NUM PROPN	-0.8187901
-1.1645186	ADP NUM PROPN	-1.3153094
-0.9652217	DET NUM PROPN	-1.2568455
-1.0757035	PROPN NUM PROPN	-1.1392238
-1.2883403	CCONJ NUM PROPN	-0.55607915
-1.0728905	NOUN NUM PROPN	-0.52113086
-1.0055791	PUNCT NUM PROPN	-1.152065
-0.93774676	NUM NUM PROPN	-0.99807143
-1.074709	ADJ NUM PROPN	-0.6555934
-1.190413	SCONJ NUM PROPN	-0.5348366
-1.2027113	VERB NUM PROPN	-0.8023658
-1.2516869	PART NUM PROPN	-0.457313
-1.0920433	ADV NUM PROPN	-0.6931555
-1.4102299	AUX NUM PROPN	-0.3473633
-1.0575523	PRON NUM PROPN	-0.4051505
-1.2076787	SYM NUM PROPN	-0.5373852
-0.9900895	<s> ADJ PROPN	-1.4739281
-1.090263	ADP ADJ PROPN	-1.7072717
-1.0819509	DET ADJ PROPN	-1.9382598
-0.96665573	PROPN ADJ PROPN	-0.9594839
-1.2495241	CCONJ ADJ PROPN	-1.1224623
-1.1792988	NOUN ADJ PROPN	-1.0025948
-1.0931996	PUNCT ADJ PROPN	-1.4768724
-0.8985481	NUM ADJ PROPN	-0.8355574
-1.0351254	ADJ ADJ PROPN	-1.365831
-0.95809406	SCONJ ADJ PROPN	-0.76226497
-1.1662174	VERB ADJ PROPN	-1.200543
-1.2011564	PART ADJ PROPN	-0.9699244
-1.1656744	ADV ADJ PROPN	-1.1384451
-1.1763809	AUX ADJ PROPN	-0.63788605
-1.1733961	PRON ADJ PROPN	-1.0468075
-1.1332726	INTJ ADJ PROPN	-0.29226524
-1.5183954	X ADJ PROPN	-0.29226524
-1.0389723	SYM ADJ PROPN	-0.2862294
-1.0697391	<s> SCONJ PROPN	-1.1943898
-1.0110999	ADP SCONJ PROPN	-0.80485654
-1.3562353	DET SCONJ PROPN	-0.29226524
-1.0220201	PROPN SCONJ PROPN	-0.7707667
-1.101649	CCONJ SCONJ PROPN	-0.7724005
-1.0246838	NOUN SCONJ PROPN	-1.4253565
-1.088453	PUNCT SCONJ PROPN	-1.159025
-1.2625921	NUM SCONJ PROPN	-0.2862294
-1.0068088	ADJ SCONJ PROPN	-1.0127668
-0.8963504	SCONJ SCONJ PROPN	-0.7077788
-1.0786265	VERB SCONJ PROPN	-1.7422483
-1.3023205	PART SCONJ PROPN	-0.28225166
-0.96944684	ADV SCONJ PROPN	-0.9161825
-0.9961996	AUX SCONJ PROPN	-0.75846475
-1.1034907	PRON SCONJ PROPN	-0.59116423
-1.2636609	<s> VERB PROPN	-1.1477716
-1.1304955	ADP VERB PROPN	-1.3421434
-1.1540867	DET VERB PROPN	-1.4040843
-1.1646163	PROPN VERB PROPN	-1.5860482
-1.205448	CCONJ VERB PROPN	-1.0584807
-1.2202034	NOUN VERB PROPN	-1.7159677
-1.1256733	PUNCT VERB PROPN	-1.7143333
-1.1136156	NUM VERB PROPN	-0.5378761
-1.1491892	ADJ VERB PROPN	-0.6062152
-1.1505198	SCONJ VERB PROPN	-0.574045
-1.1750841	VERB VERB PROPN	-0.982622
-1.2046406	PART VERB PROPN	-1.7564763
-1.1899796	ADV VERB PROPN	-1.3970841
-1.2010214	AUX VERB PROPN	-1.556973
-1.2079748	PRON VERB PROPN	-1.5860847
-1.1420963	INTJ VERB PROPN	-0.4946831
-0.9755798	X VERB PROPN	-0.33658895
-1.3096632	SYM VERB PROPN	-0.30742723
-2.7063022	<s> PART PROPN	-0.29226524
-1.0069324	PROPN PART PROPN	-1.920879
-1.3486756	CCONJ PART PROPN	-0.43779945
-1.2267252	NOUN PART PROPN	-1.156969
-1.7434984	PUNCT PART PROPN	-0.65988624
-1.5293957	NUM PART PROPN	-0.29226524
-1.4290503	VERB PART PROPN	-0.46675503
-1.7200716	ADV PART PROPN	-0.28225166
-1.2956669	AUX PART PROPN	-0.4555006
-0.9285245	INTJ PART PROPN	-0.29226524
-1.1454055	X PART PROPN	-0.29226524
-1.6176425	<s> ADV PROPN	-1.1731315
-1.2082118	ADP ADV PROPN	-0.8265101
-1.570479	DET ADV PROPN	-0.33601916
-1.2099392	PROPN ADV PROPN	-0.65580326
-1.2748758	CCONJ ADV PROPN	-0.9137264
-1.2662679	NOUN ADV PROPN	-1.146256
-1.231244	PUNCT ADV PROPN	-1.1987908
-1.2080774	NUM ADV PROPN	-0.5812417
-1.3838105	ADJ ADV PROPN	-0.37132868
-1.351758	SCONJ ADV PROPN	-0.537081
-1.2863067	VERB ADV PROPN	-1.1493733
-1.0651284	PART ADV PROPN	-0.5405454
-1.3304138	ADV ADV PROPN	-0.7156917
-1.3236116	AUX ADV PROPN	-0.69056237
-1.4970518	PRON ADV PROPN	-0.2976092
-1.475046	INTJ ADV PROPN	-0.2773301
-1.1419722	<s> AUX PROPN	-0.814036
-1.4952428	ADP AUX PROPN	-0.28225166
-1.3726901	DET AUX PROPN	-0.8031553
-1.1749582	PROPN AUX PROPN	-0.8785633
-1.3871078	CCONJ AUX PROPN	-0.4682387
-1.2714512	NOUN AUX PROPN	-1.1878169
-1.1483852	PUNCT AUX PROPN	-0.87062
-1.3493528	NUM AUX PROPN	-0.55161893
-1.4045163	ADJ AUX PROPN	-0.32692918
-1.2935761	VERB AUX PROPN	-0.4268567
-1.1883556	ADV AUX PROPN	-0.8863588
-1.5176859	AUX AUX PROPN	-0.29226524
-1.2874897	PRON AUX PROPN	-1.0916166
-1.1549011	INTJ AUX PROPN	-0.29226524
-2.303862	<s> PRON PROPN	-0.8735987
-1.1462051	ADP PRON PROPN	-1.4414607
-1.6537894	DET PRON PROPN	-0.29215813
-1.1530445	PROPN PRON PROPN	-0.5672197
-1.2824556	CCONJ PRON PROPN	-0.73516124
-1.1918589	NOUN PRON PROPN	-0.4604696
-1.2818387	PUNCT PRON PROPN	-0.88753045
-1.4223982	NUM PRON PROPN	-0.29226524
-1.2786003	ADJ PRON PROPN	-0.29226524
-1.2295681	SCONJ PRON PROPN	-0.58042854
-1.2052808	VERB PRON PROPN	-1.2707171
-1.3874009	PART PRON PROPN	-0.28722954
-1.1990899	ADV PRON PROPN	-0.5191919
-1.278584	AUX PRON PROPN	-0.6999281
-1.3948338	PRON PRON PROPN	-0.29213434
-1.3943135	INTJ PRON PROPN	-0.43753994
-1.0375383	SYM PRON PROPN	-0.29226524
-1.4187305	<s> INTJ PROPN	-0.6205511
-0.8556347	ADP INTJ PROPN	-0.28794536
-0.90969837	PROPN INTJ PROPN	-0.49275315
-1.052086	NOUN INTJ PROPN	-0.29215813
-1.1606945	PUNCT INTJ PROPN	-0.6092701
-1.3658239	ADJ INTJ PROPN	-0.29226524
-1.6102154	VERB INTJ PROPN	-0.29226524
-1.2428553	ADV INTJ PROPN	-0.29226524
-1.3616722	PRON INTJ PROPN	-0.29226524
-1.3758373	INTJ INTJ PROPN	-0.29226524
-1.1953808	X INTJ PROPN	-0.29226524
-1.6202135	<s> X PROPN	-0.29213434
-1.0213383	ADP X PROPN	-0.3928421
-0.992775	DET X PROPN	-0.2862294
-0.6611988	PROPN X PROPN	-0.8013766
-1.1305578	CCONJ X PROPN	-0.29226524
-1.00749	NOUN X PROPN	-0.42721272
-0.9023551	PUNCT X PROPN	-0.8100778
-0.9214101	NUM X PROPN	-0.29226524
-1.0792083	ADJ X PROPN	-0.28225166
-0.4978421	SCONJ X PROPN	-0.29226524
-1.1079495	VERB X PROPN	-0.45048022
-0.8226297	PART X PROPN	-0.29226524
-1.322952	ADV X PROPN	-0.29226524
-1.0794642	AUX X PROPN	-0.29226524
-0.96194047	PRON X PROPN	-0.29226524
-0.9796743	X X PROPN	-0.504385
-1.4026505	<s> SYM PROPN	-0.2959321
-0.5953907	ADP SYM PROPN	-1.0555906
-0.565089	DET SYM PROPN	-0.6406048
-0.51283723	PROPN SYM PROPN	-1.3332442
-0.8317138	CCONJ SYM PROPN	-0.47587132
-0.73807174	NOUN SYM PROPN	-0.7088634
-0.58426976	PUNCT SYM PROPN	-0.878726
-0.7997706	NUM SYM PROPN	-0.49715894
-0.69438607	ADJ SYM PROPN	-0.49275315
-0.54587495	SCONJ SYM PROPN	-0.29226524
-0.61626893	VERB SYM PROPN	-0.67487407
-0.85277545	PART SYM PROPN	-0.29226524
-0.7859365	ADV SYM PROPN	-0.28225166
-0.5746337	AUX SYM PROPN	-0.40433723
-0.86154497	PRON SYM PROPN	-0.28225166
-0.6822583	INTJ SYM PROPN	-0.2773301
-0.6046681	X SYM PROPN	-0.28225166
-3.7205358	<s> ADP CCONJ	-0.29226524
-1.6099986	ADP ADP CCONJ	-0.4306549
-1.4453578	DET ADP CCONJ	-0.35093257
-1.343896	PROPN ADP CCONJ	-0.3941402
-1.5291564	CCONJ ADP CCONJ	-0.44736668
-1.2719115	NOUN ADP CCONJ	-1.1543263
-1.3672025	PUNCT ADP CCONJ	-0.56017673
-1.8403647	NUM ADP CCONJ	-0.29226524
-1.3957338	ADJ ADP CCONJ	-0.5320407
-1.7002877	SCONJ ADP CCONJ	-0.29226524
-1.2451701	VERB ADP CCONJ	-1.3469095
-1.7678661	PART ADP CCONJ	-0.29226524
-1.5166775	ADV ADP CCONJ	-0.38970545
-1.676851	AUX ADP CCONJ	-0.2862294
-1.7368376	PRON ADP CCONJ	-0.61032605
-3.3946767	<s> DET CCONJ	-0.34708464
-1.2359419	ADP DET CCONJ	-0.7316581
-1.7810483	DET DET CCONJ	-0.29226524
-1.8743505	PROPN DET CCONJ	-0.29226524
-1.5604042	CCONJ DET CCONJ	-0.2862294
-1.88905	NOUN DET CCONJ	-0.29226524
-1.8052166	PUNCT DET CCONJ	-0.29226524
-1.739799	NUM DET CCONJ	-0.29226524
-1.7680807	ADJ DET CCONJ	-0.29226524
-1.96356	SCONJ DET CCONJ	-0.29226524
-1.296635	VERB DET CCONJ	-0.59515935
-1.7923493	PART DET CCONJ	-0.29226524
-1.5364034	ADV DET CCONJ	-0.29226524
-1.6854792	AUX DET CCONJ	-0.28722954
-1.6399614	PRON DET CCONJ	-0.3022472
-1.7779403	<s> PROPN CCONJ	-1.3839822
-1.1849798	ADP PROPN CCONJ	-2.2604768
-1.1428722	DET PROPN CCONJ	-1.6770182
-1.172848	PROPN PROPN CCONJ	-2.3266182
-0.9724324	CCONJ PROPN CCONJ	-1.3180354
-1.1264832	NOUN PROPN CCONJ	-1.1595664
-1.1632606	PUNCT PROPN CCONJ	-1.8407925
-1.0923532	NUM PROPN CCONJ	-0.7389208
-1.1515017	ADJ PROPN CCONJ	-1.2015452
-1.1097566	SCONJ PROPN CCONJ	-0.9325765
-1.1739469	VERB PROPN CCONJ	-1.4855921
-1.0999244	PART PROPN CCONJ	-1.1510935
-1.1406783	ADV PROPN CCONJ	-0.91356677
-1.0285959	AUX PROPN CCONJ	-0.7432926
-1.0436084	PRON PROPN CCONJ	-0.8154893
-1.3871021	INTJ PROPN CCONJ	-0.2773301
-1.3908154	X PROPN CCONJ	-0.30883223
-1.1920898	SYM PROPN CCONJ	-0.73201644
-3.3517308	<s> CCONJ CCONJ	-0.29226524
-2.1829119	PROPN CCONJ CCONJ	-0.28473347
-1.5451629	NOUN CCONJ CCONJ	-0.3271934
-1.699496	PUNCT CCONJ CCONJ	-0.30739334
-2.0187368	NUM CCONJ CCONJ	-0.29226524
-2.1419935	ADJ CCONJ CCONJ	-0.29226524
-1.874315	VERB CCONJ CCONJ	-0.31260118
-1.8950336	ADV CCONJ CCONJ	-0.29226524
-1.5203687	<s> NOUN CCONJ	-1.4700513
-1.175419	ADP NOUN CCONJ	-2.3567991
-1.2431027	DET NOUN CCONJ	-2.435589
-1.1788119	PROPN NOUN CCONJ	-1.564338
-1.1603853	CCONJ NOUN CCONJ	-1.378407
-1.24455	NOUN NOUN CCONJ	-2.1985028
-1.1948395	PUNCT NOUN CCONJ	-2.049811
-1.210139	NUM NOUN CCONJ	-1.5075778
-1.2357464	ADJ NOUN CCONJ	-2.468752
-1.0518008	SCONJ NOUN CCONJ	-0.98896164
-1.2329164	VERB NOUN CCONJ	-2.0797045
-1.0424856	PART NOUN CCONJ	-1.4566355
-1.1986203	ADV NOUN CCONJ	-1.1181889
-1.148468	AUX NOUN CCONJ	-0.85909986
-1.1669229	PRON NOUN CCONJ	-1.9859308
-1.6633837	INTJ NOUN CCONJ	-0.29226524
-1.2177953	X NOUN CCONJ	-0.50593174
-1.1768496	SYM NOUN CCONJ	-0.57189834
-1.820721	<s> PUNCT CCONJ	-0.55854404
-1.301017	ADP PUNCT CCONJ	-1.0306025
-1.2811235	DET PUNCT CCONJ	-0.69408256
-1.2359283	PROPN PUNCT CCONJ	-2.059248
-1.3451736	CCONJ PUNCT CCONJ	-0.29209697
-1.2271664	NOUN PUNCT CCONJ	-2.504435
-1.2247971	PUNCT PUNCT CCONJ	-1.4842372
-1.1927445	NUM PUNCT CCONJ	-1.2604101
-1.1544863	ADJ PUNCT CCONJ	-1.7068233
-1.2106924	SCONJ PUNCT CCONJ	-0.28848302
-1.2465582	VERB PUNCT CCONJ	-1.7765999
-1.3608605	PART PUNCT CCONJ	-0.5241266
-1.2120883	ADV PUNCT CCONJ	-1.5782883
-1.2356302	AUX PUNCT CCONJ	-0.6450348
-1.1072339	PRON PUNCT CCONJ	-1.2766678
-1.1421068	INTJ PUNCT CCONJ	-0.49374318
-1.2010124	X PUNCT CCONJ	-0.47498828
-0.8617077	SYM PUNCT CCONJ	-0.29226524
-2.3489032	<s> NUM CCONJ	-0.34708464
-1.1617589	ADP NUM CCONJ	-1.2318214
-1.3329761	DET NUM CCONJ	-0.48386943
-1.1352466	PROPN NUM CCONJ	-0.98648185
-1.3802238	CCONJ NUM CCONJ	-0.3426313
-1.1935526	NOUN NUM CCONJ	-0.47438318
-1.3309771	PUNCT NUM CCONJ	-0.5840111
-1.1879661	NUM NUM CCONJ	-0.52526206
-1.325702	ADJ NUM CCONJ	-0.29970515
-1.2533871	SCONJ NUM CCONJ	-0.38955808
-1.1274064	VERB NUM CCONJ	-0.74640834
-1.3806092	PART NUM CCONJ	-0.3043522
-1.2270238	ADV NUM CCONJ	-0.5954571
-1.26324	AUX NUM CCONJ	-0.38932794
-1.4568034	PRON NUM CCONJ	-0.29226524
-0.9140572	X NUM CCONJ	-0.29226524
-1.3305395	SYM NUM CCONJ	-0.38197386
-1.7345877	<s> ADJ CCONJ	-1.0112201
-1.2085057	ADP ADJ CCONJ	-1.6197342
-1.1681396	DET ADJ CCONJ	-1.7557541
-1.184542	PROPN ADJ CCONJ	-0.5219921
-1.0761291	CCONJ ADJ CCONJ	-1.1275233
-1.1501853	NOUN ADJ CCONJ	-1.0752201
-1.0956959	PUNCT ADJ CCONJ	-1.6028714
-0.969555	NUM ADJ CCONJ	-0.72082996
-1.0952073	ADJ ADJ CCONJ	-1.335333
-1.0900826	SCONJ ADJ CCONJ	-0.5504653
-1.1407428	VERB ADJ CCONJ	-1.6378227
-1.078138	PART ADJ CCONJ	-1.0138402
-1.1679587	ADV ADJ CCONJ	-1.6353745
-0.98679477	AUX ADJ CCONJ	-1.3625039
-1.0969869	PRON ADJ CCONJ	-1.112183
-1.4250299	INTJ ADJ CCONJ	-0.28225166
-1.4747527	SYM ADJ CCONJ	-0.29226524
-2.602658	<s> SCONJ CCONJ	-0.6084572
-1.1438444	ADP SCONJ CCONJ	-0.93398345
-1.6733484	PROPN SCONJ CCONJ	-0.29226524
-1.7760746	CCONJ SCONJ CCONJ	-0.29226524
-1.6652979	NOUN SCONJ CCONJ	-0.53444993
-1.8119624	PUNCT SCONJ CCONJ	-0.7053672
-1.757361	ADJ SCONJ CCONJ	-0.29814723
-1.298036	VERB SCONJ CCONJ	-0.57077855
-1.9445069	ADV SCONJ CCONJ	-0.29226524
-1.7875373	AUX SCONJ CCONJ	-0.29226524
-1.6266224	PRON SCONJ CCONJ	-0.29226524
-2.3606973	<s> VERB CCONJ	-0.73526484
-1.1629307	ADP VERB CCONJ	-1.0809928
-1.2541517	DET VERB CCONJ	-0.87167835
-1.221139	PROPN VERB CCONJ	-0.898476
-1.2463591	CCONJ VERB CCONJ	-0.86799747
-1.2486328	NOUN VERB CCONJ	-1.3554983
-1.2369936	PUNCT VERB CCONJ	-1.3316324
-1.4251723	NUM VERB CCONJ	-0.29215813
-1.3138051	ADJ VERB CCONJ	-0.55754656
-1.253117	SCONJ VERB CCONJ	-0.51063347
-1.2126985	VERB VERB CCONJ	-0.91206646
-1.2069566	PART VERB CCONJ	-1.7046218
-1.2223325	ADV VERB CCONJ	-1.3601409
-1.2033376	AUX VERB CCONJ	-1.796232
-1.2382394	PRON VERB CCONJ	-1.3211852
-1.6361351	INTJ VERB CCONJ	-0.30742723
-1.4583622	SYM VERB CCONJ	-0.29226524
-1.3538876	PROPN PART CCONJ	-0.69058806
-1.4769814	CCONJ PART CCONJ	-0.2862294
-1.2359602	NOUN PART CCONJ	-0.56144905
-1.5645747	NUM PART CCONJ	-0.29716134
-1.5847784	ADJ PART CCONJ	-0.28473347
-1.4440323	VERB PART CCONJ	-0.45136046
-1.7582148	ADV PART CCONJ	-0.29226524
-1.5782421	AUX PART CCONJ	-0.38138288
-1.7690263	PRON PART CCONJ	-0.29226524
-2.6158133	<s> ADV CCONJ	-0.84493893
-1.2500159	ADP ADV CCONJ	-0.69149905
-1.1161623	DET ADV CCONJ	-0.749459
-1.2521701	PROPN ADV CCONJ	-0.6119383
-1.2748758	CCONJ ADV CCONJ	-0.7233431
-1.2662679	NOUN ADV CCONJ	-1.2408541
-1.231244	PUNCT ADV CCONJ	-1.0155207
-1.6038699	NUM ADV CCONJ	-0.30742723
-1.324374	ADJ ADV CCONJ	-0.5799923
-1.5378412	SCONJ ADV CCONJ	-0.44572994
-1.1893967	VERB ADV CCONJ	-1.4868355
-1.34167	PART ADV CCONJ	-0.50297135
-1.1543225	ADV ADV CCONJ	-0.89846134
-1.3236116	AUX ADV CCONJ	-0.75169706
-1.2367071	PRON ADV CCONJ	-0.79010063
-1.475046	INTJ ADV CCONJ	-0.29226524
-1.6412259	ADP AUX CCONJ	-0.29226524
-1.634154	DET AUX CCONJ	-0.28027633
-1.3730811	PROPN AUX CCONJ	-0.33956257
-1.6438776	CCONJ AUX CCONJ	-0.2773301
-1.3131597	NOUN AUX CCONJ	-0.6706466
-1.6506673	PUNCT AUX CCONJ	-0.40433723
-1.6986527	NUM AUX CCONJ	-0.28225166
-1.881111	ADJ AUX CCONJ	-0.29226524
-1.4054804	SCONJ AUX CCONJ	-0.29226524
-1.9195412	VERB AUX CCONJ	-0.29226524
-1.8808554	ADV AUX CCONJ	-0.29226524
-1.7669936	AUX AUX CCONJ	-0.29226524
-1.2914124	PRON AUX CCONJ	-0.7079787
-2.8116734	<s> PRON CCONJ	-0.5824845
-1.1792889	ADP PRON CCONJ	-1.3181647
-1.5790325	DET PRON CCONJ	-0.28027633
-1.2923355	PROPN PRON CCONJ	-0.2773301
-1.1840472	CCONJ PRON CCONJ	-0.5053586
-1.2456077	NOUN PRON CCONJ	-0.4395124
-1.3355987	PUNCT PRON CCONJ	-0.56965244
-1.445895	NUM PRON CCONJ	-0.29226524
-1.6441429	ADJ PRON CCONJ	-0.2773301
-1.1906221	SCONJ PRON CCONJ	-0.7613665
-1.2107068	VERB PRON CCONJ	-1.406595
-1.268385	PART PRON CCONJ	-0.28473347
-1.2065177	ADV PRON CCONJ	-0.5957364
-1.5377525	AUX PRON CCONJ	-0.28225166
-1.6518427	PRON PRON CCONJ	-0.29226524
-2.123114	<s> INTJ CCONJ	-0.2959321
-1.4838133	NOUN INTJ CCONJ	-0.29226524
-1.6347513	PUNCT INTJ CCONJ	-0.29226524
-1.4089812	ADJ INTJ CCONJ	-0.29226524
-0.87427247	SCONJ INTJ CCONJ	-0.29226524
-1.5244632	VERB INTJ CCONJ	-0.29226524
-1.5342696	ADV INTJ CCONJ	-0.29226524
-1.2634877	AUX INTJ CCONJ	-0.29226524
-1.4036353	PRON INTJ CCONJ	-0.29226524
-1.3428006	ADP X CCONJ	-0.28556392
-1.5154455	DET X CCONJ	-0.29226524
-1.22857	CCONJ X CCONJ	-0.29226524
-1.7135876	NOUN X CCONJ	-0.28225166
-1.4629477	PUNCT X CCONJ	-0.28225166
-1.4560107	ADJ X CCONJ	-0.29226524
-1.5895424	VERB X CCONJ	-0.29226524
-0.87472266	PART X CCONJ	-0.29226524
-1.3514372	X X CCONJ	-0.29716134
-1.6763661	NUM SYM CCONJ	-0.29226524
-1.5562806	ADV SYM CCONJ	-0.29226524
-0.87951374	<s> ADP NOUN	-1.8354994
-0.9869899	ADP ADP NOUN	-1.5134225
-0.96974546	DET ADP NOUN	-1.0099021
-1.0337657	PROPN ADP NOUN	-1.6983273
-1.1044315	CCONJ ADP NOUN	-1.3509152
-1.1559699	NOUN ADP NOUN	-3.0150318
-1.0826511	PUNCT ADP NOUN	-1.9583099
-0.9691099	NUM ADP NOUN	-1.1589266
-1.0583699	ADJ ADP NOUN	-1.864663
-0.93865764	SCONJ ADP NOUN	-1.3113945
-1.1592851	VERB ADP NOUN	-2.5972753
-0.84426874	PART ADP NOUN	-0.9688915
-1.0792636	ADV ADP NOUN	-1.8110522
-0.95776343	AUX ADP NOUN	-1.3318263
-0.9281928	PRON ADP NOUN	-1.4668221
-0.8078926	INTJ ADP NOUN	-0.37859315
-0.6299493	X ADP NOUN	-0.48401988
-0.5423247	SYM ADP NOUN	-0.40433723
-0.2712232	<s> DET NOUN	-2.6992488
-1.087982	ADP DET NOUN	-3.32593
-0.940501	DET DET NOUN	-1.8718038
-0.897637	PROPN DET NOUN	-1.3829467
-0.9015007	CCONJ DET NOUN	-2.2807922
-0.9910558	NOUN DET NOUN	-1.940416
-1.0364848	PUNCT DET NOUN	-2.5624802
-0.75034547	NUM DET NOUN	-0.94028324
-0.87075686	ADJ DET NOUN	-1.2286528
-0.9774345	SCONJ DET NOUN	-2.3163848
-1.0761905	VERB DET NOUN	-3.0727303
-0.82657486	PART DET NOUN	-1.4006029
-1.0106658	ADV DET NOUN	-2.1959085
-1.0108488	AUX DET NOUN	-2.2345984
-0.93920016	PRON DET NOUN	-1.7121811
-0.57055914	INTJ DET NOUN	-0.55765927
-0.4529186	X DET NOUN	-0.34681955
-0.68120575	SYM DET NOUN	-0.29226524
-1.3693	<s> PROPN NOUN	-1.5508493
-1.2128865	ADP PROPN NOUN	-2.0638325
-1.1149173	DET PROPN NOUN	-2.2578661
-1.1975758	PROPN PROPN NOUN	-2.163973
-1.1190771	CCONJ PROPN NOUN	-1.3059168
-1.1264832	NOUN PROPN NOUN	-1.3311976
-1.1632606	PUNCT PROPN NOUN	-1.739248
-1.0339911	NUM PROPN NOUN	-1.1844335
-1.0721107	ADJ PROPN NOUN	-1.6584333
-1.0712843	SCONJ PROPN NOUN	-0.99770254
-1.1476374	VERB PROPN NOUN	-1.5125852
-1.0317031	PART PROPN NOUN	-1.2194382
-1.1023883	ADV PROPN NOUN	-0.7178311
-1.3824365	AUX PROPN NOUN	-0.47893304
-1.0084193	PRON PROPN NOUN	-1.2441701
-1.1321946	INTJ PROPN NOUN	-0.3023142
-0.94236803	X PROPN NOUN	-0.5462512
-0.95473784	SYM PROPN NOUN	-0.990804
-1.2881356	<s> CCONJ NOUN	-1.0759063
-1.005507	ADP CCONJ NOUN	-0.83733547
-1.0436585	DET CCONJ NOUN	-0.43230778
-1.0218334	PROPN CCONJ NOUN	-2.2687101
-1.1237565	CCONJ CCONJ NOUN	-0.28722954
-1.0887219	NOUN CCONJ NOUN	-2.7276402
-1.1315007	PUNCT CCONJ NOUN	-1.9323796
-1.0543079	NUM CCONJ NOUN	-1.0229518
-1.0320382	ADJ CCONJ NOUN	-1.362915
-1.0328127	VERB CCONJ NOUN	-1.2803805
-1.0434681	PART CCONJ NOUN	-0.47908908
-1.0976058	ADV CCONJ NOUN	-0.9568884
-1.1334157	AUX CCONJ NOUN	-0.3773285
-0.9040778	PRON CCONJ NOUN	-0.6697917
-0.9655145	INTJ CCONJ NOUN	-0.28225166
-0.61131287	X CCONJ NOUN	-0.50847214
-0.509702	SYM CCONJ NOUN	-0.29226524
-0.9920283	<s> NOUN NOUN	-1.6902571
-1.175419	ADP NOUN NOUN	-2.3699865
-1.1640483	DET NOUN NOUN	-2.630609
-1.1540257	PROPN NOUN NOUN	-1.8635087
-1.087353	CCONJ NOUN NOUN	-2.036118
-1.2197638	NOUN NOUN NOUN	-2.4602203
-1.1685525	PUNCT NOUN NOUN	-2.216294
-1.159066	NUM NOUN NOUN	-1.7110033
-1.2109601	ADJ NOUN NOUN	-2.6188276
-0.984298	SCONJ NOUN NOUN	-1.2321126
-1.181843	VERB NOUN NOUN	-2.1292107
-1.0839877	PART NOUN NOUN	-1.6234398
-1.0476325	ADV NOUN NOUN	-1.1948504
-1.0688959	AUX NOUN NOUN	-0.9812161
-1.0579598	PRON NOUN NOUN	-1.8175814
-0.76188624	INTJ NOUN NOUN	-0.8788096
-0.9482843	X NOUN NOUN	-0.9865563
-0.90572923	SYM NOUN NOUN	-0.85190904
-0.98761183	<s> PUNCT NOUN	-1.2319176
-1.0801343	ADP PUNCT NOUN	-1.5546471
-1.0778189	DET PUNCT NOUN	-1.6261734
-1.211214	PROPN PUNCT NOUN	-2.0844235
-1.14002	CCONJ PUNCT NOUN	-1.1352687
-1.2271664	NOUN PUNCT NOUN	-2.6035833
-1.2247971	PUNCT PUNCT NOUN	-1.4562489
-1.1386487	NUM PUNCT NOUN	-1.7457843
-1.1544863	ADJ PUNCT NOUN	-1.9547486
-1.0335343	SCONJ PUNCT NOUN	-0.8481098
-1.1924627	VERB PUNCT NOUN	-1.6366775
-1.0965762	PART PUNCT NOUN	-0.9931884
-1.1858822	ADV PUNCT NOUN	-1.5143807
-1.1846063	AUX PUNCT NOUN	-0.64424986
-1.1690395	PRON PUNCT NOUN	-1.0493664
-1.3997356	INTJ PUNCT NOUN	-0.7125437
-1.0470403	X PUNCT NOUN	-0.6406303
-0.8617077	SYM PUNCT NOUN	-0.29226524
-0.4409318	<s> NUM NOUN	-1.5425662
-1.0758548	ADP NUM NOUN	-2.1339235
-0.93039376	DET NUM NOUN	-1.8514678
-1.0708352	PROPN NUM NOUN	-1.2582465
-0.9319818	CCONJ NUM NOUN	-1.3596685
-0.91723454	NOUN NUM NOUN	-1.228588
-0.9467898	PUNCT NUM NOUN	-1.6975274
-0.9336211	NUM NUM NOUN	-1.4120696
-0.9083715	ADJ NUM NOUN	-1.5226835
-0.8794388	SCONJ NUM NOUN	-1.6535027
-0.98509103	VERB NUM NOUN	-1.8180857
-0.74211264	PART NUM NOUN	-1.106556
-0.9238749	ADV NUM NOUN	-1.7876928
-0.84243214	AUX NUM NOUN	-1.1348332
-0.60578376	PRON NUM NOUN	-1.0503521
-0.3551125	INTJ NUM NOUN	-0.28794536
-0.6816911	X NUM NOUN	-0.28473347
-0.9877134	SYM NUM NOUN	-1.0201639
-0.23284797	<s> ADJ NOUN	-2.1297836
-1.090263	ADP ADJ NOUN	-2.8263144
-1.0819509	DET ADJ NOUN	-3.1927052
-0.8489561	PROPN ADJ NOUN	-1.532825
-1.0063465	CCONJ ADJ NOUN	-2.3678865
-1.039521	NOUN ADJ NOUN	-1.8291938
-1.0394117	PUNCT ADJ NOUN	-2.315051
-0.8122202	NUM ADJ NOUN	-1.8586951
-0.9843927	ADJ ADJ NOUN	-2.595106
-0.8587637	SCONJ ADJ NOUN	-1.7696176
-1.0877076	VERB ADJ NOUN	-2.5658135
-1.0081574	PART ADJ NOUN	-1.9563497
-1.0866027	ADV ADJ NOUN	-2.2591498
-1.016591	AUX ADJ NOUN	-1.5521036
-0.9180303	PRON ADJ NOUN	-2.3501058
-0.6193526	INTJ ADJ NOUN	-0.53303355
-0.6095961	X ADJ NOUN	-0.7411741
-0.63769466	SYM ADJ NOUN	-0.72135
-1.182964	<s> SCONJ NOUN	-1.0453506
-1.0584346	ADP SCONJ NOUN	-0.65136504
-1.191331	DET SCONJ NOUN	-0.29226524
-0.9718733	PROPN SCONJ NOUN	-0.54969376
-0.985839	CCONJ SCONJ NOUN	-0.87119544
-1.0498248	NOUN SCONJ NOUN	-1.3475213
-1.0280225	PUNCT SCONJ NOUN	-1.17997
-1.3574691	NUM SCONJ NOUN	-0.2773301
-1.0336667	ADJ SCONJ NOUN	-1.1061289
-0.89324194	SCONJ SCONJ NOUN	-0.87785125
-1.132697	VERB SCONJ NOUN	-1.623626
-1.4546821	PART SCONJ NOUN	-0.2773301
-1.0342319	ADV SCONJ NOUN	-0.974678
-1.044414	AUX SCONJ NOUN	-0.85149527
-1.1957816	PRON SCONJ NOUN	-0.5961889
-0.90685016	INTJ SCONJ NOUN	-0.29226524
-1.090746	<s> VERB NOUN	-1.2679582
-1.0757376	ADP VERB NOUN	-2.0151753
-1.1540867	DET VERB NOUN	-2.130741
-1.1646163	PROPN VERB NOUN	-1.6949651
-1.1383113	CCONJ VERB NOUN	-1.8999581
-1.1954427	NOUN VERB NOUN	-2.1402657
-1.1504339	PUNCT VERB NOUN	-2.1166697
-0.98735183	NUM VERB NOUN	-0.9471672
-1.0319614	ADJ VERB NOUN	-1.424504
-1.034833	SCONJ VERB NOUN	-1.0137583
-1.0334141	VERB VERB NOUN	-1.6003354
-1.1504339	PART VERB NOUN	-2.330417
-1.1357728	ADV VERB NOUN	-1.9963305
-1.173073	AUX VERB NOUN	-2.0771804
-1.2079748	PRON VERB NOUN	-2.0052462
-0.9020966	INTJ VERB NOUN	-0.72173333
-0.8755567	X VERB NOUN	-0.54662484
-0.94263536	SYM VERB NOUN	-0.29978007
-1.0276542	ADP PART NOUN	-0.31260118
-1.3056929	DET PART NOUN	-0.29226524
-0.9718003	PROPN PART NOUN	-2.301397
-1.4102728	CCONJ PART NOUN	-0.4535578
-0.9808439	NOUN PART NOUN	-2.2225213
-1.2756461	PUNCT PART NOUN	-0.7649916
-0.97387046	NUM PART NOUN	-0.57336783
-1.1110665	ADJ PART NOUN	-0.65960974
-1.1536335	SCONJ PART NOUN	-0.53444993
-1.1387358	VERB PART NOUN	-0.7797224
-1.1219627	ADV PART NOUN	-0.3873187
-1.1627775	AUX PART NOUN	-0.7616621
-0.91231436	PRON PART NOUN	-0.83451116
-1.0999621	INTJ PART NOUN	-0.29226524
-1.101698	X PART NOUN	-0.29226524
-1.6352308	<s> ADV NOUN	-1.0957022
-1.2884595	ADP ADV NOUN	-0.99060595
-1.1518668	DET ADV NOUN	-0.6300909
-1.2040051	PROPN ADV NOUN	-0.8075668
-1.0765196	CCONJ ADV NOUN	-1.2021143
-1.1207492	NOUN ADV NOUN	-1.3683536
-1.2259533	PUNCT ADV NOUN	-1.3296762
-1.2681766	NUM ADV NOUN	-0.40433723
-1.1045433	ADJ ADV NOUN	-0.6856701
-1.1621382	SCONJ ADV NOUN	-0.5329802
-1.1566577	VERB ADV NOUN	-1.2506193
-1.1336014	PART ADV NOUN	-0.7185052
-1.1789067	ADV ADV NOUN	-0.8273169
-1.3143823	AUX ADV NOUN	-1.0379642
-1.4831557	PRON ADV NOUN	-0.40493634
-0.9643695	INTJ ADV NOUN	-0.28722954
-0.6858892	X ADV NOUN	-0.5504653
-0.9551852	SYM ADV NOUN	-0.29226524
-1.463382	<s> AUX NOUN	-0.6471949
-1.2245401	ADP AUX NOUN	-0.35885626
-1.1620024	DET AUX NOUN	-0.7469605
-1.1663506	PROPN AUX NOUN	-0.9857712
-1.2610573	CCONJ AUX NOUN	-0.3647088
-1.1952941	NOUN AUX NOUN	-1.6266251
-1.1767064	PUNCT AUX NOUN	-0.8037263
-1.1229925	NUM AUX NOUN	-0.38902798
-1.2353898	ADJ AUX NOUN	-0.47582138
-1.3512374	SCONJ AUX NOUN	-0.29226524
-1.1226578	VERB AUX NOUN	-0.66757864
-1.4721115	PART AUX NOUN	-0.29226524
-1.1404849	ADV AUX NOUN	-0.8577912
-1.4844639	AUX AUX NOUN	-0.29226524
-1.1735404	PRON AUX NOUN	-1.5040162
-1.0008564	INTJ AUX NOUN	-0.29226524
-1.1851501	X AUX NOUN	-0.29226524
-1.2157756	<s> PRON NOUN	-1.7669259
-1.1178303	ADP PRON NOUN	-2.6179225
-0.8847204	DET PRON NOUN	-1.1569452
-1.0508368	PROPN PRON NOUN	-0.60057616
-1.0489315	CCONJ PRON NOUN	-1.8005369
-1.0421108	NOUN PRON NOUN	-1.0385344
-1.0507071	PUNCT PRON NOUN	-1.6860222
-0.8314589	NUM PRON NOUN	-0.3335401
-0.960408	ADJ PRON NOUN	-0.6636627
-1.0345061	SCONJ PRON NOUN	-1.608153
-1.1751034	VERB PRON NOUN	-2.4875846
-0.93325764	PART PRON NOUN	-0.5714634
-1.0509934	ADV PRON NOUN	-1.2933234
-1.0428592	AUX PRON NOUN	-1.2400506
-0.89608926	PRON PRON NOUN	-0.9711803
-1.0044053	INTJ PRON NOUN	-0.28556392
-0.61255586	X PRON NOUN	-0.28473347
-0.82441616	SYM PRON NOUN	-0.45923728
-1.4463277	<s> INTJ NOUN	-0.56112915
-0.96710926	ADP INTJ NOUN	-0.3043522
-0.73185706	DET INTJ NOUN	-0.29226524
-0.957253	PROPN INTJ NOUN	-0.40433723
-1.3382787	CCONJ INTJ NOUN	-0.29226524
-0.7249559	NOUN INTJ NOUN	-0.8572887
-1.1299663	PUNCT INTJ NOUN	-0.59137166
-0.88926053	ADJ INTJ NOUN	-0.38353342
-0.9469635	VERB INTJ NOUN	-0.48921484
-0.87720436	PART INTJ NOUN	-0.29226524
-1.179178	ADV INTJ NOUN	-0.39669007
-0.99354875	AUX INTJ NOUN	-0.29226524
-1.2716764	PRON INTJ NOUN	-0.29226524
-0.80821085	INTJ INTJ NOUN	-0.48740867
-0.63703054	X INTJ NOUN	-0.38353342
-0.7502991	SYM INTJ NOUN	-0.29226524
-1.5781982	<s> X NOUN	-0.28911984
-1.0287844	ADP X NOUN	-0.29915133
-0.7250458	DET X NOUN	-0.29970515
-0.9759271	PROPN X NOUN	-0.3743775
-0.86849755	NOUN X NOUN	-0.939324
-0.9398106	PUNCT X NOUN	-0.91947097
-0.72173584	NUM X NOUN	-0.2773301
-0.732768	ADJ X NOUN	-0.42274752
-0.8058389	VERB X NOUN	-0.63656086
-0.76420915	ADV X NOUN	-0.40433723
-0.7925258	AUX X NOUN	-0.2959321
-0.97185636	PRON X NOUN	-0.29226524
-0.67997646	INTJ X NOUN	-0.29814723
-0.71105456	X X NOUN	-0.8604052
-0.6528739	SYM X NOUN	-0.29226524
-0.04633569	<s> SYM NOUN	-1.5639971
-0.7225065	ADP SYM NOUN	-0.6300909
-0.7290273	DET SYM NOUN	-0.48351848
-0.6409811	PROPN SYM NOUN	-0.46351653
-0.8376097	CCONJ SYM NOUN	-0.38002032
-0.5917957	NOUN SYM NOUN	-1.1079662
-0.710869	PUNCT SYM NOUN	-0.7540066
-1.1610205	NUM SYM NOUN	-0.28473347
-0.59670174	ADJ SYM NOUN	-0.49760172
-0.74733883	SCONJ SYM NOUN	-0.29226524
-0.6188529	VERB SYM NOUN	-0.6658137
-0.7929994	ADV SYM NOUN	-0.29226524
-0.8414498	AUX SYM NOUN	-0.2773301
-0.7632767	PRON SYM NOUN	-0.29226524
-0.6906619	INTJ SYM NOUN	-0.29226524
-0.61195594	X SYM NOUN	-0.29226524
-2.3852296	<s> ADP PUNCT	-0.5748837
-1.2392336	ADP ADP PUNCT	-0.7275029
-1.1210259	DET ADP PUNCT	-0.79128444
-1.2113092	PROPN ADP PUNCT	-1.0014122
-1.1539841	CCONJ ADP PUNCT	-0.5511267
-1.1827543	NOUN ADP PUNCT	-1.7043663
-1.2005601	PUNCT ADP PUNCT	-1.322224
-1.3365073	NUM ADP PUNCT	-0.38353342
-1.1147187	ADJ ADP PUNCT	-1.0300276
-1.2825209	SCONJ ADP PUNCT	-0.3647088
-1.1860696	VERB ADP PUNCT	-1.9296904
-1.3596559	PART ADP PUNCT	-0.29213434
-1.1712946	ADV ADP PUNCT	-0.74148893
-1.1629221	AUX ADP PUNCT	-0.52908295
-1.3862826	PRON ADP PUNCT	-1.0389465
-1.4919004	X ADP PUNCT	-0.29226524
-1.092779	SYM ADP PUNCT	-0.29226524
-2.1036901	<s> DET PUNCT	-0.9664165
-1.1684495	ADP DET PUNCT	-1.791061
-1.079062	DET DET PUNCT	-0.7098768
-1.239345	PROPN DET PUNCT	-0.41878158
-1.1827614	CCONJ DET PUNCT	-0.8012462
-1.2070954	NOUN DET PUNCT	-0.7803462
-1.092723	PUNCT DET PUNCT	-1.1529075
-1.1643906	NUM DET PUNCT	-0.61798024
-1.187179	ADJ DET PUNCT	-0.29552317
-1.0706476	SCONJ DET PUNCT	-0.8666576
-1.1289837	VERB DET PUNCT	-1.5607098
-1.2114475	PART DET PUNCT	-0.49022824
-1.103431	ADV DET PUNCT	-0.8100714
-1.1283965	AUX DET PUNCT	-0.90454537
-1.1343476	PRON DET PUNCT	-0.8032961
-1.3957617	INTJ DET PUNCT	-0.29226524
-0.9132747	SYM DET PUNCT	-0.29226524
-0.67046857	<s> PROPN PUNCT	-2.1805267
-1.1587586	ADP PROPN PUNCT	-2.797744
-1.1428722	DET PROPN PUNCT	-2.1105351
-1.172848	PROPN PROPN PUNCT	-2.8976858
-1.0047164	CCONJ PROPN PUNCT	-1.8902313
-1.1264832	NOUN PROPN PUNCT	-1.717878
-1.1370393	PUNCT PROPN PUNCT	-2.4714103
-1.0339911	NUM PROPN PUNCT	-1.2884158
-1.0969958	ADJ PROPN PUNCT	-1.7782979
-1.0712843	SCONJ PROPN PUNCT	-1.0636984
-1.1228311	VERB PROPN PUNCT	-1.8335797
-0.97275776	PART PROPN PUNCT	-1.2427546
-1.0346546	ADV PROPN PUNCT	-0.9843603
-0.9900255	AUX PROPN PUNCT	-0.9293167
-0.97586894	PRON PROPN PUNCT	-1.1137402
-0.8614222	INTJ PROPN PUNCT	-0.44439518
-0.76191735	X PROPN PUNCT	-0.7338354
-0.91962516	SYM PROPN PUNCT	-1.0757809
-1.3342783	<s> CCONJ PUNCT	-0.9635742
-1.3220203	ADP CCONJ PUNCT	-0.28473347
-1.3769991	DET CCONJ PUNCT	-0.28027633
-1.2832872	PROPN CCONJ PUNCT	-0.513356
-1.3031865	CCONJ CCONJ PUNCT	-0.29226524
-1.3062519	NOUN CCONJ PUNCT	-0.92061937
-1.19444	PUNCT CCONJ PUNCT	-1.3283697
-1.6485987	NUM CCONJ PUNCT	-0.30742723
-1.2425299	ADJ CCONJ PUNCT	-0.525827
-1.3841156	SCONJ CCONJ PUNCT	-0.29226524
-1.3399725	VERB CCONJ PUNCT	-0.44381413
-1.439694	PART CCONJ PUNCT	-0.28225166
-1.450524	ADV CCONJ PUNCT	-0.29216704
-1.3901242	AUX CCONJ PUNCT	-0.29226524
-1.5332979	PRON CCONJ PUNCT	-0.28225166
-0.5590151	<s> NOUN PUNCT	-2.1002977
-1.1506327	ADP NOUN PUNCT	-2.7451549
-1.1640483	DET NOUN PUNCT	-3.0025675
-1.1540257	PROPN NOUN PUNCT	-2.323656
-0.970225	CCONJ NOUN PUNCT	-2.5566032
-1.2197638	NOUN NOUN PUNCT	-2.7891324
-1.1437662	PUNCT NOUN PUNCT	-2.405439
-1.159066	NUM NOUN PUNCT	-2.1413088
-1.2109601	ADJ NOUN PUNCT	-3.0881712
-1.0167392	SCONJ NOUN PUNCT	-1.0404348
-1.181843	VERB NOUN PUNCT	-2.3901248
-0.9375158	PART NOUN PUNCT	-2.0473878
-1.1019005	ADV NOUN PUNCT	-1.3129259
-1.0339836	AUX NOUN PUNCT	-1.1462857
-1.082746	PRON NOUN PUNCT	-2.4496152
-0.9807433	INTJ NOUN PUNCT	-0.38183406
-0.8419514	X NOUN PUNCT	-0.7778939
-0.90572923	SYM NOUN PUNCT	-1.13098
-1.3920003	<s> PUNCT PUNCT	-0.8967911
-1.2555008	ADP PUNCT PUNCT	-0.9319003
-1.2023045	DET PUNCT PUNCT	-0.75800836
-1.211214	PROPN PUNCT PUNCT	-2.1760955
-1.2655326	CCONJ PUNCT PUNCT	-0.40433723
-1.2271664	NOUN PUNCT PUNCT	-2.4068005
-1.1707015	PUNCT PUNCT PUNCT	-1.8391827
-1.1648549	NUM PUNCT PUNCT	-1.350145
-1.1792006	ADJ PUNCT PUNCT	-1.4877352
-1.2691423	SCONJ PUNCT PUNCT	-0.4248777
-1.1677482	VERB PUNCT PUNCT	-1.7650542
-1.1380938	PART PUNCT PUNCT	-0.68241286
-1.1858822	ADV PUNCT PUNCT	-1.4713203
-1.1846063	AUX PUNCT PUNCT	-0.59610015
-1.1072339	PRON PUNCT PUNCT	-1.3492988
-1.0544229	INTJ PUNCT PUNCT	-0.62935024
-1.0470403	X PUNCT PUNCT	-0.7319919
-0.8617077	SYM PUNCT PUNCT	-0.29226524
-1.0123967	<s> NUM PUNCT	-1.0113813
-1.1018454	ADP NUM PUNCT	-1.8626033
-0.9603052	DET NUM PUNCT	-1.5186099
-1.0430241	PROPN NUM PUNCT	-2.1154995
-1.0191869	CCONJ NUM PUNCT	-0.85689163
-0.9709819	NOUN NUM PUNCT	-1.5503064
-1.0005372	PUNCT NUM PUNCT	-1.72097
-0.9336211	NUM NUM PUNCT	-0.95570725
-0.8466212	ADJ NUM PUNCT	-1.0404514
-1.0256714	SCONJ NUM PUNCT	-0.9945971
-1.0632497	VERB NUM PUNCT	-1.0055248
-0.92245555	PART NUM PUNCT	-0.6686494
-0.95174813	ADV NUM PUNCT	-0.70591044
-0.9418588	AUX NUM PUNCT	-0.5440082
-0.84587306	PRON NUM PUNCT	-0.8163079
-0.9218311	INTJ NUM PUNCT	-0.29226524
-0.90804064	X NUM PUNCT	-0.29226524
-0.92539376	SYM NUM PUNCT	-1.2856814
-1.3185867	<s> ADJ PUNCT	-1.0805273
-1.090263	ADP ADJ PUNCT	-1.6731548
-1.1358348	DET ADJ PUNCT	-1.8767457
-0.9341082	PROPN ADJ PUNCT	-0.7905866
-1.0063465	CCONJ ADJ PUNCT	-1.5442715
-1.039521	NOUN ADJ PUNCT	-1.4224523
-1.0394117	PUNCT ADJ PUNCT	-1.810821
-0.8678256	NUM ADJ PUNCT	-0.74829984
-1.0629025	ADJ ADJ PUNCT	-1.3878161
-1.0397093	SCONJ ADJ PUNCT	-0.7874775
-1.1123335	VERB ADJ PUNCT	-2.0034184
-1.0404961	PART ADJ PUNCT	-1.3732541
-1.1376867	ADV ADJ PUNCT	-2.0197248
-1.0513697	AUX ADJ PUNCT	-1.7424977
-1.0594043	PRON ADJ PUNCT	-1.3488946
-0.9709905	INTJ ADJ PUNCT	-0.2773301
-0.65386266	X ADJ PUNCT	-0.33842662
-0.92374223	SYM ADJ PUNCT	-0.3221669
-1.9557709	<s> SCONJ PUNCT	-0.43292004
-1.5140072	ADP SCONJ PUNCT	-0.45358187
-1.1386523	PROPN SCONJ PUNCT	-0.4305429
-1.2600392	CCONJ SCONJ PUNCT	-0.35664776
-1.2320123	NOUN SCONJ PUNCT	-0.7541536
-1.2383204	PUNCT SCONJ PUNCT	-0.7092855
-1.272722	NUM SCONJ PUNCT	-0.28225166
-1.4090619	ADJ SCONJ PUNCT	-0.4218003
-1.5711449	SCONJ SCONJ PUNCT	-0.28225166
-1.1391289	VERB SCONJ PUNCT	-1.3108169
-1.4827777	PART SCONJ PUNCT	-0.29226524
-1.2208291	ADV SCONJ PUNCT	-0.30014762
-1.1837455	AUX SCONJ PUNCT	-0.38041985
-1.1107608	PRON SCONJ PUNCT	-0.31561542
-1.2652489	<s> VERB PUNCT	-1.0555786
-1.102254	ADP VERB PUNCT	-1.298541
-1.1540867	DET VERB PUNCT	-1.3491223
-1.1398556	PROPN VERB PUNCT	-1.9222584
-1.0801768	CCONJ VERB PUNCT	-1.5118421
-1.1954427	NOUN VERB PUNCT	-2.0569103
-1.1504339	PUNCT VERB PUNCT	-1.828527
-1.0156453	NUM VERB PUNCT	-0.68050975
-1.058437	ADJ VERB PUNCT	-0.8897282
-1.1084396	SCONJ VERB PUNCT	-0.66913474
-1.1127726	VERB VERB PUNCT	-1.1238476
-1.2046406	PART VERB PUNCT	-2.0278306
-1.1899796	ADV VERB PUNCT	-1.8453306
-1.2010214	AUX VERB PUNCT	-2.2816026
-1.1817167	PRON VERB PUNCT	-2.0744755
-1.0823209	INTJ VERB PUNCT	-0.37433875
-1.035809	X VERB PUNCT	-0.48740867
-0.94263536	SYM VERB PUNCT	-0.28794536
-2.1669476	<s> PART PUNCT	-0.2862294
-1.111049	ADP PART PUNCT	-0.2964585
-0.9135994	DET PART PUNCT	-0.38267332
-1.0225327	PROPN PART PUNCT	-1.067508
-1.0606954	CCONJ PART PUNCT	-0.91287255
-1.1306405	NOUN PART PUNCT	-0.94081837
-1.1485733	PUNCT PART PUNCT	-0.61888856
-0.913376	NUM PART PUNCT	-0.43511373
-1.0503063	ADJ PART PUNCT	-0.4682583
-0.9957904	SCONJ PART PUNCT	-0.40481147
-1.1010898	VERB PART PUNCT	-1.070173
-1.370723	PART PART PUNCT	-0.31260118
-1.0699117	ADV PART PUNCT	-0.80845726
-1.2134879	AUX PART PUNCT	-0.8459857
-1.0259306	PRON PART PUNCT	-0.52526206
-0.4587474	<s> ADV PUNCT	-2.1400955
-1.0677329	ADP ADV PUNCT	-1.413671
-0.9748912	DET ADV PUNCT	-1.445085
-1.0141146	PROPN ADV PUNCT	-1.2797072
-1.0467333	CCONJ ADV PUNCT	-1.4583045
-1.1453277	NOUN ADV PUNCT	-2.068617
-1.1424224	PUNCT ADV PUNCT	-1.8125544
-0.86244816	NUM ADV PUNCT	-0.6610222
-1.0422616	ADJ ADV PUNCT	-1.198106
-1.0357445	SCONJ ADV PUNCT	-0.85716546
-1.1306044	VERB ADV PUNCT	-1.9890704
-1.0954164	PART ADV PUNCT	-0.7882327
-1.1215835	ADV ADV PUNCT	-1.9646769
-1.1408877	AUX ADV PUNCT	-1.0315046
-1.0697595	PRON ADV PUNCT	-1.4142478
-0.9643695	INTJ ADV PUNCT	-0.3484958
-1.0649184	X ADV PUNCT	-0.29226524
-0.81718993	SYM ADV PUNCT	-0.28473347
-2.3368683	<s> AUX PUNCT	-0.29226524
-1.232449	ADP AUX PUNCT	-0.38353342
-1.2068259	DET AUX PUNCT	-0.6191811
-1.1692009	PROPN AUX PUNCT	-0.8124323
-1.5047657	CCONJ AUX PUNCT	-0.3729658
-1.1413709	NOUN AUX PUNCT	-1.272288
-1.2215918	PUNCT AUX PUNCT	-0.57425654
-1.3347163	NUM AUX PUNCT	-0.30323935
-1.4908354	ADJ AUX PUNCT	-0.28722954
-1.3641763	SCONJ AUX PUNCT	-0.29226524
-1.1261319	VERB AUX PUNCT	-0.34800473
-1.2079021	PART AUX PUNCT	-0.67029095
-1.2228252	ADV AUX PUNCT	-0.5023149
-1.0386084	AUX AUX PUNCT	-0.81166345
-1.1765546	PRON AUX PUNCT	-1.1597455
-1.1972204	X AUX PUNCT	-0.29226524
-2.223195	<s> PRON PUNCT	-0.7651383
-1.1738565	ADP PRON PUNCT	-2.0110884
-1.1039478	DET PRON PUNCT	-0.2940209
-0.8749643	PROPN PRON PUNCT	-0.6389262
-1.1302834	CCONJ PRON PUNCT	-0.7148787
-1.0769105	NOUN PRON PUNCT	-1.0526003
-1.0791094	PUNCT PRON PUNCT	-0.9236307
-1.1675689	NUM PRON PUNCT	-0.29226524
-0.96325165	ADJ PRON PUNCT	-0.7762726
-1.1836135	SCONJ PRON PUNCT	-0.72223204
-1.1516268	VERB PRON PUNCT	-1.9921637
-0.9370067	PART PRON PUNCT	-0.8276566
-1.1202923	ADV PRON PUNCT	-0.61889845
-1.1701978	AUX PRON PUNCT	-0.8514718
-1.2090642	PRON PRON PUNCT	-0.41809738
-0.91804355	INTJ PRON PUNCT	-0.5349475
-1.0375383	SYM PRON PUNCT	-0.29226524
-0.31549639	<s> INTJ PUNCT	-1.3242068
-1.0496645	ADP INTJ PUNCT	-0.30742723
-0.84969294	DET INTJ PUNCT	-0.29226524
-0.7997806	PROPN INTJ PUNCT	-0.3798765
-0.76414704	CCONJ INTJ PUNCT	-0.53614706
-0.82123864	NOUN INTJ PUNCT	-0.55145025
-0.80936074	PUNCT INTJ PUNCT	-1.2866224
-0.588372	NUM INTJ PUNCT	-0.28225166
-0.8757608	ADJ INTJ PUNCT	-0.2862294
-0.5900346	SCONJ INTJ PUNCT	-0.29226524
-0.7439317	VERB INTJ PUNCT	-0.60274607
-0.65330714	PART INTJ PUNCT	-0.29226524
-0.7882688	ADV INTJ PUNCT	-0.32226107
-0.97525704	AUX INTJ PUNCT	-0.2794325
-0.86580706	PRON INTJ PUNCT	-0.28101602
-0.79950523	INTJ INTJ PUNCT	-0.6207503
-1.113265	X INTJ PUNCT	-0.29226524
-0.7387721	SYM INTJ PUNCT	-0.29226524
-0.19580688	<s> X PUNCT	-1.0058461
-0.8202204	ADP X PUNCT	-0.6338349
-0.99952364	DET X PUNCT	-0.28722954
-0.8454648	PROPN X PUNCT	-0.52157885
-0.5383639	CCONJ X PUNCT	-0.3910343
-0.9001814	NOUN X PUNCT	-0.71703744
-0.8194077	PUNCT X PUNCT	-1.1352584
-0.93059874	NUM X PUNCT	-0.29226524
-0.9353169	ADJ X PUNCT	-0.28473347
-0.7069187	VERB X PUNCT	-0.4268567
-0.9601738	ADV X PUNCT	-0.28473347
-0.92164445	AUX X PUNCT	-0.31260118
-0.76930654	PRON X PUNCT	-0.29226524
-1.1395353	INTJ X PUNCT	-0.29226524
-0.9333406	X X PUNCT	-0.566475
-1.7073019	ADP SYM PUNCT	-0.29226524
-1.487673	CCONJ SYM PUNCT	-0.29226524
-1.8454107	NOUN SYM PUNCT	-0.29226524
-1.6919776	PUNCT SYM PUNCT	-0.29226524
-1.3555795	<s> ADP NUM	-1.408146
-1.0172442	ADP ADP NUM	-1.1943209
-1.2205846	DET ADP NUM	-0.6485986
-1.0868112	PROPN ADP NUM	-1.495687
-1.1077822	CCONJ ADP NUM	-0.8489722
-1.158121	NOUN ADP NUM	-2.099855
-1.1110487	PUNCT ADP NUM	-1.3421452
-0.97106814	NUM ADP NUM	-1.0927542
-1.1147187	ADJ ADP NUM	-1.0883398
-1.0041368	SCONJ ADP NUM	-0.93148494
-1.2121847	VERB ADP NUM	-1.8944563
-1.251565	PART ADP NUM	-0.2794325
-1.1094877	ADV ADP NUM	-1.1976813
-1.1027951	AUX ADP NUM	-0.6387575
-1.1771003	PRON ADP NUM	-0.7951385
-1.0191413	INTJ ADP NUM	-0.28027633
-1.3477707	X ADP NUM	-0.29226524
-1.8799038	<s> DET NUM	-1.2917403
-1.1711376	ADP DET NUM	-1.8710973
-1.1712494	DET DET NUM	-0.74170005
-1.3983271	PROPN DET NUM	-0.3928421
-1.1864047	CCONJ DET NUM	-0.7997491
-1.1722211	NOUN DET NUM	-0.85454386
-1.1920584	PUNCT DET NUM	-1.3118583
-1.6006385	NUM DET NUM	-0.29226524
-1.3841763	ADJ DET NUM	-0.5349475
-1.108542	SCONJ DET NUM	-0.9856217
-1.1890944	VERB DET NUM	-1.4579058
-1.4084448	PART DET NUM	-0.2862294
-1.1412425	ADV DET NUM	-0.86230564
-1.089628	AUX DET NUM	-0.93538624
-1.3984294	PRON DET NUM	-0.46541703
-1.2576171	INTJ DET NUM	-0.29226524
-2.2026596	<s> PROPN NUM	-0.9940926
-1.2152364	ADP PROPN NUM	-1.9854684
-1.3218393	DET PROPN NUM	-1.228517
-1.2540536	PROPN PROPN NUM	-1.5299222
-1.4285611	CCONJ PROPN NUM	-0.6616013
-1.2537479	NOUN PROPN NUM	-0.9758743
-1.2235084	PUNCT PROPN NUM	-1.594494
-1.2428485	NUM PROPN NUM	-1.0013888
-1.2896466	ADJ PROPN NUM	-0.8205807
-1.0737287	SCONJ PROPN NUM	-0.8781371
-1.2666657	VERB PROPN NUM	-0.790465
-1.2885091	PART PROPN NUM	-0.4051505
-1.2325773	ADV PROPN NUM	-0.33658895
-1.3046275	AUX PROPN NUM	-0.67159575
-1.3553916	PRON PROPN NUM	-0.76556903
-1.6139202	X PROPN NUM	-0.2773301
-1.1965737	SYM PROPN NUM	-0.5241227
-2.092101	<s> CCONJ NUM	-0.6753837
-1.555348	ADP CCONJ NUM	-0.29226524
-1.3769991	DET CCONJ NUM	-0.3043522
-1.2414804	PROPN CCONJ NUM	-0.9246486
-1.2020731	NOUN CCONJ NUM	-1.3085791
-1.19444	PUNCT CCONJ NUM	-1.0937197
-0.9236008	NUM CCONJ NUM	-1.1736985
-1.2887884	ADJ CCONJ NUM	-0.5723865
-1.3841156	SCONJ CCONJ NUM	-0.29226524
-1.2009829	VERB CCONJ NUM	-0.63470453
-1.2041839	PART CCONJ NUM	-0.2862294
-1.6767465	ADV CCONJ NUM	-0.28473347
-1.28991	AUX CCONJ NUM	-0.28225166
-1.4011493	PRON CCONJ NUM	-0.43753994
-1.3093516	X CCONJ NUM	-0.29226524
-1.9926553	<s> NOUN NUM	-0.9939751
-1.2296871	ADP NOUN NUM	-0.9902103
-1.3051335	DET NOUN NUM	-1.0678624
-1.2951108	PROPN NOUN NUM	-1.1586852
-1.087353	CCONJ NOUN NUM	-2.1654139
-1.298818	NOUN NOUN NUM	-0.95959294
-1.3195404	PUNCT NOUN NUM	-0.8734931
-1.3348399	NUM NOUN NUM	-0.5572465
-1.3199234	ADJ NOUN NUM	-0.838676
-1.536782	SCONJ NOUN NUM	-0.2964585
-1.2908063	VERB NOUN NUM	-0.865426
-1.4837375	PART NOUN NUM	-0.3426313
-1.4320247	ADV NOUN NUM	-0.3480047
-1.3043767	AUX NOUN NUM	-0.41518196
-1.6126157	PRON NOUN NUM	-0.69038624
-1.5427866	INTJ NOUN NUM	-0.29226524
-1.7348586	X NOUN NUM	-0.29226524
-1.324959	SYM NOUN NUM	-0.9494233
-1.8377668	<s> PUNCT NUM	-0.7902316
-1.2589865	ADP PUNCT NUM	-0.75180763
-1.3818467	DET PUNCT NUM	-0.5894778
-1.2380146	PROPN PUNCT NUM	-1.6570208
-1.6696699	CCONJ PUNCT NUM	-0.29209697
-1.2803032	NOUN PUNCT NUM	-1.6370115
-1.3241038	PUNCT PUNCT NUM	-0.8974238
-1.1670713	NUM PUNCT NUM	-1.732075
-1.2356601	ADJ PUNCT NUM	-0.89848256
-1.4233181	SCONJ PUNCT NUM	-0.56970966
-1.3110902	VERB PUNCT NUM	-0.97405404
-1.6754267	PART PUNCT NUM	-0.28027633
-1.3045099	ADV PUNCT NUM	-0.9667607
-1.5440917	AUX PUNCT NUM	-0.2862294
-1.5077353	PRON PUNCT NUM	-0.506394
-1.506233	INTJ PUNCT NUM	-0.4732526
-1.5764717	X PUNCT NUM	-0.28027633
-1.800415	<s> NUM NUM	-0.60649484
-1.1645186	ADP NUM NUM	-1.2012973
-1.1594243	DET NUM NUM	-0.8953059
-1.3499112	PROPN NUM NUM	-0.79626095
-1.0267073	CCONJ NUM NUM	-0.63295346
-1.1977571	NOUN NUM NUM	-0.556898
-1.1024458	PUNCT NUM NUM	-0.80734015
-1.1916695	NUM NUM NUM	-0.6298902
-1.2526346	ADJ NUM NUM	-0.43511373
-1.190413	SCONJ NUM NUM	-1.0071034
-1.130377	VERB NUM NUM	-1.084091
-0.99067676	PART NUM NUM	-0.73930544
-0.9866413	ADV NUM NUM	-1.0946277
-1.1656067	AUX NUM NUM	-0.3946873
-1.3271058	PRON NUM NUM	-0.42725292
-0.9601537	SYM NUM NUM	-1.0280068
-2.5583262	<s> ADJ NUM	-0.39161694
-1.2431154	ADP ADJ NUM	-0.8200588
-1.2001936	DET ADJ NUM	-1.6058409
-1.3135849	PROPN ADJ NUM	-0.28225166
-1.2537394	CCONJ ADJ NUM	-0.4604696
-1.5928092	NOUN ADJ NUM	-0.3426313
-1.3666332	PUNCT ADJ NUM	-0.6298902
-1.3721535	NUM ADJ NUM	-0.3043522
-1.4609241	ADJ ADJ NUM	-0.5504653
-1.60794	SCONJ ADJ NUM	-0.28473347
-1.3027945	VERB ADJ NUM	-0.61349726
-1.6956503	PART ADJ NUM	-0.47105217
-1.3448659	ADV ADJ NUM	-0.59415054
-1.7541772	AUX ADJ NUM	-0.29226524
-1.5801338	PRON ADJ NUM	-0.70275265
-1.4250299	INTJ ADJ NUM	-0.29226524
-1.532166	X ADJ NUM	-0.29226524
-1.7769918	<s> SCONJ NUM	-0.75454485
-1.2567477	ADP SCONJ NUM	-0.3729658
-1.1809918	DET SCONJ NUM	-0.29226524
-1.1900233	PROPN SCONJ NUM	-0.7412962
-1.3362827	CCONJ SCONJ NUM	-0.5596247
-1.1791408	NOUN SCONJ NUM	-1.0477664
-1.270803	PUNCT SCONJ NUM	-0.5892205
-0.9931475	NUM SCONJ NUM	-0.3023142
-0.9736915	ADJ SCONJ NUM	-1.7137839
-1.4356472	SCONJ SCONJ NUM	-0.28473347
-1.1295164	VERB SCONJ NUM	-1.1195914
-1.4412878	PART SCONJ NUM	-0.29226524
-1.2652273	ADV SCONJ NUM	-0.49229556
-1.3449001	AUX SCONJ NUM	-0.36926097
-1.3131294	PRON SCONJ NUM	-0.28722954
-1.0996386	INTJ SCONJ NUM	-0.29226524
-0.757969	X SCONJ NUM	-0.29226524
-2.2865927	<s> VERB NUM	-0.5048742
-1.2664337	ADP VERB NUM	-0.78230643
-1.216512	DET VERB NUM	-1.1704464
-1.2486945	PROPN VERB NUM	-1.2610412
-1.2433575	CCONJ VERB NUM	-0.972149
-1.2202034	NOUN VERB NUM	-1.3999419
-1.2665912	PUNCT VERB NUM	-1.1456364
-1.4199867	NUM VERB NUM	-0.52409595
-1.4206756	ADJ VERB NUM	-0.3774479
-1.377445	SCONJ VERB NUM	-0.3928421
-1.2099485	VERB VERB NUM	-0.6014452
-1.2345122	PART VERB NUM	-1.2534691
-1.219851	ADV VERB NUM	-1.1909038
-1.230893	AUX VERB NUM	-1.4680488
-1.2359233	PRON VERB NUM	-1.3143306
-1.5295665	INTJ VERB NUM	-0.28225166
-1.428397	X VERB NUM	-0.31260118
-1.3096632	SYM VERB NUM	-0.29226524
-2.4323356	<s> PART NUM	-0.29226524
-0.85212535	ADP PART NUM	-0.92981595
-1.1536036	PROPN PART NUM	-0.9712174
-1.4313906	CCONJ PART NUM	-0.2959321
-1.315305	NOUN PART NUM	-0.7698492
-1.7080007	PUNCT PART NUM	-0.2773301
-0.7008419	NUM PART NUM	-0.9929393
-1.12034	ADJ PART NUM	-0.6136312
-1.5349985	SCONJ PART NUM	-0.28225166
-1.2868847	VERB PART NUM	-0.37859315
-1.3461348	ADV PART NUM	-0.6053822
-1.4323341	AUX PART NUM	-0.43753994
-1.5491835	PRON PART NUM	-0.2773301
-1.7471507	<s> ADV NUM	-1.0853863
-1.1000788	ADP ADV NUM	-1.3547895
-1.4621319	DET ADV NUM	-0.694988
-1.4063243	PROPN ADV NUM	-0.7132015
-1.225147	CCONJ ADV NUM	-0.86091334
-1.2978841	NOUN ADV NUM	-1.0137475
-1.2285906	PUNCT ADV NUM	-1.213912
-1.4586335	NUM ADV NUM	-0.2836681
-1.4470637	ADJ ADV NUM	-0.5454006
-1.1189268	SCONJ ADV NUM	-0.9060382
-1.24864	VERB ADV NUM	-1.3916126
-1.5893523	PART ADV NUM	-0.40560296
-1.2480867	ADV ADV NUM	-1.1769773
-1.1815529	AUX ADV NUM	-1.097315
-1.4900482	PRON ADV NUM	-0.6443005
-1.4589684	INTJ ADV NUM	-0.29226524
-1.3660842	X ADV NUM	-0.29226524
-2.6439717	<s> AUX NUM	-0.28473347
-1.4683179	DET AUX NUM	-0.8617144
-1.1268407	PROPN AUX NUM	-1.1598464
-1.250716	NOUN AUX NUM	-1.0850048
-1.2444352	PUNCT AUX NUM	-0.9914009
-1.4916816	NUM AUX NUM	-0.28473347
-1.6992139	ADJ AUX NUM	-0.29226524
-1.5894673	VERB AUX NUM	-0.35835868
-1.4843326	ADV AUX NUM	-0.7649916
-1.3033975	PRON AUX NUM	-1.2246633
-3.252558	<s> PRON NUM	-0.56040275
-1.2934588	ADP PRON NUM	-1.1838036
-1.797239	PROPN PRON NUM	-0.2773301
-1.7365139	CCONJ PRON NUM	-0.7814734
-1.5471075	PUNCT PRON NUM	-0.2959321
-2.0498967	SCONJ PRON NUM	-0.29226524
-1.288803	VERB PRON NUM	-1.024373
-1.4644767	ADV PRON NUM	-0.40560296
-1.84409	AUX PRON NUM	-0.2773301
-1.878596	PRON PRON NUM	-0.29226524
-2.8622146	<s> INTJ NUM	-0.29226524
-1.3879244	ADP INTJ NUM	-0.29226524
-1.3108428	PROPN INTJ NUM	-0.29226524
-1.7869618	NOUN INTJ NUM	-0.29226524
-1.7238811	VERB INTJ NUM	-0.29226524
-1.3015096	ADV INTJ NUM	-0.28473347
-1.4500911	PRON INTJ NUM	-0.29226524
-1.7644241	ADP X NUM	-0.29226524
-1.7120867	PUNCT X NUM	-0.29716134
-1.7536353	VERB X NUM	-0.29226524
-1.6027601	ADV X NUM	-0.29226524
-1.3470395	<s> SYM NUM	-0.41878158
-0.5953907	ADP SYM NUM	-1.0083302
-0.503235	DET SYM NUM	-0.68450284
-0.763458	PROPN SYM NUM	-0.5019993
-0.2687073	CCONJ SYM NUM	-1.392719
-0.73807174	NOUN SYM NUM	-0.5522989
-0.6617421	PUNCT SYM NUM	-0.89386725
-0.26931188	NUM SYM NUM	-1.3273873
-0.9094782	ADJ SYM NUM	-0.3855405
-0.54587495	SCONJ SYM NUM	-0.5473392
-0.72072357	VERB SYM NUM	-0.8382162
-0.18837807	PART SYM NUM	-0.528208
-0.40784732	ADV SYM NUM	-0.6419101
-0.96301365	AUX SYM NUM	-0.29226524
-0.75435245	PRON SYM NUM	-0.29209697
-0.78523904	X SYM NUM	-0.29226524
-0.67818457	SYM SYM NUM	-0.28473347
-1.1316328	<s> ADP ADJ	-1.6531184
-1.0446948	ADP ADP ADJ	-1.4042598
-0.96974546	DET ADP ADJ	-0.9461894
-1.0845176	PROPN ADP ADJ	-1.6511571
-1.0629817	CCONJ ADP ADJ	-1.2619228
-1.1804779	NOUN ADP ADJ	-2.7009635
-1.0826511	PUNCT ADP ADJ	-1.664619
-0.9973373	NUM ADP ADJ	-0.9519196
-1.0844849	ADJ ADP ADJ	-1.6659484
-1.0019771	SCONJ ADP ADJ	-1.0929811
-1.2097675	VERB ADP ADJ	-2.339973
-0.92650586	PART ADP ADJ	-0.81734824
-1.1069993	ADV ADP ADJ	-1.6151811
-1.0466957	AUX ADP ADJ	-1.0747546
-1.0335957	PRON ADP ADJ	-1.3611912
-1.1713418	INTJ ADP ADJ	-0.28794536
-1.073399	X ADP ADJ	-0.45048022
-1.0849494	SYM ADP ADJ	-0.29226524
-0.7336965	<s> DET ADJ	-2.281141
-1.1123977	ADP DET ADJ	-2.9476116
-0.9706541	DET DET ADJ	-1.5929396
-0.9279988	PROPN DET ADJ	-1.1457803
-0.9560743	CCONJ DET ADJ	-1.9556903
-1.0699087	NOUN DET ADJ	-1.5741423
-1.0364848	PUNCT DET ADJ	-2.312425
-0.93016326	NUM DET ADJ	-0.7588012
-0.9095051	ADJ DET ADJ	-1.0687131
-1.0056356	SCONJ DET ADJ	-1.9873828
-1.0761905	VERB DET ADJ	-2.720777
-0.8950255	PART DET ADJ	-1.4218199
-1.0386907	ADV DET ADJ	-1.9338886
-1.0108488	AUX DET ADJ	-2.1547348
-0.97130555	PRON DET ADJ	-1.3316514
-1.1234426	INTJ DET ADJ	-0.6467748
-1.1666701	X DET ADJ	-0.48351848
-0.9072235	SYM DET ADJ	-0.29226524
-2.6274765	<s> PROPN ADJ	-0.7675671
-1.3122445	ADP PROPN ADJ	-1.2716805
-1.3218393	DET PROPN ADJ	-1.3255805
-1.2840449	PROPN PROPN ADJ	-1.2817575
-1.3476529	CCONJ PROPN ADJ	-0.60649484
-1.3330274	NOUN PROPN ADJ	-0.6576473
-1.2235084	PUNCT PROPN ADJ	-0.8974613
-1.2007853	NUM PROPN ADJ	-0.62842304
-1.2514642	ADJ PROPN ADJ	-0.8514614
-1.7069035	SCONJ PROPN ADJ	-0.680578
-1.2666657	VERB PROPN ADJ	-0.893226
-1.2885091	PART PROPN ADJ	-0.47155952
-1.7319852	ADV PROPN ADJ	-0.40433723
-1.3046275	AUX PROPN ADJ	-0.4686054
-1.4379016	PRON PROPN ADJ	-0.5596247
-1.4010649	X PROPN ADJ	-0.40433723
-1.5814948	SYM PROPN ADJ	-0.30742723
-1.4961584	<s> CCONJ ADJ	-0.94318134
-1.005507	ADP CCONJ ADJ	-0.89846754
-0.9754296	DET CCONJ ADJ	-0.6739958
-1.100686	PROPN CCONJ ADJ	-1.5156015
-1.1237565	CCONJ CCONJ ADJ	-0.29226524
-1.1390989	NOUN CCONJ ADJ	-2.1714091
-1.2196779	PUNCT CCONJ ADJ	-1.7002827
-1.0543079	NUM CCONJ ADJ	-0.8357513
-1.0320382	ADJ CCONJ ADJ	-2.1685913
-1.3582852	SCONJ CCONJ ADJ	-0.29226524
-1.0606015	VERB CCONJ ADJ	-1.0818758
-1.1839199	PART CCONJ ADJ	-0.4682387
-1.0976058	ADV CCONJ ADJ	-0.7611171
-0.9478219	AUX CCONJ ADJ	-0.6845634
-1.0806638	PRON CCONJ ADJ	-0.548014
-1.0830545	INTJ CCONJ ADJ	-0.29226524
-1.1180344	X CCONJ ADJ	-0.29226524
-2.2097225	<s> NOUN ADJ	-0.7447015
-1.2296871	ADP NOUN ADJ	-1.3429749
-1.2431027	DET NOUN ADJ	-1.6692153
-1.2951108	PROPN NOUN ADJ	-0.89098346
-1.1603853	CCONJ NOUN ADJ	-0.9387654
-1.2197638	NOUN NOUN ADJ	-1.5247655
-1.2527295	PUNCT NOUN ADJ	-1.280355
-1.210139	NUM NOUN ADJ	-1.3091605
-1.2109601	ADJ NOUN ADJ	-1.6623726
-1.356743	SCONJ NOUN ADJ	-0.6265715
-1.2066294	VERB NOUN ADJ	-1.3066767
-1.4837375	PART NOUN ADJ	-0.65257275
-1.1639314	ADV NOUN ADJ	-0.56040275
-1.1944864	AUX NOUN ADJ	-0.596032
-1.312725	PRON NOUN ADJ	-1.0207472
-1.1976511	INTJ NOUN ADJ	-0.8095021
-1.400889	X NOUN ADJ	-0.3928421
-1.5514665	SYM NOUN ADJ	-0.3043522
-1.3804203	<s> PUNCT ADJ	-1.0312134
-1.0824587	ADP PUNCT ADJ	-1.4707241
-1.138107	DET PUNCT ADJ	-1.6735184
-1.2131846	PROPN PUNCT ADJ	-1.7756954
-1.2030072	CCONJ PUNCT ADJ	-1.0601223
-1.2291371	NOUN PUNCT ADJ	-2.1931245
-1.2271609	PUNCT PUNCT ADJ	-1.3337
-1.1670713	NUM PUNCT ADJ	-1.2371815
-1.1812869	ADJ PUNCT ADJ	-1.9187931
-1.1163995	SCONJ PUNCT ADJ	-0.77208215
-1.194549	VERB PUNCT ADJ	-1.5397136
-1.18769	PART PUNCT ADJ	-1.0385448
-1.2143048	ADV PUNCT ADJ	-1.5446365
-1.1884133	AUX PUNCT ADJ	-0.84436244
-1.2443442	PRON PUNCT ADJ	-1.0451753
-1.4063077	INTJ PUNCT ADJ	-0.7256988
-1.4504352	X PUNCT ADJ	-0.51901007
-1.0795165	<s> NUM ADJ	-1.3888184
-1.1936476	ADP NUM ADJ	-1.6549749
-0.9627565	DET NUM ADJ	-1.4535108
-1.207574	PROPN NUM ADJ	-0.9529426
-0.93504226	CCONJ NUM ADJ	-0.9763895
-1.1482424	NOUN NUM ADJ	-0.9043742
-1.1367712	PUNCT NUM ADJ	-1.1749386
-0.96391374	NUM NUM ADJ	-0.98094094
-1.0249888	ADJ NUM ADJ	-0.7982806
-1.0752084	SCONJ NUM ADJ	-1.0855349
-1.1274064	VERB NUM ADJ	-1.3958931
-1.140275	PART NUM ADJ	-0.8773627
-1.0510058	ADV NUM ADJ	-1.1384199
-1.075941	AUX NUM ADJ	-1.1182222
-1.051686	PRON NUM ADJ	-0.96711004
-1.1406279	INTJ NUM ADJ	-0.29226524
-1.3305395	SYM NUM ADJ	-0.46573377
-1.0553205	<s> ADJ ADJ	-1.6900647
-1.1163697	ADP ADJ ADJ	-2.1127388
-1.1080577	DET ADJ ADJ	-2.3223875
-1.0018415	PROPN ADJ ADJ	-1.0845104
-0.9763708	CCONJ ADJ ADJ	-1.7510792
-1.1178948	NOUN ADJ ADJ	-1.1949332
-1.0394117	PUNCT ADJ ADJ	-1.7158506
-0.8391336	NUM ADJ ADJ	-1.4133992
-0.9843927	ADJ ADJ ADJ	-2.0634246
-0.95809406	SCONJ ADJ ADJ	-1.224338
-1.1123335	VERB ADJ ADJ	-1.8221859
-1.113439	PART ADJ ADJ	-1.40587
-1.111394	ADV ADJ ADJ	-1.5386924
-1.1305944	AUX ADJ ADJ	-1.0990307
-1.0594043	PRON ADJ ADJ	-1.6089711
-0.9709905	INTJ ADJ ADJ	-0.48351848
-1.1021935	X ADJ ADJ	-0.47840542
-0.8327633	SYM ADJ ADJ	-0.6106671
-1.1400177	<s> SCONJ ADJ	-1.2551746
-1.1903764	ADP SCONJ ADJ	-0.6495258
-1.2019224	DET SCONJ ADJ	-0.2773301
-1.2836182	PROPN SCONJ ADJ	-0.6988033
-1.042107	CCONJ SCONJ ADJ	-0.8279789
-1.1490756	NOUN SCONJ ADJ	-1.3109143
-1.088453	PUNCT SCONJ ADJ	-1.1309779
-1.1143601	NUM SCONJ ADJ	-0.3023142
-1.0686817	ADJ SCONJ ADJ	-1.1368665
-1.2134936	SCONJ SCONJ ADJ	-0.7528652
-1.1063203	VERB SCONJ ADJ	-1.5678095
-1.4685028	PART SCONJ ADJ	-0.29226524
-1.0372301	ADV SCONJ ADJ	-0.87316144
-1.108516	AUX SCONJ ADJ	-0.94641256
-1.2047911	PRON SCONJ ADJ	-0.6739958
-1.3812702	<s> VERB ADJ	-1.0848125
-1.102254	ADP VERB ADJ	-1.7228304
-1.1540867	DET VERB ADJ	-1.7901492
-1.1646163	PROPN VERB ADJ	-1.6413808
-1.1705836	CCONJ VERB ADJ	-1.699583
-1.1954427	NOUN VERB ADJ	-2.0848393
-1.1504339	PUNCT VERB ADJ	-1.7456174
-1.151887	NUM VERB ADJ	-0.982622
-1.1167852	ADJ VERB ADJ	-1.0273069
-1.034833	SCONJ VERB ADJ	-0.8431733
-1.1127726	VERB VERB ADJ	-1.2555575
-1.1766921	PART VERB ADJ	-2.169841
-1.162031	ADV VERB ADJ	-1.806062
-1.173073	AUX VERB ADJ	-2.2225902
-1.2079748	PRON VERB ADJ	-2.1062124
-1.0297863	INTJ VERB ADJ	-0.549156
-0.9755798	X VERB ADJ	-0.6481146
-1.3096632	SYM VERB ADJ	-0.30742723
-1.5019383	<s> PART ADJ	-0.3210105
-1.214357	ADP PART ADJ	-0.43423486
-0.8222244	DET PART ADJ	-0.28225166
-0.9964261	PROPN PART ADJ	-1.9287351
-1.1692431	CCONJ PART ADJ	-0.7967324
-1.0644076	NOUN PART ADJ	-1.7280383
-1.0503877	PUNCT PART ADJ	-0.66841
-1.369479	NUM PART ADJ	-0.6084572
-0.997013	ADJ PART ADJ	-0.43511373
-0.88027173	SCONJ PART ADJ	-0.65382415
-1.0664485	VERB PART ADJ	-1.3727403
-1.0234369	ADV PART ADJ	-0.737723
-1.0762714	AUX PART ADJ	-1.5248778
-1.0259306	PRON PART ADJ	-0.5867039
-0.90228283	X PART ADJ	-0.29226524
-1.3723671	<s> ADV ADJ	-1.3181353
-1.0975758	ADP ADV ADJ	-1.4550099
-1.0049807	DET ADV ADJ	-2.031408
-1.1310905	PROPN ADV ADJ	-0.74434316
-1.1805319	CCONJ ADV ADJ	-1.4902321
-1.2287041	NOUN ADV ADJ	-1.4446582
-1.1685208	PUNCT ADV ADJ	-1.5563827
-0.9253885	NUM ADV ADJ	-0.8139197
-1.1045433	ADJ ADV ADJ	-0.9408807
-1.0357445	SCONJ ADV ADJ	-0.75248104
-1.1566577	VERB ADV ADJ	-2.1182299
-1.0278476	PART ADV ADJ	-1.4586976
-1.1493	ADV ADV ADJ	-1.6967238
-1.0172532	AUX ADV ADJ	-2.0468185
-1.0376453	PRON ADV ADJ	-1.2576553
-1.3178942	INTJ ADV ADJ	-0.28473347
-0.77958965	X ADV ADJ	-0.38353342
-0.9551852	SYM ADV ADJ	-0.2773301
-1.7594619	<s> AUX ADJ	-0.5978128
-1.2405047	ADP AUX ADJ	-0.3335401
-1.0634125	DET AUX ADJ	-1.1621778
-1.0628957	PROPN AUX ADJ	-1.5538222
-1.3785561	CCONJ AUX ADJ	-0.36410815
-1.1441264	NOUN AUX ADJ	-2.0107162
-1.2253165	PUNCT AUX ADJ	-1.1787007
-1.131923	NUM AUX ADJ	-0.41481537
-1.085834	ADJ AUX ADJ	-0.7896236
-1.0874097	VERB AUX ADJ	-0.83837444
-1.0967766	PART AUX ADJ	-0.38939738
-1.0793765	ADV AUX ADJ	-0.84995216
-0.98887813	AUX AUX ADJ	-0.46159303
-1.1219298	PRON AUX ADJ	-2.0165682
-1.2096359	X AUX ADJ	-0.29226524
-1.813093	<s> PRON ADJ	-1.276934
-1.1711655	ADP PRON ADJ	-2.2332847
-1.1600438	DET PRON ADJ	-0.9503738
-1.2764007	PROPN PRON ADJ	-0.5969621
-1.1264114	CCONJ PRON ADJ	-1.3302972
-1.1091774	NOUN PRON ADJ	-0.77820575
-1.1044813	PUNCT PRON ADJ	-1.2293978
-1.41111	NUM PRON ADJ	-0.28225166
-1.1897604	ADJ PRON ADJ	-0.63295346
-1.0665978	SCONJ PRON ADJ	-1.1304765
-1.1492505	VERB PRON ADJ	-2.0547166
-1.0616754	PART PRON ADJ	-0.64242995
-1.082851	ADV PRON ADJ	-0.8595948
-1.0801903	AUX PRON ADJ	-1.2280773
-1.2040147	PRON PRON ADJ	-0.64169216
-1.2713522	INTJ PRON ADJ	-0.2773301
-1.1336784	X PRON ADJ	-0.29226524
-1.0293344	SYM PRON ADJ	-0.65960974
-2.0120337	<s> INTJ ADJ	-0.35147366
-0.9064489	DET INTJ ADJ	-0.2773301
-1.3519728	PROPN INTJ ADJ	-0.29226524
-1.4337693	CCONJ INTJ ADJ	-0.29226524
-1.4514301	NOUN INTJ ADJ	-0.5596247
-1.2879508	PUNCT INTJ ADJ	-0.32642174
-1.3658239	ADJ INTJ ADJ	-0.29226524
-1.3828878	VERB INTJ ADJ	-0.40433723
-1.0946213	ADV INTJ ADJ	-0.28027633
-1.3616722	PRON INTJ ADJ	-0.29226524
-1.1085672	INTJ INTJ ADJ	-0.48351848
-1.6857882	<s> X ADJ	-0.6084572
-1.1480118	ADP X ADJ	-0.40433723
-0.8983012	DET X ADJ	-0.38353342
-1.0733694	PROPN X ADJ	-0.40433723
-0.9798496	NOUN X ADJ	-0.71412873
-1.2405162	PUNCT X ADJ	-0.4312814
-1.1074831	ADJ X ADJ	-0.38353342
-1.3731222	VERB X ADJ	-0.43753994
-0.975347	ADV X ADJ	-0.28473347
-1.1208444	AUX X ADJ	-0.29226524
-0.9923942	PRON X ADJ	-0.29226524
-0.99300253	INTJ X ADJ	-0.53444993
-1.0543464	X X ADJ	-0.57090104
-2.239686	<s> SYM ADJ	-0.29226524
-1.3415952	ADP SYM ADJ	-0.44572994
-1.1438043	DET SYM ADJ	-0.43753994
-0.8985323	PROPN SYM ADJ	-0.5596247
-1.314922	CCONJ SYM ADJ	-0.29226524
-0.7939406	NOUN SYM ADJ	-0.70275265
-0.9940819	PUNCT SYM ADJ	-0.34708464
-0.52413356	ADJ SYM ADJ	-0.71315855
-1.205075	VERB SYM ADJ	-0.42210007
-1.2404218	ADV SYM ADJ	-0.29226524
-1.0787548	PRON SYM ADJ	-0.29226524
-0.72600347	INTJ SYM ADJ	-0.29226524
-2.63701	<s> ADP SCONJ	-0.5288854
-1.4214609	ADP ADP SCONJ	-0.40172267
-1.5430433	DET ADP SCONJ	-0.3043522
-1.5964328	PROPN ADP SCONJ	-0.3004152
-1.5203706	CCONJ ADP SCONJ	-0.40433723
-1.3011955	NOUN ADP SCONJ	-0.88296705
-1.3172565	PUNCT ADP SCONJ	-0.7219325
-1.9393685	NUM ADP SCONJ	-0.29226524
-1.5963386	ADJ ADP SCONJ	-0.6274517
-1.9115444	SCONJ ADP SCONJ	-0.29226524
-1.2425628	VERB ADP SCONJ	-1.3403249
-1.6196715	PART ADP SCONJ	-0.29213434
-1.2882217	ADV ADP SCONJ	-0.54951394
-1.663071	AUX ADP SCONJ	-0.47202337
-1.7223848	PRON ADP SCONJ	-0.57172954
-1.1007526	SYM ADP SCONJ	-0.29226524
-4.0882015	<s> DET SCONJ	-0.29226524
-1.6139963	ADP DET SCONJ	-0.632366
-1.8790752	DET DET SCONJ	-0.2773301
-1.9933897	NOUN DET SCONJ	-0.2773301
-1.7405307	PUNCT DET SCONJ	-0.2959321
-1.866085	NUM DET SCONJ	-0.29226524
-1.6902738	VERB DET SCONJ	-0.4413243
-2.1155586	ADV DET SCONJ	-0.29226524
-1.9817246	PRON DET SCONJ	-0.29226524
-3.377376	<s> PROPN SCONJ	-0.35445046
-1.3181771	ADP PROPN SCONJ	-1.2450486
-1.872763	DET PROPN SCONJ	-0.61219776
-1.3569943	PROPN PROPN SCONJ	-1.0961865
-1.7760957	CCONJ PROPN SCONJ	-0.42162216
-1.6490468	NOUN PROPN SCONJ	-0.40433723
-1.9183779	PUNCT PROPN SCONJ	-0.33842662
-1.8060493	NUM PROPN SCONJ	-0.35445046
-1.2956862	ADJ PROPN SCONJ	-0.5332506
-1.3881687	VERB PROPN SCONJ	-0.7226406
-1.5413661	PART PROPN SCONJ	-0.29226524
-1.9145639	PRON PROPN SCONJ	-0.29226524
-1.5660565	INTJ PROPN SCONJ	-0.29226524
-1.5244936	X PROPN SCONJ	-0.29226524
-1.6039351	SYM PROPN SCONJ	-0.45048022
-1.3487337	<s> CCONJ SCONJ	-1.1436886
-1.0197617	ADP CCONJ SCONJ	-0.6084572
-1.627587	DET CCONJ SCONJ	-0.29226524
-1.4511331	PROPN CCONJ SCONJ	-0.5728382
-1.3139701	NOUN CCONJ SCONJ	-1.1696367
-1.2330893	PUNCT CCONJ SCONJ	-1.4526677
-1.7735968	NUM CCONJ SCONJ	-0.31260118
-1.4802803	ADJ CCONJ SCONJ	-0.69744855
-1.3499113	VERB CCONJ SCONJ	-0.7405713
-1.4769237	PART CCONJ SCONJ	-0.29226524
-1.313729	ADV CCONJ SCONJ	-0.47977474
-1.5589075	PRON CCONJ SCONJ	-0.49760172
-1.1243988	INTJ CCONJ SCONJ	-0.2773301
-2.7377272	<s> NOUN SCONJ	-0.4970731
-1.29436	ADP NOUN SCONJ	-1.4039501
-1.2453922	DET NOUN SCONJ	-1.975669
-1.297753	PROPN NOUN SCONJ	-0.95148027
-1.6134144	CCONJ NOUN SCONJ	-0.8656448
-1.363491	NOUN NOUN SCONJ	-1.3454247
-1.3603656	PUNCT NOUN SCONJ	-0.725108
-1.2122854	NUM NOUN SCONJ	-0.98384154
-1.292304	ADJ NOUN SCONJ	-1.8082951
-1.5448456	SCONJ NOUN SCONJ	-0.3008643
-1.263187	VERB NOUN SCONJ	-1.3605248
-1.3122027	PART NOUN SCONJ	-0.86577153
-1.5044317	ADV NOUN SCONJ	-0.5706687
-1.558226	AUX NOUN SCONJ	-0.7058415
-1.2365965	PRON NOUN SCONJ	-1.2368731
-1.5434443	X NOUN SCONJ	-0.2862294
-1.5624831	SYM NOUN SCONJ	-0.2862294
-1.5536495	<s> PUNCT SCONJ	-0.92460144
-1.4144502	ADP PUNCT SCONJ	-0.6220405
-1.2846091	DET PUNCT SCONJ	-0.6224457
-1.2923877	PROPN PUNCT SCONJ	-1.3701775
-1.3518497	CCONJ PUNCT SCONJ	-0.77753645
-1.2291371	NOUN PUNCT SCONJ	-1.8600183
-1.3241038	PUNCT PUNCT SCONJ	-0.9908558
-1.2572764	NUM PUNCT SCONJ	-0.7180015
-1.2656327	ADJ PUNCT SCONJ	-1.1410768
-1.2738154	SCONJ PUNCT SCONJ	-0.61829627
-1.248922	VERB PUNCT SCONJ	-1.2111155
-1.5464767	PART PUNCT SCONJ	-0.3022472
-1.2423416	ADV PUNCT SCONJ	-1.2427714
-1.2983543	AUX PUNCT SCONJ	-0.36667693
-1.3315343	PRON PUNCT SCONJ	-0.82186294
-1.3251278	INTJ PUNCT SCONJ	-0.58077943
-1.3528677	X PUNCT SCONJ	-0.28848302
-2.5426898	<s> NUM SCONJ	-0.38353342
-1.3644775	ADP NUM SCONJ	-0.4701268
-1.7707069	DET NUM SCONJ	-0.29226524
-1.4881886	PROPN NUM SCONJ	-0.45432624
-1.7586391	CCONJ NUM SCONJ	-0.29226524
-1.7003858	NOUN NUM SCONJ	-0.29226524
-1.4161187	PUNCT NUM SCONJ	-0.7814734
-1.9287336	NUM NUM SCONJ	-0.2773301
-1.5844455	ADJ NUM SCONJ	-0.3023142
-1.2003168	SCONJ NUM SCONJ	-0.74675995
-1.4093918	VERB NUM SCONJ	-0.50593174
-1.6470339	PART NUM SCONJ	-0.29226524
-1.4529994	ADV NUM SCONJ	-0.78972244
-1.8925699	SYM NUM SCONJ	-0.29226524
-1.6324489	<s> ADJ SCONJ	-1.0707434
-1.1441469	ADP ADJ SCONJ	-1.3983386
-1.2690719	DET ADJ SCONJ	-0.7644409
-1.3084172	PROPN ADJ SCONJ	-0.51901007
-1.152549	CCONJ ADJ SCONJ	-0.9401567
-1.1178948	NOUN ADJ SCONJ	-1.0159087
-1.2668777	PUNCT ADJ SCONJ	-1.0445354
-1.6115034	NUM ADJ SCONJ	-0.29226524
-1.3893192	ADJ ADJ SCONJ	-0.5159731
-1.2009336	SCONJ ADJ SCONJ	-0.8197526
-1.1958932	VERB ADJ SCONJ	-1.6152984
-1.113439	PART ADJ SCONJ	-0.91074944
-1.1656744	ADV ADJ SCONJ	-1.5393882
-1.089178	AUX ADJ SCONJ	-1.4883308
-1.1733961	PRON ADJ SCONJ	-0.9493516
-1.412312	INTJ ADJ SCONJ	-0.29226524
-1.3727605	X ADJ SCONJ	-0.29226524
-1.4612305	SYM ADJ SCONJ	-0.29226524
-2.535309	<s> SCONJ SCONJ	-0.4100088
-1.6074529	ADP SCONJ SCONJ	-0.4686988
-1.3718686	DET SCONJ SCONJ	-0.29226524
-1.29107	PROPN SCONJ SCONJ	-0.54785067
-1.5948036	CCONJ SCONJ SCONJ	-0.36926097
-1.1177202	NOUN SCONJ SCONJ	-1.1815253
-1.2383364	PUNCT SCONJ SCONJ	-0.982622
-1.5212644	NUM SCONJ SCONJ	-0.29226524
-1.3417773	ADJ SCONJ SCONJ	-0.61203265
-1.6953549	SCONJ SCONJ SCONJ	-0.29226524
-1.2056677	VERB SCONJ SCONJ	-1.1616764
-1.3503275	ADV SCONJ SCONJ	-0.42514443
-1.2675719	AUX SCONJ SCONJ	-0.38695937
-1.3497227	PRON SCONJ SCONJ	-0.5799923
-1.8038243	<s> VERB SCONJ	-0.8077075
-1.160702	ADP VERB SCONJ	-0.972173
-1.1841786	DET VERB SCONJ	-1.2050956
-1.1646163	PROPN VERB SCONJ	-1.8455981
-1.2433575	CCONJ VERB SCONJ	-1.3382297
-1.1954427	NOUN VERB SCONJ	-1.8535532
-1.2046406	PUNCT VERB SCONJ	-1.5864203
-1.2403275	NUM VERB SCONJ	-0.4568622
-1.1167852	ADJ VERB SCONJ	-0.8703894
-1.3086784	SCONJ VERB SCONJ	-0.41829553
-1.247858	VERB VERB SCONJ	-0.84905314
-1.2665912	PART VERB SCONJ	-1.7484086
-1.1899796	ADV VERB SCONJ	-1.6868293
-1.173073	AUX VERB SCONJ	-1.886676
-1.1817167	PRON VERB SCONJ	-1.9627037
-1.6233032	INTJ VERB SCONJ	-0.47840542
-1.2925189	X VERB SCONJ	-0.28473347
-1.4435698	SYM VERB SCONJ	-0.29226524
-1.5733725	<s> PART SCONJ	-0.63711226
-1.5097754	ADP PART SCONJ	-0.2773301
-1.8896675	PROPN PART SCONJ	-0.29226524
-1.592201	CCONJ PART SCONJ	-0.30351126
-1.5399708	NOUN PART SCONJ	-0.55341977
-1.3015975	PUNCT PART SCONJ	-0.6791749
-1.6699451	ADJ PART SCONJ	-0.29226524
-1.6183983	VERB PART SCONJ	-0.4306549
-1.7200716	ADV PART SCONJ	-0.29226524
-1.4501418	AUX PART SCONJ	-0.55341977
-1.7199492	PRON PART SCONJ	-0.29226524
-1.53217	<s> ADV SCONJ	-1.3760362
-1.5628213	ADP ADV SCONJ	-0.4158766
-1.5790603	DET ADV SCONJ	-0.3480047
-1.3555508	PROPN ADV SCONJ	-0.6476508
-1.278902	CCONJ ADV SCONJ	-0.89250314
-1.2066532	NOUN ADV SCONJ	-1.2835604
-1.1489793	PUNCT ADV SCONJ	-1.4030024
-1.7149653	NUM ADV SCONJ	-0.29226524
-1.1863835	ADJ ADV SCONJ	-0.68517655
-1.2259066	SCONJ ADV SCONJ	-0.60649484
-1.2544689	VERB ADV SCONJ	-1.1818218
-1.2855786	PART ADV SCONJ	-0.5299196
-1.1870005	ADV ADV SCONJ	-1.0173484
-1.3871685	AUX ADV SCONJ	-0.6348132
-1.3526906	PRON ADV SCONJ	-0.7301996
-3.0051131	<s> AUX SCONJ	-0.29226524
-1.4159415	ADP AUX SCONJ	-0.40433723
-1.3231053	DET AUX SCONJ	-0.6004112
-1.3776783	PROPN AUX SCONJ	-0.65975857
-1.6597639	CCONJ AUX SCONJ	-0.29226524
-1.2437065	NOUN AUX SCONJ	-1.3916272
-1.3378419	PUNCT AUX SCONJ	-0.72483647
-1.7156157	NUM AUX SCONJ	-0.31260118
-1.0962917	ADJ AUX SCONJ	-0.6639468
-1.1403128	VERB AUX SCONJ	-0.83828026
-1.2857424	ADV AUX SCONJ	-0.68125284
-1.3376108	PRON AUX SCONJ	-0.6950411
-2.95966	<s> PRON SCONJ	-0.5812417
-1.4193037	ADP PRON SCONJ	-0.9784758
-1.9202379	PROPN PRON SCONJ	-0.31260118
-1.7210839	CCONJ PRON SCONJ	-0.3023142
-2.0424042	NOUN PRON SCONJ	-0.29226524
-1.3529316	PUNCT PRON SCONJ	-0.41214228
-2.0250707	SCONJ PRON SCONJ	-0.29226524
-1.2524871	VERB PRON SCONJ	-1.3475108
-1.6521707	ADV PRON SCONJ	-0.3773285
-1.1954848	AUX PRON SCONJ	-0.60774547
-1.7121589	PRON PRON SCONJ	-0.29226524
-2.0336628	<s> INTJ SCONJ	-0.51901007
-1.2007585	ADP INTJ SCONJ	-0.2773301
